{"version":"0.5.4","metadata":{"date":{"year":2025,"month":10,"day":28,"hour":11,"minute":49,"second":10},"loudness":-33.54490661621094,"gain":0.7382246132627152,"name":"[POW] BE100DLX EL34 Juice #28 DI - xSTD","modeled_by":"2dor","gear_type":"amp","gear_make":"tz-make","gear_model":"tz-model","tone_type":"overdrive","input_level_dbu":18.995,"output_level_dbu":13.195,"training":{"settings":{"ignore_checks":false},"data":{"latency":{"manual":null,"calibration":{"algorithm_version":1,"delays":[47],"safety_factor":1,"recommended":46,"warnings":{"matches_lookahead":false,"disagreement_too_high":false}}},"checks":{"version":3,"passed":true}},"validation_esr":0.004369758061326001}},"architecture":"WaveNet","config":{"layers":[{"input_size":1,"condition_size":1,"head_size":8,"channels":8,"kernel_size":6,"dilations":[1,3,9,27,81,243,729],"activation":"Tanh","gated":false,"head_bias":false},{"input_size":8,"condition_size":1,"head_size":8,"channels":8,"kernel_size":6,"dilations":[1,3,9,27,81,243,729],"activation":"Tanh","gated":false,"head_bias":false},{"input_size":8,"condition_size":1,"head_size":8,"channels":8,"kernel_size":15,"dilations":[1,16],"activation":"Tanh","gated":false,"head_bias":false},{"input_size":8,"condition_size":1,"head_size":1,"channels":8,"kernel_size":6,"dilations":[1,3,9,27,81,243,729],"activation":"Tanh","gated":false,"head_bias":true}],"head":null,"head_scale":0.99},"weights":[3.4987590312957764,2.099436044692993,-1.7492098808288574,-1.2455105781555176,-1.3811516761779785,0.7624578475952148,2.9271278381347656,1.1478004455566406,0.0856175571680069,-0.34485018253326416,-0.22455309331417084,-0.15162257850170135,0.15116040408611298,1.1940523386001587,-0.0532403364777565,-0.1920703947544098,-0.16607879102230072,-0.0602954663336277,0.06541159003973007,0.3845256268978119,0.046050526201725006,0.2854980230331421,0.13846437633037567,0.23512917757034302,-0.1574167013168335,-0.3436456322669983,0.12436334788799286,0.004060585983097553,0.056936223059892654,0.08094259351491928,-0.18777379393577576,-0.18860267102718353,-0.09596215933561325,0.1198159009218216,0.10933364927768707,0.006153982598334551,-0.25250402092933655,-0.31847432255744934,0.07847128808498383,-0.1175147294998169,-0.18503378331661224,-0.20431773364543915,0.1822872906923294,0.30823472142219543,-0.006148465443402529,-0.48367375135421753,-0.16288918256759644,-0.10519424825906754,0.21935097873210907,1.2274706363677979,0.08368819206953049,-0.043027110397815704,-0.13996826112270355,-0.12648345530033112,0.22364218533039093,0.2838289141654968,-0.05144960805773735,-0.4759713113307953,-0.5459092259407043,0.47376173734664917,0.11899177730083466,-1.6027663946151733,-0.08489041030406952,0.19008994102478027,0.00676593417301774,0.3295852243900299,0.03980833664536476,-0.5679801106452942,0.11053802818059921,-0.004882431589066982,0.006884077098220587,-0.29241472482681274,0.10085355490446091,0.6550578474998474,0.15766222774982452,-0.05198467895388603,0.13649298250675201,-0.31107017397880554,0.07666507363319397,0.3602941632270813,-0.1178697869181633,-0.01708860509097576,0.20011542737483978,-0.4697781801223755,0.011275100521743298,0.5680603981018066,-0.038920968770980835,0.05370901897549629,-0.06941266357898712,0.2186771035194397,0.07234523445367813,-0.5634645223617554,0.0060997894033789635,-0.3026488423347473,-0.4964817762374878,0.5462470650672913,0.1998603492975235,-1.550270915031433,-0.1384844332933426,0.036848366260528564,0.015167430974543095,0.36623284220695496,-0.08412554860115051,-0.5924494862556458,-4.989149570465088,-5.535916328430176,-9.896525382995605,-11.66113567352295,-12.14111042022705,-10.119751930236816,-1.8527495861053467,-3.8744568824768066,-3.7345504760742188,-6.866107940673828,-7.758242130279541,-8.522492408752441,1.8240910768508911,3.5795347690582275,3.361541748046875,6.333677291870117,7.2631731033325195,7.718507289886475,1.4726823568344116,3.2762930393218994,2.58941912651062,5.302652835845947,6.15966272354126,6.655430316925049,1.483213186264038,3.4782485961914062,3.2112042903900146,6.325562477111816,6.8506975173950195,7.402884483337402,-1.39905846118927,-3.0327775478363037,-2.889360189437866,-5.4663472175598145,-5.898858547210693,-5.957889080047607,-4.497305393218994,-5.115889549255371,-9.644046783447266,-11.534360885620117,-11.92387580871582,-9.801228523254395,-1.5210275650024414,-3.1329879760742188,-3.0835139751434326,-5.784196376800537,-6.449026584625244,-6.7654643058776855,0.10590333491563797,-0.4091143012046814,-0.27858874201774597,-0.34091421961784363,0.2545263469219208,0.7461470365524292,0.033361293375492096,-0.2862938642501831,-0.11135359853506088,-0.13284626603126526,0.07967258989810944,0.471087247133255,-0.09824691712856293,0.1765783131122589,-0.032429762184619904,0.14180266857147217,-0.31742048263549805,-0.4823804795742035,0.06586222350597382,0.10177209973335266,0.15029947459697723,0.14394696056842804,-0.3033019006252289,-0.32788828015327454,-0.07510501891374588,0.15769647061824799,0.1996551901102066,-0.006656534969806671,-0.1910599172115326,-0.6336984634399414,0.1791256070137024,-0.1692158281803131,0.00026410503778606653,-0.04798317700624466,0.16623759269714355,0.524910569190979,-0.032871998846530914,-0.48256850242614746,-0.280597984790802,-0.11798404157161713,0.042652640491724014,0.9185258150100708,-0.015498407185077667,-0.25788041949272156,-0.12238086760044098,-0.027731072157621384,0.11816272884607315,0.5240604281425476,0.20562852919101715,0.2931177318096161,0.35160452127456665,0.4439305365085602,0.26597559452056885,0.22195293009281158,-0.1563919335603714,-0.0800791084766388,-0.1464073210954666,-0.04976340010762215,-0.0780070498585701,-0.2676965892314911,0.0626564621925354,0.12923304736614227,0.19516980648040771,0.08358529955148697,-0.07417760789394379,0.08532208204269409,0.17604286968708038,0.07792587578296661,0.23274050652980804,0.2662593126296997,0.12163027375936508,0.19499018788337708,-0.00933318492025137,0.2951599657535553,0.11066180467605591,0.04698953405022621,0.05330044776201248,0.2458055466413498,-0.040095940232276917,-0.03298690542578697,-0.14192219078540802,0.10157778114080429,0.05470244586467743,-0.26384952664375305,0.1912425011396408,0.050137683749198914,0.4156705141067505,0.5822495818138123,0.3681301474571228,0.19043521583080292,-0.09854548424482346,-0.14989085495471954,-0.08222823590040207,-0.16873830556869507,0.07048895955085754,-0.2811563313007355,0.6585144400596619,0.8182780742645264,0.9563248753547668,0.9959505200386047,1.859115481376648,1.71791672706604,-0.055730585008859634,0.0202676709741354,-0.18729136884212494,0.2672275900840759,0.7218959927558899,0.9955171942710876,-0.11948459595441818,0.02848861739039421,0.16382138431072235,-0.03861800953745842,-0.6599544286727905,-1.0256391763687134,-0.04331214725971222,0.024030333384871483,0.22164557874202728,-0.08650264143943787,-0.7399348616600037,-1.003483533859253,-0.16164624691009521,-0.0626954510807991,-0.06706642359495163,-0.3709315359592438,-0.6713078618049622,-1.1432892084121704,0.10829073935747147,0.24395500123500824,0.1439284384250641,0.1825457364320755,0.8213773965835571,1.265304684638977,0.6995444893836975,1.0008525848388672,1.0302129983901978,1.0763843059539795,1.7560545206069946,1.766911268234253,-0.02444775402545929,0.13795572519302368,0.05781302601099014,0.23813088238239288,0.7122634649276733,0.8906123638153076,0.24217362701892853,0.21025486290454865,0.40698087215423584,0.3151131570339203,0.30503448843955994,0.3671685457229614,-0.19562317430973053,-0.22010774910449982,-0.08240970224142075,-0.17808939516544342,-0.019253825768828392,-0.12675559520721436,0.16342760622501373,0.21089425683021545,-0.011479770764708519,0.02505100704729557,0.07839404791593552,0.13951146602630615,0.15603205561637878,0.35120144486427307,0.03979368135333061,0.03054480068385601,0.07897474616765976,0.2344895452260971,0.1284799724817276,0.26904234290122986,-0.002666610525920987,0.06828031688928604,0.1251017451286316,0.32044869661331177,-0.012540001422166824,-0.18347308039665222,-0.005274803843349218,-0.11320805549621582,-0.1456943303346634,-0.2870839834213257,0.3497462570667267,0.45371368527412415,0.26512351632118225,0.4140929877758026,0.5220721364021301,0.579122006893158,0.012393823824822903,-0.11940829455852509,-0.1351097822189331,-0.1063016802072525,0.08198533207178116,-0.09955961257219315,-0.0833389088511467,0.04286462813615799,0.01930508390069008,-0.04933487996459007,0.07096286863088608,-0.25642499327659607,-0.05331912264227867,0.00789892952889204,-0.019283320754766464,-0.08035914599895477,0.12935519218444824,0.00834263488650322,-0.058013834059238434,0.14403650164604187,-0.11348957568407059,0.162627711892128,-0.1943543404340744,-0.11990780383348465,-0.11509615182876587,0.18845891952514648,0.06930970400571823,0.28072860836982727,0.032599397003650665,-0.10726131498813629,-0.0974113866686821,0.07105239480733871,-0.10395754128694534,0.23685836791992188,-0.20956926047801971,-0.01543219480663538,-0.13071537017822266,-0.16858577728271484,0.12432665377855301,-0.012475823052227497,0.21029238402843475,0.05518379807472229,0.18807505071163177,-0.07554076611995697,0.08203038573265076,0.07072389870882034,0.2878466248512268,-0.08945915848016739,0.07274807244539261,0.000848276074975729,-0.04657775163650513,-0.057298995554447174,0.10079339146614075,-0.0788012444972992,-0.21118487417697906,-0.17074203491210938,-2.840590000152588,-0.057795945554971695,0.36144962906837463,-1.21487295627594,-0.4525890052318573,0.01055101864039898,0.9130894541740417,-0.35866793990135193,-6.462804794311523,1.2655549049377441,0.3370475471019745,0.10072529315948486,0.7567448019981384,0.7515985369682312,-0.09167221933603287,0.1809249073266983,-0.024058086797595024,-0.1881708800792694,0.6203575134277344,-0.008989103138446808,-0.3751133680343628,0.25659143924713135,-0.34210729598999023,-0.06608603149652481,0.004847267642617226,0.3979983627796173,-0.15235017240047455,-0.0683072879910469,0.1853400319814682,0.590735137462616,0.28661608695983887,-0.1642540693283081,-0.0038716404233127832,-0.06771831959486008,-0.07840463519096375,0.09135496616363525,-0.015455133281648159,0.3169053792953491,-0.04358159005641937,0.08551595360040665,-0.004044631030410528,-0.13580280542373657,0.13865089416503906,-0.003676022868603468,-0.1618642657995224,-0.7223813533782959,-0.250202476978302,-0.09045860171318054,-0.004799721762537956,0.3661370873451233,-0.03141561150550842,-0.01508584525436163,0.01847063936293125,0.5985304117202759,-0.09497644752264023,0.07491100579500198,0.03808816149830818,0.06955181062221527,0.38456881046295166,0.016366705298423767,-0.41749170422554016,0.4671058654785156,-0.006137628108263016,0.15487943589687347,-0.007335800677537918,-0.17199410498142242,-0.11771547794342041,0.056184910237789154,0.034013740718364716,-0.18221208453178406,0.02388751693069935,0.23136954009532928,-0.012188708409667015,-0.2868818938732147,-0.4835360646247864,-0.053943004459142685,0.21241621673107147,0.2499326765537262,0.06774208694696426,0.015302163548767567,0.16787339746952057,-0.28790926933288574,-0.0332733578979969,0.0644906535744667,-0.08372409641742706,0.43989747762680054,0.15692776441574097,0.14142923057079315,-0.06464939564466476,0.10918813943862915,-0.02721523866057396,-0.12650066614151,0.2186833620071411,-0.027265949174761772,-0.0758286789059639,0.09789736568927765,-0.3377269506454468,-0.212509885430336,0.03369959443807602,0.1807631552219391,-0.026484858244657516,0.19448983669281006,0.21645821630954742,0.11823712289333344,0.11992520093917847,0.10138864815235138,0.05012352019548416,-0.016614047810435295,-0.0837027058005333,0.22376401722431183,-0.1117846742272377,-0.003078221110627055,0.028606828302145004,-0.3839608430862427,0.4423762559890747,-0.18113969266414642,0.030502811074256897,0.10983274132013321,-0.011910834349691868,-0.07812909781932831,0.12830901145935059,-0.06768061220645905,-0.006541136652231216,0.016376769170165062,0.18287257850170135,-0.013687940314412117,-0.2748674750328064,-0.01216169260442257,-0.17484769225120544,-0.028933929279446602,0.03267344459891319,-0.42062801122665405,0.18785203993320465,-0.34987008571624756,-0.017120320349931717,-0.02131582610309124,0.02710290253162384,0.09176398813724518,-0.22492553293704987,-0.10543148964643478,-0.06674908846616745,-0.10216911137104034,0.036922674626111984,0.059946831315755844,-0.22421130537986755,0.16186697781085968,-0.09357985854148865,0.2184361219406128,-0.06334532052278519,0.37021857500076294,0.0329151414334774,-0.030365802347660065,-0.08924522250890732,-0.03596439212560654,-0.0037442983593791723,0.10316688567399979,-0.13176923990249634,-0.34707552194595337,-0.13253988325595856,0.13504169881343842,-0.1548963189125061,0.31867340207099915,0.09547261148691177,-0.2127116471529007,-0.06726084649562836,0.05619409680366516,-0.0952838584780693,0.12975750863552094,-0.0916241928935051,-0.049256619065999985,0.03386972099542618,0.03778333589434624,0.07393357902765274,-0.12530319392681122,-0.008524373173713684,0.21999143064022064,-0.13857536017894745,0.15721723437309265,-0.22227080166339874,0.13486923277378082,0.11400508135557175,0.7120996713638306,-0.13822098076343536,-0.179941788315773,0.0657462626695633,-0.03566287085413933,-0.12071789056062698,-0.016907431185245514,-0.0682208240032196,0.18932536244392395,0.14517471194267273,-0.09668099135160446,0.06254725903272629,0.16021445393562317,0.15190987288951874,0.19275936484336853,0.1944737434387207,0.0735590010881424,-0.09308531135320663,0.06859584152698517,-0.031454771757125854,-0.031133469194173813,-0.23238800466060638,0.04305797442793846,0.06642790883779526,0.12746576964855194,-0.2539783716201782,-0.23230324685573578,-0.1688554733991623,-0.12865926325321198,-0.18182866275310516,-0.5647839903831482,-0.055163558572530746,-0.11974551528692245,-0.07479266077280045,-0.001294445595704019,-0.06457480788230896,-0.08560016751289368,0.001856242655776441,-0.10227672755718231,0.05537242069840431,-0.06989949941635132,-0.042758356779813766,0.077706478536129,0.24114131927490234,0.2717011570930481,-0.023815425112843513,0.3916994035243988,0.1543755829334259,-0.054585784673690796,-0.07968369871377945,-0.13791555166244507,-0.14220170676708221,-0.42130744457244873,-0.2577365040779114,-0.023079894483089447,0.27229389548301697,0.09908605366945267,-0.010629677213728428,0.0600171834230423,0.2711184024810791,0.0759587436914444,-0.2618134915828705,-0.31308871507644653,-0.20881469547748566,-0.1578594446182251,-0.34400150179862976,-0.5787521600723267,0.2845650911331177,0.15742641687393188,-0.013934778980910778,0.38862836360931396,0.14929944276809692,0.012795762158930302,0.3141934871673584,0.00942012295126915,0.21160666644573212,-0.15051573514938354,0.12987054884433746,0.35378292202949524,0.11528198421001434,-0.1494063287973404,-0.07834961265325546,-0.12222091853618622,-0.16681461036205292,-0.2975541055202484,0.14954595267772675,0.22690612077713013,0.1757238507270813,0.20172622799873352,0.486214280128479,-0.18437188863754272,-0.15501639246940613,-0.29022321105003357,-0.3538232445716858,-0.005480821710079908,-0.49523210525512695,0.1267334222793579,0.11923369020223618,0.18039941787719727,0.0494549423456192,0.34137362241744995,0.4392493963241577,0.34233400225639343,-0.11582579463720322,-0.37273409962654114,0.02102566510438919,-0.07288800925016403,0.229944109916687,-0.1676621437072754,0.27596625685691833,0.2153134047985077,0.08344654738903046,-0.0419282391667366,0.021781207993626595,0.0034619986545294523,-0.11424749344587326,-0.24783991277217865,0.008154412731528282,0.000603502441663295,-0.15504612028598785,-0.1691543161869049,-0.23016133904457092,0.018577946349978447,0.1050742119550705,0.24510625004768372,-0.20696969330310822,-0.14640824496746063,0.0718911737203598,0.18056133389472961,-0.0503280945122242,0.05252905189990997,0.30550527572631836,0.41913697123527527,-0.08078347146511078,-0.020481325685977936,-0.18651773035526276,-0.03645877167582512,0.03598500043153763,-0.21720300614833832,0.25490933656692505,0.13338914513587952,0.2794802188873291,0.2127199023962021,0.4209789037704468,0.4762665927410126,0.049215301871299744,-0.009112892672419548,0.0529734306037426,0.04136088863015175,0.08430004864931107,0.3711351454257965,-0.012667360715568066,-0.12290710210800171,-0.09227269887924194,-0.12083157896995544,0.038127537816762924,0.43999895453453064,0.2068106234073639,-0.001201270380988717,0.12616969645023346,0.2553885281085968,0.09092051535844803,0.13565868139266968,-0.04997151345014572,-0.14705069363117218,-0.22901266813278198,-0.10011448711156845,-0.17590957880020142,-0.6114270687103271,-0.134420245885849,-0.12373394519090652,-0.15592600405216217,-0.18003283441066742,-0.4537595212459564,-0.11458777636289597,-0.0397445447742939,0.007460420485585928,0.018375826999545097,0.07475857436656952,0.07529199123382568,0.35956257581710815,-0.12485344707965851,-0.075462706387043,-0.1580647975206375,-0.11805054545402527,-0.10807498544454575,-0.026775144040584564,0.15137459337711334,0.11157505959272385,0.1603250801563263,0.26670408248901367,0.20742176473140717,0.3863362967967987,-0.28780460357666016,-0.24195364117622375,-0.08031190931797028,-0.25013789534568787,-0.009439007379114628,0.1949635148048401,-0.1694883406162262,-0.28195661306381226,0.2635752558708191,-0.14420859515666962,0.15724027156829834,0.3083776533603668,0.030417263507843018,0.11338969320058823,0.2190054953098297,-0.07169944792985916,-0.040905654430389404,-0.2889077067375183,-0.009006977081298828,-0.14757606387138367,-0.07376723736524582,0.06116725876927376,0.09228100627660751,0.005912439897656441,-0.03680238127708435,-0.10190504044294357,-0.05193866416811943,-0.14403487741947174,0.05726839229464531,-0.10546962171792984,-0.11142916232347488,-0.1742231547832489,-0.030169762670993805,-0.16272421181201935,-0.010296284221112728,0.01781403087079525,-0.040171701461076736,0.09115607291460037,0.022158853709697723,-0.07964051514863968,0.060340765863657,-0.041319336742162704,0.008093166165053844,-0.1850331872701645,-0.12697939574718475,-0.12878049910068512,-0.26520830392837524,-0.1278708130121231,-0.13259173929691315,-0.02228541485965252,-0.2088957577943802,-0.14566878974437714,-0.04474331811070442,0.010038074105978012,-0.013641412369906902,-0.21632257103919983,0.3902098536491394,0.22469575703144073,-0.18571025133132935,0.22009991109371185,-0.25775110721588135,-0.1336359679698944,-0.07344157248735428,-0.06705600768327713,-0.2636999189853668,-0.1296459436416626,-0.12689296901226044,0.019591940566897392,0.01446628849953413,-0.07404890656471252,0.02180030569434166,-0.03264257684350014,0.07883024960756302,0.18843819200992584,0.12187990546226501,-0.021854301914572716,-0.13080108165740967,-0.08792947232723236,-0.06468990445137024,0.029031166806817055,-0.05489875748753548,-0.024455314502120018,-0.037736307829618454,0.10410570353269577,-0.12113583087921143,-0.1680682748556137,0.07711442559957504,-0.14598755538463593,-0.040885522961616516,0.10456882417201996,0.09286721795797348,0.07662978023290634,0.30643534660339355,0.42428624629974365,0.12487877905368805,0.12122714519500732,0.15347015857696533,0.015773184597492218,0.11108284443616867,-0.2645176649093628,0.15013204514980316,0.4076201915740967,0.04521726071834564,0.0050071305595338345,-1.2209125757217407,0.49257341027259827,0.2703019678592682,0.2662328779697418,0.6049699187278748,0.9920591711997986,-0.43759313225746155,0.38920965790748596,-0.14185000956058502,-0.6307975649833679,-0.2466956079006195,0.5111730098724365,0.4154309928417206,0.24514618515968323,0.22440394759178162,-0.18892019987106323,-0.06168080493807793,0.3736860156059265,-0.04392285272479057,0.5537077188491821,0.07920658588409424,0.444364070892334,-0.5131198763847351,-0.07880284637212753,-0.1911570280790329,0.10816185921430588,0.4532303214073181,0.19317527115345,-0.004087029956281185,0.7800738215446472,0.5256453156471252,0.30483153462409973,0.17233024537563324,-0.1223854050040245,-0.08373824506998062,-0.2756102681159973,0.13995952904224396,-0.03464274853467941,-0.12179647386074066,-0.015574813820421696,-0.10667478293180466,0.029814811423420906,0.444892019033432,0.09773548692464828,-0.2873433530330658,-0.16688010096549988,0.34355103969573975,0.002650095848366618,0.33350980281829834,-0.03952709212899208,-0.12942242622375488,0.3216570019721985,0.22769224643707275,-0.03551962971687317,-0.0054919603280723095,-0.27344056963920593,0.19647563993930817,0.1295025646686554,-0.04905688017606735,-0.3365452289581299,-0.22027133405208588,0.3689937889575958,0.06486682593822479,-0.03697838634252548,0.15352721512317657,-0.4598628282546997,0.26932817697525024,-0.3644455671310425,-0.07745911180973053,-0.4209288954734802,0.12077919393777847,0.10398656129837036,-0.33277976512908936,-0.27031776309013367,-0.31379953026771545,-0.24277831614017487,0.26515233516693115,-0.23816463351249695,-0.2891634702682495,-0.026132499799132347,-0.005824176128953695,0.041157204657793045,-0.13338308036327362,-0.011236099526286125,-0.156907320022583,-0.06648444384336472,0.3083209991455078,0.10929964482784271,0.0726344957947731,0.15495312213897705,0.42226046323776245,-0.3486613929271698,0.015250423923134804,0.031549107283353806,0.1939428448677063,0.1090676411986351,0.1344241499900818,0.23614740371704102,0.1742319017648697,0.09948720782995224,0.08870076388120651,0.1691860854625702,0.02076791226863861,0.004360082559287548,0.05253209173679352,0.1413932889699936,-0.04639030247926712,0.04569059610366821,0.008498540148139,-0.03903859108686447,-0.014952106401324272,0.03280869871377945,-0.026240168139338493,-0.017519881948828697,-0.07136378437280655,0.08215785771608353,0.1363586187362671,0.18435902893543243,0.22919556498527527,0.2529957890510559,0.08307957649230957,-0.1536005735397339,-0.11255820095539093,-0.07688310742378235,0.07202073931694031,-0.21216686069965363,0.060177456587553024,0.16031979024410248,-0.007862159051001072,0.04117749258875847,0.01417461410164833,-0.03852228820323944,-0.008818821050226688,0.2553858160972595,-0.09578974545001984,-0.03925346955657005,0.04898674041032791,-0.2460605949163437,-0.10015297681093216,0.35669824481010437,-0.08194789290428162,-0.06148894876241684,-0.06966531276702881,-0.08924750983715057,0.05753844231367111,0.2339259386062622,-0.13823744654655457,-0.00796984788030386,0.02244322933256626,-0.2256612330675125,-0.08936338871717453,-0.14089208841323853,0.04869573190808296,0.0334252268075943,0.14287827908992767,0.12406650185585022,0.05782550945878029,0.14045123755931854,-0.02690851502120495,-0.021091848611831665,0.0338769294321537,-0.0005653180414810777,-0.05949504300951958,0.19050586223602295,-0.054335370659828186,-0.06259997189044952,-0.05520143732428551,0.040271397680044174,0.005249365232884884,0.13943614065647125,-0.006448013707995415,-0.03647781163454056,-0.017842808738350868,-0.09196050465106964,0.22685275971889496,0.11201264709234238,0.14592021703720093,0.10004114359617233,-0.1142677515745163,0.06044244393706322,-0.03053305484354496,-0.17774024605751038,0.2810705900192261,0.04101100191473961,-0.14075377583503723,0.11156590282917023,0.46203142404556274,-0.250672847032547,-0.03666919097304344,0.027576394379138947,0.08143196254968643,0.15778525173664093,-0.011899999342858791,0.1133878231048584,0.08036506175994873,-0.036754585802555084,-0.01085299625992775,0.1942993849515915,0.07518882304430008,-0.0916215106844902,-0.04870787635445595,-0.12239349633455276,0.18949493765830994,-0.13457919657230377,-0.13800612092018127,0.08485862612724304,0.13620714843273163,0.09158475697040558,-0.07320937514305115,0.011914968490600586,0.02079879678785801,-0.4489353597164154,0.026392923668026924,-0.05253739655017853,0.08023643493652344,-0.0705762505531311,-0.014973090030252934,-0.0739019513130188,0.03470587357878685,0.056344494223594666,-0.024882152676582336,0.2946038246154785,-0.11040978133678436,0.16576412320137024,0.0379093736410141,-0.01647237315773964,0.0020793129224330187,0.02124813199043274,0.01606155000627041,-0.39999720454216003,0.07152575254440308,0.02383849211037159,-0.07839789241552353,0.033965907990932465,-0.0707637369632721,-0.5500016808509827,0.15387259423732758,0.16336748003959656,0.1394972801208496,0.15477254986763,0.11401611566543579,0.0932064950466156,0.03918318822979927,-0.04328296333551407,-0.02130274660885334,-0.12075649201869965,-0.1914505958557129,-0.17224112153053284,-0.37840113043785095,-0.409310907125473,-0.3595800995826721,-0.2875438630580902,-0.5343049168586731,-0.16398677229881287,-0.04445754364132881,-0.06967456638813019,-0.07358233630657196,0.022436335682868958,-0.08435478806495667,-0.3869877755641937,-0.16830259561538696,-0.13759590685367584,-0.11591240018606186,-0.16913866996765137,-0.02666684240102768,0.06017700582742691,0.10317377001047134,0.08809491991996765,-0.01984604448080063,0.2620203495025635,0.1052684485912323,0.18711259961128235,0.12775813043117523,0.15699654817581177,0.132452592253685,0.0596277080476284,0.2616090476512909,-0.6302211880683899,0.02816823683679104,-0.013425898738205433,-0.26328063011169434,-0.12834516167640686,-0.08227600157260895,-0.6463606953620911,-0.07065721601247787,0.10143633931875229,0.16008470952510834,0.17174069583415985,-0.08694673329591751,0.1911422163248062,-0.05354251712560654,0.05984769016504288,-0.04938703775405884,-0.10352877527475357,-0.00045715487794950604,-0.10546809434890747,-0.23089641332626343,-0.21399763226509094,-0.08508773893117905,-0.011613350361585617,-0.19189736247062683,0.00024911557557061315,0.01883656159043312,0.012361151166260242,0.07666012644767761,0.034519221633672714,0.07968953251838684,-0.1940620392560959,-0.14679498970508575,-0.13037614524364471,-0.09030022472143173,-0.04929714649915695,0.03333742544054985,0.00919372122734785,-0.12765197455883026,-0.17305682599544525,-0.14507965743541718,-0.22622422873973846,-0.007722432259470224,0.4718146324157715,-0.12537109851837158,-0.12211517989635468,-0.08644354343414307,-0.16263146698474884,-0.13527387380599976,0.1844060868024826,-0.038546524941921234,0.09860953688621521,0.09498140960931778,0.10861798375844955,0.01923084259033203,-0.13781225681304932,-0.04964080825448036,-0.0951327532529831,-0.012106738053262234,-0.09630078077316284,-0.1471775770187378,-0.3461923599243164,-0.21051497757434845,-0.0895080640912056,0.08394476771354675,-0.15819087624549866,-0.18364903330802917,0.09066332876682281,0.0889991745352745,0.0071621607057750225,-0.1955726146697998,0.019630827009677887,0.011329645290970802,-0.19563895463943481,-0.000103542442957405,-0.05676332861185074,-0.07886765152215958,-0.07538485527038574,-0.04354402795433998,0.38788965344429016,0.008911208249628544,-0.09970810264348984,-0.0027853406500071287,-0.10937081277370453,0.03400193527340889,-0.11481219530105591,0.29230359196662903,0.16484718024730682,-0.07070497423410416,0.2601799964904785,0.2723122239112854,-0.19249343872070312,0.07240181416273117,0.10088503360748291,0.1617799997329712,-0.06593523174524307,-0.15263178944587708,-1.1246211528778076,-0.07203112542629242,-0.030179046094417572,-0.34002885222435,-0.20111459493637085,-0.20743276178836823,-0.2726936340332031,0.12187168747186661,0.15225213766098022,0.06710010021924973,0.18763847649097443,0.10493495315313339,-0.16857290267944336,0.096410371363163,0.11606704443693161,-0.1318715661764145,0.02023322321474552,0.042587220668792725,-0.2849322557449341,-0.022551152855157852,0.038450296968221664,-0.03458942472934723,0.006894460879266262,0.013500832952558994,0.22866660356521606,0.08062195777893066,0.12359542399644852,0.23258401453495026,0.007905333302915096,0.04498182609677315,-0.32606685161590576,0.0542294979095459,0.11249320209026337,0.0691065639257431,0.29832544922828674,0.13161668181419373,-0.235028937458992,-0.09690853953361511,0.07442958652973175,-0.1438828557729721,-0.04444508254528046,0.12177487462759018,0.11240632086992264,-0.16868746280670166,-0.26563340425491333,-0.059510238468647,-0.19937565922737122,-0.1985696405172348,0.11288808286190033,-0.4685977101325989,-0.09557891637086868,0.21667277812957764,-0.2684144079685211,0.2050478756427765,0.08965396881103516,0.007999413646757603,-0.004006675910204649,-0.10691195726394653,-0.20896658301353455,-0.16823087632656097,-0.0621977262198925,-0.00901474617421627,-0.03952233865857124,0.056436266750097275,0.12760114669799805,0.2533935606479645,0.20983651280403137,0.10419807583093643,-0.02651233784854412,0.02213381603360176,0.1673639863729477,-0.05040814355015755,-0.18418550491333008,0.016477687284350395,-0.032100457698106766,-0.15342217683792114,-0.03174109384417534,0.018489189445972443,0.21435250341892242,0.1819969117641449,0.12848100066184998,0.038153067231178284,0.022094963118433952,0.1766880750656128,-0.3599404990673065,-0.0321129634976387,-0.12223734706640244,0.1777474731206894,-0.012511515989899635,0.2367629110813141,-0.28277814388275146,0.01703539490699768,0.1791495829820633,0.026981288567185402,0.3576202988624573,-0.02936955913901329,0.0790901705622673,0.15762028098106384,0.06315658241510391,-0.43714675307273865,0.4449053704738617,1.278812050819397,-1.9297302961349487,-0.3281651437282562,0.675514280796051,-0.5220242738723755,0.8330946564674377,0.2658923268318176,0.23922468721866608,-0.10472603887319565,0.3093162477016449,-0.22706787288188934,-0.09368734061717987,0.06820844858884811,0.1819743514060974,0.15372414886951447,0.07727471739053726,0.260723739862442,0.3775308132171631,0.081780806183815,0.22994256019592285,0.15363845229148865,-0.03728443384170532,-0.3429397642612457,0.0744616761803627,-0.32316434383392334,0.264555424451828,-0.4218166470527649,0.02467714250087738,-0.04937063530087471,0.15188851952552795,-0.1637800633907318,-0.08531253784894943,0.05152061581611633,0.020614495500922203,0.025874203070998192,-0.3595001697540283,-0.011995223350822926,-0.008103534579277039,0.2896186113357544,0.1439294070005417,-0.3112102150917053,-0.16415207087993622,-0.42505183815956116,0.3776593506336212,-0.036504246294498444,0.21557097136974335,-0.01824694313108921,0.09314428269863129,0.14287307858467102,-0.0496831014752388,0.24974973499774933,-0.1017475500702858,0.15031354129314423,-0.017751341685652733,0.189245343208313,-0.08485216647386551,-0.08517586439847946,0.15449586510658264,0.16704384982585907,-0.14555156230926514,0.20766732096672058,0.12604840099811554,0.158905491232872,-0.15314313769340515,-0.04172048345208168,0.020044105127453804,0.11201264709234238,0.31230244040489197,0.18193964660167694,0.06322302669286728,0.03624827414751053,-0.3616785705089569,-0.10659538209438324,-0.027642415836453438,0.10357198119163513,-0.18738888204097748,-0.17455118894577026,-0.08147009462118149,-0.12809206545352936,-0.08380407094955444,-0.018270324915647507,0.06007145717740059,-0.017917843535542488,-0.13169196248054504,-0.23698078095912933,-0.05002528429031372,-0.186069056391716,0.0219190064817667,-0.13103078305721283,-0.24173657596111298,-0.01375310868024826,-0.060113728046417236,0.02493210881948471,-0.02382158488035202,-0.06599214673042297,-0.0625111386179924,-0.2849131226539612,-0.16648496687412262,-0.1536143720149994,-0.10017292946577072,-0.04341273009777069,0.1310342699289322,0.08726615458726883,0.1000162661075592,-0.14660412073135376,-0.3059186339378357,0.003631516359746456,-0.03301345929503441,-0.07778997719287872,-0.06363315880298615,0.02166585624217987,0.14910808205604553,0.008750611916184425,0.006622110493481159,0.2524819076061249,0.16652052104473114,0.11076571047306061,0.06121332198381424,-0.09793467074632645,-0.028849570080637932,0.01584339514374733,0.041042912751436234,-0.006907823495566845,-0.13766106963157654,-0.14901672303676605,0.19457049667835236,-0.027391066774725914,-0.037027135491371155,-0.0824989303946495,-0.07787123322486877,-0.1614760160446167,-0.01622174121439457,-0.05472952499985695,-0.09315422177314758,-0.00610129302367568,-0.09819404035806656,-0.13831262290477753,0.2955664396286011,-0.08282250165939331,-0.08225715160369873,-0.04594660922884941,-0.035570088773965836,-0.025748470798134804,-0.2042779177427292,0.05486786738038063,0.01273793913424015,0.02981659024953842,-0.05696658417582512,-0.011172596365213394,0.24114340543746948,0.08966094255447388,0.04940660670399666,0.0894380435347557,0.06432943791151047,0.1003403514623642,-0.334966778755188,-0.10055389255285263,-0.07774892449378967,-0.031233735382556915,-0.17499707639217377,-0.07953007519245148,0.18195632100105286,-0.2681516408920288,-0.16735826432704926,0.0050970409065485,-0.054158277809619904,-0.06786870211362839,-0.028240300714969635,-0.07485150545835495,-0.12296607345342636,-0.08916661888360977,-0.008235646411776543,-0.15868306159973145,0.06625029444694519,0.1370013952255249,0.07105929404497147,-0.06879408657550812,0.08772392570972443,0.0891551598906517,-0.08644223213195801,0.08397381007671356,-0.03815275803208351,-0.0197115670889616,-0.18240460753440857,-0.1195150762796402,-0.08953087031841278,-0.09132266044616699,-0.09956251829862595,-0.02981400303542614,-0.20931540429592133,-0.20071358978748322,0.2636477053165436,0.10508538037538528,0.06090778857469559,0.07700138539075851,-0.07509393990039825,0.009796862490475178,0.12281720340251923,-0.09459631145000458,0.031411655247211456,0.05016353726387024,-0.008842037990689278,-0.0647483691573143,0.23400723934173584,0.11530524492263794,0.09872864186763763,0.05279870331287384,0.11786098033189774,0.12266566604375839,0.03547929227352142,-0.0584457591176033,0.047652021050453186,0.038798850029706955,0.01702897436916828,-0.03365093097090721,-0.1374637931585312,-0.1256832778453827,-0.17865954339504242,-0.15226110816001892,-0.3156984746456146,-0.38143429160118103,0.08728232979774475,-0.09984809905290604,-0.08112410455942154,0.01613282784819603,-0.1318647563457489,-0.04877372458577156,0.2669300138950348,-0.10971683263778687,0.029920637607574463,0.07519656419754028,-0.1284841150045395,-0.29998528957366943,0.966801106929779,0.1399153172969818,0.0899386927485466,-0.1273392289876938,0.1503133326768875,0.2969486117362976,0.12888015806674957,0.039608195424079895,0.1072983518242836,0.053715527057647705,0.08330658078193665,0.1266937553882599,-0.031125076115131378,0.117212675511837,0.04431861639022827,0.0896516963839531,-0.016498111188411713,-0.07280988246202469,-0.21561259031295776,-0.026422904804348946,-0.05134839192032814,-0.027291348204016685,-0.021508824080228806,0.03173225373029709,0.16753515601158142,0.20274868607521057,0.10847894847393036,0.12134069949388504,0.13926951587200165,-0.027140192687511444,-0.1289617121219635,0.04241618514060974,0.024633552879095078,-0.1347484439611435,0.005021652672439814,0.02529185824096203,-0.056074999272823334,0.07926172763109207,0.058733999729156494,0.0073682828806340694,0.08315110206604004,0.0901229977607727,-0.16678331792354584,0.01564156450331211,-0.02060428448021412,-0.02745678275823593,0.1517167091369629,0.07990673184394836,0.02500181272625923,-0.011263369582593441,0.05597353354096413,0.05556690692901611,0.0355820469558239,-0.05647958815097809,0.29847314953804016,-0.050080008804798126,-0.07718861103057861,0.02359665185213089,-0.014959847554564476,-0.007557496428489685,-0.16780254244804382,-0.2832944691181183,-0.4327618181705475,-0.21374793350696564,-0.35202527046203613,-0.1873568892478943,0.10745164752006531,0.0006545698270201683,-0.00984736904501915,-0.07146831601858139,-0.055916719138622284,-0.01849985122680664,-0.291332870721817,-0.21862377226352692,-0.23486211895942688,-0.05088469386100769,-0.1465185135602951,-0.0560368187725544,0.1349029242992401,0.002607084112241864,-0.016717663034796715,-0.03799302130937576,0.03748538717627525,-0.03249571472406387,0.2343682497739792,0.0364280603826046,0.03287793695926666,-0.09155033528804779,0.10346637666225433,0.17718563973903656,-0.0705886110663414,0.15340107679367065,0.1048077791929245,-0.08345317095518112,0.17933513224124908,0.3927391767501831,-0.03891148790717125,-0.14656399190425873,-0.13673962652683258,0.008500992320477962,-0.13224071264266968,-0.22883106768131256,0.5340333580970764,-0.0163201205432415,-0.01998824067413807,-0.04606398567557335,-0.012573598884046078,-0.006347533781081438,0.06962499022483826,0.05681758373975754,0.11495807766914368,0.20221340656280518,0.17964616417884827,0.1178331971168518,-0.012297004461288452,0.012320677749812603,0.03488929569721222,-0.049618612974882126,0.06509990990161896,0.03590971231460571,-0.09694001078605652,0.20559830963611603,0.10364814102649689,0.10323958098888397,0.12920913100242615,0.11523130536079407,-0.026248561218380928,-0.10012201219797134,-0.08870021253824234,0.017632896080613136,-0.055748529732227325,0.010807790793478489,0.35370779037475586,0.04405432939529419,0.04223765805363655,0.06546087563037872,0.04661456495523453,0.09734225273132324,-0.12402196228504181,0.13628971576690674,0.12408212572336197,0.15452969074249268,0.14948847889900208,0.18001137673854828,-0.3151150047779083,0.048975929617881775,0.06438113003969193,-0.02226300537586212,-0.0992019772529602,0.0009452936355955899,-0.2668737769126892,0.13256505131721497,0.13113920390605927,0.142985001206398,0.12348978966474533,0.12642629444599152,0.3683628737926483,-0.021770844236016273,-0.05267525091767311,0.09611472487449646,0.1208021491765976,-0.06084339693188667,0.2526886463165283,0.05533178523182869,0.042975906282663345,0.007448267191648483,-0.0020152018405497074,0.0667705237865448,-0.1900549829006195,0.04406394809484482,-0.0030991944950073957,-0.03392468020319939,0.0414128340780735,0.08854230493307114,-0.34082749485969543,0.03126444295048714,0.020196417346596718,-0.029515555128455162,-0.036153644323349,0.008172888308763504,0.301421582698822,-0.016237525269389153,-0.03930367901921272,-0.008382078260183334,-0.07809506356716156,-0.11260930448770523,0.00636453228071332,-0.028590131551027298,-0.04351789131760597,0.006830205209553242,-0.11302535980939865,-0.12061180174350739,-0.08506260067224503,0.03158903494477272,0.029242143034934998,-0.0428021177649498,0.09099023044109344,0.09764059633016586,-0.17005674540996552,0.11067362129688263,0.09240365773439407,0.03042064793407917,0.052388112992048264,0.13352148234844208,-0.16821861267089844,0.10072498023509979,0.11496207118034363,0.031381938606500626,0.05713304504752159,0.09141313284635544,-0.06991884112358093,-0.00827986653894186,-0.016824079677462578,-0.03136104717850685,-0.036456238478422165,-0.04536059871315956,-0.1339278221130371,-0.04556809365749359,0.08165384829044342,-0.0794050320982933,-0.029790785163640976,-0.023380527272820473,0.6314853429794312,-0.0073656486347317696,-0.012902584858238697,-0.016298813745379448,0.051886651664972305,-0.024761395528912544,0.11058404296636581,-0.07460307329893112,0.08220549672842026,-0.15359023213386536,0.051946721971035004,0.14235995709896088,0.007024895865470171,-0.12541000545024872,0.04019707813858986,0.45588815212249756,-0.5153465270996094,0.22092992067337036,-0.35766085982322693,-0.707062840461731,0.36621078848838806,-0.1690082997083664,0.36268579959869385,-0.06513013690710068,-0.015305626206099987,0.01538862194865942,0.24241669476032257,-0.1192372739315033,-0.01927674375474453,-0.21027636528015137,-0.09072192758321762,-0.09482875466346741,-0.19479595124721527,-0.20702625811100006,-0.1486923098564148,0.23763081431388855,0.2689613401889801,-0.13517971336841583,0.23008938133716583,-0.09367737919092178,-0.017628978937864304,-0.2536470293998718,0.17501570284366608,-0.5582367181777954,-0.3917957544326782,-0.05689387395977974,0.09225877374410629,0.09117184579372406,-0.019943779334425926,0.3042152225971222,-0.0002483135904185474,0.13045069575309753,-0.004905060864984989,0.33727315068244934,0.323006272315979,0.3043833374977112,0.35964030027389526,-0.23536153137683868,0.26447099447250366,-0.454008013010025,0.22431600093841553,0.1297866255044937,0.28736412525177,-0.010201540775597095,-0.10249525308609009,0.10885964334011078,0.10726253688335419,0.367105633020401,0.1555062234401703,-0.013090393505990505,0.050601597875356674,0.12404655665159225,-0.15900498628616333,-0.018313543871045113,0.03624831140041351,0.12357481569051743,-0.1397693008184433,-0.12418491393327713,-0.20244784653186798,0.013138921931385994,-0.15221327543258667,-0.33305463194847107,-0.2321869283914566,-0.08211060613393784,-0.23714587092399597,0.04409859701991081,-0.35313546657562256,-0.18214333057403564,-0.21558025479316711,0.16859610378742218,0.10515359789133072,0.4699978232383728,-0.08831357955932617,-0.18970274925231934,0.003945584874600172,0.04375208541750908,0.05098326504230499,0.06413488835096359,0.09287122637033463,0.1293078064918518,-0.5618314146995544,0.0064242188818752766,0.029148733243346214,0.05195344612002373,0.10478968918323517,0.15713173151016235,-0.18723028898239136,-0.07262281328439713,-0.10424733906984329,-0.09762291610240936,-0.1891581118106842,-0.2303992062807083,-0.35166239738464355,0.021682308986783028,0.0657070055603981,0.05733967572450638,0.04091324284672737,0.041281409561634064,0.6570426821708679,-0.04786168411374092,-0.021750558167696,-0.04053718224167824,-0.022497110068798065,-0.08122056722640991,0.1513751894235611,0.0438549742102623,0.06855612993240356,0.07444094121456146,0.05617377534508705,0.030615361407399178,-0.19138339161872864,0.017033610492944717,-0.0008901595138013363,0.02313082478940487,-0.0024576173163950443,-0.056195225566625595,0.0031288848258554935,-0.08032148331403732,-0.14505355060100555,-0.10146265476942062,-0.11545830219984055,-0.09329265356063843,0.03550631180405617,0.08295037597417831,0.1238442063331604,0.09109392017126083,-0.05143874138593674,-0.001268157153390348,-0.13051612675189972,0.030825823545455933,0.18142814934253693,0.15633639693260193,0.17580023407936096,0.27128052711486816,0.05538544803857803,-0.10680345445871353,-0.13729611039161682,-0.06955586373806,0.016305753961205482,0.07005412876605988,-0.06816139817237854,0.10862081497907639,0.1945653259754181,0.16382260620594025,0.03595377877354622,0.06168308109045029,-0.26881852746009827,-0.1747366040945053,-0.22699040174484253,-0.09977825731039047,0.2836648225784302,0.22687885165214539,-0.056886062026023865,0.10920888185501099,0.14347460865974426,0.08921054005622864,-0.10459881275892258,-0.08399210125207901,-0.45896685123443604,-0.18073321878910065,-0.2646462023258209,-0.03463821858167648,-0.0015841862186789513,-0.07411970943212509,-0.019650861620903015,-0.19258809089660645,-0.1971285492181778,-0.08335739374160767,0.13513635098934174,0.25211191177368164,0.004285878036171198,-0.02381839230656624,-0.09611072391271591,-0.1256357729434967,-0.13095690310001373,-0.11073139309883118,0.2531835436820984,-0.08069908618927002,-0.12131599336862564,-0.05258048698306084,-0.18198639154434204,-0.13591454923152924,0.14444638788700104,0.100803442299366,0.09263549745082855,0.14119182527065277,0.23978856205940247,0.2974117696285248,0.31534120440483093,-0.07420086860656738,-0.03410055488348007,-0.10174597054719925,0.024484114721417427,0.052676402032375336,-0.37865665555000305,-0.05986975505948067,0.0733858123421669,-0.024385150521993637,0.012543324381113052,-0.06308471411466599,-0.08201710134744644,-0.020199814811348915,-0.010985925793647766,-0.13845427334308624,-0.09231329709291458,-0.21298830211162567,-0.008527894504368305,0.0950622707605362,0.0943211242556572,0.04533015191555023,0.0855715349316597,-0.0526057668030262,-0.2325512170791626,0.10877151042222977,-0.013986733742058277,0.12811794877052307,-0.004000666085630655,0.10965534299612045,0.06271076947450638,0.014015500433743,0.05870134383440018,0.00462608365342021,0.13646139204502106,0.13364869356155396,-0.10633481293916702,-0.03859254717826843,0.03236693888902664,-0.0007968949503265321,0.10815025120973587,0.04135438799858093,-0.11716630309820175,-0.06185625493526459,-0.09044332802295685,-0.026060860604047775,-0.18029534816741943,-0.1898590624332428,0.24023842811584473,-0.004484584555029869,0.06627035140991211,-0.04523267596960068,-0.03713012486696243,-0.08679541200399399,-0.05631828308105469,-0.09406710416078568,-0.06935600936412811,-0.11818506568670273,-0.1688147932291031,-0.23390240967273712,0.05573993921279907,0.03331387788057327,0.0931815430521965,-0.12705986201763153,0.08340384066104889,0.09515203535556793,-0.34208008646965027,0.1986602544784546,0.2672528624534607,-0.25314587354660034,-0.0718260407447815,0.018271533772349358,0.3877624571323395,-0.06069481745362282,-0.12097322195768356,-0.0954408049583435,0.0351819209754467,-0.016908982768654823,0.24045667052268982,-0.018302107229828835,0.011427788995206356,0.011767812073230743,0.045228417962789536,0.07877518981695175,-0.6680031418800354,0.0940789133310318,0.1152118593454361,0.07421070337295532,0.17388616502285004,0.3119918704032898,0.035906750708818436,-0.02743038535118103,-0.05251837521791458,-0.08007517457008362,-0.15419083833694458,-0.2738536596298218,0.15352417528629303,-0.005737368483096361,-0.04916027933359146,-0.019971413537859917,-0.027294887229800224,0.05437470227479935,0.1200638860464096,0.06633143872022629,0.026433279737830162,0.039042677730321884,0.039908505976200104,-0.07524244487285614,-0.010372074320912361,-0.004938150756061077,0.012183263897895813,0.053960077464580536,0.023988381028175354,0.09271307289600372,-0.08520852029323578,0.058435916900634766,0.06663414090871811,0.1755545288324356,0.06788650155067444,0.10300764441490173,0.2578054368495941,0.021141137927770615,0.08400249481201172,0.03327155113220215,0.01370900310575962,-0.11127835512161255,-0.08091253787279129,0.09122106432914734,0.07395482808351517,0.05744379386305809,0.03929567709565163,-0.02414405718445778,-0.19969220459461212,-0.07362781465053558,0.06328649818897247,-0.08733759075403214,0.18415586650371552,0.1605367362499237,-0.2458769679069519,-0.09447868168354034,-0.13660436868667603,-0.1408425122499466,-0.14412687718868256,-0.16184821724891663,0.20672684907913208,-0.15293987095355988,-0.22288087010383606,-0.31241828203201294,-0.3241938054561615,-0.43877872824668884,-0.43285179138183594,-0.3064234256744385,-0.35977497696876526,-0.2016986906528473,-0.27517515420913696,-0.17242655158042908,0.36466407775878906,0.047283608466386795,0.07967314124107361,0.12748384475708008,0.02649865299463272,-0.1515413224697113,-0.47683078050613403,-0.23199136555194855,-0.250405877828598,-0.023382972925901413,0.11623738706111908,0.11540019512176514,0.05872884392738342,0.013362471014261246,0.1391049474477768,0.14716918766498566,0.2772754430770874,0.4275767505168915,0.38869136571884155,0.1146652027964592,0.09963035583496094,0.14829201996326447,0.07758202403783798,0.09390760213136673,-0.12672598659992218,0.08609950542449951,0.07541174441576004,0.06674324721097946,-0.08580882847309113,-0.20926079154014587,-0.38243141770362854,-0.0566265769302845,-0.03196786716580391,-0.29040634632110596,-0.22923055291175842,-0.3672608733177185,-0.08455448597669601,-0.024716157466173172,0.08652659505605698,-0.026435475796461105,-0.08922496438026428,-0.2104884833097458,0.001466885907575488,-0.18948759138584137,-0.1593330204486847,0.022139931097626686,-0.11242151260375977,-0.0069230664521455765,-0.06150691211223602,0.08325651288032532,0.06681869924068451,0.3121331036090851,0.00413332786411047,-0.0003365223528817296,-0.10843876749277115,-0.10140195488929749,-0.1636456400156021,-0.03258364647626877,-0.10564824938774109,-0.17296646535396576,0.0012587591772899032,0.09841130673885345,0.011168739758431911,0.027354013174772263,-0.17482100427150726,-0.2805795967578888,-0.29420655965805054,0.0598982498049736,0.09595701843500137,0.07298140972852707,0.04516621679067612,0.07978739589452744,0.4586178958415985,0.11077535152435303,0.12271755933761597,0.12542623281478882,0.16255712509155273,0.050942063331604004,-0.1543421596288681,-0.049646634608507156,-0.05787525326013565,-0.12049753963947296,-0.1529325395822525,-0.14693543314933777,-0.3710121512413025,0.11315779387950897,0.11002403497695923,0.17143614590168,0.09347261488437653,0.02633720077574253,-0.01197061501443386,-0.01781134307384491,-0.022514792159199715,0.13869135081768036,0.2190118283033371,0.12019213289022446,-0.002987547777593136,0.079029381275177,0.06983186304569244,0.12630994617938995,0.01327636931091547,0.07363273203372955,0.248153418302536,-0.05611222982406616,-0.03739197179675102,0.05241074040532112,0.02825627475976944,0.11686626821756363,-0.24822071194648743,-0.08208095282316208,-0.0525265708565712,-0.1370319426059723,-0.1125713437795639,-0.08012659847736359,-0.3290465176105499,-0.12244106829166412,-0.2461332231760025,0.16214685142040253,0.028283145278692245,0.07836779952049255,-0.004914044868201017,-0.21675384044647217,0.109064981341362,-2.463352918624878,0.3914638161659241,0.9164510369300842,-0.14018982648849487,0.2680293619632721,-0.07488244771957397,0.9309443831443787,-0.27210161089897156,-0.42037469148635864,0.10277080535888672,0.36756473779678345,-0.007326841354370117,0.08759419620037079,-0.2581816017627716,-0.07501757144927979,0.47175970673561096,-0.5181804895401001,0.10899344086647034,0.1622813194990158,0.21510130167007446,0.46677374839782715,0.24280473589897156,0.1719580888748169,0.41601884365081787,-0.9833816289901733,-0.020481839776039124,0.14116205275058746,-0.3813641369342804,-0.3413645029067993,-0.3592093884944916,-0.4712688624858856,-0.18811379373073578,-0.18287160992622375,0.3493398129940033,0.18254970014095306,0.2507607042789459,-0.23732271790504456,-0.016969623044133186,0.06190153583884239,0.0868581011891365,-0.11299318820238113,-0.14139598608016968,0.05942997708916664,-0.4244906008243561,0.20797860622406006,-0.5627549290657043,-0.459498792886734,0.08445149660110474,-0.0199358519166708,-0.3496130406856537,0.11723630875349045,0.10806383937597275,-0.13008151948451996,-0.008978590369224548,-0.01649373024702072,0.4526346027851105,-0.16352114081382751,-0.05024126544594765,0.09393729269504547,0.0430893674492836,0.18013516068458557,-0.3838479518890381,0.10913768410682678,-0.15719708800315857,0.4134756326675415,-0.32584530115127563,-0.17585988342761993,-0.08576466888189316,0.18685540556907654,0.13845841586589813,-0.005738792475312948,0.2709174156188965,0.10531042516231537,-0.16935038566589355,0.3660997748374939,-0.34769973158836365,-0.1624944657087326,-0.03861367329955101,0.13253971934318542,0.008154929615557194,0.03492480143904686,0.031027866527438164,0.05180675908923149,0.11401908844709396,0.11510059237480164,-0.06860898435115814,0.06045229732990265,0.01736731454730034,0.04931725561618805,0.06870849430561066,0.1440173238515854,-0.26275476813316345,-0.06328147649765015,-0.06796340644359589,-0.09776607155799866,-0.09628550708293915,-0.023264288902282715,0.1875707060098648,0.03657600283622742,-0.041046611964702606,0.0011410159058868885,-0.10064241290092468,-0.13296402990818024,-0.12966503202915192,-0.12597423791885376,-0.12732045352458954,-0.12762968242168427,-0.21731185913085938,-0.30370327830314636,0.37938621640205383,0.029829660430550575,0.05437110736966133,0.08255553245544434,0.058094289153814316,-0.016933215782046318,-0.2817889451980591,-0.11071518063545227,-0.043313127011060715,-0.02324593998491764,-0.09525080770254135,-0.03724714368581772,-0.24258817732334137,-0.06071339547634125,-0.06443877518177032,-0.05946964770555496,0.03555447608232498,0.22813056409358978,-0.16472651064395905,-0.04362271726131439,-0.04080556333065033,-0.027574189007282257,0.033457621932029724,0.10824685543775558,0.11804904788732529,-0.07973936200141907,-0.030829107388854027,0.01682879589498043,0.02097654715180397,0.07590057700872421,-0.35248294472694397,0.18256939947605133,0.16986475884914398,0.17064087092876434,0.05229299142956734,-0.08185898512601852,0.08271642029285431,0.006790115963667631,0.12578743696212769,0.14720135927200317,0.19832080602645874,0.21658459305763245,0.0189764853566885,0.04843541234731674,0.07689734548330307,0.09895428270101547,-0.05703100189566612,-0.3535476624965668,-0.155303955078125,-0.011790990829467773,-0.02551400102674961,-0.03874100744724274,0.06997977197170258,0.04268204793334007,0.20502446591854095,0.23229463398456573,0.24277140200138092,0.3334711790084839,0.3582462668418884,0.20189209282398224,0.47918716073036194,0.1919223666191101,0.1714853197336197,0.23653607070446014,0.0645337626338005,-0.16542108356952667,-0.115415059030056,0.013944447971880436,0.019526135176420212,0.009783560410141945,0.07664095610380173,0.046112775802612305,-0.6251079440116882,0.023695925250649452,0.03360889479517937,0.0447288379073143,0.26537227630615234,0.37977439165115356,-0.06902838498353958,-0.013161075301468372,-0.06002203747630119,-0.025421828031539917,-0.11040221154689789,-0.15265539288520813,-0.46580788493156433,0.006068382412195206,-0.03713399916887283,-0.03785230219364166,-0.1114799901843071,0.10047119110822678,-0.10467527061700821,-0.171875461935997,-0.1262982040643692,-0.15953654050827026,-0.10178393125534058,-0.02534354105591774,0.25143519043922424,0.03387538716197014,0.057600121945142746,0.01793046109378338,0.032750777900218964,-0.046871308237314224,-0.4608524739742279,-0.09266495704650879,-0.05473162978887558,-0.08391685783863068,-0.08670811355113983,-0.18860125541687012,-0.12264358997344971,-0.021214915439486504,-0.0435536652803421,-0.02851930633187294,0.10523471981287003,-0.0281217060983181,0.3663455843925476,0.008332264609634876,0.027074046432971954,0.03631497174501419,0.11147037148475647,0.12668904662132263,-0.7954750061035156,0.008294598199427128,0.03940243273973465,0.05292955040931702,0.21692083775997162,0.3507371246814728,-0.5660111904144287,0.0056495689786970615,-0.022612448781728745,-0.013524087145924568,-0.11605746299028397,-0.1879313439130783,-0.9034748673439026,0.008189373649656773,-0.007991011254489422,-0.04310227558016777,0.01619574800133705,-0.024210654199123383,-0.3255256414413452,-0.06796292215585709,-0.09592759609222412,-0.14027461409568787,-0.17473752796649933,-0.18356052041053772,-0.019659802317619324,0.0003687191056087613,0.011756994761526585,0.020169587805867195,0.056299839168787,0.007991545833647251,-0.14948515594005585,0.003068283898755908,0.0026451856829226017,-0.030383355915546417,-0.0016836837166920304,-0.1019275039434433,0.06665389984846115,0.01536913774907589,0.018589571118354797,0.0281055998057127,0.05142343044281006,0.04723390191793442,0.8720375299453735,-0.025499004870653152,-0.030398104339838028,-0.07650469988584518,-0.17427785694599152,-0.17415691912174225,1.6430914402008057,-0.04301047697663307,-0.08527765423059464,-0.1412859857082367,-0.3893425464630127,-0.5356645584106445,0.4609907865524292,0.04348154366016388,0.06896644085645676,0.11348319053649902,0.31167641282081604,0.37004196643829346,1.4662647247314453,-0.04342449828982353,-0.04995616897940636,-0.04279186949133873,-0.08437041193246841,-0.1211308166384697,0.059536222368478775,0.07830509543418884,0.07057805359363556,0.11472606658935547,0.13899488747119904,0.10857883840799332,0.14766933023929596,-0.03155868500471115,-0.06930094212293625,-0.05203963816165924,-0.18237638473510742,0.0665721744298935,0.35876116156578064,0.06848255544900894,0.04929180070757866,0.029255680739879608,0.15566971898078918,0.27643242478370667,-0.2716456353664398,0.03702264279127121,0.036005523055791855,0.028435777872800827,0.0684339851140976,0.09108074754476547,-0.5897824764251709,-0.01573171652853489,-0.02155756950378418,-0.044201064854860306,-0.12784326076507568,-0.10153499245643616,0.8858982920646667,-0.029185909777879715,-0.04412248730659485,-0.06614333391189575,-0.17889301478862762,-0.2458178848028183,0.22153455018997192,0.04780042916536331,0.04253014177083969,0.10960259288549423,0.202127143740654,0.1961739957332611,0.6497253179550171,-0.01947328820824623,-0.03441070020198822,-0.015628676861524582,-0.06130678206682205,-0.0033750957809388638,0.01425846479833126,-0.03032046929001808,0.02348211035132408,0.033359114080667496,0.18333794176578522,0.11370372027158737,-0.08626797795295715,0.0011015110649168491,-0.020888552069664,-0.03206891939043999,-0.14656870067119598,0.03845502808690071,0.25690484046936035,0.024973809719085693,0.051213160157203674,0.07431253790855408,0.14737682044506073,0.2583657205104828,0.24959085881710052,0.04042147099971771,0.035920869559049606,0.08978644013404846,0.09055761247873306,0.03327801078557968,-0.24928684532642365,0.015998387709259987,-0.06664671748876572,-0.05404257774353027,-0.14614884555339813,-0.1882404088973999,0.3209837079048157,0.1779794543981552,0.028388341888785362,0.03398739546537399,-0.22346359491348267,-0.19976557791233063,0.35773757100105286,-0.10816308110952377,-0.039403703063726425,0.029753033071756363,0.1550326943397522,0.1980389505624771,-0.36494141817092896,0.30902034044265747,0.23606301844120026,0.15762817859649658,0.17009153962135315,0.27920442819595337,0.48607614636421204,-0.08151960372924805,0.044255442917346954,0.1615694761276245,0.4687413275241852,0.21619121730327606,-0.09361346811056137,0.03701270744204521,0.06914573162794113,0.0757400169968605,-0.3797624409198761,-0.1286506950855255,0.5215150117874146,-0.2515377104282379,0.04295913875102997,0.18309175968170166,0.351291298866272,0.4860689043998718,0.8682793378829956,-0.17840075492858887,-0.16284118592739105,0.008021439425647259,-0.040424663573503494,-0.0774632915854454,0.11664438992738724,0.05947451665997505,-0.09011552482843399,-0.04165846109390259,-0.15399287641048431,-0.043744198977947235,-0.3380095064640045,-0.1702471226453781,-0.20523779094219208,-0.2911001741886139,-0.44873660802841187,-0.4685640335083008,-0.567272424697876,0.009481021203100681,0.07180345058441162,0.08766581863164902,0.45807066559791565,0.29090768098831177,1.5748547315597534,-0.2624073028564453,-0.12442782521247864,-0.21878424286842346,-0.3236479163169861,-0.4053724706172943,-0.18829388916492462,0.0361805222928524,0.0006074339034967124,-0.11421716958284378,-0.2699105739593506,-0.2108902782201767,-0.29783761501312256,-0.07363425195217133,-0.08723655343055725,-0.06319499015808105,0.018115192651748657,0.06542420387268066,-1.3825639486312866,0.07380115985870361,-0.012543152086436749,-0.028352729976177216,-0.023415114730596542,-0.08282472938299179,-0.2033044546842575,0.023281767964363098,-0.08830264210700989,-0.053592439740896225,0.2716115117073059,0.1493174284696579,-0.05478531867265701,0.11205006390810013,0.11490131914615631,-0.21637709438800812,0.22645024955272675,0.06913476437330246,0.2348901331424713,-0.3337630033493042,0.29957687854766846,-0.5354329347610474,-1.7926676273345947,-0.5302899479866028,-0.9243300557136536,0.6002143025398254,0.6824806332588196,0.7134184837341309,-0.0047241696156561375,-0.10602670907974243,0.029720282182097435,-0.2381840944290161,0.21882949769496918,-0.8371684551239014,0.03656604140996933,-0.04451104253530502,0.34026214480400085,0.2978774309158325,0.16615226864814758,-0.044425226747989655,0.5246931910514832,-0.5120218396186829,0.1879504919052124,-0.19120925664901733,0.16672280430793762,-0.17940658330917358,-0.34468552470207214,-0.1488112211227417,0.24835465848445892,-0.2975175976753235,0.15535219013690948,0.19196107983589172,0.4412359595298767,-0.22195513546466827,-0.07602255046367645,-0.4684771001338959,0.6792643666267395,-0.39081451296806335,0.5322369337081909,0.1612490564584732,0.124728724360466,-0.35604235529899597,-0.09154299646615982,-0.11860830336809158,0.08752331882715225,-0.5624145269393921,0.1446247547864914,0.08611871302127838,-0.18364502489566803,0.08405265212059021,0.029044345021247864,-0.1976926028728485,0.4367064833641052,-0.22229939699172974,0.4781897962093353,-0.19211462140083313,-0.08337678015232086,-0.34864145517349243,-0.062102753669023514,0.10137893259525299,-0.10434798896312714,-0.17140400409698486,-0.3900015652179718,0.0642569363117218,-0.34993234276771545,0.3334546387195587,0.039979491382837296,0.29546958208084106,0.1117338165640831,-0.1107538640499115,-0.42421841621398926,-0.2695702910423279,-0.31745585799217224,0.14294235408306122,0.2254323810338974,0.2947827875614166,-0.014416033402085304,-0.0626419261097908,-0.034525249153375626,0.06325098872184753,-0.04056935757398605,-0.0437764897942543,-0.05445822328329086,-0.07143554836511612,0.008536107838153839,-0.09423600137233734,0.1570177525281906,-0.0009130730177275836,-0.08097526431083679,-0.01918894052505493,0.1477370709180832,-0.08275306224822998,0.4123486578464508,-0.050980065017938614,-0.00013216752267908305,-0.0025673776399344206,-0.09266959130764008,-0.03829400613903999,0.28382354974746704,-0.12285664677619934,-0.19686338305473328,-0.11341174691915512,-0.176310732960701,-0.30362409353256226,-0.4489012658596039,0.241878941655159,-0.13039828836917877,-0.11107946187257767,-0.35683825612068176,-0.6374675035476685,-0.9077876806259155,-0.21242335438728333,-0.007076964247971773,-0.11362899094820023,-0.00020719962776638567,0.06793437898159027,0.20877790451049805,-0.018012315034866333,-0.07467560470104218,-0.052507828921079636,-0.24437937140464783,0.044814351946115494,-0.7658212184906006,-0.04731272906064987,0.03559475392103195,-0.01651861146092415,0.041848380118608475,0.000682449375744909,0.12586736679077148,0.0045931595377624035,0.008247139863669872,0.00044688087655231357,-0.04087932035326958,-0.05593457072973251,0.5171414613723755,-0.002475191606208682,0.01871749758720398,-0.00252607767470181,-0.04205257445573807,-0.1013268381357193,0.3572593331336975,-0.014456097036600113,-0.022901026532053947,-0.014557711780071259,0.011182828806340694,0.008282146416604519,0.2510373592376709,0.006207384169101715,0.00099732237868011,-0.004053878597915173,0.004992023576050997,0.014182797633111477,0.2817852795124054,0.02618984878063202,-0.0028558988124132156,0.006053340621292591,0.0701572448015213,0.17034538090229034,1.0566298961639404,-0.0067769065499305725,0.0005595819093286991,0.023116571828722954,0.022245856001973152,0.02794717438519001,0.5935288667678833,-0.0011437098728492856,-0.010975601151585579,0.013169702142477036,0.03410003334283829,0.0142813790589571,0.08091351389884949,-0.01855316199362278,-0.009788170456886292,-0.013457754626870155,-0.014340264722704887,-0.04459870606660843,0.1214698776602745,-0.005998197942972183,-0.014430920593440533,-0.005005112383514643,0.004852169193327427,-0.027193112298846245,-0.08018629252910614,-0.0005042090779170394,-0.0182032510638237,-0.012396802194416523,0.001361584523692727,0.04109207168221474,-0.4264895021915436,0.015791146084666252,0.032302066683769226,0.029906313866376877,0.053344111889600754,0.06085677444934845,-0.44105610251426697,-0.0023056166246533394,0.003513375762850046,0.015248565003275871,0.012203449383378029,0.007823082618415356,0.33518657088279724,-0.01748734340071678,0.005318503826856613,0.00270623411051929,-0.04388328269124031,-0.022259769961237907,0.9744937419891357,0.0032989447936415672,-0.00924795214086771,-0.02518146112561226,-0.03201455995440483,-0.034164104610681534,0.2569480240345001,0.0026786744128912687,0.011166641488671303,-0.007401732727885246,-0.017930271103978157,0.0005371282459236681,-0.2603416442871094,0.015124611556529999,0.016698533669114113,0.015820860862731934,0.04724038019776344,0.04137121140956879,-0.0949399322271347,0.1663455069065094,0.05203165486454964,0.1282629817724228,-0.05482207238674164,0.11604216694831848,0.10965447127819061,-0.14039471745491028,0.07263543456792831,0.35078656673431396,0.1373220831155777,0.16322143375873566,-0.2946365177631378,0.08482147008180618,0.016750123351812363,-0.011695071123540401,-0.3511483073234558,-0.16017776727676392,-0.03772712126374245,0.2457263171672821,0.41462042927742004,0.2317846119403839,0.2315453439950943,0.32747527956962585,0.6372902393341064,0.22800517082214355,0.6934278607368469,0.20348821580410004,0.3320137560367584,0.29893919825553894,0.9487094879150391,0.10711000859737396,-0.04971186816692352,0.08839871734380722,0.19908224046230316,0.031827595084905624,0.06053595617413521,0.37651923298835754,0.5257788300514221,-0.27438828349113464,0.8623509407043457,0.5704293847084045,0.13919660449028015,0.027340944856405258,-0.1841215342283249,0.1380634754896164,-0.5704578161239624,-0.019286388531327248,-0.15267594158649445,-0.00537088280543685,0.007720659486949444,-0.023818543180823326,-0.07416513562202454,-0.09177742153406143,-0.460269957780838,-0.008354361169040203,0.022300584241747856,0.013224059715867043,-0.06482838094234467,-0.16790413856506348,-0.2619055211544037,0.004171382170170546,-0.04065992683172226,-0.02020084485411644,0.029117174446582794,0.1077033057808876,-1.2743874788284302,0.009164494462311268,-0.005533559247851372,-0.01831037551164627,0.01575353369116783,0.05897119641304016,0.26482295989990234,0.02872295118868351,0.022669196128845215,0.03585512936115265,0.1585226207971573,0.1435074359178543,-0.5314530730247498,-0.011641680262982845,-0.0028701985720545053,0.017413359135389328,0.012585260905325413,0.013210856355726719,0.609263002872467,0.001311651081778109,-0.025657061487436295,-0.0009824937442317605,0.024112170562148094,0.06389401853084564,0.19681575894355774,-0.005228118505328894,-0.025470929220318794,-0.016842354089021683,-0.027797790244221687,0.01069512777030468,0.2611662745475769,0.3451498746871948,-0.25483790040016174,-0.1950000375509262,-0.0899922177195549,0.34825724363327026,-0.16612885892391205,-0.2108766734600067,0.0720655545592308,-0.407161146402359,-0.2248382717370987,0.4989980161190033,0.14459417760372162,0.005397975444793701,0.19593042135238647,1.0699148178100586,0.7072314620018005,-0.1506449282169342,0.5244989991188049,0.2838057577610016,-0.4578182101249695,0.017102589830756187,0.2643239498138428,-0.13369746506214142,-0.8640919327735901,-0.028603006154298782,-0.10705549269914627,0.049361418932676315,-0.3930166959762573,-0.5170458555221558,-0.3355894386768341,-0.46368685364723206,0.05734502151608467,0.05358343943953514,-0.17995671927928925,0.2101462036371231,-0.3023783564567566,0.4570672810077667,0.32064223289489746,-0.3508334159851074,0.1908368021249771,-0.6756761074066162,-0.5426507592201233,0.1510431319475174,0.24553106725215912,0.6764821410179138,0.4189671576023102,0.18900401890277863,0.1956062763929367,-0.17799757421016693,-0.18089741468429565,-0.16672468185424805,0.21567679941654205,-0.0031815620604902506,0.15196160972118378,-0.308949738740921,-0.11248470097780228,-0.28871241211891174,-0.2010677605867386,-0.0399690680205822,0.37075766921043396,0.21235813200473785,0.10428668558597565,0.31247478723526,0.16904594004154205,0.2759484052658081,0.44445326924324036,-0.5694920420646667,-0.9700028300285339,-0.45465365052223206,-0.459849089384079,-0.0828247144818306,0.027332574129104614,0.2027846723794937,-0.19301027059555054,-0.022163325920701027,-0.6523730158805847,-0.20358341932296753,-0.7119114398956299,-0.048553284257650375,0.48729416728019714,-0.04413115233182907,-0.27015918493270874,-0.021340923383831978,-0.14948688447475433,-0.15171341598033905,0.5942171216011047,-0.1192694678902626,-0.09697763621807098,0.055200766772031784,-1.1768277883529663,0.1867016702890396,0.06058824434876442,0.2734808027744293,0.34466835856437683,0.22070226073265076,-0.13433057069778442,0.02366643026471138,0.0005824558320455253,0.036287762224674225,0.11246108263731003,0.13520105183124542,0.1035732626914978,0.016005488112568855,-0.0325198695063591,-0.004036218859255314,0.07551421225070953,0.15314394235610962,-0.18406543135643005,-0.0078311488032341,0.060654718428850174,0.026843955740332603,0.012901078909635544,-0.09416759759187698,1.10300612449646,-0.0160069540143013,0.029764313250780106,0.05661343038082123,0.035572558641433716,-0.07230909913778305,-0.08532071858644485,-0.1106124147772789,-0.03584304079413414,-0.06906774640083313,-0.33172088861465454,-0.24166782200336456,-0.009693404659628868,0.04767830669879913,-0.0017316341400146484,-0.013024825602769852,-0.006155291106551886,0.05029682070016861,-0.2943848669528961,0.003218583296984434,0.012573249638080597,-0.01137921866029501,-0.024803776293992996,-0.06539148092269897,-0.21892118453979492,0.01908986270427704,0.04069247469305992,0.022758357226848602,0.09174168109893799,0.03272641450166702,-0.33613499999046326,0.11092580854892731,0.027957206591963768,0.4570385217666626,-0.5650961399078369,0.126872718334198,0.890036940574646,0.809197187423706,0.056520018726587296,0.391552209854126,-0.6157842874526978,-0.0005770180723629892,-0.24924859404563904,-0.16896818578243256,-0.3232097625732422,0.5182418823242188,-0.6679003238677979,-0.004550275858491659,-0.014253242872655392,-0.07086852937936783,0.2150266021490097,-0.014397797174751759,-0.43493518233299255,-0.22491244971752167,0.19908085465431213,-0.2189967781305313,0.11779525876045227,0.24489954113960266,0.025871723890304565,-0.3718957006931305,-0.3188602328300476,0.01797632873058319,-0.015336956828832626,0.04184092953801155,-0.22566552460193634,0.10039057582616806,-0.039730627089738846,0.11642264574766159,-0.09640250355005264,-0.17876072227954865,-0.21542873978614807,0.18190622329711914,0.33170393109321594,-0.20902985334396362,-0.15607155859470367,-0.284932017326355,0.005951617378741503,-0.18801510334014893,-0.09685225784778595,0.003323708660900593,-0.20549653470516205,-0.31297722458839417,-0.21688783168792725,0.07812828570604324,0.03326240926980972,-0.1581750065088272,0.1560986042022705,-0.0044462792575359344,0.08573659509420395,0.06318359076976776,0.3550858199596405,-0.2141217589378357,-0.23331555724143982,0.07206431776285172,-0.05247512459754944,0.08892428874969482,-0.1255972981452942,-0.06069938838481903,0.2588140368461609,0.17544429004192352,0.21111337840557098,0.38510826230049133,0.16462159156799316,-0.2287299484014511,-0.2531808912754059,0.07257211208343506,0.24408672749996185,-0.08003228157758713,0.07616349309682846,-0.18860255181789398,-0.039604730904102325,0.06756868213415146,0.20117312669754028,-0.15987606346607208,-0.007500121369957924,0.3205687403678894,0.2490202784538269,0.024623064324259758,0.3047059178352356,0.3623696565628052,0.18312521278858185,-0.14691951870918274,-0.009285259991884232,0.016366861760616302,0.19980314373970032,0.16892962157726288,-0.19576555490493774,0.30012550950050354,-0.09642258286476135,0.16309408843517303,0.44200363755226135,-0.020524347200989723,-0.17707498371601105,0.31265947222709656,-0.19535739719867706,-0.17024178802967072,-0.11673153936862946,0.1353541612625122,0.20185813307762146,0.012204471044242382,-0.3239138424396515,-0.20548255741596222,-0.09344895929098129,0.21590319275856018,-0.13721010088920593,0.11547456681728363,0.1622001677751541,-0.029857728630304337,-0.15546992421150208,-0.23358115553855896,0.0371902771294117,-0.003020023927092552,-0.19196496903896332,0.0014011265011504292,0.5914361476898193,-0.05489763617515564,0.295854389667511,-0.08155059814453125,0.35125720500946045,-0.01642582006752491,-0.005911724641919136,0.04313092678785324,-0.15006446838378906,0.03146582096815109,0.2469353824853897,-0.10882110148668289,0.14768454432487488,-0.03149380907416344,-0.09562501311302185,-0.08422180265188217,-0.4865083694458008,-0.1329672634601593,0.1377096027135849,-0.09296214580535889,-0.11578518152236938,0.09740754216909409,-0.17596007883548737,0.18806713819503784,0.1114000678062439,-0.13805601000785828,-0.21613502502441406,-0.07835671305656433,0.24304383993148804,-0.17922243475914001,0.35802343487739563,-0.16541188955307007,0.13351546227931976,0.09005361050367355,0.019658174365758896,0.21890132129192352,0.08816545456647873,-0.2977047860622406,0.19358310103416443,0.18400195240974426,0.0550716258585453,0.1643153876066208,0.051723726093769073,-0.16614119708538055,-0.11913152039051056,-0.10230329632759094,-0.1405298113822937,0.18284328281879425,-0.07832252234220505,0.20627586543560028,0.3228885233402252,0.15344199538230896,0.1625572144985199,0.05458989366889,-0.3679761290550232,-0.2272675782442093,-0.2992717921733856,0.029370423406362534,0.0645100399851799,-0.10056130588054657,0.34900012612342834,0.063150554895401,0.09958196431398392,0.22400902211666107,0.024003881961107254,-0.11850523948669434,0.351122111082077,-0.368091344833374,0.08538439124822617,0.2686006724834442,-0.22136828303337097,-0.22192862629890442,0.14118187129497528,0.1105150431394577,-0.12935297191143036,-0.09420306235551834,-0.11641331762075424,0.09125396609306335,-0.06873105466365814,-0.15615905821323395,0.6203845739364624,0.10073938220739365,0.12920919060707092,-0.4227428734302521,0.3371028006076813,0.10223184525966644,0.17780983448028564,0.023602183908224106,0.08724341541528702,0.3200688064098358,-0.19527730345726013,-0.16684626042842865,-0.12408503890037537,-0.23780383169651031,-0.3427620232105255,-0.2626941204071045,-0.04276423901319504,-0.3845686614513397,-0.3608192205429077,0.3411136269569397,0.3952788710594177,-0.29875826835632324,0.15619847178459167,0.1344306915998459,-0.37134361267089844,-0.030007287859916687,0.11216436326503754,-0.0830685943365097,-0.07470081746578217,0.2953779101371765,-0.28759583830833435,0.24921105802059174,0.20448023080825806,-0.333182692527771,-0.002843402558937669,0.11063137650489807,-0.0527639202773571,0.0779656171798706,-0.07395531982183456,-0.5838639140129089,-0.3676014840602875,0.14971627295017242,0.17830833792686462,0.09221877157688141,0.3703151345252991,0.17037835717201233,-0.03833781182765961,0.32908758521080017,0.43383949995040894,-0.09582886844873428,0.025866009294986725,-1.1768906116485596,-1.1416985988616943,-0.4179890751838684,-0.04965223744511604,0.3395003080368042,0.014285353012382984,0.40468281507492065,-0.3259738087654114,-0.22603262960910797,-0.23993346095085144,-0.3215382993221283,-0.6576160788536072,-0.11745692044496536,-0.08688633143901825,-0.05380424112081528,-0.04385163262486458,0.14682820439338684,0.06218486651778221,-0.10929466038942337,0.11006134003400803,-0.19103306531906128,-0.3264956474304199,0.14816637337207794,-0.17338325083255768,-0.4205716848373413,-0.2625362277030945,-0.21163827180862427,0.08012378215789795,-0.21838364005088806,0.15409064292907715,-0.1678600311279297,0.03871665894985199,-0.16955773532390594,-0.27039358019828796,0.032414644956588745,0.04862574115395546,-0.4550573527812958,-0.3875158429145813,-0.40165573358535767,-0.35792121291160583,-0.2228250950574875,-0.08644603192806244,-0.31827735900878906,-0.5334471464157104,-0.31779733300209045,-0.018793007358908653,-0.26871684193611145,0.48840048909187317,-0.8726540803909302,-1.3442678451538086,-0.37859126925468445,-0.17566929757595062,0.21804240345954895,-0.1712648719549179,-0.13824711740016937,-0.9628564119338989,-0.4483102560043335,0.026383312419056892,0.003698658663779497,-0.3907853066921234,0.09975914657115936,-0.31408771872520447,-0.29063254594802856,-0.1947515606880188,0.2560040056705475,0.24682076275348663,0.07202665507793427,0.5349046587944031,-0.013402504846453667,-0.19699549674987793,0.05140691623091698,-0.009352200664579868,-0.23495176434516907,-0.006283205933868885,-0.04621518775820732,0.020261429250240326,-0.07455623149871826,0.17599175870418549,-0.05150970444083214,-0.4817826449871063,-0.43002912402153015,0.05220853537321091,-0.06884501129388809,0.07851716876029968,-0.03627805411815643,0.49915629625320435,0.0752916932106018,0.3417458236217499,-0.20458868145942688,-0.06707293540239334,-0.0874142125248909,-0.2919836640357971,0.003385789692401886,0.03573555871844292,-0.09033725410699844,0.28074270486831665,0.12445203214883804,-0.8151136040687561,-0.3330468237400055,-0.15649481117725372,0.11804384738206863,-0.06048434227705002,0.28954246640205383,0.5531008839607239,-0.1362546980381012,-0.048276837915182114,-0.05734381079673767,-0.2680895924568176,-0.09178142994642258,-0.39605677127838135,-0.052253685891628265,-0.16559509932994843,0.3765970766544342,0.2058272659778595,0.12462820112705231,0.42342624068260193,0.040793951600790024,0.16212016344070435,0.4134874641895294,-0.28639522194862366,-1.1005116701126099,0.748997688293457,-0.36859503388404846,-0.29751312732696533,0.12035596370697021,-0.13028188049793243,0.00865421537309885,0.2528492212295532,0.07188960909843445,0.006662946194410324,-0.09025681018829346,0.007402703166007996,-0.2759234309196472,0.028512615710496902,-0.23398716747760773,-0.10821469873189926,0.11912226676940918,0.24614796042442322,0.3603322207927704,0.09466005116701126,0.3114829361438751,0.4613831043243408,0.2133128046989441,-0.04246039688587189,0.4153830111026764,0.09284472465515137,0.2692607045173645,0.0011122988071292639,-0.2290404886007309,-0.17011716961860657,-0.39059412479400635,-0.5989713072776794,-0.2221103310585022,-0.20633533596992493,0.20087513327598572,0.40756863355636597,0.015149503014981747,-0.003520428203046322,0.02202730067074299,-0.03635280951857567,-0.2763321101665497,0.08684486895799637,-0.21775712072849274,-0.07234413921833038,0.013019421137869358,-0.025185707956552505,-0.12011406570672989,-0.04569043219089508,0.059529177844524384,0.31787407398223877,0.005493227858096361,-0.030146155506372452,0.04805073142051697,-0.24234634637832642,0.2545790374279022,0.4625997543334961,0.07176763564348221,-0.14982661604881287,0.23683491349220276,0.14337535202503204,0.08824075013399124,-0.2561899423599243,-0.16854993999004364,-0.18062008917331696,0.11416378617286682,-0.06739941984415054,0.06349421292543411,-0.018236059695482254,-0.1357666701078415,0.3686847984790802,0.04019564390182495,-0.30405375361442566,0.3075670003890991,0.1738465130329132,-0.0027961619198322296,0.03629632666707039,-0.2399495244026184,0.030132263898849487,-0.06176701560616493,-0.12339756637811661,-0.022888585925102234,-0.296407014131546,0.10286002606153488,-0.0469660609960556,0.20912696421146393,-0.19432750344276428,-0.10762733966112137,-0.07596767693758011,-0.2623923122882843,0.06913373619318008,0.19205692410469055,-0.04578741639852524,-0.1416032910346985,-0.4809981882572174,-0.32407188415527344,0.1787334680557251,0.24192366003990173,0.01101846806704998,-0.12855714559555054,0.18662293255329132,0.06677743047475815,-0.07232114672660828,0.14203542470932007,0.09618288278579712,0.028050139546394348,-0.26188376545906067,0.10338447242975235,-0.001224679290316999,0.10764651000499725,-0.08228269219398499,0.13280323147773743,0.16039033234119415,-0.2246822714805603,0.10402533411979675,-0.3923242688179016,-0.32078447937965393,0.035744808614254,-0.3194431662559509,0.1680164337158203,0.12938861548900604,-0.2229040414094925,-0.0667777806520462,-0.037139326333999634,0.18572837114334106,-0.12000446021556854,-0.16318510472774506,-0.04567978158593178,-0.19896705448627472,-0.02435348555445671,0.30995213985443115,-0.010205302387475967,0.2889802157878876,0.3184281885623932,0.27993685007095337,-0.013079958967864513,-0.12349598109722137,0.13404205441474915,0.010733453556895256,0.019908836111426353,0.0706714540719986,0.17345964908599854,-0.41487401723861694,-0.23634693026542664,0.07244352996349335,0.25992539525032043,-0.08326682448387146,-0.10060711950063705,-0.03447181358933449,0.04239640757441521,0.3486444652080536,0.12019716203212738,0.01027127169072628,0.09888789802789688,-0.27112507820129395,-0.025668703019618988,0.2012307494878769,0.0348275750875473,-0.011156146414577961,0.24990904331207275,-0.052076660096645355,-0.04892042651772499,-0.2741319239139557,-0.4078374207019806,-0.3077273368835449,-0.46879953145980835,-0.1308692842721939,0.06491576135158539,-0.04689033702015877,0.19440092146396637,0.2453521192073822,-0.023716334253549576,0.008336950093507767,0.009011504240334034,0.10135240852832794,-0.07864878326654434,0.19797858595848083,0.12289966642856598,-0.16718333959579468,0.11800269782543182,0.0397743284702301,-0.428013414144516,-0.2278611958026886,-0.28116393089294434,0.07929429411888123,-0.4214642345905304,-0.3526763916015625,-0.39616894721984863,-0.2787158787250519,-0.011493219994008541,-0.20471309125423431,-0.19071540236473083,0.04053904861211777,0.28719308972358704,0.2799833118915558,0.04733435809612274,-0.08097416907548904,-0.22106632590293884,0.23396694660186768,0.8906088471412659,0.8997358083724976,0.3108668625354767,0.053918831050395966,-0.06197943165898323,0.20555859804153442,-0.22968783974647522,-0.8643051981925964,-0.3231704533100128,-0.12441282719373703,-0.004605927970260382,0.19963622093200684,0.20628410577774048,0.01648549735546112,0.10948947817087173,0.23984959721565247,-0.22525447607040405,-0.2982025444507599,-0.2423386573791504,-0.33731988072395325,-0.2726287543773651,-0.19543632864952087,-0.1442972868680954,0.07548602670431137,0.025065476074814796,0.432716965675354,0.15334878861904144,-0.00723611144348979,-0.3782905638217926,0.2440354973077774,-0.03852056339383125,0.16045162081718445,-0.31013721227645874,-0.1462685763835907,0.14379295706748962,-0.005755715072154999,-0.13992464542388916,-0.5918775796890259,-0.4962552785873413,-1.1682120561599731,-0.24103444814682007,-0.04768286645412445,-1.014359712600708,-0.7795172333717346,-0.40414464473724365,-0.16613295674324036,-0.26107558608055115,0.23356300592422485,0.2818746864795685,-0.06549488008022308,0.26527631282806396,0.3431830108165741,-0.11505694687366486,-0.05155779793858528,0.16590267419815063,0.23213152587413788,0.39422762393951416,0.2110363394021988,0.39518865942955017,-0.18533551692962646,-0.20062515139579773,-0.0589938722550869,0.09428264945745468,0.7444398403167725,0.028998861089348793,-0.36485520005226135,-0.16795364022254944,-0.05397781729698181,0.13719037175178528,0.19216325879096985,0.16912706196308136,-0.13029368221759796,0.4408450126647949,0.2934529185295105,0.3346294164657593,-0.12177003920078278,0.2171112298965454,0.0502886064350605,-0.11384668201208115,0.2439783662557602,0.4010155498981476,-0.6166472434997559,0.012467198073863983,-0.5574936866760254,0.10294023901224136,0.10658580809831619,0.5622225403785706,-0.23519717156887054,-0.6141340136528015,0.2781364917755127,-0.04559598118066788,-0.01805281639099121,0.3603454828262329,0.04496690258383751,-0.03871413320302963,-0.1851074993610382,-0.08837193250656128,-0.021589118987321854,-0.14681574702262878,-0.6200886964797974,-0.33460167050361633,-0.0787774920463562,-0.10272258520126343,-0.1314999908208847,0.34180307388305664,-0.1270381510257721,0.3685655891895294,0.4578606188297272,-0.14934471249580383,-0.11209510266780853,0.3876331150531769,-0.15848030149936676,-0.24106626212596893,-0.06088000535964966,-0.05757898464798927,0.07888215780258179,0.1332690417766571,0.20270048081874847,0.05474212020635605,0.29884812235832214,0.49692702293395996,0.08426535874605179,-0.004856997635215521,0.03498009964823723,-0.08660067617893219,-0.2844190299510956,-0.1822327822446823,0.1177559345960617,-0.15322381258010864,-0.186143696308136,-0.0303714107722044,0.47506096959114075,-0.38986825942993164,-0.049049872905015945,-0.008556358516216278,-0.08397243171930313,0.12907195091247559,0.6259016990661621,0.042222119867801666,0.0648733451962471,0.15187563002109528,-0.1385616660118103,0.005657364148646593,-0.38255396485328674,0.09651979804039001,0.11572842299938202,0.11979321390390396,0.07882644236087799,0.032731134444475174,-0.009878695011138916,-1.0800787210464478,-0.05739134922623634,-0.03640118986368179,-0.09709636121988297,0.02721421979367733,0.699618935585022,-0.15693745017051697,-0.04599667713046074,-0.13292543590068817,-0.25616684556007385,0.09255485981702805,0.2595776319503784,0.5465023517608643,-0.3553486466407776,-0.23847933113574982,-0.04396802932024002,-0.19898425042629242,0.6682798266410828,-0.9784446954727173,-0.2334623783826828,0.05943210795521736,-0.04012437164783478,-0.06253854185342789,-0.5758048892021179,-0.798068642616272,-0.15825746953487396,0.23770910501480103,0.08191024512052536,0.236657053232193,0.15419337153434753,-0.22622059285640717,0.3028118312358856,-0.01574813760817051,-0.06712646782398224,0.058681149035692215,0.2957032024860382,-0.13024279475212097,-0.16980427503585815,-0.2170923948287964,-0.060837943106889725,0.006456604227423668,-0.25889384746551514,0.3251195251941681,-0.13832513988018036,-0.12833546102046967,-0.10150172561407089,-0.03229190409183502,-0.10658105462789536,0.4028744101524353,-0.16246788203716278,0.13369512557983398,-0.01588858850300312,0.09410890191793442,0.6644867658615112,0.21824851632118225,0.1263599693775177,0.15739206969738007,-0.07263924926519394,0.2575226426124573,0.0374768003821373,-0.05319211259484291,0.10727328807115555,-0.2379780113697052,-0.09948579221963882,-0.1892716884613037,-0.08988213539123535,-0.09962132573127747,-0.31595176458358765,0.06671486794948578,0.03748670220375061,-0.021080853417515755,0.10594882816076279,0.25141534209251404,-0.6812870502471924,0.17869381606578827,0.07451583445072174,0.142678365111351,0.11267232149839401,-0.1798153817653656,-0.10579656809568405,-0.043353121727705,-0.03459632769227028,0.011866418644785881,-0.10864576697349548,-0.489120215177536,0.013427263125777245,-0.19215239584445953,-0.1288376897573471,-0.09712766110897064,-0.20597012341022491,0.27409330010414124,-0.08126981556415558,-0.13219180703163147,-0.09875690937042236,-0.10120964795351028,-0.11952386051416397,0.0228707417845726,0.1878223568201065,0.14293405413627625,0.04990081116557121,0.13873814046382904,0.02353796549141407,-0.28126025199890137,0.06676755845546722,0.14303486049175262,0.036149147897958755,0.1937173455953598,-0.12043774873018265,0.04210323467850685,-0.2879275381565094,-0.0433267317712307,0.063214972615242,-0.16633367538452148,0.03960096836090088,-0.08373245596885681,0.09814033657312393,0.030322352424263954,-0.03115571290254593,-0.13324348628520966,-0.021134458482265472,0.025574300438165665,-0.06605200469493866,0.04525800049304962,0.0058048684149980545,-0.05999405309557915,0.044257309287786484,0.07708772271871567,-0.31893426179885864,-0.0023378224577754736,-0.0031485543586313725,-0.07705441862344742,0.010465997271239758,0.04820427671074867,0.24866648018360138,-0.030586404725909233,0.02454322762787342,-0.04581640660762787,0.06295458972454071,-0.0921742245554924,0.7055212259292603,0.009121664799749851,-0.02235184609889984,-0.30220600962638855,0.10698508471250534,-0.0699886679649353,-0.045534975826740265,0.03717922046780586,-0.009898949414491653,0.0906209722161293,-0.041086141020059586,0.05653127282857895,-0.2854701280593872,0.034426167607307434,0.008062154985964298,-0.05364016070961952,0.025861840695142746,0.0530044287443161,-0.32722529768943787,0.07640278339385986,0.07021539658308029,-0.30681002140045166,0.14447592198848724,-0.033409375697374344,0.018390990793704987,-0.039204102009534836,0.016490129753947258,-0.15115021169185638,0.10508348047733307,0.03283431753516197,0.07650712132453918,-0.23860406875610352,-0.04685763269662857,0.07809074968099594,-0.050523459911346436,-0.42013803124427795,0.7418334484100342,0.0059971679002046585,0.08379148691892624,0.13123226165771484,-0.12364913523197174,-0.15727727115154266,0.2835964262485504,-0.021825391799211502,0.03194791451096535,0.04654967412352562,0.09087540954351425,-0.10326218605041504,-0.48210301995277405,0.07728207856416702,0.0014544832520186901,-0.09500294178724289,0.015209455043077469,0.18404090404510498,0.04252057522535324,0.020891796797513962,0.037622854113578796,0.06950002908706665,0.025371994823217392,0.10587842762470245,-0.3887281119823456,0.050686195492744446,0.12511099874973297,0.14779959619045258,0.14809828996658325,0.396406352519989,-0.022154072299599648,0.27883821725845337,0.6603941917419434,0.3122105598449707,0.514575183391571,-0.12437707930803299,0.059677042067050934,0.02227160707116127,0.1185564398765564,-0.2885107398033142,0.40290379524230957,0.3368726670742035,-0.41505035758018494,-0.17401555180549622,-0.17207969725131989,-0.47951263189315796,0.32448625564575195,-0.0747222900390625,-1.4915921688079834,-0.14098727703094482,-0.16144701838493347,-0.25182509422302246,0.1981952041387558,1.0652885437011719,0.5998390913009644,0.40901684761047363,0.40590572357177734,0.734521746635437,0.8402855396270752,2.1365909576416016,0.22193077206611633,0.22170548141002655,0.05195628106594086,0.18990744650363922,-0.2374134063720703,-0.4554521441459656,-0.18246282637119293,-0.07965876162052155,0.3618975281715393,0.3831961154937744,0.8510538935661316,1.5545984506607056,0.4189072549343109,-0.20595335960388184,-0.07077372819185257,0.2135213315486908,-0.0631101205945015,-1.1978447437286377,0.2173604518175125,0.12313921749591827,0.10243638604879379,-0.10236988216638565,-0.02876098081469536,-0.10980702936649323,-0.10913588106632233,0.0968351736664772,0.13860449194908142,-0.02436782419681549,0.13138066232204437,0.05591575801372528,0.0015165370423346758,-0.24383729696273804,0.061185356229543686,-0.04340999945998192,-0.12364082783460617,0.10603980720043182,-0.06969797611236572,0.08932692557573318,0.17143160104751587,0.2897169589996338,0.3891497254371643,0.4113515019416809,-0.010234463959932327,0.26147064566612244,0.11958585679531097,0.05058916285634041,0.20464520156383514,0.09774885326623917,0.18587681651115417,0.0471050851047039,0.08827720582485199,0.30160728096961975,0.20060323178768158,-0.11391948163509369,0.03589310497045517,-0.1737082451581955,-0.12017863988876343,-0.347111314535141,-0.15119881927967072,-0.07121358066797256,0.02828519232571125,0.01855086162686348,0.31361261010169983,0.040229156613349915,0.2295815646648407,0.08649798482656479,0.14353060722351074,0.06409867107868195,0.12570112943649292,-0.05922883749008179,0.03914513811469078,-0.24786874651908875,-0.48839181661605835,-0.007951715029776096,0.14843814074993134,0.052190735936164856,0.1974879503250122,0.2049604207277298,0.5044347047805786,-0.06355606764554977,-0.08804378658533096,-0.06836392730474472,-0.03376460447907448,-0.24776579439640045,-0.5996472835540771,0.008902233093976974,0.08865625411272049,-0.024221809580922127,-0.03963252156972885,0.12141726911067963,0.4564701318740845,0.08611661940813065,0.07396084815263748,-0.01532998401671648,0.014667618088424206,-0.10849213600158691,-0.1718142330646515,0.13025669753551483,0.09253571927547455,0.0800725445151329,0.09032590687274933,0.06308767944574356,0.3153647184371948,-0.04158950224518776,-0.03021656535565853,-0.034830883145332336,0.0825803354382515,-0.017271773889660835,-0.2529087960720062,-0.03327690064907074,-0.13308759033679962,0.010824891738593578,0.01922408863902092,-0.04970090836286545,0.75309818983078,-0.2702769935131073,0.28214943408966064,0.03294408693909645,0.17968671023845673,0.008894609287381172,-0.5333162546157837,-0.22101561725139618,0.07927212119102478,0.469754695892334,0.08771159499883652,0.6817415356636047,-0.4623050391674042,0.14082607626914978,0.45584046840667725,0.02886900305747986,-0.8979833126068115,-0.09076027572154999,0.05126986280083656,0.011010157875716686,0.3145963251590729,0.06517769396305084,0.0007697645341977477,-0.12410572916269302,0.5401686429977417,0.08456329256296158,0.7516560554504395,0.17926570773124695,0.12994495034217834,0.04656960442662239,0.07515782862901688,0.25644898414611816,-0.06812155991792679,-0.491441935300827,-0.5103901028633118,0.3161962032318115,0.6552563905715942,-0.5137912631034851,-0.12228574603796005,0.17313402891159058,0.34076979756355286,0.2723667323589325,0.5382151007652283,0.3139074146747589,-0.6278563141822815,-0.24507354199886322,0.03100142814218998,0.22758884727954865,0.05081655830144882,-0.46135932207107544,-0.6124598383903503,0.14095129072666168,-0.7383071780204773,0.20164205133914948,-0.08702117204666138,0.2760484516620636,-0.030408814549446106,-0.1601380854845047,0.20065315067768097,0.44034531712532043,0.06678306311368942,-0.0499035120010376,-0.050805073231458664,-0.32667890191078186,-0.3068253993988037,-0.050621092319488525,-0.5221346020698547,0.8906643986701965,-0.10382061451673508,0.5943294763565063,0.02078057825565338,0.03847001865506172,0.368708997964859,-0.26935452222824097,0.00040955020813271403,-0.4815783202648163,0.3105190098285675,0.22504477202892303,-0.07186160981655121,-0.2277078479528427,-0.35229432582855225,-0.1042715460062027,0.17793157696723938,0.12179134041070938,0.16081924736499786,0.11795569956302643,-0.04761743173003197,0.13047070801258087,-0.2582862079143524,-0.11741673201322556,-0.1327662169933319,-0.02216549590229988,-0.13824798166751862,-0.15705901384353638,0.23830156028270721,-0.03679162263870239,-0.05792577192187309,-0.0701550841331482,-0.08249373733997345,-0.059697140008211136,-0.29000478982925415,0.014342364855110645,-0.012408041395246983,-0.09241451323032379,0.0561959370970726,0.036152757704257965,0.1403479129076004,0.075343556702137,0.0954224243760109,0.11977249383926392,0.20238208770751953,0.14926879107952118,-0.15034358203411102,0.037238605320453644,0.06697067618370056,0.1645607203245163,0.08693026751279831,-0.02919619157910347,-0.08749493956565857,-0.0018399064429104328,-0.021332524716854095,0.023908549919724464,-0.06598038971424103,-0.07402252405881882,0.16178126633167267,-0.069462351500988,-0.07025115191936493,-0.08357664942741394,-0.1145729124546051,-0.15208764374256134,-0.02649267390370369,0.04697459191083908,0.048832036554813385,0.0015091638779267669,0.02366773597896099,0.02129085175693035,0.46551117300987244,-0.054836396127939224,0.02062659151852131,-0.05306798219680786,0.08459898829460144,-0.2998020648956299,-0.09207932651042938,-0.005539511330425739,0.028579164296388626,0.06449507921934128,0.1092446818947792,0.3447391390800476,0.023238051682710648,0.016686085611581802,0.018838701769709587,0.0008543033618479967,0.0015599761391058564,0.054557401686906815,0.162159726023674,-0.00019768888887483627,-0.041990090161561966,0.003606067504733801,-0.1482539176940918,-0.037617966532707214,-0.06926063448190689,-0.08369006961584091,-0.038245197385549545,-0.08957694470882416,-0.12626345455646515,-0.1773255318403244,-0.30253639817237854,0.02184699848294258,-0.004966638516634703,0.034961119294166565,0.029123451560735703,0.5650209784507751,0.1077500730752945,0.006023623514920473,-0.015835782513022423,0.08045098185539246,0.12851908802986145,0.40012016892433167,0.18050532042980194,0.06644613295793533,-0.03022916615009308,0.16338999569416046,0.04691549763083458,-0.2318725287914276,0.30397388339042664,0.013488654047250748,0.013318892568349838,-0.0034215424675494432,-0.0187592264264822,-0.6603643894195557,-0.0060507021844387054,-0.023928562179207802,-0.03663283959031105,0.04197000339627266,0.07722922414541245,0.26338836550712585,0.030716506764292717,-0.029245804995298386,-0.004194270353764296,0.047332290560007095,0.118067666888237,-0.24532093107700348,0.057217322289943695,0.027173416689038277,-0.022161193192005157,-0.004428480286151171,-0.046294137835502625,-0.23434309661388397,-0.09411050379276276,0.05571392923593521,-0.0015081972815096378,-0.002523761009797454,-0.05082905665040016,0.41983532905578613,-0.1376718431711197,-0.01372453011572361,0.017352547496557236,0.008639439940452576,-0.09292037039995193,1.015225887298584,-0.018369784578680992,-0.018451860174536705,-0.011786969378590584,0.00401760870590806,-0.028468001633882523,0.21886591613292694,0.06921538710594177,-0.03439217060804367,-0.013065644539892673,0.020386695861816406,-0.15055443346500397,-0.3448846638202667,0.015284157358109951,0.013612520880997181,-0.01404475700110197,0.022954154759645462,-0.03367304056882858,-0.030773580074310303,0.025627996772527695,0.03396439924836159,0.060666199773550034,0.018762804567813873,0.03373005613684654,-0.29550766944885254,-0.19976291060447693,0.09690152853727341,0.05098004639148712,0.014519614167511463,0.0543045848608017,-0.23873122036457062,0.0649692565202713,-0.031189650297164917,-0.004713228438049555,0.021189464256167412,0.03595500439405441,0.05665230378508568,0.2236897498369217,-0.11097507178783417,-0.03648443892598152,0.03313443809747696,-0.04726800695061684,-0.01124891173094511,0.3655798137187958,0.10486362874507904,0.0391840934753418,0.0474865697324276,0.01553361676633358,0.007848258130252361,-0.19748175144195557,0.029009466990828514,0.03646174445748329,0.0019431884866207838,0.04083666577935219,0.0034941774792969227,-0.2808925211429596,0.10295936465263367,0.0607851967215538,0.007293340750038624,0.11135454475879669,0.016346292570233345,-0.3924325108528137,-0.09477092325687408,-0.08940070867538452,-0.1252927929162979,-0.2348550707101822,-0.506178617477417,-0.18463104963302612,0.02212398871779442,0.00852394849061966,-0.01920434646308422,-0.11298290640115738,-0.320616751909256,0.048904899507761,0.06985324621200562,0.043172817677259445,0.10717638581991196,0.010766170918941498,-0.19991199672222137,0.17491205036640167,0.003668815130367875,0.05149691551923752,0.032223764806985855,0.10051237791776657,-0.1086040660738945,-0.08034832030534744,-0.07799703627824783,-0.043774500489234924,-0.1070789247751236,-0.10018932819366455,-0.10058591514825821,-0.2738451063632965,-0.003069009631872177,0.004596117418259382,-0.018375765532255173,-0.0498984232544899,0.6201027035713196,-0.052180901169776917,0.02109317108988762,0.00424613943323493,0.008410273119807243,0.0377836674451828,-0.022777121514081955,0.15903419256210327,0.10466916859149933,0.09463585168123245,0.10353907942771912,0.18821461498737335,-0.4728671610355377,0.211904376745224,0.08317232877016068,0.06732894480228424,0.06347962468862534,0.013409288600087166,-0.4518587291240692,-0.12376455962657928,-0.014327645301818848,-0.022843100130558014,-0.02026587538421154,0.010545984841883183,0.16673745214939117,-0.00470807496458292,-0.018488330766558647,0.004026998765766621,-0.03455790504813194,0.1512218713760376,0.24803121387958527,0.09015559405088425,-0.01454863604158163,-0.031129218637943268,-0.01601780764758587,0.10663820058107376,0.046324316412210464,-0.15214504301548004,0.020638808608055115,-0.0045525869354605675,0.03527538478374481,0.06881680339574814,-0.08403052389621735,-0.4260367453098297,0.03364035114645958,0.012780719436705112,0.02266916073858738,0.021449461579322815,0.23698116838932037,-0.012551587074995041,-0.02641647309064865,0.004321781452745199,-0.04896613210439682,-0.15394212305545807,0.08387330174446106,0.0831393301486969,-0.07248438894748688,-0.057944200932979584,-0.12826287746429443,-0.12504427134990692,-0.25637900829315186,0.1926904320716858,0.0057610501535236835,-0.0031132663134485483,0.06592823565006256,-0.03955032303929329,-0.03397069871425629,-0.004322743508964777,-0.06034860014915466,-0.061610784381628036,-0.07900969684123993,-0.2126959264278412,-0.10669533908367157,-0.24271459877490997,-0.1068221852183342,0.01753878779709339,0.07548584043979645,0.04647434875369072,-0.08947042375802994,0.01435554027557373,0.0005220195162110031,-0.07885050028562546,-0.10580894351005554,0.0631355419754982,0.09626302123069763,-0.16718147695064545,0.026458175852894783,-0.14406731724739075,-0.1173994392156601,-0.08945294469594955,-0.0026334950234740973,-0.19301418960094452,-0.17416302859783173,-0.10593599826097488,-0.007831007242202759,-0.10131800174713135,-0.02542370744049549,0.07167929410934448,0.03873629868030548,0.040837645530700684,-0.11142168939113617,-0.009870572946965694,0.11620350182056427,-0.10297133028507233,-0.10222142189741135,-0.0598207451403141,-0.13922472298145294,0.05028323084115982,-0.030488822609186172,-0.21419429779052734,0.0543212965130806,0.18891426920890808,0.03712037205696106,0.06988402456045151,0.18062680959701538,-0.5031408071517944,0.02462218888103962,0.047409553080797195,0.05385258048772812,0.016595985740423203,0.09284408390522003,-0.14031629264354706,-0.0005784616223536432,-0.03315708413720131,0.025483401492238045,-0.15294580161571503,-0.19534821808338165,0.3298698365688324,-0.013409674167633057,-0.06105172261595726,-0.008432048372924328,-0.1260184347629547,-0.11667400598526001,0.0065564364194869995,-0.06037496030330658,0.00291204615496099,0.00731884129345417,0.00021594326244667172,0.19199612736701965,-0.11194827407598495,-0.047938838601112366,-0.03604118898510933,-0.0529218353331089,-0.06036965921521187,0.12058540433645248,-0.154740571975708,0.13750268518924713,0.10140634328126907,0.027761127799749374,0.15830673277378082,0.08490931242704391,-0.37069475650787354,0.04428448900580406,-0.10398411750793457,-0.03350890055298805,0.04039851203560829,0.03995683416724205,0.09211301058530807,-0.26616939902305603,0.04715454950928688,-0.1423701047897339,-0.085674948990345,0.21009516716003418,0.22538384795188904,0.06899801641702652,-0.020961225032806396,0.9646057486534119,0.34997856616973877,-0.31528663635253906,0.9038959741592407,0.14181837439537048,-0.17105086147785187,0.41624540090560913,0.18152117729187012,-0.31108230352401733,0.1499098688364029,0.43918824195861816,0.21704478561878204,0.43745726346969604,0.13104678690433502,-0.23283228278160095,0.5344443917274475,0.17916084825992584,-0.0696028620004654,0.08716316521167755,-0.178536057472229,-0.22104214131832123,0.07535798102617264,0.3653722405433655,0.023775678128004074,0.4088628590106964,-0.15908445417881012,-0.1690163016319275,-0.20403297245502472,-0.20446155965328217,-0.16714392602443695,0.08043220639228821,0.00004946897752233781,0.400802344083786,-0.011577264405786991,0.0741797387599945,-0.07147186249494553,0.45285123586654663,-0.05623139068484306,0.2658185362815857,0.27638131380081177,0.021889738738536835,0.2049567550420761,0.3935965299606323,-0.2250991016626358,0.10761965066194534,0.2623511552810669,0.3994162380695343,0.07416428625583649,0.12318745255470276,0.268201619386673,-0.14214105904102325,0.22938202321529388,-0.03610485419631004,-0.13859963417053223,-0.43323183059692383,0.16423237323760986,0.22920510172843933,-0.27284690737724304,-0.21674297749996185,