{"version":"0.5.4","metadata":{"date":{"year":2025,"month":3,"day":21,"hour":15,"minute":6,"second":42},"loudness":-12.246782302856445,"gain":0.43399832423523077,"name":"FZ-1w Modern l02 t05 f07","modeled_by":"ibodog","gear_type":"amp","gear_make":"tz-make","gear_model":"tz-model","tone_type":"overdrive","input_level_dbu":null,"output_level_dbu":null,"training":{"settings":{"ignore_checks":true},"data":{"latency":{"manual":null,"calibration":{"algorithm_version":1,"delays":[0],"safety_factor":1,"recommended":-1,"warnings":{"matches_lookahead":false,"disagreement_too_high":false}}},"checks":{"version":4,"passed":false}},"validation_esr":0.003095408951162843}},"architecture":"WaveNet","config":{"layers":[{"input_size":1,"condition_size":1,"head_size":8,"channels":16,"kernel_size":3,"dilations":[1,2,4,8,16,32,64,128,256,512],"activation":"Tanh","gated":false,"head_bias":false},{"input_size":16,"condition_size":1,"head_size":1,"channels":8,"kernel_size":3,"dilations":[1,2,4,8,16,32,64,128,256,512],"activation":"Tanh","gated":false,"head_bias":true}],"head":null,"head_scale":0.02},"weights":[-0.0029617685358971357,0.22898274660110474,-0.49491411447525024,-0.5716906189918518,-0.10383439064025879,0.1385648548603058,0.00223556743003428,0.3327769339084625,-0.00011156413529533893,0.16134384274482727,-0.00981508195400238,-0.045584455132484436,-0.5955617427825928,-0.43463653326034546,0.0015406095189973712,-0.001386091927997768,-0.05459646135568619,0.13338525593280792,0.03532102331519127,-0.18348172307014465,-0.08463773876428604,0.12940989434719086,0.09977959841489792,0.24996088445186615,-0.03773657977581024,0.14781001210212708,0.27865904569625854,-0.13804283738136292,0.012109359726309776,0.11477041244506836,-0.04704418405890465,0.13081811368465424,-0.1800408959388733,0.06885168701410294,-0.07564259320497513,-0.10683314502239227,-0.17060117423534393,0.0022660878021270037,-0.08124490827322006,0.08105293661355972,0.013373680412769318,-0.057549022138118744,0.08200554549694061,-0.23279841244220734,-0.2233356237411499,-0.06110904738306999,-0.010739252902567387,0.05776822939515114,-0.37124139070510864,-0.004257024731487036,0.17556633055210114,0.11216621845960617,0.19382834434509277,0.1766054630279541,0.10539122670888901,0.042636439204216,0.17076121270656586,-0.12031349539756775,-0.014193733222782612,0.08197460323572159,0.12729333341121674,-0.25973474979400635,-0.428054541349411,-0.19470526278018951,0.031749427318573,-0.016491146758198738,-0.11387080699205399,-0.2819519639015198,0.24768225848674774,0.2179872989654541,0.219809427857399,-0.21878769993782043,-0.0362730398774147,0.4467335045337677,-0.03636966273188591,0.05067004635930061,0.3014862537384033,-0.24604913592338562,-0.022489823400974274,-0.28727513551712036,-0.015912212431430817,0.30027300119400024,-0.01575358584523201,-0.05080922693014145,0.04117649793624878,-0.33974093198776245,0.12712424993515015,0.012774542905390263,0.04662174731492996,-0.08817850798368454,0.09743659198284149,-0.21030659973621368,0.2896895408630371,0.13256829977035522,0.14111292362213135,-0.03513158857822418,-0.20181550085544586,0.1963704526424408,-0.19241030514240265,-0.034557219594717026,0.46120160818099976,-0.05177102982997894,-0.12538491189479828,0.28760001063346863,-0.2992574870586395,-0.08337321132421494,-0.017245687544345856,-0.31036248803138733,-0.1293243169784546,0.20793844759464264,-0.13689284026622772,0.1955135017633438,-0.05556722357869148,0.13771770894527435,0.11890087276697159,0.16279369592666626,-0.15237358212471008,-0.19802914559841156,-0.2781182825565338,0.1529342234134674,0.27180033922195435,-0.29281115531921387,0.042038965970277786,0.2711152732372284,-0.3913209140300751,0.003727933391928673,0.13228930532932281,0.06311337649822235,-0.1759990155696869,-0.41316360235214233,0.032216787338256836,-0.000991079374216497,0.024886097759008408,0.2797335386276245,-0.0034458583686500788,-0.21529947221279144,0.03211303800344467,0.08797354251146317,0.1257343739271164,0.3471839725971222,-0.004574276506900787,-0.11638126522302628,0.0329655297100544,0.04440828412771225,0.27031299471855164,-0.20882011950016022,0.20130373537540436,0.13741838932037354,-0.3754695951938629,-0.011585050262510777,0.052551742643117905,-0.4166037142276764,0.08613121509552002,0.2853679656982422,-0.026306048035621643,0.0004044407978653908,0.2902277112007141,-0.06956469267606735,0.10875535756349564,-0.15350128710269928,-0.18334496021270752,-0.05274254456162453,-0.22311583161354065,-0.1527092158794403,0.03938809782266617,0.13511209189891815,-0.03186188265681267,-0.0005735158920288086,-0.26414042711257935,0.024194156751036644,0.07570916414260864,-0.1876172125339508,0.15326881408691406,-0.009191686287522316,-0.2574912905693054,0.08701130002737045,0.08527911454439163,0.12538623809814453,0.16614368557929993,-0.1571073830127716,-0.09479016065597534,-0.06466526538133621,0.15602710843086243,0.16944649815559387,0.1298605054616928,0.22304551303386688,0.29182344675064087,-0.03861374035477638,-0.0424785278737545,0.22050653398036957,0.2404608130455017,0.047422923147678375,-0.1957964152097702,-0.015510467812418938,-0.19529487192630768,-0.24606913328170776,-0.04737241193652153,0.0016417105216532946,-0.20872673392295837,0.028530161827802658,-0.04854125529527664,-0.03935326263308525,-0.08901011943817139,-0.18601909279823303,-0.2537713348865509,0.06539813429117203,0.10348266363143921,0.3231183886528015,0.05364760756492615,0.02186901681125164,0.017372524365782738,-0.03056354634463787,0.025691933929920197,-0.05109851062297821,0.005274118389934301,0.014800667762756348,-0.08754191547632217,-0.06421905755996704,0.11410478502511978,-0.09309072047472,-0.003119490807875991,0.13022951781749725,0.05961223319172859,0.007692683022469282,-0.13678723573684692,0.03024301305413246,-0.0961335152387619,-0.11460134387016296,-0.03569236397743225,-0.02477591298520565,0.008996615186333656,0.09876835346221924,0.08770796656608582,0.1705247014760971,0.1396826058626175,-0.10295327752828598,0.06957146525382996,-0.11314266920089722,-0.10794380307197571,0.01760132983326912,0.04167543724179268,0.13391225039958954,-0.04551370069384575,0.008153988048434258,0.0858096182346344,-0.14495812356472015,0.12344533950090408,-0.11047818511724472,-0.0014462590916082263,-0.0007831066031940281,-0.07836013287305832,0.0004285506729502231,0.11592654883861542,0.1381942182779312,0.0787150040268898,0.13616465032100677,-0.11710681021213531,-0.0024842892307788134,-0.14599981904029846,0.2384212464094162,-0.1654217392206192,-0.045210037380456924,-0.27226102352142334,0.19590115547180176,0.1887814700603485,-0.39586344361305237,0.042152948677539825,0.16859464347362518,-0.17198288440704346,0.09786612540483475,0.020225930958986282,0.11643880605697632,-0.20799656212329865,-0.1670813411474228,0.026299800723791122,-0.022297415882349014,0.39066189527511597,0.2369152456521988,-0.09270024299621582,-0.08058295398950577,-0.06343360990285873,-0.056803736835718155,-0.07054893672466278,0.4216802418231964,-0.0855109691619873,-0.012296086177229881,-0.2706361413002014,0.016333768144249916,0.3233344256877899,-0.17918764054775238,-0.04091716930270195,0.06912141293287277,-0.30082574486732483,0.06871763616800308,0.08160525560379028,-0.4318026006221771,0.182388573884964,0.02000824175775051,-0.08646269142627716,0.055203016847372055,0.06467975676059723,-0.10476120561361313,-0.12239257991313934,-0.041731059551239014,0.05192990228533745,-0.2123796045780182,-0.21887530386447906,0.08466653525829315,-0.053671251982450485,-0.16287332773208618,-0.14689506590366364,0.08787853270769119,0.20383743941783905,-0.07313881814479828,0.1696036010980606,0.2473611831665039,-0.06708038598299026,0.10567940771579742,0.17825636267662048,-0.04715932533144951,-0.11242852360010147,-0.2075451761484146,-0.07279056310653687,0.060473982244729996,0.22085531055927277,0.14787691831588745,-0.02904222160577774,-0.13285452127456665,-0.0169002003967762,0.055180713534355164,0.07154018431901932,-0.12502214312553406,0.008812913671135902,-0.06069148704409599,-0.09228966385126114,0.12402137368917465,0.3770297169685364,0.21728122234344482,0.2313385307788849,0.18675003945827484,-0.0513300821185112,0.059477727860212326,0.2592960596084595,0.059746354818344116,0.02578011527657509,0.27742958068847656,0.06641852855682373,0.1521754115819931,0.01632043346762657,0.12836630642414093,0.04159584268927574,0.4362782835960388,0.03119521029293537,-0.04753127694129944,-0.023414460942149162,0.2468070685863495,0.2125329226255417,0.04869195073843002,-0.30186727643013,-0.2369230091571808,-0.06823710352182388,-0.3463161289691925,-0.3962124288082123,0.12756957113742828,-0.08072806894779205,-0.14284712076187134,0.10510656237602234,-0.08353729546070099,0.12275031954050064,-0.15914253890514374,-0.08498974144458771,0.017031248658895493,-0.09170673787593842,0.1225663498044014,0.13364137709140778,-0.10052294284105301,0.09206835180521011,0.045199792832136154,-0.0037849731743335724,0.26764532923698425,0.37063461542129517,-0.06016932427883148,0.027378549799323082,-0.1103377491235733,0.23400378227233887,0.09721684455871582,-0.15739092230796814,0.07251058518886566,-0.256418913602829,-0.21996884047985077,0.01531415618956089,-0.23234957456588745,-0.3552931547164917,-0.06239865720272064,-0.16132931411266327,-0.08969343453645706,0.14901085197925568,-0.021800240501761436,-0.12146114557981491,-0.15382535755634308,0.12101022154092789,0.04021058604121208,-0.0008822428644634783,0.18779590725898743,0.007120675407350063,-0.1623236984014511,0.07582741975784302,0.16441388428211212,0.0106933219358325,0.023046737536787987,-0.029034968465566635,0.031038418412208557,0.09576328098773956,0.03978438302874565,-0.07447271794080734,-0.10621501505374908,-0.11904160678386688,-0.19331975281238556,-0.10879407078027725,-0.03630431368947029,-0.0479588657617569,-0.03765639290213585,-0.04221820458769798,0.011759054847061634,0.11039984971284866,0.0025279021356254816,0.10821978747844696,-0.08021354675292969,-0.1357022076845169,-0.0014960560947656631,-0.12773029506206512,0.05630023777484894,0.22929301857948303,0.039898451417684555,-0.06144170090556145,-0.0492652989923954,-0.027420923113822937,-0.06682496517896652,0.1131402775645256,-0.1864927113056183,-0.08394160121679306,-0.08379939943552017,-0.05056825652718544,0.1813596785068512,-0.03603101894259453,0.3689629137516022,0.2159705013036728,0.2483145147562027,0.10543442517518997,-0.0017119236290454865,0.3492306172847748,0.09217091649770737,0.14286404848098755,0.02651400864124298,-0.10870689898729324,0.11983106285333633,0.057423099875450134,0.055933043360710144,-0.11881869286298752,0.001467619789764285,-0.15536560118198395,-0.06972825527191162,0.057137683033943176,-0.12870632112026215,0.014818900264799595,0.0005130878416821361,-0.009332551620900631,-0.11433243006467819,-0.06874191761016846,-0.030824849382042885,0.06878514587879181,0.09874554723501205,0.06055185943841934,0.12032239884138107,0.24517537653446198,-0.14421860873699188,-0.13230083882808685,0.02171236462891102,-0.2111515998840332,0.12112311273813248,0.07416947185993195,-0.04217100888490677,-0.1161559522151947,0.09775087982416153,-0.03221248462796211,0.10165167599916458,0.12478189915418625,0.0681057944893837,0.004066417925059795,0.0025899047031998634,-0.05291960760951042,0.020068027079105377,0.11899663507938385,-0.1963125318288803,0.13433286547660828,0.11183400452136993,0.0771215483546257,-0.18216729164123535,-0.06443054229021072,0.09493111073970795,-0.13160064816474915,0.21155063807964325,0.10775129497051239,0.08949136734008789,0.007916864939033985,-0.04459676146507263,0.05027709901332855,-0.054239656776189804,-0.01282032672315836,0.030729196965694427,-0.143769308924675,0.07917322218418121,0.009867647662758827,0.051523443311452866,0.1444683074951172,-0.007558125536888838,-0.026072554290294647,-0.027938494458794594,0.08261524140834808,0.08690854161977768,0.18820291757583618,-0.08511538058519363,0.01158896554261446,-0.13371096551418304,-0.07845162600278854,0.03463703393936157,0.26926201581954956,-0.027324246242642403,-0.0328088141977787,-0.06228351220488548,0.10931505262851715,0.03723987564444542,-0.07789695262908936,-0.11774345487356186,-0.21987797319889069,0.034934233874082565,-0.03550266474485397,-0.20665238797664642,-0.02355339378118515,0.008353456854820251,-0.16396932303905487,0.1532987654209137,0.1520417332649231,-0.013799271546304226,-0.005497938487678766,-0.049890171736478806,-0.19693124294281006,-0.053743455559015274,-0.08894077688455582,0.2148105502128601,-0.07613338530063629,-0.10204900056123734,0.0698762759566307,-0.02735970914363861,0.06110941618680954,-0.0933503583073616,0.022869011387228966,-0.01878831349313259,0.006536038592457771,-0.03420037403702736,-0.15955768525600433,-0.03377443924546242,-0.04029497131705284,0.06850287318229675,-0.11866298317909241,0.08062057942152023,-0.058594897389411926,0.05083535239100456,-0.021688353270292282,-0.10858744382858276,-0.11312223225831985,0.009638979099690914,-0.08227117359638214,-0.011678880080580711,-0.019277960062026978,0.2003171443939209,0.08516557514667511,-0.03196260705590248,0.10993046313524246,0.10404747724533081,0.02092859335243702,-0.09142044931650162,-0.21756382286548615,0.09758942574262619,0.022393515333533287,-0.15128113329410553,0.08715463429689407,0.09149285405874252,0.08299383521080017,0.08946244418621063,0.13522744178771973,-0.14073319733142853,-0.14341597259044647,0.09752929210662842,0.05506962537765503,0.05081368610262871,-0.14065632224082947,0.11964356154203415,0.15125559270381927,0.14820893108844757,-0.10609230399131775,-0.03666370362043381,-0.07475270330905914,0.1590304970741272,-0.04806557297706604,-0.047199297696352005,0.0859760269522667,-0.061971958726644516,-0.020095443353056908,0.051823657006025314,0.05904187262058258,-0.11044951528310776,-0.1487722247838974,-0.08495152741670609,0.02892395295202732,0.10846967995166779,-0.042737457901239395,-0.03717408329248428,0.177470862865448,0.021961672231554985,-0.07661383599042892,0.11981864273548126,0.06615112721920013,-0.12123793363571167,0.06922219693660736,-0.1149197518825531,0.0872744470834732,-0.09056210517883301,-0.11147693544626236,0.020706485956907272,0.1174154058098793,0.05223825201392174,0.06510096788406372,0.031101789325475693,0.035616207867860794,-0.05347348377108574,-0.09047505259513855,-0.04032507538795471,-0.04156880080699921,0.31207334995269775,-0.11115807294845581,-0.01720399037003517,0.06037608161568642,-0.18070094287395477,-0.029978496953845024,0.3057619333267212,0.12065986543893814,0.05552837625145912,-0.29434749484062195,0.1680781990289688,0.020277686417102814,-0.22651489078998566,0.2768210768699646,-0.14024390280246735,-0.252532035112381,-0.13446903228759766,0.0853119045495987,0.38409656286239624,0.006296002771705389,0.17425264418125153,-0.015102962963283062,-0.2237202674150467,0.1606367826461792,0.05219297111034393,0.0591324158012867,0.1297362595796585,0.03972826153039932,-0.05129368230700493,0.03959072008728981,0.281887024641037,-0.17914524674415588,-0.10729534178972244,-0.41235342621803284,0.0966804176568985,-0.009112054482102394,-0.0012749211164191365,0.1809302419424057,-0.05344972014427185,-0.05347263067960739,0.16003212332725525,0.06690958142280579,-0.26460903882980347,0.10310468822717667,-0.021829254925251007,-0.022599749267101288,-0.40855124592781067,-0.4426121413707733,-0.3721590042114258,0.033673275262117386,0.02371351607143879,0.000980500364676118,0.1373400241136551,0.06777558475732803,0.020027516409754753,-0.23090766370296478,-0.11313121765851974,0.22605662047863007,-0.35331305861473083,0.04581081494688988,0.12998108565807343,-0.2651384472846985,0.05152516812086105,-0.046181656420230865,0.13137735426425934,-0.1389913260936737,-0.24394436180591583,0.010035977698862553,0.019007818773388863,-0.05635387822985649,0.3269883096218109,-0.03155188262462616,-0.17995312809944153,-0.16935968399047852,-0.18768519163131714,-0.006715919356793165,0.15986737608909607,-0.040040526539087296,-0.07682618498802185,0.003763300133869052,0.05271004140377045,0.339004784822464,-0.19557160139083862,0.01159475278109312,-0.01013141218572855,-0.32834598422050476,0.03675919026136398,0.23006635904312134,-0.35500138998031616,0.1047978401184082,0.03871946781873703,-0.06795293837785721,0.2025512158870697,0.10961601883172989,-0.14381301403045654,-0.23922009766101837,-0.29160404205322266,-0.06417244672775269,0.06904816627502441,0.41466405987739563,-0.020163433626294136,-0.1669573187828064,-0.017538152635097504,0.03692476451396942,0.01840902306139469,0.10172223299741745,0.05341179668903351,0.1611437052488327,-0.04125918075442314,-0.08370266109704971,0.01088475901633501,-0.10107656568288803,0.09434027969837189,0.099978007376194,0.12343619018793106,0.028836918994784355,0.07672958076000214,-0.10220799595117569,0.18146340548992157,-0.12086720764636993,-0.12914074957370758,-0.025775518268346786,0.11301687359809875,-0.1250060647726059,0.21411074697971344,-0.007079365197569132,-0.12802563607692719,-0.15994130074977875,-0.02016831748187542,-0.26924529671669006,-0.1310289353132248,0.02012682519853115,-0.22870035469532013,0.011319736018776894,0.1450556069612503,0.12628178298473358,-0.16708838939666748,0.20559896528720856,-0.05371877923607826,0.04181253910064697,-0.11612721532583237,-0.12312527745962143,0.16455082595348358,0.08259689062833786,0.22484061121940613,-0.08756519854068756,-0.06280507147312164,-0.17013616859912872,-0.008654925972223282,0.0012456342810764909,-0.013906554318964481,-0.0012936305720359087,-0.08999733626842499,0.004432987421751022,-0.0010133277392014861,-0.0014505456201732159,-0.003237716155126691,-0.012982492335140705,0.01157138030976057,-0.07936518639326096,0.006618037354201078,0.4386313855648041,-0.3492836356163025,0.5947913527488708,-0.5731231570243835,-0.022732818499207497,0.7692051529884338,0.8402057886123657,-0.5876981616020203,0.12567095458507538,0.07634112238883972,-0.3516024649143219,-0.2607116997241974,0.23873233795166016,-0.5267824530601501,0.05995972454547882,0.38653871417045593,-0.10425740480422974,0.16588790714740753,0.04097022861242294,0.07893325388431549,-0.016322147101163864,0.011942792683839798,0.24031959474086761,-0.0813368558883667,0.00406146002933383,-0.03080715239048004,-0.000607333960942924,-0.01934313401579857,0.27255791425704956,-0.11415882408618927,0.08785489201545715,-0.04313820227980614,-0.07062643021345139,-0.06786223500967026,-0.2860812842845917,0.027541136369109154,0.03106883354485035,-0.17721164226531982,-0.14617466926574707,0.21147480607032776,0.1066998764872551,0.04783454164862633,-0.018438590690493584,0.0741923451423645,-0.05305188521742821,-0.0371328704059124,0.18340350687503815,0.17485055327415466,0.14748559892177582,0.01683473214507103,0.002537448424845934,0.05885219946503639,-0.0012233199086040258,0.040830086916685104,0.13910914957523346,-0.4452315866947174,-0.015966005623340607,-0.045436203479766846,-0.016747407615184784,-0.08567750453948975,0.1642749160528183,0.1565612256526947,-0.11380954831838608,0.07824112474918365,0.25403350591659546,-0.3712117373943329,0.0914650484919548,-0.2285413146018982,0.019713154062628746,0.39477139711380005,0.21461208164691925,-0.16643989086151123,0.05336203798651695,-0.0013437983579933643,-0.013814670965075493,-0.0734211653470993,0.10152857005596161,-0.007781300228089094,-0.20861047506332397,0.11441931873559952,-0.15799333155155182,-0.38881349563598633,-0.12575721740722656,-0.048927437514066696,0.01759457029402256,0.2553713321685791,-0.03222251310944557,-0.3316914439201355,0.19149775803089142,-0.03536403551697731,-0.008341990411281586,0.06453168392181396,-0.33234092593193054,-0.06104636937379837,-0.11114520579576492,-0.20962433516979218,-0.257274329662323,-0.06396283209323883,0.17927728593349457,0.08346300572156906,0.021663278341293335,0.18290936946868896,0.19480742514133453,0.3178490698337555,0.06948720663785934,-0.005032587330788374,-0.0379171147942543,-0.04173155874013901,0.009983732365071774,-0.08919773250818253,0.2854093313217163,0.06169484555721283,0.08084701001644135,0.11335651576519012,0.21501365303993225,0.1396433413028717,-0.006755270529538393,-0.1995670646429062,0.3052954375743866,0.1613774299621582,0.07920925319194794,-0.02143765613436699,-0.019149957224726677,-0.027662087231874466,0.41600167751312256,-0.1331505924463272,0.03588442876935005,-0.07254808396100998,0.13650484383106232,0.11535301059484482,0.22677679359912872,-0.18816152215003967,0.0027732260059565306,0.006915935315191746,0.07889057695865631,0.29138854146003723,0.06096617132425308,-0.05595522001385689,0.009008437395095825,-0.04685118794441223,0.06163812801241875,-0.04478652402758598,-0.0011008497094735503,0.10104646533727646,-0.09671711921691895,-0.1247108206152916,-0.2069692313671112,-0.10269468277692795,-0.03571838140487671,0.04830102249979973,-0.08575353771448135,-0.1240261122584343,-0.17023669183254242,-0.02800716459751129,0.04591267928481102,-0.053420551121234894,0.058915942907333374,-0.2215878963470459,0.06852774322032928,-0.041223857551813126,-0.06892447918653488,-0.043592434376478195,0.18652792274951935,-0.028515005484223366,-0.0020409482531249523,0.1199493408203125,0.1766332983970642,-0.21052531898021698,0.06359396129846573,-0.01561681367456913,-0.013463820330798626,-0.0666661188006401,0.25327974557876587,0.07339426130056381,-0.1159491017460823,0.1624659299850464,0.1909637302160263,0.20737303793430328,-0.2919673025608063,0.02240367978811264,0.01713406667113304,-0.11823057383298874,0.08497508615255356,-0.3278212249279022,0.06797367334365845,-0.02188160829246044,-0.01796860247850418,-0.009132915176451206,-0.029336124658584595,0.08282101154327393,-0.11482778191566467,0.16013754904270172,0.0445101298391819,-0.17558443546295166,0.19297699630260468,-0.0789175033569336,-0.007746278308331966,0.000622542982455343,-0.036719340831041336,-0.20061716437339783,0.06145321950316429,0.014142872765660286,0.019346129149198532,0.02897297777235508,-0.2002299576997757,-0.02159399725496769,-0.05688280239701271,-0.16609884798526764,0.34018445014953613,-0.2961655855178833,0.3643893599510193,0.03657108545303345,-0.001671829610131681,0.24106092751026154,0.176097571849823,-0.11248322576284409,0.007227777037769556,0.005597750656306744,0.0008443420520052314,0.0013969569699838758,0.35710030794143677,-0.1485971063375473,-0.1354215294122696,0.4892846643924713,0.19223318994045258,-0.2997213900089264,0.0631788820028305,0.19575218856334686,-0.03576328605413437,0.4501424729824066,0.09206269681453705,-0.09273675084114075,-0.16658644378185272,0.06647861003875732,0.026270708069205284,0.05441504344344139,-0.06320787221193314,-0.13492661714553833,-0.3177845776081085,-0.136924609541893,-0.1817895621061325,0.1944267749786377,-0.045500025153160095,-0.07186194509267807,0.011102370917797089,0.15789158642292023,0.22043167054653168,0.030834412202239037,-0.04742024838924408,-0.021874411031603813,-0.015829458832740784,-0.07539605349302292,0.14706619083881378,0.028089243918657303,-0.24869799613952637,-0.011302552185952663,0.23927684128284454,0.14378592371940613,0.2349320948123932,0.026988940313458443,-0.009022396989166737,0.13484451174736023,0.08671530336141586,0.3261459767818451,-0.1313556432723999,-0.08194606006145477,-0.0023978007957339287,-0.10383298993110657,0.1253046989440918,0.2764626741409302,0.12245020270347595,-0.0945812314748764,0.015193678438663483,-0.07632990926504135,0.23293179273605347,-0.058868054300546646,-0.0892995223402977,-0.004179653711616993,0.0930415689945221,0.1638890951871872,-0.052321597933769226,-0.21721617877483368,-0.02796691469848156,0.001510533969849348,0.11810288578271866,-0.0071202171966433525,0.08179838210344315,-0.13556843996047974,0.02841130457818508,0.0068182251416146755,-0.08174274116754532,0.24733023345470428,0.013876982033252716,0.19754990935325623,-0.24022436141967773,-0.022208310663700104,-0.011220944114029408,-0.4386388063430786,0.04032253101468086,0.025357680395245552,-0.4287651479244232,0.020256146788597107,0.06842702627182007,0.38636377453804016,-0.1124776303768158,0.10208337008953094,0.09662855416536331,-0.06384915858507156,0.10537534207105637,0.18358731269836426,0.03816892206668854,-0.06208633631467819,-0.19307927787303925,0.10556744784116745,0.05348866805434227,-0.16778972744941711,0.11828622221946716,-0.02056032419204712,-0.4232826828956604,0.0012096671853214502,0.05892004817724228,-0.5290734171867371,-0.0939912348985672,-0.049671970307826996,-0.514093816280365,-0.08176829665899277,-0.1644403636455536,-0.5228802561759949,0.05877744406461716,-0.19472470879554749,-0.14770738780498505,0.06181787699460983,0.031669437885284424,0.22521530091762543,-0.03105163387954235,-0.05822737514972687,-0.08452175557613373,0.002958763623610139,0.03883128985762596,-0.06662965565919876,0.011539766564965248,0.15424063801765442,-0.09772562980651855,-0.02919097989797592,0.0948401540517807,-0.16014043986797333,0.05580979213118553,-0.11760935187339783,0.1904001533985138,-0.14256057143211365,0.0924176499247551,-0.0871475338935852,-0.14594760537147522,-0.003743763780221343,0.21916154026985168,0.0704280287027359,0.1363511085510254,0.16787460446357727,-0.055239252746105194,-0.0352635458111763,-0.21816153824329376,-0.050026290118694305,-0.13816264271736145,0.1781751662492752,0.05577300861477852,-0.15466760098934174,0.07627715915441513,0.034251756966114044,-0.017864268273115158,-0.12399666011333466,0.08524152636528015,-0.04010032117366791,0.01699485071003437,-0.05856636166572571,0.10986052453517914,0.12195733934640884,0.03082978166639805,0.06996553391218185,-0.08612781763076782,-0.13155071437358856,-0.052779220044612885,0.04835697263479233,0.14653335511684418,-0.08794718235731125,-0.0831523984670639,-0.07133813202381134,0.04546516016125679,0.04370909556746483,0.0857873260974884,-0.03693787381052971,-0.31192275881767273,0.053938958793878555,0.06337148696184158,0.33723515272140503,0.08783446252346039,0.12003687769174576,0.4149908721446991,-0.007892816327512264,-0.045125167816877365,0.44904863834381104,0.08648063242435455,0.10742153227329254,0.005180602427572012,-0.10765226185321808,0.1268678605556488,0.1252632439136505,-0.103242427110672,0.02979256771504879,-0.020884502679109573,-0.08915282040834427,0.2204105406999588,0.10460139065980911,0.06313612312078476,-0.14718905091285706,-0.6065428853034973,-0.11422110348939896,0.19289754331111908,0.30305132269859314,-0.1082296147942543,-0.1497587263584137,0.34545376896858215,0.048450369387865067,0.03415733948349953,0.23512020707130432,-0.07929472625255585,0.14327606558799744,-0.37949150800704956,0.06025820970535278,0.1251775324344635,0.30356332659721375,0.17611104249954224,0.2013496309518814,-0.05691233649849892,-0.09395579248666763,-0.005250079091638327,-0.12056328356266022,0.04754623770713806,-0.023124534636735916,0.11388043314218521,-0.2373250275850296,-0.21115730702877045,0.06677901744842529,-0.03251713141798973,-0.1933727115392685,-0.10825267434120178,-0.19882293045520782,-0.0006103516207076609,-0.22876891493797302,0.19412361085414886,-0.0776362344622612,0.0228293277323246,0.03334089741110802,-0.023587895557284355,-0.33878999948501587,-0.0864742174744606,0.07909135520458221,0.2958330512046814,0.024484185501933098,0.19399245083332062,0.06649037450551987,-0.2125086635351181,0.0362863726913929,0.2495298832654953,-0.2624943256378174,-0.006463253404945135,-0.030927475541830063,0.056597404181957245,0.42289966344833374,0.058309514075517654,0.028394434601068497,-0.14010228216648102,0.07060439884662628,-0.24787215888500214,-0.12333562225103378,0.08756682276725769,-0.023567475378513336,0.12631838023662567,-0.0005105130258016288,0.10800769180059433,0.10986248403787613,-0.0976051539182663,0.046416640281677246,-0.09752744436264038,0.09905511140823364,0.11896427720785141,-0.06046245992183685,-0.2849571704864502,-0.01272349152714014,-0.009628262370824814,-0.32100796699523926,-0.06902050971984863,0.14009056985378265,-0.2875279486179352,-0.15724404156208038,-0.1956714391708374,0.1109379306435585,0.14672355353832245,-0.17295752465724945,0.13098262250423431,-0.060813095420598984,-0.21520766615867615,0.12110103666782379,0.10639432072639465,0.01193502638489008,0.14245159924030304,0.1744677871465683,0.37338492274284363,-0.1951998770236969,-0.24052001535892487,-0.009687569923698902,-0.1511872559785843,-0.11264868080615997,0.15850435197353363,-0.10359253734350204,0.05784935504198074,0.3589247763156891,-0.30851152539253235,-0.22198385000228882,0.043550170958042145,-0.18120940029621124,-0.11096864938735962,0.002427083207294345,-0.030147206038236618,-0.14160041511058807,0.009438530541956425,0.11945093423128128,-0.05802435055375099,-0.15103456377983093,-0.1014266163110733,-0.14031372964382172,0.02109663188457489,-0.19471944868564606,0.062832310795784,0.07073597609996796,0.04413965716958046,0.1017213761806488,0.014502488076686859,0.10906880348920822,0.3256518840789795,0.1416947841644287,0.15538693964481354,0.3175904154777527,0.1426081508398056,0.05604710802435875,-0.05000820755958557,0.03427129611372948,0.17374399304389954,-0.22223041951656342,-0.34855276346206665,0.08993318676948547,-0.00342980632558465,0.4147116541862488,0.1319357454776764,0.10941139608621597,-0.0029647531919181347,0.23401613533496857,0.1905234158039093,0.2388712763786316,0.05615311115980148,0.08347485959529877,0.03682880848646164,0.10030150413513184,-0.10234422981739044,0.33845803141593933,0.0924774780869484,0.3712691366672516,-0.14262378215789795,-0.07521975040435791,0.18701007962226868,0.2907184958457947,-0.1671030968427658,-0.025982733815908432,-0.17276161909103394,-0.020123213529586792,0.1056889146566391,0.12261949479579926,0.1569005399942398,0.1565050482749939,0.19640614092350006,-0.02777666412293911,0.137582927942276,0.08768713474273682,-0.06668448448181152,0.012782031670212746,0.09111709892749786,0.18923179805278778,-0.03430703282356262,-0.023178953677415848,-0.12679094076156616,-0.03944224864244461,0.19334040582180023,0.24985696375370026,-0.05301415175199509,0.10360688716173172,-0.00780522683635354,-0.1605960577726364,-0.10981985181570053,-0.09509452432394028,-0.007660909090191126,0.08354452252388,0.09823142737150192,-0.10744636505842209,-0.025737067684531212,0.04264871031045914,-0.006780891213566065,0.1628064066171646,-0.003464003559201956,0.0962175726890564,0.18295766413211823,0.3944382965564728,0.3086335062980652,0.23610937595367432,0.0971437394618988,-0.1324840784072876,-0.0940936878323555,0.09745193272829056,-0.02887946367263794,-0.030303955078125,-0.20189328491687775,0.023252369835972786,-0.018373986706137657,0.03903669863939285,-0.03449428454041481,0.039254169911146164,-0.13327206671237946,0.11418644338846207,0.07408256083726883,0.0867159441113472,-0.002619143109768629,0.008621148765087128,-0.2833300828933716,-0.024975692853331566,0.0625835731625557,-0.06008967384696007,-0.13915127515792847,-0.03790605813264847,-0.06390576809644699,-0.18523858487606049,-0.14455531537532806,0.4106454849243164,-0.10365130007266998,-0.046443354338407516,-0.10857708007097244,-0.03467009589076042,-0.0049406313337385654,0.11823371797800064,-0.025797365233302116,0.016873568296432495,0.06463070213794708,-0.10432517528533936,0.4269324839115143,0.12564583122730255,0.135038360953331,0.0679137259721756,-0.2072594165802002,-0.08842005580663681,0.07972875237464905,0.07950285077095032,-0.019429920241236687,0.08993826061487198,-0.0780828520655632,-0.198152095079422,-0.19566898047924042,-0.18944713473320007,-0.10862329602241516,-0.1776258647441864,0.004393468145281076,0.05113967880606651,0.17991499602794647,0.04860405623912811,-0.002781770657747984,0.050748202949762344,0.0674123764038086,-0.02816283516585827,-0.039699867367744446,-0.1567286252975464,-0.1015239879488945,-0.23124560713768005,0.48665112257003784,0.07149804383516312,0.22404910624027252,0.3767310678958893,0.022501030936837196,-0.08150035887956619,0.36881449818611145,0.01276437658816576,-0.15766945481300354,-0.5494651794433594,0.08118965476751328,-0.10218023508787155,-0.009170234203338623,0.014909854158759117,0.046316154301166534,-0.3079715073108673,-0.17941004037857056,-0.05031230300664902,0.052292849868535995,-0.07368969917297363,-0.020177297294139862,0.06693565100431442,0.08129668235778809,-0.23325616121292114,0.5267323851585388,-0.06172091141343117,-0.06687040627002716,0.17761293053627014,-0.13514669239521027,0.21534955501556396,0.15487532317638397,0.2308441400527954,0.08278750628232956,0.24582822620868683,-0.04006417468190193,-0.2691471576690674,0.13756117224693298,-0.11850021779537201,0.004046021029353142,-0.21664081513881683,-0.028162214905023575,-0.15712271630764008,0.179155170917511,0.2118053436279297,-0.03446362540125847,-0.060173071920871735,0.07346848398447037,0.2258581668138504,-0.02347225323319435,-0.13406987488269806,-0.10004784911870956,-0.1257898509502411,-0.2177315056324005,-0.2431613951921463,-0.04695940762758255,-0.44121280312538147,0.004487898666411638,-0.2952159643173218,-0.04416947439312935,0.050516098737716675,0.15276506543159485,0.2862781286239624,0.2991550862789154,-0.32533419132232666,-0.0013149005826562643,0.33643990755081177,0.03174141049385071,0.08950995653867722,-0.2695452868938446,-0.2078280746936798,-0.30927127599716187,0.17342045903205872,0.24586911499500275,-0.015112398192286491,0.08312904834747314,-0.12243550270795822,-0.3356013596057892,-0.24296732246875763,-0.14694605767726898,-0.40935230255126953,-0.2899657189846039,-0.11002281308174133,-0.35534438490867615,-0.04575943201780319,0.06677699834108353,-0.10288852453231812,0.0132217388600111,-0.12410630285739899,-0.0044394745491445065,-0.006240388378500938,-0.12901726365089417,0.12546049058437347,-0.06371336430311203,-0.22267229855060577,0.029594959691166878,-0.13133826851844788,0.24446728825569153,0.4347822666168213,0.4944424331188202,-0.21243487298488617,-0.017772521823644638,-0.07745575904846191,0.06580730527639389,0.1439155489206314,-0.13275572657585144,0.130335733294487,-0.2180323749780655,-0.23545478284358978,-0.09224070608615875,0.010251497849822044,0.0957946628332138,0.07253096252679825,0.034711312502622604,0.1244204044342041,-0.046426963061094284,0.01565994694828987,0.138197660446167,-0.17802201211452484,-0.2982468903064728,-0.16189853847026825,-0.010564366355538368,0.16664282977581024,0.0808822363615036,-0.015472997911274433,0.20913119614124298,-0.12665458023548126,0.2738298773765564,0.26296937465667725,-0.052169449627399445,0.05495269596576691,-0.0007394305430352688,-0.011968499980866909,0.09085671603679657,0.32670289278030396,0.21746733784675598,-0.2112703025341034,-0.4585193991661072,-0.27205535769462585,0.006362265441566706,-0.04679371789097786,-0.13105273246765137,-0.017871208488941193,0.007515002507716417,-0.02604539878666401,0.28892070055007935,0.27707117795944214,0.03252873197197914,0.17595189809799194,0.08359834551811218,-0.11411774903535843,0.053429678082466125,0.08154894411563873,-0.0308532677590847,-0.4217284023761749,0.0090506412088871,0.10000976920127869,0.053478315472602844,-0.1315683126449585,0.1619168072938919,-0.011085424572229385,0.13525450229644775,0.25196850299835205,0.10235534608364105,-0.11065191775560379,-0.4756561815738678,-0.13526049256324768,0.21158581972122192,0.1184374988079071,0.35373350977897644,0.11931786686182022,-0.2440323829650879,-0.05229075998067856,0.12435777485370636,0.16814778745174408,-0.04744068905711174,-0.09226351976394653,-0.10813941061496735,0.16487368941307068,-0.05703648924827576,-0.2348865419626236,0.20731422305107117,0.12122570723295212,-0.21862593293190002,-0.30931365489959717,-0.08243606984615326,0.11693315207958221,-0.08077333122491837,-0.008348544128239155,-0.01743159256875515,0.1685071885585785,0.06667584180831909,-0.025773124769330025,0.2132113128900528,0.07940611988306046,-0.14656129479408264,0.0792912170290947,0.1977633535861969,-0.11930017918348312,0.12685070931911469,-0.024549510329961777,-0.2451363503932953,-0.3426940441131592,-0.13760076463222504,0.2142011523246765,0.029188411310315132,-0.20822475850582123,0.03987850993871689,-0.21990425884723663,-0.09876982122659683,0.0990590825676918,-0.13397209346294403,0.09304202347993851,-0.19562079012393951,-0.01015277486294508,0.11671807616949081,-0.19119226932525635,0.4101252555847168,0.13857819139957428,-0.15872733294963837,0.010912857949733734,-0.10429799556732178,-0.11438343673944473,0.06876567751169205,-0.005155282560735941,0.07756126672029495,-0.05014020577073097,0.0238400436937809,-0.2503703832626343,0.11767399311065674,-0.06286415457725525,-0.11864951997995377,0.02136407420039177,0.1324634999036789,0.09144573658704758,-0.11129657179117203,-0.10622676461935043,-0.00041008327389135957,0.10525169968605042,0.14013296365737915,0.11417248100042343,0.2525184750556946,-0.08815973252058029,-0.022291038185358047,-0.07305658608675003,0.028572387993335724,-0.14191238582134247,-0.1464107185602188,0.018494918942451477,0.17380163073539734,-0.35032135248184204,-0.02117050811648369,-0.012177610769867897,0.025630945339798927,-0.06260192394256592,0.06134214252233505,-0.05677933990955353,0.045302510261535645,0.1583615392446518,0.029638022184371948,-0.006215262692421675,-0.2284310907125473,0.016701988875865936,-0.04534345492720604,0.2531990110874176,0.2910573184490204,0.03311455622315407,-0.23424620926380157,-0.17343726754188538,0.12691597640514374,-0.024193456396460533,-0.20635178685188293,-0.11090327054262161,-0.15201608836650848,-0.019264081493020058,0.060032524168491364,-0.23217016458511353,0.08554535359144211,0.019846351817250252,-0.21651503443717957,-0.10326090455055237,-0.07295221090316772,0.16028928756713867,0.11267764121294022,-0.09260006994009018,-0.09325218945741653,-0.01026196125894785,0.27652591466903687,0.12414884567260742,-0.05067627504467964,-0.006775630638003349,-0.03318735957145691,-0.09756284952163696,-0.33715295791625977,-0.09083422273397446,-0.1508607715368271,-0.19771002233028412,-0.08409605920314789,0.11518239229917526,-0.062283772975206375,-0.0032136347144842148,0.06818868964910507,0.13161791861057281,0.23059283196926117,0.020387884229421616,0.03588451072573662,-0.1697556972503662,0.18528969585895538,-0.2186363786458969,0.1171608492732048,-0.11188320815563202,-0.20064057409763336,-0.02243671752512455,-0.004472252447158098,0.08568287640810013,0.09696858376264572,0.23013156652450562,-0.08882269263267517,-0.31581270694732666,-0.04717846214771271,-0.2344512641429901,0.01211088988929987,-0.043793220072984695,-0.4158921241760254,-0.19968582689762115,-0.040133941918611526,-0.03863871097564697,-0.18163028359413147,0.12851542234420776,0.06547529995441437,0.10069283843040466,0.01256592571735382,0.12127766013145447,-0.1505901962518692,0.011569585651159286,0.050239551812410355,0.11305628716945648,0.23878063261508942,0.16727842390537262,-0.017524557188153267,0.022675134241580963,0.15844547748565674,-0.20786288380622864,-0.19866281747817993,0.04042830318212509,0.02486170083284378,-0.5167249441146851,-0.3478016257286072,0.11176402866840363,-0.06129833310842514,-0.26212573051452637,-0.2256590723991394,-0.42425525188446045,-0.3431786894798279,-0.1776508241891861,-0.0234298724681139,0.04835150018334389,-0.3224705755710602,-0.08566918224096298,0.2574264705181122,0.1637917011976242,0.5613948106765747,0.3600952625274658,-0.26094695925712585,-0.13076937198638916,0.22306394577026367,0.12435322999954224,-0.3686673045158386,-0.3336658179759979,-0.02603583037853241,-0.18678751587867737,0.15797290205955505,-0.01811639405786991,0.12941788136959076,0.016364946961402893,-0.16328151524066925,-0.04665127769112587,0.15976159274578094,0.26627951860427856,0.11338874697685242,0.0357508659362793,-0.1866937279701233,0.11745786666870117,-0.03596082702279091,0.11292538791894913,0.0983152985572815,0.14026132225990295,-0.04621852934360504,-0.12788008153438568,0.2489655762910843,0.12121383100748062,-0.013491789810359478,-0.02015168033540249,0.06730525195598602,-0.20642390847206116,-0.2878043055534363,0.10164659470319748,0.12806379795074463,-0.17629924416542053,0.17198196053504944,-0.4405585825443268,-0.13767941296100616,-0.279960960149765,0.7572259902954102,-0.5065832734107971,-0.6512079834938049,-0.7390945553779602,0.17369773983955383,-0.5521764159202576,0.14077000319957733,-0.8348914980888367,-0.11746297776699066,0.022024156525731087,-0.1535773128271103,0.31520363688468933,0.24963058531284332,0.09540210664272308,-0.20903411507606506,-0.04806223884224892,-0.04029202088713646,-0.15504057705402374,0.002662383019924164,0.24668049812316895,0.13710205256938934,0.1569230556488037,-0.1335967481136322,0.061240434646606445,-0.02057182416319847,-0.0063862367533147335,0.08058420568704605,-0.08869403600692749,-0.10260440409183502,0.13348737359046936,0.0662587508559227,-0.2009512186050415,0.21159879863262177,-0.32126832008361816,-0.0029930046293884516,0.12021320313215256,0.06362984329462051,-0.033979885280132294,0.08449363708496094,0.06378638744354248,-0.16271625459194183,-0.012671408243477345,-0.011870129965245724,0.18380029499530792,-0.059133753180503845,0.10201508551836014,-0.03977581113576889,-0.08489098399877548,0.0922035351395607,-0.004414174240082502,-0.406823992729187,-0.22924251854419708,0.02810264565050602,0.09569528698921204,0.007220162078738213,-0.02239498868584633,0.005411467049270868,-0.00244701374322176,-0.2893142104148865,-0.027965407818555832,-0.1837632954120636,0.05017487332224846,-0.1231432557106018,-0.06592397391796112,-0.06698580831289291,0.17139825224876404,-0.04520123824477196,0.2719801664352417,0.306398868560791,0.016247142106294632,0.013653499074280262,0.030549582093954086,0.2840822637081146,0.008634076453745365,-0.28943151235580444,-0.12861347198486328,0.1609724760055542,-0.09386435151100159,-0.08893454819917679,0.20670412480831146,0.41445866227149963,-0.08260268718004227,-0.30129340291023254,0.2578543424606323,-0.01776730827987194,-0.16395488381385803,0.03906896710395813,-0.1902649998664856,-0.08823776990175247,0.019096340984106064,-0.2512549161911011,-0.17205673456192017,0.16496556997299194,-0.05503355339169502,-0.02859693206846714,0.03275500610470772,0.2978798449039459,0.04437302052974701,-0.10096117854118347,-0.1748167872428894,-0.2511458098888397,-0.1981164515018463,0.014787496998906136,0.16538646817207336,0.14910534024238586,-0.012815110385417938,0.1694103479385376,-0.23384371399879456,0.24389874935150146,0.15712867677211761,-0.10142534226179123,-0.07604005187749863,0.11613752692937851,-0.23414088785648346,-0.1580655872821808,0.19302073121070862,0.028698459267616272,-0.08603590726852417,0.05462556704878807,0.2168329805135727,0.10437681525945663,0.003622069489210844,0.0823245421051979,0.25044411420822144,0.08110162615776062,-0.2750625014305115,-0.16031087934970856,0.05411413684487343,-0.06338106095790863,0.10232668370008469,-0.33957162499427795,0.04677906632423401,-0.26116085052490234,0.04672183841466904,-0.01695460081100464,0.10344875603914261,-0.2119665890932083,-0.0022124077659100294,-0.3220605254173279,-0.09699568897485733,-0.18318620324134827,-0.024419384077191353,0.0007888557156547904,-0.19623535871505737,0.12885674834251404,0.053156446665525436,0.23112499713897705,0.016376662999391556,0.08708453178405762,0.2665657699108124,-0.08586723357439041,0.3114118278026581,-0.08651366084814072,-0.01956978440284729,-0.14818063378334045,0.004511119797825813,0.2555556893348694,-0.11140476912260056,0.005877153016626835,0.0049303756095469,0.046274084597826004,-0.1760760098695755,0.19502165913581848,0.12501275539398193,0.13787758350372314,-0.23334139585494995,0.12412767857313156,-0.24987909197807312,-0.3246976435184479,0.02145824022591114,-0.32556959986686707,0.11413100361824036,0.06434442102909088,-0.0743536576628685,-0.0336187407374382,-0.1129569485783577,0.3039015531539917,0.23311741650104523,-0.16043338179588318,0.1532743126153946,0.27858322858810425,0.12742052972316742,0.007908749394118786,0.10548494756221771,0.08536315709352493,0.0014781465288251638,-0.1964435577392578,-0.056943681091070175,-0.07016285508871078,-0.28347209095954895,-0.09347429871559143,0.09128688275814056,-0.22464431822299957,0.2512516677379608,0.31366828083992004,-0.19648781418800354,0.07932101935148239,-0.11806704849004745,0.06070687249302864,-0.081529401242733,-0.1494080275297165,0.000891947653144598,-0.15823985636234283,-0.10438606142997742,-0.25020402669906616,0.209916889667511,-0.020030340179800987,0.09489460289478302,0.053817108273506165,-0.4137723743915558,-0.3797879219055176,-0.19143763184547424,0.39084529876708984,-0.2041393369436264,-0.13731427490711212,0.044123295694589615,-0.06994516402482986,-0.030277367681264877,-0.35114309191703796,0.3475266098976135,-0.13271132111549377,-0.0060334098525345325,0.020761040970683098,-0.015567353926599026,0.38795626163482666,0.04409211874008179,-0.04885132983326912,-0.09064191579818726,0.2512943744659424,0.10185480862855911,0.008537126705050468,-0.2404191493988037,0.038635365664958954,-0.017876138910651207,-0.06147173047065735,-0.06204063072800636,-0.07942536473274231,-0.2836254835128784,0.24514265358448029,0.11807722598314285,0.06608448922634125,0.010672868229448795,-0.2013646960258484,0.022967498749494553,-0.033898551017045975,0.06482646614313126,0.34678491950035095,0.17583917081356049,0.13195089995861053,-0.0016228760359808803,-0.07520850747823715,-0.12227632850408554,-0.12555088102817535,0.10366274416446686,-0.03944586217403412,0.02372145839035511,0.17636066675186157,-0.10952052474021912,0.29070255160331726,0.0681718960404396,0.024397656321525574,0.2079000324010849,0.010282155126333237,-0.3927806317806244,-0.12832947075366974,-0.03148818016052246,0.03262811899185181,-0.09868529438972473,-0.15015746653079987,0.041634008288383484,0.1335073560476303,0.25908520817756653,-0.16618889570236206,-0.13436637818813324,-0.16394412517547607,-0.20110227167606354,0.19217422604560852,-0.2689010798931122,0.027601512148976326,-0.1552278995513916,0.09977328032255173,-0.2728538513183594,-0.01843312568962574,-0.34614497423171997,-0.1554136723279953,-0.02391182817518711,0.144562229514122,0.07991684228181839,-0.13551288843154907,0.12101522088050842,-0.18472766876220703,-0.06661579757928848,0.442227303981781,0.045322954654693604,0.0012365974253043532,0.1505209356546402,-0.07630278170108795,0.23755565285682678,0.13918888568878174,-0.024974940344691277,0.11890703439712524,-0.06527601927518845,-0.11851116269826889,-0.24627234041690826,-0.0748092457652092,0.05224744230508804,-0.03228677809238434,0.09098592400550842,0.08630267530679703,-0.14120446145534515,0.07898251712322235,0.028637271374464035,-0.06777116656303406,0.18766988813877106,0.26155412197113037,0.04466460645198822,0.06827382743358612,-0.0593690425157547,0.31531599164009094,-0.003987428732216358,-0.08719899505376816,-0.05796946957707405,0.2380051612854004,0.1692347377538681,-0.03951870650053024,-0.013798728585243225,-0.24282300472259521,0.0487024262547493,-0.03993950039148331,-0.24076011776924133,0.20475484430789948,-0.00902982335537672,-0.06550860404968262,-0.002297861035913229,0.06836216151714325,0.09002741426229477,0.09164700657129288,-0.18057659268379211,-0.17676067352294922,-0.08488047868013382,0.29970332980155945,0.05575941875576973,0.11141393333673477,0.15107622742652893,0.02177032083272934,0.11246227473020554,0.1620246171951294,0.1619264930486679,0.19301976263523102,-0.11306681483983994,-0.191043883562088,-0.12997831404209137,0.12410029023885727,-0.07025511562824249,-0.181569442152977,-0.02728906087577343,0.026464110240340233,0.12253807485103607,0.28595831990242004,-0.048785142600536346,0.007537913043051958,-0.25354209542274475,-0.08252082020044327,-0.09911559522151947,-0.00006953645061003044,0.15441352128982544,0.2551114857196808,0.06646338850259781,-0.20911188423633575,-0.010900205001235008,0.004260137211531401,0.1734001785516739,0.09231162071228027,0.09291904419660568,-0.10834438353776932,0.08767813444137573,0.2925264239311218,-0.20460304617881775,-0.1853235810995102,-0.2607625126838684,0.08433405309915543,-0.42535895109176636,0.46834638714790344,-0.005040356889367104,0.12152767181396484,-0.21556715667247772,-0.07261127233505249,0.13132911920547485,-0.1937555968761444,0.09585545212030411,-0.08944696187973022,0.1278795450925827,-0.034404415637254715,-0.123794786632061,0.12109200656414032,-0.12175151705741882,-0.058985065668821335,0.20165173709392548,-0.15409936010837555,-0.011305919848382473,-0.06606892496347427,-0.08248912543058395,0.037138450890779495,-0.11092646420001984,0.16859522461891174,-0.32212868332862854,-0.10831163078546524,0.12829992175102234,0.04009329155087471,-0.053762707859277725,0.4036620557308197,0.17027515172958374,0.1444968581199646,-0.10779257863759995,-0.14571090042591095,-0.0032295233104377985,0.05886344984173775,0.10652083903551102,-0.006697900593280792,-0.14362569153308868,0.09203420579433441,-0.3451398015022278,0.35345977544784546,0.234283447265625,-0.08001643419265747,-0.11183923482894897,0.39068448543548584,0.1148996576666832,0.14095176756381989,-0.1498112827539444,0.0012580385664477944,0.1478024572134018,0.008964384905993938,0.05399022996425629,-0.08560782670974731,-0.13128666579723358,-0.013906651176512241,0.0755661129951477,0.2267148196697235,0.06275840103626251,-0.1640835851430893,0.09235703200101852,-0.01761235110461712,0.05113483592867851,-0.1454624980688095,-0.126785010099411,-0.0056890216656029224,0.06984593719244003,0.16424259543418884,-0.012655459344387054,-0.04052748903632164,0.03071756288409233,0.17759323120117188,-0.6196900010108948,0.20375241339206696,-0.016700614243745804,0.0181624386459589,-0.015287943184375763,-0.19091388583183289,-0.0991789922118187,0.07329671084880829,-0.007078167982399464,0.05777321383357048,0.34867262840270996,-0.09528306871652603,0.18752050399780273,0.0007097535417415202,-0.1927364617586136,0.023230889812111855,0.15632034838199615,0.13060146570205688,0.1642761528491974,0.19444523751735687,-0.1884211152791977,-0.15540660917758942,0.019518831744790077,0.09133977442979813,-0.06710121035575867,0.3037133514881134,0.32831546664237976,-0.10884033888578415,-0.19704997539520264,0.0789525955915451,-0.17075574398040771,-0.16877341270446777,0.20481356978416443,-0.12282399833202362,0.010703454725444317,0.2266254425048828,-0.01633223332464695,0.04758106544613838,-0.04183207079768181,-0.10795781016349792,0.10781558603048325,-0.06536657363176346,-0.016961324959993362,0.005422367248684168,-0.18799398839473724,0.05480944737792015,0.1318529099225998,-0.11022097617387772,0.09220758825540543,0.06725332885980606,-0.056574635207653046,0.11293689906597137,-0.06824003905057907,-0.00856949295848608,0.08390860259532928,-0.05031825229525566,0.32556065917015076,0.06669215112924576,-0.010743632912635803,-0.07768931984901428,0.05159544199705124,-0.038631126284599304,0.0573849119246006,0.3027493953704834,-0.10702366381883621,-0.19252631068229675,-0.016310667619109154,-0.01595754735171795,0.049988169223070145,-0.2264808714389801,-0.26076075434684753,-0.17697283625602722,-0.2136254757642746,-0.0792815163731575,-0.1250012218952179,-0.08827092498540878,-0.02166488580405712,-0.13847669959068298,-0.01668907329440117,0.17423704266548157,-0.27875107526779175,0.2938691973686218,-0.41884705424308777,-0.4232545495033264,0.1299828588962555,-0.11135042458772659,0.11131194233894348,0.17227652668952942,-0.3147076368331909,-0.27066412568092346,0.0378497950732708,0.06984256953001022,-0.0037126117385923862,-0.20858263969421387,0.051073625683784485,0.2342388927936554,-0.3433942198753357,0.06805157661437988,-0.05173192918300629,-0.05836132541298866,0.2306177020072937,0.04120214655995369,0.10932283103466034,-0.1247052550315857,-0.13912595808506012,-0.21093016862869263,-0.012529125437140465,-0.14845004677772522,-0.039291862398386,0.08816713839769363,-0.36603763699531555,0.08680447936058044,0.2636428773403168,0.1266128420829773,-0.1484915018081665,-0.09138184785842896,0.06623072177171707,-0.118501216173172,-0.2619721591472626,-0.05889494717121124,0.028822051361203194,0.2679300606250763,-0.09814847260713577,-0.07557713240385056,-0.03419962525367737,0.15375608205795288,0.08827624469995499,0.12537135183811188,-0.00817312765866518,0.1155361607670784,-0.0982683002948761,0.16222845017910004,0.0914112776517868,0.13399037718772888,-0.1682010293006897,-0.07526619732379913,0.35928085446357727,0.16500869393348694,-0.0019339704886078835,-0.3067999482154846,-0.007321188226342201,0.20598354935646057,-0.03409822657704353,0.11726369708776474,0.3893691301345825,-0.32328054308891296,0.1377401053905487,-0.06801893562078476,0.03246175870299339,-0.024568531662225723,-0.12510588765144348,-0.10144782811403275,-0.22905662655830383,0.09391408413648605,-0.1991228312253952,0.05348767340183258,0.02973293699324131,-0.15590354800224304,0.02546214684844017,0.13158950209617615,-0.06387113034725189,0.02423987351357937,-0.024063585326075554,0.15796388685703278,0.10968423634767532,-0.08286512643098831,0.11015892773866653,0.11557534337043762,0.08794426918029785,-0.09187201410531998,-0.10090132802724838,0.026677358895540237,-0.22248336672782898,-0.07539311796426773,0.22517536580562592,-0.018146129325032234,0.29315251111984253,0.14492231607437134,0.2106001377105713,0.43596991896629333,0.0026404610835015774,0.027012594044208527,0.07241639494895935,0.1075572669506073,0.08095619082450867,0.17240287363529205,-0.09467412531375885,0.007113833911716938,-0.01852780394256115,0.07645393908023834,-0.05345761030912399,0.05573590472340584,0.10842935740947723,0.10847168415784836,-0.28135016560554504,0.1688951998949051,-0.2275228053331375,-0.15450310707092285,-0.03490198403596878,-0.020402023568749428,0.30288493633270264,0.18275995552539825,-0.08568083494901657,0.028687605634331703,0.2642102539539337,-0.05565587431192398,-0.06513940542936325,0.09953967481851578,-0.2442111372947693,0.18133147060871124,0.08447358757257462,-0.08922438323497772,-0.218842551112175,-0.04463007673621178,0.16381752490997314,-0.10119839012622833,-0.061578575521707535,0.051167942583560944,0.3745431900024414,-0.16502168774604797,-0.06313204765319824,-0.11939191818237305,-0.054385535418987274,0.002384036546573043,-0.16806049644947052,-0.5355215072631836,-0.08877505362033844,-0.3912886679172516,-0.09826186299324036,0.17456096410751343,0.06422688812017441,0.18867626786231995,-0.15455473959445953,-0.16044233739376068,0.02102901227772236,0.0069997720420360565,-0.06665889918804169,0.008399296551942825,-0.1785878986120224,0.11137790232896805,-0.3328266441822052,0.13511744141578674,0.26309359073638916,-0.15448784828186035,0.02395681105554104,0.3031786382198334,-0.12569206953048706,-0.15171164274215698,-0.18197597563266754,-0.048223596066236496,-0.11566874384880066,-0.18383796513080597,-0.08627074956893921,0.32444798946380615,0.22607852518558502,-0.25586020946502686,0.0893835574388504,-0.3522528111934662,-0.06875137239694595,-0.21505528688430786,-0.17539376020431519,-0.22966420650482178,0.04235749691724777,-0.08261581510305405,0.12555810809135437,0.37665262818336487,0.1261231005191803,-0.0334552600979805,-0.06357022374868393,-0.012944239191710949,-0.26877957582473755,-0.13814261555671692,-0.24434210360050201,0.30732885003089905,-0.18383589386940002,-0.29328811168670654,0.2594153881072998,-0.2441737949848175,-0.11530017852783203,-0.39394304156303406,-0.07209452241659164,-0.2974405586719513,0.05533276125788689,-0.085755854845047,-0.07059437781572342,-0.04497353732585907,0.10688075423240662,-0.07373817265033722,0.5236997604370117,0.11618892848491669,0.12445781379938126,-0.11333908885717392,-0.05901365354657173,0.49721091985702515,0.02775084227323532,0.31367814540863037,-0.3832489252090454,0.05711611360311508,0.027366191148757935,-0.2930210530757904,0.04181087389588356,-0.020080529153347015,0.24256755411624908,-0.21870528161525726,-0.02407117746770382,-0.16520774364471436,-0.10991108417510986,-0.12693792581558228,-0.14609386026859283,-0.1805834025144577,0.04731297120451927,0.34409305453300476,0.10181303322315216,-0.001097187283448875,-0.08646148443222046,0.06743031740188599,-0.03490804508328438,0.0009337976225651801,0.138699471950531,0.10835491865873337,0.04169214144349098,-0.040738802403211594,0.019297828897833824,0.07757066935300827,-0.21777553856372833,-0.18728111684322357,-0.21180255711078644,-0.04348014295101166,0.1032116562128067,0.09742497652769089,-0.18780799210071564,-0.0647171214222908,0.0847756639122963,-0.03170788660645485,0.07344822585582733,0.541900634765625,-1.0410245656967163,0.11783742159605026,0.043449465185403824,0.033778104931116104,0.19374918937683105,0.3419896066188812,0.24047748744487762,0.009633772075176239,-0.19802726805210114,-0.006676907185465097,0.14823073148727417,-0.11811912059783936,-0.25051191449165344,0.012853534892201424,0.1835646778345108,0.04312538728117943,-0.08186119049787521,-0.15516261756420135,-0.09602724015712738,0.18116582930088043,-0.1145620197057724,0.041976314038038254,0.02554485574364662,0.0942624881863594,0.2044735997915268,0.13838112354278564,0.17809024453163147,0.1445525586605072,-0.0649353563785553,-0.2278442233800888,-0.03304474800825119,0.12156360596418381,-0.1779605746269226,-0.4651677906513214,-0.04935438558459282,-0.3866092264652252,-0.20685385167598724,0.20372413098812103,0.1839180588722229,0.29069405794143677,0.15863028168678284,-0.2240942120552063,-0.17120440304279327,-0.08187080919742584,0.04302435368299484,-0.07552503794431686,-0.09307964146137238,-0.07849613577127457,0.02842755988240242,-0.00187640858348459,-0.004640583880245686,-0.08921308070421219,-0.0058459811843931675,-0.09652803093194962,-0.16846978664398193,-0.07611527293920517,-0.11519505828619003,0.013552896678447723,-0.10213906317949295,-0.13198885321617126,0.051430072635412216,0.11684072762727737,-0.30501314997673035,-0.14573493599891663,-0.2915869355201721,-0.32406845688819885,-0.21694336831569672,0.014270346611738205,-0.18215346336364746,0.2348441183567047,0.09589819610118866,0.014793180860579014,-0.26196497678756714,-0.08132566511631012,-0.05188855901360512,0.01009403821080923,-0.1391497105360031,-0.10783067345619202,-0.08137235790491104,0.18875399231910706,0.09150034189224243,0.03875790536403656,0.08791014552116394,0.044557835906744,0.13520590960979462,-0.07541201263666153,0.3160332143306732,-0.09477653354406357,0.029893701896071434,-0.08690234273672104,-0.12935641407966614,0.1253400295972824,-0.2231016606092453,0.004124006722122431,-0.0910034105181694,0.02879253961145878,-0.4258890450000763,0.2561008334159851,0.03897186741232872,-0.015588035807013512,0.08147801458835602,-0.15082710981369019,0.1850479692220688,-0.31842586398124695,0.3221586346626282,0.1079794317483902,0.22987094521522522,-0.0029857170302420855,0.08126643300056458,0.00024173714336939156,0.07158450037240982,-0.08676865696907043,0.19355559349060059,-0.10635886341333389,0.1299857497215271,-0.02691836468875408,-0.11881227046251297,-0.07581203430891037,0.11205141246318817,0.03395242616534233,-0.08968578279018402,-0.04134625941514969,-0.1407633125782013,0.14164716005325317,-0.1683245301246643,-0.10593603551387787,0.22717463970184326,-0.18707683682441711,0.16405925154685974,0.3678891658782959,0.09523268789052963,0.19783391058444977,-0.016881022602319717,0.34004858136177063,0.03010583482682705,0.12574805319309235,0.06708735227584839,0.04248572140932083,-0.14383649826049805,0.052183132618665695,-0.004440440330654383,0.08368679881095886,0.08496013283729553,0.10653192549943924,-0.00405533704906702,0.05270706117153168,-0.08953030407428741,0.006083892658352852,-0.06614132970571518,0.15522386133670807,0.1310180425643921,-0.15178903937339783,0.07380112260580063,0.05930734798312187,0.08423322439193726,0.10312365740537643,0.004856730345636606,-0.04709111899137497,0.04945624992251396,0.28951525688171387,-0.23666782677173615,0.0237086433917284,-0.12439534813165665,0.002674171468243003,0.3914892077445984,0.4331592917442322,0.2932945787906647,0.2919555902481079,-0.008904954418540001,-0.04198122024536133,0.11787260323762894,0.39130935072898865,0.14750456809997559,0.09266507625579834,0.08863656222820282,-0.5000700354576111,0.03353941813111305,-0.11304742097854614,-0.08119294047355652,0.15451575815677643,-0.4853981137275696,0.3243601322174072,0.1308770775794983,-0.11154695600271225,-0.22365295886993408,0.06739180535078049,-0.018528131768107414,0.4846920371055603,-0.03138209134340286,0.033775076270103455,-0.2137908637523651,0.08397575467824936,-0.3066812753677368,0.3088541626930237,0.21083174645900726,0.16130194067955017,-0.047629762440919876,-0.3309994041919708,-0.15676939487457275,-0.14583110809326172,0.2740640640258789,-0.1966487616300583,-0.05824432894587517,0.19811171293258667,0.16660571098327637,0.3523428738117218,-0.04321369528770447,-0.0076832156628370285,-0.34061262011528015,0.011996430344879627,-0.24093817174434662,-0.14616204798221588,0.2864512801170349,0.20014075934886932,-0.0330798514187336,0.22895577549934387,0.15278318524360657,-0.1769799441099167,-0.050110138952732086,0.08447705209255219,0.10633289813995361,0.3344208896160126,0.12673550844192505,-0.12367912381887436,-0.16912515461444855,0.26341161131858826,-0.061426226049661636,0.07007520645856857,0.021629730239510536,0.132675439119339,0.09997177124023438,-0.14648200571537018,-0.006183582358062267,0.07203731685876846,0.3518225848674774,0.09736267477273941,0.13872075080871582,0.025969479233026505,-0.3574189245700836,-0.2179577797651291,0.26659145951271057,-0.09020811319351196,-0.03773870691657066,0.007370782550424337,-0.07415284961462021,-0.1358765810728073,0.07414510101079941,0.07953685522079468,0.2447788119316101,-0.1948387622833252,-0.12175911664962769,0.26873499155044556,-0.028919700533151627,0.1210591197013855,-0.04714830964803696,-0.11810506880283356,-0.16227973997592926,-0.07205525040626526,-0.008386000990867615,0.021961744874715805,0.04920719563961029,-0.004491453059017658,0.0388500951230526,0.07279709726572037,-0.02823852375149727,-0.11071787774562836,-0.01722363755106926,0.03736943006515503,0.031049447134137154,0.020397737622261047,-0.014406557194888592,-0.06201416626572609,-0.0054319025948643684,0.0721178650856018,0.06475304067134857,-0.05870316922664642,-0.3436413109302521,0.4204501807689667,0.25908008217811584,-0.3016669452190399,0.08569133281707764,-0.247849702835083,-0.32238268852233887,0.48118552565574646,-0.5494226217269897,0.7450746297836304,0.4924430847167969,-0.03287350386381149,-0.06115947663784027,0.37334421277046204,-0.7171639800071716,-0.014441516250371933,-0.13967829942703247,0.03743666782975197,-0.2711535692214966,0.13767744600772858,0.1663985699415207,0.28775984048843384,0.11290709674358368,-0.033627502620220184,-0.0459209606051445,0.12169098854064941,0.15927621722221375,-0.26790979504585266,0.1307324767112732,-0.14791065454483032,-0.3077821135520935,-0.12013222277164459,0.08668509870767593,0.006124355364590883,0.19502142071723938,-0.06123809516429901,0.19259171187877655,-0.02432386390864849,-0.2882871627807617,0.02840564027428627,-0.03599685803055763,-0.34406691789627075,-0.08184383809566498,0.20814895629882812,-0.07551776617765427,-0.22143054008483887,-0.038760505616664886,-0.12458007037639618,-0.14413632452487946,-0.15069550275802612,-0.027742117643356323,0.23259681463241577,-0.035697657614946365,-0.09725245088338852,-0.3381880819797516,0.22067399322986603,-0.19086432456970215,0.006181554868817329,0.17963457107543945,0.3014738857746124,-0.1290152370929718,-0.21800494194030762,0.03020736202597618,0.197483628988266,-0.0011767212999984622,0.15925857424736023,0.052482955157756805,-0.19184905290603638,0.15662159025669098,-0.2229682058095932,0.13690920174121857,0.14600372314453125,-0.01000382099300623,0.09378805011510849,0.18307815492153168,0.17599084973335266,0.025197582319378853,-0.012344044633209705,-0.22719219326972961,-0.11258888989686966,-0.3025413453578949,0.3452514111995697,-0.18622525036334991,0.21728135645389557,-0.2912108600139618,0.20677362382411957,0.12391050159931183,-0.07882796227931976,-0.14082185924053192,0.05089874565601349,0.07929658144712448,-0.3242528736591339,-0.053787097334861755,0.18126000463962555,-0.060634080320596695,-0.12707701325416565,-0.06673260778188705,0.20692428946495056,-0.1712849736213684,-0.023610463365912437,-0.2738528251647949,0.14612837135791779,0.23838618397712708,0.02075854502618313,-0.22588330507278442,0.17101658880710602,0.31014248728752136,-0.13921740651130676,0.13921234011650085,0.0994645282626152,-0.057914406061172485,0.0706782415509224,0.007254219613969326,0.15248312056064606,-0.008834317326545715,0.1356145143508911,0.03803557530045509,0.10853274911642075,-0.024922514334321022,-0.3401641845703125,0.01595841720700264,0.2805818021297455,-0.10071203112602234,0.23912276327610016,0.2555844485759735,0.16807639598846436,0.2283332496881485,0.2758621573448181,0.2966805398464203,-0.1698947548866272,0.11046116054058075,0.1381152868270874,-0.1632820963859558,-0.16964881122112274,0.05008319392800331,0.0398881621658802,-0.00012161715130787343,0.0639069527387619,0.1145704910159111,0.08259351551532745,-0.04506147280335426,-0.0023344815708696842,-0.23514534533023834,-0.1371103674173355,0.27110281586647034,-0.06967535614967346,0.22642391920089722,0.1611139327287674,-0.04595541954040527,-0.17659863829612732,-0.07877405732870102,-0.18208914995193481,0.18531115353107452,-0.03922343626618385,0.07137268036603928,-0.17442478239536285,-0.024129021912813187,0.02754807472229004,-0.020090589299798012,0.16507194936275482,-0.019993364810943604,-0.2101738601922989,0.41748905181884766,-0.10708485543727875,0.27272048592567444,-0.45372194051742554,-0.2340489774942398,-0.008261258713901043,0.062185920774936676,0.16015282273292542,-0.3103209137916565,0.25792670249938965,-0.12531045079231262,0.22010815143585205,0.0013013059506192803,0.28706350922584534,-0.1597156673669815,-0.11803887784481049,-0.15163731575012207,0.003979793284088373,-0.11487577110528946,0.19633552432060242,-0.12172050029039383,0.157942533493042,0.024247702211141586,-0.12044741958379745,-0.11246208101511002,0.035154882818460464,-0.1568654179573059,0.016312330961227417,0.22845332324504852,0.14515316486358643,-0.008459832519292831,-0.04994412511587143,0.11390959471464157,-0.11863582581281662,0.2801271677017212,0.18864113092422485,0.1055535152554512,-0.08294078707695007,-0.34423181414604187,0.027544401586055756,0.20882250368595123,-0.07914480566978455,-0.15822158753871918,0.04772717505693436,0.14698678255081177,-0.3654209077358246,-0.3335849642753601,0.13756492733955383,-0.10653422772884369,-0.008660034276545048,0.3718551695346832,-0.15523692965507507,-0.31122279167175293,0.29063114523887634,-0.015413273125886917,-0.15529648959636688,0.1928567886352539,-0.08311215043067932,-0.17843537032604218,0.05994686856865883,-0.06098474562168121,-0.24849696457386017,0.03664396330714226,-0.015993550419807434,0.04658828303217888,-0.2010672241449356,0.03018459677696228,0.1874912977218628,-0.20774774253368378,-0.10197319090366364,-0.06987987458705902,0.32252299785614014,-0.2942475974559784,0.028942035511136055,0.09843111783266068,-0.17813396453857422,-0.07031624019145966,-0.0847645029425621,0.16827772557735443,-0.12742725014686584,-0.0438651442527771,-0.17747673392295837,-0.1716286689043045,0.11587575078010559,-0.1946907639503479,0.37747734785079956,0.010145964100956917,0.03161965683102608,0.14836379885673523,-0.0697794184088707,0.00010448835382703692,0.003939314279705286,-0.033477507531642914,0.10803836584091187,-0.003941099625080824,-0.1132873073220253,-0.1597050577402115,-0.017932578921318054,0.05219618231058121,-0.06342212110757828,-0.13730479776859283,-0.03748562932014465,0.06834625452756882,0.07683183252811432,0.18177150189876556,-0.04734340310096741,0.023595338687300682,0.06160213053226471,0.15518349409103394,0.017264489084482193,-0.06992338597774506,0.05573783069849014,0.06489864736795425,-0.034366361796855927,0.08767025172710419,0.018075527623295784,0.06265707314014435,-0.1691863089799881,-0.23227974772453308,-0.04757559299468994,0.032256681472063065,0.06444060057401657,-0.00492341723293066,0.05285704880952835,-0.020136922597885132,0.024289023131132126,-0.2634464502334595,-0.2644501030445099,-0.1264708936214447,-0.08938122540712357,0.16087478399276733,0.0808400809764862,0.06332429498434067,-0.11528991907835007,-0.1575472056865692,-0.2951156795024872,0.35444578528404236,0.1044420525431633,-0.19672586023807526,-0.498211145401001,0.13554705679416656,-0.02050856314599514,-0.09016620367765427,0.16240110993385315,0.011755517683923244,0.3370858132839203,-0.050212226808071136,0.16419754922389984,0.06703642010688782,-0.07419681549072266,-0.4421708583831787,0.2392275035381317,0.10906463116407394,0.046020954847335815,0.3850187659263611,-0.07409808039665222,-0.3883986175060272,0.2591087818145752,-0.0263911671936512,-0.18132911622524261,-0.1552225649356842,-0.021938756108283997,-0.05594092607498169,-0.05380379408597946,-0.06952348351478577,-0.26079872250556946,-0.1469690054655075,0.06399724632501602,-0.05164097994565964,-0.06661879271268845,0.09404592216014862,-0.08471512794494629,-0.1546040028333664,0.09950163960456848,0.2924559414386749,0.07951587438583374,0.11565681546926498,0.06601502746343613,-0.0789761021733284,0.20728935301303864,-0.252634197473526,0.003946265671402216,0.13306495547294617,0.3671153485774994,0.06092185154557228,-0.0810646191239357,0.005368781741708517,0.10643848031759262,0.0026383327785879374,-0.020547792315483093,0.09766854345798492,-0.08733197301626205,0.18115569651126862,-0.12553119659423828,-0.017621392384171486,-0.3183700740337372,-0.19638584554195404,0.13013817369937897,0.435734361410141,-0.1902180314064026,-0.06253673136234283,0.24330812692642212,-0.19112573564052582,0.013037104159593582,0.465454638004303,-0.08259765803813934,0.0237516388297081,-0.03125536069273949,-0.14811822772026062,-0.09407190978527069,0.07203592360019684,0.01493985764682293,-0.15413923561573029,0.5088987946510315,-0.132414773106575,0.12932905554771423,0.15066832304000854,-0.04886649176478386,-0.10364954173564911,0.27389591932296753,-0.010648402385413647,0.04891716316342354,-0.11722523719072342,-0.27869778871536255,0.12269406765699387,-0.13108359277248383,-0.2646547257900238,-0.12400588393211365,-0.03388447314500809,0.020544009283185005,0.005430059973150492,-0.07270587980747223,-0.0050628515891730785,0.1821289360523224,0.1379692405462265,0.021273571997880936,-0.05262744054198265,-0.302843302488327,-0.25487327575683594,-0.13248038291931152,-0.04142902046442032,0.028258267790079117,0.17511631548404694,0.08550906926393509,-0.053810421377420425,-0.0887112095952034,-0.17716331779956818,0.2401800900697708,0.021036501973867416,-0.03639053553342819,0.31245797872543335,-0.12263413518667221,-0.22081658244132996,0.028164997696876526,-0.1894962042570114,0.07086043059825897,-0.1472635120153427,-0.005390448961406946,-0.1062038317322731,-0.13224220275878906,-0.13208834826946259,-0.1353992372751236,-0.17958438396453857,0.18939408659934998,0.13688260316848755,-0.021159401163458824,0.06352463364601135,0.07678289711475372,0.0625239759683609,0.399938702583313,0.17240162193775177,0.1783982366323471,0.1919720470905304,0.12125187367200851,0.16575956344604492,-0.15901803970336914,0.0321824885904789,0.09941261261701584,0.03050074726343155,0.02221362479031086,0.01736842282116413,0.12433386594057083,0.16131818294525146,0.20082853734493256,0.15049031376838684,-0.0774308517575264,0.04150216281414032,-0.04626184701919556,-0.031723830848932266,0.01304415613412857,0.1247686818242073,-0.012528720311820507,-0.1447383463382721,-0.20137251913547516,-0.20106200873851776,-0.07959955930709839,-0.04951654002070427,0.12976863980293274,0.03717772290110588,-0.2748330533504486,0.13071700930595398,0.08907803893089294,-0.03136971592903137,-0.04865901544690132,-0.028343822807073593,-0.19085849821567535,0.1245945394039154,-0.1495683342218399,0.023056697100400925,0.24792121350765228,-0.16855531930923462,-0.4037865102291107,-0.04602992534637451,0.19035658240318298,-0.29671600461006165,-0.09129196405410767,-0.18119469285011292,-0.015903262421488762,0.06584315001964569,0.2120765894651413,0.30558982491493225,0.11797221004962921,0.047804541885852814,0.12077108770608902,-0.006821857299655676,0.3302556872367859,-0.04079984873533249,0.10226480662822723,-0.17296862602233887,0.23458166420459747,0.06399655342102051,0.045642055571079254,-0.0698433443903923,-0.08460615575313568,0.28323790431022644,-0.07934148609638214,0.07839225232601166,0.002515624277293682,0.043755050748586655,0.015060435980558395,-0.1434784233570099,-0.07046021521091461,0.21809563040733337,-0.27871087193489075,0.10558965802192688,0.18414561450481415,-0.193303182721138,0.10112189501523972,0.27148836851119995,-0.033952031284570694,-0.057660896331071854,0.32467034459114075,-0.18701554834842682,0.09479229897260666,0.12682399153709412,-0.0767238438129425,0.00041629531187936664,0.08600160479545593,-0.01525894459336996,-0.4105057418346405,0.035316213965415955,0.05394976586103439,-0.09808868914842606,0.05737860128283501,0.015560927800834179,0.04898015782237053,-0.0211075097322464,-0.22534766793251038,0.021306289359927177,-0.12785954773426056,0.022562135010957718,-0.01000623032450676,0.039039913564920425,0.13457544147968292,-0.13798171281814575,0.18781433999538422,-0.1607353538274765,0.2962641417980194,0.03603426367044449,0.05897754430770874,0.11599714308977127,-0.3908708989620209,-0.21342335641384125,-0.09810946881771088,0.17691561579704285,-0.07997891306877136,0.2058364450931549,-0.05825839191675186,-0.050465043634176254,-0.1032966747879982,0.07252031564712524,-0.0021729019936174154,-0.035945288836956024,0.06315553188323975,0.0826396718621254,-0.16687510907649994,-0.10402572154998779,-0.06970372796058655,0.07077669352293015,0.18342089653015137,-0.04412773624062538,0.1459706574678421,0.12891744077205658,-0.14998704195022583,-0.22602760791778564,-0.0495431050658226,-0.3568894863128662,-0.16475249826908112,0.2887329161167145,0.12593431770801544,-0.14001061022281647,0.05745480954647064,0.16714301705360413,-0.10685732960700989,0.15545974671840668,0.27924486994743347,0.05927158147096634,-0.026285678148269653,-0.11751611530780792,-0.15765045583248138,-0.197828471660614,0.20098049938678741,-0.03479035198688507,0.21831318736076355,-0.29035502672195435,-0.15300887823104858,0.029081016778945923,0.2944417893886566,-0.288362592458725,0.024958211928606033,0.31288066506385803,0.03794842213392258,-0.09533360600471497,-0.3223837912082672,-0.09473695605993271,-0.1409260779619217,-0.23197171092033386,0.06361444294452667,0.3608585596084595,-0.17505188286304474,0.054602447897195816,0.0512869730591774,-0.4798232913017273,0.20750875771045685,0.2330416440963745,0.057420626282691956,0.08615999668836594,0.012501479126513004,0.006693655624985695,0.13060401380062103,-0.016460059210658073,-0.305206298828125,-0.10423023998737335,-0.010346198454499245,-0.13035167753696442,-0.07376540452241898,0.10480485111474991,0.03028162755072117,0.1347436159849167,0.00873880460858345,0.05785601586103439,0.1831689178943634,0.28321266174316406,0.06591801345348358,0.11988445371389389,0.17892856895923615,0.4284372329711914,-0.07929348945617676,0.200162872672081,0.293342262506485,-0.04624083265662193,0.5364209413528442,0.08334845304489136,-0.11559879779815674,0.21614976227283478,-0.005006828811019659,-0.03983111307024956,-0.2349061220884323,-0.24263815581798553,-0.06692270934581757,-0.06733381748199463,0.006205619312822819,-0.043604690581560135,-0.38357940316200256,-0.1849185973405838,-0.024189814925193787,0.3123959004878998,0.06585793942213058,-0.07620193809270859,0.061841148883104324,0.07380106300115585,-0.1448846459388733,0.3493551015853882,-0.08755571395158768,-0.06423131376504898,-0.2261640876531601,-0.01795414462685585,-0.052790574729442596,-0.18334552645683289,-0.0156804621219635,0.123565673828125,0.19703593850135803,0.02062259428203106,-0.15351493656635284,0.03690212592482567,0.04733358696103096,-0.22144590318202972,-0.16825580596923828,-0.030407093465328217,-0.009336390532553196,0.01610303297638893,-0.09532424807548523,0.23117564618587494,0.003951404243707657,0.047849975526332855,-0.17038702964782715,-0.05455266311764717,0.028787698596715927,-0.09694937616586685,-0.3264833092689514,0.10302844643592834,0.013400791212916374,-0.0364634208381176,-0.2583147883415222,0.19828148186206818,0.00738475751131773,-0.3241998553276062,-0.15657413005828857,-0.017976531758904457,0.12790614366531372,0.1164056584239006,-0.0005738546024076641,-0.052364133298397064,-0.09621911495923996,-0.47236719727516174,0.06611727923154831,0.23155760765075684,0.1317594349384308,0.38389894366264343,-0.051185835152864456,-0.6035301089286804,0.0027553667314350605,0.06849093735218048,0.03600361570715904,-0.14360377192497253,0.20190446078777313,-0.2319607138633728,-0.026531977578997612,0.0582939013838768,-0.21176381409168243,-0.027193939313292503,0.14158326387405396,-0.10999235510826111,0.1276502162218094,0.018672117963433266,-0.2059740424156189,0.1799580305814743,0.017290474846959114,0.13560248911380768,-0.18140892684459686,0.1448569893836975,-0.24472427368164062,-0.21113453805446625,0.05206321179866791,-0.3210751712322235,-0.154545396566391,0.05768895521759987,0.022363264113664627,0.1260671764612198,0.27663692831993103,0.1596715748310089,0.06926336884498596,0.09723062068223953,0.024279942736029625,-0.2652985453605652,-0.14574962854385376,-0.09738937765359879,0.1647447943687439,0.10994797945022583,0.42967861890792847,-0.0684114471077919,-0.0017678942531347275,-0.14081436395645142,0.14670829474925995,-0.004384889267385006,0.19525933265686035,0.23292484879493713,-0.13365933299064636,-0.09358981251716614,0.057767532765865326,-0.18479900062084198,-0.07823438197374344,0.06589493900537491,0.11331497877836227,-0.09948178380727768,0.01412898674607277,-0.12536673247814178,-0.02323073334991932,-0.23747418820858002,-0.20595061779022217,0.3416195511817932,-0.059573955833911896,0.0270333644002676,-0.11808982491493225,0.13488072156906128,0.1199302151799202,0.09870358556509018,0.2676195800304413,0.10175588726997375,-0.043455373495817184,0.43073147535324097,0.32162219285964966,1.0228909254074097,0.9438184499740601,0.14676624536514282,0.20154927670955658,-0.039764486253261566,-0.10419636219739914,-0.17126964032649994,-0.019738972187042236,-0.033550795167684555,-0.007556692697107792,-0.16239801049232483,0.10323293507099152,-0.25620847940444946,-0.451363742351532,0.02975824475288391,-0.015107497572898865,-0.16985829174518585,-0.10630666464567184,0.20080919563770294,0.04999011382460594,-0.0042036850936710835,-0.10349372029304504,-0.222417414188385,0.20414619147777557,0.49503254890441895,0.21649454534053802,-0.06585431843996048,-0.24053798615932465,-0.09299135208129883,-0.07385625690221786,-0.12425068020820618,0.5112074017524719,-0.22136364877223969,0.07117635011672974,0.10747484862804413,0.05386972427368164,0.23905810713768005,0.38707640767097473,-0.1681356132030487,-0.39161401987075806,0.29481691122055054,-0.19205975532531738,0.031729377806186676,-0.10521053522825241,0.17594464123249054,0.09642136842012405,-0.15258987247943878,-0.29044240713119507,0.0586242713034153,0.09253701567649841,-0.15967613458633423,-0.3796667456626892,0.10847822576761246,-0.2464030236005783,-0.08321292698383331,-0.06272416561841965,0.09029637277126312,-0.19563238322734833,-0.272400826215744,-0.09500046074390411,-0.28928372263908386,-0.03866212069988251,0.13294324278831482,0.07224680483341217,0.20918463170528412,-0.18075352907180786,-0.5172811150550842,0.129117950797081,-0.023878999054431915,-0.003692072816193104,0.44653812050819397,-0.008221914060413837,-0.5889119505882263,0.0684315413236618,0.21453885734081268,0.07384324818849564,-0.08161669969558716,0.18399786949157715,0.1254107803106308,-0.08104617893695831,0.2366652637720108,-0.21561220288276672,0.19567327201366425,-0.11088865995407104,-0.0297075305134058,-0.17954325675964355,0.273952841758728,0.09694487601518631,0.12226440757513046,-0.0103709502145648,0.09318386763334274,0.04670048505067825,0.22877196967601776,-0.1014864444732666,0.3927913308143616,-0.17192459106445312,-0.16310210525989532,0.07518025487661362,-0.05580121651291847,0.4100111126899719,-0.3168617784976959,-0.008786039426922798,0.1481141746044159,0.15605561435222626,0.1376028209924698,-0.08209539204835892,0.07255545258522034,-0.14416232705116272,-0.010503037832677364,-0.11086293309926987,0.08189275860786438,-0.17613041400909424,-0.0875253975391388,-0.03912791237235069,0.32216596603393555,-0.08599047362804413,0.043125931173563004,0.16155284643173218,-0.3488178849220276,-0.0814879983663559,0.13729554414749146,-0.05005769059062004,0.11407747119665146,-0.24181467294692993,0.003288944950327277,-0.0671883150935173,0.2259109914302826,0.04951532557606697,0.04276097193360329,0.05676228925585747,-0.10982461273670197,0.09607784450054169,0.049095526337623596,0.04814506322145462,0.16411419212818146,0.08030354231595993,-0.01298800203949213,-0.13830865919589996,-0.048159655183553696,0.2644542455673218,0.01087800320237875,0.14612002670764923,-0.008635509759187698,0.05114259943366051,0.0497332327067852,0.15043948590755463,0.10785767436027527,0.0893455371260643,-0.22844050824642181,-0.055834826081991196,-0.12808549404144287,0.23477870225906372,0.0004990330780856311,-0.1648978441953659,0.3611762225627899,-0.057839397341012955,0.039045922458171844,0.06293193250894547,-0.24392247200012207,-0.27941298484802246,0.170901820063591,-0.005405231844633818,0.048493094742298126,-0.09726446121931076,0.030399253591895103,-0.14146636426448822,0.17253200709819794,0.0777270719408989,-0.03932188078761101,-0.013491841964423656,0.016035594046115875,0.48775896430015564,-0.3983350098133087,0.12984199821949005,-0.06043878197669983,-0.21500933170318604,0.02741086669266224,-0.2688021957874298,0.09983152896165848,-0.007658593822270632,0.04872412234544754,-0.06889002025127411,0.0959315150976181,-0.08329866081476212,0.27451765537261963,-0.011892369017004967,0.22713272273540497,0.29077818989753723,-0.03814788907766342,-0.17870266735553741,-0.06790262460708618,-0.1948162466287613,0.2240198254585266,0.02008754387497902,0.07601624727249146,0.27461379766464233,0.0020774255972355604,-0.21070252358913422,0.0670081377029419,0.1408570110797882,0.07104264199733734,-0.12087959796190262,0.19815966486930847,0.009773864410817623,-0.22638411819934845,0.12352242320775986,-0.19531689584255219,-0.045428697019815445,-0.08371692895889282,0.08616086840629578,0.401636004447937,-0.05823406204581261,-0.3528987467288971,0.15770071744918823,-0.37305283546447754,-0.04726714268326759,0.37834712862968445,0.024283288046717644,0.14533554017543793,-0.19102904200553894,0.008511694148182869,-0.05190558731555939,0.13981717824935913,0.010475806891918182,-0.1605338752269745,0.523273766040802,-0.04134588688611984,-0.08159362524747849,0.23992973566055298,-0.09168566018342972,-0.05835496261715889,0.06698773056268692,0.04711548238992691,-0.040445975959300995,0.31188252568244934,0.2369895577430725,0.12214022874832153,0.1665533185005188,-0.15067635476589203,-0.020758014172315598,0.07327591627836227,-0.12279406934976578,0.1725299060344696,0.27800530195236206,0.12264633923768997,0.15459400415420532,0.25495484471321106,0.353725790977478,-0.21265877783298492,-0.01800837740302086,0.17838768661022186,-0.08543214946985245,-0.018624987453222275,-0.0491618774831295,-0.33054667711257935,0.04252304136753082,-0.1882292479276657,0.054512202739715576,0.008600465953350067,-0.0683031901717186,0.0658985823392868,-0.05214862897992134,-0.18423503637313843,-0.06395921856164932,0.1416400820016861,-0.22624997794628143,0.18973994255065918,-0.5704410076141357,0.15879841148853302,-0.20168110728263855,0.06055019423365593,0.3263530433177948,0.06877700239419937,0.0791245847940445,0.09856223315000534,0.13061295449733734,-0.05097241327166557,0.22539122402668,0.1308354139328003,0.04557439312338829,0.2334394007921219,-0.008468255400657654,-0.0717252865433693,0.006495253182947636,-0.3168622851371765,0.11674010008573532,-0.0129068773239851,0.035151802003383636,-0.3260599672794342,-0.17545518279075623,0.005770604591816664,-0.04040417820215225,-0.18301285803318024,0.04299928620457649,0.06408362835645676,0.015093090943992138,0.08519270271062851,0.3743826448917389,0.33326587080955505,0.2101348489522934,-0.44299811124801636,-0.03198634460568428,0.18070542812347412,0.1392410397529602,-0.11112774908542633,0.19490228593349457,0.22204236686229706,-0.7430630326271057,0.02996836230158806,0.002738265786319971,-0.572846531867981,0.2503012716770172,-0.26176348328590393,-0.12712450325489044,-0.27206918597221375,0.211509570479393,-0.13826510310173035,0.17557395994663239,0.3366236984729767,-0.12077927589416504,-0.23023852705955505,-0.2383609116077423,0.1362634301185608,-0.11539479345083237,0.030169615522027016,0.3461827337741852,-0.10411815345287323,0.09032019972801208,-0.09548534452915192,-0.26857179403305054,-0.18393738567829132,0.121039479970932,-0.2124391794204712,0.15222933888435364,-0.046213772147893906,0.2930935323238373,-0.19102685153484344,-0.12737293541431427,0.20283009111881256,-0.15828213095664978,0.07838313281536102,-0.17943036556243896,0.14147308468818665,0.12283709645271301,0.12896545231342316,0.1372324526309967,0.22153759002685547,-0.21554693579673767,-0.08019927889108658,-0.006827022880315781,-0.059615571051836014,-0.15061596035957336,0.08985480666160583,0.24847538769245148,0.012724163010716438,-0.19501182436943054,-0.06756498664617538,0.4903528392314911,0.07295141369104385,-0.03414693847298622,0.6546109318733215,-0.3230408728122711,-0.2064581960439682,-0.07038602977991104,0.14513683319091797,0.36620157957077026,0.38420262932777405,0.504269540309906,-0.009042174555361271,-0.1985420137643814,0.08065257221460342,-0.07673202455043793,-0.24170304834842682,0.27093324065208435,0.17059247195720673,-0.1045864075422287,-0.3970516622066498,0.1971050351858139,0.014926530420780182,-0.16883744299411774,0.03486696630716324,0.10503243654966354,-0.12665162980556488,0.03418896347284317,-0.17694838345050812,0.1518261581659317,0.11763673275709152,0.225730299949646,-0.03159412369132042,-0.20871475338935852,-0.19304348528385162,-0.18374234437942505,-0.14895980060100555,-0.3062911629676819,0.2952157258987427,0.02510809525847435,0.2978755831718445,-0.04598835110664368,0.3379770815372467,-0.26565468311309814,-0.023386552929878235,0.060221679508686066,0.011494459584355354,-0.19875319302082062,0.16761228442192078,0.12014926970005035,-0.09504882991313934,-0.21012267470359802,-0.19918783009052277,-0.11711804568767548,-0.17545519769191742,-0.05367503687739372,0.01699623465538025,-0.004877263214439154,-0.05654429271817207,0.20564387738704681,0.038480788469314575,-0.17160849273204803,0.1290552318096161,-0.07850297540426254,0.030308930203318596,-0.030107295140624046,0.0038374336436390877,0.1368119716644287,-0.19303739070892334,-0.1677408665418625,0.311946839094162,-0.044929228723049164,0.22077319025993347,0.15724915266036987,0.07665305584669113,0.08893933892250061,0.19050569832324982,-0.03134182468056679,0.19068510830402374,-0.03745536506175995,0.026253098621964455,0.08913161605596542,-0.175141379237175,0.1651758998632431,-0.025081273168325424,-0.42896443605422974,0.050945643335580826,0.0004747161874547601,-0.04660548269748688,0.24979352951049805,0.1877875179052353,0.06961968541145325,-0.24882204830646515,-0.030769217759370804,-0.08177830278873444,-0.2182183563709259,-0.18764449656009674,0.2651177942752838,0.14624884724617004,-0.06158444285392761,0.007941905409097672,0.021773310378193855,0.16292373836040497,0.014161404222249985,-0.02194570191204548,-0.06901714205741882,0.049731429666280746,-0.061689794063568115,0.029233001172542572,-0.29919636249542236,-0.04085588455200195,0.111873097717762,-0.27973222732543945,0.046771783381700516,-0.14152735471725464,0.3028106987476349,0.0070761824026703835,-0.31014662981033325,0.17728039622306824,-0.3462705612182617,-0.12842047214508057,0.1331600546836853,0.1602499932050705,0.04296986758708954,-0.23150154948234558,0.25783485174179077,0.11073444783687592,-0.3811514377593994,-0.015509731136262417,0.13162612915039062,-0.15838627517223358,-0.033985987305641174,0.06718703359365463,-0.020417653024196625,0.09958164393901825,-0.1611737459897995,-0.12711812555789948,0.301224946975708,-0.12139678001403809,0.05002346634864807,0.007273424882441759,-0.050149962306022644,0.16753308475017548,0.32672300934791565,0.2992595136165619,0.03063260391354561,0.31822922825813293,-0.22051455080509186,-0.03079485520720482,0.13223998248577118,0.30062592029571533,0.26774999499320984,0.3421779274940491,-0.09303132444620132,0.3436771631240845,-0.05835890397429466,0.12223904579877853,0.1498686969280243,0.09099368751049042,-0.2450617253780365,-0.1511693149805069,-0.2355208396911621,0.157975971698761,-0.013323544524610043,-0.3030964434146881,-0.09301534295082092,-0.06598654389381409,0.21542710065841675,0.1628706306219101,0.02498159185051918,0.4045948088169098,0.1406748741865158,-0.2529996931552887,-0.15379197895526886,0.5107349753379822,-0.09904997795820236,-0.2630355656147003,0.04484445974230766,-0.12020178884267807,-0.014495143666863441,-0.06654482334852219,0.192670539021492,0.05239985138177872,0.20008139312267303,-0.006609204690903425,-0.11538602411746979,0.0722053125500679,0.22700834274291992,0.07244101911783218,-0.007938366383314133,-0.0226296279579401,-0.2641499936580658,0.034192733466625214,0.36247193813323975,0.07531124353408813,-0.14998967945575714,0.06502651423215866,0.03136177361011505,0.06718183308839798,-0.21565210819244385,-0.15482303500175476,0.19042184948921204,-0.2953520119190216,0.11230317503213882,0.034931737929582596,-0.13084626197814941,-0.012566717341542244,-0.16640637814998627,0.18067540228366852,-0.23219893872737885,-0.1351722925901413,0.0684983879327774,-0.3578513264656067,-0.16170094907283783,-0.013138270005583763,0.049934469163417816,-0.08484972268342972,0.018402043730020523,0.07508596032857895,-0.0485808290541172,0.09353944659233093,-0.16179382801055908,0.08292698115110397,-0.02251252718269825,0.012534034438431263,0.19389314949512482,-0.0942525863647461,-0.009452817030251026,-0.10222087055444717,0.05525439605116844,0.009300448931753635,0.10611794143915176,0.08746524155139923,0.2576558589935303,0.14672768115997314,0.08059815317392349,-0.029822487384080887,0.0066131954081356525,-0.055653635412454605,0.2679292559623718,-0.07104326784610748,-0.004485878627747297,0.0410504974424839,-0.11358439177274704,0.1777014434337616,-0.035325273871421814,-0.034108493477106094,-0.09593413770198822,0.08247114717960358,0.20361652970314026,0.2149481475353241,0.052043452858924866,0.0614682100713253,-0.02997470460832119,0.06219473108649254,-0.03191246837377548,0.27604490518569946,0.04916059970855713,0.01747039332985878,0.156719371676445,0.09977377951145172,-0.19692960381507874,0.18262824416160583,-0.10032889991998672,-0.04418462887406349,-0.17371226847171783,0.29294607043266296,-0.09460015594959259,-0.15056119859218597,0.1632983386516571,0.13846351206302643,0.1699637770652771,0.3121986389160156,-0.08375583589076996,-0.09759385883808136,0.23734168708324432,-0.12127383053302765,-0.045202694833278656,0.2854950428009033,0.40015119314193726,0.1297788918018341,-0.046683646738529205,-0.11718634516000748,-0.00746954744681716,-0.028017982840538025,0.026586588472127914,-0.12772996723651886,0.1338818073272705,0.08523936569690704,0.1428474634885788,0.002071114955469966,-0.003126096446067095,-0.09333447366952896,-0.10847999900579453,0.14644397795200348,-0.28993818163871765,0.13576321303844452,0.013129500672221184,-0.28794291615486145,-0.2338639795780182,-0.17084088921546936,-0.007906174287199974,0.17134982347488403,0.16812846064567566,-0.07575185596942902,0.15294919908046722,-0.05538530647754669,0.013406150043010712,-0.06284088641405106,-0.05061928927898407,-0.042691655457019806,-0.22715331614017487,-0.5137771964073181,-0.18297472596168518,-0.12988416850566864,0.10955547541379929,0.06056620553135872,0.18479235470294952,-0.13461624085903168,0.03960081934928894,0.1919451206922531,0.004108124412596226,0.005839813966304064,0.08820365369319916,-0.1725783348083496,-0.2180827260017395,-0.039708130061626434,0.0034381523728370667,0.20566070079803467,0.0657540112733841,-0.09714928269386292,-0.10254386067390442,0.13174660503864288,-0.14874975383281708,-0.12234987318515778,0.20768345892429352,-0.047248829156160355,-0.1183384507894516,-0.16588160395622253,0.0752042755484581,0.05345100909471512,0.034180402755737305,0.10999589413404465,0.052111782133579254,0.17286087572574615,-0.16813497245311737,-0.07728977501392365,-0.07152151316404343,0.17830905318260193,0.19743214547634125,0.006236164830625057,-0.045423444360494614,0.14364472031593323,-0.030947145074605942,0.050942763686180115,0.05812086910009384,0.12104018032550812,-0.08153153210878372,-0.14480149745941162,-0.1277119666337967,0.2041250467300415,-0.07469286024570465,0.26442909240722656,0.2567383944988251,0.11268248409032822,0.16708436608314514,0.2734326720237732,0.08939114212989807,0.37412235140800476,0.38376402854919434,-0.10768134891986847,-0.21470215916633606,-0.20754235982894897,-0.24163232743740082,-0.17156054079532623,0.05944645404815674,0.09175612777471542,0.01683986186981201,-0.3521862328052521,0.08795832842588425,-0.11520904302597046,-0.20452550053596497,-0.2139168530702591,0.034055545926094055,-0.2362227886915207,-0.05225401744246483,-0.17169708013534546,0.010840392671525478,-0.08810105174779892,-0.19483673572540283,0.268684446811676,0.13444405794143677,0.2575456202030182,-0.07687149196863174,-0.0447518527507782,-0.12776313722133636,-0.19381654262542725,0.13023041188716888,0.043969832360744476,-0.15483474731445312,-0.10297304391860962,-0.0593082420527935,0.08128485828638077,-0.13288472592830658,0.13801594078540802,-0.2675427794456482,-0.441682368516922,-0.031871020793914795,-0.025573186576366425,0.07245199382305145,0.007766420021653175,0.29529744386672974,-0.32181286811828613,-0.32286393642425537,0.33403679728507996,0.043533142656087875,0.0271610077470541,0.02382543869316578,-0.04883914068341255,0.14002305269241333,0.22315533459186554,-0.027233583852648735,0.19618597626686096,0.1362745314836502,-0.10087442398071289,0.11173234134912491,0.09615439176559448,0.1238032728433609,-0.41985106468200684,0.07376639544963837,-0.16712766885757446,-0.021410329267382622,0.22518989443778992,0.13514073193073273,0.19890013337135315,-0.035536859184503555,0.1615302413702011,0.12062101811170578,-0.32058000564575195,0.18091808259487152,0.12420559674501419,-0.02239389531314373,0.032384298741817474,0.16155268251895905,0.06281687319278717,0.09320440143346786,-0.08720956742763519,0.13046912848949432,0.1137387827038765,0.054165568202733994,-0.06322240084409714,-0.02599378116428852,0.03797431290149689,0.054595861583948135,0.09921740740537643,-0.22967499494552612,-0.18726709485054016,-0.14526787400245667,-0.014402556233108044,-0.329252690076828,0.13934257626533508,-0.016984019428491592,-0.4326151907444,0.24746446311473846,0.0270884670317173,0.29720979928970337,0.05033530294895172,-0.08765695244073868,0.47114360332489014,-0.10741022974252701,0.16141250729560852,-0.3818080723285675,-0.2214800864458084,0.08261080831289291,0.15437564253807068,-0.11210930347442627,-0.06828189641237259,0.025369226932525635,-0.002996167866513133,-0.27160146832466125,0.015568306669592857,-0.19032235443592072,0.14859898388385773,-0.1596994251012802,0.01654638536274433,0.16338835656642914,-0.3984822630882263,0.12125856429338455,-0.19111017882823944,0.07192600518465042,0.03178318217396736,0.44022607803344727,-0.06128215417265892,-0.030069813132286072,-0.3320693373680115,0.017405293881893158,-0.04102914407849312,-0.09849312901496887,-0.07668249309062958,0.08445766568183899,-0.04972688853740692,0.044368207454681396,-0.2208443135023117,-0.04581349715590477,0.43852466344833374,0.10753670334815979,-0.19549933075904846,-0.46416136622428894,0.25290027260780334,0.11319286376237869,-0.46210387349128723,-0.0796695202589035,0.012218398973345757,-0.04569287598133087,-0.024139242246747017,0.062078624963760376,0.23303426802158356,-0.03429222106933594,-0.09060217440128326,0.04502290487289429,-0.055373404175043106,-0.09302154183387756,-0.16127373278141022,-0.1956336498260498,-0.055926062166690826,-0.056137070059776306,-0.04278555139899254,0.02459457702934742,0.12282219529151917,0.32732683420181274,0.1425200253725052,-0.21106065809726715,0.22024907171726227,0.05582916736602783,0.18136069178581238,-0.14076657593250275,0.20025458931922913,-0.02636159211397171,-0.11890961974859238,-0.03542628884315491,-0.01502663642168045,-0.14433974027633667,-0.03015175648033619,0.017107641324400902,-0.05965883657336235,0.2345411628484726,-0.06977059692144394,-0.153602734208107,0.18880634009838104,-0.07480265945196152,0.0709678903222084,-0.07334087044000626,-0.15960867702960968,-0.060131169855594635,0.2576165199279785,0.20724450051784515,0.008306775242090225,0.18128778040409088,-0.236714169383049,-0.0719263032078743,0.0007206156733445823,-0.039643507450819016,0.11598170548677444,-0.07274092733860016,-0.15898467600345612,0.09402024000883102,0.12511633336544037,0.0912661999464035,0.15833476185798645,0.038095518946647644,-0.04062099754810333,-0.10482654720544815,0.013156544417142868,0.31506916880607605,0.40559589862823486,-0.0027251108549535275,-0.07404559850692749,-0.12800748646259308,-0.09864558279514313,0.12547463178634644,-0.22097556293010712,-0.06111234053969383,-0.16634239256381989,0.13741834461688995,0.12454234063625336,-0.051872555166482925,0.1895720511674881,-0.13860972225666046,0.11873992532491684,-0.027953939512372017,-0.08283401280641556,0.21985158324241638,0.08062891662120819,0.03407015651464462,-0.05653422698378563,0.0007779213483445346,-0.14861911535263062,0.01736113429069519,0.1168951764702797,-0.14294970035552979,0.18743151426315308,0.12973995506763458,-0.10768396407365799,0.11715804785490036,0.14380371570587158,0.062045950442552567,-0.2589361071586609,0.05909999459981918,-0.09698281437158585,0.09678687900304794,0.055704277008771896,-0.13069137930870056,-0.3198098838329315,0.0955134928226471,-0.1866767704486847,0.13744455575942993,-0.12096142023801804,-0.13184580206871033,-0.12528562545776367,-0.005618057679384947,-0.009018567390739918,-0.6100388169288635,-0.14861993491649628,0.05006585270166397,0.0871218666434288,0.12312860786914825,-0.35709765553474426,-0.0007440665503963828,0.14690923690795898,-0.2818571627140045,0.15201985836029053,-0.15859536826610565,-0.06447988748550415,-0.1664954423904419,0.12143585085868835,-0.22634533047676086,0.15191492438316345,0.07771902531385422,0.1471012681722641,-0.18144254386425018,-0.07861172407865524,-0.09122192114591599,-0.048415347933769226,-0.37573522329330444,0.06491066515445709,0.10538318008184433,-0.30783241987228394,0.21969875693321228,-0.2887252867221832,0.0011766243260353804,0.06713147461414337,-0.18331213295459747,-0.15750479698181152,-0.1482090801000595,0.4576479196548462,-0.05787208676338196,-0.1355082094669342,-0.19198548793792725,-0.1513347178697586,0.014432006515562534,0.05445636063814163,-0.1500054895877838,-0.1466633677482605,0.04696960747241974,0.0748177319765091,-0.18152737617492676,-0.2511768341064453,0.15310393273830414,-0.008711418136954308,-0.14566461741924286,0.19868193566799164,0.026368552818894386,-0.33797258138656616,-0.10641879588365555,-0.28905680775642395,-0.050690680742263794,-0.03017697110772133,-0.028327427804470062,0.23234866559505463,-0.11694427579641342,-0.05636667460203171,-0.243586927652359,0.11525183171033859,-0.11770552396774292,0.14586500823497772,0.07284244894981384,0.1341923326253891,0.015678007155656815,-0.07684674113988876,-0.07964316755533218,-0.0514022521674633,0.10880345851182938,0.21314875781536102,-0.16187520325183868,0.15299493074417114,0.2223851978778839,-0.29181182384490967,-0.09089410305023193,0.03221989423036575,-0.20317190885543823,-0.14181526005268097,-0.2863464951515198,-0.120851531624794,-0.28586843609809875,-0.04147817939519882,-0.22316451370716095,-0.16973794996738434,-0.01592285744845867,-0.17038512229919434,-0.13976281881332397,0.07340267300605774,-0.18442519009113312,0.0828574150800705,-0.05170886963605881,0.14451190829277039,0.17938438057899475,0.10184960812330246,-0.3649176359176636,0.08904299139976501,-0.05511891841888428,-0.3507115840911865,-0.097462497651577,0.00735475355759263,0.12585711479187012,0.047486983239650726,0.2914438843727112,-0.05912989750504494,0.12027567625045776,0.14236053824424744,0.3383740782737732,0.23133084177970886,0.09874606132507324,-0.1912708580493927,0.04869302734732628,-0.1287369281053543,0.10761149972677231,-0.15051278471946716,0.05357930064201355,0.1228412464261055,0.12175430357456207,0.009273489937186241,0.007244241423904896,0.0989084392786026,0.04422980919480324,-0.20695675909519196,-0.04500381648540497,-0.13548511266708374,-0.20184750854969025,0.05759589746594429,-0.30590295791625977,0.14803600311279297,0.029282141476869583,0.2552141845226288,-0.058748818933963776,0.030064158141613007,0.1108497604727745,0.1401076316833496,-0.010393637232482433,-0.08783340454101562,0.24066604673862457,