{"version": "0.5.1", "metadata": {"date": {"year": 2023, "month": 6, "day": 29, "hour": 22, "minute": 30, "second": 45}, "loudness": -11.609087944030762, "gain": 0.9778313310558676, "name": "GP Boss DS-1 Distortion T10 D10", "modeled_by": "GP", "gear_type": "pedal", "gear_make": "Boss", "gear_model": "DS-1 Distortion", "tone_type": "crunch"}, "architecture": "WaveNet", "config": {"layers": [{"input_size": 1, "condition_size": 1, "head_size": 8, "channels": 16, "kernel_size": 3, "dilations": [1, 2, 4, 8, 16, 32, 64, 128, 256, 512], "activation": "Tanh", "gated": false, "head_bias": false}, {"input_size": 16, "condition_size": 1, "head_size": 1, "channels": 8, "kernel_size": 3, "dilations": [1, 2, 4, 8, 16, 32, 64, 128, 256, 512], "activation": "Tanh", "gated": false, "head_bias": true}], "head": null, "head_scale": 0.02}, "weights": [0.022901885211467743, 0.37215086817741394, -0.8411853313446045, -0.8049622178077698, -0.44194722175598145, 0.05203734338283539, -0.013045080006122589, 0.7818436622619629, -0.07118480652570724, 0.20923981070518494, -0.2021528035402298, 0.0002916614757850766, -1.0077310800552368, -0.8015374541282654, -0.42015981674194336, 0.16666626930236816, 0.04331791773438454, 0.02605297602713108, -0.1849353313446045, 0.003458507591858506, 0.09592468291521072, 0.06157534569501877, -0.1051635667681694, 0.05967814102768898, 0.03186221420764923, -0.05808532238006592, 0.08343863487243652, -0.07845623046159744, -0.15684929490089417, -0.07509856671094894, 0.007605993188917637, 0.19940966367721558, -0.03825194016098976, -0.10367447882890701, -0.10568930953741074, -0.08287791162729263, -0.03540121391415596, 0.19723393023014069, 0.11185093224048615, 0.013937982730567455, -0.020434271544218063, -0.07443441450595856, 0.12345431745052338, -0.07454238086938858, -0.06868094205856323, -0.1411847472190857, 0.028866557404398918, 0.05258321762084961, 0.011355949565768242, 0.06689333915710449, 0.0771569237112999, 0.10014970600605011, -0.01774662174284458, -0.030103184282779694, 0.15100069344043732, -0.15807095170021057, -0.01966135948896408, -0.05464532971382141, -0.1671990603208542, -0.11360342055559158, 0.12946945428848267, 0.11395572870969772, -0.07456133514642715, -0.04066028073430061, -0.16061200201511383, -0.03899535536766052, 0.017248904332518578, -0.19971145689487457, 0.2312328815460205, 0.32793742418289185, 0.11694438010454178, -0.2047377973794937, -0.13847693800926208, 0.35181212425231934, -0.023844297975301743, -0.06511632353067398, 0.2685115933418274, -0.266895592212677, -0.16947966814041138, -0.28300121426582336, 0.02931166999042034, 0.3238430321216583, 0.3027212917804718, -0.15423394739627838, -0.028822312131524086, -0.2563435137271881, 0.12475477159023285, 0.12516747415065765, 0.324296772480011, -0.18842631578445435, -0.09623142331838608, -0.17081142961978912, 0.2333393394947052, 0.2305629551410675, 0.08718562871217728, -0.2307496815919876, -0.1064680814743042, 0.3276263475418091, -0.014942353591322899, -0.06749358028173447, 0.367177814245224, -0.05327509716153145, -0.2574794590473175, 0.1984904408454895, -0.2856472432613373, -0.1942475140094757, 0.12368229776620865, -0.2582446038722992, -0.19518336653709412, -0.23925872147083282, 0.07428889721632004, 0.23097659647464752, -0.11526881903409958, 0.1584051549434662, 0.08869877457618713, -0.15749822556972504, 0.05904071033000946, -0.009049727581441402, 0.04861406609416008, -0.06631460040807724, 0.06977532804012299, 0.039272770285606384, -0.16936686635017395, 0.08244816958904266, -0.10088355839252472, -0.1757640242576599, -0.013100842013955116, -0.09087982773780823, 0.054249249398708344, -0.11637655645608902, 0.012563607655465603, 0.0334814190864563, -0.14094771444797516, -0.03786556050181389, 0.20259752869606018, -0.02937784045934677, 0.07938843965530396, -0.061973780393600464, 0.09204410016536713, 0.0483945794403553, 0.2223246693611145, 0.06413853913545609, 0.17752431333065033, -0.09080630540847778, -0.09212218225002289, 0.03940102085471153, 0.037110406905412674, -0.11345427483320236, -0.0426437184214592, -0.21210043132305145, -0.12242089211940765, -0.09030623733997345, -0.12746483087539673, 0.095427006483078, 0.11360432952642441, -0.23031198978424072, 0.11261937767267227, -0.1586877852678299, 0.0363629087805748, -0.11077040433883667, 0.04463167116045952, 0.022068819031119347, -0.06396985799074173, -0.06903690099716187, -0.06627079844474792, -0.007961345836520195, -0.11386765539646149, 0.10237782448530197, -0.11590606719255447, -0.060512106865644455, 0.17407803237438202, -0.04516702517867088, 0.0728587806224823, 0.09135913103818893, -0.12547864019870758, 0.13142113387584686, -0.07356829941272736, -0.08107686787843704, 0.0015901317819952965, -0.2444305121898651, -0.08279801905155182, 0.020712189376354218, 0.05600201338529587, 0.02782224491238594, -0.02327105775475502, 0.051464688032865524, -0.07181444764137268, 0.03411034867167473, -0.15135566890239716, 0.08285905420780182, 0.0579846017062664, 0.1341572105884552, -0.10864796489477158, -0.038879312574863434, -0.036335576325654984, 0.012789198197424412, -0.1339176744222641, 0.09807925671339035, -0.07169117033481598, -0.05510144680738449, 0.05191472917795181, 0.10456874221563339, -0.16398239135742188, -0.058331262320280075, -0.07845789939165115, 0.17155003547668457, -0.06240342557430267, 0.14613986015319824, 0.10611245781183243, -0.2302679717540741, -0.2143731415271759, 0.31322550773620605, -0.09962738305330276, -0.1746121495962143, -0.34425103664398193, 0.14693069458007812, 0.03509293496608734, -0.4206051230430603, 0.24488435685634613, 0.030864885076880455, -0.35562020540237427, 0.2735143005847931, 0.2007567286491394, 0.29538407921791077, -0.2592543065547943, -0.07523461431264877, -0.2573379576206207, 0.0777117908000946, 0.06683947145938873, 0.3249989151954651, -0.12286564707756042, -0.02551598846912384, -0.3237326145172119, 0.2572815716266632, 0.2379828542470932, 0.2601639926433563, -0.05010702833533287, -0.2414068728685379, -0.38829633593559265, 0.17607004940509796, 0.20729303359985352, -0.08740980178117752, -0.14078743755817413, -0.0397769957780838, -0.27408474683761597, -0.015023941174149513, 0.2503984272480011, -0.4667172133922577, 0.13125638663768768, 0.12555328011512756, -0.414061963558197, 0.151574969291687, 0.2689952254295349, 0.27737656235694885, -0.281974196434021, -0.22285941243171692, -0.14573527872562408, 0.13238699734210968, -0.06367140263319016, -0.22156250476837158, -0.03469160571694374, 0.07384005188941956, 0.19506466388702393, 0.05740766227245331, 0.057701535522937775, 0.07294236868619919, -0.09288788586854935, 0.04760361835360527, 0.2462424486875534, -0.005306469276547432, -0.054907284677028656, -0.16938672959804535, -0.07664462178945541, 0.02666577883064747, 0.020374571904540062, -0.047832999378442764, 0.16557110846042633, -0.21496649086475372, 0.03622453287243843, 0.03526685759425163, 0.16677632927894592, -0.1024072989821434, -0.06030122935771942, -0.020358601585030556, 0.05966053158044815, 0.09414289891719818, 0.07793420553207397, 0.00401699123904109, -0.0064875963144004345, 0.08454351127147675, -0.1347067654132843, 0.007631812244653702, 0.16647611558437347, -0.05707084387540817, -0.027566058561205864, 0.033778805285692215, 0.04807587340474129, -0.1004733070731163, 0.18394309282302856, -0.09422257542610168, -0.056434500962495804, -0.11568024009466171, -0.057028669863939285, -0.014803322032094002, -0.17322881519794464, -0.05319899693131447, -0.1319175660610199, -0.3008665442466736, 0.22686761617660522, -0.06177787855267525, 0.25246837735176086, -0.1955399215221405, 0.09751049429178238, 0.3158770501613617, -0.12095613032579422, 0.13956338167190552, 0.2900013327598572, -0.17326577007770538, 0.10406387597322464, -0.2663555443286896, 0.20371460914611816, -0.005124877672642469, 0.017541447654366493, -0.07407298684120178, 0.06126812845468521, -0.24085555970668793, 0.25728997588157654, -0.0278581865131855, 0.43118762969970703, -0.2302199751138687, -0.06598007678985596, -0.5002594590187073, 0.2996672987937927, 0.0312909372150898, 0.2530677020549774, -0.10909759998321533, 0.1557544469833374, 0.055760737508535385, -0.10861098766326904, 0.01080058142542839, 0.34106793999671936, -0.2237318456172943, 0.16540610790252686, 0.45443615317344666, -0.2617826759815216, 0.17531263828277588, 0.43167778849601746, -0.0959729552268982, -0.045502107590436935, -0.32883185148239136, 0.13234327733516693, 0.041411370038986206, 0.0368550568819046, -0.041530415415763855, 0.09876643121242523, 0.27549174427986145, -0.14691251516342163, 0.06005386263132095, -0.33032166957855225, 0.1350243091583252, -0.08600373566150665, -0.3678037226200104, -0.011262751184403896, 0.1262034922838211, -0.14520522952079773, 0.2422076016664505, 0.1289137750864029, 0.018221667036414146, -0.21378886699676514, -0.052314046770334244, -0.023093530908226967, 0.3703688085079193, 0.009515943005681038, 0.15726548433303833, -0.23974375426769257, -0.09171221405267715, -0.08396843820810318, 0.22605222463607788, 0.12162073701620102, 0.3329622745513916, 0.03750096634030342, -0.0406237468123436, -0.1458205282688141, 0.22754275798797607, 0.06415881216526031, 0.17556831240653992, 0.09163536876440048, 0.06916584819555283, -0.27970319986343384, 0.1695728600025177, 0.026316208764910698, -0.2620433270931244, 0.023943226784467697, -0.06768055260181427, -0.3350389301776886, 0.20055176317691803, 0.11490843445062637, 0.20172177255153656, -0.25679129362106323, 0.06111326068639755, 0.1818525642156601, 0.10227256268262863, 2.5698678655317053e-05, 0.14963451027870178, 0.10114674270153046, -0.17650599777698517, 0.11816627532243729, 0.07021881639957428, 0.017191143706440926, 0.06665095686912537, -0.11666545271873474, 0.05161560699343681, 0.11240125447511673, -0.023190919309854507, -0.023811638355255127, -0.04007731378078461, -0.007601632736623287, -0.10319433361291885, 0.03229374438524246, 0.1623186469078064, -0.028442375361919403, -0.07284387946128845, 0.0445520356297493, -0.003440528642386198, 0.08935580402612686, -0.1325768232345581, 0.07902193814516068, -0.0919739380478859, -0.0232702549546957, -0.019441066309809685, -0.11201314628124237, 0.025587137788534164, 0.20756570994853973, 0.11654907464981079, -0.041619595140218735, 0.02926490269601345, 0.012974613346159458, -0.1496085226535797, 0.1423051655292511, -0.14647305011749268, -0.17376995086669922, -0.06576193869113922, -0.04186667874455452, 0.06502848118543625, -0.06020865589380264, 0.1225113645195961, -0.06384580582380295, -0.057876184582710266, 0.0012822855496779084, -0.1785353124141693, 0.24393166601657867, 0.08078408986330032, -0.09478630125522614, 0.26011016964912415, -0.09627094119787216, 0.36233988404273987, -0.18749698996543884, 0.0660577118396759, 0.12775257229804993, -0.23557806015014648, -0.14730632305145264, 0.18354034423828125, -0.16556361317634583, -0.13885867595672607, -0.20036426186561584, 0.21786627173423767, 0.024707086384296417, 0.09867160767316818, 0.01291012205183506, -0.04186113923788071, -0.17823463678359985, 0.3369733691215515, 0.06910838931798935, 0.2028316855430603, -0.14630861580371857, -0.13561995327472687, -0.354491263628006, 0.2595118284225464, -0.08679317682981491, 0.29661768674850464, -0.2968420088291168, -0.030731549486517906, -0.05744163319468498, 0.07958534359931946, -0.016322700306773186, 0.3538548946380615, -0.10457390546798706, 0.07727175951004028, 0.24690163135528564, -0.2406114786863327, -0.03556565195322037, 0.2586206793785095, -0.12546181678771973, -0.09089462459087372, -0.11402081698179245, 0.1953708976507187, -0.1356053203344345, -0.08247271925210953, 0.39176884293556213, -0.028411444276571274, -0.34713661670684814, 0.4453578591346741, 0.23355230689048767, 0.292335569858551, -0.2316676527261734, 0.08730517327785492, 0.2586250901222229, -0.29084375500679016, 0.1206047460436821, 0.2573815882205963, -0.3917165696620941, -0.07669825106859207, -0.2594306170940399, 0.24142789840698242, 0.13303440809249878, 0.1652211993932724, -0.197562113404274, -0.15133236348628998, -0.12890900671482086, 0.335063636302948, 0.18664224445819855, 0.1576722264289856, -0.2967783212661743, -0.2575666606426239, -0.28825387358665466, 0.2746737599372864, 0.28331413865089417, 0.15953928232192993, -0.35259348154067993, -0.09060841798782349, 0.17076222598552704, -0.007892916910350323, 0.05539504066109657, 0.09552354365587234, -0.46031907200813293, 0.16256007552146912, 0.17309370636940002, -0.44818514585494995, 0.10781470686197281, 0.2332121580839157, -0.42803868651390076, -0.1189609169960022, -0.19813641905784607, 0.2940203845500946, -0.02536441572010517, 0.02747233584523201, -0.20346064865589142, 0.13124099373817444, -0.10320837795734406, 0.034616995602846146, -0.2576007843017578, -0.08488798886537552, 0.2515610158443451, -0.21976976096630096, 0.07472249865531921, 0.09174157679080963, -0.16454273462295532, 0.008584216237068176, 0.1882500797510147, 0.12685848772525787, -0.17959992587566376, -0.16345730423927307, -0.2030533105134964, -0.05868428573012352, -0.1053856685757637, 0.2633913457393646, -0.08016269654035568, -0.1298811286687851, -0.049879319965839386, 0.08132609724998474, 0.18518728017807007, 0.21551907062530518, -0.08571665734052658, -0.19132640957832336, -0.13852091133594513, 0.15721003711223602, 0.03848373144865036, -0.15940003097057343, 0.14094148576259613, 0.27891966700553894, -0.1667880415916443, -0.06878822296857834, -0.023978298529982567, -0.09284113347530365, 0.036363713443279266, 0.030536014586687088, -0.09723380953073502, 0.101870097219944, 0.2175835520029068, 0.27958038449287415, -0.023863527923822403, -0.17245148122310638, -0.2473226934671402, 0.31912827491760254, 0.0537463054060936, -0.24212628602981567, 0.09336751699447632, 0.15711015462875366, 0.45480042695999146, -0.09642349183559418, -0.14804621040821075, 0.2578233480453491, -0.32908862829208374, 0.10755017399787903, 0.24690480530261993, -0.29565468430519104, 0.046702347695827484, -0.27290743589401245, 0.17850635945796967, 0.05262894928455353, -0.008399851620197296, -0.34526339173316956, -0.017192691564559937, -0.37898221611976624, 0.2758769989013672, 0.1505592316389084, 0.36275824904441833, -0.2098061442375183, 0.088211290538311, -0.29632750153541565, 0.1426783949136734, 0.15191619098186493, 0.3283836543560028, -0.3609808385372162, -0.0719681978225708, -0.10430625081062317, 0.027130385860800743, -0.05491078644990921, 0.18723660707473755, -0.23406100273132324, 0.06545647233724594, 0.35500845313072205, -0.18353025615215302, -0.014978395774960518, 0.36071228981018066, -0.2642861306667328, -0.08673416078090668, -0.42983391880989075, 0.17537473142147064, 0.11045758426189423, -0.059490010142326355, 0.11685125529766083, 0.17845946550369263, -0.08530373126268387, -0.12594519555568695, 0.20237593352794647, 0.020793156698346138, 0.15509414672851562, -0.17636620998382568, 0.06790927797555923, 0.11378438025712967, -0.12132144719362259, 0.2167583853006363, -0.07200071960687637, -0.19110062718391418, -0.16074857115745544, -0.01640252210199833, 0.18399733304977417, -0.018551576882600784, 0.028507031500339508, -0.06573444604873657, -0.13429023325443268, 0.06986885517835617, -0.04997291788458824, 0.07351658493280411, 0.12687323987483978, -0.12447839975357056, 0.02222375199198723, -0.06956510990858078, 0.18878106772899628, -0.049219924956560135, 0.0010093459859490395, -0.10560490190982819, -0.04425292834639549, 0.028009619563817978, 0.09383197873830795, 0.08312433212995529, 0.032170139253139496, 0.038225676864385605, 0.06358354538679123, 0.1612892597913742, -0.15977779030799866, 0.08041390031576157, 0.01973429135978222, -0.006161204073578119, 0.008026188239455223, -0.026949778199195862, -0.03225842863321304, 0.05487409606575966, -0.018375810235738754, -0.062487706542015076, 0.018874602392315865, 0.17786027491092682, 0.08777052164077759, -0.1048801839351654, -0.22417521476745605, 0.14806951582431793, -0.22209465503692627, -0.05483192950487137, 0.06859451532363892, -0.17510773241519928, -0.0284257885068655, -0.07325069606304169, 0.13907963037490845, -0.004951916169375181, -0.05371325835585594, -0.04671837016940117, 0.11215636879205704, -0.06185588985681534, 0.20811264216899872, 0.07104936987161636, -0.11543338745832443, -0.19499953091144562, -0.17369042336940765, 0.2312566041946411, 0.06642124056816101, 0.08486361801624298, -0.018200721591711044, -0.0022870725952088833, 0.05349057912826538, 0.18738022446632385, 0.011220359243452549, -0.00759537098929286, -0.07586439698934555, -0.19977563619613647, -0.057133086025714874, 0.18102505803108215, -0.23050671815872192, -9.557904559187591e-05, -0.02548862062394619, -0.13625583052635193, 0.03552224487066269, 0.02396944724023342, 0.10821627080440521, -0.05774690583348274, 0.03895755112171173, 0.0018456109100952744, -0.11322536319494247, 0.0655076801776886, -0.11086684465408325, -0.22567471861839294, 0.04568193852901459, 0.1289866417646408, 0.07199236750602722, 0.028714964166283607, 0.1361127346754074, 0.20795246958732605, -0.11529136449098587, -0.011074414476752281, 0.05783204734325409, -0.16360504925251007, -0.024696549400687218, -0.015565438196063042, 0.13434067368507385, -0.0020623456221073866, 0.05219573527574539, -0.013891676440834999, 0.09664035588502884, -0.17267321050167084, -0.06077297031879425, -0.009546545334160328, 0.15271413326263428, -0.20583301782608032, 0.13051636517047882, -0.04875714331865311, -0.05358424410223961, -0.032021664083004, 0.21573472023010254, -0.17451435327529907, -0.07133162766695023, 0.18550561368465424, 0.07395676523447037, 0.0929323360323906, 0.18989284336566925, 0.05181513726711273, -0.0811963900923729, 0.25442934036254883, -0.12736067175865173, 0.15040507912635803, -0.03503440320491791, -0.17684246599674225, 0.10209981352090836, -0.049984339624643326, 0.08849853277206421, -0.15400724112987518, -0.045701995491981506, -0.2601528763771057, 0.011395459063351154, -0.07644708454608917, -0.04081041365861893, 0.017843082547187805, -0.01166202500462532, 0.11258825659751892, 0.05619146674871445, 0.00493044126778841, -0.0983663871884346, -0.007504098583012819, 0.08645550906658173, -0.17360785603523254, 0.1132303848862648, 0.3989991843700409, -0.2275015413761139, 0.7931697368621826, -0.7244770526885986, -0.1401674598455429, 0.9023924469947815, 0.948194682598114, -0.5857692360877991, 0.11181072145700455, 0.3092181980609894, -0.12074100226163864, -0.45610058307647705, 0.29327207803726196, -0.6430456638336182, 0.1281176209449768, 0.46328407526016235, -0.046145956963300705, 0.19102460145950317, -0.010800529271364212, 0.2574799060821533, 0.30192551016807556, -0.1505044847726822, 0.15493713319301605, -0.045929089188575745, -0.16488662362098694, 0.40305545926094055, 0.4647158980369568, -0.05580253526568413, 0.07062474638223648, 0.11513042449951172, 0.22457723319530487, 0.0728018507361412, -0.02809899114072323, -0.2873074412345886, -0.3633991777896881, 0.29304108023643494, 0.24785743653774261, -0.239705890417099, -0.5261067748069763, 0.4722316861152649, -0.1225941926240921, 0.008893278427422047, 0.08603121340274811, 0.1765478104352951, -0.4745258390903473, 0.0758589431643486, 0.03877962380647659, 0.26294687390327454, -0.05666820704936981, 0.07665333896875381, -0.039516206830739975, 0.06340951472520828, -0.20741137862205505, 0.044890616089105606, 0.12817609310150146, -0.20107510685920715, 0.041792914271354675, 0.0810263454914093, 0.20026865601539612, -0.2949303388595581, 0.1492602825164795, 0.22900627553462982, -0.04735449329018593, 0.0336604118347168, 0.23497571051120758, -0.11696548759937286, -0.019984200596809387, -0.11533470451831818, 0.08289741724729538, -0.04099614545702934, 0.02834348753094673, 0.20155060291290283, -0.11087113618850708, -0.23312118649482727, -0.09341415762901306, 0.016419224441051483, 0.015578613616526127, 0.1994420439004898, -0.06472986936569214, -0.16842713952064514, -0.20194251835346222, -0.12368796765804291, -0.24199827015399933, 0.1831384301185608, -0.011418155394494534, 0.16236130893230438, 0.18606914579868317, -0.13196562230587006, 0.1805608719587326, 0.086562879383564, -0.05173235759139061, 0.060977187007665634, 0.05255165323615074, 0.17482125759124756, -0.2264014333486557, 0.10889598727226257, -0.21465860307216644, -0.31406790018081665, -0.04152129963040352, 0.09522711485624313, 0.4480428695678711, 0.03213400021195412, -0.398787260055542, 0.42759671807289124, 0.13557560741901398, -0.054149072617292404, -0.30132952332496643, 0.17592217028141022, -0.49186500906944275, -0.07512710988521576, 0.1527877002954483, 0.14592498540878296, -0.05665910243988037, 0.2705767750740051, 0.2995811402797699, 0.25034797191619873, -0.4695200026035309, -0.44680142402648926, 0.5451806783676147, -0.07294158637523651, -0.028162432834506035, -0.8536235690116882, -0.7501778602600098, 0.2618187367916107, 0.5553814768791199, -0.10745721310377121, 0.035189636051654816, -0.2056044042110443, 0.12298933416604996, 0.030844297260046005, 0.1991235464811325, -0.1161927878856659, -0.36005455255508423, 0.16570352017879486, 0.19547614455223083, -0.029792502522468567, -0.05867362022399902, -0.0923302099108696, 0.23119695484638214, -0.18215887248516083, 0.17118896543979645, -0.07474058121442795, -0.2026493102312088, 0.15520672500133514, -0.10029607266187668, -0.0015992893604561687, -0.2829793393611908, -0.23552320897579193, -0.016305137425661087, -0.08146900683641434, -0.27222776412963867, -0.1044660434126854, -0.21686090528964996, -0.07407468557357788, 0.29764875769615173, 0.19560225307941437, 0.03074073977768421, -0.10419416427612305, 0.014283251017332077, 0.08513376116752625, -0.18961194157600403, 0.28904229402542114, 0.309494286775589, -0.246956467628479, -0.5916932225227356, 0.19788923859596252, 0.7162657976150513, -0.5032452344894409, 0.06469382345676422, 0.14908695220947266, 0.23519150912761688, -0.21240948140621185, 0.692300021648407, 0.13116399943828583, -0.2059410959482193, -0.01238475926220417, 0.04616954177618027, 0.2931305766105652, -0.3209497034549713, 0.050884440541267395, -0.21510426700115204, -0.12892475724220276, 0.12253093719482422, -0.22155185043811798, 0.11573246121406555, -0.04114437475800514, -0.0761866346001625, -0.12645062804222107, 0.05503441020846367, 0.11622460931539536, -0.09170500189065933, 0.21867439150810242, 0.14538849890232086, -0.052998144179582596, 0.3884360194206238, -0.10615473985671997, 0.049822770059108734, 0.136558398604393, 0.1746947318315506, -0.07622816413640976, 0.037007540464401245, -0.12302418053150177, -0.15294432640075684, -0.29875311255455017, -0.02574898861348629, 0.06732214242219925, -0.04473455250263214, -0.16910989582538605, -0.004696291871368885, -0.25019294023513794, 0.0039413138292729855, -0.005296947434544563, 0.3981197774410248, -0.36869239807128906, -0.34891176223754883, 0.44802650809288025, 0.2373494803905487, -0.2122994363307953, -0.3212684094905853, 0.3248871862888336, -0.21828946471214294, -0.18267220258712769, 0.012080071493983269, -0.04806619882583618, -0.16371452808380127, -0.29356276988983154, -0.35841596126556396, 0.22797857224941254, -0.17864230275154114, -0.04652613773941994, 0.07069507241249084, 0.08840460330247879, -0.14847826957702637, -0.1110517606139183, 0.15791432559490204, 0.2395002841949463, -0.16218078136444092, 0.1227591335773468, -0.35694292187690735, 0.28562161326408386, -0.1991763710975647, 0.2974136769771576, -0.08616304397583008, -0.20398738980293274, -0.015781279653310776, 0.1606905609369278, 0.2514555752277374, 0.07557213306427002, -0.17379844188690186, 0.1702398955821991, -0.0030879881232976913, -0.20123866200447083, 0.2722199559211731, 0.14754913747310638, -0.2964250445365906, -0.0047236476093530655, 0.29566124081611633, 0.36433443427085876, 0.35824140906333923, -0.22155196964740753, -0.288773775100708, 0.43063271045684814, 0.38566848635673523, -0.13476553559303284, 0.07994711399078369, -0.141967311501503, -0.21798108518123627, -0.4361986517906189, 0.3651003837585449, 0.031990766525268555, 0.09296610206365585, -0.03868946433067322, 0.06782792508602142, -0.30341413617134094, 0.42774808406829834, -0.3171151876449585, -0.23832841217517853, 0.0226887296885252, -0.123501256108284, -0.009173075668513775, -0.00968855805695057, -0.36820632219314575, 0.12985040247440338, 0.0869641900062561, 0.22141852974891663, 0.04508242383599281, 0.17426884174346924, 0.03534446656703949, 0.11310679465532303, 0.05351029708981514, 0.033957578241825104, -0.036098137497901917, 0.044608768075704575, -0.16617456078529358, 0.009536702185869217, 0.23902830481529236, 0.09159106016159058, -0.21285541355609894, -0.0028461015317589045, -0.06326761096715927, -0.09852387011051178, 0.07032549381256104, 0.006132085807621479, 0.13815751671791077, -0.18750138580799103, 0.13935060799121857, -0.2573183476924896, -0.638958752155304, 0.34824585914611816, -0.031001100316643715, -0.37524259090423584, -0.026851564645767212, -0.07994631677865982, 0.3088188171386719, -0.2610694169998169, -0.36781635880470276, -0.3107645809650421, -0.08330017328262329, -0.12558606266975403, 0.19884392619132996, -0.0639251098036766, -0.06156562641263008, -0.323480486869812, 0.1250353306531906, 0.0051170838996768, 0.3595419228076935, -0.11389633268117905, -0.08066514879465103, 0.3291862905025482, -0.10424764454364777, -0.09696892648935318, 0.26136335730552673, 0.06175847351551056, 0.11319511383771896, -0.4155765175819397, 0.03591518476605415, -0.209170401096344, 0.003452589036896825, 0.22017116844654083, -0.14527247846126556, -0.23263879120349884, 0.02044946886599064, 0.12859506905078888, -0.05616128072142601, 0.06516134738922119, -0.12074114382266998, -0.1123773530125618, -0.18603557348251343, 0.30424946546554565, -0.13566583395004272, 0.05707845836877823, -0.4436131715774536, -0.283183217048645, 0.0449635274708271, 0.3913435637950897, 0.20020541548728943, -0.21270637214183807, -0.0014768189284950495, 0.3782731890678406, 0.05762424319982529, 0.04300817847251892, -0.12446409463882446, -0.08926687389612198, 0.39226505160331726, 0.5187838673591614, -0.19556593894958496, 0.35435351729393005, -0.03777321055531502, -0.027698764577507973, -0.3939516544342041, 0.03877735137939453, 0.12873394787311554, -0.13605916500091553, -0.6014732122421265, -0.027390094473958015, 0.1489817351102829, -0.08577749878168106, -0.0888783410191536, 0.2123345136642456, -0.019498290494084358, -0.08221735805273056, -0.18019621074199677, 0.4442265033721924, -0.10081133991479874, 0.024626895785331726, -0.03584360331296921, 0.0771169438958168, -0.03920907899737358, 0.2964591085910797, -0.15396970510482788, 0.01929103210568428, 0.12902483344078064, -0.007933133281767368, 0.16031064093112946, 0.05461519956588745, -0.15841002762317657, 0.02390594780445099, 0.023494161665439606, 0.0425470806658268, -0.039727795869112015, 0.29406774044036865, 0.21313579380512238, 0.5134724378585815, -0.5456674098968506, -0.1615970879793167, -0.10680072754621506, -0.34123608469963074, 0.2809821665287018, -0.08286306262016296, 0.04529581964015961, -0.10523411631584167, -0.11974053829908371, -0.22172929346561432, -0.07139169424772263, -0.16108548641204834, -0.06651823222637177, 0.006581857800483704, 0.21302530169487, -0.16133466362953186, 0.09915593266487122, 0.26416778564453125, 0.3295939862728119, -0.17591069638729095, 0.010633664205670357, 0.15146476030349731, 0.06820507347583771, -0.11035612225532532, 0.05497019737958908, 0.05411244556307793, -0.07776856422424316, -0.15288618206977844, 0.2172669917345047, -0.040479112416505814, -0.04989275708794594, 0.1275065541267395, -0.162562295794487, 0.04401911795139313, 0.2069549858570099, 0.10346544533967972, -0.06465516239404678, -0.1481405347585678, 0.12614811956882477, 0.13011662662029266, -0.09023329615592957, -0.11153977364301682, -0.063724584877491, -0.03815392777323723, -0.0576314814388752, 0.03512995317578316, 0.10767348110675812, 0.14052455127239227, 0.0948837399482727, -0.4056999087333679, -0.11220967024564743, -0.0543244369328022, -0.021237213164567947, 0.04703885689377785, -0.10281399637460709, 0.23738886415958405, 0.17874637246131897, -0.06976983696222305, -0.08880095183849335, 0.03336499631404877, -0.06357620656490326, -0.024317124858498573, 0.2093968242406845, 0.0038805054500699043, 0.08768882602453232, 0.08897022157907486, 0.11752157658338547, -0.001492164097726345, 0.06729555130004883, -0.0965670496225357, -0.0232265405356884, 0.009799511171877384, 0.07814326882362366, 0.09747853875160217, 0.2085210233926773, 0.1033228188753128, -0.0233315397053957, -0.11411941796541214, 0.02405250445008278, -0.07177485525608063, 0.06639369577169418, 0.2714352011680603, -0.012538794428110123, -0.19814829528331757, -0.045308005064725876, -0.05757175385951996, -0.11847996711730957, 0.009357613511383533, 0.19919797778129578, -0.15019269287586212, -0.1179063618183136, -0.12809644639492035, -0.0306425578892231, 0.17643128335475922, -0.1424970179796219, 0.0609789714217186, -0.3973768651485443, 0.23927797377109528, 0.02698705345392227, 0.1947687566280365, -0.013729281723499298, 0.03254050761461258, 0.10525014251470566, -0.008742909878492355, -0.25629162788391113, -0.1908598095178604, -0.014126106165349483, 0.024493414908647537, -0.15458998084068298, 0.03250742331147194, -0.010193855501711369, 0.04503762722015381, 0.020277097821235657, -0.1476784199476242, -0.2265702188014984, 0.2208477258682251, -0.08279719203710556, -0.10442090034484863, 0.0010748327476903796, -0.16225020587444305, -0.2308911383152008, -0.10864098370075226, 0.1440410315990448, -0.02102331444621086, -0.10704061388969421, -0.03423958644270897, -0.01108276192098856, 0.02583140693604946, -0.23466074466705322, 0.016167426481842995, 0.009336071088910103, -0.043479666113853455, 0.11522138118743896, 0.18024885654449463, -0.06516629457473755, 0.1306125521659851, 0.09495358169078827, -0.15866325795650482, 0.1094374805688858, 0.04762336239218712, 0.15919256210327148, -0.2223072350025177, 0.04459656774997711, 0.08548349142074585, -0.39943429827690125, -0.11291347444057465, 0.18775252997875214, -0.3066779375076294, 0.13473588228225708, 0.060265667736530304, 0.21422967314720154, -0.023588277399539948, 0.18597744405269623, -0.4106733798980713, -0.14762260019779205, -0.011549180373549461, 0.18581341207027435, 0.05483970046043396, 0.25278133153915405, -0.11551415175199509, 0.12887610495090485, 0.013242327608168125, 0.3041115701198578, 0.11774902790784836, -0.06209462136030197, 0.0508153922855854, 0.2268461436033249, -0.08242163062095642, 0.16677899658679962, -0.10599242895841599, 0.0674421414732933, -0.0793660581111908, 0.02445954829454422, -0.05067010223865509, 0.025386003777384758, 0.17014601826667786, -0.037774793803691864, 0.14981845021247864, -0.34225231409072876, 0.06781230121850967, 0.2011161744594574, 0.28688839077949524, 0.11402890831232071, 0.04542050510644913, -0.0921388640999794, -0.13995522260665894, 0.17631796002388, -0.07276620715856552, 0.18317915499210358, 0.03124207630753517, 0.15502962470054626, 0.2343282848596573, -0.19464756548404694, 0.22128313779830933, -0.11774364858865738, -0.1782936304807663, 0.1379370093345642, -0.026104392483830452, 0.03804813697934151, -0.21454837918281555, -0.06999438256025314, -0.17010751366615295, 0.08992090076208115, 0.06523901224136353, 0.056633446365594864, 0.024197831749916077, -0.008052537217736244, -0.045777592808008194, 0.12902826070785522, 0.30463138222694397, 0.45039886236190796, 0.01377731654793024, 0.035044342279434204, 0.2874280512332916, -0.1346995085477829, -0.08421951532363892, 0.13163763284683228, 0.09546291083097458, -0.12698432803153992, -0.28635653853416443, 0.09465018659830093, 0.06296654790639877, 0.018375705927610397, 0.26461485028266907, -0.3200593888759613, -0.2874930799007416, -0.35190561413764954, 0.14119721949100494, 0.3092612326145172, 0.5486148595809937, -0.5187475681304932, -0.5999619960784912, -0.5814893245697021, -0.20407411456108093, -0.3914816379547119, -0.35130244493484497, 0.09955104440450668, -0.04250924289226532, -0.08021540939807892, -0.23088529706001282, -0.29761627316474915, -0.346756249666214, 0.10806705057621002, 0.08769288659095764, 0.005665834993124008, 0.06971074640750885, -0.013608579523861408, 0.2812369167804718, -0.17287729680538177, -0.16842208802700043, -0.273965448141098, 0.21237923204898834, -0.010336453095078468, 0.2221091389656067, 0.03032194823026657, 0.030838031321763992, 0.07119741290807724, 0.1261286735534668, 0.09257086366415024, 0.09329721331596375, -0.11248370260000229, 0.038501303642988205, -0.021329613402485847, 0.1917598992586136, 0.21399539709091187, 0.42621907591819763, -0.18785296380519867, -0.1614038497209549, -0.12462600320577621, 0.03733089193701744, 0.05190916731953621, -0.2633741497993469, 0.11328069120645523, 0.057539910078048706, 0.10742201656103134, -0.013022472150623798, -0.03218387812376022, -0.07988157868385315, 0.43219828605651855, 0.4305764138698578, 0.37411588430404663, 0.2126895785331726, 0.3003722131252289, 0.1987236589193344, -0.031512074172496796, -0.019820021465420723, 0.06386081129312515, 0.1259811371564865, 0.1762417107820511, 0.33980271220207214, -0.13272607326507568, -0.27884384989738464, 0.021174496039748192, -0.0995090901851654, -0.15295803546905518, -0.02508750930428505, 0.13953815400600433, 0.2612496316432953, -0.017157098278403282, -0.05935525894165039, 0.009732278995215893, -0.20774421095848083, 0.009028647094964981, -0.1614414006471634, 0.09670989960432053, -0.08411996811628342, 0.13033030927181244, 0.02864830754697323, -0.050183698534965515, -0.043110236525535583, -0.17267394065856934, -0.10782387852668762, -0.11938721686601639, -0.17933709919452667, 0.08272507786750793, -0.022763509303331375, -0.03036414086818695, 0.21358074247837067, 0.19190861284732819, 0.015843691304326057, -0.20138514041900635, -0.030644575133919716, 0.02095412090420723, -0.04303636774420738, 0.14819200336933136, 0.008487537503242493, 0.0425262451171875, 0.19182252883911133, -0.05899960175156593, 0.10006869584321976, 0.11520934104919434, -0.05049515515565872, -0.048446159809827805, -0.2756301164627075, 0.06536117196083069, 0.09984640032052994, -0.009294314309954643, 0.058640655130147934, -0.11282484233379364, -0.11723120510578156, 0.32459115982055664, -0.0466880239546299, 0.2172582894563675, -0.09334547817707062, -0.13656677305698395, 0.010286704637110233, 0.09002464264631271, -0.12837450206279755, 0.21736222505569458, 0.02898140624165535, 0.17776739597320557, -0.14925481379032135, 0.18286044895648956, 0.020747456699609756, -0.04179191589355469, -0.2194533497095108, -0.07188306748867035, 0.19719038903713226, 0.03377562761306763, 0.018122533336281776, 0.06982764601707458, 0.11935596913099289, -0.0425693616271019, -0.10615936666727066, -0.0011338635813444853, -0.2164684534072876, 0.15561427175998688, -0.05117221176624298, 0.07657172530889511, 0.41124966740608215, -0.0815652534365654, -0.18857470154762268, -0.27065879106521606, -0.024220779538154602, -0.11707645654678345, -0.0623423308134079, 0.07152968645095825, 0.03033764474093914, -0.01905561052262783, -0.13106679916381836, 0.04193293675780296, 0.23325175046920776, -0.14448672533035278, -0.036747124046087265, -0.29507601261138916, 0.41000494360923767, -0.037331849336624146, 0.24184784293174744, 0.03562600910663605, -0.06143063306808472, 0.022816473618149757, 0.11176719516515732, 0.06813284754753113, -0.21525566279888153, 0.11597982048988342, 0.08017636090517044, -0.17049852013587952, -0.03918774798512459, 0.022458869963884354, 0.02124773897230625, -0.07972288876771927, -0.03023434989154339, -0.1833193600177765, 0.02625538781285286, -0.03701940178871155, -0.20237816870212555, -0.08401031047105789, -0.06534886360168457, -0.16757678985595703, -0.07855486124753952, -0.02465471439063549, -0.1366516649723053, 0.05525586009025574, -0.013238823972642422, 0.17722199857234955, -0.06269431859254837, -0.21168164908885956, -0.26895371079444885, -0.40304994583129883, 0.3693448007106781, 0.4786185324192047, 0.1634020358324051, 0.027941983193159103, 0.02834196761250496, -0.13655692338943481, 0.11152532696723938, 0.07169212400913239, -0.2505738139152527, -0.16462762653827667, -0.14008167386054993, 0.10546258836984634, -0.05536878854036331, 0.04321049153804779, -0.03330608457326889, 0.1635453850030899, 0.12979018688201904, 0.3901434540748596, 0.22835376858711243, -0.1681676208972931, -0.2754383683204651, -0.17347422242164612, 0.1352350115776062, -0.03182952105998993, 0.14881926774978638, 0.26603811979293823, -0.23336046934127808, 0.0036753062158823013, 0.08282512426376343, 0.4156372845172882, 0.04549818113446236, -0.09789418429136276, -0.08408470451831818, 0.32514849305152893, 0.06938411295413971, -0.20819278061389923, 0.6446897387504578, 0.6036118268966675, -0.10412462055683136, -0.0669722706079483, 0.07972444593906403, 0.29125016927719116, -0.1963503062725067, 0.23896129429340363, -0.16578084230422974, 0.07209695875644684, -0.18283292651176453, 0.03268014267086983, 0.2914356291294098, 0.19240409135818481, -0.056688304990530014, -0.058989472687244415, -0.0566968135535717, -0.09148655086755753, 0.2883860468864441, -0.05266958847641945, -0.11330416798591614, -0.1845926195383072, -0.17751701176166534, 0.31384792923927307, 0.038228388875722885, -0.046001799404621124, -0.379554808139801, -0.10638992488384247, 0.002616836689412594, -0.02326669916510582, 0.0010169222950935364, -0.05338188633322716, 0.0916617214679718, 0.1610221564769745, 0.21968993544578552, -0.240154430270195, 0.3024367094039917, 0.18056721985340118, 0.021841639652848244, 0.005276995245367289, -0.020215220749378204, -0.019845539703965187, -0.010956717655062675, -0.21381431818008423, 0.19434787333011627, 0.09105056524276733, -0.10319720953702927, -0.08151446282863617, 0.3212061822414398, 0.04295731708407402, -0.11129997670650482, 0.07858089357614517, 0.3146623373031616, -0.026186665520071983, 0.06502927094697952, -0.09745201468467712, 0.05389823764562607, -0.07025102525949478, 0.37645503878593445, 0.0016364572802558541, 0.08127810806035995, -0.04673360660672188, 0.10879360139369965, -0.03016841784119606, 0.12140784412622452, 0.002487384481355548, -0.0967351645231247, 0.11839703470468521, 0.14726883172988892, -0.06314399838447571, 0.1258884072303772, -0.15416845679283142, 0.040053583681583405, -0.06410828232765198, 0.1808386743068695, 0.18765337765216827, -0.3108876049518585, 0.21097974479198456, -0.051254648715257645, 0.07214917987585068, 0.06939470767974854, 0.05812862887978554, -0.4435635507106781, 0.30740272998809814, -0.11841433495283127, 0.1289464235305786, -0.11836627870798111, 0.13737937808036804, -0.1336866319179535, 0.021311528980731964, -0.1619606614112854, 0.391578733921051, -0.30500486493110657, 0.07730010896921158, 0.2939223051071167, -0.06665122509002686, -0.04997315630316734, -0.036563415080308914, -0.032337360084056854, 0.07074303179979324, -0.41549062728881836, 0.21568140387535095, 0.015061638318002224, 0.2892014980316162, 0.14153461158275604, -0.2060936540365219, 0.053338438272476196, -0.3377651274204254, 0.33457043766975403, 0.717843234539032, 0.4115375280380249, -0.18933025002479553, -0.12779664993286133, -0.13507388532161713, -0.08719229698181152, 0.15321499109268188, -0.14383791387081146, 0.10216374695301056, -0.1720716953277588, 0.12912192940711975, -0.23124735057353973, -0.46634945273399353, 0.16614118218421936, -0.011328200809657574, -0.26441437005996704, -0.050001539289951324, 0.19976657629013062, 0.2719708979129791, -0.0786573514342308, -0.41281890869140625, -0.5203689336776733, -0.022019419819116592, 0.14787378907203674, 0.4436834454536438, 0.09117437899112701, 0.11612679064273834, -0.07177507132291794, 0.16571076214313507, 0.2530704140663147, 0.5037933588027954, 0.16557243466377258, 0.1588020771741867, 0.3880084753036499, 0.06380204111337662, 0.13424812257289886, 0.41328155994415283, 0.10718844085931778, -0.014916621148586273, -0.4305371940135956, -0.01234657596796751, -0.07187524437904358, 0.184661865234375, -0.09413760900497437, 0.03852921724319458, 0.08021844923496246, 0.13872581720352173, 0.05339398980140686, 0.12537388503551483, -0.012403340078890324, 0.23919962346553802, 0.30991414189338684, 0.12145911157131195, 0.03272290900349617, 0.1713562309741974, 0.08543681353330612, -0.09346496313810349, -0.17568190395832062, 0.13269807398319244, 0.08465100824832916, 0.01125627662986517, -0.06263195723295212, 0.10338310897350311, -0.28454652428627014, -0.1343853771686554, -0.115196093916893, 0.008824962191283703, -0.11631942540407181, 0.07863232493400574, 0.18117655813694, 0.14079570770263672, -0.012584999203681946, 0.17363224923610687, -0.22523878514766693, -0.05331312119960785, -0.09377274662256241, 0.09376247227191925, -0.2153151035308838, -0.0404181145131588, 0.021681295707821846, 0.07716454565525055, 0.2548462748527527, -0.06277187913656235, 0.08536918461322784, -0.0019557226914912462, -0.07583979517221451, 0.10057587921619415, 0.07873696088790894, 0.1492956578731537, 0.33008480072021484, 0.06059261038899422, 0.06206299364566803, 0.10989665240049362, -0.07978798449039459, 0.2110445499420166, 0.2557331919670105, 0.7248690128326416, -0.4890971779823303, -0.063841313123703, -0.09491126239299774, 0.16546744108200073, 0.12601977586746216, 0.050581976771354675, 0.40245962142944336, -0.2513616979122162, -0.27385854721069336, 0.3229776620864868, 0.4353996813297272, -0.5321689248085022, 0.04971941560506821, -0.8402311205863953, -0.26711851358413696, -0.3027730882167816, 0.7573071718215942, -0.7739661931991577, -0.5689104199409485, -0.633242130279541, 0.16833333671092987, -0.6394519209861755, 0.25719812512397766, -0.7784358859062195, -0.21693560481071472, -0.049697067588567734, 0.10880368947982788, 0.23456452786922455, 0.23637519776821136, -0.08457370847463608, -0.28037312626838684, 0.09428223967552185, -0.0653393566608429, 0.051680777221918106, -0.049644503742456436, 0.1260923445224762, -0.06554558873176575, 0.05542217195034027, -0.1638278067111969, -0.007112435065209866, 0.009236638434231281, -0.25853031873703003, -0.054228831082582474, 0.0026411600410938263, -0.16062839329242706, 0.2655773162841797, 0.1290886551141739, -0.47308143973350525, 0.1960483342409134, -0.24962131679058075, 0.15942388772964478, 0.5237237811088562, 0.1604929268360138, -0.012663176283240318, 0.23995216190814972, 0.05279790237545967, 0.050386667251586914, -0.309525728225708, -0.07809209823608398, 0.04234691336750984, 0.02987259067595005, 0.23374143242835999, 0.018205812200903893, 0.18260104954242706, -0.17301052808761597, -0.04884150251746178, -0.09853360801935196, -0.28067395091056824, -0.032904915511608124, 0.14600588381290436, 0.31402796506881714, -0.03165065124630928, -0.06805362552404404, 0.30827006697654724, 0.04502192139625549, -0.13041220605373383, -0.0651567205786705, -0.028129717335104942, -0.16478703916072845, -0.10237257182598114, -0.10202904790639877, -0.12420602142810822, 0.07986559718847275, 0.38300082087516785, 0.4347839057445526, -0.1904325634241104, -0.07893486320972443, 0.02145574428141117, 0.46139562129974365, -0.1826329082250595, -0.1326429694890976, -0.1541302502155304, 0.1500159502029419, 0.07984235137701035, 0.044941164553165436, 0.036681536585092545, 0.20951862633228302, 0.04332646727561951, -0.20500214397907257, 0.39724260568618774, -0.24674810469150543, -0.17382612824440002, 0.1158190593123436, -0.06560210883617401, -0.20048962533473969, -0.019598977640271187, -0.25660333037376404, 0.013880524784326553, 0.1904759258031845, -0.16670960187911987, -0.08508667349815369, 0.3206079304218292, -0.24069738388061523, 0.2552807331085205, 0.06856834143400192, -0.12255406379699707, -0.2987741231918335, -0.17993515729904175, -0.05957416817545891, 0.017989184707403183, 0.2559637427330017, -0.18035395443439484, 0.1925179362297058, 0.18666133284568787, -0.401745080947876, 0.3234453797340393, -0.03287855535745621, -0.5632096529006958, 0.5569682121276855, 0.18710331618785858, -0.6443070769309998, 0.4226006269454956, 0.7818031311035156, -0.09565956890583038, 0.11229991167783737, 0.7145766615867615, 0.25149300694465637, -0.11510903388261795, -0.030654946342110634, 0.11450265347957611, -0.0698559582233429, -0.15212294459342957, 0.028202569112181664, 0.04800025001168251, 0.02181471325457096, 0.3799028992652893, -0.33074721693992615, -0.18491914868354797, 0.09401748329401016, -0.02902015671133995, 0.21979449689388275, 0.28281348943710327, 0.3457840085029602, -0.408122718334198, 0.03758639469742775, 0.045968662947416306, -0.5300687551498413, 0.30523455142974854, 0.3849644064903259, -0.5679710507392883, 0.32560184597969055, 0.3390902578830719, -0.1272001713514328, 0.10990101844072342, -0.010007095523178577, 0.44561371207237244, 0.34818997979164124, 0.4808225631713867, -0.047128740698099136, 0.11831993609666824, -0.056555770337581635, 0.19741876423358917, -0.0048742531798779964, -0.058031149208545685, 0.2935146987438202, -0.22441597282886505, 0.12154211103916168, -0.09453000128269196, 0.056357260793447495, 0.37923744320869446, 0.5662244558334351, 0.08830821514129639, 0.2517467141151428, 0.04493540897965431, -0.08382989466190338, -0.12402117997407913, -0.2610928416252136, 0.07676196843385696, -0.1497223675251007, -0.02069908380508423, 0.09263551980257034, -0.2099469006061554, 0.2117786407470703, 0.20989669859409332, -0.35727158188819885, 0.2621953785419464, 0.10130055248737335, -0.016322514042258263, 0.1505233347415924, 0.05079810693860054, -0.0813087522983551, 0.38177818059921265, 0.2009733021259308, 0.10886815190315247, -0.16299046576023102, -0.34033575654029846, -0.12841863930225372, 0.29905542731285095, -0.15367092192173004, 0.1347658634185791, 0.05262448266148567, -0.194026917219162, 0.0645512118935585, -0.05380377918481827, -0.16428793966770172, -0.07322244346141815, -0.41462093591690063, 0.18044228851795197, -0.48331478238105774, 0.0694354996085167, 0.13296616077423096, -0.21657100319862366, -0.305462121963501, 0.4350227117538452, -0.44551438093185425, -0.2849752604961395, 0.03606516867876053, -0.12026563286781311, -0.14011941850185394, -0.26019495725631714, -0.29110100865364075, -0.23909877240657806, 0.1914345771074295, -0.0022876232396811247, -0.10223481059074402, 0.08191550523042679, -0.4650039076805115, 0.08951760083436966, 0.15136845409870148, -0.31778547167778015, 0.33046475052833557, 0.2769371271133423, -0.1433374583721161, 0.17900952696800232, 0.2169971764087677, 0.2609148919582367, 0.20016762614250183, 0.1882420927286148, 0.10549319535493851, 0.08248017728328705, -0.10860531777143478, 0.09646739065647125, -0.29854172468185425, 0.030266867950558662, 0.2394757866859436, -0.2651076018810272, 0.05242886021733284, 0.09545224905014038, -0.22929541766643524, 0.07862535119056702, 0.20470035076141357, 0.09076442569494247, 0.3958244025707245, 0.23117978870868683, 0.25368303060531616, -0.17590995132923126, -0.13020998239517212, -0.1370515525341034, -0.09577148407697678, 0.06385806947946548, -0.20433823764324188, 0.2128767967224121, 0.14723700284957886, -0.18619823455810547, 0.2635273039340973, -0.08803866803646088, -0.2865299880504608, 0.32588860392570496, -0.26755014061927795, -0.2853006422519684, -0.04114291071891785, -0.26888802647590637, 0.32082512974739075, -0.2517642378807068, -0.21232974529266357, 0.2130851000547409, -0.10195822268724442, 0.18859989941120148, -0.1407507359981537, -0.19756004214286804, -0.04122443124651909, -0.012612881138920784, 0.15108831226825714, -0.4671662151813507, -0.2396807223558426, 0.13720913231372833, -0.8593995571136475, -0.1999383270740509, -0.008908401243388653, -0.08604411780834198, -0.2966125011444092, -0.2562001645565033, 1.221134901046753, 0.24723660945892334, 0.09080485999584198, -0.055910903960466385, -0.07838008552789688, -0.3765416741371155, 0.03448094055056572, -0.022775502875447273, -0.23144479095935822, -0.17287681996822357, 0.01554006990045309, 0.07601185142993927, 0.1921723634004593, 0.10671623796224594, -0.09747117012739182, 0.7358900308609009, 0.4258694052696228, 0.2019106149673462, 0.168436661362648, 0.04439003765583038, -0.06393133103847504, 0.22368037700653076, -0.00011666813225019723, -0.16116882860660553, 0.3296419680118561, 0.2200307697057724, -0.08364955335855484, -0.08346971124410629, 0.06161145120859146, 0.17799560725688934, 0.013086702674627304, 0.2598804831504822, 0.21800529956817627, 0.09062561392784119, -0.1008109599351883, -0.2473578304052353, 0.6568126082420349, 0.05867638811469078, -0.22500722110271454, -0.46933555603027344, -0.13522246479988098, -0.07528242468833923, -0.3870922923088074, -0.33278852701187134, 0.07826071977615356, 0.0847395732998848, -0.017169784754514694, -0.17089080810546875, 0.3711080551147461, 0.24633818864822388, 0.15521745383739471, -0.01056218333542347, -0.1592319905757904, -0.2310614436864853, 0.2418767213821411, 0.015693390741944313, -0.09963900595903397, -0.2664896249771118, 0.03737381473183632, 0.04294871538877487, 0.3752363622188568, -0.03380446881055832, -0.002064730040729046, 0.08776542544364929, 0.02872997522354126, 0.06361161172389984, 0.12182322144508362, -0.050740309059619904, -0.23640605807304382, 0.5008069276809692, 0.261649489402771, -0.1509336680173874, 0.25281253457069397, 0.09250108152627945, -0.08075188845396042, -0.2889540195465088, -0.13498374819755554, -0.03729649633169174, -0.1282099187374115, 0.05188894644379616, 0.07522028684616089, 0.05240527540445328, -0.11046122014522552, -0.25612199306488037, 0.19557851552963257, 0.1552240401506424, -0.05541837960481644, -0.15000087022781372, 0.08861888200044632, 0.15104486048221588, 0.06630135327577591, -0.12448175996541977, -0.2160559892654419, -0.041788529604673386, -0.17853693664073944, -0.14146007597446442, 0.2745351791381836, 0.19373872876167297, 0.23160402476787567, -0.48922300338745117, -0.23835468292236328, 0.00834581721574068, -0.07214553654193878, -0.16901560127735138, -0.026699231937527657, 0.12868207693099976, 0.0395132377743721, 0.04377206414937973, -0.1096077710390091, -0.05626220256090164, -0.05986176058650017, 0.03995533660054207, 0.18587148189544678, 0.24062931537628174, 0.06597166508436203, 0.010946362279355526, -0.028811506927013397, -0.22055239975452423, -0.13773709535598755, -0.09454187750816345, -0.08340848982334137, 0.07646551728248596, -0.06915708631277084, -0.06342306733131409, 0.09866958111524582, 0.17643775045871735, 0.19719932973384857, 0.20329588651657104, 0.19943368434906006, -0.06727440655231476, -0.01280179899185896, 0.03571759909391403, 0.04532351344823837, -0.15490975975990295, -0.008486045524477959, -0.00788565631955862, -0.1542038917541504, -0.14358505606651306, -0.11448150873184204, -0.20498014986515045, 0.21666990220546722, 0.08938583731651306, 0.156370609998703, 0.0008500571711920202, 0.059164077043533325, 0.1386437863111496, -0.15883205831050873, 0.2125958949327469, 0.20466381311416626, -0.08995828777551651, 0.12044656276702881, 0.018069202080368996, 0.0030786129646003246, -0.13267020881175995, -0.18709774315357208, 0.16709263622760773, 0.10621930658817291, 0.10468155890703201, -0.1451398730278015, -0.1281513273715973, -0.04480205103754997, -0.02780255116522312, 0.047204699367284775, 0.07659313082695007, 0.0374155268073082, 0.08452042937278748, 0.08804313093423843, -0.21575309336185455, 0.060188066214323044, 0.16928300261497498, 0.023828597739338875, -0.03652099892497063, -0.08556772023439407, -0.14981168508529663, -0.031100649386644363, -0.08647307008504868, 0.04694050922989845, 0.18622764945030212, 0.07853642851114273, 0.12999936938285828, 0.04252075031399727, 0.036445725709199905, 0.07947555184364319, -0.1268465220928192, -0.040904439985752106, 0.16197918355464935, 0.18148867785930634, -0.07520785182714462, -0.16869153082370758, -0.17514735460281372, -0.006786661688238382, 0.27613160014152527, -0.021754443645477295, 0.1471744328737259, 0.13799893856048584, -0.05440404638648033, -0.09077095985412598, -0.14766556024551392, -0.24637365341186523, 0.03034568578004837, 0.17173339426517487, 0.11108811944723129, 0.1636345386505127, -0.17868173122406006, -0.2510293424129486, -0.21498137712478638, 0.26103100180625916, -0.12762320041656494, -0.26315709948539734, 0.024462299421429634, -0.09294940531253815, -0.12570105493068695, 0.30894121527671814, -0.2799944281578064, -0.20853765308856964, 0.02231832593679428, -0.22793932259082794, -0.16367733478546143, 0.2679092288017273, 0.04543735086917877, -0.08742605149745941, -0.42156901955604553, 0.13187161087989807, 0.18987777829170227, -0.12968648970127106, -0.2153477966785431, -0.17231011390686035, 0.3648110032081604, -0.20673628151416779, -0.2308397889137268, 0.32093653082847595, 0.1408965289592743, 0.03005002997815609, -0.28938981890678406, 0.12035311013460159, -0.046541087329387665, 0.09880243241786957, 0.37028399109840393, 0.15779276192188263, -0.20808051526546478, -0.0897783488035202, -0.18521621823310852, -0.3694666922092438, 0.20164066553115845, 0.06681571900844574, 0.13261014223098755, 0.14751000702381134, 0.0021444358862936497, -0.23020851612091064, -0.1878589391708374, -0.09472133964300156, 0.29264551401138306, 0.017724238336086273, 0.32825109362602234, -0.03865136578679085, -0.26313236355781555, -0.1324138343334198, 0.0444939099252224, 0.11831103265285492, -0.006419804412871599, -0.31318265199661255, 0.17363937199115753, 0.13686642050743103, -0.04612664878368378, 0.15819920599460602, 0.1619757115840912, -0.224833682179451, -0.1840369999408722, -0.05340663343667984, 0.36927148699760437, -0.012086423113942146, -0.1877429485321045, -0.09236414730548859, 0.0631515234708786, 0.1253444254398346, -0.18964749574661255, 0.08013706654310226, -0.02541278675198555, -0.31059253215789795, 0.10938432812690735, -0.18030200898647308, 0.19185465574264526, 0.2048991620540619, -0.057339634746313095, -0.040701307356357574, -0.09523822367191315, 0.18335115909576416, 0.24902872741222382, -0.02051522396504879, -0.0986284390091896, -0.11723615974187851, -0.1136130541563034, 0.13313916325569153, 0.1782415807247162, -0.012302553281188011, 0.13554716110229492, 0.11335378140211105, 0.28067582845687866, -0.18320077657699585, -0.21496714651584625, -0.43661579489707947, 0.18473520874977112, 0.0627225786447525, -0.044415004551410675, 0.08951516449451447, -0.12256181985139847, -0.34181320667266846, 0.15555337071418762, 0.21095089614391327, -0.7457708120346069, 0.4288277328014374, 0.7284382581710815, -0.3637658655643463, 0.15632988512516022, -0.019449137151241302, -0.07581043243408203, -0.2344517558813095, -0.09745430946350098, 0.19925075769424438, -0.5577360391616821, -0.12963387370109558, -0.29312822222709656, 0.0833468958735466, 0.15708141028881073, -0.5598755478858948, 0.18412497639656067, 0.23436817526817322, 0.5933805108070374, -0.04950645565986633, -0.25378912687301636, 0.19819284975528717, -0.0540466234087944, -0.30599406361579895, 0.17235103249549866, 0.21566534042358398, 0.07376399636268616, -0.24757885932922363, 0.2424813061952591, -0.02466246858239174, 0.14419454336166382, -0.09813576936721802, 0.02233841083943844, -0.22541272640228271, 0.0016773720271885395, -0.07094596326351166, 0.05372557416558266, -0.01581387035548687, -0.1222175881266594, -0.15860888361930847, 0.10146540403366089, 0.10533443838357925, -0.17162804305553436, 0.1751035898923874, 0.11808761209249496, -0.14129163324832916, 0.14424902200698853, -0.04254389554262161, -0.11305683851242065, 0.003364396747201681, -0.020080775022506714, 0.10206979513168335, 0.009796831756830215, 0.04123818501830101, 0.09601598978042603, -0.154245063662529, -0.09375796467065811, 0.17993082106113434, 0.08106761425733566, -0.041688550263643265, -0.20409715175628662, 0.01680656708776951, 0.0853266566991806, -0.09616543352603912, -0.025049183517694473, 0.05863843858242035, -0.07875169068574905, -0.062302689999341965, -0.02306506782770157, -0.06237613037228584, 0.12030298262834549, -0.07569025456905365, 0.0990619882941246, -0.1800173819065094, 0.18711143732070923, -0.19546332955360413, -0.22148151695728302, -0.03572312369942665, 0.08179830014705658, 0.33013609051704407, 0.08541475981473923, -0.11328044533729553, -0.10765613615512848, 0.14921435713768005, -0.07574935257434845, 0.10828951001167297, -0.21101543307304382, 0.28527289628982544, -0.24163736402988434, 0.1593693643808365, 0.2566906809806824, -0.35552680492401123, 0.013936653733253479, 0.05368714779615402, -0.2794402241706848, 0.1748405247926712, 0.8392517566680908, 0.0325806699693203, 0.14672614634037018, -0.003527933731675148, -0.20907042920589447, -0.06288156658411026, 0.16202911734580994, 0.3060903251171112, -0.21911753714084625, -0.5659165978431702, 0.39954233169555664, -0.29220396280288696, -0.009480927139520645, -0.16883307695388794, 0.2250022143125534, 0.16115431487560272, -0.15487028658390045, 0.0057838428765535355, 0.1807548552751541, 0.2107647955417633, -0.020599953830242157, 0.004135615192353725, 0.00024000788107514381, 0.12339692562818527, 0.25397515296936035, 0.4480246901512146, 0.23562324047088623, -0.06851813942193985, -0.18882350623607635, -0.09284716099500656, 0.2078915685415268, 0.37091779708862305, 0.051324158906936646, -0.05566658079624176, 0.32390910387039185, 0.15281590819358826, -0.15371878445148468, -0.06246323883533478, 0.009986166842281818, -0.1366121470928192, 0.03466116264462471, -0.23769046366214752, -0.23537668585777283, -0.3140900135040283, -0.4378039538860321, -0.042142052203416824, -0.10569755733013153, 0.05975602567195892, 0.2438347190618515, 0.09530486911535263, 0.18705600500106812, 0.041493337601423264, 0.06060325726866722, -0.14677487313747406, -0.12338702380657196, 0.14256222546100616, -0.16207925975322723, 0.008512155152857304, -0.09225498884916306, -0.13326199352741241, 0.06256012618541718, 0.03680374100804329, -0.03784111514687538, -0.007858139462769032, 0.19876931607723236, -0.23656398057937622, 0.182484969496727, -0.19910618662834167, 0.23348002135753632, -0.15050549805164337, -0.08012472838163376, 0.28432926535606384, 0.14911974966526031, 0.16252565383911133, -0.13505591452121735, 0.12857027351856232, 0.1178601011633873, -0.1187056303024292, 0.19671882688999176, 0.04392436146736145, 0.1432044357061386, 0.23766115307807922, -0.08732660859823227, -0.14559757709503174, -0.15738320350646973, -0.14315994083881378, 0.15990450978279114, 0.1258489489555359, 0.25524577498435974, -0.3480052053928375, -0.07425298541784286, 0.18418563902378082, -0.10988186299800873, 0.1294384002685547, 0.21556955575942993, -0.2001664638519287, -0.04554305225610733, 0.14758090674877167, -0.10055294632911682, 0.21552284061908722, 0.08990422636270523, -0.1794077455997467, -0.0869767963886261, -0.1852342039346695, 0.30133846402168274, 0.12176206707954407, -0.23853716254234314, 0.21912260353565216, 0.2993389368057251, -0.066727414727211, -0.3336648941040039, 0.1051628366112709, 0.2634415626525879, -0.3629474639892578, -0.1701468974351883, -0.19275765120983124, 0.23818810284137726, 0.19224059581756592, 0.23969081044197083, 0.16930243372917175, -0.27630409598350525, -0.14270491898059845, 0.09255628287792206, 0.008688201196491718, -0.08104529976844788, 0.0913364514708519, -0.21796703338623047, -0.016042491421103477, 0.089947409927845, -0.1241346150636673, -0.1662016212940216, -0.0760190561413765, -0.07227734476327896, -0.10164278745651245, -0.08557555824518204, -0.005964390002191067, 0.03850730508565903, 0.18382872641086578, 0.10089023411273956, -0.12239861488342285, -0.1157013326883316, -0.13415831327438354, 0.07750259339809418, -0.08552258461713791, -0.19896487891674042, -0.13373993337154388, 0.016406888142228127, -0.14188061654567719, -0.13511940836906433, -0.09123606234788895, 0.20806686580181122, -0.048931412398815155, 0.04051106795668602, -0.12283062189817429, -0.014937016181647778, -0.1318923383951187, -0.12700842320919037, -0.06507480144500732, 0.19086311757564545, -0.13335756957530975, -0.24934415519237518, 0.13832230865955353, 0.3577961325645447, 0.006633692421019077, -0.17686086893081665, -0.09497013688087463, -0.07582850009202957, 0.4235345423221588, 0.12232570350170135, 0.046310797333717346, -0.17750220000743866, 0.00247945636510849, -0.20050348341464996, -0.13175255060195923, 8.902707486413419e-05, 0.16632400453090668, 0.16855937242507935, -0.001799463527277112, 0.09209893643856049, -0.050285760313272476, -0.02670527622103691, -0.11355578154325485, 0.08980891108512878, -0.15820129215717316, 0.3157927989959717, -0.06728177517652512, -0.03872009739279747, -0.1659548282623291, -0.15471859276294708, 0.1741827428340912, -0.06712602823972702, -0.020429199561476707, -0.04336819797754288, 0.32340532541275024, 0.11676283180713654, 0.09024059772491455, 0.1887957602739334, 0.009692296385765076, -0.03617333993315697, -0.05633608624339104, 0.19998973608016968, -0.03572634980082512, 0.04188435897231102, 0.18237270414829254, 0.22849951684474945, 0.17454691231250763, 0.04298979416489601, 0.09972181916236877, 0.14571502804756165, -0.23023301362991333, 0.04113377630710602, -0.14754366874694824, -0.036556217819452286, -0.19655384123325348, -0.043058205395936966, 0.08480013906955719, 0.12335743010044098, -0.023468265309929848, -0.17349931597709656, 0.21720384061336517, 0.045401666313409805, -0.16528375446796417, -0.1351807564496994, -0.14247632026672363, 0.05322599411010742, 0.00474527757614851, 0.15807420015335083, 0.10203924775123596, -0.1351611465215683, -0.06630004197359085, 0.04410642012953758, 0.04349713772535324, -0.04270424321293831, -0.17489178478717804, 0.06082182750105858, 0.05194602161645889, -0.14339347183704376, 0.09098097681999207, 0.07230886071920395, -0.08395521342754364, 0.20291706919670105, -0.14726805686950684, -0.09826712310314178, 0.07169414311647415, -0.002338487422093749, -0.2276799976825714, -0.14358381927013397, 0.0024933398235589266, 0.10438508540391922, -0.15420188009738922, -0.06835976243019104, 0.1026584580540657, 0.16014714539051056, 0.12883737683296204, -0.18076318502426147, 0.10220086574554443, 0.023167159408330917, -0.10374803841114044, -0.1549113541841507, -0.040037546306848526, 0.16029508411884308, 0.1591542512178421, -0.15301862359046936, -0.1337902694940567, -0.1150939092040062, 0.15916524827480316, -0.06193653121590614, 0.05642269179224968, 0.2514577805995941, 0.28413012623786926, -0.07414107024669647, -0.1669500172138214, -0.150360569357872, -0.1838977187871933, 0.1249828040599823, -0.022866642102599144, 0.23734553158283234, -0.20789004862308502, -0.178598091006279, -0.2538248598575592, 0.21268074214458466, -0.20062290132045746, -0.12824580073356628, 0.10071220248937607, 0.07412192225456238, -0.09390324354171753, 0.017554806545376778, 0.015846120193600655, -0.24738207459449768, 0.16952671110630035, 0.16365104913711548, -0.0458589568734169, 0.3521651327610016, 0.09355669468641281, 0.09688545018434525, -0.15226444602012634, -0.24312254786491394, 0.40922605991363525, -0.4035797417163849, -0.20464345812797546, -0.15127581357955933, 0.03485008329153061, 0.025461271405220032, -0.08498366177082062, 0.2259930521249771, 0.2126118242740631, 0.03554224222898483, -0.11821334809064865, 0.02588566206395626, -0.8876855373382568, -0.07220344245433807, -0.48736608028411865, -0.7527849078178406, -0.04226859286427498, 0.19688861072063446, 0.71387779712677, 0.3371765911579132, 0.28551480174064636, -0.062177665531635284, -0.13784420490264893, -0.003994146827608347, -0.25457653403282166, 0.14596718549728394, 0.17703339457511902, -0.2977895438671112, -0.05905042216181755, -0.2178078442811966, -0.007212988566607237, -0.061730775982141495, -0.07237935811281204, 0.8971932530403137, 0.33940771222114563, 0.30997154116630554, -0.6421468257904053, -0.1844731867313385, -0.10136919468641281, 0.7213079333305359, 0.05724141746759415, -0.12355636805295944, -0.06764930486679077, -0.05652482062578201, -0.04100634157657623, 0.37158137559890747, 0.23831793665885925, 0.20222730934619904, -0.13100267946720123, 0.3798532783985138, 0.06699211150407791, -0.3691093921661377, -0.2574433982372284, -0.34185951948165894, 0.6462827324867249, -0.09986064583063126, -0.04184442758560181, -0.37941768765449524, 0.057270921766757965, -0.18619400262832642, 0.5970619916915894, 0.14437057077884674, 0.26599276065826416, -0.21416254341602325, 0.09166450798511505, -0.16899868845939636, -0.15196990966796875, -0.03204416111111641, -0.01588844507932663, -0.2590124011039734, 0.032436616718769073, -0.03314034640789032, -0.14868265390396118, 0.01492123119533062, 0.04774480313062668, 0.4877326190471649, -0.11531637609004974, -0.28619593381881714, 1.0406086444854736, 0.09345541149377823, -0.787205159664154, 0.4977860152721405, -0.2340007871389389, -0.12619076669216156, 0.5815874338150024, -0.8738309144973755, 1.001702904701233, 0.7517017722129822, -0.06787999719381332, -0.4720851182937622, 0.07683270424604416, -0.2850576341152191, -0.022267229855060577, -0.22966651618480682, 0.10697166621685028, -0.28686994314193726, 0.2858821153640747, 0.06099177151918411, 0.2555631101131439, -0.08698204159736633, 0.1439051777124405, 0.024005582556128502, 0.12470825761556625, 0.2620342969894409, -0.37075677514076233, -0.1476144790649414, 0.029197191819548607, -0.27365344762802124, 0.4194081127643585, 0.267292857170105, -0.3148137629032135, 0.1680399626493454, 0.1864902377128601, 0.029203731566667557, -0.01455747801810503, -0.31299883127212524, -0.12192342430353165, 0.5002687573432922, 0.007865095511078835, -0.4116487205028534, 0.144921213388443, 0.4072275757789612, 0.19746039807796478, 0.22285526990890503, 0.044670362025499344, -0.2514190673828125, 0.224965900182724, -0.22867198288440704, 0.43004894256591797, -0.17406947910785675, 0.10397929698228836, 0.1746378242969513, 0.1896013766527176, -0.13630637526512146, -0.33148711919784546, 0.15027138590812683, 0.08343115448951721, -0.0820716917514801, -0.2293490618467331, 0.22392304241657257, 0.4207163453102112, 0.11362257599830627, -0.08795863389968872, 0.12317287176847458, -0.4413430690765381, 0.033407606184482574, -0.4403582513332367, -0.19747449457645416, -0.11723585426807404, 0.18556685745716095, 0.5105230212211609, 0.14847774803638458, 0.316725492477417, 0.35990819334983826, 0.22626237571239471, 0.07300013303756714, -0.42399752140045166, -0.31309977173805237, 0.35258781909942627, -0.3448629081249237, 0.5182846188545227, -0.35253259539604187, 0.2544264495372772, 0.4084356725215912, 0.37791451811790466, -0.33830881118774414, -0.28262296319007874, 0.2706254720687866, -0.4329981803894043, -0.44945770502090454, 0.13295963406562805, -0.6401472687721252, -0.14849995076656342, -0.27147504687309265, -0.010761749930679798, -0.1652316004037857, -0.28070852160453796, 0.16336551308631897, 0.36024361848831177, -0.03196445852518082, -0.4136826992034912, -0.16092415153980255, 0.09954489767551422, 0.22399413585662842, 0.03708142414689064, 0.14981383085250854, 0.10908415168523788, 0.10987161844968796, 0.2182299941778183, 0.26239433884620667, -0.3853068947792053, -0.011303495615720749, 0.1953386515378952, -0.2995142936706543, -0.12302200496196747, -0.14005476236343384, -0.47231364250183105, 0.4044559895992279, 0.4535200297832489, -0.19077835977077484, 0.23987054824829102, 0.20352308452129364, 0.041125234216451645, 0.17221690714359283, 0.4696139693260193, 0.23869171738624573, -0.18537460267543793, -0.16051803529262543, -0.046615518629550934, -0.16306158900260925, 0.20524649322032928, -0.19459739327430725, 0.27278563380241394, 0.18198780715465546, -0.2185254544019699, 0.2096766233444214, -0.006212828680872917, 0.24872443079948425, -0.06989067792892456, 0.2536892294883728, -0.40503403544425964, 0.1707010567188263, -0.17485694587230682, 0.03374346345663071, 0.7769085168838501, -0.5323082804679871, 0.006857799831777811, 0.037874478846788406, 0.38634490966796875, 0.09470620006322861, -0.45706063508987427, 0.26351457834243774, -0.4543766379356384, -0.1751759648323059, 0.12108451128005981, -0.23552189767360687, 0.3215152621269226, 0.018457606434822083, -0.4354555904865265, 0.32365676760673523, 0.0533762164413929, 0.035628244280815125, -0.422247052192688, -0.03782790154218674, -0.5647271275520325, 0.3041972815990448, 0.37400850653648376, -0.23574282228946686, -0.1495864987373352, -0.12987174093723297, 0.316398024559021, -0.06295743584632874, 0.18507222831249237, -0.10803723335266113, -0.03434251248836517, -0.25810763239860535, 0.4536290764808655, -0.30408817529678345, 0.5806172490119934, -0.09161925315856934, 0.8289848566055298, 0.015138986520469189, -0.5699265003204346, 0.04890823736786842, -0.09524686634540558, -0.1975732296705246, -0.09155658632516861, 0.20697374641895294, 0.0990845113992691, -0.02338114008307457, 0.03810087591409683, 0.12230387330055237, -0.33394917845726013, 0.5040029287338257, 0.18379445374011993, 0.12092883139848709, -0.36182913184165955, -0.3058476150035858, -0.08193372189998627, 0.16850678622722626, -0.06275922060012817, -0.3366948366165161, 0.030251843854784966, 0.08021096140146255, -0.3824271559715271, -0.2542552649974823, 0.009632791392505169, -0.07927028834819794, 0.1500156670808792, 0.18962538242340088, -0.016885779798030853, -0.3097997009754181, 0.022265085950493813, -0.07559068500995636, -0.20570024847984314, 0.09086190909147263, 0.050996873527765274, 0.09064310044050217, 0.08440381288528442, -0.1085609421133995, -0.36400216817855835, 0.16078078746795654, -0.3357756733894348, -0.21219469606876373, 0.24045655131340027, -0.46042391657829285, 0.08074235171079636, 0.01830228604376316, -0.01207762211561203, 0.20452933013439178, 0.1362154632806778, -0.15825696289539337, -0.21688507497310638, 0.09284593164920807, -0.042822446674108505, -0.19981616735458374, 0.02665729448199272, 0.2773681581020355, -0.07387065142393112, 0.02552880346775055, -0.032976485788822174, -0.15962620079517365, 0.04797443374991417, -0.253496915102005, 0.3788575530052185, 0.2318110466003418, 0.022454429417848587, 0.11684327572584152, -0.05769054591655731, 0.22515331208705902, -0.15608344972133636, -0.07125461846590042, -0.020892111584544182, -0.20571140944957733, 0.1727478951215744, -0.2715410888195038, -0.1028367355465889, 0.18307697772979736, -0.0649636760354042, -0.4345463514328003, 0.14791999757289886, -0.10491413623094559, -0.06264917552471161, 0.4533768594264984, -0.1909572035074234, 0.012717943638563156, -0.25545623898506165, 0.32059353590011597, -0.046589773148298264, -0.31052079796791077, 0.4300898313522339, -0.14411133527755737, -0.08701208233833313, 0.23030272126197815, -0.09048821777105331, 0.20248275995254517, -0.4436192512512207, -0.3688562214374542, 0.05045236647129059, 0.33322668075561523, 0.19157542288303375, -0.12781383097171783, 0.035026915371418, 0.38354912400245667, 0.08968321233987808, 0.08663462102413177, -0.014008242636919022, -0.057090193033218384, -0.013814015313982964, 0.33999067544937134, 0.12450128048658371, 0.04826178401708603, 0.09300633519887924, -0.15726949274539948, -0.004110644571483135, 0.002912320429459214, -0.1131814494729042, -0.19227822124958038, -0.20883917808532715, 0.013715582899749279, 0.13861685991287231, -0.16957305371761322, 0.06536073237657547, -0.10708949714899063, 0.03884473070502281, -0.025513781234622, 0.1383764147758484, 0.11036504805088043, -0.19005398452281952, -0.1849239021539688, -0.04072021320462227, -0.02963629737496376, -0.022666852921247482, 0.13227997720241547, -0.12988115847110748, 0.0037056177388876677, 0.08194946497678757, -0.09261470288038254, 0.20390480756759644, -0.1814533770084381, 0.002221661387011409, 0.32041749358177185, -0.10378891974687576, -0.16837508976459503, -0.02526422217488289, -0.04828575998544693, -0.1004122644662857, -0.11749125272035599, -0.10828299820423126, 0.10028150677680969, -0.15652158856391907, -0.2045840173959732, -0.04427960142493248, 0.41238340735435486, -0.07374539226293564, -0.028220651671290398, -0.3643645942211151, 0.05894904583692551, -0.05132250115275383, -0.20222589373588562, 0.0210560392588377, -0.29999709129333496, 0.06604497879743576, 0.3342587649822235, -0.0022377176210284233, 0.06111171841621399, 0.09496762603521347, 0.1913093775510788, -0.02261173725128174, -0.12484946101903915, -0.2196034938097, -0.26171937584877014, 0.2493726760149002, 0.01406791526824236, -0.2532136142253876, -0.15370488166809082, -0.029779896140098572, -0.05213041603565216, 0.06831909716129303, 0.07070322334766388, -0.3720034062862396, 0.5504481792449951, -0.19393768906593323, 0.0319942981004715, 0.1285460889339447, 0.0792391449213028, 0.05393337085843086, -0.28882384300231934, 0.021476631984114647, 0.48257192969322205, 0.12625259160995483, -0.2242712676525116, 0.04645355045795441, 0.0635882318019867, 0.21022357046604156, 0.2117338925600052, 0.14024695754051208, -0.004532988648861647, 0.4071458876132965, -0.3315054178237915, -0.3598661422729492, -0.15543785691261292, 0.11010389775037766, 0.39061468839645386, 0.07238900661468506, -0.3307948112487793, -0.07555678486824036, 0.027058707550168037, 0.1479235589504242, 0.2423979640007019, 0.004787320736795664, -0.1427256315946579, -0.02334241382777691, -0.19800631701946259, 0.11501332372426987, -0.15519949793815613, -0.06177229434251785, 0.2621939182281494, 0.25440531969070435, 0.001727541908621788, -0.26868852972984314, 0.1034286618232727, 0.013568279333412647, 0.01680665649473667, -0.03175588324666023, -0.1427152305841446, -0.04224494844675064, 0.40760383009910583, -0.33225181698799133, -0.22969284653663635, -0.17992906272411346, 0.2688687741756439, -0.02659986913204193, -0.19979959726333618, -0.040309906005859375, 0.114887535572052, -0.3457569479942322, 0.1758725941181183, 0.05376093089580536, 0.003810763591900468, -0.10133726894855499, -0.14008863270282745, 0.24568818509578705, -0.11590676754713058, -0.10145902633666992, -0.23960962891578674, 0.05154480040073395, 0.14610257744789124, 0.11763212829828262, 0.11892161518335342, -0.0623617097735405, -0.14413630962371826, 0.010564682073891163, 0.1608770340681076, 0.10833794623613358, 0.18109174072742462, -0.05732109025120735, -0.06567936390638351, -0.13331077992916107, 0.14253322780132294, 0.10713057965040207, 0.12617802619934082, -0.22544096410274506, 0.14041060209274292, -0.2707037925720215, 0.03976744785904884, 0.06973759829998016, -0.015825236216187477, 0.050180450081825256, 0.02842225506901741, 0.08536508679389954, 0.13794037699699402, -0.05682818964123726, 0.0964805856347084, -0.2468242347240448, -0.14911414682865143, 0.015376070514321327, 0.07811948657035828, 0.02881757728755474, 0.49503520131111145, -0.14114801585674286, 0.13298217952251434, -0.011322771199047565, -0.08315789699554443, 0.01111049484461546, 0.056268978863954544, -0.08123716711997986, 0.02416123077273369, 0.2236272394657135, -0.06694626063108444, -0.29834088683128357, 0.13216759264469147, -0.10279855132102966, -0.018043890595436096, 0.09103710204362869, -0.04851657152175903, 0.13449627161026, 0.08545739203691483, -0.06256486475467682, 0.07621078193187714, -0.090967558324337, 0.06497678905725479, -0.020232995972037315, -0.011668846942484379, -0.03021341562271118, -0.045891378074884415, 0.06349459290504456, 0.07394172996282578, 0.18591655790805817, -0.22458192706108093, -0.15174563229084015, -0.05138884484767914, 0.31507807970046997, -0.16121380031108856, -0.016422642394900322, -0.08699477463960648, 0.0695100650191307, 0.10077230632305145, -0.019626859575510025, -0.027421193197369576, -0.02422414720058441, -0.2460346221923828, 0.005091442260891199, -0.2425992339849472, -0.08099863678216934, 0.10865364968776703, 0.31765684485435486, -0.08908360451459885, -0.04122746363282204, -0.1865532249212265, 0.23455989360809326, -0.2207649201154709, -0.038991864770650864, 0.07291477918624878, -0.059224292635917664, -0.014382762834429741, -0.22386789321899414, -0.029745416715741158, -0.008910075761377811, -0.13145434856414795, 0.1409335434436798, -0.10557921975851059, -0.12141216546297073, -0.03342461213469505, -0.34583741426467896, -0.05804991349577904, -0.05586255341768265, 0.2952788770198822, -0.05148698389530182, -0.36622628569602966, 0.1367306411266327, 0.11256290227174759, 0.20607516169548035, 0.28565704822540283, 0.01475494634360075, -0.21329925954341888, -0.04451783373951912, 0.05893297120928764, -0.05444522574543953, -0.4080066978931427, 0.08569586277008057, 0.23198845982551575, 0.22402729094028473, 0.06799652427434921, -0.11075251549482346, 0.1504494845867157, 0.054371193051338196, -0.07735822349786758, 0.11551232635974884, 0.0172684658318758, -0.13393890857696533, 0.47412484884262085, -0.19188189506530762, -0.27249205112457275, -0.1674620658159256, 0.03123543970286846, -0.11376224458217621, -0.13489270210266113, 0.30722516775131226, 0.33873671293258667, -0.2383117526769638, -0.04735512658953667, -0.06881260126829147, 0.09735063463449478, -0.06836497783660889, -0.1539679914712906, 0.0199157502502203, 0.03821273148059845, -0.050222087651491165, -0.2648462951183319, 0.0935276672244072, 0.2596275508403778, 0.24920354783535004, 0.034602873027324677, -0.16193336248397827, -0.1779375821352005, 0.039244428277015686, 0.15510353446006775, -0.05243227258324623, 0.25022709369659424, -0.031819041818380356, -0.15284734964370728, -0.3035144507884979, -0.021219918504357338, 0.0478777214884758, 0.22207656502723694, -0.058094676584005356, 0.011713884770870209, -0.2840724587440491, 0.06139882281422615, -0.20156171917915344, -0.1155305728316307, 0.03547411784529686, 0.07721325755119324, -0.018427502363920212, -0.020000062882900238, -0.11626581102609634, 0.5292521119117737, -0.015346664935350418, -0.0665469542145729, -0.10200987011194229, 0.13449330627918243, 0.09423141926527023, 0.48227131366729736, -0.024885589256882668, 0.1989513337612152, -0.3069612979888916, -0.08113550394773483, 0.21866905689239502, -0.06647247076034546, -0.10304679721593857, -0.20345228910446167, 0.20700539648532867, -0.026886992156505585, -0.21750351786613464, 0.18433885276317596, 0.05727130547165871, 0.15402768552303314, -0.03641500324010849, -0.21856777369976044, -0.04273365065455437, -0.03244144842028618, -0.009911254048347473, -0.11812195926904678, -0.04866160452365875, 0.15832868218421936, -0.2448059320449829, -0.10443665087223053, 0.031496964395046234, -0.12421872466802597, 0.20305123925209045, 0.06828324496746063, -0.0675489604473114, 0.2564938962459564, 0.07335793226957321, 0.0547093041241169, -0.25414443016052246, -0.12325255572795868, -0.07191113382577896, -0.24015659093856812, 0.14579826593399048, -0.17237046360969543, 0.0533735565841198, -0.018288949504494667, -0.026252105832099915, 0.19137412309646606, 0.037829458713531494, -0.20842979848384857, -0.5747856497764587, 0.14360298216342926, -0.06611175090074539, 0.6528424024581909, 0.03976605460047722, 0.10006191581487656, -0.26943865418434143, 0.18675091862678528, 0.3874278962612152, 0.345388263463974, 0.014803733676671982, -0.0243491493165493, 0.05079276114702225, 0.044477786868810654, -0.1439947485923767, 0.13995957374572754, -0.050245776772499084, 0.013068437576293945, -0.13292142748832703, -0.0798393040895462, -0.17652013897895813, 0.20523108541965485, 0.16988593339920044, 0.17865146696567535, -0.04835266247391701, -0.0263365488499403, -0.08845318853855133, -0.34405088424682617, -0.006605823058634996, 0.1446213722229004, 0.3473321795463562, 0.09457999467849731, -0.17057988047599792, -0.022172613069415092, 0.122081458568573, -0.2511967718601227, 0.15224052965641022, -0.15948297083377838, 0.07993412762880325, -0.16116656363010406, -0.10866502672433853, -0.021323390305042267, -0.2441752403974533, -0.22260698676109314, 0.09339958429336548, -0.34863898158073425, 0.02423240803182125, 0.23639962077140808, 0.06769514083862305, -0.10907363891601562, -0.013017214834690094, -0.41397014260292053, -0.15162527561187744, 0.10651601850986481, 0.1667695790529251, -0.16094811260700226, 0.09241339564323425, 0.1683887541294098, -0.010060637257993221, 0.050737131386995316, -0.17316004633903503, 0.013445951044559479, 0.23297585546970367, -0.009153228253126144, -0.03473126143217087, -0.12224394083023071, 0.028012560680508614, 0.16555777192115784, -0.08597458153963089, -0.021433496847748756, 0.011322643607854843, 0.4008466899394989, -0.08479417860507965, -0.39811500906944275, 0.2366160899400711, 0.054931361228227615, 0.10367854684591293, 0.15266937017440796, 0.015554689802229404, -0.08632534742355347, 0.09081269055604935, -0.05675875395536423, 0.06412152200937271, -0.0864168256521225, 0.09119969606399536, 0.20997829735279083, 0.2624925673007965, 0.07582536339759827, -0.044856272637844086, 0.16796255111694336, 0.12462836503982544, 0.12488415837287903, 0.20990969240665436, -0.0997772291302681, -0.27043235301971436, -0.004136252216994762, 0.27121877670288086, -0.43164440989494324, 0.14128364622592926, -0.10480812191963196, -0.046699754893779755, -0.0671488419175148, 0.042772237211465836, 0.24904227256774902, -0.043705131858587265, -0.2093726098537445, -0.11608858406543732, -0.032475609332323074, 0.03942551091313362, -0.16667303442955017, 0.14175115525722504, 0.046955399215221405, 0.060169801115989685, -0.1499650478363037, -0.19740073382854462, 0.3726448118686676, 0.1983414590358734, -0.20136325061321259, 0.10073953866958618, -0.07335114479064941, 0.17127595841884613, 0.09924236685037613, -0.20032329857349396, -0.15324242413043976, -0.016409939154982567, 0.21490301191806793, 0.18618784844875336, -0.06983659416437149, -0.06760244816541672, -0.156868115067482, 0.027625877410173416, 0.17861297726631165, -0.04509422928094864, -0.143084317445755, 0.108252614736557, 0.11133211851119995, -0.06809769570827484, -0.1751861274242401, -0.15365968644618988, -0.07332195341587067, -0.08262596279382706, 0.07384496182203293, 0.056954722851514816, -0.032068099826574326, 0.10119211673736572, 0.09929875284433365, 0.33389803767204285, 0.1049250140786171, 0.05697505548596382, 0.18548652529716492, -0.4557948410511017, -0.09338560700416565, 0.12492787092924118, -0.052197474986314774, 0.019449420273303986, 0.20198597013950348, 0.23653069138526917, -0.0035957051441073418, -0.06668394058942795, 0.040549568831920624, 0.08500764518976212, 0.0010625020368024707, -0.25049537420272827, 0.056140609085559845, -0.11003271490335464, 0.054511070251464844, 0.018749015405774117, 0.18291853368282318, 0.10312414169311523, -0.07654163986444473, 0.0882466584444046, -0.05324511229991913, 0.18136973679065704, -0.31849905848503113, 0.07374487817287445, -0.08465337753295898, -0.07458510249853134, -0.24155955016613007, 0.1464623510837555, -0.06036008521914482, -0.009146546944975853, -0.08423463255167007, 0.060988686978816986, -0.017575349658727646, -0.15543606877326965, 0.10958073288202286, -0.017495565116405487, 0.12937436997890472, 0.08365209400653839, -0.35026293992996216, 0.01796351931989193, -0.1321403682231903, 0.10878597944974899, 0.027076875790953636, 0.45113837718963623, -0.19822897017002106, 0.3334544003009796, 0.03662770241498947, 0.06733548641204834, 0.012227123603224754, 0.04962420463562012, 0.06531711667776108, -0.1447441130876541, 0.24983003735542297, -0.12994515895843506, 0.03935343772172928, 0.012553337961435318, -0.07449298352003098, -0.004392843693494797, -0.07836675643920898, -0.12755660712718964, 0.06829297542572021, 0.15601931512355804, -0.022498345002532005, -0.1059512197971344, -0.1787731796503067, 0.009953098371624947, 0.029926611110568047, 0.10677637159824371, 0.1626754105091095, -0.07780517637729645, -0.30153030157089233, -0.257925420999527, -0.12844954431056976, 0.1352674812078476, 0.24828080832958221, -0.11820913851261139, 0.2633592188358307, -0.1926586776971817, -0.1298259198665619, -0.24545273184776306, 0.08697047829627991, -0.018122944980859756, -0.00760877039283514, 0.038762591779232025, 0.09267323464155197, -0.1390790492296219, 0.5697317123413086, -0.041246481239795685, -0.2258211374282837, 0.02484116703271866, 0.07971344143152237, 0.07032079249620438, 0.4456576406955719, -0.014614328742027283, 0.15165197849273682, -0.20285896956920624, 0.0819573625922203, 0.133092999458313, 0.02346298098564148, -0.08880560845136642, 0.06453070789575577, 0.2237175554037094, 0.20574083924293518, -0.1774933785200119, 0.07100880146026611, 0.06031683832406998, 0.18449169397354126, -0.033924996852874756, -0.09493845701217651, 0.21632808446884155, -0.040662121027708054, 0.0686667263507843, -0.11650096625089645, 0.14471986889839172, 0.05257008969783783, -0.17638787627220154, 0.0948069617152214, 0.06838470697402954, -0.1889684647321701, -0.1989823430776596, 0.02211611345410347, 0.11673036962747574, -0.0956292375922203, 0.13861165940761566, 0.25407516956329346, 0.026688361540436745, -0.04599691554903984, -0.30103710293769836, 0.05787297710776329, 0.2513233423233032, -0.22213631868362427, -0.046088121831417084, -0.12547840178012848, -0.1879872977733612, 0.06655367463827133, 0.22450107336044312, -0.32953014969825745, -0.16826234757900238, 0.27940359711647034, 0.0958908423781395, 0.14111435413360596, 0.10834760218858719, 0.097507543861866, -0.15260785818099976, -0.27376794815063477, 0.17888037860393524, -0.009719827212393284, -0.1417243480682373, -0.14361760020256042, 0.055883996188640594, 0.32361549139022827, -0.14939555525779724, -0.05180129408836365, 0.18268030881881714, 0.13377782702445984, -0.061858389526605606, -0.10022757202386856, -0.05296541005373001, -0.09614822268486023, 0.02878437750041485, -0.12668322026729584, -0.08133474737405777, 0.05176963284611702, 0.12722551822662354, 0.3378415107727051, 0.28317174315452576, -0.23131652176380157, -0.21301685273647308, -0.14560715854167938, -0.0243990495800972, -0.025494713336229324, -0.17225860059261322, 0.2323584109544754, -0.10634341835975647, 0.48205727338790894, -0.026237089186906815, 0.05691345036029816, 0.07548841834068298, -0.05476943776011467, 0.03598828241229057, 0.16137731075286865, -0.02898060344159603, 0.19028480350971222, -0.046811509877443314, -0.1717625856399536, 0.2669864892959595, 0.03338192030787468, -0.1473526507616043, -0.0938941165804863, 0.20139849185943604, -0.09784334152936935, -0.06251563131809235, -0.0035069608129560947, -0.03257933259010315, -0.026827579364180565, -0.20443588495254517, 0.07683815062046051, 0.4525725245475769, -0.14777149260044098, 0.06054609268903732, 0.10475868731737137, -0.2725352346897125, 0.17866884171962738, -0.06405530869960785, -0.0799042358994484, -0.07209859788417816, 0.21365642547607422, 0.15765680372714996, -0.33223289251327515, -0.038721658289432526, 0.08569075167179108, -0.3048955798149109, -0.00445524649694562, -0.1808813363313675, 0.2509569823741913, -0.06697943061590195, 0.1248226910829544, -0.018629560247063637, 0.2897120416164398, 0.06277637183666229, -0.02898826263844967, -0.2663346230983734, -0.04054151475429535, 0.06958272308111191, -0.10273755341768265, 0.009119829162955284, -0.2140246480703354, 0.11810340732336044, -0.10613278299570084, 0.016364045441150665, 0.21715742349624634, 0.12484050542116165, -0.09130346775054932, -0.33910682797431946, 0.21779601275920868, -0.4550813138484955, 0.6805592179298401, -0.22429051995277405, 0.13171739876270294, -0.29889047145843506, -0.35164889693260193, -0.222982257604599, 0.10304313153028488, 0.05918251350522041, -0.18401683866977692, 0.1516381949186325, 0.12319773435592651, 0.06563376635313034, 0.34792590141296387, -0.060027725994586945, 0.16486136615276337, 0.12454649060964584, 0.08458691090345383, 0.2657003104686737, -0.04293561726808548, 0.08839640766382217, -0.09462517499923706, 0.15173690021038055, 0.10625395178794861, -0.11297295242547989, -0.18858438730239868, 0.0750441774725914, 0.20027336478233337, -0.09540187567472458, -0.05657302215695381, 0.05683736130595207, 0.04628559201955795, 0.1685786247253418, 0.06248969957232475, 0.7581808567047119, 0.14680345356464386, 0.4373694956302643, -0.8273507356643677, -0.7466037273406982, -0.287097305059433, 0.4949280023574829, 0.1412639617919922, 0.11675357073545456, 0.03678902983665466, -0.7692089676856995, 0.12045101821422577, 0.09541364759206772, -0.7127676010131836, 0.2703244090080261, 0.1253374069929123, -0.23917269706726074, -0.3305259644985199, 0.33123645186424255, -0.2180471122264862, -0.11031045019626617, 0.22893232107162476, -0.2973177134990692, -0.20420242846012115, -0.26099544763565063, 0.023480981588363647, -0.16080790758132935, 0.056585852056741714, 0.13862787187099457, -0.14086872339248657, 0.19335761666297913, -0.10470879077911377, -0.15273647010326385, -0.3086443543434143, -0.16719870269298553, -0.15504363179206848, -0.07414548844099045, 0.2297380566596985, 0.28005921840667725, 0.027460282668471336, -0.17615006864070892, 0.22304333746433258, -0.2191903442144394, 0.02427518554031849, 0.004851438105106354, 0.042186394333839417, 0.34614577889442444, 0.34175053238868713, 0.04249311983585358, 0.3772777020931244, -0.4211835265159607, -0.04006120562553406, 0.30717021226882935, -0.4022068679332733, -0.043711189180612564, 0.20787660777568817, 0.22967523336410522, -0.17922694981098175, 0.018962107598781586, -0.13806092739105225, 0.03147215396165848, 0.13236483931541443, -0.1051412969827652, 0.3369150459766388, -0.3340415954589844, -0.1048777624964714, -0.062306519597768784, 0.01708040200173855, -0.06368231773376465, 0.1586601734161377, 0.32265549898147583, 0.20004187524318695, -0.22722360491752625, -0.08039215952157974, 0.08697919547557831, -0.26115190982818604, 0.17558839917182922, 0.0937962606549263, 0.21465808153152466, -0.012947351671755314, 0.2265094667673111, -0.058827053755521774, 0.023076791316270828, 0.14329934120178223, 0.03736592084169388, -0.06139242276549339, -0.13538672029972076, -0.3131154179573059, 0.3074890971183777, 0.10028880089521408, 0.1732480674982071, 0.09018649905920029, -0.2697284519672394, -0.1676337867975235, -0.5045408606529236, -0.19360552728176117, -0.11758674681186676, 0.27119457721710205, 0.04245403781533241, 0.2589881122112274, -0.0701301321387291, 0.03485076501965523, -0.139309823513031, 0.015621736645698547, -0.2706908583641052, -0.06735605001449585, -0.16893889009952545, 0.054475802928209305, -0.1224241703748703, -0.006665647961199284, -0.14465534687042236, 0.049840766936540604, -0.21874919533729553, -0.08681324124336243, -0.2544683516025543, 0.11916659027338028, -0.142620250582695, -0.16887147724628448, 0.3376358151435852, 0.21646861732006073, -0.34162482619285583, 0.2158059924840927, 0.1846308410167694, 0.1070544570684433, 0.19602692127227783, 0.0059409234672784805, 0.28029707074165344, -0.04644033685326576, -0.1989917755126953, 0.3427702784538269, -0.2633286416530609, 0.185095876455307, -0.05492308363318443, -0.24718809127807617, 0.0761638730764389, 0.3153912425041199, 0.1843438595533371, 0.11509545892477036, 0.06939982622861862, 0.2082030177116394, -0.1258918195962906, 0.06840196996927261, 0.15297162532806396, -0.0017216254491358995, -0.2839175760746002, 0.06277987360954285, 0.023586543276906013, -0.11237196624279022, 0.07338046282529831, 0.19921615719795227, -0.37057948112487793, -0.2563251554965973, -0.044102638959884644, 0.048335153609514236, 0.07254622131586075, -0.012251821346580982, -0.0005549857742153108, -0.10675660520792007, 0.06748504191637039, -0.12670870125293732, -0.2361813336610794, 0.28077641129493713, 0.054619379341602325, -0.1322939395904541, -0.31684085726737976, 0.1204196959733963, -0.2304455041885376, 0.13586020469665527, -0.20265115797519684, 0.028263524174690247, 0.3042081594467163, -0.05301251262426376, 0.1775154024362564, -0.04637758061289787, 0.37685826420783997, 0.1984797716140747, -0.11664783954620361, 0.10894197970628738, -0.2805803120136261, -0.17485539615154266, 0.03394697606563568, 0.15315201878547668, 0.14081482589244843, -0.1780850887298584, 0.18522843718528748, 0.1556384414434433, -0.0548999197781086, 0.14162446558475494, -0.04346359521150589, -0.04774613678455353, 0.10758956521749496, -0.01881427690386772, 0.10160014033317566, 0.1869916468858719, 0.020391808822751045, 0.08763431757688522, 0.015656176954507828, -0.2988758683204651, 0.057450223714113235, 0.027836088091135025, -0.12273447960615158, -0.07148754596710205, 0.21608078479766846, 0.13197211921215057, -0.08091812580823898, 0.43369460105895996, -0.22420959174633026, -0.28570064902305603, 0.0012996956938877702, 0.12156417965888977, 0.5011738538742065, 0.24540507793426514, -0.14604678750038147, 0.13813349604606628, -0.15849079191684723, -0.1635706126689911, 0.1472354233264923, 0.12264682352542877, -0.20565204322338104, -0.005396328866481781, -0.098955899477005, 0.11847048252820969, -0.22451448440551758, -0.5788511633872986, -0.1552543044090271, 0.042449790984392166, 0.14078737795352936, 0.027756718918681145, -0.0677965059876442, 0.16597700119018555, -0.27526968717575073, -0.08276411890983582, 0.03858701512217522, 0.28032463788986206, 0.14430728554725647, 0.016577566042542458, -0.3108576834201813, -0.38770124316215515, -0.19172246754169464, -0.16546878218650818, 0.3282155990600586, -0.013997281901538372, -0.1578255593776703, 0.42138972878456116, -0.05540074408054352, -0.19404540956020355, 0.35401055216789246, 0.25440356135368347, -0.28088006377220154, 0.05164758116006851, -0.19309888780117035, -0.024783656001091003, 0.3115936815738678, 0.11811327189207077, 0.0783979669213295, 0.24339674413204193, -0.06135677173733711, 0.3147023618221283, -0.2728327512741089, 0.021317439153790474, -0.34609851241111755, -0.500823974609375, 0.2214537113904953, 0.019692106172442436, -0.2619439363479614, -0.11193390935659409, -0.1566932648420334, -0.04457453638315201, 0.1956883668899536, -0.010358499363064766, 0.4417920410633087, 0.2340923696756363, -0.4093794822692871, -0.09201736003160477, 0.4633491635322571, -0.19251596927642822, 0.008364702574908733, -0.057578541338443756, -0.1447926163673401, 0.4387459456920624, -0.3603513240814209, 0.03826745226979256, 0.11925102025270462, 0.2519261837005615, -0.11555013805627823, -0.33781522512435913, 0.024925891309976578, 0.2571335434913635, 0.0002778874186333269, 0.03539775311946869, -0.041020121425390244, 0.24247078597545624, 0.13354066014289856, -0.3271721303462982, -0.26900237798690796, 0.33606958389282227, 0.5716564059257507, 0.07890679687261581, 0.022455796599388123, -0.11888929456472397, -0.01108737476170063, -0.07023905217647552, -0.039679236710071564, -0.20786675810813904, -0.023124147206544876, 0.23870430886745453, 0.2723567485809326, -0.024823036044836044, -0.08615580201148987, 0.18727979063987732, 0.22415439784526825, 0.13542136549949646, 0.1860378384590149, -0.2247232049703598, -0.13210728764533997, 0.2747202217578888, -0.07367992401123047, -0.0967746302485466, 0.1538403481245041, 0.3191889822483063, -0.035634417086839676, -0.41080912947654724, -0.08736580610275269, 0.2316192239522934, 0.024227656424045563, 0.044260174036026, 0.14484553039073944, 0.41387197375297546, -0.014444504864513874, -0.3240162134170532, 0.22242547571659088, -0.10993485152721405, -0.031406108289957047, -0.4943667948246002, 0.00797303393483162, 0.27188360691070557, 0.36001285910606384, 0.45185387134552, -0.10632797330617905, -0.05387546494603157, 0.20050251483917236, -0.008460099808871746, -0.31232038140296936, -0.5694921612739563, -0.03552357107400894, -0.15989632904529572, 0.1937122493982315, -0.0256026741117239, 0.4084782004356384, 0.05045777186751366, 0.005349618848413229, 0.25271278619766235, 0.09451409429311752, -0.004630713257938623, -0.15056705474853516, 0.286703497171402, 0.0924285352230072, -0.25821447372436523, -0.3187166452407837, 0.11943823099136353, -0.19492505490779877, 0.5067079663276672, 0.06930136680603027, -0.11791734397411346, 0.11051463335752487, -0.007973188534379005, 0.11695589870214462, -0.16460572183132172, -0.07397107034921646, -0.20195914804935455, -0.3912980556488037, 0.15867753326892853, 0.0541151687502861, -0.08629841357469559, 0.06222701817750931, -0.1284194141626358, 0.08077003061771393, 0.03410665690898895, 0.1481577306985855, 0.14396335184574127, 0.014879546128213406, 0.15089081227779388, -0.19046659767627716, -0.002160580363124609, 0.009137912653386593, 0.036189451813697815, 0.09104913473129272, 0.08067823946475983, 0.05131971091032028, 0.14477631449699402, -0.31369641423225403, 0.06793680042028427, 0.3209216892719269, -0.04519028216600418, 0.09958598017692566, 0.07972067594528198, -0.12064024806022644, -0.0961698517203331, -0.18067431449890137, 0.001315531088039279, 0.26703712344169617, 0.13371190428733826, -0.045656632632017136, -0.20070193707942963, -0.027311984449625015, -0.07745375484228134, -0.20666638016700745, -0.0456673838198185, 0.1591862142086029, 0.04997981712222099, 0.16911594569683075, 0.05438310652971268, -0.32227274775505066, 0.0728006660938263, 0.04573404788970947, 0.21639500558376312, 0.13790522515773773, -0.09898101538419724, 0.17710936069488525, 0.08833128958940506, -0.00029755354626104236, 0.23589567840099335, -0.1696423888206482, 0.06622231006622314, 0.1388782411813736, 0.1594354212284088, 0.09105518460273743, 0.1301606148481369, 0.18693260848522186, -0.03536257892847061, -0.060374826192855835, 0.14538095891475677, -0.037063486874103546, -0.1443825364112854, 0.03369452804327011, -0.0753248780965805, -0.15734441578388214, -0.016323324292898178, 0.038734324276447296, 0.198496013879776, -0.11518049985170364, -0.05036840960383415, -0.07202204316854477, 0.26664698123931885, 0.029989471659064293, 0.10891228169202805, -0.06182180345058441, -0.0005210739327594638, 0.035732295364141464, 0.07399550080299377, 0.037640903145074844, -0.14105969667434692, 0.21014364063739777, 0.12675099074840546, -0.03817461058497429, -0.189670592546463, 0.023749029263854027, -0.1771787703037262, 0.07501798123121262, -0.04261825233697891, -0.08970221877098083, 0.06848432868719101, -0.01728655956685543, 0.1490781009197235, -0.09965020418167114, -0.0783592164516449, 0.17257025837898254, -0.234064981341362, -0.0893440842628479, 0.041784223169088364, -0.1056152880191803, -0.0704498216509819, -0.029961032792925835, 0.08025664836168289, -0.009045143611729145, -0.007929494604468346, 0.07432770729064941, 0.08150182664394379, 0.24181796610355377, -0.16442246735095978, -0.35221073031425476, 0.27774015069007874, 0.2967083752155304, 0.0011158230481669307, 0.15404649078845978, -0.2461334764957428, 0.344079852104187, -0.3924410939216614, 0.12864422798156738, -0.09330224245786667, 0.05667482689023018, -0.21999911963939667, 0.05755537748336792, -0.05060054734349251, 0.2440345585346222, 0.0037188988644629717, -0.0240947213023901, 0.12603110074996948, 0.23198047280311584, 0.04448094218969345, -0.2747248709201813, 0.16955456137657166, 0.042009349912405014, -0.11677299439907074, 0.003958061337471008, 0.06240376457571983, -0.05295019596815109, 0.04582539200782776, 0.2929210364818573, 0.04771891236305237, 0.07117755711078644, 0.06023501977324486, -0.20033305883407593, 0.07890389114618301, -0.3538490831851959, 0.03586255759000778, -0.2237054705619812, 0.03897367790341377, 0.2770789563655853, 0.16185398399829865, 0.18303878605365753, -0.12794485688209534, 0.18047082424163818, 0.005610565654933453, -0.34841498732566833, -0.22717967629432678, -0.0841481164097786, 0.10723434388637543, -0.3179134428501129, -0.23189954459667206, 0.059189628809690475, -0.021936878561973572, 0.16810305416584015, -0.08418460935354233, 0.40342217683792114, 0.5356885194778442, -0.44925132393836975, -0.10511809587478638, 0.11626598984003067, -0.2410091608762741, -0.07458920031785965, -0.12844090163707733, 0.11778613179922104, -0.09352224320173264, -0.24038797616958618, 0.18883828818798065, 0.1796732395887375, 0.10219335556030273, -0.17530454695224762, -0.04153934866189957, 0.14063327014446259, -0.007997061125934124, 0.0758155956864357, 0.026850249618291855, -0.03309542313218117, -0.1687714159488678, 0.17809639871120453, -0.10314477980136871, 0.2736964523792267, 0.18337635695934296, -0.08476101607084274, -0.05175221338868141, 0.054934483021497726, 0.07938586920499802, 0.008948617614805698, -0.39736151695251465, 0.011737357825040817, -0.10469181090593338, -0.07752076536417007, -0.009365254081785679, 0.1060936450958252, 0.3639913499355316, -0.2887069284915924, 0.009292656555771828, 0.06722313165664673, -0.019893940538167953, 0.01445438526570797, 0.12625695765018463, -0.1764814853668213, -0.13096016645431519, 0.14806021749973297, -0.028514821082353592, 0.004560122732073069, -0.40842920541763306, 0.060609206557273865, -0.04466957971453667, -0.012741020880639553, 0.06990163028240204, 0.11201994866132736, 0.04618265479803085, -0.20397591590881348, 0.21221677958965302, 0.05638918653130531, 0.011304535903036594, -0.187409445643425, 0.08456283807754517, 0.055848512798547745, -0.12912790477275848, -0.11434610933065414, 0.12768645584583282, -0.25964727997779846, 0.10201044380664825, 0.2836434543132782, 0.01648636907339096, 0.1497337967157364, 0.12781782448291779, 0.037217382341623306, 0.30512285232543945, 0.015302971005439758, 0.0890391394495964, -0.12319882214069366, -0.032865118235349655, 0.08986656367778778, 0.11697574704885483, 0.2618311643600464, -0.07523228228092194, 0.11425331234931946, 0.17412805557250977, -0.09877431392669678, -0.08980489522218704, 0.09196396172046661, 0.43627503514289856, 