{"version": "0.5.1", "metadata": {"date": {"year": 2023, "month": 4, "day": 30, "hour": 14, "minute": 49, "second": 48}, "loudness": -17.45732879638672, "gain": 0.2798532106975579, "name": null, "modeled_by": null, "gear_type": null, "gear_make": null, "gear_model": null, "tone_type": null}, "architecture": "WaveNet", "config": {"layers": [{"input_size": 1, "condition_size": 1, "head_size": 4, "channels": 8, "kernel_size": 3, "dilations": [1, 2, 4, 8, 16, 32, 64], "activation": "Tanh", "gated": false, "head_bias": false}, {"input_size": 8, "condition_size": 1, "head_size": 1, "channels": 4, "kernel_size": 3, "dilations": [128, 256, 512, 1, 2, 4, 8, 16, 32, 64, 128, 256, 512], "activation": "Tanh", "gated": false, "head_bias": true}], "head": null, "head_scale": 0.02}, "weights": [-0.049979183822870255, 0.4305540919303894, -0.8866379261016846, -0.6679961085319519, -0.42398008704185486, 0.21117357909679413, -0.14620734751224518, 0.7719287872314453, -0.18566030263900757, 0.2186291366815567, -0.041011177003383636, 0.10646356642246246, -0.3024793565273285, -0.14605936408042908, -0.23245170712471008, 0.12672848999500275, 0.09774532169103622, -0.022857263684272766, -0.024470509961247444, -0.07523857802152634, -0.07736718654632568, 0.29261770844459534, -0.02896892838180065, 0.3096437454223633, -0.14840613305568695, 0.024261245504021645, 0.04458511993288994, -0.043253540992736816, -0.12651538848876953, 0.09581892937421799, -0.19922593235969543, 0.1611880362033844, -0.2559061050415039, 0.05795977637171745, -0.02288566529750824, -0.04327547922730446, -0.22987611591815948, 0.0926036536693573, -0.06597043573856354, 0.20908626914024353, 0.09176579862833023, -0.256881982088089, 0.1428828239440918, -0.10857202857732773, -0.29829150438308716, 0.010673502460122108, 0.21651870012283325, 0.2528020739555359, -0.21568575501441956, -0.10036395490169525, -0.02565651573240757, 0.3256820738315582, 0.1715897172689438, 0.1813996434211731, 0.02726041153073311, -0.20369994640350342, 0.07246693968772888, -0.08030258864164352, -0.3716473877429962, -0.1716150939464569, -0.017297841608524323, 0.24091659486293793, -0.051104262471199036, 0.17755016684532166, -0.04775175079703331, 0.04357782378792763, 0.12131883203983307, -0.11135995388031006, 0.19202545285224915, 0.30592894554138184, -0.3274909555912018, -0.13438157737255096, -0.025426289066672325, 0.33747535943984985, 0.22060684859752655, 0.25629696249961853, -0.18299070000648499, -0.24709132313728333, -0.09659914672374725, 0.03366691246628761, -0.35008835792541504, 0.06503777205944061, 0.31732097268104553, -0.03175579011440277, 0.17039088904857635, -0.14617609977722168, -0.21180638670921326, -0.23092977702617645, 0.19163356721401215, -0.2981027662754059, -0.061847347766160965, 0.21364645659923553, -0.030416375026106834, -0.05817940831184387, -0.08202960342168808, 0.035943154245615005, 0.23166128993034363, -0.07492347806692123, -0.3302746117115021, -0.23517639935016632, 0.3472314178943634, 0.31606143712997437, 0.048991911113262177, -0.1642473340034485, -0.1431766152381897, 0.06550048291683197, -0.31646180152893066, -0.24138414859771729, -0.10813335329294205, 0.13556884229183197, 0.005366537254303694, 0.2250528633594513, -0.22690387070178986, 0.2721995711326599, 0.24093468487262726, -0.2760453522205353, 0.03319211304187775, 0.10764459520578384, -0.08242352306842804, -0.029330791905522346, -0.01373534556478262, 0.12576471269130707, -0.04129411280155182, 0.1640947014093399, -0.3502810299396515, -0.20980504155158997, -0.15538613498210907, 0.004779080394655466, 0.014076846651732922, -0.429228276014328, -0.3375902473926544, -0.09009996056556702, 0.05175814777612686, 0.1987113654613495, 0.28615519404411316, -0.20776066184043884, -0.20591476559638977, 0.11955676227807999, -0.1412549465894699, -0.07999297231435776, 0.3252306878566742, -0.06566720455884933, -0.029919708147644997, -0.13456517457962036, 0.01635362207889557, 0.12540903687477112, 0.25036919116973877, -0.23422087728977203, -0.36758705973625183, -0.2924603223800659, -0.004643627442419529, 0.04286902770400047, -0.020054876804351807, 0.014547940343618393, 0.2747107148170471, -0.17584960162639618, 0.2464567869901657, -0.27394527196884155, -0.06818705797195435, -0.21048015356063843, 0.07220248878002167, -0.06543020159006119, -0.30892571806907654, -0.06444737315177917, -0.05093403160572052, -0.11921577155590057, 0.029795585200190544, 0.08847270905971527, -0.07012560963630676, -0.1427367627620697, 0.1815675050020218, -0.18240515887737274, 0.33740904927253723, 0.09958701580762863, -0.055561598390340805, 0.015714049339294434, -0.08398164063692093, -0.21718920767307281, 0.3279382288455963, -0.07525941729545593, 0.17004305124282837, -0.14489568769931793, 0.052157774567604065, -0.09964081645011902, 0.19927063584327698, -0.02142251469194889, -0.20263291895389557, 0.05727953463792801, -0.25750333070755005, -0.04116363450884819, 0.27221181988716125, 0.22262491285800934, 0.002376822056248784, -0.10258908569812775, -0.21803703904151917, -0.24144874513149261, 0.031047847121953964, 0.16349686682224274, 0.034778300672769547, -0.10648015886545181, 0.05375033989548683, 0.08173967897891998, -0.10328230261802673, -0.11831875890493393, -0.04734814912080765, 0.10572434216737747, -0.25856661796569824, 0.16993317008018494, 0.34186312556266785, 0.045511625707149506, 0.14308175444602966, -0.302911639213562, 0.21883989870548248, -0.019715633243322372, -0.11134941875934601, 0.034464627504348755, -0.3173723518848419, -0.2710244357585907, 0.46968087553977966, -0.42719289660453796, 0.27387508749961853, 0.43597105145454407, -0.001379551598802209, -0.04957352206110954, -0.3171635866165161, 0.21039828658103943, -0.2657149136066437, -0.15040132403373718, -0.19887971878051758, -0.035879481583833694, -0.06211007386445999, 0.2503795027732849, -0.02976839989423752, 0.33392125368118286, 0.3082839548587799, -0.32525068521499634, 0.2944888770580292, -0.19331343472003937, -0.25770074129104614, 0.10851989686489105, 0.25731000304222107, 0.26166093349456787, -0.08010874688625336, 0.04320279508829117, 0.2412170171737671, -0.374152809381485, 0.27683043479919434, -0.3108985722064972, -0.13637810945510864, -0.1586490124464035, -0.011126999743282795, -0.07077161222696304, 0.5430455207824707, 0.06019528955221176, -0.3704179525375366, -0.1983296424150467, -0.315503865480423, -0.18081004917621613, -0.18386434018611908, -0.19971325993537903, -0.30343714356422424, 0.22587500512599945, 0.35449618101119995, 0.14837899804115295, -0.048171427100896835, -0.18538688123226166, -0.05757125839591026, -0.11545946449041367, 0.3122369647026062, 0.223113015294075, -0.210862934589386, -0.18415036797523499, -0.29746028780937195, 0.003905765013769269, -0.20475471019744873, -0.29984936118125916, 0.28571632504463196, -0.22252225875854492, 0.05863582715392113, 0.15958233177661896, 0.06072841212153435, -0.16862106323242188, -0.22603709995746613, 0.2747732400894165, 0.10305386036634445, 0.0807863101363182, -0.03616582974791527, 0.09251497685909271, -0.053338244557380676, -0.035214975476264954, 0.0030288156121969223, 0.07907279580831528, 0.14378735423088074, -0.08780540525913239, -0.03406306728720665, -0.2751954197883606, 0.16715611517429352, -0.14366737008094788, -0.0518706738948822, -0.14972873032093048, -0.09254660457372665, -0.11451331526041031, -0.013208572752773762, 0.015336391516029835, 0.12955991923809052, -0.134107306599617, 0.044452983886003494, -0.02695341780781746, 0.13546723127365112, -0.047009870409965515, -0.06221920996904373, -0.09079259634017944, 0.29158851504325867, -0.053041212260723114, 0.004975027870386839, 0.038432471454143524, -0.20271654427051544, 0.09472515434026718, 0.12235535681247711, 0.1246083527803421, -0.15289188921451569, -0.11046162247657776, 0.025160323828458786, -0.12511684000492096, 0.25797536969184875, 0.288734495639801, -0.0019703509751707315, -0.03008854389190674, -0.009163853712379932, 0.008945080451667309, 0.05821065604686737, -0.03283320739865303, 0.18628190457820892, 0.16553165018558502, -0.19333849847316742, 0.28313934803009033, 0.25571343302726746, 0.18184812366962433, -0.032489076256752014, 0.11535380035638809, -0.050374388694763184, 0.09262418001890182, 0.21175742149353027, 0.2719862163066864, -0.23026339709758759, 0.008933615870773792, 0.1682543307542801, 0.032060444355010986, -0.09100619703531265, 0.10873974114656448, -0.27193352580070496, 0.08633996546268463, -0.18296010792255402, 0.07767865806818008, 0.14888834953308105, 0.18599237501621246, -0.2108389437198639, 0.12748311460018158, -0.19301705062389374, 0.17676685750484467, -0.6047948002815247, -0.21952885389328003, 0.0913737565279007, 0.36707639694213867, 0.15346911549568176, 0.09229324758052826, -0.05408484488725662, -0.21368399262428284, -0.04161173105239868, 0.05629394203424454, -0.1955416053533554, 0.05839921534061432, -0.482139527797699, -0.09106229245662689, -0.049441881477832794, -0.04147742688655853, 0.3191016614437103, 0.15790119767189026, -0.32284125685691833, 0.04952656850218773, 0.23609159886837006, 0.009054361842572689, -0.045397862792015076, 0.051944199949502945, 0.004613550845533609, 0.09073834121227264, 0.2710891366004944, 0.19200994074344635, 0.044499609619379044, -0.04627576842904091, -0.018022634088993073, -0.1772947460412979, 0.06098024174571037, -0.10201843827962875, -0.18080441653728485, 0.2696405053138733, 0.09134525805711746, -0.1566506326198578, 0.08135496079921722, 0.09980379045009613, 0.22377991676330566, -0.09572092443704605, -0.11102510243654251, 0.017545029520988464, 0.22217580676078796, -0.09448985010385513, 0.24366489052772522, -0.02809840627014637, -0.2356543391942978, 0.08758802711963654, -0.09930974245071411, 0.05464909225702286, 0.18477866053581238, -0.06282486766576767, -0.2494761049747467, -0.11867309361696243, -0.020948385819792747, 0.03195105493068695, 0.04035560414195061, 0.29956433176994324, -0.11060289293527603, -0.1521047055721283, 0.05953973904252052, 0.2168232798576355, 0.18408524990081787, -0.20515316724777222, -0.2629557251930237, -0.2724979519844055, -0.13780061900615692, 0.13394322991371155, -0.12717311084270477, 0.024990003556013107, 0.40460047125816345, 0.15302984416484833, -0.17758934199810028, -0.24194812774658203, -0.08078046143054962, -0.12738476693630219, 0.3205675482749939, -0.006321321241557598, -0.16972452402114868, -0.17889659106731415, 0.023651815950870514, 0.11178941279649734, 0.04253796860575676, 0.34807977080345154, -0.06099474057555199, -0.012350953184068203, -0.1616540253162384, -0.19945544004440308, 0.36587050557136536, 0.3141958713531494, 0.19806723296642303, -0.0659785196185112, -0.21792687475681305, 0.19172732532024384, 0.046023957431316376, -0.08636746555566788, -0.36959800124168396, -0.11039139330387115, -0.31383201479911804, 0.018997658044099808, -0.002368234796449542, 0.06563940644264221, 0.032714251428842545, -0.0863756611943245, 0.49892759323120117, 0.006809395272284746, -0.15912383794784546, 0.06340628862380981, -0.026173267513513565, 0.01192209031432867, -0.18231669068336487, -0.0792521983385086, 0.22747942805290222, -0.03466589003801346, -0.27027738094329834, 0.36600184440612793, -0.1697845757007599, 0.22998249530792236, -0.23141351342201233, -0.04629075527191162, -0.24640145897865295, 0.11787696927785873, -0.07027779519557953, 0.1789882332086563, 0.14145775139331818, 0.13729643821716309, -0.011264311149716377, -0.10938113927841187, -0.07706300169229507, -0.03095414862036705, 0.30540594458580017, -0.801572859287262, 0.8630300760269165, 0.02021610178053379, -0.43655121326446533, -0.03980129584670067, 0.41294774413108826, 0.3117237687110901, -0.3376263678073883, 0.24350006878376007, 0.18489067256450653, 0.30035400390625, 0.2889176905155182, -0.17940238118171692, 0.055740151554346085, 0.054197851568460464, -0.22231993079185486, 0.31418049335479736, -0.13150444626808167, 0.37282904982566833, -0.1305168718099594, -0.05185532197356224, 0.17364539206027985, 0.037660665810108185, -0.17595398426055908, 0.026074150577187538, 0.09939195960760117, -0.04859524592757225, 0.04745723307132721, -0.018585767596960068, 0.15901175141334534, -0.27161288261413574, -0.1631711721420288, -0.5063866972923279, 0.7352957129478455, -0.1820904016494751, -0.13024219870567322, -0.05772455036640167, 0.5250159502029419, 0.34742894768714905, -0.38321661949157715, -0.12079302966594696, -0.4913087487220764, 0.1272149682044983, 0.2423238456249237, -0.40795424580574036, -0.4200039505958557, 0.02948618493974209, 0.10525426268577576, 0.016555622220039368, -0.06662202626466751, -0.5101971626281738, 0.2437550574541092, 0.040438588708639145, -0.5415177345275879, 0.3018420338630676, 0.09602266550064087, 0.4724339544773102, -0.8818215727806091, -0.5279734134674072, 0.4599383771419525, -0.24458536505699158, 0.003937232308089733, -0.09740865975618362, -0.02120063826441765, -0.12145347148180008, 0.2477993369102478, -0.05216869339346886, -0.2208128571510315, -0.1275385469198227, -0.049675606191158295, 0.09283588826656342, -0.1805751919746399, 0.26403453946113586, -0.013566874898970127, -0.08714515715837479, 0.3203164041042328, 0.18922464549541473, 0.006639741826802492, -0.11879424005746841, -0.15245354175567627, -0.017337894067168236, 0.038919754326343536, 0.26511675119400024, -0.3162548542022705, -0.04516265541315079, 0.14274097979068756, 0.10411185026168823, 0.010298429057002068, -0.09059354662895203, -0.3939612805843353, 0.011654104106128216, -0.014637602493166924, 0.09108999371528625, 0.061288438737392426, 0.11632397025823593, 0.13225166499614716, 0.1369689255952835, -0.16746272146701813, 0.07947248220443726, -0.10234370827674866, 0.41031140089035034, 0.032759908586740494, -0.007105175871402025, -0.15159474313259125, 0.3111094832420349, 0.2414558380842209, 0.308521568775177, -0.2604440748691559, 0.016266243532299995, -0.19411133229732513, 0.05526803061366081, -0.053649693727493286, 0.1388387233018875, 0.015781987458467484, -0.1506405770778656, -0.21957270801067352, 0.057408396154642105, -0.03999824821949005, -0.16237878799438477, 0.2636091709136963, -0.05510677024722099, -0.07094331830739975, 0.31354957818984985, 0.15465585887432098, 0.3243861496448517, 0.10614821314811707, -0.24573755264282227, -0.12865504622459412, 0.2786335051059723, 0.10126562416553497, -0.027659473940730095, -0.11213501542806625, 0.09866213798522949, 0.010539757087826729, -0.13385166227817535, -0.2202139049768448, 0.3387703597545624, 0.0962533950805664, -0.020924050360918045, 0.014573294669389725, 0.07698630541563034, -0.059522420167922974, 0.16763274371623993, -0.04122320935130119, -0.13390183448791504, -0.3730390667915344, 0.10022937506437302, -0.1097932904958725, -0.19618284702301025, 0.25828906893730164, 0.12406069785356522, -0.06347440183162689, -0.042846426367759705, -0.34023335576057434, -0.004620984196662903, -0.12071096152067184, -0.25742387771606445, 0.02454303950071335, 0.09242013841867447, -0.0037499694153666496, -0.4641483724117279, -0.18679656088352203, -0.04770323261618614, 0.2329067587852478, 0.022122422233223915, -0.10849867016077042, 0.24079467356204987, -0.19671544432640076, 0.031822286546230316, 0.19794797897338867, -0.09246716648340225, -0.07163164019584656, 0.008365316316485405, 0.11781314760446548, 0.3548913598060608, -0.019245292991399765, 0.01708950474858284, -0.3045249879360199, -0.1780313104391098, 0.12832461297512054, -0.15996265411376953, 0.11925716698169708, 0.311123788356781, -0.09809795022010803, -0.21732889115810394, 0.2702045738697052, -0.07131820172071457, 0.16381137073040009, -0.3652825653553009, 0.03926962614059448, -0.07207886129617691, 0.033031050115823746, 0.13662311434745789, 0.11520269513130188, -0.31856849789619446, 0.047243669629096985, -0.06530634313821793, 0.15550333261489868, -0.14762787520885468, 0.08061275631189346, 0.13249841332435608, -0.061333876103162766, -0.25559553503990173, 0.2988204061985016, -0.1505352407693863, -0.08976887166500092, 0.1536003202199936, -0.1544894129037857, 0.012213366106152534, -0.003973334562033415, 0.047593895345926285, -0.10730370134115219, -0.19770099222660065, -0.16930143535137177, 0.44689443707466125, -0.2538949251174927, 0.2766401469707489, 0.1845843493938446, -0.31111836433410645, -0.12045126408338547, -0.472432017326355, 0.1165156438946724, -0.08000358194112778, 0.03483441472053528, 0.05913124978542328, 0.18183331191539764, -0.07258391380310059, 0.10875385999679565, -0.05682629346847534, 0.38567736744880676, -0.22241434454917908, -0.051480527967214584, -0.3722247779369354, 0.12353749573230743, -0.2583885192871094, 0.1027439534664154, -0.011990929022431374, -0.17585274577140808, -0.622833251953125, 0.07005725800991058, -0.018648464232683182, 0.1275189220905304, 0.18849606812000275, -0.011776972562074661, -0.3868961036205292, 0.051305290311574936, -0.022544000297784805, -0.15047447383403778, 0.025179225951433182, 0.10548514127731323, -0.14597268402576447, 0.08751474320888519, 0.08667676150798798, 0.30910879373550415, -0.16581317782402039, 0.03378468379378319, -0.3178577423095703, -0.159057155251503, 0.021807130426168442, 0.21397778391838074, 0.2521824240684509, -0.06999315321445465, -0.2035515308380127, 0.17311924695968628, 0.2205522656440735, 0.1002999022603035, -0.07032504677772522, 0.1405445635318756, 0.10931282490491867, -0.129350483417511, 0.304314523935318, 0.0029200459830462933, -0.15324310958385468, -0.04770609363913536, 0.12218186259269714, -0.5199371576309204, -0.10342229157686234, 0.3686966001987457, -0.6497833728790283, 0.43980932235717773, 0.4171221852302551, 0.6711245179176331, -0.7053612470626831, 0.37199485301971436, 0.010849833488464355, 0.4301571547985077, -0.34236425161361694, -0.5441628694534302, 0.10133729130029678, -0.08279547840356827, -0.0512472540140152, -0.2070164680480957, -0.15195812284946442, -0.256317675113678, -0.3147107660770416, 0.11149666458368301, -0.23878629505634308, 0.1510695517063141, 0.21057413518428802, 0.20392782986164093, -0.062085311859846115, -0.40859097242355347, 0.10194890946149826, -0.0981469377875328, -0.15405742824077606, -0.2213972508907318, -0.0362623929977417, 0.1809701919555664, -0.2266031801700592, 0.24203917384147644, -0.2485719919204712, 0.12140780687332153, 0.4367191195487976, 0.2599577009677887, -0.27545902132987976, 0.11629114300012589, 0.16408006846904755, -0.19524677097797394, -0.10645094513893127, 0.014145441353321075, -0.4549481272697449, 0.17290417850017548, 0.1574358195066452, -0.2728644907474518, -0.01956363208591938, -0.11727432161569595, 0.16894496977329254, 0.6444732546806335, 0.18970051407814026, 0.3322560787200928, -0.12289034575223923, -0.2237093597650528, -0.24105489253997803, -0.20261913537979126, -0.08686794340610504, 0.24235880374908447, -0.19968624413013458, 0.7353434562683105, 0.10875720530748367, 0.027616990730166435, -0.14195995032787323, -0.2279471904039383, 0.1409616321325302, 0.15889599919319153, 0.14398156106472015, -0.21501493453979492, -0.005363318603485823, 0.025591839104890823, 0.321667343378067, 0.10161782801151276, 0.16478778421878815, 0.23025673627853394, -0.09021762013435364, 0.16006799042224884, 0.22893446683883667, -0.1464853137731552, 0.10491076856851578, -0.01183925662189722, 0.14398543536663055, -0.23319441080093384, -0.09912232309579849, -0.042979028075933456, -0.08766135573387146, -0.062228672206401825, -0.15124961733818054, 0.1896202266216278, -0.10902399569749832, -0.17564722895622253, 0.28285714983940125, -0.12809312343597412, 0.06607484072446823, 0.20218287408351898, -0.16092649102210999, -0.02496313862502575, -0.033384136855602264, -0.23241381347179413, 0.2880533039569855, -0.025785621255636215, 0.059183716773986816, 0.0013389377854764462, 0.2487029731273651, 0.043336596339941025, -0.15673859417438507, -0.1038050577044487, 0.26567474007606506, 0.1136731430888176, 0.2666827142238617, -0.04332809895277023, -0.12018224596977234, -0.09003834426403046, 0.07141956686973572, 0.22109878063201904, 0.09096106886863708, 0.09726974368095398, -0.13228580355644226, -0.2640586495399475, 0.20393241941928864, 0.023414842784404755, 0.21138721704483032, 0.10352730005979538, 0.015015937387943268, -0.31184065341949463, -0.007317636627703905, -0.29052790999412537, 0.009267219342291355, 0.19230400025844574, 0.08699783682823181, 0.1723184585571289, -0.04869397357106209, 0.06427395343780518, 0.20713548362255096, 0.30411431193351746, -0.14546874165534973, -0.3797639310359955, 0.10186772793531418, -0.25957879424095154, 0.042585209012031555, 0.05770118534564972, 0.16743119060993195, 0.12459321320056915, -0.15790623426437378, 0.21006378531455994, 0.4044087827205658, -0.4741668701171875, 0.08025351166725159, 0.006858691573143005, -0.005039933603256941, -0.03281150758266449, -0.5226758718490601, -0.2719137668609619, 0.18951630592346191, 0.2796085774898529, -0.1699065864086151, -0.013645467348396778, -0.40928712487220764, 0.33116522431373596, 0.11933039128780365, 0.21824386715888977, -0.16616953909397125, -0.4107908308506012, -0.20268984138965607, 0.39784252643585205, -0.009857731871306896, 0.3291172683238983, -0.17984071373939514, 0.005130821838974953, -0.2678752541542053, 0.18317371606826782, 0.05032031983137131, 0.22071513533592224, 0.007891007699072361, 0.045462194830179214, -0.27435967326164246, -0.05735576152801514, -0.21178394556045532, 0.3772784173488617, -0.22035056352615356, -0.04185580089688301, -0.3564727008342743, 0.04080834984779358, -0.06274493783712387, -0.06548993289470673, 0.07456903159618378, 0.14335590600967407, -0.2356775999069214, 0.29518046975135803, -0.1322871595621109, -0.021710053086280823, -0.07020758837461472, -0.027859633788466454, -0.04397638142108917, -0.03862446919083595, -0.17061170935630798, 0.2818185091018677, -0.3487856388092041, 0.16242852807044983, 0.09266402572393417, -0.033216431736946106, 0.009579353034496307, 0.15784059464931488, -0.0034565480891615152, -0.11157992482185364, -0.017199411988258362, 0.18307240307331085, 0.2814265191555023, -0.203643336892128, 0.04395787790417671, 0.1696513146162033, -0.240279421210289, 0.12525197863578796, -0.2216455191373825, 0.08740109205245972, -0.0036805840209126472, -0.25710636377334595, -0.062109895050525665, 0.030496980994939804, 0.026167141273617744, 0.09110694378614426, 0.17555615305900574, 0.036850836127996445, 0.0013109570136293769, -0.12676475942134857, 0.014075868763029575, -0.17959627509117126, -0.04302237927913666, -0.08881375938653946, -0.009746418334543705, -0.17286914587020874, 0.016072547063231468, 0.1504489779472351, -0.11995749920606613, -0.04429589584469795, -0.006822481751441956, -0.40912848711013794, -0.17997509241104126, -0.11133120208978653, 0.08679404854774475, -0.06481803208589554, -0.19242556393146515, -0.12689028680324554, -0.1110062375664711, 0.026685470715165138, 0.36815035343170166, -0.023870179429650307, -0.11314670741558075, 0.015557507053017616, 0.2543257772922516, 0.2170664519071579, -0.32017937302589417, -0.33910682797431946, 0.0530097596347332, 0.1860402524471283, -0.3223225772380829, -0.26942136883735657, 0.31145647168159485, -0.4097304940223694, 0.1642923206090927, 0.1989239752292633, 0.14428099989891052, 0.11874322593212128, -0.29667434096336365, 0.08020997792482376, 0.3397921323776245, -0.4116683602333069, 0.18285325169563293, -0.1591133326292038, 0.009981101378798485, -0.11724072694778442, 0.13168931007385254, -0.09840810298919678, -0.0884096696972847, 0.03201038017868996, 0.06243858113884926, 0.08441486954689026, -0.07289039343595505, -0.8279091715812683, 0.5311338901519775, -0.324667364358902, -0.7867399454116821, 0.34824469685554504, 0.4592624604701996, -0.7887862920761108, -0.23146219551563263, 0.06336011737585068, 0.12075482308864594, 0.14096176624298096, -0.02654702216386795, -0.14062276482582092, 0.2961968779563904, 0.22234375774860382, 0.3564682602882385, 0.08368657529354095, -0.04567435383796692, -0.023832863196730614, -0.4613288342952728, 0.017089178785681725, 0.3533417880535126, 0.2854594886302948, -0.05414992570877075, 0.1583416908979416, -0.16274356842041016, 0.13504435122013092, -0.29810670018196106, -0.13045251369476318, -0.3225317895412445, 0.2675343453884125, -0.09460446238517761, 0.14704331755638123, -0.5034340620040894, 0.29174768924713135, 0.09696859121322632, 0.22779375314712524, 0.14800824224948883, 0.12488611787557602, 0.3415835499763489, -0.016880447044968605, -0.2642677426338196, -0.22651702165603638, 0.3383796811103821, -0.2951011061668396, -0.07072465866804123, -0.18180027604103088, -0.14199483394622803, 0.35267502069473267, -0.4436465799808502, 0.11794587969779968, -0.13589558005332947, -0.10502461344003677, -0.1997031420469284, 0.037821587175130844, 0.22972455620765686, -0.1568516045808792, 0.38109901547431946, -0.36717942357063293, -0.4333869516849518, 0.11406530439853668, 0.0007079985225573182, -0.21889522671699524, -0.6280378103256226, 0.10386701673269272, 0.01211418304592371, -0.1700320541858673, -0.2900124788284302, 0.010221708565950394, -0.4523426592350006, -0.3934098780155182, 0.07183937728404999, -0.0016538030467927456, -0.2337605059146881, -0.12725603580474854, -0.022666219621896744, -0.17191994190216064, -0.08484392613172531, -0.21233180165290833, -0.26043885946273804, 0.04859361797571182, -0.17478644847869873, 0.010366139002144337, 0.07856781035661697, 0.09234695881605148, 0.2701154351234436, -0.14841221272945404, -0.11894906312227249, 0.07192034274339676, 0.014174345880746841, 0.17509926855564117, -0.017795011401176453, -0.14575651288032532, -0.07486161589622498, -0.16707339882850647, 0.1164628118276596, 0.19296348094940186, -0.4102546274662018, -0.15148720145225525, -0.17222750186920166, -0.14332535862922668, -0.041977059096097946, 0.16163596510887146, -0.24240051209926605, -0.26013660430908203, -0.10760179162025452, 0.28800201416015625, -0.05392017215490341, 0.01774044893682003, 0.17198880016803741, -0.16380774974822998, -0.08047940582036972, -0.12687435746192932, -0.13711069524288177, -0.1270574927330017, 0.27557817101478577, -0.06811963021755219, -0.47680187225341797, 0.027718886733055115, 0.17809529602527618, 0.003440860891714692, -0.18063969910144806, -0.08287039399147034, 0.12621453404426575, -0.33952653408050537, -0.036049067974090576, 0.05222354829311371, -0.12319497764110565, 0.106851726770401, 0.1479383409023285, -0.14288632571697235, -0.2184656709432602, -0.11348727345466614, 0.030517758801579475, 0.1912611722946167, 0.013780064880847931, -0.26176440715789795, -0.08452801406383514, 0.07541165500879288, -0.021071981638669968, 0.22780539095401764, 0.10727342218160629, 0.06269701570272446, -0.0988704115152359, -0.051820773631334305, 0.24846336245536804, -0.07049968838691711, -0.08367426693439484, 0.4814964234828949, -0.12736187875270844, 0.016606852412223816, 0.05105786770582199, 0.13262738287448883, 0.05903292074799538, -0.0503341369330883, -0.010404245927929878, 0.03997479006648064, -0.15234999358654022, 0.013458535075187683, -0.034083735197782516, -0.21021699905395508, -0.14865431189537048, -0.17499041557312012, -0.17760668694972992, -0.15611210465431213, -0.5245035886764526, -0.47213485836982727, -0.28735679388046265, 0.014079014770686626, 0.39108553528785706, -0.05688507482409477, -0.1514229029417038, 0.10397406667470932, -0.14662061631679535, 0.11451064795255661, 0.19847173988819122, 0.07971681654453278, 0.1519467830657959, -0.3593997061252594, -0.09214770048856735, -0.004388896282762289, 0.26413995027542114, 0.3429851233959198, 0.3258153796195984, -0.24843424558639526, 0.05693718418478966, 0.11865673214197159, -0.5674905776977539, 0.20700350403785706, 0.20256802439689636, 0.041999805718660355, -0.2496781349182129, -0.21602852642536163, 0.18726129829883575, 0.02149171754717827, -0.19640348851680756, 0.5732481479644775, -0.23803848028182983, -0.23699717223644257, 0.06569439172744751, 0.20801913738250732, 0.08855823427438736, -0.041341181844472885, 0.1840389519929886, 0.08040007948875427, -0.23852242529392242, 0.18605312705039978, 0.19930629432201385, 0.06768147647380829, -0.1570969521999359, 0.19157497584819794, 0.14225836098194122, -0.1680845469236374, 0.19344931840896606, 0.13467517495155334, -0.2658606767654419, -0.00038757018046453595, 0.26862388849258423, 0.12260149419307709, 0.13445661962032318, 0.13409899175167084, 0.06924913823604584, -0.031442414969205856, 0.2802797853946686, -0.2196549028158188, -0.2524450719356537, 0.12284404039382935, 0.030925126746296883, 0.2393048256635666, 0.15743735432624817, 0.07545262575149536, -0.04138193652033806, -0.03791097179055214, -0.024593258276581764, -0.05427305027842522, 0.035326119512319565, -0.03333376720547676, -0.3401223421096802, 0.004738954361528158, 0.31613606214523315, 0.035655464977025986, -0.2569069564342499, 0.05464017763733864, 0.13012172281742096, -0.04293261468410492, 0.030555836856365204, -0.07652580738067627, -0.36102330684661865, 0.17336763441562653, -0.04696549475193024, -0.10883830487728119, -0.22124728560447693, -0.01031084731221199, -0.02562008425593376, 0.19368475675582886, 0.17939576506614685, -0.10820355266332626, 0.14379236102104187, -0.07615441828966141, -0.27372145652770996, -0.023910652846097946, 0.10594529658555984, 0.007330503314733505, -0.10934573411941528, 0.007661758456379175, 0.13076749444007874, 0.11027137190103531, 0.1281711608171463, -0.1506078988313675, -0.25191810727119446, 0.20251502096652985, 0.3014313876628876, 0.008174155838787556, 0.036583300679922104, -0.029655760154128075, -0.03988945856690407, -0.06390751898288727, 0.11930099129676819, 0.04961628466844559, -0.06541327387094498, 0.07741044461727142, -0.5045008659362793, -0.26331380009651184, -0.9312775135040283, 0.8541597723960876, 0.3071870803833008, -0.4589642882347107, -0.30370691418647766, 0.12436734884977341, -0.0599866658449173, 0.16446267068386078, -0.007992587052285671, -0.30158326029777527, 0.06437870115041733, -0.09133575111627579, 0.3007388412952423, -0.13029082119464874, -0.13840921223163605, 0.19995135068893433, -0.35347452759742737, 0.2285429984331131, 0.3971792161464691, -0.12609700858592987, 0.22509588301181793, 0.23946647346019745, 0.5925055146217346, -0.08149784803390503, 0.2896896004676819, -0.5028713345527649, -0.16302616894245148, 0.13795292377471924, -0.1554180234670639, 0.22378191351890564, 0.4759424924850464, -0.24811457097530365, 0.11697781831026077, -0.41201624274253845, 0.1076761931180954, 0.12756314873695374, -0.087308369576931, -0.26298555731773376, 0.29040011763572693, 0.03655316308140755, 0.24362939596176147, -0.5000821352005005, -0.09188811480998993, -0.1628558188676834, 0.16384123265743256, -0.0457935556769371, 0.009730909019708633, -0.1942378580570221, -0.06274104863405228, 0.24546921253204346, -0.1797926276922226, 0.06308536976575851, 0.00873574335128069, 0.2684613764286041, 0.2503392696380615, -0.0396105982363224, 0.0754764974117279, -0.11969796568155289, 0.4052519202232361, 0.06931423395872116, 0.3098302483558655, 0.25906696915626526, 0.42643389105796814, 0.0010536821791902184, -0.1719580441713333, -0.2014768272638321, -0.3297124207019806, 0.37792423367500305, -0.10630878061056137, 0.085787832736969, -0.2432001531124115, -0.21010665595531464, 0.15402303636074066, 0.12981851398944855, -0.03350673243403435, 0.2499697208404541, -0.13528026640415192, -0.21303488314151764, -0.28582483530044556, 0.1602521538734436, -0.2912091016769409, 0.016978302970528603, 0.18270350992679596, 0.049693603068590164, -0.2069137543439865, -0.006433318369090557, -0.055130813270807266, -0.08826980739831924, 0.017905833199620247, -0.05488542839884758, -0.1626317948102951, -0.03988909721374512, 0.29471102356910706, 0.019377104938030243, -0.183845654129982, 0.22778259217739105, 0.1300286054611206, 0.028293294832110405, 0.12558327615261078, -0.047714173793792725, -0.20390276610851288, 0.09060594439506531, -0.06451745331287384, -0.26225683093070984, -0.06910964846611023, 0.015654100105166435, 0.007566944230347872, 0.0022197789512574673, 0.16983018815517426, -0.39218100905418396, -0.03940119221806526, -0.0796990767121315, -0.5546643733978271, 0.027272773906588554, 0.030415786430239677, -0.378852516412735, 0.10031818598508835, -0.02310227043926716, -0.012099875137209892, -0.014761674217879772, -0.07237084209918976, 0.22906208038330078, -0.057283174246549606, -0.03776008263230324, -0.289031445980072, 0.13711288571357727, 0.02841394953429699, 0.1809314340353012, 0.2034234255552292, 0.09733272343873978, 0.13975012302398682, 0.03945646807551384, -0.3380123972892761, 0.16883240640163422, 0.011895107105374336, 0.08757730573415756, 0.2245163470506668, 0.13777822256088257, -0.0022900348994880915, -0.07158362120389938, -0.017173616215586662, 0.32910770177841187, 0.05708114430308342, -0.14088457822799683, -0.13967764377593994, -0.4900946617126465, -0.1134190633893013, 0.21542192995548248, -0.08834822475910187, 0.2147408425807953, 0.1844736635684967, -0.18553198873996735, 0.004370339214801788, 0.1963491290807724, 0.05019218474626541, 0.006061415188014507, 0.012928571552038193, 0.19478069245815277, 0.023801986128091812, 0.13723249733448029, 0.11654600501060486, 0.011819606646895409, -0.1499340534210205, -0.028998401015996933, 0.09415289014577866, -0.0709664523601532, 0.08476309478282928, 0.15576742589473724, 0.04733472689986229, 0.26276710629463196, -0.3324771225452423, -0.020928217098116875, 0.10600445419549942, -0.15069521963596344, 0.04674408957362175, -0.14250816404819489, -0.08090131729841232, -0.1367851048707962, 0.5133097171783447, 0.02592531405389309, 0.08984440565109253, -0.3693217635154724, -0.1199769601225853, -0.04409569129347801, -1.042594075202942, 0.0706627294421196, 0.10050684213638306, -0.3865430951118469, -0.03881338611245155, -0.008174112066626549, 0.07008431851863861, -0.1076248288154602, -0.1791086494922638, 0.5792466402053833, 0.12822632491588593, -0.3218437731266022, -0.26621919870376587, 0.080019511282444, 0.04649195447564125, -0.0013710105558857322, 0.1739111840724945, 0.1896035373210907, -0.07308004796504974, -0.12417267262935638, 0.10513236373662949, -0.03642754629254341, 0.16501910984516144, 0.07504281401634216, 0.11076969653367996, 0.0031281427945941687, 0.0037106587551534176, 0.2142738401889801, -0.04243271052837372, -0.24905653297901154, 0.3628004491329193, -0.13764244318008423, -0.10731640458106995, 0.022811492905020714, -0.18070389330387115, -0.23699013888835907, 0.2336207926273346, 0.1779351383447647, 0.07352067530155182, -0.2006775289773941, -0.08971113711595535, -0.36316338181495667, -0.41046738624572754, -0.06879090517759323, 0.06176832318305969, -0.08778764307498932, -0.12114568799734116, -0.10919798165559769, -0.05847461149096489, 0.09046494960784912, -0.03247302770614624, 0.14703992009162903, -0.25628209114074707, -0.2534744143486023, 0.23881590366363525, -0.19743606448173523, 0.041949547827243805, 0.30857205390930176, -0.36689016222953796, -0.06698024272918701, 0.2398008108139038, 0.11752742528915405, -0.1450260877609253, 0.14359094202518463, 0.01760905794799328, 0.04847818240523338, -0.18646202981472015, -0.16286975145339966, -0.012457295320928097, 0.34427082538604736, 0.11709187179803848, -0.0488857626914978, 0.5215975046157837, 0.007642738986760378, -0.11329920589923859, 0.3785392940044403, 0.04979011043906212, 0.07871910184621811, -0.16456221044063568, 0.038076285272836685, 0.04532754793763161, -0.38385435938835144, -0.031011439859867096, 0.21016144752502441, 0.10575196146965027, -0.015484240837395191, 0.04870540276169777, -0.07394842803478241, -0.016341425478458405, 0.1446067988872528, -0.05074462294578552, 0.22569704055786133, 0.06384658068418503, -0.5511716604232788, 0.1607145518064499, -0.04335273057222366, -0.06341824680566788, -0.5216852426528931, 0.1593841314315796, -0.6407073140144348, 0.3773614466190338, 0.03433454409241676, -0.03703241050243378, -0.20119024813175201, 0.056882403790950775, -0.25277116894721985, -0.23554332554340363, -0.37949100136756897, 0.30685722827911377, 0.07191713899374008, 0.19950692355632782, 0.4137163758277893, 0.2327289879322052, 0.5139294266700745, 0.4259014427661896, 0.018564580008387566, -0.05161644518375397, 0.43336623907089233, -0.13752992451190948, -0.30919891595840454, -0.17653478682041168, -0.14529827237129211, 0.32487183809280396, 0.19282963871955872, 0.2788048982620239, 0.012765388004481792, -0.06379947066307068, -0.3886969983577728, -0.6446235775947571, 0.2236487865447998, -0.3127647638320923, -0.35781392455101013, -0.22246190905570984, -0.1699191778898239, -0.18256965279579163, 0.14570222795009613, -0.005354426801204681, -0.6023746728897095, -0.27081620693206787, 0.044265978038311005, 0.17329804599285126, 0.2032148540019989, -0.22156475484371185, 0.08375516533851624, -0.0534818209707737, -0.2744569182395935, -0.3325929343700409, -0.04560551047325134, 0.2100307196378708, -0.08015328645706177, 0.13131114840507507, -0.11023452877998352, 0.33363834023475647, 0.38753193616867065, 0.21685968339443207, 0.3458483815193176, 0.24159826338291168, 0.22931046783924103, -0.06593813747167587, -0.056164782494306564, -0.24942436814308167, 0.30621081590652466, -0.36240154504776, -0.3605533242225647, 0.048780716955661774, -0.3105345070362091, 0.20475202798843384, -0.06339754909276962, -0.20957916975021362, 0.035058166831731796, -0.296256422996521, -0.14913040399551392, 0.21652568876743317, -0.222513347864151, -0.11950717121362686, 0.06306925415992737, -0.12863297760486603, -0.0060316165909171104, -0.13156010210514069, 0.019154509529471397, 0.19872470200061798, -0.17410551011562347, 0.21326205134391785, -0.14010925590991974, -0.28833502531051636, -0.053841061890125275, -0.1985313892364502, 0.005138246808201075, 0.015593092888593674, 0.08552925288677216, -0.2324487566947937, 0.1489180475473404, -0.05985237658023834, 0.07104805111885071, 0.23460924625396729, 0.3157479166984558, -0.03312448412179947, -0.08966761082410812, -0.1921464055776596, 0.12287374585866928, -0.14727988839149475, 0.10137862712144852, 0.05960885435342789, -0.04047688469290733, -0.11762586236000061, 0.04479669779539108, -0.060035817325115204, -0.03940312936902046, -0.09367967396974564, -0.002423148602247238, 0.0828065350651741, 0.14881522953510284, 0.09242263436317444, 0.18962372839450836, -0.16304518282413483, 0.0716579481959343, 0.22786803543567657, 0.037352304905653, 0.25904035568237305, 0.08846447616815567, -0.13453543186187744, 0.0420689657330513, -0.06842806935310364, 0.1873127818107605, 0.18789416551589966, -0.05527418479323387, 0.31488391757011414, 0.19175198674201965, 0.04556723311543465, 0.07929851114749908, -0.0009580104378983378, 0.08841432631015778, 0.1706990748643875, -0.1340447962284088, -0.11778996139764786, -0.11309472471475601, 0.034484997391700745, 0.0824999287724495, -0.07690740376710892, -0.03071221150457859, 0.0034584100358188152, 0.056365177035331726, -0.178887739777565, -0.09990739077329636, 0.2699431777000427, -0.027119362726807594, 0.049889326095581055, -0.1262221783399582, 0.08328322321176529, 0.2281239777803421, -0.08570978790521622, 0.11401402950286865, 0.23627173900604248, 0.1362558752298355, -0.10029999911785126, -0.1558438092470169, 0.14112964272499084, -0.06441397964954376, 0.05689217150211334, 0.016531452536582947, 0.020541079342365265, -0.18463832139968872, 0.017388399690389633, -0.0040219915099442005, -0.02607831545174122, 0.15715225040912628, -0.07515239715576172, -0.14105072617530823, 0.07662203907966614, 0.18427163362503052, 0.149276003241539, -0.17562513053417206, -0.07362562417984009, 0.05272702872753143, 0.1301814615726471, -0.06729670614004135, 0.09483028948307037, 0.11298922449350357, -0.12802369892597198, -0.16231435537338257, -0.07279972732067108, 0.15360645949840546, -0.028937939554452896, -0.061881281435489655, -0.11848482489585876, -0.19889603555202484, 0.23660297691822052, -0.1881369799375534, -0.11162713915109634, -0.051860421895980835, -0.019457576796412468, -0.27805373072624207, 0.22025762498378754, -0.1764831244945526, -0.016393505036830902, -0.2810719609260559, 0.0738496482372284, 0.08822677284479141, 0.01313190720975399, 0.2228745073080063, 0.09639186412096024, 0.06078971177339554, 0.09703303873538971, 0.17500634491443634, -0.09268233180046082, -0.09793997555971146, -0.20338425040245056, 0.03422829508781433, -0.19896338880062103, -0.176055908203125, 0.177870973944664, -0.02705252729356289, -0.03712434321641922, -0.016764383763074875, 0.02732294425368309, -0.1651732623577118, 0.008584408089518547, 0.07229263335466385, -0.0030272426083683968, 0.11751171201467514, -0.010581037029623985, 0.28293269872665405, 0.374504417181015, -0.11096426844596863, 0.05957350134849548, -0.2047613263130188, 0.19599778950214386, -0.007644291501492262, -0.05852166935801506, -0.1553560197353363, -0.20316192507743835, -0.0005034188507124782, 0.29965025186538696, 0.4935760498046875, 0.00809111725538969, 0.051624417304992676, -0.11488332599401474, -0.03746423125267029, 0.11550632864236832, 0.2293274998664856, 0.05596894025802612, 0.22431309521198273, 0.058891162276268005, -0.15666736662387848, 0.11035891622304916, 0.006846465170383453, 0.000597488833591342, 0.09099098294973373, 0.1720067858695984, -0.14093495905399323, -0.03892592340707779, -0.031240997835993767, 0.11295132339000702, -0.04223770648241043, -0.07686416059732437, 0.3385411202907562, -0.2107146978378296, -0.21583732962608337, 0.23527219891548157, 0.018887076526880264, -0.12136006355285645, -0.02499053068459034, 0.023678019642829895, -0.1118604987859726, 0.2933503985404968, 0.266610324382782, -0.06663277745246887, -0.18312285840511322, -0.21121451258659363, 0.03762497380375862, -0.05374569073319435, -0.18667496740818024, -0.06442944705486298, -0.33399268984794617, -0.10215199738740921, 0.0034729535691440105, 0.502572774887085, 0.6775256395339966, -0.24297946691513062, -0.7716014981269836, -0.26769760251045227, 0.019124411046504974, 0.0072556594386696815, 0.020833101123571396, 0.187557652592659, 0.11986201256513596, 0.08301210403442383, -0.04693222418427467, -0.19322985410690308, 0.028608208522200584, -0.1071571409702301, 0.008565559983253479, -0.14492976665496826, -0.41266798973083496, 0.23547331988811493, 0.03569958359003067, -0.24755941331386566, 0.3617553114891052, -0.0020567728206515312, 0.06422267109155655, 0.4385857880115509, -0.005524246022105217, 0.15788467228412628, 0.21317148208618164, 0.18564395606517792, -0.13626688718795776, -0.4368426501750946, -0.1594894975423813, 0.13311165571212769, 0.018847353756427765, -0.10853404551744461, 0.168606236577034, -0.153887540102005, 0.07733633369207382, -0.08778032660484314, -0.4409487843513489, -0.30695396661758423, 0.06325294822454453, 0.06460820883512497, 0.2648196518421173, -0.13431760668754578, 0.15481509268283844, 0.36039796471595764, -0.24835598468780518, -0.28284507989883423, -0.4421442449092865, -0.08652489632368088, -0.02922949381172657, -0.19361723959445953, -0.1621749997138977, -0.02268064394593239, 0.138325035572052, 0.24568353593349457, 0.3578442931175232, -0.32926714420318604, -0.07352253049612045, 0.15660372376441956, 0.5545204877853394, 0.28659921884536743, -0.2696746587753296, -0.4464717507362366, 0.0033514807000756264, -0.25447404384613037, 0.26451534032821655, 0.04790794104337692, 0.3908068537712097, -0.06946875900030136, -0.20542150735855103, 0.34492313861846924, -0.048041511327028275, -0.07328654825687408, -0.29472216963768005, -0.10562022775411606, 0.11072197556495667, 0.35231709480285645, -0.1338694840669632, -0.5736628770828247, -0.2624058723449707, -0.7203932404518127, 0.23321042954921722, -0.29512834548950195, 0.55333012342453, 0.8493581414222717, 0.13430331647396088, -0.6634753942489624, -0.6630799174308777, -0.6501755714416504, 0.3282392621040344, -0.07259314507246017, 0.5764029622077942, 0.490292489528656, 0.36203235387802124, -0.8008590340614319, -0.29780614376068115, -0.10525137931108475, -0.12350791692733765, -0.3368266522884369, -0.15392348170280457, -0.5931766629219055, -0.3683224618434906, 0.6958836317062378, 0.41096287965774536, 0.4541206657886505, -0.3308531641960144, 0.41471871733665466, 0.33587896823883057, 0.019153844565153122, -0.07747706770896912, 0.21937698125839233, 0.260301798582077, -0.11459162086248398, -0.3292381763458252, 0.2313682585954666, -0.3077421188354492, 0.37246978282928467, -0.3234419822692871, 0.1058112233877182, -0.23618745803833008, 0.19777223467826843, 0.35447391867637634, 0.27296143770217896, 0.0063059404492378235, 0.399169921875, 0.0161199402064085, -0.1391049176454544, -0.3277086913585663, -0.22549031674861908, 0.11457037180662155, -0.11969774961471558, 0.027433624491095543, -0.09209578484296799, 0.2800191342830658, -0.02231929637491703, -0.006650087423622608, 0.4369811713695526, -0.22920820116996765, 0.3889922797679901, -0.10371053218841553, 0.006337781436741352, 0.0672137588262558, 0.003855278715491295, 0.006311879958957434, -0.3198607563972473, -0.008266040123999119, 0.007185081485658884, -0.2737736403942108, 0.07888144999742508, 0.053920842707157135, 0.5897485017776489, 0.010183828882873058, -0.04824325814843178, 0.22405242919921875, 0.0807315930724144, 0.03150396794080734, -0.08246586471796036, -0.10000860691070557, 0.03868040814995766, -0.07523686438798904, 0.06616968661546707, 0.101558156311512, 0.13618673384189606, 0.10060965269804001, 0.05672719329595566, -0.06747634708881378, 0.2283111959695816, 0.22218148410320282, -0.07943417876958847, 0.19293658435344696, -0.15620574355125427, -0.11350323259830475, 0.18341977894306183, -0.05904664471745491, -0.09860574454069138, -0.19093945622444153, -0.07498601078987122, 0.22232525050640106, -0.12380746752023697, -0.3190591633319855, 0.20362868905067444, 0.121529720723629, 0.25028353929519653, 0.02880285680294037, 0.09881962090730667, -0.16350944340229034, 0.11090946942567825, -0.07725214958190918, -0.22772426903247833, -0.19156689941883087, 0.07618813961744308, -0.2804073095321655, -0.017013870179653168, -0.3717876672744751, 0.33686363697052, -0.1512230634689331, -0.21908949315547943, -0.17130906879901886, -0.6088989973068237, 0.5206566452980042, -0.18191562592983246, -0.0010606618598103523, -0.27898702025413513, 0.1087292730808258, 0.24512609839439392, 0.014965662732720375, 0.212264746427536, -0.3222505450248718, -0.18795278668403625, 0.07791569083929062, 0.09782268106937408, 0.4332241117954254, 0.3653358519077301, 0.048162076622247696, -0.21831132471561432, 0.042014025151729584, 0.0703592523932457, 0.232664093375206, 0.014866416342556477, -0.01845691166818142, 0.07843651622533798, 0.1080547422170639, 0.31953445076942444, -0.1818510890007019, 0.019000206142663956, 0.04758621007204056, -0.01124496478587389, -0.18520687520503998, 0.1056973785161972, 0.2034209817647934, -0.11384686827659607, -0.006692566908895969, -0.17572009563446045, 0.11469034105539322, 0.09544569253921509, -0.04355330020189285, 0.029190847650170326, 0.012094620615243912, 0.1800166517496109, -0.006549709476530552, 0.0095902681350708, -0.11473926901817322, 0.08830037713050842, 0.14016851782798767, -0.46708887815475464, -0.11248187720775604, -0.2232334166765213, -0.4701509177684784, 0.04096737876534462, -0.033734992146492004, -0.1664905995130539, -0.09937073290348053, 0.009213807992637157, -0.05860862880945206, -0.09770414978265762, -0.30426448583602905, 0.16476571559906006, 0.11264724284410477, 0.216841921210289, 0.18398842215538025, 0.14756618440151215, -0.08392060548067093, 0.027211405336856842, 0.10836553573608398, -0.2980596721172333, -0.08348601311445236, -0.0703810304403305, 0.3404256999492645, -0.41825175285339355, -0.29382622241973877, 0.08487872034311295, -0.22098252177238464, -0.29863297939300537, 0.17875099182128906, -0.14165273308753967, -0.13847124576568604, 0.3237546682357788, -0.10078063607215881, -0.3133530914783478, 0.3123059570789337, 0.15100301802158356, 0.08657936751842499, 0.15085779130458832, 0.26403242349624634, 0.05119243636727333, -0.19380168616771698, -0.033953309059143066, 0.3143790066242218, -0.08677975833415985, 0.27730080485343933, -0.46454083919525146, -0.05847764387726784, 0.14881949126720428, 0.12687058746814728, 0.06632973253726959, -0.05118655785918236, -0.19049687683582306, -0.18418200314044952, 0.3426661789417267, 0.04172981530427933, -0.1635056734085083, 0.017629778012633324, 0.014472697861492634, -0.04843258857727051, -0.20960120856761932, -0.10813964903354645, -0.15916776657104492, -0.27862945199012756, -0.28642016649246216, 0.21907885372638702, 0.09858535975217819, -0.09862871468067169, 0.13577723503112793, -0.14769399166107178, -0.07329747825860977, 0.013661653734743595, -0.0598817877471447, 0.25863876938819885, -0.037840720266103745, -0.17050132155418396, -0.4960583746433258, 0.0580427460372448, 0.09570111334323883, 0.06232829764485359, 0.00864282064139843, -0.13591602444648743, -0.06739729642868042, 0.011774630285799503, -0.15180622041225433, -0.1676427572965622, 0.0261284988373518, 0.04650173336267471, -0.07311452925205231, -0.045043207705020905, -0.19526535272598267, 0.3329440951347351, 0.0266288872808218, 0.020556770265102386, 0.057644061744213104, 0.060095831751823425, -0.155301034450531, -0.2940880060195923, 0.16077211499214172, 0.9184760451316833, 0.47690078616142273, 1.0713353157043457, 0.36474812030792236, -0.10782590508460999, -0.26458120346069336, -0.4380955398082733, -0.15068571269512177, -0.13123051822185516, 0.17560839653015137, -0.22846846282482147, -0.24613699316978455, 0.12966182827949524, -0.10922908782958984, -0.05238117277622223, 0.183345228433609, 0.2965947389602661, 0.3975760340690613, -0.002806715667247772, -0.05521874502301216, 0.38619980216026306, -0.3023216724395752, -0.18222370743751526, 0.3507237434387207, -0.03752957656979561, -0.15372776985168457, -0.011146885342895985, -0.3662793040275574, -0.5081353783607483, -0.22409909963607788, -0.2652546167373657, -0.2696765065193176, 0.1381877362728119, 0.03605107218027115, 0.534034788608551, 0.05496456101536751, 0.2246542125940323, 0.24576006829738617, -0.036601874977350235, 0.06946146488189697, -0.3357250988483429, -0.17717616260051727, -0.03571287542581558, -0.2168797105550766, 0.15241700410842896, 0.07761800289154053, 0.08753983676433563, -0.14706632494926453, 0.23558703064918518, -0.0408095046877861, -0.3484930396080017, -0.3897871971130371, -0.6793422698974609, -0.08929085731506348, -0.2729930281639099, -0.3273097276687622, 0.21903195977210999, 0.23006458580493927, 0.26085570454597473, -0.14682918787002563, -0.096928671002388, 0.03464904800057411, 0.30473682284355164, -0.10306395590305328, 0.049631040543317795, -0.41263216733932495, -0.012704961001873016, 0.22606819868087769, -0.4787258803844452, -0.19478224217891693, 0.24146416783332825, 0.05175427719950676, 0.13437184691429138, -0.03660649433732033, 0.009618887677788734, 0.35580989718437195, -0.5713969469070435, 0.5773425102233887, 0.3977070748806, -0.49270308017730713, 0.06785289198160172, -0.20545879006385803, 0.014734811149537563, -0.17507730424404144, -0.2425365298986435, 0.33529165387153625, -0.010236709378659725, 0.13247345387935638, -0.30196332931518555, -0.1677105873823166, -0.43705829977989197, 0.5018282532691956, -0.1367633193731308, -0.008445284329354763, -0.08278500288724899, -0.27559730410575867, -0.2081633061170578, -0.5637997388839722, 0.07236923277378082, 0.06917110830545425, -0.049174364656209946, 0.3046413064002991, 0.020242664963006973, -0.047792837023735046, 0.0904286801815033, -0.2038089781999588, -0.26472124457359314, 0.12952202558517456, -0.23526236414909363, 0.10283616185188293, 0.08927622437477112, -0.029490238055586815, 0.274235337972641, -0.08397594839334488, -0.2555910050868988, -0.17137262225151062, -0.32520899176597595, -0.18825113773345947, -0.058188725262880325, -0.6439232230186462, 0.196041539311409, 0.2885695695877075, 0.1819925457239151, -0.25780153274536133, 0.34877029061317444, 0.18426057696342468, 0.30517593026161194, -0.2202948033809662, -0.22554999589920044, 0.003039480885490775, -0.2226158082485199, -0.06069331243634224, 0.3313767611980438, 0.165959432721138, 0.008373192511498928, 0.0671859011054039, 0.22922922670841217, -0.056791845709085464, 0.0729915201663971, 0.2357933223247528, 0.16959327459335327, -0.3128904700279236, 0.373287558555603, 0.2946316599845886, 0.0329115130007267, 0.0517067052423954, -0.015658924356102943, 0.2344842404127121, -0.13929831981658936, -0.15620654821395874, 0.41135740280151367, -0.15097124874591827, -0.17745721340179443, 0.45667707920074463, -0.03296532854437828, -0.2538166046142578, -0.34753069281578064, 0.3260118067264557, -0.005680588539689779, -0.5012428760528564, 0.4194522798061371, -0.045852139592170715, -0.39949241280555725, 0.14216682314872742, 0.42955562472343445, 0.0038733212277293205, -0.312796413898468, 0.13555248081684113, -0.14633262157440186, -0.1729738712310791, -0.3153640627861023, -0.14542150497436523, -0.2645050585269928, -0.12013706564903259, -0.338472843170166, 0.4536806643009186, 0.16984227299690247, 0.03590840473771095, 0.1737077236175537, -0.11213197559118271, -0.24671368300914764, -0.10574205964803696, 0.02252584509551525, 0.19769705832004547, 0.06690549850463867, -0.17599239945411682, -0.2762720584869385, 0.23124486207962036, 0.0957469791173935, 0.25397536158561707, -0.32541415095329285, -0.17714451253414154, -0.11605057120323181, 0.03594061732292175, -0.02259862795472145, -0.2857753038406372, 0.04652053862810135, 0.12670230865478516, 0.15935152769088745, -0.08206252008676529, 0.0948045626282692, 0.15100480616092682, -0.2748820185661316, -0.022985203191637993, -0.014638816937804222, 0.27005141973495483, -0.10636739432811737, -0.6116892695426941, -0.11087195575237274, 0.3465680778026581, -0.09367312490940094, -0.1718042939901352, -0.1705009490251541, -0.3224998712539673, 0.06651747226715088, -0.27561378479003906, -0.1910296380519867, 0.10891689360141754, 0.2727360427379608, 0.05719388648867607, -0.018787046894431114, -0.21579766273498535, 0.22858989238739014, 0.04970235005021095, 0.5933409929275513, -0.05003756657242775, 0.01773284748196602, -0.05904828757047653, 0.48910611867904663, 0.1276082545518875, -0.06635178625583649, 0.25638365745544434, -0.28039228916168213, 0.39826375246047974, 0.33047011494636536, -0.47389110922813416, -0.4685421586036682, -0.1164255365729332, -0.1013830155134201, -0.15824532508850098, 0.39358121156692505, -0.7044386863708496, -0.12206754833459854, 0.0441320538520813, -0.33237671852111816, 0.007426918484270573, -0.2800508737564087, 0.07625341415405273, -0.3803557753562927, -0.4275169372558594, 0.1657070368528366, -0.0363418310880661, 0.04367056488990784, 0.1678595095872879, -0.09235485643148422, 0.019075412303209305, -0.055020034313201904, 0.1787261813879013, -0.08775629103183746, -0.28777676820755005, -0.028916608542203903, 0.10289688408374786, -0.1610620766878128, 0.08958674222230911, -0.1270757019519806, 0.043073151260614395, 0.20158697664737701, 0.20097239315509796, -0.29029756784439087, -0.02558482252061367, -0.2914719581604004, 0.0008022674592211843, -0.28467831015586853, 0.41213056445121765, 0.18202021718025208, -0.23228606581687927, 0.27308350801467896, 0.1792934536933899, -0.198667973279953, -0.004798040725290775, 0.10279834270477295, -0.11377283930778503, 0.07518137246370316, -0.2772107422351837, -0.00263286754488945, 0.09899799525737762, -0.03408988565206528, -0.15452797710895538, 0.28187236189842224, -0.37475648522377014, 0.1718425303697586, -0.15456147491931915, 0.11505483835935593, 0.10757755488157272, 0.22007615864276886, 0.11904444545507431, -0.061789143830537796, -0.20628666877746582, 0.0582117885351181, -0.00581427663564682, -0.07821770012378693, 0.11943648755550385, 0.2769670784473419, -0.19872085750102997, -0.4126896858215332, -0.7050683498382568, -0.3699401617050171, -0.2883512079715729, 0.05651010572910309, -0.4540215730667114, 0.2989518344402313, -0.059698835015296936, -0.2416636347770691, 0.3326415419578552, -0.05668173357844353, -0.2125655859708786, -0.3941022753715515, 0.2637158930301666, 0.4189884066581726, 0.5696706175804138, -0.49361565709114075, -0.019566582515835762, -0.21230897307395935, 0.20525680482387543, -0.26834413409233093, -0.29149913787841797, 0.45280641317367554, -0.12419275939464569, 0.04474674537777901, 0.23170918226242065, -0.03560724854469299, -0.002003874396905303, 0.07655303180217743, -0.15648770332336426, -0.0054052723571658134, -0.17589783668518066, 0.07029856741428375, 0.08675120025873184, -0.0933765172958374, -0.05448264628648758, -0.14742694795131683, -0.01666458137333393, 0.2864657938480377, -0.022236762568354607, -0.27313926815986633, 0.30851441621780396, -0.19770416617393494, 0.08427299559116364, 0.15884315967559814, 0.12493164837360382, 0.2477349042892456, -0.004500234965234995, -0.18792447447776794, -0.09642843157052994, 0.2806124985218048, 0.11186322569847107, -0.23696313798427582, -0.19770453870296478, -0.26764291524887085, 0.1285930722951889, 0.35597994923591614, 0.3168337941169739, 0.4549853801727295, -0.12797023355960846, 0.07849990576505661, 0.0029179381672292948, -0.3206121325492859, -0.21151547133922577, 0.17415876686573029, 0.17150641977787018, 0.2301604449748993, 0.04072219505906105, 0.14041970670223236, -0.14204049110412598, -0.371428906917572, 0.1838551014661789, -0.18207696080207825, 0.0028189728036522865, -0.16651910543441772, -0.3106309175491333, 0.04258141294121742, -0.7955566048622131, 0.49814996123313904, 0.6961042881011963, 0.29966938495635986, -0.0006299344822764397, -0.09260070323944092, 0.22735577821731567, 0.0926520898938179, -0.681292712688446, 0.057922109961509705, -0.5584462285041809, -0.35939091444015503, -0.1769966334104538, -1.1762595176696777, -0.7159661054611206, -0.5711456537246704, 0.20265573263168335, 0.685538649559021, -0.01308397576212883, -0.12009093910455704, 0.42604395747184753, 0.17087280750274658, -0.15037938952445984, -0.04246067255735397, -0.051134757697582245, 0.0740078017115593, 0.12746717035770416, 0.1017453521490097, -0.036957837641239166, -0.1679140329360962, -0.015351708047091961, 0.2657722532749176, 0.14538319408893585, 0.2967490553855896, -0.19463714957237244, 0.3070621192455292, -0.09755131602287292, 0.19938401877880096, 0.1703268587589264, -0.09554015845060349, -0.2382383644580841, 0.041141703724861145, 0.13986073434352875, -0.029421627521514893, 0.29263779520988464, 0.3126460909843445, -0.1959667056798935, 0.032735150307416916, -0.023455046117305756, 0.2365647852420807, 0.045980628579854965, 0.10648991167545319, -0.0640178769826889, -0.06338772177696228, -0.059161990880966187, 0.12683889269828796, 0.15283560752868652, 0.15232513844966888, -0.2177380621433258, 0.015005302615463734, 0.1790318489074707, -0.20158536732196808, 0.06467842310667038, -0.2308865487575531, 0.1859612911939621, 0.025923192501068115, 0.22522197663784027, -0.3487575948238373, -0.0915481299161911, -0.32620006799697876, 0.243275985121727, 0.20389097929000854, 0.06988277286291122, 0.2721427083015442, -0.12182687968015671, -0.5976196527481079, 0.4622611403465271, 0.33161136507987976, 0.1318628340959549, 0.219338521361351, -0.5617128014564514, 0.028393510729074478, 0.15689516067504883, 0.05855425074696541, -0.1270996332168579, -0.2602912187576294, 0.09855334460735321, -0.682333767414093, 0.36885005235671997, -0.3657379150390625, 0.737398087978363, 0.768032968044281, 0.2773418724536896, 0.21139824390411377, -0.5949198603630066, -0.434160053730011, 0.15845565497875214, -0.3663250803947449, -0.5886236429214478, -0.19232402741909027, -0.3140731453895569, 0.017483234405517578, 0.12271331995725632, 0.09018944948911667, 0.03754644840955734, -0.13955746591091156, -0.08040772378444672, 0.1271442472934723, 0.13091011345386505, 0.28897491097450256, -0.4412885308265686, 0.1549753099679947, 0.2340651899576187, 0.13370773196220398, 0.2052430510520935, 0.47992971539497375, -0.158378466963768, -0.07190743833780289, -0.024695755913853645, -0.20829811692237854, -0.02597448229789734, 0.38481083512306213, 0.07520031183958054, 0.0036703760270029306, -0.29298555850982666, -0.0058250161819159985, -0.052735380828380585, 0.16003262996673584, -0.17240692675113678, -0.02697896398603916, -0.2636803686618805, 0.2213526964187622, 0.19754305481910706, 0.2722189128398895, -0.20575599372386932, -0.0809531882405281, 0.19287556409835815, -0.24941855669021606, 0.08153596520423889, -0.07632248848676682, 0.23242682218551636, 0.046460315585136414, 0.17556895315647125, 0.060151323676109314, -0.3158077299594879, -0.23213621973991394, -0.1292763203382492, 0.18081744015216827, -0.6515291333198547, 0.18456000089645386, 0.4503334164619446, -0.03956514224410057, -0.4961426258087158, -0.32721272110939026, 0.6105378270149231, -0.29250672459602356, 0.6656078696250916, -0.17699334025382996, 0.04227413237094879, -0.14507585763931274, 0.2548077404499054, -0.28168484568595886, 0.132315993309021, -0.9049120545387268, 0.6472384333610535, -0.9033185243606567, -0.07878824323415756, 0.4315246641635895, -0.0128298569470644, 0.7211118936538696, 0.14318454265594482, -0.14164350926876068, -0.11158839613199234, 0.08047427982091904, 0.0443703755736351, -0.16155213117599487, -0.43079614639282227, -0.04916383698582649, 0.24920861423015594, 0.028887316584587097, 0.07538768649101257, -0.13291144371032715, -0.20963342487812042, -0.03816661611199379, -0.08782567083835602, 0.21340101957321167, -0.15578357875347137, -0.1098848357796669, -0.08171941339969635, 0.17915204167366028, -0.07928521931171417, 0.1313295066356659, -0.01741586998105049, -0.00697150407359004, -0.11012362688779831, -0.08644583821296692, 0.1622513085603714, 0.22365936636924744, -0.2995946407318115, -0.18327027559280396, -0.2418871372938156, 0.24264296889305115, -0.13324932754039764, 0.0066586388275027275, 0.054199159145355225, -0.12574133276939392, -0.18998020887374878, 0.02415596880018711, 0.07293619960546494, 0.293963223695755, -0.2424420267343521, 0.18131530284881592, 0.10113874822854996, -0.1717863231897354, 0.09540843963623047, -0.026085617020726204, 0.5847657322883606, 0.11351422965526581, 0.15771113336086273, 0.08630652725696564, 0.06862818449735641, -0.1617208570241928, 0.14275264739990234, 0.15447033941745758, -0.24820633232593536, -0.2674778699874878, -0.16232147812843323, -0.44562381505966187, -0.3676207363605499, -0.6960307955741882, 0.9593297243118286, -0.23841817677021027, -0.059675391763448715, -0.32070520520210266, 0.169657364487648, -0.4256405532360077, -0.0934431329369545, -0.26134708523750305, 0.14804044365882874, -0.1744440644979477, -0.2442644089460373, -0.08855938166379929, 0.5719611048698425, 0.43722063302993774, 0.5180099010467529, 0.6589018702507019, 0.2630699574947357, 0.21470876038074493, -0.2001080960035324, 0.17629647254943848, -0.4838058352470398, -0.17916035652160645, -0.5156704783439636, 0.06027507781982422, -0.11834101378917694, -0.12959249317646027, -0.19306626915931702, 0.010291649028658867, -0.10038794577121735, -0.3681437373161316, 0.056523773819208145, 0.23861175775527954, -0.25571465492248535, -0.12701210379600525, -0.1913129836320877, 0.3329150676727295, -0.05774732306599617, -0.022511569783091545, 0.12493990361690521, -0.07994022220373154, -0.0006672858144156635, -0.11607848852872849, -0.221709206700325, 0.2578294575214386, 0.009235193021595478, 0.04339876025915146, -0.015279799699783325, 0.27428141236305237, 0.08659960329532623, 0.024479582905769348, -0.35340994596481323, 0.12025768309831619, -0.05829422175884247, -0.05582771077752113, 0.047955092042684555, 0.4143401086330414, 0.17019930481910706, -0.023910850286483765, 0.10789492726325989, -0.19334551692008972, -0.08349967002868652, 0.049545060843229294, -0.021210532635450363, 0.015598619356751442, 0.029866032302379608, 0.4115908443927765, -0.21643023192882538, -0.24786435067653656, 0.3625178933143616, -0.17417003214359283, 0.35352659225463867, -0.3328697383403778, -0.09545902162790298, 0.09148649126291275, -0.5909074544906616, 0.4306403398513794, -0.22967304289340973, -0.04610307514667511, -0.44530025124549866, -0.24702198803424835, 0.6178674101829529, 0.30315667390823364, 0.07039173692464828, 0.19143208861351013, -0.39847439527511597, -0.003046661149710417, -0.3932914137840271, -0.2414562851190567, -0.7141241431236267, 0.36075881123542786, 0.006476153153926134, 0.20701844990253448, -0.15037153661251068, -0.2969006597995758, 0.19545648992061615, -0.09247992187738419, 0.21186919510364532, -0.015955042093992233, -0.0936414897441864, 0.4451303482055664, 0.05056750029325485, -0.10813363641500473, -0.018954982981085777, -0.11535221338272095, 0.08438489586114883, -0.11623916774988174, -0.09820272028446198, 0.15859109163284302, 0.07332982122898102, -0.0007054569432511926, -0.08387391269207001, 0.18967491388320923, -0.16497573256492615, 0.18254169821739197, -0.08256220817565918, 0.07672882080078125, -0.0526040680706501, -0.06798190623521805, 0.12896020710468292, 0.20455758273601532, -0.027302991598844528, 0.1632753312587738, -0.05067641660571098, 0.3399645984172821, 0.023207200691103935, -0.16064661741256714, 0.04510439187288284, -0.002185712568461895, 0.09857367724180222, -0.050941403955221176, -0.1078101098537445, 0.0773993581533432, 0.10964492708444595, 0.31592196226119995, 0.2546881437301636, -0.2605533003807068, 0.24706996977329254, 0.031132468953728676, 0.2858024835586548, 0.15730664134025574, -0.034481506794691086, 0.5722784399986267, 0.35178500413894653, 0.11848200112581253, -0.048362165689468384, 0.010153711773455143, -0.17142854630947113, 0.17709366977214813, -0.22085648775100708, 0.494966059923172, -0.25399452447891235, -0.4004436731338501, -0.6599801182746887, -0.12091034650802612, -0.04836457967758179, -0.23046547174453735, 0.3559243679046631, 0.2869518995285034, -0.44128191471099854, -0.050015389919281006, 0.1681065559387207, 0.4823986291885376, -0.11955636739730835, 0.3069649934768677, -0.028011441230773926, -0.1917715072631836, 0.30598050355911255, -0.4455450773239136, 0.41890019178390503, 0.4994143843650818, -0.1365121603012085, 0.1975109577178955, 0.49860215187072754, 0.6230242848396301, 0.7227835059165955, 0.7742007970809937, -0.7758877277374268, 0.11053303629159927, 0.019999999552965164]}