{"version": "0.5.1", "metadata": {"date": {"year": 2023, "month": 4, "day": 30, "hour": 14, "minute": 9, "second": 26}, "loudness": -20.948471069335938, "gain": 0.005340766945378988, "name": null, "modeled_by": null, "gear_type": null, "gear_make": null, "gear_model": null, "tone_type": null}, "architecture": "WaveNet", "config": {"layers": [{"input_size": 1, "condition_size": 1, "head_size": 4, "channels": 8, "kernel_size": 3, "dilations": [1, 2, 4, 8, 16, 32, 64], "activation": "Tanh", "gated": false, "head_bias": false}, {"input_size": 8, "condition_size": 1, "head_size": 1, "channels": 4, "kernel_size": 3, "dilations": [128, 256, 512, 1, 2, 4, 8, 16, 32, 64, 128, 256, 512], "activation": "Tanh", "gated": false, "head_bias": true}], "head": null, "head_scale": 0.02}, "weights": [0.0353429913520813, 0.4318845570087433, -0.575288712978363, -0.7147066593170166, -0.4255533218383789, 0.38192030787467957, -0.0680210217833519, 0.7588109374046326, 0.05827662721276283, -0.12965179979801178, 0.11914503574371338, -0.32014554738998413, 0.11049605160951614, -0.17305666208267212, 0.1902494728565216, -0.29415005445480347, 0.12007875740528107, 0.40272384881973267, -0.4532165229320526, -0.05749670788645744, 0.353018581867218, -0.141771137714386, 0.0022824143525213003, -0.1353842318058014, 0.2824839651584625, -0.022597430273890495, 0.4644416570663452, -0.4589844346046448, -0.02854001149535179, -0.3323349058628082, 0.23290948569774628, 0.14151310920715332, -0.1744539737701416, -0.14049728214740753, -0.0874224454164505, -0.03246146813035011, -0.10652706772089005, 0.11885786056518555, -0.06986352056264877, 0.08155699074268341, 0.05895591899752617, -0.26341497898101807, 0.014565957710146904, -0.14577935636043549, -0.3001303970813751, -0.11211869865655899, 0.18618172407150269, 0.27095115184783936, -0.08084043860435486, -0.07035191357135773, 0.00865495577454567, 0.2430655062198639, 0.18914414942264557, 0.18737605214118958, 0.15596719086170197, -0.16897082328796387, 0.06926310062408447, -0.10291539877653122, -0.32088062167167664, -0.1917712688446045, 0.01013689860701561, 0.20318713784217834, -0.03179627284407616, 0.14599959552288055, 0.0005752145079895854, 0.06345506012439728, 0.09712346643209457, -0.06119595095515251, 0.20899227261543274, 0.27451008558273315, -0.27979403734207153, -0.15618737041950226, -0.0014427013229578733, 0.2976931631565094, 0.23507389426231384, 0.21210096776485443, -0.14837932586669922, -0.2666621804237366, -0.07003080099821091, -0.016230862587690353, -0.20086532831192017, 0.027737993746995926, 0.27566635608673096, -0.12478584796190262, 0.23380814492702484, -0.05446740239858627, -0.11714700609445572, -0.2882060408592224, 0.09386266767978668, -0.20415572822093964, -0.13051071763038635, 0.11244304478168488, 0.06513012200593948, -0.12265093624591827, -0.1800553947687149, -0.053673096001148224, 0.3071444034576416, 0.01806914620101452, -0.22497522830963135, -0.2761503756046295, 0.27169549465179443, 0.2212984710931778, 0.11517215520143509, -0.06389425694942474, -0.22625349462032318, 0.05888141319155693, -0.24705451726913452, -0.18079476058483124, -0.12775777280330658, 0.05707705393433571, -0.056697696447372437, 0.2408033013343811, -0.14335818588733673, 0.20981045067310333, 0.26479288935661316, -0.18610608577728271, -0.033806875348091125, 0.1218976229429245, 0.0033920130226761103, 0.032560884952545166, -0.036945998668670654, 0.04220828041434288, -0.10546892881393433, 0.15742474794387817, -0.2765135169029236, -0.14600446820259094, -0.17542576789855957, -0.08231072872877121, -0.12019935250282288, -0.13336892426013947, -0.2809924781322479, -0.03753351792693138, -0.16768629848957062, 0.197389155626297, 0.2317553162574768, 0.016454050317406654, -0.19371195137500763, 0.06498203426599503, 0.08455310761928558, -0.06597139686346054, 0.2696472108364105, 0.1602412313222885, -0.015966186299920082, -0.08546514064073563, -0.2158588320016861, 0.11994340270757675, 0.16992145776748657, -0.04232944920659065, -0.37985578179359436, -0.23973658680915833, -0.2326827049255371, 0.027492908760905266, -0.042360249906778336, 0.0497850626707077, 0.1841985434293747, -0.09736628085374832, 0.20227324962615967, -0.25809699296951294, -0.14569397270679474, -0.16026504337787628, 0.05113775655627251, -0.13961641490459442, -0.2649170756340027, -0.0892680287361145, -0.12307912856340408, -0.06440262496471405, 0.00814787857234478, 0.16540144383907318, -0.11371418088674545, -0.12001463770866394, 0.11695702373981476, -0.09623376280069351, 0.33048632740974426, 0.17423346638679504, -0.1034141331911087, 0.03869285434484482, -0.16080480813980103, -0.10291042178869247, 0.106491319835186, 0.06988885253667831, 0.013416151516139507, 0.007641298230737448, -0.08927638828754425, 0.062289539724588394, 0.038005080074071884, -0.16421939432621002, -0.04224503040313721, -0.10423578321933746, -0.4000128209590912, 0.12668313086032867, 0.10633503645658493, 0.37433290481567383, -0.16050706803798676, 0.060088664293289185, -0.3669467568397522, -0.07380246371030807, -0.1411440670490265, 0.30716750025749207, -0.12761887907981873, 0.055787622928619385, -0.008726577274501324, 0.16507335007190704, -0.16398261487483978, -0.16540850698947906, -0.22636888921260834, 0.2721324861049652, -0.08291605859994888, 0.2349817454814911, 0.3314821720123291, 0.08657890558242798, 0.08996295183897018, -0.19998081028461456, 0.1320885568857193, -0.03795502707362175, -0.09081372618675232, 0.1974291205406189, -0.3096829652786255, -0.32348868250846863, 0.45762869715690613, -0.4198916256427765, 0.21229003369808197, 0.4988691210746765, -0.04418031498789787, -0.03730207681655884, -0.2979455590248108, 0.22892120480537415, -0.3255767226219177, 0.006779011804610491, -0.22541654109954834, -0.16569863259792328, 0.10745078325271606, 0.31320416927337646, -0.06369214504957199, 0.4043881595134735, 0.3139677941799164, -0.43267327547073364, 0.30424854159355164, -0.16316364705562592, -0.17961803078651428, 0.31712397933006287, 0.23115333914756775, 0.3007364869117737, -0.2127983719110489, 0.13452336192131042, 0.033093128353357315, -0.44690603017807007, 0.3271976709365845, -0.280978262424469, -0.018821045756340027, -0.204836905002594, -0.00941449124366045, -0.07224473357200623, 0.4298328459262848, 0.04208406060934067, -0.3153121769428253, -0.2592717409133911, 0.004992398899048567, 0.35030561685562134, -0.35374802350997925, -0.12286649644374847, -0.3109569251537323, 0.05265682935714722, 0.3112051784992218, 0.4956713914871216, 0.08915498852729797, -0.14755114912986755, -0.023771286010742188, -0.0633072778582573, 0.4121905267238617, 0.12234557420015335, -0.16709403693675995, -0.31255489587783813, -0.4565347135066986, 0.048294562846422195, -0.23544941842556, -0.265158087015152, 0.33660969138145447, -0.17458057403564453, -0.15970538556575775, 0.1644304096698761, 0.07202582061290741, -0.3604775071144104, -0.2817092835903168, 0.18495970964431763, 0.051641207188367844, 0.29689547419548035, -0.10948455333709717, 0.14242728054523468, -0.1929088681936264, 0.03591650351881981, -0.11873101443052292, 0.3856261074542999, 0.10798972100019455, -0.029597673565149307, -0.0034451386891305447, -0.1812155693769455, 0.2431219071149826, -0.2919851839542389, -0.16811689734458923, -0.05238909646868706, -0.30745571851730347, 0.00554825970903039, -0.08340217173099518, 0.18887364864349365, -0.06854439526796341, -0.25943535566329956, -0.10173996537923813, 0.16961605846881866, 0.1045825183391571, 0.19332072138786316, -0.04726959019899368, -0.11302627623081207, 0.30004411935806274, 0.004346909001469612, -0.0206869188696146, 0.16612134873867035, -0.12136781960725784, 0.1274947077035904, 0.21075792610645294, 0.20015564560890198, 0.025495843961834908, -0.1637086421251297, -0.17833280563354492, 0.007403680123388767, 0.2824286222457886, 0.24417008459568024, -0.060809146612882614, -0.09735620766878128, 0.0004389363166410476, -0.025478791445493698, -0.05067651718854904, -0.07002607733011246, 0.08608496934175491, 0.27036455273628235, -0.21106284856796265, 0.18239673972129822, 0.44487500190734863, 0.2615872323513031, 0.12803125381469727, -0.05547093600034714, -0.06516730040311813, -0.04430684819817543, 0.18429020047187805, 0.19165441393852234, -0.23428568243980408, 0.006760229356586933, 0.1003570631146431, 0.1185053288936615, 0.09067746251821518, 0.09494169056415558, -0.17420516908168793, 0.06875084340572357, 0.11325335502624512, 0.25822359323501587, 0.15473109483718872, -0.014760579913854599, -0.18050700426101685, 0.1119309812784195, -0.12659569084644318, 0.10561639070510864, -0.26393306255340576, -0.2450265884399414, 0.020278923213481903, 0.3728751242160797, 0.20657940208911896, 0.150342658162117, -0.07211082428693771, 0.08190130442380905, -0.11380040645599365, -0.18922580778598785, 0.02355816774070263, 0.04718418046832085, -0.32483676075935364, 0.01380348950624466, -0.10921735316514969, -0.06288817524909973, 0.14668956398963928, 0.04119057580828667, 0.05309974029660225, 0.10613071173429489, 0.26118314266204834, 0.253029465675354, 0.045408230274915695, 0.27869486808776855, -0.21825216710567474, 0.06908511370420456, 0.21580632030963898, 0.21500787138938904, -0.08903561532497406, -0.03371945396065712, -0.10882981866598129, -0.24311897158622742, 0.012310693971812725, 0.12119179219007492, -0.014716967940330505, 0.20559412240982056, -0.051193151623010635, -0.10528561472892761, 0.0030652096029371023, 0.26472288370132446, 0.05237344279885292, -0.15216095745563507, -0.19651703536510468, 0.24126820266246796, 0.20083680748939514, -0.2044902890920639, 0.13045312464237213, 0.045815177261829376, 0.22636015713214874, 0.11889766901731491, -0.04613124206662178, -0.3534112870693207, 0.16674445569515228, 0.12028192728757858, -0.001800822326913476, 0.05254040285944939, -0.14477743208408356, 0.0609889030456543, 0.14745134115219116, -0.22761833667755127, 0.33698371052742004, -0.050497278571128845, -0.021712929010391235, -0.17822730541229248, 0.08553626388311386, -0.16382871568202972, 0.18454411625862122, -0.19765713810920715, -0.11647309362888336, -0.17508521676063538, -0.19440165162086487, 0.3870292603969574, 0.36344465613365173, -0.04988477751612663, -0.10456811636686325, -0.1757800132036209, 0.10098811239004135, -0.23151922225952148, 0.22017069160938263, -0.28759127855300903, -0.06200745701789856, -0.25026124715805054, 0.007775082252919674, 0.2688247859477997, -0.06702572107315063, 0.10907918214797974, 0.07594802975654602, 0.017525658011436462, 0.13381744921207428, -0.21557582914829254, 0.2154814898967743, 0.022021979093551636, 0.2866393029689789, 0.04857220873236656, -0.07803656905889511, 0.042732127010822296, -0.08254209160804749, 0.14041809737682343, 0.012314333580434322, 0.06708608567714691, -0.21193961799144745, -0.24959132075309753, -0.0635116919875145, -0.15268497169017792, -0.08008059114217758, 0.028502516448497772, 0.034563157707452774, -0.26315978169441223, -0.32076433300971985, -0.05912753939628601, 0.17348414659500122, 0.5772594213485718, 0.21731369197368622, -0.05286446958780289, -0.15941043198108673, -0.28495511412620544, -0.03161865845322609, 0.3160923719406128, -0.019066931679844856, 0.06772976368665695, -0.3054000735282898, -0.2899618148803711, 0.02077528089284897, 0.0065658316016197205, -0.024939756840467453, 0.16373257339000702, 0.19544756412506104, 0.29500147700309753, 0.03969825059175491, -0.26250335574150085, -0.2688324451446533, 0.1480696052312851, 0.4305277466773987, -0.3933243751525879, 0.5458550453186035, -0.02612648345530033, -0.4726053774356842, -0.10676876455545425, 0.3422344923019409, 0.32768574357032776, -0.4603103697299957, 0.25015512108802795, 0.22340437769889832, -0.030807077884674072, 0.4258372485637665, -0.17867878079414368, 0.07981220632791519, 0.1573946326971054, -0.06342249363660812, 0.05909213796257973, -0.10811441391706467, 0.49014902114868164, -0.21184420585632324, -0.13778367638587952, 0.0409695990383625, 0.2545110583305359, -0.1588934361934662, 0.008622382767498493, 0.24865050613880157, -0.08591882884502411, 0.24102497100830078, 0.09928234666585922, 0.10938678681850433, 0.03278912603855133, -0.09977235645055771, -0.2879285514354706, 0.28978726267814636, -0.14091481268405914, 0.08678338676691055, 0.03252284228801727, 0.47767287492752075, 0.2191540151834488, -0.3830972909927368, -0.18331289291381836, -0.2482459992170334, 0.08785364776849747, -0.31629762053489685, -0.3081047832965851, -0.21435700356960297, 0.1176905483007431, -0.08616822212934494, 0.016462203115224838, 0.08669557422399521, -0.1346205621957779, 0.4469444751739502, -0.006822115741670132, -0.5472214221954346, 0.11803188174962997, 0.18286190927028656, 0.04155319556593895, -0.5754255056381226, -0.1890207976102829, 0.3149872422218323, -0.09483928978443146, -0.021482568234205246, 0.02187180705368519, -0.18597941100597382, -0.01654990203678608, 0.09342794865369797, 0.1284846067428589, -0.30046701431274414, -0.1604616641998291, -0.027661176398396492, -0.07836625725030899, -0.13229410350322723, 0.3019489049911499, -0.07219677418470383, -0.03086012415587902, 0.14512404799461365, 0.339061439037323, -0.04247220233082771, 0.2482980489730835, -0.2628967761993408, 0.020332908257842064, -0.08373390138149261, 0.26881203055381775, -0.3382895886898041, -0.3673190176486969, -0.01680220477283001, 0.10076601058244705, -0.05658749118447304, 0.09846382588148117, -0.31177228689193726, 0.15270060300827026, -0.21984925866127014, 0.15888972580432892, 0.032792072743177414, 0.3481115698814392, 0.17579582333564758, 0.4247618019580841, -0.1254454106092453, -0.07190023362636566, -0.14726229012012482, 0.420491486787796, 0.02467425726354122, 0.08028242737054825, -0.36548978090286255, 0.1852225363254547, -0.020183734595775604, 0.25376051664352417, -0.3073454201221466, -0.3531510829925537, -0.15032659471035004, 0.10046994686126709, -0.27875077724456787, 0.20219269394874573, 0.11603590846061707, 0.16516132652759552, -0.28165358304977417, 0.08813538402318954, -0.07580443471670151, 0.03479450196027756, 0.1105186864733696, 0.0329902321100235, -0.12297597527503967, 0.15307986736297607, 0.06943966448307037, 0.24867010116577148, -0.030513163655996323, -0.1323240101337433, -0.33606669306755066, 0.30076828598976135, -0.16208632290363312, -0.01509335171431303, -0.00757856760174036, -0.16290651261806488, 0.23471271991729736, 0.16522090137004852, -0.28846487402915955, 0.2304825335741043, 0.17147742211818695, 0.049704622477293015, -0.20957686007022858, 0.12229602783918381, 0.16451998054981232, 0.2576920986175537, 0.0009628665284253657, -0.16674642264842987, -0.23552186787128448, 0.09768953919410706, -0.01415784377604723, -0.18379907310009003, 0.20828482508659363, -0.14219766855239868, 0.05897379666566849, 0.10498873889446259, 0.16315118968486786, 0.20140710473060608, -0.1701212078332901, 0.30760952830314636, 0.3226880729198456, -0.19898061454296112, 0.2660730481147766, -0.2667067050933838, -0.2343073934316635, -0.2726092040538788, 0.20141540467739105, 0.08846832066774368, -0.20169539749622345, -0.14460429549217224, -0.07754719257354736, -0.2712118625640869, 0.14928242564201355, -0.10237190872430801, -0.04205576702952385, -0.07392248511314392, 0.10366364568471909, 0.2828981280326843, 0.17612117528915405, 0.07203856855630875, -0.053837258368730545, -0.19017553329467773, 0.05629006028175354, 0.26429688930511475, 0.04638276249170303, 0.2186390608549118, 0.05764039605855942, -0.23891597986221313, 0.1304623931646347, -0.1878538727760315, 0.33140647411346436, -0.3523935377597809, -0.0689120814204216, -0.19739623367786407, 0.003846324048936367, 0.09830249845981598, 0.06146843358874321, -0.22214612364768982, -0.037455566227436066, 0.261288046836853, 0.0515056811273098, -0.1601395457983017, -0.1282663196325302, 0.26214805245399475, -0.11015629768371582, 0.03267677128314972, 0.5197559595108032, 0.07080428302288055, 0.0019461849005892873, 0.28625792264938354, -0.0547107569873333, 0.371827095746994, -0.059083014726638794, -0.09816952794790268, -0.7617782950401306, -0.09386208653450012, 0.2881562113761902, 0.7499826550483704, -0.09082626551389694, 0.0174722820520401, -0.14857390522956848, -0.044314391911029816, -0.18124280869960785, -0.31424182653427124, 0.29039427638053894, 0.09191419184207916, 0.08419276028871536, -0.20326004922389984, 0.029241986572742462, -0.006588030606508255, 0.17368583381175995, -0.3958297073841095, -0.2523566782474518, 0.15555578470230103, -0.08905653655529022, -0.16135482490062714, 0.2610260248184204, -0.10914791375398636, 0.279603511095047, -0.276530921459198, -0.02950472943484783, -0.057327739894390106, -0.22771957516670227, 0.1770440936088562, -0.002297426573932171, -0.16015669703483582, 0.02502027153968811, -0.32956790924072266, 0.13869179785251617, -0.19961002469062805, 0.043041542172431946, -0.07366690784692764, 0.38087284564971924, -0.06910641491413116, 0.005451617296785116, 0.35142192244529724, 0.21698857843875885, -0.09606743603944778, 0.06069645285606384, -0.2874809205532074, -0.2930121421813965, -0.14149267971515656, 0.41317451000213623, 0.11525540053844452, -0.06282958388328552, -0.2402113825082779, -0.13501816987991333, -0.08339274674654007, -0.0051856618374586105, -0.1627645641565323, 0.05923914909362793, 0.40487274527549744, -0.2685125172138214, 0.15543091297149658, -0.0823642835021019, -0.3404960632324219, -0.02312512882053852, 0.15871116518974304, -0.5184769034385681, -0.19578728079795837, 0.16280271112918854, -0.7223064303398132, 0.5262995362281799, 0.41063061356544495, 0.4396861493587494, -0.46624913811683655, 0.453930526971817, 0.039737384766340256, 0.5099112391471863, -0.3354683518409729, -0.5076223611831665, 0.3756163418292999, -0.2316988706588745, -0.05908200889825821, -0.13531246781349182, -0.37197521328926086, -0.2218008041381836, -0.34751391410827637, 0.2050122767686844, -0.08052259683609009, 0.24558593332767487, 0.2135632038116455, 0.5629806518554688, 0.2547331154346466, -0.07242053002119064, -0.2206706404685974, -0.2697960436344147, -0.0820564553141594, -0.11557035148143768, -0.22953300178050995, 0.6622625589370728, -0.19246621429920197, 0.1242891326546669, -0.3623378872871399, 0.15775495767593384, 0.346129834651947, 0.5413026809692383, -0.3376937508583069, 0.20132847130298615, 0.11977696418762207, -0.263179749250412, -0.11459293216466904, 0.20406903326511383, -0.376618891954422, 0.24474018812179565, 0.1248227134346962, 0.19454573094844818, 0.3662157654762268, 0.17495518922805786, -0.22684550285339355, 0.26318374276161194, -0.01882772147655487, 0.47336524724960327, -0.3326858878135681, -0.4098688066005707, -0.3450790047645569, -0.09252558648586273, -0.008415931835770607, 0.2706260681152344, -0.0013620782410725951, 0.2530011832714081, 0.06193971633911133, 0.12044152617454529, -0.2843059003353119, -0.43594276905059814, 0.029490672051906586, 0.16512008011341095, -0.25376883149147034, 0.2177659273147583, 0.026098741218447685, 0.0353282168507576, 0.2740554213523865, 0.08777611702680588, -0.006203858647495508, 0.2575141489505768, -0.06400330364704132, 0.12572027742862701, 0.20631283521652222, -0.10189048945903778, -0.07715315371751785, 0.03496497496962547, 0.32558390498161316, -0.03782479837536812, -0.1098615974187851, 0.06787211447954178, -0.3771038055419922, 0.011286399327218533, -0.05491042882204056, 0.16227373480796814, -0.4182959496974945, 0.22475577890872955, 0.1583569049835205, -0.2475557178258896, 0.38891926407814026, 0.36772486567497253, 0.15981101989746094, -0.07936269789934158, -0.14364784955978394, -0.1924855262041092, 0.3931216597557068, 0.012918167747557163, 0.020051049068570137, -0.2226024568080902, -0.08516419678926468, 0.18812784552574158, 0.21537481248378754, -0.03664446994662285, 0.0719781294465065, 0.11406613141298294, -0.04700065031647682, 0.12481090426445007, -0.033968206495046616, 0.03400890529155731, 0.3068768084049225, 0.293818861246109, -0.0833556279540062, 0.2507149577140808, 0.18080730736255646, -0.17789483070373535, 0.1370423436164856, -0.09846622496843338, 0.2936072051525116, -0.14017246663570404, 0.3363149166107178, -0.4376471936702728, 0.045209966599941254, -0.19492915272712708, 0.06676071137189865, 0.1647171825170517, 0.14573483169078827, 0.15030968189239502, 0.062063828110694885, 0.1848343163728714, 0.05339041352272034, 0.16826364398002625, 0.13089683651924133, -0.30395498871803284, -0.15925219655036926, 0.02959468774497509, -0.16668422520160675, 0.09090477228164673, 0.25599467754364014, 0.12137414515018463, 0.07966695725917816, 0.1420106589794159, 0.13214178383350372, -0.2757091820240021, 0.0008606979972682893, 0.13954678177833557, -0.001061303191818297, 0.08262785524129868, -0.24369898438453674, -0.4670090079307556, 0.12378019094467163, -0.035166025161743164, 0.11605493724346161, 0.005321637727320194, -0.2576405107975006, -0.011169166304171085, 0.04161105304956436, 0.5001595616340637, -0.3388344645500183, -0.21051371097564697, -0.12138581275939941, 0.34586265683174133, 0.1323830932378769, 0.023107212036848068, -0.058989331126213074, 0.10165828466415405, -0.3056566119194031, 0.21618543565273285, -0.18543294072151184, -0.33850961923599243, 0.3324894607067108, 0.014626828953623772, -0.12575514614582062, -0.31298160552978516, -0.32586878538131714, 0.059087641537189484, -0.017991146072745323, 0.012522184289991856, 0.025824042037129402, -0.2885400354862213, -0.42742860317230225, 0.18701493740081787, 0.05680820718407631, 0.01027123723179102, 0.033839501440525055, 0.2776581645011902, 0.027822235599160194, -0.21958409249782562, -0.1714276373386383, -0.05160486325621605, -0.31164950132369995, 0.03982135280966759, -0.0444612056016922, 0.07186203449964523, -0.05449601262807846, -0.07719629257917404, 0.13283348083496094, 0.17143644392490387, 0.17558729648590088, 0.2396775782108307, -0.0326683446764946, -0.12013105303049088, -0.22144310176372528, 0.2123769223690033, 0.2804420590400696, -0.17950616776943207, 0.08645033836364746, -0.050256114453077316, -0.28443461656570435, 0.07975030690431595, -0.021453430876135826, 0.03480342775583267, -0.20054307579994202, -0.02367500774562359, 0.11708531528711319, -0.1996641606092453, 0.21072138845920563, 0.05924614891409874, 0.0518813394010067, -0.016259174793958664, -0.09709528833627701, 0.2035767287015915, 0.09735170751810074, 0.17590518295764923, -0.15013357996940613, -0.056426990777254105, -0.20810431241989136, 0.0472056120634079, -0.2541100084781647, -0.18768051266670227, -0.1700320988893509, 0.06796752661466599, 0.04382133483886719, -0.25654616951942444, 0.07222694158554077, 0.20079180598258972, 0.11897169053554535, -0.018353838473558426, -0.059688128530979156, -0.24757784605026245, 0.09822247922420502, 0.1821066290140152, 0.11741728335618973, 0.30745941400527954, 0.07126868516206741, -0.3057177662849426, -0.12000001221895218, 0.08671992272138596, -0.03633984923362732, -0.13936176896095276, 0.2490510642528534, -0.1643238663673401, -0.3263861835002899, -0.0828486904501915, -0.01733127422630787, 0.09163441509008408, 0.24551039934158325, 0.258109986782074, -0.20202112197875977, -0.025844715535640717, -0.1117439717054367, -0.13205191493034363, -0.20937007665634155, 0.0847456231713295, -0.1862632781267166, -0.10509466379880905, 0.2744755148887634, 0.16123470664024353, 0.288129985332489, 0.07704650610685349, -0.03991664573550224, 0.16144010424613953, 0.01593093015253544, 0.37127143144607544, 0.2174564003944397, -0.6736083030700684, 0.42269381880760193, 0.14533016085624695, -0.6238409280776978, 0.3301822543144226, 0.6814315319061279, -0.48009559512138367, -0.1393676996231079, 0.2953844666481018, -0.029524246230721474, 0.23890119791030884, 0.01868950016796589, -0.0822039246559143, 0.25242742896080017, -0.013785948976874352, 0.2478027045726776, -0.5053441524505615, -0.31353116035461426, -0.17342227697372437, -0.5312021374702454, 0.19319415092468262, 0.06072172150015831, -0.03133754804730415, 0.10532993823289871, 0.10289304703474045, -0.1720365583896637, 0.39518916606903076, -0.2534162402153015, -0.2542155385017395, 0.09346415102481842, 0.20107421278953552, -0.09738672524690628, 0.19572333991527557, -0.1829996258020401, 0.2922065258026123, 0.11603750288486481, 0.15150801837444305, 0.5120812058448792, 0.22245393693447113, -0.18906018137931824, 0.361977219581604, 0.147938072681427, 0.1648312360048294, 0.39880067110061646, -0.30251702666282654, 0.4422307312488556, 0.20701569318771362, -0.19318653643131256, -0.1276528388261795, -0.2496442347764969, -0.0003989560646004975, -0.19585789740085602, -0.07521786540746689, 0.20641562342643738, 0.2256426215171814, 0.15592385828495026, -0.357532262802124, 0.1229860782623291, -0.4443899393081665, -0.4215087294578552, 0.1798201948404312, -0.2675643265247345, -0.2623644173145294, -0.23718814551830292, -0.009115315042436123, 0.3377145528793335, -0.17237186431884766, -0.36421439051628113, -0.09876324236392975, -0.15324731171131134, -0.16135691106319427, -0.11268644779920578, 0.11628632247447968, -0.3941498100757599, -0.1281900554895401, -0.019189897924661636, -0.23345041275024414, -0.1622546762228012, -0.25012412667274475, -0.3549124002456665, 0.0966678038239479, -0.28338420391082764, -0.07671508193016052, 0.19002386927604675, 0.1434297114610672, 0.164450004696846, -0.046379558742046356, -0.0995141938328743, 0.03786550089716911, 0.05699000135064125, 0.3316256105899811, -0.18611553311347961, -0.09226285666227341, 0.08161628991365433, -0.320751428604126, 0.09498599171638489, 0.272699773311615, -0.14015662670135498, -0.07659878581762314, -0.2559203505516052, 0.0564577654004097, -0.04346581920981407, 0.1498332917690277, -0.2547443211078644, -0.36533570289611816, -0.27119192481040955, 0.26247739791870117, -0.04896891862154007, 0.08566681295633316, 0.09062953293323517, -0.11731527000665665, -0.07151289284229279, -0.22218243777751923, -0.07222475111484528, -0.030799321830272675, 0.05632755160331726, 0.034881673753261566, -0.11178023368120193, -0.17649368941783905, 0.14220719039440155, 0.031076328828930855, -0.10233785212039948, -0.10411684215068817, 0.18527287244796753, -0.21246367692947388, -0.017452320083975792, 0.04820660874247551, -0.05402195081114769, -0.14104337990283966, 0.08709779381752014, 0.14538562297821045, -0.04965449497103691, -0.2475126087665558, -0.31412196159362793, 0.2534482777118683, -0.099982850253582, 0.06758499145507812, -0.10051826387643814, -0.002604777691885829, 0.22876589000225067, 0.11885424703359604, -0.2531677186489105, 0.0568917915225029, 0.11009231954813004, -0.004982300102710724, -0.13206946849822998, 0.10223213583230972, -0.15376615524291992, 0.09699282795190811, 0.031609661877155304, -0.16857212781906128, -0.4925994277000427, -0.0306263230741024, 0.15212556719779968, -0.019253920763731003, -0.16351090371608734, -0.1119915023446083, 0.07304778695106506, -0.17419874668121338, 0.14071649312973022, -0.23064452409744263, -0.07479123026132584, 0.0073565151542425156, -0.2088434249162674, 0.10420304536819458, -0.19946399331092834, -0.23917172849178314, -0.21462923288345337, 0.03999239578843117, 0.18142728507518768, -0.1632104218006134, 0.15081486105918884, 0.28822070360183716, 0.014824778772890568, 0.00740368478000164, 0.19873544573783875, -0.0554952546954155, 0.11604011058807373, -0.1990092247724533, -0.16575178503990173, -0.10868285596370697, -0.12021428346633911, 0.23660770058631897, 0.1859278678894043, -0.12106946110725403, -0.09436365962028503, -0.2168378233909607, -0.010410036891698837, 0.21029908955097198, -0.002698766067624092, 0.36591893434524536, -0.1042453870177269, -0.13640429079532623, 0.14255979657173157, -0.12269579619169235, -0.36736464500427246, -0.16643455624580383, -0.22737933695316315, -0.1982882022857666, 0.02563156560063362, 0.11527933180332184, -0.11063653230667114, 0.09780311584472656, 0.20625825226306915, -0.025618920102715492, -0.2731623947620392, 0.12295200675725937, 0.04740123823285103, 0.2544817328453064, -0.14564788341522217, 0.43946143984794617, 0.4166204631328583, -0.18942342698574066, 0.1704539954662323, 0.2411697953939438, -0.12934839725494385, -0.05001503601670265, 0.024563811719417572, 0.10038729012012482, 0.19561150670051575, 0.15589575469493866, 0.13534003496170044, -0.19034799933433533, 0.03911576047539711, -0.13174134492874146, -0.1992063969373703, 0.09052794426679611, 0.11467431485652924, 0.6249589323997498, 0.030926233157515526, 0.09455116093158722, 0.06335435807704926, -0.14093829691410065, 0.12102122604846954, 0.38116276264190674, 0.2731004059314728, -0.11011791229248047, -0.22225388884544373, -0.3457682728767395, 0.18736699223518372, 0.1723206490278244, -0.05578472092747688, 0.21570907533168793, 0.2620692253112793, -0.09379208832979202, 0.022652560845017433, 0.12787288427352905, -0.3387770354747772, -0.03952656686306, -0.03386780619621277, -0.11292872577905655, -0.18317627906799316, -0.13883616030216217, 0.14822417497634888, 0.11718786507844925, 0.13333187997341156, 0.011285543441772461, 0.08796541392803192, -0.336014986038208, -0.1620391607284546, -0.15124040842056274, -0.12333457916975021, 0.1980935037136078, -0.07180039584636688, -0.14120595157146454, -0.06554369628429413, 0.07337012887001038, 0.18695275485515594, -0.06908531486988068, -0.051250748336315155, 0.17317414283752441, 0.2218165397644043, -0.049174074083566666, 0.005006944295018911, -0.0886402353644371, -0.08702494204044342, 0.13575612008571625, 0.13232675194740295, -0.23628011345863342, -0.07510558515787125, 0.0430246964097023, -0.30633383989334106, -0.6379693150520325, -0.7242434620857239, 0.6379202008247375, 0.1724579632282257, -0.09892581403255463, -0.5007928013801575, 0.2049962729215622, -0.23968768119812012, -0.0026758629828691483, 0.06843243539333344, -0.11730077117681503, 0.002888086950406432, 0.07221037149429321, 0.23850233852863312, -0.2619131803512573, -0.030102215707302094, 0.33283814787864685, -0.1938156634569168, -0.03956133499741554, 0.3302385210990906, -0.2732294201850891, 0.4037344455718994, 0.2966795861721039, 0.16628973186016083, -0.06636197119951248, 0.16320905089378357, -0.1449587494134903, -0.1593916416168213, 0.18426091969013214, -0.029012957587838173, 0.35687723755836487, 0.3213251233100891, -0.21409335732460022, 0.13730113208293915, 0.05475778132677078, 0.08985956758260727, 0.2274629771709442, -0.14332804083824158, -0.019458232447504997, 0.3166099190711975, -0.17525368928909302, 0.09472920745611191, -0.32645735144615173, -0.13067443668842316, 0.08435568958520889, -0.05344214290380478, -0.6536034941673279, -0.11317361146211624, 0.13845205307006836, 0.10059457272291183, 0.4847727417945862, 0.0014645570190623403, -0.2227087914943695, 0.21577675640583038, 0.3392767608165741, 0.34052926301956177, 0.0024636504240334034, 0.011507640592753887, -0.3349854350090027, 0.2661118805408478, -0.06451565027236938, 0.3710951805114746, 0.17727546393871307, 0.2638072967529297, 0.23068268597126007, -0.3677942454814911, -0.00024729734286665916, -0.1027187779545784, 0.2523351013660431, -0.08219696581363678, 0.06997693330049515, -0.21203209459781647, -0.32106971740722656, 0.15245065093040466, 0.11983326077461243, 0.008706855587661266, 0.2352978140115738, -0.18723535537719727, -0.024752197787165642, 0.17027325928211212, 0.3318350911140442, 0.0983542874455452, 0.12632079422473907, -0.0035007509868592024, 0.24528589844703674, 0.22781948745250702, 0.33760690689086914, 0.05249232426285744, 0.28422626852989197, 0.4067206382751465, -0.23989807069301605, -0.3553750514984131, -0.4438515901565552, -0.08789622783660889, -0.2576131820678711, -0.03549789637327194, 0.2587992548942566, 0.16241325438022614, -0.2367556393146515, -0.06639605760574341, -0.030036592856049538, -0.21048855781555176, 0.06462129950523376, -0.20132499933242798, -0.018927352502942085, -0.229726642370224, -0.06217797473073006, -0.28428027033805847, -0.1644260436296463, 0.12686963379383087, 0.22203560173511505, 0.05293605104088783, -0.18427205085754395, 0.4551810920238495, 0.09300430119037628, 0.016230454668402672, 0.1857847273349762, 0.10864706337451935, 0.13937410712242126, -0.058555301278829575, 0.10529671609401703, 0.060355305671691895, -0.3147810697555542, -0.06670048832893372, 0.015204262919723988, -0.05497615039348602, 0.005684392526745796, -0.08595024794340134, 0.15893447399139404, 0.11702089011669159, 0.05776027962565422, -0.29341086745262146, 0.05919509381055832, -0.32246068120002747, 0.09718325734138489, -0.3292423486709595, -0.0006950593087822199, 0.2234419584274292, 0.2692423462867737, -0.018446389585733414, 0.14853042364120483, -0.029141824692487717, 0.29549914598464966, 0.06697876751422882, -0.05299602821469307, -0.14307786524295807, -0.4730294346809387, -0.18606820702552795, 0.23827369511127472, -0.007930046878755093, 0.114134281873703, 0.19258497655391693, -0.26800644397735596, -0.08119357377290726, 0.16037361323833466, 0.49110913276672363, -0.006821088958531618, 0.008022787980735302, 0.041871942579746246, 0.06320025771856308, 0.07903331518173218, 0.06420952081680298, -0.015899451449513435, -0.18720318377017975, -0.08169379085302353, 0.12897668778896332, -0.17574355006217957, -0.1406378448009491, 0.24233810603618622, 0.028081411495804787, 0.6451877951622009, -0.02607203833758831, -0.14829805493354797, 0.20961035788059235, -0.16981184482574463, -0.08957219123840332, -0.17736844718456268, -0.0006352687487378716, -0.3216068744659424, 0.18008019030094147, -0.0526353120803833, -0.04431822896003723, -0.18267881870269775, -0.14304983615875244, -0.1604159027338028, -0.2951473891735077, 0.24109870195388794, 0.15361222624778748, 0.19708041846752167, 0.05953541398048401, 0.13619989156723022, 0.08224499970674515, -0.23124444484710693, -0.19681774079799652, 0.1520746797323227, 0.19504804909229279, -0.27025163173675537, 0.188477024435997, -0.167742520570755, -0.12522725760936737, 0.264547199010849, -0.075406514108181, 0.17854245007038116, -0.07521693408489227, -0.031511008739471436, -0.13108892738819122, -0.0426064096391201, 0.01130750123411417, 0.06674143671989441, 0.13577957451343536, 0.18774880468845367, 0.12529565393924713, 0.16809335350990295, 0.18502676486968994, 0.038032688200473785, 0.14057502150535583, 0.03746557608246803, -0.18830606341362, -0.26319295167922974, 0.10168464481830597, 0.2186736911535263, -0.23943139612674713, 0.10435780137777328, -0.07607270777225494, 0.07963905483484268, 0.03506457433104515, -0.09900538623332977, -0.4292796850204468, -0.24529996514320374, -0.2841707170009613, 0.10652762651443481, -0.2739100158214569, -0.0689193457365036, -0.01539753470569849, 0.0871628150343895, -0.01701456680893898, -0.10700107365846634, -0.17699675261974335, 0.07581239193677902, 0.19177205860614777, -0.17629791796207428, -0.25702473521232605, -0.20128540694713593, -0.07598280906677246, 0.02716865763068199, -0.08121657371520996, 0.384979784488678, -0.01434473879635334, -0.24835056066513062, 0.08603924512863159, -0.03827870637178421, 0.1589079648256302, -0.10215473920106888, 0.1234423890709877, -0.2234184890985489, -0.0893835499882698, -0.12863300740718842, -0.21391227841377258, -0.058403365314006805, -0.02914581634104252, 0.008763719350099564, 0.0635160431265831, -0.05936194956302643, 0.021870829164981842, 0.15247422456741333, -0.08730927854776382, 0.11433105915784836, -0.38246965408325195, -0.10483627021312714, 0.35971492528915405, -0.2519064247608185, 0.195565864443779, 0.047886691987514496, -0.10397132486104965, 0.22316771745681763, -0.016979312524199486, 0.1705956906080246, 0.052248287945985794, -0.18908759951591492, 0.14675381779670715, 0.2357584685087204, -0.14575737714767456, -0.518665611743927, 0.21794992685317993, -0.5913078188896179, 0.15016314387321472, 0.1750876009464264, -0.08268240839242935, -0.09331289678812027, -0.05391894653439522, -0.08100923150777817, -0.2547028064727783, -0.2152320146560669, 0.38924917578697205, 0.2170080840587616, 0.2249639928340912, 0.12662018835544586, 0.1150936633348465, 0.3082345724105835, 0.19441914558410645, -0.045204367488622665, -0.09703220427036285, 0.2489633411169052, -0.008115558885037899, -0.12759102880954742, -0.2872294783592224, 0.09418313950300217, 0.3977595269680023, 0.21505630016326904, 0.019005611538887024, 0.13310059905052185, -0.2569049596786499, -0.11136060953140259, -0.4318379759788513, 0.3850259780883789, 0.0928119495511055, -0.19809068739414215, 0.017827218398451805, -0.10312514752149582, -0.19745635986328125, 0.27609875798225403, 0.07853692024946213, -0.36156773567199707, -0.17178215086460114, 0.1247989684343338, 0.32144996523857117, 0.05933351442217827, -0.12117511034011841, 0.0010697527322918177, 0.09410779923200607, -0.29968351125717163, -0.09264429658651352, 0.00822705589234829, -0.052118513733148575, -0.13964353501796722, 0.24399161338806152, -0.3098536431789398, 0.3515348434448242, 0.363533079624176, 0.0399000346660614, 0.19069522619247437, 0.09175146371126175, -0.17993682622909546, 0.04052594304084778, 0.10692816227674484, -0.09833136200904846, 0.29534733295440674, 0.039753831923007965, -0.41074827313423157, -0.45727381110191345, -0.27058354020118713, 0.3217642903327942, -0.15180279314517975, -0.1917918175458908, -0.041566215455532074, -0.2716505229473114, -0.15537682175636292, 0.14440587162971497, -0.22467738389968872, -0.002205749973654747, 0.20296619832515717, 0.0054390341974794865, 0.17868366837501526, -0.05714121833443642, 0.2362293004989624, 0.035771485418081284, 0.06790328770875931, 0.16874141991138458, -0.07786699384450912, 0.17040757834911346, -0.0907667726278305, 0.0025900050532072783, -0.05933867394924164, 0.03877057507634163, -0.1220628023147583, -0.06977549195289612, 0.005893148947507143, -0.09733692556619644, -0.15086159110069275, 0.29703977704048157, 0.21926310658454895, -0.0854540690779686, 0.05964077636599541, 0.059573475271463394, 0.4579457938671112, 0.043606147170066833, -0.015131985768675804, -0.12090975791215897, 0.17375978827476501, 0.022464387118816376, 0.3675515651702881, -0.027188977226614952, -0.07552862912416458, 0.3466370701789856, -0.15070869028568268, -0.055486083030700684, 0.21947190165519714, -0.13607820868492126, -0.008834797888994217, 0.04926316440105438, 0.23201879858970642, 0.17150670289993286, -0.07533369958400726, 0.07395385950803757, 0.154758483171463, -0.13960592448711395, 0.1049899235367775, 0.016878489404916763, 0.23706933856010437, -0.02872910536825657, -0.15180236101150513, 0.05593683570623398, 0.0021150812972337008, 0.12971828877925873, 0.10366656631231308, -0.09542585164308548, -0.03866684436798096, 0.45021966099739075, 0.09730806946754456, -0.02183491922914982, 0.2556450366973877, 0.15574757754802704, 0.2924007475376129, -0.10676392167806625, 0.020491182804107666, -0.09169828146696091, -0.30856752395629883, -0.10352510213851929, -0.12065257877111435, 0.13803213834762573, -0.012349038384854794, 0.0140990586951375, -0.2505999207496643, -0.10904961079359055, 0.10467343777418137, -0.003742038505151868, -0.024233311414718628, -0.008057686500251293, 0.025607293471693993, 0.10539025068283081, -0.10451434552669525, -0.2551729679107666, 0.06882961094379425, 0.02834300696849823, -0.09396131336688995, 0.13479411602020264, 0.05501783639192581, -0.12931369245052338, 0.11012086272239685, 0.11532214283943176, 0.4570106863975525, -0.08977682888507843, -0.01839468628168106, 0.09132224321365356, 0.005166732706129551, -0.23141954839229584, -0.19936791062355042, -0.02625075913965702, -0.17571789026260376, 0.04855068773031235, -0.17616119980812073, 0.1473117172718048, -0.09089628607034683, -0.0868656113743782, -0.18062256276607513, -0.6114838719367981, 0.003253420814871788, -0.10604286938905716, -0.043353937566280365, -0.039626721292734146, -0.052146971225738525, -0.040698543190956116, -0.20053227245807648, 0.01588686928153038, 0.07992757111787796, -0.06049754470586777, 0.07500059902667999, 0.2669755518436432, -0.08205211162567139, 0.10342559218406677, 0.023496462032198906, -0.033681467175483704, -0.08460556715726852, -0.03077678196132183, -0.021168796345591545, 0.1921851485967636, 0.2507527768611908, 0.031205108389258385, -0.01309259980916977, 0.09199546277523041, -0.07181055843830109, -0.12041985988616943, 0.1121162548661232, -0.021481618285179138, -0.0867614895105362, -0.13384899497032166, -0.009552886709570885, 0.1143307238817215, -0.29710519313812256, 0.09659223258495331, -0.0870458260178566, -0.31832155585289, -0.37342581152915955, -0.14190854132175446, 0.22406333684921265, -0.24579042196273804, -0.11740293353796005, -0.154480442404747, -0.09873520582914352, 0.15731902420520782, 0.07285991311073303, -0.09380774945020676, -0.21384088695049286, 0.03711996227502823, 0.14800290763378143, -0.03548754006624222, 0.14630228281021118, 0.12416946142911911, 0.0028555982280522585, -0.05835706740617752, -0.1705743819475174, -0.21260692179203033, -0.31935936212539673, 0.19251295924186707, 0.26359790563583374, -0.0030319837387651205, 0.07348697632551193, -0.013322804123163223, -0.19493456184864044, 0.09618926793336868, 0.10745380073785782, 0.321255087852478, 0.17550426721572876, 0.29401257634162903, -0.46557605266571045, -0.024277430027723312, -0.02711682766675949, -0.4486367702484131, 0.06035427004098892, -0.07866697013378143, 0.0033410980831831694, -0.046020813286304474, -0.05382625013589859, 0.05598914995789528, 0.021739516407251358, -0.07346785813570023, 0.28125226497650146, -0.1759112924337387, 0.03988763317465782, 0.10214858502149582, 0.14328278601169586, -0.37029868364334106, -0.03323526680469513, -0.21197152137756348, 0.08226652443408966, -0.14800359308719635, 0.27003923058509827, -0.09579400718212128, -0.21637782454490662, -0.39109158515930176, -0.05926167964935303, 0.7634153366088867, 0.8227028250694275, -0.12661851942539215, -0.9585992693901062, -0.13297782838344574, -0.2625141739845276, -0.14052900671958923, 0.02738296613097191, 0.3033934533596039, 0.15014000236988068, -0.10509393364191055, -0.2568734288215637, 0.04576011747121811, 0.04187949001789093, -0.1406775712966919, 0.09188857674598694, -0.10746493190526962, -0.27860772609710693, 0.3329305350780487, 0.12867069244384766, -0.39013275504112244, 0.19712205231189728, -0.21892544627189636, -0.01715817302465439, 0.43998339772224426, 0.038729228079319, -0.061852939426898956, 0.042614683508872986, 0.2803418040275574, -0.18999822437763214, -0.3352539539337158, -0.2844860553741455, 0.402193158864975, 0.06222023069858551, 0.030563658103346825, 0.025817399844527245, 0.2180197685956955, 0.0046128020621836185, -0.024772413074970245, -0.5058808326721191, -0.22451449930667877, -0.03610627353191376, 0.07356858998537064, 0.12404850125312805, 0.07782358676195145, 0.114334836602211, 0.1982383280992508, -0.14835746586322784, -0.30394405126571655, -0.21090146899223328, -0.013602499850094318, -0.1955493986606598, -0.3114722669124603, 0.04350102320313454, 0.15250198543071747, 0.13545602560043335, 0.23200151324272156, 0.31705304980278015, -0.0714934691786766, 0.14363262057304382, 0.026921577751636505, 0.300036758184433, -0.07187648117542267, -0.309012234210968, -0.16486632823944092, 0.1794431209564209, -0.0954536721110344, -0.12504559755325317, 0.11441540718078613, 0.3703787624835968, 0.006098757963627577, -0.2454690784215927, 0.3550280034542084, -0.10315597802400589, -0.1785920411348343, -0.2124672681093216, -0.1935383528470993, -0.08111841231584549, 0.3001647889614105, 0.09230274707078934, -0.4348423182964325, -0.1695905476808548, 0.21937476098537445, 0.3819334805011749, -0.5102173686027527, 0.36490345001220703, 0.8065256476402283, 0.3672959804534912, -0.5410345792770386, -0.5791949033737183, 0.2756516635417938, 0.4841713607311249, -0.29649296402931213, 0.3985678255558014, 0.45109090209007263, 0.5998039841651917, -0.68083256483078, -0.21786339581012726, 0.8322793245315552, 0.03455300256609917, -0.5681235790252686, 0.02556556463241577, -0.554381251335144, -0.6013431549072266, 0.5766281485557556, 0.3313520848751068, -0.4716328978538513, -0.487992525100708, 0.6452950239181519, 0.2654530704021454, -0.09490793943405151, 0.12388923764228821, 0.26690739393234253, 0.19180263578891754, -0.12056756764650345, -0.011545458808541298, 0.13621966540813446, -0.5293128490447998, 0.6319774389266968, -0.3660515248775482, -0.03621036186814308, -0.26031872630119324, -0.0003086315409746021, 0.4323749840259552, 0.1752374768257141, -0.06543481349945068, 0.4355512261390686, -0.21323388814926147, -0.15479159355163574, -0.2708136737346649, -0.07578345388174057, 0.04904479160904884, -0.16271694004535675, 0.11166632920503616, 0.33733946084976196, 0.2809123396873474, -0.02661161683499813, -0.32450535893440247, 0.4412708282470703, -0.20223771035671234, 0.17204634845256805, 0.09371978044509888, 0.019164863973855972, 0.11328805238008499, -0.08019451051950455, 0.019772537052631378, -0.2736268639564514, 0.2090887576341629, 0.04777464643120766, -0.3541090190410614, -0.0018897968111559749, -0.03107793815433979, 0.5108937621116638, 0.02624809741973877, 0.05408528074622154, 0.39380308985710144, -0.2114553153514862, -0.07386655360460281, -0.18595097959041595, 0.07580535113811493, 0.319790244102478, -0.25973716378211975, -0.031237071380019188, -0.049526918679475784, 0.17152942717075348, 0.15407639741897583, 0.1841949224472046, -0.036864880472421646, 0.1963120400905609, 0.16360922157764435, -0.15639464557170868, 0.03157568350434303, 0.04783982038497925, -0.13281457126140594, 0.16989818215370178, -0.022605761885643005, -0.09159684926271439, 0.003534187562763691, -0.08380118012428284, 0.14889563620090485, -0.06001632660627365, -0.12760397791862488, 0.345447838306427, 0.0769728496670723, -0.06174268200993538, 0.09971179068088531, -0.12305933237075806, 0.08086197078227997, -0.1693096160888672, -0.05273474007844925, -0.1839522272348404, -0.2605808973312378, 0.2057906836271286, -0.17971546947956085, -0.01377184595912695, -0.5270068049430847, 0.4710979163646698, -0.2278287261724472, -0.17836825549602509, -0.3546060025691986, -0.3719440698623657, 0.32663658261299133, -0.3736880123615265, 0.06674862653017044, -0.22122429311275482, 0.26346519589424133, 0.3052465617656708, -0.25560036301612854, 0.2299661636352539, -0.415961354970932, -0.06844490021467209, -0.009136773645877838, -0.10349654406309128, 0.36020365357398987, 0.4361998736858368, 0.03406507894396782, -0.18908032774925232, 0.18849928677082062, 0.14057816565036774, 0.31465110182762146, -0.15121988952159882, -0.012442454695701599, -0.02402489446103573, 0.2468872219324112, 0.09891879558563232, -0.38812413811683655, 0.009157675318419933, 0.04075273126363754, 0.012792310677468777, 0.1634080857038498, 0.17217226326465607, 0.16425906121730804, 0.10661442577838898, -0.08641443401575089, -0.09453217685222626, 0.23782137036323547, 0.324609637260437, -0.06591859459877014, -0.13774579763412476, -0.23322056233882904, 0.2102930098772049, -0.09333313256502151, -0.007014204747974873, -0.22112804651260376, 0.03737582266330719, 0.05955749377608299, -0.3992258310317993, 0.04558292031288147, 0.11807382851839066, -0.21262751519680023, -0.08724826574325562, -0.08377689868211746, 0.1195593923330307, -0.03499579429626465, 0.0951041504740715, -0.0029793858993798494, -0.0883115753531456, -0.10679811984300613, 0.22219489514827728, 0.24631240963935852, 0.20553308725357056, 0.20056608319282532, 0.004754684399813414, 0.015209702774882317, -0.15402327477931976, 0.076789990067482, -0.1898987591266632, -0.2883499264717102, -0.0907466784119606, 0.5083412528038025, -0.13579623401165009, -0.2887236177921295, 0.14062023162841797, -0.34118878841400146, -0.2034212350845337, 0.14150916039943695, -0.04226693511009216, 0.010928488336503506, 0.3399772644042969, -0.40550681948661804, -0.175975039601326, 0.3782040774822235, 0.12661178410053253, 0.07044485956430435, 0.19897937774658203, 0.12828901410102844, -0.01608899049460888, -0.17639318108558655, -0.09132738411426544, 0.2587536871433258, -0.0031978925690054893, 0.28674080967903137, -0.4187518060207367, -0.10604188591241837, 0.1393309086561203, 0.22718389332294464, 0.05495322123169899, 0.006862561218440533, -0.26887816190719604, -0.2147493213415146, -0.043983928859233856, -0.21306312084197998, 0.009589658118784428, 0.08905372768640518, -0.1437300741672516, 0.027489542961120605, -0.1313610076904297, 0.21913127601146698, -0.034932415932416916, 0.06439483910799026, -0.44406428933143616, 0.08461149036884308, -0.10359896719455719, -0.3520909249782562, 0.0268101766705513, -0.03312307596206665, -0.1514895260334015, -0.05680764093995094, -0.03965716063976288, 0.52667635679245, -0.02743345871567726, 0.026933008804917336, -0.4421953856945038, 0.2466023862361908, 0.13803203403949738, 0.06412170082330704, -0.08609535545110703, -0.01031797006726265, -0.2821477949619293, 0.18519838154315948, -0.24326057732105255, -0.08998855948448181, -0.07769966125488281, 0.007962888106703758, -0.01692880317568779, 0.12841153144836426, -0.04841695725917816, 0.327564001083374, 0.0504630021750927, -0.15072283148765564, -0.06819190084934235, 0.010057696141302586, -0.03481370583176613, -0.2499728500843048, 0.16584549844264984, 0.9133105874061584, 0.5700682997703552, 1.0005079507827759, 0.22935162484645844, -0.07783284783363342, -0.25574734807014465, -0.47491395473480225, -0.09418904036283493, -0.029039153829216957, 0.23248113691806793, -0.04004006087779999, -0.1755339801311493, -0.09037581086158752, -0.21059583127498627, 0.0026836011093109846, 0.2502732276916504, 0.5093064308166504, 0.31739914417266846, 0.006798108108341694, 0.09704240411520004, 0.3832186162471771, -0.05757693946361542, -0.18202121555805206, 0.4085196852684021, 0.3411577641963959, 0.102193683385849, 0.3011073172092438, 0.026844048872590065, 0.051308903843164444, -0.33734187483787537, -0.13187207281589508, 0.04501824080944061, 0.036640919744968414, -0.44174277782440186, 0.4245029389858246, 0.2891576588153839, 0.22154493629932404, 0.057427722960710526, 0.12232077866792679, 0.15251678228378296, -0.33556342124938965, -0.3067017197608948, -0.031459514051675797, -0.007835440337657928, -0.04995159059762955, -0.16067948937416077, 0.3161132037639618, 0.026805419474840164, 0.25854945182800293, -0.1908911019563675, 0.034572534263134, 0.0008021799731068313, -0.4665485620498657, -0.08058109879493713, 0.004174910485744476, -0.07480644434690475, 0.03013116493821144, 0.21913813054561615, 0.07824438065290451, -0.20235520601272583, -0.10734358429908752, 0.0185153316706419, 0.19509872794151306, -0.22443042695522308, 0.062360748648643494, -0.06712521612644196, -0.026747118681669235, 0.3710329830646515, -0.29926183819770813, -0.09714615345001221, 0.4485445022583008, -0.03629513457417488, 0.3725526034832001, -0.002981047611683607, 0.12314989417791367, 0.1796392798423767, -0.8486377596855164, 0.685663104057312, 0.19760148227214813, -0.7353032827377319, 0.08898831903934479, -0.10380345582962036, -0.36896854639053345, -0.1929120272397995, -0.16533225774765015, 0.5548604130744934, 0.5569269061088562, 0.15333861112594604, -0.4654173254966736, -0.17016246914863586, 0.2621726095676422, 0.3762315511703491, -0.20236331224441528, -0.01772262528538704, 0.16409923136234283, -0.3428537845611572, -0.28092870116233826, -0.32891055941581726, 0.011523214168846607, 0.16627024114131927, 0.05104369297623634, 0.26686251163482666, -0.013060695491731167, -0.08154383301734924, -0.3324832320213318, -0.05746162310242653, -0.057391438633203506, 0.09316330403089523, -0.2758684754371643, 0.23777544498443604, 0.41571617126464844, -0.02373056299984455, 0.35611891746520996, -0.01917363703250885, -0.0008809053106233478, -0.13361099362373352, 0.13189812004566193, -0.28800052404403687, -0.17157307267189026, -0.13742680847644806, 0.2530260384082794, -0.15938051044940948, -0.1617826372385025, 0.12293180823326111, -0.052260253578424454, 0.061831772327423096, 0.12261844426393509, -0.3693072497844696, -0.050855983048677444, 0.2649185359477997, -0.16366207599639893, -0.04065573960542679, 0.41948574781417847, -0.29825329780578613, -0.28540778160095215, 0.26519283652305603, 0.07062885165214539, -0.1653939187526703, -0.10878998041152954, 0.2276482880115509, -0.08336449414491653, -0.12333466112613678, 0.40956616401672363, 0.11424566060304642, 0.08826401084661484, 0.3839036226272583, 0.16389527916908264, -0.19548693299293518, 0.020765068009495735, -0.06068895384669304, 0.013004252687096596, -0.30669042468070984, -0.3343890607357025, 0.27346327900886536, -0.09356599301099777, -0.5246000289916992, -0.5320244431495667, 0.3691738545894623, -0.1975957751274109, -0.4526612460613251, 0.48738572001457214, 0.14479824900627136, -0.3804060220718384, -0.18298305571079254, 0.7951141595840454, -0.11696876585483551, -0.2808662950992584, 0.27868327498435974, -0.18055258691310883, 0.027276843786239624, -0.4864758253097534, -0.15419268608093262, -0.3103184700012207, 0.04663785547018051, -0.24631278216838837, 0.4857807457447052, -0.041761159896850586, -0.12201927602291107, 0.269596666097641, -0.12103039026260376, -0.26373767852783203, 0.24104399979114532, -0.12931248545646667, 0.0913572832942009, -0.053527891635894775, -0.3201843500137329, -0.5744975209236145, 0.24640227854251862, 0.2486792951822281, 0.10360462963581085, -0.2885102331638336, -0.37336984276771545, -0.17534799873828888, -0.007362430449575186, -0.04803510010242462, -0.23889440298080444, 0.04459967091679573, 0.18553848564624786, -0.2928813695907593, 0.1595272421836853, 0.2639208734035492, 0.08186431974172592, -0.30006104707717896, -0.19256718456745148, -0.16386303305625916, 0.15423229336738586, -0.03354213014245033, -0.5232149958610535, 0.10586989670991898, 0.3003784120082855, -0.4324896037578583, -0.026221025735139847, -0.21163445711135864, -0.31502828001976013, 0.2487538605928421, 0.12792356312274933, 0.08361572027206421, -0.1535150557756424, 0.1543164849281311, 0.16538006067276, -0.41997650265693665, -0.12608009576797485, 0.594309389591217, 0.030838610604405403, 0.016311591491103172, -0.13750816881656647, 0.0723520889878273, -0.04075847193598747, 0.3627966046333313, -0.04753123223781586, -0.01568368636071682, 0.11944051086902618, -0.39882218837738037, 0.5418010950088501, 0.6631341576576233, -0.6943585276603699, -0.6180899143218994, -0.31176528334617615, -0.18818415701389313, 0.2252160608768463, 0.4146254360675812, -0.45918938517570496, -0.6786218285560608, 0.539603054523468, -0.7853579521179199, -0.25688937306404114, -0.11629734933376312, -0.0069429618306458, -0.3123992383480072, -0.4194849133491516, 0.2624395489692688, -0.07398586720228195, -0.22855544090270996, -0.011324787512421608, 0.0031022350303828716, 0.22179283201694489, -0.09675469994544983, -0.016985053196549416, -0.28798171877861023, -0.13294115662574768, -0.06892415136098862, 0.36874330043792725, -0.24291379749774933, 0.4077112674713135, 0.22960922122001648, 0.2545095384120941, 0.08363965898752213, 0.09413306415081024, 0.04001736268401146, -0.2710951864719391, -0.30087757110595703, 0.007256713230162859, -0.44630223512649536, 0.5126540064811707, -0.1440395563840866, 0.41471758484840393, 0.3000645935535431, 0.17689551413059235, -0.13449248671531677, -0.0528624951839447, 0.12128108739852905, -0.24034221470355988, -0.12437498569488525, -0.2744041085243225, -0.3545056879520416, 0.531777024269104, -0.05584680289030075, -0.23274190723896027, 0.21674944460391998, -0.14189614355564117, 0.06297200173139572, -0.3368072211742401, 0.01936744526028633, 0.1950518637895584, 0.15122321248054504, -0.22927771508693695, 0.16735081374645233, -0.3158295452594757, -0.04068994149565697, -0.1542995125055313, -0.2233426719903946, -0.09133954346179962, 0.05453987792134285, -0.1280856877565384, -0.7440383434295654, -0.6449899077415466, -0.7886608242988586, -0.3257633149623871, -0.5255913734436035, -0.3480347990989685, -0.03812641650438309, 0.4355649948120117, -0.2524819076061249, 0.07355016469955444, 0.24765333533287048, 0.16244731843471527, -0.6114758253097534, -0.01924307830631733, 0.5289247632026672, 0.4600781798362732, -0.4380672872066498, -0.12298326194286346, 0.005801979452371597, -0.11547940224409103, -0.10143841803073883, -0.2923631966114044, 0.35121262073516846, -0.15346480906009674, -0.0838942900300026, 0.11353124678134918, 0.09235809743404388, -0.033004723489284515, 0.35463765263557434, -0.25733524560928345, -0.09665314108133316, 0.030181540176272392, 0.02091391384601593, 0.28265246748924255, 0.23529206216335297, 0.2075181007385254, -0.21948960423469543, 0.2015320211648941, 0.2581310272216797, -0.0849507600069046, -0.060148078948259354, 0.10303301364183426, 0.02013021521270275, 0.09057969599962234, -0.03712846338748932, 0.23914873600006104, 0.35375455021858215, 0.12611737847328186, -0.10010946542024612, 0.25166893005371094, 0.3436206877231598, 0.15578170120716095, 0.07574036717414856, -0.2813727557659149, -0.20614707469940186, 0.2257043868303299, 0.10298392176628113, 0.290121853351593, 0.3374299705028534, -0.061642635613679886, 0.32032105326652527, -0.03634354844689369, -0.06075841560959816, -0.2411779761314392, -0.1920168697834015, 0.17977845668792725, 0.16084440052509308, -0.17358335852622986, 0.09985698014497757, -0.1801624596118927, -0.5604884624481201, -0.02786218374967575, -0.5609772801399231, 0.09059018641710281, -0.30620142817497253, -0.32810598611831665, -0.24549585580825806, -0.9391530156135559, 0.6142619848251343, 0.7478721141815186, 0.02075008489191532, 0.06708096712827682, 0.4267025291919708, -0.07356716692447662, -0.2258690446615219, -0.5879965424537659, 0.11158262193202972, -0.28374093770980835, -0.1800268143415451, 0.08270598202943802, -0.35854750871658325, -0.2292025238275528, -0.29046347737312317, 0.14174702763557434, 0.2127414345741272, 0.0799836814403534, 0.04225415736436844, 0.4238336682319641, 0.06946654617786407, -0.18164387345314026, -0.007050786167383194, -0.05978832021355629, 0.06292487680912018, 0.026678800582885742, 0.25282061100006104, 0.2335967868566513, -0.014211510308086872, 0.06953884661197662, 0.19706915318965912, 0.058599647134542465, 0.2917065918445587, -0.017739199101924896, 0.2744838297367096, -0.2142450511455536, 0.2108001857995987, 0.2151835411787033, -0.047066912055015564, -0.17780263721942902, -0.014127254486083984, 0.07319189608097076, -0.36874282360076904, 0.07120603322982788, 0.1234990656375885, -0.04379674792289734, 0.06672966480255127, 0.19063857197761536, 0.07250785827636719, -0.1251119077205658, 0.13283759355545044, -0.12316248565912247, 0.10670050233602524, -0.013952022418379784, -0.14478105306625366, -0.11594521254301071, 0.06512431055307388, -0.08336398005485535, 0.11338012665510178, -0.02108340710401535, -0.15216059982776642, -0.10157012194395065, -0.24116840958595276, 0.07309149205684662, 0.0012172021670266986, 0.3777928650379181, -0.16984835267066956, -0.007293872069567442, -0.24412000179290771, 0.23059436678886414, 0.17660725116729736, -0.10502977669239044, 0.32416096329689026, -0.03345271572470665, -0.7600070834159851, 0.16965048015117645, 0.43340930342674255, 0.2824537456035614, 0.47611892223358154, -0.3353978097438812, 0.2815278470516205, 0.34468480944633484, 0.18936917185783386, 0.013352232053875923, 0.19340069591999054, -0.40655505657196045, -0.21054409444332123, 0.08557990938425064, -0.04806732386350632, 0.2220468372106552, 0.38196250796318054, 0.18506895005702972, -0.3330269455909729, -0.5614174008369446, -0.22970974445343018, 0.1924666166305542, -0.42044517397880554, -0.3830733597278595, -0.2194853574037552, -0.27844148874282837, -0.07267411053180695, -0.043966080993413925, -0.04585419222712517, -0.057784922420978546, -0.16286084055900574, 0.06401820480823517, -0.19809433817863464, 0.04589951038360596, -0.060492370277643204, -0.37917283177375793, -0.07219437509775162, 0.12838062644004822, 0.03435645252466202, 0.1124248206615448, 0.24422548711299896, -0.2931053340435028, -0.20531637966632843, -0.3980671465396881, -0.5357624888420105, -0.055375490337610245, 0.17957797646522522, 0.0892677903175354, 0.12822666764259338, -0.2080060839653015, 0.06992670893669128, -0.09084060788154602, 0.1833021640777588, -0.2974852919578552, -0.24247492849826813, -0.3200818598270416, -0.13147640228271484, 0.3149416446685791, 0.049838628619909286, -0.08246688544750214, -0.0387151837348938, 0.07467228919267654, -0.2300058901309967, 0.14640721678733826, -0.2115234136581421, 0.39019426703453064, 0.06249810382723808, 0.21207521855831146, 0.3667849004268646, -0.28174158930778503, 0.03199018910527229, -0.2057487517595291, 0.07032199203968048, -0.10633297264575958, 0.0825909674167633, 0.3389439582824707, 0.01244743075221777, -0.18534879386425018, -0.43923088908195496, 0.30393898487091064, -0.0528191477060318, 0.07850337773561478, -0.3607831597328186, 0.4218056797981262, 0.41707879304885864, 0.32994410395622253, 0.21667039394378662, 0.15381668508052826, -0.47083330154418945, 0.43550610542297363, 0.08345891535282135, 0.05276598781347275, 0.2178407609462738, -0.22414752840995789, 0.0030248607508838177, 0.48964613676071167, -0.005347931757569313, -0.141798734664917, 0.21418459713459015, 0.17946164309978485, -0.18339258432388306, -0.3302941620349884, -0.0689033567905426, 0.09734691679477692, 0.04131273180246353, -0.05427537113428116, 0.0877094566822052, -0.03608017787337303, -0.3365064859390259, -0.19750653207302094, 0.11264917999505997, -0.06662013381719589, -0.07924409210681915, -0.024179669097065926, 0.18145275115966797, -0.05781437084078789, 0.3125106692314148, -0.0846128836274147, -0.07067520171403885, 0.007901526056230068, -0.2878601551055908, 0.12280041724443436, -0.08541187644004822, -0.11161945760250092, -0.18166284263134003, -0.15970109403133392, 0.14912688732147217, -0.10872514545917511, -0.08821729570627213, -0.01681334897875786, 0.06769338995218277, 0.22314348816871643, 0.14303413033485413, -0.12421683222055435, -0.1297345608472824, -0.24900038540363312, -0.03573581948876381, -0.032720282673835754, -0.11406517773866653, -0.035857412964105606, -0.03542251139879227, 0.4319320321083069, 0.01068140473216772, -0.08336207270622253, 0.12813833355903625, 0.08396480977535248, 0.07544123381376266, -0.036560188978910446, 0.025950346142053604, -0.20407608151435852, -0.27183637022972107, -0.07729338109493256, -0.2019098550081253, -0.40728628635406494, -0.9422470331192017, 0.45193031430244446, -0.13435021042823792, -0.30332961678504944, -0.4031059741973877, 0.24967235326766968, -0.19809962809085846, 0.006985899060964584, 0.07169470936059952, 0.09521449357271194, 0.19168679416179657, -0.24444691836833954, 0.15653347969055176, 0.4570577144622803, 0.28800728917121887, 0.5183380842208862, 0.024411169812083244, 0.0991094633936882, 0.2874530255794525, -0.2566036283969879, 0.17624427378177643, -0.28012293577194214, -0.1109459325671196, -0.25360381603240967, -0.19269463419914246, 0.039304498583078384, -0.16306838393211365, -0.19729307293891907, 0.0344216451048851, -0.18649062514305115, -0.4146060049533844, 0.10510383546352386, 0.21081900596618652, -0.35389384627342224, -0.09607527405023575, -0.015503213740885258, 0.10622366517782211, -0.06316138058900833, 0.2957160174846649, 0.20131586492061615, -0.13663901388645172, 0.15691347420215607, 0.2346303015947342, -0.23422889411449432, 0.17974722385406494, 0.20050688087940216, 0.04266459867358208, 0.18690244853496552, 0.08710888028144836, 0.23884433507919312, 0.07516956329345703, -0.3420834243297577, 0.2563894987106323, 0.026411935687065125, 0.10586812347173691, 0.1492994725704193, 0.22350811958312988, -0.017023256048560143, 0.045998215675354004, 0.0006029988871887326, 0.008660402148962021, -0.17972838878631592, -0.08524628728628159, 0.12179669737815857, 0.20059169828891754, -0.056508395820856094, 0.4986240565776825, -0.28100916743278503, 0.1906816065311432, 0.2721615433692932, -0.3320345878601074, 0.22188910841941833, -0.21658499538898468, -0.08575878292322159, 0.3668055534362793, -0.29528239369392395, 0.7087872624397278, -0.2972821295261383, -0.057630814611911774, -0.5433739423751831, -0.4585447609424591, 0.4884701073169708, 0.3343279957771301, 0.21138513088226318, 0.1801840364933014, -0.5411938428878784, 0.4122045636177063, -0.16563746333122253, -0.24850891530513763, -0.554404616355896, 0.5442257523536682, 0.11032208800315857, 0.09315403550863266, -0.13397973775863647, -0.2517765760421753, 0.14729519188404083, -0.04930439591407776, 0.34197795391082764, -0.08425348997116089, -0.10219880938529968, 0.3117578327655792, -0.03230559080839157, 0.002870335942134261, -0.14425382018089294, -0.1314721405506134, -0.06584008783102036, -0.11674732714891434, -0.0930035337805748, 0.3815370500087738, -0.016848109662532806, -0.04820910841226578, -0.1864112764596939, 0.1320561319589615, -0.2798924148082733, 0.0465020053088665, -0.36302122473716736, 0.12662385404109955, -0.18847227096557617, -0.09911803901195526, 0.2034749835729599, 0.11634928733110428, -0.08076266199350357, 0.11180651932954788, 0.15525130927562714, 0.30705296993255615, -0.0058916183188557625, -0.23128949105739594, -0.340181827545166, 0.018109750002622604, 0.007643986027687788, -0.21945862472057343, -0.00010460426710778847, -0.07724665105342865, -0.07651370018720627, 0.12770555913448334, 0.17436033487319946, -0.13701656460762024, -0.2528664469718933, -0.17332307994365692, 0.20690402388572693, -0.009162690490484238, -0.16714580357074738, 0.3648226261138916, -0.021112605929374695, 0.11703355610370636, 0.1039033755660057, 0.026923280209302902, -0.17834709584712982, 0.19736506044864655, -0.20071011781692505, 0.6668058633804321, -0.3890685439109802, -0.40753820538520813, -0.7276951670646667, -0.12091034650802612, -0.04836457967758179, -0.23046547174453735, 0.3559243679046631, 0.2869518995285034, -0.44128191471099854, -0.050015389919281006, 0.1681065559387207, 0.4823986291885376, -0.11955636739730835, 0.3069649934768677, -0.028011441230773926, -0.1917715072631836, 0.30598050355911255, -0.4455450773239136, 0.41890019178390503, 0.4994143843650818, -0.1365121603012085, 0.1975109577178955, 0.49860215187072754, 0.47479426860809326, 0.5534044504165649, 0.6255311965942383, -0.6109647154808044, 0.14164797961711884, 0.019999999552965164]}