{"version":"0.5.4","metadata":{"date":{"year":2026,"month":3,"day":16,"hour":18,"minute":28,"second":26},"loudness":-20.42006492614746,"gain":1,"name":"Diezel - VH4 (Ch 2 BR) - MG","modeled_by":"kenazmusic","gear_type":"amp","gear_make":"tz-make","gear_model":"tz-model","tone_type":"overdrive","input_level_dbu":null,"output_level_dbu":null,"training":{"settings":{"ignore_checks":false},"data":{"latency":{"manual":null,"calibration":{"algorithm_version":1,"delays":[0],"safety_factor":1,"recommended":-1,"warnings":{"matches_lookahead":false,"disagreement_too_high":false,"not_detected":false}}},"checks":{"version":3,"passed":true}},"validation_esr":0.0016278671737755838}},"architecture":"WaveNet","config":{"layers":[{"input_size":1,"condition_size":1,"head_size":8,"channels":16,"kernel_size":3,"dilations":[1,2,4,8,16,32,64,128,256,512],"activation":"Tanh","gated":false,"head_bias":false},{"input_size":16,"condition_size":1,"head_size":1,"channels":8,"kernel_size":3,"dilations":[1,2,4,8,16,32,64,128,256,512],"activation":"Tanh","gated":false,"head_bias":true}],"head":null,"head_scale":0.02},"weights":[-0.0677921324968338,0.5984908938407898,-0.9123150706291199,-0.8451674580574036,-0.37987780570983887,0.48317867517471313,-0.18636278808116913,0.9514321088790894,-0.2442266345024109,0.38610532879829407,-0.616495668888092,-0.16120797395706177,-1.143500804901123,-0.812972366809845,-0.47155213356018066,0.25402161478996277,0.17369623482227325,-0.21167398989200592,0.08027579635381699,-0.1989133656024933,0.3337784707546234,-0.059573426842689514,0.10119293630123138,-0.17207953333854675,0.15226726233959198,0.14810273051261902,-0.14890561997890472,0.04462866857647896,0.060905035585165024,-0.2987957000732422,0.13559792935848236,-0.006491480860859156,0.1932602822780609,-0.24984999001026154,0.026537863537669182,-0.42817962169647217,0.11244971305131912,-0.012240583077073097,0.3414559066295624,-0.11198907345533371,0.16220872104167938,-0.3435865044593811,0.2391613870859146,-0.28421106934547424,0.1674041748046875,-0.2715328335762024,0.2330092340707779,-0.19739563763141632,0.12901228666305542,0.11009964346885681,-0.19205303490161896,0.3060789406299591,0.19967120885849,-0.25520965456962585,0.28249186277389526,0.05182458460330963,-0.2499256283044815,0.07175824791193008,0.034443169832229614,-0.34740668535232544,0.24838821589946747,-0.0722278505563736,0.20473046600818634,-0.15209172666072845,0.394887238740921,-0.19770553708076477,-0.18237262964248657,-0.2693471908569336,0.21882915496826172,0.27678024768829346,0.18598192930221558,-0.17199179530143738,-0.08268154412508011,0.42366403341293335,0.0010052588768303394,-0.01692204177379608,0.3414011597633362,-0.23884467780590057,-0.1082969680428505,-0.39746740460395813,0.00217268755659461,0.28694722056388855,0.42040061950683594,-0.3158975839614868,-0.1725585013628006,-0.32847294211387634,0.09758560359477997,0.07519835233688354,0.37113717198371887,-0.2168607860803604,-0.09941233694553375,-0.25400498509407043,0.23836807906627655,0.2049051970243454,0.16717056930065155,-0.22142711281776428,-0.07047055661678314,0.32399308681488037,-0.25225239992141724,-0.24484118819236755,0.4497852921485901,-0.019541025161743164,-0.19857262074947357,0.2704937756061554,-0.2622081935405731,-0.14774258434772491,0.1923821121454239,-0.2349439263343811,-0.15160128474235535,-0.3085249364376068,0.11025124788284302,0.2886990010738373,-0.13769812881946564,-0.04069876670837402,0.29188862442970276,-0.08814118057489395,0.12557005882263184,-0.17604729533195496,-0.0155892763286829,-0.13424178957939148,0.2383207529783249,-0.027274344116449356,-0.23561634123325348,0.25450074672698975,-0.1564071923494339,-0.23373666405677795,0.15710553526878357,-0.03255971893668175,0.11668822914361954,-0.31599536538124084,-0.07191044837236404,-0.13497339189052582,0.12901107966899872,0.025247007608413696,0.26675328612327576,-0.20394796133041382,-0.005823206156492233,-0.1560516059398651,0.26289084553718567,0.11291256546974182,0.28273627161979675,-0.12015888094902039,0.11233637481927872,-0.16994799673557281,0.07562804967164993,-0.11512082815170288,-0.07228273898363113,0.17933517694473267,-0.10002068430185318,-0.2699780762195587,0.05628413334488869,-0.15400171279907227,-0.19048506021499634,0.2714576721191406,0.045603442937135696,-0.30156853795051575,0.2820456624031067,-0.06686780601739883,0.13601431250572205,-0.28115740418434143,-0.17510852217674255,0.2034149020910263,-0.1575431078672409,0.026241568848490715,-0.22982798516750336,0.037378646433353424,-0.21161769330501556,0.26166409254074097,-0.16730594635009766,-0.15877707302570343,0.3351035714149475,-0.09620445221662521,-0.03537634760141373,0.24230094254016876,-0.183892160654068,0.24150201678276062,-0.23163937032222748,-0.025304796174168587,-0.035670556128025055,0.1108393594622612,-0.024992860853672028,0.12148182094097137,-0.10200861096382141,0.08154794573783875,-0.10400942713022232,0.2462741583585739,-0.1022321879863739,0.139582097530365,-0.31790691614151,0.1297149807214737,-0.04605891928076744,0.30322328209877014,-0.1539166420698166,-0.1308666169643402,0.11655985563993454,-0.1058637872338295,-0.24362394213676453,0.24872975051403046,-0.1320415735244751,-0.1561996191740036,0.21145398914813995,0.051707617938518524,-0.25980883836746216,0.10615292936563492,-0.12705588340759277,0.2557346820831299,-0.28109604120254517,0.1583915799856186,-0.3850572109222412,0.17315790057182312,0.20808012783527374,0.3730696141719818,-0.10256441682577133,-0.18294255435466766,-0.4030686318874359,0.13465683162212372,0.045797426253557205,-0.4843825697898865,0.23607876896858215,0.0460575632750988,-0.4223916530609131,0.25019413232803345,0.18922093510627747,0.4215390980243683,-0.2534397840499878,-0.10779796540737152,-0.5373684763908386,0.1152668446302414,0.17990146577358246,0.3883163034915924,-0.11511792987585068,-0.04164037108421326,-0.41434580087661743,0.2510630488395691,0.26413077116012573,0.3434724807739258,-0.05697702243924141,-0.26926037669181824,-0.4793233871459961,0.16224443912506104,0.20928983390331268,-0.2978688180446625,0.08446940779685974,0.18200281262397766,-0.3447032570838928,-0.028987785801291466,0.2576388716697693,-0.531762957572937,0.12111592292785645,0.13976126909255981,-0.48645898699760437,0.13682526350021362,0.283084511756897,0.41346991062164307,-0.23438216745853424,-0.2828024923801422,-0.2588857114315033,0.0010223346762359142,0.18438661098480225,0.007963896729052067,0.011996990069746971,-0.12059328705072403,-0.03302270546555519,0.005340332631021738,0.2546273171901703,-0.15800237655639648,-0.13992321491241455,0.2510484755039215,0.0200058426707983,-0.05567280203104019,0.13204920291900635,0.041863106191158295,-0.04491746425628662,-0.19773118197917938,-0.18751868605613708,-0.189890518784523,0.40691646933555603,0.013142888434231281,0.08249964565038681,-0.16805966198444366,-0.07899278402328491,-0.1663825511932373,0.14079608023166656,0.21559745073318481,0.09901615232229233,-0.11204129457473755,-0.146819606423378,-0.0478501170873642,0.19325155019760132,-0.11876639723777771,-0.17987965047359467,0.26377788186073303,-0.06215792894363403,-0.10269591957330704,0.17443491518497467,-0.1954549252986908,0.004631690680980682,0.10678964108228683,-0.04578421264886856,-0.14455269277095795,0.14264461398124695,0.14678332209587097,-0.010559318587183952,-0.24256986379623413,-0.10604414343833923,-0.14640627801418304,0.18132205307483673,0.1789567470550537,0.09622899442911148,-0.17710061371326447,-0.23484750092029572,-0.06845562905073166,0.20669323205947876,-0.17090395092964172,0.01156759075820446,0.25547125935554504,-0.19419436156749725,-0.04333440214395523,0.21115505695343018,0.12672840058803558,0.04988116770982742,-0.15094110369682312,-0.2255970686674118,-0.01232624426484108,0.2873266339302063,0.2456803321838379,0.12738613784313202,-0.14101266860961914,-0.03618119657039642,-0.10042721033096313,0.056938041001558304,-0.003047729143872857,0.1789632886648178,-0.07580322027206421,-0.2139556109905243,0.01572386547923088,0.2730358839035034,0.028075678274035454,0.08738545328378677,0.2727159261703491,-0.15541991591453552,-0.09791408479213715,0.27377188205718994,-0.035603635013103485,-0.12791605293750763,0.291842520236969,-0.04515910521149635,0.03596171364188194,0.06905458867549896,0.1660832315683365,-0.021631792187690735,-0.07052361965179443,-0.32008954882621765,0.18432515859603882,0.04416678845882416,0.32206296920776367,-0.13778337836265564,0.08128846436738968,-0.35469964146614075,0.1182069480419159,-0.10642988234758377,-0.4034804403781891,-0.027197016403079033,0.10737855732440948,-0.19214466214179993,0.21101818978786469,0.09082987159490585,0.13838791847229004,-0.1966046839952469,-0.024167178198695183,-0.3740243911743164,0.22843597829341888,-0.08010514080524445,0.19129647314548492,-0.22573427855968475,-0.07296591997146606,-0.1582893431186676,0.21330472826957703,0.09765662997961044,0.402402400970459,0.03833116963505745,-0.027831919491291046,-0.20491883158683777,0.21884706616401672,0.036649711430072784,-0.11289641261100769,0.17600910365581512,0.09509202092885971,-0.3231501281261444,0.14870654046535492,0.000397456664359197,-0.29891884326934814,0.007056809030473232,-0.08785982429981232,-0.37190088629722595,0.1848219633102417,0.094181589782238,0.286221444606781,-0.2041534036397934,0.0872006043791771,-0.053806107491254807,0.03353379666805267,0.12119890004396439,0.25787225365638733,0.0823512077331543,-0.2552216649055481,0.011159680783748627,0.07488435506820679,0.09549020230770111,-0.04838690161705017,-0.1090647280216217,0.13097187876701355,-0.0021745902486145496,-0.02171565592288971,0.037935663014650345,0.0820733904838562,-0.02328750677406788,-0.19770675897598267,-0.11716138571500778,0.15770027041435242,0.2252451330423355,0.038352739065885544,0.03530646488070488,-0.0843515396118164,-0.04105127975344658,-0.13219964504241943,0.161546990275383,0.025906454771757126,-0.05825919285416603,-0.11696772277355194,-0.22794248163700104,0.03210511431097984,0.2826458513736725,-0.11708949506282806,-0.10944902151823044,0.11270427703857422,-0.10209673643112183,-0.14125418663024902,0.22014003992080688,-0.2589276432991028,-0.16223517060279846,0.017558766528964043,-0.15378092229366302,0.07310160994529724,0.020167890936136246,0.27097660303115845,-0.08080970495939255,-0.1734931766986847,-0.1978139579296112,0.0032625149469822645,0.2775207757949829,0.2626320719718933,0.059270184487104416,-0.04029100388288498,-0.2813245952129364,0.19317589700222015,0.12041456252336502,-0.12225697189569473,-0.03697371482849121,0.07600514590740204,-0.3359259366989136,0.014740736223757267,0.13091036677360535,0.07828310132026672,-0.04526183009147644,-0.0541999526321888,-0.17436915636062622,0.032911818474531174,0.06281885504722595,0.14560578763484955,-0.01333889365196228,0.026502234861254692,-0.10651195794343948,0.08058132231235504,0.18671472370624542,0.0617208369076252,-0.21950554847717285,-0.06244724988937378,-0.2716320753097534,0.15455803275108337,0.017784368246793747,-0.25334253907203674,-0.02253982052206993,0.2098739743232727,-0.2129332572221756,0.1838138848543167,0.20019003748893738,-0.11162793636322021,0.08519472926855087,0.07524003833532333,-0.21869273483753204,0.0988798514008522,0.18974728882312775,0.1128387525677681,-0.00400364538654685,-0.18878646194934845,0.215637668967247,-0.29072919487953186,-0.05117505043745041,-0.20439092814922333,0.03403902426362038,0.2472754269838333,0.40037262439727783,-0.07540635764598846,-0.023431042209267616,0.2575798034667969,-0.11950726062059402,-0.0912252739071846,0.3021833598613739,-0.10391917824745178,-0.16992604732513428,-0.24689725041389465,0.1351282000541687,0.1065329760313034,0.37153807282447815,-0.1574736088514328,-0.26302430033683777,-0.32302233576774597,0.2455321103334427,0.13253530859947205,0.3863801956176758,-0.20331136882305145,-0.09852632135152817,-0.4653399586677551,0.08575846254825592,0.08076197654008865,0.47213664650917053,-0.2037791758775711,-0.1436474621295929,0.25400033593177795,-0.03491535037755966,-0.023899221792817116,0.23816204071044922,-0.2732096314430237,-0.2505711615085602,0.33775386214256287,-0.2014620453119278,-0.24496425688266754,0.28105732798576355,-0.13612325489521027,-0.2229696363210678,-0.32612815499305725,0.17147108912467957,0.12666542828083038,-0.13007517158985138,0.4308689534664154,-0.09417183697223663,0.17008188366889954,-0.3050563633441925,0.16987261176109314,-0.29218631982803345,0.11712583154439926,0.11608431488275528,-0.25008106231689453,0.2858542501926422,-0.036693934351205826,-0.20619897544384003,0.20538288354873657,0.04685589671134949,0.1650419533252716,-0.4121203124523163,-0.06230286881327629,-0.2001412957906723,0.3803761303424835,-0.09809836000204086,0.29714488983154297,-0.2866905927658081,0.00275116553530097,-0.06494632363319397,0.3306953012943268,0.07424859702587128,0.26210030913352966,-0.2997221350669861,-0.0639440044760704,-0.17943702638149261,0.37825247645378113,-0.08805441856384277,-0.2748441696166992,0.337585985660553,0.13698463141918182,-0.21070058643817902,0.12881000339984894,-0.16467466950416565,-0.1259140521287918,0.2456737458705902,-0.09986009448766708,-0.12778788805007935,0.31373336911201477,0.08754172921180725,0.26858967542648315,-0.329426109790802,-0.12667621672153473,0.17939095199108124,-0.0744170993566513,-0.10379430651664734,-0.24245764315128326,0.02996542863547802,0.256643146276474,0.4329163730144501,-0.019807927310466766,-0.24961526691913605,0.24864879250526428,-0.2536914646625519,0.005460607353597879,0.25092488527297974,-0.2075469195842743,-0.03306034207344055,-0.37179145216941833,0.09508828073740005,0.12993133068084717,0.2891550064086914,-0.31758245825767517,-0.0587218776345253,-0.3675135672092438,0.20204010605812073,0.253607839345932,0.3852507770061493,-0.14024581015110016,-0.010497367940843105,-0.30984118580818176,0.09153003990650177,0.267463356256485,0.3426226079463959,-0.29744842648506165,-0.16787849366664886,0.19547683000564575,-0.04144579544663429,-0.1702660322189331,0.1829131543636322,-0.15403762459754944,-0.03065199963748455,0.3434771001338959,-0.10843522101640701,-0.11786899715662003,0.35447320342063904,-0.18848325312137604,-0.18767336010932922,-0.4590783417224884,0.09045467525720596,0.2417796552181244,0.06392695009708405,-0.0037708664312958717,-0.11217448115348816,-0.11870332062244415,-0.10733593255281448,0.26555585861206055,0.04395267739892006,0.14088231325149536,-0.2434624284505844,0.09610124677419662,0.09522023051977158,-0.19216640293598175,0.24822087585926056,-0.08221635967493057,-0.2430214136838913,-0.19633731245994568,0.01683470606803894,0.27956992387771606,0.06294563412666321,0.021717209368944168,-0.22152484953403473,-0.1597501039505005,0.08881692588329315,0.021082982420921326,0.129237100481987,0.12625060975551605,-0.18117421865463257,-0.022238904610276222,-0.04376387968659401,0.2619318962097168,-0.013988648541271687,-0.011370835825800896,-0.16476485133171082,0.17252062261104584,0.061141956597566605,-0.03189791738986969,0.11264046281576157,0.014968064613640308,-0.029685871675610542,0.08986426889896393,0.13989384472370148,-0.23317499458789825,0.10913577675819397,0.005717478226870298,-0.07113059610128403,-0.05126016587018967,-0.0002739785413723439,0.06145835667848587,0.03993745148181915,-0.007569259498268366,0.15548722445964813,-0.07827234268188477,0.15544526278972626,0.03882794827222824,0.002803075360134244,-0.2050449699163437,0.20232383906841278,-0.11930686980485916,-0.0332331545650959,0.12378305196762085,-0.07477515935897827,-0.013499845750629902,-0.035887766629457474,0.04337633028626442,-0.030409762635827065,-0.12612342834472656,0.006173735484480858,0.08104526251554489,0.06292639672756195,0.10212918370962143,0.048271048814058304,-0.17208069562911987,-0.11481431126594543,-0.17957225441932678,0.26368463039398193,-0.022203220054507256,0.062177978456020355,-0.0678735002875328,0.09532948583364487,0.06120717152953148,0.2239721715450287,-0.11967924237251282,-0.0824066698551178,0.019176676869392395,-0.09697619080543518,-0.03609446436166763,0.23374705016613007,-0.1251698136329651,0.02385963872075081,0.03111969865858555,-0.035332512110471725,0.050412509590387344,0.07200329005718231,0.04135424643754959,-0.05213039740920067,-0.003958237823098898,-0.3288280665874481,-0.028948968276381493,0.24728907644748688,0.2228367179632187,-0.15609000623226166,-0.1740974336862564,-0.20106452703475952,-0.004019538871943951,0.247409850358963,-0.19713418185710907,0.13427840173244476,0.10742021352052689,-0.3483649790287018,-0.016661139205098152,0.05077429115772247,0.3169536292552948,0.061541538685560226,-0.06999702006578445,-0.2901064157485962,0.1083780974149704,0.15772341191768646,0.42970705032348633,-0.09688535332679749,-0.28100767731666565,-0.29537254571914673,0.13114993274211884,0.05375431478023529,0.4704323410987854,0.01306499820202589,-0.28684675693511963,-0.3525788486003876,0.16572926938533783,0.06862945854663849,-0.34948012232780457,0.0986819714307785,0.06680918484926224,-0.2527464032173157,0.10521285235881805,0.26454731822013855,-0.4150163233280182,0.18171587586402893,0.09768471121788025,-0.17269450426101685,-0.09999221563339233,0.05183512344956398,0.412056565284729,-0.05122170224785805,-0.2106066346168518,-0.0445697084069252,-0.033587999641895294,-0.07829995453357697,-0.037496231496334076,-0.08794987946748734,-0.0018768147565424442,-0.05469430610537529,0.02785308100283146,0.10661010444164276,0.0014486222062259912,-0.09530480206012726,0.012866528704762459,-0.09195706248283386,-0.08242549747228622,-0.0002439564123051241,-0.10085175186395645,0.2685597836971283,-0.2959804832935333,0.6170229911804199,-0.6612035036087036,-0.1471989005804062,0.7041440606117249,0.8429015278816223,-0.5638353228569031,0.037264201790094376,0.012850304134190083,-0.32980361580848694,-0.3148465156555176,0.3909573554992676,-0.5732885003089905,0.06895513832569122,0.25929537415504456,-0.032519206404685974,0.2540992796421051,0.010867797769606113,0.0028894825372844934,0.24902072548866272,-0.1014266088604927,0.05098662152886391,-0.10641717165708542,-0.18257257342338562,-0.21052567660808563,0.08913208544254303,-0.17657765746116638,0.16810448467731476,0.16848336160182953,-0.09936966747045517,-0.0712539479136467,-0.2788982391357422,-0.21949633955955505,-0.4921135902404785,0.30724671483039856,0.11003550887107849,-0.2635706961154938,-0.26368752121925354,0.3274381458759308,-0.17520160973072052,0.15050341188907623,-0.1919189840555191,0.23405048251152039,-0.06978712230920792,0.07502450048923492,-0.07257244735956192,0.1396794319152832,0.08541511744260788,0.051743488758802414,-0.004689335823059082,0.16151079535484314,-0.14907631278038025,-0.07033592462539673,0.06262556463479996,-0.2261272668838501,-0.000547011150047183,-0.10768178850412369,0.1934015452861786,-0.3134779930114746,0.17607057094573975,0.19250838458538055,0.15023638308048248,-0.06894242018461227,0.06518076360225677,-0.3564688563346863,-0.09239337593317032,-0.2842269539833069,0.15986774861812592,0.07313598692417145,0.007205033674836159,0.1404651403427124,-0.25362512469291687,0.11405007541179657,-0.26257386803627014,-0.12417203933000565,0.035172007977962494,0.24202010035514832,-0.339273065328598,0.0396341010928154,-0.020886287093162537,-0.29309308528900146,-0.147683247923851,0.19849812984466553,0.3025084435939789,0.15890491008758545,0.16996252536773682,-0.08875633031129837,0.08281052857637405,0.29181578755378723,-0.26731619238853455,0.24255478382110596,-0.10750880092382431,0.15133360028266907,0.022390197962522507,0.14046302437782288,-0.39642196893692017,-0.17063428461551666,0.23440836369991302,-0.021880347281694412,0.3715711236000061,0.3542943298816681,0.44460350275039673,0.3545246124267578,0.2981487214565277,0.09327872842550278,-0.3623698353767395,-0.11956369876861572,-0.02563551813364029,-0.2323715090751648,-0.07060453295707703,0.30897238850593567,-0.10746701806783676,0.24514678120613098,0.0002588107017800212,0.029316676780581474,-0.6151506900787354,-0.30494067072868347,-0.12235264480113983,-0.21189911663532257,0.043871331959962845,-0.4357333779335022,-0.03338857740163803,-0.0005114416708238423,0.3147490322589874,-0.15626534819602966,-0.14426550269126892,-0.5166976451873779,0.20307396352291107,-0.005750640295445919,0.39882829785346985,-0.4013788402080536,-0.1264408379793167,0.225977823138237,0.3435972034931183,0.21077418327331543,0.24312056601047516,-0.10488449037075043,0.08087824285030365,-0.3288412094116211,0.026128113269805908,-0.24643254280090332,-0.12165579199790955,0.17635656893253326,0.10181231051683426,0.07430596649646759,-0.42499515414237976,-0.16075223684310913,-0.059523630887269974,-0.26256558299064636,-0.43982163071632385,-0.28897765278816223,-0.2958690822124481,-0.37804117798805237,0.20145536959171295,0.13785620033740997,-0.0424564853310585,0.01718328334391117,-0.1284547746181488,-0.19892166554927826,-0.10448764264583588,0.2248016595840454,0.1531057506799698,-0.325514018535614,-0.6504793763160706,0.010350865311920643,0.060523804277181625,-0.4698331654071808,0.04544221609830856,0.016638314351439476,0.32387450337409973,-0.22683703899383545,0.5538947582244873,0.1324680745601654,-0.21427708864212036,-0.21746087074279785,0.06922483444213867,0.26306837797164917,-0.39483046531677246,0.24420048296451569,-0.1177438348531723,-0.3103562593460083,-0.12686674296855927,-0.13251356780529022,-0.05851399898529053,-0.2344701737165451,-0.16208915412425995,0.021091336384415627,-0.14894838631153107,0.23547211289405823,-0.03630576655268669,0.05692999064922333,0.3892875909805298,-0.036652080714702606,0.25235942006111145,-0.3376061022281647,-0.1358359009027481,-0.0014522209530696273,-0.059480562806129456,-0.17909736931324005,0.0034943725913763046,-0.2019772082567215,0.1776532232761383,-0.5673410892486572,0.008829081431031227,0.07578015327453613,-0.10235118865966797,-0.31208255887031555,-0.1474887579679489,-0.19267398118972778,0.09461961686611176,0.16666920483112335,0.39792096614837646,-0.12155219912528992,0.061766117811203,0.37485483288764954,0.2038307785987854,0.09637755155563354,-0.3654310405254364,0.32496458292007446,-0.09357266873121262,-0.12925568222999573,-0.06253448873758316,0.2835020124912262,-0.12281842529773712,-0.3087415397167206,-0.18217717111110687,0.31171825528144836,0.053490590304136276,0.167123943567276,0.16407310962677002,0.21907489001750946,-0.09002108871936798,-0.039254892617464066,-0.11581739038228989,0.2100324034690857,-0.34223470091819763,0.019534729421138763,-0.14610731601715088,0.17797544598579407,-0.24169883131980896,0.21373172104358673,-0.12147342413663864,-0.06368912756443024,0.13325348496437073,-0.01652310974895954,0.09487341344356537,0.21817800402641296,-0.26124492287635803,0.12752963602542877,-0.07442355155944824,-0.02900700829923153,0.062137097120285034,0.21154840290546417,-0.2935807704925537,-0.07242705672979355,0.83416748046875,0.14095339179039001,0.39799296855926514,-0.3103831112384796,-0.13936862349510193,0.2555675804615021,0.2234436720609665,0.021061137318611145,0.010259685106575489,-0.15465669333934784,-0.019089987501502037,-0.3502708375453949,0.11209803819656372,0.05572347715497017,0.07486521452665329,0.04466196894645691,0.0838957279920578,-0.20885302126407623,0.23000699281692505,-0.22513402998447418,-0.18596333265304565,0.07766856998205185,0.3590017855167389,0.08275444805622101,0.06376586109399796,-0.2665051519870758,-0.007875093258917332,0.023934058845043182,0.08746253699064255,-0.04086516052484512,0.11197709292173386,-0.09516194462776184,0.002544600050896406,-0.1660970002412796,-0.039955656975507736,0.1739303022623062,-0.12227273732423782,0.20435045659542084,-0.11475249379873276,-0.0036739492788910866,0.02883828431367874,-0.1801595538854599,0.020433910191059113,0.028698382899165154,-0.11005201190710068,-0.11661671102046967,0.12133735418319702,0.1672586053609848,-0.09974747151136398,0.013635771349072456,-0.10520832985639572,-0.06000437214970589,0.11563798785209656,0.08360300213098526,0.03490585461258888,-0.27421697974205017,-0.11495223641395569,0.023010235279798508,-0.05757759138941765,-0.03933771327137947,0.14931437373161316,-0.13631615042686462,-0.1972118318080902,-0.10546063631772995,0.06072914972901344,-0.13050679862499237,0.14616882801055908,-0.07979442924261093,-0.2892536222934723,-0.3788473904132843,0.09009917080402374,-0.25832486152648926,-0.0514279380440712,0.02196883037686348,-0.1713039129972458,-0.004398018587380648,0.07332337647676468,0.16529539227485657,0.059468455612659454,-0.21394804120063782,-0.010655506514012814,0.06244273856282234,0.259159117937088,-0.14804846048355103,-0.2900724411010742,0.1691380888223648,-0.20153385400772095,0.08447521179914474,0.2805401086807251,-0.2178047150373459,0.07293549925088882,-0.005346853286027908,0.1027970165014267,-0.16508866846561432,-0.006573507562279701,0.027501996606588364,-0.14527997374534607,-0.18467022478580475,0.01945764198899269,-0.12045375257730484,0.10178545862436295,0.19430316984653473,-0.03724176064133644,-0.10147881507873535,-0.27988776564598083,-0.08504664897918701,0.13805674016475677,0.038346365094184875,0.04807291552424431,-0.0420498289167881,-0.12843258678913116,0.013681531883776188,0.12648339569568634,-0.2196202278137207,0.3152134418487549,0.18940486013889313,-0.07274643331766129,0.03801749646663666,0.0019773701205849648,-0.10273747891187668,-0.028725462034344673,0.11620087176561356,-0.12730984389781952,-0.06337861716747284,0.21924515068531036,0.02349662408232689,0.23656272888183594,-0.3031313717365265,-0.04171838238835335,-0.35601311922073364,0.04164034500718117,0.13675124943256378,0.14044061303138733,-0.08485996723175049,0.19068044424057007,-0.09333125501871109,0.08515646308660507,0.1970115303993225,-0.0243830643594265,-0.08488112688064575,-0.033339183777570724,0.22367316484451294,0.10647167265415192,-0.2514939308166504,0.25199583172798157,0.062269411981105804,0.3285781741142273,-0.3116471767425537,-0.0687752217054367,-0.15011551976203918,0.04280338063836098,0.010500921867787838,0.21410585939884186,-0.23958836495876312,0.017065756022930145,0.08436073362827301,-0.1757632941007614,-0.12174893915653229,0.06052415817975998,-0.26192161440849304,0.156209796667099,0.34927377104759216,-0.492940217256546,0.05907011032104492,-0.05958161875605583,0.6015576124191284,-0.05610320344567299,0.09390044212341309,0.148223876953125,0.11054320633411407,0.05099738761782646,-0.08676323294639587,0.1545426994562149,-0.227521613240242,0.23008529841899872,-0.012020985595881939,0.03469158709049225,0.059334445744752884,0.06909400224685669,0.0743805393576622,0.11689961701631546,-0.003056842368096113,0.2109958827495575,-0.10628875344991684,-0.11045864969491959,0.03472991660237312,-0.10555169731378555,-0.2953362762928009,-0.11823323369026184,-0.29740336537361145,-0.15722204744815826,-0.17692290246486664,0.13904371857643127,0.0003995327278971672,0.26342475414276123,0.3007393777370453,0.1421544849872589,-0.2524786591529846,0.14112941920757294,0.018172090873122215,0.26719507575035095,-0.09168733656406403,0.06755542010068893,0.08454467356204987,-0.1371544748544693,-0.10361910611391068,0.26882797479629517,-0.12042387574911118,0.04169013723731041,-0.02749823033809662,-0.07401721924543381,0.061658825725317,0.2360888570547104,-0.03955472260713577,0.014265812933444977,0.37949639558792114,-0.20063312351703644,-0.09703092277050018,0.33145177364349365,0.15052267909049988,0.2646512985229492,-0.2272261381149292,-0.08157572895288467,-0.029086679220199585,-0.10220640897750854,-0.1620977520942688,-0.05104265734553337,0.2488791048526764,0.181911438703537,0.032437514513731,-0.002677630167454481,-0.09779488295316696,-0.11504299193620682,0.02412053942680359,0.0937676876783371,0.18278566002845764,-0.06908091902732849,0.17369325459003448,0.036347635090351105,-0.22147248685359955,0.2363339215517044,-0.0271149929612875,0.1842017024755478,-0.31817007064819336,-0.09216692298650742,0.021231383085250854,0.2634724974632263,0.11489611864089966,0.1929183453321457,-0.11905471235513687,-0.11274004727602005,0.12063729763031006,-0.13774238526821136,0.07753679156303406,0.22230377793312073,-0.18779504299163818,-0.02780698984861374,-0.020056238397955894,-0.13710246980190277,0.09274234622716904,-0.45658043026924133,-0.10962691158056259,0.06662458926439285,0.030904075130820274,-0.0839768722653389,0.06426534056663513,-0.016594937071204185,-0.31634193658828735,-0.23390688002109528,0.09816617518663406,0.20295625925064087,0.007724682800471783,-0.015795810148119926,0.1832573115825653,0.034515380859375,-0.5961987376213074,0.07078322023153305,-0.07248786091804504,-0.03213801980018616,0.19182749092578888,0.09473546594381332,-0.17939981818199158,-0.02658294327557087,-0.16686880588531494,-0.05778183788061142,-0.12559327483177185,-0.11215841770172119,0.20347000658512115,-0.24505715072155,0.02637818455696106,0.08304735273122787,0.08456363528966904,0.04773125797510147,0.10501578450202942,-0.3189038634300232,0.24439305067062378,0.03073461912572384,0.37152040004730225,-0.05480475351214409,-0.07093670219182968,-0.16175758838653564,-0.15458373725414276,0.0005370243452489376,0.24331718683242798,-0.001240090816281736,0.14238162338733673,0.08001184463500977,0.0702173113822937,0.4344143867492676,0.21190226078033447,0.05294331535696983,0.11464285850524902,0.09237425029277802,0.04401644319295883,-0.07694095373153687,0.4392223358154297,-0.02835007756948471,0.03625122830271721,-0.29416370391845703,0.032328881323337555,0.034606922417879105,0.0834711566567421,-0.06680312752723694,0.11147672683000565,0.251460999250412,-0.10027877241373062,-0.08916732668876648,-0.04977671056985855,0.06105466187000275,0.07476795464754105,0.006547290366142988,-0.04849857836961746,-0.03562767803668976,0.11351895332336426,0.013405107893049717,0.0993531346321106,0.022907409816980362,0.2347910851240158,0.09278082847595215,-0.04395398870110512,-0.030194908380508423,-0.2917359471321106,-0.12486473470926285,0.0984845906496048,0.07636815309524536,-0.023633483797311783,-0.2415718138217926,-0.044755008071660995,-0.05434384196996689,0.005292152054607868,0.13761483132839203,-0.0015045078471302986,-0.05120493099093437,-0.14805303514003754,0.032078441232442856,-0.08177783340215683,0.23155450820922852,0.3023819029331207,0.05412299185991287,0.05220181494951248,0.18982002139091492,-0.18232843279838562,-0.1152898371219635,0.08278582990169525,-0.051142025738954544,-0.2458672821521759,-0.2429681122303009,0.038527797907590866,0.051606252789497375,0.11359371244907379,0.12868517637252808,0.18529343605041504,-0.3501810133457184,-0.20496141910552979,0.12422970682382584,0.014802605845034122,0.1074763685464859,0.012071656063199043,-0.13365420699119568,-0.15675422549247742,-0.19834411144256592,-0.23920537531375885,-0.1579860895872116,-0.10590828210115433,0.04061712324619293,0.03334556147456169,0.2451290488243103,-0.10814742743968964,0.016898447647690773,-0.0747862458229065,0.1767624318599701,0.04585692659020424,0.2676650285720825,-0.21378777921199799,0.08938062936067581,0.30865809321403503,0.19765813648700714,-0.045126527547836304,0.32200872898101807,-0.23624925315380096,-0.05444686487317085,0.13220128417015076,0.019200854003429413,0.04671164229512215,-0.2644353210926056,-0.31976446509361267,-0.19709815084934235,0.018043678253889084,-0.13478359580039978,-0.1616973727941513,0.38534870743751526,-0.009667554870247841,0.18842199444770813,-0.308673620223999,0.19787009060382843,-0.017179129645228386,0.10392982512712479,0.0286538265645504,-0.0583772137761116,0.023096177726984024,0.06993023306131363,0.10928180813789368,0.14634864032268524,-0.060049328953027725,0.10101402550935745,0.12617993354797363,-0.0677991509437561,-0.10693135857582092,0.19440175592899323,0.20601455867290497,0.15964199602603912,-0.14524824917316437,0.20915289223194122,0.0387008897960186,0.09592103213071823,-0.018645068630576134,0.0390755869448185,-0.09259866178035736,-0.009078791365027428,0.02925976552069187,0.015925437211990356,-0.1919528990983963,0.13005997240543365,-0.07175225019454956,0.06911538541316986,-0.19897514581680298,0.11231571435928345,-0.13512302935123444,-0.03937269002199173,-0.015718476846814156,-0.27517691254615784,0.0028085289523005486,0.08186092972755432,0.1563771814107895,0.20187725126743317,0.0962475836277008,-0.022444039583206177,-0.00575424125418067,0.030328597873449326,-0.1325809806585312,0.06197776272892952,0.009332142770290375,-0.005989831872284412,-0.14053401350975037,-0.22618621587753296,0.2622186839580536,-0.11568329483270645,-0.10814858227968216,0.11102437227964401,-0.025048980489373207,-0.3505559265613556,0.1286940723657608,-0.04033505916595459,-0.16339139640331268,0.16171453893184662,-0.06478215008974075,0.40745827555656433,-0.2046089768409729,-0.02220037393271923,0.13877272605895996,-0.2285134643316269,0.10640202462673187,-0.21054786443710327,0.14824923872947693,0.0433381088078022,-0.03598017990589142,-0.10794432461261749,0.26294463872909546,-0.2581423223018646,0.27517831325531006,-0.07032191008329391,-0.46710801124572754,0.036266814917325974,0.0014892042381688952,-0.2520890235900879,0.16077075898647308,0.05714742839336395,-0.41879352927207947,0.17118410766124725,-0.018420059233903885,0.4560144245624542,-0.4110512137413025,-0.11190999299287796,-0.07751597464084625,-0.006516802590340376,-0.028450101613998413,-0.22000905871391296,-0.0047407690435647964,-0.025094186887145042,0.030546745285391808,-0.17721103131771088,0.038672588765621185,-0.2318626195192337,0.07988566905260086,0.00500063132494688,-0.2720886468887329,0.1572970598936081,-0.1565053015947342,-0.273504376411438,0.00244366773404181,0.16007386147975922,-0.22892449796199799,0.035991471260786057,0.14813801646232605,0.25883767008781433,0.1520548015832901,-0.21068790555000305,0.3675907552242279,-0.05037538334727287,-0.13579080998897552,-0.39781811833381653,0.05658945441246033,0.1839895397424698,0.10053712874650955,-0.17137672007083893,-0.008623664267361164,-0.3201240003108978,0.0645027905702591,0.24133236706256866,-0.4391639232635498,-0.44135087728500366,0.044880419969558716,-0.18477989733219147,0.0913269966840744,-0.003949311096221209,-0.21063005924224854,-0.024827510118484497,0.06980645656585693,0.6754822134971619,0.6097836494445801,-0.024315442889928818,0.030121268704533577,0.17315205931663513,0.010526257567107677,-0.20539219677448273,0.09423024952411652,-0.047989051789045334,0.1850629597902298,-0.32876431941986084,-0.009697850793600082,0.026446223258972168,0.1501813679933548,-0.06403132528066635,-0.2298154979944229,-0.07559237629175186,-0.21282559633255005,-0.21743465960025787,0.27338629961013794,0.15129591524600983,-0.07584313303232193,0.08917628973722458,0.005819446407258511,0.16759683191776276,-0.07355217635631561,-0.11096131056547165,0.14302277565002441,-0.030362626537680626,-0.02635526843369007,-0.2428019940853119,0.040725432336330414,0.12961892783641815,0.17620253562927246,-0.05356259644031525,0.030896266922354698,-0.05179111659526825,0.009792921133339405,-0.0642835795879364,-0.4429137408733368,0.06434234231710434,-0.10004734992980957,-0.21379154920578003,0.1594236046075821,-0.041188351809978485,-0.22559192776679993,0.20859619975090027,0.014702586457133293,0.3436155915260315,0.05922943353652954,0.30067768692970276,0.05896615982055664,0.03543145954608917,-0.021408576518297195,-0.039559200406074524,0.15654540061950684,-0.11823458224534988,-0.030254874378442764,-0.15917950868606567,0.047659289091825485,-0.03418887406587601,0.04243132472038269,-0.1536857932806015,0.21203318238258362,0.16225211322307587,0.027404749765992165,0.09427648037672043,0.01829412579536438,-0.17434382438659668,0.07049336284399033,0.09779715538024902,-0.0255151204764843,0.1756109893321991,0.030298952013254166,-0.07320871204137802,-0.12927626073360443,-0.15710198879241943,0.16300541162490845,-0.026015350595116615,-0.1579798012971878,-0.09505191445350647,-0.22194090485572815,-0.16946472227573395,0.13162313401699066,-0.03388020396232605,0.10086758434772491,0.03763092681765556,0.030668100342154503,-0.013464605435729027,-0.09692591428756714,0.17558644711971283,0.17707209289073944,-0.04947084188461304,0.084766685962677,-0.19802892208099365,-0.03333762660622597,0.0819089487195015,0.057940371334552765,0.14112691581249237,0.03579812869429588,0.03190675750374794,-0.15607449412345886,0.08656194061040878,-0.12772472202777863,-0.15850768983364105,-0.026343388482928276,0.08074729889631271,0.13927441835403442,-0.055492740124464035,-0.017661063000559807,-0.0032382227946072817,0.05427819490432739,0.292101114988327,-0.028896929696202278,0.0658441036939621,-0.0632970854640007,0.029336148872971535,-0.07921471446752548,0.02816621959209442,-0.02615395374596119,0.026067081838846207,0.006803546566516161,0.22093026340007782,-0.07165933400392532,-0.07961630821228027,-0.03615209460258484,-0.03585360199213028,0.1676846146583557,-0.03864177316427231,0.009374134242534637,-0.10246457159519196,0.08752944320440292,0.010660910978913307,0.05245321989059448,0.0188620425760746,0.0004054196469951421,-0.1289646327495575,-0.02979079820215702,-0.02095511555671692,0.09871982038021088,-0.14114846289157867,-0.11146356910467148,0.05494885519146919,-0.16597063839435577,0.01980627328157425,-0.04202299937605858,0.17080064117908478,0.12694907188415527,0.21193517744541168,-0.11963898688554764,-0.037772923707962036,0.02485583908855915,-0.2518911361694336,-0.09752877056598663,-0.21729184687137604,0.20408283174037933,-0.23593463003635406,0.06426656246185303,-0.15219776332378387,-0.25345540046691895,0.29273489117622375,-0.07313331961631775,-0.16245880722999573,0.28705310821533203,0.07067093253135681,-0.1255830079317093,0.021952321752905846,-0.01024669874459505,0.12909668684005737,-0.002044527092948556,-0.014913804829120636,0.27688613533973694,-0.28050240874290466,-0.07534525543451309,-0.18125516176223755,0.22509579360485077,0.0919928327202797,0.05316998064517975,-0.24710291624069214,-0.05066822096705437,-0.12819485366344452,0.08044834434986115,-0.04271171614527702,-0.3409220278263092,-0.08336938172578812,0.08921749144792557,-0.13991078734397888,0.2922998070716858,0.12605151534080505,-0.020940026268363,0.17491768300533295,-0.06951045989990234,0.40851160883903503,0.09437920898199081,0.10856889933347702,-0.07096661627292633,0.10525547713041306,0.025111570954322815,-0.26950952410697937,0.23444806039333344,-0.11255820095539093,0.225407674908638,-0.31652581691741943,0.0026114347856491804,-0.09536323696374893,0.1405739188194275,-0.10567474365234375,0.22295719385147095,0.17534777522087097,0.10975847393274307,-0.03665350005030632,0.13516145944595337,0.03581516072154045,0.23780667781829834,0.33567115664482117,0.07200226932764053,0.09164054691791534,0.07154416292905807,0.11695548892021179,-0.08615186810493469,-0.31970709562301636,-0.06456280499696732,-0.05326291173696518,0.1334037184715271,-0.26228517293930054,-0.1172938346862793,-0.3389750123023987,-0.1352207511663437,-0.11598748713731766,0.07165537774562836,-0.0025372961536049843,0.054272595793008804,0.1785086840391159,0.3049889802932739,0.028854070231318474,0.25624722242355347,-0.07458546757698059,-0.1684047132730484,0.11282569169998169,-0.03753426671028137,-0.17175410687923431,-0.09248745441436768,0.016623634845018387,0.10949400067329407,0.2592162787914276,-0.12490012496709824,-0.006500338204205036,-0.03986676409840584,-0.08532927930355072,-0.05007852613925934,0.04098813235759735,0.2163701355457306,0.11284028738737106,0.09820638597011566,-0.01885484717786312,0.2581350803375244,-0.2577628493309021,0.4088238775730133,0.16388824582099915,0.1827811598777771,-0.08440390229225159,-0.03538639098405838,0.032878387719392776,0.1714557409286499,0.01987406611442566,0.04427454248070717,0.1401311308145523,-0.2080828845500946,-0.3962498903274536,0.11440813541412354,0.2173037827014923,-0.5069677829742432,0.1481628715991974,-0.7091983556747437,-0.2340056449174881,-0.24135267734527588,0.8748773336410522,-0.8360663652420044,-0.7601566314697266,-1.0245810747146606,0.21424876153469086,-0.8012225031852722,0.26675301790237427,-0.7896525263786316,-0.42613112926483154,-0.3231136202812195,0.6987695693969727,0.40784919261932373,0.28583934903144836,0.02691417746245861,0.17872847616672516,-0.06068229302763939,0.23932601511478424,-0.7242817878723145,0.23725993931293488,0.04923417046666145,0.530536949634552,0.26929813623428345,-0.13059045374393463,-0.05725240334868431,0.03399251401424408,-0.17343218624591827,-0.2709116041660309,-0.12014412879943848,-0.40461888909339905,0.40073299407958984,-0.02229437418282032,-0.29722580313682556,-0.036255232989788055,-0.09126254916191101,0.19920048117637634,0.25515589118003845,0.11318538337945938,0.16041158139705658,0.22049330174922943,0.3372420370578766,0.01342705823481083,-0.32360005378723145,-0.21095971763134003,-0.05445801466703415,-0.06923834979534149,0.2936774492263794,-0.275696724653244,0.03508509695529938,-0.22141756117343903,0.024296345189213753,-0.20620381832122803,-0.2018270343542099,0.32287558913230896,0.19900111854076385,0.12107247114181519,0.3431677520275116,0.37674057483673096,0.3051906228065491,-0.3894762098789215,-0.06697507947683334,-0.3291417360305786,0.03856634721159935,-0.350888192653656,-0.056959714740514755,-0.1516171395778656,0.21089962124824524,0.1359870284795761,0.3031612038612366,0.1964324712753296,-0.268851637840271,0.11598575860261917,0.0793408527970314,0.20719219744205475,0.12333586066961288,-0.1889413297176361,-0.020772460848093033,0.07316659390926361,-0.03615798056125641,-0.07877300679683685,0.29303768277168274,0.21742719411849976,0.1813606172800064,-0.10735936462879181,0.2998153269290924,-0.2352464646100998,-0.17070895433425903,0.009382771328091621,-0.22927798330783844,-0.06644972413778305,-0.05769464746117592,-0.6753242015838623,-0.0922318771481514,0.14276450872421265,-0.24101896584033966,-0.1493227630853653,-0.09111712872982025,0.053599677979946136,0.3272484242916107,-0.19694764912128448,-0.2252112179994583,-0.19087299704551697,-0.22236211597919464,0.024415135383605957,0.06279443949460983,0.1526349037885666,-0.007732852827757597,0.5475520491600037,-0.4708145558834076,0.044056691229343414,0.530102014541626,-0.43775662779808044,-0.23989275097846985,-0.12203032523393631,-0.28847643733024597,-0.1251271516084671,0.12667615711688995,0.20958851277828217,0.03258154168725014,-0.2715391516685486,0.4972279667854309,0.18002209067344666,0.16513589024543762,-0.016619285568594933,-0.047551631927490234,0.11763747781515121,-0.09903481602668762,-0.18125462532043457,-0.09162817895412445,-0.37711381912231445,0.19754426181316376,-0.13371770083904266,0.023471774533391,-0.1466851681470871,-0.001601260737515986,0.17559827864170074,0.257284551858902,-0.16279065608978271,0.19316640496253967,-0.012407892383635044,-0.328949898481369,-0.5696071982383728,0.09355369210243225,0.05377018824219704,-0.1773640364408493,-0.24790149927139282,0.06656883656978607,0.4708124101161957,0.10229145735502243,0.14366288483142853,0.22363588213920593,0.25238433480262756,0.5283252000808716,0.11441075056791306,0.12936998903751373,-0.012931094504892826,-0.19324786961078644,-0.11934106051921844,0.028294328600168228,0.05491018295288086,-0.22321665287017822,-0.35027509927749634,0.18196150660514832,0.45001283288002014,0.37048593163490295,0.037062812596559525,-0.11102908849716187,0.386464923620224,-0.24656032025814056,-0.4296489357948303,-0.419776052236557,0.19880521297454834,0.23771479725837708,-0.04052918776869774,0.12519024312496185,0.09664297103881836,0.047467853873968124,0.256346732378006,0.14288653433322906,-0.02879071980714798,0.18211212754249573,0.33104950189590454,0.28768423199653625,0.01453086081892252,0.03929799422621727,0.502985417842865,0.6188701391220093,-0.30906176567077637,-0.0490853413939476,-0.3473814129829407,0.022800380364060402,-0.2837851941585541,0.10684029012918472,-0.5045944452285767,0.299554705619812,0.19338443875312805,0.00009529605449642986,-0.00012039194552926347,-0.15308059751987457,0.18318301439285278,0.1608351171016693,-0.0363503061234951,-0.5478408932685852,-0.39083823561668396,0.5531058311462402,0.06264995783567429,-0.20004156231880188,-0.6454992890357971,0.478604257106781,-0.05195847898721695,0.17597351968288422,-0.32149773836135864,-0.21570652723312378,0.19764357805252075,-0.288847953081131,-0.14385806024074554,-0.1318422257900238,0.1300675868988037,-0.013748081400990486,-0.27764731645584106,0.13216905295848846,-0.3809721767902374,0.1311318427324295,0.10167796164751053,-0.15596748888492584,0.1262642741203308,0.3589577376842499,0.15263774991035461,0.07994134724140167,0.2225390374660492,0.17777469754219055,0.2061314433813095,-0.1869744211435318,-0.026642074808478355,0.04260936379432678,-0.33677786588668823,-0.1535671353340149,-0.3594762086868286,-0.016990942880511284,0.35845792293548584,0.01903638057410717,-0.0932188481092453,0.3175242841243744,-0.06834665685892105,0.11058064550161362,-0.0233002919703722,0.21738643944263458,0.3468320071697235,0.271110475063324,0.3705909252166748,-0.2212654948234558,-0.36306655406951904,0.08521895110607147,-0.19995887577533722,-0.1425531655550003,-0.48242226243019104,0.19651474058628082,0.0458773672580719,0.0200799573212862,0.1623046100139618,0.06841763854026794,-0.2634598910808563,0.06372692435979843,-0.21032054722309113,-0.08927468955516815,-0.17688697576522827,-0.045310527086257935,0.15295520424842834,-0.13795270025730133,-0.19969132542610168,0.06040094792842865,0.34941962361335754,0.24991005659103394,0.03412870317697525,-0.20268268883228302,-0.06408347934484482,-0.2711173892021179,-0.06121979281306267,-0.5823413729667664,-0.14761821925640106,-0.048706866800785065,-0.07607121765613556,-0.10002095252275467,-0.2203831523656845,0.20822621881961823,-0.12216131389141083,0.10661617666482925,-0.06286159157752991,0.09304064512252808,0.13044434785842896,0.02649504691362381,-0.29980021715164185,-0.088514044880867,0.12544110417366028,0.011713174171745777,-0.1715518981218338,0.26637062430381775,0.19526533782482147,-0.05124126747250557,-0.016358358785510063,-0.09681917726993561,0.3252582252025604,0.14106763899326324,0.09716662764549255,-0.054856911301612854,0.050017163157463074,0.16350971162319183,0.24085165560245514,-0.06645079702138901,-0.203804612159729,-0.28864625096321106,-0.18635453283786774,0.11106954514980316,-0.09134849160909653,-0.13429045677185059,-0.26392823457717896,0.1053110882639885,-0.19488365948200226,0.0984659194946289,-0.05347807705402374,-0.17168833315372467,0.13833962380886078,-0.030064890161156654,0.11382204294204712,0.20661139488220215,-0.010775548405945301,0.056134454905986786,-0.21880283951759338,-0.1902468055486679,0.035812102258205414,-0.05110578611493111,0.17936787009239197,-0.1658678501844406,-0.04683738574385643,-0.267799973487854,0.10938521474599838,0.06285087764263153,0.2197049856185913,-0.02998485043644905,-0.11582637578248978,-0.08234908431768417,0.14276213943958282,0.004843009170144796,-0.05481088533997536,-0.020569972693920135,0.06197201460599899,-0.14840570092201233,0.06726197898387909,-0.2488473653793335,0.13436771929264069,-0.1648254245519638,-0.1222839429974556,-0.028047015890479088,-0.02359527163207531,-0.1569678783416748,-0.23958854377269745,0.04720301553606987,-0.162043035030365,-0.021149829030036926,0.135020911693573,-0.0019391612149775028,0.035275328904390335,-0.07902608066797256,-0.16805507242679596,0.03138134628534317,0.0963018611073494,0.6271340250968933,0.08199561387300491,0.10057827830314636,0.03530779108405113,-0.15553104877471924,-0.11110207438468933,0.015546144917607307,0.07730936259031296,0.1741759181022644,0.055415328592061996,0.03515925258398056,0.1022946685552597,-0.09880398958921432,-0.20161518454551697,0.16846904158592224,0.1314222365617752,-0.24042527377605438,0.21629078686237335,0.11009447276592255,0.025502806529402733,-0.1689727008342743,0.054607897996902466,-0.1659797579050064,-0.06088811159133911,-0.17442955076694489,0.16904929280281067,-0.054557912051677704,-0.04318266361951828,0.13274447619915009,0.08899766951799393,0.26687362790107727,-0.025426575914025307,-0.16751913726329803,0.08524060994386673,0.18712514638900757,0.12854930758476257,0.11568183451890945,-0.14648579061031342,0.014052025973796844,0.22928909957408905,-0.353262722492218,-0.023678714409470558,0.13169175386428833,-0.1853911578655243,-0.018566444516181946,0.2008836716413498,-0.16625800728797913,0.17570891976356506,-0.302090585231781,0.17776617407798767,0.04424792528152466,0.044463515281677246,-0.16783741116523743,0.17865608632564545,-0.025114092975854874,-0.1869678944349289,-0.20760954916477203,-0.1345994919538498,0.22308921813964844,-0.11449365317821503,-0.24171769618988037,-0.3205585777759552,0.028334133327007294,0.373096764087677,0.15906010568141937,0.012192981317639351,0.25411513447761536,-0.17966815829277039,0.07506781071424484,0.028064576908946037,-0.041539933532476425,0.05537785589694977,0.0021587414667010307,0.17006613314151764,-0.07580743730068207,-0.0744141936302185,0.2594005763530731,0.18362674117088318,0.06521313637495041,-0.19288305938243866,-0.04603888839483261,0.025389889255166054,0.32110387086868286,0.005599846597760916,0.04362146183848381,-0.059937410056591034,-0.09376832097768784,-0.22362437844276428,-0.3134787082672119,0.08754809200763702,0.17811580002307892,-0.16408979892730713,0.0071676187217235565,-0.2953232228755951,-0.027376865968108177,-0.02939830906689167,0.009267278015613556,0.032140012830495834,0.18544840812683105,0.15755903720855713,0.202715203166008,0.08108581602573395,0.16950677335262299,0.14171527326107025,-0.1808195263147354,-0.07258754968643188,0.2776208817958832,0.060733187943696976,-0.25174254179000854,0.10753194987773895,-0.08015914261341095,0.044375110417604446,0.18448631465435028,0.038789600133895874,0.03127627074718475,0.010112241841852665,-0.03354056179523468,0.1520388424396515,0.06025612726807594,-0.17846161127090454,0.12103847414255142,-0.13556315004825592,0.11020396649837494,0.2511999011039734,-0.11230504512786865,-0.15801845490932465,-0.2746073305606842,0.12742120027542114,0.08111552149057388,0.01357391569763422,-0.086123526096344,-0.024285724386572838,-0.22864483296871185,0.24166396260261536,0.123629629611969,0.06266815215349197,0.24408788979053497,-0.12814661860466003,-0.1584913730621338,0.13824230432510376,0.13164956867694855,0.1125246211886406,0.05677289515733719,-0.08415363729000092,0.3458143472671509,-0.13080041110515594,-0.1920928955078125,-0.16137248277664185,0.2747352421283722,-0.08326732367277145,-0.17937935888767242,0.2217511236667633,0.18308332562446594,0.08494102954864502,-0.20131130516529083,0.15148591995239258,0.0034541399218142033,-0.2925649583339691,0.12254737317562103,0.038552068173885345,-0.06300296634435654,0.015572876669466496,-0.08262210339307785,-0.185759037733078,-0.06658802926540375,-0.1442381590604782,0.007526877336204052,-0.012727230787277222,-0.0718025341629982,0.1700371652841568,-0.24037618935108185,-0.12272026389837265,0.1654955893754959,-0.06880288571119308,0.14786706864833832,-0.026689011603593826,-0.1638515293598175,-0.09250429272651672,0.22282490134239197,0.1495763510465622,0.04865951091051102,-0.2004394382238388,-0.09027886390686035,0.06399533152580261,-0.10114217549562454,0.15683405101299286,0.09904181212186813,-0.11668215692043304,0.05417093634605408,0.07988464087247849,-0.05708356201648712,0.2468625009059906,-0.30227407813072205,-0.151163250207901,0.022754492238163948,0.05673389136791229,-0.04632486030459404,0.10928485542535782,-0.01342112198472023,-0.16839663684368134,0.0636558085680008,-0.06646749377250671,0.09380784630775452,-0.3862287104129791,-0.3418317139148712,0.106656514108181,0.000598418468143791,-0.24876533448696136,-0.1014445424079895,-0.006455982103943825,-0.16592445969581604,0.13928797841072083,-0.05311863124370575,0.30017927289009094,0.09353943914175034,0.0204008799046278,0.06352068483829498,-0.06703777611255646,0.06796769052743912,0.13259461522102356,-0.11467671394348145,0.10210046917200089,0.057412926107645035,0.23398292064666748,0.3463838994503021,0.16691303253173828,-0.21842321753501892,-0.1660863310098648,-0.008998626843094826,0.18539942800998688,0.03046807274222374,0.1308024674654007,-0.03852414712309837,-0.3137321174144745,-0.03282330557703972,0.011398223228752613,-0.22867533564567566,-0.03492787480354309,0.06867697089910507,-0.4443625807762146,0.05391646921634674,0.3038669228553772,-0.1339675486087799,-0.10390561074018478,-0.030785758048295975,-0.22419381141662598,-0.016133755445480347,0.10319554060697556,0.23143909871578217,-0.12586688995361328,-0.13410530984401703,0.18120844662189484,0.16637273132801056,-0.2243710309267044,0.12492498755455017,0.07308446615934372,-0.178948774933815,0.06185423955321312,0.19195891916751862,-0.16611602902412415,-0.08929573744535446,-0.007355913519859314,-0.22562457621097565,-0.1601090282201767,-0.015998665243387222,0.019363470375537872,-0.15880993008613586,0.02213635854423046,0.16580317914485931,-0.007515549659729004,0.112191341817379,0.03210166096687317,-0.2960618734359741,0.020309295505285263,0.1067928895354271,0.11291852593421936,0.15727493166923523,-0.2757021188735962,-0.0757325142621994,0.1586272120475769,-0.3127070665359497,0.30090513825416565,-0.007005702704191208,-0.1552533209323883,0.023406464606523514,0.08537814021110535,-0.28586533665657043,0.09463346004486084,-0.10229404270648956,0.22702556848526,0.026088150218129158,-0.07164210826158524,-0.2905150353908539,0.17223086953163147,-0.025030426681041718,-0.3077985644340515,-0.2862512171268463,-0.20654572546482086,0.07674314826726913,-0.0719321146607399,-0.22695229947566986,-0.18221235275268555,0.140311598777771,0.08469028770923615,-0.1313960701227188,0.06509485095739365,0.09144235402345657,-0.22100898623466492,-0.027409542351961136,0.23074768483638763,-0.1155746802687645,-0.1428024172782898,-0.05681336298584938,0.10537029802799225,-0.15547995269298553,-0.11105144023895264,0.043708231300115585,0.14429907500743866,0.07075677812099457,-0.06326168775558472,-0.03754592314362526,0.00035340272006578743,0.19752295315265656,0.16433590650558472,0.048188939690589905,-0.08489929139614105,0.025966240093111992,0.38660913705825806,-0.008758530020713806,0.15686358511447906,0.043746720999479294,-0.2785472869873047,0.05637272447347641,0.3372420370578766,-0.22122915089130402,-0.05085977911949158,-0.3109774589538574,-0.005208596121519804,0.08358925580978394,-0.01541964616626501,-0.12153293937444687,0.23503361642360687,0.20245645940303802,-0.18357548117637634,0.04170897603034973,0.03972703218460083,0.16724437475204468,-0.2268538624048233,-0.14239175617694855,-0.02173830382525921,-0.06536674499511719,0.064114049077034,0.19961167871952057,-0.09743797779083252,-0.024818159639835358,0.23264358937740326,-0.14076095819473267,-0.029670491814613342,0.0806848555803299,0.007904065772891045,0.09830275177955627,-0.05706122890114784,0.07317137718200684,0.05023951828479767,-0.24602027237415314,-0.19140419363975525,-0.1214207261800766,-0.10449814796447754,0.22134563326835632,-0.09707266837358475,-0.24290595948696136,-0.16686952114105225,-0.22378583252429962,0.2531585991382599,0.08874965459108353,-0.2261628955602646,0.172931507229805,-0.1296522617340088,-0.04653503745794296,0.09362148493528366,-0.08139052242040634,0.1414072960615158,0.09289286285638809,-0.04411410540342331,0.37652185559272766,-0.13975372910499573,-0.2644355893135071,-0.14839786291122437,0.19345292448997498,-0.22534212470054626,0.05192219093441963,0.054942887276411057,0.25762954354286194,0.11520995199680328,-0.20484483242034912,-0.057949647307395935,0.13394947350025177,-0.08615916222333908,0.05502694472670555,0.16594359278678894,0.2585572302341461,0.03119906224310398,0.1000220999121666,-0.0854329913854599,0.0017825938994064927,-0.0009222213411703706,0.09217463433742523,0.11936771869659424,-0.06054536998271942,0.10450815409421921,0.11877162754535675,0.15366920828819275,0.13318602740764618,0.2676237225532532,0.015814512968063354,-0.118131622672081,0.1358993500471115,-0.01758037880063057,-0.06534489244222641,0.07777964323759079,0.11950409412384033,0.061914946883916855,-0.1684655249118805,-0.07649978250265121,-0.143900066614151,-0.022210584953427315,0.10728845000267029,-0.17924030125141144,-0.008568479679524899,-0.4112277626991272,-0.03199194371700287,0.007181144785135984,0.033688053488731384,-0.07072342932224274,-0.11558850109577179,0.0018829773180186749,-0.06394266337156296,0.020669326186180115,0.23007641732692719,-0.322875052690506,-0.2259615659713745,-0.27110347151756287,-0.0750727504491806,-0.08802449703216553,-0.11964365094900131,0.19488906860351562,0.030198341235518456,-0.1938856989145279,-0.01966618001461029,0.03284064307808876,-0.14159689843654633,0.20654937624931335,0.015577496029436588,0.255391925573349,0.19319067895412445,0.12002760171890259,0.002598362974822521,-0.06219043955206871,-0.027534011751413345,-0.06490682065486908,-0.03698845952749252,0.004413465037941933,0.1765398532152176,0.2204103171825409,0.061516281217336655,0.1074213758111,-0.16650919616222382,-0.07863170653581619,0.08764302730560303,-0.04156787693500519,-0.2233613282442093,-0.1598309725522995,-0.11400964111089706,-0.08465533703565598,-0.24127297103405,0.0712222084403038,0.0689617320895195,0.1842144876718521,0.17189399898052216,-0.2456756830215454,0.15209387242794037,0.022921841591596603,-0.027209609746932983,-0.21758130192756653,0.11978670209646225,-0.012100604362785816,-0.24987854063510895,0.19147948920726776,-0.06375084817409515,-0.07017955183982849,-0.2296561896800995,0.07352962344884872,-0.10569728910923004,0.24607336521148682,0.10185720771551132,-0.047633953392505646,-0.03156955540180206,-0.002042267005890608,-0.15111461281776428,0.21139805018901825,-0.0313541553914547,-0.04917868971824646,-0.01484059076756239,0.0020543059799820185,0.08958098292350769,-0.15107180178165436,-0.02228168025612831,-0.030776144936680794,-0.11200939863920212,-0.06543586403131485,0.10003544390201569,0.06397887319326401,0.14979827404022217,-0.03172007203102112,0.039283789694309235,0.0491601787507534,-0.11646700650453568,0.2087426632642746,-0.17170321941375732,-0.060121066868305206,0.15685105323791504,0.12093763798475266,0.12827973067760468,0.1497448831796646,0.006444932892918587,-0.07729766517877579,0.30010008811950684,-0.0734945684671402,0.06629230827093124,-0.3621961772441864,0.12955814599990845,0.1573314666748047,0.15480095148086548,-0.027074184268712997,0.07759205996990204,0.0515158511698246,0.183706134557724,-0.028912091627717018,-0.1118498295545578,-0.026436692103743553,-0.00620629359036684,0.1259223073720932,0.07014461606740952,-0.15191923081874847,0.09273415803909302,-0.02354309894144535,-0.051262300461530685,-0.07546836137771606,-0.0032326895743608475,0.004649839363992214,0.36557015776634216,-0.06679927557706833,0.15228672325611115,0.05465846508741379,0.08140704780817032,0.02344636619091034,-0.15613318979740143,-0.04890105873346329,-0.18034319579601288,-0.025227557867765427,0.08785787224769592,-0.037062130868434906,-0.24497178196907043,-0.06645551323890686,-0.053948648273944855,0.08785256743431091,0.12947265803813934,-0.20349577069282532,0.26711225509643555,-0.17051804065704346,-0.12624554336071014,-0.04369489476084709,0.0075923665426671505,-0.08400145173072815,0.14569881558418274,-0.26599061489105225,0.3516456186771393,-0.13164740800857544,0.009295141324400902,0.14252804219722748,0.10715828835964203,-0.18609388172626495,-0.10676877945661545,0.0771062895655632,0.025527458637952805,-0.003312798449769616,-0.1349802017211914,0.08677126467227936,0.1775132715702057,0.3036423623561859,-0.01647266186773777,-0.10561531782150269,0.1355237066745758,-0.0820310190320015,-0.046346791088581085,0.14441654086112976,-0.07927565276622772,-0.134824737906456,0.16692587733268738,0.013293341733515263,0.005851983558386564,-0.21652501821517944,0.18865330517292023,0.05861721560359001,-0.1846509575843811,-0.14745135605335236,-0.08744698762893677,-0.08804081380367279,0.03017115220427513,-0.05368219316005707,-0.10655519366264343,-0.015385963022708893,-0.21056045591831207,0.1566687524318695,0.005501895677298307,-0.2671162486076355,0.19759194552898407,-0.1386951208114624,-0.023412121459841728,0.15068838000297546,-0.18917891383171082,-0.0682002454996109,-0.043789610266685486,-0.23406027257442474,0.3077565133571625,-0.2923998236656189,-0.10754932463169098,-0.1565551906824112,0.16589953005313873,-0.11251853406429291,-0.19724763929843903,0.09701508283615112,0.03479296714067459,0.10574866831302643,-0.24188244342803955,-0.18614763021469116,0.030758867040276527,0.17824065685272217,-0.1125989556312561,-0.015544380992650986,0.13678383827209473,-0.1183915063738823,0.12069273740053177,0.23574542999267578,-0.1553540676832199,-0.020453069359064102,0.1310453861951828,0.0033385902643203735,0.0761813074350357,-0.11136455088853836,0.23346638679504395,-0.0341360978782177,-0.20861978828907013,0.0685839131474495,0.07975945621728897,0.2305043339729309,0.2040344476699829,0.010058206506073475,0.03393377363681793,-0.03904687613248825,0.006724423263221979,0.1344188153743744,-0.11013063043355942,-0.005920813884586096,-0.1334121823310852,-0.10236398875713348,-0.08035466074943542,0.18189488351345062,-0.15642105042934418,-0.04748871549963951,0.1330324113368988,-0.3071972727775574,-0.012054910883307457,-0.060765333473682404,-0.13446368277072906,0.08354628831148148,0.027979977428913116,0.053206972777843475,-0.05477510020136833,0.01613379828631878,-0.015262150205671787,-0.1720200926065445,0.0012159051839262247,0.24458111822605133,-0.01744207926094532,0.0896395593881607,-0.11233404278755188,0.02778276614844799,0.016863064840435982,0.013506844639778137,-0.039825838059186935,0.1751718968153,0.03470069542527199,0.028606120496988297,-0.01831158436834812,-0.0744403526186943,-0.062211330980062485,-0.06368353217840195,0.1007620319724083,-0.36545073986053467,-0.11990923434495926,0.8927396535873413,0.25759169459342957,-0.4956597685813904,0.0851844996213913,-0.2986198961734772,0.01374878827482462,0.5991228222846985,-0.847574770450592,0.5826085209846497,0.7700058221817017,0.4070945978164673,-0.38933345675468445,0.23536109924316406,-0.7550125122070312,0.10595663636922836,-0.11523465067148209,0.23737101256847382,-0.15127214789390564,0.11594994366168976,0.2211911976337433,0.20860445499420166,0.24005800485610962,0.29861167073249817,-0.005683284718543291,0.12543083727359772,0.0056743319146335125,-0.21682320535182953,-0.016738496720790863,-0.2518254220485687,-0.143424853682518,0.2573566138744354,-0.06721083074808121,-0.1877715140581131,0.2302977591753006,0.31283313035964966,0.05154717341065407,-0.06785227358341217,-0.3960497975349426,-0.33105313777923584,0.12948991358280182,0.01382107101380825,-0.2847968339920044,0.12677793204784393,0.3032028377056122,0.20969144999980927,0.04236992448568344,0.10993391275405884,-0.3041198253631592,0.019109882414340973,-0.13536323606967926,0.042204029858112335,-0.08721865713596344,0.017704740166664124,-0.1648493856191635,-0.09226597100496292,-0.15673828125,0.19294103980064392,0.18061085045337677,0.05269385874271393,-0.21160462498664856,-0.11491313576698303,0.2688707709312439,0.23092716932296753,-0.0035953158512711525,0.20399323105812073,0.4331311285495758,-0.07093635946512222,0.2145405262708664,-0.33528390526771545,0.2950928509235382,0.24257062375545502,-0.11251753568649292,0.2497403770685196,-0.13270707428455353,-0.009924047626554966,0.09843625128269196,-0.039676789194345474,-0.06438841670751572,0.19501151144504547,0.048711054027080536,0.2530275285243988,-0.1382799744606018,0.36659857630729675,-0.26885950565338135,-0.0067437454126775265,-0.2572006583213806,0.3748171329498291,0.29750651121139526,-0.8857961893081665,0.7360004186630249,0.2358090877532959,-0.11603590846061707,0.16008207201957703,-0.06067096069455147,-0.14925968647003174,-0.19996987283229828,-0.029414091259241104,0.22868315875530243,-0.1275099664926529,-0.10765340924263,0.2923782467842102,0.07282358407974243,-0.1359759271144867,-0.1914629340171814,0.005550296511501074,0.19205434620380402,0.05576572194695473,0.12746042013168335,0.16877727210521698,-0.06381630897521973,0.10023005306720734,0.21253573894500732,-0.32075217366218567,-0.15067537128925323,0.2316698580980301,-0.1762717366218567,0.07003086060285568,-0.19724561274051666,-0.3525795638561249,0.19174396991729736,0.1552194356918335,-0.03184209391474724,0.09108421951532364,0.13884249329566956,0.20791441202163696,0.19052976369857788,0.2948194444179535,0.15828457474708557,-0.3296499252319336,0.06750435382127762,0.21685878932476044,-0.251349538564682,-0.06348714977502823,-0.29821938276290894,0.0027380299288779497,-0.11279560625553131,0.20789164304733276,-0.08638478070497513,-0.019886940717697144,0.17925068736076355,0.22668883204460144,-0.0924403965473175,-0.2160005271434784,0.046394288539886475,-0.09448446333408356,0.12051352113485336,-0.06501618027687073,0.1390903741121292,-0.16479992866516113,-0.05909889191389084,-0.11998037248849869,0.1628042459487915,-0.06660585850477219,-0.11097686737775803,-0.2847136855125427,-0.15283522009849548,-0.09466191381216049,0.07845503836870193,0.2784583568572998,-0.14866943657398224,-0.04990244284272194,0.21225449442863464,0.03714127093553543,0.5325894355773926,-0.43366628885269165,-0.09861589968204498,-0.03516925126314163,0.09856365621089935,0.712833821773529,-0.9707510471343994,-0.404003381729126,-0.274867445230484,0.026485223323106766,-0.11271952837705612,0.12495312839746475,-0.012144362553954124,-0.30126750469207764,-0.31420448422431946,0.23815298080444336,-0.23707754909992218,0.16522349417209625,-0.0684092566370964,-0.06066903844475746,0.10082832723855972,-0.3037661612033844,0.41159266233444214,-0.06098926439881325,-0.11715295165777206,0.22661092877388,0.33125394582748413,0.0932202860713005,-0.2546158730983734,-0.13000261783599854,-0.08046001940965652,-0.18603962659835815,0.24965409934520721,0.3453965485095978,-0.02594543993473053,-0.2790030539035797,-0.29513248801231384,-0.15726687014102936,-0.3414513170719147,-0.4763496518135071,-0.11194653809070587,-0.11161905527114868,0.2023954838514328,-0.27709585428237915,-0.21774549782276154,-0.0002975461829919368,0.08830687403678894,0.19672106206417084,0.19570472836494446,-0.355974406003952,-0.05436338856816292,0.1893375962972641,-0.011558526195585728,-0.32789868116378784,-0.08281183987855911,0.3309713900089264,0.00932849571108818,0.07129205763339996,0.05802644416689873,-0.13415223360061646,-0.1351713240146637,-0.03215019777417183,0.17959582805633545,0.03919355198740959,0.00952936802059412,0.1832803189754486,-0.3197910189628601,0.22403888404369354,0.15438798069953918,-0.08805465698242188,-0.9975369572639465,-0.27645143866539,-0.12728683650493622,-0.4354308843612671,0.08400129526853561,0.015335099771618843,-0.030033443123102188,-0.24841606616973877,0.0723026916384697,-0.005273198708891869,-0.12096816301345825,0.17634524405002594,-0.39803051948547363,0.10278113186359406,0.2880050241947174,0.12417814880609512,0.35076814889907837,-0.050970375537872314,0.1070495992898941,0.03916601464152336,-0.10170082002878189,-0.12799188494682312,-0.2936856150627136,0.12529751658439636,-0.24936985969543457,-0.1530197113752365,-0.061298929154872894,-0.053340453654527664,-0.36899620294570923,0.2257823944091797,0.2545389235019684,-0.048069242388010025,0.2514486014842987,-0.039133187383413315,-0.21089206635951996,-0.1019936129450798,0.004427332431077957,0.029815590009093285,0.061242420226335526,0.35188135504722595,-0.015462342649698257,-0.20446424186229706,0.1491694152355194,0.17119507491588593,0.1141311451792717,-0.2575269639492035,-0.1967766433954239,0.029558762907981873,0.031041372567415237,-0.10926651954650879,-0.1544208526611328,0.10086919367313385,-0.05827423557639122,0.0017495269421488047,-0.15562529861927032,0.1593581587076187,0.0070077795535326,-0.02476469986140728,-0.034801844507455826,0.00955179426819086,-0.049230270087718964,0.10689258575439453,-0.1800716370344162,0.1114659383893013,0.27525919675827026,0.036201369017362595,-0.15901944041252136,-0.3269480764865875,0.2607402205467224,-0.0173864234238863,-0.04304245859384537,0.014716476202011108,-0.02927899919450283,-0.016241896897554398,0.06067924574017525,0.011389867402613163,-0.16895398497581482,-0.07162924110889435,-0.09598490595817566,0.02110801823437214,0.01616869866847992,0.08058036118745804,-0.05764562636613846,-0.1594909429550171,-0.0675290897488594,0.2814248204231262,0.11545959115028381,-0.2883363366127014,0.0009233038872480392,-0.34627312421798706,-0.0925448015332222,0.1918645054101944,0.00725583964958787,-0.16988368332386017,-0.3125591278076172,-0.11106014251708984,-0.08689434826374054,-0.12238515168428421,0.06753385066986084,-0.22592422366142273,-0.38048166036605835,0.16972927749156952,-0.081284299492836,0.013553190045058727,0.12983068823814392,0.10484334081411362,-0.257126122713089,0.023553820326924324,-0.1484193652868271,0.04405653104186058,-0.02516074851155281,0.2010432332754135,0.314731627702713,-0.1567981243133545,-0.16017986834049225,-0.16090424358844757,0.11217383295297623,0.03480056673288345,0.050190482288599014,-0.0937035083770752,0.05023195594549179,0.10947998613119125,0.007467376999557018,-0.365355521440506,-0.08956471085548401,-0.0413731187582016,0.004478054586797953,-0.22834055125713348,-0.10871473699808121,-0.04191221296787262,0.1691436767578125,-0.16220681369304657,-0.024314234033226967,-0.1623658835887909,0.09219396114349365,-0.5225012898445129,-0.37261471152305603,-0.08527533710002899,-0.14876841008663177,-0.06722378730773926,-0.07002531737089157,0.4073340594768524,-0.49782422184944153,0.21868859231472015,0.07445932179689407,-0.25800609588623047,-0.1593925803899765,-0.4241618812084198,-0.086787648499012,0.028597893193364143,-0.1375882923603058,0.1294081062078476,0.11344412714242935,0.03277206048369408,-0.3945574462413788,-0.1230248361825943,-0.021389473229646683,-0.027023307979106903,0.08715853095054626,0.1706254482269287,-0.17447495460510254,0.0726255476474762,-0.043823789805173874,0.03593958914279938,-0.1883995085954666,-0.18135187029838562,0.06130899116396904,-0.04462490603327751,-0.011716310866177082,-0.20990650355815887,-0.17168788611888885,-0.16642826795578003,0.04336213320493698,-0.008303619921207428,0.10414966940879822,-0.09508033841848373,0.3511945903301239,0.2601688504219055,-0.1733839511871338,0.022794101387262344,0.07642035186290741,-0.13850075006484985,0.01040918193757534,-0.013104740530252457,-0.38493600487709045,0.03732823580503464,0.04160703346133232,-0.09024356305599213,0.049495141953229904,0.17878635227680206,-0.25844138860702515,0.011564082466065884,-0.07454986125230789,-0.2415013164281845,-0.18060415983200073,-0.03465745225548744,0.06925323605537415,0.16391023993492126,0.28874924778938293,-0.24946771562099457,0.006685178726911545,0.10211587697267532,0.02394002303481102,0.21839626133441925,0.10794001072645187,-0.0953625738620758,0.18140564858913422,0.13863199949264526,-0.14043301343917847,-0.01678290404379368,0.08861233294010162,-0.034035298973321915,-0.17081642150878906,-0.1722598373889923,0.22774472832679749,0.15037745237350464,0.04685993120074272,-0.08844219893217087,-0.014876131899654865,-0.008522006683051586,0.2781304121017456,0.03761526197195053,-0.17940019071102142,-0.28140440583229065,0.11354869604110718,0.06675959378480911,-0.01821303181350231,0.09864836931228638,0.2558648884296417,-0.17997543513774872,0.013192391023039818,0.43229565024375916,0.46225616335868835,0.08059488236904144,-0.01775868982076645,-0.3885401487350464,-0.05793255567550659,0.03333749622106552,-0.19685548543930054,-0.05798067897558212,0.12602949142456055,-0.07911890000104904,-0.06771142035722733,0.0089705316349864,0.11095339059829712,0.1264542192220688,0.15748877823352814,-0.14740833640098572,0.171927809715271,0.16439351439476013,0.030939681455492973,-0.04530690237879753,0.18141457438468933,-0.06718882918357849,0.15306098759174347,0.029027851298451424,-0.03508993983268738,0.07459504157304764,-0.22243638336658478,-0.103831447660923,-0.2167803943157196,0.04466504231095314,0.18178525567054749,-0.07903680950403214,-0.09848164021968842,0.028340157121419907,-0.021045474335551262,-0.1264229118824005,0.045379750430583954,-0.016206754371523857,0.12346566468477249,-0.11282911896705627,0.03890296071767807,0.028022117912769318,-0.05360069125890732,0.0882323831319809,0.12506641447544098,-0.14835400879383087,0.04640249162912369,-0.2847200334072113,0.04771685227751732,0.04390718415379524,0.12101253122091293,-0.2932504713535309,-0.001769918599165976,0.144715815782547,-0.12705904245376587,-0.035232752561569214,-0.07759952545166016,0.004767294507473707,0.11280317604541779,-0.2432035505771637,0.013093309476971626,-0.03435320034623146,0.08593949675559998,0.05844101682305336,0.04513289034366608,0.0631011351943016,-0.36067983508110046,0.06097026169300079,0.25122323632240295,0.036760564893484116,0.06119530647993088,0.14395111799240112,-0.138235941529274,0.16243694722652435,-0.1438632309436798,-0.061175890266895294,-0.21547555923461914,-0.2929145395755768,0.14527003467082977,-0.039014220237731934,0.0732644721865654,-0.16165901720523834,-0.0064797052182257175,-0.14511962234973907,-0.009589667432010174,-0.09193286299705505,0.14316760003566742,-0.2651938498020172,-0.11472056061029434,0.1648901253938675,-0.14982928335666656,0.03290538862347603,0.03392466902732849,-0.29889047145843506,-0.0807986631989479,0.205344095826149,0.043874289840459824,0.08630868792533875,0.049976930022239685,-0.1396753489971161,0.12101950496435165,0.12776225805282593,-0.22217950224876404,0.031111638993024826,0.15538862347602844,-0.24268858134746552,-0.03883868455886841,0.04733997583389282,0.11556706577539444,-0.1782137155532837,-0.06968404352664948,-0.012913552112877369,-0.09177204966545105,-0.1819007694721222,0.05389591306447983,-0.16507530212402344,0.03729456290602684,0.1256878525018692,-0.30017682909965515,-0.06240522116422653,-0.5121610760688782,0.05899346247315407,0.259612113237381,-0.18997371196746826,-0.061164114624261856,-0.15260419249534607,-0.1237001046538353,-0.24787530303001404,-0.17241348326206207,0.06582008302211761,0.14742179214954376,0.12695246934890747,-0.13216474652290344,-0.05772925168275833,0.03907078877091408,0.10794749110937119,0.13923174142837524,-0.0347895622253418,0.009151145815849304,-0.034694261848926544,-0.07360661774873734,0.22970212996006012,0.29840633273124695,-0.08289383351802826,0.059257347136735916,-0.12696044147014618,0.17250020802021027,-0.21548055112361908,-0.1886356920003891,-0.051543187350034714,-0.19265314936637878,-0.14548839628696442,0.1499483585357666,0.25084277987480164,0.10048692673444748,0.19460120797157288,-0.2775554060935974,-0.09511007368564606,-0.14283491671085358,-0.12858350574970245,-0.04772794619202614,-0.17395903170108795,0.3677276372909546,-0.14874078333377838,-0.2276451736688614,0.20735299587249756,-0.16634993255138397,0.17631852626800537,0.08940432965755463,-0.13127107918262482,0.17791210114955902,-0.03982321545481682,0.001375773805193603,0.00792419072240591,-0.19829116761684418,-0.0013169851154088974,-0.2981966435909271,0.10733763873577118,0.014064798131585121,0.09635663032531738,-0.09518303722143173,0.026967572048306465,-0.08965559303760529,0.18597759306430817,0.07276543229818344,-0.15918439626693726,0.19458629190921783,-0.1556481420993805,-0.23625291883945465,-0.03146178275346756,-0.013723921962082386,-0.06830772012472153,0.0765262097120285,0.030735371634364128,0.13272669911384583,0.07401710003614426,-0.13179899752140045,-0.3285493552684784,0.14663322269916534,-0.09168805927038193,-0.3070436418056488,0.14696012437343597,0.052519556134939194,-0.015277785249054432,-0.0686839371919632,0.019758315756917,0.026122000068426132,-0.12029897421598434,0.2350233495235443,0.09601026773452759,-0.07453262060880661,-0.07531118392944336,-0.16177450120449066,-0.10131661593914032,0.01554714422672987,-0.061216749250888824,-0.06306516379117966,-0.13440975546836853,-0.10702764987945557,0.15540824830532074,-0.10518771409988403,0.09731092303991318,0.1381174772977829,-0.04391825571656227,-0.0662117451429367,-0.20535819232463837,-0.2559163570404053,-0.21994835138320923,-0.11740554124116898,0.07945368438959122,-0.0506114736199379,-0.20584380626678467,0.1190132349729538,0.269584596157074,-0.1717688888311386,0.08307043462991714,-0.03203145042061806,-0.12660928070545197,-0.27249807119369507,-0.29963958263397217,-0.25471991300582886,0.19011729955673218,0.07349169254302979,-0.09690818190574646,-0.05125027149915695,0.07921626418828964,-0.312565416097641,-0.0078561557456851,0.013539731502532959,-0.19628246128559113,-0.10098042339086533,-0.14663439989089966,0.225136399269104,-0.11815483868122101,0.3756050765514374,-0.4325167238712311,0.1661737859249115,-0.48225197196006775,0.4326619505882263,0.1516788899898529,-0.04968894645571709,-0.02823590487241745,0.15562529861927032,0.009596015326678753,-0.14363135397434235,-0.09910596162080765,0.04062608629465103,0.14075103402137756,-0.1668063849210739,0.05928623303771019,0.044845931231975555,0.009205570444464684,-0.4589114785194397,0.08653528988361359,-0.27200737595558167,-0.13861967623233795,0.3073362708091736,0.13979505002498627,-0.16093112528324127,-0.12976807355880737,0.046262625604867935,-0.2368277758359909,0.437178373336792,-0.06702977418899536,-0.05109473317861557,-0.09465377032756805,-0.1186765655875206,-0.24757245182991028,-0.13922515511512756,0.33809569478034973,0.33088216185569763,-0.06526721268892288,-0.1599988490343094,-0.07952142506837845,0.053219638764858246,0.0027348219882696867,-0.21908552944660187,0.07524798810482025,-0.037210747599601746,0.051811859011650085,0.31618061661720276,-0.05986325070261955,-0.16965681314468384,0.025288892909884453,-0.01027478463947773,-0.06749317049980164,0.0390332005918026,0.05239466577768326,0.00704312464222312,0.04729383438825607,0.2627875804901123,0.03522323817014694,-0.2640115022659302,-0.2772825062274933,-0.2615777254104614,0.035760801285505295,-0.05356534197926521,0.11624443531036377,0.11852222681045532,0.25291740894317627,0.12661458551883698,-0.11800284683704376,-0.12058521062135696,0.03790995851159096,0.25390154123306274,0.06177695095539093,0.02910938300192356,-0.0011356270406395197,-0.25726598501205444,-0.36875882744789124,0.01099986582994461,0.15415361523628235,0.024231916293501854,-0.25266021490097046,0.003936838358640671,0.0010198192903771996,-0.07574385404586792,0.4337650239467621,0.07393254339694977,-0.30093684792518616,-0.07309667021036148,-0.07623028755187988,0.040314991027116776,-0.017787596210837364,0.037387240678071976,-0.0016960939392447472,-0.061814095824956894,-0.038540855050086975,0.20783863961696625,-0.09867456555366516,-0.15317197144031525,0.10921608656644821,0.06717514991760254,0.08310269564390182,-0.1463794708251953,0.04531511664390564,0.046763207763433456,0.24723094701766968,0.00020442248205654323,-0.1261070966720581,-0.024962102994322777,-0.08831135183572769,-0.2648466229438782,-0.1301635503768921,0.06256520003080368,-0.055289678275585175,-0.10980641096830368,-0.0812825858592987,-0.023236414417624474,-0.05239104852080345,0.16684041917324066,0.2339785099029541,0.019713738933205605,-0.17067763209342957,-0.14933179318904877,-0.02812724933028221,-0.24582776427268982,0.013437544927001,0.17868216335773468,0.07678747177124023,-0.2017160952091217,0.20979957282543182,0.01741046831011772,-0.09300015866756439,-0.04832478240132332,-0.08516165614128113,0.0996231958270073,-0.08750034123659134,0.1739458441734314,-0.10402729362249374,0.05182681605219841,-0.1432688981294632,-0.12482071667909622,-0.12454201281070709,0.07034694403409958,0.08546376973390579,-0.19206252694129944,-0.01836347207427025,0.10529179126024246,0.1455291211605072,-0.08990292251110077,-0.23786412179470062,0.0479031577706337,0.04373323172330856,-0.07788020372390747,-0.12491302937269211,-0.17303578555583954,0.04890017583966255,-0.020324302837252617,0.20374934375286102,0.3853169083595276,-0.058911923319101334,0.19669730961322784,-0.08418852090835571,-0.1475154161453247,-0.16033245623111725,0.021808166056871414,-0.03450893238186836,0.30050233006477356,-0.04383577033877373,-0.00026160822017118335,-0.17234158515930176,0.29691100120544434,0.06495817750692368,0.028289008885622025,0.07111573964357376,-0.021047111600637436,-0.09268191456794739,-0.053424712270498276,-0.11822168529033661,0.02778017707169056,-0.05894581973552704,-0.21990558505058289,-0.14607764780521393,0.038454074412584305,0.036874379962682724,0.06455142796039581,0.05350068211555481,0.4443095922470093,-0.023630352690815926,0.12430556863546371,0.0040968949906528,0.19996963441371918,0.26592817902565,-0.05210263654589653,-0.17252306640148163,-0.1640147566795349,0.012472251430153847,0.01055215671658516,0.06033938005566597,0.2736368775367737,-0.18508891761302948,-0.05689142271876335,0.20468422770500183,-0.04805956780910492,0.022163916379213333,0.12363147735595703,0.1229131668806076,0.010056081227958202,-0.0035256920382380486,0.2385106235742569,0.22763237357139587,-0.07078700512647629,-0.1546216756105423,-0.014862391166388988,0.2664664387702942,0.1254425197839737,0.0843229591846466,-0.16849058866500854,-0.20638036727905273,-0.061987921595573425,0.2976125478744507,0.03657782822847366,-0.1673283576965332,0.32103854417800903,-0.017807645723223686,-0.12514814734458923,0.3105611503124237,0.08475589752197266,-0.03466769680380821,0.2501697540283203,-0.10492590814828873,-0.03303411602973938,0.04375160112977028,-0.10541418194770813,-0.041907984763383865,0.33449694514274597,-0.09037033468484879,-0.14922718703746796,0.25471195578575134,0.19978582859039307,0.1897602528333664,0.027819879353046417,-0.11732354760169983,-0.03178168088197708,0.2991337478160858,-0.15310494601726532,-0.0046953498385846615,0.16148194670677185,0.060899656265974045,0.11241132020950317,0.16280227899551392,-0.15148693323135376,-0.14104031026363373,0.028060967102646828,-0.064671091735363,-0.22311431169509888,-0.2723575234413147,0.21935850381851196,-0.0377054400742054,-0.10525432229042053,0.10069447010755539,0.031924668699502945,0.364066481590271,0.07061651349067688,0.16547442972660065,0.09977520257234573,-0.07442352920770645,0.07074341922998428,0.12481943517923355,-0.21539300680160522,-0.04037942364811897,-0.2561146318912506,-0.06235058978199959,-0.13465018570423126,0.11027032881975174,0.14150649309158325,-0.3305613100528717,-0.32421210408210754,-0.09529155492782593,0.0063050915487110615,-0.1461881697177887,0.032963939011096954,0.1282637119293213,-0.02201632782816887,0.07984072715044022,0.07076025754213333,-0.10662907361984253,-0.00841229036450386,0.053530190140008926,-0.033741142600774765,-0.13825249671936035,-0.1164422482252121,-0.018596922978758812,-0.09657231718301773,-0.0038152113556861877,0.14082060754299164,-0.16199557483196259,-0.2801957130432129,-0.19767224788665771,0.05926215648651123,-0.09017504751682281,0.30629968643188477,-0.09228364378213882,0.15373827517032623,0.09591922909021378,-0.07163896411657333,0.18367911875247955,0.01120312325656414,0.13843001425266266,-0.11154450476169586,-0.13622120022773743,-0.13892510533332825,0.22404897212982178,-0.2552463710308075,0.22109735012054443,-0.0725739598274231,0.11093197017908096,0.07045792788267136,0.015651552006602287,0.27719298005104065,-0.15913476049900055,-0.1344333440065384,-0.0692441388964653,0.06634698063135147,-0.04519602283835411,-0.5004433989524841,0.01664542965590954,0.14746879041194916,0.1878039389848709,-0.26645874977111816,-0.16387112438678741,0.08732564002275467,0.04512500762939453,-0.09269498288631439,0.04764612764120102,-0.05755070969462395,0.18540161848068237,-0.057705797255039215,0.08791400492191315,0.043787676841020584,0.09420670568943024,-0.0470222532749176,0.1456480324268341,0.16228461265563965,-0.09682514518499374,-0.19223594665527344,0.032926809042692184,0.2524181604385376,-0.016008304432034492,0.11850796639919281,0.04373863339424133,0.022683335468173027,0.13173747062683105,-0.09198696166276932,0.7676289677619934,-0.0044050137512385845,0.45729461312294006,-0.7504390478134155,-0.5149670243263245,0.1805993914604187,0.2730911672115326,-0.13113003969192505,0.34246063232421875,0.48403701186180115,-0.7794160842895508,0.5515932440757751,-0.06745979189872742,-0.7633639574050903,-0.045942001044750214,-0.2559360861778259,-0.19793693721294403,-0.2632046937942505,0.22222718596458435,-0.10757743567228317,0.03909071162343025,0.29395270347595215,0.09072291105985641,-0.3015900254249573,-0.15592502057552338,-0.052864886820316315,0.012714390642940998,-0.03314277529716492,0.13637511432170868,-0.27062609791755676,0.14065811038017273,-0.03485145792365074,-0.21564246714115143,-0.3642095923423767,-0.020656302571296692,-0.20040757954120636,0.018680384382605553,-0.2095634639263153,0.16493363678455353,-0.08454978466033936,-0.3831304609775543,-0.14693930745124817,-0.26355716586112976,0.03497636318206787,0.020249931141734123,0.35498693585395813,0.19200100004673004,0.08057171106338501,-0.07149426639080048,0.0274338461458683,-0.045441899448633194,-0.327078640460968,-0.13691294193267822,-0.2513529062271118,-0.2745877802371979,0.07716333866119385,0.13906492292881012,-0.10637664049863815,0.10000380128622055,-0.23602242767810822,0.01655351184308529,0.12420772761106491,-0.057338643819093704,0.2705114185810089,-0.20310087502002716,-0.142769455909729,-0.1257658451795578,0.3480454385280609,0.22112317383289337,0.22605080902576447,0.03242936730384827,0.040804702788591385,-0.23738010227680206,-0.08415599912405014,-0.03036247007548809,-0.23682205379009247,0.20910042524337769,0.08615979552268982,0.05340765789151192,-0.24165458977222443,0.08226777613162994,-0.19954554736614227,-0.19243524968624115,0.2756626307964325,0.0024647023528814316,-0.007555036339908838,0.10383094847202301,-0.20154254138469696,0.2453102469444275,0.22147627174854279,0.002713531255722046,0.0477411150932312,-0.2720370888710022,-0.20522655546665192,-0.3191143870353699,-0.14330671727657318,-0.4861920177936554,0.1905396431684494,0.014409837312996387,-0.012639330700039864,-0.24495723843574524,0.44199612736701965,-0.059098489582538605,-0.3079484701156616,-0.04676420986652374,-0.1488933116197586,0.08480210602283478,0.10184001177549362,0.05189909413456917,0.03133845701813698,-0.19923333823680878,0.23796869814395905,-0.1249883770942688,-0.20282062888145447,-0.054332442581653595,0.03300108388066292,-0.11877037584781647,-0.28770262002944946,0.21047672629356384,0.19648388028144836,-0.30787813663482666,0.06300022453069687,0.1827738732099533,-0.014726148918271065,0.048054520040750504,0.10951404273509979,0.1427692174911499,-0.19490139186382294,-0.1637105792760849,0.32107672095298767,-0.02592349611222744,0.06204666569828987,0.36164823174476624,-0.29502370953559875,-0.30968159437179565,0.17985917627811432,0.009871288202702999,0.16426800191402435,0.08501029759645462,-0.011510374024510384,-0.22202591598033905,0.07822059094905853,0.26638591289520264,-0.023282969370484352,-0.04100855067372322,0.271173357963562,-0.13615287840366364,-0.0254739448428154,0.0005961059359833598,-0.06346788257360458,-0.11597202718257904,-0.03522093594074249,-0.0045928931795060635,-0.004887686111032963,-0.18363197147846222,-0.06648921221494675,0.3902171552181244,0.0900733694434166,-0.017723122611641884,-0.010131404735147953,-0.025178756564855576,0.02746977098286152,-0.055996619164943695,0.10316489636898041,-0.09711728990077972,0.10762127488851547,-0.2907288074493408,0.014152825810015202,-0.36402207612991333,0.09283869713544846,0.3263050615787506,-0.4473694860935211,0.46557778120040894,-0.12300505489110947,0.21170379221439362,0.09881796687841415,-0.1554986834526062,0.12469810992479324,-0.012926519848406315,0.006704883184283972,-0.06119800731539726,-0.141556516289711,0.042128805071115494,-0.025257863104343414,0.28895458579063416,-0.0037115709856152534,0.03009200282394886,-0.11249196529388428,-0.04854881390929222,0.07122069597244263,0.0884675532579422,-0.21535496413707733,0.3589717447757721,0.366243451833725,-0.09949380904436111,-0.1065167635679245,0.07328031212091446,-0.2770870625972748,-0.1202281266450882,0.11431533098220825,-0.11371178179979324,-0.07553506642580032,0.13590112328529358,0.20895537734031677,-0.038787879049777985,0.4123590290546417,-0.09578298032283783,-0.11659432202577591,0.12435947358608246,0.4387367367744446,0.20129099488258362,0.2602763772010803,-0.14698435366153717,0.1961299628019333,-0.10356078296899796,-0.12818939983844757,0.18260131776332855,0.039780259132385254,-0.30750271677970886,-0.010541255585849285,-0.33908089995384216,-0.07892817258834839,-0.03975061699748039,-0.24897907674312592,-0.5356729030609131,-0.06309718638658524,-0.005137566942721605,0.4556506276130676,0.024121426045894623,0.0073099504224956036,-0.24253541231155396,0.06728062033653259,-0.09309636801481247,0.2482556253671646,0.18048220872879028,-0.13329410552978516,-0.3973827362060547,-0.19957393407821655,-0.18012696504592896,-0.07992042601108551,0.30979591608047485,-0.20897352695465088,0.05192887410521507,0.12804897129535675,-0.29776903986930847,-0.24375000596046448,0.04978693649172783,0.19072487950325012,-0.18565116822719574,0.022680839523673058,-0.307312548160553,0.020847169682383537,0.1693476289510727,0.11914900690317154,-0.03172726556658745,0.07902732491493225,0.41618192195892334,0.20897744596004486,-0.227669820189476,-0.429958313703537,-0.35101842880249023,0.06660760194063187,0.18317794799804688,-0.07423268258571625,-0.1254987269639969,0.07263398915529251,-0.617342472076416,0.12331373989582062,0.26858919858932495,-0.02137700654566288,0.027538904920220375,0.1542680412530899,-0.2093595266342163,0.10662926733493805,0.164406880736351,-0.1163029819726944,-0.028723904862999916,0.042837437242269516,0.0437752939760685,0.16600538790225983,-0.3518759608268738,0.03197131305932999,0.20161136984825134,0.06997110694646835,-0.05521593987941742,-0.3242575228214264,-0.0069478582590818405,0.04086192324757576,-0.032802220433950424,-0.07751106470823288,0.176391139626503,-0.04632800072431564,0.09446996450424194,-0.5446732044219971,-0.10839845985174179,-0.13576902449131012,-0.1771349459886551,-0.021795280277729034,0.08034805953502655,-0.17442654073238373,0.042848993092775345,0.23930850625038147,-0.20158515870571136,-0.0500299334526062,-0.14657685160636902,-0.05208064243197441,0.08789689093828201,-0.01217212900519371,0.07799744606018066,-0.08542875945568085,0.03737255558371544,-0.33890339732170105,0.12595491111278534,-0.025724336504936218,0.014100921340286732,-0.0547817200422287,-0.025079213082790375,-0.4221361577510834,0.08673296868801117,0.13651925325393677,-0.10417264699935913,0.11209267377853394,0.33987152576446533,-0.16689549386501312,0.012194639071822166,0.1206725686788559,0.11656107008457184,0.01807129755616188,0.04670340195298195,-0.20032846927642822,-0.13111668825149536,-0.35937798023223877,-0.11051720380783081,-0.07077840715646744,-0.062130097299814224,-0.02285853773355484,0.0891394317150116,0.022476883605122566,0.16110636293888092,-0.06567331403493881,-0.24761591851711273,0.00919863861054182,-0.045073654502630234,-0.056218814104795456,0.23637178540229797,-0.08638471364974976,0.056005507707595825,0.08667431026697159,0.0583997443318367,-0.04772179573774338,-0.029559539631009102,0.02632846310734749,0.010767492465674877,-0.24091754853725433,-0.05854998901486397,0.14079809188842773,0.2207658290863037,-0.2560214698314667,-0.12116653472185135,-0.6317856311798096,-0.034503329545259476,0.15857280790805817,0.40790849924087524,0.10002067685127258,0.16037294268608093,-0.07255546003580093,0.047148432582616806,-0.11902324110269547,0.1846500188112259,-0.08372996002435684,0.06159079074859619,0.22617948055267334,-0.14149649441242218,-0.31826210021972656,-0.180411234498024,-0.19615331292152405,-0.21518060564994812,-0.16786354780197144,0.3012610673904419,0.16660307347774506,0.3388092815876007,0.09260427206754684,0.033081021159887314,0.1557743400335312,-0.05418706312775612,0.139018714427948,0.04820055887103081,0.023678872734308243,0.08637048304080963,0.2662026584148407,-0.08964581787586212,0.05288238823413849,0.03294414281845093,-0.09650997817516327,0.14321380853652954,-0.08498137444257736,-0.23945064842700958,-0.1708550751209259,0.006329718045890331,0.05359523743391037,-0.01985039748251438,0.09369748830795288,0.0016406034119427204,0.025994637981057167,-0.05231005325913429,-0.017565181478857994,-0.1621146947145462,0.09729790687561035,0.17357368767261505,0.11608967185020447,-0.0011698297457769513,-0.042335785925388336,-0.14310254156589508,-0.17973291873931885,-0.027272909879684448,0.26449307799339294,-0.09746333211660385,-0.06625648587942123,0.10224195569753647,0.04389770328998566,0.013972426764667034,0.14192214608192444,0.049845967441797256,0.10314344614744186,0.2583644688129425,-0.3239949643611908,-0.00879010558128357,-0.0670701190829277,0.22406896948814392,-0.09099657833576202,-0.29127851128578186,0.3297533094882965,0.032379668205976486,-0.029047353193163872,-0.1151532530784607,-0.06334922462701797,-0.057974301278591156,-0.17948196828365326,0.14234791696071625,0.23250383138656616,0.2988993227481842,0.008654829114675522,-0.16119065880775452,0.14661912620067596,-0.12758572399616241,0.03849829360842705,-0.10183399170637131,0.017606394365429878,0.1410311460494995,0.14953753352165222,0.056900858879089355,0.02537453919649124,0.19310924410820007,0.18594695627689362,0.08415776491165161,0.1673501878976822,-0.028074972331523895,-0.06425456702709198,0.01572420448064804,0.06730794906616211,0.27194783091545105,0.01404504757374525,-0.014046411029994488,0.10724971443414688,-0.06228796765208244,-0.005603207275271416,-0.023226406425237656,0.3571491539478302,0.023805875331163406,0.035937704145908356,0.019867179915308952,-0.07012312114238739,-0.26606854796409607,0.1883144974708557,0.091157466173172,0.04934453219175339,0.12621650099754333,0.12255256623029709,0.07993259280920029,-0.1254478394985199,-0.030275847762823105,0.12698154151439667,0.22441571950912476,0.018457021564245224,0.12037020921707153,-0.3280598819255829,0.10296983271837234,0.013238044455647469,-0.09295468777418137,-0.034483928233385086,0.24257640540599823,-0.025455022230744362,0.04712339863181114,0.04511171951889992,0.2138887494802475,0.02211860753595829,-0.09648212790489197,0.020666733384132385,0.08153843879699707,-0.021327218040823936,-0.30132797360420227,-0.2136869877576828,-0.07948769629001617,-0.09696877002716064,0.13856583833694458,0.1012326180934906,0.06695017218589783,0.05073748528957367,0.06008355692028999,0.06988900899887085,0.008770742453634739,0.07944464683532715,-0.27738261222839355,-0.01404656283557415,-0.09139536321163177,-0.17295582592487335,0.07028277963399887,0.18580546975135803,-0.04625943675637245,0.23443548381328583,0.23477034270763397,-0.04589930921792984,-0.12271969020366669,-0.0733206495642662,-0.1369275152683258,-0.27637773752212524,-0.17232078313827515,0.1478220522403717,-0.07547368109226227,0.259866863489151,-0.010871661826968193,0.05889509990811348,0.11530915647745132,-0.037438929080963135,0.14374592900276184,0.055241357535123825,-0.11157025396823883,0.06414838880300522,0.2686145305633545,-0.05741890147328377,-0.1997404545545578,-0.2278641164302826,0.004428706597536802,-0.16468001902103424,-0.21136222779750824,0.156675323843956,0.1019236370921135,-0.045948971062898636,-0.17833027243614197,-0.43588411808013916,-0.24907277524471283,0.11598765850067139,-0.008358579128980637,-0.017032232135534286,-0.1327897161245346,-0.06850674748420715,0.09766481816768646,-0.025907516479492188,0.13766086101531982,0.1156412810087204,-0.04004424810409546,-0.26424235105514526,-0.01063183881342411,-0.10549124330282211,0.05753183364868164,0.08579592406749725,-0.26485520601272583,-0.2374913990497589,-0.12077236920595169,-0.16937638819217682,0.016626691445708275,-0.01696796342730522,-0.24690672755241394,0.057691026479005814,-0.08891873806715012,-0.0383169986307621,-0.19373668730258942,-0.13111823797225952,0.07084042578935623,0.012466122396290302,-0.06646503508090973,0.11050373315811157,-0.18270015716552734,-0.15285032987594604,0.3193728029727936,-0.187953382730484,-0.15620876848697662,0.09865552186965942,0.10254845023155212,0.14945201575756073,-0.2990139126777649,0.18861395120620728,0.19932396709918976,-0.15085291862487793,-0.04759633541107178,0.043893810361623764,0.1701265275478363,-0.053424473851919174,-0.04971678555011749,-0.37199702858924866,-0.1299843043088913,-0.0682954415678978,0.3848270773887634,-0.036180589348077774,-0.004721122793853283,0.06095793470740318,-0.1599433720111847,0.021612675860524178,0.16611294448375702,0.037644628435373306,0.0340835377573967,0.4922120273113251,-0.1213037297129631,0.001492573763243854,0.2079078108072281,-0.13277439773082733,0.08479585498571396,0.2052316665649414,0.07906943559646606,-0.04832515865564346,0.1068325936794281,0.2893773019313812,0.10893403738737106,-0.06557773053646088,0.09924962371587753,0.15101826190948486,0.22897762060165405,0.12125388532876968,0.12718836963176727,-0.4247725009918213,0.0404081866145134,-0.14350435137748718,-0.06036512181162834,0.1664247065782547,0.16893838346004486,-0.06781285256147385,-0.03798069432377815,-0.0800606906414032,0.13088205456733704,-0.15753139555454254,-0.1462811827659607,0.10011887550354004,-0.05178814008831978,0.019601497799158096,-0.28540951013565063,0.15847401320934296,-0.14270339906215668,-0.16362135112285614,-0.022336428984999657,0.05380029231309891,-0.09831011295318604,-0.0012432978255674243,0.05418037250638008,-0.12495120614767075,-0.004637217149138451,0.042669374495744705,-0.1175609827041626,-0.037882667034864426,-0.010664314031600952,0.1444285660982132,0.08256813883781433,0.07859120517969131,0.061307817697525024,0.18093930184841156,0.16669447720050812,-0.17567400634288788,-0.09878280758857727,-0.08934368938207626,-0.1794024258852005,-0.12608648836612701,-0.10757861286401749,0.1846989542245865,0.01255595963448286,-0.19511866569519043,0.2658557593822479,0.045253731310367584,-0.07664760202169418,0.012185782194137573,0.056610215455293655,-0.20841316878795624,0.007754605263471603,-0.11193200945854187,-0.18279986083507538,0.057274237275123596,0.08309958130121231,0.014222155325114727,0.22965265810489655,-0.04665827751159668,-0.02384808659553528,0.16891157627105713,0.03833703696727753,-0.12325696647167206,-0.09606961905956268,-0.09846161305904388,-0.005829840432852507,-0.21819834411144257,0.07282936573028564,-0.06398898363113403,0.028363218531012535,0.11285603791475296,-0.3161964416503906,0.02105093002319336,-0.11146849393844604,0.03728177770972252,0.09229204058647156,0.15807341039180756,0.0954221859574318,-0.15875670313835144,-0.044580183923244476,0.003824683604761958,-0.08917548507452011,0.012776120565831661,0.09950859844684601,0.20469066500663757,-0.14330795407295227,0.04566769674420357,-0.03149921074509621,-0.13673309981822968,-0.191269651055336,0.1920776218175888,0.027007466182112694,0.18963293731212616,-0.2373618334531784,0.0723538026213646,0.06303154677152634,-0.12954287230968475,-0.16965919733047485,-0.040350884199142456,0.07369408756494522,0.06008228659629822,0.11140474677085876,-0.2087303251028061,0.06736457347869873,0.040432367473840714,-0.06280708312988281,0.1098082885146141,-0.007927358150482178,-0.008247933350503445,-0.08089796453714371,-0.027330245822668076,-0.037987176328897476,-0.07440223544836044,-0.057151664048433304,0.08564899861812592,-0.09853026270866394,0.14157645404338837,-0.016435930505394936,0.056559182703495026,0.19815704226493835,-0.3334670662879944,-0.009901825338602066,0.12276455014944077,0.07822335511445999,-0.135248064994812,-0.09668856114149094,-0.0020337169989943504,-0.053882159292697906,0.09042949974536896,0.07261129468679428,-0.09110651165246964,0.037176553159952164,0.034861184656620026,0.17756730318069458,-0.04026872664690018,0.000964961014688015,0.2640983462333679,0.14824549853801727,-0.09013001620769501,0.018553640693426132,0.1321779191493988,-0.04935547709465027,0.023031942546367645,0.10294583439826965,-0.2158658802509308,-0.027841215953230858,0.004780912306159735,-0.051033586263656616,0.03756619244813919,0.06451685726642609,-0.14732961356639862,-0.06756142526865005,-0.018604077398777008,0.040506500750780106,-0.024447651579976082,0.1394365131855011,-0.03177083283662796,0.014652179554104805,-0.06273946166038513,-0.07680759578943253,-0.03754887729883194,-0.06858624517917633,-0.09736138582229614,0.1433984488248825,-0.08469036966562271,-0.17931681871414185,-0.18099214136600494,0.0802571177482605,0.024661213159561157,0.04998399689793587,0.022011773660779,-0.19179962575435638,0.019735349342226982,0.03943977132439613,0.15952442586421967,0.011679301969707012,-0.06559643149375916,0.05954216793179512,-0.04455433040857315,-0.08118479698896408,-0.34340471029281616,0.03358467295765877,0.0754643902182579,-0.0636725127696991,-0.05902191996574402,-0.0015131362015381455,0.18804246187210083,0.18866953253746033,0.04455539584159851,0.01623087376356125,0.057975828647613525,-1.173608660697937,0.023692701011896133,0.21795271337032318,-0.12230664491653442,-0.14573785662651062,-0.054303161799907684,-0.13094808161258698,0.020058464258909225,-0.02483331598341465,0.5920329093933105,