{"version":"0.5.4","metadata":{"date":{"year":2026,"month":3,"day":16,"hour":15,"minute":51,"second":26},"loudness":-20.78582763671875,"gain":0.8528833950915516,"name":"Diezel - VH4 (Ch 3 TS9) - HG 01","modeled_by":"kenazmusic","gear_type":"amp","gear_make":"tz-make","gear_model":"tz-model","tone_type":"overdrive","input_level_dbu":null,"output_level_dbu":null,"training":{"settings":{"ignore_checks":false},"data":{"latency":{"manual":null,"calibration":{"algorithm_version":1,"delays":[-4],"safety_factor":1,"recommended":-5,"warnings":{"matches_lookahead":false,"disagreement_too_high":false,"not_detected":false}}},"checks":{"version":3,"passed":true}},"validation_esr":0.007453982522891749}},"architecture":"WaveNet","config":{"layers":[{"input_size":1,"condition_size":1,"head_size":8,"channels":16,"kernel_size":3,"dilations":[1,2,4,8,16,32,64,128,256,512],"activation":"Tanh","gated":false,"head_bias":false},{"input_size":16,"condition_size":1,"head_size":1,"channels":8,"kernel_size":3,"dilations":[1,2,4,8,16,32,64,128,256,512],"activation":"Tanh","gated":false,"head_bias":true}],"head":null,"head_scale":0.02},"weights":[0.06918631494045258,0.5059990882873535,-0.9058990478515625,-0.8306655883789062,-0.26013651490211487,0.502306342124939,0.07941441982984543,0.9905027747154236,-0.043569035828113556,0.21346324682235718,-0.4061383306980133,-0.2948615252971649,-0.9590683579444885,-0.6390254497528076,-0.5552031993865967,0.10451839119195938,0.16419440507888794,0.20459327101707458,-0.13084055483341217,-0.04901338741183281,-0.1472635418176651,0.15230411291122437,-0.03783474490046501,0.31385499238967896,-0.0557396300137043,0.006463755387812853,0.3359336853027344,-0.1684214174747467,-0.10801013559103012,0.15773062407970428,-0.0886605754494667,0.1431652456521988,-0.2904873192310333,-0.018623612821102142,0.03824220970273018,0.08552873134613037,-0.04780545458197594,0.13116632401943207,-0.1443743109703064,0.10133283585309982,-0.020215798169374466,0.10565710067749023,-0.030200669541954994,-0.11373984813690186,-0.2959088683128357,-0.03162161633372307,0.06943099945783615,0.2789295017719269,-0.1064494252204895,-0.032290734350681305,0.2842211425304413,0.09104735404253006,0.05095388740301132,0.22893689572811127,0.06773579865694046,-0.09502903372049332,0.23266710340976715,-0.14483404159545898,-0.11217599362134933,0.13135121762752533,0.029997894540429115,0.07246144860982895,-0.29789745807647705,0.08709197491407394,-0.03442396968603134,-0.12936721742153168,-0.21116432547569275,-0.1278689056634903,0.007986369542777538,0.22801898419857025,0.05731414631009102,0.03677323833107948,-0.02877400815486908,0.2874719202518463,0.21343480050563812,0.03926551714539528,0.1864810436964035,-0.045550983399152756,-0.07534600794315338,-0.25213533639907837,-0.21088656783103943,0.23333434760570526,0.08895959705114365,-0.1420670598745346,-0.1255180537700653,-0.19391386210918427,-0.11390985548496246,0.020699655637145042,0.18391455709934235,-0.035277433693408966,-0.07099972665309906,-0.08110608160495758,0.029694724828004837,0.15339195728302002,0.013208400458097458,-0.01615404710173607,-0.024555753916502,0.17868195474147797,-0.04573001340031624,-0.19712252914905548,0.3039357364177704,0.18818719685077667,-0.147431418299675,0.12821340560913086,-0.0496181957423687,-0.09093376249074936,0.053648415952920914,-0.02822505123913288,-0.10381346940994263,-0.11250316351652145,-0.11162673681974411,0.22582592070102692,-0.10231776535511017,0.14812235534191132,0.0917740985751152,-0.24868042767047882,0.07791436463594437,0.02450389787554741,0.1442565619945526,-0.08941805362701416,0.03999175503849983,0.13314425945281982,-0.1922135204076767,0.05270220339298248,-0.005198114085942507,-0.19484224915504456,-0.0437740720808506,-0.20318633317947388,0.06491187959909439,-0.11566659808158875,-0.05449965223670006,-0.07731891423463821,-0.17935054004192352,-0.13234542310237885,0.22661487758159637,0.002173912711441517,0.16560952365398407,-0.07784026861190796,0.07338860630989075,-0.04593765363097191,0.23890504240989685,0.08953478932380676,0.2692302465438843,-0.12285351753234863,-0.1286817193031311,0.06781794875860214,-0.009979474358260632,0.004542642273008823,0.05115475878119469,-0.2345627397298813,-0.15411488711833954,0.0037143598310649395,-0.1502903699874878,0.06562251597642899,0.20834694802761078,-0.2574285864830017,0.08109347522258759,-0.2648783028125763,0.061482831835746765,-0.08008937537670135,-0.060093700885772705,-0.07689018547534943,-0.13297966122627258,-0.13015404343605042,0.042599450796842575,-0.09542147070169449,-0.056754738092422485,0.0007387058576568961,-0.03527840971946716,-0.0005943293799646199,0.07222694903612137,0.03697130084037781,0.12644870579242706,-0.013351925648748875,-0.04677369445562363,0.08300990611314774,0.0399513840675354,-0.15524449944496155,0.08552475273609161,-0.1252637654542923,0.005716443993151188,-0.038913242518901825,0.15827344357967377,-0.05563942715525627,0.04227413982152939,-0.036076199263334274,0.009338106960058212,-0.02656310796737671,-0.048989374190568924,-0.0015802310081198812,0.11900921911001205,0.04075704514980316,-0.022283053025603294,0.013095582835376263,-0.16324639320373535,0.003018866293132305,-0.07556211948394775,-0.006346974987536669,0.00921653676778078,0.003969885408878326,-0.04985019192099571,0.18450956046581268,-0.10428587347269058,-0.15934978425502777,0.004442335106432438,0.10503645986318588,0.029089439660310745,0.060078639537096024,-0.08159327507019043,-0.1301005631685257,-0.026008697226643562,0.07415919005870819,0.139649897813797,-0.13135550916194916,-0.1094377338886261,-0.10708893090486526,-0.013751660473644733,-0.1833375245332718,-0.007656017784029245,-0.015317960642278194,-0.10870560258626938,0.026139404624700546,0.1496172696352005,0.10110311955213547,-0.01489296369254589,-0.04963517189025879,-0.04481477290391922,-0.011034955270588398,0.18351733684539795,0.08858799189329147,0.12958131730556488,0.019896719604730606,-0.052686166018247604,0.04409411922097206,0.22066791355609894,0.0030892430804669857,0.17562392354011536,-0.2128376066684723,-0.1549140214920044,-0.06827893853187561,0.1577276736497879,0.02407091297209263,-0.1479613035917282,0.12843312323093414,-0.03541210666298866,-0.26876190304756165,0.20076622068881989,-0.2246079295873642,-0.1228388175368309,0.07619158178567886,-0.17833895981311798,-0.10268714278936386,0.22679652273654938,0.03824732080101967,0.01653352938592434,-0.19651152193546295,-0.10562299937009811,0.0583544485270977,-0.11524005234241486,-0.053638726472854614,-0.08712358772754669,0.06044928357005119,0.028110312297940254,0.10188735276460648,0.07499366998672485,-0.09524436295032501,-0.04665546491742134,0.06663016229867935,0.08186403661966324,0.042968783527612686,-0.038468051701784134,-0.027099071070551872,-0.1377708613872528,-0.007955777458846569,-0.021884890273213387,-0.1632106453180313,0.19439880549907684,-0.04687009006738663,-0.009458152577280998,0.017603984102606773,0.0038443738594651222,-0.057491447776556015,-0.037928082048892975,0.14800649881362915,0.013300311751663685,0.08072100579738617,-0.08743229508399963,0.04239187389612198,0.006787917576730251,-0.04038479924201965,-0.08042296767234802,0.09676086157560349,-0.0017023856053128839,-0.010967622511088848,-0.011035416275262833,-0.13377802073955536,0.09315408766269684,-0.08155275136232376,0.017818722873926163,-0.0504307821393013,-0.03718746826052666,0.03852628543972969,-0.10123865306377411,-0.04091992974281311,0.044877003878355026,-0.135966956615448,-0.01715169847011566,-0.007101991679519415,0.07691138982772827,-0.0007582901744171977,-0.05395619198679924,-0.04885737597942352,0.035473715513944626,0.013580051250755787,0.030462371185421944,0.08250495791435242,-0.0014669331721961498,-0.015102517791092396,0.04976066201925278,-0.06533672660589218,0.02496849000453949,0.01720617152750492,-0.09478850662708282,-0.07727015018463135,0.0662965252995491,0.06319569796323776,0.10983889549970627,0.0343405157327652,0.17457954585552216,-0.046959225088357925,-0.08258552849292755,-0.20387886464595795,0.1528664231300354,0.09151234477758408,-0.026034286245703697,0.03961532190442085,0.11014551669359207,0.2244568169116974,0.11602603644132614,0.11938884854316711,0.031099842861294746,-0.0788283497095108,0.10079042613506317,0.14790606498718262,-0.11256494373083115,0.11703094094991684,0.1415299028158188,0.05770863592624664,-0.09871140867471695,-0.05844564735889435,-0.053402747958898544,0.09421470761299133,-0.08561144769191742,-0.014809724874794483,-0.03516959398984909,0.11949910968542099,0.050770893692970276,0.1567147672176361,-0.16234108805656433,-0.07593974471092224,-0.1816895306110382,-0.20356784760951996,-0.22360680997371674,0.030451109632849693,0.027736082673072815,0.041594065725803375,0.040355391800403595,-0.07548271119594574,0.0014761295169591904,0.04440665990114212,-0.12506529688835144,0.01133579108864069,-0.13978786766529083,-0.008076849393546581,-0.02943911962211132,0.003936531953513622,0.1005510538816452,0.053584713488817215,0.07626188546419144,0.15770897269248962,0.21922792494297028,0.030465679243206978,0.013794686645269394,0.03164450451731682,-0.018829064443707466,0.09921130537986755,-0.018048102036118507,0.03096434287726879,-0.11347829550504684,-0.041539210826158524,-0.07163376361131668,-0.09352570027112961,-0.18879128992557526,-0.16309288144111633,-0.1669858694076538,-0.007959269918501377,0.025149347260594368,0.016085894778370857,0.005980100482702255,0.152939572930336,0.10973677784204483,0.015603780746459961,0.005124742165207863,0.13039566576480865,0.18290948867797852,-0.15147094428539276,0.13575159013271332,-0.021108049899339676,-0.008485649712383747,0.07974620908498764,-0.21133972704410553,0.02315450832247734,0.13078151643276215,-0.11184445768594742,-0.05243091285228729,-0.055504027754068375,0.08041661232709885,-0.09145738184452057,-0.03482864797115326,-0.0030582111794501543,-0.01636292226612568,-0.08709577471017838,0.13904975354671478,0.02556963823735714,0.11341668665409088,-0.20711813867092133,0.07718075066804886,-0.12041603028774261,0.049708932638168335,-0.01023036241531372,-0.09399102628231049,-0.0640757828950882,0.18258480727672577,0.023533890023827553,-0.20881102979183197,0.019185570999979973,0.02819948084652424,-0.2431662529706955,0.11206074059009552,-0.13076205551624298,-0.2679094076156616,-0.09401219338178635,-0.02503315731883049,-0.028825238347053528,-0.0838303416967392,0.0931112989783287,0.047383446246385574,-0.04368226230144501,0.060178015381097794,-0.11209829151630402,0.20422831177711487,0.1902323216199875,0.19370634853839874,-0.010633564554154873,-0.21513326466083527,0.06065763533115387,0.09043177217245102,-0.05029131844639778,-0.1734112948179245,0.04377149045467377,-0.2510881721973419,-0.10687211155891418,0.11432486772537231,-0.0018298981012776494,0.0928223729133606,-0.025496097281575203,0.0784928947687149,-0.09458467364311218,0.04092218354344368,0.07571212947368622,0.1235898807644844,0.05837412551045418,0.001207995810545981,-0.04429018124938011,0.16633567214012146,-0.03657101094722748,-0.0786222591996193,-0.026903316378593445,-0.18756988644599915,0.02207881398499012,-0.007547005545347929,-0.17018789052963257,-0.15732154250144958,0.18477770686149597,-0.13409648835659027,0.049813162535429,0.1703781634569168,-0.03587657958269119,-0.0540103055536747,0.039900850504636765,-0.1457516849040985,-0.036763764917850494,0.16207917034626007,-0.013262768276035786,0.1566726416349411,-0.1476682871580124,-0.07131847739219666,-0.03495977818965912,0.08774003386497498,0.14909765124320984,-0.3295787274837494,0.19866697490215302,0.05982941389083862,0.2846635580062866,0.024047106504440308,-0.09119977802038193,0.243550643324852,-0.041169147938489914,-0.06529178470373154,0.23589752614498138,-0.14316116273403168,0.11358997970819473,-0.22403855621814728,0.06559686362743378,0.08275818079710007,0.1733490377664566,-0.0885578989982605,0.024027101695537567,-0.11814719438552856,0.0830305889248848,-0.012528493069112301,0.0991816520690918,-0.09626452624797821,-0.07509704679250717,-0.26233434677124023,0.041648853570222855,0.10565313696861267,0.14355023205280304,-0.11229412257671356,-0.10521986335515976,0.31740084290504456,0.013793215155601501,-0.11964396387338638,0.0858934074640274,-0.2038697898387909,-0.016060013324022293,0.16056618094444275,-0.19438667595386505,-0.07105958461761475,0.22117780148983002,-0.18181359767913818,0.07597222179174423,-0.1923513114452362,0.07042146474123001,0.1139441430568695,0.19567051529884338,0.0063308528624475,0.270568311214447,0.09349501878023148,-0.3900037407875061,-0.4020475745201111,-0.2758508622646332,0.6679727435112,-0.35631200671195984,-0.11082394421100616,0.5154950022697449,-0.3042783737182617,-0.1802295744419098,0.599996030330658,0.27639421820640564,0.0001573555637151003,-0.6108021140098572,-0.1657957136631012,0.054382942616939545,-0.10682661086320877,0.40450313687324524,0.10874511301517487,-0.5539429783821106,-0.17675364017486572,-0.10021053999662399,0.5564207434654236,0.3540129065513611,0.10617697238922119,-0.6040635108947754,-0.27426978945732117,-0.01953359693288803,0.45841553807258606,-0.39240768551826477,-0.07822691649198532,0.6592867970466614,-0.30515629053115845,-0.25857579708099365,0.39629876613616943,-0.22785618901252747,-0.14927084743976593,0.44916290044784546,-0.23993921279907227,-0.08831311762332916,0.637345552444458,0.3746170401573181,0.1319241225719452,-0.6239761710166931,-0.18645040690898895,0.04919486492872238,-0.07185320556163788,-0.051402147859334946,-0.15957000851631165,0.12726444005966187,0.25522691011428833,0.167732372879982,-0.11530371755361557,0.06403367221355438,-0.06255783140659332,0.142110675573349,0.045283131301403046,-0.0370594821870327,0.07630154490470886,-0.1785670965909958,-0.09581512957811356,-0.0026704908814281225,-0.005076991394162178,-0.12312301993370056,0.002187573118135333,-0.18389447033405304,0.012065296061336994,0.11760574579238892,0.14454583823680878,0.012392676435410976,0.07827300578355789,-0.08542238175868988,-0.09030216932296753,0.1440926343202591,0.14140529930591583,-0.11580025404691696,-0.04716949164867401,0.0033803561236709356,0.14288485050201416,-0.04294450581073761,-0.012054290622472763,0.030946098268032074,0.09981098026037216,0.15344607830047607,0.08201199024915695,0.018036067485809326,0.1669302135705948,-0.003735508304089308,-0.05872851610183716,-0.22877922654151917,-0.11782687902450562,0.09713131934404373,-0.05186630040407181,0.04469064250588417,0.0648682489991188,0.033063922077417374,-0.19124798476696014,0.17656496167182922,-0.10180988907814026,0.22489005327224731,-0.15454542636871338,-0.05341983214020729,0.18326573073863983,-0.09974705427885056,0.09285329282283783,-0.006200666539371014,-0.16910257935523987,-0.038732003420591354,-0.07266262173652649,0.1897640824317932,-0.03536786139011383,0.14706087112426758,-0.03238188475370407,-0.013296491466462612,-0.0006412588409148157,-0.07265806198120117,-0.04417571797966957,0.18869489431381226,-0.11507035046815872,0.1451312005519867,-0.13096827268600464,0.1732064038515091,-0.16792909801006317,0.07344987243413925,-0.08046372979879379,0.0128162931650877,0.14417526125907898,0.04645286872982979,-0.03876350075006485,0.1017802432179451,0.062344152480363846,-0.05963260307908058,0.23060357570648193,-0.13803090155124664,-0.04021167755126953,0.0924379825592041,0.01599770225584507,0.1453506499528885,-0.09769591689109802,-0.03957868739962578,0.010660720989108086,-0.035354770720005035,-0.11412806063890457,-0.03700186312198639,0.09638042747974396,0.15824005007743835,-0.046810511499643326,-0.1505572646856308,0.08323729038238525,-0.16542579233646393,0.01995379477739334,0.0032882248051464558,-0.1146354153752327,0.04686950519680977,-0.1386527717113495,0.08477507531642914,-0.08911068737506866,-0.015404998324811459,0.026881225407123566,0.08853141963481903,-0.07791631668806076,0.15213319659233093,-0.003124868730083108,-0.04970833286643028,-0.14170321822166443,-0.099893718957901,0.17275415360927582,0.006841639056801796,0.0027192342095077038,0.04364505410194397,0.05022985115647316,0.11810890585184097,0.11651621013879776,-0.14760830998420715,-0.0160562451928854,-0.07729924470186234,-0.14142277836799622,0.01820322684943676,0.113775834441185,-0.17096193134784698,0.07395527511835098,-0.09081084281206131,-0.08063767850399017,0.10636655986309052,-0.042849086225032806,0.0417986623942852,-0.12507519125938416,0.09892551600933075,-0.0025335655082017183,-0.15327629446983337,-0.006218974944204092,0.08145654946565628,-0.1791800856590271,0.005714412312954664,-0.07836093008518219,0.013836092315614223,0.07292488217353821,-0.0678887665271759,0.15273188054561615,-0.07024771720170975,-0.1950674057006836,0.01904386095702648,-0.1046326532959938,0.1854032576084137,0.037081196904182434,0.09875337779521942,0.08057279884815216,0.058910027146339417,0.09529474377632141,0.30198144912719727,-0.11560534685850143,-0.10526074469089508,-0.12101461738348007,0.17855139076709747,-0.08516958355903625,0.3052775263786316,-0.02177530899643898,-0.1181325688958168,-0.21333596110343933,0.18972676992416382,-0.09322918206453323,-0.21591892838478088,0.12506435811519623,-0.09852199256420135,-0.11311692744493484,0.1282666027545929,0.09075003117322922,-0.2803821563720703,0.19962935149669647,-0.07914343476295471,-0.041553497314453125,-0.0752919465303421,-0.11580038070678711,0.24532191455364227,-0.07958260923624039,-0.036060597747564316,-0.011597241275012493,-0.0963856428861618,-0.15421898663043976,-0.052905745804309845,-0.0300227552652359,0.024468928575515747,-0.008512236177921295,-0.00908105168491602,0.03644608333706856,0.08185268938541412,0.0009278897778131068,0.007238432765007019,-0.027193773537874222,0.04621967673301697,-0.05864638462662697,-0.027174172922968864,0.47092926502227783,-0.3508864641189575,0.8234537243843079,-0.8035979270935059,-0.08737779408693314,0.885591447353363,1.0176814794540405,-0.4846402108669281,0.14515282213687897,0.043118543922901154,-0.38149625062942505,-0.8769482374191284,0.2544436752796173,-0.6665390133857727,0.19342197477817535,0.4368998408317566,-0.11372227221727371,0.3217231035232544,0.1820276975631714,0.16469447314739227,0.1773671656847,-0.021674873307347298,0.17770706117153168,-0.138520285487175,0.03825824335217476,-0.10255759209394455,-0.1517666131258011,-0.36551526188850403,0.17096298933029175,-0.13971103727817535,0.12285640835762024,-0.1002851203083992,0.15417923033237457,0.05879877507686615,-0.2856047451496124,-0.017356453463435173,-0.11146990209817886,-0.009843418374657631,-0.06272865831851959,-0.003845751052722335,-0.18616075813770294,0.0062407623045146465,0.19730518758296967,0.2105758935213089,0.1902030110359192,0.05092732980847359,0.03354448080062866,0.144395112991333,-0.008008211851119995,0.023206127807497978,-0.05723520740866661,0.1660258024930954,-0.11072055995464325,-0.06937147676944733,0.12071982771158218,-0.08966132998466492,-0.02081765979528427,-0.1092473715543747,0.19706346094608307,-0.2492823600769043,0.13877563178539276,0.2583809792995453,0.11651349067687988,0.03820444270968437,0.16454604268074036,-0.1069454774260521,-0.3167215585708618,-0.13896140456199646,-0.13209974765777588,-0.035668324679136276,-0.13586221635341644,-0.10957058519124985,-0.24620787799358368,-0.01669047586619854,0.030752690508961678,0.17574119567871094,0.167697936296463,0.34344565868377686,-0.37305471301078796,-0.2074974924325943,-0.2865574061870575,-0.44361764192581177,-0.1597892940044403,0.022447459399700165,0.3053622841835022,0.20410431921482086,0.20105409622192383,-0.14050456881523132,0.18298155069351196,0.37643760442733765,-0.2995678186416626,0.37033650279045105,-0.13910897076129913,0.08546552807092667,-0.08410537987947464,0.10097040235996246,-0.22415019571781158,-0.14183644950389862,0.31513071060180664,-0.08936955779790878,0.3509858250617981,0.3785961866378784,0.38958030939102173,0.2251020073890686,0.29788973927497864,0.10336419939994812,-0.30728575587272644,-0.18923020362854004,-0.11541876196861267,-0.2980860471725464,0.29059767723083496,0.2443908303976059,-0.23793955147266388,0.206672802567482,0.4526936411857605,0.14552758634090424,-0.2001037746667862,-0.20066584646701813,0.18438398838043213,0.06791453063488007,0.2482723444700241,-0.3295232653617859,-0.45437195897102356,0.13920654356479645,0.2718484103679657,-0.35515260696411133,-0.042490020394325256,-0.3669276237487793,0.2991338074207306,0.029958486557006836,0.4669640362262726,-0.4199851155281067,-0.18081673979759216,0.4905899465084076,0.44422098994255066,0.12387970834970474,0.2224256545305252,-0.11314452439546585,0.14541274309158325,-0.7376837134361267,0.08238107711076736,-0.30223166942596436,0.1212795153260231,0.31183645129203796,-0.1156163290143013,0.010898116044700146,-0.281471312046051,-0.24046975374221802,0.045871566981077194,-0.06266406923532486,-0.11939738690853119,-0.02562767267227173,-0.23134875297546387,-0.258468359708786,0.18260055780410767,0.08870185166597366,0.07314278930425644,-0.08514348417520523,0.07049471884965897,0.019686121493577957,-0.250632643699646,0.07157954573631287,0.09045025706291199,-0.19098670780658722,-0.307133287191391,0.019889213144779205,0.11634936928749084,-0.17056365311145782,0.05577126517891884,0.1474774181842804,0.07596778124570847,0.05619516223669052,0.24242082238197327,0.17972156405448914,-0.294302761554718,-0.10590273886919022,0.21059833467006683,0.31802916526794434,-0.370368629693985,0.12603454291820526,-0.21462547779083252,-0.21170678734779358,-0.008006873540580273,-0.16154125332832336,-0.08056405931711197,-0.26864591240882874,-0.04111991822719574,-0.1956561952829361,0.039578162133693695,0.2549022138118744,-0.03659720718860626,0.13684728741645813,0.11784058809280396,0.14706620573997498,0.02204728126525879,0.08448002487421036,-0.25546368956565857,-0.19996118545532227,-0.18328969180583954,-0.29323557019233704,-0.1034834012389183,-0.39190205931663513,0.08795896172523499,-0.4137569069862366,0.15485835075378418,0.24634824693202972,-0.4242449104785919,-0.4276522696018219,-0.20426620543003082,-0.157750204205513,0.1258610188961029,0.10277005285024643,0.2627553343772888,-0.2325577735900879,0.002937477780506015,0.3209560513496399,0.259318470954895,0.06088956445455551,-0.23934997618198395,0.3952871859073639,0.012650886550545692,-0.2160482257604599,-0.00411008158698678,0.18749277293682098,0.1255301535129547,-0.15779796242713928,-0.21744640171527863,0.053241729736328125,-0.177397683262825,0.20940011739730835,0.18696434795856476,0.10428418964147568,-0.17739519476890564,-0.2247026264667511,0.18649259209632874,0.028958819806575775,-0.10287375003099442,0.053347669541835785,-0.10509101301431656,0.22647902369499207,-0.022159146144986153,0.383432537317276,-0.15527507662773132,-0.06876835972070694,-0.07179559022188187,-0.06169633939862251,0.06269337981939316,-0.012339457869529724,-0.3377320170402527,-0.017570042982697487,0.08754180371761322,-0.27243009209632874,0.28078651428222656,0.2782912850379944,-0.33289584517478943,-0.16642332077026367,0.2373005598783493,-0.06932898610830307,0.30794674158096313,-0.15794815123081207,-0.0026329210959374905,0.44900447130203247,0.25227320194244385,0.14613425731658936,-0.027302293106913567,0.04663209617137909,-0.06420907378196716,-0.3126496374607086,0.01158958300948143,0.08833732455968857,0.197244331240654,0.16023635864257812,0.06551971286535263,-0.20263507962226868,0.13315071165561676,-0.2060202658176422,-0.12252870947122574,0.03905559331178665,0.0886315330862999,0.018968328833580017,-0.014274531975388527,-0.16832906007766724,0.017467869445681572,-0.025694414973258972,0.028553584590554237,-0.020449325442314148,0.04029298201203346,0.08159605413675308,0.008971366100013256,-0.098696269094944,0.36101892590522766,0.234019935131073,0.11277197301387787,0.1373203545808792,-0.18056343495845795,-0.07861236482858658,0.10167649388313293,-0.17332220077514648,0.014981149695813656,0.019231967628002167,-0.09820680320262909,-0.02439238131046295,-0.24116535484790802,0.18806418776512146,-0.03389016538858414,0.03047698177397251,-0.36206480860710144,-0.1664830893278122,0.01015477441251278,0.16373610496520996,-0.1257973462343216,-0.07841482013463974,-0.06794968247413635,0.1394384205341339,-0.07942748069763184,-0.14643080532550812,-0.005536873359233141,-0.014108028262853622,-0.1780296117067337,-0.0463181734085083,0.10277222841978073,-0.15864670276641846,-0.10539741814136505,0.18022362887859344,-0.15253429114818573,0.15764351189136505,-0.14079877734184265,-0.12936152517795563,0.12261852622032166,-0.10327055305242538,-0.18232695758342743,0.07776203751564026,0.14215730130672455,0.22925391793251038,-0.11207661032676697,-0.028724858537316322,0.05199296399950981,-0.2564736306667328,0.2412869781255722,-0.06884688884019852,0.051425714045763016,0.00826115719974041,0.08381401002407074,-0.01888252981007099,0.1442277431488037,-0.047633130103349686,0.10263817012310028,-0.11422443389892578,-0.10506599396467209,0.3405250608921051,0.005135172512382269,-0.22924208641052246,-0.18153588473796844,-0.010676044039428234,-0.32721951603889465,-0.3406282067298889,-0.3820282816886902,0.19244371354579926,-0.2801651656627655,0.07179806381464005,-0.02901364304125309,0.06924623250961304,-0.058993883430957794,0.13715675473213196,-0.12460825592279434,-0.16435553133487701,0.14391355216503143,-0.009836072102189064,0.0009477966232225299,0.005541077349334955,-0.1489788144826889,0.10758595168590546,-0.31090694665908813,0.4143359959125519,-0.13240936398506165,0.09883397072553635,0.18053068220615387,0.03187401965260506,0.037787117063999176,-0.10235356539487839,0.0018542915349826217,0.12114109098911285,-0.08180394023656845,-0.07156795263290405,-0.0945010855793953,-0.44155699014663696,0.3818763792514801,0.08159258216619492,0.3836352527141571,-0.3824860453605652,-0.11173880100250244,0.12924787402153015,0.023276742547750473,0.064878910779953,0.13717202842235565,-0.20821696519851685,0.3481283187866211,-0.06201295927166939,-0.03799021616578102,0.03433490917086601,-0.06707432121038437,0.2607683837413788,0.16103725135326385,-0.34695541858673096,0.35513460636138916,-0.18218755722045898,-0.3188190162181854,0.26292139291763306,-0.02614394575357437,0.15739969909191132,-0.23757635056972504,-0.1967877298593521,0.06726185977458954,-0.09377022832632065,-0.17550402879714966,0.015306183136999607,-0.011928715743124485,0.02698477916419506,0.014813052490353584,0.026896201074123383,0.5358119606971741,-0.028727306053042412,0.054168809205293655,0.017829345539212227,0.13430391252040863,-0.14881959557533264,-0.14120382070541382,0.16125814616680145,0.02136269025504589,-0.2538576126098633,-0.11524718999862671,0.2589499056339264,-0.03251893073320389,-0.2526152729988098,0.4614577889442444,-0.15042762458324432,0.026411356404423714,-0.20029640197753906,0.25027284026145935,-0.024156603962183,-0.3615286350250244,0.20377589762210846,0.18487128615379333,-0.30054354667663574,-0.02542649768292904,0.08552137017250061,-0.22513443231582642,-0.25956523418426514,-0.09307017177343369,0.23931558430194855,0.3769477605819702,0.5786362886428833,0.05250932276248932,-0.464275985956192,-0.1036691889166832,0.4795849919319153,0.2540324926376343,-0.0163448303937912,-0.24674522876739502,0.13786228001117706,-0.1408572494983673,0.05184806138277054,0.2750352621078491,0.015509666875004768,-0.24792668223381042,0.23404820263385773,0.1941060870885849,-0.05611523613333702,0.2429242581129074,0.5999830961227417,-0.7691957950592041,0.20520594716072083,-0.09859464317560196,-0.3259553909301758,0.13689489662647247,0.07923421263694763,-0.16235502064228058,-0.2133779078722,-0.13569827377796173,0.5337543487548828,-0.06708618253469467,-0.01007196493446827,0.013691970147192478,0.0814058929681778,0.19939632713794708,0.013651263900101185,-0.15566495060920715,0.0038908671122044325,0.04663883522152901,-0.18460673093795776,0.037117987871170044,0.11940113455057144,0.047956302762031555,-0.047965530306100845,-0.17593073844909668,-0.04160202294588089,0.11787973344326019,-0.11744319647550583,-0.015104921534657478,-0.13156118988990784,0.0029642051085829735,0.05426887795329094,0.11234800517559052,0.0595858134329319,0.059755221009254456,0.07518540322780609,0.01300114393234253,-0.19108915328979492,-0.12236983329057693,0.007513543590903282,0.0922374576330185,-0.053024113178253174,0.08622176945209503,-0.18027201294898987,-0.00035191720235161483,0.18530221283435822,-0.20044516026973724,-0.19501715898513794,0.11323882639408112,0.002924202475696802,-0.04206399247050285,0.06910409033298492,-0.09374985843896866,-0.16485558450222015,-0.06006425991654396,0.09838362783193588,-0.025483431294560432,-0.14857324957847595,-0.0009527772199362516,-0.06075580418109894,-0.10730196535587311,-0.2883395254611969,0.18041205406188965,0.08764530718326569,-0.03442065417766571,0.04853598400950432,-0.04498167708516121,0.0013324678875505924,0.17142175137996674,0.08915432542562485,-0.062341783195734024,-0.0796990692615509,0.11142629384994507,0.10788018256425858,-0.16258488595485687,0.01899254322052002,0.04637397825717926,-0.3187123239040375,-0.0976400375366211,0.10035241395235062,-0.039142921566963196,0.19975630939006805,0.08190025389194489,0.14841526746749878,-0.06774689257144928,0.22982211410999298,0.06638049334287643,0.04692547768354416,0.05834464728832245,0.1069524809718132,-0.011124988086521626,0.1893383413553238,0.02129247598350048,-0.001004151301458478,0.26134103536605835,-0.11473602056503296,-0.029763706028461456,-0.1100604310631752,-0.1856570988893509,0.03498426824808121,-0.05416279658675194,0.18116022646427155,-0.19411468505859375,-0.005551189184188843,0.06701423227787018,0.10924083739519119,0.10830757021903992,0.05215444415807724,0.02914574183523655,0.12863938510417938,0.14135000109672546,0.056451957672834396,-0.024109965190291405,-0.19417622685432434,0.2631489932537079,0.24275614321231842,-0.04660230875015259,0.07433360069990158,-0.1822884976863861,0.5007253289222717,-0.05551046133041382,0.14835608005523682,0.24385763704776764,-0.012503101490437984,0.47605952620506287,0.20397277176380157,-0.214774027466774,0.02969028800725937,0.06907746195793152,-0.16092978417873383,0.04659797251224518,-0.16806025803089142,0.06510014086961746,0.16980192065238953,0.004373155999928713,0.04580796882510185,0.1093633845448494,-0.2125113159418106,0.23341694474220276,0.0032661245204508305,-0.0877131000161171,0.10982251167297363,0.01714145950973034,0.8027631640434265,0.28459200263023376,0.005907390266656876,0.0544477179646492,-0.0291835218667984,-0.11023321747779846,-0.1690114140510559,0.0837787613272667,0.000903312349691987,-0.036074403673410416,-0.1488543301820755,-0.07476923614740372,0.061858680099248886,0.10224335640668869,0.23265701532363892,-0.1441989541053772,-0.08481354266405106,0.032740943133831024,-0.16197435557842255,0.12166114896535873,0.14754529297351837,-0.21305854618549347,-0.10928237438201904,-0.34207528829574585,0.05424421653151512,-0.08320488780736923,-0.04523366317152977,0.13689282536506653,-0.012779074721038342,-0.023976532742381096,0.38237088918685913,-0.1429833173751831,0.08347968012094498,-0.013046232983469963,-0.025689397007226944,0.17977096140384674,-0.26827144622802734,0.1095927283167839,0.26613348722457886,0.014735196717083454,-0.11037977039813995,0.3246478736400604,-0.2876989543437958,-0.010161008685827255,0.2312173694372177,-0.1917392462491989,0.06506810337305069,-0.594440758228302,0.0810306966304779,0.07747266441583633,-0.027895545586943626,-0.0637446865439415,-0.09929352253675461,0.26036080718040466,-0.08594280481338501,0.1075247973203659,0.00009970739483833313,0.04041207581758499,0.026258505880832672,0.1048123762011528,0.18332397937774658,-0.10511240363121033,-0.20134298503398895,-0.034532878547906876,-0.08648165315389633,-0.09984024614095688,0.08301904052495956,0.23262342810630798,-0.07802344113588333,0.05703442171216011,-0.04017622396349907,0.24088814854621887,-0.31527915596961975,-0.14314717054367065,0.10056028515100479,0.054656337946653366,-0.07051338255405426,-0.003097344422712922,-0.17910121381282806,0.28188836574554443,-0.070953369140625,0.010718995705246925,0.014014773070812225,-0.1616947501897812,-0.04462491348385811,0.2039393037557602,-0.10734959691762924,0.18804477155208588,-0.07160352915525436,-0.12918618321418762,0.07103510946035385,0.02665046788752079,-0.19291159510612488,0.11128778755664825,0.21819069981575012,0.04619690403342247,-0.23255963623523712,0.12974092364311218,-0.0777459442615509,-0.04233282431960106,-0.09941378980875015,-0.1838601976633072,-0.027424488216638565,0.1037602424621582,-0.0001969555305549875,0.059092096984386444,-0.19360633194446564,0.28296634554862976,-0.009758459404110909,0.00997626781463623,-0.28419747948646545,0.1669289469718933,0.045598939061164856,-0.14320272207260132,0.11727940291166306,-0.06661967188119888,-0.15475496649742126,0.2242002934217453,-0.05391987785696983,0.23008312284946442,0.003176820930093527,0.004226464778184891,0.0026312891859561205,-0.23760196566581726,0.1103689968585968,0.45673808455467224,-0.3168849050998688,0.12948410212993622,-0.19587787985801697,-0.05272882431745529,0.16724278032779694,-0.13171051442623138,0.29893869161605835,-0.01686708629131317,-0.1768217235803604,-0.12175694853067398,-0.011262604966759682,-0.20825715363025665,0.1545250117778778,0.04193301498889923,-0.0672307014465332,0.06410036981105804,-0.10522636026144028,0.3245566487312317,-0.13193285465240479,-0.15362334251403809,-0.19885317981243134,0.1355316936969757,-0.02341664955019951,-0.11535335332155228,-0.006299063563346863,0.019608113914728165,-0.11086194217205048,-0.11421771347522736,-0.051787763833999634,0.03160588815808296,0.0330837145447731,-0.08733602613210678,-0.3318634033203125,-0.02014852687716484,-0.25872331857681274,0.1254568248987198,0.22065187990665436,0.03886959329247475,-0.09261259436607361,0.07688868790864944,-0.048756908625364304,-0.09441907703876495,-0.0064599718898534775,-0.08832097798585892,0.018430858850479126,-0.09570426493883133,0.057998403906822205,-0.09514167904853821,-0.06800774484872818,0.004172961693257093,-0.03333770111203194,-0.05030811205506325,0.1643330305814743,-0.07114726305007935,0.08917330950498581,0.07742716372013092,-0.017142778262495995,-0.21839088201522827,-0.1278439313173294,0.11060374230146408,0.07059920579195023,-0.1436438113451004,0.17665594816207886,0.15794269740581512,-0.15142202377319336,0.20071302354335785,0.0986238643527031,-0.02657882310450077,0.11047112941741943,0.090970978140831,0.09012463688850403,0.10497943311929703,0.1825370490550995,-0.09754018485546112,0.06668868660926819,-0.21362778544425964,0.14680640399456024,0.1456693559885025,0.005971177481114864,-0.05403085798025131,-0.27886050939559937,-0.08704541623592377,-0.2689627408981323,-0.03925909101963043,0.38445010781288147,0.1466519981622696,-0.013501957058906555,0.17765815556049347,0.033211421221494675,0.08644167333841324,-0.08768516033887863,-0.18949782848358154,0.028241684660315514,-0.08281226456165314,0.0025944083463400602,-0.14664225280284882,-0.1304110735654831,-0.01553711760789156,0.10026642680168152,0.013349780812859535,0.1154751405119896,0.06350305676460266,0.010500618256628513,-0.08943413943052292,-0.27927738428115845,0.029548345133662224,-0.0745997205376625,-0.11173290014266968,0.19693385064601898,-0.08385198563337326,-0.16285938024520874,0.17317309975624084,-0.009794021025300026,0.23283490538597107,-0.05751768872141838,-0.06017986685037613,0.18198062479496002,0.1401461660861969,0.003414648585021496,0.07593285292387009,0.2198646366596222,-0.11044231057167053,-0.11348127573728561,-0.06056194007396698,0.1869221180677414,-0.1309094876050949,0.1003565788269043,-0.20045635104179382,0.07135909795761108,-0.07461901754140854,0.02822110243141651,0.17493318021297455,0.16463199257850647,-0.13449743390083313,0.047438520938158035,0.06023884564638138,-0.02276814542710781,0.1119055449962616,-0.03666408360004425,-0.016344446688890457,-0.08422272652387619,-0.1464638113975525,0.11958407610654831,-0.12316002696752548,-0.2046079784631729,0.046973057091236115,-0.10309277474880219,-0.07604493945837021,0.04615640267729759,-0.10790412127971649,0.02593482844531536,0.14789962768554688,-0.0059206606820225716,0.03690202906727791,-0.07997238636016846,0.09710520505905151,0.12056020647287369,-0.016205156221985817,0.15438072383403778,-0.13208691775798798,-0.07800847291946411,0.13928094506263733,-0.08516059815883636,0.10138614475727081,-0.01240549422800541,-0.03282463178038597,-0.08895178139209747,0.09368957579135895,-0.0406452901661396,-0.029570937156677246,0.08572079241275787,0.13666540384292603,0.003447921248152852,-0.06132999062538147,-0.17649199068546295,0.03183862194418907,-0.035978272557258606,0.20285728573799133,0.08626546710729599,0.12927113473415375,-0.0245928056538105,-0.03801833093166351,-0.034750521183013916,0.11208245158195496,0.01632729358971119,-0.012309850193560123,0.0031828165519982576,0.22900480031967163,-0.09769584238529205,-0.0950762927532196,-0.013771116733551025,-0.012508535757660866,0.12170669436454773,-0.029387235641479492,0.05339993163943291,-0.022506294772028923,0.07823792099952698,0.022080648690462112,0.041421353816986084,0.07686226069927216,0.1133280098438263,-0.06370166689157486,0.14100483059883118,-0.02424493245780468,0.06874322146177292,-0.1922760307788849,-0.009483559988439083,0.11539296060800552,-0.2144155204296112,0.07788943499326706,-0.068812295794487,-0.0780598446726799,0.10230618715286255,0.1294545829296112,-0.13919124007225037,-0.015837443992495537,0.041172921657562256,-0.21613328158855438,-0.06486444920301437,-0.154606893658638,0.15722861886024475,-0.13359029591083527,-0.03454190492630005,-0.047656841576099396,0.08454276621341705,0.1527402698993683,0.024394525215029716,0.10984478145837784,0.16921433806419373,-0.021547818556427956,0.12177684903144836,0.005219511222094297,-0.04523557424545288,0.007086921948939562,0.33052608370780945,0.1419469118118286,-0.0007732035010121763,-0.11831007152795792,0.043822966516017914,-0.15476123988628387,0.1385323852300644,-0.2318626344203949,-0.13629326224327087,-0.0760200023651123,0.02768433839082718,0.1993202120065689,-0.037546321749687195,-0.05178089439868927,-0.013163366355001926,-0.10553161054849625,0.10426191985607147,0.09935825318098068,0.10327785462141037,0.026144981384277344,0.16937148571014404,0.02216516062617302,-0.18344280123710632,0.10792233049869537,0.21266025304794312,-0.042065687477588654,0.023642953485250473,-0.024173006415367126,-0.09468172490596771,-0.05778628587722778,0.008580734021961689,-0.24538162350654602,0.02845352329313755,-0.1281956136226654,0.06509474664926529,0.0006475045811384916,0.145226389169693,-0.09570018947124481,0.037821441888809204,0.1036805734038353,0.13352857530117035,0.04635516554117203,0.128547802567482,-0.006678462494164705,0.09335113316774368,0.17800810933113098,-0.027914050966501236,-0.09241895377635956,-0.038795992732048035,0.05701260641217232,-0.05108058452606201,-0.23433685302734375,0.011554857715964317,0.02532944083213806,-0.10073617845773697,0.013937888666987419,0.07695907354354858,-0.10765513777732849,-0.08142071962356567,-0.15622049570083618,-0.040135614573955536,-0.01252933219075203,0.04229186847805977,0.23087812960147858,0.33289897441864014,-0.015175625681877136,0.14390131831169128,-0.17014113068580627,-0.013137994334101677,0.07060571014881134,-0.035003069788217545,-0.07236697524785995,-0.20961572229862213,-0.045792851597070694,-0.04648072272539139,0.0778198391199112,-0.17367449402809143,0.050156425684690475,-0.0045933774672448635,0.01915818825364113,0.06951882690191269,0.15182876586914062,0.1615731120109558,0.12503892183303833,0.06666993349790573,0.008840546943247318,0.10950299352407455,-0.05188445746898651,0.0648476779460907,0.051476672291755676,0.14562202990055084,-0.005918984767049551,-0.002434056717902422,0.12088669091463089,0.17676180601119995,0.06000618636608124,-0.016627216711640358,-0.004923608154058456,-0.14708182215690613,-0.42726749181747437,0.26019254326820374,0.4029328227043152,0.014190169982612133,0.1320713758468628,-0.7157095670700073,-0.7074878811836243,-0.4846031963825226,0.8060996532440186,-0.8025088310241699,-0.5418407320976257,-0.8823652267456055,0.24720269441604614,-0.6599431037902832,0.44775617122650146,-0.5869396924972534,-0.29101425409317017,0.06330013275146484,-0.04855012521147728,0.4931623935699463,-0.10091619193553925,0.2402695119380951,-0.25304949283599854,-0.055231548845767975,-0.4597887098789215,0.0538698211312294,0.22263874113559723,0.17525650560855865,0.42964816093444824,0.402832567691803,0.12967149913311005,0.24957430362701416,-0.03578749671578407,-0.12966343760490417,0.0877620205283165,0.21735575795173645,-0.3753944933414459,0.49780285358428955,-0.3919491469860077,-0.4812641739845276,0.10113062709569931,0.13335753977298737,0.3363608717918396,0.5955347418785095,0.20140321552753448,0.33155161142349243,0.09058217704296112,0.38692453503608704,-0.0556827187538147,-0.25964999198913574,0.13677991926670074,0.1562836617231369,0.14007817208766937,0.14310643076896667,-0.21237559616565704,-0.0696362555027008,0.008856875821948051,0.10875245928764343,-0.20839892327785492,-0.1690102219581604,-0.010948429815471172,0.10597716271877289,0.011328737251460552,-0.04624688997864723,0.1566171795129776,-0.08876434713602066,-0.2700923979282379,-0.47311902046203613,-0.08857566863298416,-0.08576149493455887,0.0031195753253996372,0.09637899696826935,-0.027149632573127747,-0.10168366879224777,0.04032960161566734,0.16252446174621582,0.056912314146757126,-0.22894082963466644,-0.054009705781936646,-0.031703270971775055,0.4476275146007538,0.07960052043199539,-0.10954957455396652,-0.8514249324798584,0.34317249059677124,-0.17058110237121582,0.04188992828130722,0.35021933913230896,0.24486202001571655,-0.053779471665620804,-0.16462571918964386,0.1699853390455246,-0.22344261407852173,-0.2727675437927246,-0.21516241133213043,-0.2599616050720215,-0.1034141257405281,-0.016933629289269447,-0.05030757933855057,-0.08970539271831512,0.12532681226730347,-0.21069329977035522,-0.005557785276323557,-0.1195947453379631,0.2666381597518921,0.21082322299480438,-0.10694506764411926,-0.17980952560901642,-0.2495192587375641,-0.23494137823581696,-0.04406646266579628,-0.001701426925137639,0.11311117559671402,-0.05188858136534691,0.24161894619464874,-0.4237308204174042,-0.032802436500787735,0.5278632640838623,-0.6151880025863647,-0.5889878273010254,0.1261354386806488,0.3361789882183075,0.030611587688326836,0.4180888533592224,0.2070564478635788,0.2805815041065216,0.04358505457639694,0.44113028049468994,0.04268155246973038,0.15944845974445343,0.22416682541370392,0.5152092576026917,-0.019758982583880424,0.03113725408911705,-0.39389416575431824,-0.10654247552156448,-0.07942959666252136,0.30388689041137695,-0.1454300731420517,0.11807023733854294,-0.017382211983203888,0.181818425655365,0.20169506967067719,0.09523957222700119,-0.04261396825313568,0.4233452081680298,-0.3597014546394348,-0.22480833530426025,-0.3362894356250763,-0.11082287132740021,0.2479187548160553,0.004848746582865715,-0.31177833676338196,0.13007453083992004,0.30973535776138306,-0.04226606711745262,0.10072142630815506,0.3025115132331848,0.2394132912158966,0.32175812125205994,-0.19708094000816345,0.02734389901161194,-0.3306707739830017,0.26838746666908264,-0.1628306657075882,0.09013433009386063,-0.03116173855960369,-0.044494375586509705,-0.1369849592447281,0.03993169963359833,0.37734004855155945,0.38401100039482117,0.43109315633773804,0.15124735236167908,0.07620444148778915,0.0072998409159481525,-0.25701072812080383,-0.18373464047908783,0.14511294662952423,0.057514458894729614,-0.04454387351870537,0.01502653956413269,-0.2699752449989319,-0.22794121503829956,0.08600669354200363,0.35752853751182556,-0.0364435613155365,0.27082428336143494,0.23404698073863983,0.2440154105424881,0.04538722708821297,0.1782831996679306,-0.029719388112425804,0.2906287908554077,-0.31260061264038086,-0.07763979583978653,-0.4086157977581024,-0.055330801755189896,0.15966367721557617,0.3133232295513153,-0.3864712417125702,-0.01720627397298813,0.3610323667526245,-0.07354966551065445,0.23984085023403168,0.03898930177092552,0.1883140653371811,-0.0742681473493576,-0.42458733916282654,-0.21101604402065277,-0.5147355198860168,-0.005815668031573296,-0.12979145348072052,-0.1296377331018448,-0.13749249279499054,0.26149773597717285,-0.1997893899679184,-0.25857508182525635,-0.222533717751503,-0.2656002640724182,0.3361618220806122,-0.19696515798568726,-0.05970689654350281,-0.07199205458164215,-0.23644836246967316,0.05702657252550125,-0.08754871040582657,-0.05703858286142349,-0.5391137003898621,0.03326713293790817,0.03378670662641525,-0.19061988592147827,-0.013402781449258327,0.3285544514656067,0.20550428330898285,0.13887007534503937,0.47905460000038147,0.23806560039520264,0.2930402159690857,-0.08738294988870621,0.027539504691958427,0.3713766932487488,0.18513882160186768,-0.013759097084403038,-0.2651059031486511,-0.053113870322704315,0.19998799264431,0.05610234662890434,-0.19007381796836853,0.2203652709722519,-0.0589892715215683,0.057461559772491455,0.02810003235936165,0.2267761528491974,0.3265402019023895,0.1674319952726364,0.24405533075332642,-0.30788812041282654,0.43422794342041016,0.3240911364555359,0.2128230482339859,-0.27582529187202454,-0.2771027386188507,0.018970055505633354,0.5194845199584961,-0.16822288930416107,-0.1883360594511032,-0.20143550634384155,-0.5696378946304321,-0.12784987688064575,-0.35258448123931885,-0.4343588650226593,-0.1484210193157196,-0.09030557423830032,0.03811871260404587,-0.07152000069618225,-0.11314820498228073,0.06058456748723984,0.040770675987005234,0.07240144908428192,0.030247079208493233,-0.08132746815681458,0.0299832746386528,-0.22461850941181183,0.13527238368988037,-0.21466632187366486,-0.15803162753582,0.07923251390457153,0.08867326378822327,-0.006767618469893932,0.06508273631334305,-0.07753583788871765,-0.012597845867276192,-0.1044270396232605,0.024224624037742615,0.1337319016456604,-0.2046031653881073,-0.012358245439827442,0.08408677577972412,-0.1742490977048874,0.11822716146707535,0.01712479256093502,-0.04334753006696701,0.0637388750910759,-0.13592897355556488,-0.019821487367153168,0.03287237137556076,0.2694636881351471,-0.0726190134882927,0.05396798253059387,-0.11704842746257782,0.004925745539367199,-0.15424346923828125,0.22785916924476624,-0.09434283524751663,-0.0454893484711647,0.04523707553744316,-0.10448149591684341,-0.06816934049129486,0.2584589719772339,-0.13006633520126343,-0.19500942528247833,0.09687907993793488,-0.062223054468631744,-0.24508266150951385,-0.15543507039546967,-0.09875980019569397,-0.1310148388147354,0.21113687753677368,-0.18393343687057495,0.15401490032672882,0.2129121720790863,-0.21199917793273926,0.19815726578235626,-0.21574050188064575,0.20256564021110535,-0.11702073365449905,-0.03477316349744797,0.11558959633111954,-0.17002514004707336,0.20219244062900543,-0.1033146008849144,0.05122243985533714,0.21762891113758087,0.08141930401325226,-0.32325470447540283,-0.06050683557987213,0.14139536023139954,0.12280885875225067,-0.18307018280029297,-0.0792553722858429,0.07537726312875748,-0.1044674962759018,-0.2803635001182556,0.01294400729238987,-0.031105928122997284,0.11288297921419144,0.3519158661365509,0.13798241317272186,-0.002326665446162224,-0.1375361531972885,0.0019793619867414236,-0.04526660963892937,0.04631160944700241,0.21571096777915955,0.16134445369243622,0.060593072324991226,0.20668956637382507,0.07296083122491837,-0.27700626850128174,-0.05811711773276329,0.1165958121418953,-0.2579992115497589,-0.16369090974330902,-0.006135963834822178,-0.15362197160720825,0.05595660209655762,0.007852842099964619,-0.15760697424411774,0.17730951309204102,0.1666220873594284,0.2724538743495941,-0.016186362132430077,-0.07513702660799026,0.144684836268425,-0.06386657804250717,-0.3145826756954193,0.25968310236930847,0.013436887413263321,-0.23519018292427063,0.2550406754016876,0.00177315017208457,-0.03306249901652336,-0.08222002536058426,-0.08793879300355911,0.06644663959741592,-0.1612086296081543,-0.10085330903530121,0.27729326486587524,-0.0628429427742958,0.12224815040826797,0.06340476125478745,0.12213429808616638,0.23607447743415833,-0.0405767597258091,-0.13134771585464478,0.19548223912715912,-0.11410804092884064,0.20052935183048248,-0.0398450531065464,-0.050167277455329895,0.1496264785528183,0.07360567897558212,-0.19456267356872559,0.013473843224346638,0.022245751693844795,-0.15243665874004364,0.09767087548971176,-0.022916188463568687,-0.016517704352736473,0.24059396982192993,0.24484650790691376,-0.09930597990751266,0.12997780740261078,0.007628122344613075,-0.01589553989470005,0.225163996219635,-0.2149454653263092,-0.05328987166285515,-0.2380090057849884,0.02328019216656685,0.18322095274925232,-0.17448580265045166,-0.02193262055516243,-0.03072712942957878,-0.15934531390666962,0.16576334834098816,-0.1106516644358635,0.13613563776016235,0.23382268846035004,-0.15075206756591797,0.11691346764564514,0.0409461185336113,-0.07981988787651062,0.00945365522056818,-0.08773496747016907,-0.0014260171446949244,-0.12078503519296646,-0.1804155856370926,0.05631047487258911,0.04437943920493126,-0.06955564022064209,-0.39625850319862366,-0.01929633319377899,0.003990932367742062,0.05458848178386688,-0.007548929657787085,0.12925495207309723,0.02197115495800972,-0.11753976345062256,-0.05415298417210579,-0.22269494831562042,0.0534067265689373,0.15575726330280304,-0.045912839472293854,0.09277022629976273,-0.010209030471742153,-0.11191501468420029,-0.5616629719734192,0.16880449652671814,-0.36201074719429016,0.12151528149843216,0.09057633578777313,0.055266913026571274,0.054650597274303436,0.011357125826179981,0.1075349897146225,0.00429415563121438,-0.0022286216262727976,0.1245468258857727,0.009242347441613674,-0.35769590735435486,0.16917015612125397,-0.13372232019901276,-0.037154268473386765,0.16665011644363403,-0.12076760828495026,0.06824582070112228,0.03796149045228958,-0.018090814352035522,0.2261582612991333,0.12210335582494736,0.09260097146034241,0.22805719077587128,-0.13258059322834015,0.14102104306221008,0.12487764656543732,-0.16779504716396332,-0.1702413707971573,-0.13997316360473633,0.2901616394519806,-0.015422021970152855,-0.5519744753837585,-0.13103926181793213,-0.10416774451732635,-0.225764200091362,0.22560937702655792,-0.06586860120296478,-0.027897072955965996,0.15822702646255493,-0.18344569206237793,-0.08008555322885513,0.19290879368782043,-0.15228956937789917,0.003392021870240569,0.007453534286469221,-0.15324720740318298,0.6955306529998779,-0.5878902673721313,-0.16037529706954956,-0.1984044909477234,0.22986789047718048,-0.16906096041202545,-0.18577909469604492,0.2655806243419647,0.15146344900131226,-0.05136118456721306,-0.27769050002098083,0.16876010596752167,-0.013068003579974174,-0.19142356514930725,0.09755246341228485,-0.032686520367860794,-0.029194898903369904,0.08136792480945587,-0.005017764866352081,-0.037049878388643265,0.021272411569952965,-0.058066535741090775,0.1024295836687088,-0.03155447915196419,0.0026823694352060556,0.11675243079662323,-0.26086875796318054,-0.17019858956336975,0.04595695436000824,-0.0751153901219368,0.002448233077302575,-0.011559853330254555,-0.11957167088985443,-0.2261977642774582,0.03970123827457428,0.08086694031953812,-0.03643406927585602,-0.211126908659935,-0.12405820935964584,-0.028778905048966408,-0.06541619449853897,0.1437697559595108,0.06972623616456985,-0.02919534221291542,0.03034457191824913,0.07063915580511093,-0.019551420584321022,-0.25469470024108887,-0.20570677518844604,-0.19965077936649323,0.015128620900213718,0.04422454163432121,-0.04990081861615181,0.09043055027723312,-0.028703466057777405,-0.1375819593667984,0.1572854220867157,-0.009631791152060032,0.10105715692043304,-0.1309453696012497,-0.13956446945667267,0.1684802770614624,0.03958728164434433,-0.06869127601385117,0.028463784605264664,0.09597109258174896,-0.05456490442156792,-0.10299210995435715,-0.09663969278335571,0.20097003877162933,-0.013787470757961273,0.007047054823487997,-0.0744050070643425,-0.05825440585613251,0.007072580512613058,0.11829488724470139,0.0756126418709755,0.02853737398982048,-0.07515983283519745,0.01526890229433775,0.07585311681032181,0.04066794365644455,-0.024416780099272728,-0.1684129685163498,-0.013144822791218758,0.170293927192688,-0.07295851409435272,0.15065106749534607,0.02144577167928219,-0.18956823647022247,0.07810864597558975,-0.0778883621096611,-0.03741740807890892,0.027867399156093597,0.020864536985754967,-0.09934397786855698,-0.0006120646721683443,0.16510909795761108,-0.037694934755563736,-0.052145183086395264,0.05921431630849838,-0.15013113617897034,0.0035674721002578735,0.02600828744471073,0.15103590488433838,-0.13402098417282104,-0.0840289518237114,0.2795829474925995,0.3308119773864746,-0.3368942141532898,0.22464986145496368,0.12469175457954407,-0.10355743020772934,0.20536978542804718,0.17075638473033905,-0.13771028816699982,-0.018863718956708908,-0.10544084757566452,-0.07274417579174042,-0.31927984952926636,-0.03326726704835892,0.11501244455575943,-0.14613553881645203,0.1508340686559677,0.17492632567882538,-0.06020085886120796,-0.045098837465047836,-0.19818741083145142,-0.18144932389259338,0.27905717492103577,0.05739407241344452,0.12885451316833496,0.07008879631757736,-0.26021865010261536,0.03151535987854004,0.11691012233495712,-0.2948623299598694,0.3435664474964142,-0.07797006517648697,-0.13918106257915497,0.14093106985092163,-0.03043399564921856,-0.2593398988246918,-0.05831655114889145,0.1813536286354065,0.15945522487163544,0.09906268864870071,-0.0287028681486845,-0.11770310252904892,0.223323792219162,-0.09520726650953293,-0.21030215919017792,-0.276202529668808,-0.09082366526126862,0.11543954908847809,-0.14540809392929077,-0.18940606713294983,-0.1384246051311493,0.052682433277368546,-0.08798092603683472,-0.06332171708345413,0.16671308875083923,0.1578018069267273,0.0976257473230362,0.12520775198936462,0.1886591762304306,0.054304055869579315,-0.15772177278995514,0.046520255506038666,0.05159207805991173,-0.19800306856632233,-0.11467968672513962,-0.08339481800794601,-0.07211694121360779,-0.019624728709459305,-0.10525733232498169,-0.14811289310455322,-0.19147315621376038,0.025726674124598503,0.14179004728794098,-0.13026893138885498,-0.10464183986186981,-0.012759692966938019,0.04420950636267662,0.034562092274427414,0.11871714144945145,-0.012194844894111156,-0.1604636162519455,0.14896750450134277,0.046966902911663055,-0.13320954144001007,0.10059487074613571,-0.07576733827590942,-0.22507116198539734,0.09170382469892502,-0.08781097829341888,-0.06311359256505966,0.2957158088684082,0.1184265986084938,-0.068030446767807,0.030243098735809326,0.07217489182949066,0.1451658010482788,-0.2250724583864212,-0.19767126441001892,0.06427784264087677,-0.03535211831331253,0.0627213716506958,0.23444953560829163,-0.14388227462768555,0.052145034074783325,0.22358740866184235,-0.165028378367424,0.005643175914883614,0.10995885729789734,0.14245136082172394,0.05272956192493439,-0.05824383720755577,0.07800543308258057,-0.0782131776213646,-0.26897403597831726,-0.13398319482803345,-0.013416402973234653,0.17092543840408325,0.21608909964561462,-0.30487921833992004,-0.3678271770477295,-0.2039402574300766,-0.17667168378829956,0.23615580797195435,-0.019388990476727486,-0.13254539668560028,0.1364326924085617,-0.12184550613164902,0.04618541896343231,0.1358204185962677,-0.27925702929496765,0.17104923725128174,0.042625125497579575,-0.10767480731010437,0.0968366488814354,0.04205070436000824,-0.25120824575424194,-0.1733729988336563,0.17495517432689667,-0.24962811172008514,0.13782557845115662,0.041252002120018005,0.27584463357925415,0.03466140478849411,-0.24169762432575226,0.07068346440792084,-0.08104842901229858,-0.20137594640254974,0.01877579465508461,0.05590687319636345,0.1410783976316452,0.11715010553598404,0.09282024204730988,0.02837996557354927,0.13307921588420868,0.21965523064136505,0.1560305655002594,0.09259585291147232,-0.027235815301537514,0.1634901463985443,-0.0835900828242302,-0.1367463320493698,-0.06358108669519424,0.07178037613630295,0.20718637108802795,0.03361709788441658,0.08872975409030914,-0.07552787661552429,-0.08152642846107483,0.03226255998015404,0.06926196068525314,-0.12488284707069397,0.031609080731868744,-0.006355708930641413,-0.0195088479667902,0.05913572385907173,-0.05746481940150261,-0.07701849192380905,0.057595908641815186,-0.06479713320732117,0.0027681621722877026,-0.10680938512086868,-0.2633303999900818,-0.22516369819641113,0.1532064974308014,-0.11864639818668365,-0.1775406301021576,-0.025692950934171677,0.2137761414051056,-0.17992079257965088,-0.02673622965812683,-0.15672682225704193,0.07876725494861603,0.009452249854803085,-0.2049013078212738,0.31066688895225525,-0.09090279787778854,-0.17118094861507416,0.10582289844751358,-0.022079147398471832,-0.05754109472036362,0.12370236217975616,-0.22252555191516876,0.028698133304715157,0.11005730926990509,0.08643458783626556,0.023642590269446373,-0.09138428419828415,-0.003650799160823226,-0.10192300379276276,-0.06659334897994995,-0.05014289543032646,0.16845670342445374,0.30238986015319824,0.2132316380739212,-0.13799861073493958,-0.10929892957210541,-0.20386826992034912,0.028011275455355644,-0.03744678199291229,-0.22203680872917175,-0.14369511604309082,-0.052221305668354034,-0.17152106761932373,-0.1210990846157074,-0.017184335738420486,0.040236253291368484,-0.03769230470061302,0.1929943859577179,-0.12756919860839844,-0.038943737745285034,-0.45059865713119507,-0.16000553965568542,-0.12466003000736237,0.23945488035678864,-0.14280813932418823,-0.15371987223625183,0.22760069370269775,0.04671195521950722,-0.10743403434753418,-0.25983184576034546,-0.12651991844177246,-0.0708557665348053,0.33795398473739624,0.11068419367074966,0.020327048376202583,-0.08872783184051514,-0.11517008394002914,-0.2000351995229721,-0.15923906862735748,0.009236220270395279,-0.027965977787971497,-0.013857081532478333,0.11638282984495163,0.058133967220783234,-0.0038062427192926407,0.10888170450925827,0.008988166227936745,0.0009013187373057008,-0.11706320941448212,0.18714243173599243,-0.08644739538431168,0.09792890399694443,-0.0690186396241188,-0.03272485360503197,-0.03369127959012985,-0.11315422505140305,0.19322612881660461,-0.17353741824626923,0.014449640177190304,0.0011563606094568968,0.009461158886551857,0.14108605682849884,0.02126031555235386,-0.0646425113081932,0.0017589385388419032,0.16562342643737793,-0.3727647066116333,0.3703480064868927,0.14819282293319702,0.03196536377072334,0.1273152083158493,0.2331855446100235,-0.1338854432106018,0.044139254838228226,-0.06863601505756378,0.18894536793231964,-0.042706962674856186,-0.055488985031843185,0.25830259919166565,-0.31992846727371216,0.1552480310201645,0.29609426856040955,-0.3053467571735382,0.09295244514942169,0.24712587893009186,-0.1969214677810669,-0.11919105052947998,-0.37709367275238037,0.0869382992386818,0.023166434839367867,-0.3249775469303131,0.3070616126060486,0.02304525300860405,-0.008272549137473106,0.05002458393573761,0.009264690801501274,0.17121635377407074,-0.38240131735801697,0.2969368100166321,0.5250377655029297,-0.4755897521972656,0.08341727405786514,0.03519221395254135,0.006574437487870455,0.006331912241876125,0.2162380963563919,-0.18143492937088013,0.19473063945770264,0.05665692314505577,-0.22563436627388,-0.1582149714231491,-0.07143816351890564,0.05440686643123627,-0.09388221800327301,-0.2701587677001953,1.3162620067596436,-0.36816418170928955,0.11144844442605972,0.05825749412178993,-0.05374537408351898,-0.07024775445461273,-0.14028213918209076,-0.08018767833709717,-0.10897068679332733,-0.03865336626768112,-0.029397616162896156,0.008715217001736164,0.1699194312095642,0.14674952626228333,-0.03392592445015907,-0.012823037803173065,0.031432200223207474,-0.1605825275182724,-0.08252307027578354,-0.12834301590919495,-0.1688191443681717,-0.16715040802955627,0.0338439978659153,0.019863251596689224,-0.1247391551733017,-0.1404052972793579,0.18841160833835602,0.02076082117855549,-0.09809063374996185,-0.023302625864744186,-0.0324040949344635,-0.04624183848500252,0.07333064824342728,0.07709559053182602,0.002777285873889923,0.0028591828886419535,-0.08638103306293488,0.15525060892105103,0.04747897386550903,0.011194863356649876,0.08048588037490845,-0.1560371071100235,0.023231035098433495,0.04387420415878296,-0.14170552790164948,0.11417314410209656,-0.07232142984867096,-0.2927570343017578,0.04983321949839592,0.016435831785202026,-0.1424262672662735,-0.12436860054731369,0.1283605694770813,-0.1307479739189148,-0.15219257771968842,0.03558415174484253,0.039927735924720764,0.08304319530725479,-0.21024201810359955,-0.11220115423202515,-0.019155755639076233,0.3137371242046356,-0.08651359379291534,0.004206071607768536,0.27378731966018677,-0.25902336835861206,0.10173480957746506,0.10657841712236404,-0.162252277135849,0.08741124719381332,0.2823399603366852,0.20741602778434753,0.1755656898021698,-0.056564196944236755,0.292093425989151,-0.01671983301639557,-0.1789388805627823,0.12201202660799026,0.03762644901871681,0.2433255910873413,0.11677426844835281,-0.033611930906772614,0.025520028546452522,-0.15751107037067413,-0.1079893633723259,0.12825866043567657,-0.24412581324577332,-0.04732512682676315,0.07453294843435287,-0.14564694464206696,-0.09298960119485855,0.1826029121875763,-0.30941706895828247,0.04976227134466171,0.1953679770231247,-0.2670738101005554,-0.10408458113670349,-0.2700784206390381,-0.1848313808441162,0.0154793169349432,0.07341586798429489,-0.07177382707595825,-0.05209111049771309,0.06778178364038467,0.03212613984942436,-0.05599893257021904,-0.025625698268413544,0.13023260235786438,0.11776795983314514,0.10974328964948654,-0.013905915431678295,-0.028227930888533592,-0.055664632469415665,-0.08620791137218475,-0.08350792527198792,0.08018466830253601,0.002454253612086177,0.006185085512697697,-0.014355283230543137,-0.1682683527469635,0.018640127032995224,0.0005121934227645397,-0.07602570950984955,-0.07250843942165375,-0.5285409092903137,0.6414924263954163,0.14717285335063934,-0.4647618234157562,-0.08554832637310028,0.027284488081932068,-0.06916441768407822,0.3711254596710205,-0.8984429240226746,0.8142260313034058,0.7553574442863464,0.17068327963352203,-0.11238231509923935,0.3445753753185272,-0.6156696081161499,0.01631193421781063,-0.2789452075958252,0.2352411448955536,0.05196988955140114,-0.012321636080741882,0.5003185272216797,-0.016018852591514587,0.24439354240894318,0.39578965306282043,-0.23933649063110352,0.5724228620529175,-0.06160347908735275,-0.4152778387069702,-0.11509174853563309,-0.523918092250824,-0.2096834033727646,0.0816517099738121,0.0089423144236207,-0.03460504859685898,0.10160185396671295,0.20904144644737244,0.0970141589641571,-0.0885586366057396,-0.36740294098854065,-0.03947675600647926,0.06865640729665756,-0.04067971184849739,-0.03733433783054352,0.1340055912733078,0.09712333977222443,0.09937676787376404,0.15041939914226532,-0.01894957199692726,-0.0994458869099617,-0.038441210985183716,-0.3736448884010315,0.2634391486644745,-0.34515073895454407,0.16640214622020721,-0.5907815098762512,-0.395659476518631,0.5143459439277649,-0.2492305487394333,0.08468877524137497,0.22722548246383667,-0.6141451597213745,0.33397966623306274,0.2795049846172333,0.1020326167345047,-0.1860835701227188,0.20547586679458618,-0.034834083169698715,-0.1311148852109909,0.21430283784866333,-0.30218058824539185,0.3356095850467682,0.2910294234752655,-0.13281872868537903,0.30614298582077026,0.06343461573123932,-0.1404988020658493,0.30409112572669983,-0.10110121220350266,-0.1517934799194336,0.14011992514133453,-0.04475267231464386,0.25389042496681213,0.0025562578812241554,0.16672569513320923,0.052206795662641525,0.035759612917900085,-0.07701220363378525,0.27627232670783997,0.00040752196218818426,-0.03325900062918663,0.14939633011817932,-0.19832868874073029,-0.0678471177816391,0.1595761477947235,-0.1663609892129898,-0.11898251622915268,-0.054804034531116486,0.05333439260721207,0.02792370691895485,-0.001604202319867909,-0.08028308302164078,0.19599296152591705,-0.04858331382274628,-0.23358963429927826,-0.10144869983196259,-0.10653994232416153,0.29374372959136963,0.21847859025001526,0.14542517066001892,0.4156137704849243,0.1159529909491539,0.0981336310505867,0.23039965331554413,-0.14728163182735443,-0.0340791717171669,0.4819584786891937,-0.10528430342674255,0.11923801153898239,-0.22031153738498688,-0.33480459451675415,0.3662426471710205,0.21961724758148193,0.09868818521499634,0.3037478029727936,0.21770501136779785,0.1872091293334961,0.4889707863330841,0.16301332414150238,0.10237617045640945,-0.1811647117137909,-0.029075274243950844,0.2646298110485077,-0.12351203709840775,0.015725834295153618,-0.19469760358333588,0.14920301735401154,0.08954665064811707,0.06248083338141441,0.3636660575866699,0.07012429088354111,0.10665877908468246,0.06267954409122467,0.026036733761429787,-0.17229792475700378,0.4102642238140106,-0.1021689921617508,0.04647991433739662,0.21492616832256317,-0.05530267208814621,-0.10395783931016922,-0.18032121658325195,-0.14733871817588806,0.25342699885368347,-0.006829139310866594,0.244791641831398,-0.274700790643692,0.019989140331745148,0.2052222490310669,0.08307183533906937,0.3702895939350128,0.07641104608774185,-0.25731003284454346,0.22013972699642181,0.05594119429588318,0.3181682825088501,-0.27088475227355957,-0.12020061165094376,0.048625748604536057,0.09171946346759796,0.2961859405040741,-0.1443239003419876,-0.06728445738554001,-0.1725490391254425,0.01614156924188137,0.02684539556503296,0.18407529592514038,-0.11769548058509827,-0.13693362474441528,-0.3323606848716736,0.41452842950820923,-0.23027727007865906,0.21242313086986542,-0.2594265341758728,0.18206721544265747,0.16886991262435913,-0.1512880176305771,0.17113573849201202,0.09794996678829193,-0.0937880203127861,0.1131947785615921,0.4573318660259247,-0.011434398591518402,0.06380339711904526,-0.048212677240371704,0.10823100805282593,-0.1930447816848755,0.2759166657924652,0.05180266126990318,0.1871156245470047,0.04550573602318764,-0.23134027421474457,-0.11587119847536087,0.14999713003635406,-0.3338330388069153,-0.36393433809280396,-0.07386933267116547,0.0703713446855545,-0.5472332835197449,-0.4149574935436249,0.029693573713302612,0.07450318336486816,0.30672687292099,0.2907773554325104,-0.598212718963623,-0.138210728764534,0.4419763386249542,0.14213593304157257,-0.1841905266046524,0.14641202986240387,-0.21601620316505432,0.29410117864608765,-0.29342183470726013,-0.07012418657541275,-0.29314014315605164,-0.000426308048190549,-0.11111443489789963,-0.1294494867324829,0.10041939467191696,-0.0688922256231308,0.09103532135486603,-0.15819641947746277,0.15076373517513275,0.05090215429663658,0.1623591035604477,-0.23212474584579468,-0.1148824691772461,0.18407180905342102,-0.1642151176929474,0.05167561024427414,0.12176910042762756,0.41900089383125305,-0.19192029535770416,0.11259163916110992,0.039300136268138885,-0.17094829678535461,0.16397114098072052,-0.4282413721084595,0.02493125945329666,0.40642067790031433,0.04029683396220207,0.38205593824386597,0.04440466687083244,-0.23131448030471802,0.2192755490541458,0.03434848412871361,-0.03777560591697693,-0.155887633562088,-0.08688955754041672,-0.2173858880996704,-0.148199662566185,-0.26848870515823364,0.007705342955887318,-0.22102652490139008,-0.19855961203575134,0.07168436050415039,0.10471133887767792,0.14648018777370453,-0.17062732577323914,-0.22455959022045135,-0.0008650257950648665,-0.01870947889983654,-0.0052581424824893475,0.027553610503673553,0.10257868468761444,0.14109458029270172,-0.0590667799115181,0.13406209647655487,0.10766870528459549,-0.026083998382091522,-0.14288324117660522,-0.16936425864696503,0.07724801450967789,0.0630800873041153,0.10420064628124237,0.10697966068983078,0.02813836745917797,-0.02057601884007454,-0.048959627747535706,-0.3602389991283417,-0.10372170060873032,-0.33918696641921997,-0.4941348731517792,-0.9452071785926819,0.061710845679044724,-0.047499921172857285,-0.3104412257671356,-0.21238766610622406,-0.09205042570829391,-0.06610109657049179,0.2337472140789032,0.23884408175945282,0.1371452808380127,0.3672288656234741,0.4087337851524353,0.8677340745925903,-0.15015317499637604,-0.10704749077558517,-0.6468507051467896,0.12275657057762146,0.39741218090057373,0.36583858728408813,-0.43165332078933716,-0.683969259262085,-1.1671967506408691,-0.24775241315364838,-0.34034180641174316,-1.0577746629714966,-0.22449779510498047,-0.24920715391635895,-0.46120280027389526,-0.3177470266819,-0.5588260889053345,-0.4130774140357971,-0.0853753462433815,-0.4411556124687195,-1.1331257820129395,-0.3479901850223541,-0.5515247583389282,-1.2978981733322144,-0.5737659335136414,-0.5219864249229431,-0.8430911898612976,0.498789519071579,0.5043674111366272,0.9847474098205566,0.13775305449962616,0.0887368768453598,-0.28135812282562256,0.2306317538022995,-0.025792978703975677,-0.2658272087574005,0.014344342052936554,-0.08769447356462479,0.27487313747406006,0.061216600239276886,0.13830849528312683,-0.08334781974554062,-0.07950955629348755,-0.009067521430552006,0.29801976680755615,-0.11260895431041718,-0.15163756906986237,0.12061042338609695,-0.12011183053255081,0.18882346153259277,-0.0500628799200058,-0.10120771825313568,-0.1634223759174347,-0.03206639736890793,0.15030305087566376,0.17133904993534088,-0.18386565148830414,0.18373903632164001,0.22510585188865662,0.08966874331235886,0.008601036854088306,0.11364556849002838,-0.011359491385519505,0.22974251210689545,-0.003976897336542606,-0.29894453287124634,0.3912695348262787,-0.1522638201713562,0.1089785024523735,-0.034264858812093735,0.10785920172929764,-0.27003002166748047,0.18393267691135406,0.19278812408447266,0.02837936207652092,-0.15589410066604614,-0.003496350720524788,0.14540547132492065,0.036099303513765335,-0.17670758068561554,-0.15160995721817017,0.19817660748958588,0.07874033600091934,-0.1643272489309311,-0.14959610998630524,-0.04126313328742981,0.4022110104560852,0.09432373195886612,0.13170211017131805,-0.2098984569311142,0.07052642852067947,-0.04949702322483063,0.024713819846510887,-0.2979487180709839,-0.17811650037765503,0.12170496582984924,0.05860260874032974,0.11987998336553574,-0.04255065694451332,-0.10274746268987656,-0.021717213094234467,0.14478637278079987,0.07810112833976746,0.07265450805425644,-0.00710444338619709,0.1944931596517563,0.02085563912987709,-0.029775628820061684,0.026352595537900925,0.055850446224212646,-0.07982344180345535,0.07829546928405762,-0.04685596749186516,-0.16362525522708893,0.0864400640130043,-0.12855283915996552,-0.4343673884868622,0.025928830727934837,0.02401900105178356,-0.11021874845027924,0.1959114521741867,-0.08279377222061157,-0.052033815532922745,-0.2644161283969879,-0.021506674587726593,0.12417846918106079,0.22175469994544983,0.16942444443702698,-0.2198449969291687,0.054744839668273926,0.05598825588822365,-0.02429344691336155,0.03989877924323082,-0.029881400987505913,0.02779999002814293,0.14602850377559662,0.10615090280771255,-0.2540770173072815,-0.1424633413553238,0.050591159611940384,0.03606579825282097,-0.19678126275539398,-0.1680404096841812,0.22005058825016022,0.07753434777259827,-0.0076557062566280365,-0.12209746241569519,-0.08113283663988113,-0.07205533981323242,0.07346174865961075,0.11694177240133286,-0.09572180360555649,-0.2859634757041931,-0.010390165261924267,0.03143935650587082,-0.0797782614827156,-0.006820982322096825,0.10074255615472794,-0.15396906435489655,0.2164212167263031,0.1731385886669159,-0.10818906128406525,0.03682256489992142,-0.20515693724155426,-0.20086319744586945,0.1161712184548378,0.053701210767030716,-0.2681107223033905,-0.06388674676418304,0.10005281865596771,-0.1733212172985077,-0.17013803124427795,0.010432535782456398,0.14226603507995605,0.2253614217042923,-0.04268919304013252,-0.06419118493795395,0.0997902974486351,0.12862074375152588,-0.07499870657920837,-0.3807341158390045,0.3022491931915283,-0.2415066957473755,0.06134143844246864,-0.13324511051177979,0.010109215043485165,0.1394912749528885,-0.18944191932678223,-0.006742345634847879,-0.10870950669050217,0.0631844624876976,0.1517692357301712,-0.16307412087917328,-0.07171423733234406,-0.2556958496570587,0.051422614604234695,-0.02948509342968464,-0.1520826369524002,-0.17390379309654236,0.21555876731872559,-0.15686261653900146,-0.14872896671295166,0.05526624247431755,0.05835800990462303,0.005504000931978226,0.05207731947302818,-0.2063160389661789,-0.07763335853815079,0.010731425136327744,-0.045565102249383926,0.04374608397483826,-0.17928770184516907,0.11528004705905914,-0.11352765560150146,-0.020927786827087402,-0.11753445118665695,-0.09513388574123383,0.083079032599926,-0.04847097769379616,0.08763175457715988,-0.14407525956630707,0.006299667991697788,0.0019197347573935986,-0.11070935428142548,-0.17090237140655518,0.02111058495938778,0.06844547390937805,-0.24371641874313354,0.01185497548431158,0.14706172049045563,-0.004999819677323103,-0.06000572815537453,0.05467299371957779,-0.1950017809867859,0.06478369235992432,-0.16128824651241302,0.012254089117050171,-0.1956116408109665,-0.19871021807193756,0.09687571227550507,-0.06755086779594421,0.031210368499159813,-0.13985027372837067,-0.02985861524939537,-0.1303376853466034,-0.24141518771648407,-0.03608119115233421,0.13691817224025726,-0.14926305413246155,-0.008427596651017666,0.10336378961801529,-0.0897190272808075,0.01244058832526207,-0.10373038798570633,-0.25904861092567444,0.15518608689308167,0.0447058342397213,0.05947018787264824,0.07868258655071259,-0.21896134316921234,-0.1380399465560913,0.02779461070895195,0.007056027185171843,-0.20349988341331482,0.07860370725393295,0.09467589855194092,-0.16923408210277557,-0.01316941436380148,0.041100725531578064,0.053420208394527435,0.5298318862915039,0.1938205510377884,0.04408177360892296,-0.2564829885959625,-0.14274030923843384,0.10073026269674301,-0.15086126327514648,-0.1424545794725418,0.09281940758228302,-0.21416917443275452,-0.057548634707927704,-0.29420772194862366,0.051816124469041824,0.27851128578186035,-0.09993642568588257,-0.0874035507440567,-0.06025776267051697,0.07758964598178864,-0.4840468466281891,-0.2972228527069092,-0.10200434178113937,0.20827126502990723,-0.16603724658489227,0.003301092889159918,-0.17944347858428955,0.04371902719140053,-0.043278906494379044,0.07711278647184372,0.016830284148454666,0.13237552344799042,-0.08180677890777588,-0.19324719905853271,0.07927218824625015,0.005339016672223806,-0.2142172008752823,-0.14158695936203003,0.3531424105167389,0.47228503227233887,-0.051177334040403366,-0.17330175638198853,0.0031589181162416935,-0.10094717890024185,-0.09663540869951248,0.06417637318372726,0.03417288511991501,0.08591507375240326,-0.052448347210884094,-0.177594855427742,-0.17399926483631134,-0.1896631121635437,0.060220200568437576,-0.021189911291003227,-0.0645122230052948,0.30747532844543457,-0.04577043280005455,-0.06656879931688309,0.3284251093864441,-0.1676354855298996,0.1469135582447052,0.24288561940193176,0.020797723904252052,0.2138667106628418,-0.07537884265184402,0.07004496455192566,-0.06456638127565384,-0.34122568368911743,0.011487750336527824,-0.03237595781683922,0.17374315857887268,0.104204460978508,0.11218748241662979,-0.1160273402929306,-0.04658491536974907,0.028138669207692146,0.2862951159477234,-0.12231045216321945,-0.14435002207756042,0.10531503707170486,-0.14046286046504974,-0.03897257149219513,0.08251552283763885,-0.21407778561115265,-0.1890861541032791,0.23386745154857635,-0.09879738837480545,-0.1035003736615181,0.1407882571220398,-0.05758962407708168,-0.15373513102531433,0.1000877246260643,-0.11554119735956192,-0.06147293001413345,0.16675764322280884,0.10208851844072342,-0.03331870213150978,-0.14306271076202393,0.2705244719982147,0.11588441580533981,0.08230020105838776,0.26668140292167664,0.009447076357901096,-0.24581152200698853,-0.08888338506221771,-0.13702231645584106,-0.20905563235282898,0.31469711661338806,0.19871661067008972,-0.4095918834209442,-0.32228007912635803,0.021686112508177757,0.06405987590551376,-0.29742664098739624,-0.006837385706603527,0.20574834942817688,-0.04766050726175308,0.043082043528556824,-0.6314940452575684,-0.3410111963748932,-0.3331523835659027,-0.08601873368024826,0.09612022340297699,0.026898639276623726,-0.5040329098701477,0.15105284750461578,0.20775938034057617,-0.13625942170619965,0.16288985311985016,0.02172193117439747,-0.42002686858177185,0.3615717589855194,0.09657932817935944,-0.30008429288864136,0.20896659791469574,-0.0003384916053619236,-0.36373135447502136,0.08944375813007355,0.11501631140708923,-0.32971417903900146,0.12430433928966522,0.17118102312088013,-0.5749311447143555,-0.20167452096939087,-0.1911817044019699,0.40268993377685547,0.13382144272327423,0.2136276662349701,-0.029667846858501434,0.20403724908828735,-0.11549689620733261,-0.08092334866523743,0.06755465269088745,-0.03422762081027031,0.20199823379516602,0.23029913008213043,-0.09194646775722504,-0.15475359559059143,-0.06232016533613205,0.06637002527713776,0.2415267527103424,-0.21332357823848724,0.018149733543395996,0.06529247760772705,0.03819509595632553,-0.1433963030576706,0.1077173724770546,-0.21138839423656464,-0.0769415944814682,0.14731720089912415,0.19476495683193207,0.0428030863404274,-0.12412450462579727,0.06715480983257294,0.045479994267225266,-0.12943574786186218,-0.0875110849738121,0.07251577824354172,-0.10907062888145447,0.11795046925544739,-0.10150433331727982,-0.2793852984905243,0.10334929078817368,0.040434595197439194,-0.2087213695049286,0.010231017135083675,0.07297390699386597,-0.17887695133686066,0.22645291686058044,0.04261292517185211,-0.1929130107164383,-0.08334025740623474,-0.02808069996535778,0.30621469020843506,0.03649161756038666,-0.1647503525018692,0.12809881567955017,-0.03489234670996666,0.11415135115385056,0.037598419934511185,-0.19026613235473633,0.30322325229644775,-0.17341989278793335,0.020927831530570984,-0.0968446210026741,-0.02644088864326477,-0.03112618438899517,-0.27274736762046814,0.05692404508590698,0.19542603194713593,-0.005341315176337957,-0.019405212253332138,0.061162933707237244,0.11530670523643494,-0.2218717485666275,-0.13982056081295013,-0.005688519682735205,-0.1484415978193283,-0.13383422791957855,0.1486872285604477,0.06588279455900192,-0.07617083936929703,0.20383389294147491,-0.020272284746170044,0.015408840961754322,0.18642674386501312,-0.08671551197767258,-0.06591454893350601,0.19383308291435242,-0.04488860443234444,0.0013636320363730192,-0.32728341221809387,0.40438589453697205,-0.009040450677275658,0.0417746976017952,0.09851592779159546,-0.0838993638753891,0.24695199728012085,0.006747754290699959,0.12803667783737183,0.06377197802066803,0.0005871335742995143,0.3240228593349457,0.3720344305038452,0.05619565024971962,0.15120184421539307,-0.11409466713666916,-0.1329604834318161,-0.45785772800445557,-0.8597158789634705,0.23933757841587067,0.15338493883609772,0.119370236992836,-0.03977881744503975,-0.2740384340286255,-0.03139565885066986,0.1413431465625763,-0.20715972781181335,-0.151047021150589,0.0035676516126841307,-0.07303518056869507,-0.5959004163742065,-0.10059861093759537,-0.12723782658576965,-0.2494010031223297,0.14059393107891083,-0.00021014628873672336,-0.2647875249385834,-0.03419221565127373,0.04830773547291756,0.02899065427482128,0.05985747277736664,0.011913023889064789,-0.5546157956123352,0.02445489913225174,0.24207843840122223,-0.08241923898458481,-0.10635494440793991,0.22060412168502808,0.25915470719337463,-0.23366330564022064,0.21807950735092163,-0.18489281833171844,-0.03520887345075607,-0.14725133776664734,-0.5041073560714722,-0.18623828887939453,-0.10857857018709183,-0.10197275131940842,0.15399900078773499,-0.210465669631958,-0.025910792872309685,0.16786538064479828,-0.11865649372339249,-0.09878022968769073,0.06782062351703644,0.1160903126001358,0.04135182499885559,-0.02173120342195034,-0.20626473426818848,0.0602632611989975,-0.03387108072638512,0.1924804449081421,0.2274252027273178,-0.23578785359859467,0.29654189944267273,-0.03593412786722183,-0.30482444167137146,-0.12337730824947357,0.05881902948021889,-0.10546509176492691,0.13549813628196716,-0.38260847330093384,-0.039245087653398514,-0.260613352060318,0.08494178205728531,0.01424836553633213,-0.22617071866989136,0.058869849890470505,0.14186808466911316,-0.14760637283325195,-0.004288981202989817,-0.004768686834722757,-0.2696332037448883,0.01640520617365837,0.33678776025772095,-0.01827653869986534,0.2435876429080963,-0.20301413536071777,0.023962438106536865,0.02951200120151043,0.1756269484758377,-0.0826670452952385,0.01738380827009678,0.11379246413707733,0.21761789917945862,0.10120725631713867,-0.12956826388835907,-0.2199324369430542,-0.018738795071840286,0.2831321656703949,0.012041240930557251,0.02879677712917328,0.03466411679983139,0.0030548584181815386,-0.01934688352048397,-0.020866962149739265,-0.07247772067785263,-0.04754720628261566,0.3316187858581543,0.19799907505512238,0.03220793977379799,0.07639151811599731,0.2471812218427658,0.19237558543682098,-0.13098978996276855,-0.04465717077255249,0.01676349714398384,-0.028545869514346123,0.08640720695257187,0.012270369566977024,-0.36776572465896606,-0.10155665874481201,-0.030810324475169182,0.2114793360233307,-0.08469822257757187,-0.17768152058124542,0.15222978591918945,0.0643160417675972,-0.07343468815088272,0.12960565090179443,-0.07905253767967224,-0.1351553499698639,0.21068771183490753,-0.11073420941829681,0.05052197724580765,-0.08880296349525452,-0.18503695726394653,-0.1240011677145958,0.15203633904457092,-0.08499924093484879,-0.14397205412387848,0.16845476627349854,0.17268118262290955,0.19955690205097198,-0.030771642923355103,-0.2254953533411026,-0.0678713321685791,0.30204853415489197,-0.2120852917432785,-0.10495758801698685,0.2678406536579132,-0.01786220259964466,0.12118614464998245,0.13641242682933807,-0.2451365441083908,-0.044859129935503006,0.2785283327102661,0.15116135776042938,0.06604961305856705,-0.26875126361846924,0.27882203459739685,-0.0693240538239479,-0.23458614945411682,0.030022479593753815,-0.1467299461364746,0.25088173151016235,0.1329231560230255,-0.11542972177267075,-0.03748076409101486,-0.11107435077428818,0.09444848448038101,0.30055662989616394,-0.23538528382778168,0.005656382068991661,0.15314078330993652,-0.10107149183750153,-0.1418931782245636,0.17659391462802887,-0.08856866508722305,-0.16060616075992584,-0.009183015674352646,-0.06099867448210716,0.24843327701091766,-0.16286665201187134,-0.19412371516227722,0.10173222422599792,0.0937085673213005,-0.20364351570606232,-0.02279452048242092,0.003994136117398739,0.11582383513450623,0.07103127986192703,-0.16515181958675385,-0.12654532492160797,0.24753820896148682,0.3758254051208496,-0.09596483409404755,0.015463139861822128,0.16961240768432617,-0.09115762263536453,-0.13535451889038086,-0.2364526391029358,-0.02292635105550289,0.0029564485885202885,0.18268360197544098,0.06785346567630768,0.17671093344688416,-0.21790450811386108,0.04659009724855423,0.07640257477760315,-0.06509944796562195,0.07646467536687851,-0.10916820913553238,-0.11005343496799469,0.09745359420776367,0.09894189238548279,-0.03871312364935875,-0.03755740821361542,-0.2017388939857483,0.05660093203186989,-0.17545899748802185,-0.06345146894454956,0.28511279821395874,-0.12447661906480789,-0.0025919585023075342,-0.0932614803314209,-0.16467128694057465,-0.2237013578414917,-0.006047002971172333,-0.23716555535793304,-0.15185056626796722,0.06889144331216812,-0.15576717257499695,-0.0935494527220726,0.2565515339374542,-0.08279149234294891,-0.1160179078578949,0.09041815996170044,0.06838642805814743,0.0452592633664608,-0.010290964506566525,0.08416341245174408,-0.1931629478931427,0.16740912199020386,-0.15393643081188202,0.07137687504291534,0.05141184851527214,-0.21046613156795502,-0.15152916312217712,0.030336933210492134,0.07450725138187408,-0.014806998893618584,-0.07228493690490723,0.06452139467000961,-0.022728247568011284,-0.027853459119796753,-0.04609627649188042,2.3428921699523926,0.4088018238544464,0.6418114304542542,-0.7951973676681519,-0.6379669308662415,-0.037751778960227966,0.26136261224746704,-0.30200159549713135,0.7123720645904541,0.6044337153434753,-1.2465412616729736,0.6190393567085266,-0.31468328833580017,-0.9783220887184143,-0.05546455830335617,-0.13130854070186615,0.05123526230454445,-0.36965078115463257,0.30843648314476013,-0.055564165115356445,0.15260326862335205,0.2800251245498657,-0.13488857448101044,-0.1992412507534027,-0.34161707758903503,0.20912854373455048,-0.06445227563381195,-0.1242663785815239,0.19203564524650574,0.10463713854551315,0.2004438042640686,-0.30038177967071533,-0.04014630615711212,-0.45094212889671326,-0.08867517113685608,-0.2829822599887848,0.1205839067697525,0.17676429450511932,0.29078760743141174,-0.12034494429826736,-0.2384846955537796,-0.16785873472690582,-0.01922389306128025,0.039591655135154724,0.3627021610736847,0.22727027535438538,0.3496623635292053,0.11836689710617065,-0.03687894344329834,-0.08408261835575104,-0.5753275156021118,-0.36286255717277527,0.0751890018582344,-0.30293917655944824,-0.4049033522605896,0.36766621470451355,0.1292741596698761,-0.2880404591560364,0.04386889562010765,-0.06649963557720184,0.18493948876857758,0.30501309037208557,0.060388315469026566,0.33654916286468506,-0.11768974363803864,-0.049201320856809616,-0.19500255584716797,0.23802992701530457,0.22717328369617462,0.2651805579662323,0.15288987755775452,0.1047673225402832,-0.257467120885849,-0.16159659624099731,0.11341580003499985,-0.3655499815940857,0.2838824391365051,0.25555744767189026,0.08825600892305374,-0.2861887514591217,0.03453958034515381,-0.019049303606152534,-0.22152554988861084,0.022905860096216202,-0.08657830953598022,-0.1468750685453415,-0.046887028962373734,-0.17403726279735565,0.3568406403064728,0.16386112570762634,0.1281648725271225,-0.09378869831562042,-0.20540037751197815,-0.17834541201591492,-0.24555397033691406,0.007073184475302696,-0.17783096432685852,0.30055689811706543,0.3170054852962494,0.20403659343719482,-0.23251409828662872,0.08355247974395752,-0.07920348644256592,-0.07887657731771469,0.23789040744304657,0.19581975042819977,-0.3445757031440735,0.36239829659461975,-0.2975139915943146,-0.11852119117975235,-0.32369324564933777,-0.12175856530666351,-0.05736183375120163,-0.30252593755722046,-0.17709994316101074,-0.06858019530773163,-0.157858207821846,-0.06229720264673233,0.12497706711292267,0.17281080782413483,-0.3452373743057251,-0.09148280322551727,0.1398186981678009,0.16801483929157257,0.1464236080646515,0.02505561150610447,0.22189314663410187,-0.26427948474884033,-0.07705449312925339,0.18398632109165192,-0.12578783929347992,0.03227987885475159,0.2801158130168915,0.05812445655465126,0.10712723433971405,0.05120544135570526,0.08849705755710602,-0.09533856064081192,0.1732395887374878,0.11552616208791733,0.001949942670762539,-0.06658349186182022,0.16408632695674896,0.0769604742527008,-0.05663327872753143,-0.06861554086208344,-0.010156117379665375,-0.36607125401496887,0.2932976484298706,0.010600194334983826,-0.35981428623199463,-0.17135651409626007,-0.12357068806886673,-0.09463023394346237,-0.037112101912498474,-0.14545363187789917,0.7733141183853149,0.1453542560338974,0.04440256580710411,0.1376783698797226,0.03160505369305611,0.014944162219762802,-0.017559826374053955,0.14040623605251312,-0.09203345328569412,0.30500948429107666,0.03356652706861496,0.14737582206726074,-0.21675658226013184,-0.3839292824268341,-0.04394017159938812,-0.13502296805381775,0.443240225315094,-0.05572938546538353,0.2299252450466156,-0.002604953246191144,0.023671476170420647,-0.021093327552080154,-0.1873479187488556,-0.17330922186374664,-0.15791209042072296,0.024814458563923836,0.011996150016784668,-0.10592208802700043,-0.11856931447982788,0.09104673564434052,-0.06539227813482285,0.20780931413173676,0.030974283814430237,0.14756129682064056,0.3508872389793396,-0.1999322474002838,-0.011517714709043503,-0.0423276424407959,0.12590943276882172,-0.09921787679195404,-0.18520456552505493,-0.10131368786096573,0.07871652394533157,0.13630996644496918,-0.39254969358444214,0.00551775936037302,-0.10833173245191574,0.2639671862125397,-0.03566788136959076,0.48189467191696167,-0.12172037363052368,-0.13231410086154938,0.07549910992383957,0.32839128375053406,0.6420682072639465,0.43900254368782043,-0.06168022379279137,0.15535567700862885,-0.07934753596782684,-0.12908054888248444,0.253551185131073,0.22841575741767883,-0.3195531368255615,0.033712249249219894,-0.5090180039405823,-0.22839544713497162,-0.26929783821105957,-0.1544886827468872,-0.05046426132321358,0.2242036908864975,0.5100356936454773,0.41066116094589233,-0.06586461514234543,-0.05260755866765976,-0.05520972982048988,-0.08160271495580673,0.10733268409967422,0.4270518720149994,0.0025443907361477613,-0.03803065046668053,-0.3712388277053833,-0.49778175354003906,-0.1516038030385971,-0.31243592500686646,0.21210487186908722,-0.20407046377658844,0.09463056176900864,0.13668547570705414,-0.11107847839593887,-0.09301934391260147,-0.03667750954627991,0.28014540672302246,-0.20732319355010986,0.07653767615556717,-0.33034589886665344,0.23018094897270203,0.1951482594013214,0.005805602762848139,-0.06295221298933029,0.09560095518827438,-0.04935161769390106,0.5524829030036926,0.144682377576828,-0.051053669303655624,0.038109470158815384,-0.12241069972515106,0.18036599457263947,-0.04414982348680496,-0.6249641180038452,0.08018874377012253,0.04041793569922447,-0.02485615573823452,-0.027053089812397957,-0.32256004214286804,0.4201296269893646,0.0593821182847023,-0.24044939875602722,0.013005446642637253,0.016294317319989204,-0.026743005961179733,0.0053325253538787365,0.021940812468528748,0.005688416305929422,0.09598568081855774,-0.2784232795238495,0.0582575760781765,0.08314154297113419,0.07581944018602371,-0.02741403318941593,-0.11261749267578125,-0.04604515805840492,0.11901405453681946,0.4081629514694214,0.17700964212417603,-0.2557394802570343,0.021380580961704254,-0.00017100494005717337,-0.3330571949481964,-0.15842707455158234,-0.01083237212151289,-0.2966431677341461,0.12007998675107956,-0.054625943303108215,-0.17158852517604828,-0.014674647711217403,-0.09698312729597092,0.11582817882299423,-0.05212114378809929,-0.004379147198051214,0.32799631357192993,0.023690251633524895,-0.03637078031897545,0.09931422024965286,-0.03681327775120735,0.09898125380277634,-0.040349382907152176,0.14955736696720123,-0.0792134702205658,-0.0376618467271328,0.10864270478487015,0.1219710260629654,-0.2768264710903168,0.06075475364923477,0.0022322931326925755,-0.13486145436763763,0.2777118980884552,0.077623151242733,-0.45622357726097107,0.23196136951446533,0.3379872739315033,0.3814878463745117,0.15108083188533783,0.013722614385187626,0.026654144749045372,0.24459664523601532,0.015103907324373722,-0.06355434656143188,-0.2699585258960724,0.04408809170126915,-0.10597135871648788,0.11190672218799591,-0.0989406555891037,0.02414628304541111,0.0877351462841034,0.049772392958402634,0.1593809723854065,-0.11862396448850632,-0.09204307943582535,0.05442008748650551,-0.0670698955655098,0.10350757092237473,0.19895631074905396,0.02359769120812416,-0.02054925262928009,0.09312562644481659,0.00047353451373055577,-0.00723095191642642,-0.23968663811683655,-0.1068582609295845,0.09737035632133484,0.05672713369131088,-0.12182505428791046,-0.09062512218952179,-0.020555075258016586,-0.05831680819392204,0.07406682521104813,0.17742279171943665,-0.038619138300418854,0.02508280612528324,0.07202210277318954,0.19980354607105255,0.02467350848019123,0.052864570170640945,-0.14874079823493958,0.06765905767679214,-0.26071614027023315,-0.1622963696718216,-0.22962211072444916,-0.12645290791988373,-0.06859739124774933,-0.07253430783748627,0.06495413184165955,0.19795237481594086,0.20377513766288757,-0.04411594942212105,-0.027822114527225494,-0.12777571380138397,-0.23166701197624207,-0.30608734488487244,-0.12031234800815582,0.4647999107837677,-0.045600466430187225,0.12781885266304016,0.49123793840408325,0.06525015830993652,0.032178252935409546,0.12175777554512024,-0.1818050593137741,0.124461829662323,-0.028487984091043472,-0.05906451866030693,-0.05559181049466133,-0.4135594666004181,0.08494821190834045,0.074814572930336,-0.20069777965545654,-0.10940447449684143,-0.09138481318950653,0.1947428286075592,-0.16128918528556824,0.009542454965412617,0.19575844705104828,-0.025496281683444977,-0.13389384746551514,0.002194332890212536,0.008887097239494324,-0.19061017036437988,0.2048599272966385,-0.10246118903160095,0.14583149552345276,0.32929790019989014,-0.25416693091392517,0.054035529494285583,-0.04055473208427429,-0.17303650081157684,-0.11859863996505737,0.09162572771310806,-0.11126907169818878,-0.08697178959846497,0.16463537514209747,-0.055444736033678055,-0.08938377350568771,0.221699059009552,0.2980645000934601,0.020232243463397026,0.12900887429714203,-0.02495751343667507,-0.048171985894441605,0.10342288762331009,-0.10297159850597382,0.08882211148738861,0.21915966272354126,0.017002049833536148,0.17939990758895874,0.34507864713668823,0.02015204355120659,-0.1215309202671051,0.18168769776821136,0.053805917501449585,0.027539018541574478,-0.22765207290649414,-0.0010107253910973668,-0.03326648846268654,-0.12398938089609146,0.08291877806186676,-0.04278123378753662,0.49474233388900757,0.14181503653526306,0.3040907382965088,-0.0011472322512418032,-0.015711870044469833,-0.043681345880031586,0.4439738094806671,-0.06847534328699112,-0.022100593894720078,0.16512039303779602,-0.06377620249986649,0.12570759654045105,0.2836160361766815,-0.044721778482198715,-0.25001052021980286,0.152823343873024,0.007043343037366867,-0.05819530785083771,-0.20546311140060425,-0.13510851562023163,-0.04126361384987831,-0.21038612723350525,0.10602959990501404,-0.14899852871894836,0.5731841325759888,0.14917898178100586,0.07143180072307587,-0.011271965689957142,0.06945745646953583,0.33256176114082336,-0.12316471338272095,0.038705818355083466,0.18353122472763062,0.0247958917170763,0.2434958517551422,0.09305177628993988,0.08001728355884552,-0.058005351573228836,0.6245971918106079,-0.06073421612381935,0.14332397282123566,0.026119651272892952,0.12317627668380737,-0.012160109356045723,-0.42254796624183655,0.04086126387119293,0.13285371661186218,-0.06455856561660767,-0.0738396868109703,-0.22769172489643097,-0.06364694237709045,0.10505059361457825,0.06604181975126266,0.2603881359100342,0.01663002371788025,0.04173725098371506,0.35367757081985474,0.01681159809231758,-0.0023428630083799362,-0.057525042444467545,0.013033472001552582,0.09615334123373032,-0.1553623080253601,-0.14825284481048584,-0.2909660041332245,-0.16246731579303741,0.002972238464280963,-0.15602397918701172,-0.09814687073230743,-0.10230816900730133,-0.0669291764497757,-0.43970784544944763,-0.04922531917691231,0.08339400589466095,-0.2110852599143982,0.22446058690547943,-0.07898824661970139,0.3734322786331177,-0.3291652202606201,0.07702507078647614,0.3887890577316284,0.02242024429142475,0.21664273738861084,0.05347505956888199,0.029064906761050224,-0.15208904445171356,0.0761009007692337,-0.18003173172473907,-0.10733659565448761,-0.43171852827072144,0.008773857727646828,-0.02824559062719345,-0.3505171239376068,0.06917807459831238,0.08262462913990021,0.1719542294740677,-0.065428726375103,0.05531621724367142,0.13089096546173096,0.08016060292720795,-0.025606520473957062,0.021391762420535088,-0.04615994915366173,-0.0633678287267685,0.34580865502357483,0.011637893505394459,-0.06414031982421875,0.10786118358373642,0.045560237020254135,-0.10617111623287201,0.33066418766975403,-0.06286681443452835,-0.034803055226802826,-0.19945213198661804,-0.14238709211349487,-0.18128013610839844,-0.09754860401153564,-0.0683000385761261,-0.17498040199279785,0.31985950469970703,0.09702940285205841,-0.017784615978598595,0.12548525631427765,0.01185622625052929,-0.2713375389575958,-0.24109144508838654,0.2278091013431549,-0.06365466117858887,-0.129817932844162,-0.09411715716123581,-0.08184587955474854,-0.11072888970375061,-0.031894661486148834,-0.10078726708889008,-0.3395021855831146,0.039019420742988586,0.10271113365888596,0.15255224704742432,-0.15157568454742432,0.12188180536031723,0.3628089725971222,0.13708823919296265,0.008214293047785759,0.16003715991973877,0.10955169051885605,-0.20706206560134888,0.10760918259620667,-0.053353141993284225,-0.0512286014854908,-0.1934686154127121,0.15924957394599915,0.06721333414316177,-0.12902233004570007,-0.039291005581617355,-0.14171385765075684,0.25240597128868103,0.050836432725191116,-0.11357197910547256,-0.3024352490901947,-0.0003865734033752233,-0.11405529826879501,0.21521207690238953,0.20629632472991943,0.0532766729593277,0.18875154852867126,0.2218397557735443,-0.013379876501858234,0.00012746189895551652,-0.0849599540233612,0.14517022669315338,0.1209019124507904,-0.09243721514940262,0.15430541336536407,0.1644810438156128,0.04253312945365906,0.07014380395412445,0.06317839026451111,-0.13199400901794434,-0.011279341764748096,-0.1464613974094391,0.11621563136577606,0.1105034127831459,0.06440441310405731,-0.1126030758023262,-0.051146384328603745,-0.20811624825000763,0.03564295172691345,-0.07659750431776047,-0.13470005989074707,0.009167367592453957,0.003179652150720358,0.1330343633890152,-0.144220232963562,0.010634057223796844,-0.2995312809944153,-0.1286957859992981,0.03343749791383743,0.09096374362707138,-0.02146325260400772,-0.05318203568458557,0.1563957780599594,-0.08699773252010345,0.02243526093661785,0.009932217188179493,-0.10275791585445404,0.09079350531101227,0.004242890980094671,-0.040380969643592834,0.09198801964521408,0.05112917721271515,-0.06847323477268219,0.12716901302337646,0.08050805330276489,-0.2819659113883972,0.048293184489011765,-0.023834137246012688,-0.021419696509838104,-0.13592718541622162,0.003519636346027255,0.23404882848262787,0.14944855868816376,-0.02994396537542343,-0.05781101435422897,0.1552712470293045,0.08935580402612686,0.10080526769161224,0.027417801320552826,-0.04381120204925537,-0.19102798402309418,-0.2918826639652252,-0.09785757213830948,0.026617029681801796,0.1232537105679512,-0.09667171537876129,0.07974478602409363,0.12071936577558517,-0.06997112929821014,0.0882842168211937,0.045384690165519714,-0.10130919516086578,0.005968146491795778,-0.18932723999023438,-0.14148251712322235,0.16409151256084442,0.0847766175866127,0.008603357709944248,0.004417516756802797,-0.1835043877363205,-0.20498141646385193,0.10135853290557861,-0.10038842260837555,0.07606810331344604,0.0313274972140789,-0.22939103841781616,-0.006123154424130917,0.26769474148750305,-0.09889096766710281,-0.05212593451142311,0.00016272670472972095,-0.3107185661792755,0.018966708332300186,0.22123406827449799,-0.040908265858888626,-0.0642402246594429,-0.1264321357011795,0.15525001287460327,0.06003446504473686,0.02927470952272415,-0.0493021123111248,0.12038469314575195,0.08796584606170654,0.07218282669782639,0.344922810792923,0.06952520459890366,0.2455112189054489,0.2657656967639923,-0.02684546820819378,-0.06307408213615417,0.028953272849321365,0.16266249120235443,0.16348543763160706,-0.16706950962543488,0.01801411062479019,0.13396146893501282,-0.12376932799816132,-0.3171358108520508,-0.05113927274942398,0.328690767288208,-0.04586707428097725,0.20409612357616425,0.19729311764240265,0.12472169101238251,0.01042844820767641,0.2165999412536621,0.19320225715637207,-0.2504030168056488,0.04131652042269707,-0.10264333337545395,-0.08799529075622559,0.32596108317375183,-0.06780506670475006,-0.028330883011221886,0.08973483741283417,-0.3306853473186493,-0.2144278585910797,-0.09074123948812485,-0.05913051217794418,-0.20366127789020538,-0.09343059360980988,0.08422185480594635,-0.04250352084636688,0.40677595138549805,-0.23285216093063354,-0.007582999300211668,0.09541551023721695,-0.05007607862353325,-0.1327323168516159,0.25543835759162903,-0.03994140028953552,-0.061220042407512665,0.03902570530772209,-0.008275605738162994,0.0403074212372303,-0.08196258544921875,0.05630522593855858,-0.11124727129936218,0.04057583585381508,-0.10576754808425903,-0.0027391896583139896,0.018200406804680824,0.11457598209381104,-0.07080373167991638,0.09260888397693634,-0.0666288509964943,-0.06467399001121521,-0.08296989649534225,-0.09695529192686081,-0.06362991034984589,-0.26435986161231995,-0.16505472362041473,0.12878532707691193,-0.08212260901927948,-0.07102372497320175,0.06646435707807541,0.23967057466506958,-0.002591695636510849,0.09662994742393494,-0.03788525238633156,0.10816138237714767,0.11227010935544968,0.24356797337532043,-0.045809924602508545,0.010833481326699257,0.05734137073159218,-0.051296256482601166,-0.03393734619021416,-0.10790103673934937,-0.11232246458530426,0.19143091142177582,0.060733646154403687,0.1431877464056015,-0.2906739115715027,-0.18591098487377167,-0.0672760158777237,-0.11042477190494537,0.2846132814884186,-0.26557275652885437,