{"version": "0.5.1", "metadata": {"date": {"year": 2023, "month": 4, "day": 30, "hour": 13, "minute": 48, "second": 23}, "loudness": -13.354426383972168, "gain": 0.08762686632938949, "name": null, "modeled_by": null, "gear_type": null, "gear_make": null, "gear_model": null, "tone_type": null}, "architecture": "WaveNet", "config": {"layers": [{"input_size": 1, "condition_size": 1, "head_size": 4, "channels": 8, "kernel_size": 3, "dilations": [1, 2, 4, 8, 16, 32, 64], "activation": "Tanh", "gated": false, "head_bias": false}, {"input_size": 8, "condition_size": 1, "head_size": 1, "channels": 4, "kernel_size": 3, "dilations": [128, 256, 512, 1, 2, 4, 8, 16, 32, 64, 128, 256, 512], "activation": "Tanh", "gated": false, "head_bias": true}], "head": null, "head_scale": 0.02}, "weights": [0.20632760226726532, 0.5213086605072021, -0.7709543108940125, -0.7036646008491516, -0.42042267322540283, 0.01550258882343769, -0.08503655344247818, 0.8016934394836426, -0.10987091064453125, -0.030283769592642784, 0.04900851473212242, -0.1744549572467804, -0.2968684136867523, -0.09205012768507004, 0.05436185002326965, 0.11424113810062408, 0.04054863005876541, 0.2645066976547241, -0.027915988117456436, -0.13126742839813232, 0.20681869983673096, 0.27020901441574097, -0.09116818010807037, 0.025665393099188805, -0.12969306111335754, 0.06063237413764, 0.30130279064178467, -0.10699786245822906, -0.20756687223911285, -0.18970194458961487, -0.1856146603822708, 0.21718715131282806, -0.04015137255191803, 0.1302061527967453, -0.2003786265850067, -0.11442244052886963, 0.02950337715446949, 0.0876464992761612, 0.009495674632489681, -0.05568812042474747, 0.0945468619465828, -0.19037556648254395, -0.1269942820072174, -0.10811730474233627, -0.22179611027240753, -0.2533138394355774, 0.2213171124458313, 0.194918692111969, 0.042456429451704025, -0.08377683907747269, 0.07865190505981445, 0.07871517539024353, 0.20280686020851135, 0.10828298330307007, 0.29102975130081177, -0.2050858587026596, -0.0966675728559494, -0.42167702317237854, -0.06576625257730484, -0.17473773658275604, -0.04630034789443016, 0.21058234572410583, -0.04750074818730354, 0.20548205077648163, -0.013685682788491249, 0.05134109407663345, 0.1579568088054657, -0.0793180987238884, 0.19513198733329773, 0.3354499340057373, -0.2908030152320862, -0.15715549886226654, -0.058092303574085236, 0.2698250114917755, 0.23660072684288025, 0.30542105436325073, -0.11766960471868515, -0.2507467567920685, -0.12536704540252686, -0.0018815490184351802, -0.260454386472702, 0.34584757685661316, 0.3441591262817383, -0.33711278438568115, 0.100460484623909, 0.05555103346705437, 0.10297921299934387, -0.15310731530189514, -0.008925160393118858, 0.018340645357966423, 0.013081180863082409, 0.015591999515891075, 0.2770450711250305, 0.008949806913733482, -0.2974724769592285, -0.21519246697425842, 0.16698724031448364, 0.1364957094192505, -0.04666876792907715, -0.2056531459093094, 0.06636352092027664, 0.0025865030474960804, -0.02579161711037159, 0.03873683512210846, -0.1334208846092224, 0.028414664790034294, -0.06358686834573746, -0.15162484347820282, -0.03449835255742073, 0.05052371695637703, -0.0884818360209465, 0.145273819565773, -0.14373092353343964, 0.18182194232940674, 0.16361485421657562, -0.19445361196994781, -0.05752682685852051, 0.03140520676970482, 0.00729072280228138, 0.03765382990241051, 0.057800713926553726, 0.032409075647592545, -0.11920531839132309, 0.10407053679227829, -0.24478943645954132, -0.11785633862018585, -0.07744980603456497, -0.08202836662530899, -0.08706215769052505, -0.35935938358306885, 0.15978121757507324, 0.039778340607881546, -0.24595016241073608, 0.19252775609493256, 0.15488390624523163, 0.09840602427721024, -0.19361606240272522, -0.006064032670110464, 0.16820208728313446, -0.0703035295009613, 0.19305835664272308, 0.2412663996219635, -0.01633845455944538, -0.015542643144726753, -0.2782268822193146, 0.09159014374017715, 0.11047150939702988, 0.0804159864783287, -0.34633663296699524, -0.16297268867492676, -0.30875274538993835, 0.029482970014214516, -0.12297157198190689, 0.18389584124088287, 0.020641429349780083, -0.22539569437503815, 0.21664832532405853, -0.19433005154132843, -0.016350489109754562, -0.1747749000787735, -0.006405627354979515, -0.013301379047334194, -0.2763925790786743, -0.14254114031791687, 0.0013852197444066405, -0.08348521590232849, -0.05262751504778862, 0.06618975102901459, -0.1066456213593483, -0.03734985366463661, 0.23641051352024078, -0.14263522624969482, 0.2654699981212616, 0.04702482745051384, -0.09151843190193176, 0.09667596966028214, 0.24053148925304413, -0.28986597061157227, 0.253147691488266, 0.01930132880806923, -0.1332564651966095, -0.023213321343064308, -0.03886109218001366, 0.21521423757076263, 0.07935131341218948, -0.11813563108444214, 0.11657167226076126, -0.0617440827190876, -0.3613356053829193, 0.2651033103466034, 0.13686232268810272, 0.30640506744384766, -0.2529517114162445, 0.0480535663664341, -0.34181615710258484, 0.051105089485645294, -0.1362920105457306, 0.2590971291065216, -0.27723759412765503, 0.01779407635331154, 0.04173474386334419, 0.1243899017572403, -0.1306631714105606, -0.1642073392868042, -0.11030908674001694, 0.10902395844459534, -0.14096634089946747, 0.10949797183275223, 0.3969361484050751, 0.0485597588121891, 0.11167831718921661, -0.10879809409379959, 0.14030617475509644, -0.03237580135464668, -0.03415687009692192, 0.15075647830963135, -0.08685842901468277, -0.17415642738342285, 0.32134875655174255, -0.3678658902645111, 0.07896485179662704, 0.3360840976238251, 0.14034268260002136, 0.054904766380786896, -0.47934749722480774, 0.26274922490119934, -0.3602987825870514, -0.1400245875120163, -0.24225571751594543, -0.08672100305557251, 0.009788610972464085, 0.22216789424419403, 0.20735350251197815, 0.2546692192554474, 0.22619469463825226, -0.2217540442943573, 0.10853307694196701, -0.17210404574871063, -0.23748837411403656, 0.3847561180591583, 0.0792425349354744, 0.23672936856746674, -0.14038191735744476, 0.09281473606824875, 0.16995443403720856, -0.3588379919528961, 0.2924655079841614, -0.3451363444328308, 0.06607961654663086, -0.088494211435318, -0.1657041609287262, 0.01069153193384409, 0.27464863657951355, -0.10673143714666367, -0.18875357508659363, -0.06507425010204315, -0.36301353573799133, 0.014013904146850109, -0.0595778189599514, 0.003669911762699485, -0.18260620534420013, 0.3144342303276062, 0.09037274122238159, 0.400289386510849, 0.1229698583483696, -0.1504664123058319, -0.058931685984134674, 0.14526285231113434, 0.2553756535053253, 0.1626778244972229, -0.19878700375556946, -0.15044601261615753, -0.38357043266296387, 0.08413717895746231, -0.22915376722812653, -0.34097927808761597, 0.3167833089828491, -0.2881605923175812, -0.012462185695767403, 0.05294124037027359, 0.03853383660316467, -0.19418254494667053, -0.20068490505218506, 0.21855755150318146, 0.04423913732171059, 0.17183534801006317, -0.07802725583314896, 0.07712467014789581, -0.08847320079803467, -0.09246765077114105, -0.1330842524766922, 0.20910637080669403, 0.14957720041275024, -0.035738732665777206, -0.1020430326461792, -0.196693554520607, 0.18338584899902344, -0.10311076045036316, 0.1761559098958969, -0.03919822350144386, -0.1847536712884903, -0.028228919953107834, -0.01684045046567917, 0.060568153858184814, -0.01325638871639967, -0.1560485064983368, -0.08600059896707535, 0.016978001222014427, 0.11670106649398804, 0.07632631063461304, -0.08733717352151871, -0.09607701748609543, 0.3805878162384033, 0.21015450358390808, 0.04198499768972397, 0.1509896218776703, -0.13820254802703857, 0.10175391286611557, 0.044018834829330444, 0.10052952915430069, -0.03772687539458275, -0.20110104978084564, -0.41562992334365845, 0.11741843074560165, 0.06735943257808685, 0.19711776077747345, 0.013502072542905807, -0.012760363519191742, 0.1723945587873459, -0.13321468234062195, -0.17383268475532532, -0.12300768494606018, 0.08254435658454895, 0.16009829938411713, -0.20015855133533478, 0.15141242742538452, 0.37396079301834106, 0.38526129722595215, 0.35714849829673767, -0.07228543609380722, -0.06576064974069595, -0.03998830169439316, 0.1944032460451126, -0.03396051749587059, -0.25655481219291687, 0.06340497732162476, -0.08902182430028915, 0.10005801916122437, -0.021144045516848564, -0.03386858105659485, -0.18659383058547974, 0.2449711561203003, 0.12361449748277664, 0.24590526521205902, 0.17470471560955048, 0.02910490706562996, -0.2082601934671402, -0.015410472638905048, -0.06352327018976212, 0.13885128498077393, 0.05635276809334755, -0.1701050102710724, -0.01508564967662096, -0.11348303407430649, 0.00575247360393405, 0.10456065833568573, 0.2774772644042969, -0.06866507232189178, -0.13901448249816895, -0.16302841901779175, -0.05608658865094185, 0.0926419273018837, 0.008267895318567753, 0.026294400915503502, -0.1728931963443756, -0.18008331954479218, 0.1688777208328247, 0.15901310741901398, 0.3933332562446594, 0.22736337780952454, 0.24958880245685577, -0.25086307525634766, -0.031039204448461533, 0.15866808593273163, -0.1196003258228302, 0.2808462679386139, 0.07314001768827438, 0.05178083851933479, -0.20971307158470154, 0.02707706205546856, 0.14731374382972717, 0.11148934811353683, -0.09204297512769699, -0.02091425284743309, -0.19836769998073578, 0.10250838100910187, 0.23582910001277924, 0.10000355541706085, -0.11873184889554977, 0.2648296058177948, 0.22928443551063538, -0.007657451555132866, -0.019731152802705765, 0.3219008147716522, 0.17029038071632385, -0.22645634412765503, 0.06373678147792816, 0.12805576622486115, -0.09952930361032486, 0.14046189188957214, -0.1847618818283081, 0.024393398314714432, 0.1780243068933487, 0.041362982243299484, -0.22940035164356232, -0.08173484355211258, -0.10400399565696716, 0.0329429991543293, 0.03979528695344925, 0.3582892417907715, -0.026262067258358, -0.09212899953126907, 0.011919896118342876, 0.05388512462377548, 0.11199015378952026, -0.21973027288913727, -0.09456030279397964, -0.1783505082130432, -0.16911475360393524, 0.1313374638557434, -0.13522747159004211, 0.11832037568092346, 0.08026304095983505, -0.2540775537490845, -0.26523712277412415, -0.049225080758333206, 0.16810324788093567, -0.15047873556613922, 0.06344740837812424, -0.19683948159217834, -0.16686902940273285, -0.24465878307819366, 0.11125379055738449, 0.08028820157051086, -0.2514573633670807, 0.13514193892478943, -0.05814540013670921, 0.05129200592637062, -0.019482187926769257, -0.18464021384716034, 0.19395682215690613, 0.007999137043952942, 0.2682247459888458, 0.15590521693229675, -0.05431555584073067, 0.20588667690753937, 0.23437269032001495, -0.03306547924876213, 0.10118651390075684, -0.6038239598274231, -0.3453092873096466, -0.17389045655727386, 0.3887687921524048, -0.047086019068956375, 0.06214883178472519, -0.2094544619321823, 0.07832393050193787, -0.37416431307792664, 0.21906787157058716, 0.08658264577388763, 0.05823040381073952, 0.09905856847763062, 5.016315753891831e-06, -0.022900395095348358, 0.579740583896637, -0.08306890726089478, -0.04508381336927414, -0.37357297539711, -0.2908189594745636, 0.10704676806926727, -0.1618405431509018, -0.1267767995595932, 0.003796884324401617, 0.13857395946979523, -0.02504594251513481, 0.16492608189582825, 0.10568475723266602, 0.08779981732368469, -0.07782632857561111, -0.2347537875175476, -0.12643538415431976, 0.18300604820251465, 0.500088095664978, -0.7066513299942017, 0.9240916967391968, 0.07022647559642792, -0.3545309603214264, -0.41803932189941406, 0.19468814134597778, 0.36221644282341003, -0.16404670476913452, 0.08710607886314392, 0.34080740809440613, 0.225272536277771, 0.26439985632896423, -0.2545914053916931, 0.12762480974197388, 0.12001275271177292, -0.11516392976045609, 0.16847793757915497, -0.1525607854127884, 0.2216612845659256, -0.18820801377296448, -0.12910717725753784, 0.03938060998916626, 0.1243312805891037, -0.1864536851644516, 0.17512205243110657, 0.3018564283847809, -0.1709887832403183, 0.14024314284324646, 0.0107383718714118, 0.04783599078655243, -0.1618521809577942, -0.30116987228393555, -0.16750940680503845, 0.2247808873653412, -0.09193676710128784, -0.18195565044879913, -0.06555705517530441, 0.5025597214698792, 0.416413813829422, -0.1629289984703064, -0.3113081753253937, -0.23933924734592438, -0.017301401123404503, 0.09030250459909439, -0.10209431499242783, -0.2532128691673279, 0.012420429848134518, -0.41176173090934753, 0.18643081188201904, -0.2556268870830536, -0.24306771159172058, 0.16697907447814941, 0.35255393385887146, -0.0300154872238636, -0.27661991119384766, -0.20468305051326752, 0.48969581723213196, -0.4004689157009125, -0.45515793561935425, 0.3619404137134552, -0.2847359776496887, 0.008433257229626179, -0.03099573217332363, -0.013898842968046665, -0.152118980884552, 0.17232057452201843, -0.0595100000500679, -0.2776189148426056, -0.1635667383670807, -0.03811425715684891, 0.11222971975803375, -0.22252008318901062, 0.21914483606815338, -0.08019198477268219, -0.08955547213554382, 0.20819483697414398, 0.1338583081960678, 0.014919193461537361, 0.024836206808686256, -0.2707301676273346, -0.03288789838552475, 0.02237851358950138, 0.16253362596035004, -0.24989300966262817, -0.1897001713514328, 0.03349508345127106, 0.2781834900379181, 0.008170213550329208, -0.1492132544517517, -0.4224911332130432, 0.04529372230172157, -0.0334571972489357, -0.06274730712175369, 0.07341891527175903, 0.20469865202903748, 0.0571993812918663, 0.06690585613250732, -0.12503986060619354, 0.0637928768992424, -0.009129967540502548, 0.35557740926742554, 0.09624508768320084, 0.04303707182407379, -0.1408512443304062, 0.20985187590122223, 0.22788631916046143, 0.17139600217342377, -0.18594589829444885, -0.14575450122356415, -0.2189824879169464, 0.15741534531116486, -0.02998163178563118, -0.02896719239652157, 0.12093224376440048, -0.1726989895105362, -0.18262715637683868, -0.06423099339008331, -0.0992942750453949, -0.29047253727912903, 0.26123881340026855, -0.08988538384437561, 0.13192574679851532, 0.25517022609710693, 0.17888779938220978, 0.013491641730070114, 0.09063032269477844, -0.10913058370351791, -0.24835851788520813, 0.19969800114631653, 0.15130923688411713, -0.17495594918727875, -0.11813008785247803, -0.13772284984588623, 0.09261633455753326, 0.012310625985264778, -0.11281848698854446, 0.10785386711359024, 0.029462290927767754, 0.0728335976600647, 0.028166737407445908, 0.10485700517892838, 0.1055515706539154, 0.09711684286594391, -0.05424708500504494, -0.31583985686302185, -0.3420501947402954, 0.12910543382167816, 0.14378508925437927, 0.25233256816864014, -0.007075541652739048, -0.09046532213687897, -0.15081161260604858, 0.382579505443573, -0.030945660546422005, 0.31697455048561096, -0.1639086902141571, -0.25404563546180725, -0.006858529523015022, -0.014771973714232445, 0.2867342233657837, -0.019699273630976677, -0.19758540391921997, -0.2231059968471527, -0.0626143142580986, 0.15130208432674408, 0.000296905665891245, 0.16315777599811554, -0.008405654691159725, -0.14670902490615845, 0.12122742086648941, -0.05170658603310585, -0.07770514488220215, 0.25077977776527405, 0.0758335143327713, 0.2283952236175537, 0.15069825947284698, 0.11067673563957214, -0.17253127694129944, 0.03325952589511871, 0.14592424035072327, 0.09316244721412659, 0.10087772458791733, 0.10149568319320679, -0.0865786001086235, -0.04562978819012642, 0.3320985436439514, -0.04896598681807518, 0.180885449051857, -0.19338320195674896, 0.06234418600797653, -0.14970733225345612, 0.21687790751457214, 0.20608581602573395, 0.08119116723537445, -0.3600578010082245, -0.04701457545161247, 0.08545035868883133, 0.215248703956604, 0.0038339984603226185, 0.2326042652130127, 0.1769072264432907, -0.019821997731924057, -0.21500961482524872, 0.0975545346736908, -0.14175857603549957, 0.1477193534374237, -0.014588394202291965, -0.1415860950946808, 0.036082781851291656, -0.10392993688583374, 0.054226648062467575, -0.1429515928030014, -0.05332145839929581, -0.011690303683280945, 0.07437702268362045, -0.12130790948867798, 0.19583922624588013, 0.08583930134773254, -0.1269238293170929, -0.03579607605934143, 0.06783563643693924, 0.23179693520069122, -0.04255878925323486, 0.021960919722914696, -0.04145139083266258, 0.20362530648708344, 0.10646463930606842, 0.24850605428218842, -0.16881592571735382, -0.004156099632382393, -0.15544477105140686, 0.04732651263475418, 0.08922532945871353, 0.24799370765686035, -0.2532379925251007, 0.0175753366202116, -0.10350698232650757, -0.18965084850788116, -0.07893954962491989, 0.13826945424079895, -0.13406066596508026, -0.13508036732673645, 0.0954539105296135, -0.1405109018087387, -0.24323898553848267, 0.05623532459139824, -0.12277233600616455, -0.34908750653266907, 0.13100796937942505, 0.13428804278373718, 0.07523594796657562, 0.05024862661957741, 0.1342797875404358, 0.1395670771598816, -0.10104397684335709, -0.0679822713136673, 0.002554785693064332, -0.22948436439037323, -0.059462614357471466, 0.08617103099822998, 0.0830158069729805, 0.28630539774894714, 0.507235586643219, -0.15340803563594818, 0.21171465516090393, -0.23199492692947388, -0.017727728933095932, 0.0551062673330307, 0.12066666036844254, -0.15019826591014862, 0.13116693496704102, 0.029811415821313858, -0.15702255070209503, -0.04965865612030029, 0.08255858719348907, -0.4929928481578827, -0.21493029594421387, 0.37446069717407227, -0.827765941619873, 0.2871256470680237, 0.6261557936668396, 0.6184758543968201, -0.4322015643119812, 0.1936810463666916, -0.30001217126846313, 0.43439990282058716, -0.41712692379951477, -0.26088711619377136, 0.21096991002559662, 0.08330969512462616, -0.020504828542470932, -0.17318108677864075, -0.19099503755569458, -0.3072302043437958, -0.3912166953086853, 0.35844674706459045, 0.024741768836975098, -0.09817708283662796, 0.002192530781030655, 0.28575125336647034, 0.11580678820610046, -0.06246139481663704, -0.18040268123149872, -0.4270316958427429, -0.22130218148231506, -0.051610562950372696, -0.09947855770587921, 0.18360090255737305, -0.02902933396399021, 0.2636166214942932, -0.15625062584877014, -0.05331440642476082, 0.3023888170719147, 0.430983304977417, -0.12351532280445099, 0.05558262765407562, 0.06225642189383507, 0.058941107243299484, -0.1439819484949112, -0.050615306943655014, -0.25584837794303894, 0.0917021855711937, 0.14701321721076965, -0.1330525428056717, 0.29766568541526794, -0.37593457102775574, 0.15158604085445404, 0.46432366967201233, -0.03559490293264389, 0.17261461913585663, -0.20650461316108704, -0.04132550582289696, -0.06626534461975098, -0.13259069621562958, -0.07062824815511703, 0.09739226847887039, 0.0031624736730009317, 0.06361933797597885, -0.25886377692222595, 0.08748047053813934, -0.06848804652690887, -0.3236331343650818, 0.0777965858578682, 0.260505348443985, -0.12985463440418243, -0.10047146677970886, 0.03824256360530853, -0.006133187096565962, 0.24894505739212036, 0.09487517923116684, 0.09040135890245438, 0.12466869503259659, -0.13873368501663208, 0.16430892050266266, 0.23514652252197266, -0.026186268776655197, 0.0378333181142807, 0.07728320360183716, 0.1875310093164444, -0.08033080399036407, 0.05250856280326843, -0.0411333404481411, -0.12686558067798615, -0.2779565751552582, 0.0729866772890091, 0.13278979063034058, -0.09801391512155533, 0.054074328392744064, 0.2292627990245819, -0.12857158482074738, -0.08555757999420166, 0.19671745598316193, -0.1435387134552002, 0.0035255218390375376, 0.02206132747232914, -0.10763861238956451, 0.10018297284841537, -0.02210703119635582, 0.09095031768083572, -0.0821719542145729, -0.05021865665912628, 0.03240617737174034, 0.25528380274772644, 0.07655579596757889, 0.00774695910513401, -0.2949672341346741, 0.040833521634340286, 0.002096787327900529, -0.12336099147796631, -0.24239878356456757, 0.18935827910900116, -0.010302565060555935, 0.16684003174304962, 0.24009545147418976, -0.17355847358703613, 0.11189108341932297, 0.1582106649875641, -0.0018447625916451216, 0.34903237223625183, -0.1755850464105606, 0.22399744391441345, -0.2134140580892563, -0.08130371570587158, -0.31229811906814575, -0.08667795360088348, 0.11633151024580002, -0.010805885307490826, 0.08542919903993607, 0.22971931099891663, 0.19499579071998596, 0.2926992177963257, 0.030906718224287033, 0.03874516487121582, -0.22895827889442444, -0.12265907973051071, 0.02656136080622673, 0.03653297200798988, 0.090674988925457, 0.04319741576910019, 0.07918918877840042, -0.018875831738114357, 0.2248263955116272, 0.3195084035396576, -0.11133973300457001, -0.16437776386737823, -0.010174086317420006, 0.06081504002213478, 0.12961232662200928, -0.16084346175193787, 0.0031315842643380165, 0.22322236001491547, 0.1146024540066719, -0.09329228848218918, -0.02677992358803749, -0.03265231475234032, -0.030245734378695488, 0.10136614739894867, 0.12464100867509842, -0.17004656791687012, -0.22582852840423584, 0.1999410092830658, 0.059799373149871826, -0.01675240509212017, 0.13772903382778168, -0.2948084771633148, 0.10189662873744965, -0.04010883346199989, -0.1291033923625946, -0.11105453968048096, -0.18589745461940765, 0.07392022013664246, -0.010759563185274601, -0.07614973932504654, -0.18176202476024628, -0.22585022449493408, 0.11336682736873627, -0.1392727643251419, 0.016468357294797897, -0.09864193946123123, -0.016798654571175575, -0.3315387964248657, 0.1428610235452652, -0.06520316004753113, 0.06472951918840408, -0.16519255936145782, 0.14477548003196716, 0.0332738421857357, -0.15320716798305511, 0.03987974300980568, 0.05919332802295685, -0.28046995401382446, -0.1821068525314331, 0.006179364398121834, 0.24899572134017944, -0.1681412011384964, -0.19358888268470764, -0.05458815023303032, 0.049777526408433914, -0.3416764736175537, 0.07595422863960266, -0.03438980132341385, -0.009625057689845562, 0.015484223142266273, 0.13729767501354218, 0.04690152779221535, -0.24630987644195557, -0.14570078253746033, 0.17566296458244324, -0.17592208087444305, 0.10990694165229797, -0.09149636328220367, 0.10663555562496185, 0.018657328560948372, -0.3501985967159271, 0.18545880913734436, 0.17844240367412567, -0.1501053124666214, -0.06758396327495575, 0.12552110850811005, 0.038576625287532806, 0.040974244475364685, 0.04935063049197197, -0.09155941754579544, 0.038827795535326004, 0.11246506124734879, -0.010530605912208557, -0.03684176877140999, -0.29319122433662415, -0.05437517166137695, 0.014593877829611301, -0.11122754216194153, -0.00046739960089325905, 0.19550585746765137, -0.32706961035728455, -0.22813944518566132, -0.25056058168411255, -0.002194194355979562, -0.10069167613983154, -0.08394266664981842, 0.1739482581615448, -0.1878913938999176, -0.08349396288394928, 0.28163495659828186, 0.035608116537332535, 0.11302568018436432, -0.07474866509437561, 0.10506538301706314, 0.044759999960660934, -0.1080632135272026, -0.22781473398208618, 0.1227889284491539, -0.18538768589496613, -0.11328435689210892, -0.18069763481616974, 0.16273432970046997, -0.075950026512146, 0.23582525551319122, 0.09642358869314194, 0.002633098978549242, -0.14025788009166718, -0.11497215926647186, 0.1723615527153015, 0.00261408812366426, -0.15357279777526855, -0.017559725791215897, -0.2733926475048065, 0.17331621050834656, -0.13653625547885895, 0.10867171734571457, -0.03583555296063423, -0.12005822360515594, 0.08175567537546158, 0.0035982895642518997, 0.22684834897518158, 0.11997108906507492, -0.739534854888916, 0.5267141461372375, -0.18178217113018036, -0.2583310306072235, 0.5369002819061279, 0.830121636390686, -0.654598593711853, 0.03385476768016815, 0.09790514409542084, 0.11890972405672073, 0.17891055345535278, -0.2901550233364105, 0.02012321539223194, 0.026520006358623505, -0.06535055488348007, 0.21142196655273438, -0.1669265627861023, -0.15547128021717072, 0.010737887583673, -0.3337498903274536, 0.2531704008579254, 0.2721581757068634, 0.016894672065973282, -0.11121299117803574, 0.018775708973407745, -0.2603044807910919, 0.1629752516746521, -0.34867966175079346, -0.27188578248023987, 0.02456323616206646, 0.38238632678985596, 0.04545697942376137, 0.10357515513896942, -0.39708074927330017, 0.18522606790065765, -0.009217715822160244, 0.06912873685359955, 0.7139702439308167, 0.303618848323822, -0.10138378292322159, -0.12578029930591583, -0.41698145866394043, 0.05287535488605499, 0.12295898050069809, -0.21138443052768707, 0.47119176387786865, 0.08183149993419647, 0.013039154931902885, -0.02904740534722805, -0.2676725387573242, -0.11509241163730621, -0.040501464158296585, 0.005207567475736141, -0.022774415090680122, 0.32564684748649597, 0.2340448796749115, -0.06958957016468048, 0.12486133724451065, -0.32671698927879333, -0.1589793711900711, 0.08607589453458786, 0.048559464514255524, 0.03171928972005844, -0.20180466771125793, -0.08673746883869171, 0.08007701486349106, -0.13400882482528687, -0.26188549399375916, 0.00963886920362711, -0.23038721084594727, -0.37721681594848633, -0.26216283440589905, -0.05484567582607269, -0.2733372747898102, -0.07726377993822098, -0.009138436056673527, -0.24444487690925598, -0.06997369229793549, -0.23048464953899384, -0.2713908851146698, 0.14121225476264954, -0.08333378285169601, -0.26779985427856445, 0.09789207577705383, -0.04488759860396385, 0.27286848425865173, 0.0388173870742321, -0.013779357075691223, -0.13631051778793335, 0.15280570089817047, 0.04951411858201027, -0.12382307648658752, 0.06313024461269379, 0.12391945719718933, -0.16051413118839264, -0.03272940218448639, 0.022045275196433067, -0.06390397250652313, -0.037899866700172424, -0.14799387753009796, 0.32174086570739746, -0.2634722888469696, 0.05578308552503586, -0.1444958746433258, -0.05570027232170105, 0.06677519530057907, 0.14273586869239807, -0.18638470768928528, -0.2068692445755005, 0.3118804693222046, 0.008069103583693504, 0.10292980819940567, -0.398861825466156, 0.0179574154317379, -0.26763251423835754, 0.02745254524052143, 0.1056162416934967, -0.17107638716697693, -0.09741070121526718, 0.016272809356451035, -0.10192229598760605, -0.10495104640722275, -0.09022219479084015, 0.02395186573266983, 0.0664329081773758, -0.20893587172031403, -0.1272818148136139, 0.11752068251371384, 0.041881684213876724, 0.08336714655160904, -0.10590873658657074, -0.13726574182510376, 0.06598061323165894, -0.03754831850528717, 0.14714588224887848, -0.15092149376869202, -0.19992417097091675, -0.16233259439468384, 0.09912070631980896, 0.27896562218666077, 0.2005169689655304, -0.22201545536518097, 0.019021322950720787, 0.1930975615978241, 0.00656984793022275, 0.017472539097070694, -0.11540579795837402, -0.0032407932449132204, 0.20427021384239197, -0.07136056572198868, 0.2082579880952835, -0.018561042845249176, 0.10781200975179672, 0.0750587210059166, 0.2407281994819641, -0.16701795160770416, -0.2379380166530609, 0.04705355316400528, -0.06343919783830643, 0.2257239818572998, -0.18324454128742218, 0.03529522940516472, -0.10688617825508118, -0.17543470859527588, 0.06509458273649216, -0.15572500228881836, -0.3926643431186676, -0.04143785685300827, 0.2270246148109436, 0.14654485881328583, -0.012717228382825851, 0.043429821729660034, 0.19779469072818756, 0.014446969144046307, -0.12388971447944641, 0.11970236152410507, 0.09238386154174805, 0.07961475104093552, -0.2742255628108978, 0.03167944401502609, 0.1464645266532898, -0.07226208597421646, 0.2699638307094574, 0.21049864590168, -0.18308323621749878, 0.19336028397083282, 0.1320006549358368, -0.5039933323860168, 0.1450718194246292, -0.062304917722940445, 0.12403157353401184, -0.12151490151882172, -0.11098090559244156, -0.09235363453626633, -0.08989118784666061, -0.0209369957447052, 0.0397750586271286, -0.25904786586761475, -0.05358003452420235, -0.014315941371023655, 0.08024287968873978, 0.08185798674821854, 0.14438080787658691, 0.22725170850753784, 0.13325928151607513, -0.28588971495628357, -0.015793465077877045, 0.05811680108308792, 0.29721760749816895, -0.4645492136478424, 0.2193993777036667, 0.33381667733192444, -0.2364514172077179, 0.07748596370220184, 0.2911917269229889, -0.2567627429962158, -0.02430490218102932, 0.10703530162572861, 0.08682097494602203, 0.15006057918071747, -0.05380736291408539, 0.2760864794254303, -0.015345852822065353, 0.070529505610466, -0.13864867389202118, -0.07513874769210815, -0.19919012486934662, 0.0166622381657362, 0.08196690678596497, 0.19224292039871216, 0.0617862343788147, 0.14437171816825867, -0.22861222922801971, -0.22028550505638123, -0.03037358447909355, 0.21022231876850128, 0.027326207607984543, -0.03307788074016571, -0.19796448945999146, 0.12984493374824524, -0.06097264587879181, 0.14171957969665527, 0.2720334827899933, 0.20942990481853485, 0.09157850593328476, 0.013817361555993557, -0.2745746076107025, -0.11815714091062546, -0.0019457737216725945, 0.19981899857521057, 0.1748981475830078, -0.14262981712818146, -0.03141692653298378, -0.12067287415266037, 0.15519946813583374, 0.16131092607975006, 0.36800259351730347, 0.2622973620891571, -0.0969562754034996, -0.014428827911615372, -0.02499002031981945, 0.11208799481391907, 0.21576790511608124, -0.08874119073152542, -0.07364748418331146, -0.014179514721035957, 0.0487629659473896, 0.16336405277252197, -0.23735103011131287, -0.14813648164272308, 0.09085707366466522, -0.08100077509880066, 0.01788323000073433, 0.088254913687706, -0.03312355652451515, -0.09972470998764038, -0.13167646527290344, 0.06142624095082283, 0.07139366120100021, -0.07683602720499039, -0.21463556587696075, -0.3707471489906311, -0.26380208134651184, -0.7079066634178162, 0.6663764119148254, 0.3948770761489868, -0.32700926065444946, -0.5058202147483826, 0.43097060918807983, -0.19115135073661804, 0.18018151819705963, -0.2698807716369629, 0.011641077697277069, 0.20405319333076477, -0.06163035333156586, 0.06484287977218628, -0.18996284902095795, -0.15472427010536194, 0.1376342624425888, -0.14054571092128754, -0.05631051957607269, 0.3505065441131592, -0.06650017201900482, 0.4253597557544708, 0.3438515365123749, 0.5447112321853638, 0.20481324195861816, 0.2507183253765106, -0.057337671518325806, -0.4526602029800415, 0.09128303080797195, -0.08234398812055588, 0.14431053400039673, 0.4705333709716797, -0.1595609486103058, 0.32451584935188293, 0.15821048617362976, -0.3016302287578583, 0.08228399604558945, -0.11085774749517441, -0.3471076488494873, 0.2757749557495117, -0.20645684003829956, 0.04360872507095337, -0.3487530052661896, 0.06967625766992569, -0.034779034554958344, -0.09321292489767075, 0.09377308189868927, 0.09074980020523071, 0.06279151886701584, 0.10970290005207062, 0.3109368681907654, -0.3306567072868347, 0.018948795273900032, -0.20036950707435608, 0.06395845860242844, 0.1727043241262436, -0.24763275682926178, 0.06621380150318146, -0.4975680112838745, 0.3181326389312744, 0.04453212767839432, 0.471810519695282, 0.2545567750930786, 0.25831353664398193, 0.20747947692871094, -0.05525169521570206, 0.06779710203409195, -0.24032139778137207, 0.1846497505903244, 0.0270199254155159, 0.028366725891828537, -0.22230687737464905, -0.22053119540214539, 0.1437661498785019, 0.11058731377124786, 0.05062010511755943, 0.22725093364715576, -0.08752597123384476, 0.16487331688404083, -0.2404845803976059, -0.18121613562107086, -0.13469861447811127, 0.1563362181186676, 0.20193599164485931, 0.24897870421409607, 0.026135262101888657, -0.12695173919200897, -0.049452438950538635, -0.16002467274665833, 0.0003345755103509873, 0.06689698249101639, -0.15967205166816711, -0.1768115758895874, 0.2139793187379837, 0.07816658914089203, -0.09821973741054535, 0.07492107152938843, 0.05338945984840393, 0.14203204214572906, -0.18567587435245514, -0.15631486475467682, -0.004127458203583956, 0.032767053693532944, 0.015154330059885979, 0.02828122302889824, 0.07318365573883057, 0.019656693562865257, -0.22532784938812256, -0.28937527537345886, 0.20762765407562256, 0.10111851245164871, -0.1151452362537384, -0.19847916066646576, 0.26216405630111694, -0.17133577167987823, -0.025931520387530327, 0.014566350728273392, -0.0787864699959755, -0.128237783908844, 0.03599168360233307, 0.2373747080564499, 0.1644018292427063, -0.14833872020244598, 0.07511065155267715, 0.1899728775024414, -0.18543708324432373, 0.16977399587631226, -0.07594754546880722, -0.04738156870007515, -0.014539030380547047, -0.10186685621738434, -0.21102774143218994, 0.34948381781578064, -0.03739792853593826, 0.14954960346221924, 0.016272282227873802, -0.07160166651010513, 0.1649039089679718, 0.3080175220966339, -0.025474928319454193, 0.18747828900814056, 0.18559931218624115, -0.012784268707036972, -0.07101733982563019, -0.3901098668575287, -0.08654984831809998, -0.15251444280147552, -0.15181390941143036, 0.2432735562324524, -0.016977839171886444, 0.15262456238269806, 0.2277490496635437, 0.16592514514923096, 0.08326378464698792, 0.1862170398235321, -0.02554631233215332, -0.11898517608642578, -0.11415887624025345, 0.3591654300689697, -0.15914994478225708, -0.02989538572728634, 0.346273809671402, -0.07753288000822067, -0.25198107957839966, 0.026386871933937073, 0.0029686561319977045, 0.04748775437474251, 0.17023612558841705, 0.3065701723098755, -0.04721034690737724, -0.148723304271698, 0.033019617199897766, 0.1353904753923416, -0.20275011658668518, 0.07745910435914993, -0.0467681810259819, -0.3049660623073578, -0.009931555949151516, -0.07284983992576599, 0.2769418954849243, 0.29130586981773376, 0.09188603609800339, -0.12669897079467773, 0.01668241247534752, 0.09690643846988678, 0.0663495659828186, 0.13726048171520233, 0.163001149892807, -0.04094456881284714, 0.0957394689321518, 0.16099508106708527, 0.2612048387527466, -0.26733869314193726, -0.13056807219982147, 0.236946702003479, -0.003677834989503026, -0.28338244557380676, 0.06021805852651596, -0.13982675969600677, -0.06962136179208755, 0.3433476984500885, 0.13962067663669586, 0.1612788885831833, -0.13419494032859802, -0.2146873027086258, -0.11567626148462296, 0.1455378234386444, -0.0930582582950592, 0.029197711497545242, 0.4089178144931793, 0.046808235347270966, -0.22538350522518158, 0.2666502892971039, 0.04186468571424484, -0.018862273544073105, 0.3583701252937317, 0.09185436367988586, -0.11412113904953003, -0.469756543636322, 0.20454904437065125, 0.023831941187381744, -0.04300512745976448, -0.12354820966720581, -0.05276818946003914, 0.03785505145788193, 0.2027451992034912, -0.03502659499645233, -0.19609247148036957, -0.2994224727153778, -0.2169848084449768, 0.10018716007471085, -0.024616962298750877, -0.06343734264373779, -0.22409212589263916, -0.03582301735877991, -0.2639567255973816, -0.08008614182472229, -0.16145117580890656, 0.033837489783763885, 0.30631160736083984, 0.09030218422412872, -0.038005273789167404, -0.024366622790694237, 0.07578547298908234, 0.06464385986328125, -0.020854433998465538, -0.16314424574375153, -0.1196507066488266, 0.20096763968467712, 0.1294330358505249, -0.05282741039991379, -0.056027818471193314, -0.2986844778060913, 0.09397661685943604, 0.17983299493789673, -0.24442549049854279, -0.2415671944618225, 0.061261121183633804, 0.04819023609161377, -0.06664075702428818, 0.1393287181854248, 0.014274570159614086, 0.09504056721925735, 0.19162097573280334, 0.48604580760002136, 0.010391726158559322, -0.4196966588497162, 0.05080745369195938, 0.11488034576177597, -0.12460222840309143, -0.11295348405838013, 0.07875623553991318, -0.002224896801635623, -0.07340463995933533, 0.0142191331833601, -0.05144153907895088, 0.03799455240368843, 0.034231994301080704, -0.37177184224128723, 0.25044146180152893, -0.20850180089473724, 0.042248502373695374, -0.3652363419532776, 0.24772077798843384, -0.7552536129951477, 0.2784346342086792, 0.29935580492019653, -0.18220734596252441, -0.07954053580760956, 0.09146805107593536, 0.20518828928470612, -0.5444308519363403, -0.40832412242889404, -0.05416664108633995, 0.3453297019004822, 0.011948063038289547, 0.31262335181236267, 0.16013887524604797, 0.041632749140262604, 0.12186574935913086, -0.06237524747848511, -0.004465883132070303, 0.1769709438085556, -0.04448584094643593, -0.1563018411397934, -0.2652379274368286, 0.32179009914398193, 0.26966166496276855, 0.10615680366754532, -0.25062912702560425, 0.1459197998046875, -0.2956642210483551, -0.3377766013145447, -0.3546527028083801, 0.3798743784427643, -0.23168589174747467, -0.14274872839450836, -0.04311169311404228, -0.18541336059570312, -0.07037410885095596, 0.21706825494766235, 0.1112997755408287, -0.1425609290599823, -0.06662968546152115, 0.13223612308502197, 0.23092372715473175, 0.019826455041766167, -0.32964026927948, 0.2572401165962219, 0.09689370542764664, -0.14816607534885406, -0.4845925271511078, -0.01664021611213684, -0.15542900562286377, -0.15271545946598053, 0.14487536251544952, -0.1906282752752304, 0.2705204486846924, 0.24915437400341034, 0.15560702979564667, 0.21947605907917023, 0.2922687232494354, -0.19273798167705536, -0.16040554642677307, 0.14154091477394104, -0.012100948952138424, 0.40051084756851196, -0.18197208642959595, -0.353706032037735, -0.26567280292510986, -0.3228071630001068, 0.2575280964374542, -0.03555385395884514, -0.20442326366901398, -0.005163333844393492, -0.19696491956710815, -0.17828379571437836, 0.21859245002269745, -0.23129229247570038, 0.03445519134402275, 0.09635690599679947, -0.005365797784179449, 0.024850206449627876, 0.08073285967111588, 0.054336123168468475, 0.2913065552711487, -0.04214595630764961, -0.03075009398162365, -0.07042716443538666, 0.04231422767043114, -0.0013558687642216682, 0.06021089479327202, -0.04346724972128868, -0.025467365980148315, -0.2728426158428192, -0.2523553669452667, 0.20393787324428558, 0.0445161834359169, 0.12157665938138962, 0.025441516190767288, 0.01640690304338932, 0.19174988567829132, -0.11909914761781693, -0.1254332959651947, 0.24082976579666138, 0.031887270510196686, 0.14048898220062256, 0.009092666208744049, 0.04117704555392265, -0.25822117924690247, 0.21916750073432922, -0.21493466198444366, -0.15224689245224, 0.09252692759037018, -0.04529445245862007, 0.029842235147953033, 0.1824488490819931, -0.42426228523254395, 0.058744966983795166, 0.11115649342536926, 0.10310883820056915, 0.03645860776305199, -0.18495464324951172, 0.25213900208473206, 0.14293058216571808, 0.05769108608365059, 0.3571149408817291, 0.10319839417934418, 0.08645828813314438, 0.08230924606323242, -0.12058385461568832, 0.3059423267841339, 0.11874957382678986, 0.12910021841526031, -0.115740105509758, 0.13162823021411896, 0.22272321581840515, -0.22553130984306335, -0.06896956264972687, -0.10918334871530533, -0.08465288579463959, 0.21844582259655, 0.072881780564785, -0.16854852437973022, -0.20941130816936493, -0.027788175269961357, 0.21966469287872314, -0.27904269099235535, -0.20156189799308777, 0.039545200765132904, -0.19655682146549225, -0.0957077220082283, 0.06289243698120117, -0.05661623924970627, 0.16544711589813232, -0.27448201179504395, -0.11082389950752258, 0.09407226741313934, 0.23463523387908936, -0.2204560786485672, -0.20018891990184784, 0.27551785111427307, -0.1096646785736084, -0.004683413542807102, 0.045397959649562836, -0.049069248139858246, -0.05490958318114281, 0.3150706887245178, 0.16122807562351227, 0.09748058766126633, -0.2501645088195801, 0.08521857857704163, 0.16768662631511688, -0.07424581795930862, 0.059330910444259644, -0.17149284482002258, -0.33398693799972534, -0.3369627594947815, -0.2735477685928345, 0.13621409237384796, 0.07165563851594925, 0.16312222182750702, 0.022786056622862816, 0.17119242250919342, 0.17087693512439728, -0.3026866614818573, 0.21984340250492096, 0.12230546027421951, -0.008115381002426147, 0.20822949707508087, 0.10331370681524277, -0.2083047479391098, -0.2596832811832428, -0.01730397716164589, 0.21631112694740295, 0.018152538686990738, -0.08625489473342896, -0.018977273255586624, -0.15207156538963318, 0.05630437284708023, -0.06103125214576721, 0.09904947876930237, 0.14174696803092957, 0.07635846734046936, -0.06259339302778244, -0.05257796868681908, 0.18640801310539246, -0.06684664636850357, -0.0423491932451725, -0.07466381043195724, -0.16601397097110748, -0.09060747176408768, 0.02268163301050663, -0.239841029047966, -0.2013634443283081, 0.11377906054258347, 0.05544464290142059, 0.04357233643531799, -0.5238757133483887, 0.14778965711593628, -0.08949209004640579, -0.19049717485904694, -0.17191921174526215, -0.041033074259757996, 0.26605498790740967, -0.05553315952420235, 0.15156289935112, 0.04878615587949753, -0.11899112910032272, 0.045854948461055756, 0.028342848643660545, -0.17741085588932037, -0.19842366874217987, 0.11386729031801224, -0.2906949818134308, -0.19728587567806244, 0.18759384751319885, -0.24406954646110535, 0.09349893778562546, 0.09966373443603516, 0.23495084047317505, -0.047471821308135986, -0.142326220870018, 0.14735965430736542, 0.11229392886161804, 0.029303565621376038, -0.012406786903738976, -0.16846193373203278, 0.09992771595716476, 0.32719290256500244, 0.009091063402593136, 0.23870091140270233, -0.00759478472173214, 0.04415568709373474, -0.15621663630008698, -0.3084917366504669, 0.028622252866625786, -0.032819923013448715, -0.2225266546010971, -0.05708284676074982, 0.17846931517124176, -0.0981670692563057, -0.03364311903715134, -0.057582709938287735, 0.10142511129379272, -0.03347235545516014, -0.3483407497406006, -0.03244547173380852, 0.08787328749895096, -0.26701849699020386, 0.19134774804115295, -0.14267274737358093, -0.3917901813983917, -0.1302052140235901, 0.13781258463859558, -0.1173873320221901, 0.03173883259296417, -0.06906461715698242, -0.5295323133468628, -0.4142082631587982, 0.09564556181430817, 0.9555889368057251, 0.8088143467903137, 0.05140494182705879, -0.9872049689292908, -0.19162622094154358, -0.2627826929092407, -0.22883419692516327, 0.27378034591674805, 0.13428224623203278, 0.34027963876724243, 0.011902171187102795, -0.4213404655456543, -0.24364107847213745, -0.041587695479393005, -0.22537727653980255, -0.01314122136682272, -0.02576356939971447, -0.24159184098243713, 0.22181285917758942, -0.020934322848916054, -0.2821614146232605, 0.10246303677558899, -0.5036384463310242, 0.3470349907875061, 0.13839644193649292, 0.28807055950164795, -0.10249306261539459, -0.19386975467205048, 0.05588769167661667, -0.2528342604637146, -0.1482100635766983, -0.14683112502098083, 0.23578786849975586, -0.07336576282978058, 0.22563563287258148, 0.07429515570402145, -0.08194608241319656, 0.030332447960972786, 0.025179533287882805, -0.3457367420196533, -0.307144433259964, -0.08161954581737518, 0.18166761100292206, 0.17403481900691986, -0.077366404235363, -0.041841279715299606, -0.03976445645093918, -0.12227097898721695, -0.3873167335987091, -0.05345116928219795, -0.06279595196247101, -0.3586694300174713, -0.19307151436805725, -0.16164927184581757, 0.11258991807699203, 0.08929963409900665, 0.27650636434555054, 0.30573561787605286, -0.2186664640903473, 0.037173572927713394, 0.06990576535463333, 0.11463119089603424, -0.3136110007762909, 0.06965110450983047, -0.3314823806285858, 0.43928226828575134, -0.22381581366062164, -0.2976394295692444, 0.09628208726644516, 0.37120091915130615, 0.008576767519116402, -0.18038922548294067, 0.298685759305954, -0.17883078753948212, -0.0851440280675888, -0.2695216238498688, -0.14363083243370056, -0.3140289783477783, -0.6095035076141357, 0.0516616515815258, -0.3217424154281616, 0.4951438009738922, -0.7036391496658325, -0.3891153037548065, -0.31331491470336914, 0.1337139904499054, -0.08598551899194717, 0.31622329354286194, -0.42258164286613464, 0.06615698337554932, -0.6258662343025208, -0.2708650827407837, -0.09701581299304962, 0.15872351825237274, -0.4653569161891937, 0.5631624460220337, -0.5679233074188232, 0.4557092487812042, -0.10502670705318451, -0.7481065392494202, -0.36581042408943176, 0.26563140749931335, 0.33157727122306824, -0.5454803705215454, 0.4583432674407959, -0.3086563050746918, 0.42381009459495544, 0.2602490782737732, 0.4447992444038391, 0.20130780339241028, 0.06645729392766953, 0.09963460266590118, 0.28552964329719543, 0.1671229749917984, 0.001249760272912681, -0.03411572426557541, 0.051897890865802765, -0.23142015933990479, 0.4736230671405792, -0.32748445868492126, 0.1819237917661667, -0.34487468004226685, 0.07950348407030106, 0.2744864523410797, 0.20387451350688934, -0.05979250371456146, 0.26083457469940186, -0.23286905884742737, -0.05098685249686241, -0.26997989416122437, -0.11867105215787888, 0.025990769267082214, -0.027017056941986084, 0.06286690384149551, 0.12161252647638321, 0.2687213718891144, 0.008930749259889126, -0.2162904441356659, 0.3003813624382019, -0.0406346395611763, 0.5200183987617493, -0.026713034138083458, -0.2562788426876068, 0.1488456130027771, 0.21844424307346344, 0.26837244629859924, -0.27973154187202454, 0.1550339311361313, 0.18555848300457, -0.2012205272912979, -0.049153126776218414, -0.0567588247358799, 0.42880547046661377, 0.40693214535713196, 0.09914817661046982, 0.04205888509750366, -0.24504999816417694, -0.2094743400812149, 0.3674023151397705, -0.32360151410102844, -0.04679211601614952, 0.3477514386177063, 0.028660669922828674, -0.06915570795536041, 0.029852397739887238, -0.14305658638477325, 0.239714577794075, -0.14628462493419647, -0.08568476885557175, 0.11492286622524261, 0.2630254626274109, -0.18025188148021698, 0.029142199084162712, 0.284690797328949, -0.07543105632066727, -0.2791019082069397, 0.005175011698156595, -0.2696920931339264, -0.26793399453163147, 0.27688586711883545, 0.231904536485672, -0.0047714184038341045, -0.13181756436824799, 0.15237759053707123, -0.00099525460973382, -0.34414124488830566, -0.22769474983215332, 0.050643227994441986, -0.13490094244480133, -0.06816122680902481, -0.19110192358493805, -0.18108651041984558, 0.23032811284065247, -0.1481500267982483, 0.12567538022994995, -0.3619588613510132, 0.49766314029693604, -0.6538345217704773, -0.029949311167001724, -0.4223126471042633, -0.43635523319244385, 0.2092018574476242, -0.2214314341545105, -0.09459782391786575, -0.08516405522823334, 0.2437656968832016, 0.3982200026512146, -0.2873079478740692, 0.20919811725616455, -0.6843641996383667, 0.20695200562477112, -0.07563913613557816, -0.13986648619174957, 0.3078823685646057, 0.3690541982650757, -0.016388684511184692, -0.15608549118041992, 0.07736224681138992, 0.24122202396392822, 0.15208964049816132, -0.09524933248758316, -0.21884547173976898, 0.296841561794281, 0.06749830394983292, -0.27676889300346375, -0.3130951523780823, 0.041148509830236435, 0.1131458431482315, 0.242591992020607, 0.027244247496128082, 0.43246936798095703, 0.06942003220319748, -0.07224928587675095, -0.33720988035202026, 0.2824153006076813, 0.12529794871807098, 0.009236525744199753, 0.2904875576496124, 0.0639275386929512, 0.0745045617222786, 0.4316180646419525, -0.07018593698740005, 0.031771693378686905, -0.1278172731399536, -0.029039660468697548, 0.293849915266037, -0.20809276401996613, 0.125052347779274, 0.12854452431201935, -0.018758438527584076, -0.038805678486824036, -0.21549835801124573, -0.051381923258304596, 0.008455413393676281, -0.2417730689048767, 0.021248240023851395, 0.10865792632102966, 0.054236188530921936, -0.31771373748779297, 0.2779604196548462, 0.37341591715812683, -0.12007170170545578, -0.17838652431964874, -0.14339132606983185, -0.5953077077865601, 0.0897727981209755, -0.14618076384067535, -0.11920579522848129, -0.03767954930663109, 0.7074680924415588, 0.23164385557174683, -0.439561128616333, -0.13393768668174744, 0.03245564550161362, 0.23509977757930756, -0.23344247043132782, -0.2934548556804657, -0.020599225535988808, 0.1554342359304428, -0.31070849299430847, -0.08561963587999344, 0.3697146475315094, -0.08251234889030457, -0.03367818892002106, 0.3017004728317261, 0.39321762323379517, 0.039285123348236084, -0.21985696256160736, -0.11156289279460907, 0.15201465785503387, -0.08836264908313751, 0.22801724076271057, -0.3987489342689514, -0.2188582867383957, 0.0037989451084285975, 0.028794988989830017, 0.20465345680713654, 0.1709061563014984, -0.0010421741753816605, 0.02963082864880562, 0.09090311080217361, -0.07098472863435745, -0.11502130329608917, -0.12351119518280029, 0.2567836046218872, -0.11853962391614914, -0.21993540227413177, 0.07620619982481003, 0.06260573863983154, 0.27039846777915955, -0.09117919206619263, 0.2642829716205597, 0.13660167157649994, -0.22995144128799438, 0.046132344752550125, -0.1747628003358841, 0.2386017143726349, -0.28724512457847595, -0.15775269269943237, 0.2892935872077942, 0.20874778926372528, 0.3675365149974823, -0.005260338541120291, 0.10278146713972092, 0.1491478681564331, 0.2607669532299042, -0.14277240633964539, -0.21688906848430634, 0.17972473800182343, -0.04079911485314369, -0.2633974254131317, -0.17659218609333038, 0.07856498658657074, 0.2104182094335556, -0.5580653548240662, 0.10081871598958969, -0.1452443152666092, 0.08424583077430725, 0.02080264315009117, 0.0442921407520771, -0.6311384439468384, 0.05581359192728996, -0.0464404933154583, -0.27036944031715393, 0.07645430415868759, 0.9969075918197632, 0.4728776812553406, 0.7909805178642273, 0.031123047694563866, -0.14739808440208435, -0.513872504234314, -0.4019315242767334, -0.5996312499046326, -0.19852128624916077, 0.13619950413703918, -0.12362668663263321, -0.14934995770454407, -0.13353651762008667, -0.38839441537857056, -0.09802735596895218, 0.2246752679347992, 0.5223179459571838, 0.3940035402774811, 0.011882005259394646, 0.06362159550189972, 0.2660703957080841, -0.1627040058374405, -0.23561109602451324, 0.42445382475852966, -0.12972445785999298, -0.40030816197395325, -0.012398192659020424, 0.1683114767074585, 0.1837286651134491, -0.33466920256614685, 0.0503571443259716, 0.2631475031375885, 0.08122450858354568, 0.10613946616649628, 0.37423744797706604, 0.14338259398937225, 0.1542835533618927, 0.22188471257686615, 0.05821504443883896, 0.276393324136734, 0.08738858997821808, -0.1693805307149887, 0.0903768390417099, -0.01081656664609909, 0.0028602227102965117, 0.26254937052726746, 0.2568683624267578, -0.02919202856719494, 0.17056502401828766, -0.05914488062262535, -0.18955928087234497, 0.2850910723209381, 0.0548926517367363, 0.03140009194612503, 0.0801062136888504, -0.03413032367825508, 0.10073067992925644, 0.35788923501968384, 0.39714694023132324, -0.037326179444789886, -0.008680016733705997, 0.037955861538648605, 0.2025807648897171, -0.31304919719696045, -0.15435083210468292, -0.1360148787498474, 0.10626447200775146, 0.4140413999557495, -0.08437241613864899, -0.5999895334243774, -0.1021852046251297, -0.13179270923137665, 0.20272581279277802, -0.039827387779951096, 0.10572022944688797, 0.20381304621696472, -1.258866310119629, 0.5728050470352173, 0.24595677852630615, -0.40792205929756165, 0.2324533313512802, 0.13843907415866852, 0.11420675367116928, -0.2619357109069824, -0.3414539396762848, 0.5083938837051392, 0.4177130460739136, -0.02041620947420597, -0.40100356936454773, -0.026408132165670395, 0.1564551144838333, 0.17867493629455566, 0.060366567224264145, 0.09880223870277405, 0.13609746098518372, -0.24919715523719788, -0.3467453122138977, -0.42123886942863464, -0.07379555702209473, 0.144704669713974, -0.021952329203486443, 0.20771260559558868, 0.008982288651168346, 0.012870699167251587, 0.248076394200325, 0.007361827418208122, -0.005864880047738552, 0.28975802659988403, -0.13012126088142395, 0.30536895990371704, 0.15734492242336273, -0.2439928948879242, 0.28064098954200745, -0.1593838632106781, -0.08374682068824768, 0.21417967975139618, 0.23276418447494507, -0.32545602321624756, -0.08988385647535324, -0.07801104336977005, 0.2669662535190582, 0.26264050602912903, 0.27568793296813965, -0.027587737888097763, -0.03201809525489807, -0.0059287045150995255, 0.5234951376914978, -0.008236591704189777, -0.005416316911578178, 0.38918882608413696, -0.07284868508577347, 0.01848077028989792, 0.08562703430652618, 0.17646440863609314, -0.04287901148200035, 0.45174533128738403, 0.3167949914932251, -0.07552880048751831, -0.11375069618225098, 0.20173554122447968, -0.07046889513731003, -0.31186139583587646, 0.04656083881855011, 0.051210470497608185, 0.2180749922990799, 0.10372309386730194, -0.36360159516334534, -0.0834161564707756, 0.04094279184937477, -0.07103096693754196, 0.02267492190003395, -0.31224769353866577, -0.3235519826412201, 0.2923267185688019, 0.41726794838905334, -0.4739871025085449, -0.2149864137172699, 0.4833279252052307, -0.26239925622940063, -0.5477982759475708, 0.5289714336395264, 0.2749127149581909, -0.42600733041763306, -0.31992074847221375, 0.4204329252243042, -0.09367549419403076, -0.11524033546447754, 0.07587581872940063, 0.015842080116271973, 0.27177754044532776, -0.4124830663204193, -0.2222774475812912, -0.328355997800827, -0.0021607542876154184, -0.34995925426483154, 0.49348703026771545, 0.21417242288589478, -0.01573617197573185, 0.2700329124927521, -0.08684080839157104, -0.08146633207798004, 0.07941325753927231, -0.38721439242362976, -0.06897954642772675, -0.0827227234840393, 0.09852731972932816, -0.026854807510972023, 0.4590842127799988, 0.07904146611690521, -0.002988932654261589, -0.3257853388786316, -0.13794593513011932, 0.16750195622444153, 0.05316431075334549, 0.15364013612270355, 0.07553793489933014, 0.06565099209547043, 0.37407612800598145, 0.5192815065383911, 0.1936434954404831, 0.33705949783325195, -0.08762093633413315, -0.11329971253871918, 0.15195736289024353, 0.03349671512842178, 0.06282543390989304, 0.12296757102012634, 0.051053907722234726, -0.1592300981283188, 0.4150480628013611, -0.03469372168183327, -0.10217300802469254, -0.31150373816490173, -0.27177682518959045, 0.010510970838367939, 0.04923586919903755, -0.09234393388032913, -0.0546485111117363, 0.21987581253051758, -0.19405317306518555, -0.2146867960691452, -0.2017592489719391, 0.1358843445777893, 0.06562448292970657, -0.27715104818344116, -0.06681457906961441, 0.22655951976776123, 0.09131129086017609, 0.4235707223415375, 0.18723124265670776, 0.1290130615234375, 0.13994860649108887, -0.3707151710987091, 0.3878383934497833, 0.3585348129272461, -0.4576740860939026, -0.5973252654075623, -0.16695015132427216, 0.36352914571762085, -0.2925965487957001, 0.6117601990699768, -0.3362787663936615, -0.3075026869773865, 0.24980922043323517, -0.5601782202720642, 0.026500117033720016, -0.10377836227416992, -0.16107353568077087, -0.3300608992576599, -0.36581069231033325, 0.24061575531959534, -0.038956452161073685, -0.017718974500894547, -0.08220890164375305, -0.05653418228030205, 0.05458695814013481, 0.014328901655972004, 0.34980684518814087, -0.36858105659484863, -0.11348393559455872, -0.06784108281135559, 0.13696257770061493, -0.13718019425868988, 0.6276867389678955, -0.046199731528759, 0.24412304162979126, 0.1622830629348755, 0.1662997454404831, 0.07206260412931442, 0.01540569681674242, 0.1837167888879776, 0.22528398036956787, -0.12982331216335297, 0.08812099695205688, 0.0994180366396904, 0.20868267118930817, 0.050490718334913254, 0.20695224404335022, -0.2062671035528183, -0.06182651221752167, 0.3412056565284729, -0.03916505351662636, 0.006206505931913853, -0.08951772004365921, 0.005398302339017391, 0.2017778605222702, 0.061493318527936935, 0.05864375829696655, 0.26323044300079346, -0.3766956031322479, 0.12405431270599365, -0.13849501311779022, -0.05837903544306755, 0.001837081741541624, 0.27714553475379944, 0.05529670789837837, 0.1719539314508438, -0.2999837100505829, -0.05084681138396263, -0.23848006129264832, -0.1399177461862564, -0.1211756020784378, -0.037782344967126846, -0.1308719962835312, -0.773614227771759, -0.5636377930641174, -0.22484827041625977, -0.31546124815940857, -0.14957411587238312, -0.31997156143188477, 0.23307545483112335, 0.080267034471035, -0.23991882801055908, -0.005959643516689539, 0.1385582983493805, 0.11953318119049072, -0.15760383009910583, 0.0015477502020075917, 0.2802470922470093, 0.2703824043273926, -0.3998115360736847, -0.22046226263046265, -0.03506160154938698, -0.13771353662014008, -0.16105791926383972, -0.27869513630867004, 0.34975284337997437, -0.12228505313396454, 0.049144286662340164, 0.29369643330574036, -0.1148587018251419, 0.011273226700723171, 0.20969301462173462, -0.16618619859218597, -0.10150860249996185, -0.03925873339176178, -0.0007879366748966277, 0.4439874589443207, 0.03149813041090965, 0.47959813475608826, -0.3131462633609772, 0.07369386404752731, 0.04123841971158981, -0.1050851121544838, -0.1875162273645401, 0.30269360542297363, -0.057668231427669525, -0.034938350319862366, 0.03582746163010597, 0.3465671241283417, 0.4020254611968994, -0.13220694661140442, 0.003234751056879759, 0.45617157220840454, 0.0071730525232851505, -0.012636551633477211, -0.10714543610811234, -0.1101493388414383, -0.0892217829823494, -0.03713976591825485, 0.3290841281414032, 0.27456793189048767, 0.03853604570031166, -0.04691709578037262, 0.2539113163948059, -0.3393053710460663, -0.021354880183935165, -0.20537102222442627, -0.18454308807849884, 0.004325055982917547, -0.014646266587078571, -0.15336009860038757, -0.07277175784111023, -0.13948877155780792, -0.37046709656715393, -0.1799110621213913, -0.20183610916137695, 0.019610336050391197, -0.21087343990802765, -0.1726183146238327, -0.4491335451602936, -0.8861126899719238, 0.9199593663215637, 0.6381222605705261, 0.05389721319079399, 0.045477092266082764, 0.39835724234580994, -0.006221787538379431, -0.3862536549568176, -0.6342319846153259, 0.15977375209331512, -0.1575915515422821, 0.06690649688243866, 0.19096466898918152, -0.16438044607639313, -0.2133108526468277, -0.5396298766136169, 0.1834811270236969, -0.20197844505310059, 0.4551158547401428, -0.014307251200079918, 0.49454793334007263, 0.08127676695585251, -0.19883963465690613, 0.09008768200874329, 0.012691031210124493, 0.030190391466021538, -0.24245671927928925, -0.12554828822612762, 0.31024864315986633, -0.12062782049179077, 0.08670394122600555, 0.11054348200559616, 0.3373827636241913, 0.19457806646823883, -0.05280519649386406, 0.23841536045074463, -0.2900262475013733, 0.09347330778837204, -0.1554819792509079, -0.07595419883728027, 0.04289276525378227, 0.08885158598423004, 0.17030254006385803, -0.2733168601989746, 0.2553271949291229, 0.4417252242565155, -0.22070614993572235, 0.113373763859272, 0.29860398173332214, -0.007909238338470459, -0.24652482569217682, -0.0733020082116127, 0.10632961243391037, 0.07396603375673294, 0.08501065522432327, 0.021302977576851845, 0.05181476101279259, -0.02855742536485195, 0.23233740031719208, 0.05477483943104744, 0.1782395988702774, -0.085694320499897, 0.3237350285053253, -0.0486815944314003, -0.23997794091701508, 0.05413396283984184, 0.2289494276046753, -0.18171058595180511, -0.15287114679813385, -0.17499063909053802, 0.22268660366535187, 0.12319951504468918, -0.07886862009763718, 0.284462571144104, 0.06505673378705978, -0.6362879276275635, 0.20477499067783356, 0.6509639620780945, 0.037436481565237045, 0.3808126747608185, -0.5084460973739624, 0.3921566903591156, 0.29962924122810364, -0.3076079785823822, -0.002684392500668764, -0.23795101046562195, 0.2583662271499634, -0.34082889556884766, 0.2133922129869461, 0.1594383269548416, 0.2600385248661041, 0.634783923625946, 0.6679344177246094, -0.18412867188453674, -0.4903370440006256, -0.35668522119522095, 0.271998792886734, -0.4072204828262329, -0.4107762575149536, -0.03154878318309784, -0.1254851520061493, -0.05019571632146835, -0.2952532172203064, -0.14510700106620789, 0.3990940749645233, 0.02892669104039669, 0.10103560239076614, 0.1907668560743332, 0.24526168406009674, 0.24162866175174713, -0.2950851321220398, -0.08276219666004181, 0.1256399154663086, -0.30093705654144287, -0.1472293585538864, 0.050624780356884, -0.08013920485973358, -0.2684118151664734, -0.05931993946433067, -0.6141440868377686, 0.08597834408283234, -0.044294968247413635, 0.2257617712020874, -0.05647244676947594, -0.29167237877845764, 0.10389608144760132, -0.27284982800483704, 0.041600920259952545, 0.2678825259208679, -0.11573179811239243, -0.17057062685489655, 0.19870507717132568, 0.18327879905700684, 0.23382264375686646, -0.1486642211675644, 0.04110226780176163, 0.13421227037906647, -0.3561941385269165, 0.2569243609905243, 0.016835931688547134, -0.08640988916158676, 0.5988861918449402, 0.18971803784370422, 0.4339348375797272, -0.1660604029893875, -0.05871603637933731, -0.2503412961959839, -0.10661416500806808, -0.2089310586452484, 0.17748941481113434, 0.13591717183589935, 0.09843194484710693, 0.07714220881462097, -0.368718683719635, -0.0036696461029350758, -0.2950729727745056, -0.07993072271347046, -0.4985632300376892, 0.26413387060165405, 0.10399890691041946, 0.02516176551580429, -0.18323752284049988, 0.33259648084640503, -1.0159556865692139, 0.8122604489326477, -0.284603476524353, -0.11706577241420746, 0.6025310754776001, -0.29098689556121826, 0.030350834131240845, 0.3585231900215149, -0.2220483273267746, -0.007376313675194979, 0.2553890645503998, 0.13300658762454987, -0.11202637106180191, -0.24141255021095276, 0.06783479452133179, 0.13071982562541962, -0.1841842532157898, 0.3463592827320099, -0.2063525766134262, -0.46889781951904297, -0.10935305804014206, 0.036910537630319595, 0.2974080443382263, -0.11729013174772263, -0.14153507351875305, -0.18498992919921875, 0.054636742919683456, -0.010149147361516953, -0.07340246438980103, 0.26895496249198914, 0.01273222267627716, -0.10081838071346283, -0.0914534255862236, 0.1424432396888733, 0.2352612316608429, -0.14459159970283508, -0.27934080362319946, -0.22454853355884552, 0.11546853184700012, -0.007864616811275482, -0.013853603042662144, 0.46510428190231323, -0.4199230670928955, -0.17634053528308868, 0.05166827514767647, 0.12439755350351334, 0.19299791753292084, -0.10320582240819931, -0.04643985629081726, 0.004078703001141548, -0.3650783896446228, 0.09318900108337402, 0.24364347755908966, -0.08770513534545898, 0.11465467512607574, 0.19734153151512146, 0.15172173082828522, -0.02719174697995186, -0.17998088896274567, -0.03862139955163002, 0.06445073336362839, -0.19424466788768768, -0.14925353229045868, 0.0060576098039746284, -0.27178213000297546, -0.371996134519577, -0.6861999034881592, 0.1575039029121399, -0.13259394466876984, -0.2250559777021408, -0.3361262083053589, 0.25972068309783936, -0.42035356163978577, 0.0329267680644989, -0.08037129044532776, 0.375123530626297, 0.14999763667583466, -0.331175297498703, 0.19886669516563416, 0.12103389203548431, 0.3893737196922302, 0.5877603888511658, 0.11194832623004913, 0.10675474256277084, 0.2920841574668884, -0.2752547562122345, 0.34147804975509644, -0.3872606158256531, 0.05013148486614227, -0.268767774105072, -0.0950101837515831, 0.033644791692495346, -0.2988351285457611, 0.23511990904808044, -0.06035076081752777, -0.18457171320915222, -0.2678547203540802, -0.08287245035171509, 0.1311035007238388, -0.19208967685699463, -0.013595305383205414, -0.14777909219264984, 0.15559528768062592, -0.16026818752288818, -0.17528729140758514, 0.3538433909416199, -0.13875995576381683, 0.06910249590873718, 0.08330997079610825, 0.06628052145242691, 0.2796345353126526, 0.2002471387386322, 0.01341281458735466, -0.1459008753299713, 0.07676354795694351, 0.13711458444595337, -0.18864639103412628, -0.035110924392938614, 0.2361457645893097, 0.005270649213343859, 0.12308341264724731, 0.030129870399832726, 0.27084845304489136, 0.14263799786567688, 0.11139623820781708, 0.20450042188167572, -0.011662065051496029, -0.12769457697868347, 0.177800714969635, -0.2586900293827057, -0.1509082317352295, -0.021764766424894333, 0.46741339564323425, -0.09920871257781982, -0.1012859120965004, 0.17682509124279022, -0.32636719942092896, 0.30454668402671814, -0.1038479134440422, -0.08350103348493576, 0.5448580384254456, -0.33487507700920105, 0.9635096788406372, -0.4467068314552307, 0.12538225948810577, -0.18478044867515564, -0.42512544989585876, 0.1886492222547531, 0.10732205957174301, -0.43057525157928467, 0.17423991858959198, 0.13057085871696472, 0.5496945381164551, -0.005696824751794338, -0.007696994114667177, -0.4737473726272583, 0.48422932624816895, 0.20679710805416107, 0.16183491051197052, 0.03973326086997986, -0.18809975683689117, 0.12904179096221924, 0.018267665058374405, 0.23180663585662842, -0.0037113293074071407, -0.10748301446437836, 0.23765066266059875, 0.03814059868454933, -0.14938026666641235, 0.1423092931509018, -0.1192711666226387, 0.052340831607580185, -0.03899284452199936, 0.01070340070873499, 0.1882801055908203, 0.4620111286640167, -0.040752653032541275, -0.20314742624759674, 0.1627480536699295, -0.31562885642051697, -0.2169407308101654, 0.006215472240000963, 0.18885332345962524, -0.12011364847421646, -0.12803798913955688, 0.12124599516391754, 0.15107877552509308, 0.2733308672904968, 0.0526859313249588, 0.08887604624032974, 0.3912775218486786, -0.05596854165196419, -0.3193037211894989, 0.13882707059383392, -0.06202267110347748, 0.00048308356781490147, -0.11097216606140137, -0.04294467344880104, 0.005945124663412571, 0.34125661849975586, 0.07008732855319977, 0.20603793859481812, -0.20613542199134827, -0.3607674837112427, -0.11346925795078278, 0.07055341452360153, 0.0049982620403170586, -0.12152518332004547, 0.4510599374771118, 0.02336830273270607, -0.056905653327703476, -0.18536153435707092, 0.08322005718946457, -0.11831407248973846, 0.236977681517601, -0.16218936443328857, 0.9084664583206177, -0.39294713735580444, -0.4086551070213318, -0.605475902557373, -0.12091034650802612, -0.04836457967758179, -0.23046547174453735, 0.3559243679046631, 0.2869518995285034, -0.44128191471099854, -0.050015389919281006, 0.1681065559387207, 0.4823986291885376, -0.11955636739730835, 0.3069649934768677, -0.028011441230773926, -0.1917715072631836, 0.30598050355911255, -0.4455450773239136, 0.41890019178390503, 0.4994143843650818, -0.1365121603012085, 0.1975109577178955, 0.49860215187072754, 0.7359244227409363, 0.908264696598053, 0.8168129324913025, -0.7741932272911072, 0.11309585720300674, 0.019999999552965164]}