{"version":"0.5.4","metadata":{"date":{"year":2025,"month":11,"day":4,"hour":6,"minute":56,"second":51},"loudness":-19.590429306030273,"gain":0.8019157815618508,"name":"RECT RED (4X12 GREENBACK)","modeled_by":"3101gustavoagoliveira","gear_type":"amp","gear_make":"tz-make","gear_model":"tz-model","tone_type":"overdrive","input_level_dbu":null,"output_level_dbu":null,"training":{"settings":{"ignore_checks":true},"data":{"latency":{"manual":0,"calibration":{"algorithm_version":1,"delays":[1],"safety_factor":1,"recommended":0,"warnings":{"matches_lookahead":false,"disagreement_too_high":false}}},"checks":{"version":4,"passed":false}},"validation_esr":0.006243228218547263}},"architecture":"WaveNet","config":{"layers":[{"input_size":1,"condition_size":1,"head_size":8,"channels":16,"kernel_size":3,"dilations":[1,2,4,8,16,32,64,128,256,512],"activation":"Tanh","gated":false,"head_bias":false},{"input_size":16,"condition_size":1,"head_size":1,"channels":8,"kernel_size":3,"dilations":[1,2,4,8,16,32,64,128,256,512],"activation":"Tanh","gated":false,"head_bias":true}],"head":null,"head_scale":0.02},"weights":[-0.007242843974381685,0.30110955238342285,-0.5820252299308777,-0.5989761352539062,-0.1967749297618866,0.034904494881629944,-0.0001587627484695986,0.8196360468864441,0.022067595273256302,-0.0010957946069538593,-0.47261157631874084,-0.18723173439502716,-0.8754448890686035,-0.49281901121139526,-0.367768257856369,-0.00459673535078764,0.1596902310848236,0.00018607683887239546,-0.306385338306427,-0.049406539648771286,0.04148051515221596,0.03159811347723007,-0.04112077131867409,0.11962107568979263,0.06478482484817505,0.003387175500392914,0.1437646746635437,-0.04107729345560074,-0.09417586773633957,-0.017496615648269653,0.034677572548389435,0.13539165258407593,-0.08224037289619446,-0.08059090375900269,-0.010505471378564835,-0.13572296500205994,-0.10972928255796432,0.1323917657136917,0.046327803283929825,-0.02964351698756218,0.06785017251968384,-0.03948233649134636,0.0889412984251976,-0.12808622419834137,-0.10052518546581268,-0.11270123720169067,0.0888407975435257,0.10834940522909164,0.04316079616546631,-0.011993967927992344,0.10759364068508148,0.23392978310585022,0.04761465638875961,0.03537319228053093,0.19304507970809937,-0.0951467975974083,0.04038373380899429,-0.019224457442760468,-0.1037813350558281,-0.054402731359004974,0.16604754328727722,0.01717730611562729,-0.04468321055173874,-0.01635187864303589,-0.13535599410533905,-0.1443842649459839,-0.12749096751213074,-0.049762070178985596,0.1937950700521469,0.10616876929998398,-0.03536691889166832,-0.16796551644802094,0.08225962519645691,0.19927027821540833,0.01049351692199707,0.1548929512500763,0.10174527019262314,-0.23703187704086304,0.04473090171813965,-0.11854836344718933,-0.04674455150961876,0.09268369525671005,0.06975559890270233,-0.07354681938886642,0.10270046442747116,-0.1071917861700058,0.09432008117437363,-0.09297690540552139,0.07510130852460861,-0.19977335631847382,0.052373144775629044,0.001863853889517486,0.15826743841171265,-0.0158015675842762,-0.06427594274282455,-0.22725479304790497,0.09121163189411163,0.0927266925573349,-0.23511731624603271,-0.06552813947200775,0.21707303822040558,-0.019667508080601692,-0.03644397854804993,0.04295877367258072,-0.24796730279922485,0.026524456217885017,-0.034766655415296555,-0.22771140933036804,0.013258878141641617,0.0495494119822979,-0.09884031116962433,0.03207974135875702,-0.020355695858597755,0.16009297966957092,0.03714687377214432,-0.15982776880264282,0.03506259247660637,-0.1400505155324936,0.05374821275472641,-0.045553918927907944,0.1974954605102539,0.047611385583877563,-0.14317035675048828,0.21637949347496033,-0.08238024264574051,-0.1387011706829071,0.12291509658098221,-0.11795057356357574,0.011778086423873901,-0.23765723407268524,-0.10484442859888077,-0.0532260462641716,-0.14583627879619598,-0.043213170021772385,0.18016649782657623,-0.1636045277118683,0.10072068125009537,-0.00011647838255157694,0.181882843375206,0.032839223742485046,0.16380639374256134,-0.05567992106080055,0.18625420331954956,-0.07675599306821823,0.03573591634631157,-0.011760781519114971,0.039502520114183426,0.15817657113075256,-0.03697037696838379,-0.18894599378108978,0.010707559995353222,-0.08047051727771759,-0.09864840656518936,0.22919093072414398,0.12495223432779312,-0.20664964616298676,0.24678273499011993,-0.23496423661708832,-0.07367723435163498,-0.13676656782627106,-0.005780661012977362,0.004960845690220594,-0.07743970304727554,-0.16273783147335052,-0.10752548277378082,0.1321820318698883,-0.020745906978845596,0.14882513880729675,-0.25367671251296997,0.03053019940853119,0.21520942449569702,-0.18781794607639313,0.1512938141822815,0.12192664295434952,-0.2707192301750183,0.06534473598003387,-0.10738640278577805,0.041423600167036057,0.033662084490060806,-0.15402080118656158,-0.13039009273052216,-0.0741526409983635,0.0115900794044137,0.17029500007629395,0.08615639060735703,0.09407737106084824,-0.17791308462619781,-0.05033120512962341,-0.1821088343858719,0.20202170312404633,0.14724135398864746,0.17885832488536835,-0.24883757531642914,0.02285097725689411,-0.032251786440610886,-0.2274191975593567,-0.038305800408124924,0.14354078471660614,-0.21268825232982635,0.033965568989515305,0.09113861620426178,-0.03820103034377098,-0.07695014029741287,-0.015401425771415234,-0.22134923934936523,0.027212830260396004,-0.19192996621131897,0.006026056129485369,-0.06811860203742981,-0.08103734254837036,0.019309746101498604,-0.0917683020234108,-0.0685519278049469,0.03046077862381935,0.07520966231822968,0.12004359811544418,-0.163289874792099,-0.007044065278023481,0.2098858505487442,-0.17552441358566284,0.04137193784117699,0.2202204465866089,-0.016114788129925728,-0.04851621761918068,-0.2074914127588272,0.10713021457195282,0.03524722158908844,0.0669725090265274,0.015446215867996216,-0.09307746589183807,-0.09507569670677185,0.1781075894832611,0.03305194154381752,0.16047486662864685,0.0007707952172495425,-0.12618157267570496,0.01356454100459814,-0.030521586537361145,0.0009639529162086546,0.13123498857021332,-0.02335023693740368,0.15602104365825653,0.028380831703543663,-0.07374069094657898,0.1472875326871872,-0.04149329289793968,0.04766365513205528,-0.05299320071935654,0.09257693588733673,-0.08453336358070374,-0.014010551385581493,0.1064271554350853,0.05258290469646454,0.008732235059142113,-0.06442608684301376,-0.022220009937882423,-0.13522234559059143,0.07806027680635452,-0.01932813972234726,-0.04410409554839134,-0.10713658481836319,-0.0376213975250721,0.024856427684426308,0.1360110491514206,0.17593008279800415,-0.0993511974811554,-0.012557216919958591,0.16684256494045258,0.07857590168714523,0.07219353318214417,0.05562613904476166,-0.05644877627491951,-0.15534979104995728,-0.07416409254074097,0.04768223688006401,-0.08056323975324631,0.227598637342453,-0.03930046409368515,-0.044250618666410446,-0.08544107526540756,-0.025862649083137512,-0.06975971162319183,-0.02311779372394085,0.15899476408958435,0.027877988293766975,0.05238872766494751,-0.09521451592445374,0.08283808827400208,0.10822510719299316,-0.03565046936273575,-0.045762576162815094,0.18809333443641663,-0.008889859542250633,0.022911373525857925,0.09245288372039795,-0.13834083080291748,0.1272534430027008,0.016457749530673027,0.014511173591017723,-0.018028588965535164,0.061478763818740845,0.010807997547090054,-0.03289412707090378,0.07550028711557388,-0.03980148956179619,-0.17142333090305328,-0.09213734418153763,0.11705751717090607,0.06555674970149994,-0.18615354597568512,-0.18625906109809875,-0.042615313082933426,0.20981919765472412,-0.11383729428052902,0.0412573516368866,0.2611057460308075,-0.12259882688522339,-0.0016554038738831878,0.2278050035238266,0.043455205857753754,0.01514360774308443,-0.12807375192642212,-0.09466493129730225,0.018309680745005608,0.12552443146705627,0.1942472755908966,0.09992706030607224,-0.14833475649356842,0.0391337089240551,-0.06325745582580566,0.015044172294437885,-0.09590527415275574,0.13498619198799133,-0.058301892131567,-0.15687385201454163,0.04899471998214722,0.28823214769363403,0.104409359395504,0.12928026914596558,0.2905454933643341,-0.09877269715070724,-0.06790612637996674,0.28325170278549194,0.022606931626796722,-0.09833937883377075,0.29549893736839294,0.014933071099221706,0.06979064643383026,0.08185136318206787,0.001890866318717599,-0.07613275200128555,0.10038577020168304,0.02623838372528553,0.06316819041967392,0.01152111403644085,0.14054466784000397,0.12228087335824966,0.01216410007327795,-0.194045752286911,-0.15689417719841003,-0.05387543886899948,-0.2287222295999527,-0.2971826493740082,0.16392169892787933,0.00493982620537281,-0.031061675399541855,0.17311589419841766,-0.05353188514709473,0.07477010786533356,-0.07137130945920944,-0.03241848945617676,0.18397580087184906,0.08615455776453018,0.01967770792543888,0.046730007976293564,-0.1309865415096283,0.026809725910425186,-0.07973787188529968,0.12432736158370972,0.1684207171201706,0.2719632685184479,-0.104159414768219,-0.020416410639882088,-0.05493806302547455,0.1047624871134758,0.07436183840036392,-0.0932040810585022,0.15404987335205078,-0.14359566569328308,-0.12023226916790009,0.06268790364265442,-0.11722877621650696,-0.2577398717403412,-0.028390459716320038,-0.19302314519882202,-0.08327309787273407,0.15712597966194153,-0.07335551828145981,-0.08492344617843628,-0.004103858023881912,0.07782449573278427,-0.02875922992825508,-0.16960032284259796,0.15953853726387024,0.14255763590335846,-0.2041184902191162,0.10395890474319458,0.017404401674866676,0.03652730584144592,0.05235043540596962,-0.16874971985816956,0.07112176716327667,0.10979683697223663,-0.0649074837565422,0.00017450327868573368,-0.04574175551533699,0.028553130105137825,-0.10638566315174103,0.012462140992283821,0.10848826915025711,0.014177876524627209,-0.055956341326236725,0.098025843501091,-0.02542898617684841,0.09310872852802277,-0.15598689019680023,0.08423469215631485,-0.11248858273029327,-0.016829635947942734,-0.044788893312215805,-0.12895020842552185,-0.03056873008608818,0.22956307232379913,-0.0020423533860594034,-0.16890431940555573,0.05427524819970131,-0.0029646039474755526,-0.2026951164007187,0.16298933327198029,-0.15656554698944092,-0.22226378321647644,-0.04472413659095764,-0.04974813014268875,0.016585903242230415,-0.03307497128844261,0.024545704945921898,-0.07872916013002396,0.007334673311561346,-0.014087739400565624,-0.12775278091430664,0.14393764734268188,0.22165067493915558,0.111934132874012,-0.008216768503189087,-0.24224939942359924,0.15088269114494324,0.08778420835733414,-0.07910763472318649,-0.08378486335277557,0.03764541819691658,-0.28176847100257874,-0.02600250206887722,0.10504796355962753,-0.009966649115085602,0.027829740196466446,0.018880652263760567,0.09410537779331207,-0.064006507396698,-0.02803465537726879,0.10838428884744644,0.03222808614373207,0.06245250999927521,0.047094520181417465,0.07405669242143631,0.14208386838436127,-0.027939293533563614,-0.1281924694776535,0.03540382906794548,-0.2302408367395401,0.11241041868925095,-0.011658098548650742,-0.2002810686826706,-0.07628105580806732,0.16482923924922943,-0.16677948832511902,0.14140595495700836,0.16886258125305176,-0.06623304635286331,0.03511415794491768,0.03406782075762749,-0.17834676802158356,0.0489889532327652,0.15273955464363098,-0.06367017328739166,0.11802227050065994,0.014737816527485847,-0.03539106994867325,-0.051173340529203415,0.02185230329632759,0.20283834636211395,-0.034316763281822205,0.037269800901412964,-0.015353409573435783,-0.033055759966373444,0.16952088475227356,-0.15639600157737732,-0.0630308985710144,0.11584208160638809,-0.10868917405605316,-0.04829985275864601,0.022133944556117058,0.16676223278045654,0.0663638561964035,-0.08447239547967911,-0.09322894364595413,0.015358866192400455,-0.0038019416388124228,0.09391656517982483,0.19569240510463715,-0.07120983302593231,-0.015605022199451923,-0.1308775693178177,0.12060268968343735,-0.03703630715608597,0.005448330659419298,-0.1313866823911667,0.06061713770031929,-0.14498621225357056,0.06656893342733383,-0.13157905638217926,0.05062487721443176,0.21044056117534637,-0.19137847423553467,-0.2303643524646759,-0.054670549929142,-0.07789616286754608,-0.14276078343391418,-0.03639817237854004,-0.12658095359802246,-0.07767216861248016,-0.013398253358900547,0.14786866307258606,0.10494831949472427,0.0274218637496233,-0.013326326385140419,0.13450494408607483,-0.03675161674618721,0.08460124582052231,-0.19248411059379578,0.17689400911331177,-0.21321092545986176,0.008650491014122963,0.1101679652929306,-0.17005836963653564,0.1725364774465561,-0.05125981196761131,-0.11361783742904663,0.0988333597779274,0.04403455927968025,0.06704622507095337,-0.2610521912574768,-0.06537429988384247,-0.10890161246061325,0.009659848175942898,-0.19456228613853455,0.21860025823116302,-0.17916500568389893,0.014706947840750217,0.023205839097499847,0.15361039340496063,0.07328356057405472,0.15082749724388123,-0.1366148442029953,-0.04690750315785408,-0.09712475538253784,0.2746874690055847,-0.09265903383493423,-0.2024127095937729,0.2128462791442871,0.11690874397754669,-0.12304408848285675,0.026890873908996582,-0.16961953043937683,-0.04341573268175125,0.12931174039840698,-0.11172375082969666,-0.053182702511548996,0.19773267209529877,0.07794132083654404,0.10845603048801422,-0.1244569644331932,-0.17755386233329773,-0.26782190799713135,0.0446949228644371,0.007693998981267214,0.09598198533058167,-0.1575908064842224,0.0697474256157875,0.0944671556353569,0.15288998186588287,-0.06485190987586975,-0.09275417774915695,-0.07250592112541199,0.19595101475715637,-0.09738296270370483,-0.03866021707653999,0.13651378452777863,-0.015084588900208473,-0.0848063975572586,-0.0681944414973259,-0.1458325833082199,-0.1756465584039688,0.037229713052511215,-0.027096889913082123,0.024606669321656227,0.06364353746175766,0.012236209586262703,-0.012097916565835476,0.17723657190799713,0.026388410478830338,-0.11618416011333466,0.036184947937726974,0.003669477067887783,-0.11495444923639297,0.02510683611035347,-0.12710721790790558,0.15826883912086487,0.041536666452884674,-0.170146644115448,0.01611882448196411,0.1504318118095398,0.00045910695916973054,0.07521433383226395,0.07478039711713791,0.01625695265829563,-0.008020100183784962,0.004643494263291359,-0.09605953842401505,-0.15848533809185028,-0.030126838013529778,-0.018143730238080025,0.08102075755596161,0.13632328808307648,-0.0021805278956890106,-0.1841488480567932,0.2799960970878601,-0.06621145457029343,0.2167711853981018,-0.2516917586326599,-0.02071995474398136,0.1724676936864853,-0.19953621923923492,0.11875548213720322,-0.022873032838106155,-0.2710736095905304,-0.06350395828485489,-0.06002527475357056,0.2560703754425049,-0.07112296670675278,0.10617364197969437,-0.04798359051346779,-0.04917505756020546,0.008575765416026115,0.02913787215948105,0.00469340430572629,0.1841866374015808,-0.1476816087961197,0.10183785855770111,-0.1249743402004242,0.2315513640642166,-0.13050825893878937,0.06849388778209686,-0.179742231965065,0.039175670593976974,0.13222427666187286,-0.04662177711725235,-0.0020763834472745657,0.09402623027563095,-0.03920143097639084,-0.027171792462468147,0.21799017488956451,-0.237314373254776,-0.009910893626511097,0.08054015785455704,-0.08462715893983841,-0.011197369545698166,-0.20942842960357666,-0.2907520532608032,0.08474946022033691,0.0285296943038702,-0.08690515905618668,-0.04365723207592964,0.18052193522453308,0.03704771026968956,-0.047154124826192856,-0.23928648233413696,0.1882619559764862,-0.1581113040447235,-0.06198268011212349,0.114562027156353,-0.10313121974468231,-0.02973288670182228,-0.028198374435305595,0.05194038152694702,-0.026869209483265877,-0.12058153748512268,-0.08826582878828049,-0.009389473125338554,-0.08746325224637985,0.1482245922088623,0.08143455535173416,-0.162184938788414,-0.11851625144481659,-0.1699294149875641,0.2837846875190735,-0.003301512449979782,0.07891379296779633,-0.05049611255526543,0.052237413823604584,0.031271565705537796,0.22398154437541962,-0.133165180683136,-0.0963321104645729,0.031559284776449203,-0.13924498856067657,-0.06677023321390152,0.2280288189649582,-0.1638106256723404,-0.004167802166193724,0.021042287349700928,-0.07214243710041046,0.02505350299179554,0.07266411930322647,-0.20104913413524628,-0.2880770266056061,-0.147274449467659,0.0307218786329031,-0.028330586850643158,0.21340443193912506,-0.07394861429929733,-0.07024936378002167,-0.06958833336830139,0.0822695717215538,-0.09010284394025803,0.1458408087491989,0.09284039586782455,0.046482838690280914,0.00133149151224643,-0.043381042778491974,-0.09296782314777374,-0.03503095358610153,0.022941770032048225,0.15883934497833252,0.03715408220887184,0.11812610179185867,0.15171635150909424,0.16857288777828217,0.13835525512695312,-0.010922382585704327,-0.18066824972629547,0.018353460356593132,0.013235250487923622,-0.04033152759075165,0.14862889051437378,0.1102902814745903,-0.1681944727897644,-0.059154361486434937,0.06990213692188263,-0.02523765154182911,-0.06449725478887558,0.0034739028196781874,-0.04101831465959549,0.04656457528471947,0.023404041305184364,0.1666530966758728,-0.121317557990551,0.09662193804979324,-0.009652663953602314,0.11988808214664459,-0.18499325215816498,-0.04850945994257927,0.08878937363624573,0.07827674597501755,-0.017244644463062286,0.007636094931513071,-0.0526094026863575,-0.017199724912643433,-0.13213665783405304,-0.011245042085647583,0.009064394049346447,-0.007097494322806597,0.018157057464122772,0.02358184941112995,0.14159342646598816,-0.04099060222506523,0.04495081678032875,-0.007031270768493414,-0.02138257771730423,-0.015962136909365654,0.000031045765354065225,0.3488706946372986,-0.45617780089378357,0.6586928367614746,-0.5835587978363037,0.050886135548353195,0.7795106172561646,0.8367817997932434,-0.6174275279045105,0.09294430911540985,0.0432470366358757,-0.5152920484542847,-0.30336445569992065,0.214192196726799,-0.5644943714141846,0.0822681114077568,0.35466599464416504,-0.17004242539405823,0.17323361337184906,0.04766957834362984,0.08330591022968292,0.15518160164356232,-0.08129742741584778,0.09671898186206818,-0.07912253588438034,0.01071872841566801,0.025995943695306778,0.0938427746295929,-0.2440531700849533,-0.014951089397072792,-0.03849512338638306,0.17693369090557098,-0.00891697034239769,-0.14010657370090485,-0.03184919431805611,-0.31185752153396606,0.08372729271650314,0.15491674840450287,-0.2104860097169876,-0.3049022853374481,0.33938437700271606,-0.08547480404376984,0.105313740670681,0.033039383590221405,-0.005259386263787746,-0.18608389794826508,0.02089657261967659,-0.008322601206600666,-0.011754061095416546,0.0557069405913353,-0.0099650202319026,0.18807359039783478,0.13312678039073944,-0.16801109910011292,0.04335106536746025,0.14055919647216797,-0.04215215891599655,0.07479706406593323,-0.10826046019792557,0.27104824781417847,-0.20178107917308807,0.07731129974126816,0.1153472438454628,0.08371515572071075,0.016706908121705055,0.12744925916194916,-0.263324111700058,0.078529953956604,-0.2501314580440521,-0.0545181967318058,0.31025204062461853,0.16522644460201263,-0.23103560507297516,-0.0719122514128685,0.19529631733894348,-0.10930290818214417,-0.07614041864871979,0.12665604054927826,0.08992002159357071,-0.10279606282711029,-0.006289408542215824,-0.09243910014629364,-0.36275559663772583,-0.21943382918834686,0.12978433072566986,0.1219768226146698,0.22025951743125916,0.25529977679252625,0.088866226375103,0.07855365425348282,0.3996741771697998,-0.018494263291358948,0.4792259633541107,0.048182155936956406,0.12749063968658447,0.017753832042217255,0.007723360788077116,-0.13474392890930176,0.02516978606581688,0.12919948995113373,-0.024354875087738037,0.03579805791378021,0.1044730469584465,0.28568893671035767,0.21999092400074005,0.20640628039836884,0.0023586207535117865,-0.09007660299539566,-0.13645409047603607,0.014003347605466843,-0.18586525321006775,0.20251399278640747,-0.0041818381287157536,0.10232459753751755,0.08833973109722137,0.20386356115341187,0.193549245595932,-0.16550995409488678,-0.19858016073703766,0.10898605734109879,-0.08854793757200241,0.041273243725299835,-0.2587771713733673,-0.13384635746479034,0.2111445665359497,0.2564712166786194,-0.15190942585468292,0.024265792220830917,0.015885239467024803,0.07844915241003036,0.06931985169649124,0.25120633840560913,-0.2914201617240906,-0.3327159285545349,0.06606023013591766,0.27963536977767944,0.21541503071784973,0.1616002470254898,-0.13408276438713074,0.32500964403152466,-0.048760563135147095,0.05019914731383324,-0.1573866754770279,0.040310781449079514,-0.01350205298513174,-0.06522353738546371,0.05034724622964859,-0.1882498562335968,-0.1583525836467743,0.11091641336679459,-0.11824372410774231,-0.2105620950460434,0.18426601588726044,-0.22559818625450134,-0.24645783007144928,0.26119592785835266,0.06296174228191376,-0.08231665939092636,-0.08326280862092972,0.05890611186623573,-0.04347509145736694,-0.20338185131549835,-0.005123738199472427,0.03713114559650421,-0.21594437956809998,-0.105613574385643,-0.020071689039468765,0.013737360946834087,-0.05408149212598801,-0.01819966733455658,0.17162956297397614,0.04050682112574577,0.007019883021712303,-0.07763687521219254,0.23232296109199524,-0.25115033984184265,-0.06559646874666214,0.015603626146912575,0.30950596928596497,-0.31322619318962097,0.23061704635620117,0.04525633156299591,-0.23561537265777588,-0.07629679143428802,0.05150341987609863,-0.06280112266540527,-0.28194954991340637,-0.2024921029806137,0.08237431198358536,-0.0682346373796463,0.2356993556022644,-0.06914135068655014,-0.0251622274518013,-0.046208158135414124,-0.020536527037620544,0.10682252794504166,0.042669400572776794,0.1729194074869156,-0.03255085647106171,-0.13590937852859497,-0.17039231956005096,-0.033586643636226654,-0.2670942544937134,-0.1881672590970993,-0.22922372817993164,-0.08443393558263779,0.16479171812534332,-0.3349885940551758,-0.04031842574477196,0.11364399641752243,-0.11240706592798233,0.18592067062854767,0.06463992595672607,-0.0007271930226124823,0.006492601241916418,0.02935286983847618,0.15908238291740417,0.2190539389848709,-0.0771663635969162,-0.052373889833688736,0.035499900579452515,0.12758752703666687,-0.21093368530273438,-0.07822180539369583,0.05512167513370514,0.011407779529690742,-0.22318212687969208,0.05852755904197693,0.14624187350273132,-0.08791881054639816,0.2994704842567444,0.2303103357553482,-0.039851751178503036,0.07369846850633621,-0.10503001511096954,-0.04622036591172218,-0.1805723011493683,-0.05618418753147125,-0.16035689413547516,-0.19040408730506897,0.009514627046883106,-0.013107376173138618,0.2112230360507965,-0.08328362554311752,-0.02181077189743519,0.2231113314628601,0.10230107605457306,0.03851664066314697,0.1030321717262268,-0.29902204871177673,0.010315828956663609,-0.12968845665454865,-0.020520413294434547,0.0184603501111269,0.23766276240348816,-0.3134520351886749,-0.035326406359672546,0.1438327580690384,-0.024449722841382027,0.19313962757587433,-0.14582905173301697,-0.16373620927333832,0.252524197101593,0.1452946960926056,0.14048464596271515,-0.08006296306848526,-0.01616690121591091,-0.013431351631879807,0.0019061857601627707,-0.009167253039777279,0.1370454579591751,0.08363716304302216,-0.0023640687577426434,0.0685083270072937,-0.037257228046655655,0.12322882562875748,-0.11579359322786331,-0.10228180140256882,-0.04665293172001839,0.05598793923854828,-0.004329097922891378,-0.013882853090763092,-0.05415850505232811,0.08381574600934982,0.020282389596104622,0.014196756295859814,0.08437514305114746,0.0522550530731678,0.029234861955046654,0.138713538646698,0.023995570838451385,-0.026019949465990067,0.11909161508083344,-0.17838460206985474,0.06804558634757996,-0.09254852682352066,-0.12092950940132141,-0.051237549632787704,-0.1802719086408615,0.0362495556473732,-0.013674144633114338,-0.19837182760238647,-0.25936880707740784,0.0029092507902532816,0.08449799567461014,-0.04322826862335205,0.10542318224906921,-0.009838871657848358,-0.027510076761245728,0.08766967803239822,0.050957582890987396,0.027322521433234215,-0.1545192450284958,-0.11696767807006836,0.006971401162445545,-0.027994446456432343,-0.1382632553577423,-0.013310287147760391,-0.08095797151327133,-0.13338276743888855,-0.06813166290521622,0.045171454548835754,-0.12356000393629074,-0.03017905354499817,0.07968143373727798,-0.18640749156475067,-0.06920800358057022,-0.10308843851089478,-0.16963684558868408,0.059005580842494965,-0.10029030591249466,-0.12100642174482346,0.02663598395884037,0.07384900748729706,0.06045316532254219,-0.06725650280714035,-0.2310684621334076,0.11072691529989243,0.09306816011667252,0.35101979970932007,-0.17024357616901398,-0.01962762326002121,0.06381118297576904,0.1412326842546463,0.17151674628257751,0.24403710663318634,-0.24840354919433594,-0.06603939086198807,-0.17328517138957977,0.05008535832166672,-0.4702158272266388,0.17286275327205658,-0.2250116914510727,0.00478241965174675,-0.030619334429502487,0.27507439255714417,-0.09190284460783005,0.21558575332164764,-0.15618222951889038,-0.016516361385583878,-0.02647634781897068,0.12727488577365875,0.04583645612001419,-0.07737859338521957,0.12378546595573425,-0.0029834487941116095,-0.2576925456523895,0.31880301237106323,0.029588352888822556,-0.004204800818115473,0.09184274077415466,-0.007807744666934013,0.15955260396003723,0.19500617682933807,0.05826343595981598,-0.017422471195459366,0.12005697190761566,0.047995809465646744,-0.00645380187779665,0.2554982900619507,-0.0309859998524189,-0.00001563940168125555,-0.1657634824514389,0.2872743010520935,-0.046432703733444214,-0.06540552526712418,-0.06410302966833115,-0.08754441887140274,0.2292502373456955,0.18933452665805817,-0.1273084580898285,-0.08737034350633621,0.035814184695482254,0.06426488608121872,0.08544889092445374,-0.044238340109586716,-0.0008123359875753522,0.1900096833705902,-0.1333896964788437,0.10203417390584946,0.05088413879275322,0.08066762983798981,0.022774523124098778,0.0537269301712513,-0.12559136748313904,-0.052517879754304886,0.050563983619213104,-0.05008470639586449,-0.027803294360637665,-0.08449066430330276,-0.06813697516918182,0.08748825639486313,-0.021903039887547493,0.16747839748859406,-0.10618860274553299,-0.22905562818050385,-0.1450614631175995,0.2363380640745163,0.0044830795377492905,-0.07412943989038467,0.2687964141368866,-0.0043901135213673115,0.01907682977616787,0.024907773360610008,-0.13364636898040771,-0.055732883512973785,0.16987282037734985,-0.19288943707942963,0.04802120476961136,0.24213087558746338,-0.024503666907548904,0.1355152428150177,-0.07313374429941177,-0.13878443837165833,0.0968463197350502,-0.3767058253288269,0.019752467051148415,-0.10716841369867325,-0.09521667659282684,0.03932516649365425,-0.0964149609208107,-0.3383691608905792,-0.03532933443784714,-0.09464681148529053,0.0014621587470173836,0.2104954719543457,-0.5741106867790222,-0.09057936072349548,0.05373284965753555,0.16899795830249786,-0.04299154505133629,-0.14667604863643646,0.3745988607406616,0.03716812655329704,-0.06575954705476761,0.13387052714824677,0.023119894787669182,0.10258965939283371,-0.20538094639778137,-0.08639286458492279,0.06865644454956055,-0.15983639657497406,-0.1598537415266037,-0.04342044144868851,-0.1909061074256897,-0.016975101083517075,-0.17548726499080658,0.08015172928571701,0.3075995445251465,0.06501021236181259,0.18044784665107727,-0.10527365654706955,-0.09011533111333847,-0.14813540875911713,-0.003336057299748063,-0.13662295043468475,-0.1108950600028038,0.10361014306545258,0.0966688022017479,0.12055712193250656,-0.04937373846769333,-0.07401981204748154,0.056830860674381256,-0.03171350806951523,0.11221595108509064,0.10585026443004608,-0.006145274732261896,-0.08563537895679474,0.025636672973632812,0.07006882131099701,-0.1449468731880188,-0.04053151607513428,0.10302712768316269,0.04312262684106827,-0.31808096170425415,-0.11156144738197327,-0.07341626286506653,0.11614220589399338,-0.19270636141300201,0.039230119436979294,-0.09727507084608078,0.04278922826051712,0.10549638420343399,0.20413917303085327,-0.02921975590288639,0.0767589807510376,0.04938719421625137,0.1730370670557022,-0.11090655624866486,-0.08750201761722565,0.00507356459274888,0.08113212138414383,-0.08730786293745041,0.17757932841777802,-0.1685224026441574,0.010873508639633656,0.23247753083705902,-0.2250629961490631,-0.1534557342529297,0.22614023089408875,-0.0548342727124691,-0.05216728523373604,0.12364725768566132,-0.06829792261123657,-0.16393400728702545,0.0640745609998703,0.12236613780260086,0.024934230372309685,-0.254570335149765,-0.09953098744153976,-0.10037745535373688,-0.18624933063983917,-0.12927961349487305,0.14563174545764923,-0.042587269097566605,-0.26283156871795654,-0.18818071484565735,-0.11745672672986984,0.04507305473089218,0.03303558751940727,0.12906835973262787,-0.11442800611257553,0.30275723338127136,-0.0281654205173254,0.07615196704864502,-0.09584324061870575,0.03345348313450813,0.057872042059898376,-0.18974384665489197,-0.11041174083948135,0.25314438343048096,-0.07066193968057632,0.1424361914396286,-0.12160622328519821,0.10145650804042816,0.018742041662335396,0.29427799582481384,0.13147249817848206,0.14402882754802704,-0.08901452273130417,0.04641437530517578,0.10822165757417679,0.07370618730783463,-0.10596122592687607,0.16133734583854675,-0.17308728396892548,0.03632872551679611,0.058511409908533096,-0.15018627047538757,-0.15233226120471954,0.16427315771579742,-0.22054274380207062,0.07904811203479767,-0.12428808957338333,0.009601276367902756,-0.021683188155293465,-0.081729955971241,-0.06360277533531189,0.06204058974981308,-0.008199948817491531,0.06361161917448044,0.07812827825546265,-0.05736200883984566,-0.010579939000308514,-0.06647354364395142,0.023329680785536766,0.18931259214878082,0.22707344591617584,0.07746899127960205,0.0049729123711586,0.007148988079279661,0.1452142596244812,0.18667568266391754,0.022708825767040253,0.14939360320568085,0.1541772186756134,0.091981902718544,0.1496182084083557,-0.12114869803190231,0.009933320805430412,0.06378118693828583,0.18493644893169403,-0.1369057148694992,-0.2938845753669739,0.056841861456632614,-0.10674303025007248,-0.060907743871212006,0.12135033309459686,-0.0443347692489624,-0.07298630475997925,-0.14696051180362701,0.19123415648937225,-0.0901179164648056,0.23407605290412903,0.10288463532924652,0.027052275836467743,-0.012980490922927856,0.09835976362228394,-0.26691126823425293,-0.10551979392766953,-0.0038551895413547754,-0.19531461596488953,-0.040829889476299286,-0.042936477810144424,0.141868457198143,-0.16340921819210052,-0.04195985198020935,-0.12610465288162231,0.2020876705646515,-0.034147683531045914,-0.04664530232548714,-0.16390356421470642,-0.02861359901726246,-0.011930814944207668,-0.09793207794427872,-0.08036642521619797,0.011838402599096298,-0.09514694660902023,-0.4027552604675293,-0.1368042677640915,0.0915742889046669,-0.026679228991270065,-0.06398672610521317,-0.13903148472309113,-0.15859435498714447,-0.07123083621263504,0.02760174684226513,0.007206043694168329,-0.02822033129632473,0.024315565824508667,-0.12748461961746216,0.11242666095495224,0.17405709624290466,0.1965528279542923,0.004644575994461775,0.1040552631020546,-0.14541472494602203,-0.02440929226577282,-0.06942439079284668,-0.07722621411085129,0.06735803931951523,-0.10960514843463898,-0.0214375089854002,-0.14405308663845062,-0.21406956017017365,-0.04378378018736839,-0.12125765532255173,0.08938968181610107,0.016979655250906944,0.1214701384305954,-0.16183049976825714,-0.009516079910099506,-0.13988204300403595,0.1956009864807129,0.11603809148073196,0.1590707004070282,-0.1122407540678978,-0.04585054889321327,-0.028767138719558716,-0.04168320819735527,-0.043697863817214966,0.3066158592700958,0.09915955364704132,0.039196986705064774,-0.206106498837471,0.0352444089949131,0.5645819306373596,-0.012026403099298477,-0.14990828931331635,0.036459799855947495,-0.09645292162895203,0.12163132429122925,-0.06365788727998734,0.15007071197032928,-0.017073296010494232,-0.12447816878557205,-0.044262636452913284,-0.2736818194389343,-0.07811691612005234,0.4258231222629547,-0.0027961810119450092,0.14322488009929657,0.04118923470377922,-0.04892541840672493,-0.01934296451508999,0.11362719535827637,0.0950147956609726,-0.08221344649791718,0.14288347959518433,-0.2929621636867523,-0.009510300122201443,0.1842331439256668,-0.04934294894337654,-0.11394995450973511,-0.1324913054704666,-0.10349898785352707,-0.08330472558736801,0.21159082651138306,-0.05076329782605171,-0.15777435898780823,-0.290627658367157,0.20973218977451324,0.08605930209159851,-0.030398841947317123,-0.08794461190700531,0.04144681617617607,0.09871672093868256,-0.029294373467564583,0.07291404157876968,-0.03238566592335701,-0.19031812250614166,0.013391470536589622,-0.03392024710774422,0.03466302156448364,-0.16276668012142181,-0.0051025808788836,-0.10270971059799194,0.053498487919569016,0.14865659177303314,0.08696460723876953,-0.1576441526412964,-0.06103884056210518,-0.25053632259368896,0.0788571760058403,0.247926265001297,0.1331847608089447,0.08526324480772018,-0.22906388342380524,-0.1141682043671608,-0.0529707670211792,0.01436289306730032,0.05797700956463814,-0.04524268954992294,-0.06984701007604599,0.15928329527378082,-0.07511797547340393,-0.12501339614391327,0.08238030225038528,-0.050015393644571304,-0.14820724725723267,-0.08535727858543396,-0.011696901172399521,-0.03136270493268967,0.0512678325176239,-0.16205713152885437,-0.09628786146640778,-0.09696429967880249,0.1110345646739006,0.10393443703651428,-0.21982857584953308,0.04249606281518936,-0.11289379745721817,-0.19609417021274567,0.11373400688171387,-0.1795687973499298,-0.03320886939764023,0.045467063784599304,0.04279519245028496,0.007591667119413614,0.00439706165343523,0.13271234929561615,-0.010382704436779022,0.012622548267245293,-0.26392796635627747,0.01461336575448513,0.0858708843588829,-0.02235405519604683,-0.014759627170860767,0.19662757217884064,0.2921905815601349,-0.07994437217712402,0.08874715864658356,0.17874129116535187,-0.02856621704995632,0.038884542882442474,-0.02711583487689495,0.0015049281064420938,-0.20205684006214142,-0.09259460121393204,0.1475522816181183,-0.04221055284142494,-0.1569693237543106,0.13277122378349304,0.009643427096307278,-0.05538821592926979,0.10265041142702103,0.051201093941926956,-0.07004832476377487,0.1018926277756691,-0.1152641773223877,0.014312106184661388,0.06650955229997635,0.02332083135843277,-0.15180207788944244,-0.030802685767412186,-0.10439543426036835,0.1517954021692276,0.0712987631559372,0.07847528904676437,-0.1066502258181572,0.05458437278866768,-0.11295153200626373,-0.26833581924438477,-0.13578616082668304,0.10774748772382736,-0.016136782243847847,0.014420295134186745,0.062204718589782715,0.04396229609847069,0.13772733509540558,-0.1466589868068695,-0.38087230920791626,0.050985898822546005,0.15063250064849854,-0.021457945927977562,-0.04775027185678482,-0.0013667007442563772,0.18978874385356903,0.21245788037776947,0.18834969401359558,0.027462363243103027,0.10828757286071777,-0.10191874951124191,-0.09147889912128448,-0.253676176071167,-0.04455773904919624,-0.2044506072998047,-0.15458281338214874,0.027803881093859673,-0.03471260517835617,-0.19795885682106018,0.11065789312124252,0.19850026071071625,-0.12122488766908646,-0.06936110556125641,-0.01679152622818947,0.030153632164001465,0.04169013351202011,-0.01258771400898695,0.00532359816133976,-0.023744504898786545,-0.11813623458147049,-0.09622618556022644,0.007574995514005423,-0.09054974466562271,-0.02506348118185997,-0.02523161843419075,-0.11927608400583267,0.12346633523702621,0.1910337209701538,0.07132474333047867,0.1578609198331833,0.17156219482421875,-0.08147169649600983,-0.04341980069875717,0.020471496507525444,-0.018164867535233498,0.05124019831418991,0.0654280036687851,0.0023921369574964046,-0.06548047810792923,-0.1209769994020462,0.16196447610855103,-0.033762238919734955,-0.22740839421749115,-0.11608878523111343,-0.18543018400669098,-0.13289996981620789,0.14457809925079346,0.0063752722926437855,0.12947669625282288,-0.014983169734477997,-0.011026294901967049,0.06600780785083771,-0.12647239863872528,0.20648923516273499,0.17362616956233978,-0.05099128931760788,0.14899882674217224,-0.2264169454574585,-0.13794776797294617,0.14836879074573517,-0.04687448963522911,0.03555523231625557,-0.023916305974125862,-0.08535631746053696,-0.17560994625091553,0.14521177113056183,-0.035888127982616425,-0.10448334366083145,0.0524410642683506,0.13906778395175934,0.17834825813770294,-0.05231698602437973,0.06875301897525787,0.07860106974840164,0.008048978634178638,-0.09273064136505127,-0.02391793392598629,0.02379077859222889,-0.09816556423902512,0.1153101697564125,-0.07526419311761856,-0.032911207526922226,0.052104730159044266,-0.04801671579480171,-0.2069350630044937,0.20281749963760376,0.011227237991988659,0.12232108414173126,-0.19165880978107452,-0.0021392765920609236,0.20972475409507751,0.0654742643237114,0.2296116054058075,0.14970454573631287,-0.1635391116142273,-0.04190042242407799,-0.10768318921327591,0.18938706815242767,0.0022018880117684603,-0.14128805696964264,0.03041156753897667,-0.15096676349639893,-0.07109769433736801,0.07653822004795074,-0.1400492787361145,0.024631835520267487,0.07834998518228531,-0.2031499445438385,0.00276379962451756,0.11385804414749146,-0.004141613375395536,0.08864913135766983,-0.08043181896209717,-0.15683241188526154,-0.1408606320619583,-0.008866710588335991,0.025792956352233887,0.007359934970736504,-0.07274129241704941,-0.04718912020325661,0.009299613535404205,-0.010287781246006489,0.028678974136710167,0.07073939591646194,0.027273310348391533,-0.07131423056125641,0.07650654017925262,-0.0018403712892904878,-0.11402155458927155,0.061030611395835876,-0.0977838784456253,-0.07268368452787399,-0.02856287732720375,0.1369451880455017,0.1151774674654007,-0.10015131533145905,-0.07925400137901306,0.16893862187862396,0.17967402935028076,0.20018358528614044,-0.014959529973566532,-0.005241575185209513,-0.11505328118801117,0.11664503812789917,-0.11918836086988449,-0.01996535249054432,-0.19661660492420197,-0.3730969727039337,-0.08686128258705139,-0.0002276392187923193,0.09512406587600708,0.13614818453788757,0.03209612891077995,0.19902433454990387,-0.014465155079960823,0.09781340509653091,0.01000131107866764,0.058981381356716156,-0.12429271638393402,-0.008199544623494148,-0.1776849925518036,-0.1572304368019104,-0.047253333032131195,-0.1555352658033371,0.14460627734661102,-0.011160003021359444,0.029390832409262657,-0.2061672806739807,-0.17860889434814453,-0.08494161814451218,-0.08560686558485031,-0.0901775062084198,0.02224845252931118,-0.08728650212287903,-0.12421631067991257,0.07528257369995117,0.17078091204166412,0.3009543716907501,-0.17533589899539948,0.006419373210519552,0.2430046647787094,-0.18399080634117126,-0.05165064334869385,-0.20455318689346313,0.08926092088222504,0.02741681970655918,-0.12840524315834045,-0.33314773440361023,0.05857414752244949,-0.1685672551393509,0.010119528509676456,-0.24769805371761322,-0.3257041275501251,-0.11138100177049637,0.020601944997906685,0.19985678791999817,0.26394858956336975,-0.03413650393486023,0.06388051062822342,-0.21724624931812286,-0.032627250999212265,0.06096113100647926,-0.086127370595932,-0.1632671058177948,-0.2788594663143158,0.058254871517419815,0.06946245580911636,0.1723783165216446,-0.17391017079353333,-0.01450289599597454,-0.1176438108086586,-0.11151666939258575,0.03406388312578201,0.11404102295637131,0.3174346685409546,0.13092683255672455,0.19803716242313385,-0.017437798902392387,0.14311040937900543,-0.07425638288259506,0.08755338191986084,0.01603436842560768,0.10151715576648712,-0.004385762382298708,-0.01656149886548519,-0.043226901441812515,0.028756212443113327,0.04936933144927025,0.01016386691480875,0.03966978192329407,-0.09666555374860764,-0.18128633499145508,0.2296958714723587,0.3121286630630493,-0.44959819316864014,0.0785834863781929,-0.6297627091407776,-0.3290886878967285,-0.25050869584083557,0.7854905724525452,-0.9429081082344055,-0.4979096055030823,-0.7747493386268616,0.18648989498615265,-0.9403080940246582,0.181337371468544,-0.7430744767189026,-0.05456084385514259,-0.10472647845745087,0.22076524794101715,0.3297796845436096,0.3351841866970062,0.04972656071186066,-0.15517307817935944,0.02857412025332451,-0.14429153501987457,-0.0984589010477066,0.13194163143634796,0.2714988589286804,-0.006076158490031958,0.12415359914302826,-0.1386283040046692,-0.05543731525540352,0.12819641828536987,-0.010317935608327389,-0.24289430677890778,-0.1102687269449234,-0.3873242139816284,0.19266004860401154,0.06603194773197174,-0.05417704954743385,0.02258431911468506,-0.1071559265255928,0.18283964693546295,0.19944898784160614,0.02697419561445713,0.2281685322523117,0.08819618076086044,0.19821763038635254,0.029135843738913536,-0.28780362010002136,0.002984540769830346,0.18792997300624847,0.04913988336920738,0.16707244515419006,0.027820486575365067,0.03185896575450897,-0.0695604756474495,0.06653383374214172,-0.1849949061870575,-0.06471133232116699,-0.11780593544244766,0.07894554734230042,0.10561171174049377,0.05216699093580246,0.004724455997347832,0.018925709649920464,-0.1998915821313858,-0.28746140003204346,-0.29394474625587463,0.08853070437908173,-0.04324019327759743,-0.058498281985521317,0.05586742237210274,-0.03839156776666641,0.04337971657514572,0.14294783771038055,0.23627454042434692,-0.35979220271110535,0.11462194472551346,0.01440666988492012,0.34000837802886963,0.1509391814470291,-0.21488884091377258,-0.1131453737616539,0.22004322707653046,-0.13493165373802185,-0.07993783801794052,0.1659262776374817,-0.011809822171926498,0.09969270974397659,0.06364843249320984,0.22640793025493622,-0.09987770020961761,-0.11621779203414917,-0.2228747308254242,-0.1288210153579712,-0.23162156343460083,-0.031111955642700195,-0.2809385359287262,-0.05241820961236954,0.03217167407274246,-0.2280595749616623,-0.010088685899972916,0.07742989808320999,-0.04135501757264137,0.25703901052474976,0.09213877469301224,-0.10518868267536163,-0.08594363182783127,-0.26807108521461487,0.0012257323833182454,-0.03216616064310074,-0.11503399163484573,-0.08601918816566467,0.11960465461015701,-0.23869720101356506,0.07685933262109756,0.09445770829916,-0.23672400414943695,-0.06189004331827164,0.09742136299610138,0.26416000723838806,-0.08908889442682266,-0.020751334726810455,0.15227989852428436,0.05333694815635681,-0.08209961652755737,0.2631722390651703,0.08848219364881516,0.09758318960666656,0.03699614480137825,0.11039071530103683,0.2090194970369339,-0.11884897202253342,-0.03735503554344177,0.06273992359638214,-0.10283949226140976,0.22769278287887573,-0.17420101165771484,-0.00798419862985611,-0.1665632128715515,0.1451888382434845,0.09508054703474045,0.01815810054540634,-0.09216182678937912,0.15065346658229828,-0.23760734498500824,-0.22981758415699005,-0.27629992365837097,-0.1968483179807663,0.11626806110143661,-0.11371853947639465,0.029782157391309738,0.08858337998390198,0.33236175775527954,-0.0880482867360115,0.045092858374118805,0.11937601119279861,-0.1283973902463913,0.2296862006187439,-0.11411477625370026,-0.05438140779733658,-0.06836219877004623,0.05102681368589401,0.1562926471233368,-0.23037178814411163,0.09534796327352524,-0.04828951880335808,-0.16984331607818604,0.11464490741491318,0.19905157387256622,0.17216897010803223,0.0595749095082283,0.18988782167434692,0.13491040468215942,-0.14267992973327637,-0.137937992811203,-0.12352234125137329,-0.20599807798862457,0.03313789889216423,-0.05264534801244736,-0.08135101199150085,0.062379639595746994,0.005213046912103891,-0.01710887998342514,0.290363609790802,-0.11192967742681503,0.11424464732408524,0.12868455052375793,0.23816139996051788,0.00563594838604331,0.07922301441431046,-0.051274385303258896,0.2421637922525406,-0.2584386169910431,-0.05864492803812027,-0.16827909648418427,-0.2154696136713028,0.07415789365768433,0.08312513679265976,-0.25067028403282166,0.2510688006877899,0.25059664249420166,-0.12267258018255234,0.1037905365228653,-0.08254952728748322,0.02282065525650978,-0.1354840248823166,-0.1346602886915207,-0.3792865574359894,-0.17203523218631744,0.12878195941448212,-0.06165407598018646,-0.08838684111833572,-0.06390756368637085,0.10795293748378754,-0.0755389928817749,-0.13400134444236755,-0.30180129408836365,-0.20121285319328308,0.2916492521762848,-0.39910048246383667,0.09674276411533356,-0.10528574883937836,0.11790932714939117,-0.02015065588057041,-0.12076541781425476,0.22942547500133514,-0.1581464558839798,0.020074836909770966,-0.1419404298067093,0.10919077694416046,0.17997559905052185,0.068473681807518,0.04358387738466263,-0.07553811371326447,0.2221844643354416,0.06308666616678238,-0.01581772230565548,-0.27157190442085266,0.057770807296037674,0.09740384668111801,0.006899513769894838,-0.07423163950443268,-0.21590301394462585,-0.10544037818908691,0.16039766371250153,-0.03883887454867363,-0.012789632193744183,0.06029653176665306,-0.12247131764888763,0.0732947587966919,-0.08620621263980865,0.13772433996200562,0.09449060261249542,0.14932559430599213,0.22749164700508118,-0.18586377799510956,-0.03681165352463722,-0.056128114461898804,-0.21782226860523224,0.09843549877405167,-0.04340810328722,0.02484090067446232,0.1921749711036682,-0.16204796731472015,0.08603719621896744,0.09336388856172562,-0.2660876214504242,0.1910477578639984,-0.025402188301086426,-0.07084566354751587,-0.03758583217859268,0.001517023891210556,0.06234372779726982,-0.003509926376864314,-0.06381356716156006,0.038111258298158646,0.05717003718018532,0.07891043275594711,0.019251719117164612,0.00359288789331913,0.08573821187019348,-0.15843577682971954,0.052975643426179886,-0.15130777657032013,-0.130060613155365,-0.019203735515475273,0.14691570401191711,0.045811206102371216,-0.13598939776420593,0.014083857648074627,-0.1997213214635849,-0.16815981268882751,0.09853626787662506,-0.06973512470722198,0.03204989433288574,-0.03453429415822029,-0.15112879872322083,-0.06687632948160172,0.13901764154434204,0.009570710361003876,-0.040194474160671234,0.0652998760342598,0.0940934270620346,-0.03084741160273552,-0.017101550474762917,-0.05452150106430054,0.06439165771007538,0.15030460059642792,0.18302643299102783,-0.17119218409061432,-0.10571504384279251,0.1638413667678833,0.11278063803911209,-0.04351786896586418,0.10606993734836578,-0.02965184673666954,-0.2227911800146103,-0.021845713257789612,0.00595477782189846,-0.22247445583343506,-0.013992276042699814,0.13863061368465424,-0.08832290768623352,0.03730029985308647,0.10938894748687744,-0.1010526567697525,0.11374291032552719,0.011329877190291882,0.049241382628679276,0.03843429684638977,-0.06455402076244354,0.1872883141040802,-0.16618342697620392,-0.10577041655778885,-0.038002628833055496,-0.10813058912754059,0.1961771845817566,0.07729369401931763,0.16012904047966003,-0.30659204721450806,0.20231257379055023,-0.0748746246099472,-0.014545107260346413,-0.1322827786207199,-0.08008880168199539,-0.06508336216211319,0.08026567101478577,0.056404273957014084,0.0183324683457613,-0.048538677394390106,0.02637138031423092,-0.012523503974080086,0.011548119597136974,-0.07496611028909683,-0.005206751637160778,-0.0784919261932373,-0.09649456292390823,-0.0414523109793663,0.012035497464239597,0.03113480843603611,-0.16120591759681702,-0.06517970561981201,0.13521401584148407,-0.11124591529369354,0.06383901089429855,0.04552781581878662,-0.040796875953674316,-0.16171219944953918,-0.0897870883345604,0.022204726934432983,-0.09390872716903687,0.08996719866991043,-0.00043353260844014585,-0.11637825518846512,-0.025585902854800224,-0.13286444544792175,0.0052487412467598915,0.2066534161567688,0.06586240977048874,0.1798115223646164,0.0009468763018958271,-0.029292473569512367,-0.001821488025598228,0.20177581906318665,-0.010211658664047718,0.08859015256166458,-0.36360806226730347,-0.2710022032260895,0.17955662310123444,0.2623271346092224,0.051289286464452744,-0.07913021743297577,-0.22445359826087952,-0.0014000363880768418,-0.14517931640148163,-0.003864720929414034,0.04026881977915764,-0.08345992863178253,-0.09860292077064514,-0.0651695504784584,-0.12224193662405014,0.07142942398786545,0.17356456816196442,-0.12003348022699356,0.1793307065963745,0.10260952264070511,0.11746601015329361,-0.10624577850103378,0.002376378746703267,0.25985345244407654,0.4927554130554199,0.1892537623643875,0.0053011635318398476,0.09241966158151627,-0.04391976073384285,0.1090518906712532,-0.036521829664707184,-0.05522090941667557,0.1380547136068344,-0.12709800899028778,0.0008914239006116986,0.12751175463199615,0.06733108311891556,0.1909831017255783,0.16850635409355164,-0.20468729734420776,-0.1094902902841568,-0.2572347819805145,-0.09719338268041611,0.05080997943878174,-0.10225582122802734,-0.3559466004371643,0.24023135006427765,0.026377985253930092,0.2147204577922821,0.13803993165493011,0.2310866117477417,0.041282277554273605,-0.01503550261259079,0.037669744342565536,0.2279960811138153,-0.14397628605365753,0.1634184867143631,-0.2899834215641022,-0.00218123197555542,-0.10074397921562195,-0.12804973125457764,0.09522826224565506,-0.05229172855615616,-0.010585092939436436,-0.11040692031383514,-0.10026822239160538,-0.06833520531654358,0.16056406497955322,0.0680905282497406,0.06396892666816711,0.059476740658283234,-0.10694459825754166,-0.41018620133399963,-0.3181836009025574,0.1217724084854126,0.10403090715408325,0.009447933174669743,0.1592547595500946,0.032244645059108734,-0.1619466096162796,-0.05404694005846977,-0.10278452932834625,-0.11078000068664551,0.048280779272317886,-0.05203165113925934,0.06914699822664261,0.12120073288679123,0.02286550961434841,0.11272100359201431,-0.09015072137117386,-0.008014388382434845,0.0903700664639473,0.13556964695453644,-0.24347631633281708,0.03678617253899574,-0.10786502063274384,0.04594303295016289,0.10538069903850555,0.044739577919244766,-0.11144546419382095,0.17452190816402435,-0.13463634252548218,0.19099122285842896,-0.11279135942459106,-0.09581625461578369,0.16995751857757568,-0.03580585494637489,0.09520898014307022,0.24149662256240845,-0.07445814460515976,-0.06961327791213989,-0.30605068802833557,0.0486748032271862,0.12548480927944183,0.018994785845279694,-0.018221117556095123,-0.04898079112172127,-0.09552603960037231,0.15642322599887848,0.10646600276231766,0.1692453920841217,0.11077403277158737,-0.22633926570415497,-0.16135403513908386,0.13639655709266663,-0.1687360554933548,0.05993552505970001,-0.04881760850548744,-0.150319442152977,0.10398893803358078,0.06182549148797989,-0.11161860078573227,-0.0940970852971077,0.10627574473619461,-0.12493577599525452,-0.16782672703266144,0.2540615200996399,0.19681526720523834,-0.08943761140108109,-0.12704996764659882,0.27081337571144104,-0.02478739432990551,0.08976402878761292,0.2676238417625427,-0.1865829974412918,-0.13677462935447693,0.3359825909137726,-0.058256831020116806,-0.059956878423690796,-0.2608284056186676,-0.1391463428735733,-0.06443938612937927,0.02417735755443573,-0.09859783947467804,0.16526250541210175,-0.4664095342159271,-0.05035595968365669,0.15720273554325104,-0.08325852453708649,0.020975474268198013,0.05755482614040375,-0.22619996964931488,-0.05908122658729553,0.20825114846229553,0.05414769425988197,-0.001751354313455522,-0.1515883207321167,-0.10819587856531143,0.10788261145353317,0.1799939125776291,0.17839683592319489,0.08893748372793198,-0.004676678217947483,-0.019389986991882324,0.09766438603401184,-0.054535649716854095,-0.11344780027866364,-0.04668000712990761,-0.03846235200762749,0.10103079676628113,0.0974181666970253,0.08585504442453384,0.15832901000976562,-0.01386303175240755,-0.14475516974925995,0.15111146867275238,-0.12249726802110672,0.00970072578638792,-0.13584889471530914,-0.29801252484321594,-0.16439588367938995,-0.008665736764669418,0.09409457445144653,-0.2033286839723587,0.036578431725502014,-0.11963173747062683,-0.11179467290639877,-0.019551413133740425,0.2648480236530304,0.12092271447181702,-0.03042818047106266,-0.048453476279973984,-0.0569707415997982,-0.10025941580533981,0.08343551307916641,0.006731040775775909,0.035666223615407944,0.10577424615621567,-0.06305576115846634,0.22746144235134125,0.04997481405735016,-0.16621831059455872,-0.20552369952201843,0.09425823390483856,0.1597553789615631,-0.12252192944288254,-0.018905825912952423,-0.11784674972295761,-0.2838171422481537,0.020714085549116135,-0.07836083322763443,-0.16697393357753754,-0.07405523210763931,0.0509163923561573,-0.1068350151181221,0.02205553464591503,0.1703624576330185,-0.023162787780165672,-0.1197170540690422,0.04044321924448013,-0.23572956025600433,0.0228288397192955,0.08427447825670242,0.2059680074453354,-0.102915458381176,-0.1007300317287445,-0.04387662187218666,0.005285836756229401,-0.10666175931692123,-0.03387076407670975,0.06790407747030258,0.09650129824876785,-0.08973925560712814,0.19413046538829803,-0.047358982264995575,-0.05149538442492485,-0.025132691487669945,0.021035419777035713,-0.26036953926086426,0.04599718004465103,-0.04090581461787224,-0.011306064203381538,0.054876551032066345,-0.025851793587207794,-0.16967515647411346,0.00350861344486475,0.006685493979603052,-0.20138409733772278,0.015597564168274403,0.009909484535455704,0.05121276527643204,0.066339410841465,-0.13610050082206726,-0.054388344287872314,-0.0010540438815951347,-0.0879516676068306,0.19354546070098877,-0.08395303785800934,-0.05841783434152603,0.12955638766288757,-0.002041214844211936,-0.21851445734500885,0.1989774852991104,0.010897872038185596,0.11793956905603409,-0.11513103544712067,-0.17741790413856506,-0.034972984343767166,0.0402747206389904,-0.07673909515142441,-0.1568218320608139,-0.20855611562728882,-0.06085832789540291,-0.026210693642497063,0.03594161197543144,-0.05833122134208679,-0.21829764544963837,0.36061689257621765,-0.05103723704814911,0.06491417437791824,0.5658064484596252,0.2129935324192047,-0.6388672590255737,-0.11617496609687805,0.12806780636310577,0.40825027227401733,0.11248903721570969,0.08639869093894958,-0.25774717330932617,-0.13109436631202698,-0.0697602778673172,0.2173166424036026,0.30489107966423035,-0.07888733595609665,0.18008854985237122,-0.18808038532733917,-0.1873636245727539,-0.03911951929330826,0.12558619678020477,-0.16127900779247284,0.03292412683367729,0.1535641849040985,0.20343580842018127,-0.06031053140759468,0.12679094076156616,0.04723713919520378,-0.1767994463443756,0.05555478855967522,0.08793319761753082,-0.029821570962667465,-0.08208075910806656,0.20322248339653015,0.19689175486564636,0.13080793619155884,-0.10216299444437027,0.1177847757935524,0.2519442141056061,0.1549147218465805,-0.09662464261054993,0.10946329683065414,0.01789093017578125,-0.02712380141019821,-0.10688049346208572,-0.09472749382257462,-0.14030061662197113,0.01391941774636507,0.12221714854240417,-0.04622801020741463,0.0317712165415287,-0.07157611846923828,0.12459510564804077,-0.1642637997865677,-0.05471954122185707,-0.11957643926143646,0.011612402275204659,0.08538495004177094,0.11196772009134293,-0.020326994359493256,0.04103343188762665,-0.11844299733638763,-0.17671459913253784,-0.0025331254582852125,-0.2837406396865845,0.17225997149944305,-0.04538099467754364,-0.1305532455444336,-0.09923484921455383,-0.13348135352134705,0.05784593150019646,0.051015596836805344,-0.13564912974834442,-0.09492415189743042,-0.10814956575632095,-0.06680350005626678,-0.057409923523664474,-0.24165405333042145,0.09073575586080551,-0.06342935562133789,-0.028645310550928116,0.025291869416832924,-0.009167101234197617,-0.1404065191745758,-0.1553998738527298,-0.07403294742107391,-0.15644240379333496,0.022530367597937584,-0.0959806740283966,0.19864314794540405,0.05929477885365486,-0.058772824704647064,-0.16503873467445374,-0.029429327696561813,-0.11880642175674438,-0.0781596377491951,0.14664456248283386,0.15667888522148132,-0.3581954538822174,0.10532572865486145,0.21586112678050995,0.10040283203125,0.02201615646481514,0.13237538933753967,0.07802719622850418,0.1583905816078186,-0.06075677275657654,0.14602352678775787,0.03098228946328163,-0.24421648681163788,-0.28560763597488403,0.2711397111415863,0.10103045403957367,0.13495978713035583,0.07271758466959,-0.19425661861896515,-0.09285937994718552,0.09527173638343811,0.02759496495127678,-0.1579631268978119,-0.10433457046747208,-0.13822267949581146,-0.06721623986959457,-0.013675079680979252,0.15431511402130127,0.09259029477834702,-0.11368085443973541,0.21636509895324707,0.1258770376443863,-0.02184838429093361,-0.08673699200153351,-0.015219553373754025,-0.1977808028459549,0.004357688594609499,-0.17886026203632355,0.05344387888908386,-0.06805765628814697,0.009157239459455013,-0.09965412318706512,-0.07707080990076065,0.10352621227502823,0.06198016554117203,0.08243585377931595,0.11886588484048843,-0.1463058739900589,-0.03815799206495285,0.3878073990345001,0.08297073841094971,0.10414982587099075,-0.268987238407135,-0.04752621054649353,-0.020792873576283455,0.033569637686014175,-0.08300017565488815,0.14355085790157318,-0.1609461009502411,-0.13168859481811523,0.10667698830366135,0.16838400065898895,0.13163423538208008,0.22417818009853363,0.16846665740013123,0.01722782477736473,-0.11883345246315002,-0.11052709817886353,0.06459575891494751,-0.007963733747601509,-0.22220318019390106,0.02028784714639187,-0.07601680606603622,-0.04819944500923157,-0.05398509278893471,0.05277705937623978,-0.016352303326129913,-0.13401654362678528,0.07500381767749786,-0.07893859595060349,0.1032872125506401,0.11843561381101608,-0.0058214664459228516,-0.07169429957866669,0.2184341847896576,-0.034712646156549454,-0.14096570014953613,0.1799667924642563,-0.0048894211649894714,-0.1651044487953186,-0.17918260395526886,-0.1526637077331543,0.14046449959278107,0.32020795345306396,-0.03571019694209099,-0.504273533821106,0.1421230286359787,-0.24695873260498047,-0.32655468583106995,0.006221152376383543,0.18550479412078857,-0.07425618916749954,-0.213172048330307,-0.0928385928273201,0.09040150791406631,0.2685690224170685,0.04036104679107666,0.13148997724056244,0.048707541078329086,-0.07757478952407837,-0.11997421085834503,-0.11159791052341461,-0.11929337680339813,-0.013164141215384007,0.09410592913627625,0.14358334243297577,-0.3098020553588867,0.08720956742763519,-0.16748520731925964,0.2599448561668396,0.2564559578895569,0.15694138407707214,0.01696702651679516,-0.012330407276749611,0.27513211965560913,0.04705290123820305,-0.0331517793238163,0.023236868903040886,0.02187104895710945,-0.16495555639266968,0.12173260748386383,0.17020797729492188,-0.01809833012521267,0.06031718850135803,-0.050504960119724274,-0.11277229338884354,0.012987964786589146,-0.08651336282491684,0.19806087017059326,0.0023691821843385696,-0.014803233556449413,-0.2661490738391876,0.049225784838199615,-0.1866263449192047,-0.16890189051628113,-0.02940223552286625,-0.00823159795254469,-0.1877361536026001,-0.19877339899539948,-0.00884289387613535,0.2763434052467346,-0.30067434906959534,0.38423946499824524,-0.03680610656738281,-0.008091134019196033,-0.09426485747098923,-0.038504812866449356,-0.1695108562707901,-0.15054850280284882,0.07028600573539734,0.1484839767217636,0.03165632486343384,-0.10313336551189423,-0.12094219028949738,-0.05260502174496651,0.05057248845696449,-0.06233825534582138,-0.16111047565937042,0.0355343297123909,-0.16216076910495758,-0.07102033495903015,-0.10674093663692474,-0.11321818083524704,0.050501324236392975,0.13915221393108368,-0.1388685405254364,-0.0026941972319036722,0.06024552881717682,-0.024577828124165535,0.15563102066516876,0.016086088493466377,-0.1699201911687851,-0.08507286012172699,-0.02077557146549225,-0.00479263998568058,0.0031993724405765533,-0.056591279804706573,0.11532063782215118,0.08537763357162476,-0.002236774191260338,0.12218595296144485,-0.10941331088542938,-0.06004055589437485,0.07517406344413757,-0.17604567110538483,0.08989851921796799,-0.19261504709720612,0.043082788586616516,0.09172138571739197,0.028462406247854233,-0.2482697069644928,-0.4751468598842621,-0.007971679791808128,-0.03829098120331764,-0.08551738411188126,-0.08330126851797104,-0.1379796713590622,-0.019071239978075027,0.16628243029117584,0.013000475242733955,0.013645033352077007,0.004125965293496847,-0.06654257327318192,0.19937454164028168,-0.034995295107364655,-0.18729735910892487,-0.016873735934495926,-0.15836746990680695,0.021678263321518898,0.12593726813793182,-0.19492383301258087,0.17429225146770477,0.027756614610552788,-0.2384924590587616,0.07689302414655685,0.027701206505298615,-0.06354742497205734,0.00994562916457653,0.2659938335418701,-0.025176703929901123,-0.06525882333517075,0.08584880083799362,0.08191848546266556,-0.028824009001255035,-0.2368847131729126,-0.017735999077558517,-0.190328449010849,0.2721606492996216,-0.004822739865630865,-0.18805789947509766,-0.05346619337797165,0.08777869492769241,-0.25530582666397095,-0.02040744759142399,0.014832653105258942,0.3494953513145447,0.11816642433404922,0.18426723778247833,-0.22918617725372314,0.011970587074756622,0.0482669398188591,0.04668394848704338,0.009845077060163021,0.2835647761821747,-0.30963611602783203,-0.26723748445510864,-0.03975888714194298,-0.050057873129844666,0.24110133945941925,-0.010550678707659245,-0.1397712081670761,-0.006290287245064974,-0.2745867967605591,-0.2726534903049469,0.06916964799165726,-0.06070493161678314,-0.2596311867237091,-0.05436286702752113,-0.17917126417160034,0.21173131465911865,0.04938400909304619,-0.17972718179225922,0.33623024821281433,-0.08842891454696655,-0.09338615089654922,0.05910945683717728,-0.05063920468091965,0.11017975211143494,-0.06697874516248703,-0.05112243816256523,0.034861113876104355,-0.11735930293798447,0.1304803043603897,0.06513624638319016,0.026394592598080635,0.08123234659433365,0.11753717064857483,0.045263100415468216,0.033200714737176895,-0.07637544721364975,0.05628097429871559,-0.15650741755962372,0.07547467201948166,0.06111166253685951,-0.01035173237323761,-0.17314846813678741,-0.0910286009311676,-0.06652843952178955,0.028977029025554657,-0.3537003993988037,-0.5546757578849792,0.9372380375862122,0.2735375165939331,-0.6196492910385132,0.03671034052968025,-0.24226266145706177,0.015849938616156578,0.7030923962593079,-0.8737850785255432,1.016296148300171,0.5279709696769714,0.017883947119116783,-0.31640493869781494,0.189376562833786,-0.7025058269500732,0.12386733293533325,-0.27233025431632996,0.002383349696174264,-0.20804449915885925,0.19221678376197815,-0.05861242488026619,0.32452693581581116,0.06669529527425766,-0.014220521785318851,0.17732073366641998,0.3297036588191986,-0.07214131951332092,-0.27207720279693604,0.07057463377714157,-0.13928039371967316,-0.3077050745487213,0.594963550567627,0.07955151796340942,0.0060578095726668835,-0.15263311564922333,0.49400997161865234,0.16392867267131805,0.27089357376098633,-0.5316109657287598,-0.2829422056674957,0.4526285231113434,-0.1524316370487213,0.10788293927907944,0.04881197586655617,0.4507434666156769,0.41386300325393677,-0.03378656879067421,-0.21647648513317108,-0.3711000084877014,0.18326860666275024,-0.21970278024673462,-0.08200728893280029,-0.12379545718431473,-0.44648277759552,0.15422746539115906,-0.23081719875335693,-0.2696821093559265,-0.0557895191013813,-0.37063783407211304,0.3739036023616791,-0.24641737341880798,-0.31210941076278687,-0.019255368039011955,0.3790852725505829,0.029177570715546608,0.24541807174682617,-0.10341903567314148,-0.17628870904445648,0.36023464798927307,-0.1829516887664795,0.13054150342941284,0.47590523958206177,-0.06604797393083572,-0.02316322922706604,0.45739880204200745,0.05519673600792885,0.160714253783226,0.2221640646457672,-0.12454717606306076,0.20183619856834412,-0.052237771451473236,0.1284792721271515,-0.054079320281744,0.26838409900665283,-0.19513194262981415,0.20285926759243011,-0.10669305175542831,0.16237251460552216,0.06298978626728058,-0.1369384527206421,0.00812727864831686,-0.2864210605621338,-0.2608325183391571,0.2591171860694885,-0.022926757112145424,-0.26139307022094727,-0.2388124018907547,-0.06387988477945328,0.27456966042518616,-0.29801711440086365,-0.055242497473955154,0.2855667471885681,0.08742105215787888,0.056873828172683716,-0.25127923488616943,0.13114799559116364,-0.08656752854585648,0.04374517500400543,0.12399494647979736,0.22699467837810516,0.1641675978899002,-0.09194380789995193,-0.01981428451836109,-0.25199055671691895,0.16144374012947083,0.45759445428848267,-0.0952192023396492,0.07363301515579224,-0.012322597205638885,-0.30348941683769226,0.22827193140983582,0.051862895488739014,-0.3366851508617401,0.17634880542755127,-0.07726124674081802,-0.040500037372112274,0.3811192810535431,0.247537299990654,0.15982845425605774,-0.20428737998008728,-0.1455436497926712,0.20548968017101288,0.07388494163751602,0.15547195076942444,-0.1611233800649643,0.19102683663368225,0.09966554492712021,-0.05266068875789642,0.2571089565753937,-0.010422184132039547,0.07975706458091736,0.1489754617214203,-0.003364598611369729,-0.1275506168603897,0.14101867377758026,-0.02407829277217388,0.24965569376945496,0.21425014734268188,0.14427483081817627,-0.22385206818580627,0.08814846724271774,-0.0543021634221077,0.15764105319976807,-0.16608329117298126,0.1432102918624878,-0.2309401035308838,-0.15133577585220337,-0.004681424703449011,0.15565843880176544,0.30856987833976746,0.045819010585546494,-0.40667596459388733,0.038823410868644714,0.19842052459716797,-0.14895078539848328,0.08488781750202179,-0.33223485946655273,-0.29665103554725647,0.20179149508476257,0.12387675791978836,0.062444258481264114,-0.1887316256761551,-0.007759010419249535,0.32236549258232117,-0.3543153405189514,0.4494452178478241,0.11750339716672897,-0.22734986245632172,-0.23031742870807648,0.43303707242012024,-0.12269865721464157,0.22660134732723236,-0.23067887127399445,0.24961426854133606,0.3687093257904053,-0.23655276000499725,0.16785691678524017,-0.12847323715686798,-0.12243307381868362,0.11223079264163971,0.13506096601486206,0.07759414613246918,0.18521524965763092,-0.14230351150035858,0.1763182431459427,-0.1182631328701973,0.3134710490703583,0.19555696845054626,0.08096826821565628,0.03806324675679207,-0.09387069195508957,-0.13301773369312286,0.2187347412109375,-0.23174723982810974,-0.2035229206085205,-0.07396351546049118,0.10290102660655975,-0.33399781584739685,-0.21204255521297455,-0.06912615150213242,0.03054029680788517,0.004384273663163185,0.08287002146244049,-0.2001805454492569,-0.25215014815330505,0.21109426021575928,-0.07520359754562378,-0.09329422563314438,0.015505216084420681,0.055159542709589005,0.1416916847229004,0.04081858694553375,-0.16507437825202942,-0.3256255090236664,-0.0382755883038044,-0.19521285593509674,0.019144469872117043,0.006079572252929211,-0.18863089382648468,0.06678435206413269,-0.013201271183788776,-0.03537781164050102,0.0723336935043335,0.23022127151489258,-0.28034481406211853,-0.012052246369421482,0.025634875521063805,-0.3031720817089081,-0.07744628936052322,0.18723395466804504,0.18254181742668152,-0.14547747373580933,-0.14864276349544525,0.0806412473320961,-0.03797730803489685,0.21590302884578705,-0.32386690378189087,0.0318608358502388,0.35621750354766846,0.1892969161272049,0.2650322914123535,-0.24952691793441772,0.19052423536777496,0.11119671911001205,-0.3730584681034088,-0.06122218444943428,-0.0026005583349615335,-0.0480898953974247,-0.20318490266799927,-0.19571781158447266,0.043345049023628235,0.047341134399175644,-0.30263805389404297,0.1348264217376709,0.03607403486967087,0.09250949323177338,0.29764559864997864,-0.09452679753303528,-0.021116526797413826,-0.023949041962623596,0.11163728684186935,-0.01670127920806408,-0.06108136102557182,0.045800745487213135,0.11994864791631699,-0.03378087654709816,0.11391879618167877,-0.03962036594748497,0.025290504097938538,-0.13988257944583893,-0.07792763411998749,0.02457948960363865,0.011595902033150196,0.16741599142551422,0.055857181549072266,-0.02770186960697174,0.036106109619140625,-0.10269281268119812,-0.21570804715156555,0.03393781557679176,-0.13640713691711426,-0.17784376442432404,0.37396439909935,0.14624151587486267,0.5163119435310364,0.012218156829476357,-0.15455076098442078,0.3531607389450073,0.045978497713804245,-0.07445396482944489,-0.2539348900318146,-0.03520932048559189,0.06338099390268326,-0.0437702015042305,0.029395869001746178,0.5205277800559998,-0.20920255780220032,0.15814922749996185,-0.19385865330696106,-0.01766890101134777,0.15430645644664764,0.22863832116127014,-0.1890365332365036,0.07489602267742157,-0.17466096580028534,-0.17162732779979706,-0.08946958929300308,0.06482943147420883,-0.22709867358207703,0.28928160667419434,0.18532061576843262,-0.19704711437225342,-0.021302616223692894,-0.1008826270699501,0.06408321112394333,-0.13358476758003235,0.18042723834514618,-0.17470011115074158,-0.030575383454561234,-0.1845466047525406,-0.35390543937683105,-0.0209607295691967,-0.09441547095775604,0.03978852555155754,-0.04598085582256317,-0.07257696986198425,0.11344019323587418,0.09462188184261322,0.1449022740125656,-0.16263094544410706,-0.16310690343379974,0.08904830366373062,0.11564823985099792,-0.20123974978923798,-0.10792729258537292,-0.05570746213197708,-0.05584762990474701,-0.08177893608808517,-0.05535163730382919,0.16982345283031464,-0.08374987542629242,-0.12976166605949402,0.05103594809770584,-0.05392814055085182,0.13927222788333893,-0.08340061455965042,-0.28603172302246094,-0.12623660266399384,0.1038098931312561,0.16945211589336395,0.2056971937417984,-0.21532444655895233,0.03731505200266838,0.11848867684602737,0.08652234822511673,0.10739770531654358,0.17128001153469086,-0.1628263294696808,0.27078384160995483,0.0003605771635193378,-0.3398401439189911,-0.10910056531429291,0.01515673566609621,-0.19482296705245972,0.10979901254177094,0.2693406343460083,-0.2071392983198166,0.2429569810628891,0.18195804953575134,-0.08655056357383728,-0.21598923206329346,0.030121466144919395,0.07215048372745514,-0.27973392605781555,-0.19134525954723358,0.03063122183084488,0.4964978098869324,-0.31406253576278687,-0.3478696644306183,-0.30542054772377014,0.3862614035606384,0.05340545251965523,0.08369384706020355,-0.07861782610416412,0.20886072516441345,0.08983391523361206,-0.11501900106668472,-0.03421107307076454,-0.3167409896850586,-0.38003093004226685,0.08536393940448761,0.38972747325897217,0.2831919193267822,-0.20704509317874908,0.04107045754790306,-0.16119150817394257,0.09648218750953674,0.19670796394348145,0.011843644082546234,0.02338334731757641,0.17569030821323395,-0.05460290610790253,-0.1935349404811859,0.3186075687408447,-0.03894282877445221,-0.1964290738105774,0.09425979852676392,-0.15757054090499878,-0.10539567470550537,-0.011469561606645584,-0.002986190840601921,0.011699263006448746,0.04228918254375458,0.02593698911368847,-0.10035426169633865,0.30252963304519653,-0.10071288794279099,-0.1673651933670044,-0.22165141999721527,0.10474609583616257,0.12424276769161224,-0.02981550246477127,0.2765209972858429,0.14540301263332367,0.019266236573457718,0.0019155048066750169,0.17675599455833435,0.06740681082010269,0.3053601086139679,-0.11030846834182739,0.08329173177480698,-0.13426481187343597,-0.1855463683605194,0.0733809694647789,0.10050919651985168,0.031247662380337715,-0.13011495769023895,-0.10435327142477036,0.15859763324260712,0.13101577758789062,-0.047021377831697464,0.030511679127812386,-0.17231126129627228,-0.0722024217247963,0.31192898750305176,0.21330028772354126,-0.1229717805981636,-0.23659704625606537,-0.11824432015419006,-0.012111194431781769,-0.061761364340782166,0.16474021971225739,0.15814323723316193,-0.13895267248153687,0.26550528407096863,0.10948166251182556,-0.0830049216747284,0.12492141127586365,0.13198217749595642,-0.19706052541732788,0.1207483634352684,0.11956338584423065,-0.21488124132156372,0.01891000010073185,0.06957594305276871,-0.1749390959739685,-0.25511986017227173,-0.00346996053121984,0.03358261287212372,0.19978725910186768,0.0396190769970417,-0.10090956091880798,0.16753248870372772,-0.04335532709956169,-0.2671035826206207,-0.06980996578931808,0.13660022616386414,0.11437756568193436,0.034932803362607956,-0.33645910024642944,-0.02842131070792675,0.11542864888906479,-0.1355474591255188,-0.2570013701915741,-0.08607156574726105,-0.008879885077476501,0.15272291004657745,-0.20316846668720245,-0.0024971135426312685,-0.046445418149232864,0.23672211170196533,-0.003077784087508917,-0.17744852602481842,-0.21911895275115967,0.07957880198955536,-0.09246218204498291,-0.046578548848629,0.1607096940279007,0.18128615617752075,-0.019904470071196556,0.060266103595495224,-0.11862275749444962,-0.15866447985172272,-0.07655557245016098,-0.03149792551994324,-0.20843341946601868,-0.04010683670639992,0.07462431490421295,-0.15295973420143127,0.147569477558136,0.07524020969867706,-0.11509247124195099,-0.02374284155666828,-0.020580679178237915,0.179945170879364,-0.1068805381655693,-0.04054977744817734,-0.18540102243423462,-0.039204955101013184,0.023010030388832092,-0.15110990405082703,0.09908529371023178,-0.23866650462150574,0.19036392867565155,0.4110572636127472,0.012513975612819195,-0.04707012698054314,-0.31889402866363525,-0.21580669283866882,0.10078907012939453,-0.057737089693546295,-0.043197840452194214,-0.2608325481414795,-0.17440463602542877,0.14539285004138947,-0.056271832436323166,0.15904101729393005,-0.11435011029243469,-0.17925332486629486,-0.054095309227705,0.03342922404408455,-0.02979358658194542,0.09437698125839233,-0.23116177320480347,-0.03426011651754379,0.19999267160892487,-0.09888884425163269,0.03620171546936035,-0.08986980468034744,-0.2993816137313843,0.16387426853179932,-0.10351969301700592,-0.046777911484241486,0.04757232591509819,-0.09986775368452072,-0.24009263515472412,0.08057232946157455,0.01739964447915554,-0.15716750919818878,0.10030224174261093,0.06218952685594559,-0.2055698186159134,-0.0409514345228672,0.14779353141784668,0.17189769446849823,0.270065039396286,0.08141513913869858,-0.1624065488576889,-0.06743385642766953,-0.05826244503259659,-0.1062297448515892,-0.15123192965984344,0.11476270109415054,0.21875399351119995,-0.1748216301202774,-0.006906773895025253,0.12846586108207703,0.07885386794805527,0.05893176048994064,-0.09999947249889374,-0.017008312046527863,-0.08852003514766693,0.0640282928943634,-0.18988826870918274,-0.14671094715595245,-0.23398467898368835,0.31564730405807495,-0.030388593673706055,-0.23560233414173126,-0.24889220297336578,0.07001689076423645,0.08540955185890198,0.047871313989162445,0.04331284761428833,0.14930661022663116,-0.028414666652679443,0.024564184248447418,0.16852790117263794,-0.15301407873630524,-0.1057523712515831,0.12268249690532684,0.11317189037799835,0.02183397114276886,0.16945746541023254,-0.3275110423564911,-0.0006723704864270985,-0.032280612736940384,-0.2118004709482193,0.11144489049911499,0.2043527513742447,0.2255939543247223,0.008464752696454525,-0.259505957365036,-0.18036040663719177,-0.0957694873213768,-0.03931731358170509,-0.0048627653159201145,0.1523931920528412,0.27626484632492065,0.10510988533496857,-0.08876261115074158,-0.0428745299577713,0.035811647772789,0.02060486376285553,0.008062209002673626,-0.18073560297489166,0.21439915895462036,0.04549765959382057,-0.055732596665620804,-0.04318420588970184,-0.028409622609615326,-0.0145257031545043,-0.08245810121297836,0.04103510081768036,-0.24891264736652374,0.010702831670641899,0.06805907934904099,0.2912867069244385,0.07097594439983368,-0.03533177822828293,-0.1131809651851654,-0.07680050283670425,-0.055347852408885956,0.1291544884443283,0.006144435610622168,-0.2020295113325119,0.12981495261192322,-0.10104095190763474,0.006360577419400215,0.26546186208724976,-0.03887362778186798,0.019134236499667168,0.297863245010376,-0.10333456099033356,-0.11388629674911499,0.07328236103057861,-0.0866900384426117,-0.0568251796066761,-0.2659052014350891,-0.08127278834581375,0.09669595956802368,-0.21697549521923065,0.08369511365890503,0.10479036718606949,0.174931600689888,0.0006599014159291983,-0.0318034291267395,-0.08051459491252899,-0.14501093327999115,-0.15687662363052368,0.119643934071064,-0.16408945620059967,-0.10325992107391357,-0.2326880544424057,0.026225082576274872,0.07721035927534103,-0.23122286796569824,0.0024657638277858496,0.12411372363567352,0.024384159594774246,0.07514848560094833,-0.0712941363453865,-0.2380838245153427,-0.1732524186372757,0.017523614689707756,0.15200014412403107,0.08598697185516357,-0.2245989590883255,0.07194532454013824,0.24037598073482513,-0.07278316468000412,0.18933239579200745,-0.01931815966963768,-0.24029208719730377,0.3296128213405609,0.08460064232349396,-0.2867479622364044,0.03371678292751312,-0.1214999407529831,-0.29484960436820984,0.12512274086475372,0.26717036962509155,-0.11885423958301544,0.19481097161769867,0.18259629607200623,-0.21493348479270935,-0.18973156809806824,-0.13187696039676666,0.27313143014907837,-0.03208308294415474,0.13956263661384583,0.016526805236935616,0.38805538415908813,-0.2329542487859726,-0.18284057080745697,-0.03547007963061333,0.23311743140220642,0.0942467600107193,-0.10313987731933594,-0.11341747641563416,0.11217931658029556,0.06666164845228195,0.02976043149828911,0.03930138796567917,-0.035893514752388,-0.1268557757139206,-0.24486157298088074,0.22734753787517548,-0.013258418999612331,0.09576747566461563,0.15782731771469116,-0.019724080339074135,-0.09348711371421814,0.04663514718413353,0.006763876881450415,0.0422673299908638,-0.05656018480658531,0.061330631375312805,-0.0655764788389206,-0.058865271508693695,0.09507157653570175,-0.025860166177153587,-0.09632115811109543,-0.1792333424091339,-0.0623290129005909,-0.13213284313678741,-0.06518755853176117,-0.06609775125980377,-0.10588519275188446,0.16206997632980347,0.07883427292108536,0.07763735204935074,0.18650980293750763,-0.005736970808357,0.13329580426216125,0.009711978957057,0.09998311847448349,0.044770609587430954,-0.1180504634976387,0.1437937319278717,-0.18354135751724243,-0.06334920972585678,0.14318162202835083,0.10826349258422852,-0.12153366953134537,0.04422956332564354,0.24972836673259735,0.25769951939582825,0.05048716813325882,-0.26790305972099304,-0.10956864804029465,0.05167778581380844,0.1971966177225113,0.21549515426158905,0.10069023072719574,0.07114063203334808,-0.0676545724272728,-0.3540768623352051,-0.19745361804962158,0.060695286840200424,0.19109097123146057,0.11887942254543304,0.10103151947259903,-0.0028665950521826744,-0.13129238784313202,-0.00985240750014782,-0.21930791437625885,0.08689477294683456,0.09090113639831543,-0.10183967649936676,0.018101057037711143,0.050230253487825394,-0.1971665620803833,0.3457699716091156,0.015621698461472988,0.15789362788200378,0.034953098744153976,-0.23371291160583496,-0.13608373701572418,-0.005270252004265785,0.027320358902215958,-0.024339452385902405,-0.06748712807893753,0.013964755460619926,0.0795740932226181,-0.11123277992010117,0.08709632605314255,-0.172974094748497,0.24272005259990692,0.05781714618206024,-0.13620220124721527,-0.1812039464712143,0.10762991011142731,0.2727245092391968,-0.2798623740673065,0.11123744398355484,0.08936351537704468,-0.04928748682141304,-0.06252344697713852,-0.02280052937567234,0.08333932608366013,-0.2111259400844574,-0.08124122768640518,0.22742828726768494,-0.10555949807167053,-0.06175436079502106,0.31458666920661926,0.0002100095443893224,-0.0787230134010315,-0.018174346536397934,-0.1529739797115326,0.17807865142822266,0.01917320117354393,0.08589170128107071,0.13574187457561493,0.10912736505270004,-0.1782553791999817,0.16825249791145325,-0.042076241225004196,-0.21376632153987885,0.13543827831745148,-0.08054143190383911,0.08032926172018051,0.11442428827285767,0.11121460795402527,-0.16343854367733002,0.29344823956489563,-0.1940758377313614,-0.17792803049087524,-0.0534590445458889,0.13422170281410217,0.029541360214352608,-0.05071102827787399,0.026950925588607788,-0.009397117421030998,-0.12236814200878143,-0.25167179107666016,-0.004202794749289751,-0.11142563819885254,0.15038500726222992,-0.5819591879844666,0.018376439809799194,0.10876251012086868,0.16418437659740448,-0.2091415822505951,-0.02776508778333664,0.12293053418397903,-0.11762549728155136,0.08473695069551468,0.02333865314722061,-0.12777894735336304,-0.37500208616256714,-0.04728558659553528,-0.1529979258775711,0.008603394962847233,0.0295857023447752,0.0404224693775177,-0.24912677705287933,0.10059825330972672,-0.17855803668498993,-0.20675794780254364,0.3327677249908447,0.06226897984743118,-0.13430191576480865,0.05186524987220764,-0.07173129916191101,-0.07785426825284958,0.11117304116487503,0.1683911681175232,0.05615067854523659,0.10781217366456985,0.021398384124040604,0.06921815872192383,-0.017500214278697968,0.004401091951876879,-0.08426034450531006,0.06567350775003433,-0.04893755912780762,0.13814936578273773,0.050469547510147095,-0.0008453988120891154,0.2553924322128296,0.07215744256973267,0.1687038540840149,0.1376141756772995,0.277206689119339,-0.173544242978096,-0.24279159307479858,-0.02598407119512558,0.06990301609039307,0.04553676024079323,-0.11584671586751938,0.15955400466918945,0.19536210596561432,-0.06102346256375313,0.024627255275845528,0.07962819933891296,-0.06527259200811386,0.20940923690795898,-0.1259339302778244,0.3961409330368042,-0.0869792252779007,-0.031956836581230164,-0.06484097242355347,-0.1645631492137909,-0.13885076344013214,0.07053183764219284,0.018047239631414413,0.004804139956831932,-0.06770778447389603,-0.0298553928732872,-0.038724977523088455,0.030403204262256622,-0.0450369231402874,0.020740488544106483,-0.005214429460465908,-0.03210601210594177,-0.03950789198279381,-0.07621859014034271,0.05571135878562927,-0.06979166716337204,0.16651172935962677,0.1287587583065033,-0.0870615616440773,0.13468192517757416,0.07215014845132828,0.07893485575914383,-0.0027890463825315237,0.133353129029274,-0.14313077926635742,-0.08893034607172012,0.011308416724205017,-0.15949280560016632,-0.030336014926433563,0.195039764046669,0.07851681858301163,0.08363288640975952,0.12773533165454865,-0.12581798434257507,0.09545585513114929,0.17424608767032623,0.03982952982187271,-0.09155963361263275,-0.0909484401345253,0.22702229022979736,-0.051783088594675064,-0.1359357386827469,0.09816091507673264,-0.20124536752700806,0.059551697224378586,0.002338967751711607,0.0614616759121418,-0.07879514992237091,-0.020518148317933083,0.008995084092020988,0.19836017489433289,-0.10677667707204819,0.008418739773333073,0.07918916642665863,-0.05125965550541878,-0.21004614233970642,0.17077769339084625,0.04149075597524643,-0.1929173320531845,0.0246441513299942,-0.1398124396800995,-0.011159752495586872,0.007167718838900328,-0.14386191964149475,-0.036970775574445724,0.037886183708906174,-0.13690504431724548,-0.13320127129554749,0.0427851565182209,0.023645933717489243,0.10900299996137619,-0.09185289591550827,-0.11286743730306625,0.12255027890205383,0.25080281496047974,-0.4001381993293762,-0.2725662291049957,0.5579675436019897,-0.19246836006641388,-0.4526255428791046,-0.4040689468383789,0.23721280694007874,0.4648100733757019,-0.14988578855991364,-0.16576425731182098,0.10106933861970901,0.17342418432235718,-0.05158761143684387,0.14165042340755463,0.010389518924057484,0.09616301208734512,-0.3055008351802826,0.23115286231040955,-0.1584070324897766,0.24188214540481567,0.1844974160194397,0.05124944821000099,-0.13654202222824097,0.05940224602818489,-0.4173908531665802,-0.19801391661167145,0.18374474346637726,-0.19400380551815033,-0.04625505954027176,0.07911510765552521,0.1705913245677948,-0.04394768178462982,-0.06364202499389648,-0.08451111614704132,0.06462061405181885,-0.14233405888080597,-0.08701461553573608,-0.18066059052944183,0.06773009896278381,-0.042971089482307434,0.024677908048033714,0.2324000597000122,-0.10228617489337921,0.05987076833844185,0.07701725512742996,0.07531363517045975,-0.0902395024895668,0.10836898535490036,-0.052828188985586166,0.05890858173370361,0.02880135551095009,0.05737115815281868,-0.007868491113185883,0.05434657260775566,0.05747402459383011,0.08018981665372849,-0.1946268379688263,0.0387657955288887,0.1517224907875061,-0.15182600915431976,0.12757860124111176,0.70135498046875,0.38120830059051514,0.611987829208374,-0.7837492823600769,-0.6604787707328796,0.2877624034881592,0.12491333484649658,0.20854626595973969,0.5613618493080139,0.07806343585252762,-0.5425973534584045,0.16666622459888458,-0.04664294421672821,-0.9123448729515076,0.03182690218091011,-0.10455337166786194,-0.0914812982082367,-0.2153683751821518,0.36079826951026917,-0.12980437278747559,0.0011090700281783938,0.2882938086986542,-0.15652723610401154,-0.0874917060136795,-0.1650264412164688,0.0471523143351078,-0.05200529843568802,0.022792398929595947,0.12214874476194382,-0.129972442984581,-0.08385293930768967,-0.09417343139648438,-0.010925612412393093,-0.6401993036270142,0.0017776621971279383,-0.5715474486351013,0.2484527826309204,-0.2280416339635849,0.4516938030719757,-0.3625999093055725,-0.49742579460144043,0.14684578776359558,-0.2894198000431061,0.2756872773170471,0.012134304270148277,0.14023910462856293,0.25064951181411743,0.07925408333539963,-0.16182315349578857,0.19774551689624786,-0.14823299646377563,-0.21357768774032593,0.04601103067398071,-0.3460645377635956,-0.14235065877437592,0.03396379202604294,0.24269653856754303,-0.008828599005937576,-0.10255584865808487,-0.07561827450990677,0.27304986119270325,0.025252556428313255,-0.10033214092254639,0.18942268192768097,-0.2035370171070099,0.020052919164299965,-0.2169794887304306,0.24925924837589264,0.07844013720750809,0.26342830061912537,0.23721683025360107,0.08491132408380508,-0.14351613819599152,-0.1933358758687973,0.06728135794401169,-0.21096545457839966,0.16031265258789062,0.07018256932497025,0.1255253702402115,-0.11748445779085159,0.3708850145339966,-0.1617855280637741,-0.0791536495089531,0.09123415499925613,-0.061001408845186234,0.007566467858850956,-0.052909303456544876,-0.05501125380396843,0.15451613068580627,0.16447016596794128,0.2725386321544647,0.19319875538349152,-0.24601592123508453,-0.2242865264415741,0.07441890984773636,-0.11047934740781784,-0.18152549862861633,0.3747105598449707,0.1459892839193344,0.029635699465870857,0.12693099677562714,0.3056499660015106,-0.08364096283912659,-0.04296193644404411,0.2551254332065582,0.19410553574562073,-0.23019106686115265,0.21816925704479218,0.04111606627702713,-0.010305044241249561,-0.3162511885166168,-0.030000444501638412,-0.21176381409168243,-0.22717170417308807,-0.18122637271881104,0.0613771416246891,-0.07660486549139023,-0.306075781583786,0.43012940883636475,0.06520559638738632,-0.561346173286438,0.04661143571138382,-0.036623600870370865,0.07225704938173294,-0.03451871499419212,0.15553009510040283,0.03582940250635147,-0.28391918540000916,-0.29627546668052673,0.31987065076828003,-0.056996457278728485,0.07779441028833389,0.2470417618751526,-0.10223787277936935,-0.22529692947864532,0.2658543884754181,0.03477530926465988,-0.02099878154695034,0.04848458245396614,0.04380244016647339,-0.31563523411750793,0.035087116062641144,0.04204664006829262,-0.31811273097991943,-0.17760078608989716,-0.0016325426986441016,-0.06346184015274048,-0.14726513624191284,0.3338879942893982,-0.06140469014644623,0.07465294748544693,-0.27135342359542847,-0.2765383720397949,-0.032289233058691025,-0.1125117763876915,-0.23947159945964813,0.3411804139614105,0.31610003113746643,0.04658307507634163,-0.006574671249836683,0.08162916451692581,0.03193311393260956,-0.16655898094177246,0.37366044521331787,-0.6445863842964172,0.21476446092128754,-0.5354743599891663,0.4403548538684845,-0.41053059697151184,-0.3110734522342682,0.23453745245933533,-0.13585537672042847,-0.10764320939779282,-0.33733975887298584,0.4640916585922241,0.07310671359300613,0.16565465927124023,-0.14207442104816437,-0.11786681413650513,-0.3640010356903076,-0.07772360742092133,-0.323833167552948,0.1544126719236374,-0.3884766697883606,0.05758502706885338,0.039696309715509415,-0.21150408685207367,0.2725871801376343,-0.0122688515111804,0.11397552490234375,0.29405656456947327,-0.13870985805988312,0.1974480301141739,0.08414339274168015,0.030491560697555542,-0.3266609013080597,0.21825988590717316,-0.38972797989845276,0.17057517170906067,-0.17195600271224976,-0.21756988763809204,0.25133323669433594,0.17218488454818726,0.2898968756198883,-0.14151397347450256,0.35367047786712646,-0.2297801375389099,0.062795490026474,0.07754776626825333,0.32529813051223755,0.2874683439731598,0.21811991930007935,-0.09265486150979996,0.00154646928422153,-0.21663182973861694,0.05722584202885628,0.27681466937065125,0.11656821519136429,-0.20822860300540924,-0.10013698041439056,-0.2015836089849472,0.08864443749189377,-0.015572982840240002,-0.1603402942419052,-0.14148052036762238,0.12281937897205353,0.1339261531829834,0.16899582743644714,0.1979655921459198,-0.10317805409431458,0.019845832139253616,-0.14880962669849396,-0.013317298144102097,0.3961760401725769,-0.09989546239376068,-0.04778062179684639,-0.4696662724018097,-0.13713614642620087,-0.267906129360199,-0.0587584413588047,0.17323240637779236,-0.3255489766597748,0.10511995851993561,0.1975974291563034,-0.04583844169974327,-0.3398069739341736,0.341686487197876,0.07930047810077667,-0.27340060472488403,0.12464683502912521,-0.3865986764431,0.0204714797437191,-0.32613760232925415,0.3139171004295349,-0.04926668852567673,0.14351968467235565,-0.07081255316734314,0.2703200578689575,-0.5379311442375183,0.08905492722988129,-0.5590643286705017,0.06845534592866898,-0.01985291950404644,0.08700481802225113,-0.20868279039859772,-0.3019046187400818,0.03402319177985191,-0.191280335187912,0.16420169174671173,-0.1309412121772766,0.3243640959262848,0.18819686770439148,-0.008884523995220661,-0.039166416972875595,-0.013891536742448807,-0.010806581936776638,0.0038055365439504385,0.09596520662307739,0.02916521579027176,0.06776542216539383,-0.05612555146217346,0.16505351662635803,-0.012840135022997856,-0.14567182958126068,0.009348836727440357,-0.00796701479703188,-0.10588329285383224,0.07723996043205261,0.0906345397233963,0.029298629611730576,-0.018888182938098907,-0.16748274862766266,0.09943394362926483,-0.02246023900806904,-0.016461042687296867,0.21922682225704193,-0.5268587470054626,0.0570765919983387,0.1172526404261589,-0.20503102242946625,-0.14188076555728912,-0.16748380661010742,0.12606841325759888,-0.06048260256648064,-0.04478222876787186,0.02145177684724331,0.020599935203790665,0.044991131871938705,0.13220268487930298,0.10955822467803955,0.28353893756866455,0.3552387058734894,-0.02952687442302704,-0.06946849822998047,-0.021504463627934456,0.17433741688728333,0.08491548895835876,0.399143785238266,0.03210907429456711,0.027506645768880844,0.03379904478788376,-0.07514442503452301,-0.0979757010936737,-0.2766536772251129,0.2055003046989441,0.010722984559834003,0.10399000346660614,0.07867260277271271,0.007261558901518583,0.1426771730184555,0.09364369511604309,-0.02369694411754608,0.06145815551280975,-0.15007461607456207,0.15450765192508698,0.1527867466211319,-0.00221334770321846,-0.172897070646286,-0.011232287622988224,0.19078490138053894,-0.10891585797071457,-0.10133499652147293,-0.306111603975296,0.24993696808815002,-0.04784327745437622,-0.23897938430309296,0.1424800604581833,0.15859931707382202,0.2614770531654358,-0.10937466472387314,-0.12005142867565155,0.19173631072044373,-0.11249184608459473,-0.07324708998203278,-0.24310269951820374,0.0664399117231369,-0.03969809412956238,0.017084645107388496,-0.26786378026008606,-0.2242709994316101,-0.23385649919509888,0.2301672101020813,0.0555521622300148,-0.39769652485847473,0.03529622405767441,0.09989964216947556,0.023472178727388382,-0.15434685349464417,-0.009230205789208412,-0.16742976009845734,-0.06525835394859314,0.02596183493733406,-0.10685204714536667,-0.14956389367580414,0.08805979043245316,0.016903989017009735,-0.03461027517914772,0.10810757428407669,0.09218128025531769,-0.05844833701848984,-0.031828563660383224,-0.09687533229589462,-0.049489088356494904,-0.09842412173748016,-0.11298900842666626,-0.010102013126015663,0.1069367378950119,0.1330265998840332,0.13602422177791595,-0.1789136528968811,0.0016135000623762608,-0.07329325377941132,0.24873138964176178,-0.20865976810455322,0.3692507743835449,0.19365116953849792,-0.0649786964058876,-0.18516242504119873,-0.16533976793289185,0.12365055829286575,0.016899874433875084,0.284559428691864,0.1866040676832199,-0.07779540121555328,-0.43072476983070374,-0.028511451557278633,-0.17785955965518951,-0.14019156992435455,0.19185194373130798,-0.04533625394105911,-0.2398962676525116,-0.2992172837257385,0.042963363230228424,-0.12746277451515198,0.11377732455730438,0.1555996537208557,-0.2950298488140106,0.0753774642944336,0.21504773199558258,-0.24293383955955505,0.1024060919880867,-0.03649140149354935,0.21418902277946472,0.10535655170679092,0.06986517459154129,-0.014539142139256,0.03326323628425598,0.22695186734199524,-0.5031625628471375,-0.05265780910849571,0.019169852137565613,0.18184809386730194,0.061416611075401306,0.23073092103004456,0.20295336842536926,0.02755814976990223,0.020378945395350456,-0.15838247537612915,-0.07363060116767883,0.6939464807510376,-0.29811784625053406,-0.15100225806236267,-0.7803004384040833,0.2318236082792282,0.07720960676670074,0.20679379999637604,0.17561645805835724,0.032262858003377914,-0.19585511088371277,-0.007269437424838543,0.1054612398147583,-0.20427629351615906,-0.023781167343258858,0.18209414184093475,-0.2788366675376892,-0.27606531977653503,-0.15623222291469574,-0.34514814615249634,-0.014547223225235939,-0.05701877921819687,0.0713733583688736,0.29498958587646484,0.11490397900342941,0.13943031430244446,0.08227092027664185,-0.11451051384210587,-0.10049060732126236,0.12773188948631287,-0.055441997945308685,-0.014527302235364914,-0.009191319346427917,0.042912498116493225,0.1239611804485321,-0.21657469868659973,0.18935072422027588,-0.043044231832027435,0.16153651475906372,0.16237947344779968,-0.1143297553062439,-0.04609967768192291,-0.29066187143325806,0.040007080882787704,0.10176629573106766,-0.1432613581418991,0.09128657728433609,0.07834377884864807,0.030257709324359894,-0.12662969529628754,0.08168152719736099,-0.02409229427576065,0.20267152786254883,0.09352744370698929,0.037697214633226395,0.03645479679107666,0.08669010549783707,-0.049717482179403305,-0.1276477724313736,-0.07622607797384262,0.09055008739233017,-0.10097173601388931,-0.09027615189552307,-0.0919785350561142,0.12606564164161682,0.10663209855556488,0.1414872258901596,0.042122188955545425,0.2044748216867447,0.2877720594406128,0.3426435589790344,0.1084081381559372,0.056869179010391235,0.17075079679489136,-0.11536545306444168,0.21364307403564453,-0.0808909460902214,-0.2577642500400543,0.0478370226919651,0.05658935010433197,-0.07581377029418945,0.1864326298236847,0.1373169720172882,-0.09441102296113968,0.227328360080719,0.19133669137954712,-0.03954363241791725,-0.20150300860404968,0.027011437341570854,0.3040103316307068,-0.3099418878555298,0.10817467421293259,-0.10037659108638763,-0.23810607194900513,0.06445636600255966,0.12259402126073837,0.10890891402959824,-0.21382790803909302,-0.07593187689781189,0.10503535717725754,-0.029970554634928703,-0.11327266693115234,-0.14499785006046295,0.04664025455713272,0.04016324505209923,-0.09323718398809433,-0.0028541646897792816,0.045322343707084656,0.0038204530719667673,-0.18929390609264374,-0.09480227530002594,-0.15510769188404083,0.2167290896177292,-0.045752231031656265,0.12666122615337372,-0.17569029331207275,0.174659863114357,0.06559459865093231,0.16482828557491302,-0.11902189254760742,0.1630110889673233,-0.0031957626342773438,0.0341825969517231,-0.03435380384325981,0.11131665110588074,-0.07284838706254959,0.3348827064037323,-0.049330949783325195,-0.1865915060043335,-0.05759831517934799,-0.07673551142215729,-0.1314685195684433,0.1547900140285492,0.2565832734107971,0.022402644157409668,-0.08272392302751541,0.143922820687294,0.1017036959528923,-0.05581190809607506,0.08205317705869675,-0.153533473610878,-0.0820092186331749,-0.025453658774495125,0.23331980407238007,-0.429594486951828,0.1608561873435974,-0.24729031324386597,-0.0018492800882086158,-0.4602479636669159,0.43984389305114746,0.10553795844316483,0.32687416672706604,-0.31569311022758484,0.2726590931415558,0.053924720734357834,-0.3085821568965912,-0.2326798439025879,0.01673216186463833,0.4987860918045044,-0.048475779592990875,-0.08467566221952438,-0.014959221705794334,-0.2039000540971756,-0.2752736210823059,0.5151346325874329,0.24240712821483612,0.2215627133846283,-0.008116474375128746,-0.22789959609508514,-0.06549645960330963,0.4476962685585022,-0.16936607658863068,-0.2271651327610016,0.39243942499160767,-0.013871346600353718,0.025675946846604347,0.017385510727763176,-0.006528542377054691,0.0673854872584343,0.17948761582374573,-0.25829029083251953,-0.22528471052646637,0.5590515732765198,0.21238663792610168,0.13299813866615295,-0.1145598366856575,0.15904830396175385,-0.09077315777540207,-0.03924817219376564,0.19872471690177917,0.043518517166376114,-0.3757132291793823,0.021518774330615997,-0.13203378021717072,-0.09034392237663269,0.08112195879220963,0.20424585044384003,0.24630174040794373,0.06008753180503845,-0.2224169820547104,-0.06772084534168243,-0.165812149643898,-0.26602867245674133,0.2329639196395874,0.08116699755191803,0.05500870198011398,-0.4542264938354492,0.1936730444431305,-0.38584214448928833,-0.12174226343631744,0.016104523092508316,0.22537343204021454,-0.12317825853824615,-0.23800653219223022,0.030620096251368523,-0.0033473833464086056,-0.015493392013013363,0.1735314130783081,-0.2263335883617401,-0.07456281781196594,0.1531488597393036,-0.04903952032327652,-0.01807491108775139,-0.052293021231889725,0.20033863186836243,-0.0290275476872921,0.14197885990142822,-0.14770378172397614,0.1437256783246994,0.19257670640945435,-0.47685256600379944,-0.09480685740709305,-0.18526431918144226,0.20182575285434723,0.1406722515821457,-0.1440286636352539,-0.18245777487754822,0.2823677062988281,-0.03018035925924778,-0.15230028331279755,-0.11738117039203644,-0.1921282559633255,0.06826363503932953,-0.2698628902435303,0.015184108167886734,-0.04838595539331436,0.2111109495162964,-0.08596466481685638,0.07650176435709,0.055956047028303146,-0.17521025240421295,0.05059760808944702,0.10078191757202148,-0.050437018275260925,-0.048545271158218384,0.15472669899463654,-0.30634090304374695,-0.08994775265455246,-0.04339464381337166,0.05712347477674484,0.04011382535099983,-0.24789650738239288,-0.03633452206850052,0.23978546261787415,-0.24143068492412567,0.09974361211061478,0.04208089038729668,-0.08039578050374985,0.15041719377040863,-0.06359763443470001,-0.03528288006782532,0.09835666418075562,0.06502735614776611,-0.2581060230731964,0.06422168016433716,0.08433656394481659,-0.04062380641698837,0.1221693679690361,-0.2052338570356369,0.005723272915929556,-0.1394023597240448,0.06738915294408798,0.06671487540006638,-0.14843390882015228,-0.020830845460295677,-0.013145249336957932,-0.0822841227054596,-0.055232614278793335,0.21650435030460358,0.4757126569747925,-0.1607133448123932,0.17271064221858978,0.04559123143553734,-0.12728078663349152,0.03891433775424957,-0.28134188055992126,-0.06692983955144882,0.006978463847190142,0.14828434586524963,0.009013243019580841,0.014110127463936806,0.09054778516292572,-0.048331279307603836,0.1356983780860901,0.02496510185301304,-0.06428547203540802,-0.12032286822795868,0.2767818868160248,0.03598087653517723,0.1197856217622757,-0.31055453419685364,-0.11174596101045609,0.028776492923498154,0.18350717425346375,-0.043109700083732605,-0.04376048594713211,0.051918406039476395,-0.07656814157962799,-0.1469886749982834,0.08081001043319702,-0.07613048702478409,-0.09138303250074387,0.03532563894987106,0.07121477276086807,-0.021476468071341515,-0.15335354208946228,0.03521761670708656,0.11437736451625824,-0.00807155016809702,-0.1522217094898224,-0.09890997409820557,0.037771012634038925,0.08372538536787033,0.16410765051841736,0.10136765241622925,-0.0052744424901902676,-0.22020745277404785,0.11022350192070007,-0.027091430500149727,-0.1572897881269455,0.17145104706287384,-0.008827750571072102,0.0953701063990593,-0.009934055618941784,0.09795054793357849,-0.12101607024669647,-0.02306434139609337,0.02064848691225052,0.06371676921844482,0.01928507722914219,-0.22838899493217468,-0.10159411281347275,-0.02355915866792202,-0.10411420464515686,0.11838914453983307,0.007300184573978186,-0.11454541236162186,-0.07760707288980484,0.3755809962749481,-0.08889681845903397,0.1395702362060547,0.10602457821369171,-0.168756365776062,0.11488883942365646,0.06819966435432434,-0.184564471244812,0.006933888886123896,0.09642548859119415,0.013715502806007862,-0.10196235030889511,-0.10854687541723251,-0.0635274276137352,0.25046730041503906,0.1418376863002777,-0.25353625416755676,-0.21476472914218903,