{"version":"0.5.4","metadata":{"date":{"year":2025,"month":11,"day":4,"hour":8,"minute":2,"second":44},"loudness":-16.08218002319336,"gain":0.3878185114952383,"name":"5150 CLEAN (4X12 G12T)","modeled_by":"3101gustavoagoliveira","gear_type":"amp","gear_make":"tz-make","gear_model":"tz-model","tone_type":"overdrive","input_level_dbu":null,"output_level_dbu":null,"training":{"settings":{"ignore_checks":true},"data":{"latency":{"manual":0,"calibration":{"algorithm_version":1,"delays":[1],"safety_factor":1,"recommended":0,"warnings":{"matches_lookahead":false,"disagreement_too_high":false}}},"checks":{"version":4,"passed":false}},"validation_esr":0.001059344166356283}},"architecture":"WaveNet","config":{"layers":[{"input_size":1,"condition_size":1,"head_size":8,"channels":16,"kernel_size":3,"dilations":[1,2,4,8,16,32,64,128,256,512],"activation":"Tanh","gated":false,"head_bias":false},{"input_size":16,"condition_size":1,"head_size":1,"channels":8,"kernel_size":3,"dilations":[1,2,4,8,16,32,64,128,256,512],"activation":"Tanh","gated":false,"head_bias":true}],"head":null,"head_scale":0.02},"weights":[0.011110995896160603,0.43132951855659485,-0.724298894405365,-0.7826710939407349,-0.07595063000917435,0.33404776453971863,-0.028925945982336998,0.6588411927223206,-0.08094190061092377,0.11585590988397598,-0.2904665470123291,-0.1221972182393074,-0.8068752288818359,-0.6548587679862976,-0.335523784160614,-0.0950876846909523,0.06460423767566681,0.07842475920915604,-0.06891222298145294,-0.13634520769119263,-0.06728899478912354,0.14990593492984772,0.04599037393927574,0.2290116250514984,-0.051176805049180984,0.09092481434345245,0.2527812719345093,-0.16317884624004364,-0.009936354123055935,0.0875212624669075,-0.06453871726989746,0.057845890522003174,-0.20765432715415955,-0.029878705739974976,-0.05651717633008957,-0.022836577147245407,-0.05064373090863228,0.047848839312791824,-0.05688795447349548,0.09749474376440048,0.05197261646389961,0.015553705394268036,-0.03408343344926834,-0.16764767467975616,-0.17811496555805206,-0.015915069729089737,0.15523546934127808,0.1944238692522049,-0.10384335368871689,0.07300671190023422,0.2125481814146042,0.12485373020172119,0.13374114036560059,0.14122287929058075,0.06945893168449402,-0.009054562076926231,0.14926938712596893,-0.13973519206047058,-0.029050366953015327,0.04106258973479271,0.034323759377002716,-0.024949142709374428,-0.0687718316912651,-0.04691157117486,0.13453376293182373,-0.005406287033110857,-0.05273617431521416,0.09538450092077255,0.1500770002603531,0.10927364230155945,-0.1754184514284134,-0.11209292709827423,0.08562508970499039,0.053392406553030014,0.06387336552143097,0.15413257479667664,-0.021087760105729103,-0.17044490575790405,0.04205486550927162,-0.024593988433480263,-0.07269231230020523,0.10334813594818115,0.18670697510242462,-0.10585816949605942,0.01577676087617874,0.04150144383311272,0.03691811487078667,-0.09329470247030258,0.00758378766477108,-0.12914898991584778,0.09264420717954636,0.10336735099554062,0.12891830503940582,-0.0016578062204644084,-0.20678716897964478,-0.15336790680885315,0.09899644553661346,-0.04500116407871246,-0.17923413217067719,-0.06603493541479111,0.07102474570274353,0.037874020636081696,-0.03473236784338951,-0.10109274834394455,-0.19835595786571503,0.02458222210407257,-0.17396900057792664,-0.17227619886398315,0.01643046922981739,0.061674151569604874,-0.11158058792352676,0.04177524521946907,-0.1512138545513153,0.09449279308319092,0.02818562462925911,-0.1134616956114769,0.055721621960401535,-0.10255811363458633,0.012207749299705029,-0.05857410281896591,0.1647830754518509,-0.0006690524169243872,-0.16486509144306183,0.1781431883573532,-0.14307916164398193,-0.17005814611911774,0.05787461996078491,-0.07171937078237534,0.03447271138429642,-0.23756378889083862,0.08112026005983353,0.03873608261346817,0.04695940390229225,0.0012095373822376132,0.1953771859407425,-0.12337802350521088,0.045372553169727325,-0.052062470465898514,0.18888767063617706,0.06164255738258362,0.18644216656684875,-0.03666327893733978,0.14201626181602478,-0.08902306854724884,-0.006401319056749344,-0.07364124804735184,0.012254167348146439,0.1025448814034462,-0.08186418563127518,-0.2049761712551117,-0.028179803863167763,-0.13040052354335785,-0.12272679805755615,0.18808753788471222,0.07637910544872284,-0.22367805242538452,0.2035669982433319,-0.054904766380786896,-0.08275666832923889,0.020794572308659554,0.07499702274799347,0.019511112943291664,-0.12280189245939255,-0.006495359819382429,-0.09021317213773727,0.05203166976571083,-0.18662039935588837,0.12022817134857178,-0.18303555250167847,-0.13158178329467773,0.1961483359336853,-0.11010457575321198,0.012704988941550255,0.08937770128250122,-0.19963982701301575,0.20704026520252228,-0.08814819157123566,-0.016453878954052925,-0.005013212561607361,-0.12785528600215912,-0.1064993143081665,0.0908588245511055,0.03785153850913048,0.09340313822031021,-0.035500869154930115,0.11381997913122177,-0.08610374480485916,0.10176687687635422,-0.14720961451530457,0.15370197594165802,-0.005618774797767401,0.16273176670074463,-0.15477772057056427,-0.0931500792503357,-0.03537558391690254,-0.12488094717264175,-0.20506301522254944,0.11659238487482071,-0.13815994560718536,-0.12590420246124268,0.07214081287384033,0.03958815708756447,-0.22594881057739258,-0.0350884348154068,-0.1359170377254486,0.04784642159938812,0.05625954270362854,0.1377762407064438,-0.1529495120048523,-0.0988989919424057,-0.09269241988658905,-0.20654048025608063,0.1283365935087204,0.043332431465387344,0.17383870482444763,-0.09557795524597168,-0.1918899118900299,0.10267534852027893,0.0018326716963201761,-0.1944814920425415,0.13877561688423157,0.031462252140045166,-0.02952359989285469,-0.1796170175075531,-0.01784251444041729,0.13989679515361786,0.029530733823776245,-0.07161548733711243,0.04504748433828354,-0.1950918585062027,0.1163402646780014,0.19932693243026733,0.18343287706375122,0.013585393317043781,0.011384355835616589,-0.23380038142204285,0.17955748736858368,-0.0103814247995615,0.11135544627904892,-0.07320134341716766,-0.032659851014614105,0.27356433868408203,-0.1572224497795105,-0.08371948450803757,0.247444286942482,-0.25573819875717163,0.023833120241761208,0.0592191144824028,-0.11011803150177002,-0.1003187969326973,0.0944085344672203,-0.09400423616170883,0.03973397612571716,0.10660895705223083,-0.07355934381484985,0.08480940014123917,-0.12019764631986618,0.08504389971494675,0.002334820106625557,-0.08454883098602295,-0.039230454713106155,0.010166427120566368,0.06605523824691772,0.06554996967315674,0.12680570781230927,-0.06016918271780014,-0.08631584793329239,0.11795113235712051,0.11555898934602737,-0.0056729004718363285,-0.010780982673168182,-0.06810520589351654,-0.10101375728845596,-0.055969156324863434,0.055587563663721085,-0.04013459011912346,0.2891623079776764,-0.08355581015348434,0.027871642261743546,-0.0334651954472065,0.03648681938648224,-0.09686823934316635,0.004919758532196283,0.09303615242242813,0.03827818110585213,0.03683631867170334,-0.049026794731616974,0.008265567012131214,0.05344906449317932,0.0030936230905354023,-0.11815546452999115,0.1332438886165619,0.03465121611952782,-0.0489172525703907,0.0413089282810688,-0.10003872960805893,0.05447192117571831,-0.033453699201345444,0.054377663880586624,-0.08768824487924576,0.00860241986811161,0.08521746098995209,-0.026051228865981102,0.11375686526298523,-0.04125119000673294,-0.19920241832733154,-0.0830494835972786,0.09641129523515701,0.1068764254450798,-0.20290109515190125,-0.15155541896820068,-0.07065697759389877,0.23746293783187866,-0.08845940977334976,0.003866819432005286,0.2844199240207672,-0.10533255338668823,-0.049123506993055344,0.2165006399154663,0.037026189267635345,0.05544525012373924,-0.1775091141462326,-0.09741488099098206,-0.020143501460552216,0.16971856355667114,0.16340301930904388,0.13268518447875977,-0.1681564897298813,0.0777982845902443,-0.07740648090839386,0.10735416412353516,-0.15185832977294922,0.1324923187494278,-0.12204626947641373,-0.12482760846614838,0.015723560005426407,0.3044028580188751,0.10261788219213486,0.06622155010700226,0.27461928129196167,-0.06692587584257126,-0.09953079372644424,0.30539384484291077,0.045143790543079376,-0.13822439312934875,0.31517037749290466,0.039310965687036514,0.03301013261079788,0.09509114176034927,0.04540060833096504,-0.1125272735953331,0.16496334969997406,0.027351099997758865,0.08570411801338196,0.004040481988340616,0.2022552192211151,0.10867223888635635,-0.026526115834712982,-0.2395559400320053,-0.1214996874332428,0.0010188296437263489,-0.28454869985580444,-0.27313584089279175,0.21278373897075653,-0.05279908329248428,-0.016538945958018303,0.19189180433750153,0.004865078255534172,0.05175269395112991,-0.12727482616901398,-0.13154664635658264,-0.00008057844388531521,-0.09069056063890457,0.06956496089696884,0.015561675652861595,-0.17956030368804932,0.029764750972390175,0.012795698828995228,0.24744179844856262,0.1929914504289627,0.22773009538650513,-0.16556541621685028,-0.06410310417413712,-0.014146244153380394,0.15780246257781982,-0.0006123356288298965,-0.08287221193313599,0.17300058901309967,-0.1916254758834839,-0.08652220666408539,0.11369036883115768,-0.17623117566108704,-0.2390851527452469,0.015684789046645164,-0.24445860087871552,-0.05189446732401848,0.20274673402309418,-0.06980971246957779,-0.21012574434280396,0.1646355390548706,0.1331169754266739,0.07729072868824005,-0.017857065424323082,0.15666818618774414,0.15702831745147705,-0.17808938026428223,0.11152118444442749,0.008349643088877201,0.013233017176389694,0.055226776748895645,-0.183346226811409,0.0459415577352047,0.09633892774581909,-0.0904741883277893,-0.04989765211939812,-0.035531505942344666,0.049819763749837875,-0.10908237099647522,0.08217830210924149,0.12329479306936264,0.12552791833877563,-0.06302021443843842,0.10761702060699463,0.002824824070557952,0.0927126333117485,-0.18301057815551758,0.08908676356077194,-0.11266816407442093,0.003617706010118127,-0.03201041370630264,-0.11738663166761398,-0.03523501008749008,0.20156052708625793,-0.009405096061527729,-0.18806099891662598,0.0145577322691679,0.0035412877332419157,-0.21278993785381317,0.13637878000736237,-0.1563541293144226,-0.23914703726768494,-0.07236471027135849,-0.048071056604385376,0.004918917082250118,-0.06411193311214447,0.1823628842830658,-0.066691555082798,0.16001200675964355,0.08962537348270416,-0.03668161481618881,0.3336730897426605,0.067227303981781,-0.04917425289750099,0.18423336744308472,-0.08861969411373138,0.3072705864906311,-0.10848554968833923,0.07766859978437424,0.07622100412845612,-0.15580280125141144,-0.13323000073432922,0.12073726207017899,-0.06928280740976334,-0.11922751367092133,-0.1437496542930603,0.19270899891853333,0.09548231959342957,0.17277725040912628,0.008236689493060112,-0.054004207253456116,-0.12557782232761383,0.25607770681381226,0.06982071697711945,0.1463681012392044,-0.08588308095932007,-0.10021568834781647,-0.2535819411277771,0.21167102456092834,-0.07859106361865997,0.25297918915748596,-0.2205953299999237,-0.03540204465389252,0.09036017954349518,-0.006400827318429947,-0.006570673547685146,0.2997196912765503,-0.024989621713757515,0.0892900824546814,0.19653402268886566,-0.1569909006357193,-0.02767975628376007,0.20110605657100677,-0.0452430360019207,-0.1577519178390503,0.3213035762310028,-0.018063686788082123,-0.16795599460601807,-0.1774565726518631,0.03378056734800339,0.22354282438755035,-0.17701798677444458,0.08783258497714996,-0.01966024748980999,0.12896327674388885,0.13584065437316895,-0.1699640452861786,0.09039628505706787,0.07288758456707001,-0.1207059770822525,0.09034822881221771,-0.02821609377861023,0.18152840435504913,-0.08360020816326141,-0.06496548652648926,0.03646494820713997,0.11052674055099487,-0.11076950281858444,0.10335025936365128,0.03884953260421753,-0.029656922444701195,-0.03246688470244408,0.02071749046444893,0.07498016953468323,-0.03599947318434715,-0.13697345554828644,-0.10000456869602203,0.0493939146399498,0.013017400167882442,0.02143165096640587,-0.14828117191791534,0.19534924626350403,0.16624628007411957,-0.198747456073761,-0.07132796943187714,-0.09374911338090897,-0.09342922270298004,0.0063054198399186134,-0.08208274096250534,-0.13759572803974152,0.07439800351858139,-0.05783757567405701,0.03358171135187149,-0.007662751246243715,-0.13994896411895752,-0.0021031731739640236,0.024647163227200508,-0.1327764391899109,0.115384541451931,-0.29132768511772156,0.23155133426189423,-0.2463371902704239,0.10070420056581497,0.05080035328865051,-0.20232154428958893,0.2704678177833557,-0.10490575432777405,-0.12300959974527359,0.18834875524044037,0.009402901865541935,0.12132821977138519,-0.3790169358253479,0.011571991257369518,-0.04929545521736145,0.3008560538291931,-0.15947331488132477,0.24463634192943573,-0.270995557308197,0.06436021625995636,-0.013007082045078278,0.2874877452850342,0.011280212551355362,0.2090359777212143,-0.22574850916862488,0.017190920189023018,-0.12084733694791794,0.35719218850135803,-0.1397566944360733,-0.19751107692718506,0.32423123717308044,0.09501244127750397,-0.14934751391410828,0.12100698053836823,-0.22134383022785187,-0.07492346316576004,0.22890059649944305,-0.16557125747203827,-0.07690497487783432,0.29031404852867126,0.02577287144958973,0.031204454600811005,0.16167862713336945,-0.21416153013706207,-0.2895701229572296,-0.03038214147090912,-0.08046398311853409,0.08388981223106384,-0.26308804750442505,0.19114182889461517,0.11246839910745621,0.26680463552474976,-0.18184176087379456,-0.07697077095508575,0.03926217928528786,0.07690268754959106,-0.08068422228097916,0.07001932710409164,0.03284895047545433,-0.032739851623773575,-0.19958539307117462,0.05758354440331459,-0.13023780286312103,-0.06953133642673492,0.05440357327461243,-0.04232197627425194,-0.08717701584100723,0.1832977831363678,0.012746668420732021,0.11543186753988266,0.023561667650938034,0.0676359310746193,-0.17529061436653137,0.2064894288778305,0.005161857232451439,-0.010419060476124287,-0.10727720707654953,-0.11900348961353302,0.2674282193183899,-0.07174569368362427,-0.15282994508743286,0.13054774701595306,0.03364965692162514,0.015219463966786861,0.18413317203521729,-0.044805023819208145,0.026133866980671883,0.09627705067396164,-0.12008527666330338,-0.19866569340229034,-0.06716715544462204,-0.03113805688917637,-0.06957944482564926,0.0413256473839283,0.08202110975980759,-0.0050851721316576,-0.1660005748271942,0.22977131605148315,-0.06571534276008606,0.19578972458839417,-0.20358164608478546,-0.01640668511390686,0.1555563509464264,-0.14989176392555237,0.13425219058990479,-0.02771359123289585,-0.1992318034172058,-0.070437490940094,-0.041924238204956055,0.2361949235200882,-0.1900949627161026,-0.0019878032617270947,-0.2089301347732544,-0.0496353805065155,0.02952786162495613,-0.02310800552368164,-0.01247220765799284,0.16443631052970886,-0.1552891880273819,0.11778676509857178,-0.09594757854938507,0.2140107899904251,-0.13363951444625854,0.042965784668922424,-0.12796323001384735,0.04507508501410484,0.11595142632722855,0.01168983243405819,-0.0011354784946888685,0.0735718309879303,0.011956225149333477,-0.021581143140792847,0.20262722671031952,-0.18631607294082642,-0.0061327130533754826,0.059808798134326935,-0.0317421592772007,0.01772356778383255,-0.06427019089460373,-0.2708495855331421,-0.0010211234912276268,-0.10411736369132996,-0.07036743313074112,-0.025053834542632103,-0.02298939973115921,0.15174748003482819,-0.054824501276016235,-0.021757137030363083,0.0841442123055458,-0.1743643879890442,0.1517985761165619,0.004852070473134518,-0.11701048910617828,0.14780904352664948,-0.14149978756904602,0.09517808258533478,-0.21305544674396515,-0.003030886175110936,0.0955549031496048,0.284209281206131,-0.04380330443382263,0.15868742763996124,-0.13223737478256226,-0.052682988345623016,-0.1824156641960144,-0.01874026283621788,0.12821653485298157,0.035280805081129074,-0.06767300516366959,0.07138430327177048,0.03363904729485512,0.2385091930627823,0.10227006673812866,-0.13236410915851593,0.11248356103897095,-0.06492171436548233,-0.148002490401268,0.1503060907125473,0.12033509463071823,-0.18130281567573547,0.2050420492887497,-0.09037843346595764,-0.08829277753829956,0.22900493443012238,-0.04516550526022911,-0.08407256752252579,-0.05292024090886116,0.023060696199536324,-0.02448430471122265,-0.08228444308042526,0.14065541326999664,-0.18918907642364502,-0.22297251224517822,0.16072283685207367,0.1994250863790512,0.06460411101579666,-0.08474628627300262,0.21166759729385376,0.20430251955986023,-0.22876402735710144,0.06756829470396042,0.06083247438073158,-0.24445481598377228,-0.08256060630083084,0.003924557939171791,0.27726614475250244,0.09160648286342621,0.17852090299129486,-0.06320630013942719,0.022979049012064934,-0.16628673672676086,0.05163029581308365,0.06958690285682678,0.1535467803478241,-0.3184243142604828,0.10013359785079956,0.00009358509123558179,0.08321485668420792,0.04210050776600838,0.2190282940864563,-0.2757616639137268,0.05676897242665291,0.16310051083564758,-0.25590837001800537,0.16415895521640778,0.18045297265052795,-0.06344296783208847,-0.004491095431149006,0.25285232067108154,-0.23649345338344574,0.22458243370056152,-0.0374574139714241,-0.28259798884391785,0.11302149295806885,0.15136964619159698,-0.044931888580322266,-0.04227399826049805,-0.16372732818126678,-0.12358672171831131,-0.06053537875413895,-0.03693815693259239,0.0362846814095974,-0.01272018812596798,-0.018739530816674232,0.002987244399264455,0.1338409036397934,-0.03327634930610657,0.03879249468445778,0.0027847159653902054,0.08343303203582764,-0.03805740177631378,-0.035901498049497604,0.46603626012802124,-0.45145201683044434,0.6971275806427002,-0.6479646563529968,0.08090461045503616,0.8311322331428528,0.8131541013717651,-0.669000506401062,0.11928440630435944,0.22763259708881378,-0.47952768206596375,-0.2546052634716034,0.3226183354854584,-0.6146647334098816,0.18222923576831818,0.5780867338180542,-0.01639399491250515,0.214848592877388,-0.03429827839136124,0.26982688903808594,0.07637730985879898,-0.05179809033870697,0.06983808428049088,-0.023434385657310486,-0.08336091786623001,0.09210305660963058,0.06375940889120102,0.43998485803604126,0.3133144676685333,0.02884669229388237,0.41577085852622986,-0.04000430181622505,0.24434131383895874,-0.22013308107852936,-0.2994079887866974,0.05531316623091698,-0.10314925760030746,-0.08448632061481476,-0.08930782228708267,-0.13255499303340912,-0.14486771821975708,0.22836042940616608,-0.054950740188360214,0.376791775226593,0.2699969410896301,0.045212164521217346,0.1442691683769226,0.48329201340675354,0.20583388209342957,0.06222572922706604,0.05989234894514084,0.14202509820461273,-0.04462067037820816,0.005048003513365984,0.09763862937688828,-0.25412407517433167,0.07798168063163757,-0.06023186817765236,0.028857989236712456,-0.23158662021160126,0.20343178510665894,0.13372798264026642,0.0027675970923155546,0.2331145852804184,0.25405919551849365,-0.1658562570810318,-0.05076389014720917,-0.18043184280395508,-0.007194555830210447,0.1035560891032219,-0.04614885896444321,-0.27247354388237,-0.16469746828079224,0.20785045623779297,-0.07179344445466995,0.1279841661453247,0.16473384201526642,0.15408940613269806,-0.10552531480789185,0.2761717438697815,-0.17923212051391602,-0.27938112616539,-0.1655794233083725,0.09083407372236252,0.14727655053138733,0.23736925423145294,0.10451814532279968,-0.1561681181192398,0.13714087009429932,0.3236435651779175,-0.14779014885425568,0.2543887794017792,0.08202521502971649,0.08493256568908691,0.11539468169212341,0.1681048423051834,-0.22156168520450592,-0.03113401122391224,0.16108009219169617,0.1359705626964569,0.2043689638376236,0.24978072941303253,0.2880893051624298,0.09888779371976852,0.1699656844139099,-0.0043097808957099915,-0.19428330659866333,-0.06828904896974564,0.029524894431233406,-0.13577748835086823,0.006862411741167307,0.04680323600769043,-0.07089387625455856,0.2207934707403183,0.09340525418519974,0.15262126922607422,-0.29810091853141785,-0.40207698941230774,-0.0026397297624498606,0.36156439781188965,-0.007162280380725861,-0.3776663839817047,-0.005436629988253117,0.10657554864883423,0.057833556085824966,-0.0880170539021492,0.130772203207016,-0.4429686665534973,0.29297226667404175,0.1076754778623581,0.16734473407268524,-0.23231619596481323,-0.19833438098430634,-0.006511348765343428,0.1285557895898819,0.0230734683573246,-0.014525853097438812,-0.2857580780982971,0.1795259267091751,-0.28162187337875366,0.12119456380605698,0.012168582528829575,-0.07276198267936707,0.08356671780347824,-0.04864266514778137,0.03968250751495361,-0.26733967661857605,-0.27553024888038635,0.07221219688653946,-0.0925373062491417,-0.20316384732723236,-0.010702569968998432,-0.19413156807422638,-0.18676531314849854,0.12387517094612122,-0.016977660357952118,0.0403943695127964,-0.15169958770275116,-0.03422679379582405,0.07497214525938034,-0.2587006390094757,0.007800881750881672,0.10432836413383484,-0.1377754509449005,-0.2811441421508789,-0.020684758201241493,0.014191754162311554,0.07565110921859741,-0.04129541665315628,0.30479758977890015,0.06036003306508064,0.32300323247909546,0.3065451383590698,0.25971463322639465,-0.04880841076374054,-0.11266224086284637,0.1320793330669403,0.1499374657869339,-0.26144173741340637,0.1308455467224121,-0.11832991987466812,-0.18334302306175232,0.009316913783550262,-0.09112120419740677,0.0779951736330986,-0.07180747389793396,-0.049404677003622055,0.16428910195827484,-0.04075060039758682,0.07609434425830841,0.11519820243120193,0.20232096314430237,-0.13102182745933533,-0.15281207859516144,0.16475914418697357,-0.1822773665189743,0.2717546224594116,-0.04951874166727066,-0.05974922329187393,-0.08763096481561661,0.09605348855257034,-0.1980886459350586,-0.18495836853981018,-0.5918700695037842,-0.24937687814235687,0.024889489635825157,-0.2791440784931183,-0.20085746049880981,-0.10853637754917145,-0.031477611511945724,0.23622684180736542,0.07044538855552673,0.30278486013412476,0.032854676246643066,0.11428046971559525,-0.04322322458028793,0.40044641494750977,-0.07946529984474182,-0.28275066614151,-0.22914089262485504,0.0633828192949295,-0.3669465184211731,-0.000643935170955956,0.32249006628990173,-0.16537544131278992,-0.124970443546772,-0.0381486676633358,0.2220468670129776,-0.034842681139707565,0.2219865620136261,0.21075451374053955,0.24850931763648987,0.09619561582803726,0.01762440614402294,0.09624708443880081,0.14416594803333282,-0.2291242629289627,-0.1795685738325119,0.09304297715425491,-0.14629776775836945,-0.29478874802589417,0.20730699598789215,0.0452306903898716,-0.038527388125658035,0.13198192417621613,0.13816723227500916,0.24179066717624664,0.21155913174152374,-0.08748438954353333,0.04355793818831444,0.042560480535030365,-0.16664962470531464,0.0004490793508011848,0.009853558614850044,-0.048663023859262466,-0.1077163815498352,-0.012451364658772945,0.10647207498550415,0.06392167508602142,-0.20007334649562836,-0.1184496283531189,-0.007517113350331783,-0.1241593062877655,0.49875208735466003,-0.19868293404579163,-0.178253173828125,0.1610305905342102,-0.10813385993242264,0.015205340459942818,0.2775767743587494,-0.015883879736065865,-0.4906079173088074,0.06640002876520157,-0.07504008710384369,0.1200321838259697,-0.12511305510997772,-0.08883580565452576,-0.03477593511343002,0.10460206866264343,-0.004396903328597546,0.029828332364559174,-0.1000162735581398,0.029521336778998375,0.004169521853327751,0.07113896310329437,0.08477526158094406,0.05034579336643219,0.009595368057489395,-0.06955982744693756,-0.05372336879372597,0.020253220573067665,0.19154421985149384,0.018853358924388885,0.09826841950416565,-0.19982898235321045,0.05871083214879036,0.10728808492422104,-0.290504515171051,0.040840502828359604,0.05206335335969925,-0.0211956687271595,-0.10542190074920654,0.008808412589132786,0.33959636092185974,-0.14340029656887054,0.013949114829301834,-0.1819363683462143,-0.18155112862586975,-0.08447879552841187,0.13757067918777466,-0.183741495013237,-0.27429836988449097,-0.22034409642219543,0.12398073822259903,-0.038929447531700134,-0.1704658418893814,0.024860849604010582,-0.1501479148864746,-0.24964705109596252,0.10171351581811905,0.18030448257923126,0.09069052338600159,-0.1883157342672348,0.31647974252700806,-0.06651385873556137,0.12499590963125229,0.04253640025854111,-0.2376461625099182,-0.00012582250928971916,-0.16060636937618256,-0.19636845588684082,0.1602318435907364,0.10909082740545273,0.0116436667740345,-0.16488999128341675,-0.1849052906036377,0.19863907992839813,-0.12542027235031128,0.16624370217323303,-0.32673290371894836,0.07256375998258591,-0.05031949281692505,-0.00940784066915512,0.017189865931868553,0.07583905756473541,-0.12749099731445312,0.13022355735301971,-0.14444100856781006,-0.05857820808887482,-0.1471090465784073,0.019053030759096146,-0.15253078937530518,-0.22441771626472473,-0.00853386428207159,0.15770868957042694,-0.0992356464266777,0.10069633275270462,0.09365353733301163,-0.048639457672834396,0.09186860173940659,-0.1443169265985489,-0.01355023868381977,-0.11528748273849487,0.1502150595188141,0.05425466224551201,-0.04763055592775345,0.09970346093177795,0.06535680592060089,-0.06371559947729111,0.0761006623506546,-0.4388425946235657,0.22082145512104034,0.09652819484472275,-0.0698472335934639,-0.07921342551708221,0.1034645214676857,-0.03703766688704491,0.0021744505502283573,0.07283282279968262,-0.16108383238315582,-0.05565905570983887,0.023574983701109886,0.11240687966346741,0.05920631065964699,-0.022815437987446785,0.04311710223555565,0.0442696139216423,0.13010174036026,0.17768466472625732,-0.018637722358107567,-0.04606493562459946,0.14380036294460297,0.13735030591487885,0.08564995229244232,0.05408952757716179,0.0015962234465405345,0.027041791006922722,-0.13012900948524475,0.14561863243579865,0.010410972870886326,-0.007763926405459642,0.07553444057703018,0.24257422983646393,0.08913014084100723,-0.11233296990394592,-0.05221184343099594,-0.1687445044517517,0.04265802726149559,0.0061420355923473835,0.0015455710235983133,0.05710943788290024,0.029561355710029602,0.18845254182815552,-0.051947809755802155,-0.15248973667621613,-0.034125328063964844,0.14817018806934357,0.0874895378947258,-0.16979412734508514,0.5367910861968994,-0.011982386000454426,-0.0764375701546669,-0.029600689187645912,0.02868671342730522,0.02657311037182808,0.06678508967161179,-0.05056975036859512,0.13314422965049744,0.15851055085659027,-0.061685867607593536,0.1598539501428604,0.05632399022579193,-0.1752707064151764,-0.4535575807094574,0.013351982459425926,-0.15952377021312714,-0.020253658294677734,-0.7618192434310913,0.10335035622119904,-0.27856841683387756,-0.2021428793668747,0.0937882661819458,0.0044840979389846325,-0.285325288772583,0.05986206606030464,0.15117518603801727,-0.2796087861061096,-0.04229237884283066,0.34435874223709106,0.0479411818087101,0.09893425554037094,-0.5297480821609497,0.7038692235946655,-0.21214407682418823,0.1286439448595047,-0.0017164372839033604,0.09844936430454254,-0.3127026855945587,0.08041810989379883,0.20309530198574066,-0.4209657311439514,0.014268426224589348,0.04920417070388794,-0.348516047000885,-0.050841547548770905,0.06496897339820862,0.37002235651016235,0.8716300129890442,0.20976482331752777,0.4471895396709442,0.14177565276622772,0.0621299110352993,-0.257342129945755,0.26019108295440674,0.026087244972586632,-0.06780905276536942,0.45854562520980835,0.02706192061305046,-0.2579742670059204,0.6996355056762695,-0.2510591149330139,-0.12267453968524933,-0.039931852370500565,0.11531925201416016,0.17711544036865234,-0.05226897820830345,-0.04403242841362953,0.05042332410812378,-0.0610751174390316,-0.04984764754772186,0.09728066623210907,0.10068329423666,0.05534813553094864,0.11686965078115463,-0.11314765363931656,-0.10877621173858643,0.1046520471572876,-0.05213163420557976,-0.08083336800336838,-0.23330307006835938,0.10327117145061493,0.009529749862849712,0.13733425736427307,0.13917423784732819,0.11108912527561188,0.028730694204568863,-0.08162853866815567,-0.2061571478843689,-0.13854095339775085,0.020606227219104767,0.12847010791301727,-0.08520987629890442,-0.030557064339518547,0.13732768595218658,0.2482665479183197,0.13067719340324402,0.02383698709309101,-0.18537777662277222,0.14795145392417908,-0.025500262156128883,-0.08958364278078079,0.022145643830299377,0.014380852691829205,-0.17555543780326843,-0.11982163041830063,0.04455515369772911,0.012843722477555275,0.061813801527023315,0.02711341716349125,-0.054413728415966034,-0.04323389753699303,-0.128579244017601,0.09337092936038971,-0.007746655028313398,-0.38026273250579834,-0.12889787554740906,0.039763495326042175,-0.2943885624408722,0.049601536244153976,0.11037007719278336,-0.08744741231203079,0.11003951728343964,0.09231124073266983,0.37926170229911804,0.004496237728744745,-0.021433813497424126,0.23537865281105042,-0.24204424023628235,-0.25879403948783875,0.3288554251194,-0.09351357817649841,0.06169939786195755,-0.16078749299049377,0.07154988497495651,-0.009175417013466358,0.375603586435318,-0.011334569193422794,-0.09025359898805618,-0.1660124808549881,0.04200408235192299,0.1435939371585846,-0.3518979549407959,-0.12354425340890884,0.2286941260099411,-0.2979169487953186,0.028685448691248894,0.13527148962020874,-0.16203173995018005,-0.19354292750358582,0.04134150967001915,-0.27037951350212097,0.0479302741587162,-0.06569887697696686,0.14922726154327393,-0.046124428510665894,-0.07090234011411667,0.11902686208486557,0.05303984880447388,-0.07486668229103088,0.01410682313144207,0.1988123506307602,-0.09781700372695923,0.022585062310099602,-0.13137340545654297,0.08715738356113434,0.1917828917503357,-0.013704204000532627,-0.0710853859782219,-0.1636432707309723,0.09390700608491898,-0.008124959655106068,0.042002011090517044,0.1479223221540451,0.1421859711408615,0.22114531695842743,-0.05581197515130043,0.07629820704460144,-0.1427832543849945,0.13157758116722107,-0.012852194719016552,0.0681249275803566,-0.1655612587928772,-0.18432527780532837,0.06302474439144135,-0.011991865932941437,-0.10711827874183655,0.15140971541404724,-0.14945237338542938,-0.032573483884334564,-0.27035877108573914,0.10031164437532425,-0.22244903445243835,0.02295527420938015,0.09633613377809525,0.26778894662857056,0.014485596679151058,0.01734764687716961,-0.15706846117973328,-0.13931480050086975,-0.14729534089565277,-0.055910155177116394,-0.029445072636008263,-0.058815374970436096,-0.02371317707002163,-0.3761869966983795,0.1023908406496048,0.19690249860286713,0.40254971385002136,-0.1312192976474762,-0.03737807646393776,-0.1470337212085724,-0.046740420162677765,0.14489154517650604,-0.015993153676390648,-0.11316516250371933,0.0001534784969408065,0.22778496146202087,-0.23533475399017334,-0.26597651839256287,0.24067504703998566,0.009337625466287136,-0.05312206968665123,-0.45451703667640686,-0.09406416118144989,-0.06824760138988495,0.10653405636548996,-0.03611847758293152,-0.06434822082519531,-0.03522739186882973,-0.16656769812107086,0.16405677795410156,-0.18607422709465027,0.11359717696905136,-0.023606041446328163,0.013196398504078388,-0.15900371968746185,0.04446905478835106,0.19292086362838745,0.02150300145149231,-0.31502997875213623,0.21858900785446167,0.1217031478881836,-0.02499055303633213,-0.4113229811191559,0.009189972653985023,-0.09270226210355759,-0.06386828422546387,0.17667964100837708,0.16281205415725708,-0.46367937326431274,0.059986162930727005,-0.042763058096170425,0.016799068078398705,0.1488592028617859,-0.23171283304691315,-0.08736135810613632,0.2190377563238144,-0.14775077998638153,0.3523373007774353,0.07009270042181015,0.07491917163133621,0.30931195616722107,0.04967419058084488,-0.1743522584438324,0.044957127422094345,0.30402854084968567,-0.008332200348377228,-0.3416525423526764,0.09048748016357422,0.07213382422924042,0.11970297992229462,-0.2848162055015564,0.2686099410057068,-0.2825321555137634,-0.0217124130576849,0.2521267831325531,0.2234785407781601,-0.11552880704402924,0.0835142657160759,-0.038876261562108994,0.12496694922447205,-0.13780593872070312,0.24701547622680664,-0.0713609829545021,-0.17080414295196533,0.241509810090065,0.06229656562209129,0.4979531764984131,0.11471907794475555,-0.024211565032601357,0.021361155435442924,-0.017852358520030975,-0.24379101395606995,-0.18527208268642426,0.09908497333526611,-0.34776192903518677,-0.07477525621652603,-0.0032619331032037735,-0.24580679833889008,0.03286738693714142,0.22453191876411438,-0.04032793268561363,-0.16287918388843536,-0.061227161437273026,0.1734335869550705,0.17421747744083405,-0.081114262342453,-0.028831694275140762,-0.12307094782590866,-0.03226589784026146,0.12008733302354813,-0.1457570195198059,0.07828212529420853,0.06836292147636414,0.08509480953216553,-0.07930907607078552,-0.022181177511811256,0.2001281976699829,-0.1339706927537918,-0.3075791597366333,-0.16790126264095306,-0.1979178488254547,0.018687408417463303,0.20093896985054016,-0.007525049149990082,0.09865681827068329,-0.10388515144586563,-0.09498272836208344,-0.18671369552612305,-0.13129012286663055,-0.07812589406967163,-0.05876703932881355,-0.06487251818180084,-0.14406681060791016,-0.301772803068161,0.00920663308352232,0.011216910555958748,-0.01183947455137968,0.009404817596077919,-0.07454950362443924,-0.015211162157356739,-0.03947639837861061,-0.006164965685456991,-0.15983495116233826,0.011306919157505035,-0.12523113191127777,-0.15659061074256897,-0.20875176787376404,-0.043871816247701645,0.10205364972352982,-0.13069428503513336,-0.060271576046943665,0.05407620593905449,-0.002955102827399969,-0.1702580600976944,-0.005873238202184439,0.13146167993545532,-0.24832744896411896,-0.012105383910238743,0.08394379168748856,0.0725964680314064,0.0390261635184288,0.044514115899801254,0.2062852382659912,0.06620323657989502,-0.03551928699016571,-0.09317229688167572,0.008391761220991611,-0.09301748871803284,0.07676266878843307,0.031895071268081665,-0.010546872392296791,-0.19825379550457,-0.03352325037121773,0.16909927129745483,-0.05104658007621765,-0.23241235315799713,-0.14230702817440033,-0.004486249294131994,0.02617431804537773,0.037681758403778076,-0.10089760273694992,-0.2647610604763031,-0.030322451144456863,-0.06443428993225098,0.14546547830104828,0.11968424916267395,-0.009535422548651695,-0.03275337442755699,0.031474653631448746,-0.05622930824756622,0.0707649290561676,-0.04711182788014412,-0.04199879243969917,-0.21728387475013733,-0.1753063201904297,0.06528664380311966,0.13474105298519135,0.10341785848140717,-0.2017495185136795,-0.28144949674606323,-0.512383759021759,-0.2558027505874634,0.11731835454702377,0.20052409172058105,-0.13690932095050812,0.030686918646097183,0.0760490745306015,0.05504636466503143,0.009869824163615704,-0.18016190826892853,0.214536651968956,0.1783706545829773,-0.05639585480093956,-0.03003985807299614,0.11097724735736847,0.3487154543399811,0.25725284218788147,0.08985249698162079,-0.13632667064666748,-0.0777934193611145,-0.16183315217494965,-0.014038477092981339,-0.26131486892700195,0.14516711235046387,0.05992672219872475,-0.23536325991153717,0.029985878616571426,0.060630571097135544,0.04220737889409065,0.13182908296585083,0.1531015783548355,0.0028533129952847958,0.024540703743696213,0.22189845144748688,0.14653533697128296,0.21150267124176025,0.28945451974868774,-0.07934252917766571,0.022850483655929565,-0.02012057974934578,-0.09824999421834946,0.0983179360628128,0.22235746681690216,0.006471171043813229,-0.01175358984619379,-0.06661757826805115,0.06911144405603409,0.12430668622255325,0.03271938115358353,0.15755710005760193,0.06466963142156601,-0.11259109526872635,0.08024316281080246,0.018769066780805588,-0.12177140265703201,0.15075471997261047,-0.0961175337433815,-0.10519738495349884,-0.10656771808862686,-0.13693077862262726,0.16654424369335175,-0.16910214722156525,-0.07037703692913055,0.05836831033229828,-0.13964605331420898,-0.053576771169900894,0.12811844050884247,-0.05102033540606499,0.04558377340435982,0.040538541972637177,-0.03623897582292557,0.0537756085395813,-0.06341369450092316,0.16640222072601318,0.09622929245233536,-0.041701532900333405,0.36104366183280945,-0.34235548973083496,0.027251867577433586,0.11505185067653656,-0.12485674023628235,0.07081802189350128,-0.04666455462574959,-0.08884670585393906,-0.1492995172739029,0.10867399722337723,-0.1126909926533699,-0.07216599583625793,0.06917022168636322,0.13231346011161804,0.09556380659341812,-0.0423227958381176,-0.03357291221618652,0.055816590785980225,-0.022312860935926437,0.18857215344905853,-0.039022110402584076,-0.048168670386075974,-0.1784452348947525,0.13205720484256744,-0.23700979351997375,-0.04770594835281372,0.05329317972064018,0.01733386516571045,0.19540049135684967,0.26071953773498535,0.06282209604978561,0.12269346415996552,-0.12693148851394653,0.08250898867845535,-0.2039150595664978,-0.06825747340917587,0.18587392568588257,0.04147944226861,-0.10826284438371658,-0.11465800553560257,-0.13342633843421936,0.15701088309288025,0.1185164600610733,-0.23031184077262878,-0.014488731510937214,-0.14882880449295044,-0.03916497528553009,0.010465124621987343,-0.05276727303862572,0.05228046327829361,0.05721782147884369,-0.17568115890026093,0.018356511369347572,0.0724722221493721,0.05582350119948387,0.03513137251138687,-0.08152656257152557,-0.06978710740804672,-0.06164097413420677,-0.06417195498943329,0.00022105513198766857,-0.2860707938671112,-0.00008109888585750014,-0.07770026475191116,-0.09167484939098358,-0.13656988739967346,0.03659621626138687,0.21692049503326416,-0.15869615972042084,-0.10372775793075562,0.10049135982990265,0.043617818504571915,-0.06940389424562454,0.02463027834892273,0.03644686937332153,0.15975140035152435,0.2684172987937927,0.12534041702747345,0.187628835439682,-0.10821940749883652,-0.08115782588720322,0.0027069207280874252,-0.13893204927444458,0.11632807552814484,0.05898228660225868,-0.029993578791618347,-0.13004474341869354,-0.057331059128046036,-0.15618839859962463,-0.07995805889368057,-0.0522424541413784,-0.12802854180335999,0.1087418720126152,-0.038909126073122025,0.13086330890655518,0.1453658789396286,-0.09733529388904572,-0.360700786113739,0.11006006598472595,-0.044760048389434814,-0.028963269665837288,0.045403920114040375,-0.08539006114006042,-0.08713974058628082,-0.0689980611205101,-0.24006620049476624,-0.04801104962825775,-0.09233292937278748,0.1748574823141098,-0.012541010975837708,0.14153042435646057,0.07718486338853836,0.013511978089809418,-0.33470261096954346,-0.22201326489448547,0.1189640685915947,0.13177554309368134,-0.15267856419086456,0.07458437979221344,0.046326056122779846,-0.17407329380512238,0.06815040856599808,-0.12055487185716629,0.04419957101345062,0.015797488391399384,0.3125617802143097,0.12277723848819733,-0.18753162026405334,0.041942548006772995,0.18372742831707,0.17693457007408142,-0.5532101392745972,0.1751319169998169,-0.19155608117580414,-0.11714300513267517,-0.310180127620697,-0.04870881512761116,-0.06147757172584534,-0.025571994483470917,0.1613912731409073,-0.08498796075582504,-0.1544608771800995,0.14237374067306519,-0.1318444013595581,0.18506428599357605,-0.7012157440185547,0.06670684367418289,-0.10538053512573242,-0.15349753201007843,0.15481409430503845,0.13569673895835876,0.1767553687095642,-0.14724509418010712,0.0073099518194794655,-0.1709972321987152,-0.09770531207323074,0.21362203359603882,0.16387224197387695,-0.05443422123789787,0.025437749922275543,-0.009178603067994118,-0.005210568197071552,0.08436500281095505,-0.1014951691031456,0.011707955040037632,0.12036444246768951,0.028394512832164764,-0.053871579468250275,-0.024904800578951836,0.030735082924365997,-0.006614306475967169,0.05968219414353371,0.0008956685778684914,0.012267009355127811,-0.046669043600559235,-0.48650220036506653,0.2415570616722107,0.24032320082187653,-0.7102928757667542,0.14927875995635986,-0.8289873003959656,-0.349636435508728,-0.4439942240715027,1.028544545173645,-0.8154407143592834,-0.6742683053016663,-1.235196828842163,0.2433258444070816,-0.8721961975097656,0.20783020555973053,-0.7404837608337402,-0.15437449514865875,-0.20710906386375427,0.024847261607646942,0.22369763255119324,0.0833999291062355,0.018414778634905815,0.05355924367904663,-0.17566940188407898,0.04906861111521721,-0.12536421418190002,0.07695886492729187,0.11070217937231064,0.15257450938224792,0.08148374408483505,-0.28175294399261475,-0.1152724176645279,0.06988663226366043,-0.1868683397769928,-0.17174530029296875,0.20618468523025513,-0.19558201730251312,0.4607827961444855,0.011001762002706528,-0.05558282509446144,-0.04438387230038643,-0.17804493010044098,0.1399177759885788,0.31548207998275757,-0.34366607666015625,0.3121900260448456,-0.06976236402988434,0.10515135526657104,-0.11339927464723587,-0.1522703915834427,0.056134723126888275,0.026789238676428795,0.2370333969593048,0.13522028923034668,-0.08647669106721878,0.08018375188112259,-0.1560908704996109,0.07003116607666016,-0.3467274606227875,-0.10820655524730682,-0.00967460498213768,-0.011008648201823235,0.10623535513877869,0.007791491225361824,0.039621174335479736,0.11496783047914505,-0.040716081857681274,-0.12134749442338943,-0.08836185932159424,-0.13448745012283325,-0.06198382005095482,-0.17724661529064178,-0.041819293051958084,0.12850402295589447,-0.00400721887126565,0.15102510154247284,0.205913707613945,-0.2285935878753662,0.004432518035173416,0.10194278508424759,0.102836012840271,-0.07336266338825226,-0.38926345109939575,-0.33351829648017883,0.036130890250205994,-0.11820540577173233,-0.01252839621156454,0.1989804059267044,-0.008340631611645222,-0.3443279564380646,-0.032414454966783524,0.08874641358852386,-0.06445799022912979,-0.10927312821149826,-0.31177619099617004,-0.3296738564968109,-0.20457513630390167,-0.06733359396457672,-0.14629556238651276,-0.2193659543991089,-0.08945401012897491,-0.10679448395967484,-0.16552193462848663,-0.20569898188114166,0.15393128991127014,0.06366901099681854,-0.13163575530052185,-0.2451452761888504,-0.07091289758682251,-0.1580430120229721,0.007919127121567726,0.04253843054175377,0.2571146786212921,-0.18470990657806396,0.0451374426484108,0.1687333732843399,0.03714073821902275,0.49330613017082214,-0.20856964588165283,0.07720136642456055,-0.12102659046649933,0.0960901528596878,-0.026906222105026245,0.215189591050148,-0.11157012730836868,0.05457695201039314,-0.06105298548936844,0.27002179622650146,0.12605655193328857,0.12511909008026123,-0.12118460237979889,0.06522281467914581,0.08635485917329788,-0.12300828844308853,-0.09324849396944046,0.0252231452614069,-0.11259869486093521,0.3197072744369507,-0.21661250293254852,0.03023257479071617,0.05188629776239395,-0.02498294971883297,0.1822400540113449,0.1863684505224228,0.02300528809428215,0.06849812716245651,-0.03930916264653206,0.015988947823643684,-0.08426065742969513,-0.19603903591632843,0.06502129882574081,-0.0911770835518837,-0.09693371504545212,0.18622642755508423,0.17518483102321625,0.017867160961031914,-0.05048792436718941,0.1265510469675064,-0.08512118458747864,0.2814306318759918,0.013144810684025288,0.021451503038406372,0.12912043929100037,0.16010722517967224,0.06332400441169739,-0.05744563788175583,0.14523378014564514,-0.09200073033571243,-0.11513601988554001,0.22434936463832855,0.21663859486579895,0.39926856756210327,0.07284646481275558,0.1846162974834442,-0.04136405512690544,-0.17640197277069092,-0.26403558254241943,-0.12360130250453949,-0.11381173133850098,0.1308228224515915,0.16597780585289001,-0.2415803074836731,0.03086649253964424,0.019329912960529327,0.19050203263759613,0.32935774326324463,-0.20936870574951172,0.14085257053375244,-0.006820959970355034,0.023716416209936142,-0.03730425983667374,0.00878017395734787,0.16710832715034485,0.34805309772491455,-0.3105211853981018,-0.10947445780038834,-0.23162662982940674,-0.014800108969211578,0.037758585065603256,0.025963613763451576,-0.4256889522075653,0.14636458456516266,0.217170849442482,-0.05540889501571655,0.11620788276195526,-0.08110804855823517,0.2664847671985626,-0.01557373907417059,-0.1561374068260193,-0.18192675709724426,-0.19840390980243683,-0.2140609472990036,0.15708552300930023,-0.03445327654480934,-0.21605268120765686,-0.024696482345461845,-0.17084461450576782,-0.10818455368280411,-0.22862200438976288,-0.1952955275774002,0.07442126423120499,-0.24854949116706848,0.28643202781677246,0.1331780105829239,-0.09975109249353409,-0.06540700793266296,0.024924978613853455,0.23956075310707092,-0.15889255702495575,-0.2132236659526825,0.22457921504974365,-0.1682339459657669,0.2895917296409607,0.2209872454404831,-0.09629150480031967,-0.028084607794880867,0.1724443882703781,0.00816636998206377,-0.05159498378634453,-0.22165203094482422,0.016459466889500618,0.11530020087957382,0.14986945688724518,0.134439617395401,-0.0703902468085289,-0.1039803996682167,0.05256923288106918,-0.1688539981842041,-0.20372866094112396,0.1763782948255539,-0.0342114232480526,0.13539226353168488,-0.021726330742239952,0.10269759595394135,0.10998256504535675,0.08416730910539627,0.3889271020889282,0.024609584361314774,0.000054451320465886965,0.23350045084953308,-0.4238196611404419,0.07335582375526428,-0.11428472399711609,0.05561543628573418,0.40345317125320435,-0.1800646334886551,0.39210572838783264,0.03627047315239906,-0.28687921166419983,0.37824469804763794,0.018234416842460632,-0.26981303095817566,-0.048830341547727585,-0.03548746183514595,-0.025081221014261246,-0.02891356125473976,-0.04268917068839073,-0.00902011152356863,0.05838882550597191,0.12430661916732788,0.1023888811469078,0.004636194556951523,0.03615371882915497,-0.05597610026597977,0.04429318383336067,-0.2047664225101471,-0.0997714027762413,-0.052032750099897385,-0.04861250892281532,0.05933700129389763,-0.30003806948661804,0.19521212577819824,-0.057736217975616455,-0.3355019986629486,0.03789184242486954,0.016674118116497993,-0.007053224835544825,0.09897321462631226,-0.14889757335186005,-0.031505484133958817,-0.09325798600912094,0.06550160050392151,-0.06782635301351547,0.08604781329631805,0.09656331688165665,-0.05805674567818642,0.1773994117975235,-0.08277245610952377,-0.012111720629036427,0.050830185413360596,-0.000946955056861043,-0.1552928239107132,-0.10134384036064148,0.03287936747074127,0.0033414869103580713,-0.02936592325568199,0.04460100084543228,-0.1903834044933319,-0.1817215532064438,0.031294386833906174,-0.04069605842232704,0.02555147185921669,-0.14398333430290222,0.0799802914261818,-0.06310601532459259,-0.06187805160880089,0.17230314016342163,-0.22188569605350494,0.11256303638219833,0.03769666329026222,0.08484912663698196,-0.05471792444586754,-0.008559100329875946,0.038408491760492325,0.10052691400051117,-0.11477344483137131,-0.05879919230937958,0.02845987305045128,0.06027940660715103,-0.17588360607624054,0.10471884906291962,-0.10220491886138916,0.11476347595453262,0.062407948076725006,0.13153031468391418,0.023188145831227303,-0.21466657519340515,-0.15953755378723145,0.14798779785633087,-0.003523081075400114,0.17582254111766815,-0.06991193443536758,0.08731567859649658,-0.03991801664233208,0.07866208255290985,-0.22448092699050903,-0.09789161384105682,-0.09092505276203156,-0.009543177671730518,-0.10303177684545517,0.07248474657535553,-0.12952086329460144,-0.274361789226532,0.1348201334476471,0.25269076228141785,-0.04738003388047218,0.2025575190782547,0.05626974254846573,-0.08804796636104584,0.08206204324960709,-0.21560566127300262,-0.020848948508501053,0.11892522126436234,0.01631181128323078,0.10994911193847656,0.05630168691277504,-0.04840793460607529,-0.3545871675014496,0.14513932168483734,0.015264604240655899,0.0347481444478035,0.14511476457118988,0.10062037408351898,-0.029199153184890747,0.07560852915048599,-0.11188168078660965,-0.07555228471755981,0.07585446536540985,0.050650931894779205,-0.1764954924583435,0.11967967450618744,0.08209437131881714,0.059305571019649506,-0.15990744531154633,0.09220261126756668,0.04340687021613121,-0.022863755002617836,0.050131577998399734,-0.3703792095184326,0.03763230890035629,-0.06208532303571701,0.03819437325000763,0.1642879992723465,0.3284090459346771,0.20496128499507904,-0.09643855690956116,-0.07305194437503815,0.10368362069129944,0.12280880659818649,0.12316004186868668,0.06822793185710907,0.03615833818912506,0.12760809063911438,-0.06260797381401062,-0.14639900624752045,0.11450118571519852,-0.009978240355849266,0.07640963047742844,0.15501849353313446,-0.09956686943769455,0.09570245444774628,0.1272977739572525,-0.02544371783733368,0.031514089554548264,0.18059903383255005,0.2991389334201813,0.08619952946901321,-0.0874619111418724,-0.11984893679618835,-0.11566072702407837,0.10026922076940536,0.31391993165016174,-0.1031956896185875,-0.006040401291102171,0.3354889452457428,-0.17199894785881042,0.03764118626713753,0.20287136733531952,0.15039151906967163,0.1391453891992569,-0.05211782455444336,0.2855086028575897,-0.08761604130268097,-0.254609078168869,0.08469487726688385,0.10454976558685303,-0.05668037012219429,-0.16296127438545227,-0.09181664884090424,0.08587435632944107,0.034625280648469925,-0.009389327839016914,-0.06253042817115784,-0.13564030826091766,0.107772096991539,0.0671236664056778,0.148268923163414,0.0482989102602005,0.03349415585398674,-0.04254427179694176,0.03948086127638817,-0.1422048658132553,0.28354960680007935,0.08647584170103073,0.03757648542523384,-0.08946163207292557,0.06110966578125954,-0.08398355543613434,-0.01712019369006157,-0.12255135923624039,-0.10146240144968033,0.2464185357093811,-0.1638149917125702,-0.0017551649361848831,0.042839501053094864,-0.1541769653558731,-0.020437929779291153,-0.002652103081345558,0.058107323944568634,0.26510846614837646,0.07986847311258316,-0.27532222867012024,0.5946585536003113,-0.21854346990585327,0.05369514599442482,0.2095487117767334,-0.01246899925172329,0.010781068354845047,-0.02045239694416523,-0.03992180526256561,0.057240165770053864,-0.13709138333797455,-0.01871461607515812,-0.3567817211151123,-0.8541856408119202,0.1206558421254158,0.33755677938461304,-0.2802205979824066,-0.2607467472553253,-0.5819595456123352,0.6793493628501892,0.02691875770688057,-0.02536480501294136,0.024611763656139374,-0.11012300103902817,-0.317940890789032,0.1754237562417984,-0.04139154776930809,-0.21241365373134613,0.7449201941490173,-0.10991530865430832,-0.16206078231334686,0.2138688862323761,0.018468087539076805,-0.1877525895833969,0.18790380656719208,-0.0418977290391922,0.11199908703565598,-0.5717077851295471,-0.04393475875258446,-0.3206779360771179,0.7209562659263611,0.02759670838713646,-0.2544006407260895,0.6669598817825317,0.148097962141037,-0.25833213329315186,0.6355805397033691,0.13635723292827606,-0.16273795068264008,-0.09152312576770782,-0.10992111265659332,-0.08039980381727219,-0.010896717198193073,-0.08037161827087402,-0.03754313290119171,-0.19369366765022278,-0.10508674383163452,-0.01839536242187023,0.1775996834039688,-0.10768526047468185,0.17906132340431213,0.42242714762687683,-0.08627349138259888,-0.19702161848545074,0.041686490178108215,-0.08228772133588791,0.17886240780353546,0.0039155553095042706,0.057295847684144974,-0.18842074275016785,0.13844595849514008,0.05208175256848335,0.05259803682565689,-0.1508946567773819,-0.21975280344486237,-0.006601396016776562,0.19276270270347595,0.026188597083091736,0.12791010737419128,0.11979693174362183,-0.0764698013663292,-0.030837975442409515,-0.5134278535842896,0.05148141458630562,-0.06916853785514832,-0.27057236433029175,0.167337104678154,0.11553219705820084,0.17002272605895996,-0.11263809353113174,-0.10286468267440796,-0.10072935372591019,0.16704913973808289,0.023374147713184357,-0.11085830628871918,-0.1150578111410141,-0.3671831786632538,-0.09301682561635971,0.09537485241889954,-0.062047868967056274,0.03547853231430054,0.04806260019540787,-0.050203315913677216,-0.14424088597297668,-0.16356676816940308,0.30410417914390564,0.03869956359267235,0.024883059784770012,-0.23404814302921295,-0.057044509798288345,0.006726476829499006,0.037124745547771454,0.05282707139849663,0.04834387078881264,0.2109176516532898,-0.08241429179906845,0.15424391627311707,0.1386847048997879,-0.07898491621017456,-0.1676303744316101,0.15095894038677216,0.12907713651657104,-0.07472657412290573,-0.04978068917989731,-0.08020249754190445,-0.2574617266654968,-0.0300144050270319,-0.08098898082971573,0.06180157884955406,0.2356773316860199,-0.5143917798995972,-0.1324985772371292,0.0014208653010427952,0.07590249180793762,-0.09604611992835999,-0.2802623212337494,0.034109100699424744,-0.06420178711414337,0.16611653566360474,-0.03523672744631767,0.23490560054779053,-0.23286911845207214,-0.06296850740909576,-0.10017851740121841,0.0556253083050251,-0.14201319217681885,0.08110927045345306,0.08836933970451355,0.2798350155353546,0.014387587085366249,0.231072336435318,-0.08642055839300156,-0.09332595020532608,0.10380160808563232,-0.06222911179065704,-0.07116097211837769,-0.19745589792728424,-0.1679936945438385,0.0026963604614138603,0.0034016715362668037,0.08071351051330566,-0.3182135820388794,0.1017032191157341,0.130274698138237,-0.23493686318397522,0.0739213153719902,-0.05404936522245407,0.023329181596636772,0.2180897295475006,-0.13434411585330963,-0.1748567372560501,0.042065687477588654,-0.09763401746749878,0.20256687700748444,-0.0307961143553257,-0.047029122710227966,-0.1272510439157486,0.2511921226978302,-0.2646683156490326,0.14227387309074402,0.09937795996665955,0.0574045293033123,-0.08309464901685715,-0.04135169833898544,-0.13048842549324036,-0.0014103817520663142,0.04223914444446564,-0.2738215923309326,-0.26624980568885803,-0.30219510197639465,0.10824071615934372,0.18032152950763702,0.05449085310101509,0.014994983561336994,0.45857810974121094,0.389297217130661,0.05154551565647125,0.03286914527416229,0.1870000809431076,-0.14494575560092926,-0.09397810697555542,0.15889538824558258,-0.046830665320158005,-0.44127988815307617,0.40138864517211914,-0.023566342890262604,-0.10052735358476639,-0.2666844129562378,0.04414235055446625,0.30487266182899475,0.36980098485946655,-0.05867091566324234,0.04232975095510483,-0.24014219641685486,-0.028275012969970703,0.08812764286994934,0.005034753121435642,-0.05298406630754471,0.3896499574184418,0.3863144516944885,0.07410552352666855,0.06223208084702492,0.09586372971534729,-0.1878538876771927,-0.015597580932080746,0.11334937065839767,-0.20790019631385803,-0.3777329921722412,-0.08665986359119415,-0.03831147402524948,0.3109937608242035,-0.11734771728515625,0.20766234397888184,0.11048898100852966,0.17260690033435822,-0.21987958252429962,0.525079607963562,0.2820397615432739,0.13719059526920319,-0.051045142114162445,0.056292030960321426,-0.29620039463043213,0.02034860849380493,0.15157948434352875,-0.08757298439741135,-0.10401913523674011,-0.06121618300676346,0.11804065853357315,-0.16163986921310425,-0.045075200498104095,-0.006049508694559336,-0.07520563155412674,-0.050991497933864594,-0.1404656320810318,0.05929681658744812,0.06805893033742905,-0.07797472923994064,-0.09280235320329666,-0.09913121163845062,-0.3310915231704712,0.21235571801662445,-0.13789433240890503,0.007247451692819595,-0.11861064285039902,-0.2039460390806198,0.12236303091049194,-0.02603449858725071,-0.1667253077030182,-0.1757810115814209,-0.1042892262339592,-0.0023573788348585367,-0.035322077572345734,-0.02579672634601593,-0.09791233390569687,-0.154346764087677,-0.038784582167863846,-0.0625155046582222,0.07500162720680237,-0.05914345756173134,-0.031104708090424538,-0.007199500221759081,-0.053802184760570526,0.03615888953208923,-0.028086991980671883,0.10126280039548874,0.25139448046684265,-0.2495187520980835,0.06451716274023056,0.09174348413944244,0.03648017346858978,-0.051546525210142136,0.03137597441673279,0.3711303174495697,0.0518602654337883,0.10320598632097244,0.1617049276828766,0.03785062953829765,0.1038549393415451,0.13903561234474182,0.24725691974163055,-0.20217092335224152,0.17882055044174194,0.007294951472431421,-0.007888603955507278,-0.10566945374011993,0.011517191305756569,0.1318480372428894,-0.008030415512621403,0.11032722145318985,0.14145860075950623,-0.038373932242393494,-0.0585164949297905,0.0800427719950676,0.019558247178792953,0.008838512934744358,-0.12432622164487839,0.09706097096204758,0.09002997726202011,0.021387038752436638,0.14635807275772095,0.13850723206996918,-0.0105490917339921,0.14483211934566498,0.07340387254953384,0.06711678206920624,-0.07503720372915268,0.16893163323402405,-0.13405518233776093,-0.08570867776870728,-0.026025446131825447,0.2043999582529068,0.009123586118221283,0.050595059990882874,-0.28842663764953613,-0.06730359047651291,0.05832841247320175,-0.09424448013305664,0.05439877510070801,0.1885295957326889,0.1731434315443039,0.09871245175600052,-0.03985295072197914,0.1537730097770691,0.2095354050397873,-0.27763837575912476,0.2272901087999344,0.11204053461551666,0.02606046013534069,-0.017497198656201363,-0.08639226108789444,0.00426202779635787,-0.3112959861755371,-0.06842389702796936,-0.05541254207491875,0.39402469992637634,0.10461895912885666,0.11691637337207794,-0.18931308388710022,-0.2294524610042572,-0.1909748613834381,0.24234998226165771,-0.04266887530684471,-0.1895967572927475,-0.0687248483300209,-0.128257617354393,-0.2612365484237671,-0.04488168656826019,0.07942462712526321,0.039380792528390884,0.015126555226743221,-0.19359053671360016,-0.018336959183216095,0.0029327021911740303,0.08889196813106537,-0.2474879026412964,-0.21881112456321716,0.3186803460121155,-0.24220088124275208,-0.045658886432647705,0.10420668125152588,0.07882574945688248,-0.19850173592567444,-0.23458480834960938,-0.14579100906848907,0.022462140768766403,0.2533479630947113,-0.04438498988747597,-0.0758795216679573,-0.17363382875919342,0.09152372926473618,-0.184311643242836,-0.012886679731309414,0.1445506513118744,-0.1344381421804428,-0.11123599857091904,0.041380543261766434,0.11132817715406418,0.1634930670261383,-0.14157553017139435,0.10082945972681046,0.03988520801067352,-0.04473084583878517,-0.024478957056999207,-0.06057492643594742,-0.04696132242679596,-0.09225844591856003,-0.040933918207883835,0.22947189211845398,-0.19792839884757996,0.03743063285946846,-0.08213532716035843,0.12346700578927994,-0.021062977612018585,0.2608086168766022,0.12660367786884308,-0.03542110696434975,0.1698664277791977,-0.131281778216362,0.19775238633155823,0.0071946969255805016,0.04560304433107376,-0.16002121567726135,0.3130200505256653,0.22250773012638092,-0.0569547563791275,0.1386779546737671,-0.04363200441002846,-0.15552251040935516,0.07132425159215927,0.055459510535001755,0.24491795897483826,0.02620493620634079,-0.4957679808139801,0.21779528260231018,0.07446807622909546,-0.7206072807312012,-0.22951747477054596,0.2275501787662506,-0.05437704920768738,-0.2159932553768158,0.07313748449087143,-0.0265794787555933,0.09394460171461105,0.03623795509338379,-0.5676311254501343,0.41764184832572937,-0.16687695682048798,0.2289252132177353,-0.0076658837497234344,0.07962561398744583,-0.395146906375885,-0.13040606677532196,-0.012536014430224895,0.30548182129859924,-0.008252209052443504,0.05522271618247032,-0.09814786165952682,-0.14674006402492523,0.10482682287693024,-0.6203451156616211,0.0819505974650383,0.12862060964107513,-0.1638762205839157,-0.15748584270477295,-0.20680654048919678,0.4703344702720642,-0.015721669420599937,-0.12143591046333313,0.3296253979206085,-0.07071790099143982,0.059789977967739105,-0.12191087752580643,-0.05330321192741394,-0.024997247382998466,-0.08508136123418808,-0.052983541041612625,-0.1423683613538742,-0.5003916621208191,0.10712531954050064,0.09900693595409393,0.07152006030082703,0.12950733304023743,-0.07425090670585632,-0.03625038266181946,-0.040704596787691116,-0.0990593284368515,-0.032429106533527374,0.15831781923770905,-0.1755944788455963,-0.10233090817928314,0.1827809065580368,-0.03697061538696289,0.05581037327647209,-0.28545039892196655,0.11713776737451553,-0.0030020331032574177,-0.22430554032325745,0.00830644927918911,-0.12074418365955353,-0.18195272982120514,0.09397191554307938,-0.10677867382764816,0.014336895197629929,-0.003561370074748993,-0.16342253983020782,0.11224017292261124,0.030433636158704758,-0.09523720294237137,0.13016538321971893,-0.1688544601202011,0.04227008670568466,0.20377004146575928,0.046560075134038925,-0.14485187828540802,-0.20542363822460175,-0.10607143491506577,-0.047808460891246796,-0.09167051315307617,-0.06601526588201523,-0.11865364760160446,0.331870973110199,-0.02307870239019394,-0.12081780284643173,0.18163716793060303,0.1599416732788086,0.1795932650566101,-0.3300263285636902,0.1626991331577301,0.057368937879800797,0.16460876166820526,-0.4914642870426178,-0.013411758467555046,0.12384162843227386,-0.1244397908449173,0.07649108022451401,0.09005574882030487,-0.2167714685201645,0.037960052490234375,0.060278814285993576,0.38030800223350525,-0.04743253067135811,0.030483659356832504,0.1935155838727951,0.01641700603067875,-0.07699450850486755,-0.33400580286979675,-0.05524582788348198,-0.1938485950231552,-0.03318723663687706,0.1283406764268875,0.10347815603017807,-0.04824860021471977,-0.0554460734128952,-0.008663993328809738,-0.1907118558883667,-0.04449298977851868,-0.11222300678491592,0.051093440502882004,-0.2196284681558609,0.03989219665527344,-0.3522099554538727,0.047180820256471634,-0.18002131581306458,0.09127264469861984,0.09682351350784302,0.0305614173412323,0.2805035412311554,0.07393524050712585,-0.0027060152497142553,0.15153561532497406,0.0465264655649662,0.03452425077557564,0.006320555694401264,-0.06374277919530869,0.058642566204071045,0.04010063782334328,0.011859261430799961,0.05883929505944252,-0.008599229156970978,0.017871588468551636,0.009388424456119537,-0.04150918498635292,-0.07259106636047363,0.039034463465213776,0.07930740714073181,0.0368509367108345,0.03511730208992958,-0.08639083057641983,-0.0008405204862356186,-0.015554690733551979,0.04329501837491989,-0.36775946617126465,-0.4068746864795685,0.8003060817718506,0.374565064907074,-0.6200349926948547,0.12010310590267181,-0.1815081387758255,-0.018002185970544815,0.5807332396507263,-0.8744039535522461,0.8980452418327332,0.4175841212272644,0.10302961617708206,-0.22662699222564697,0.12081214785575867,-0.6193554401397705,0.34781569242477417,0.003394701285287738,0.13956564664840698,-0.26987549662590027,-0.016160666942596436,-0.1459077000617981,0.35024121403694153,-0.32034021615982056,-0.025724956765770912,0.21631693840026855,0.07074698060750961,0.07590832561254501,-0.11263234168291092,0.1461077779531479,-0.06322864443063736,-0.38237667083740234,0.18235082924365997,0.01088554598391056,0.1740911602973938,-0.10857146978378296,-0.05680180341005325,-0.0077923075295984745,-0.15619465708732605,-0.3216857612133026,-0.10355525463819504,0.1505257487297058,-0.18936900794506073,-0.2992247939109802,0.06894578039646149,0.30815038084983826,0.13337762653827667,-0.146424800157547,-0.113776795566082,-0.10399660468101501,0.008587435819208622,-0.23901228606700897,0.02881881408393383,0.07022269070148468,-0.09929561614990234,-0.1981523483991623,-0.07729165256023407,-0.012660346925258636,-0.013798119500279427,-0.03830305114388466,0.2717280983924866,-0.05486244708299637,-0.02823873795568943,-0.08087397366762161,0.09209451824426651,0.003973191604018211,0.06355629116296768,0.08951355516910553,-0.06670569628477097,0.04561686888337135,-0.09375947713851929,0.1817418783903122,0.13367857038974762,-0.07065945118665695,0.061849385499954224,0.18059688806533813,0.1303786188364029,0.03809093311429024,0.03449597582221031,-0.08504796028137207,0.1116550862789154,-0.20614753663539886,0.23701545596122742,-0.20226669311523438,0.09541131556034088,-0.3420262336730957,0.12815311551094055,-0.10852893441915512,0.1869659274816513,-0.0760606974363327,-0.22213926911354065,0.03576940670609474,-0.31466013193130493,-0.21286270022392273,0.33960941433906555,-0.08492086827754974,-0.13673533499240875,-0.08327634632587433,0.07702828198671341,-0.021450648084282875,-0.13200628757476807,-0.10028047859668732,0.1689310371875763,0.0701594352722168,-0.07189075648784637,-0.1469336301088333,-0.06663652509450912,0.08441030979156494,0.15175165235996246,0.06580545008182526,0.2194080948829651,0.061178743839263916,0.11192892491817474,0.046485017985105515,-0.09093688428401947,-0.08181178569793701,0.27569183707237244,0.053691715002059937,-0.0820615291595459,-0.0099443718791008,-0.13932380080223083,0.1888434886932373,0.08950844407081604,-0.2439228892326355,0.15603746473789215,0.18198250234127045,0.20197588205337524,0.0101777920499444,0.17056937515735626,0.18022796511650085,-0.184208482503891,-0.04054708033800125,0.2360391467809677,0.13734804093837738,-0.048917658627033234,0.15842771530151367,0.11060313880443573,0.03854813054203987,0.30583909153938293,0.13798798620700836,0.008906302973628044,-0.04541773721575737,-0.06113944947719574,-0.18950515985488892,-0.1343827098608017,0.1562730371952057,-0.02358400449156761,0.1538548618555069,0.14329467713832855,0.07701592892408371,-0.061402350664138794,-0.08130945265293121,-0.10964351147413254,0.10436489433050156,-0.13617177307605743,0.15601682662963867,-0.18375883996486664,0.08720822632312775,0.09167249500751495,-0.09699288755655289,0.2669333219528198,-0.03227556124329567,-0.019051160663366318,-0.13976052403450012,0.08247186243534088,0.04548538476228714,0.08192634582519531,-0.22663933038711548,-0.16165690124034882,0.4650683104991913,0.08107436448335648,0.04472450539469719,-0.11933749914169312,0.032679371535778046,0.09785719215869904,0.04950262978672981,0.13266919553279877,-0.0346512608230114,-0.22178974747657776,-0.14775843918323517,0.10320093482732773,-0.22536441683769226,0.161648690700531,0.035697467625141144,0.12899239361286163,-0.04518727585673332,-0.004840870853513479,-0.016973238438367844,-0.04546041041612625,-0.10778998583555222,-0.07165247201919556,0.09242845326662064,-0.19005447626113892,0.036187544465065,0.05815901607275009,0.09471479058265686,0.09845007956027985,0.33495017886161804,0.27815675735473633,0.2058754414319992,-0.19967137277126312,0.08422080427408218,0.013559491373598576,0.38966870307922363,-0.22126199305057526,-0.09637637436389923,0.2370234876871109,0.25064414739608765,-0.1262892484664917,-0.4792775809764862,0.08017727732658386,0.003928466700017452,-0.005297514144331217,0.08773309737443924,-0.04198097437620163,0.035714685916900635,-0.08041645586490631,-0.13726863265037537,-0.22752419114112854,-0.0014972072094678879,-0.09258754551410675,0.027322908863425255,0.13448549807071686,-0.32641008496284485,-0.1748083382844925,0.21907436847686768,-0.12396378815174103,0.07099650800228119,0.09321876615285873,-0.09541948139667511,0.2185729444026947,-0.05490170791745186,-0.14086149632930756,0.04308663308620453,0.06451543420553207,-0.030269093811511993,0.06534284353256226,0.0424414686858654,-0.41786739230155945,-0.025713879615068436,-0.211456298828125,0.10970812290906906,0.04789808765053749,-0.007090169005095959,-0.14932915568351746,0.03817504271864891,0.19031450152397156,0.036729179322719574,-0.11318045854568481,0.12031379342079163,0.07418081164360046,0.15859930217266083,-0.01976153999567032,0.08626263588666916,-0.21112500131130219,-0.2926497757434845,0.015084724873304367,-0.029680795967578888,-0.044638484716415405,-0.3754984438419342,-0.0726403146982193,0.09097807109355927,0.010123486630618572,-0.2652406394481659,-0.06883135437965393,0.43771862983703613,0.11616794764995575,0.2528943419456482,-0.19592846930027008,0.0036122899036854506,0.18929390609264374,0.1829226016998291,0.07149958610534668,-0.002255373867228627,0.02399398386478424,0.11567027121782303,-0.0008265264332294464,0.05740814656019211,0.10303137451410294,0.008207636885344982,-0.1342790126800537,-0.10677667707204819,0.04108070582151413,0.02181723155081272,-0.00028398429276421666,0.09282436221837997,0.03835022449493408,-0.03313193842768669,0.0322071872651577,-0.06363428384065628,-0.008093725889921188,0.11984802782535553,-0.03785627335309982,0.25933894515037537,-0.04796504229307175,0.032290730625391006,0.1506013572216034,-0.16791100800037384,0.07613547146320343,0.3287985920906067,0.09942614287137985,-0.13368931412696838,-0.2018578052520752,0.22077836096286774,-0.011704675853252411,-0.04941561445593834,0.08607107400894165,-0.0005909051978960633,-0.06312530487775803,-0.0005052362685091794,0.022636298090219498,-0.1055850014090538,-0.15892146527767181,-0.08569269627332687,0.08158204704523087,0.03284135088324547,0.24055637419223785,0.14489224553108215,-0.20373323559761047,-0.05540570989251137,0.24554093182086945,-0.04546905308961868,0.07905179262161255,0.09949648380279541,-0.13382244110107422,-0.027805354446172714,-0.2561308741569519,-0.03201787546277046,0.09136196970939636,-0.027146639302372932,-0.2878808379173279,-0.11368492245674133,0.07693389058113098,0.07555773854255676,0.017258133739233017,-0.0152005385607481,0.07534202188253403,0.18841572105884552,0.0012516439892351627,0.07911898195743561,0.3486500680446625,0.34206363558769226,0.07419991493225098,-0.07955238223075867,-0.01784445531666279,-0.11982712149620056,0.22780834138393402,0.050876617431640625,-0.01172554399818182,-0.10089820623397827,0.12894132733345032,0.013235235586762428,-0.16815249621868134,0.05482961982488632,0.010401368141174316,0.17691725492477417,0.08483798801898956,-0.061094075441360474,-0.04616887867450714,-0.120865598320961,0.0683552548289299,0.3144984543323517,-0.1546645164489746,0.10744623094797134,0.10134416073560715,0.18789605796337128,0.02469628117978573,0.10182428359985352,-0.056533388793468475,-0.07300517708063126,-0.1001868024468422,-0.30707472562789917,-0.0627077966928482,0.042157210409641266,-0.25227344036102295,0.15948010981082916,0.04833691939711571,-0.24582812190055847,0.02259976975619793,0.03821820020675659,-0.1750553548336029,-0.012791106477379799,0.063841313123703,-0.10489249974489212,0.20267356932163239,-0.2806090712547302,-0.1560508757829666,0.037096310406923294,0.16612441837787628,-0.29003098607063293,-0.09920469671487808,-0.06808332353830338,0.007999394088983536,-0.002538527362048626,0.06035887077450752,-0.04883318766951561,0.25659388303756714,-0.09331934154033661,-0.04899406060576439,-0.22724416851997375,-0.16941571235656738,-0.019501958042383194,0.08688148111104965,0.19445642828941345,-0.012366358190774918,0.017614632844924927,-0.07613739371299744,0.06727273762226105,0.020306557416915894,0.029963715001940727,0.05622462183237076,0.11774501204490662,-0.15036049485206604,-0.07571305334568024,0.05908671393990517,-0.00417367136105895,-0.08813828229904175,-0.0014703689375892282,-0.17645327746868134,0.002226209733635187,0.24028785526752472,-0.0024726656265556812,0.034384969621896744,0.010485525242984295,-0.12941330671310425,-0.09896134585142136,0.2696570158004761,-0.12380485981702805,-0.07392150163650513,0.003870494430884719,0.03577066957950592,0.10856257379055023,0.16666558384895325,0.30150023102760315,0.3480277955532074,-0.013929905369877815,-0.22968444228172302,0.13805535435676575,0.03407507389783859,0.1252778023481369,-0.1701786071062088,0.03387704864144325,0.2341850996017456,-0.25806090235710144,0.1550423502922058,0.18645839393138885,0.06748010963201523,0.0768580511212349,-0.22221188247203827,0.19446530938148499,-0.14971382915973663,-0.19283871352672577,-0.08113377541303635,-0.13227955996990204,-0.08014807850122452,0.2341192662715912,-0.03316150978207588,0.036026548594236374,-0.2778492867946625,-0.19015035033226013,0.006931951269507408,0.07387393712997437,-0.03314467892050743,0.33102846145629883,-0.10143554955720901,0.0024382518604397774,0.490099161863327,0.08824976533651352,0.06231944262981415,0.11747068166732788,-0.10160008072853088,-0.050138942897319794,-0.1907639056444168,-0.24733415246009827,-0.15598024427890778,0.11357393115758896,-0.12467319518327713,0.0015161100309342146,0.13889913260936737,0.09401030838489532,-0.015934420749545097,-0.1727665662765503,0.1476200670003891,0.05219990387558937,-0.044464755803346634,-0.335468053817749,0.01706875115633011,0.1685011088848114,-0.15099400281906128,0.09001825749874115,-0.06331029534339905,-0.20089326798915863,0.047035858035087585,-0.03120242990553379,0.06490372121334076,-0.1588270515203476,0.003766815410926938,0.2477327585220337,0.0061663975939154625,-0.15328876674175262,0.007733028847724199,-0.1277802437543869,0.08072429150342941,0.0637161061167717,-0.10021859407424927,0.058534376323223114,-0.2634107172489166,-0.09442505240440369,-0.012487383559346199,0.191165953874588,0.13521139323711395,0.16176991164684296,-0.14384306967258453,0.025903526693582535,-0.1160154864192009,0.09562065452337265,0.0567934475839138,-0.05742063745856285,0.17706023156642914,-0.04244408756494522,-0.28592246770858765,-0.14276796579360962,0.04300033673644066,0.017500014975667,0.07794778794050217,0.1312084197998047,-0.13542360067367554,0.2677864134311676,-0.09829304367303848,-0.18261171877384186,-0.2253285050392151,-0.12648601830005646,0.3018849492073059,-0.054259441792964935,0.10386825352907181,0.21986433863639832,0.04198827967047691,0.05590927600860596,0.10354273021221161,-0.20838376879692078,0.10773731768131256,-0.11770995706319809,-0.159377321600914,-0.27128875255584717,-0.2823110818862915,0.09737182408571243,0.026510320603847504,0.16937156021595,0.055903732776641846,-0.12426657229661942,-0.09641820937395096,-0.03845958784222603,-0.009926637634634972,0.15429815649986267,-0.18641601502895355,0.03982970118522644,0.16339875757694244,-0.07499279081821442,0.08219250291585922,0.002590457210317254,-0.21907135844230652,-0.04546699672937393,-0.05112546682357788,0.059941019862890244,-0.030102074146270752,0.013445147313177586,-0.2093249410390854,0.1550242304801941,-0.28229936957359314,-0.3513807952404022,0.056336596608161926,0.08187928795814514,-0.16272011399269104,-0.06712924689054489,0.19258448481559753,0.13556861877441406,0.15760722756385803,0.16011188924312592,0.2225777953863144,0.14363238215446472,-0.3266908824443817,-0.13930155336856842,0.21273472905158997,0.0868508443236351,-0.0008226982317864895,-0.03427752107381821,-0.0032757066655904055,-0.3058526813983917,-0.10922501981258392,0.06926152110099792,0.10573862493038177,-0.1350487321615219,-0.17590421438217163,0.06612330675125122,-0.02897632122039795,-0.21193824708461761,0.09883907437324524,-0.1267917901277542,-0.07035250961780548,0.25032976269721985,0.03491329401731491,0.2354157716035843,0.08972643315792084,0.17305037379264832,0.00310952658765018,0.12522873282432556,0.10001107305288315,0.08916455507278442,-0.017106840386986732,-0.05770828574895859,-0.05351639539003372,0.14010187983512878,0.3235054612159729,-0.112584687769413,0.018192676827311516,-0.15777195990085602,0.21120108664035797,-0.12739551067352295,0.04274802282452583,0.15182644128799438,0.09512858837842941,-0.1763017177581787,-0.00490353349596262,0.08357477188110352,-0.07092196494340897,0.013930353336036205,0.363007515668869,-0.011353510431945324,-0.5038294196128845,0.19849024713039398,-0.22730685770511627,-0.08607878535985947,0.12731657922267914,-0.22534242272377014,0.16350601613521576,-0.06033151596784592,-0.24971987307071686,0.1453818380832672,0.06926775723695755,0.13065463304519653,-0.1405755579471588,-0.04256216809153557,-0.2395555078983307,-0.32776838541030884,-0.13558699190616608,-0.12844163179397583,-0.01970316469669342,0.03874922916293144,-0.055268581956624985,0.1437724381685257,0.006009499076753855,-0.19688530266284943,-0.03703237697482109,0.03433660790324211,-0.18917016685009003,0.112366683781147,-0.09625593572854996,-0.06208470091223717,0.3370460569858551,-0.0000018586395071906736,0.07412709295749664,0.006649142596870661,0.007747339084744453,0.24972178041934967,-0.003707263618707657,0.11499760299921036,-0.177369624376297,-0.10452721267938614,0.013887794688344002,-0.11123090237379074,0.1577482968568802,0.03463342413306236,0.0828685536980629,0.23425035178661346,0.2532702088356018,0.09111893177032471,-0.16788430511951447,0.12213880568742752,-0.043039996176958084,0.007734374143183231,-0.07693188637495041,-0.06928116083145142,0.19134008884429932,-0.03168146312236786,-0.0001229436747962609,0.050781138241291046,-0.12235024571418762,0.015638915821909904,-0.03478747978806496,0.07549165189266205,-0.02755422331392765,-0.1962367743253708,-0.055617984384298325,0.15862679481506348,-0.15742674469947815,-0.18764488399028778,-0.11383582651615143,0.17066769301891327,0.04054488241672516,0.2720251977443695,0.22840507328510284,0.10011206567287445,0.03648093342781067,0.17269566655158997,-0.24473685026168823,0.08413039892911911,0.3588223159313202,0.2056015133857727,0.07187519967556,-0.022714834660291672,-0.2395303100347519,-0.25676441192626953,0.06920494884252548,0.015661636367440224,0.1219082698225975,0.17754676938056946,0.19228561222553253,0.2896966338157654,-0.05564359202980995,0.28935420513153076,-0.05022840201854706,0.04894328489899635,0.013911811634898186,-0.1603996455669403,-0.17518119513988495,-0.12172142416238785,0.04211662337183952,0.03556438162922859,-0.017545972019433975,0.07242556661367416,-0.09891010075807571,0.08998928219079971,0.02826424315571785,0.04601714760065079,-0.08909853547811508,-0.011382928118109703,0.023264624178409576,-0.1329948902130127,-0.06894874572753906,-0.06496027857065201,-0.2084423005580902,-0.018746208399534225,0.11250504106283188,-0.1573157161474228,0.035583894699811935,0.053397100418806076,-0.007655948866158724,-0.06678456813097,0.1350572258234024,-0.08864892274141312,-0.09768013656139374,0.13798373937606812,0.06824416667222977,0.14842838048934937,0.07163754105567932,-0.34984898567199707,-0.19515299797058105,-0.12124261260032654,-0.0049444762989878654,-0.22183185815811157,-0.011018791235983372,-0.17895537614822388,0.1800829917192459,0.1428975909948349,0.017393900081515312,0.36529916524887085,-0.06708628684282303,0.3834037482738495,-0.03410675376653671,0.018008938059210777,0.2650284171104431,-0.07520999759435654,-0.26383310556411743,0.3598247170448303,-0.11861347407102585,-0.10586553066968918,-0.009661718271672726,0.16818688809871674,0.05090780928730965,-0.3123190402984619,-0.2514423429965973,-0.20579108595848083,0.056709446012973785,0.07786551117897034,0.1489882916212082,0.11094720661640167,-0.1068524643778801,-0.10549116134643555,-0.14858214557170868,-0.13255612552165985,0.007370898500084877,0.24219565093517303,0.03520265221595764,0.017008228227496147,-0.02509848214685917,-0.17476457357406616,0.06967458128929138,-0.010946424677968025,0.08098671585321426,0.058489397168159485,-0.09338965266942978,-0.11041584610939026,-0.03371870890259743,-0.17610958218574524,0.008968112990260124,-0.10592816025018692,0.14429599046707153,0.11009172350168228,0.22257821261882782,-0.2313697338104248,-0.0014469344168901443,0.09668782353401184,0.11030220240354538,-0.09385678172111511,0.027513058856129646,0.16498321294784546,0.07543044537305832,-0.11371977627277374,-0.16905906796455383,0.14107607305049896,0.26420503854751587,0.01443473156541586,-0.06153172627091408,-0.020151976495981216,0.17495888471603394,-0.13571961224079132,-0.16287340223789215,0.13888344168663025,-0.04782131686806679,-0.1697997748851776,0.017585866153240204,0.04267564415931702,-0.07193668186664581,-0.13026411831378937,0.11143850535154343,0.07098274677991867,-0.07066361606121063,0.2013140469789505,-0.07081635296344757,0.053772468119859695,-0.12254656106233597,-0.10801166296005249,0.08267723768949509,-0.16243547201156616,0.12168677151203156,0.09925560653209686,0.09003683179616928,-0.21986523270606995,0.14795063436031342,-0.007871478796005249,-0.08147818595170975,-0.10316719114780426,0.21834035217761993,0.012888716533780098,-0.0031510370317846537,0.1521531641483307,-0.07945317029953003,0.07267332077026367,-0.1315068155527115,-0.1934143453836441,-0.08577493578195572,0.024984421208500862,-0.12071997672319412,-0.035000476986169815,-0.040923554450273514,0.10860927402973175,0.18890608847141266,0.17400045692920685,-0.1698436737060547,0.26789557933807373,0.06313521414995193,-0.14839692413806915,0.09336777776479721,-0.1702931970357895,0.08129045367240906,-0.04038023203611374,-0.12743832170963287,0.01750578172504902,0.019246531650424004,0.15035679936408997,0.0035204123705625534,-0.12870527803897858,-0.098060242831707,-0.13848915696144104,-0.17091397941112518,-0.022417914122343063,-0.011519001796841621,0.1114145889878273,-0.0855785459280014,0.07667651772499084,-0.07389164716005325,-0.017423290759325027,-0.09370502084493637,-0.057316552847623825,-0.1039150282740593,0.028137363493442535,0.11858681589365005,-0.1296633929014206,-0.2578411102294922,0.15471796691417694,0.1022518053650856,-0.06536976993083954,0.05125884339213371,0.3532755970954895,0.14247506856918335,0.2677009403705597,-0.08214261382818222,0.09884762763977051,0.011098972521722317,-0.25378352403640747,0.07360967248678207,-0.14783386886119843,0.043666522949934006,0.21620790660381317,0.09390660375356674,0.33749598264694214,0.16718313097953796,-0.10608310252428055,-0.2243546098470688,-0.022699518129229546,0.1307726353406906,-0.036010902374982834,0.012745491228997707,0.1860238015651703,0.11089307069778442,0.05987357348203659,0.32804977893829346,0.2363577038049698,0.16335180401802063,0.02486981265246868,0.11058294773101807,0.15290775895118713,0.08247538655996323,-0.0053572761826217175,-0.008381916210055351,0.015066217631101608,-0.16976916790008545,0.008150441572070122,0.18215347826480865,0.13077183067798615,0.06786436587572098,0.05345183238387108,-0.06676682829856873,-0.04028674215078354,0.21989113092422485,0.2639458179473877,0.29523366689682007,0.10953342914581299,0.09930756688117981,-0.2972680330276489,-0.059085287153720856,-0.19028811156749725,-0.05332960933446884,-0.11898612976074219,-0.18358612060546875,-0.07084637135267258,-0.0022029350511729717,0.15339317917823792,0.3549662232398987,0.03886105492711067,-0.07886867225170135,0.13210321962833405,0.16366784274578094,0.07141188532114029,-0.15502780675888062,0.028491156175732613,-0.10876137018203735,-0.005056621972471476,0.2258775681257248,-0.2199951559305191,-0.08562377095222473,0.19156312942504883,-0.047765884548425674,-0.043016254901885986,-0.05395320802927017,0.21279527246952057,-0.041901420801877975,-0.13829290866851807,0.04736793041229248,-0.08369097113609314,0.09650178253650665,0.0021734691690653563,0.11091587692499161,-0.055365171283483505,-0.11692614108324051,0.027430202811956406,0.2176639884710312,-0.08372713625431061,0.047068141400814056,0.053128696978092194,-0.12249753624200821,-0.15834487974643707,0.148586243391037,0.17610646784305573,-0.2087491899728775,-0.08851291239261627,0.017618831247091293,0.04885852336883545,-0.13581398129463196,-0.17425446212291718,0.27641651034355164,0.16225862503051758,-0.14232052862644196,0.003385759424418211,0.0037094280123710632,0.17252066731452942,0.098560631275177,-0.14463435113430023,0.026583094149827957,-0.04192757606506348,0.39368176460266113,-0.23572562634944916,0.03897087275981903,0.05214417353272438,0.06933467090129852,-0.20080600678920746,-0.1825985163450241,0.218084916472435,0.04392169788479805,0.01171806175261736,-0.13777783513069153,-0.016047390177845955,0.3552955090999603,-0.17944644391536713,-0.037083953619003296,0.15403826534748077,0.09002117067575455,-0.035995613783597946,0.09494796395301819,-0.1419246345758438,0.09782180935144424,0.3422972857952118,0.14104509353637695,-0.06441201269626617,-0.03244245797395706,-0.029043016955256462,-0.012776968069374561,0.18773940205574036,-0.07527650892734528,0.012449142523109913,-0.27680090069770813,0.053532324731349945,-0.05439930036664009,0.255329966545105,-0.053058650344610214,-0.013029959984123707,0.2939980626106262,0.10123365372419357,0.15321636199951172,-0.09203330427408218,0.19929106533527374,0.09195824712514877,0.07890133559703827,-0.23578780889511108,0.03498811274766922,0.0746745839715004,-0.04880993068218231,-0.028468022122979164,0.11667630821466446,-0.0226519126445055,0.06846845895051956,0.057950738817453384,-0.05524834617972374,-0.11860544979572296,0.02076239511370659,0.1289483606815338,0.039468154311180115,-0.11576341092586517,0.06142100319266319,0.16273202002048492,-0.029586954042315483,-0.04493620619177818,0.6251266598701477,0.3188420534133911,0.6127762198448181,-0.8511011004447937,-0.37426674365997314,0.15041328966617584,0.3642462193965912,-0.09951452910900116,0.4595848321914673,0.40016016364097595,-0.8424614667892456,0.3811453878879547,-0.25413092970848083,-0.9332190752029419,-0.11902741342782974,-0.20214739441871643,-0.08592256903648376,-0.20822373032569885,0.10417628288269043,-0.39738520979881287,0.04301167652010918,0.2707442045211792,-0.21067732572555542,-0.2862262725830078,-0.1999952644109726,0.028748292475938797,0.039353642612695694,0.05610102042555809,-0.03408816084265709,-0.0891168937087059,-0.01283265557140112,-0.17148357629776,-0.24927517771720886,-0.20594289898872375,0.18670198321342468,-0.11277865618467331,0.28069818019866943,0.04418900981545448,0.363381028175354,-0.20488250255584717,-0.04985451325774193,0.004594532307237387,-0.34945547580718994,0.11677388101816177,-0.18585214018821716,0.19671973586082458,0.006425800733268261,0.17478246986865997,-0.020778391510248184,0.11448703706264496,-0.03753000497817993,-0.1512121856212616,0.07185783982276917,-0.18653078377246857,-0.21137987077236176,-0.018831728026270866,0.06728241592645645,-0.029701262712478638,-0.16058936715126038,-0.07227581739425659,-0.0472557507455349,0.14697565138339996,-0.10484425723552704,-0.028469305485486984,-0.21129091084003448,-0.09213840216398239,-0.12956249713897705,0.20782841742038727,0.057684775441884995,0.28190878033638,0.33277320861816406,0.055545613169670105,-0.23124051094055176,-0.24580132961273193,0.06508642435073853,-0.11914458125829697,0.1276535540819168,0.08680634200572968,0.002873852616176009,-0.12782257795333862,0.29508018493652344,-0.07638939470052719,-0.057585209608078,0.01136639155447483,0.1101880893111229,-0.16028909385204315,-0.01064228918403387,-0.12776868045330048,0.33570924401283264,0.1680818349123001,-0.010297835804522038,0.2388235628604889,-0.1784386932849884,-0.053038958460092545,0.07086719572544098,-0.49086320400238037,-0.23674136400222778,0.2804759442806244,0.017208456993103027,0.10689697414636612,-0.09287097305059433,0.22735705971717834,-0.08071769773960114,-0.051184650510549545,0.11312182992696762,-0.011513072066009045,-0.14981617033481598,0.09928774833679199,-0.08727622032165527,0.1109190434217453,-0.20034721493721008,-0.0162956602871418,-0.0846855416893959,-0.09812241792678833,-0.061691150069236755,0.059875719249248505,-0.03977575525641441,-0.27723005414009094,-0.009233362972736359,0.1907961368560791,-0.2072983831167221,0.1407427340745926,0.011144096031785011,0.0782950147986412,-0.07400967925786972,-0.026323754340410233,0.1467200517654419,-0.1382737159729004,-0.043024711310863495,0.1619887351989746,-0.1191963255405426,0.2657364010810852,0.3412296772003174,-0.06813196837902069,-0.16492968797683716,0.2460961937904358,0.20125561952590942,-0.030652057379484177,-0.07468969374895096,0.027284609153866768,-0.0886157676577568,-0.0010020204354077578,0.12226615846157074,-0.2651059031486511,-0.2484390288591385,0.055285945534706116,-0.09825468808412552,0.06820552796125412,0.059089262038469315,0.03814122453331947,-0.27998003363609314,-0.09006830304861069,-0.08931691199541092,0.06778725981712341,-0.07427442073822021,-0.06548233330249786,0.19823315739631653,0.2600007653236389,0.1448306292295456,0.03602933883666992,0.05538760870695114,0.02584242820739746,0.23425966501235962,-0.03688771650195122,-0.15260933339595795,-0.08336956799030304,-0.21450933814048767,0.08769839257001877,-0.22060708701610565,-0.19410936534404755,-0.03343348205089569,0.04886402189731598,0.1298338621854782,0.06114164739847183,0.26722609996795654,0.18943879008293152,-0.09053430706262589,0.08716657757759094,-0.14115214347839355,-0.08861646801233292,-0.1176372841000557,0.12901023030281067,0.04605449363589287,-0.07304368168115616,0.27391207218170166,0.010495956055819988,-0.1781579703092575,0.08266004920005798,-0.2651309370994568,0.004161000717431307,-0.014441829174757004,-0.06337792426347733,0.07008729130029678,0.26777637004852295,-0.1771714836359024,-0.30706295371055603,-0.21062792837619781,0.11457141488790512,-0.20611317455768585,-0.1887880563735962,-0.4708419144153595,0.10032106190919876,0.35931962728500366,0.18971340358257294,-0.14359499514102936,0.2902343273162842,-0.13187848031520844,-0.2052273005247116,0.3974893391132355,0.04561321809887886,0.10317399352788925,0.2696700394153595,-0.12642407417297363,-0.02337091974914074,-0.2187170833349228,-0.07254449278116226,0.39517515897750854,0.1440427154302597,-0.3353542685508728,-0.02196863479912281,0.09509608149528503,0.25387099385261536,0.2975916564464569,-0.47851043939590454,-0.10227442532777786,0.102462537586689,0.04938339814543724,0.3175477981567383,-0.03240828588604927,0.21149052679538727,-0.13287098705768585,-0.14290368556976318,-0.006709502078592777,0.3837859630584717,0.23439157009124756,-0.12713952362537384,-0.22074009478092194,-0.2200835943222046,-0.19428551197052002,0.13899098336696625,0.2604318857192993,-0.12879492342472076,0.24177990853786469,0.12061823159456253,-0.05038018897175789,0.04044533148407936,0.05324769765138626,-0.06466443836688995,-0.43912816047668457,0.027174673974514008,-0.1485806405544281,0.23366884887218475,0.05922727286815643,0.01696157455444336,-0.17007282376289368,-0.1853933185338974,-0.05924152210354805,0.1836708039045334,-0.02250378578901291,-0.3363049030303955,-0.18597695231437683,-0.12577837705612183,-0.03806757554411888,-0.15274156630039215,-0.32416269183158875,-0.1548950970172882,-0.20269109308719635,-0.001212176401168108,0.14337261021137238,-0.1477552056312561,0.1912570744752884,-0.043320246040821075,-0.13647550344467163,-0.035981547087430954,-0.019298512488603592,-0.044227875769138336,0.029996031895279884,-0.020109573379158974,-0.0020005181431770325,0.07358350604772568,-0.12254942208528519,0.08675842732191086,0.040847357362508774,-0.039415325969457626,0.004454623907804489,-0.16670693457126617,0.0006815692759118974,0.02601933851838112,-0.028493477031588554,-0.5032747983932495,-0.07567698508501053,-0.07521165162324905,-0.19009780883789062,-0.03190439194440842,-0.05729207023978233,0.02737458236515522,-0.06228136643767357,-0.2549484670162201,0.10666238516569138,0.0929236114025116,0.15988506376743317,-0.04451080039143562,-0.24583649635314941,0.16939927637577057,0.00045236997539177537,0.027856193482875824,0.0949486717581749,0.08703679591417313,0.02891923114657402,0.22434669733047485,0.2634459435939789,-0.18975506722927094,-0.20458702743053436,-0.08082053810358047,0.1126285195350647,0.12523087859153748,-0.11847908794879913,0.10874011367559433,0.07711010426282883,0.10104555636644363,0.010875648818910122,-0.16253556311130524,-0.056368138641119,0.1157601922750473,0.1319192796945572,0.27183130383491516,-0.0025395897682756186,-0.10646340250968933,0.17395399510860443,0.1168341189622879,0.13326424360275269,-0.17582471668720245,0.15836039185523987,0.13982778787612915,-0.11253133416175842,-0.11395395547151566,-0.19998008012771606,-0.17167437076568604,0.06866791844367981,0.04766365885734558,-0.024863341823220253,0.13432954251766205,0.037835221737623215,-0.0350569486618042,0.009063220582902431,0.07063397020101547,0.15825951099395752,-0.12667138874530792,-0.07618477195501328,-0.07688747346401215,0.2573363482952118,-0.09092369675636292,-0.08763596415519714,0.011675165966153145,-0.12660643458366394,-0.004493015352636576,0.02693280391395092,-0.1683443784713745,-0.0395936593413353,-0.04994908720254898,0.05944634974002838,0.14870838820934296,-0.06390438228845596,0.032405998557806015,0.06510888040065765,-0.03818928450345993,0.13994961977005005,-0.04490405321121216,-0.03678499162197113,-0.2369798719882965,-0.20739561319351196,-0.15027961134910583,-0.08344428241252899,-0.1748906970024109,0.10277218371629715,0.04397215321660042,0.09872512519359589,-0.22064650058746338,0.24701079726219177,0.06677968055009842,-0.04268141835927963,-0.19488650560379028,-0.1004500761628151,-0.024970142170786858,-0.01358206570148468,-0.5209640860557556,-0.00766620971262455,0.08355751633644104,-0.010860847309231758,-0.02313852310180664,-0.14959029853343964,-0.024551507085561752,0.15936872363090515,-0.15500879287719727,0.17555254697799683,-0.20072577893733978,0.0862530916929245,-0.15048906207084656,0.05580515414476395,0.05304650962352753,-0.009445395320653915,0.04372675344347954,-0.023230215534567833,0.028455505147576332,-0.057438720017671585,-0.02202349528670311,-0.0626927837729454,0.19543835520744324,0.02987433224916458,-0.0018995091086253524,-0.17526012659072876,0.06441325694322586,-0.12593096494674683,0.17536409199237823,0.018455352634191513,0.2453906536102295,0.05584677308797836,-0.03163894638419151,0.04037890210747719,-0.0026306379586458206,0.12716680765151978,0.10660336911678314,0.09519457817077637,0.1131238266825676,0.1810125857591629,0.0629207044839859,-0.05083980783820152,-0.05260426178574562,-0.002602824941277504,0.09705546498298645,-0.2000294327735901,0.037184782326221466,-0.04918399453163147,-0.1964908093214035,-0.06702957302331924,0.07451316714286804,0.048664599657058716,-0.2707383334636688,-0.026576371863484383,0.19316279888153076,-0.06860808283090591,-0.01626421883702278,-0.1153956726193428,0.10079735517501831,0.2054017335176468,-0.05836716666817665,0.05587856471538544,0.06552319973707199,-0.09101594239473343,-0.05569521710276604,0.06372381001710892,-0.16822393238544464,0.0445297546684742,0.31560128927230835,-0.0725671723484993,-0.11298564821481705,-0.07937278598546982,-0.04408593103289604,0.05530307814478874,-0.14352548122406006,0.04329925775527954,-0.25011229515075684,-0.2529635727405548,-0.09679604321718216,-0.012173122726380825,0.033324725925922394,-0.11710841953754425,-0.026371778920292854,0.34909456968307495,-0.15974721312522888,-0.16435739398002625,-0.18785996735095978,-0.15477697551250458,-0.13556796312332153,0.030950844287872314,-0.2531586289405823,-0.3407735824584961,-0.1483483612537384,0.008899729698896408,0.015678120777010918,-0.11372962594032288,-0.05164296180009842,0.22477014362812042,0.07970423251390457,-0.15058262646198273,0.0008126104949042201,0.12256232649087906,0.11681222915649414,0.2798546850681305,-0.1512928009033203,0.20180052518844604,0.08732067793607712,0.025454463437199593,-0.056537941098213196,0.04614795371890068,0.14863234758377075,-0.13900162279605865,-0.18634666502475739,0.03536004200577736,-0.061142873018980026,-0.12969934940338135,-0.08759399503469467,0.07881081849336624,0.28565290570259094,0.016747277230024338,0.06281449645757675,0.159805029630661,-0.016951169818639755,0.06991445273160934,0.21346016228199005,-0.010133221745491028,0.053226470947265625,-0.0428960844874382,-0.041308797895908356,-0.17649683356285095,-0.19041866064071655,-0.3010405898094177,-0.02462388016283512,-0.038795992732048035,0.34815752506256104,-0.07839655131101608,-0.1694919764995575,0.22259056568145752,-0.0573061965405941,0.10777898132801056,-0.1398005187511444,0.00858454592525959,-0.016121193766593933,-0.12302662432193756,0.15609923005104065,-0.2845044732093811,-0.05975630506873131,0.11550693958997726,0.07650674134492874,0.3523355722427368,0.06694559752941132,-0.06812113523483276,0.049059391021728516,0.07352624833583832,-0.07615458965301514,-0.21496544778347015,-0.12306291610002518,-0.11925091594457626,-0.23931503295898438,-0.07820417732000351,0.09116891026496887,-0.021026941016316414,-0.08753401786088943,-0.06778237223625183,-0.17660430073738098,-0.014706719666719437,0.09320317953824997,0.09489764273166656,-0.048491496592760086,-0.06563723087310791,0.07931556552648544,-0.016036715358495712,0.0094787972047925,0.19549399614334106,0.05745493248105049,-0.13643895089626312,-0.061862751841545105,0.12005586177110672,-0.15486270189285278,0.021257203072309494,-0.21523091197013855,-0.10481061786413193,-0.11883439868688583,-0.07220600545406342,-0.008265341632068157,0.19720153510570526,0.09602443873882294,0.1778636872768402,-0.0061815045773983,0.037898894399404526,0.0573514886200428,-0.0940072163939476,0.4519866406917572,-0.10410270094871521,0.1952747255563736,0.31458035111427307,-0.13997948169708252,-0.0983181744813919,-0.08841989934444427,0.009812267497181892,-0.030711855739355087,-0.13847319781780243,0.13378097116947174,-0.0008602131856605411,0.04089806228876114,-0.2528126537799835,0.09846878796815872,0.2688426375389099,0.033218543976545334,-0.04614045098423958,-0.05921940132975578,-0.038851547986269,-0.14138266444206238,-0.2877306640148163,-0.1679406464099884,-0.05468176677823067,-0.012294364161789417,0.2162812352180481,0.0906127542257309,0.08088307827711105,-0.005402645096182823,-0.14092178642749786,0.12705019116401672,0.056923627853393555,-0.03951791301369667,0.34290528297424316,0.07686027884483337,-0.03982699289917946,-0.0022670559119433165,0.13417522609233856,0.17064470052719116,-0.01295366883277893,0.1967558115720749,-0.14883774518966675,-0.05894755944609642,-0.12062785029411316,-0.08765929192304611,0.16086749732494354,0.05127166956663132,0.07922322303056717,-0.07399753481149673,0.10919176042079926,0.03215617313981056,-0.1706031709909439,0.0804884135723114,0.035293012857437134,-0.089865542948246,0.09259115159511566,0.23553025722503662,0.20164719223976135,-0.053916286677122116,-0.05962064489722252,0.0032211856450885534,0.13487328588962555,-0.1774209439754486,-0.19339339435100555,0.017265478149056435,-0.07486097514629364,-0.09765691310167313,0.05976151302456856,-0.07110052555799484,-0.13670632243156433,0.08129443228244781,0.043259214609861374,0.1164226233959198,0.007595401722937822,-0.09810794144868851,0.006612010765820742,0.038389310240745544,-0.011164032854139805,0.056570153683423996,-0.025093013420701027,-0.00696117477491498,-0.22079387307167053,0.09982165694236755,-0.13603132963180542,0.13636471331119537,0.15647254884243011,0.0027654296718537807,0.047931551933288574,-0.16383327543735504,-0.06413222849369049,-0.03413403406739235,0.04877369850873947,-0.01881231740117073,-0.13523752987384796,0.1507885903120041,-0.05669708922505379,-0.5225626230239868,-0.10158105194568634,-0.09072904288768768,-0.009614391252398491,0.24576988816261292,-0.1336640864610672,-0.1820751577615738,0.048912934958934784,-0.20358188450336456,-0.012023129500448704,-0.03240589052438736,0.27417972683906555,-0.24681629240512848,0.009862329810857773,-0.03723866865038872,-0.15996919572353363,0.08206131309270859,0.07725273072719574,-0.14318206906318665,-0.11672714352607727,0.2548413574695587,-0.11985701322555542,-0.024661121889948845,-0.00878849346190691,-0.07396631687879562,0.043344732373952866,0.026844745501875877,-0.33105021715164185,-0.11479051411151886,-0.11231213808059692,-0.08178706467151642,0.1529441624879837,0.07512062042951584,-0.17845022678375244,0.08136641979217529,0.1395450383424759,-0.07517287880182266,-0.1670989692211151,-0.08848929405212402,0.15735869109630585,0.20005537569522858,0.19351224601268768,-0.23284031450748444,-0.2310178428888321,-0.010364552959799767,-0.11174170672893524,-0.009424797259271145,0.16913889348506927,0.08093661069869995,-0.02721310965716839,0.059551700949668884,-0.19391949474811554,-0.46116235852241516,0.07160685211420059,0.0880812332034111,-0.18007726967334747,0.1717449277639389,-0.024981828406453133,-0.193446546792984,-0.06593813747167587,0.05454854667186737,0.1062716618180275,-0.018288366496562958,0.07477510720491409,0.05217565596103668,0.024328723549842834,0.0008003258262760937,-0.06324613839387894,-0.002452628221362829,0.21567687392234802,0.13348910212516785,0.1319262981414795,0.1399165391921997,0.04017692059278488,-0.1970968097448349,0.038698725402355194,-0.062862329185009,0.14386503398418427,0.12388654798269272,-0.19129252433776855,0.30117031931877136,0.05520737171173096,-0.06313125044107437,-0.11834823340177536,0.242071270942688,-0.03530726954340935,0.3967462480068207,-0.17593352496623993,-0.1441747099161148,-0.15541775524616241,0.06631970405578613,-0.20839029550552368,-0.22655324637889862,0.12431976199150085,0.08838660269975662,-0.17311640083789825,0.29522985219955444,-0.030716538429260254,0.2616916596889496,0.288870245218277,0.004607476759701967,0.09295403212308884,0.10129258036613464,-0.16442544758319855,0.19678995013237,0.10669255256652832,-0.05587463453412056,-0.1842755377292633,0.07952529191970825,0.25206851959228516,-0.18307048082351685,0.053420182317495346,0.053496941924095154,0.03884349390864372,-0.10833317786455154,0.07625093311071396,-0.18662744760513306,-0.1018415242433548,0.042893677949905396,0.33102574944496155,0.01963694579899311,-0.11881689727306366,-0.06935865432024002,0.23311135172843933,0.060622308403253555,0.2198123335838318,0.21014994382858276,-0.1646488606929779,0.17006637156009674,0.11069530993700027,-0.11322194337844849,-0.12655483186244965,0.14924608170986176,0.18273194134235382,0.17301738262176514,-0.05233987793326378,-0.12970314919948578,0.11591914296150208,0.1786952018737793,0.04409375786781311,-0.22935380041599274,0.016699980944395065,