{"version": "0.5.1", "metadata": {"date": {"year": 2023, "month": 4, "day": 30, "hour": 13, "minute": 27, "second": 34}, "loudness": -12.563715934753418, "gain": 0.5392357401284907, "name": null, "modeled_by": null, "gear_type": null, "gear_make": null, "gear_model": null, "tone_type": null}, "architecture": "WaveNet", "config": {"layers": [{"input_size": 1, "condition_size": 1, "head_size": 4, "channels": 8, "kernel_size": 3, "dilations": [1, 2, 4, 8, 16, 32, 64], "activation": "Tanh", "gated": false, "head_bias": false}, {"input_size": 8, "condition_size": 1, "head_size": 1, "channels": 4, "kernel_size": 3, "dilations": [128, 256, 512, 1, 2, 4, 8, 16, 32, 64, 128, 256, 512], "activation": "Tanh", "gated": false, "head_bias": true}], "head": null, "head_scale": 0.02}, "weights": [-0.05747811868786812, 0.5379266142845154, -0.8335258364677429, -0.6622142791748047, -0.4932114779949188, 0.14648890495300293, -0.273225337266922, 0.755761981010437, -0.031376585364341736, 0.16208447515964508, 0.08833160996437073, 0.26075249910354614, -0.3124226927757263, -0.17975762486457825, -0.3941097855567932, 0.12407509982585907, 0.12422563880681992, -0.18020732700824738, -0.02566215768456459, -0.04822438582777977, -0.23612500727176666, 0.291959285736084, 0.006582035217434168, 0.4410739541053772, -0.13715337216854095, -0.01211482658982277, -0.13218089938163757, -0.0410853736102581, -0.06163502857089043, 0.2550792992115021, -0.19448786973953247, 0.13322150707244873, -0.02509995736181736, -0.1406201720237732, 0.10142930597066879, -0.13526703417301178, 0.03181081637740135, 0.12129180133342743, 0.0241651963442564, -0.06534025818109512, 0.05714687332510948, -0.16737157106399536, -0.12466678768396378, -0.14357821643352509, -0.20472683012485504, -0.26150110363960266, 0.18381331861019135, 0.16202886402606964, 0.04848037660121918, -0.05418156832456589, 0.09497395157814026, 0.05255770683288574, 0.16010525822639465, 0.09161806851625443, 0.2984336316585541, -0.16919133067131042, 0.03448941186070442, -0.10322420299053192, -0.34515583515167236, -0.1789434403181076, -0.012430780567228794, 0.22171546518802643, -0.04451875388622284, 0.1763933300971985, -0.022738980129361153, 0.0492340624332428, 0.11858953535556793, -0.08553963154554367, 0.19547754526138306, 0.30328813195228577, -0.30362609028816223, -0.13120797276496887, -0.011621663346886635, 0.29949820041656494, 0.21621020138263702, 0.2754010856151581, -0.1510964184999466, -0.25264012813568115, -0.09468206763267517, 0.007543100509792566, -0.24616751074790955, 0.1275041699409485, 0.25673288106918335, -0.07988926768302917, 0.10586843639612198, -0.18426886200904846, -0.15855418145656586, -0.1631917506456375, 0.22741909325122833, -0.24276484549045563, 0.0057120779529213905, 0.24895773828029633, 0.0225569698959589, 0.009093142114579678, -0.04756531864404678, -0.03071133978664875, 0.1588737815618515, -0.10031287372112274, -0.28280070424079895, -0.18444572389125824, 0.36057084798812866, 0.26210451126098633, -0.017815541476011276, -0.19801102578639984, -0.11146485805511475, 0.10307087749242783, -0.2638469934463501, -0.276848167181015, -0.13106241822242737, 0.09947256743907928, 0.040680158883333206, 0.2490113377571106, -0.18616630136966705, 0.3066504895687103, 0.26422038674354553, -0.2348741590976715, 0.06574689596891403, 0.1289709508419037, -0.04373367503285408, -0.055752553045749664, -0.026679854840040207, 0.0817805752158165, -0.012892452999949455, 0.19203583896160126, -0.3121182322502136, -0.24412886798381805, -0.17818784713745117, -0.03668275475502014, -0.21240423619747162, -0.16493114829063416, -0.30044475197792053, 0.07742665708065033, -0.20036974549293518, 0.16409319639205933, 0.11645158380270004, 0.05591512843966484, -0.165193110704422, -0.04737750068306923, 0.11634515970945358, -0.03762296214699745, 0.15397152304649353, 0.19766072928905487, 0.012713409960269928, 0.02863324247300625, -0.2442646473646164, 0.06332129240036011, 0.059332914650440216, 0.044685203582048416, -0.32507291436195374, -0.12540127336978912, -0.2665441036224365, -0.0006017593550495803, -0.22415108978748322, -0.11477675288915634, 0.09858682006597519, -0.17752903699874878, 0.23315806686878204, -0.20863287150859833, -0.06408689171075821, -0.19426971673965454, 0.0021576182916760445, -0.06263674050569534, -0.29278555512428284, -0.13290724158287048, -0.04421873763203621, -0.1017284020781517, -0.042600180953741074, 0.0892641693353653, -0.09035631269216537, -0.06909708678722382, 0.20250198245048523, -0.16504119336605072, 0.2638576328754425, 0.0958593562245369, -0.07277338951826096, 0.08721558004617691, -0.06198383867740631, -0.17422984540462494, 0.2980925142765045, -0.16025088727474213, 0.22626684606075287, -0.03394601121544838, 0.13896411657333374, -0.15861062705516815, 0.08096721768379211, 0.06540952622890472, -0.2573138177394867, -0.056007254868745804, -0.16687992215156555, -0.09944110363721848, 0.15348853170871735, 0.13249312341213226, 0.03972756490111351, 0.01600738614797592, -0.11506061255931854, -0.32044777274131775, -0.10398164391517639, 0.07635043561458588, 0.09146173298358917, 0.010325241833925247, -0.020419137552380562, 0.138522207736969, -0.07585817575454712, -0.1345357894897461, -0.08112723380327225, 0.12880684435367584, -0.19341491162776947, 0.204009547829628, 0.31934162974357605, 0.08486340194940567, 0.11773982644081116, -0.3403216600418091, 0.17652572691440582, -0.0639582946896553, -0.03934032842516899, 0.1530071198940277, -0.33130162954330444, -0.264375776052475, 0.4054606854915619, -0.3320736885070801, 0.18798676133155823, 0.4632780849933624, -0.0005644931807182729, 0.009928889572620392, -0.17560738325119019, 0.26014602184295654, -0.3252178430557251, -0.22427654266357422, -0.26018083095550537, -0.04795192927122116, 0.02838120609521866, 0.33296459913253784, -0.07818212360143661, 0.22889602184295654, 0.3261125087738037, -0.5075695514678955, 0.27359405159950256, -0.10338609665632248, -0.2043619602918625, 0.18255198001861572, 0.33799800276756287, 0.24833056330680847, -0.09859194606542587, 0.15241006016731262, 0.21712632477283478, -0.3669387698173523, 0.37201616168022156, -0.26278001070022583, -0.324125200510025, -0.24122345447540283, -0.01837760955095291, 0.10206470638513565, 0.4737945795059204, 0.061389338225126266, -0.40434530377388, -0.21124973893165588, -0.134841188788414, 0.06469976902008057, -0.10663419216871262, -0.13593974709510803, -0.12245392054319382, 0.08230167627334595, 0.3131954073905945, 0.052532464265823364, 0.011138959787786007, -0.20108753442764282, -0.050505973398685455, 0.1583711802959442, 0.3425942361354828, 0.2088363766670227, -0.35608160495758057, -0.28768250346183777, -0.3927965462207794, 0.022183215245604515, -0.18550772964954376, -0.15196751058101654, 0.31957417726516724, -0.19785413146018982, -0.08623398840427399, -0.0046549104154109955, 0.046004679054021835, -0.13839174807071686, -0.19061221182346344, 0.13406811654567719, 0.07356631010770798, 0.01388903521001339, -0.07268863916397095, 0.024694541469216347, -0.12600940465927124, -0.08663313835859299, -0.12616610527038574, 0.13598410785198212, 0.20839405059814453, -0.08929353952407837, -0.11974259465932846, -0.25862917304039, 0.2697303593158722, -0.13726194202899933, 0.07324104011058807, 0.18245714902877808, -0.1899566948413849, -0.11509653180837631, 0.018176646903157234, 0.08955986797809601, 0.16049806773662567, -0.15475338697433472, -0.009503420442342758, -0.06904757022857666, 0.10361690074205399, 0.046800632029771805, 0.025607815012335777, -0.24034570157527924, 0.24527482688426971, 0.026102006435394287, -0.1224212646484375, 0.028890138491988182, -0.213954895734787, 0.1446438431739807, 0.13157379627227783, 0.004110483452677727, -0.11494282633066177, -0.12836046516895294, -0.44104287028312683, 0.10027685761451721, 0.2546923756599426, 0.2531075179576874, -0.024124082177877426, 0.0371476449072361, 0.006844775285571814, -0.050713833421468735, -0.07426422089338303, -0.06732408702373505, 0.04710700362920761, 0.0981198251247406, -0.21103215217590332, 0.19835950434207916, 0.24809013307094574, 0.2875141501426697, 0.013022929430007935, 0.09995369613170624, -0.18224596977233887, -0.045885469764471054, 0.1443251669406891, 0.1767084300518036, -0.31765854358673096, 0.11921849101781845, 0.06015121191740036, 0.1309720277786255, -0.05165340006351471, 0.1916108876466751, -0.18197856843471527, 0.13864240050315857, -0.0833585262298584, 0.0010682805441319942, 0.1095019057393074, 0.26583045721054077, -0.06016305088996887, 0.10937514901161194, -0.2741945683956146, 0.07395520806312561, -0.30933842062950134, 0.020337987691164017, -0.03429262340068817, 0.19087429344654083, -0.03682589530944824, 0.010085386224091053, 0.1846538633108139, -0.1196177527308464, 0.009998894296586514, 0.2910083532333374, -0.24010448157787323, 0.34340277314186096, -0.21385318040847778, 0.0536116287112236, -0.053029365837574005, -0.1288849115371704, 0.11098148673772812, -0.014444519765675068, -0.05949152261018753, 0.2659728527069092, 0.2632627785205841, -0.1747833639383316, 0.047581154853105545, -0.07570470124483109, 0.06612729281187057, 0.05295421555638313, 0.23743975162506104, 0.13821543753147125, 0.11210371553897858, 0.009018758311867714, 0.0985870212316513, -0.08789074420928955, -0.041078682988882065, -0.2108352780342102, 0.06997395306825638, 0.0857355073094368, 0.13416293263435364, -0.1569512039422989, -0.030821798369288445, 0.11948611587285995, 0.23972313106060028, -0.08010593056678772, -0.035788748413324356, 0.05606086924672127, 0.2227642834186554, -0.09675057232379913, 0.3218315541744232, 0.14737068116664886, -0.13680565357208252, 0.20100708305835724, 0.02593144215643406, 0.006311224307864904, 0.1489952653646469, -0.08875259757041931, -0.20279189944267273, -0.11332084983587265, -0.0034099332988262177, 0.024504154920578003, -0.05844585597515106, 0.17994645237922668, -0.05703892931342125, -0.10784073919057846, 0.0812699943780899, 0.09301654994487762, 0.11588586866855621, -0.1884392350912094, -0.1745847910642624, -0.21964232623577118, -0.10642175376415253, 0.07112829387187958, -0.10172590613365173, 0.006361113395541906, 0.3590547740459442, 0.0025388202629983425, -0.28460103273391724, -0.23075148463249207, 0.039797890931367874, -0.11384070664644241, 0.25986889004707336, -0.12078294157981873, -0.27351102232933044, -0.24726258218288422, -0.11219765990972519, 0.17458194494247437, 0.04758055880665779, 0.22736208140850067, -0.10890200734138489, 0.021450478583574295, 0.10762292891740799, -0.15026630461215973, 0.42582225799560547, 0.1501050591468811, 0.1972833126783371, 0.0006015204126015306, -0.1835426241159439, 0.12966592609882355, 0.25359928607940674, 0.21568448841571808, -0.26668402552604675, -0.25996682047843933, -0.32914477586746216, -0.10205451399087906, 0.2506459951400757, 0.10937698930501938, 0.11112338304519653, 0.12479295581579208, 0.09945821762084961, 0.11633788794279099, 0.07450606673955917, 0.14292490482330322, 0.11165151745080948, -0.017038971185684204, 0.03880850225687027, -0.1130610853433609, 0.3597151041030884, 0.031973566859960556, -0.09303859621286392, -0.028624311089515686, -0.31278276443481445, -0.06572075188159943, -0.10216154903173447, -0.051366329193115234, -0.08289351314306259, 0.16035504639148712, -0.1484045833349228, 0.1507389098405838, 0.14429548382759094, 0.021492013707756996, -0.19590391218662262, -0.2543138861656189, -0.028927527368068695, -0.15333376824855804, 0.535568356513977, -0.8431645631790161, 0.9026227593421936, -0.1351666897535324, -0.46683743596076965, -0.003217023331671953, 0.4621070623397827, 0.342740535736084, -0.316135436296463, 0.25886279344558716, 0.26165229082107544, 0.10530684143304825, 0.31575915217399597, -0.1830008625984192, 0.0604541189968586, 0.00028284350992180407, -0.1464085578918457, 0.17156660556793213, 0.024612195789813995, 0.44652095437049866, -0.35305097699165344, -0.03133372589945793, 0.2850464880466461, 0.08738961815834045, -0.051245518028736115, -0.22585037350654602, 0.4381643533706665, -0.06857384741306305, 0.0038963104598224163, 0.02920735441148281, 0.2239060401916504, -0.35924962162971497, -0.08460012078285217, -0.5263876914978027, 0.5715609192848206, -0.04798242449760437, -0.21225428581237793, 0.005133424885571003, 0.6361761093139648, 0.649567723274231, -0.5732913017272949, -0.007038853131234646, -0.4916613698005676, 0.1398254930973053, 0.3403973877429962, -0.7268840670585632, -0.6247793436050415, 0.11427974700927734, 0.1464586704969406, 0.1076747253537178, -0.4083118736743927, -0.5009452700614929, 0.11438016593456268, 0.03750240430235863, -0.31045228242874146, 0.10882371664047241, -0.16309411823749542, 0.5592851042747498, -0.6761945486068726, -0.3605983853340149, 0.44761091470718384, -0.27017366886138916, 0.09738054126501083, 0.41487357020378113, -0.3227404057979584, 0.0926596149802208, -0.06380029022693634, 0.20286335051059723, -0.2448645830154419, -0.1268986016511917, -0.02623819001019001, 0.09259236603975296, -0.11993563175201416, 0.16838477551937103, -0.06454633921384811, -0.10807962715625763, 0.10658387094736099, 0.15547190606594086, 0.11105246841907501, 0.001178824226371944, -0.10957854241132736, -0.38040468096733093, -0.08588863909244537, 0.16059212386608124, -0.05351467803120613, 0.03514140099287033, 0.04491177946329117, 0.1289459466934204, -0.1413230001926422, -0.060642555356025696, -0.19125249981880188, 0.1142355352640152, -0.0036390493623912334, 0.13808563351631165, 0.022672049701213837, 0.11259778589010239, 0.4414171874523163, 0.05323992669582367, -0.0694185122847557, -0.15501324832439423, -0.2839069664478302, 0.03359873965382576, 0.16860327124595642, 0.29654279351234436, 0.16988566517829895, 0.3620845675468445, 0.1288238763809204, 0.0440249890089035, -0.09323874115943909, -0.014407518319785595, -0.12953679263591766, 0.15785203874111176, -0.20394371449947357, -0.20705492794513702, 0.11335650086402893, -0.09426315128803253, -0.1328635811805725, -0.15645886957645416, 0.10979514569044113, -0.25906720757484436, 0.07242357730865479, 0.09484843164682388, 0.40290188789367676, 0.45278501510620117, 0.3047582805156708, 0.13953499495983124, 0.10195574909448624, -0.18140794336795807, -0.062221117317676544, 0.28721874952316284, 0.2512059211730957, -0.23339611291885376, -0.023591427132487297, -0.019233115017414093, 0.12227249890565872, -0.2471092790365219, 0.03270786255598068, 0.02220439538359642, 0.22080063819885254, -0.09000685065984726, 0.002955819945782423, 0.20618942379951477, -0.16209319233894348, -0.3139047622680664, 0.4906885623931885, -0.2126104086637497, 0.09122279286384583, -0.015503437258303165, -0.0612153522670269, -0.23095735907554626, 0.033149320632219315, 0.11564610153436661, 0.02228788286447525, 0.28284889459609985, 0.027037424966692924, 0.17806068062782288, -0.1471634954214096, -0.12020234763622284, 0.1977548450231552, 0.029845260083675385, 0.2774026393890381, -0.29682981967926025, -0.25766387581825256, -0.27866846323013306, 0.17912708222866058, 0.10046280920505524, -0.10436556488275528, 0.2779023349285126, -0.12715640664100647, -0.1264333575963974, 0.16901159286499023, -0.13457922637462616, -0.03493282198905945, -0.1079942062497139, 0.06372982263565063, 0.16776202619075775, -0.08103271573781967, 0.2129376083612442, -0.2794133126735687, -0.24885787069797516, 0.08718102425336838, -0.22741185128688812, 0.11273834109306335, 0.18813632428646088, -0.07344412803649902, -0.309192419052124, 0.23532502353191376, -0.03871993348002434, 0.2949654161930084, -0.401329904794693, 0.1970842033624649, 0.10602590441703796, 0.03908965364098549, 0.25205689668655396, -0.046127356588840485, -0.3359752595424652, 0.2903260886669159, 0.06783214211463928, -0.11354072391986847, -0.2279055416584015, 0.15422633290290833, 0.5697650909423828, 0.19029732048511505, -0.16642488539218903, 0.0034304754808545113, -0.08049920946359634, 0.10259437561035156, 0.004824722185730934, 0.026852276176214218, 0.0573284775018692, -0.307059645652771, -0.09081035852432251, -0.09521927684545517, 0.10790348052978516, -0.38126131892204285, 0.02168872021138668, -0.2830235958099365, 0.009607416577637196, -0.03581959381699562, -0.03257949650287628, -0.3472413718700409, -0.1295027881860733, 0.2565899193286896, -0.06193961575627327, 0.0470924898982048, -0.06723060458898544, -0.07301543653011322, 0.0951639711856842, 0.21803678572177887, -0.4847026467323303, 0.021815141662955284, -0.1666199266910553, -0.28366392850875854, -0.0398237369954586, 0.25132203102111816, 0.10643649846315384, 0.03747446835041046, -0.19839926064014435, 0.26765871047973633, -0.13338366150856018, -0.05338268727064133, 0.19565576314926147, -0.05239326134324074, 0.051507651805877686, -0.1285291612148285, -0.2613106071949005, 0.25323015451431274, -0.031823430210351944, -0.1361219733953476, -0.3472115099430084, 0.11047334223985672, -0.06132253631949425, 0.27238360047340393, 0.22266390919685364, 0.2292267084121704, 0.199911430478096, -0.12440167367458344, -0.11413931846618652, -0.08869827538728714, -0.09754754602909088, 0.19225651025772095, 0.027639033272862434, 0.04440080374479294, 0.269882470369339, -0.20150646567344666, 0.20032954216003418, -0.13307730853557587, -0.20628026127815247, 0.013123470358550549, 0.034876734018325806, 0.001829818938858807, 0.0020585148595273495, -0.03407637029886246, -0.06827907264232635, 0.05002211406826973, 0.015572921372950077, -0.8434069752693176, -0.33663299679756165, 0.04708143323659897, -0.8573952913284302, 0.3113058805465698, 0.8232554793357849, 0.4138820767402649, -0.8041645884513855, 0.3520983159542084, -0.17994660139083862, 0.22740419209003448, -0.1269218474626541, -0.4595727026462555, 0.20320530235767365, -0.2187134176492691, 0.09048336744308472, -0.4772314727306366, 0.03926141560077667, -0.609519898891449, -0.42709484696388245, 0.49908387660980225, -0.1257600486278534, 0.32869818806648254, 0.332432359457016, 0.19961462914943695, -0.08403047174215317, -0.2456934154033661, 0.07713107019662857, -0.14051946997642517, -0.34896430373191833, -0.09277540445327759, -0.01456060353666544, 0.2259354144334793, -0.29001539945602417, 0.41303902864456177, -0.5461968779563904, -0.3148415982723236, 0.38290783762931824, 0.2538338005542755, -0.56822669506073, 0.08625329285860062, 0.18335208296775818, -0.468804270029068, -0.018734565004706383, 0.18316514790058136, -0.5020712614059448, 0.0953817218542099, 0.5118699669837952, -0.20288823544979095, 0.37667250633239746, -0.0032718463335186243, 0.5252235531806946, 0.6393221616744995, -0.13728995621204376, 0.45993027091026306, -0.04672078415751457, -0.10991982370615005, 0.10433942824602127, -0.12268921732902527, 0.054495975375175476, 0.27332279086112976, -0.3521963655948639, 0.36760908365249634, 0.4015374779701233, 0.14369679987430573, -0.11019561439752579, -0.35658299922943115, 0.4891737699508667, 0.3875451982021332, -0.18924511969089508, 0.11819076538085938, 0.07230273634195328, -0.04378935694694519, 0.2861986458301544, 0.10810374468564987, 0.09627813845872879, 0.15033645927906036, -0.10973134636878967, 0.15339918434619904, 0.2539525330066681, -0.20620614290237427, -0.0036949061322957277, 0.18082919716835022, 0.26842567324638367, -0.2215857058763504, 0.14350034296512604, -0.16112351417541504, -0.36233919858932495, 0.3612458109855652, -0.20909401774406433, 0.095896877348423, 0.026987368240952492, -0.07326405495405197, 0.21478457748889923, 0.2709428369998932, 0.20082980394363403, 0.3452052175998688, -0.43376895785331726, 0.0983726978302002, 0.2610771358013153, -0.2221212387084961, 0.2286517471075058, 0.047354478389024734, -0.20774181187152863, 0.08457689732313156, 0.09457412362098694, -0.15540839731693268, -0.32343730330467224, 0.20727220177650452, 0.29803770780563354, 0.1431993544101715, 0.05152110382914543, -0.21248759329319, -0.04861043766140938, -0.22486229240894318, 0.3088095784187317, 0.3585931360721588, 0.25085410475730896, -0.09186769276857376, -0.422982782125473, -0.059687480330467224, 0.23798364400863647, -0.2415260672569275, 0.13191351294517517, -0.052568208426237106, -0.08393338322639465, -0.1464819312095642, 0.010380265302956104, -0.3654293119907379, 0.11488412320613861, 0.2074095904827118, 0.12902140617370605, -0.2559594213962555, 0.1303221732378006, -0.040191493928432465, 0.14347392320632935, 0.15892064571380615, -0.12185432016849518, -0.14524687826633453, 0.19348843395709991, -0.1473996490240097, 0.160112202167511, 0.004245401825755835, 0.2657158076763153, 0.05786149203777313, -0.15343543887138367, 0.26647916436195374, 0.4952228367328644, -0.39507821202278137, 0.023941414430737495, -0.0700930655002594, -0.1150764599442482, 0.04056253284215927, -0.3033781945705414, -0.20020513236522675, 0.2632904648780823, 0.3827950358390808, -0.20200124382972717, 0.10393413156270981, -0.1810019463300705, 0.25745153427124023, -0.046168822795152664, 0.299580454826355, -0.3414774239063263, -0.2932634651660919, -0.002849618438631296, 0.4122898280620575, 0.0970732718706131, 0.08735983073711395, -0.07476377487182617, 0.13249102234840393, -0.37905269861221313, 0.3615083694458008, 0.019623499363660812, 0.055233389139175415, 0.09436888992786407, 0.21742287278175354, -0.012693280354142189, -0.3536930978298187, -0.34644392132759094, 0.14762189984321594, -0.08889217674732208, 0.20315055549144745, -0.051750652492046356, -0.43182656168937683, 0.04925200343132019, 0.11731204390525818, 0.20595134794712067, 0.2197386920452118, -0.19286300241947174, -0.4308444857597351, -0.3067803680896759, -0.2657942473888397, 0.10165513306856155, 0.02399018034338951, -0.4113418459892273, -0.36279311776161194, -0.21820339560508728, 0.21440739929676056, -0.02497025765478611, -0.09353668242692947, 0.15542547404766083, 0.14506269991397858, 0.1110498383641243, -0.002582860877737403, -0.24378852546215057, -0.36845213174819946, 0.2466278374195099, 0.30528101325035095, 0.14269986748695374, -0.42190659046173096, 0.011862717568874359, -0.22562843561172485, 0.10132399201393127, 0.15060865879058838, 0.05821319669485092, 0.11063525080680847, -0.2176603525876999, -0.25687849521636963, 0.16371530294418335, -0.16128355264663696, 0.1782720535993576, -0.0800250768661499, -0.05717777460813522, -0.2041035145521164, -0.0835287868976593, 0.23238493502140045, 0.22923842072486877, -0.05208245664834976, -0.14969737827777863, -0.27317726612091064, -0.177489772439003, -0.04167058691382408, -0.30180323123931885, 0.15365125238895416, -0.00678673293441534, -0.14531059563159943, 0.02865469455718994, -0.14771908521652222, 0.16368891298770905, 0.009366488084197044, -0.15879423916339874, 0.3886071741580963, -0.014662195928394794, -0.07283074408769608, 0.0004055268072988838, -0.017862532287836075, 0.06534581631422043, -0.1823343187570572, 0.038371406495571136, 0.07989881932735443, 0.38029345870018005, 0.2106991857290268, -0.08573578298091888, -0.5745366215705872, 0.029185855761170387, 0.1164114698767662, -0.24383147060871124, 0.0010231081396341324, 0.1607213318347931, -0.4814895689487457, 0.19963307678699493, 0.5075792670249939, 0.32735878229141235, -0.09577834606170654, -0.3038347065448761, 0.2164967805147171, -0.029747216030955315, -0.04388071969151497, 0.14357000589370728, -0.16138716042041779, -0.010698254220187664, -0.06536500155925751, -0.01883338950574398, -0.03232011944055557, -0.14899127185344696, 0.21654918789863586, 0.05750184506177902, 0.15150311589241028, -0.09879692643880844, -1.072295069694519, 0.756061315536499, 0.13458847999572754, -0.8179539442062378, 1.0533676147460938, 0.6764370799064636, -0.706888735294342, -0.2969166934490204, 0.14918935298919678, 0.0955386534333229, 0.25241705775260925, 0.15576447546482086, -0.07972001284360886, 0.05253741145133972, 0.013849534094333649, 0.16941361129283905, -0.11188459396362305, -0.33683037757873535, -0.05767153576016426, -0.27714836597442627, 0.2586495578289032, 0.7141854763031006, 0.4121094346046448, 0.04514146223664284, 0.20756308734416962, -0.3466867506504059, 0.6095309853553772, -0.2899024784564972, -0.3114190995693207, -0.03442388400435448, 0.211100235581398, 0.24864432215690613, 0.11722616851329803, -0.3999353349208832, 0.11845624446868896, 0.0153361726552248, 0.14177845418453217, 0.23337826132774353, 0.3537221848964691, -0.2810078263282776, -0.15755227208137512, -0.5268717408180237, 0.2288442701101303, 0.286478728055954, 0.10362133383750916, 0.34100985527038574, -0.1484159529209137, -0.2788430154323578, 0.017312107607722282, -0.4418754577636719, 0.14754147827625275, -0.19975697994232178, 0.0980488732457161, 0.12959088385105133, 0.5848538875579834, 0.4138762354850769, -0.3930419981479645, -0.053321387618780136, -0.4313245117664337, -0.2514854371547699, 0.19393494725227356, 0.13764019310474396, -0.098805271089077, -0.3993789851665497, -0.2434394359588623, 0.2258634865283966, -0.4156132936477661, -0.4201360046863556, 0.12004151195287704, 0.423959881067276, 0.1665254533290863, 0.026565220206975937, -0.04852750897407532, -0.2351643592119217, -0.04051258787512779, -0.08407992124557495, -0.22591210901737213, -0.047269079834222794, -0.1738852858543396, -0.19960175454616547, 0.38000723719596863, -0.3019305169582367, -0.18257653713226318, -0.7447345852851868, -0.41716158390045166, 0.4659869372844696, 0.26226773858070374, -0.44146883487701416, 0.061900220811367035, -0.2797035574913025, -0.05235437676310539, -0.358391672372818, -0.11816387623548508, -0.402985543012619, -0.11435937136411667, -0.29924604296684265, 0.10644802451133728, -0.015781253576278687, -0.525676965713501, -0.04233555123209953, -0.23080550134181976, -0.7919777035713196, 0.15847019851207733, -0.23201411962509155, -0.11727126687765121, -0.12901392579078674, 0.24800141155719757, -0.036478184163570404, 0.13924507796764374, 0.34364190697669983, -0.032527294009923935, -0.05797058343887329, -0.2994353175163269, -0.3215349018573761, -0.44719719886779785, -0.07952401041984558, -0.08692941069602966, -0.17222429811954498, -0.12278983741998672, -0.11799179017543793, -0.03168579563498497, -0.1421392560005188, -0.0439920611679554, 0.4196973443031311, -0.16031351685523987, -0.048811495304107666, 0.05282019078731537, 0.1924239993095398, 0.3050338923931122, 0.10045476257801056, -0.03508801385760307, -0.48511388897895813, 0.11315842717885971, -0.1179620772600174, 0.15470632910728455, -0.06729809939861298, 0.0536944679915905, -0.09133020788431168, -0.12595750391483307, -0.029979504644870758, 0.29673823714256287, -0.1544009894132614, 0.4798998534679413, -0.24176378548145294, 0.03683410957455635, 0.24492859840393066, 0.07838317006826401, -0.30975133180618286, 0.0943785309791565, -0.0007586105493828654, -0.016208061948418617, -0.32997995615005493, 0.23842231929302216, 0.07377754896879196, -0.01742100529372692, -0.7888989448547363, 0.0940236821770668, 0.40474316477775574, 0.1845942735671997, 0.0568079948425293, -0.1488342434167862, -0.2694595456123352, -0.0972462072968483, -0.43919143080711365, 0.1194334402680397, -0.3716062605381012, 0.04604322835803032, -0.3872804045677185, -0.10608208179473877, 0.43256375193595886, -0.3572794497013092, 0.042173098772764206, 0.43550941348075867, -0.1037185788154602, 0.2811192274093628, 0.32898449897766113, 0.23314617574214935, 0.15077124536037445, -0.3450523614883423, -0.42727670073509216, -0.1657596081495285, -0.25324156880378723, 0.3404339551925659, 0.2812202572822571, -0.23457150161266327, 0.07717996090650558, 0.01525493897497654, -0.48571762442588806, 0.05294022336602211, -0.14277969300746918, 0.27738210558891296, -0.3649533987045288, -0.09161549806594849, 0.42337292432785034, -0.11468710005283356, -0.38021525740623474, 0.056490708142519, -0.21764309704303741, -0.1441817432641983, 0.045126330107450485, 0.21572472155094147, 0.04616860672831535, -0.1618681699037552, -0.22119709849357605, 0.012285420671105385, 0.046319615095853806, -0.03911108151078224, 0.23303161561489105, 0.174916073679924, -0.2998143136501312, 0.06371952593326569, 0.08652390539646149, -0.02832440845668316, 0.0829339250922203, 0.223591610789299, -0.3702360689640045, 0.07036576420068741, 0.4414440989494324, -0.022753288969397545, -0.1494443267583847, -0.08106042444705963, -0.01413496769964695, -0.14649751782417297, 0.024360518902540207, -0.4304157495498657, -0.06669093668460846, 0.06710036098957062, 0.28577589988708496, 0.3325035274028778, -0.035828299820423126, 0.08806474506855011, 0.06753164529800415, -0.15867888927459717, -0.33802762627601624, 0.26799696683883667, 0.06810266524553299, -0.02703903429210186, 0.09022875875234604, -0.0677940770983696, 0.2931153476238251, -0.24408742785453796, -0.28416708111763, 0.4434879422187805, 0.3170328736305237, 0.1327308565378189, 0.12452774494886398, -0.10668063908815384, -0.17532749474048615, 0.2550187110900879, 0.04489581659436226, -0.3524736762046814, -0.30437225103378296, -0.27589839696884155, 0.2419547587633133, 0.3373250663280487, 0.3820759356021881, -0.46432244777679443, -0.030904429033398628, -0.033386390656232834, -1.0221047401428223, 0.32744649052619934, -0.14561842381954193, -0.07876697927713394, -0.03471706807613373, -0.205321803689003, 0.1406543254852295, -0.19604001939296722, -0.3325306475162506, 0.24980834126472473, -0.4263697862625122, 0.3356722593307495, 0.4234596788883209, -0.046869583427906036, 0.015025408007204533, 0.06715060025453568, -0.014009971171617508, -0.07143197953701019, 0.09457077085971832, 0.02395954169332981, 0.006989288609474897, 0.39946210384368896, -0.1937631070613861, -0.2720981538295746, -0.7919865846633911, 0.825650155544281, 0.34975674748420715, -0.5756718516349792, -0.3523976504802704, 0.27476033568382263, -0.4299437999725342, -0.1511652022600174, -0.20195040106773376, -0.20749931037425995, 0.2170911729335785, 0.4502354860305786, 0.2826121747493744, 0.19560422003269196, -0.17763686180114746, 0.14442384243011475, 0.005962978582829237, -0.06533212959766388, 0.794535219669342, -0.3775998651981354, 0.24928803741931915, 0.5574854612350464, 0.5150855779647827, 0.07928227633237839, 0.16893994808197021, -0.1656755805015564, -0.19240958988666534, 0.510705292224884, 0.010135051794350147, 0.19711832702159882, 0.18170073628425598, -0.2096601128578186, 0.4039797782897949, 0.12720926105976105, 0.36944296956062317, 0.5978568196296692, 0.05265156179666519, -0.21098721027374268, 0.24927598237991333, -0.23653140664100647, 0.17776407301425934, -0.366066038608551, -0.2368883341550827, 0.4690532386302948, 0.09749723970890045, -0.0993204414844513, 0.2654374837875366, -0.05955727770924568, 0.083955779671669, 0.401525616645813, -0.9181767106056213, 0.2954697608947754, 0.008387825451791286, 0.5451975464820862, 0.3376868665218353, 0.07129039615392685, 0.11727479845285416, -0.061525892466306686, 0.22079552710056305, 0.20676061511039734, 0.6253502368927002, 0.13565412163734436, 0.3095802962779999, 0.31017839908599854, -0.32774651050567627, -0.04840143024921417, -0.18496184051036835, 0.5682901740074158, -0.3225535750389099, 0.029573043808341026, -0.16255946457386017, -0.22766511142253876, 0.11174297332763672, 0.11917103826999664, 0.1857375204563141, 0.22975774109363556, -0.07430249452590942, 0.20364952087402344, -0.38838326930999756, 0.12477121502161026, -0.2714965045452118, 0.327193945646286, 0.11031679809093475, 0.09494508057832718, -0.7966912984848022, 0.05480502173304558, -0.3390425145626068, -0.1268211305141449, 0.1495848447084427, 0.012138518504798412, -1.2574950456619263, -0.1824895739555359, -0.2595800757408142, -0.07521285861730576, -0.04961589723825455, 0.13050809502601624, -0.3574029803276062, 0.13751761615276337, -0.2136668711900711, -0.07340783625841141, 0.09749634563922882, 0.3293032646179199, -0.11411930620670319, -0.2347945272922516, -0.28328937292099, -0.21448609232902527, -0.13037078082561493, 0.2322990596294403, 0.003992045763880014, -0.2849559485912323, 0.16797895729541779, -0.34070825576782227, -0.4020606279373169, 0.08161093294620514, -0.10094393789768219, -0.3675934076309204, -0.16969417035579681, -0.30670279264450073, 0.18543589115142822, 0.08817880600690842, -0.011121687479317188, -0.2197411060333252, -0.18086256086826324, 0.5974539518356323, -0.1406402885913849, 0.07132300734519958, -0.1165713369846344, 0.10834521800279617, -0.16415666043758392, 0.002367270179092884, -0.027295740321278572, 0.04550020024180412, -0.41155296564102173, 0.06621523201465607, -0.022413691505789757, -0.3574911057949066, 0.23355980217456818, 0.26173749566078186, -0.17664632201194763, -0.20378567278385162, 0.23069733381271362, 0.05464343726634979, -0.12865233421325684, -0.1020057275891304, -0.38515686988830566, 0.19282957911491394, 0.11935877054929733, 0.49502745270729065, -0.19787199795246124, 0.24085687100887299, 0.04580581560730934, -0.09840790182352066, -0.05662720650434494, 0.13283146917819977, 0.24194353818893433, 0.04084498807787895, -0.311871737241745, 0.33516883850097656, -0.07036743313074112, 0.1512078493833542, -0.03639427199959755, -0.03971787914633751, -0.4216262400150299, -0.28375792503356934, -0.03393786400556564, -0.1941520720720291, 0.012710249051451683, -0.03529961407184601, -0.12373702973127365, 0.4858303666114807, -0.17867298424243927, 0.12243448197841644, 0.10395098477602005, -0.10825744271278381, 0.10452981293201447, -0.234620600938797, -0.043309226632118225, -0.28447023034095764, 0.6029164791107178, 0.012512627057731152, 0.10328492522239685, -0.14303068816661835, -0.2211594581604004, 0.34393367171287537, -0.670573890209198, -0.03773357719182968, 0.14639386534690857, 0.3432818651199341, -0.1597927063703537, -0.22489546239376068, 0.28402379155158997, -0.0339466854929924, 0.02926393412053585, 0.2431911826133728, 0.014584382064640522, -0.19780583679676056, -0.21072252094745636, 0.178615003824234, -0.07486292719841003, 0.22212672233581543, -0.30041271448135376, -0.209202840924263, -0.024552229791879654, 0.11698749661445618, -0.33544519543647766, -0.12992216646671295, 0.1459933966398239, -0.3188958764076233, -0.21465331315994263, 0.2105785310268402, -0.09205044060945511, 0.11074741184711456, 0.036476846784353256, -0.2954312264919281, 0.42025017738342285, 0.1605032980442047, -0.20674459636211395, -0.24768349528312683, -0.15804320573806763, 0.02581530250608921, 0.14950892329216003, 0.45778268575668335, 0.05035458505153656, -0.15537479519844055, -0.29531821608543396, -0.14953026175498962, -0.27299606800079346, 0.2255350947380066, -0.5281624794006348, 0.16015976667404175, 0.16105987131595612, 0.012045341543853283, -0.053116943687200546, 0.8093454241752625, -0.37522587180137634, -0.2112545520067215, -0.08955960720777512, -0.30196404457092285, 0.5709143280982971, 0.09696794301271439, -0.494871586561203, -0.31784823536872864, -0.3391566872596741, 0.1671743243932724, 0.021985739469528198, -0.02941177226603031, -0.3491376042366028, -0.00769607862457633, -0.03965429216623306, -0.20222704112529755, 0.234183207154274, -0.0032169970218092203, 0.22080303728580475, 0.0017500920221209526, 0.27951690554618835, -0.05123060196638107, -0.012332795187830925, 0.09286970645189285, 0.02192751131951809, -0.067905493080616, 0.20101764798164368, 0.12917931377887726, -0.18031610548496246, 0.10226661711931229, 0.05336214229464531, 0.024091796949505806, 0.13462691009044647, 0.2764923572540283, -0.17331989109516144, -0.07393204420804977, 0.011402257718145847, 0.06719942390918732, -0.026643844321370125, 0.03571183606982231, -0.008915704675018787, 0.006417871918529272, -0.01740644872188568, -0.49126866459846497, 0.27099573612213135, -0.0742969959974289, 0.07798255234956741, -0.07375520467758179, 0.019579807296395302, -0.4276202321052551, 0.29828307032585144, 0.8589112162590027, -0.3803221583366394, -0.3533274233341217, -0.09259474277496338, -0.08022475987672806, -1.071450114250183, 0.0053737652488052845, 1.2728992700576782, -0.42370203137397766, 0.30837559700012207, 0.29483938217163086, 0.13357214629650116, 0.39582979679107666, 0.7966901063919067, -0.40866419672966003, -0.9683235287666321, 0.5801419019699097, 0.29142993688583374, -0.5091376900672913, -0.5449127554893494, 0.10381978750228882, 0.18522599339485168, 0.2013970911502838, 0.1980089396238327, 0.7532370090484619, -0.25568902492523193, -0.725020170211792, -0.2566665709018707, 0.39306017756462097, -0.32369115948677063, 0.1349678933620453, 0.9430426955223083, 0.30884039402008057, -0.47842124104499817, -0.1257300078868866, -0.05946573242545128, -0.35980087518692017, -0.5262308716773987, 0.2851945161819458, 0.6134791970252991, 0.08515664935112, -0.24649347364902496, 0.2283281832933426, 0.007234325632452965, -0.33819660544395447, -0.439260333776474, 0.05318285897374153, 0.5057011246681213, -0.5170668363571167, 0.08488860726356506, -0.08439833670854568, 0.44955283403396606, 0.43444058299064636, 0.5003461241722107, 0.01574918068945408, -0.03178190067410469, 0.28503698110580444, 0.1685636043548584, 0.15603208541870117, -0.23342743515968323, 0.27723097801208496, -0.4159480631351471, 0.07148562371730804, 0.3462873697280884, -0.27834951877593994, 0.1941162347793579, -0.10020145028829575, -0.22499525547027588, -0.016295725479722023, 0.02131333015859127, -0.1562815010547638, 0.18110203742980957, -0.16297638416290283, 0.008598200045526028, 0.08292901515960693, -0.268492728471756, -0.0561785027384758, 0.103465236723423, 0.15784594416618347, 0.1753332018852234, -0.06513214111328125, 0.3255448341369629, 0.14070433378219604, -0.003980499692261219, 0.0037304742727428675, 0.016680004075169563, -0.13451196253299713, -0.1441272646188736, 0.14475372433662415, -0.11983578652143478, 0.05819259583950043, 0.002102490281686187, -0.04120109975337982, -0.10068366676568985, 0.3270535469055176, 0.06235840916633606, 0.11949029564857483, -0.3034457564353943, -0.05730871856212616, -0.0869552493095398, 0.16102434694766998, 0.1855367124080658, 0.05119747295975685, -0.32837778329849243, 0.1524265557527542, -0.15091341733932495, -0.456206351518631, 0.20985816419124603, -0.046163905411958694, -0.1431461125612259, -0.11914786696434021, -0.16232585906982422, 0.08157999068498611, -0.10680551081895828, 0.09036421030759811, 0.1070920005440712, 0.034640271216630936, 0.06572180986404419, 0.18867802619934082, 0.12004239857196808, -0.0007933069719001651, 0.0554417259991169, -0.057866208255290985, -0.040327806025743484, 0.06867946684360504, 0.07778605818748474, -0.001019155839458108, -0.1412961333990097, 0.016672519966959953, -0.03544957563281059, -0.14304491877555847, -0.10145346820354462, 0.09869929403066635, -0.018097415566444397, -0.03183335065841675, 0.17399699985980988, -0.00944369938224554, -0.008893079124391079, 0.014156488701701164, -0.0642787367105484, -0.1394881159067154, 0.12548501789569855, -0.07122933864593506, -0.11254297196865082, -0.06453762203454971, 0.020956074818968773, -0.026412153616547585, -0.05722770094871521, -0.00472782040014863, 0.0912628248333931, -0.04928561672568321, 0.100748710334301, 0.029923832044005394, -0.045161083340644836, -0.18040868639945984, -0.22523018717765808, 0.04464689642190933, 0.122529037296772, 0.23744447529315948, 0.2833736836910248, -0.13857342302799225, -0.04258113354444504, -0.06394944339990616, 0.009558253921568394, 0.5714268088340759, 0.12628938257694244, -0.08361980319023132, 0.07883591949939728, 0.21898703277111053, -0.22650709748268127, 0.2195461094379425, 0.1528089940547943, 0.05217708647251129, -0.06273961067199707, 0.2792624533176422, 0.322636216878891, 0.05756843835115433, -0.0948702022433281, -0.11096670478582382, -0.11809153854846954, 0.7784712910652161, -0.04217318072915077, -0.0960681140422821, 0.3078851103782654, -0.21928974986076355, -0.22148528695106506, -0.44854751229286194, 0.02829129993915558, 0.012594553641974926, 0.11997058242559433, -0.018817227333784103, 0.18377135694026947, -0.0013817958533763885, 0.10572297126054764, -0.779449462890625, 0.040787603706121445, -0.007140920497477055, 0.7882065176963806, -0.029849810525774956, 0.030878890305757523, 0.8419502973556519, -0.01622476615011692, -0.12841500341892242, -0.5889281034469604, 0.01466743927448988, -0.12405268847942352, -0.34639066457748413, 0.10464473068714142, -0.284138947725296, 0.30332592129707336, -0.027972042560577393, 0.003362165531143546, -0.06879130005836487, 0.11371680349111557, -0.12490368634462357, -0.30812638998031616, 0.02484535612165928, -0.04086581617593765, 0.039674632251262665, 0.08749248832464218, -0.10291128605604172, 0.23677632212638855, 0.007048970554023981, 0.285383939743042, 0.0390985831618309, -0.109779492020607, 0.2930612564086914, 0.2092292308807373, -0.022698145359754562, 0.0673237293958664, -0.3310297727584839, 0.051778893917798996, 0.3313866853713989, -0.18455703556537628, -0.010574495419859886, -0.3242270350456238, -0.04083613306283951, 0.062233492732048035, 0.6248210668563843, 0.03303254023194313, 0.039184290915727615, 0.15048709511756897, -0.2907322347164154, 0.05540889501571655, -0.012516485527157784, 0.7410997748374939, 0.04419296234846115, -0.05833309888839722, -0.4243772029876709, -0.005248625762760639, -0.027866538614034653, -0.39809656143188477, -0.06996529549360275, -0.06364017724990845, 0.3738229274749756, 0.0285640899091959, -0.3053673207759857, 0.31613317131996155, -0.01416745875030756, 0.04751112312078476, 0.11665810644626617, 0.11707216501235962, -0.2279767245054245, 0.17394845187664032, 0.12203845381736755, -0.21496868133544922, -0.05624781548976898, -0.09693107008934021, 0.20119161903858185, -0.03723755106329918, 0.07301177084445953, -0.24159014225006104, -0.13832123577594757, -0.10816581547260284, 0.004896104801446199, 0.792435348033905, 0.6163432002067566, -0.2417595535516739, -0.868375837802887, 0.043920889496803284, -0.12097547948360443, 0.14475511014461517, 0.16931390762329102, 0.20161616802215576, 0.17644482851028442, 0.4251219928264618, -0.0717909038066864, -0.15698444843292236, 0.10123944282531738, -0.2783205211162567, 0.19818024337291718, 0.018698105588555336, -0.33701419830322266, 0.02882334403693676, -0.08280782401561737, -0.10588086396455765, 0.3078407049179077, -0.016210108995437622, 0.0898006334900856, 0.2787729501724243, -0.08979015797376633, 0.21721023321151733, 0.19247816503047943, 0.2292947918176651, 0.09058771282434464, -0.09173122048377991, -0.14923451840877533, 0.3091271221637726, -0.1639024317264557, 0.36126142740249634, -0.07611119747161865, 0.27614685893058777, 0.040732383728027344, 0.17027577757835388, -0.28062623739242554, -0.32638463377952576, -0.02681218460202217, 0.42975080013275146, 0.1891327202320099, 0.02521258220076561, 0.3620259463787079, 0.2281271070241928, -0.4181981682777405, -0.3967720866203308, -0.4560374915599823, 0.03411102294921875, -0.09324780851602554, 0.12747259438037872, 0.06752587109804153, 0.08287924528121948, 0.4796607196331024, 0.32322588562965393, 0.20408101379871368, -0.4207163155078888, -0.15919800102710724, 0.42049896717071533, 0.43224647641181946, 0.2613953948020935, -0.36685264110565186, -0.44381022453308105, 0.023332590237259865, -0.058318767696619034, 0.10774187743663788, 0.3333877623081207, 0.32626283168792725, -0.012584488838911057, -0.21244792640209198, 0.28636181354522705, -0.12411201000213623, -0.13349200785160065, -0.2550756633281708, -0.10326163470745087, 0.021057231351733208, -0.07662578672170639, -0.01621963456273079, -0.29088878631591797, 0.17123332619667053, -0.3873163163661957, 0.17952585220336914, -0.15274891257286072, 0.45625990629196167, 0.4322029948234558, 0.24458223581314087, -0.3853427767753601, -0.2553568482398987, -0.3127167522907257, 0.27532580494880676, 0.06092536821961403, 0.487868994474411, 0.06850449740886688, 0.4738887846469879, -0.5316877961158752, 0.10639835894107819, 0.2386501580476761, -0.17028649151325226, -0.21381321549415588, -0.05037485435605049, -0.18505635857582092, -0.47615188360214233, 0.41628482937812805, 0.01586281694471836, 0.11653850227594376, -0.2746064364910126, 0.2833927571773529, 0.4407395124435425, -0.03706037625670433, 0.24270381033420563, -0.016588736325502396, 0.7818412780761719, 0.021819137036800385, 0.019665062427520752, 0.1369524747133255, -0.2836960256099701, 0.4300943613052368, -0.021386733278632164, 0.010756486095488071, -0.20869427919387817, 0.06107053905725479, 0.3870760500431061, 0.11276875436306, -0.3009825050830841, 0.24586619436740875, -0.30241134762763977, -0.4009193778038025, -0.6590830683708191, -0.31636765599250793, 0.15363478660583496, -0.22059355676174164, 0.32887837290763855, -0.33171552419662476, 0.2552909255027771, -0.03335963562130928, -0.08755148947238922, 0.2942110598087311, -0.2887278199195862, 0.7049736380577087, -0.01968681439757347, -0.048908066004514694, 0.029961997643113136, 0.05408771336078644, 0.035711467266082764, -0.40861251950263977, -0.01086281705647707, -0.022707032039761543, -0.4121304750442505, 0.052535783499479294, 0.06347095221281052, 0.3775506615638733, -0.03529171645641327, -0.40280985832214355, -0.013347521424293518, -0.2665356695652008, 0.5555176138877869, -0.11848253011703491, 0.014409624971449375, -0.11039897799491882, -0.034583158791065216, -0.20478549599647522, 0.5430738925933838, 0.044857677072286606, 0.10647730529308319, 0.0847017765045166, -0.45065510272979736, -0.0365232452750206, 0.04901805520057678, -0.04763089865446091, 0.1807938814163208, -0.007929270155727863, 0.18644462525844574, 0.06301660090684891, -0.03047715127468109, 0.052534472197294235, -0.045823097229003906, -0.08758341521024704, 0.13624009490013123, 0.28519129753112793, -0.12001395970582962, 0.20740526914596558, -0.19460037350654602, -0.06272631883621216, -0.03731296956539154, 0.04269001632928848, -0.07497425377368927, 0.023698529228568077, 0.0947653204202652, -0.06076236814260483, -0.13079403340816498, 0.05052284151315689, -0.5385767221450806, 0.17176230251789093, -0.10455621033906937, 0.4788278639316559, -0.17669722437858582, 0.05793815851211548, -0.3622622787952423, -0.19924701750278473, 0.1270173192024231, -0.13620956242084503, 0.043824296444654465, -0.37494584918022156, 0.2656484842300415, 0.16534319519996643, -0.1140637919306755, 0.23943482339382172, -0.31418702006340027, 0.056323714554309845, 0.19473350048065186, -0.22415219247341156, 0.26511067152023315, 0.46116212010383606, 0.05061046779155731, -0.11790741980075836, 0.07529128342866898, 0.05488462746143341, -0.16018542647361755, 0.07569428533315659, -0.020767636597156525, 0.2570597529411316, 0.07936170697212219, -0.05106609687209129, -0.12929758429527283, 0.05806238204240799, -0.04269745200872421, 0.15070001780986786, -0.020469048991799355, -0.10371320694684982, 0.09145893156528473, 0.005182976368814707, -0.12437707930803299, -0.02737881988286972, 0.03868095949292183, 0.03249866142868996, 0.06904337555170059, 0.05579657480120659, -0.224726602435112, -0.04438013955950737, 0.007009404711425304, 0.17321722209453583, 0.09335107356309891, 0.1576307862997055, 0.053913019597530365, -0.30936339497566223, -0.06316050887107849, 0.23376880586147308, -0.3438558876514435, 0.2765420973300934, -0.000503610644955188, -0.43421024084091187, 0.05840384215116501, -0.15083247423171997, 0.05960838124155998, -0.07564999908208847, -0.11905550211668015, 0.03237953782081604, 0.18047203123569489, 0.1554381102323532, 0.014496219344437122, 0.06361375004053116, 0.23377467691898346, 0.012685110792517662, 0.11915525794029236, 0.0029906209092587233, -0.09737513959407806, -0.07369404286146164, 0.7425336241722107, 0.24534155428409576, -0.3887341022491455, 0.13008210062980652, -0.05204901471734047, -0.0003814479277934879, 0.26843443512916565, 0.014984472654759884, -0.1741952896118164, 0.27541443705558777, -0.13750673830509186, -0.24958094954490662, 0.3123561441898346, -0.024576498195528984, 0.09153219312429428, 0.21469147503376007, 0.09790070354938507, 0.21124736964702606, 0.205779567360878, -0.18132786452770233, 0.14078016579151154, 0.03144792094826698, 0.2750146687030792, -0.34516939520835876, -0.13626551628112793, -0.016995012760162354, 0.021140821278095245, 0.035944607108831406, -0.005592598579823971, -0.18274520337581635, -0.19012120366096497, 0.019381694495677948, 0.001039367401972413, -0.0632791817188263, 0.20669306814670563, -0.12464270740747452, 0.023027509450912476, -0.15439040958881378, -0.12349031120538712, 0.07143788039684296, 0.07088600844144821, -0.26335766911506653, 0.178542822599411, -0.08892181515693665, -0.07224300503730774, 0.11320337653160095, 0.047184549272060394, -0.14802946150302887, 0.0728311613202095, 0.008400685153901577, 0.05872785672545433, -0.06219206750392914, -0.08831573277711868, -0.42366644740104675, 0.050307467579841614, -0.03835579380393028, 0.35930687189102173, -0.0044776382856070995, -0.24876032769680023, -0.41484495997428894, 0.05314680188894272, -0.11462222039699554, -0.3116336166858673, 0.027914421632885933, 0.019273223355412483, -0.10350193083286285, 0.058971259742975235, -0.2206910401582718, 0.49635156989097595, 0.04791172966361046, -0.02311619184911251, 0.07141251116991043, 0.10852190107107162, 0.0023636475671082735, -0.2809411287307739, 0.22606542706489563, 1.1680333614349365, 0.7925224900245667, 0.9104159474372864, 0.034828148782253265, -0.039145443588495255, 0.03071512281894684, -0.03699322044849396, -0.2566815912723541, 0.012540477328002453, -0.05446280166506767, -0.1449769139289856, -0.11775504052639008, -0.07152722030878067, -0.0507773794233799, -0.13407069444656372, 0.2556075155735016, 0.3081544041633606, 0.17312496900558472, 0.4361494183540344, -0.05568889528512955, 0.2798769474029541, -0.028435610234737396, -0.22487957775592804, 0.43585866689682007, 0.2697269320487976, -0.11700312793254852, -0.10578054934740067, -0.127827987074852, -0.11894579231739044, -0.09197692573070526, -0.27592507004737854, -0.0912805125117302, 0.09221922606229782, -0.06654763966798782, 0.46552979946136475, 0.1533261388540268, -0.2420749068260193, -0.1679079681634903, 0.021692704409360886, 0.1868489384651184, 0.05132521688938141, -0.2641967535018921, 0.19991491734981537, 0.18692533671855927, 0.16958732903003693, 0.11802218854427338, 0.11168327182531357, 0.1107393428683281, -0.20393019914627075, -0.31700369715690613, -0.09127639979124069, 0.03063531592488289, -0.14911609888076782, -0.02235882729291916, 0.16698713600635529, 0.0702069103717804, 0.32371386885643005, 0.2747364640235901, 0.2151898741722107, -0.23926952481269836, -0.3056991994380951, -0.2645511031150818, 0.07891739159822464, 0.06142060458660126, 0.12278079241514206, -0.2931176722049713, 0.12628807127475739, 0.31727585196495056, -0.3730751574039459, -0.2609676122665405, 0.19170093536376953, 0.05840248242020607, 0.25308433175086975, 0.056572914123535156, 0.06994444131851196, 0.10625175386667252, -0.7500817179679871, 0.9337608814239502, 0.023282038047909737, -0.6160535216331482, 0.19417506456375122, -0.23302499949932098, -0.6139993667602539, -0.31800970435142517, -0.6835064888000488, 0.8207472562789917, 0.41191554069519043, 0.5148729085922241, -0.39711982011795044, 0.21465569734573364, -0.08893800526857376, 0.6502971649169922, 0.03638024628162384, 0.23467068374156952, 0.3935311734676361, -0.36096352338790894, -0.20652255415916443, -0.3485986888408661, -0.04810566455125809, 0.17922814190387726, 0.15717531740665436, 0.11618147790431976, -0.024838440120220184, -0.7138118147850037, -0.09865669906139374, -0.17957307398319244, -0.3513701856136322, 0.04127199202775955, -0.24563975632190704, 0.2766244411468506, 0.35480237007141113, 0.28204309940338135, 0.8346899747848511, -0.11052953451871872, -0.29195666313171387, -0.442626416683197, 0.14060187339782715, -0.552621066570282, -0.42665016651153564, -0.11197721213102341, 0.2508942484855652, 0.08687244355678558, 0.42545726895332336, 0.6525720357894897, 0.024559278041124344, -0.07470858842134476, 0.1584048569202423, -0.13792331516742706, -0.33501607179641724, 0.2278326451778412, -0.24222064018249512, -0.120572030544281, 0.20974287390708923, 0.0007376624853350222, 0.0389164499938488, 0.29267552495002747, 0.29353684186935425, -0.31348058581352234, 0.004277530126273632, 0.49556970596313477, 0.20263737440109253, 0.0574253611266613, 0.31992846727371216, 0.0746961310505867, -0.04952720180153847, -0.13521577417850494, -0.13442754745483398, 0.025595536455512047, 0.20063437521457672, 0.10020188242197037, 0.060842085629701614, -0.1876813769340515, -0.3572768270969391, -0.3422131836414337, -0.16097009181976318, -0.7134664058685303, -0.3421640694141388, 0.41906771063804626, -0.16375090181827545, -0.3348628282546997, 0.13311631977558136, 0.198118656873703, -0.6860916018486023, -0.19359149038791656, 0.4821843206882477, 0.09029524028301239, -0.24662722647190094, 0.16764125227928162, -0.19433283805847168, 0.0166747085750103, -0.10475558042526245, -0.6601501107215881, -0.251729816198349, 0.0692845955491066, -0.3678193986415863, 0.46380922198295593, -0.008733428083360195, -0.0016564695397391915, 0.17141562700271606, -0.4529997408390045, -0.042779602110385895, 0.20510680973529816, 0.09830430150032043, 0.03580540791153908, -0.32285624742507935, -0.3680568039417267, -0.10230333358049393, 0.2140132635831833, -0.031749967485666275, 0.2910959720611572, -0.13863447308540344, -0.38829505443573, -0.330386221408844, -0.416996568441391, -0.05613715946674347, -0.5311819314956665, -0.12449809908866882, -0.023001588881015778, 0.45024922490119934, 0.19281291961669922, 0.1918690800666809, 0.45891016721725464, -0.21954411268234253, -0.4718964397907257, -0.15916474163532257, -0.2832266688346863, -0.2519283592700958, -0.7627958059310913, -0.09095381200313568, 0.09366527199745178, 0.037719931453466415, -0.04763017222285271, -0.22499114274978638, -0.031733740121126175, -0.49621662497520447, -0.08176356554031372, -0.27610957622528076, 0.6777045130729675, 0.5538370013237, -0.23040196299552917, 0.11741025000810623, -0.02739088237285614, -0.006423741113394499, 0.21373851597309113, 0.19012314081192017, -0.10054665058851242, 0.04884384199976921, -0.18367448449134827, 0.5333104133605957, -0.00972477626055479, -0.10845096409320831, -0.08326850086450577, -0.771269679069519, 0.00033754369360394776, 0.06017342582345009, 0.05009336397051811, -1.0644267797470093, -0.13004544377326965, 0.18568532168865204, -0.6599829196929932, 1.1165378093719482, -0.28493574261665344, -0.3710496127605438, 0.33722811937332153, 0.017249278724193573, -0.30181896686553955, -0.20962004363536835, -0.23428760468959808, -0.29040488600730896, -0.36500200629234314, 0.12453243881464005, -0.005793239921331406, -0.3553250730037689, -0.5005845427513123, 0.06711475551128387, 0.13914257287979126, 0.5323345065116882, 0.06896419078111649, 0.3371000289916992, 0.3022591173648834, 0.04462520405650139, 0.12092072516679764, -0.13032688200473785, 0.03146572411060333, 0.31961381435394287, 0.7289423942565918, -0.2848700284957886, 0.21589800715446472, -0.44367527961730957, -0.5070061683654785, -0.30438032746315, 0.03766924887895584, -0.44857552647590637, 0.25034424662590027, -0.19682450592517853, 0.3635985255241394, 0.07628311216831207, 0.31218165159225464, -0.3089867830276489, 0.05886203423142433, -0.205889493227005, -0.5324016809463501, -0.11454212665557861, -0.25854751467704773, -0.509688138961792, 0.4087318480014801, -0.49726733565330505, 0.15326392650604248, -0.33784690499305725, -0.7536353468894958, 0.1525297611951828, -0.19015631079673767, 0.43964213132858276, 0.5232323408126831, 0.602212131023407, 0.3863379657268524, 0.08506214618682861, 0.0762290433049202, 0.23958122730255127, -0.22152040898799896, -0.205709308385849, -0.02102852798998356, -0.10912340134382248, -0.2992130219936371, -0.44828537106513977, -0.5669702887535095, -0.6935667395591736, -0.7264007925987244, -0.5859305262565613, -0.05275140330195427, 0.7878006100654602, -0.12580563127994537, -0.09084852039813995, 0.2169390618801117, 0.7930150628089905, -0.1296946406364441, -0.5446807146072388, 0.08537965267896652, 0.22548040747642517, 0.5647662281990051, -0.9748740196228027, -0.7660796046257019, -0.29023024439811707, 0.4406313896179199, -0.05182023346424103, -0.4666669964790344, 0.22432754933834076, 0.006735033355653286, -0.002278314670547843, -0.26440858840942383, -0.02766692265868187, 0.05628978833556175, 0.04622761532664299, -0.07953637838363647, -0.09617164731025696, -0.5756286978721619, 0.18336786329746246, 0.06317771226167679, 0.3516587018966675, -0.33639487624168396, -0.03801799565553665, 0.29477474093437195, 0.6393133401870728, 0.007888435386121273, -0.27526482939720154, 0.025337427854537964, -0.33474722504615784, -0.3935477137565613, 0.14770656824111938, 0.2600419819355011, 0.40514257550239563, -0.35563573241233826, 0.038219187408685684, 0.11992087215185165, -0.07872967422008514, 0.11413578689098358, 0.4663352072238922, -0.4887753129005432, -0.12962768971920013, -0.12760360538959503, 0.3521050810813904, 0.08498779684305191, 0.21370664238929749, -0.36539414525032043, 0.14194288849830627, -0.35127297043800354, 0.028577366843819618, -0.07514667510986328, 0.11293431371450424, 0.1398940235376358, 0.38701361417770386, 0.3940310478210449, 0.06247482821345329, -0.1669495701789856, -0.331503689289093, 0.35741227865219116, -0.017319465056061745, 0.251950740814209, 0.09899577498435974, -0.1562902331352234, -0.42670387029647827, -0.2961101233959198, 0.5369499325752258, 0.7087205648422241, -0.9292102456092834, -0.019375184550881386, 0.7356263995170593, -0.15768106281757355, 0.0785946473479271, -0.3246416747570038, 0.7654038667678833, -0.5420436263084412, -0.48404189944267273, -0.11658650636672974, -0.24972981214523315, -0.36588940024375916, -0.12380145490169525, 0.4036824107170105, 0.17467284202575684, 0.08761001378297806, 0.08464247733354568, 0.30542469024658203, 0.015738528221845627, -0.08397845178842545, -0.06990048289299011, 0.2262667715549469, -0.06675250828266144, 0.14027076959609985, 0.4101363718509674, -0.04798246547579765, -0.19883595407009125, 0.17977479100227356, 0.0047362493351101875, 0.06844086945056915, 0.2186329960823059, -0.13302254676818848, -0.020631643012166023, -0.016452815383672714, 0.19748318195343018, -0.17337004840373993, -0.014483258128166199, 0.24372266232967377, 0.09947259724140167, -0.19784601032733917, -0.5419498682022095, -0.07866735011339188, -0.003284749109297991, -0.763089120388031, 0.05500579997897148, 0.16566862165927887, -0.1706773340702057, 0.09246686846017838, 0.16580870747566223, -0.13084036111831665, 0.0007917605107650161, 0.027958134189248085, -0.15606366097927094, 0.10653079301118851, -0.013515306636691093, -0.2515818178653717, -0.09210409969091415, 0.046160101890563965, -0.13430672883987427, -0.0937286838889122, -0.38919416069984436, 0.08550286293029785, -0.06412146985530853, 0.3664730191230774, -0.3644179105758667, 0.022902168333530426, -0.3094840943813324, 0.32462751865386963, 0.16083408892154694, 0.5379987359046936, 0.18385513126850128, -0.21144311130046844, -0.7178975939750671, 0.5866332650184631, 0.3845464587211609, -0.2813844680786133, 0.7757676243782043, -0.582034707069397, 1.8128925561904907, 0.14905185997486115, 0.17128652334213257, 0.027050184085965157, 0.9143171906471252, -0.4539024829864502, 0.19879695773124695, 0.20611023902893066, 0.42790716886520386, 0.5040619969367981, 0.02812388725578785, 0.41563987731933594, -0.03279540315270424, -0.4252282977104187, -0.28630203008651733, 0.09801759570837021, -0.4056454300880432, -0.35066354274749756, -0.058607034385204315, -0.1216658353805542, 0.005533325020223856, -0.09792620688676834, -0.009915001690387726, 0.16414909064769745, -0.02066689357161522, -0.1876322478055954, -0.07570242881774902, -0.07540315389633179, 0.0487835593521595, -0.36627551913261414, 0.03170798346400261, 0.16552071273326874, -0.17413018643856049, -0.05773591250181198, 0.22133538126945496, 0.006621590815484524, 0.08631972968578339, 0.03178373724222183, -0.2888205349445343, -0.09327572584152222, 0.22745531797409058, -0.08203434944152832, -0.03466247394680977, -0.03790603205561638, -0.14408378303050995, -0.10724712908267975, 0.2567402720451355, 0.0007880969787947834, 0.1086704432964325, -0.44162091612815857, -0.18874996900558472, -0.09952399134635925, 0.32620659470558167, -0.37261560559272766, 0.12560725212097168, 0.0021959368605166674, -0.20229265093803406, 0.2208314836025238, -0.0670817419886589, -0.03340308368206024, -0.01755012944340706, 0.38486385345458984, 0.16217075288295746, -0.14959880709648132, -0.7000228762626648, 0.245991051197052, -0.1392231285572052, 0.02953963540494442, -0.1196337416768074, 0.10305391252040863, 0.20266927778720856, -0.1003960371017456, -0.38161301612854004, 0.07920552045106888, -0.40017595887184143, 1.0817867517471313, 0.21440938115119934, 0.6089617013931274, -0.08896078169345856, 0.8808969259262085, 0.30109021067619324, -0.06008044257760048, -0.6487784385681152, 1.3002334833145142, 0.19012673199176788, -0.39353856444358826, -0.0403115414083004, -0.08496993035078049, -0.020002303645014763, -0.19101469218730927, -0.11932243406772614, 0.006454252637922764, 0.27937719225883484, 0.10220100730657578, -0.12353483587503433, -0.2595682740211487, -0.04070010408759117, 0.022534241899847984, -0.11495830118656158, 0.0332065112888813, -0.17626020312309265, -0.38541460037231445, -0.18290728330612183, -0.11047109961509705, -0.16392940282821655, -0.2304195612668991, -0.03910662978887558, -0.2649758756160736, 0.11420571804046631, -0.11928891390562057, -0.3414019048213959, -0.031654708087444305, 0.06660294532775879, -0.04282956197857857, 0.1741471141576767, -0.1777210384607315, -0.3853820562362671, -0.48524293303489685, -0.09447058290243149, -0.28295275568962097, 0.05423714220523834, -0.03825187683105469, -0.14669269323349, 0.07725989073514938, -0.10635502636432648, -0.3113962709903717, -0.11690656840801239, -0.09079864621162415, -0.14281705021858215, -0.3277856707572937, -0.0238115806132555, 0.24762101471424103, 0.02827700600028038, 0.01979069598019123, 0.14620520174503326, 0.03544970601797104, 0.03775341063737869, 0.2535721957683563, 0.09704478085041046, 0.059242844581604004, 0.037592366337776184, 0.2239038348197937, 0.2100994884967804, -0.12396522611379623, -0.48690953850746155, -0.016958827152848244, -0.4055614769458771, -0.10765470564365387, -0.56646728515625, 0.48459959030151367, -0.15136830508708954, -1.156599998474121, -0.62181556224823, -0.005402573850005865, -0.03060648776590824, -0.4038962125778198, -0.15492944419384003, -0.05587664246559143, -0.08084730803966522, -0.3052636384963989, 0.006760867312550545, 0.7281642556190491, -0.038909923285245895, 0.5356987118721008, -0.1664910763502121, 0.09630867838859558, 0.36921370029449463, -0.06353717297315598, 0.24265389144420624, -0.3585185706615448, -0.17204175889492035, -0.06446164846420288, -0.08290278911590576, -0.0362996831536293, -0.11103162914514542, 0.3107813894748688, -0.22572378814220428, 0.05067785084247589, -0.2799642086029053, 0.03870284929871559, -0.03936678171157837, -0.4949038028717041, -0.08921340852975845, -0.16554194688796997, 0.07356907427310944, -0.04777762293815613, -0.2607734501361847, 0.1902344822883606, -0.1001441478729248, 0.11380329728126526, -0.14252407848834991, -0.003096439875662327, 0.03397643193602562, -0.2250933200120926, -0.09448626637458801, -0.0934324786067009, 0.03948831558227539, -0.06050184741616249, -0.22719542682170868, -0.09314834326505661, -0.01166059821844101, 0.15509991347789764, 0.015249124728143215, 0.0911547988653183, -0.15245792269706726, -0.1798706352710724, -0.03443996608257294, -0.05746372789144516, 0.07322166115045547, -0.006281430833041668, 0.0897422730922699, -0.18464314937591553, -0.003783285850659013, -0.15831665694713593, 0.07180097699165344, -0.026800798252224922, 0.22006076574325562, 0.5737794637680054, -0.7204586863517761, 0.3089151978492737, -0.19372887909412384, 0.04880137741565704, 0.7625679969787598, -0.5971060395240784, 0.9581649899482727, -0.6110526323318481, 0.43004661798477173, -0.5497612953186035, 0.08867505192756653, -0.18681491911411285, -0.011032059788703918, 0.07785118371248245, 0.4072874188423157, -0.5690977573394775, 0.2004632204771042, -0.4977433979511261, -0.3348149359226227, -0.5194357633590698, 0.27563297748565674, 0.2026134431362152, 0.21083690226078033, 0.5826742053031921, -0.6305673122406006, 0.3081829845905304, -0.09706872701644897, 0.0415765643119812, -0.08320193737745285, -0.12349208444356918, 0.17015868425369263, -0.06126644089818001, -0.05495917797088623, 0.16110767424106598, -0.11367372423410416, -0.056661564856767654, -0.06561901420354843, -0.03074563480913639, 0.12821640074253082, -0.148165762424469, 0.10397487878799438, 0.032442428171634674, -0.08075368404388428, 0.03996511176228523, 0.026482004672288895, 0.4044317305088043, 0.07716730237007141, 0.052470993250608444, 0.16234061121940613, -0.03474641591310501, -0.02143423818051815, -0.7874213457107544, -0.059605274349451065, -0.019340351223945618, 0.11249041557312012, -0.047407981008291245, 0.034108951687812805, 0.2027444988489151, 0.009373039938509464, -0.14057014882564545, -0.10505992919206619, 0.03796301409602165, 0.03902556374669075, 0.013560425490140915, 0.03743148595094681, 0.1966373473405838, 0.13305914402008057, 0.019276443868875504, -0.0050481646321713924, -0.354625403881073, 0.027511950582265854, 0.2559044361114502, 0.32833391427993774, -0.016376784071326256, -0.013539720326662064, 0.4735743999481201, -0.09265027195215225, -0.13925711810588837, -0.03471098467707634, -0.6102734804153442, 1.0353095531463623, -0.1651463806629181, -0.11097854375839233, -0.9938063025474548, -0.12091034650802612, -0.04836457967758179, -0.23046547174453735, 0.3559243679046631, 0.2869518995285034, -0.44128191471099854, -0.050015389919281006, 0.1681065559387207, 0.4823986291885376, -0.11955636739730835, 0.3069649934768677, -0.028011441230773926, -0.1917715072631836, 0.30598050355911255, -0.4455450773239136, 0.41890019178390503, 0.4994143843650818, -0.1365121603012085, 0.1975109577178955, 0.49860215187072754, 1.1500115394592285, 0.8812407851219177, 0.9676576256752014, -0.8359394669532776, 0.12690000236034393, 0.019999999552965164]}