{"version": "0.5.1", "metadata": {"date": {"year": 2023, "month": 4, "day": 30, "hour": 11, "minute": 23, "second": 4}, "loudness": -9.340456008911133, "gain": 0.40634179115372276, "name": null, "modeled_by": null, "gear_type": null, "gear_make": null, "gear_model": null, "tone_type": null}, "architecture": "WaveNet", "config": {"layers": [{"input_size": 1, "condition_size": 1, "head_size": 4, "channels": 8, "kernel_size": 3, "dilations": [1, 2, 4, 8, 16, 32, 64], "activation": "Tanh", "gated": false, "head_bias": false}, {"input_size": 8, "condition_size": 1, "head_size": 1, "channels": 4, "kernel_size": 3, "dilations": [128, 256, 512, 1, 2, 4, 8, 16, 32, 64, 128, 256, 512], "activation": "Tanh", "gated": false, "head_bias": true}], "head": null, "head_scale": 0.02}, "weights": [0.1751355677843094, 0.49007442593574524, -0.9883754253387451, -0.8133607506752014, -0.45198115706443787, 0.07159622758626938, -0.04224889352917671, 0.859316349029541, -0.033830676227808, -0.0917092114686966, 0.12295608222484589, -0.10491787642240524, -0.37933027744293213, -0.02321505732834339, -0.02132904902100563, 0.20589569211006165, -0.031116556376218796, 0.1888429820537567, 0.06164175271987915, -0.19281895458698273, 0.14111749827861786, 0.36319056153297424, -0.15015628933906555, 0.09980316460132599, -0.1815805584192276, 0.14217764139175415, 0.24132733047008514, 0.010677755810320377, -0.2601659893989563, -0.11892738193273544, -0.278550922870636, 0.2823966443538666, 0.07904113829135895, -0.18293853104114532, -0.36160483956336975, 0.026127932593226433, -0.17327041923999786, 0.0035971987526863813, -0.13560223579406738, 0.1538674682378769, 0.18493665754795074, -0.33365464210510254, 0.08363227546215057, -0.023160697892308235, -0.36773449182510376, -0.0481264553964138, 0.30297696590423584, 0.3183988332748413, -0.13693580031394958, -0.1685163825750351, -0.09180387109518051, 0.2613951861858368, 0.2615903317928314, 0.25188371539115906, 0.0833844467997551, -0.29138892889022827, -0.06365600228309631, -0.1987730860710144, 0.024242587387561798, -0.18248483538627625, 0.07716841250658035, 0.24479037523269653, -0.04417017102241516, 0.0820094645023346, -0.0512806735932827, 0.0546245239675045, 0.03185848519206047, -0.1084132120013237, 0.2046820968389511, 0.21348066627979279, -0.3194452226161957, -0.14585144817829132, 0.07251214236021042, 0.32655805349349976, 0.2497020661830902, 0.2015034556388855, -0.14138729870319366, -0.2571437656879425, -0.0030659374315291643, 0.031039917841553688, -0.16670343279838562, 0.05223918706178665, 0.39627107977867126, -0.23895089328289032, -0.13884447515010834, 0.12215651571750641, -0.00944196805357933, 0.09798034280538559, -0.08528757095336914, -0.0934339389204979, 0.26514846086502075, -0.05242963135242462, 0.17732983827590942, 0.25968095660209656, -0.3610372841358185, -0.16857817769050598, -0.0416940413415432, 0.1823369413614273, -0.1239742860198021, 0.09471946209669113, 0.028775369748473167, 0.1081722229719162, -0.27856168150901794, 0.1062079444527626, -0.2165049910545349, -0.13463637232780457, 0.06633437424898148, -0.2238040715456009, -0.16898466646671295, 0.2017837017774582, -0.017660990357398987, 0.29064613580703735, -0.2983280420303345, 0.2535758316516876, 0.31047114729881287, -0.33823463320732117, 0.018638858571648598, 0.17632518708705902, -0.13718970119953156, -0.004631759133189917, -0.04207678884267807, 0.19221578538417816, -0.05963011085987091, 0.2455815076828003, -0.399667352437973, -0.1911742389202118, -0.22264032065868378, 0.06713689863681793, -0.3742244243621826, 0.05263712257146835, 0.12507222592830658, -0.24188445508480072, 0.06128761172294617, 0.12580189108848572, 0.44213804602622986, -0.23685680329799652, -0.1401854008436203, 0.27630379796028137, -0.16684027016162872, -0.011680904775857925, 0.4789305627346039, -0.082502581179142, 0.0463152676820755, -0.2721230387687683, -0.035927724093198776, 0.01761569082736969, 0.42599791288375854, -0.2264002412557602, -0.2675067186355591, -0.4459294080734253, 0.020603323355317116, -0.027752777561545372, -0.0056792329996824265, 0.1717706024646759, -0.07565858960151672, -0.12145919352769852, 0.21651031076908112, -0.29541030526161194, -0.11706211417913437, -0.18190516531467438, 0.09797260910272598, -0.11740074306726456, -0.2842995226383209, -0.0474461130797863, -0.10720156133174896, -0.09162414819002151, 0.04118271917104721, 0.1432574838399887, -0.11726431548595428, -0.15204203128814697, 0.12289407849311829, -0.17367221415042877, 0.3441930413246155, 0.15119211375713348, -0.08415325731039047, -0.0025805409532040358, -0.05239393934607506, 0.03983692824840546, 0.15290045738220215, -0.24873891472816467, 0.11782166361808777, -0.06691883504390717, 0.21919049322605133, -0.04921583831310272, 0.12163622677326202, 0.144993856549263, -0.15121853351593018, -0.015784425660967827, -0.09387920796871185, 0.0017613025847822428, 0.17819134891033173, 0.054273571819067, -0.08464008569717407, -0.03868502005934715, -0.07659618556499481, -0.19170880317687988, -0.0643201693892479, -0.0034589215647429228, -0.014173537492752075, -0.023028073832392693, 0.018083767965435982, 0.11908993870019913, -0.08531451225280762, -0.11967567354440689, -0.07759569585323334, 0.08522701263427734, -0.21641209721565247, 0.19907164573669434, 0.46437767148017883, -0.04193689674139023, 0.14652284979820251, -0.04430071637034416, 0.2905410826206207, -0.08947902172803879, -0.13433793187141418, 0.10355215519666672, -0.23073039948940277, -0.24305680394172668, 0.2380981743335724, -0.3917153775691986, -0.0489414744079113, 0.29729512333869934, 0.1744568645954132, -0.11680032312870026, -0.6083813905715942, 0.34239906072616577, -0.46203625202178955, -0.23323370516300201, -0.4237389862537384, -0.11327233910560608, 0.0925624892115593, 0.19970044493675232, 0.20607559382915497, 0.21264319121837616, 0.296151340007782, -0.08075983077287674, 0.32481804490089417, -0.10397034883499146, -0.31256401538848877, 0.32288283109664917, 0.02150437980890274, 0.3853813409805298, -0.2000674456357956, 0.06248142197728157, 0.09105541557073593, -0.4847443997859955, 0.32337048649787903, -0.3340834677219391, -0.02155601978302002, -0.20277340710163116, -0.1553090214729309, -0.019393764436244965, 0.3164742887020111, -0.030945926904678345, -0.19230414927005768, -0.08336438983678818, -0.570857048034668, 0.001875757472589612, -0.1348760575056076, -0.20893867313861847, -0.33421483635902405, 0.27656084299087524, 0.20798736810684204, 0.22615355253219604, 0.35116341710090637, -0.3059302270412445, 0.1523626148700714, 0.30577120184898376, 0.5420967936515808, 0.37307432293891907, -0.40855279564857483, -0.006989387329667807, -0.07958392053842545, 0.16457271575927734, -0.12239151448011398, -0.18362048268318176, 0.47024887800216675, -0.28839805722236633, -0.077060267329216, 0.014706642366945744, 0.058964408934116364, -0.19239163398742676, -0.17384934425354004, 0.18826328217983246, 0.07361498475074768, 0.12014805525541306, -0.025545118376612663, 0.05278676003217697, -0.040286917239427567, 0.33643171191215515, -0.15692400932312012, 0.16815422475337982, 0.07203484326601028, -0.18290722370147705, -0.05756035074591637, -0.25196459889411926, 0.22145108878612518, -0.009424164891242981, -0.08828960359096527, -0.1315237581729889, -0.13800299167633057, -0.027812961488962173, 0.012889320962131023, 0.22222043573856354, 0.12864890694618225, -0.2049717903137207, -0.10033010691404343, 0.08526778221130371, 0.22304792702198029, -0.0949769914150238, -0.1456548124551773, -0.0880713164806366, 0.42668628692626953, -0.18950967490673065, 0.2925245463848114, 0.0835990160703659, -0.08799243718385696, 0.032623209059238434, 0.0745038241147995, 0.12487497925758362, -0.11144737899303436, 0.12149334698915482, 0.04657057672739029, -0.1576499193906784, 0.2025424838066101, 0.21275781095027924, 0.04852989688515663, 0.11851274967193604, 0.12466656416654587, -0.14777463674545288, -0.10345994681119919, -0.22714535892009735, 0.20013882219791412, 0.04298251494765282, -0.24212110042572021, 0.19886161386966705, -0.564136266708374, -0.12569846212863922, 0.164981871843338, 0.05598164349794388, -0.3208121359348297, 0.0745607241988182, 0.256092369556427, 0.27273815870285034, -0.27191126346588135, 0.4155532717704773, 0.06568098068237305, 0.2274993509054184, -0.026063766330480576, 0.3009280860424042, -0.17098625004291534, -0.03990514576435089, -0.2675275504589081, 0.2969646453857422, 0.09111402183771133, 0.34523022174835205, -0.24351681768894196, 0.1921975165605545, -0.15909327566623688, 0.11097334325313568, -0.3845059275627136, -0.35554125905036926, -0.008275020867586136, 0.15314072370529175, -0.15831336379051208, 0.15325912833213806, 0.30058613419532776, -0.038020867854356766, -0.17568828165531158, 0.3388487696647644, -0.24035018682479858, 0.026282748207449913, -0.05529766529798508, 0.11205931752920151, -0.1767800897359848, -0.07663802802562714, -0.10287740081548691, 0.18129922449588776, 0.06087571382522583, 0.4229750633239746, 0.21227960288524628, -0.16689705848693848, 0.012145440094172955, 0.19246521592140198, 0.22464078664779663, 0.8345763087272644, 0.1164570152759552, 0.08183860033750534, -0.13774339854717255, 0.12777510285377502, 0.2622859477996826, -0.07731275260448456, -0.08115088194608688, -0.06224076449871063, -0.2910555899143219, 0.35432326793670654, 0.24122589826583862, -0.008423127233982086, -0.07507961988449097, 0.18972401320934296, 0.1454422026872635, 0.11818180233240128, -0.07461383193731308, 0.2831946313381195, 0.028499627485871315, -0.3978000283241272, 0.10693777352571487, 0.0863235667347908, 0.11498481780290604, -0.31434184312820435, -0.2453596293926239, -0.0713830217719078, 0.36907094717025757, 0.021911930292844772, -0.3111901879310608, -0.04864539951086044, 0.04835766926407814, -0.45088469982147217, 0.40253764390945435, 0.40243542194366455, -0.03273112326860428, -0.22328591346740723, 0.04137837514281273, -0.0908425822854042, 0.24676266312599182, -0.1883338987827301, 0.07331617176532745, -0.39962852001190186, -0.11680297553539276, 0.2525971531867981, -0.1270974576473236, -0.0378384031355381, -0.002261317800730467, -0.05812806636095047, -0.29503101110458374, -0.1199423149228096, 0.1164056733250618, -0.2094254493713379, 0.23739071190357208, -0.16879425942897797, -0.1171732172369957, -0.32871386408805847, -0.10185039788484573, -0.08790864795446396, -0.12146852910518646, 0.15140073001384735, -0.011027904227375984, -0.007192150689661503, 0.058737386018037796, -0.2271193414926529, 0.2558838427066803, 0.07497015595436096, 0.3065270185470581, 0.07584364712238312, -0.1506596952676773, 0.1384611427783966, -0.3306621015071869, 0.046910326927900314, -0.2608552575111389, -0.1348372995853424, -0.28106755018234253, -0.008743008598685265, 0.21847356855869293, -0.10113801807165146, -0.07164204865694046, 0.1910499930381775, -0.06182748079299927, -0.1658407747745514, -0.012676981277763844, 0.05893862619996071, 0.03660501912236214, 0.07407515496015549, 0.15008480846881866, 0.03453398495912552, 0.10402653366327286, -0.11562252789735794, -0.2424844205379486, -0.03716103732585907, -0.18973997235298157, 0.2345341145992279, -0.13742828369140625, -0.07065334171056747, -0.022136541083455086, 0.19913272559642792, -0.08795876801013947, 0.062545545399189, 0.08303429186344147, 0.16565494239330292, -0.011386631987988949, -0.11197882890701294, -0.19994975626468658, 0.16063600778579712, 0.4788561463356018, -0.8498495817184448, 0.8816444277763367, 0.1020454615354538, -0.740027904510498, -0.2318027764558792, 0.34380656480789185, 0.4081040024757385, -0.6710561513900757, 0.13386695086956024, 0.3326873779296875, 0.18541476130485535, 0.3034290075302124, -0.21567769348621368, 0.11751995980739594, 0.15799197554588318, -0.1602376252412796, 0.1339610368013382, -0.08812949806451797, 0.04560251161456108, -0.2301744669675827, -0.11373396217823029, 0.2966090440750122, 0.21283289790153503, -0.4289839565753937, 0.24197573959827423, 0.04795003682374954, 0.25244060158729553, 0.2556794285774231, -0.11902938783168793, 0.06595038622617722, -0.29012933373451233, -0.2424190640449524, -0.16446562111377716, 0.32673588395118713, -0.23921559751033783, -0.2019367665052414, -0.10231504589319229, 0.5571444630622864, 0.4573339521884918, -0.11294420808553696, -0.39703527092933655, -0.3773907721042633, 0.20123274624347687, 0.08213350176811218, -0.27858033776283264, -0.25009816884994507, 0.12171860784292221, 0.04947687312960625, 0.0569739006459713, 0.043670035898685455, -0.25843745470046997, 0.17396558821201324, 0.16221249103546143, -0.3777720332145691, -0.19521068036556244, -0.359922856092453, 0.7187068462371826, -0.42449381947517395, -0.3559504747390747, 0.3249407708644867, -0.2649092972278595, 0.07992465049028397, 0.0404336042702198, -0.1656457781791687, -0.0788370668888092, 0.1676427721977234, -0.04865232855081558, -0.27040788531303406, -0.14611966907978058, -0.005094388034194708, 0.07046244293451309, -0.1654559075832367, 0.17430759966373444, -0.05132018029689789, -0.10418793559074402, 0.04729854315519333, 0.3740667998790741, 0.1340155452489853, 0.2752891182899475, -0.3093806207180023, -0.058498792350292206, -0.266011506319046, 0.44452381134033203, -0.18538007140159607, -0.06963019073009491, -0.01787753403186798, 0.21493864059448242, -0.27361223101615906, 0.07951170206069946, -0.25413691997528076, 0.17681322991847992, -0.2002093642950058, -0.12714515626430511, -0.13006839156150818, 0.46081236004829407, 0.12156053632497787, 0.3406808376312256, -0.20472078025341034, -0.07233357429504395, -0.2842864692211151, -0.09333175420761108, -0.15623170137405396, 0.01697005145251751, -0.19661201536655426, 0.3135662078857422, 0.2933744192123413, 0.13767942786216736, -0.33273592591285706, -0.05519875884056091, -0.18279995024204254, 0.3393748700618744, 0.030901210382580757, -0.1213776245713234, -0.04507195204496384, -0.1461368352174759, -0.07433515787124634, -0.04892781004309654, 0.18523479998111725, -0.09988823533058167, 0.20302440226078033, -0.22056937217712402, -0.11953461170196533, 0.32490235567092896, 0.1378946155309677, -0.08758395910263062, 0.1845579296350479, -0.06574904918670654, 0.0816018134355545, 0.09959419816732407, 0.1706358939409256, -0.42333322763442993, 0.08895961940288544, -0.24180853366851807, 0.252108097076416, 0.09741371124982834, -0.11055798828601837, -0.19399705529212952, 0.1964646875858307, -0.011066880077123642, 0.14547094702720642, 0.03656942397356033, 0.18828819692134857, -0.4417785704135895, 0.00482532475143671, -0.2536293864250183, 0.04317426308989525, -0.028772303834557533, -0.01109316572546959, 0.11616239696741104, -0.18585804104804993, -0.06073978170752525, -0.14112693071365356, 0.36941763758659363, -0.0628051683306694, 0.32603439688682556, -0.4236315190792084, -0.2534882724285126, -0.0014753291616216302, -0.10801304876804352, 0.21311236917972565, -0.028575779870152473, -0.24161438643932343, -0.2554328143596649, 0.07771020382642746, 0.17555144429206848, 0.02934064343571663, 0.2747389078140259, -0.08913961052894592, -0.09426892548799515, -0.22804664075374603, 0.021771594882011414, 0.24511754512786865, 0.021435601636767387, 0.10697721689939499, 0.08165057748556137, 0.14378507435321808, 0.12763933837413788, 0.045947570353746414, -0.29895126819610596, 0.06793797761201859, -0.1232888326048851, -0.009301073849201202, 0.07862655818462372, 0.19692786037921906, -0.22681164741516113, 0.1734583079814911, -0.14519524574279785, 0.2887848913669586, -0.17344506084918976, 0.10707184672355652, -0.3476499021053314, 0.14457233250141144, -0.1082347109913826, 0.15050309896469116, -0.28425663709640503, -0.05510243773460388, 0.19626052677631378, -0.02542322687804699, -0.2541036903858185, 0.23808304965496063, -0.14427043497562408, 0.006789570674300194, -0.2740781605243683, 0.3456524610519409, -0.3240748643875122, 0.16397102177143097, 0.017304452136158943, -0.1352134793996811, -0.004372226539999247, -0.03532136231660843, -0.021216360852122307, -0.08923615515232086, -0.0993904173374176, 0.10300940275192261, -0.15040481090545654, -0.013142448849976063, 0.20243439078330994, 0.12640506029129028, -0.26264965534210205, -0.041195519268512726, -0.22995448112487793, 0.15967923402786255, -0.19005100429058075, 0.23847521841526031, -0.04304767772555351, 0.372292160987854, -0.20232702791690826, 0.20079749822616577, -0.09557782858610153, -0.2754552364349365, -0.13460125029087067, 0.054664019495248795, -0.13334205746650696, 0.1314041167497635, -0.2160206437110901, 0.24277254939079285, -0.0913337767124176, 0.1551436334848404, -0.553473711013794, 0.010110055096447468, -0.21690866351127625, 0.055137842893600464, 0.13033150136470795, -0.2700422406196594, -0.19891469180583954, -0.06704939156770706, -0.03806111961603165, -0.32141393423080444, 0.12996694445610046, -0.005530801136046648, 0.16914968192577362, -0.07094261795282364, 0.2544122636318207, 0.1350829005241394, -0.2139182835817337, -0.24156397581100464, 0.05376423895359039, -0.24086672067642212, 0.018356801941990852, 0.018299587070941925, 0.11143537610769272, 0.1246827021241188, 0.5649813413619995, -0.14833694696426392, 0.28338608145713806, -0.3143981099128723, 0.009108670055866241, 0.05669509246945381, 0.07853217422962189, -0.19210702180862427, 0.015225866809487343, -0.016009340062737465, -0.0605870820581913, -0.03085547685623169, 0.01526504848152399, -0.5392012000083923, -0.2347872257232666, -0.02708273194730282, -0.6294767260551453, 0.3126995265483856, 0.2624989151954651, 0.3568205237388611, -0.3107983469963074, 0.5958105325698853, 0.027122270315885544, 0.015594933182001114, -0.3015688955783844, -0.48299965262413025, 0.2930298149585724, 0.005582005716860294, 0.0618998147547245, -0.09387405961751938, -0.40117141604423523, -0.04335810989141464, -0.6816329956054688, 0.18245945870876312, 0.27083754539489746, -0.11280076950788498, -0.051940031349658966, 0.3215906023979187, 0.274336576461792, -0.17453895509243011, -0.0826869085431099, -0.23987962305545807, -0.2786896526813507, 0.20168940722942352, -0.10205487906932831, -0.07498649507761002, -0.22278667986392975, 0.3705131411552429, -0.35544395446777344, 0.013207641430199146, 0.428871214389801, 0.3570530116558075, -0.42620858550071716, 0.01588691584765911, 0.31546705961227417, -0.08396615833044052, 0.04196436330676079, -0.05645393207669258, -0.553943932056427, 0.23787786066532135, 0.380801260471344, -0.31624963879585266, 0.16765527427196503, 0.0844675675034523, 0.13239100575447083, 0.4471439719200134, -0.023247160017490387, 0.2689303457736969, -0.2700413465499878, -0.2949833571910858, -0.09676012396812439, 0.25650233030319214, -0.2411404252052307, 0.18256796896457672, 0.04406720772385597, 0.12773364782333374, -0.1116614118218422, 0.2434917688369751, -0.16018404066562653, -0.4429783523082733, 0.11784393340349197, 0.14353899657726288, -0.04723868519067764, -0.1982949823141098, 0.03585990145802498, -0.029744397848844528, 0.24194438755512238, 0.12896384298801422, 0.08190511912107468, 0.16270285844802856, -0.14654800295829773, 0.20382554829120636, 0.19530627131462097, -0.022671308368444443, -0.1499181091785431, 0.023677920922636986, 0.35996541380882263, 0.000529673823621124, -0.21118995547294617, -0.09969762712717056, -0.3150087296962738, 0.18343640863895416, 0.0711594671010971, 0.13900694251060486, -0.2518567144870758, -0.0970512256026268, 0.09923209995031357, 0.20668883621692657, 0.1544279307126999, 0.2245006114244461, -0.24827565252780914, -0.3802744150161743, -0.21700459718704224, 0.11037047952413559, 0.37242791056632996, 0.1664818674325943, -0.14832210540771484, -0.0020617940463125706, -0.24009187519550323, 0.224821075797081, 0.23050253093242645, 0.1412985622882843, -0.04069951921701431, -0.13002489507198334, -0.08963768929243088, 0.15207692980766296, -0.07930707931518555, -0.1980089247226715, -0.12082980573177338, -0.03970862552523613, 0.02383756823837757, 0.20783917605876923, -0.19368942081928253, 0.0196541678160429, -0.04052838310599327, 0.11223884671926498, 0.05144607648253441, -0.058746930211782455, 0.2578650116920471, -0.006424762774258852, 0.003239203942939639, -0.20360998809337616, 0.26291540265083313, -0.05049080029129982, 0.2362348586320877, 0.22861163318157196, 0.09185904264450073, -0.004764708224684, 0.11377301067113876, 0.26704683899879456, 0.0029791616834700108, -0.1760077327489853, -0.18194401264190674, -0.2627032399177551, -0.17491908371448517, 0.20293955504894257, 0.1473822146654129, 0.019543446600437164, 0.048265501856803894, 0.12542569637298584, -0.26774725317955017, 0.4512437582015991, 0.12023606151342392, 0.14420174062252045, -0.10170307010412216, 0.23243331909179688, -0.37710607051849365, -0.037855785340070724, 0.3166002333164215, 0.17490611970424652, -0.3871418833732605, -0.046527206897735596, -0.23233208060264587, 0.37738463282585144, 0.2137381136417389, 0.30596697330474854, -0.4616294801235199, -0.385827898979187, 0.07922770828008652, 0.40215182304382324, 0.16118764877319336, 0.18079774081707, -0.45109614729881287, -0.05595503747463226, 0.2761813700199127, 0.1198403388261795, 0.21342186629772186, -0.02470114827156067, -0.033797189593315125, -0.020646532997488976, 0.023272570222616196, -0.3446601629257202, -0.3662891685962677, 0.04395744577050209, 0.007663360331207514, 0.047417521476745605, -0.026622377336025238, -0.3182179033756256, -0.3460969626903534, 0.14055228233337402, 0.29872584342956543, 0.22033348679542542, -0.0377843976020813, -0.10458072274923325, -0.11649343371391296, -0.12214139103889465, 0.23557192087173462, 0.6117151379585266, 0.0694136917591095, 0.28797629475593567, -0.3389075696468353, 0.007386017590761185, -0.08789064735174179, 0.3846049904823303, -0.3289634883403778, 0.2785700559616089, -0.142852783203125, -0.08593610674142838, 0.042863089591264725, -0.005206980276852846, 0.07492687553167343, 0.10570630431175232, 0.4466157555580139, -0.5937803983688354, -0.13455568253993988, -0.02557292953133583, -0.12552520632743835, 0.10192692279815674, -0.09185922145843506, -0.051464375108480453, -0.1708429902791977, 0.4166567027568817, -0.05062513425946236, 0.1965431272983551, 0.3390366733074188, 0.09423677623271942, -0.07119261473417282, 0.2713116407394409, -0.28550758957862854, 0.10093465447425842, -0.14967218041419983, -0.11688192188739777, 0.1547146886587143, 0.06843055784702301, -0.07878570258617401, -0.2937082052230835, -0.03309010714292526, -0.3254471719264984, -0.0011891501490026712, 0.08651025593280792, 0.18564262986183167, -0.2312549501657486, -0.1188344731926918, -0.17053768038749695, -0.03827696293592453, 0.13620956242084503, -0.16000527143478394, 0.08294426649808884, -0.14190673828125, 0.0802072137594223, 0.2015829235315323, 0.37662240862846375, -0.4112911522388458, -0.3577384948730469, 0.14752373099327087, 0.05733811482787132, -0.2238137573003769, -0.15452840924263, -0.0996709018945694, 0.021760912612080574, -0.02496388554573059, -0.2075975388288498, -0.058346737176179886, -0.18950696289539337, 0.0677277222275734, 0.2922964096069336, -0.03269012272357941, -0.07239992916584015, -0.1610565036535263, -0.02686794474720955, 0.3585905432701111, -0.2610582411289215, 0.16060508787631989, -0.03738362714648247, 0.0304152462631464, -0.14783914387226105, 0.09031997621059418, -0.0010064829839393497, -0.11688041687011719, 0.09467591345310211, 0.04086878523230553, 0.26235899329185486, 0.021634960547089577, -0.8753714561462402, 0.8134642839431763, -0.1276325285434723, -0.2562825083732605, 0.4665542244911194, 0.7155788540840149, -0.7637078762054443, 0.09118478745222092, 0.4829358756542206, 0.11672601103782654, 0.41662511229515076, 0.19934478402137756, -0.4859492778778076, 0.35111457109451294, 0.09782218188047409, 0.2820529639720917, -0.26345762610435486, -0.19234800338745117, 0.17800576984882355, -0.6560361385345459, 0.18466487526893616, 0.19884097576141357, 0.022289440035820007, 0.03251524642109871, -0.040240153670310974, -0.3533617854118347, -0.005112622864544392, -0.5646787881851196, -0.20455896854400635, 0.08539474755525589, 0.45421352982521057, -0.08525968343019485, 0.1969435065984726, -0.2605440318584442, 0.16426700353622437, -0.19108250737190247, 0.20223718881607056, 0.11479731649160385, 0.186341792345047, 0.25674983859062195, -0.1402522623538971, -0.3745099902153015, -0.39439475536346436, 0.11660363525152206, -0.16105897724628448, 0.26950395107269287, 0.06952667981386185, -0.23856450617313385, -0.21258121728897095, -0.35180824995040894, -0.1206962838768959, -0.37658241391181946, 0.2059059739112854, 0.02005384862422943, 0.35474255681037903, 0.18536846339702606, -0.10741699486970901, 0.25046756863594055, -0.0989280417561531, -0.3495115637779236, 0.09850818663835526, -0.19506490230560303, -0.24585960805416107, -0.40501636266708374, -0.16268128156661987, 0.10272146761417389, -0.22632640600204468, -0.25805050134658813, 0.15654076635837555, -0.40053698420524597, -0.2156141847372055, -0.25052738189697266, -0.05387396737933159, -0.2602651119232178, -0.07584647834300995, -0.05588041618466377, -0.19394806027412415, -0.07943055033683777, -0.21059350669384003, -0.251884788274765, 0.02111087366938591, -0.04566699638962746, -0.23861096799373627, 0.13274826109409332, -0.08544403314590454, 0.3299194276332855, 0.12426670640707016, 0.066579170525074, -0.17757610976696014, -0.009534568525850773, 0.2775355279445648, 0.07739825546741486, 0.1094924733042717, 0.25808751583099365, -0.1925339251756668, -0.08601660281419754, 0.050740551203489304, -0.23309840261936188, 0.19966857135295868, -0.2730827331542969, 0.3266890347003937, -0.15834243595600128, -0.0596468411386013, -0.05317722633481026, -0.1551894247531891, 0.03180762380361557, 0.027294596657156944, -0.15857742726802826, -0.13329023122787476, 0.3477344512939453, 0.045070718973875046, 0.21922123432159424, -0.31032925844192505, -0.04390403628349304, 0.006333280820399523, 0.4470268487930298, 0.09731625765562057, -0.025302842259407043, -0.08562089502811432, -0.007201036438345909, 0.047433387488126755, -0.054636355489492416, 0.0036196608562022448, 0.2046765387058258, 0.028548138216137886, -0.09959859400987625, -0.2660135328769684, 0.12583376467227936, -0.053014520555734634, -0.23089928925037384, 0.23778842389583588, -0.24864427745342255, 0.0879271924495697, -0.05446949228644371, 0.3267197012901306, -0.18648095428943634, -0.2544776499271393, -0.29246553778648376, -0.10164229571819305, 0.25309908390045166, 0.3104221224784851, -0.20482245087623596, -0.17363294959068298, 0.026521963998675346, 0.3104899823665619, -0.018078774213790894, 0.22544018924236298, -0.0892423689365387, 0.3594648838043213, -0.07714167982339859, 0.14057014882564545, 0.006220145151019096, -0.0035338380839675665, 0.15983593463897705, 0.5546624064445496, 0.04932616651058197, -0.023845890536904335, -0.3548415005207062, -0.2836434841156006, 0.011391484178602695, 0.0840444415807724, -0.041935600340366364, 0.02284856326878071, -0.4897763431072235, -0.02088707685470581, -0.35548630356788635, 0.08428296446800232, -0.062411632388830185, 0.10348635166883469, -0.3613538444042206, -0.24595654010772705, -0.0662931427359581, -0.3678765594959259, 0.1723250299692154, 0.09356707334518433, -0.10702149569988251, -0.06810538470745087, 0.12097521871328354, -0.44351863861083984, 0.05274685099720955, 0.13580067455768585, 0.11195617914199829, 0.19457128643989563, 0.3035408556461334, -0.33084776997566223, -0.04240795224905014, 0.11592286825180054, 0.110502690076828, 0.09786570817232132, 0.06583219021558762, -0.10960295796394348, -0.10440322011709213, -0.0353444442152977, 0.35754159092903137, 0.1111084446310997, -0.049953896552324295, -0.047984421253204346, -0.15282002091407776, -0.20721089839935303, 0.12178537994623184, 0.2497911900281906, -0.02991240657866001, 0.10335692018270493, 0.22663065791130066, 0.021173184737563133, -0.1974760890007019, -0.11236952245235443, -0.026092108339071274, 0.33541348576545715, 0.03628880903124809, -0.1209883987903595, 0.04892995208501816, -0.3783545196056366, -0.03826506808400154, 0.25558069348335266, -0.14341463148593903, -0.02291252836585045, 0.2586265802383423, -0.08169656991958618, 0.04647675156593323, -0.01260086614638567, 0.16325636208057404, 0.05310865119099617, 0.1157156303524971, 0.15476864576339722, 0.0652843564748764, 0.7422628998756409, -0.031125260517001152, 0.13922297954559326, -0.4805767238140106, -0.12601470947265625, -0.10428795963525772, 0.054398734122514725, 0.3718383014202118, -0.04616256430745125, -0.3862665891647339, -0.14526119828224182, -0.2531212270259857, 0.31512370705604553, -0.04638691991567612, -0.2904648184776306, -0.9689308404922485, 0.3934737741947174, 0.03097141906619072, -0.762448787689209, -0.066864512860775, -0.07132719457149506, -0.6422499418258667, -0.030623575672507286, -0.27156293392181396, 0.0677463710308075, -0.03699208050966263, 0.0042795040644705296, -0.049722135066986084, -0.10927939414978027, -0.022206595167517662, 0.21684381365776062, 0.27685487270355225, 0.007417934946715832, -0.16487570106983185, -0.39623844623565674, -0.13593235611915588, 0.2955901324748993, 0.13140815496444702, 0.07396060973405838, 0.07164190709590912, -0.051488734781742096, 0.03358319401741028, -0.32854703068733215, -0.030289655551314354, 0.326515257358551, -0.021299129351973534, 0.031168127432465553, 0.07776116579771042, 0.02175755612552166, -0.1505039781332016, -0.08310718834400177, 0.1154433861374855, -0.05277225747704506, -0.025492923334240913, -0.2524295449256897, -0.675613522529602, -0.36585888266563416, -0.7436228394508362, 0.772053599357605, 0.4801032543182373, -0.6321714520454407, -0.2025720477104187, 0.31774309277534485, -0.1930871307849884, 0.17062020301818848, -0.0549207404255867, -0.25090277194976807, 0.0005879387608729303, -0.12098582834005356, 0.24639087915420532, -0.19952808320522308, 0.04264196380972862, 0.2699303925037384, -0.24281097948551178, 0.09683103114366531, 0.32154932618141174, -0.12428497523069382, 0.17749086022377014, 0.5306987762451172, 0.6380572319030762, 0.23091980814933777, 0.045284878462553024, 0.087701216340065, -0.3629927933216095, -0.09157062321901321, -0.24303707480430603, 0.28494104743003845, 0.37901571393013, -0.3318518102169037, 0.31970152258872986, 0.3299703896045685, 0.16701415181159973, 0.21541517972946167, -0.22393298149108887, -0.28903716802597046, 0.09449424594640732, -0.19780175387859344, 0.24050000309944153, -0.4016624093055725, -0.0334281399846077, -0.08081265538930893, 0.2905751168727875, 0.1474386751651764, 0.34109410643577576, 0.020833691582083702, 0.02061590552330017, 0.6246618628501892, -0.33867281675338745, -0.1132718026638031, -0.33251896500587463, -0.05676373839378357, 0.1410384625196457, -0.38366201519966125, -0.04552484303712845, -0.4649134874343872, 0.5347501635551453, -0.04508217051625252, 0.29128146171569824, 0.25594571232795715, 0.5202888250350952, 0.37519603967666626, -0.38621604442596436, 0.2912065088748932, -0.20006069540977478, -0.0004348756920080632, -0.2667872905731201, 0.10821820795536041, -0.2200952172279358, -0.20501971244812012, 0.0686831995844841, 0.11856604367494583, 0.0499880351126194, 0.204917311668396, -0.10348324477672577, -0.10935496538877487, -0.1853116750717163, 0.2491845041513443, -0.0963379293680191, 0.20814596116542816, 0.07834295183420181, -0.12157092243432999, -0.33103492856025696, 0.19555576145648956, 0.46923020482063293, -0.2204226553440094, 0.30127519369125366, -0.08108799904584885, -0.30827274918556213, 0.17480279505252838, -0.13254126906394958, -0.1679394394159317, -0.10025499761104584, 0.24525555968284607, 0.10088185220956802, -0.30705124139785767, -0.2788110673427582, -0.05041233077645302, -0.17761749029159546, -0.03851238265633583, 0.26124081015586853, -0.18739914894104004, -0.0815315917134285, 0.0028033158741891384, -0.09860739856958389, -0.20426315069198608, 0.2777126431465149, -0.004526047967374325, 0.22933116555213928, 0.12573957443237305, -0.12187893688678741, -0.21125298738479614, 0.09043516963720322, -0.1968374103307724, -0.09602443873882294, -0.3618077039718628, -0.0816725492477417, -0.028181521221995354, 0.24932946264743805, 0.12092427164316177, 0.037526000291109085, 0.02537931501865387, 0.11270172894001007, 0.1007465273141861, 0.14770837128162384, -0.3734741508960724, 0.03542633727192879, -0.12173650413751602, 0.10699310898780823, 0.15946245193481445, -0.03796501085162163, -0.08185537159442902, 0.008947428315877914, 0.011920416727662086, 0.5390227437019348, 0.24123819172382355, -0.0030650210101157427, -0.17351806163787842, 0.1311120241880417, 0.10034022480249405, 0.5925120711326599, -0.28433749079704285, -0.19709601998329163, -0.2966926097869873, -0.03120463155210018, 0.07684873044490814, 0.24101053178310394, 0.11721938103437424, 0.12605398893356323, 0.134442999958992, 0.03620483726263046, 0.19681747257709503, -0.01218790840357542, -0.09114398807287216, -0.15382540225982666, 0.47325628995895386, -0.035527896136045456, 0.055247560143470764, -0.10075055062770844, -0.09719918668270111, -0.19831305742263794, 0.014205009676516056, 0.019071737304329872, -0.07524825632572174, 0.0324830636382103, 0.21012736856937408, -0.03028983436524868, -0.33408141136169434, -0.0014360863715410233, 0.032020725309848785, -0.04758463799953461, -0.0028349184431135654, 0.028629226610064507, -0.2718368470668793, -0.016101203858852386, -0.08200599998235703, 0.3419680893421173, 0.21325267851352692, 0.09262542426586151, -0.1894308179616928, -0.2211267203092575, -0.023182719945907593, 0.03409430757164955, 0.09253533184528351, 0.05826186016201973, -0.11769954860210419, -0.07069147378206253, 0.20754247903823853, 0.3405095338821411, -0.129074364900589, -0.02287234738469124, 0.3449142873287201, 0.10852044820785522, -0.21074038743972778, 0.03317369520664215, -0.030436726287007332, -0.11731036752462387, 0.32825201749801636, 0.08346613496541977, 0.17842231690883636, -0.20943550765514374, -0.21020890772342682, -0.17415808141231537, 0.2988603413105011, 0.13932359218597412, 0.11671744287014008, 0.06133096292614937, 0.025437040254473686, -0.18681395053863525, 0.20845676958560944, -0.01812436431646347, -0.03134051337838173, 0.38946306705474854, 0.10192102938890457, -0.17338328063488007, -0.47299009561538696, 0.09825734794139862, -0.09769673645496368, 0.049953438341617584, 0.07302194833755493, -0.05395957827568054, -0.030119620263576508, 0.1762516051530838, -0.026662226766347885, -0.27435311675071716, -0.22396695613861084, -0.23428304493427277, 0.17358669638633728, 0.21850024163722992, 0.07070616632699966, -0.3444947302341461, -0.029409214854240417, -0.16107670962810516, 0.02487834542989731, -0.1440984457731247, -0.03856377303600311, 0.26418536901474, -0.16216622292995453, -0.0827733650803566, -0.13211017847061157, 0.03352120518684387, -0.03147970139980316, 0.031639184802770615, 0.05672578513622284, -0.0962679535150528, 0.06285838037729263, 0.2072616070508957, 0.035487186163663864, -0.1204017922282219, -0.2972506284713745, -0.005432928446680307, 0.26958566904067993, -0.11168153584003448, -0.23460859060287476, -0.03672095015645027, -0.021090678870677948, -0.09151765704154968, 0.19517552852630615, 0.007193488534539938, -0.11061285436153412, 0.13539090752601624, 0.21881307661533356, -0.013655216433107853, -0.529211163520813, 0.023751256987452507, 0.09807765483856201, -0.04247496649622917, -0.017960431054234505, -0.0025550266727805138, 0.07946053892374039, -0.03714025765657425, 0.019818637520074844, -0.03241034224629402, 0.06795691698789597, 0.02475917339324951, -0.4822089970111847, 0.39282307028770447, -0.07921720296144485, 0.08767858147621155, -0.5169422626495361, 0.3493504524230957, -0.6518890261650085, 0.36165332794189453, 0.23446868360042572, 0.08063122630119324, -0.209684818983078, -0.16021651029586792, 0.21850259602069855, -0.5527234673500061, -0.37370216846466064, -0.058762867003679276, 0.36326178908348083, -0.0569041408598423, 0.34090980887413025, 0.22779202461242676, 0.18168342113494873, 0.19571453332901, -0.0350135900080204, -0.016217142343521118, 0.10473055392503738, 0.2101440727710724, -0.03320947289466858, -0.463593453168869, 0.6684073209762573, -0.08689703047275543, -0.04194730892777443, -0.5948511362075806, 0.23589971661567688, -0.09853866696357727, -0.1229790523648262, -0.37265151739120483, 0.589988112449646, -0.24231138825416565, -0.34312334656715393, -0.056916020810604095, -0.11356277763843536, -0.4362523555755615, 0.10657116770744324, 0.1560443937778473, -0.29276129603385925, -0.17597301304340363, 0.14414960145950317, 0.37772947549819946, 0.056576505303382874, -0.16731539368629456, 0.2975497841835022, -0.038739658892154694, -0.034862976521253586, -0.5330117344856262, -0.13102096319198608, -0.05330929160118103, -0.08841757476329803, -0.0013141592498868704, -0.21631091833114624, 0.3516053259372711, 0.1323295533657074, 0.36384549736976624, 0.2976021468639374, 0.5307263731956482, -0.27696382999420166, -0.03942026197910309, 0.23169614374637604, -0.0460401214659214, 0.5612507462501526, -0.24850021302700043, -0.3741980791091919, -0.2756357789039612, -0.2895362675189972, 0.2642488181591034, 0.01772867888212204, -0.19920454919338226, 0.022421419620513916, -0.19291464984416962, -0.19489669799804688, 0.2118959277868271, -0.07372797280550003, 0.05385133996605873, 0.32634204626083374, 0.11523817479610443, 0.21390360593795776, -0.14400933682918549, 0.023820925503969193, 0.04167592525482178, -0.14170078933238983, -0.04558512941002846, 0.08680234104394913, -0.28489071130752563, 0.019887413829565048, -0.2841236889362335, 0.1974448412656784, -0.06713085621595383, -0.08788277208805084, -0.8812106847763062, 0.1605100780725479, 0.1998186856508255, 0.19737611711025238, -0.05351074039936066, 0.02859938144683838, -0.665164589881897, -0.04931929334998131, -0.12030766159296036, 0.18064038455486298, 0.1449682116508484, 0.1768585443496704, 0.030894534662365913, -0.05209387093782425, -0.3022521734237671, 0.2632993161678314, -0.17473743855953217, -0.1151852011680603, 0.13974450528621674, -0.05972472205758095, 0.0009138128953054547, 0.2411128282546997, -0.22950683534145355, -0.01368152629584074, -0.044975850731134415, 0.05311695486307144, 0.14902828633785248, -0.18370705842971802, 0.1841721385717392, 0.034894295036792755, 0.15075184404850006, 0.04828720539808273, -0.009749671444296837, 0.2541172206401825, -0.11661096662282944, -0.2160419225692749, 0.17800182104110718, 0.05518558248877525, 0.2026483416557312, -0.12553085386753082, 0.235793337225914, 0.07513084262609482, -0.46196600794792175, -0.1583746373653412, -0.03875037282705307, 0.02181371860206127, 0.10467828065156937, 0.12449534237384796, -0.43369725346565247, -0.07919412851333618, -0.15177775919437408, -0.09766799211502075, -0.16172869503498077, -0.14766062796115875, -0.01503103505820036, -0.03629560396075249, -0.10508402436971664, -0.016496947035193443, 0.007944722659885883, 0.17828339338302612, -0.28797298669815063, -0.13841475546360016, 0.002301931381225586, 0.22760657966136932, 0.10308694839477539, -0.03859700262546539, 0.09897328168153763, -0.10154447704553604, -0.02240276150405407, 0.10627270489931107, -0.03735240176320076, -0.21852697432041168, -0.02837679721415043, 0.12244881689548492, 0.09423089772462845, -0.11132325977087021, -0.0644230842590332, -0.0517023503780365, -0.0681937038898468, 0.06461773812770844, -0.12668094038963318, -0.23909611999988556, -0.22773019969463348, -0.20273751020431519, 0.24751126766204834, 0.08934382349252701, 0.2600342035293579, -0.07010670751333237, 0.05098468437790871, 0.006578714586794376, -0.43132370710372925, 0.11580236256122589, 0.10687676817178726, -0.004339294042438269, 0.05301063507795334, 0.023579394444823265, -0.11392267048358917, -0.23539984226226807, 0.16410060226917267, 0.28790050745010376, 0.12524321675300598, -0.08853787183761597, -0.22988149523735046, -0.13453707098960876, -0.002261113841086626, -0.1755497306585312, 0.09116087108850479, 0.16324907541275024, 0.09522013366222382, -0.1123293936252594, -0.07294684648513794, 0.3405233323574066, 0.05239150673151016, 0.05503847450017929, 0.14680860936641693, -0.07321751862764359, -0.12181882560253143, -0.0770118236541748, -0.17339655756950378, -0.09822285175323486, 0.23999249935150146, 0.09516288340091705, 0.07987488061189651, -0.3951164782047272, 0.033450447022914886, -0.07302211225032806, 0.20074336230754852, -0.16142243146896362, 0.02088642492890358, 0.22344854474067688, -0.008042926900088787, 0.14393474161624908, -0.003948204219341278, -0.25138628482818604, -0.04044782742857933, 0.1471119523048401, -0.23673009872436523, -0.04139234870672226, 0.22611679136753082, -0.22557786107063293, -0.14597591757774353, 0.21107643842697144, -0.0680643692612648, 0.09166078269481659, 0.07466311007738113, 0.22042454779148102, -0.014614727348089218, -0.08850573748350143, 0.05570249259471893, -0.004187184385955334, 0.13349750638008118, -0.06939581036567688, -0.21476471424102783, 0.39580729603767395, 0.24904181063175201, 0.012130161747336388, 0.06928003579378128, -0.10263051092624664, -0.006529137026518583, -0.019156595692038536, 0.10218773037195206, -0.191132053732872, -0.06736338138580322, -0.26194530725479126, -0.13146819174289703, 0.5866493582725525, -0.15525707602500916, -0.13694171607494354, -0.4483235776424408, 0.2135084718465805, -0.08410709351301193, -0.21831852197647095, -0.14881138503551483, -0.03399885073304176, -0.44145581126213074, 0.11199351400136948, -0.1406969279050827, -0.18376195430755615, -0.07965179532766342, 0.15243315696716309, 0.0551564022898674, 0.08221542090177536, 0.027428949251770973, -0.6826743483543396, -0.30737558007240295, -0.08845574408769608, 1.057620882987976, 0.735507607460022, 0.2642955183982849, -0.9029178619384766, -0.45565104484558105, -0.23698267340660095, -0.2270391583442688, 0.21339718997478485, 0.05311707407236099, 0.19357866048812866, 0.0648600310087204, -0.3387477397918701, -0.010025544092059135, -0.0027691691648215055, -0.17135089635849, -0.046880267560482025, 0.020193319767713547, -0.21032589673995972, 0.2690173089504242, 0.00487276678904891, -0.21035140752792358, -0.047447290271520615, -0.40567317605018616, 0.29896900057792664, -0.020241664722561836, 0.2837463617324829, -0.07899034023284912, -0.10676440596580505, 0.12683922052383423, 0.01595827005803585, 0.07365503907203674, -0.17387862503528595, 0.18455348908901215, 0.05726860836148262, 0.15552887320518494, 0.34351739287376404, -0.05542897805571556, 0.08938393741846085, 0.12188807874917984, -0.376229852437973, -0.37254825234413147, -0.055474065244197845, 0.08021101355552673, 0.32976630330085754, -0.19109271466732025, 0.02303198352456093, 0.10993441194295883, -0.16464091837406158, -0.41560566425323486, -0.05305369570851326, -0.1462097465991974, -0.24059942364692688, -0.14468124508857727, -0.12770260870456696, 0.3608631193637848, -0.039258506149053574, 0.3577425479888916, 0.28774043917655945, -0.2162237912416458, 0.35146263241767883, -0.1948474943637848, 0.12168480455875397, -0.16221868991851807, -0.02612633816897869, -0.34303802251815796, 0.41813039779663086, -0.18276844918727875, -0.16011449694633484, 0.23565877974033356, 0.39833465218544006, -0.02178618684411049, -0.12183352559804916, 0.32333725690841675, -0.08441619575023651, -0.05462506413459778, -0.2818773090839386, -0.10742644965648651, -0.42600956559181213, -0.5525227785110474, 0.062048494815826416, -0.3138725757598877, 0.28966158628463745, -0.8431515097618103, -0.22454430162906647, -0.5371273159980774, 0.024697180837392807, -0.03272073715925217, 0.3227007985115051, -0.41531649231910706, -0.1267659217119217, -0.770971953868866, -0.11506551504135132, -0.31931084394454956, 0.042288050055503845, -0.4103773236274719, 0.5735974907875061, -0.5597561597824097, 0.2420823872089386, -0.2390110194683075, -0.576134979724884, -0.5939808487892151, 0.36942967772483826, 0.27934664487838745, -0.5534507632255554, 0.45012354850769043, -0.11976609379053116, 0.5712200999259949, 0.11088300496339798, 0.6609520316123962, 0.05872778221964836, 0.0736977681517601, 0.08572150021791458, 0.08927641063928604, 0.16342125833034515, -0.028817255049943924, 0.1285255402326584, 0.12447953224182129, -0.3899407684803009, 0.3912016451358795, -0.15607881546020508, 0.24491463601589203, -0.12655209004878998, 0.2803850471973419, 0.2542741000652313, 0.07953976839780807, -0.028320955112576485, 0.3046807050704956, -0.04419488459825516, -0.051193807274103165, -0.450161337852478, -0.23163267970085144, -0.06810128688812256, 0.11792440712451935, -0.02298145368695259, 0.15864524245262146, 0.32093706727027893, 0.014642918482422829, -0.21723221242427826, 0.454630047082901, -0.09063214063644409, 0.5404688715934753, -0.08453274518251419, -0.13745468854904175, 0.18185563385486603, 0.09429926425218582, 0.18062905967235565, -0.22839100658893585, 0.15317119657993317, 0.23157331347465515, -0.2069748193025589, -0.09285949915647507, -0.1559499204158783, 0.3753696084022522, 0.07863745093345642, -0.1172470822930336, 0.3185264468193054, -0.26096388697624207, -0.298567533493042, 0.11457545310258865, -0.2465595006942749, -0.03690145164728165, 0.3730311393737793, 0.24604234099388123, 0.22579488158226013, -0.10937320441007614, 0.011340395547449589, 0.308428555727005, -0.3305662274360657, -0.22267553210258484, -0.22457830607891083, 0.13229751586914062, -0.3821117877960205, -0.23424722254276276, 0.44633808732032776, 0.24173419177532196, 0.13940231502056122, -0.2803153693675995, -0.14640673995018005, -0.09109478443861008, 0.22947895526885986, 0.14813074469566345, 0.011301537044346333, -0.28017744421958923, 0.1715019941329956, 0.08614401519298553, -0.3836408853530884, -0.13638606667518616, -0.06887086480855942, -0.38735029101371765, -0.14879558980464935, -0.2268139272928238, -0.2841823101043701, 0.17393995821475983, 0.07248656451702118, 0.08060568571090698, 0.051347170025110245, 0.6643681526184082, -0.5636729001998901, -0.1899012327194214, -0.2286454290151596, -0.2789899408817291, 0.15124347805976868, -0.21841029822826385, -0.04557710513472557, -0.157399982213974, 0.36995935440063477, 0.29512351751327515, -0.34101271629333496, 0.2776402235031128, -0.694623589515686, 0.18703576922416687, -0.012919246219098568, -0.2222442775964737, 0.39273801445961, 0.3971990942955017, -0.06157587096095085, -0.14673234522342682, 0.007999418303370476, 0.03817534074187279, 0.10830727964639664, 0.0019028573296964169, -0.21522821485996246, 0.2616213262081146, 0.21370527148246765, -0.16270244121551514, -0.2488248199224472, 0.027935463935136795, 0.19989238679409027, 0.2361375093460083, 0.04510819539427757, 0.20884941518306732, 0.05206732824444771, -0.11379819363355637, -0.20451252162456512, 0.34577423334121704, 0.07169120758771896, -0.07353043556213379, 0.15492360293865204, -0.0290983933955431, 0.1603996306657791, 0.4043281376361847, -0.14931762218475342, 0.02088470198214054, -0.023086151108145714, 0.04305301979184151, 0.08720199018716812, -0.29998329281806946, -0.01592846028506756, 0.10527509450912476, -0.1225617378950119, 0.06820518523454666, -0.11457967758178711, -0.2580575942993164, -0.07322882860898972, -0.11617395281791687, 0.12443472445011139, -0.04793229699134827, -0.01814153790473938, -0.2727838456630707, 0.23041124641895294, 0.329118937253952, -0.11005570739507675, -0.050461240112781525, -0.08349480479955673, -0.47766321897506714, 0.015211587771773338, -0.17542867362499237, -0.18604330718517303, -0.0463067889213562, 0.43647658824920654, -0.18553507328033447, -0.012163113802671432, 0.15484796464443207, 0.004995965864509344, 0.021452782675623894, -0.06881900131702423, -0.1930607557296753, -0.05873231217265129, 0.2889636158943176, -0.3359859883785248, -0.288133829832077, 0.4894952178001404, 0.09730242937803268, -0.12712404131889343, 0.25774481892585754, 0.3840407133102417, 0.02939506433904171, -0.27006515860557556, -0.14435039460659027, 0.323967307806015, -0.06024296581745148, 0.14104057848453522, -0.37523069977760315, -0.16207709908485413, 0.1568295955657959, -0.0019289881456643343, 0.155973419547081, -0.0004281318106222898, 0.16357682645320892, 0.2665162980556488, 0.17337413132190704, -0.023800304159522057, -0.18035532534122467, -0.06968031078577042, 0.3635915219783783, -0.1903574913740158, -0.34459343552589417, -0.2567284405231476, 0.13903802633285522, 0.10681847482919693, -0.15294013917446136, 0.21589823067188263, 0.05072318762540817, -0.1900051236152649, -0.16182976961135864, -0.03422889858484268, 0.20530195534229279, -0.2661195993423462, -0.07207944244146347, 0.23251302540302277, 0.06631819903850555, 0.08546831458806992, -0.1379982978105545, 0.1952730119228363, 0.09603423625230789, 0.13468626141548157, -0.11653417348861694, -0.3302997350692749, -0.009859830141067505, -0.07065784186124802, -0.35051169991493225, -0.15248258411884308, -0.05776875838637352, 0.17346738278865814, -0.42560166120529175, -0.008784649893641472, -0.1700705736875534, -0.00670176325365901, 0.07324422150850296, -0.054039694368839264, -0.643061101436615, 0.0992758646607399, -0.22230710089206696, -0.2353246659040451, -0.07391297072172165, 0.7236177325248718, 0.5241518020629883, 0.9590860605239868, 0.3777134418487549, 0.03990669175982475, -0.6044842600822449, -0.08160115033388138, -0.3755769729614258, -0.3960650563240051, 0.050900720059871674, -0.3201104700565338, 0.07622361183166504, 0.37633413076400757, -0.20611916482448578, 0.013440392911434174, 0.2453075796365738, 0.34890496730804443, 0.25985217094421387, 0.09967497736215591, 0.16214913129806519, 0.4085632562637329, -0.19140808284282684, -0.32190147042274475, 0.43835005164146423, 0.034851111471652985, -0.08179211616516113, 0.3596973717212677, 0.022757723927497864, 0.3787851631641388, 0.049147434532642365, 0.10608632862567902, 0.2874071002006531, 0.037365466356277466, -0.03048979677259922, 0.5960103869438171, 0.4031350910663605, 0.045517776161432266, 0.22743763029575348, 0.21082936227321625, -0.02781343273818493, 0.3068045675754547, 0.14157570898532867, 0.08382207155227661, 2.8319649572949857e-05, -0.05118980258703232, 0.10803956538438797, 0.4080847203731537, 0.3371764123439789, -0.031807225197553635, -0.11537586897611618, -0.23004502058029175, -0.03756261244416237, 0.3905959725379944, 0.39615219831466675, -0.07096787542104721, -0.08385386317968369, -0.04088541120290756, 0.121894471347332, 0.6809779405593872, 0.3713572323322296, 0.26957377791404724, 0.19606545567512512, 0.3446098566055298, -0.14798611402511597, -0.45884472131729126, -0.5624257922172546, 0.22099119424819946, 0.41794952750205994, 0.051926951855421066, -0.6278878450393677, -0.5980245471000671, -0.6614624857902527, 0.4191170632839203, 0.22318081557750702, -0.09761323779821396, 0.4133095145225525, -1.1032390594482422, 0.330858051776886, -0.2687845826148987, -0.02275472693145275, 0.3776196539402008, -0.11676633358001709, 0.010375051759183407, -0.1744459718465805, 0.08831718564033508, 0.5495520830154419, 0.5068926215171814, -0.17573364078998566, -0.37048572301864624, 0.07881048321723938, 0.19013595581054688, 0.09435990452766418, 0.07891897857189178, 0.20279206335544586, 0.14024408161640167, -0.23130488395690918, -0.31660881638526917, -0.48166584968566895, -0.17413108050823212, 0.16412724554538727, -0.09564469754695892, 0.2090262621641159, -0.08216751366853714, -0.200313001871109, 0.05922890454530716, -0.15553291141986847, 0.03767377883195877, 0.28982049226760864, -0.15144549310207367, 0.36011645197868347, 0.10409475117921829, -0.26180458068847656, 0.16671258211135864, -0.2012941986322403, 0.04385837912559509, 0.047973986715078354, 0.17857365310192108, -0.20666123926639557, 0.10268393158912659, -0.08325580507516861, 0.15266230702400208, 0.2837427258491516, 0.15177802741527557, 0.07478709518909454, -0.0905844047665596, -0.08643507957458496, 0.2161996215581894, -0.005748441908508539, -0.0280552227050066, 0.36758115887641907, -0.025297818705439568, 0.09862714260816574, 0.2510739266872406, 0.2160700559616089, 0.22708529233932495, 0.43113604187965393, 0.21125555038452148, -0.09357225149869919, -0.09945441037416458, 0.06923002749681473, -0.12526758015155792, -0.33652132749557495, 0.15960797667503357, -0.09787681698799133, 0.02442885749042034, -0.03496447578072548, -0.44725874066352844, -0.17080368101596832, -0.0419447086751461, -0.02129296399652958, -0.014666472561657429, -0.39226725697517395, -0.6117469668388367, 0.11474531143903732, 0.48932790756225586, -0.3618834316730499, -0.2864281237125397, 0.6289297342300415, -0.3591557741165161, -0.4380054473876953, 0.17311444878578186, 0.17548905313014984, -0.5076352953910828, -0.5246486067771912, 0.547123908996582, -0.2759871482849121, -0.2584235668182373, 0.0017983349971473217, 0.15994839370250702, 0.1673058569431305, -0.36331048607826233, -0.37540075182914734, -0.31392908096313477, -0.17973828315734863, -0.38468310236930847, 0.5062564015388489, 0.10948009788990021, 0.20704060792922974, 0.415473997592926, -0.045506443828344345, -0.005902109667658806, 0.3203873038291931, 0.023080099374055862, 0.18486279249191284, -0.010520612820982933, -0.06334490329027176, -0.20338831841945648, 0.6452740430831909, 0.43571463227272034, 0.11616064608097076, -0.1871451735496521, -0.2441750317811966, 0.0686781108379364, 0.016768531873822212, -0.04307400435209274, 0.013740161433815956, -0.02954093925654888, 0.018961528316140175, 0.20776763558387756, 0.0037485926877707243, 0.257851243019104, -0.12981265783309937, -0.04261556640267372, -0.17652134597301483, 0.14359945058822632, 0.13214564323425293, 0.09158584475517273, -0.04124510660767555, -0.24913860857486725, 0.12309672683477402, 0.05027676746249199, -0.13633565604686737, -0.09020321071147919, -0.024217680096626282, 0.1561935842037201, 0.11636997759342194, -0.21376003324985504, -0.022263607010245323, 0.1451856791973114, -0.3203401565551758, -0.2113841325044632, -0.3849717378616333, -0.05911600589752197, -0.015648234635591507, -0.16639302670955658, 0.23011089861392975, 0.09449131041765213, 0.03877464681863785, 0.7015921473503113, 0.35593459010124207, 0.03493587300181389, 0.31108638644218445, -0.5280116200447083, 0.4104040265083313, 0.1444699764251709, -0.4158060848712921, -0.7358115911483765, -0.17167574167251587, 0.24146462976932526, -0.2730535864830017, 0.20180140435695648, -0.07925833761692047, -0.26582321524620056, 0.33083024621009827, -0.554551899433136, -0.07989836484193802, -0.030389288440346718, -0.06743660569190979, -0.3591567873954773, -0.5418597459793091, 0.23108752071857452, -0.0662408098578453, -0.08021506667137146, 0.36976152658462524, -0.20453989505767822, -0.10766628384590149, 0.23610717058181763, 0.09309107810258865, -0.2407616376876831, -0.028379663825035095, 0.07878002524375916, 0.27800849080085754, -0.1937137246131897, 0.040027912706136703, -0.11914978176355362, 0.5518620610237122, -0.06107530742883682, 0.017198890447616577, 0.10795595496892929, -0.15721778571605682, 0.16564516723155975, 0.239732563495636, -0.23046629130840302, 0.13111548125743866, 0.01961556263267994, 0.10321401059627533, 0.2507224678993225, 0.25397250056266785, -0.2357073426246643, -0.1893654465675354, 0.04321078956127167, 0.048758428543806076, 0.14334727823734283, -0.15988048911094666, 0.08053328841924667, 0.1891622543334961, -0.10688477009534836, 0.021155107766389847, 0.23774860799312592, -0.31382229924201965, -0.011247851885855198, -0.07926403731107712, -0.03414979204535484, -0.18616241216659546, 0.11556626856327057, -0.2362348586320877, 0.15300390124320984, -0.17160619795322418, -0.21129459142684937, -0.21069476008415222, -0.1338423192501068, -0.15971924364566803, -0.2845234274864197, -0.11346006393432617, -0.639076828956604, 0.06917881220579147, -0.23188883066177368, -0.43096765875816345, -0.13684025406837463, -0.03530311584472656, 0.3178772032260895, 0.23227636516094208, -0.03714791312813759, 0.047204773873090744, 0.2857065200805664, 0.14643007516860962, -0.38590550422668457, -0.32775431871414185, -0.5126234292984009, 0.16796495020389557, -0.39778414368629456, -0.33091434836387634, -0.03730843961238861, 0.01051864679902792, -0.1583472490310669, -0.4105958044528961, 0.35162878036499023, -0.14955829083919525, 0.11820518970489502, 0.27288898825645447, -0.04809850826859474, -0.058052703738212585, 0.17792578041553497, -0.15256649255752563, -0.03308852016925812, -0.2667618989944458, -0.0755373165011406, -0.045315876603126526, -0.3077065944671631, 0.13803574442863464, -0.10196079313755035, 0.05821709334850311, 0.07435997575521469, -0.18284082412719727, -0.3549850285053253, 0.24442490935325623, 0.012854397296905518, 0.08204061537981033, 0.04159487783908844, 0.3217548727989197, 0.4610287547111511, -0.38827258348464966, -0.015262208878993988, 0.36807507276535034, 0.08001747727394104, -0.031390927731990814, -0.20471523702144623, 0.09098145365715027, -0.16930639743804932, -0.25746676325798035, 0.27637380361557007, 0.11726070940494537, 0.12349164485931396, -0.17888033390045166, 0.2641541361808777, -0.20436179637908936, 0.12208743393421173, -0.23938454687595367, -0.08332519978284836, -0.05322711914777756, 0.28401947021484375, 0.35985592007637024, -0.09245436638593674, 0.01227821409702301, 0.03838909789919853, -0.04258790612220764, -0.25097694993019104, 0.07898875325918198, -0.09517733752727509, 0.0899011492729187, -0.4135127365589142, -0.9700131416320801, 0.6862258315086365, 0.5053145289421082, 0.576339066028595, 0.25517311692237854, 0.5898995995521545, -0.28745925426483154, -0.01928972639143467, -0.5015745759010315, 0.12821349501609802, -0.4199165403842926, -0.41143345832824707, 0.5085309743881226, -0.18678247928619385, -0.029179783537983894, -0.8587630391120911, 0.20291300117969513, 0.028057361021637917, 0.4885340631008148, 0.02661566622555256, 0.4380055367946625, -0.2534538805484772, -0.193226158618927, 0.03253279998898506, 0.10209356993436813, 0.06295247375965118, -0.09565947949886322, -0.10688696056604385, 0.4076153337955475, -0.01603161357343197, 0.05254072695970535, -0.01666073501110077, 0.07136542350053787, -0.0052962894551455975, 0.21415987610816956, 0.1803516447544098, -0.25751426815986633, 0.07877908647060394, -0.11597113311290741, -0.20801393687725067, 0.16036897897720337, 0.12275239080190659, 0.1118139997124672, -0.03447074815630913, 0.09844344109296799, 0.2843983471393585, -0.221067875623703, 0.15230678021907806, 0.4327142536640167, 0.12249353528022766, -0.31475770473480225, -0.21898461878299713, -0.046132639050483704, 0.04762960225343704, -0.2509734332561493, 0.04296059161424637, 0.1713327318429947, 0.11919287592172623, -0.1312299519777298, 0.12511160969734192, 0.14103256165981293, -0.06900258362293243, 0.2676302194595337, 0.10537417978048325, -0.3038924038410187, 0.0732835903763771, 0.03987663984298706, -0.001634378801099956, -0.30600985884666443, -0.20481659471988678, 0.2999851405620575, 0.19902466237545013, -0.26351094245910645, 0.65970379114151, 0.1321714222431183, -0.4961163103580475, 0.16110044717788696, 0.28733569383621216, -0.041344791650772095, 0.673537015914917, -0.7326961755752563, 0.6376420855522156, 0.522019624710083, 0.0821060910820961, -0.3788730800151825, 0.06179637834429741, 0.6006621718406677, -0.2325834184885025, 0.3043328821659088, -0.03633340075612068, 0.40654271841049194, 0.5794053673744202, 0.7807769179344177, -0.018290411680936813, -0.6976147890090942, -0.29326456785202026, 0.11833813041448593, -0.3314315974712372, -0.3720395565032959, -0.032861046493053436, -0.09270523488521576, 0.03307938948273659, -0.20127518475055695, -0.2563767433166504, 0.3791630268096924, -0.11519545316696167, 0.10640675574541092, -0.05536122992634773, 0.20185589790344238, 0.2905082702636719, -0.3123767375946045, -0.14925752580165863, 0.0932675451040268, 0.031558264046907425, -0.13700173795223236, 0.12374652922153473, 0.15554727613925934, -0.05710294842720032, 0.1463731974363327, -0.5053857564926147, 0.15688014030456543, 0.0429740846157074, 0.07939696311950684, -0.021896639838814735, -0.33381348848342896, 0.08994369953870773, -0.26339757442474365, -0.12911401689052582, 0.2304355651140213, -0.041803523898124695, -0.01496405154466629, 0.06563073396682739, 0.19150306284427643, 0.23834238946437836, -0.26006296277046204, -0.3216772973537445, -0.21814876794815063, -0.884989857673645, 0.32009005546569824, 0.032551154494285583, -0.22629602253437042, -0.19571633636951447, -0.07669877260923386, 0.02666117437183857, -0.06719587743282318, 0.08362311124801636, -0.9874176979064941, -0.012212666682898998, -0.09204418212175369, 0.14402350783348083, -0.38401469588279724, 0.23782072961330414, 0.37286141514778137, -0.2535477578639984, 0.04382164776325226, -0.3786877393722534, -0.20930998027324677, -0.8206831812858582, -0.18067599833011627, -0.5833907127380371, 0.12610691785812378, -0.6277846693992615, 0.22607672214508057, -0.7140159010887146, 0.7589550018310547, -0.0806662067770958, -0.16267818212509155, 1.10197913646698, -0.297876238822937, 0.6051183938980103, 0.14676597714424133, -0.09615933150053024, -0.11261618137359619, 0.334263414144516, 0.1512470543384552, -0.23770949244499207, -0.3255157172679901, -0.06057976186275482, 0.02915952168405056, -0.19565227627754211, 0.24401795864105225, -0.11828270554542542, -0.0886613205075264, -0.38256341218948364, 0.143519788980484, 0.3480828106403351, -0.17151857912540436, -0.058554671704769135, -0.1663246601819992, 0.22621914744377136, -0.22893327474594116, -0.23725548386573792, 0.14998450875282288, 0.02416667714715004, 0.19038406014442444, -0.20395120978355408, 0.21314933896064758, 0.26962387561798096, -0.2587820291519165, -0.19947324693202972, -0.23807956278324127, 0.10821381956338882, -0.10685212165117264, -0.14827200770378113, 0.2240595519542694, 0.006148703396320343, 0.2206745147705078, -0.1876056045293808, 0.21379069983959198, 0.2807105481624603, -0.2116512805223465, 0.09232349693775177, 0.08337380737066269, -0.015039940364658833, 0.2993388772010803, 0.4905296266078949, 0.11910516768693924, -0.14707286655902863, -0.22687357664108276, 0.14141756296157837, -0.3056589663028717, -0.4536421298980713, -0.05209765210747719, 0.06205543130636215, -0.059384360909461975, -0.20512697100639343, -0.05345545709133148, -0.2768215537071228, -0.2328542321920395, -0.6849188804626465, -0.12416959553956985, -0.1811324805021286, -0.5651359558105469, -0.27341485023498535, -0.09603332728147507, -0.42059552669525146, -0.32080894708633423, 0.0022410061210393906, 0.5368334650993347, 0.4709837734699249, 0.39453044533729553, 0.549176037311554, -0.36923375725746155, 0.3586156666278839, 0.591740071773529, 0.19521242380142212, -0.016735075041651726, 0.4981914162635803, -0.27436113357543945, 0.44180142879486084, -0.4179334044456482, -0.006545540876686573, -0.27445483207702637, -0.06170833110809326, -0.19391953945159912, -0.17541037499904633, 0.3461756408214569, 0.22047142684459686, 0.32159391045570374, -0.46754714846611023, 0.16257502138614655, 0.30918800830841064, -0.25614818930625916, -0.08857885748147964, -0.07205947488546371, 0.20135147869586945, -0.07520946860313416, -0.026250850409269333, 0.691065788269043, 0.04816531762480736, 0.09301470965147018, 0.07515479624271393, 0.07585736364126205, 0.09175041317939758, 0.5777647495269775, -0.004635733552277088, 0.06620046496391296, 0.26654624938964844, -0.012906784191727638, -0.1903594434261322, 0.17084385454654694, 0.09267357736825943, 0.17385031282901764, 0.003940500784665346, 0.023516949266195297, 0.10235179960727692, 0.3444722294807434, 0.0593256875872612, 0.10052938014268875, -0.12100303173065186, 0.14834631979465485, 0.28723326325416565, -0.19018931686878204, -0.24030572175979614, -0.4334854781627655, 0.5267788171768188, -0.18111737072467804, -0.2866683304309845, 0.2540349066257477, -0.24506795406341553, 0.1475607454776764, -0.049677133560180664, -0.0398000106215477, 0.676142692565918, -0.4435313940048218, 0.77338045835495, -0.46097880601882935, -0.21902543306350708, -0.28577977418899536, -0.18556950986385345, 0.35702967643737793, 0.03626305237412453, -0.016215961426496506, 0.29351165890693665, 0.4288376271724701, 0.7570493221282959, -0.18863257765769958, 0.3097166419029236, -0.8209814429283142, 0.48981043696403503, 0.39363232254981995, 0.3302229046821594, 0.05522419884800911, 0.045394621789455414, 0.15986979007720947, -0.026760200038552284, 0.18620765209197998, -0.1992390751838684, -0.2786199748516083, 0.027743617072701454, -0.010944236069917679, -0.041704174131155014, 0.06112021580338478, 0.23568563163280487, 0.3226384222507477, -0.44754523038864136, 0.08505095541477203, 0.17266251146793365, -0.04558562859892845, -0.033275410532951355, -0.1269485056400299, 0.27834734320640564, -0.16909059882164001, -0.12239328771829605, -0.0427124984562397, 0.26416489481925964, 0.3319624364376068, -0.27211400866508484, 0.1363089233636856, 0.16683809459209442, -0.04174843430519104, -0.005885873455554247, 0.06599140912294388, 0.5912197232246399, -0.09604386240243912, -0.15066811442375183, 0.2586005628108978, 0.10272648185491562, 0.04527673125267029, -0.09794499725103378, 0.04499906674027443, 0.017162177711725235, 0.6091368794441223, 0.14075836539268494, 0.08085888624191284, -0.17580516636371613, -0.04097122699022293, 0.03150478005409241, -0.26414284110069275, -0.047548551112413406, -0.09304788708686829, 0.2801160514354706, -0.021134741604328156, -0.052885182201862335, -0.42576855421066284, -0.2732035219669342, -0.2405787855386734, 0.46619269251823425, -0.14872020483016968, 0.355335533618927, -0.40145114064216614, -0.5151293873786926, -0.7615469694137573, -0.12091034650802612, -0.04836457967758179, -0.23046547174453735, 0.3559243679046631, 0.2869518995285034, -0.44128191471099854, -0.050015389919281006, 0.1681065559387207, 0.4823986291885376, -0.11955636739730835, 0.3069649934768677, -0.028011441230773926, -0.1917715072631836, 0.30598050355911255, -0.4455450773239136, 0.41890019178390503, 0.4994143843650818, -0.1365121603012085, 0.1975109577178955, 0.49860215187072754, 0.8243123888969421, 0.9170854091644287, 0.9182475805282593, -0.8472490310668945, 0.12493976205587387, 0.019999999552965164]}