{"version": "0.5.1", "metadata": {"date": {"year": 2023, "month": 4, "day": 30, "hour": 0, "minute": 2, "second": 14}, "loudness": -10.284065246582031, "gain": 0.6196898227683004, "name": null, "modeled_by": null, "gear_type": null, "gear_make": null, "gear_model": null, "tone_type": null}, "architecture": "WaveNet", "config": {"layers": [{"input_size": 1, "condition_size": 1, "head_size": 4, "channels": 8, "kernel_size": 3, "dilations": [1, 2, 4, 8, 16, 32, 64], "activation": "Tanh", "gated": false, "head_bias": false}, {"input_size": 8, "condition_size": 1, "head_size": 1, "channels": 4, "kernel_size": 3, "dilations": [128, 256, 512, 1, 2, 4, 8, 16, 32, 64, 128, 256, 512], "activation": "Tanh", "gated": false, "head_bias": true}], "head": null, "head_scale": 0.02}, "weights": [0.09017157554626465, 0.4889355003833771, -0.9143510460853577, -0.6720564365386963, -0.46802330017089844, 0.1128174364566803, -0.147470623254776, 0.8539630174636841, -0.0677388459444046, 0.1859673261642456, -0.24884657561779022, -0.11068123579025269, -0.3233807384967804, -0.16372154653072357, -0.006028256379067898, 0.14316056668758392, 0.1199747771024704, 0.19555586576461792, -0.004960414953529835, -0.056507259607315063, 0.14385886490345, 0.2993687689304352, -0.014323021285235882, 0.09972608834505081, -0.13794179260730743, 0.02368052676320076, 0.23357030749320984, -0.08548493683338165, -0.12541265785694122, -0.1261066496372223, -0.2158300280570984, 0.14163364470005035, 0.009155537001788616, -0.23786339163780212, -0.06723156571388245, 0.04261009395122528, -0.00030265876557677984, 0.06513217836618423, -0.15247344970703125, -0.023616287857294083, 0.11842197924852371, -0.3413807451725006, -0.0893213227391243, -0.08369162678718567, -0.3797690272331238, -0.223053440451622, 0.2467060089111328, 0.3147258460521698, 0.013234992511570454, -0.12343224138021469, -0.07844091951847076, 0.12129268050193787, 0.24012212455272675, 0.2661009430885315, 0.26106128096580505, -0.23034259676933289, -0.028103454038500786, -0.07469569146633148, -0.2797573208808899, -0.18491175770759583, -0.07412224262952805, 0.15342672169208527, -0.03509819880127907, 0.23419959843158722, 0.04466777294874191, 0.0564117506146431, 0.1790064126253128, -0.020606085658073425, 0.20273545384407043, 0.3623221218585968, -0.23633837699890137, -0.13321834802627563, -0.057017575949430466, 0.25639089941978455, 0.22420956194400787, 0.3163599371910095, -0.08375478535890579, -0.2599790394306183, -0.15487727522850037, -0.05790196731686592, -0.16025693714618683, 0.3983692228794098, 0.1522224247455597, -0.1138172447681427, 0.4284057319164276, -0.11654046177864075, -0.13290856778621674, -0.4976407289505005, 0.1588226854801178, -0.21402284502983093, -0.31937092542648315, 0.18289947509765625, 0.05336965247988701, -0.319692462682724, -0.11756576597690582, -0.0706927627325058, 0.41851484775543213, -0.02897701784968376, -0.24651001393795013, -0.5109862685203552, 0.289936900138855, 0.23409655690193176, 0.31404292583465576, -0.13258054852485657, -0.28806543350219727, 0.07079221308231354, -0.27828285098075867, -0.3113694190979004, -0.17590372264385223, 0.09745337069034576, 0.08021655678749084, 0.28990328311920166, -0.18419663608074188, 0.3418489992618561, 0.30908602476119995, -0.23501908779144287, 0.10306885838508606, 0.17178340256214142, -0.04219145327806473, -0.07741963118314743, -0.05372229963541031, 0.09428895264863968, 0.0388108529150486, 0.2201274335384369, -0.3090239465236664, -0.28042730689048767, -0.22232359647750854, -0.036208584904670715, 0.06872934848070145, 0.015738938003778458, -0.12231477349996567, 0.06876297295093536, -0.3993883728981018, -0.005061632487922907, 0.12319178134202957, 0.25393733382225037, 0.005753707140684128, -0.04032128304243088, 0.3128766417503357, 0.12818625569343567, 0.16290628910064697, 0.39948970079421997, 0.18354003131389618, 0.011842934414744377, -0.42259448766708374, -0.08055376261472702, 0.0791904628276825, 0.24389919638633728, -0.14947792887687683, -0.13092811405658722, -0.4659864902496338, -0.16904154419898987, -0.22396445274353027, -0.13950812816619873, 0.19069324433803558, -0.2415524125099182, 0.24375663697719574, -0.10823457688093185, 0.0012300264788791537, -0.20405767858028412, -0.10225466638803482, 0.0023001092486083508, -0.3050764203071594, -0.23234768211841583, 0.018279382959008217, -0.1148337870836258, -0.14467021822929382, 0.03476320579648018, -0.08185435831546783, 0.01650383695960045, 0.25299718976020813, -0.17563128471374512, 0.15530318021774292, 0.029091250151395798, -0.06080326437950134, 0.1879538595676422, 0.01811850257217884, -0.14765550196170807, 0.262170672416687, -0.0666176974773407, 0.15957540273666382, -0.1736740618944168, 0.03764874488115311, -0.08687794208526611, 0.2261965274810791, -0.028184596449136734, -0.19077926874160767, 0.08604814857244492, -0.2669583261013031, -0.02732597105205059, 0.30021029710769653, 0.21957015991210938, -0.03310425952076912, -0.12504705786705017, -0.22813308238983154, -0.22400203347206116, 0.054462239146232605, 0.1723938137292862, 0.022909194231033325, -0.13551385700702667, 0.02029971033334732, 0.10662071406841278, -0.08631911128759384, -0.14643622934818268, -0.06902390718460083, 0.21145355701446533, -0.19138023257255554, 0.12660130858421326, 0.31574776768684387, 0.024871263653039932, 0.05246243253350258, -0.27389875054359436, 0.17748096585273743, -0.23506702482700348, 0.06481964886188507, 0.004386198241263628, -0.17621254920959473, -0.21068593859672546, 0.37431344389915466, -0.34034594893455505, 0.18777185678482056, 0.4416077733039856, 0.053483132272958755, 0.012625452131032944, -0.2653098702430725, 0.1449265331029892, -0.23414845764636993, -0.22623060643672943, -0.15177859365940094, -0.06835627555847168, 0.020853878930211067, 0.2473790943622589, 0.05111187696456909, 0.30947428941726685, 0.2225271314382553, -0.17245729267597198, 0.11920329928398132, -0.1689886748790741, -0.34941574931144714, 0.2567375898361206, 0.1069413274526596, 0.345702201128006, -0.08782944828271866, -0.00808789860457182, 0.1920498162508011, -0.3865271210670471, 0.2553357779979706, -0.2348739355802536, 0.03023536317050457, -0.18984355032444, -0.03381801396608353, 0.05945966765284538, 0.4792591333389282, -0.05757485702633858, -0.28504499793052673, -0.1455712616443634, -0.2554853856563568, 0.07615558803081512, -0.002729112980887294, -0.17187967896461487, -0.22318974137306213, 0.2504372000694275, 0.14470893144607544, 0.04982515051960945, 0.3264465034008026, -0.11579815298318863, -0.03329750895500183, 0.014114616438746452, 0.387256920337677, 0.2257465124130249, -0.3697376549243927, -0.025355001911520958, -0.17303566634655, 0.03442900627851486, -0.16960252821445465, -0.48629724979400635, 0.3654870390892029, -0.2579973042011261, 0.024181995540857315, -0.053636565804481506, 0.026491239666938782, -0.12925297021865845, -0.20563416182994843, 0.29992446303367615, 0.06646250188350677, 0.07688073813915253, 0.004864199087023735, 0.05402260646224022, -0.16249574720859528, -0.06253465265035629, -0.019903559237718582, 0.1352580040693283, 0.12810707092285156, -0.1229623556137085, -0.06989245861768723, -0.28354355692863464, 0.2326110452413559, -0.05449070781469345, 0.1453634351491928, 0.007633459288626909, -0.16001363098621368, -0.08236260712146759, 0.01969742402434349, 0.1184634268283844, 0.06181870773434639, -0.2167435735464096, -0.0838220864534378, -0.05174378305673599, 0.1551334261894226, -0.024562083184719086, 0.016996705904603004, -0.09700904041528702, 0.044703930616378784, 0.0932513177394867, -0.01176560390740633, 0.015647413209080696, -0.2568722367286682, 0.07462050765752792, 0.17294694483280182, 0.08088131994009018, -0.18607334792613983, 0.20193004608154297, -0.06276959180831909, 0.05432809889316559, 0.22623997926712036, 0.3305247724056244, -0.009802429936826229, -0.0004776153655257076, 0.05963723361492157, -0.04174324497580528, -0.19004149734973907, -0.11676153540611267, 0.07078639417886734, 0.1081589013338089, -0.12189154326915741, 0.4205346703529358, 0.10033636540174484, 0.2237524539232254, 0.2824350893497467, 0.2335287183523178, -0.14431282877922058, -0.08925206959247589, -0.10256538540124893, 0.37050744891166687, -0.2742483913898468, 0.10383716225624084, 0.11307143419981003, 0.04486678168177605, -0.23140478134155273, 0.24100369215011597, -0.07845707982778549, 0.28872150182724, 0.06244106963276863, 0.1610899418592453, -0.02701362408697605, 0.2603627145290375, 0.02438088320195675, 0.35224518179893494, -0.421945184469223, 0.17466014623641968, -0.44341421127319336, -0.12624084949493408, 0.024469967931509018, 0.43016743659973145, 0.08761651068925858, 0.052381791174411774, -0.04178189858794212, -0.27213573455810547, -0.07655129581689835, -0.021714279428124428, -0.06463362276554108, 0.313646137714386, -0.43424224853515625, -0.09465857595205307, -0.06719015538692474, 0.1735004037618637, 0.21340380609035492, 0.0130657022818923, -0.23759804666042328, 0.14731921255588531, 0.31525951623916626, 0.08970367163419724, 0.18351136147975922, 0.08755408227443695, 0.3662259578704834, 0.02948363684117794, 0.025329841300845146, 0.01761494018137455, 0.04053505137562752, 0.13174186646938324, 0.05279235541820526, -0.11818431317806244, -0.1032264456152916, -0.19538266956806183, -0.165447399020195, 0.10670485347509384, 0.2996436357498169, -0.16357997059822083, -0.13533760607242584, 0.08763887733221054, 0.20267128944396973, 0.06650153547525406, 0.1868409514427185, 0.05342038348317146, 0.013037831522524357, -0.13130809366703033, 0.22040830552577972, 0.12179622054100037, -0.09050559997558594, 0.2031926065683365, -0.15324939787387848, -0.09253343194723129, 0.06011991202831268, -0.059482596814632416, -0.06767483055591583, -0.054999660700559616, -0.03257572650909424, 0.11471402645111084, 0.1713622659444809, 0.41372808814048767, 0.048126768320798874, -0.06531219184398651, 0.020882124081254005, 0.059033796191215515, 0.0030866649467498064, -0.29368144273757935, -0.10857317596673965, -0.1596207171678543, -0.14800779521465302, 0.029806124046444893, -0.14384567737579346, 0.0636131539940834, 0.3797450065612793, -0.14946597814559937, -0.22290697693824768, -0.16192379593849182, 0.18080899119377136, 0.009691133163869381, 0.17606422305107117, -0.11712434887886047, -0.24195082485675812, -0.4252120554447174, -0.2566974461078644, -0.14092782139778137, -0.06787323951721191, 0.09465023875236511, -0.19479162991046906, -0.05915665999054909, 0.07012093812227249, -0.060415323823690414, 0.4418582320213318, 0.11067838966846466, 0.14045485854148865, -0.04320149123668671, -0.263518750667572, 0.22797469794750214, 0.23953059315681458, 0.15845026075839996, -0.06495445221662521, -0.09456279128789902, -0.36368441581726074, -0.14027342200279236, -0.2562516927719116, 0.2778173089027405, 0.018369149416685104, -0.07562953233718872, 0.004480996169149876, -0.08882778882980347, -0.15622393786907196, 0.19718657433986664, 0.14804190397262573, 0.2757364511489868, 0.22282113134860992, 0.057399552315473557, 0.256980836391449, 0.1288040578365326, -0.07987987995147705, 0.35561078786849976, -0.49360623955726624, 0.09837953001260757, -0.1633814126253128, -0.038939375430345535, -0.020881636068224907, 0.16787631809711456, -0.07397843152284622, 0.148233562707901, 0.043193306773900986, 0.2157117873430252, -0.044403936713933945, -0.038396257907152176, -0.0067283641546964645, -0.010310336947441101, 0.43220436573028564, -0.8307814002037048, 1.063176155090332, -0.051765501499176025, -0.25552234053611755, -0.24246640503406525, 0.39047539234161377, 0.27176374197006226, -0.22941015660762787, 0.1458142101764679, 0.1763371080160141, 0.25860658288002014, 0.30665111541748047, -0.052419811487197876, 0.1413855105638504, 0.23035509884357452, -0.31452134251594543, 0.30676406621932983, -0.15561147034168243, 0.18044023215770721, -0.2016315907239914, -0.14519158005714417, 0.07254505157470703, 0.05944966897368431, -0.05322353169322014, 0.012174724601209164, 0.22755737602710724, 0.14078254997730255, 0.14544029533863068, -0.1534261405467987, 0.1422506868839264, -0.48669445514678955, -0.0649288222193718, -0.2880938649177551, 0.593606173992157, -0.13529740273952484, 0.05577819049358368, -0.053454507142305374, 0.35423827171325684, 0.36611947417259216, -0.31657901406288147, -0.1573999524116516, -0.5534838438034058, -0.023223642259836197, 0.14244671165943146, -0.10559125244617462, -0.3671823740005493, 0.256049782037735, -0.2831619381904602, 0.11803194880485535, -0.37493595480918884, -0.34985291957855225, 0.06231077015399933, 0.2341160923242569, -0.31830209493637085, 0.049570661038160324, -0.04198174923658371, 0.4379798471927643, -0.558113157749176, -0.3092131018638611, 0.32896360754966736, -0.10445661842823029, 0.11205016076564789, 0.16622492671012878, -0.08584722876548767, -0.12021369487047195, 0.3860515356063843, 0.06425464153289795, -0.354525089263916, -0.08023127913475037, -0.12429070472717285, 0.0908021554350853, -0.2010987251996994, 0.150436133146286, -0.00024805270368233323, -0.06466133147478104, 0.2173016518354416, 0.40106630325317383, -0.0051351748406887054, 0.05606464296579361, -0.15200895071029663, 0.005261681042611599, -0.007094332482665777, 0.19481292366981506, -0.31087735295295715, -0.0648738294839859, 0.24229688942432404, 0.11516458541154861, -0.05761592835187912, -0.03727941960096359, -0.38179120421409607, 0.0481424443423748, -0.15334829688072205, 0.09869755804538727, 0.056439150124788284, 0.1152927353978157, -0.012888560071587563, 0.11845728754997253, -0.16214998066425323, 0.006901305168867111, -0.5171465873718262, 0.4995304346084595, 0.005765075795352459, 0.19408206641674042, -0.12272427976131439, 0.2623234689235687, -0.02243484929203987, 0.22894491255283356, -0.1578083038330078, -0.1806963086128235, -0.11950074881315231, 0.07299385964870453, -0.2127411961555481, 0.31155696511268616, 0.15377558767795563, 0.1633133888244629, -0.24452833831310272, 0.10158906877040863, -0.05047208443284035, -0.12380894273519516, 0.1433764398097992, 0.19581028819084167, 0.09649457782506943, 0.2512262463569641, 0.18211393058300018, 0.23872344195842743, 0.15690258145332336, -0.20870298147201538, -0.2435682713985443, 0.14949925243854523, 0.0648021474480629, -0.1261974722146988, -0.11330596357584, 0.27390819787979126, 0.28832510113716125, -0.1874852031469345, -0.38483577966690063, 0.1303422451019287, 0.14744868874549866, -0.15686137974262238, -0.08428092300891876, 0.2105896770954132, -0.18184411525726318, 0.028923796489834785, -0.0068898312747478485, -0.17579558491706848, -0.28768330812454224, 0.11518130451440811, -0.17963677644729614, -0.044484831392765045, 0.0802551805973053, 0.17489536106586456, 0.03641404211521149, 0.20973795652389526, -0.22116932272911072, 0.22518594563007355, -0.05110133811831474, -0.23536954820156097, -0.07898756861686707, 0.08506859093904495, 0.14517661929130554, -0.13663263618946075, -0.1645851731300354, -0.10019267350435257, 0.07379280030727386, 0.011470681056380272, -0.09811604022979736, 0.09699300676584244, -0.06452629715204239, 0.1361282765865326, 0.23447376489639282, -0.24761275947093964, -0.005832711700350046, -0.1572432667016983, 0.09254711866378784, 0.2412339448928833, 0.06679218262434006, 0.11233928799629211, -0.1481214314699173, -0.1121075451374054, 0.05369953811168671, -0.08089888095855713, -0.014793705195188522, 0.3137097954750061, -0.03967934474349022, -0.3121820092201233, 0.1457117795944214, -0.10190040618181229, 0.3301391005516052, -0.39560019969940186, -0.003865943057462573, -0.17765909433364868, 0.018982652574777603, 0.16411474347114563, 0.1415049284696579, -0.18686504662036896, 0.29708901047706604, 0.24013693630695343, 0.19575046002864838, -0.325054407119751, -0.11931584775447845, 0.0935315191745758, 0.18334269523620605, 0.11470279097557068, 0.3196205496788025, -0.08026796579360962, -0.004348380956798792, 0.10560119897127151, 0.3251407742500305, 0.3485855758190155, 0.036626897752285004, -0.08225247263908386, -0.2708674669265747, -0.07406847178936005, 0.31130778789520264, 0.4821881055831909, 0.12056726962327957, -0.004281878005713224, -0.1492745280265808, -0.14748209714889526, -0.08052950352430344, -0.6586088538169861, 0.2569008767604828, -0.07905378192663193, 0.08848179131746292, -0.008854246698319912, 0.3242848217487335, 0.027945896610617638, 0.1975848525762558, -0.11621246486902237, 0.049047403037548065, -0.08764506131410599, -0.09588201344013214, -0.41242489218711853, 0.21153607964515686, -0.2601243853569031, 0.29821038246154785, -0.23894570767879486, -0.08173613250255585, -0.2364736795425415, -0.046471744775772095, -0.07856355607509613, 0.03160300478339195, 0.1585276871919632, 0.14026927947998047, -0.33675163984298706, 0.08152096718549728, -0.05854625627398491, -0.042755115777254105, 0.024736572057008743, 0.4193355143070221, -0.12882204353809357, 0.17356087267398834, 0.0510699562728405, 0.09985577315092087, -0.23856601119041443, 0.021384453400969505, -0.44121602177619934, -0.17965026199817657, -0.20354191958904266, 0.1184617429971695, -0.054026614874601364, 0.02820824831724167, -0.22919337451457977, -0.13236890733242035, 0.0017222544411197305, -0.012839976698160172, -0.20057128369808197, 0.1675182580947876, 0.11331801116466522, -0.05854961276054382, 0.009013611823320389, -0.04741852730512619, -0.20725789666175842, -0.089322529733181, 0.08045094460248947, -0.6860346794128418, 0.0053100972436368465, 0.45067813992500305, -1.0158061981201172, 0.5613251328468323, 0.8139569163322449, 0.649914562702179, -1.128336787223816, 0.36049458384513855, -0.25669634342193604, 0.6244083642959595, -0.3846369683742523, -0.5633819699287415, 0.052451178431510925, -0.14006851613521576, 0.1772746443748474, -0.2578572630882263, -0.26946693658828735, -0.07869209349155426, -0.30666741728782654, 0.12088193744421005, 0.056449901312589645, 0.22621235251426697, 0.30616578459739685, 0.3527824282646179, 0.10558759421110153, -0.1840563267469406, -0.0017987434985116124, -0.2843594551086426, -0.5254323482513428, -0.29620903730392456, -0.07813367247581482, 0.0369216687977314, -0.3298885226249695, 0.24916011095046997, -0.3761065602302551, -0.033824268728494644, 0.4402711093425751, 0.49356609582901, -0.19423961639404297, 0.04668784141540527, -0.14084620773792267, -0.27972155809402466, 0.08237950503826141, 0.15163388848304749, -0.46066316962242126, 0.028553208336234093, 0.3081972897052765, -0.29838430881500244, 0.04106643795967102, -0.09916570037603378, 0.26044920086860657, 0.5969781875610352, -0.14510437846183777, 0.6163652539253235, 0.15456543862819672, -0.19121664762496948, -0.5002672076225281, -0.02903805673122406, 0.02770748920738697, 0.16486209630966187, -0.2617788314819336, 0.41480425000190735, 0.2585739493370056, 0.09452793002128601, -0.2734602391719818, -0.40773487091064453, 0.07109413295984268, 0.14484533667564392, -0.13834834098815918, -0.026813030242919922, -0.04951348155736923, -0.1313323676586151, 0.24912935495376587, 0.047944508492946625, 0.19361644983291626, 0.17018011212348938, 0.0018469529459252954, 0.17669866979122162, 0.3527282774448395, -0.19612307846546173, 0.0025891722179949284, 0.08622749149799347, 0.02736682817339897, -0.18841449916362762, -0.25479528307914734, 0.042283110320568085, -0.25700071454048157, 0.28212594985961914, -0.17131541669368744, 0.12973876297473907, -0.29466697573661804, -0.012246904894709587, 0.16676105558872223, 0.3565550148487091, 0.10602398216724396, 0.1570882946252823, -0.12972071766853333, -0.2527717053890228, -0.08717598766088486, 0.3413432240486145, 0.22331437468528748, 0.01268586702644825, -0.18785791099071503, -0.295806884765625, 0.046046942472457886, 0.09113273024559021, -0.060148533433675766, 0.1453256905078888, 0.13225984573364258, -0.07135158777236938, 0.13600538671016693, 0.033124394714832306, -0.4023299813270569, -0.212197408080101, 0.158418670296669, 0.25183653831481934, 0.10055961459875107, 0.23604069650173187, -0.06417284905910492, -0.015513641759753227, 0.1453803926706314, -0.04219656437635422, 0.06357972323894501, -0.051868896931409836, -0.006967018824070692, -0.14455372095108032, -0.1937733143568039, -0.3812558948993683, 0.0963505432009697, 0.17062285542488098, -0.12242425978183746, -0.020115742459893227, 0.0637502521276474, 0.2716420292854309, 0.2386673390865326, 0.19386431574821472, -0.19545400142669678, -0.1646844893693924, 0.16223940253257751, 0.20882844924926758, 0.17603017389774323, -0.0010965514229610562, 0.21622443199157715, -0.09943278878927231, -0.06489855796098709, 0.24078214168548584, 0.4997115135192871, -0.3418590724468231, -0.02940826676785946, -0.10911539196968079, -0.0737249031662941, 0.27965015172958374, -0.1556599885225296, -0.2420671135187149, 0.12852270901203156, -0.027951519936323166, -0.15850652754306793, 0.13602234423160553, -0.18522301316261292, 0.0800836980342865, 0.1909678429365158, 0.27074626088142395, -0.2810003161430359, -0.25348368287086487, 0.04147490859031677, 0.18271666765213013, -0.03283871337771416, 0.05496951937675476, -0.14864473044872284, 0.22114311158657074, -0.28387126326560974, 0.2856175899505615, -0.22849635779857635, -0.11350991576910019, 0.1610555499792099, 0.16286474466323853, 0.07892220467329025, -0.27128538489341736, -0.43518149852752686, -0.01864401064813137, 0.13150864839553833, 0.06771107017993927, 0.16154150664806366, -0.36296969652175903, -0.06044566258788109, 0.1547505408525467, -0.008275941014289856, 0.24860911071300507, -0.07179861515760422, 0.1851769983768463, -0.21231848001480103, -0.2893117666244507, 0.14903122186660767, 0.3927335739135742, -0.16389261186122894, 0.15278251469135284, -0.2172047644853592, 0.03945820778608322, -0.07382175326347351, -0.1321820169687271, 0.4369066655635834, 0.015943897888064384, -0.12489817291498184, -0.3404533267021179, -0.005014208145439625, 0.007543536834418774, 0.15340161323547363, 0.24082446098327637, -0.236225426197052, -0.09029708057641983, -0.05977357551455498, 0.2189178317785263, -0.3051258325576782, 0.2031933218240738, 0.09790204465389252, -0.35379621386528015, -0.16175474226474762, 0.07001075893640518, -0.2800396680831909, 0.08427660912275314, 0.3791468143463135, -0.1459222286939621, 0.2578521966934204, -0.06988579034805298, -0.020705075934529305, 0.09620179980993271, -0.2500024437904358, -0.2200099378824234, -0.07074114680290222, 0.19909286499023438, 0.07176897674798965, -0.0677747055888176, -0.2998153269290924, -0.07607531547546387, -0.22572171688079834, -0.029270971193909645, 0.3422027826309204, -0.0774669200181961, -0.1468242108821869, -0.18163220584392548, -0.009759711101651192, -0.1244254782795906, 0.3023834824562073, 0.0805279091000557, -0.10961413383483887, -0.20473136007785797, 0.1896262913942337, 0.46975961327552795, -0.06059926003217697, -0.11131343245506287, 0.33856362104415894, 0.12495015561580658, -0.0017056645592674613, -0.05460616201162338, 0.014044784009456635, -0.134114608168602, 0.051670391112565994, -0.1588122546672821, 0.08781049400568008, -0.00920165702700615, 0.19358950853347778, 0.13986031711101532, -0.2134649157524109, -0.017506632953882217, -0.09533527493476868, 0.19328734278678894, 0.14070788025856018, 0.16650933027267456, -0.19805090129375458, -0.19959503412246704, 0.19770224392414093, -0.07247332483530045, 0.07416308671236038, 0.04788894206285477, -0.12131112068891525, -0.09802483767271042, 0.12258753925561905, 0.15269799530506134, -0.03591310977935791, -1.6219886541366577, 0.565375566482544, -0.2754117250442505, -0.34699130058288574, 0.8405086994171143, 0.7412194013595581, -0.6554905772209167, -0.1536359190940857, 0.28054895997047424, -0.0482061505317688, 0.20621192455291748, -0.009692635387182236, -0.1090986505150795, 0.29600247740745544, 0.12541300058364868, 0.2993678152561188, -0.12051384150981903, -0.4387401342391968, -0.1693650335073471, 0.010014121420681477, 0.2403259426355362, 0.34711530804634094, 0.05602574720978737, 0.4455559551715851, 0.10952497273683548, -0.16927500069141388, 0.4136607050895691, -0.3912002742290497, -0.0875253975391388, 0.1392865628004074, 0.38166406750679016, -0.2481393665075302, 0.40068909525871277, -0.42894402146339417, 0.12244077026844025, 0.097706638276577, 0.030239582061767578, 0.10032911598682404, 0.25089702010154724, 0.038632262498140335, 0.30734771490097046, -0.1689341962337494, 0.04849563539028168, 0.15700548887252808, -0.11255989968776703, 0.2385089099407196, -0.0823059231042862, -0.05394991487264633, 0.17507140338420868, -0.29958853125572205, -0.024631481617689133, 0.1611979454755783, 0.1247529461979866, 0.027476325631141663, 0.2445186823606491, 0.4176620841026306, -0.10758358240127563, 0.44436609745025635, -0.1545570194721222, -0.4147329330444336, 0.008399120531976223, 0.12542499601840973, -0.11444538831710815, -0.3988444209098816, -0.16085965931415558, 0.48635318875312805, -0.17670990526676178, -0.45028623938560486, 0.15058590471744537, -0.15351487696170807, -0.369232714176178, -0.4921586215496063, -0.17356552183628082, -0.3266320526599884, -0.05216820910573006, 0.020514650270342827, -0.2594842314720154, -0.03135479614138603, -0.20674484968185425, -0.12723049521446228, 0.21956101059913635, -0.3590119183063507, 0.014088395051658154, 0.262459933757782, 0.017644675448536873, 0.167942076921463, -0.18058428168296814, -0.19445830583572388, 0.08908949047327042, 0.04467332735657692, -0.12649253010749817, -0.19474025070667267, 0.11727849394083023, -0.0010140098165720701, -0.1877339780330658, -0.08099193125963211, 0.44407328963279724, -0.3378228545188904, -0.34085455536842346, 0.040504518896341324, 0.13809603452682495, -0.3182069659233093, 0.2954690754413605, -0.24092793464660645, -0.17975075542926788, -0.060740876942873, 0.13329942524433136, -0.2948063015937805, 0.0862250030040741, 0.25062984228134155, -0.02496582828462124, -0.13473382592201233, -0.2588493525981903, -0.23993279039859772, -0.1698378175497055, 0.00467861769720912, 0.07003378123044968, -0.09174472093582153, -0.0899871289730072, -0.040885891765356064, 0.04220498725771904, -0.02541187033057213, 0.2251959890127182, -0.12370805442333221, -0.4448361098766327, 0.007353425491601229, -0.019073009490966797, -0.03312872722744942, 0.14731614291667938, 0.05282026529312134, -0.05731869116425514, -0.01824561320245266, -0.15661531686782837, -0.21226461231708527, 0.12324133515357971, -0.12905776500701904, -0.03895096480846405, 0.26140499114990234, 0.07203608751296997, 0.25170212984085083, -0.003562306286767125, -0.04035335034132004, 0.16513203084468842, 0.035007402300834656, 0.028305552899837494, -0.01654386706650257, 0.0486515574157238, 0.04186328873038292, 0.32953476905822754, -0.1927177906036377, 0.01636878214776516, -0.013199253007769585, -0.01879098080098629, 0.24382495880126953, 0.10823042690753937, -0.24960923194885254, -0.3431389331817627, 0.08353938162326813, -0.07071459293365479, 0.1835324764251709, -0.15653671324253082, -0.30835631489753723, -0.036795470863580704, 0.055598028004169464, 0.32230332493782043, 0.24552398920059204, -0.4088348150253296, -0.1858508437871933, 0.17526116967201233, -0.04684401676058769, 0.3426423668861389, 0.029944557696580887, 0.35787323117256165, 0.12278176099061966, -0.3113372027873993, 0.17651644349098206, 0.1715739220380783, 0.16256630420684814, -0.2511785626411438, 0.1581113636493683, 0.21397335827350616, -0.06019624322652817, 0.1732800453901291, 0.23097331821918488, -0.12940746545791626, 0.1303529590368271, 0.12200205773115158, -0.3875190317630768, 0.1696174442768097, 0.2887785732746124, 0.4896343946456909, -0.1477622240781784, -0.08080150187015533, 0.2964770793914795, -0.027262570336461067, -0.18105995655059814, 0.3341977298259735, -0.28318506479263306, -0.2194007784128189, 0.0837366133928299, 0.008841766975820065, 0.3038918972015381, 0.20135045051574707, 0.08067833632230759, -0.22238898277282715, -0.1709473729133606, 0.15055885910987854, 0.40363603830337524, 0.22439463436603546, -0.2816564440727234, 0.2739013433456421, 0.31363028287887573, -0.21235474944114685, 0.7203767895698547, 0.13558429479599, -0.20582866668701172, -0.12965993583202362, 0.03892364352941513, 0.545981764793396, 0.3026411235332489, 0.31466442346572876, 0.5513820052146912, -0.30664321780204773, 0.22729136049747467, -0.17124883830547333, -0.2378532737493515, 0.13119277358055115, -0.1869896650314331, 0.11556614190340042, -0.08632590621709824, 0.19244731962680817, 0.07422050088644028, 0.04501493647694588, -0.12174760550260544, -0.06494706124067307, 0.22374461591243744, 0.4145664572715759, -0.08271307498216629, -0.2654949128627777, 0.056596554815769196, 0.026017112657427788, -0.4289475679397583, 0.3489779233932495, 0.2619020640850067, -0.22178958356380463, -0.11711207777261734, -0.05194506421685219, -0.3230845034122467, 0.27354246377944946, 0.14926515519618988, -0.09833325445652008, -0.491438627243042, 0.11060469597578049, -0.13864505290985107, 0.5573667287826538, 0.2941422760486603, 0.12073986977338791, -0.008984755724668503, 0.21636176109313965, -0.3443424701690674, 0.890153706073761, 0.014883435331285, -0.021444888785481453, 0.11530744284391403, -0.08762539178133011, 0.013452443294227123, 0.08918863534927368, 0.31133270263671875, -0.13853871822357178, -0.3752470910549164, 0.1144234836101532, 0.3209240734577179, 0.014851049520075321, 0.05498164892196655, 0.028862163424491882, -0.29006120562553406, -0.14331872761249542, 0.23171967267990112, 0.026997895911335945, 0.07331562787294388, -0.10245200246572495, -0.28412994742393494, -0.33274248242378235, -0.730446457862854, 0.7761553525924683, 0.48005783557891846, -0.385198712348938, -0.1291343718767166, 0.32867613434791565, -0.4796268045902252, 0.29970282316207886, -0.15329989790916443, -0.39081689715385437, -0.0223709587007761, 0.06325145065784454, 0.2536141872406006, -0.23391401767730713, -0.23153360188007355, 0.30954837799072266, -0.1418692022562027, -0.0731227695941925, 0.38643115758895874, -0.2304888665676117, 0.4365706443786621, 0.42116600275039673, 0.2618103325366974, -0.02506084181368351, 0.23209084570407867, -0.12577185034751892, -0.17217501997947693, 0.11884459108114243, -0.05206504836678505, 0.2132507562637329, 0.3490487039089203, 0.016804080456495285, 0.09266167879104614, -0.06947419047355652, 0.1387764811515808, 0.20631416141986847, -0.18873244524002075, -0.3470345139503479, 0.7799669504165649, -0.533758282661438, 0.3043501675128937, -0.3255813717842102, 0.033011578023433685, 0.06798570603132248, 0.09973785281181335, 0.10274160653352737, -0.06765786558389664, -0.07688213884830475, 0.30028748512268066, 0.4746258854866028, -0.28900423645973206, -0.22087787091732025, -0.17164471745491028, 0.14520961046218872, 0.7265692949295044, -0.5138525366783142, -0.21256761252880096, 0.048004619777202606, 0.2408968061208725, -0.14512942731380463, 0.2683664560317993, 0.2886538505554199, 0.41251757740974426, 0.18969373404979706, -0.26490941643714905, 0.26314499974250793, -0.2722342312335968, 0.14996173977851868, -0.3554074764251709, -0.1036645919084549, -0.30550363659858704, -0.14159774780273438, 0.12689431011676788, 0.07971499860286713, 0.04644257202744484, 0.2606905698776245, 0.048801176249980927, 0.21035659313201904, -0.27863577008247375, -0.04043566808104515, 0.1777486950159073, 0.42629411816596985, 0.05985260754823685, -0.05238785967230797, -0.26680007576942444, 0.45213058590888977, -0.31458884477615356, -0.0030922675505280495, -0.24214911460876465, -0.3690374195575714, -0.5933629870414734, 0.33105897903442383, -0.03224467858672142, -0.3234000504016876, -0.050222959369421005, -0.14864982664585114, 0.08440081775188446, 0.09908022731542587, -0.3159160614013672, -0.0477602519094944, 0.15871430933475494, 0.12955161929130554, -0.098187156021595, 0.08327441662549973, -0.08290175348520279, 0.2138206958770752, 0.03179335966706276, -0.2976803183555603, 0.052219606935977936, -0.08454090356826782, 0.07296621054410934, -0.11109921336174011, -0.02623673528432846, -0.37863579392433167, -0.4127670228481293, -0.1544734686613083, 0.0652807280421257, -0.026984600350260735, -0.26260292530059814, 0.0867970660328865, 0.07496984302997589, 0.044953975826501846, 0.0449344739317894, 0.28107449412345886, -0.33946743607521057, 0.05196317657828331, 0.011546545661985874, 0.15144895017147064, -0.19971011579036713, -0.4322150647640228, 0.03567790612578392, 0.17330901324748993, 0.31667080521583557, 0.2200547754764557, 0.037426553666591644, -0.07080978155136108, -0.3295142352581024, -0.164123997092247, -0.0036103706806898117, -0.10007878392934799, 0.3302551805973053, 0.5711937546730042, 0.1630881130695343, -0.18321529030799866, -0.21513360738754272, -0.29610052704811096, -0.03528428077697754, 0.37776222825050354, -0.053065281361341476, 0.2619044780731201, 0.24062788486480713, -0.33105629682540894, 0.01651320420205593, 0.5389436483383179, 0.5917317867279053, 0.08516054600477219, -0.16593167185783386, -0.28527605533599854, -0.10580845922231674, 0.16411620378494263, -0.3015294075012207, 0.17824681103229523, 0.17324480414390564, -0.12156029790639877, 0.10311684012413025, -0.07898713648319244, 0.17165687680244446, 0.1402433216571808, -0.1659325212240219, 0.30009663105010986, -0.20983287692070007, -0.12639206647872925, 0.0934721902012825, 0.09310300648212433, 0.004541825037449598, -0.2797505557537079, 0.2922118008136749, 0.042546387761831284, 0.32123270630836487, -0.04071760177612305, -0.04979638382792473, -0.18665668368339539, 0.03985348716378212, 0.16364756226539612, -0.44007328152656555, -0.014235046692192554, 0.03902289271354675, 0.1239558756351471, -0.1641855239868164, 0.06570284813642502, 0.34106916189193726, -0.3567720651626587, -0.18281696736812592, 0.25766387581825256, -0.09047912806272507, -0.2499963641166687, 0.08617477864027023, 0.17573484778404236, -0.09460079669952393, -0.03959166258573532, 0.042156901210546494, 0.029504306614398956, 0.12133096158504486, -0.0728648453950882, -0.13680621981620789, -0.13457149267196655, 0.16303688287734985, 0.2478460818529129, -0.07524050027132034, -0.12710198760032654, 0.04919911548495293, 0.2617138624191284, 0.22039875388145447, -0.03171199560165405, 0.4878995418548584, -0.412168025970459, -0.15395301580429077, -0.14886075258255005, -0.016815509647130966, -0.06813649088144302, 0.15503887832164764, 0.4204425811767578, 0.13297966122627258, -0.007002172525972128, 0.27494552731513977, 0.030273495241999626, -0.24918988347053528, -0.16015960276126862, -0.17487134039402008, 0.24361611902713776, -0.42717328667640686, 0.029199782758951187, -0.3542802333831787, -0.22291304171085358, 0.04599456861615181, 0.040578074753284454, -0.23028302192687988, -0.2650793492794037, 0.08155769854784012, -0.30932024121284485, -0.4540994167327881, 0.22717657685279846, -0.21846505999565125, -0.2610712945461273, 0.14034894108772278, -0.03928019851446152, -0.1559258997440338, -0.12133465707302094, -0.2535545229911804, -0.23679961264133453, -0.01417522132396698, -0.06262391805648804, 0.25478988885879517, -0.03903724625706673, 0.014953814446926117, -0.23459409177303314, 0.2321353256702423, 0.10168330371379852, 0.09584731608629227, -0.24889318645000458, 0.0721566379070282, 0.08999098837375641, 0.09135348349809647, 0.09134577959775925, -0.014516656287014484, -0.3013949990272522, 0.18397055566310883, 0.1663847118616104, 0.08874863386154175, -0.2121005654335022, 0.15103712677955627, 0.0028903502970933914, -0.028490476310253143, -0.05781450867652893, -0.21784166991710663, -0.0506180077791214, 0.028659887611865997, -0.6688324213027954, 0.7831335067749023, -0.12259495258331299, 0.2830614149570465, -0.5300185680389404, 0.06571882963180542, -0.4117155969142914, 0.46524670720100403, 0.24742160737514496, -0.231408029794693, -0.23088397085666656, -0.01572229154407978, -0.16930429637432098, -0.603302538394928, 0.02649710513651371, 0.3619607388973236, 0.02372306026518345, 0.10053874552249908, 0.22577327489852905, 0.35563716292381287, 0.6550521850585938, 0.7201367616653442, 0.06932510435581207, -0.11422611027956009, 0.44062501192092896, 0.5465469360351562, 0.1626325398683548, -0.10258574038743973, 0.19731548428535461, 0.28918585181236267, 0.33860650658607483, 0.10483977198600769, 0.026563270017504692, -0.584149956703186, -0.10894293338060379, -0.2821768522262573, 0.33346137404441833, 0.31477245688438416, -0.19196029007434845, 0.009824374690651894, 0.02009233832359314, 0.006942039355635643, 0.3030679225921631, -0.017398901283740997, -0.48205840587615967, -0.4655817151069641, 0.03592657670378685, 0.43787682056427, -0.13787828385829926, -0.15574955940246582, 0.09783981740474701, 0.29289156198501587, 0.06716250628232956, 0.12836967408657074, -0.011404911987483501, 0.19099308550357819, -0.13713891804218292, -0.14542004466056824, -0.6162344813346863, 0.20051100850105286, 0.4648015797138214, 0.2828696668148041, 0.13388337194919586, -0.24346551299095154, -0.3096124827861786, 0.22588057816028595, 0.5036131739616394, 0.24201560020446777, 0.5393185019493103, 0.29201263189315796, -0.3413839340209961, -0.19557391107082367, -0.3333447575569153, 0.2661832571029663, 0.03546455502510071, -0.2857643961906433, 0.049831293523311615, -0.2191273272037506, -0.2554458975791931, 0.34093934297561646, -0.07839741557836533, 0.10835503041744232, -0.12899594008922577, 0.10483676195144653, 0.19504483044147491, -0.11713085323572159, 0.14083252847194672, 0.015274541452527046, -0.03895243629813194, 0.09390044957399368, -0.11629342287778854, -0.43056273460388184, -0.10333269089460373, -0.17958270013332367, -0.015681203454732895, -0.07119053602218628, -0.07596525549888611, -0.05238216370344162, -0.04991829767823219, -0.21310575306415558, 0.48970022797584534, -0.05761238560080528, -0.020030757412314415, 0.16973385214805603, -0.16863760352134705, -0.12055076658725739, 0.15585467219352722, -0.04849071428179741, 0.0811762809753418, -0.1578863263130188, 0.006004381459206343, 0.39987611770629883, 0.3802683651447296, -0.004567768424749374, -0.3430255949497223, 0.05287308245897293, 0.18877722322940826, 0.20321381092071533, 0.505236804485321, -0.10635696351528168, -0.023068105801939964, -0.448618620634079, -0.11324512213468552, 0.02468760684132576, -0.3278577923774719, 0.3464471995830536, 0.1277197152376175, -0.16423283517360687, 0.06435923278331757, -0.09742835909128189, 0.0748680904507637, 0.02203522063791752, -0.3275425434112549, -0.036886315792798996, -0.03610938414931297, -0.1673445999622345, 0.13926883041858673, -0.17192284762859344, -0.08059021085500717, -0.22883377969264984, -0.04367310553789139, -0.12756013870239258, 0.2297898381948471, -0.09417311102151871, 0.04110629856586456, 0.2281675487756729, 0.24392719566822052, 0.15705643594264984, -0.4013872742652893, -0.24180662631988525, -0.3117251694202423, 0.3176685869693756, -0.1262190043926239, 0.20950815081596375, -0.1315051019191742, -0.24269318580627441, 0.3418081998825073, -0.17503944039344788, -0.05380074307322502, -0.1734587550163269, 0.19751182198524475, -0.3962741196155548, -0.1425061970949173, 0.25504571199417114, 0.028734104707837105, -0.027870727702975273, -0.009058315306901932, -0.05690016597509384, -0.31304633617401123, -0.028524447232484818, 0.2515920102596283, 0.2683945894241333, 0.3895413279533386, 0.11476992815732956, -0.3659646213054657, 0.014104331843554974, 0.1076417788863182, -0.10938478261232376, -0.39638784527778625, -0.14257346093654633, 0.010746661573648453, 0.45999741554260254, -0.0383111909031868, 0.27131888270378113, 0.3830190598964691, 0.10007639229297638, 0.3374931812286377, 0.07613351196050644, 0.28395408391952515, 0.01238313689827919, -0.2182924449443817, 0.0920744314789772, 0.1943993866443634, 0.5094799399375916, 0.37563085556030273, -0.005873937625437975, -0.19255755841732025, 0.1665038764476776, -0.03811243548989296, 0.07918489724397659, -0.1374993622303009, -0.055920060724020004, 0.03785845264792442, -0.1822478473186493, 0.008112363517284393, 0.2887016832828522, -0.09648492932319641, 0.2255583256483078, -0.17215311527252197, -0.08627481758594513, -0.19717420637607574, 0.1834171861410141, 0.19990873336791992, 0.06456676125526428, 0.10142649710178375, -0.019726533442735672, -0.08130428940057755, -0.16206328570842743, 0.07143111526966095, 0.12899969518184662, -0.38513046503067017, 0.3060387372970581, 0.09352819621562958, -0.3692726492881775, -0.2507385313510895, -0.1153372973203659, 0.09557659178972244, -0.1952952742576599, 0.16781753301620483, -0.049213308840990067, 0.04809587821364403, 0.582255482673645, 0.277000367641449, 0.050475113093853, -0.12509188055992126, 0.009189262054860592, 0.19537776708602905, 0.14313283562660217, 0.2991967499256134, 0.009045306593179703, 0.1610758751630783, -0.2796527147293091, 0.0034920491743832827, -0.24795933067798615, -0.2056475281715393, 0.17283686995506287, 0.17050859332084656, 0.06638134270906448, 0.07931844890117645, 0.29830607771873474, 0.1379767507314682, -0.05161859467625618, -1.2428255081176758, -0.05367662385106087, -0.1703595519065857, -0.2758520245552063, -0.18498824536800385, -0.06907881051301956, -0.19127371907234192, 0.2511803209781647, 0.15945269167423248, 1.087960958480835, -0.41313812136650085, 0.16661949455738068, -0.1563749760389328, -0.07700032740831375, -0.24284477531909943, -0.5198113322257996, 0.38294124603271484, 0.16863740980625153, -0.09320739656686783, -0.06050517037510872, 0.056613679975271225, 0.074037566781044, -0.1280442476272583, 0.0071292961947619915, -0.4947633147239685, 0.15490998327732086, 0.1875981241464615, 0.05976538732647896, 0.08024971932172775, -0.29842597246170044, 0.22748073935508728, 0.04811398312449455, 0.5121769309043884, -0.922578752040863, -0.9917669892311096, -0.09050311893224716, -0.12848258018493652, 0.2551957964897156, -0.19599343836307526, 0.10971299558877945, 0.4674549102783203, -0.07495594024658203, -0.062318913638591766, 0.037007417529821396, -0.23492847383022308, -0.49124860763549805, 0.031806591898202896, 0.08897103369235992, -0.44655975699424744, 0.43646764755249023, -0.1471950262784958, -0.2040986567735672, 0.17915646731853485, 0.11678516864776611, -0.43255364894866943, 0.1425233781337738, 0.15278808772563934, 0.018429705873131752, 0.15004591643810272, 0.1943466067314148, -0.6694181561470032, -0.4286426901817322, 0.30338162183761597, 0.43840962648391724, -0.10925833880901337, 0.17044463753700256, 0.19956614077091217, 0.009918167255818844, 0.14974357187747955, 0.36577925086021423, -0.4906463623046875, -0.42386317253112793, 0.17088763415813446, -0.060348134487867355, 0.2922712564468384, -0.08048509061336517, 0.054776109755039215, 0.09468188136816025, -0.2223653346300125, -0.2737136781215668, -0.521352231502533, 0.11669258028268814, -0.3268342912197113, -0.1518576592206955, -0.29794541001319885, -0.2506692409515381, 0.39232954382896423, 0.3668138384819031, 0.07790246605873108, -0.14225316047668457, -0.046140093356370926, -0.07232613861560822, -0.1866949498653412, 0.07758436352014542, -0.4928676187992096, -0.3450489342212677, 0.4192695915699005, -0.11502543091773987, -0.18692195415496826, 0.16591128706932068, 0.3733028769493103, -0.06128248944878578, 0.13286110758781433, 0.3156447410583496, -0.03819930553436279, 0.04897765815258026, -0.3126092553138733, 0.126975879073143, -0.041323039680719376, -0.07264073193073273, -0.30276045203208923, 0.02224447950720787, 0.15951426327228546, -0.40218818187713623, 0.12116535753011703, -0.015642983838915825, 0.40326082706451416, 0.4338070750236511, -0.017198625952005386, -0.10007117688655853, -0.26872578263282776, -0.3417011499404907, 0.22765016555786133, 0.1835380494594574, 0.417069673538208, 0.07962413877248764, 0.20150157809257507, -0.22588032484054565, 0.10517880320549011, 0.21726877987384796, -0.23295311629772186, -0.07139424234628677, -0.0026040629018098116, -0.17997437715530396, -0.21806055307388306, 0.1353035420179367, 0.02156616561114788, 0.14284969866275787, -0.2282492220401764, 0.16363833844661713, 0.19656339287757874, -0.05819219723343849, -0.1507015973329544, 0.17690828442573547, 0.14600446820259094, -0.13777808845043182, -0.19528664648532867, 0.13975831866264343, -0.2652888298034668, 0.33574622869491577, -0.02784682996571064, 0.3468817472457886, -0.29459482431411743, 0.15911871194839478, 0.27795085310935974, 0.15577563643455505, -0.09098784625530243, 0.10052153468132019, -0.11409221589565277, 0.032520417124032974, -0.19815334677696228, -0.06540574133396149, 0.09197064489126205, -0.24857628345489502, -0.019019199535250664, 0.1479613333940506, 0.2963847815990448, -0.1455802172422409, -0.022405946627259254, 0.2417474389076233, -0.1714942306280136, 0.3082331717014313, -0.36536282300949097, -0.10855401307344437, 0.30552056431770325, -0.043826278299093246, 0.004981665406376123, -0.030771689489483833, 0.07684464752674103, 0.3111211657524109, -0.1721019446849823, -0.3193404972553253, -0.2227713167667389, 0.34556809067726135, -0.06059781834483147, -0.12996147572994232, 0.40885812044143677, -0.005069616716355085, -0.07719078660011292, 0.008763120509684086, 0.13372699916362762, -0.10928257554769516, -0.08273789286613464, -0.06263686716556549, 0.3742120862007141, -0.16620716452598572, 0.16290202736854553, 0.3505251407623291, -0.017938444390892982, 0.15175941586494446, 0.09363052248954773, 0.07949643582105637, -0.260274738073349, 0.13707418739795685, -0.23164793848991394, -0.15068495273590088, -0.22592245042324066, -0.024611253291368484, -0.08963660150766373, -0.021454354748129845, 0.5455185770988464, 0.018878942355513573, -0.031625572592020035, 0.1743236631155014, 0.23656511306762695, -0.026623491197824478, -0.002406654879450798, -0.29067397117614746, -0.12346068769693375, -0.15740329027175903, -0.025206299498677254, -0.10026679188013077, -0.2754945755004883, 0.19485688209533691, -0.09311717003583908, -0.07837743312120438, -0.5810891389846802, 0.4894716143608093, -0.46409595012664795, -0.2070016860961914, -0.11023581773042679, -0.30409741401672363, 0.5500951409339905, -0.26282453536987305, 0.26251932978630066, -0.07777602970600128, 0.2901512384414673, 0.19223329424858093, 0.22071479260921478, 0.14936526119709015, -0.5956560969352722, 0.2529926300048828, 0.1923614740371704, -0.07306515425443649, 0.4132571816444397, 0.39444467425346375, -0.09540076553821564, 0.024964043870568275, -0.10069291293621063, -0.13117709755897522, 0.24096894264221191, 0.06323622167110443, 0.022501908242702484, 0.23005618155002594, -0.14063671231269836, -0.2625780999660492, -0.3449850380420685, -0.20653526484966278, -0.0482020303606987, 0.022615967318415642, -0.3890390992164612, -0.0377783477306366, 0.08656007051467896, -0.044632475823163986, 0.1606450229883194, -0.019921496510505676, 0.1612112820148468, 0.14312578737735748, -0.20297826826572418, -0.2865005433559418, -0.5575248599052429, 0.22669997811317444, 0.32838213443756104, 0.30579888820648193, 0.27400097250938416, 0.01124919205904007, 0.03609335049986839, -0.35837650299072266, -0.2434263378381729, 0.29645171761512756, -0.25493451952934265, 0.3210279047489166, 0.1079217940568924, -0.34888118505477905, -0.4276273846626282, -0.10016635805368423, 0.8183668851852417, -0.08472079783678055, -0.10425689071416855, 0.2358253300189972, 0.29809334874153137, 0.11346452683210373, 0.16061346232891083, -0.23230238258838654, 0.15212082862854004, 0.057608362287282944, 0.1983581930398941, -0.22770078480243683, -0.07743825763463974, -0.0264902263879776, 0.3735355734825134, -0.6299223303794861, -0.6483724117279053, 0.3218204081058502, -0.4270789325237274, -0.3316655457019806, 0.20207180082798004, -0.24376451969146729, -0.01394771970808506, 0.2967534363269806, -0.3750036060810089, -0.22733831405639648, 0.18681064248085022, 0.026909636333584785, 0.02407083660364151, 0.30573341250419617, 0.00163330789655447, -0.4223441183567047, -0.13880972564220428, -0.4173687696456909, 0.18108253180980682, -0.06927240639925003, 0.1618884652853012, -0.3638704717159271, -0.26141053438186646, 0.08737928420305252, 0.11137959361076355, 0.009230735711753368, 0.026357777416706085, -0.1344490498304367, -0.09511541575193405, -0.1126917377114296, -0.2246895283460617, -0.3041972815990448, 0.05576677247881889, 0.02380240149796009, -0.33291327953338623, -0.22930362820625305, 0.08143133670091629, -0.1431068629026413, 0.018487270921468735, -0.2768576741218567, 0.23623304069042206, -0.04483623802661896, -0.35235416889190674, -0.036322154104709625, -0.33666086196899414, -0.02383926697075367, 0.551496684551239, 0.26290178298950195, 0.6926805973052979, 0.09865105897188187, 0.12669755518436432, -0.8165531158447266, -0.046700555831193924, -0.08142723888158798, -0.05778328329324722, 0.3528706729412079, -0.07085008919239044, -0.4203343689441681, -0.5026944279670715, -0.14916102588176727, -0.08418361097574234, -0.1306050717830658, 0.019611351191997528, 0.29207825660705566, 0.1752796471118927, -0.0549442358314991, 0.32342785596847534, -0.26275771856307983, -0.19733861088752747, 0.26685550808906555, 0.12594544887542725, 0.025220409035682678, -0.19300489127635956, 0.28423815965652466, 0.9503456354141235, 1.0140621662139893, 1.0705710649490356, -0.14909577369689941, -0.22235897183418274, 0.0005395288462750614, -0.4918356239795685, -0.26616254448890686, 0.2088037133216858, 0.40637463331222534, -0.3681431710720062, -0.013272995129227638, 0.05526333674788475, -0.07894118130207062, 0.07842575013637543, 0.5586166381835938, 0.33335840702056885, 0.15158379077911377, -0.11335529386997223, -0.2003268003463745, 0.26505938172340393, -0.14499230682849884, -0.2458316832780838, 0.4314883053302765, 0.14596077799797058, -0.1142340898513794, 0.4084617495536804, -0.2990826368331909, -0.8912255764007568, -0.44908320903778076, -0.11103742569684982, -0.06486885994672775, -0.1570674329996109, -0.19631962478160858, 0.13051018118858337, 0.12744943797588348, -0.07022969424724579, -0.019070196896791458, 0.033467572182416916, -0.10346648097038269, -0.10372962802648544, -0.31901201605796814, 0.17622528970241547, 0.18802621960639954, 0.20277053117752075, -0.2049696147441864, -0.20711149275302887, -0.1883908361196518, 0.208687424659729, -0.009783993475139141, -0.025937391445040703, -0.5463352203369141, -0.7483019232749939, 0.0766633003950119, -0.07027506828308105, -0.14607153832912445, 0.11090264469385147, -0.14966854453086853, -0.08425655961036682, 0.12541159987449646, 0.007799664977937937, 0.02665766514837742, 0.26412492990493774, -0.12934862077236176, -0.5884397625923157, -0.28538763523101807, -0.09389451891183853, 0.045900858938694, -0.3101367950439453, -0.29343467950820923, -0.06847655773162842, -0.09566529840230942, -0.01712709106504917, 0.20174652338027954, 0.291714072227478, 0.3602392077445984, -0.6809042096138, 0.08352510631084442, -0.009834093041718006, 0.222804456949234, -0.19336223602294922, -0.01674017868936062, -0.6935547590255737, -0.3830951154232025, -0.26346760988235474, 0.6754477024078369, 0.36696869134902954, -0.0069952853955328465, -0.08795725554227829, -0.0017149526393041015, 0.4039897620677948, 0.7624256014823914, -0.24233467876911163, 0.49726027250289917, -0.03208579123020172, -0.4019719660282135, -0.20480304956436157, -0.3785206377506256, -0.17909292876720428, 0.18296630680561066, 0.009012014605104923, -0.18476445972919464, 0.11205454915761948, -0.18240948021411896, -0.25833821296691895, 0.029736243188381195, 0.07393696159124374, 0.21483811736106873, -0.03113335743546486, -0.06479426473379135, -0.21036341786384583, 0.08996886014938354, 0.5019746422767639, -0.012093406170606613, -0.11351291090250015, -0.021007483825087547, 0.021474972367286682, -0.1157267838716507, -0.05339866131544113, -0.2098294496536255, 0.16714496910572052, -0.3260059058666229, -0.06849826127290726, 0.005693575367331505, 0.023432835936546326, -0.198738232254982, 0.24859678745269775, -0.10929865390062332, -0.8504518270492554, -0.18296842277050018, -0.06991077214479446, -0.05540650710463524, 0.10210274904966354, -0.17136557400226593, -0.5502421855926514, -0.12362492829561234, 0.1898701786994934, 0.18429303169250488, 0.5659227967262268, -0.01375856064260006, 0.09448371827602386, -0.13218429684638977, 0.3825795650482178, 0.2957000136375427, 0.2658735513687134, 0.13465704023838043, 0.017037667334079742, 0.2818734645843506, 0.17162823677062988, 0.06825840473175049, -0.08709096163511276, -0.34918877482414246, -0.06107774004340172, 0.08353515714406967, 0.013221550732851028, -0.21538247168064117, -0.7442823648452759, 0.5997689962387085, -0.5031499862670898, -0.7467311024665833, 0.5905466079711914, 0.3745323121547699, -0.20580697059631348, 0.036143988370895386, 0.5541172027587891, -0.6125701069831848, 0.2054557502269745, 0.37252265214920044, -0.17743244767189026, 0.30849769711494446, -0.46691155433654785, -0.4358115494251251, -0.15734785795211792, 0.009823031723499298, -0.4351668357849121, 0.48274746537208557, 0.11604940891265869, 0.08047682046890259, -0.12746886909008026, -0.0722445547580719, -0.5977251529693604, -0.15418380498886108, -0.17716296017169952, 0.01806691847741604, -0.09958302974700928, -0.22010329365730286, -0.4704432189464569, -0.14947615563869476, 0.17931868135929108, 0.5215739011764526, -0.2450970858335495, -0.12750960886478424, 0.05302727222442627, 0.03871467709541321, 0.051712118089199066, -0.19331443309783936, 0.04908236116170883, -0.2715035080909729, 0.18594089150428772, -0.19728516042232513, 0.13580061495304108, -0.17705348134040833, -0.6625502109527588, -0.12496699392795563, -0.17596213519573212, -0.23773977160453796, 0.11831081658601761, -0.19272398948669434, 0.10773741453886032, -0.02285795286297798, -0.013681883923709393, -0.3165540397167206, -0.2858417332172394, -0.2961377799510956, 0.03868839889764786, 0.10164689272642136, -0.13447140157222748, -0.1323959231376648, 0.46459606289863586, 0.06413950026035309, -0.05841108411550522, -0.023758281022310257, 0.20589792728424072, 0.23711052536964417, 0.1329941749572754, -0.08052007108926773, 0.11261627078056335, -0.3802413046360016, 0.4706652760505676, -0.11925192177295685, -0.21816474199295044, 0.21136316657066345, -0.29593145847320557, 0.283676415681839, 0.4691915214061737, -0.005686876364052296, -0.5135813355445862, 0.6062607169151306, 0.49929481744766235, -0.3911229968070984, 0.5100834369659424, 0.06979866325855255, -0.4825562834739685, -0.30474790930747986, -0.28283190727233887, 0.2639631927013397, 0.18016502261161804, -0.3057497441768646, -0.30480456352233887, -0.28944915533065796, 0.20001982152462006, 0.031243296340107918, -0.22498001158237457, 0.11660061776638031, -0.5162172317504883, -0.13256791234016418, -0.1999775767326355, -0.037204086780548096, -0.24267934262752533, -0.014374872669577599, 0.5661095380783081, 0.27797502279281616, -0.17054913938045502, 0.20574627816677094, -0.05431913584470749, 0.253875732421875, -0.28197625279426575, 0.187359020113945, 0.1575113981962204, 0.009906445629894733, -0.004725933074951172, 0.17560361325740814, -0.10759464651346207, 0.057371191680431366, 0.4553591012954712, 0.08235987275838852, 0.1483462154865265, 0.3120647668838501, -0.03509519249200821, -0.005232830066233873, 0.19353197515010834, 0.0920320674777031, 0.03233783692121506, -0.3136827051639557, -0.12322741001844406, 0.08666636049747467, -0.004225622396916151, -0.22463326156139374, 0.0018560454482212663, -0.4487300515174866, 0.2393588274717331, 0.01774504780769348, -0.22478468716144562, -0.08291022479534149, 0.2259838730096817, -0.25320670008659363, -0.07486351579427719, 0.0877164900302887, -0.04574431851506233, -0.0781048983335495, -0.004307479131966829, 0.45462852716445923, -0.45685437321662903, -0.4572914242744446, -0.3505692481994629, -0.2700783312320709, -0.014708942733705044, -0.18316181004047394, -0.3715442717075348, -0.6688169240951538, -0.362324982881546, 0.5646277666091919, -0.386776328086853, 0.14858517050743103, 0.18720902502536774, -0.014339201152324677, -0.18925176560878754, 0.1328539103269577, 0.7575514912605286, -0.18107819557189941, -0.43711549043655396, 0.2042800784111023, 0.42257899045944214, -0.2004924863576889, -0.08004198968410492, -0.22649717330932617, 0.20737755298614502, -0.13532935082912445, -0.04021218419075012, -0.33842015266418457, -0.019315246492624283, -0.08225390315055847, 0.1459100842475891, 0.056022681295871735, 0.028129057958722115, -0.13150519132614136, 0.15474115312099457, 0.039225246757268906, 0.30086302757263184, -0.04563867673277855, 0.04851110279560089, 0.21866151690483093, -0.0007608120795339346, -0.1415075957775116, -0.1624850183725357, 0.2035457342863083, -0.009074488654732704, 0.3148871958255768, 0.10687137395143509, 0.13380514085292816, 0.3588891625404358, -0.17700424790382385, -0.17494124174118042, 0.25191324949264526, 0.2035912722349167, -0.3880351185798645, -0.030175210908055305, -0.07209401577711105, 0.002698345808312297, 0.36352816224098206, 0.41401711106300354, 0.3267638385295868, 0.21678929030895233, 0.021588802337646484, 0.12333465367555618, -0.05813609063625336, -0.1242237463593483, 0.10593267530202866, -0.1208820641040802, -0.11879019439220428, 0.11498524248600006, -0.2230946570634842, -0.16355744004249573, -0.11253584921360016, -0.31821033358573914, 0.10842215269804001, -0.21307358145713806, 0.09278186410665512, -0.1383449137210846, -0.29469698667526245, 0.014190960675477982, -0.41906794905662537, 0.3893249034881592, 0.46012383699417114, -0.33220937848091125, -0.16056761145591736, -0.02481982856988907, 0.08969925343990326, 0.2765941917896271, 0.2716797888278961, 1.0274053812026978, -0.5864034295082092, 0.28699666261672974, 0.4994974136352539, 0.2023944854736328, -0.2875712513923645, 0.12474172562360764, 0.12406767904758453, -0.1499536633491516, -0.14224638044834137, 0.01616874895989895, 0.5238108038902283, -0.2329140603542328, -0.2535799443721771, 0.16784730553627014, 0.4585168659687042, -0.21623852849006653, 0.06033601611852646, 0.060809653252363205, 0.24176126718521118, 0.2136436402797699, 0.4942771792411804, 0.15663424134254456, -0.10414130240678787, -0.23495009541511536, -0.25880348682403564, 0.10174420475959778, -0.073302261531353, -0.007688171695917845, -0.025545671582221985, 0.05085131898522377, -0.06129971519112587, 0.08687654882669449, 0.10226599872112274, -0.059472862631082535, 0.045847635716199875, 0.11570385098457336, 0.0508744940161705, 0.06925834715366364, 0.2769370973110199, -0.05886974558234215, -0.05219157040119171, 0.29004281759262085, -0.06826462596654892, 0.05847892537713051, 0.11210746318101883, 0.04839508235454559, 0.03432653471827507, -0.2038000226020813, 0.08963627368211746, -0.04098920896649361, -0.03518364578485489, -0.1372593343257904, -0.011691941879689693, -0.24228788912296295, -0.01819811947643757, -0.06890298426151276, 0.2310887724161148, -0.09105705469846725, -0.0016343260649591684, -0.17186778783798218, 0.05506523326039314, 0.025942472741007805, 0.025837820023298264, 0.3752979338169098, -0.014823677018284798, -0.29086756706237793, 0.07376610487699509, 0.0898570641875267, -0.05842376872897148, 0.49930357933044434, -0.4842081367969513, 0.05137163773179054, 0.2771088778972626, 0.02883039601147175, 1.1959810256958008, 0.930065393447876, -0.5882626175880432, -0.1583179086446762, 0.48405852913856506, 0.31336113810539246, 0.011277362704277039, 0.2488970011472702, 0.18045182526111603, -0.26939359307289124, -0.3690982758998871, -0.40939241647720337, 0.39583274722099304, -0.7542802095413208, -0.4125678241252899, -0.1620941013097763, -0.2609926760196686, -0.1755286157131195, 0.03224040940403938, 0.2832108736038208, 0.19943882524967194, -0.1565626710653305, -0.28564801812171936, 0.35076093673706055, 0.11030267179012299, -0.06627123057842255, -0.14523866772651672, -0.0016393273836001754, -0.04009060934185982, -0.07414069771766663, 0.16279014945030212, 0.28956547379493713, -0.04056386649608612, -0.043016888201236725, -0.009010578505694866, 0.3057449758052826, -0.10146453231573105, -0.1681947261095047, 0.20128896832466125, -0.05239841341972351, -0.010291562415659428, -0.44000333547592163, 0.04208081588149071, 0.15341953933238983, -0.20524188876152039, 0.0034042568877339363, 0.06536474078893661, 0.062324732542037964, 0.011992694810032845, 0.03471976891160011, -0.01836949959397316, 0.009235667996108532, 0.005260779056698084, 0.13506852090358734, -0.011253704316914082, -0.2361745983362198, 0.18936248123645782, -0.03508688509464264, 0.03315616399049759, -0.5197910070419312, -0.02458927221596241, 0.14410549402236938, -0.06802160292863846, 0.23951183259487152, -0.22255781292915344, 0.2068871557712555, 0.6768553256988525, -0.5344892144203186, -0.15554532408714294, -0.6643745303153992, 0.22038012742996216, -0.18581056594848633, 0.3806924521923065, -0.004086396656930447, 0.006603500340133905, 0.461017370223999, 0.6920040845870972, -0.04945395141839981, -0.7262436747550964, -0.5437897443771362, 0.03559984266757965, -0.15689237415790558, 0.3038337528705597, -0.2761766016483307, -0.6169654130935669, -0.42936208844184875, 0.6829937696456909, -0.17163854837417603, 0.034330300986766815, -0.04516908898949623, 0.11918700486421585, -0.025698048993945122, -0.24581865966320038, -0.42706650495529175, -0.08305925130844116, -0.16335910558700562, 0.2403767704963684, 0.15953414142131805, 0.009227084927260876, 0.007323352620005608, 0.03292853385210037, 0.19110004603862762, 0.007854143157601357, -0.10699377208948135, -0.09912381321191788, -0.15728476643562317, -0.11330154538154602, -0.23948536813259125, 0.14120328426361084, 0.09511041641235352, 0.24665813148021698, 0.05917686969041824, 0.13350287079811096, 0.18311510980129242, -0.21491168439388275, 0.05254014953970909, -0.013409256935119629, -0.25994428992271423, -0.05318285897374153, -0.12327402830123901, 0.1678612381219864, 0.1526412069797516, 0.15976548194885254, 0.34524786472320557, -0.005879645701497793, 0.06466079503297806, -0.019512098282575607, -0.002435277448967099, 0.04718130826950073, 0.4639356732368469, -0.0008774555753916502, 0.06653059273958206, 0.2832433581352234, 0.02699488028883934, -0.017961150035262108, -0.29418817162513733, -0.005062851123511791, -0.09938757866621017, 0.18023689091205597, 0.22630861401557922, -0.09657981991767883, -0.8294764757156372, 0.01629556156694889, -0.4079621732234955, -0.7413906455039978, 0.003601687029004097, 0.05306065455079079, 0.09367954730987549, -0.1567455381155014, -0.07114503532648087, 0.21573610603809357, -0.6175792813301086, -1.597572684288025, -0.37460047006607056, 0.07353654503822327, 0.09952396154403687, -0.15987053513526917, 0.39549922943115234, -0.13314546644687653, 0.362276166677475, 0.6069061160087585, -0.004688624758273363, 0.019764142110943794, 0.064396932721138, 0.009021327830851078, 0.12173689156770706, -0.53169846534729, 0.017507757991552353, -0.08169420063495636, -0.2717704176902771, -0.06504394859075546, -0.20413096249103546, 0.06138182431459427, 0.07124496251344681, -0.05771402269601822, 0.2423013150691986, 0.05025838315486908, 0.2501295804977417, -0.32938188314437866, 0.24912811815738678, 0.05679943040013313, -0.21539299190044403, 0.1032513752579689, 0.1567361056804657, 0.31525683403015137, 0.22226756811141968, -0.025670984759926796, 0.44271817803382874, -0.258908212184906, -0.1329842209815979, -0.04333626851439476, -0.026774786412715912, 0.007745053619146347, -0.23500260710716248, 0.13434143364429474, -0.03818667307496071, 0.14398035407066345, -0.04936632886528969, 0.11101481318473816, 0.27209487557411194, -0.10917291790246964, -0.02745451033115387, -0.016490502282977104, 0.04766921326518059, -0.05731295794248581, 0.5842521786689758, 0.12564246356487274, 0.20674332976341248, 0.018746916204690933, 0.02708311192691326, -0.15560241043567657, -0.11604110896587372, -0.16364425420761108, -0.1632000207901001, 0.243864506483078, -0.3063437044620514, 0.1582263857126236, -0.48361197113990784, 0.0081360824406147, -0.22535143792629242, -0.4159841537475586, 0.9188165068626404, 0.29383277893066406, 0.48726123571395874, -0.11658672988414764, 0.15430980920791626, -0.01070372760295868, -0.3160250186920166, 0.04384849593043327, -0.10326638072729111, -0.1946951299905777, 0.2907332479953766, -0.413158118724823, -0.31746459007263184, -0.40406444668769836, 0.397519588470459, -0.0025203872937709093, 0.26558220386505127, -0.7790089249610901, -0.6382165551185608, 0.4920338988304138, -0.016567228361964226, -0.10490930080413818, -0.03980417177081108, -0.04687730222940445, -0.2031780332326889, 0.06879649311304092, -0.01033979095518589, 0.09046223014593124, -0.020099107176065445, -0.09112511575222015, 0.34127166867256165, -0.09242426604032516, 0.007992494851350784, 0.09654764831066132, 0.13054826855659485, -0.019789012148976326, -0.3835025131702423, -0.1447092741727829, -0.026444103568792343, -0.26038509607315063, 0.01796324923634529, -0.08222644776105881, 0.47432219982147217, 0.2058793008327484, 0.05692334845662117, -0.3348805904388428, 0.03611528500914574, 0.07606948167085648, -0.08614949136972427, 0.03059740550816059, -0.05934543535113335, 0.01996968872845173, 0.07540743052959442, 0.029957735911011696, 1.0967999696731567, -0.06143045797944069, 0.06777192652225494, 0.11865448206663132, 0.058469586074352264, 0.043512698262929916, 0.4438033103942871, -0.00032849787385202944, -0.07238110899925232, -0.17441262304782867, 0.06289646774530411, -0.022240132093429565, -0.5360289216041565, -0.005826066248118877, 0.09995361417531967, 0.24377547204494476, -0.15799304842948914, -0.16285206377506256, -0.6873701214790344, -0.4064086079597473, 0.7495354413986206, -0.2427276372909546, -0.13061492145061493, -0.669137716293335, -0.12091034650802612, -0.04836457967758179, -0.23046547174453735, 0.3559243679046631, 0.2869518995285034, -0.44128191471099854, -0.050015389919281006, 0.1681065559387207, 0.4823986291885376, -0.11955636739730835, 0.3069649934768677, -0.028011441230773926, -0.1917715072631836, 0.30598050355911255, -0.4455450773239136, 0.41890019178390503, 0.4994143843650818, -0.1365121603012085, 0.1975109577178955, 0.49860215187072754, 1.0333185195922852, 0.8376825451850891, 0.9844804406166077, -1.1643222570419312, 0.0790315642952919, 0.019999999552965164]}