{"version": "0.5.1", "metadata": {"date": {"year": 2023, "month": 4, "day": 30, "hour": 0, "minute": 28, "second": 26}, "loudness": -18.224395751953125, "gain": 0.004988085654175974, "name": null, "modeled_by": null, "gear_type": null, "gear_make": null, "gear_model": null, "tone_type": null}, "architecture": "WaveNet", "config": {"layers": [{"input_size": 1, "condition_size": 1, "head_size": 4, "channels": 8, "kernel_size": 3, "dilations": [1, 2, 4, 8, 16, 32, 64], "activation": "Tanh", "gated": false, "head_bias": false}, {"input_size": 8, "condition_size": 1, "head_size": 1, "channels": 4, "kernel_size": 3, "dilations": [128, 256, 512, 1, 2, 4, 8, 16, 32, 64, 128, 256, 512], "activation": "Tanh", "gated": false, "head_bias": true}], "head": null, "head_scale": 0.02}, "weights": [0.061932437121868134, 0.4281435012817383, -0.7031709551811218, -0.747036874294281, -0.42272719740867615, 0.2683662474155426, -0.17649662494659424, 0.7732650637626648, 0.03592163696885109, 0.1095489040017128, -0.13380466401576996, -0.14877118170261383, -0.14516881108283997, -0.07881048321723938, 0.028695540502667427, -0.03725630044937134, 0.02914777211844921, 0.2363160252571106, -0.18524301052093506, -0.14104317128658295, 0.18586638569831848, 0.12178904563188553, -0.09801556915044785, 0.04379226639866829, 0.01559104397892952, 0.0824885293841362, 0.3148142695426941, -0.22995467483997345, -0.18171729147434235, -0.16610370576381683, -0.03561650589108467, 0.22797022759914398, -0.20314769446849823, -0.0671355351805687, 0.015217545442283154, -0.021430466324090958, -0.006805520970374346, 0.13106393814086914, -0.08318927139043808, -0.019402608275413513, 0.05022234842181206, -0.2792167663574219, -0.08247995376586914, -0.14985743165016174, -0.31584325432777405, -0.21663625538349152, 0.1770700216293335, 0.2847052812576294, 0.016960138455033302, -0.061212945729494095, -0.024213168770074844, 0.10919936001300812, 0.15314602851867676, 0.20134954154491425, 0.25528475642204285, -0.16198407113552094, 0.057010553777217865, -0.06774918735027313, -0.37748685479164124, -0.14036664366722107, -0.026200490072369576, 0.19482474029064178, -0.08200965821743011, 0.18498782813549042, 0.004458589479327202, 0.012372909113764763, 0.13162818551063538, -0.06163306161761284, 0.15933750569820404, 0.31475093960762024, -0.2748214602470398, -0.10368015617132187, -0.03645997866988182, 0.2929062247276306, 0.20170052349567413, 0.28871583938598633, -0.11072205752134323, -0.21614611148834229, -0.10567396879196167, -0.018549077212810516, -0.21982818841934204, 0.03419451415538788, 0.2870115637779236, -0.24895921349525452, 0.20161917805671692, -0.062158022075891495, 0.007384462747722864, -0.26225346326828003, 0.10253598541021347, -0.07867126166820526, -0.09598103910684586, 0.12733130156993866, 0.19250497221946716, -0.09100697934627533, -0.17131486535072327, -0.1815275251865387, 0.26841306686401367, 0.006214344408363104, -0.1023506224155426, -0.2814941108226776, 0.2465716451406479, 0.09670526534318924, 0.08221040666103363, -0.0754152238368988, -0.15165981650352478, 0.06113921478390694, -0.33108457922935486, -0.22363919019699097, -0.09721551090478897, 0.06904638558626175, -0.012640194967389107, 0.21271473169326782, -0.15713074803352356, 0.2555689513683319, 0.23073238134384155, -0.2057987004518509, 0.012718058191239834, 0.09423180669546127, -0.012275432236492634, -0.01228356920182705, -0.003284607082605362, 0.0594240240752697, -0.06285692006349564, 0.15894196927547455, -0.2669542133808136, -0.19159546494483948, -0.14329881966114044, -0.06547389924526215, -0.11989545077085495, -0.21887975931167603, -0.38841333985328674, 0.008176908828318119, -0.2768821120262146, 0.1286422461271286, 0.18564282357692719, 0.12814486026763916, -0.1289481222629547, 0.0212255772203207, 0.19085922837257385, -0.006180417723953724, 0.22507663071155548, 0.27211636304855347, 0.04874647781252861, -0.04219015687704086, -0.32242605090141296, 0.05529684200882912, 0.14783532917499542, 0.1148015707731247, -0.285783976316452, -0.19502697885036469, -0.341010183095932, -0.03565405309200287, -0.07399719208478928, 0.048953477293252945, 0.2796373963356018, -0.1592661589384079, 0.2377062886953354, -0.24636179208755493, -0.08308074623346329, -0.19677716493606567, 0.043806325644254684, -0.07992911338806152, -0.2978217303752899, -0.09279152005910873, -0.06616953015327454, -0.10647664964199066, -0.0006443790625780821, 0.11002247780561447, -0.07409820705652237, -0.10896458476781845, 0.1604267954826355, -0.1779973953962326, 0.2995615005493164, 0.11420105397701263, -0.06841841340065002, 0.0452827550470829, -0.14396290481090546, -0.11961439251899719, 0.27836793661117554, -4.933640957460739e-05, 0.06199847161769867, -0.10647121071815491, -0.02379937842488289, 0.010790201835334301, 0.1558941900730133, -0.09776803106069565, -0.09266138076782227, 0.01710951328277588, -0.3343859016895294, 0.0700397714972496, 0.22859977185726166, 0.3028794825077057, -0.10740064829587936, -0.0631788969039917, -0.3189222514629364, -0.150135800242424, -0.02754884399473667, 0.23947566747665405, -0.07559720426797867, -0.06461799889802933, 0.10416284948587418, 0.1356751024723053, -0.03841772675514221, -0.1594657450914383, -0.030512304976582527, 0.2136971354484558, -0.16210514307022095, 0.08194302767515182, 0.4078403413295746, 0.09449984133243561, 0.09271802008152008, -0.21529479324817657, 0.14962764084339142, -0.10001549869775772, -0.08283306658267975, 0.07624032348394394, -0.2391415387392044, -0.25163617730140686, 0.4192529618740082, -0.35605359077453613, 0.18823108077049255, 0.4420818090438843, -0.01076874602586031, 0.046312712132930756, -0.41228771209716797, 0.1621217280626297, -0.2884819507598877, -0.08393274247646332, -0.22405746579170227, -0.07139530777931213, 0.06967207044363022, 0.22973719239234924, 0.06520842760801315, 0.4160067141056061, 0.22958926856517792, -0.37021487951278687, 0.23605331778526306, -0.2575489580631256, -0.15845954418182373, 0.3165682256221771, 0.014428985305130482, 0.12469504773616791, -0.010039565153419971, 0.030218767002224922, 0.31054943799972534, -0.35590746998786926, 0.15763840079307556, -0.41582271456718445, -0.004536312539130449, -0.15706086158752441, -0.0813482329249382, 0.01892952062189579, 0.4098159074783325, -0.0657234713435173, -0.26355305314064026, -0.14593908190727234, -0.23280465602874756, 0.259196013212204, -0.29162025451660156, -0.20730073750019073, -0.35144105553627014, 0.1307181864976883, 0.2662666440010071, 0.244416281580925, -0.10678013414144516, -0.1285998821258545, -0.06086752191185951, -0.0700860247015953, 0.3241092562675476, 0.1375432163476944, -0.2096564769744873, -0.21461589634418488, -0.48956215381622314, 0.09409787505865097, -0.23629555106163025, -0.2742827832698822, 0.22518222033977509, -0.18058164417743683, -0.03906237334012985, 0.1838080883026123, 0.09824377298355103, -0.28757426142692566, -0.238424614071846, 0.2641766369342804, 0.11814355850219727, 0.2489359825849533, -0.061319995671510696, 0.03090907633304596, -0.06967172026634216, -0.27672791481018066, -0.09713605046272278, 0.1565457135438919, 0.21560554206371307, -0.04089488089084625, -0.01609726995229721, -0.35906651616096497, 0.20415256917476654, -0.11763757467269897, 0.08340225368738174, 0.04670892655849457, -0.14344502985477448, -0.13229957222938538, -0.04748530685901642, 0.04936276003718376, 0.10636452585458755, -0.19083188474178314, 0.019861405715346336, -0.06176690384745598, 0.09462171792984009, -0.023828597739338875, -0.1106782853603363, -0.10655534267425537, 0.18436399102210999, 0.14878344535827637, -0.05531109496951103, 0.03879677131772041, -0.18385770916938782, 0.16886019706726074, 0.06903139501810074, 0.3478020131587982, -0.13956040143966675, -0.12540970742702484, -0.3164592981338501, -0.22214627265930176, 0.20934677124023438, 0.29795318841934204, -0.05747293680906296, -0.1580216884613037, -0.1564011126756668, 0.04634416848421097, -0.0820656418800354, 0.032627228647470474, 0.063604936003685, 0.11745024472475052, -0.2117662876844406, 0.29587599635124207, 0.23663006722927094, 0.37030720710754395, 0.10812467336654663, 0.08189640194177628, -0.1288367658853531, 0.043522465974092484, 0.24015501141548157, 0.3098461329936981, -0.22864669561386108, 0.03242562338709831, 0.11357861757278442, -0.12208180129528046, -0.05883995071053505, 0.19060133397579193, -0.17621764540672302, 0.088321253657341, -0.099062979221344, 0.13460476696491241, 0.13975383341312408, 0.21657469868659973, -0.0944545641541481, 0.0625433549284935, -0.220914825797081, 0.15404629707336426, -0.3945256471633911, 0.04746182635426521, -0.06711407005786896, 0.4280396103858948, 0.004788848105818033, 0.08441188186407089, -0.12143423408269882, 0.07932760566473007, -0.1558436006307602, -0.2847912311553955, -0.1715533584356308, 0.18302445113658905, -0.5047289133071899, 0.036819733679294586, -0.14604438841342926, 0.15419606864452362, 0.058938734233379364, 0.06897389888763428, -0.19634737074375153, 0.2922913134098053, 0.2592804431915283, 0.3847253620624542, 0.04670364037156105, 0.14387212693691254, 0.021324696019291878, 0.1305949091911316, 0.42610296607017517, 0.3047681450843811, 0.06958466023206711, -0.1529669612646103, -0.09361203759908676, -0.03447909653186798, 0.025644630193710327, -0.5259562134742737, -0.1917496621608734, 0.06524715572595596, -0.061870526522397995, -0.14197273552417755, 0.06391952931880951, 0.2425300031900406, 0.2104773074388504, -0.17515498399734497, -0.20066428184509277, 0.06291452050209045, 0.26916879415512085, 0.1039331704378128, 0.277207612991333, 0.0786295086145401, 0.0022079613991081715, 0.36182814836502075, -0.18318091332912445, 0.004633535631000996, 0.05538268759846687, 0.05632438510656357, -0.04661877080798149, -0.008288601413369179, -0.03218257799744606, -0.1028483584523201, -0.11581563949584961, 0.30295491218566895, -0.024688197299838066, -0.04591028392314911, -0.02594909258186817, 0.21209269762039185, 0.03685114160180092, -0.05981413647532463, -0.1447526216506958, -0.05410512164235115, -0.2537901997566223, 0.22899138927459717, -0.06168549880385399, 0.12130417674779892, 0.27891305088996887, -0.07674600183963776, -0.08753650635480881, -0.2914629578590393, 0.091339111328125, -0.18855537474155426, 0.17125843465328217, -0.2735002636909485, -0.055225618183612823, 0.01141110248863697, -0.027643656358122826, 0.21355561912059784, 0.05201837047934532, 0.1422148495912552, 0.05694819614291191, -0.10133156925439835, 0.10046135634183884, -0.1469954401254654, 0.3508901000022888, 0.05209171399474144, 0.2543714642524719, -0.1412801891565323, -0.08279454708099365, 0.11380074173212051, -0.059105291962623596, 0.15994252264499664, -0.07875627279281616, 0.12244368344545364, -0.2228006273508072, -0.17549839615821838, 0.1853211671113968, -0.10676450282335281, 0.11283109337091446, -0.026009801775217056, -0.020631371065974236, -0.06552651524543762, -0.30489370226860046, -0.0465804748237133, 0.17877957224845886, 0.450427770614624, 0.05294860154390335, -0.16181550920009613, -0.12637300789356232, -0.1575733721256256, -0.044950682669878006, 0.31022319197654724, -0.11213013529777527, -0.0014001171803101897, -0.24581709504127502, -0.2647773325443268, -0.19769637286663055, 0.1424858421087265, -0.06622254848480225, 0.17136678099632263, 0.2609257400035858, 0.17298002541065216, -0.05090327560901642, -0.12145128101110458, -0.11643409729003906, 0.18444709479808807, 0.5048933029174805, -0.7875745296478271, 0.7251940965652466, -0.14658820629119873, -0.49830031394958496, -0.04099566489458084, 0.4575676918029785, 0.2830567955970764, -0.4116772711277008, 0.281454861164093, 0.19180725514888763, 0.1670549511909485, 0.5764217972755432, -0.2861499488353729, -0.0017790021374821663, 0.10988001525402069, -0.10957799851894379, 0.3622629940509796, -0.17164023220539093, 0.338575541973114, -0.12542717158794403, -0.14449602365493774, 0.004237654153257608, 0.1499275267124176, -0.057951655238866806, -0.14926277101039886, 0.2001972645521164, -0.11406899243593216, 0.05211402848362923, -0.007706411182880402, 0.13885866105556488, -0.18452328443527222, -0.405351847410202, -0.2908555865287781, 0.44764211773872375, -0.27816370129585266, 0.041384339332580566, -0.07221122831106186, 0.45231688022613525, 0.4058291018009186, -0.26752111315727234, -0.06898514181375504, -0.5760966539382935, 0.24059627950191498, 0.0019674724899232388, -0.5295763611793518, -0.31312882900238037, 0.1327771544456482, -0.12309947609901428, 0.02039751037955284, -0.01731571927666664, -0.07693709433078766, 0.20689493417739868, 0.1817994862794876, -0.3459728956222534, 0.12099949270486832, 0.058194395154714584, 0.3611527383327484, -0.5666840672492981, -0.23814691603183746, 0.3981180787086487, -0.27714788913726807, -0.04449382424354553, -0.12965014576911926, -0.16019770503044128, 5.818310455651954e-05, 0.20651473104953766, -0.10108104348182678, -0.17645668983459473, -0.25779998302459717, -0.02010502852499485, 0.02906312420964241, -0.14112727344036102, 0.3501288592815399, -0.08519543707370758, -0.08735661208629608, 0.22713172435760498, 0.39011773467063904, 0.04551168903708458, -0.09171230345964432, -0.31160977482795715, -0.009744225069880486, 0.04074591398239136, 0.14784789085388184, -0.3320874869823456, -0.07514164596796036, 0.13546355068683624, 0.006137283984571695, -0.07441139966249466, 0.06702255457639694, -0.3275640606880188, 0.1839461624622345, 0.019410401582717896, 0.13947756588459015, -0.01879321038722992, 0.11855477094650269, -0.009968610480427742, 0.0837114155292511, -0.23125885426998138, -0.012670086696743965, -0.2930995523929596, 0.3377750515937805, 0.07283712923526764, 0.17364022135734558, -0.2788894474506378, 0.21945184469223022, 0.07183602452278137, -0.01526867225766182, -0.24830491840839386, -0.36790531873703003, -0.2014937847852707, 0.15455281734466553, -0.3497539460659027, 0.1250177025794983, 0.1596580147743225, 0.04684112221002579, -0.21355973184108734, 0.047233305871486664, 0.060179781168699265, 0.000226120202569291, 0.18275104463100433, 0.06624555587768555, -0.03361273184418678, 0.22510547935962677, 0.14334990084171295, 0.25394207239151, 0.12014874815940857, -0.1621716171503067, -0.27276474237442017, 0.2693450152873993, 0.029064124450087547, -0.1053789034485817, -0.026332201436161995, 0.02849600836634636, 0.21417082846164703, -0.16502566635608673, -0.20880839228630066, 0.2524256110191345, 0.23628489673137665, -0.09981610625982285, -0.20149174332618713, 0.11113342642784119, -0.06534971296787262, 0.06722328811883926, 0.08247401565313339, -0.2183557152748108, -0.2951335906982422, 0.13497108221054077, -0.12239111959934235, -0.14393199980258942, 0.11408090591430664, 0.06123308092355728, 0.037064988166093826, 0.14658589661121368, -0.15446476638317108, 0.1675427258014679, -0.10545697808265686, -0.046578068286180496, 0.04992211237549782, -0.06785229593515396, 0.0779966413974762, -0.25193798542022705, -0.18808044493198395, -0.12714871764183044, 0.270494669675827, 0.09307550638914108, -0.24172770977020264, -0.01009399350732565, -0.09739933162927628, -0.0028065775986760855, 0.18513043224811554, -0.18511824309825897, -0.11896970123052597, -0.06044084578752518, -0.02942238561809063, 0.3442150950431824, 0.0961092934012413, 0.09055955708026886, -0.336906373500824, -0.1560066044330597, 0.07233449816703796, -0.10645517706871033, 0.02145523577928543, 0.35042938590049744, -0.0905613973736763, -0.14201408624649048, 0.15171915292739868, -0.15338656306266785, 0.17236188054084778, -0.3316877484321594, -0.0008717771270312369, 0.0371679924428463, 0.21750937402248383, 0.2340892106294632, 0.09540494531393051, -0.2522263824939728, 0.17332324385643005, 0.15923988819122314, -0.044656917452812195, -0.2810767889022827, 0.05072663351893425, 0.37020230293273926, 0.3229503631591797, -0.18103322386741638, 0.23797719180583954, 0.02628682181239128, 0.03733355551958084, -0.1453343629837036, 0.046890027821063995, 0.2623593509197235, -0.03690677881240845, -0.34067869186401367, -0.6322920322418213, -0.07058807462453842, 0.2537369728088379, 0.23733650147914886, 0.08106847107410431, -0.011004595085978508, -0.05657123029232025, -0.025394877418875694, -0.2352541834115982, -0.16752789914608002, 0.08729977905750275, 0.0377156138420105, -0.13127775490283966, 0.06042183190584183, 0.09370322525501251, -0.018045775592327118, 0.2630152404308319, -0.5267325043678284, 0.07605721801519394, 0.10817328095436096, -0.2556621730327606, -0.03871509060263634, 0.11649948358535767, -0.11702181398868561, 0.0888361856341362, -0.06770353764295578, 0.02324509248137474, 0.058515049517154694, -0.004111936315894127, 0.08776244521141052, -0.07673881947994232, 0.1684105098247528, -0.04824702441692352, -0.3687857687473297, 0.03999895974993706, -0.10079653561115265, 0.018044013530015945, -0.02281964384019375, 0.041997455060482025, -0.05767165496945381, -0.06715276837348938, 0.23276355862617493, 0.002772192470729351, -0.15847676992416382, 0.010487019084393978, -0.20620781183242798, -0.35766562819480896, 0.03329635038971901, 0.5149831175804138, 0.15317629277706146, -0.2146674394607544, -0.052775636315345764, -0.21526503562927246, 0.1737048625946045, 0.03384862467646599, -0.03885013982653618, 0.324209064245224, 0.2852378189563751, -0.2362179011106491, 0.23854389786720276, -0.2544313669204712, -0.3563559651374817, -0.041440028697252274, 0.2191835641860962, -0.5095553994178772, -0.1620827168226242, 0.22565630078315735, -0.7171292901039124, 0.40209993720054626, 0.31524693965911865, 0.356149822473526, -0.2384490966796875, 0.322398841381073, -0.16471080482006073, 0.44190821051597595, -0.2804325819015503, -0.6101599335670471, 0.2571328580379486, -0.2650485038757324, 0.13055077195167542, -0.17582163214683533, -0.21160076558589935, -0.19572432339191437, -0.2747837007045746, 0.16626837849617004, -0.18382354080677032, 0.07405529916286469, 0.1537369340658188, 0.10081249475479126, -0.20553836226463318, -0.18819083273410797, -0.10098331421613693, -0.19990892708301544, -0.16708464920520782, -0.11238834261894226, 0.002291333395987749, 0.19330450892448425, 0.18312770128250122, 0.3643004894256592, -0.24382978677749634, -0.14740201830863953, 0.5480586290359497, 0.29668092727661133, -0.4707821011543274, 0.015213201753795147, -0.2689667344093323, -0.3488636612892151, 0.01661401428282261, 0.19352327287197113, -0.426961749792099, -0.006716024596244097, 0.3125856816768646, -0.061171919107437134, 0.34735727310180664, -0.020031429827213287, 0.05717114359140396, 0.5591447949409485, -0.20072238147258759, 0.4782405197620392, -0.20838439464569092, -0.2940464913845062, -0.3899179697036743, -0.36506497859954834, 0.013871649280190468, 0.24868912994861603, -0.006314603146165609, 0.2536850869655609, -0.017906781286001205, 0.14883652329444885, -0.169921413064003, -0.42918288707733154, 0.12029621005058289, 0.23514476418495178, -0.21363279223442078, 0.11093677580356598, 0.05359463766217232, -0.00222023599781096, 0.4565598964691162, 0.05410129576921463, 0.024831224232912064, 0.28107336163520813, -0.10796459019184113, 0.09864476323127747, 0.1936243623495102, -0.14808042347431183, 0.04754476621747017, -0.11709626019001007, 0.1830459088087082, -0.13077151775360107, -0.08435069769620895, 0.08417598903179169, -0.1880762279033661, -0.20704151690006256, -0.02878597006201744, 0.22229960560798645, -0.224687859416008, 0.1506318598985672, 0.2212291806936264, -0.031227245926856995, 0.23509706556797028, 0.17268817126750946, 0.02366745099425316, -0.06853368878364563, -0.09899235516786575, -0.19391079246997833, 0.29470059275627136, 0.055598922073841095, 0.10586628317832947, -0.11269892752170563, -0.0664568543434143, 0.11136998981237411, -0.0549963042140007, 0.2982558608055115, -0.00997988786548376, -0.015783950686454773, 0.04691208899021149, 0.06020108982920647, -0.1077970638871193, -0.48192307353019714, 0.33349305391311646, 0.17353449761867523, 0.25126633048057556, 0.17031806707382202, -0.23187848925590515, 0.036799751222133636, 0.026053251698613167, -0.12380250543355942, 0.3029177188873291, -0.1053173691034317, 0.12591387331485748, 0.2419697493314743, 0.06355394423007965, -0.3161539137363434, 0.056712061166763306, 0.08529400825500488, 0.024073177948594093, -0.0012467491906136274, 0.14813560247421265, 0.2089475840330124, 0.2686106264591217, 0.017829814925789833, 0.12684015929698944, -0.104777991771698, -0.0030947858467698097, 0.014859765768051147, 0.06004101410508156, -0.01489014271646738, 0.31397247314453125, -0.18152475357055664, 0.019746899604797363, 0.17266224324703217, 0.1949407458305359, -0.34427469968795776, -0.026768602430820465, 0.06397009640932083, 0.07364613562822342, 0.22418348491191864, 0.09844638407230377, -0.1483447253704071, 0.04830768331885338, -0.06741282343864441, -0.11656828224658966, 0.17040418088436127, -0.08290435373783112, 0.15314938127994537, 0.09265048801898956, 0.528191089630127, -0.2755197584629059, 0.046902623027563095, 0.13466395437717438, 0.2061416059732437, 0.06997478753328323, 0.12557823956012726, -0.07747087627649307, 0.07627091556787491, -0.4511559307575226, 0.0025659017264842987, -0.17766478657722473, -0.30212458968162537, 0.1098235622048378, 0.0731261745095253, -0.1513700783252716, -0.15083366632461548, -0.32686302065849304, 0.15893495082855225, -0.17087149620056152, -0.08232500404119492, -0.14453954994678497, -0.049188971519470215, -0.016411488875746727, 0.08500824123620987, 0.21778874099254608, -0.06450159847736359, -0.13889233767986298, -0.020768210291862488, -0.3062630593776703, -0.22923196852207184, -0.10012845695018768, 0.2875702381134033, -0.051477983593940735, 0.02063330076634884, -0.3752916753292084, 0.0028629146981984377, -0.30083516240119934, 0.26361092925071716, 0.25867342948913574, 0.09911878407001495, -0.003773459466174245, 0.1851343959569931, 0.05093226954340935, -0.06903404742479324, 0.08426261693239212, 0.33389055728912354, 0.11459909379482269, -0.1378210037946701, -0.02425440587103367, 0.09389607608318329, -0.0675717368721962, 0.3212965726852417, -0.2847001552581787, 0.07974688708782196, -0.09404435753822327, -0.2041698396205902, -0.19094637036323547, 0.10585834830999374, 0.05685437470674515, -0.06768617033958435, 0.11021755635738373, -0.19641727209091187, -0.05940976366400719, 0.22341656684875488, 0.1541738212108612, -0.07419373840093613, -0.18959005177021027, -0.018172869458794594, 0.11669955402612686, -0.03848928213119507, -0.135324165225029, 0.06524307280778885, 0.041173774749040604, -0.020988309755921364, 0.2712878882884979, -0.3538869619369507, 0.15228037536144257, -0.15900352597236633, -0.09506601840257645, 0.11398179829120636, 0.2773171663284302, -0.21867555379867554, 0.04045892134308815, 0.021405845880508423, 0.12159410119056702, 0.42719927430152893, -0.08458570390939713, -0.18642620742321014, 0.042355719953775406, 0.380552738904953, 0.025935888290405273, -0.0397825762629509, -0.041109539568424225, -0.038133472204208374, -0.10656960308551788, -0.2780049741268158, -0.18036319315433502, -0.045119963586330414, -0.06376471370458603, 0.2580517828464508, -0.3334234952926636, 0.11776237934827805, -0.005216305144131184, -0.2429988980293274, -0.3145930767059326, -0.1386495679616928, -0.24612967669963837, 0.17492063343524933, 0.4554091989994049, 0.04799516499042511, 0.2445903718471527, 0.10916682332754135, 0.04533514380455017, -0.16699519753456116, 0.1687498539686203, 0.23085077106952667, 0.23086166381835938, -0.6759306788444519, 0.35975825786590576, 0.048293985426425934, -0.13159871101379395, 0.2814197540283203, 0.26357027888298035, -0.6952752470970154, 0.2519952058792114, 0.18634650111198425, 0.044317495077848434, 0.19265879690647125, -0.13861435651779175, -0.07915989309549332, 0.15883362293243408, 0.18468011915683746, 0.19762249290943146, -0.3421782851219177, -0.4544106423854828, -0.37302908301353455, -0.02990790642797947, 0.3670990765094757, 0.38404399156570435, -0.12472893297672272, 0.052720747888088226, 0.4179717004299164, -0.29104673862457275, 0.3473430275917053, -0.4009466767311096, -0.3897936940193176, -0.4220745861530304, 0.3731522262096405, -0.46129730343818665, -0.0216198842972517, -0.24609197676181793, 0.04678406938910484, -0.021914944052696228, 0.23825374245643616, 0.12472834438085556, 0.20769624412059784, -0.16745886206626892, 0.3487102687358856, -0.18056267499923706, 0.06701779365539551, 0.23327992856502533, -0.3919332027435303, 0.008377047255635262, 0.055824823677539825, -0.08705601841211319, 0.04977128654718399, -0.20455807447433472, 0.15165136754512787, -0.0014053754275664687, -0.054115813225507736, 0.10705634206533432, 0.1876794993877411, 0.402547150850296, -0.3011041581630707, 0.002911366755142808, -0.5541109442710876, -0.04644409567117691, 0.2701198160648346, 0.062004126608371735, -0.2533554434776306, -0.20812761783599854, -0.02727205865085125, 0.27212297916412354, -0.0727555900812149, -0.21543806791305542, -0.05458899959921837, -0.20647525787353516, -0.27750295400619507, -0.06631049513816833, -0.01276908628642559, -0.3650796413421631, -0.33046209812164307, 0.025010325014591217, -0.26925164461135864, -0.15577197074890137, -0.29129698872566223, -0.3290512263774872, -0.03870267793536186, -0.36661046743392944, -0.07273576408624649, 0.031213052570819855, 0.08361274749040604, 0.18064188957214355, 0.10647785663604736, -0.28548747301101685, 0.01414583157747984, -0.1611543744802475, 0.06920982897281647, 0.10423263162374496, -0.10883410274982452, -0.0835229754447937, -0.5605916976928711, 0.008318658918142319, 0.27642911672592163, -0.32338324189186096, -0.06531817466020584, -0.03623746708035469, 0.12985865771770477, 0.06575293838977814, 0.3392552137374878, -0.23300091922283173, -0.26774486899375916, -0.1071772649884224, 0.20888276398181915, -0.08201610296964645, -0.019766727462410927, 0.12111987173557281, -0.031226329505443573, 0.1130252331495285, -0.34055382013320923, -0.18520517647266388, -0.18585669994354248, 0.3048925995826721, 0.07453752309083939, -0.2578706741333008, -0.20912888646125793, 0.13479681313037872, 0.12411127984523773, -0.16273625195026398, -0.12073132395744324, 0.16056862473487854, -0.11445055156946182, -0.03901926800608635, 0.07378936558961868, -0.023168763145804405, -0.04552740603685379, -0.03609156236052513, 0.09279762953519821, -0.09597720205783844, -0.06130322813987732, -0.1720067858695984, 0.29860761761665344, -0.04513203725218773, -0.08872953057289124, -0.19775396585464478, -0.10327033698558807, 0.3653952479362488, 0.10617378354072571, -0.1508309245109558, -0.13379327952861786, 0.25839605927467346, 0.24553197622299194, 0.026850387454032898, 0.029048500582575798, -0.16237366199493408, 0.13056163489818573, 0.0316753014922142, 0.14613623917102814, -0.16706985235214233, 0.1484522968530655, 0.2561008632183075, 0.02292313612997532, -0.3900875747203827, -0.18719440698623657, 0.018756555393338203, 0.12043285369873047, 0.316851943731308, -0.1547720581293106, -0.07501700520515442, 0.03739666938781738, -0.2937379777431488, 0.23314359784126282, -0.13692022860050201, 0.024624278768897057, -0.23006244003772736, -0.1497604101896286, 0.3700777590274811, -0.1399528980255127, 0.09243706613779068, 0.298397421836853, 0.013245953246951103, -0.16354647278785706, 0.16573220491409302, 0.034505970776081085, 0.13511069118976593, -0.16932886838912964, 0.0649898499250412, 0.1440756618976593, -0.08304356038570404, 0.09952980279922485, 0.17294344305992126, 0.0023895748890936375, 0.050800248980522156, 0.07429328560829163, -0.3434252440929413, 0.028179887682199478, 0.0628516674041748, 0.43701431155204773, -0.19613613188266754, -0.23854340612888336, 0.16570083796977997, 0.15112750232219696, -0.2465096414089203, -0.09188589453697205, -0.2850024402141571, -0.16529318690299988, -0.12875716388225555, 0.21513418853282928, 0.09983677417039871, -0.025677302852272987, 0.0727190375328064, 0.03530312329530716, -0.11728601157665253, 0.17484955489635468, 0.1290087103843689, 0.20393717288970947, -0.1172444149851799, 0.26441875100135803, 0.006288742646574974, -0.09764688462018967, 0.03897524252533913, 0.42037659883499146, -0.26310595870018005, -0.18322135508060455, 0.20869864523410797, 0.07047625631093979, 0.1590743362903595, 0.2091040164232254, 0.07321492582559586, -0.21233822405338287, 0.22541987895965576, -0.43551385402679443, -0.2981383204460144, 0.07232996821403503, -0.06424709409475327, 0.11451777815818787, 0.04396481812000275, 0.29967451095581055, -0.051514409482479095, -0.0910898894071579, -0.260859876871109, 0.05155428871512413, 0.43563613295555115, -0.011886190623044968, -0.3177085220813751, -0.520139753818512, 0.29103243350982666, 0.2157890498638153, -0.408471941947937, -0.03989022225141525, 0.31984779238700867, -0.02372588776051998, 0.327714741230011, 0.04914326220750809, -0.3341710567474365, 0.08106928318738937, 0.05085233971476555, -0.058378420770168304, -0.1666439324617386, -0.15258435904979706, 0.13893193006515503, -0.058700043708086014, 0.16674667596817017, 0.0314314179122448, 0.11068571358919144, 0.06194419786334038, -0.3554864525794983, -0.17445991933345795, -0.05355076864361763, 0.29119259119033813, -0.10954413563013077, -0.20672091841697693, 0.06084705516695976, 0.1180352196097374, 0.13642971217632294, -0.15534350275993347, -0.17597456276416779, 0.02348366007208824, 0.18581412732601166, -0.14197519421577454, 0.00790668185800314, -0.07301883399486542, -0.043722350150346756, -0.07286609709262848, 0.039788149297237396, -0.14993542432785034, -0.14093926548957825, -0.02385326288640499, -0.5100643038749695, -0.2722800076007843, -1.0589730739593506, 0.6553635001182556, 0.1631544828414917, -0.45262596011161804, -0.337561696767807, 0.1689872145652771, 0.014049858786165714, 0.21290697157382965, -0.02494303695857525, -0.402055561542511, 0.03164539486169815, 0.2559916079044342, 0.22387169301509857, -0.16610285639762878, -0.22656770050525665, 0.12302415072917938, -0.14102518558502197, 0.17402341961860657, 0.42774805426597595, -0.3878018856048584, 0.45012450218200684, 0.44373077154159546, 0.4023953676223755, 0.20005418360233307, 0.21674709022045135, -0.2472171038389206, -0.2276608645915985, 0.28306761384010315, -0.07125364243984222, -0.05784638226032257, 0.35856175422668457, 0.02110990323126316, 0.17437948286533356, 0.08366632461547852, 0.18893636763095856, 0.40913841128349304, -0.1650167852640152, -0.19963988661766052, 0.45890918374061584, 0.06743254512548447, 0.1315724104642868, -0.5347130298614502, -0.08950864523649216, 0.20866070687770844, -0.04699821025133133, 0.14185668528079987, 0.11088941991329193, 0.023498499765992165, 0.1598336547613144, 0.3595435619354248, -0.1076955497264862, 0.04694923758506775, -0.22646179795265198, 0.3082623779773712, 0.20394249260425568, -0.10840670019388199, -0.09329322725534439, -0.11536293476819992, 0.2650243937969208, -0.12774932384490967, 0.3106946647167206, 0.6504881978034973, 0.41500088572502136, 0.4183318018913269, -0.27603384852409363, -0.0339253693819046, -0.3464534878730774, 0.5052229762077332, -0.13279268145561218, 0.0243715588003397, -0.26441264152526855, -0.2992052733898163, 0.09630496799945831, 0.099116250872612, -0.050040218979120255, 0.18495610356330872, -0.1560637503862381, 0.15436917543411255, -0.1345343291759491, 0.012805307283997536, -0.03780053183436394, 0.07029619067907333, 0.041491877287626266, 0.05779256671667099, 0.03065616823732853, 0.1343235969543457, -0.15445880591869354, -0.16541635990142822, 0.0890808254480362, -0.2166319042444229, -0.18053622543811798, -0.26128125190734863, -0.13149632513523102, -0.07521983981132507, 0.13162602484226227, 0.05129067972302437, -0.06572776287794113, -0.24743075668811798, -0.26575374603271484, -0.03326037898659706, 0.015219517052173615, 0.19566844403743744, -0.18327303230762482, -0.10161897540092468, -0.12091149389743805, 0.04488862678408623, -0.3774562180042267, -0.1940334588289261, 0.175942525267601, 0.12621243298053741, 0.12628865242004395, -0.015246600843966007, 0.012052048929035664, -0.16894371807575226, -0.03677200525999069, -0.20021885633468628, -0.10712087899446487, 0.08646229654550552, -0.17530706524848938, 0.10898515582084656, 0.10615305602550507, -0.1556989997625351, -0.20271189510822296, 0.10766901075839996, -0.1339033991098404, 0.024435916915535927, -0.12005583941936493, 0.1956234723329544, 0.08598596602678299, 0.03121079131960869, -0.07051828503608704, 0.009171318262815475, -0.15152494609355927, 0.02116694487631321, -0.1286374181509018, -0.07688196003437042, 0.36427268385887146, 0.17879047989845276, 0.1198616474866867, -0.08563917130231857, 0.08886384218931198, 0.28076449036598206, -0.0896308571100235, -0.02591436542570591, -0.01494910754263401, -0.2027963250875473, 0.07560160756111145, 0.29163551330566406, -0.17280496656894684, 0.182713583111763, 0.211308091878891, -0.4363725185394287, 0.015714313834905624, 0.1647309809923172, 0.5347256064414978, 0.028575396165251732, -0.016210336238145828, 0.07892588526010513, 0.10873588919639587, 0.4175967872142792, -0.16229833662509918, -0.04016648977994919, 0.10612717270851135, -0.1785673350095749, 0.12124563008546829, -0.083947092294693, 0.01281826850026846, 0.14671196043491364, 0.14510565996170044, 0.8944730162620544, -0.0908324122428894, -0.11554684489965439, 0.1919127255678177, 0.028539761900901794, 0.07903134077787399, -0.07626086473464966, -0.013239947147667408, -0.12003884464502335, 0.14438821375370026, 0.04285285621881485, -0.09853596240282059, -0.09261550009250641, -0.11372929066419601, 0.05691293254494667, -0.20905278623104095, -0.057378340512514114, 0.06591078639030457, 0.09195750951766968, -0.20541422069072723, -0.05079631134867668, 0.18669244647026062, -0.01894877851009369, -0.012016666121780872, 0.16547593474388123, 0.16382591426372528, -0.37986138463020325, 0.015312915667891502, -0.02350674569606781, -0.0006908868672326207, 0.10396841168403625, 0.06684309244155884, 0.02555025741457939, 0.13420143723487854, -0.10487128049135208, -0.10660585761070251, -0.12624938786029816, 0.10875358432531357, 0.2361707091331482, -0.047427259385585785, -0.018735432997345924, -0.1777649074792862, 0.2019941359758377, 0.10726948082447052, -0.13222749531269073, 0.2440842092037201, 0.027734315022826195, -0.1753443032503128, -0.049228377640247345, 0.02528366632759571, -0.18713662028312683, 0.12720021605491638, 0.011815818957984447, -0.10568828135728836, 0.32012686133384705, 0.08121345937252045, -0.09203736484050751, -0.4981231093406677, -0.06143505871295929, -0.057770974934101105, 0.15544778108596802, -0.06256301701068878, -0.33860355615615845, 0.13526831567287445, 0.08182351291179657, -0.23392601311206818, -0.31116777658462524, -0.08969317376613617, 0.083842433989048, -0.046682097017765045, -0.06327120214700699, -0.22292748093605042, -0.27370795607566833, 0.01797368936240673, 0.2781060039997101, -0.04463023319840431, 0.09319283068180084, -0.2491985708475113, -0.1151919960975647, -0.056026607751846313, -0.05674614757299423, 0.08253636211156845, -0.04796137288212776, 0.23765680193901062, -0.05199669674038887, 0.03050609678030014, -0.32790133357048035, 0.023002590984106064, 0.12219900637865067, 0.026792125776410103, -0.1288827359676361, 0.09776782244443893, 0.16040723025798798, 0.04274678975343704, 0.1270848661661148, -0.10547834634780884, -0.04860395938158035, -0.019721457734704018, 0.28568416833877563, 0.0122909527271986, 0.019811337813735008, 0.14645886421203613, 0.1116669699549675, -0.19531257450580597, -0.07865753769874573, -0.07487006485462189, 0.1561467945575714, 0.12489090114831924, -0.43451017141342163, 0.30700597167015076, -0.1268627643585205, 0.08132467418909073, -0.21799436211585999, 0.314697265625, -0.5923307538032532, 0.39564579725265503, 0.18830618262290955, 0.04362441226840019, -0.2229384034872055, -0.04055563732981682, -0.11820997297763824, -0.3746158480644226, -0.22834941744804382, 0.5397747755050659, 0.26840516924858093, 0.12281746417284012, 0.19793866574764252, 0.2192039042711258, 0.23679496347904205, 0.2852676510810852, -0.08638278394937515, -0.1603865921497345, 0.24002297222614288, 0.1673758178949356, -0.1585761308670044, -0.30637526512145996, 0.16027863323688507, 0.3464790880680084, 0.2621431350708008, 0.12814413011074066, 0.18012802302837372, -0.30283913016319275, -0.23172461986541748, -0.3850073516368866, 0.26471418142318726, -0.11824442446231842, -0.09140536189079285, 0.2242819219827652, -0.19374796748161316, -0.12410996854305267, 0.18212346732616425, -0.1451210081577301, -0.26730120182037354, -0.27043676376342773, 0.21359357237815857, 0.4071137607097626, -0.24183544516563416, -0.45109161734580994, 0.2956159710884094, -0.23744063079357147, -0.13179247081279755, -0.3020351827144623, -0.041048381477594376, 0.1480642557144165, -0.05302661284804344, 0.16783954203128815, -0.21783781051635742, 0.41125163435935974, 0.24414806067943573, 0.044527314603328705, 0.11136233061552048, 0.06367195397615433, -0.34652236104011536, -0.053797025233507156, 0.15377120673656464, -0.22539342939853668, 0.30822181701660156, -0.20710809528827667, -0.355085164308548, -0.16732889413833618, -0.3270948529243469, 0.31254151463508606, -0.15861180424690247, -0.2554415464401245, -0.01629241369664669, -0.28083714842796326, -0.1863175332546234, 0.12692110240459442, 0.04099008068442345, 0.042551614344120026, 0.2779339551925659, 0.14143602550029755, 0.0864611566066742, -0.29726675152778625, 0.1425676792860031, 0.09464550763368607, 0.10489220172166824, 0.04889921098947525, -0.16940705478191376, 0.22768183052539825, -0.10488820821046829, -0.19167876243591309, -0.14536713063716888, -0.16243234276771545, -0.11224193871021271, -0.21202363073825836, 0.11063714325428009, -0.10436931997537613, -0.02446744777262211, -0.02533739246428013, 0.1727629154920578, 0.3284468948841095, 0.2224893420934677, -0.10648506134748459, 0.5938401818275452, 0.22176694869995117, 0.16567599773406982, -0.22078488767147064, 0.19994977116584778, 0.16577410697937012, 0.35338374972343445, 0.04844643920660019, 0.03831818327307701, 0.7105957269668579, -0.18865039944648743, -0.00826722476631403, 0.19104920327663422, -0.07819563895463943, 0.14889447391033173, -0.28184226155281067, 0.15854527056217194, 0.16712014377117157, 0.08244267106056213, 0.06455894559621811, 0.38128572702407837, 0.2988767623901367, 0.1034793108701706, -0.08898148685693741, 0.36807143688201904, 0.19858303666114807, -0.04393406957387924, 0.10106871277093887, 0.10755078494548798, 0.04036945849657059, 0.13736164569854736, 0.0866260975599289, 0.08809709548950195, 0.13546985387802124, -0.2104066163301468, -0.11003852635622025, 0.07825925201177597, -0.0793779119849205, 0.09608235955238342, -0.0006767617305740714, -0.026262402534484863, -0.14751411974430084, -0.3127115070819855, -0.1578260064125061, -0.07092740386724472, 0.05237323045730591, 0.06967683881521225, 0.2517494559288025, -0.22567981481552124, -0.08411067724227905, 0.09174473583698273, 0.21815508604049683, -0.12696263194084167, 0.011936967261135578, -0.0946541279554367, -0.03191351145505905, -0.06346607208251953, -0.20105160772800446, 0.15655089914798737, 0.1667945683002472, -0.0413709320127964, 0.2128804624080658, 0.04846995696425438, -0.100007064640522, 0.06998856365680695, 0.08442240953445435, 0.4779098629951477, 0.10663401335477829, -0.0600941963493824, -0.07493524253368378, 0.06733357906341553, 0.102341428399086, -0.20837466418743134, -0.05805492401123047, -0.08419209718704224, 0.3704622983932495, -0.25265198945999146, 0.08038284629583359, -0.17267204821109772, -0.05561109259724617, 0.0695088803768158, -0.2675069272518158, 0.2517092823982239, 0.1269736886024475, -0.06838015466928482, 0.13125497102737427, 0.05623484030365944, -0.06394186615943909, -0.07942001521587372, 0.12762193381786346, 0.10982572287321091, 0.21300199627876282, -0.23205551505088806, -0.16849954426288605, -0.11586526036262512, -0.2762703001499176, -0.1959027498960495, -0.1489490568637848, 0.001333911786787212, 0.05597242712974548, 0.05948670580983162, 0.43881383538246155, 0.11065943539142609, 0.09588989615440369, -0.032173946499824524, -0.22070014476776123, 0.06903862208127975, -0.19382035732269287, -0.02582125924527645, 0.03298184648156166, -0.2877906262874603, -0.06188993901014328, -0.059428032487630844, 0.09402856230735779, -0.1303887814283371, 0.07371998578310013, -0.18524089455604553, -0.37723028659820557, 0.021084444597363472, -0.09528760612010956, 0.22325976192951202, -0.13098834455013275, 0.20402032136917114, -0.1960654854774475, 0.08715887367725372, 0.1063641682267189, 0.15219029784202576, -0.019325321540236473, 0.11117316037416458, 0.29428771138191223, -0.21287564933300018, -0.18255749344825745, 0.0029443493112921715, 0.037057891488075256, -0.07470498234033585, 0.02007266692817211, 0.038176462054252625, -0.0355646051466465, -0.05807242542505264, -0.12196547538042068, 0.016794107854366302, 0.27471429109573364, 0.007247663103044033, -0.2241489738225937, -0.10452782362699509, 0.027793826535344124, -0.08952227234840393, 0.2613227069377899, 0.12545576691627502, -0.0305495485663414, -0.2614310383796692, -0.2640550434589386, -0.2704158425331116, 0.05789538100361824, 0.01831957697868347, 0.16455088555812836, 0.010914435610175133, 0.08589708805084229, 0.2315618246793747, -0.06692776829004288, -0.0727890282869339, -0.11031004786491394, 0.15377967059612274, -0.13745702803134918, 0.06263159215450287, -0.22369174659252167, 0.09383464604616165, -0.49775710701942444, -0.1676829606294632, -0.29113101959228516, 0.025320207700133324, 0.04084235429763794, 0.020171619951725006, -0.006974135059863329, -0.22857965528964996, -0.32325878739356995, 0.2512258291244507, 0.8126717209815979, 0.8535282015800476, -0.25126928091049194, -0.8099722266197205, -0.5249993801116943, -0.06407410651445389, -0.06398097425699234, 0.04113483801484108, 0.1110832467675209, 0.09469570219516754, 0.19460810720920563, -0.16146157681941986, -0.09848867356777191, -0.012300236150622368, -0.24850977957248688, 0.05039089173078537, -0.03945710137486458, -0.31396710872650146, 0.17420166730880737, 0.03931936249136925, -0.2249956876039505, 0.25988543033599854, -0.1989584118127823, 0.07974757999181747, 0.3571552336215973, -0.05540749803185463, 0.0960783138871193, 0.06243760883808136, 0.17539764940738678, -0.2271602600812912, -0.19280381500720978, -0.14080074429512024, 0.29016220569610596, 0.1346963495016098, 0.2985893487930298, -0.13060784339904785, 0.04699805751442909, 0.06125840172171593, 0.12934312224388123, -0.43275898694992065, -0.3311464786529541, 0.015714848414063454, 0.26024702191352844, 0.21131575107574463, -0.08240190893411636, -0.018316127359867096, 0.0013889786787331104, -0.22466085851192474, -0.06323323398828506, -0.29544907808303833, -0.2432491034269333, -0.42614808678627014, -0.017230406403541565, -0.13183367252349854, 0.12379290908575058, 0.14901593327522278, 0.3694301247596741, 0.4214842915534973, -0.28208091855049133, 0.0374499186873436, 0.13444733619689941, 0.1242084726691246, -0.17253679037094116, -0.0655028373003006, -0.1513069123029709, 0.21766267716884613, -0.20273619890213013, -0.2719656229019165, 0.18558348715305328, 0.3656117022037506, -0.014185136184096336, -0.24567008018493652, 0.32274073362350464, -0.08629556000232697, -0.20371854305267334, -0.2456362545490265, -0.1699405312538147, 0.0014332360588014126, 0.32075414061546326, 0.01201583445072174, -0.49047011137008667, -0.19971926510334015, -0.3577570915222168, 0.44209569692611694, -0.3692825436592102, 0.43831950426101685, 0.8173739910125732, 0.2768787145614624, -0.5833625197410583, -0.5996005535125732, -0.29163628816604614, 0.531983494758606, -0.14770910143852234, 0.45780661702156067, 0.4530438184738159, 0.5012378096580505, -0.7133408188819885, -0.22939978539943695, 0.2596694827079773, 0.07503638416528702, -0.4106016159057617, -0.03938402235507965, -0.5582391619682312, -0.5065297484397888, 0.6118841171264648, 0.34582504630088806, 0.09515304118394852, -0.5295472741127014, 0.4915696382522583, 0.19489678740501404, -0.14618894457817078, 0.155776709318161, 0.28382858633995056, 0.2368423193693161, -0.07526392489671707, -0.06064247339963913, 0.15579967200756073, -0.25988438725471497, 0.4558926522731781, -0.4029619097709656, 0.015024969354271889, -0.14639075100421906, 0.14825426042079926, 0.32602694630622864, 0.07723841071128845, -0.011388272047042847, 0.4570016860961914, -0.3692997395992279, -0.21974040567874908, -0.22222603857517242, -0.19475166499614716, 0.0735364705324173, -0.3113696575164795, 0.10446397215127945, 0.20016461610794067, 0.21699748933315277, -0.010890013538300991, -0.24505500495433807, 0.25882473587989807, -0.11737518012523651, 0.19210457801818848, 0.01643788255751133, 0.14081674814224243, 0.09326402097940445, 0.012753934599459171, 0.14767055213451385, -0.3126825988292694, -0.029189473018050194, -0.11443660408258438, -0.27355727553367615, 0.025604791939258575, 0.028822975233197212, 0.2804418206214905, -0.006104643456637859, 0.03895542025566101, 0.36237505078315735, -0.026211172342300415, -0.10839850455522537, -0.18529309332370758, 0.03860243037343025, 0.32144954800605774, -0.11143787950277328, -0.1401805430650711, -0.0785556435585022, -0.015118738636374474, 0.2851874530315399, 0.33702778816223145, 0.004498759750276804, 0.08982870727777481, 0.022746870294213295, -0.1322978287935257, 0.08973416686058044, 0.21946141123771667, -0.2644202709197998, 0.20604319870471954, -0.2832840383052826, -0.08951684087514877, -0.02809280715882778, -0.32608556747436523, 0.10318425297737122, 0.053361617028713226, -0.09006189554929733, 0.28977471590042114, -0.10481283068656921, -0.1609387993812561, 0.13735248148441315, -0.09111937135457993, 0.18125349283218384, -0.17339031398296356, -0.12296079844236374, -0.16679687798023224, -0.2582613229751587, 0.17520980536937714, -0.21142087876796722, -0.15901394188404083, -0.4300321340560913, 0.6580929160118103, -0.1834445595741272, -0.22730451822280884, -0.24679115414619446, -0.4821213483810425, 0.3526485860347748, -0.34422388672828674, 0.012031509540975094, -0.17203427851200104, 0.12510067224502563, 0.29851457476615906, -0.10781227797269821, 0.18582212924957275, -0.5155447125434875, 0.13275305926799774, 0.02297326922416687, -0.08768827468156815, 0.45780473947525024, 0.4103880822658539, 0.0650988221168518, -0.15336063504219055, 0.048635851591825485, 0.12788520753383636, 0.32616060972213745, 0.03327588364481926, 0.0604906864464283, 0.03475556895136833, -0.08103755116462708, 0.008142232894897461, -0.4892289936542511, 0.05197708681225777, 0.0729045495390892, -0.21591603755950928, -0.13326430320739746, 0.14813828468322754, 0.07440400123596191, -0.09543734788894653, -0.1311984360218048, -0.1600116491317749, 0.432370126247406, 0.272482305765152, -0.15625673532485962, -0.06201985105872154, -0.17141839861869812, -0.023177476599812508, -0.11331374198198318, 0.24156911671161652, -0.19264575839042664, 0.08592583239078522, 0.06675668805837631, -0.24626190960407257, -0.13952742516994476, 0.0827305018901825, -0.28133857250213623, -0.03079650178551674, -0.16607695817947388, -0.1118268147110939, -0.1378549188375473, -0.0634753555059433, -0.01913570426404476, -0.028819536790251732, -0.16261518001556396, 0.12678436934947968, 0.2364003211259842, 0.2177751660346985, 0.313103049993515, -0.0742829367518425, 0.0194434504956007, -0.18325582146644592, -0.000190446458873339, -0.33149558305740356, -0.18732552230358124, -0.1372622549533844, 0.6352185606956482, 0.16081346571445465, -0.582815408706665, 0.07456230372190475, -0.3252108693122864, -0.09194708615541458, 0.09872058779001236, -0.14254742860794067, 0.03069080412387848, 0.2303047478199005, -0.3261997401714325, -0.24438123404979706, 0.44688156247138977, -0.03342356160283089, 0.1677282601594925, 0.07984821498394012, 0.06642952561378479, 0.09410326182842255, -0.13384303450584412, 0.06205933168530464, 0.353578120470047, -0.056049689650535583, 0.3103943169116974, -0.40360045433044434, -0.14489033818244934, 0.1952592134475708, 0.042355455458164215, 0.0734972357749939, 0.056554943323135376, -0.087832972407341, -0.165931835770607, -0.07178540527820587, 0.01746145449578762, -0.15701864659786224, 0.05668426305055618, 0.029113201424479485, -0.07745230197906494, -0.23133693635463715, -0.07066716998815536, -0.10887916386127472, -0.0038513087201863527, -0.22597657144069672, 0.17225126922130585, -0.05490387603640556, -0.23556113243103027, 0.1495814174413681, -0.11411488056182861, -0.038874849677085876, -0.16811273992061615, -0.08344022184610367, 0.15555675327777863, -0.03033938817679882, 0.01934199407696724, -0.36529815196990967, -0.1011577844619751, -0.07702599465847015, 0.2339717298746109, -0.024313557893037796, -0.22745922207832336, -0.26930007338523865, 0.15229199826717377, -0.08055728673934937, -0.12260159850120544, 0.006880900356918573, -0.0006490995874628425, -0.07650313526391983, 0.04304938763380051, -0.11901575326919556, 0.48521751165390015, 0.004336132202297449, -0.13207696378231049, 0.05265457183122635, 0.020523395389318466, -0.15629179775714874, -0.30134153366088867, 0.19876350462436676, 1.0565941333770752, 0.7485858798027039, 1.144773244857788, 0.4342469573020935, -0.18417829275131226, -0.17257677018642426, -0.5476728677749634, -0.38315051794052124, 0.11707177013158798, 0.3019574284553528, -0.06150667369365692, -0.0980808287858963, 0.13005761802196503, -0.06965719908475876, 0.11470047384500504, 0.22197841107845306, 0.30496683716773987, 0.15985429286956787, -0.004380971658974886, 0.1309439241886139, 0.4966352581977844, -0.20249411463737488, -0.17041213810443878, 0.41508468985557556, 0.2767961025238037, 0.25793004035949707, 0.41377338767051697, -0.13569298386573792, -0.052890483289957047, -0.2378140538930893, -0.10262850672006607, -0.0026640279684215784, -0.03518769517540932, -0.1268746554851532, 0.25416767597198486, 0.21377651393413544, -0.007273288909345865, 0.11484657973051071, -0.002641205443069339, -0.04296806454658508, -0.22827830910682678, -0.213336780667305, -0.004374723881483078, -0.08343753218650818, 0.09453555196523666, 0.04144079610705376, 0.005638716742396355, -0.047127366065979004, -0.03691629692912102, -0.27933627367019653, -0.23190511763095856, -0.021773865446448326, -0.30098357796669006, -0.043896306306123734, 0.09257671982049942, -0.005161486566066742, 0.24412240087985992, 0.015943367034196854, 0.10819439589977264, -0.1609668731689453, -0.012742151506245136, -0.09489358961582184, 0.09519224613904953, 0.05303385108709335, 0.2559394836425781, -0.055807773023843765, 0.030887719243764877, 0.46126052737236023, -0.2500264048576355, -0.26448774337768555, 0.24262595176696777, -0.013209454715251923, 0.3776499330997467, -0.077425517141819, -0.03576507046818733, 0.2251904457807541, -1.0501232147216797, 0.9627467393875122, 0.5920836329460144, -0.5235425233840942, 0.16364382207393646, -0.1939132809638977, -0.14576084911823273, -0.005159742198884487, -0.2960816025733948, 0.4380842447280884, 0.4639909565448761, -0.08749911189079285, -0.39211928844451904, -0.15103016793727875, -0.10214336961507797, 0.5245659947395325, -0.06339951604604721, 0.09667292982339859, 0.07893151044845581, -0.24981798231601715, -0.23874226212501526, -0.4771063029766083, 0.0985812321305275, 0.11454970389604568, 0.2403363436460495, 0.27594149112701416, 0.019904909655451775, -0.4776879549026489, -0.08640291541814804, -0.2171018123626709, -0.09293586760759354, 0.2529603838920593, -0.06328517198562622, 0.01860108971595764, 0.035705942660570145, 0.08674933016300201, 0.23626509308815002, -0.23286138474941254, -0.12624242901802063, -0.09354554861783981, -0.0134963970631361, -0.23782721161842346, -0.20569434762001038, -0.31747326254844666, 0.21471558511257172, 0.045639850199222565, 0.15124541521072388, 0.20969407260417938, 0.04551741108298302, 0.15777519345283508, 0.5381268262863159, -0.3982830047607422, -0.4737023711204529, -0.3870702087879181, 0.0011328323744237423, 0.034712053835392, 0.25082510709762573, -0.06086260452866554, 0.03732459619641304, 0.21589910984039307, 0.37225133180618286, 0.0449029766023159, -0.04601578414440155, 0.2001095563173294, 0.12837904691696167, -0.24274009466171265, 0.17903368175029755, 0.22128915786743164, 0.10238107293844223, 0.12630143761634827, -0.12896189093589783, -0.02965918742120266, 0.048092328011989594, -0.21777412295341492, 0.4354858100414276, -0.2238451987504959, -0.2717077136039734, 0.427633136510849, -0.11465128511190414, -0.3946755826473236, -0.4307597577571869, 0.3302959203720093, -0.2962287664413452, -0.38562437891960144, 0.3418377935886383, 0.3074345290660858, -0.27276089787483215, -0.36181414127349854, 0.5282317996025085, 0.12655629217624664, -0.31197625398635864, 0.16444262862205505, -0.2921368181705475, -0.1359184980392456, -0.3889414072036743, 0.06830133497714996, -0.39394453167915344, 0.038454487919807434, -0.30187153816223145, 0.509861946105957, 0.030667224898934364, -0.055117733776569366, 0.156849667429924, -0.16060416400432587, -0.16939043998718262, 0.2577887177467346, -0.1490817815065384, -0.1816936731338501, -0.22475504875183105, -0.3704184293746948, -0.28414174914360046, 0.10442756861448288, 0.13888046145439148, -0.030378205701708794, -0.27848538756370544, -0.2654689848423004, -0.1911703497171402, -0.05016285553574562, 0.13062191009521484, -0.1610509306192398, -0.21109427511692047, 0.09840945899486542, 0.1656782627105713, 0.14791318774223328, 0.1396980881690979, -0.09000536054372787, -0.22144167125225067, -0.10797662287950516, -0.09191782027482986, 0.1507454216480255, 0.030091891065239906, -0.3640841841697693, -0.20233415067195892, 0.19752930104732513, -0.1577872931957245, -0.051394183188676834, -0.09921921789646149, -0.06172844395041466, -0.005594195332378149, 0.1374911218881607, 0.039944447576999664, 0.016644110903143883, 0.31045106053352356, -0.017088061198592186, 0.05931152403354645, -0.2958618104457855, 0.36051520705223083, 0.07743995636701584, -0.02932148240506649, -0.1814882755279541, 0.11771547049283981, -0.1509205400943756, 0.39571622014045715, 0.10228946059942245, -0.03152814880013466, 0.3274117708206177, -0.4423774480819702, 0.3504789173603058, 0.22101794183254242, -0.20191004872322083, -0.5435456037521362, -0.14564302563667297, 0.1395443230867386, -0.0245649553835392, 0.6760977506637573, -0.34274935722351074, -0.34092602133750916, 0.08597154170274734, -0.388382226228714, -0.24186637997627258, -0.38569116592407227, 0.12886737287044525, -0.47925254702568054, -0.37047120928764343, 0.15277475118637085, -0.035632818937301636, -0.34690114855766296, 0.0581941194832325, -0.1575378179550171, -0.017147140577435493, -0.13701173663139343, 0.08213713020086288, -0.2677793502807617, -0.20217910408973694, -0.04970924183726311, 0.355430543422699, -0.40014559030532837, 0.011491607874631882, -0.16748960316181183, 0.04123604670166969, -0.2886929214000702, 0.2375437468290329, -0.19993537664413452, -0.12931369245052338, -0.04616610333323479, 0.27693092823028564, -0.09967610239982605, 0.5244636535644531, 0.042181290686130524, 0.11023737490177155, 0.12965451180934906, 0.2062523066997528, -0.28961464762687683, 0.029231909662485123, -0.0481179840862751, -0.2478746622800827, 0.0936843752861023, -0.08690895885229111, -0.1885136514902115, 0.3750596344470978, -0.28322306275367737, -0.1590133160352707, 0.3861541450023651, -0.16204503178596497, 0.16643261909484863, -0.31714537739753723, 0.0853004977107048, 0.1360348016023636, 0.011801430955529213, -0.1476525515317917, -0.00848684273660183, -0.29394951462745667, 0.11743941903114319, -0.05331724137067795, -0.015090723522007465, 0.1708986759185791, 0.06160377711057663, -0.1607271134853363, -1.0299532413482666, -0.6895401477813721, -0.8052670955657959, -0.414920449256897, -0.3658703565597534, -0.4512828290462494, -0.030784737318754196, 0.4002889096736908, -0.24424074590206146, 0.07217025756835938, 0.0612892210483551, 0.07827431708574295, -0.5863282084465027, 0.12962700426578522, 0.5352925658226013, 0.4523851275444031, -0.6366599202156067, -0.1198548674583435, 0.04274970665574074, -0.17628218233585358, -0.2827383577823639, -0.2667774260044098, 0.3230087161064148, -0.15155057609081268, -0.12021239101886749, -0.1905195564031601, -0.35134416818618774, -0.1298781931400299, 0.16932056844234467, -0.2494465559720993, -0.15734630823135376, 0.08800536394119263, 0.3283707797527313, 0.2615412473678589, 0.3218260705471039, -0.12136931717395782, -0.26765063405036926, 0.11308233439922333, 0.222331702709198, -0.08451414108276367, -0.17431965470314026, 0.1846694052219391, -0.04113088175654411, 0.2482656091451645, -0.06472709029912949, 0.22497937083244324, 0.45967960357666016, 0.05123929679393768, -0.19662368297576904, 0.06722144037485123, 0.09677764773368835, 0.14865471422672272, -0.1273876279592514, -0.1978054940700531, -0.36449187994003296, 0.20421066880226135, 0.3380716145038605, 0.2574525773525238, 0.39797869324684143, -0.10944054275751114, 0.3436957597732544, -0.028364980593323708, -0.001858871546573937, -0.11039257794618607, -0.19411732256412506, 0.12225626409053802, 0.356585294008255, -0.2828637957572937, -0.08039305359125137, -0.08967815339565277, -0.5766192078590393, 0.10624907165765762, -0.11819279193878174, 0.05822281911969185, -0.2956690192222595, -0.21934321522712708, -0.35976865887641907, -0.9854719042778015, 0.7417382597923279, 0.6596629023551941, -0.07768484950065613, 0.2755771577358246, 0.20955274999141693, -0.12823623418807983, 0.00014965049922466278, -0.6832219362258911, 0.3017689883708954, -0.4174961745738983, 0.01192293968051672, 0.08135919272899628, -0.409909725189209, -0.41029947996139526, -0.12545014917850494, 0.19097790122032166, 0.20485201478004456, 0.21482449769973755, -0.09470473229885101, 0.4762326180934906, 0.07120911031961441, -0.2096135914325714, -0.13003945350646973, -0.08016181737184525, 0.01442638412117958, -0.08451617509126663, 0.2308395951986313, 0.07113729417324066, -0.052800871431827545, 0.07407978922128677, 0.07363823056221008, 0.03586360439658165, 0.24964818358421326, -0.03403688594698906, 0.19471049308776855, -0.1709437519311905, 0.05552568659186363, 0.022904835641384125, 0.06047704815864563, -0.02886839583516121, 0.26183193922042847, 0.29952341318130493, -0.20816291868686676, 0.09016455709934235, 0.18659071624279022, -0.007717975880950689, 0.0797024816274643, 0.14944732189178467, 0.12211615592241287, 0.00834694691002369, 0.1501363217830658, -0.08897941559553146, 0.0019445369252935052, -0.14225146174430847, -0.07443714141845703, 0.06746836751699448, 0.00026694865664467216, -0.19854921102523804, 0.23051995038986206, 0.06966395676136017, 0.057322148233652115, 0.2254699170589447, -0.2633008360862732, -0.05319714918732643, -0.1616421639919281, 0.37245672941207886, -0.3425317108631134, 0.025776099413633347, -0.2890690267086029, 0.1603086143732071, 0.21391722559928894, -0.15066789090633392, 0.2563638985157013, -0.05855695530772209, -0.6978861093521118, 0.2574615776538849, 0.34310823678970337, 0.04609949141740799, 0.3355610966682434, -0.33944639563560486, 0.21051685512065887, 0.2645821273326874, 0.0027295297477394342, -0.12986786663532257, 0.33323678374290466, -0.04218512028455734, -0.1406528800725937, 0.23190835118293762, -0.08053048700094223, 0.12097837775945663, 0.24364463984966278, 0.20324528217315674, -0.2046932876110077, -0.316291868686676, -0.38179811835289, 0.23428575694561005, -0.40932026505470276, -0.47417953610420227, -0.3510250449180603, -0.2122565358877182, -0.6431512832641602, -0.2958686053752899, -0.21180851757526398, 0.33725881576538086, 0.13903562724590302, 0.22022630274295807, -0.05320238322019577, -0.0970069169998169, -0.012395253404974937, -0.14651788771152496, -0.2824265658855438, 0.2638261020183563, 0.06398598849773407, -0.06854872405529022, 0.17091874778270721, -0.2266319990158081, -0.07024528831243515, -0.18382549285888672, -0.5035093426704407, -0.11881406605243683, 0.11080367118120193, -0.02329939417541027, -0.029277676716446877, -0.18252281844615936, 0.07967130839824677, -0.21513579785823822, 0.06936513632535934, -0.23867829144001007, 0.14407294988632202, -0.021907003596425056, -0.2616640031337738, 0.20789767801761627, 0.1547478884458542, -0.1385694295167923, -0.062399737536907196, -0.05754704028367996, -0.4485890567302704, 0.21221767365932465, -0.16073963046073914, 0.283977210521698, -0.20187154412269592, -0.021722886711359024, 0.386160284280777, -0.2711021602153778, 0.01663629710674286, -0.08234378695487976, 0.24094031751155853, -0.19033648073673248, 0.11366968601942062, 0.4180673658847809, 0.5535634756088257, -0.3255048096179962, -0.4757978022098541, 0.555816113948822, -0.14878880977630615, 0.2700486183166504, -0.1516295075416565, 0.24528591334819794, 0.28485894203186035, 0.5569208264350891, 0.14663492143154144, 0.1801701784133911, -0.43806493282318115, 0.45557981729507446, 0.007251289673149586, -0.01978188380599022, 0.12415297329425812, -0.08566903322935104, 0.035265613347291946, 0.394124299287796, -0.09817115217447281, -0.09990435093641281, 0.17940935492515564, 0.17727108299732208, -0.12775535881519318, -0.2542473077774048, -0.08391709625720978, 0.07959069311618805, -0.23675131797790527, 0.09288912266492844, 0.010678615421056747, 0.08047470450401306, -0.34850427508354187, -0.09254554659128189, 0.19609752297401428, -0.22370533645153046, -0.05044151097536087, 0.028722301125526428, 0.17525343596935272, -0.24101297557353973, -0.02008744329214096, -0.011969090439379215, 0.19645410776138306, 0.06677758693695068, -0.34851711988449097, 0.08071694523096085, 0.012206487357616425, -0.12101856619119644, -0.13509392738342285, -0.1476912796497345, 0.1345009058713913, 0.006713495589792728, -0.25945043563842773, 0.15716604888439178, -0.14149296283721924, 0.164650097489357, -0.014378081075847149, 0.01944775879383087, -0.16598309576511383, -0.1147601380944252, 0.08241375535726547, 0.030954644083976746, -0.05223575979471207, -0.02037685737013817, 0.2241612672805786, 0.4354585111141205, 0.07891041785478592, -0.20102238655090332, 0.3575896918773651, 0.059700485318899155, -0.08905467391014099, 0.028174202889204025, -0.02568851225078106, -0.2592550814151764, -0.35377174615859985, -0.07787267118692398, -0.20874080061912537, -0.4974624216556549, -0.910394549369812, 0.5455273985862732, 0.022880785167217255, -0.18504884839057922, -0.16089016199111938, 0.055135924369096756, -0.36838051676750183, -0.003028245409950614, 0.06497463583946228, 0.16683372855186462, 0.2863929271697998, 0.06783677637577057, 0.3344985246658325, 0.19772052764892578, 0.10267962515354156, 0.7787446975708008, -0.013492703437805176, 0.19342339038848877, 0.23044729232788086, -0.25148019194602966, 0.2369973361492157, -0.3491339087486267, -0.19530364871025085, -0.382927268743515, -0.6590639352798462, -0.10954532027244568, -0.271930992603302, 0.11069415509700775, 0.00905335322022438, 0.05899426341056824, -0.05675557628273964, 0.012834830209612846, 0.01824331469833851, -0.11722219735383987, -0.039020828902721405, 0.020807085558772087, 0.08457904309034348, -0.0538860484957695, 0.11028807610273361, 0.22785142064094543, -0.06938913464546204, 0.03142693266272545, 0.12269926071166992, -0.36946141719818115, 0.03844121843576431, 0.11127814650535583, 0.05828888341784477, 0.21302615106105804, 0.03469915688037872, 0.19202986359596252, -0.07310565561056137, -0.22973820567131042, 0.0767112523317337, -0.013379243202507496, -0.011510610580444336, 0.07940781116485596, 0.08143196254968643, 0.05648523196578026, -0.020665844902396202, 0.0002401584351900965, 0.183822363615036, -0.050211623311042786, 0.21325011551380157, -0.016239095479249954, -0.08432158827781677, -0.31273454427719116, 0.2632446587085724, -0.19022095203399658, -0.0025187688879668713, 0.23821254074573517, -0.20710255205631256, 0.2592565417289734, -0.3099917769432068, -0.016959959641098976, 0.7593746781349182, -0.3945698142051697, 0.8661257028579712, -0.3713010847568512, 0.16289840638637543, -0.5761867165565491, -0.47738218307495117, 0.39624613523483276, 0.2609797716140747, 0.18374939262866974, 0.2480907291173935, -0.44494491815567017, 0.49432188272476196, 0.010590051300823689, -0.133089080452919, -0.5636148452758789, 0.7373268604278564, 0.015994777902960777, 0.030504275113344193, -0.336537629365921, -0.25456997752189636, 0.13387025892734528, 0.00868102628737688, 0.3946934640407562, -0.038239605724811554, -0.022694606333971024, 0.28937897086143494, 8.837760833557695e-05, -0.2387530654668808, 0.030481303110718727, -0.019812704995274544, -0.06040938198566437, -0.09639796614646912, -0.01831210032105446, 0.12729567289352417, 0.1503831297159195, -0.011810117401182652, -0.06937485933303833, 0.13201695680618286, -0.18274372816085815, 0.17565755546092987, -0.23669685423374176, 0.10094857960939407, -0.22037146985530853, -0.13256852328777313, 0.14431002736091614, -0.081306591629982, 0.00722454022616148, 0.10023164004087448, 0.10704976320266724, 0.38369014859199524, 0.0603400394320488, -0.08489375561475754, -0.2408268302679062, -0.022845344617962837, 0.07097676396369934, -0.27097582817077637, -0.05812607333064079, 0.06329388916492462, -0.1447129249572754, 0.055267609655857086, -0.06556887179613113, -0.07288803905248642, -0.10819761455059052, -0.17475052177906036, 0.0024375393986701965, 0.040497634559869766, 0.03510722890496254, 0.21434161067008972, 0.11684492230415344, 0.1573575735092163, -0.07891391962766647, -0.0001535852934466675, -0.19156451523303986, 0.14805640280246735, -0.05205091834068298, 0.830538272857666, -0.3370441794395447, -0.3166792094707489, -0.9600746631622314, -0.12091034650802612, -0.04836457967758179, -0.23046547174453735, 0.3559243679046631, 0.2869518995285034, -0.44128191471099854, -0.050015389919281006, 0.1681065559387207, 0.4823986291885376, -0.11955636739730835, 0.3069649934768677, -0.028011441230773926, -0.1917715072631836, 0.30598050355911255, -0.4455450773239136, 0.41890019178390503, 0.4994143843650818, -0.1365121603012085, 0.1975109577178955, 0.49860215187072754, 0.5219894647598267, 0.5274046659469604, 0.48917490243911743, -0.5491096377372742, 0.14386364817619324, 0.019999999552965164]}