{"version": "0.5.1", "metadata": {"date": {"year": 2023, "month": 4, "day": 30, "hour": 15, "minute": 42, "second": 26}, "loudness": -19.053020477294922, "gain": 0.005221498969961576, "name": "", "modeled_by": "Cosmic Crucible Studio", "gear_type": "pedal", "gear_make": "", "gear_model": "", "tone_type": "clean"}, "architecture": "WaveNet", "config": {"layers": [{"input_size": 1, "condition_size": 1, "head_size": 4, "channels": 8, "kernel_size": 3, "dilations": [1, 2, 4, 8, 16, 32, 64], "activation": "Tanh", "gated": false, "head_bias": false}, {"input_size": 8, "condition_size": 1, "head_size": 1, "channels": 4, "kernel_size": 3, "dilations": [128, 256, 512, 1, 2, 4, 8, 16, 32, 64, 128, 256, 512], "activation": "Tanh", "gated": false, "head_bias": true}], "head": null, "head_scale": 0.02}, "weights": [-0.029926840215921402, 0.4635288715362549, -0.7763562202453613, -0.4955304265022278, -0.40117016434669495, -0.03407009690999985, -0.13584749400615692, 0.6726872324943542, -0.02391345426440239, -0.03944616764783859, 0.14093101024627686, -0.03809631988406181, -0.34504953026771545, -0.10287194699048996, -0.07816946506500244, 0.16408807039260864, 0.048797693103551865, 0.12334570288658142, 0.02224452793598175, -0.10206401348114014, 0.07085884362459183, 0.3202979862689972, -0.0708330050110817, 0.0994885042309761, -0.18575608730316162, 0.148604616522789, 0.13098470866680145, -0.06224333494901657, -0.17643626034259796, -0.05288952589035034, -0.23694276809692383, 0.19948050379753113, -0.036462388932704926, -0.3087513744831085, -0.18477310240268707, -0.04972420260310173, -0.28764355182647705, 0.19011391699314117, -0.051761794835329056, 0.26944974064826965, -0.015284078195691109, -0.2522889971733093, 0.18316742777824402, -0.21941465139389038, -0.28432169556617737, 0.06003477796912193, 0.10410276055335999, 0.20911599695682526, -0.21593663096427917, 0.049780312925577164, -0.021784640848636627, 0.3947421908378601, 0.1592531055212021, 0.1699889600276947, -0.026511650532484055, -0.09896646440029144, -0.018872590735554695, -0.27789464592933655, 0.10932077467441559, -0.15593533217906952, -0.03923575207591057, 0.23862001299858093, -0.06230573728680611, 0.1994342803955078, -0.042394328862428665, 0.030682340264320374, 0.15146148204803467, -0.08665851503610611, 0.17601880431175232, 0.3300403356552124, -0.30810296535491943, -0.0916232019662857, -0.037579987198114395, 0.3844913840293884, 0.1845741719007492, 0.2752385139465332, -0.15090619027614594, -0.23218771815299988, -0.12024739384651184, 0.018500225618481636, -0.2874603569507599, 0.2788551449775696, 0.33934637904167175, -0.3202834129333496, 0.11416469514369965, 0.05784911289811134, 0.09053947031497955, -0.16943761706352234, -0.016766753047704697, -0.007696575950831175, 0.009432741440832615, 0.030043674632906914, 0.25899022817611694, -0.00026761501794680953, -0.2903154790401459, -0.21532033383846283, 0.118632972240448, 0.16302898526191711, -0.046643149107694626, -0.22004711627960205, 0.08549951016902924, 0.021417483687400818, -0.01715165004134178, 0.033520665019750595, -0.18366935849189758, -0.17859220504760742, 0.021804751828312874, -0.06840834021568298, -0.19611652195453644, 0.07185764610767365, -0.16436119377613068, 0.3141448199748993, -0.1653440296649933, 0.09945014119148254, 0.33004680275917053, -0.19925282895565033, -0.14025509357452393, 0.1949307769536972, -0.00858559925109148, 0.030734581872820854, -0.09294728189706802, 0.1836048662662506, -0.24922430515289307, 0.2517324388027191, -0.2605297267436981, -0.03579390048980713, -0.2425483763217926, -0.06662198901176453, -0.3233451247215271, 0.24399203062057495, 0.10494112223386765, -0.36219513416290283, 0.07435715198516846, 0.23640945553779602, 0.5536302328109741, -0.23295865952968597, -0.23177814483642578, 0.3914686441421509, -0.14591452479362488, -0.10142215341329575, 0.5951300859451294, -0.07506827265024185, -0.04558190330862999, -0.16373348236083984, 0.21470601856708527, -0.07152657955884933, 0.5745136141777039, -0.21980109810829163, -0.4680604338645935, -0.562680721282959, 0.012576587498188019, 0.07119172811508179, -0.006750357802957296, 0.11409208923578262, -0.13615642488002777, -0.13576030731201172, 0.21046824753284454, -0.26009050011634827, -0.1127239242196083, -0.1725132316350937, 0.06367336213588715, -0.10044801980257034, -0.27026915550231934, -0.0934460312128067, -0.08923691511154175, -0.07907047122716904, 0.005570592358708382, 0.16111378371715546, -0.08835098892450333, -0.1625334769487381, 0.17924296855926514, -0.1175430566072464, 0.32401272654533386, 0.1364711970090866, -0.0965111181139946, 0.03676816448569298, 0.04068185016512871, -0.34393128752708435, 0.10373464226722717, -0.05913703143596649, -0.2763901352882385, -0.15608569979667664, 0.0444934144616127, 0.3607688248157501, 0.2065129578113556, -0.02863645926117897, 0.2568327784538269, 0.08601686358451843, -0.2693958282470703, 0.4184819459915161, 0.2817014157772064, 0.10079673677682877, -0.350268691778183, 0.004089809954166412, -0.3075791299343109, 0.21046513319015503, 0.10370629280805588, 0.17230580747127533, -0.4263880252838135, -0.1226872131228447, 0.04200039058923721, 0.19471082091331482, -0.16907721757888794, -0.26724663376808167, -0.05480321869254112, -0.011366579681634903, 0.05175633728504181, -0.1066770851612091, 0.37440982460975647, 0.15782634913921356, 0.12815530598163605, -0.11630693078041077, 0.14712399244308472, 0.013958277180790901, -0.09234470874071121, 0.009180349297821522, -0.3929632902145386, -0.0015271175652742386, 0.09010975807905197, -0.48504671454429626, -0.14325197041034698, 0.35678941011428833, 0.30291417241096497, -0.2142704725265503, -0.523878812789917, 0.25776100158691406, -0.45158058404922485, -0.11602220684289932, -0.3402244448661804, -0.08831558376550674, 0.04405499994754791, 0.20677366852760315, 0.3013387620449066, 0.2467794120311737, 0.4252704679965973, -0.20090439915657043, 0.3884139657020569, -0.2385038435459137, -0.2677706480026245, 0.2276611626148224, 0.19831468164920807, 0.3387821912765503, -0.13715860247612, 0.003953021951019764, 0.23572474718093872, -0.39190617203712463, 0.14688017964363098, -0.2525496184825897, -0.06473404914140701, -0.06223686411976814, -0.23732736706733704, -0.013632168062031269, 0.21963933110237122, -0.1635974496603012, -0.10740649700164795, -0.3640677034854889, -0.546437680721283, 0.0003209994756616652, -0.22725272178649902, -0.06915867328643799, -0.4235621690750122, 0.3944326639175415, 0.15008820593357086, 0.22363509237766266, -0.006167218089103699, -0.3840577304363251, -0.12505033612251282, 0.16577672958374023, 0.14159072935581207, 0.3279227614402771, -0.07589812576770782, -0.029885534197092056, -0.19903579354286194, 0.2046269029378891, -0.16057521104812622, -0.16633649170398712, 0.48073309659957886, -0.46560314297676086, -0.1921144723892212, 0.30110737681388855, 0.22022219002246857, -0.15566588938236237, -0.2992963194847107, 0.33625122904777527, 0.015719221904873848, 0.07702247053384781, -0.17015618085861206, 0.10644897818565369, -0.023637784644961357, 0.07362690567970276, -0.3068851828575134, 0.2866399586200714, 0.09651994705200195, -0.14215567708015442, -0.14654286205768585, -0.3010372221469879, 0.23131488263607025, 0.1424495130777359, -0.2520877420902252, -0.2988964319229126, -0.0819348692893982, 0.08587905764579773, -0.02760106325149536, 0.1690972000360489, 0.18707993626594543, -0.30801600217819214, -0.21217849850654602, 0.16786998510360718, 0.22298875451087952, 0.10331596434116364, -0.27918824553489685, -0.11570647358894348, 0.14965364336967468, -0.3548681437969208, 0.26900994777679443, 0.04661590978503227, -0.2794947624206543, 0.12881629168987274, 0.06079130992293358, 0.4156409502029419, -0.07021389901638031, -0.15173248946666718, -0.02593066915869713, 0.03180805221199989, 0.0804373174905777, 0.3074847459793091, -0.04737488552927971, -0.08853189647197723, -0.23338350653648376, -0.04773072153329849, -0.06260813027620316, -0.06280321627855301, 0.025377903133630753, 0.112773098051548, -0.16056574881076813, 0.23731349408626556, -0.02755969949066639, 0.3379707634449005, -0.007473914884030819, 0.31808650493621826, 0.09062415361404419, -0.1709640473127365, 0.23063114285469055, -0.21013091504573822, -0.08447843044996262, 0.43048185110092163, -0.06740234047174454, 0.08156635612249374, -0.14182205498218536, -0.07540793716907501, -0.15646347403526306, 0.1675766408443451, 0.34223473072052, 0.031109584495425224, -0.18444032967090607, 0.12234437465667725, 0.04735321179032326, 0.32849904894828796, -0.21327126026153564, -0.12630435824394226, -0.250798761844635, -0.1223030611872673, -0.24619337916374207, -0.14929836988449097, 0.16594620048999786, 0.011457933112978935, 0.3252551555633545, -0.19581572711467743, 0.03686904162168503, -0.37875092029571533, -0.22644829750061035, 0.07601026445627213, -0.049719829112291336, -0.036415956914424896, 0.03031943179666996, -0.354900985956192, 0.1794293224811554, 0.13338002562522888, 0.5074288249015808, 0.12193549424409866, 0.4144362509250641, -0.3131066858768463, 0.05939361825585365, -0.1483655571937561, 0.22565312683582306, 0.12457282096147537, 0.07346638292074203, 0.09194397926330566, -0.27272894978523254, 0.2126365453004837, -0.010160733945667744, 0.18423742055892944, 0.04831063747406006, -0.3106851577758789, -0.24412189424037933, 0.2844395339488983, 0.25279831886291504, 0.23181824386119843, 0.21570439636707306, 0.364033579826355, -0.24465514719486237, 0.010486925952136517, 0.012074850499629974, 0.3164411783218384, -0.0345412939786911, -0.45138436555862427, 0.09536425024271011, 0.18327535688877106, -0.18125693500041962, -0.008638148196041584, 0.05516751855611801, 0.012499756179749966, 0.2955533564090729, 0.08988159894943237, -0.1431473046541214, -0.04542529210448265, -0.26229798793792725, -0.12161102890968323, 0.05111486092209816, 0.170169860124588, 0.007589205168187618, -0.21019655466079712, 0.09613615274429321, 0.06804905831813812, 0.09773870557546616, -0.05760069936513901, 0.037304870784282684, -0.25813794136047363, -0.023780323565006256, 0.10630661249160767, 0.0036051603965461254, -0.03205743059515953, 0.038657549768686295, 0.04668726399540901, -0.3700239062309265, -0.1866055577993393, -0.028064312413334846, -0.2125162035226822, 0.18247336149215698, -0.28149178624153137, -0.0533611886203289, -0.3291389048099518, -0.08337658643722534, 0.22276702523231506, -0.21428543329238892, 0.1463731825351715, 0.4090961217880249, 0.12284289300441742, -0.014820320531725883, -0.17775438725948334, 0.30354997515678406, 0.1433221846818924, 0.3110169470310211, -0.02182752452790737, -0.14535340666770935, -0.026249539107084274, -0.07169074565172195, 0.3894249200820923, -0.12705157697200775, -0.3093307316303253, -0.19152869284152985, -0.14059701561927795, 0.21296799182891846, -0.3674703538417816, 0.08662731945514679, -0.13245026767253876, -0.13210028409957886, -0.1478763222694397, 0.07289884984493256, -0.06212685629725456, 0.24951742589473724, 0.010399811901152134, 0.059785887598991394, -0.1627139449119568, 0.2848246693611145, -0.1647406667470932, -0.10143160074949265, -0.1251978874206543, -0.12152528762817383, 0.12693455815315247, -0.17278176546096802, -0.21995891630649567, -0.07115741074085236, -0.012527959421277046, -0.17787975072860718, 0.14479757845401764, 0.21441230177879333, 0.11604945361614227, 0.009359239600598812, -0.24431142210960388, -0.24613827466964722, -0.07063361257314682, 0.33934083580970764, -0.5410333275794983, 0.6039303541183472, -0.018937742337584496, -0.34972071647644043, -0.5488567352294922, 0.163280189037323, 0.49903684854507446, -0.09023617208003998, 0.36113670468330383, 0.38241755962371826, 0.29893022775650024, 0.5879842042922974, -0.2966999411582947, 0.186188206076622, 0.16088630259037018, -0.0844879224896431, 0.2653608024120331, -0.20342424511909485, 0.12991230189800262, -0.332969069480896, 0.06849713623523712, -0.023408155888319016, 0.030059412121772766, -0.16805240511894226, -0.1643366813659668, 0.2930375933647156, 0.14449366927146912, 0.32986980676651, -0.12224075198173523, 0.310479074716568, -0.34521183371543884, -0.3281938135623932, -0.10145821422338486, 0.23422953486442566, -0.07886601984500885, -0.269694447517395, -0.20854948461055756, 0.265334814786911, 0.5551607608795166, -0.2638079822063446, -0.06466656178236008, -0.18520541489124298, 0.15465660393238068, 0.21258580684661865, -0.2775256335735321, -0.0024132155813276768, -0.09966596961021423, -0.4710547626018524, 0.2306348979473114, -0.27655935287475586, -0.3824920952320099, 0.11948039382696152, 0.3547285497188568, 0.029418617486953735, -0.25542160868644714, -0.269295334815979, 0.335292249917984, -0.5292818546295166, -0.5965167284011841, 0.5264410972595215, -0.1731150895357132, 0.10855761170387268, -0.00743083143606782, -0.13255266845226288, -0.04374820366501808, 0.11802318692207336, -0.04381776228547096, -0.1514655202627182, -0.15272623300552368, -0.08300989121198654, 0.21023279428482056, -0.14904876053333282, 0.14044839143753052, -0.07554809749126434, -0.08298645168542862, 0.13281188905239105, -0.16668903827667236, 0.19889622926712036, 0.12800955772399902, -0.2889321744441986, -0.009558727033436298, -0.06858259439468384, 0.16385135054588318, -0.2986637055873871, -0.055463757365942, 0.004360314924269915, 0.2662612497806549, 0.036994583904743195, -0.2007453888654709, -0.37196484208106995, 0.316106915473938, -0.0042452155612409115, -0.042680151760578156, 0.2720234990119934, 0.38771897554397583, 0.07470118999481201, -0.02879384718835354, -0.215641587972641, 0.04514264315366745, -0.016408506780862808, 0.09791024774312973, 0.30351999402046204, -0.06865683197975159, -0.22787033021450043, 0.236044242978096, 0.3208852708339691, 0.3938990533351898, -0.23934681713581085, -0.08289526402950287, -0.15050972998142242, 0.2331666201353073, 0.17075511813163757, 0.22282510995864868, 0.05583704262971878, -0.19209976494312286, -0.14565841853618622, -0.019852330908179283, -0.31755781173706055, 0.07758696377277374, -0.024065498262643814, -0.042159292846918106, 0.0011690184473991394, 0.3657139539718628, 0.054522547870874405, 0.3195476830005646, 0.019837671890854836, 0.06791415065526962, 0.19883213937282562, 0.02455015294253826, -0.001420508255250752, -0.2856614291667938, 0.2078639268875122, -0.17249970138072968, 0.3714609742164612, -0.10857366770505905, -0.30746668577194214, 0.1310088336467743, 0.27433398365974426, 0.006136498413980007, 0.222279354929924, -0.016540398821234703, -0.13787582516670227, -0.45300665497779846, -0.05043346807360649, -0.010023891925811768, 0.05233355611562729, 0.046816278249025345, -0.17721492052078247, -0.22061032056808472, 0.19638623297214508, -0.1292324811220169, -0.49070996046066284, 0.1467624008655548, -0.10296967625617981, 0.4133705496788025, -0.2739510238170624, -0.03061523474752903, -0.023521287366747856, -0.06279665231704712, 0.13779591023921967, -0.23057998716831207, -0.30834004282951355, -0.09594158828258514, -0.20784324407577515, 0.08613132685422897, 0.07053327560424805, 0.26389822363853455, -0.06726087629795074, -0.1865668147802353, 0.12444516271352768, -0.011705542914569378, -0.02388560213148594, 0.5667932033538818, 0.10279512405395508, -0.03063010796904564, 0.08088148385286331, 0.0013007080415263772, -0.16010262072086334, -0.04000004380941391, 0.14378684759140015, -0.05788290500640869, 0.1903223693370819, 0.206966832280159, -0.07702489197254181, -0.06909405440092087, 0.2523961067199707, -0.2379700094461441, 0.2352324277162552, -0.0997796356678009, -0.08003844320774078, -0.3979266583919525, 0.015257084742188454, 0.14969943463802338, 0.16527417302131653, -0.17190581560134888, 0.12847678363323212, 0.32738593220710754, -0.0007312226807698607, -0.053606223315000534, 0.3595157861709595, 0.10731010884046555, -0.047118861228227615, -0.2898556888103485, 0.3765731751918793, -0.2376355677843094, 0.09091699868440628, -0.09387647360563278, -0.08974435180425644, 0.17607031762599945, 0.11730790138244629, -0.003530795220285654, -0.12400419265031815, -0.06710450351238251, -0.046280182898044586, -0.11365748941898346, -0.04256952926516533, 0.2452821135520935, 0.0680140033364296, -0.2865436375141144, -0.4802243411540985, -0.11890887469053268, 0.2769373655319214, -0.21201086044311523, -0.07735481858253479, -0.07774143666028976, 0.35778263211250305, 0.1425936371088028, 0.15229889750480652, -0.06909777224063873, -0.036288198083639145, -0.057466816157102585, 0.31688347458839417, -0.00814187340438366, 0.04190871864557266, -0.06160103529691696, 0.17273621261119843, -0.03728153184056282, 0.3738804757595062, 0.09659633785486221, -0.13998281955718994, -0.31587615609169006, -0.38591447472572327, 0.1827532947063446, 0.03908025845885277, -0.3812698721885681, 0.01904527097940445, -0.084718719124794, -0.40354812145233154, 0.026332605630159378, 0.1143607646226883, -0.03348090499639511, 0.00015362302656285465, 0.24243387579917908, 0.04306965693831444, -0.047480229288339615, -0.0027593416161835194, -0.19436079263687134, -0.401338666677475, 0.14996381103992462, 0.0597444623708725, 0.18972034752368927, 0.19116683304309845, 0.29335325956344604, -0.0024741359520703554, 0.010239610448479652, -0.18719719350337982, 0.05636725202202797, 0.0993935763835907, 0.14218997955322266, -0.07756476104259491, 0.15690448880195618, 0.16205473244190216, -0.19941294193267822, 0.19011692702770233, 0.11193246394395828, -0.45337867736816406, -0.2264714539051056, 0.0808616429567337, -0.5365446209907532, 0.30123457312583923, 0.17645688354969025, 0.5219432711601257, -0.40137773752212524, 0.5260015726089478, -0.45440205931663513, 0.34671512246131897, -0.2743346095085144, -0.5607552528381348, 0.1553886979818344, 0.057166937738657, 0.12386198341846466, -0.32097023725509644, -0.31066662073135376, -0.03530589118599892, -0.4270056486129761, 0.20973820984363556, 0.2634190320968628, -0.13421471416950226, -0.09987188130617142, 0.33305200934410095, 0.23238009214401245, 0.012038633227348328, -0.17780721187591553, -0.3757878541946411, -0.2952338457107544, 0.09202393144369125, -0.05970795080065727, -0.027091067284345627, -0.2501736581325531, 0.4171603322029114, -0.3908848762512207, 0.31035298109054565, 0.48810014128685, 0.25493547320365906, -0.3360440135002136, 0.26899954676628113, 0.0932018831372261, -0.3076457977294922, 0.05441249534487724, -0.19517569243907928, -0.46955177187919617, 0.10584046691656113, 0.4188527464866638, -0.3471779227256775, 0.45016375184059143, -0.006756405811756849, 0.026167500764131546, 0.6490666270256042, 0.13593167066574097, 0.1956205666065216, -0.3547068238258362, -0.3380163908004761, 0.16927601397037506, 0.1257781833410263, -0.18325190246105194, 0.3303402066230774, 0.14928185939788818, 0.20879648625850677, -0.29598936438560486, -0.11907364428043365, -0.6167451739311218, -0.09439306706190109, 0.003517917590215802, 0.3135349750518799, 0.02658221870660782, -0.2766825258731842, 0.06332792341709137, -0.05592125281691551, 0.20301911234855652, 0.00339138088747859, 0.19292715191841125, 0.17149148881435394, -0.11377954483032227, 0.17613321542739868, 0.2541152238845825, 0.08720849454402924, -0.01725386083126068, 0.11908189952373505, 0.23245824873447418, -0.09891816228628159, -0.0692259669303894, 0.05734417960047722, -0.15732280910015106, -0.12412060052156448, -0.012313680723309517, 0.0719773918390274, -0.22998477518558502, 0.06845221668481827, 0.30013424158096313, -0.0965457484126091, -0.05599437281489372, 0.4058765769004822, -0.08887021243572235, -0.0005578638520091772, 0.04090408608317375, -0.050559911876916885, 0.13641203939914703, -0.12962037324905396, -0.0070213330909609795, 0.06745848804712296, 0.005272844340652227, -0.006450123619288206, 0.26885437965393066, 0.15678298473358154, -0.03753717616200447, -0.29866939783096313, -0.07263116538524628, 0.17755170166492462, -0.034952178597450256, -0.16332881152629852, -0.0206153467297554, -0.06651388853788376, 0.13525772094726562, 0.33571958541870117, -0.1693817377090454, 0.1625813990831375, 0.11470217257738113, -0.1910928189754486, 0.17051789164543152, -0.08097700029611588, 0.24903076887130737, -0.21100188791751862, -0.09101719409227371, -0.44793701171875, -0.027665063738822937, 0.027000712230801582, -0.10749344527721405, 0.09291987866163254, 0.24435023963451385, 0.3476528823375702, 0.22590017318725586, -0.020054779946804047, -0.07565059512853622, -0.13151919841766357, 0.08382260799407959, 0.09421632438898087, -0.16929221153259277, -0.10125742852687836, 0.12790779769420624, -0.10309090465307236, 0.015418227761983871, 0.26141810417175293, 0.1963525414466858, -0.006610626820474863, -0.267544686794281, 0.13834993541240692, 0.16940294206142426, 0.4776076376438141, -0.28527918457984924, -0.04317442700266838, 0.24838761985301971, 0.14453496038913727, -0.10162235796451569, -0.07478124648332596, -0.067910335958004, 0.0741136223077774, -0.013577079400420189, 0.10296177119016647, -0.28464457392692566, -0.2769705355167389, 0.13089358806610107, 0.02571272663772106, -0.03242453560233116, 0.2600507140159607, -0.2528955936431885, -0.0404541902244091, -0.15473048388957977, -0.011553410440683365, -0.16477330029010773, -0.18389341235160828, 0.043014202266931534, -0.14363569021224976, -0.008856834843754768, -0.33438539505004883, -0.13516205549240112, 0.10614264756441116, 0.0020269216038286686, -0.06872238963842392, -0.10234490782022476, -0.12864938378334045, -0.24484921991825104, 0.11188014596700668, 0.1650342494249344, 0.007939990609884262, -0.30955439805984497, 0.04437076672911644, -0.05379432439804077, -0.4106054902076721, 0.12270520627498627, 0.08049852401018143, -0.18931607902050018, 0.0001098212378565222, 0.021856239065527916, 0.3010159432888031, -0.14375105500221252, 0.13892069458961487, 0.0647839680314064, -0.05585424229502678, 0.09713906049728394, 0.2530175447463989, -0.10294432938098907, -0.15351048111915588, 0.08919142931699753, 0.23988865315914154, 0.05057612806558609, -0.3750742971897125, -0.12072543054819107, -0.06827323138713837, -0.04365400969982147, 0.12159661948680878, -0.09174703806638718, 0.1506616622209549, -0.30894842743873596, -0.08788329362869263, 0.0008389913127757609, -0.09552904963493347, 0.05444280430674553, -0.19632987678050995, -0.05590435490012169, 0.0050391568802297115, -0.12442774325609207, 0.3388679027557373, -0.06384958326816559, -0.0037322116550058126, -0.24058620631694794, 0.05328810214996338, -0.06355199962854385, -0.26071757078170776, -0.11165720969438553, 0.003841338912025094, -0.2943723201751709, -0.043412331491708755, 0.1954594999551773, -0.3436315655708313, -0.08369023352861404, 0.07651257514953613, -0.42236754298210144, 0.027087124064564705, 0.33336156606674194, 0.028289511799812317, -0.17343558371067047, -0.26337918639183044, 0.1787974089384079, 0.2740216851234436, -0.008615052327513695, -0.0038653798401355743, 0.13690780103206635, 0.20379166305065155, -0.1799509972333908, -0.11419617384672165, 0.10576298832893372, -0.07335937023162842, -0.15380965173244476, -0.1540486365556717, -0.055789414793252945, -0.15651898086071014, 0.195219948887825, 0.08192849904298782, 0.05153116211295128, 0.21216516196727753, -0.2402396947145462, 0.003601335920393467, 0.017442885786294937, -0.15757988393306732, -0.11061718314886093, -0.35680097341537476, 0.0344076082110405, -0.10122164338827133, 0.15321342647075653, -0.0379960872232914, -0.291892945766449, 0.015846746042370796, -0.01705702766776085, 0.10406367480754852, -0.0509839802980423, -0.8342160582542419, 0.5018051862716675, 0.010482163168489933, -0.3636974096298218, 0.36572742462158203, 0.5786007642745972, -0.24926429986953735, 0.08679121732711792, 0.27964842319488525, 0.24645847082138062, 0.16574153304100037, -0.13674397766590118, -0.17652274668216705, 0.353142112493515, 0.08169285207986832, 0.27197638154029846, -0.1623465120792389, -0.18892455101013184, 0.05765998363494873, -0.2993638217449188, 0.24084056913852692, 0.25735461711883545, 0.13189393281936646, -0.08835376799106598, -0.05357354134321213, -0.3111501932144165, 0.4646708071231842, -0.6093443632125854, -0.21674802899360657, 0.07306504994630814, 0.262279748916626, 0.0759325921535492, 0.2238474190235138, -0.3478085994720459, 0.27274736762046814, -0.0432506799697876, 0.08161408454179764, 0.191191166639328, 0.2546282708644867, 0.011601468548178673, -0.10707742720842361, -0.3249048590660095, 0.008457380346953869, 0.08224023133516312, -0.1493489146232605, 0.22020402550697327, -0.15531760454177856, -0.03877079486846924, -0.06685175001621246, -0.5027446150779724, 0.2512471377849579, -0.13376198709011078, 0.0401005744934082, -0.035208169370889664, 0.29746776819229126, 0.19586332142353058, -0.09811582416296005, 0.12337041646242142, -0.24378207325935364, -0.22389888763427734, -0.03229780122637749, -0.10872802883386612, -0.12409517168998718, -0.30557724833488464, -0.12117958813905716, 0.18489333987236023, -0.19334693253040314, -0.3663397431373596, 0.04625365510582924, -0.30348777770996094, -0.2741762697696686, -0.27740782499313354, -0.07075352221727371, -0.3765985071659088, -0.2443360984325409, 0.024163082242012024, -0.21703676879405975, -0.08272352069616318, -0.22943484783172607, -0.24943111836910248, -0.039998870342969894, -0.45782145857810974, -0.043164853006601334, 0.06841688603162766, -0.07861156761646271, 0.20115406811237335, 0.13740554451942444, -0.010596374049782753, -0.1155504435300827, 0.0438394695520401, 0.026846135035157204, -0.08877373486757278, -0.11645519733428955, 0.13760381937026978, -0.18644241988658905, 0.08199799060821533, 0.06354331225156784, -0.14962029457092285, -0.028839515522122383, -0.19367431104183197, 0.170914888381958, -0.280441552400589, 0.061808034777641296, -0.21321898698806763, -0.13331128656864166, -0.4964366853237152, 0.14554910361766815, -0.14387749135494232, -0.2883346974849701, 0.12255933880805969, -0.010840409435331821, 0.12102898955345154, -0.262749582529068, 0.06703910231590271, -0.2010958045721054, 0.2619880139827728, -0.08301607519388199, 0.038072433322668076, 0.005879765842109919, 0.14353592693805695, -0.23178988695144653, -0.19401797652244568, -0.07637560367584229, 0.22757579386234283, -0.07974176108837128, -0.11690492928028107, -0.09362072497606277, 0.022476961836218834, 0.028459183871746063, -0.2794484496116638, -0.06544842571020126, -0.15472692251205444, -0.08191630989313126, -0.04592381417751312, 0.2769080102443695, -0.1321909874677658, -0.22306764125823975, -0.1978822648525238, -0.15713322162628174, 0.28166383504867554, -0.15502892434597015, -0.09149191528558731, 0.04785255715250969, 0.1857915073633194, -0.10154922306537628, 0.2616179585456848, 0.025868240743875504, -0.14010849595069885, 0.15159302949905396, -0.1348983198404312, 0.10596706718206406, -0.06249529868364334, 0.12527023255825043, 0.3919331431388855, 0.16983568668365479, 0.12577073276042938, -0.08529863506555557, -0.27343395352363586, -0.23648010194301605, 0.11994542181491852, 0.011446076445281506, 0.14379924535751343, 0.03968321904540062, -0.4935673773288727, 0.17208148539066315, -0.2671852111816406, -0.11746339499950409, 0.03854716569185257, -0.04799447953701019, -0.1526414155960083, -0.0757661759853363, 0.09865231066942215, 0.10011141002178192, 0.1551426351070404, 0.01317831501364708, -0.0463855154812336, 0.16177569329738617, 0.026069365441799164, -0.1449660360813141, 0.2254166305065155, 0.2943786680698395, 0.07271374017000198, 0.4293021261692047, 0.291058748960495, -0.10803907364606857, -0.10605154186487198, -0.18078731000423431, 0.03321225196123123, -0.043822865933179855, -0.0748276337981224, -0.011099985800683498, -0.05868130177259445, 0.12113483250141144, 0.25340795516967773, 0.07698270678520203, -0.23993688821792603, 0.10559214651584625, -0.26069873571395874, -0.24919220805168152, -0.11493758112192154, 0.15465641021728516, 0.3106275796890259, 0.2544728219509125, 0.22074729204177856, 0.14270377159118652, -0.3484783470630646, -0.03371346369385719, -0.00849058385938406, 0.24489347636699677, -0.19980493187904358, 0.13926169276237488, 0.036856260150671005, -0.2367827594280243, -0.11508619040250778, 0.32858264446258545, -0.29636460542678833, 0.05356089025735855, 0.08790143579244614, 0.07567692548036575, 0.07599519193172455, -0.22799786925315857, 0.26876044273376465, -0.009102505631744862, 0.04088970646262169, 0.12424580007791519, -0.5872878432273865, 0.03349519148468971, 0.0004442603967618197, -0.030882129445672035, -0.167925164103508, -0.04415622353553772, -0.009656981565058231, -0.17233343422412872, 0.11680599302053452, -0.19234967231750488, -0.12949977815151215, -0.18087352812290192, -0.17179325222969055, -0.009589843451976776, 0.03877702355384827, -0.629758358001709, -0.6002234220504761, 0.06790656596422195, 0.3717655837535858, -0.2027381956577301, 0.09760920703411102, -0.0796755775809288, -0.2754074037075043, 0.1601686328649521, 0.16984796524047852, 0.2329704910516739, 0.0034900333266705275, 0.10699249058961868, -0.036782171577215195, -0.032259467989206314, 0.048847395926713943, 0.23555302619934082, 0.10698993504047394, -0.16966374218463898, -0.3210390508174896, -0.27634045481681824, -0.28487226366996765, 0.22011114656925201, -0.02986549399793148, -0.18726567924022675, 0.005640309303998947, 0.18676428496837616, 0.056351546198129654, -0.3180235028266907, -0.02989160269498825, 0.17748385667800903, -0.09767092019319534, -0.012847627513110638, 0.10710510611534119, -0.051114872097969055, -0.19345761835575104, -0.41871199011802673, 0.11756262183189392, 0.04083574563264847, -0.14750149846076965, -0.19704855978488922, -0.5162550806999207, -0.38616326451301575, -0.5701446533203125, 0.519146740436554, 0.39326831698417664, -0.21027685701847076, -0.4907279908657074, 0.2295266091823578, -0.03726579621434212, 0.21020396053791046, -0.003330889390781522, -0.2059992253780365, -0.03361153230071068, -0.09453411400318146, 0.08591709285974503, -0.18682006001472473, -0.18325066566467285, 0.30108776688575745, -0.20983166992664337, -0.0018765071872621775, 0.19394761323928833, -0.02016179822385311, 0.3640194237232208, 0.3957246243953705, 0.6016379594802856, 0.20568178594112396, 0.08356650173664093, -0.09448700398206711, -0.22345265746116638, 0.057355113327503204, -0.0020162872970104218, 0.13302786648273468, 0.2146422564983368, -0.3816162645816803, 0.2883789837360382, 0.01868847943842411, 0.14384301006793976, 0.17359264194965363, -0.12385747581720352, -0.39107751846313477, 0.25718313455581665, -0.36003124713897705, 0.17152683436870575, -0.38828349113464355, 0.12741881608963013, -0.17434260249137878, -0.05602693930268288, 0.023515723645687103, 0.20740224421024323, -0.02488373965024948, 0.040847066789865494, 0.3777148723602295, -0.31018853187561035, 0.05437236651778221, -0.11994285136461258, 0.13436073064804077, 0.06067162752151489, -0.28382766246795654, -0.05483713001012802, -0.29002466797828674, 0.36295589804649353, -0.06701535731554031, 0.45335856080055237, 0.3495028614997864, 0.5062087178230286, 0.5847346782684326, -0.31728002429008484, 0.1199730932712555, -0.3353598415851593, 0.35488763451576233, -0.018297884613275528, 0.028717465698719025, -0.2859249413013458, -0.2771950364112854, 0.1641065776348114, 0.2175542712211609, 0.02459251880645752, 0.2135820835828781, -0.1467510312795639, -0.12320559471845627, 0.11587399244308472, 0.11206384003162384, 0.100901760160923, 0.2861917018890381, 0.49085700511932373, 0.15755769610404968, -0.04631324112415314, 0.364449679851532, -0.37040409445762634, -0.013439149595797062, 0.24356885254383087, -0.1778375208377838, -0.5188634395599365, -0.10061775147914886, -0.07297100126743317, -0.39239272475242615, 0.2642933428287506, 0.18188972771167755, 0.39368146657943726, -0.09028638154268265, -0.21646250784397125, -0.14854267239570618, -0.06846465170383453, -0.007720466237515211, 0.08791737258434296, 0.017759772017598152, -0.046839769929647446, 0.05449334904551506, -0.24875104427337646, -0.21429885923862457, 0.0824480950832367, -0.012548587284982204, 0.04084530100226402, -0.04506796598434448, -0.16428819298744202, 0.012798748910427094, 0.20196585357189178, -0.013010540045797825, 0.036144860088825226, -0.06583888828754425, -0.3937366306781769, 0.18319641053676605, 0.11272869259119034, -0.07095684856176376, 0.11566826701164246, 0.16598939895629883, -0.11237838864326477, -0.060158733278512955, -0.2264339029788971, -0.131891667842865, 0.11107515543699265, -0.22064638137817383, 0.11681690067052841, 0.042949285358190536, 0.030579915270209312, -0.050281692296266556, -0.18055309355258942, 0.02629343792796135, 0.32915276288986206, 0.17529834806919098, 0.039822716265916824, 0.0017731762491166592, 0.28882575035095215, 0.15097332000732422, 0.2511906027793884, 0.045997049659490585, -0.13218319416046143, 0.08016563951969147, -0.11692173033952713, -0.02575579471886158, 0.14082945883274078, 0.4033212959766388, 0.3513437807559967, 0.25936365127563477, 0.11497140675783157, 0.3233332931995392, 0.04371124133467674, -0.010342503897845745, -0.1879592090845108, 0.22095973789691925, 0.07029078900814056, 0.07202500104904175, -0.2610144019126892, -0.12928694486618042, -0.23698045313358307, -0.07021482288837433, 0.07588654011487961, -0.2514820694923401, -0.3537379801273346, 0.07038319110870361, 0.08706917613744736, -0.26097139716148376, -0.011810144409537315, 0.05818977579474449, -0.30379271507263184, -0.07022228837013245, -0.015545993112027645, -0.10783455520868301, 0.059791870415210724, -0.10581284016370773, 0.25638705492019653, 0.1655111163854599, 0.174663707613945, -0.19420234858989716, -0.24339748919010162, -0.05750222131609917, -0.05003402382135391, -0.0771431028842926, -0.04183778166770935, -0.10256730765104294, 0.04216877371072769, 0.38603857159614563, 0.2640153467655182, -0.06518423557281494, -0.08913261443376541, 0.3368058204650879, -0.06426744908094406, -0.2928757667541504, -0.05327065661549568, -0.4365628659725189, -0.06430162489414215, 0.1457105278968811, 0.022441817447543144, 0.2361839860677719, -0.1577008217573166, -0.10443659871816635, -0.2234373390674591, 0.07548607885837555, 0.1017436757683754, 0.008896560408174992, -0.16795863211154938, 0.12968240678310394, -0.17747381329536438, 0.14271603524684906, -0.004243017639964819, -0.12949307262897491, 0.17835746705532074, 0.04800878092646599, -0.10441558808088303, -0.3722039461135864, 0.09382400661706924, -0.018776632845401764, -0.03448331356048584, 0.13332727551460266, 0.28957006335258484, 0.04790770262479782, 0.0728730782866478, 0.018490346148610115, -0.10774285346269608, -0.19479994475841522, -0.29205232858657837, 0.008061868138611317, 0.09064538776874542, -0.056823212653398514, -0.3358253538608551, 0.0746191218495369, -0.22071008384227753, -0.1744210571050644, -0.2933705449104309, -0.051002394407987595, 0.06458760052919388, -0.3603464365005493, -0.030308766290545464, 0.027950484305620193, -0.04848518967628479, 0.08637458086013794, 0.09335891157388687, 0.02429238148033619, 0.0029500725213438272, -0.017458679154515266, 0.08917652815580368, 0.044950440526008606, -0.09676570445299149, -0.24208617210388184, -0.07400611788034439, 0.13711649179458618, 0.0022233177442103624, -0.20660795271396637, -0.08731745183467865, 0.1174730733036995, -0.05178719758987427, 0.08982077986001968, -0.00112446048296988, -0.12480991333723068, -0.09676340967416763, 0.1266419142484665, 0.00475165992975235, -0.34290242195129395, 0.07806909084320068, 0.2023678719997406, -0.06356027722358704, -0.27758798003196716, 0.16468413174152374, 0.004059541039168835, -0.15289463102817535, -0.06375763565301895, -0.07522013783454895, 0.032662346959114075, 0.06862088292837143, -0.7106921672821045, 0.2334536910057068, 0.07207173854112625, 0.20007921755313873, -0.37501880526542664, 0.14202356338500977, -0.6101405024528503, 0.26959845423698425, 0.1725497990846634, -0.06507104635238647, -0.12164707481861115, -0.11454202234745026, 0.18286803364753723, -0.4671485424041748, -0.4616260528564453, 0.004306107293814421, 0.3961612582206726, 0.13861392438411713, 0.2532601058483124, 0.04768555983901024, 0.14120791852474213, 0.10637877136468887, -0.02616127021610737, -0.06275320053100586, 0.22689102590084076, -0.00572242634370923, -0.09594836831092834, -0.3244480490684509, 0.2924538552761078, 0.040746089071035385, 0.0759708359837532, -0.2460247278213501, 0.27108168601989746, -0.24508605897426605, -0.21626760065555573, -0.46095776557922363, 0.3072478771209717, -0.08111967146396637, -0.06292891502380371, 0.11769718676805496, -0.2874356210231781, -0.13496579229831696, 0.21780481934547424, 0.106141597032547, -0.3250868618488312, -0.05213695392012596, 0.1068837121129036, 0.26821210980415344, 0.08000165969133377, -0.21171317994594574, 0.13063141703605652, 0.05860964581370354, -0.21213717758655548, -0.381266713142395, 0.03773519769310951, 0.12221939861774445, -0.004305743146687746, 0.10656710714101791, -0.2814236581325531, 0.4023405611515045, 0.07247418910264969, 0.22643113136291504, 0.3326180577278137, 0.3670477271080017, -0.1755833625793457, -0.05401327461004257, 0.1558704823255539, -0.14925511181354523, 0.4323185086250305, -0.25185447931289673, -0.4051113724708557, -0.3078938126564026, -0.2869150638580322, 0.2920953035354614, -0.10534954816102982, -0.21977129578590393, 0.05697508156299591, -0.25179243087768555, -0.1880420595407486, 0.1701866239309311, -0.16802746057510376, 0.08916555345058441, 0.24378468096256256, 0.015236732549965382, 0.05153660476207733, -0.1303732842206955, 0.1989261358976364, 0.2886248826980591, 0.01985645666718483, 0.17830432951450348, -0.2564021348953247, -0.27612778544425964, -0.021410157904028893, -0.1642816662788391, 0.1369123011827469, -0.010459237731993198, 0.034318480640649796, -0.32572105526924133, 0.30455541610717773, 0.09784707427024841, 0.05164957791566849, 0.08547583967447281, -0.04254378005862236, -0.10751426219940186, -0.00785211194306612, -0.10002410411834717, 0.2210184931755066, 0.07161697745323181, 0.20854394137859344, 0.06574894487857819, 0.11948585510253906, -0.2379511147737503, 0.1547045111656189, 0.007858979515731335, -0.015629364177584648, -0.14305846393108368, -0.0382661446928978, 0.023655779659748077, 0.14751504361629486, -0.09760194271802902, -0.025251714512705803, -0.17727918922901154, 0.07740709185600281, 0.28550633788108826, -0.12367473542690277, 0.05452482029795647, 0.0434802770614624, -0.03522712364792824, 0.23656661808490753, 0.1286095231771469, 0.2202361673116684, 0.07280562072992325, -0.2132294476032257, 0.46549752354621887, 0.14894747734069824, 0.17283174395561218, -0.013226301409304142, -0.03695086017251015, 0.08286310732364655, 0.19993820786476135, -0.23054832220077515, -0.1971067190170288, -0.4519123136997223, 0.12482361495494843, 0.11516086757183075, 0.3763734996318817, 0.016592517495155334, -0.14508658647537231, 0.0669187679886818, -0.19426582753658295, -0.17485782504081726, 0.2058349996805191, -0.1168966069817543, -0.012166352942585945, -0.12817059457302094, -0.06373542547225952, 0.19548006355762482, -0.33463484048843384, -0.15732432901859283, 0.02728966437280178, 0.06042960286140442, 0.07098936289548874, -0.05761389806866646, -0.19169282913208008, 0.02898549474775791, 0.07158226519823074, 0.0785706490278244, 0.04651879891753197, -0.18334802985191345, -0.18580397963523865, 0.11128535866737366, 0.2488776445388794, -0.015405296348035336, 0.0203927643597126, 0.06505889445543289, -0.21019315719604492, -0.05662597715854645, -0.2647189497947693, -0.49211999773979187, -0.2578883171081543, -0.2533511519432068, 0.16388921439647675, -0.0849655419588089, 0.11624040454626083, 0.08083529025316238, -0.024683747440576553, 0.001974499551579356, 0.40718889236450195, 0.1883622407913208, 0.12388710677623749, 0.020764820277690887, -0.026816755533218384, 0.05590841919183731, 0.11395370960235596, -0.04770710691809654, -0.05555267259478569, 0.31515249609947205, 0.25969868898391724, 0.18570178747177124, 0.2723252475261688, -0.1336880773305893, 0.07896402478218079, -0.22429634630680084, 0.028880728408694267, 0.18667897582054138, -0.032443609088659286, -0.09241732954978943, -0.13858963549137115, 0.05123303830623627, 0.11813076585531235, 0.1416599601507187, -0.31478646397590637, 0.03540290519595146, -0.051230404525995255, 0.04820983111858368, -0.22405901551246643, -0.2017313838005066, -0.19106478989124298, -0.1581210345029831, 0.13468292355537415, -0.35447773337364197, 0.05225171893835068, -0.011430485174059868, -0.21849316358566284, -0.09296286851167679, -0.09462533891201019, 0.05941180884838104, -0.07855331152677536, 0.27822381258010864, 0.12076189368963242, -0.09841245412826538, 0.003305837046355009, -0.07944438606500626, 0.15207462012767792, 0.10877463966608047, -0.042368292808532715, -0.15596529841423035, -0.23464058339595795, 0.10924113541841507, 0.008084443397819996, 0.17057299613952637, -0.07111623138189316, 0.10162796080112457, 0.01828623004257679, -0.055006612092256546, 0.03826817497611046, 0.3105041980743408, 0.12715117633342743, 0.13753768801689148, 0.019424013793468475, 0.13757233321666718, 0.06572902202606201, 0.08743039518594742, -0.13527199625968933, 0.1120479553937912, -0.03203512355685234, -0.0008752361172810197, -0.1235605776309967, -0.30845099687576294, -0.40004774928092957, 0.006849236320704222, 0.2761639952659607, 0.20044583082199097, 0.025288648903369904, 0.12519440054893494, -0.11536665260791779, -0.2941005229949951, -0.2818320393562317, -0.36392197012901306, -0.1718701869249344, -0.04533633962273598, -0.13620318472385406, 0.15671363472938538, -0.22911986708641052, -0.2422264665365219, -0.14412613213062286, 0.19898030161857605, -0.05191844329237938, 0.07292327284812927, 0.0029242660384625196, -0.5184454321861267, -0.3286132514476776, 0.08216168731451035, 0.8436732888221741, 0.7583274841308594, 0.04202180728316307, -0.7389135956764221, -0.081383116543293, -0.16973093152046204, -0.17579330503940582, 0.16453351080417633, 0.0799780860543251, 0.3386320471763611, -0.09316536039113998, -0.19652031362056732, -0.11639215797185898, 0.01451357826590538, -0.13006733357906342, 0.07476437836885452, 0.07982925325632095, -0.30241262912750244, 0.3134974241256714, 0.09203789383172989, -0.21572145819664001, 0.19274379312992096, -0.19039221107959747, 0.22004081308841705, 0.3328718841075897, 0.12683039903640747, 0.018876798450946808, 0.04046781733632088, 0.30293968319892883, -0.09387297183275223, -0.12866488099098206, -0.019158147275447845, 0.28388774394989014, -0.0331404022872448, 0.21854466199874878, 0.27193084359169006, 0.0861717164516449, -0.016980603337287903, -0.12154427915811539, -0.4191104471683502, -0.45623907446861267, 0.07577785104513168, 0.021935461089015007, 0.10657507926225662, -0.1437942087650299, 0.1566997766494751, 0.22393900156021118, -0.15222711861133575, -0.1647438406944275, -0.273338258266449, 0.07498712837696075, -0.05366937816143036, 0.03376077115535736, -0.04998509958386421, 0.17244981229305267, 0.11962060630321503, 0.3007170855998993, 0.289887398481369, -0.18278728425502777, 0.23802439868450165, 0.1564103662967682, 0.2663904130458832, -0.07647065073251724, -0.03220754489302635, -0.13864800333976746, 0.32849836349487305, -0.11587513983249664, -0.039476651698350906, 0.30586951971054077, 0.37567034363746643, -0.02209526114165783, -0.21929572522640228, 0.3435856103897095, -0.05490072816610336, -0.17107582092285156, -0.24159562587738037, -0.15961314737796783, -0.451407790184021, -0.5818681120872498, 0.20208661258220673, -0.4700278639793396, 0.589448869228363, -0.6589827537536621, -0.447025328874588, -0.4972439706325531, 0.0022973865270614624, -0.06805610656738281, 0.46275976300239563, -0.5646311640739441, 0.16061314940452576, -0.5933244228363037, -0.33651500940322876, -0.2748258709907532, 0.014321668073534966, -0.43166494369506836, 0.7094881534576416, -0.7171178460121155, 0.5442975163459778, -0.04909539967775345, -0.7975406050682068, -0.554046630859375, 0.39405563473701477, 0.3178127408027649, -0.6966419816017151, 0.6013252139091492, -0.4062178134918213, 0.3977450430393219, 0.3307083547115326, 0.620871901512146, 0.10400890558958054, 0.12770326435565948, -0.055971674621105194, 0.24430862069129944, 0.05082741007208824, -0.11185599863529205, 0.06212162226438522, 0.35548752546310425, -0.3133183419704437, 0.48513558506965637, -0.3295629322528839, 0.5147952437400818, -0.3894432783126831, 0.396327406167984, 0.40871378779411316, 0.06302778422832489, -0.15136192739009857, 0.253603994846344, -0.033568643033504486, -0.14723992347717285, -0.48885881900787354, 0.08278731256723404, -0.06423846632242203, -0.24062982201576233, 0.095832958817482, 0.11112338304519653, 0.31171539425849915, 0.07309994101524353, -0.25248080492019653, 0.3063293695449829, -0.04300641641020775, 0.44745194911956787, -0.10845719277858734, -0.19395576417446136, -0.0694214403629303, 0.023533770814538002, 0.14801760017871857, 0.045892201364040375, 0.25230732560157776, 0.122169129550457, -0.005071144551038742, -0.01421357225626707, 0.004384456668049097, 0.35971900820732117, 0.13515448570251465, 0.09960979223251343, 0.4954487383365631, -0.2463873326778412, -0.16423191130161285, 0.09814896434545517, -0.20883896946907043, 0.1191616952419281, 0.1371498703956604, 0.1002957820892334, 0.0766875371336937, 0.2275412678718567, -0.09386563301086426, 0.09226728975772858, 0.16788369417190552, -0.0956297516822815, -0.10498803108930588, 0.5287903547286987, -0.0242878757417202, 0.09364181011915207, 0.33277004957199097, 0.06692731380462646, -0.15715515613555908, 0.07008889317512512, -0.07455874234437943, -0.055517591536045074, -0.1604330688714981, 0.2142000049352646, -0.10683340579271317, -0.06805149465799332, 0.22844095528125763, -0.04002687335014343, -0.07398222386837006, -0.2173803150653839, 0.056397292762994766, -0.26814064383506775, -0.3146957755088806, -0.20413707196712494, -0.29808953404426575, 0.25074878334999084, -0.6459868550300598, 0.00480044586583972, -0.40997791290283203, 0.3468550443649292, -0.428748220205307, -0.3481638431549072, -0.5246435403823853, -0.1556517630815506, 0.3295113444328308, -0.3771103024482727, -0.0035002741497009993, 0.053953297436237335, 0.3151760995388031, -0.023938436061143875, -0.1283062845468521, 0.20466332137584686, -0.48149654269218445, -0.0639374852180481, -0.08336920291185379, -0.03837860748171806, 0.4197535216808319, 0.4424780607223511, -0.0918123796582222, -0.1688915640115738, 0.2962864339351654, 0.1964375078678131, 0.18041789531707764, -0.11083731800317764, -0.09010960906744003, 0.32881712913513184, -0.11550060659646988, -0.1775927096605301, -0.31333014369010925, -0.1018543541431427, 0.05154562368988991, -0.02114846743643284, 0.06238327920436859, 0.14846624433994293, -0.10552363097667694, -0.04509837552905083, -0.06720753014087677, 0.37642258405685425, 0.26881057024002075, 0.14648756384849548, 0.30386292934417725, -0.08288409560918808, 0.024073787033557892, 0.17782074213027954, -0.4172305464744568, -0.12352117151021957, 0.06855899840593338, -0.008848510682582855, 0.18680216372013092, 0.05363238602876663, 0.31638380885124207, 0.30102792382240295, 0.03674710541963577, 0.13979922235012054, -0.25904184579849243, 0.016128143295645714, -0.06992772221565247, 0.010194486007094383, -0.14067040383815765, -0.010970148257911205, -0.045669086277484894, -0.2528333365917206, 0.2546631991863251, 0.1991729438304901, 0.11671935021877289, 0.08991608023643494, 0.07924951612949371, -0.37482792139053345, 0.23689201474189758, -0.3169350326061249, -0.25888925790786743, -0.10364652425050735, 0.6921773552894592, -0.10386838018894196, -0.27338820695877075, 0.11594080924987793, -0.21524685621261597, -0.024388665333390236, -0.01308110449463129, -0.06110852211713791, -0.12815338373184204, 0.29791712760925293, -0.29012763500213623, -0.1925627440214157, 0.49071744084358215, -0.001969787059351802, -0.12857253849506378, 0.28362777829170227, 0.31953737139701843, -0.08470965921878815, -0.22770440578460693, -0.0004374657873995602, 0.24926821887493134, -0.04913407936692238, 0.27193865180015564, -0.40875670313835144, -0.040147341787815094, 0.16395092010498047, 0.07393690198659897, 0.029247041791677475, -0.08018391579389572, 0.04666147008538246, -0.08532679080963135, -0.02383708953857422, -0.03569113463163376, -0.04840308055281639, -0.0038157906383275986, 0.10848914086818695, -0.13718344271183014, -0.34175464510917664, -0.07641840726137161, -0.2321685254573822, -0.06835183501243591, -0.05909794941544533, 0.21056532859802246, 0.02164565958082676, -0.18878594040870667, 0.2177613526582718, 0.04493318498134613, 0.16174423694610596, -0.3295517861843109, -0.37112200260162354, 0.2435864359140396, -0.20050370693206787, -0.2319689393043518, -0.14201536774635315, 0.13241596519947052, -0.04278849810361862, 0.22751298546791077, 0.1781475841999054, 0.21832376718521118, 0.025823557749390602, 0.10963045060634613, -0.012483314611017704, -0.14961299300193787, -0.13740898668766022, 0.08407547324895859, -0.44309839606285095, 0.1337868720293045, -0.09596811980009079, 0.11259486526250839, 0.06893248111009598, -0.08980671316385269, -0.24018457531929016, 0.1071576327085495, -0.18159383535385132, -0.4581032693386078, 0.17330332100391388, 0.9514877796173096, 0.43502551317214966, 0.8294023871421814, -0.014616839587688446, -0.04390627145767212, -0.2748192250728607, -0.233231320977211, -0.22249764204025269, -0.29953113198280334, 0.09015095233917236, -0.18809016048908234, -0.0615835040807724, -0.17515529692173004, -0.4428139626979828, -0.14682121574878693, 0.5040027499198914, 0.3060004413127899, 0.2470414787530899, -0.07030463963747025, 0.03655378520488739, 0.26788991689682007, -0.20551751554012299, -0.2050582468509674, 0.4202876091003418, -0.0442773811519146, -0.2900012731552124, 0.341238409280777, -0.018993880599737167, 0.2580173909664154, -0.1650128811597824, 0.16070771217346191, 0.4077548086643219, -0.018719708546996117, -0.21504992246627808, 0.1548025757074356, 0.448885440826416, 0.14597877860069275, 0.19363170862197876, -0.01683894172310829, 0.2092580795288086, 0.04798644781112671, 0.013811198994517326, 0.1435490995645523, -0.03932499885559082, 0.06278550624847412, 0.052756622433662415, 0.10082058608531952, -0.006310711614787579, 0.1778605431318283, -0.05706267058849335, -0.23980461061000824, 0.16071529686450958, -0.11529407650232315, 0.06007254123687744, 0.13228744268417358, -0.09272062033414841, 0.15945975482463837, 0.2566640079021454, 0.25518277287483215, -0.04919559508562088, 0.14768950641155243, 0.20629791915416718, 0.3776296079158783, -0.6202600598335266, -0.16885069012641907, 0.12391551584005356, -0.40744733810424805, 0.11592685431241989, -0.23880106210708618, -0.46363702416419983, 0.2013864368200302, 0.26710227131843567, 0.1690223664045334, 0.10027613490819931, 0.028834015130996704, 0.3300357460975647, -0.9127835631370544, 0.3277299404144287, 0.016734277829527855, -0.45191192626953125, 0.10147897154092789, 0.13503898680210114, 0.1261499673128128, -0.2199518382549286, -0.4323720932006836, 0.33003538846969604, 0.39644622802734375, -0.3058706521987915, -0.46886342763900757, 0.2884415090084076, 0.21272622048854828, 0.39182883501052856, -0.19183628261089325, 0.07042524218559265, 0.05807602405548096, -0.2817884087562561, -0.38251498341560364, -0.4558945894241333, 0.038441792130470276, 0.1600448042154312, -0.06982531398534775, 0.231709286570549, -0.07592278718948364, -0.29798904061317444, 0.11721960455179214, 0.08460628241300583, 0.011255108751356602, 0.4761228561401367, 0.03150007128715515, 0.26396408677101135, 0.1770399510860443, -0.0025814438704401255, 0.19588704407215118, -0.2526596486568451, -0.11454357951879501, -0.0689408928155899, 0.2281164973974228, -0.16627806425094604, 0.01908334530889988, 0.1094510406255722, 0.10354090481996536, 0.20036181807518005, 0.2800862789154053, 0.18265026807785034, 0.0488462969660759, 0.06834004074335098, 0.34905368089675903, 0.26655033230781555, -0.014671452343463898, 0.14152930676937103, 0.18637491762638092, -0.08464662730693817, 0.21862484514713287, 0.25223249197006226, -0.11225073784589767, 0.10645067691802979, 0.1745593398809433, -0.08283359557390213, -0.10999386012554169, 0.3067746162414551, 0.04991511255502701, -0.20272590219974518, 0.33035191893577576, -0.2426978051662445, 0.2590038478374481, -0.08173263818025589, -0.11962214857339859, -0.023561472073197365, 0.05844331532716751, -0.14307472109794617, 0.07763766497373581, -0.27582693099975586, -0.39635196328163147, 0.09139314293861389, -0.14020757377147675, -0.32377544045448303, -0.14785489439964294, 0.5420597195625305, 0.09537911415100098, -0.6017691493034363, 0.5919353365898132, 0.16954296827316284, -0.23388671875, -0.3047151267528534, 0.5490812659263611, -0.11318587511777878, -0.45960748195648193, 0.27892860770225525, 0.06663864850997925, -0.11505743861198425, -0.4010448753833771, -0.4944891929626465, -0.39181846380233765, -0.07543163001537323, -0.3058381974697113, 0.5227125287055969, 0.03637256473302841, 0.04670841246843338, 0.3733615279197693, -0.004568855743855238, 0.15633894503116608, 0.302150696516037, -0.08207308501005173, 0.18108467757701874, -0.023882007226347923, -0.24674472212791443, -0.10072354972362518, 0.5460240244865417, 0.11822443455457687, -0.08951632678508759, -0.31584757566452026, -0.25346338748931885, -0.1411559134721756, 0.1645607203245163, 0.2234588861465454, 0.07277897000312805, 0.07885195314884186, 0.25471848249435425, 0.23022624850273132, 0.25764819979667664, 0.20943088829517365, -0.05507250502705574, -0.1886131465435028, -0.07414603233337402, 0.006965502630919218, 0.3230268955230713, 0.13825789093971252, -0.011402522213757038, -0.2220906913280487, 0.440488338470459, -0.044980812817811966, -0.025117069482803345, -0.20743589103221893, -0.17487069964408875, 0.11714449524879456, 0.10316301137208939, -0.007918483577668667, -0.2484346330165863, 0.17695604264736176, -0.17407003045082092, -0.19559240341186523, -0.3168869912624359, 0.2327430546283722, 0.018747735768556595, 0.05294537916779518, 0.02402215451002121, 0.029135366901755333, -0.09831681102514267, 0.5684052109718323, 0.25999751687049866, 0.05847567319869995, 0.1299149990081787, -0.28648841381073, 0.3546365797519684, 0.4325861632823944, -0.6455236673355103, -0.5376269221305847, -0.22617404162883759, 0.4374232292175293, -0.2992413341999054, 0.41141411662101746, -0.06341396272182465, -0.4062926471233368, 0.2520342469215393, -0.5096107125282288, 0.10678993910551071, -0.0007869807304814458, -0.09175227582454681, -0.393975168466568, -0.4456900954246521, 0.27232304215431213, -0.024156318977475166, -0.17815841734409332, 0.011595642194151878, -0.23530781269073486, 0.011360635049641132, 0.32007163763046265, 0.29606691002845764, -0.3679946959018707, -0.09367375075817108, 0.17630963027477264, 0.1404469907283783, -0.31637290120124817, 0.25542956590652466, -0.1319229006767273, 0.22319793701171875, 0.06939329952001572, 0.04044550284743309, -0.02031412161886692, 0.025224927812814713, 0.26294615864753723, 0.31228044629096985, -0.3505398631095886, -0.02777925692498684, -0.0014063436537981033, 0.47310829162597656, 0.19119414687156677, 0.13954901695251465, -0.14734943211078644, -0.07763393223285675, 0.1207675114274025, -0.018999863415956497, 0.17314289510250092, 0.06126249209046364, -0.11978649348020554, 0.2504425346851349, 0.05841313675045967, 0.038186267018318176, 0.32845252752304077, -0.11348852515220642, 0.15310151875019073, -0.14041613042354584, -0.10438786447048187, -0.19854417443275452, 0.13647162914276123, -0.22758406400680542, -0.04627380520105362, 0.20577675104141235, 0.20604360103607178, -0.43304866552352905, -0.25164785981178284, -0.022722909227013588, -0.036091506481170654, -0.058300577104091644, -0.740807056427002, -1.0941898822784424, -0.8455564379692078, -0.4794110655784607, -0.15741659700870514, -0.38994213938713074, -0.16844645142555237, 0.22810694575309753, -0.12435668706893921, -0.11059705168008804, -0.05899748578667641, 0.44661492109298706, -0.425108939409256, 0.18832862377166748, 0.34873512387275696, 0.45884472131729126, -0.5368823409080505, -0.2415529042482376, -0.22316251695156097, 0.022119838744401932, -0.2095886915922165, -0.34851861000061035, 0.4032055139541626, -0.1282939612865448, -0.035035137087106705, 0.33877259492874146, 0.1667391061782837, 0.030997756868600845, 0.34930694103240967, 0.01491666492074728, 0.04232130944728851, -0.06434449553489685, -0.04052967205643654, 0.25600919127464294, 0.12723253667354584, 0.34034669399261475, -0.15237030386924744, 0.03502439707517624, 0.18085671961307526, -0.04510429501533508, -0.2510451078414917, 0.41484344005584717, -0.04603850096464157, 0.0900728777050972, -0.04790499061346054, 0.3138119578361511, 0.4280812740325928, 0.25462430715560913, -0.10004043579101562, 0.09384893625974655, 0.3489669859409332, -0.12494932115077972, -0.3351083993911743, 0.07342207431793213, 0.058556925505399704, 0.44478562474250793, 0.365508109331131, 0.24033577740192413, 0.24823421239852905, 0.37443751096725464, 0.1682191640138626, -0.1872633844614029, -0.33252251148223877, -0.0924430787563324, 0.020630041137337685, -0.16768427193164825, 0.0032178156543523073, -0.1823713481426239, 0.15315298736095428, -0.23713161051273346, -0.057233188301324844, -0.2200310081243515, -0.21236439049243927, 0.11486215144395828, -0.0375911109149456, -0.12278249859809875, -0.29322052001953125, -0.9965296387672424, 0.6749292612075806, 0.6256430745124817, -0.1499304473400116, 0.23724913597106934, 0.34373804926872253, 0.20737513899803162, -0.08067629486322403, -0.4685274362564087, 0.38659486174583435, -0.10393575578927994, -0.0407918244600296, 0.11993752419948578, -0.10543081909418106, -0.12992417812347412, -0.5387117266654968, 0.19001230597496033, -0.009000726044178009, 0.4386708438396454, -0.06438460201025009, 0.41847798228263855, 0.07764235883951187, -0.2183450609445572, 0.0052287643775343895, 0.02451634593307972, 0.039881907403469086, -0.020678583532571793, -0.06400330364704132, 0.3997601568698883, 0.03674314171075821, 0.24714262783527374, 0.17397412657737732, 0.06799928843975067, 0.23519964516162872, 0.1820315718650818, 0.21139538288116455, -0.1926327347755432, 0.19920864701271057, -0.044355910271406174, -0.01855788752436638, 0.18213512003421783, 0.1775810569524765, 0.31249961256980896, -0.3168685734272003, 0.02385886013507843, 0.25100472569465637, 0.24018065631389618, 0.03184790909290314, 0.23046202957630157, 0.14111274480819702, -0.03741709142923355, -0.05250314623117447, 0.3254161477088928, 0.16003283858299255, 0.1804969310760498, 0.06147059425711632, 0.01915339194238186, -0.1541001945734024, 0.37063708901405334, 0.1025223508477211, 0.01907407119870186, -0.06365408003330231, 0.24696648120880127, -0.0820646584033966, -0.30249541997909546, -0.09481148421764374, 0.15434327721595764, -0.2529105246067047, -0.04612976685166359, -0.3650020658969879, -0.06398968398571014, 0.12564513087272644, -0.07642531394958496, 0.35516300797462463, 0.050890516489744186, -0.4731610119342804, 0.14705459773540497, 0.42341065406799316, 0.13978876173496246, 0.7026089429855347, -0.15770311653614044, 0.43287426233291626, 0.20379793643951416, 0.23916783928871155, 0.1066475585103035, 0.09126663208007812, -0.06680253893136978, -0.3663293123245239, -0.059614602476358414, 0.04185782000422478, 0.14929188787937164, 0.5729222893714905, 0.4679701626300812, -0.10151997953653336, -0.38637131452560425, -0.3763636648654938, 0.17005662620067596, -0.32990145683288574, -0.46352246403694153, -0.01325930655002594, -0.04642926901578903, 0.06744428724050522, -0.20104505121707916, -0.18385453522205353, 0.4091520309448242, -0.18883904814720154, 0.08876923471689224, -0.1035415306687355, 0.13210982084274292, 0.15255698561668396, -0.04187430441379547, -0.14398811757564545, 0.16020804643630981, -0.039130084216594696, 0.0029483232647180557, 0.2808094322681427, 0.2262120097875595, -0.2965134382247925, -0.16301466524600983, -0.2671932280063629, -0.1978188455104828, 0.006112468894571066, 0.23987135291099548, -0.07992785423994064, -0.33381620049476624, 0.05529133230447769, -0.2782474756240845, -0.03790542110800743, 0.2403412014245987, -0.10270965099334717, -0.07904300093650818, -0.0866091400384903, 0.06924700736999512, 0.04517173394560814, 0.1169317364692688, 0.045735638588666916, 0.02538999356329441, -0.33337295055389404, 0.21892982721328735, -0.09794176369905472, -0.11239271610975266, -0.015635192394256592, 0.08435294032096863, 0.34482890367507935, -0.26322710514068604, 0.09520699083805084, -0.3368474245071411, -0.08701040595769882, -0.10955992341041565, 0.08528414368629456, 0.33992624282836914, 0.08749417215585709, -0.18604974448680878, -0.3105286657810211, 0.1788349747657776, -0.3411887288093567, 0.060775578022003174, -0.35154807567596436, 0.318196564912796, 0.08262116461992264, 0.09666863083839417, -0.1676776111125946, 0.28381264209747314, -0.6665160655975342, 0.282831609249115, -0.09266209602355957, 0.18691694736480713, 0.08033028990030289, -0.245057612657547, -0.11904627084732056, 0.2172718197107315, -0.22850242257118225, -0.11556074768304825, 0.27707770466804504, 0.12992095947265625, -0.2640071213245392, -0.14212176203727722, 0.008989418856799603, 0.11299945414066315, -0.1806173473596573, 0.2764314115047455, 0.04617704451084137, -0.264464408159256, -0.26364439725875854, -0.044074516743421555, 0.22846287488937378, 0.15728650987148285, -0.10604020208120346, 0.04623216763138771, 0.22412796318531036, -0.17453955113887787, -0.07088269293308258, 0.21533802151679993, -0.07237008959054947, 0.019475970417261124, -0.2567635178565979, 0.15804634988307953, -0.05539444461464882, 0.03936336934566498, -0.23167112469673157, -0.05427515506744385, 0.11906939744949341, 0.0744566097855568, 0.03604953736066818, 0.3791123330593109, -0.11773977428674698, -0.012424820102751255, 0.057640187442302704, -0.04298705980181694, -0.012226675637066364, 0.06928528100252151, -0.005986001342535019, -0.1696622222661972, -0.3107112646102905, 0.041749078780412674, 0.10967261344194412, -0.00013495792518369853, 0.24264337122440338, 0.06742944568395615, 0.23324547708034515, 0.06955134123563766, 0.0009385668090544641, -0.22010892629623413, 0.14593683183193207, -0.19066736102104187, -0.280267596244812, 0.057465702295303345, -0.5472963452339172, -0.29802924394607544, -1.0232332944869995, 0.4792024791240692, 0.019271813333034515, -0.24768240749835968, -0.053959544748067856, 0.16298073530197144, -0.47924110293388367, 0.021204473450779915, 0.046085890382528305, 0.1616816520690918, 0.07722456753253937, -0.4572204351425171, 0.13111478090286255, 0.21474437415599823, 0.08055475354194641, 0.4368838369846344, -0.10069392621517181, 0.0897720605134964, 0.29132044315338135, -0.2867435812950134, 0.42418599128723145, -0.37798163294792175, -0.10826472193002701, -0.2363390177488327, -0.04072850942611694, -0.12882034480571747, -0.22612470388412476, 0.22725620865821838, -0.1586563140153885, -0.38988810777664185, -0.13944324851036072, -0.10503985732793808, 0.041026439517736435, -0.06256662309169769, -0.026208488270640373, -0.002338523743674159, 0.17284062504768372, 0.07845837622880936, 0.05175478383898735, 0.440633624792099, -0.11965397745370865, 0.10535749047994614, 0.25526970624923706, -0.2089109718799591, -0.03254891559481621, 0.1194455698132515, -0.001979272114112973, 0.13843338191509247, 0.2523922622203827, 0.0804712101817131, -0.2392951250076294, 0.07231633365154266, 0.210829958319664, 0.08035106211900711, 0.11523831635713577, 0.15504871308803558, 0.1624394655227661, 0.4299323558807373, 0.07924056798219681, -0.07655560970306396, -0.08395899832248688, -0.008431822061538696, 0.024443265050649643, -0.3340398967266083, 0.036338064819574356, -0.04612508416175842, 0.32510510087013245, -0.21094241738319397, 0.038766104727983475, 0.07792013883590698, -0.3016449809074402, 0.24105390906333923, -0.03330996260046959, -0.03052453324198723, 0.32640978693962097, -0.2035001814365387, 0.7633481621742249, -0.5182119011878967, -0.0946018323302269, -0.022883156314492226, -0.20147673785686493, 0.45639076828956604, 0.24856694042682648, 0.02820035256445408, -0.21269433200359344, -0.28846079111099243, 0.37953129410743713, 0.014706077985465527, -0.0703912004828453, -0.6886489987373352, 0.36044996976852417, 0.35389116406440735, 0.2593666613101959, 0.11847232282161713, -0.20230330526828766, -0.0248250775039196, 0.07303586602210999, 0.24836142361164093, -0.03460697457194328, -0.1958429217338562, 0.2516711950302124, 0.06063483655452728, -0.16940408945083618, 0.18785424530506134, -0.07484015822410583, 0.02964673563838005, 0.09391127526760101, -0.1526503562927246, 0.19033315777778625, 0.3043736219406128, 0.10690892487764359, -0.09557981789112091, 0.29252126812934875, -0.23135483264923096, -0.0646476224064827, 0.11769425123929977, 0.009042800404131413, -0.11970357596874237, -0.020740002393722534, 0.1876247674226761, 0.0840926244854927, 0.2374485731124878, 0.1547192484140396, 0.06761576235294342, 0.26526305079460144, -0.0943581685423851, -0.2335883527994156, 0.2561253607273102, -0.06796830892562866, -0.1715325564146042, 0.018819598481059074, 0.013867601752281189, 0.101371631026268, 0.3739975094795227, 0.2641974985599518, 0.15655303001403809, -0.16316847503185272, -0.29526761174201965, -0.15021581947803497, -0.17112451791763306, 0.19113309681415558, 0.0949937179684639, 0.23902153968811035, 0.2949736714363098, 0.023746028542518616, -0.037092383950948715, 0.08955638855695724, -0.15093325078487396, 0.24435894191265106, -0.001468892558477819, 0.3630239963531494, -0.4445992410182953, -0.42848119139671326, -0.9152663350105286, -0.12091034650802612, -0.04836457967758179, -0.23046547174453735, 0.3559243679046631, 0.2869518995285034, -0.44128191471099854, -0.050015389919281006, 0.1681065559387207, 0.4823986291885376, -0.11955636739730835, 0.3069649934768677, -0.028011441230773926, -0.1917715072631836, 0.30598050355911255, -0.4455450773239136, 0.41890019178390503, 0.4994143843650818, -0.1365121603012085, 0.1975109577178955, 0.49860215187072754, 0.47559040784835815, 0.5486012101173401, 0.5757834911346436, -0.5597479939460754, 0.09471651166677475, 0.019999999552965164]}