{"version": "0.5.1", "metadata": {"date": {"year": 2023, "month": 4, "day": 28, "hour": 3, "minute": 38, "second": 3}, "loudness": -15.620183944702148, "gain": 0.5517377181581214, "name": null, "modeled_by": null, "gear_type": null, "gear_make": null, "gear_model": null, "tone_type": null}, "architecture": "WaveNet", "config": {"layers": [{"input_size": 1, "condition_size": 1, "head_size": 4, "channels": 8, "kernel_size": 3, "dilations": [1, 2, 4, 8, 16, 32, 64], "activation": "Tanh", "gated": false, "head_bias": false}, {"input_size": 8, "condition_size": 1, "head_size": 1, "channels": 4, "kernel_size": 3, "dilations": [128, 256, 512, 1, 2, 4, 8, 16, 32, 64, 128, 256, 512], "activation": "Tanh", "gated": false, "head_bias": true}], "head": null, "head_scale": 0.02}, "weights": [0.25429415702819824, 0.5401788353919983, -1.0126044750213623, -0.40658923983573914, -0.3679221272468567, 0.16914084553718567, -0.44558608531951904, 0.8385800123214722, 0.11563298851251602, -0.06040143594145775, 0.018839029595255852, -0.008292254991829395, -0.35518771409988403, -0.14638248085975647, -0.1123204305768013, 0.17943082749843597, 0.0977785661816597, 0.09741430729627609, 0.034757040441036224, -0.06619126349687576, 0.040180474519729614, 0.32669392228126526, -0.03397371247410774, 0.19683153927326202, -0.1750912070274353, 0.014285535551607609, 0.10070782154798508, 0.042027246206998825, -0.1340738832950592, -0.024722130969166756, -0.24768608808517456, 0.1597098410129547, 0.20485436916351318, -0.253827303647995, -0.3022206723690033, 0.1555119901895523, -0.23667123913764954, 0.07453959435224533, -0.2682201862335205, 0.21161150932312012, 0.10955175757408142, -0.45362430810928345, 0.11688390374183655, -0.10939059406518936, -0.48799842596054077, 0.009003940038383007, 0.22848473489284515, 0.4776308238506317, -0.1695178747177124, -0.08027779310941696, -0.30772286653518677, 0.2485254555940628, 0.1805925816297531, 0.3796502649784088, 0.026001423597335815, -0.21743126213550568, 0.040098320692777634, -0.25023844838142395, -0.007295387331396341, -0.11458040773868561, 0.016561176627874374, 0.17893636226654053, -0.10507384687662125, 0.1483311802148819, 0.018874891102313995, 0.0016978513449430466, 0.10556455701589584, -0.03123672492802143, 0.13797760009765625, 0.273538738489151, -0.2512720823287964, -0.07809871435165405, 0.012972408905625343, 0.2646062672138214, 0.19798874855041504, 0.32894811034202576, -0.10753786563873291, -0.19457079470157623, -0.0661945790052414, -0.037335895001888275, 0.0008259238093160093, 0.17093221843242645, 0.24976252019405365, -0.15516401827335358, -0.046706344932317734, -0.05553567036986351, -0.08423904329538345, -0.0019622722174972296, 0.10171551257371902, -0.17312049865722656, 0.16359984874725342, 0.12897662818431854, 0.0927155464887619, 0.15448753535747528, -0.1885261833667755, -0.07875297963619232, 0.027901556342840195, 0.0165166687220335, -0.35758283734321594, -0.02097143977880478, 0.1445385217666626, 0.18591520190238953, -0.1770925223827362, -0.07358811795711517, -0.20220811665058136, -0.10339993238449097, -0.1342640519142151, -0.15824554860591888, -0.08637157827615738, 0.06366321444511414, -0.07990708202123642, 0.20141813158988953, -0.15346144139766693, 0.1906794160604477, 0.23159809410572052, -0.1953444480895996, -0.05570601299405098, 0.07840870320796967, -0.008842431008815765, 0.06264028698205948, 0.007549159228801727, 0.057530324906110764, -0.14158038794994354, 0.19665442407131195, -0.23424501717090607, -0.12688757479190826, -0.1322595328092575, -0.07190950959920883, -0.2467317283153534, -0.03631674125790596, 0.30280423164367676, -0.16354086995124817, -0.050480544567108154, 0.2574860155582428, 0.3616289496421814, -0.09932629019021988, -0.26385611295700073, 0.19204632937908173, -0.018266236409544945, -0.11444883048534393, 0.39248570799827576, 0.04396367818117142, -0.07486725598573685, -0.24205416440963745, -0.14169469475746155, 0.1282457858324051, 0.33632200956344604, -0.10340409725904465, -0.4671907126903534, -0.3663157820701599, -0.11185894161462784, 0.09404919296503067, -0.14914903044700623, 0.1754157543182373, 0.013661431148648262, -0.22476555407047272, 0.23510967195034027, -0.17205855250358582, -0.018264368176460266, -0.19894540309906006, -0.02986067160964012, -0.017321676015853882, -0.3035973608493805, -0.1733306646347046, 0.0005801725201308727, -0.09943389147520065, -0.07402665168046951, 0.027945037931203842, -0.09136253595352173, -0.031052380800247192, 0.2823242247104645, -0.20800770819187164, 0.2734527587890625, 0.05078837648034096, -0.06944016367197037, 0.12103810906410217, -0.14278800785541534, -0.18333594501018524, 0.4420781135559082, -0.337735652923584, -0.14371821284294128, 0.14732854068279266, 0.3262694776058197, 0.22635719180107117, -0.09284895658493042, 0.259098619222641, 0.12913310527801514, -0.2064511626958847, 0.007498479913920164, 0.27613478899002075, -0.024059049785137177, -0.03315971791744232, -0.32968902587890625, 0.1687173694372177, -0.10398591309785843, -0.12475237995386124, -0.5273683071136475, -0.11069760471582413, -0.29185378551483154, 0.1817348599433899, 0.08665256202220917, 0.0767015740275383, -0.09033684432506561, -0.13319016993045807, -0.06350670009851456, 0.0872887596487999, -0.14514341950416565, 0.10002236068248749, 0.3328607380390167, 0.03369011729955673, 0.07397876679897308, -0.2322516143321991, 0.14684653282165527, 0.031164202839136124, -0.004771844949573278, 0.30960482358932495, -0.2635117471218109, 0.11261217296123505, 0.21306127309799194, -0.3990665376186371, -0.023025689646601677, 0.11746259033679962, 0.20468199253082275, -0.051249243319034576, -0.36011314392089844, 0.3957112729549408, -0.24945159256458282, -0.05542976036667824, -0.18884079158306122, -0.18913154304027557, -0.033041276037693024, 0.16463688015937805, 0.2733229100704193, 0.39876627922058105, 0.2830183506011963, -0.023667948320508003, 0.2359531968832016, -0.15036921203136444, -0.2845277488231659, 0.2246205061674118, -0.03491990268230438, 0.41155675053596497, -0.16382060945034027, 0.04868899658322334, 0.08559494465589523, -0.5442373752593994, 0.31813085079193115, -0.45404723286628723, -0.11272592842578888, 0.1255301833152771, -0.3142336308956146, -0.035325005650520325, 0.014426120556890965, -0.21515432000160217, -0.10454218089580536, -0.180799663066864, -0.2103411704301834, -0.1905340999364853, 0.05681457370519638, -0.17030762135982513, 0.15274646878242493, 0.29951080679893494, 0.25434619188308716, 0.40555769205093384, 0.13224074244499207, -0.23129387199878693, 0.0007399025489576161, 0.21117070317268372, 0.15822331607341766, 0.29343026876449585, -0.264660120010376, 0.027528518810868263, -0.1909884512424469, 0.08945691585540771, -0.11376755684614182, -0.2711496651172638, 0.42117223143577576, -0.2502167820930481, -0.07117286324501038, 0.06858431547880173, 0.06278464198112488, -0.1934349685907364, -0.23844636976718903, 0.21637789905071259, 0.1029796302318573, 0.07415048778057098, -0.03977919742465019, 0.0635712519288063, -0.10130223631858826, -0.1477205902338028, -0.09479565918445587, 0.23390907049179077, 0.036832619458436966, -0.07988486438989639, -0.20396268367767334, -0.143356591463089, 0.0920029953122139, -0.03875269740819931, 0.022153541445732117, -0.10314682126045227, -0.265677273273468, 0.039460476487874985, 0.02248837985098362, -0.046676214784383774, 0.04719248414039612, 0.01519596017897129, -0.10059960931539536, 0.09715331345796585, 0.1138075590133667, 0.18795271217823029, -0.15814423561096191, -0.13551048934459686, 0.15452098846435547, -0.03481893241405487, 0.24966442584991455, 0.07555284351110458, -0.10996883362531662, 0.014657965861260891, 0.20758667588233948, 0.163265660405159, 0.07187606394290924, -0.00633724220097065, -0.05287313833832741, -0.0746787041425705, 0.2393082082271576, 0.14682301878929138, -0.02749042958021164, 0.07837909460067749, -0.10592267662286758, -0.1257130354642868, -0.084498330950737, -0.14881135523319244, 0.1579018533229828, 0.020048972219228745, -0.17236340045928955, 0.112215057015419, 0.16697709262371063, 0.198786661028862, -0.09958644211292267, 0.3791876435279846, -0.07974257320165634, -0.19692718982696533, -0.00754031864926219, 0.012603489682078362, -0.04553248733282089, 0.53731769323349, -0.16014550626277924, 0.11973436176776886, -0.2353218048810959, 0.026588845998048782, 0.1066935583949089, -0.267335444688797, 0.11194559186697006, 0.06850168853998184, -0.2592857778072357, 0.047579966485500336, 0.06907153874635696, 0.3767400085926056, -0.13953474164009094, -0.10845386236906052, -0.14080293476581573, -0.024978261440992355, -0.03843889757990837, -0.045179519802331924, 0.07867570966482162, 0.20696143805980682, 0.37404507398605347, -0.18449631333351135, -0.14995889365673065, 0.0778115764260292, -0.2475695013999939, 0.18222716450691223, 0.03284160792827606, -0.16047979891300201, -0.36060968041419983, -0.21925711631774902, 0.28052622079849243, -0.07476472854614258, 0.26161637902259827, 0.11547715216875076, 0.06018349155783653, -0.3696626126766205, -0.014098401181399822, 0.20671798288822174, -0.21962770819664001, -0.036938972771167755, 0.16214579343795776, -0.03609868884086609, -0.20530661940574646, 0.17916178703308105, 0.18443766236305237, 0.11679594218730927, -0.18661493062973022, 0.325027734041214, -0.03252658620476723, 0.320121169090271, 0.42769768834114075, 0.036532312631607056, -0.19102734327316284, 0.04379776120185852, 0.19615186750888824, 0.002387956716120243, 0.08096866309642792, 0.30014798045158386, -0.07181265205144882, -0.2650606632232666, 0.1766655594110489, 0.36968764662742615, -0.02635299228131771, 0.1478745937347412, -0.21902425587177277, 0.021567123010754585, 0.17219819128513336, -0.17280279099941254, -0.24727068841457367, -0.08963192254304886, 0.13318683207035065, -0.06655570864677429, 0.07185258716344833, 0.34528204798698425, -0.0629165768623352, -0.08371545374393463, 0.2779821753501892, 0.20168912410736084, 0.13837309181690216, -0.13877002894878387, -0.1975155472755432, -0.23466768860816956, 0.06770794093608856, 0.27073848247528076, -0.10613714158535004, -0.15900276601314545, 0.2541022300720215, -0.07678006589412689, -0.44577884674072266, 0.2092164307832718, 0.10887175053358078, -0.24838365614414215, -0.08414547890424728, -0.156795471906662, -0.03581852465867996, -0.2850096523761749, 0.09058099240064621, -0.08799970895051956, -0.4847853183746338, 0.3009664714336395, 0.16610302031040192, -0.09266349673271179, -0.13821405172348022, -0.16823258996009827, 0.010622303001582623, 0.20591102540493011, 0.5458692312240601, 0.3872954547405243, -0.17096133530139923, -0.021439246833324432, 0.11883018165826797, 0.28343504667282104, -0.34763479232788086, 0.06062163785099983, -0.13865196704864502, -0.15849317610263824, -0.08896204829216003, -0.26789534091949463, 0.15326690673828125, 0.08461437374353409, 0.10629197955131531, -0.3276923596858978, -0.3855736553668976, -0.039587054401636124, 0.09234239161014557, 0.13481029868125916, 0.10663528740406036, 0.05791741982102394, -0.0480337031185627, -0.25141647458076477, 0.03454015776515007, 0.3085208237171173, -0.05798368155956268, 0.04729457572102547, -0.12138673663139343, -0.16591577231884003, -0.19259124994277954, 0.0935404822230339, 0.1043843999505043, 0.19543561339378357, -0.022890709340572357, 0.09685209393501282, -0.09801534563302994, -0.3269243538379669, -0.34205296635627747, 0.2642873227596283, 0.6929953694343567, -1.027432918548584, 0.7050402760505676, 0.015270791947841644, -0.31674155592918396, -0.21505461633205414, 0.21759003400802612, 0.39001527428627014, -0.20755219459533691, 0.058646515011787415, 0.12165116518735886, 0.19149939715862274, 0.2520917057991028, -0.1686893105506897, 0.06532617658376694, 0.16948452591896057, -0.1146041676402092, 0.08290068060159683, 0.025805840268731117, 0.2914242744445801, 0.03219885751605034, -0.09493480622768402, 0.11618030816316605, -0.16779698431491852, -0.7682421803474426, 0.4085230827331543, 0.19856348633766174, 0.10337579995393753, 0.3491232693195343, -0.18144410848617554, 0.5591081976890564, -0.5113539695739746, -0.2857794463634491, -0.15211069583892822, 0.6427984237670898, 0.20248986780643463, -0.04135150834918022, -0.28847572207450867, 0.18051429092884064, 0.6690890789031982, 0.10223714262247086, -0.42685338854789734, -0.26972585916519165, 0.12183769047260284, -0.4401266872882843, 0.14574755728244781, -0.5342165231704712, 0.4729214906692505, -0.22773632407188416, -0.37915048003196716, -0.4202241599559784, -0.43886104226112366, -0.04726856201887131, 0.43333199620246887, -0.18455861508846283, 0.08912483602762222, -0.08507941663265228, 0.4468950629234314, -0.46615639328956604, -0.2571270763874054, 0.2534688115119934, -0.051967181265354156, 0.002423719270154834, -0.10773082822561264, -0.16831129789352417, -0.10743829607963562, -0.025887740775942802, -0.19983699917793274, -0.2729475796222687, -0.20481349527835846, -0.1305665373802185, 0.10824430733919144, -0.14556491374969482, 0.21710816025733948, 0.018213443458080292, -0.09166479110717773, -0.046884287148714066, 0.14231006801128387, 0.3361988663673401, -0.029734432697296143, -0.05665658786892891, 0.027566662058234215, 0.19480803608894348, -0.07912084460258484, -0.31635022163391113, -0.36797836422920227, 0.06253699213266373, 0.1811543107032776, 0.11778046190738678, -0.1942821890115738, -0.18513278663158417, 0.12314769625663757, -0.030026650056242943, -0.11440320312976837, 0.26846688985824585, -0.005881999619305134, 0.020818842574954033, -0.02318631112575531, 0.041592877358198166, 0.016838517040014267, -0.17822641134262085, 0.140347421169281, 0.10927841812372208, -0.0038147487211972475, -0.2677847743034363, 0.14696648716926575, 0.3876579999923706, 0.18581007421016693, -0.19322283565998077, 0.0761583000421524, -0.3412284255027771, 0.2502015233039856, -0.3143842816352844, 0.30394938588142395, -0.07149407267570496, -0.2572767436504364, -0.034547701478004456, -0.07311351597309113, -0.013541843742132187, 0.09427716583013535, 0.1406029611825943, -0.09339946508407593, -0.1337520331144333, 0.28093114495277405, -0.333223819732666, 0.02552018128335476, 0.3660598397254944, -0.22528843581676483, -0.0888776034116745, 0.32586249709129333, 0.4093022644519806, -0.7786665558815002, -0.09863848984241486, -0.49720242619514465, -0.09196700155735016, 0.042356472462415695, -0.02075864002108574, 0.122446209192276, 0.07278086990118027, 0.37233036756515503, 0.22645790874958038, -0.12069451808929443, 0.45825326442718506, -0.23911671340465546, -0.1475716531276703, -0.4503445029258728, 0.03256050497293472, 0.19091355800628662, -0.02457103319466114, 0.10124482214450836, 0.23164013028144836, -0.009782018139958382, -0.13121019303798676, 0.2020145058631897, 0.0379796177148819, 0.17891916632652283, -0.1480691283941269, 0.16874054074287415, 0.02771042287349701, 0.10346512496471405, -0.2783861458301544, 0.053045887500047684, -0.46267279982566833, -0.27634963393211365, -0.013044904917478561, 0.013799642212688923, -0.2883528470993042, 0.14134439826011658, -0.11982382088899612, 0.11665507405996323, 0.03613908216357231, -0.012012965977191925, 0.33227065205574036, 0.10124221444129944, -0.0848257839679718, 0.2528684437274933, -0.08545514941215515, 0.0670885518193245, -0.2573748230934143, 0.2547413408756256, -0.04086341708898544, 0.235456183552742, -0.09432402998209, 0.03608106076717377, -0.2640780806541443, 0.1411895453929901, 0.2994052767753601, -0.19607138633728027, 0.22347134351730347, -0.04925793409347534, -0.2792118191719055, 0.1406378448009491, 0.15480999648571014, 0.26346781849861145, -0.19216392934322357, -0.3642333149909973, -0.02276356890797615, 0.1395239681005478, 0.1690414547920227, -0.2077805995941162, 0.166641965508461, 0.18468666076660156, 0.018575722351670265, -0.5416757464408875, 0.3309071660041809, -0.4204351603984833, -0.05203346908092499, -0.0003522037004586309, 0.11959847807884216, -0.026575056836009026, -0.06979703903198242, 0.30942949652671814, -0.042338475584983826, -0.020584378391504288, 0.17319299280643463, 0.004428550135344267, -0.025035379454493523, 0.025814998894929886, 0.12710070610046387, -0.1593593806028366, 0.5026763677597046, 0.0626349002122879, 0.2996435761451721, 0.44652631878852844, 0.3170902132987976, -0.01854935847222805, 0.10047900676727295, 0.19781380891799927, 0.48768559098243713, 0.0007669044425711036, -0.09699919819831848, -0.026287684217095375, -0.11893773823976517, 0.32226553559303284, 0.3396851122379303, -0.4038405418395996, -0.08126796782016754, -0.06358278542757034, -0.4596470296382904, 0.08264344930648804, -0.1387246996164322, 0.45959052443504333, -0.008092019706964493, 0.15758156776428223, 0.02061115950345993, -0.03583438694477081, 0.17622734606266022, -0.15131531655788422, -0.13582180440425873, 0.11962402611970901, -0.11989038437604904, 0.13230571150779724, -0.1981128305196762, 0.015361372381448746, 0.30996862053871155, -0.0787324458360672, 0.20675604045391083, -0.044653285294771194, -0.21928878128528595, -0.06797447800636292, -0.017322322353720665, 0.07164352387189865, 0.011071041226387024, 0.05806976556777954, -0.2580502927303314, 0.14919891953468323, -0.10417775809764862, 0.047488316893577576, 0.06867867708206177, 0.1572829782962799, -0.21621882915496826, 0.11827755719423294, 0.04832875356078148, -0.17900310456752777, -0.35572633147239685, 0.07397659868001938, -0.5344705581665039, -0.2346864938735962, 0.5264819860458374, -0.7791218161582947, 0.348676472902298, 0.43829524517059326, 0.286458283662796, -0.3203063905239105, 0.4902794063091278, -0.13471770286560059, 0.6150213479995728, -0.5577355623245239, -0.6118471026420593, 0.26543116569519043, -0.1748974323272705, 0.045490674674510956, -0.3065852224826813, -0.2724436819553375, -0.07367149740457535, -0.24326027929782867, 0.34041628241539, -0.0548979789018631, 0.03475532680749893, 0.09556235373020172, 0.4485287368297577, 0.3457915484905243, 0.015465885400772095, -0.2741740047931671, -0.3976796269416809, -0.23845544457435608, -0.12052372097969055, -0.12905976176261902, 0.08827996999025345, -0.04513445869088173, 0.5565508008003235, -0.12535567581653595, 0.021543584764003754, 0.36605072021484375, 0.32098135352134705, -0.03698939085006714, 0.1042596623301506, -0.12707769870758057, -0.43716391921043396, -0.11001136898994446, -0.014217760413885117, -0.12835562229156494, 0.1119552031159401, 0.06569016724824905, -0.11916656047105789, 0.25690922141075134, -0.3366914391517639, 0.19274233281612396, 0.4388427436351776, -0.07525966316461563, 0.436229407787323, -0.005146621260792017, -0.3452049195766449, -0.5511239767074585, 0.25153210759162903, 0.04437659680843353, 0.556806743144989, 0.039778053760528564, 0.33961471915245056, 0.024425392970442772, -0.0955658033490181, 0.009413705207407475, -0.17861539125442505, 0.24122999608516693, 0.21980765461921692, 0.018718991428613663, -0.10265997052192688, 0.2446030080318451, 0.006618454586714506, 0.2206662893295288, -0.020455211400985718, 0.10727263987064362, 0.16033971309661865, -0.1546774059534073, 0.23058518767356873, 0.22916291654109955, -0.19533543288707733, -1.0218740701675415, 0.07164593786001205, 0.302123486995697, -0.21578146517276764, -0.13050447404384613, -0.02950434386730194, -0.1906803697347641, -0.17095127701759338, -0.0052559953182935715, -0.2352093905210495, -0.2576437294483185, 0.030371926724910736, 0.4477315843105316, -0.22246204316616058, -0.30736616253852844, 0.47704216837882996, -0.019534572958946228, 0.05869518220424652, -0.01788184978067875, -0.31726890802383423, 0.06589417159557343, 0.010338951833546162, -0.0108171496540308, -0.06253694742918015, 0.06220827251672745, 0.025068921968340874, 0.19863320887088776, 0.15850432217121124, -0.041732244193553925, -0.2909252643585205, -0.09749948233366013, 0.08494371920824051, 0.057779017835855484, -0.05109914392232895, 0.15504847466945648, -0.21569445729255676, 0.0726981982588768, 0.1070181354880333, -0.203614741563797, 0.1181924045085907, 0.265771746635437, -0.10394032299518585, 0.2749740183353424, 0.017011580988764763, 0.21016645431518555, -0.23672224581241608, -0.25889867544174194, -0.34143346548080444, -0.4326202869415283, -0.03813434764742851, 0.228271022439003, 0.04837270826101303, 0.1656828075647354, -0.10574201494455338, 0.019383814185857773, 0.08006444573402405, 0.09905362129211426, -0.310844749212265, -0.03807320073246956, -0.12821896374225616, -0.06695092469453812, -0.0020994627848267555, 0.3215319812297821, 0.11318152397871017, 0.23397338390350342, 0.6074526309967041, 0.7695481181144714, -0.1641201674938202, -0.07848848402500153, 0.053260982036590576, 0.09654822200536728, 0.32606425881385803, -0.1951395720243454, -0.09939516335725784, -0.09036824852228165, -0.05560492351651192, -0.01718144305050373, 0.19141227006912231, -0.11799951642751694, -0.08149445056915283, -0.3048109710216522, 0.18093998730182648, -0.14248915016651154, 0.10262791812419891, 0.18860243260860443, 0.01066164392977953, 0.23591135442256927, 0.11320026218891144, -0.296885222196579, -0.15164226293563843, -0.27247825264930725, -0.1641702950000763, -0.405752569437027, -0.2006152868270874, 0.3263935446739197, 0.07685703039169312, 0.70745849609375, -0.2195805013179779, -0.4179176688194275, 0.13311690092086792, -0.11986855417490005, 0.06507577747106552, -0.002744960365816951, 0.007140378467738628, -0.22766384482383728, 0.4599369764328003, 0.1402606964111328, -0.20390455424785614, -0.5178974270820618, 0.19095170497894287, 0.2050788849592209, -0.5261898636817932, 0.03512359410524368, 0.15976612269878387, -0.3445471525192261, 0.04200319945812225, -0.0345086008310318, 0.13806723058223724, -0.193154975771904, -0.011320497840642929, 0.08775587379932404, -0.15490099787712097, -0.051205266267061234, 0.03498800843954086, 0.016642671078443527, -0.06048298627138138, 0.04519002512097359, 0.0363076850771904, -0.01158332359045744, -0.4137987494468689, -0.13654743134975433, -0.11200864613056183, -0.18086428940296173, 0.21764814853668213, -0.16513627767562866, 0.26638317108154297, 0.044057492166757584, -0.008997723460197449, -0.6096305847167969, -0.717301607131958, 0.006217556539922953, -0.13858939707279205, 0.16657570004463196, 0.21706442534923553, 0.12211894989013672, 0.12626436352729797, -0.23401392996311188, -0.0350472666323185, 0.17749415338039398, 0.22179585695266724, -0.06653498858213425, -0.09251300990581512, -0.3843595087528229, -0.0070898886770009995, -0.18247751891613007, 0.1248294860124588, -0.031171130016446114, -0.06327368319034576, -0.3435152769088745, -0.44978827238082886, -0.48676082491874695, -0.4007226228713989, -0.0708363950252533, 0.1731002926826477, -0.315400093793869, 0.0318605862557888, 0.49966347217559814, 0.027575800195336342, -0.2348124086856842, -0.15615145862102509, 0.061538174748420715, 0.006414815783500671, -0.07206176221370697, -0.09781146049499512, -0.009797343984246254, -0.07909656316041946, -0.2871174216270447, -0.29034411907196045, 0.06471866369247437, 0.14573140442371368, 0.3975207209587097, 0.1689814329147339, 0.026649385690689087, 0.2283869832754135, -0.190681591629982, 0.23780599236488342, 0.29483991861343384, -0.17208844423294067, -0.13886311650276184, -0.19867487251758575, 0.22831253707408905, -0.07713206857442856, 0.04894549027085304, -0.011584342457354069, -0.5122177600860596, 0.061060260981321335, -0.027723615989089012, 0.25943809747695923, 0.1298309862613678, -0.8179401755332947, 0.3407062590122223, -0.06213996931910515, -0.07720104604959488, 0.46360617876052856, 0.9657887816429138, -0.5176367163658142, 0.10154302418231964, 0.3949677348136902, 0.10645191371440887, 0.29651832580566406, -0.12658795714378357, -0.4193171262741089, 0.1638384908437729, 0.10518797487020493, 0.2585074305534363, 0.04189623147249222, -0.18659184873104095, 0.1296503245830536, -0.2827295958995819, 0.10893834382295609, 0.2751023769378662, 0.05641546845436096, 0.09003400802612305, -0.027032848447561264, -0.5497145652770996, 0.3596252501010895, 0.05678214877843857, -0.43377014994621277, -0.16337130963802338, 0.5475477576255798, 0.10310907661914825, 0.2973342835903168, -0.332000732421875, 0.21823492646217346, 0.25217404961586, 0.07502245903015137, 0.6773333549499512, 0.28588730096817017, -0.03848446533083916, -0.04197852313518524, -0.32944411039352417, -0.40152430534362793, 0.4501519799232483, -0.016868961974978447, 0.19315490126609802, -0.005757084582000971, 0.0028659163508564234, -0.2871394753456116, -0.2866748571395874, 0.1280321478843689, 0.20734916627407074, 0.2985990345478058, 0.31735455989837646, 0.3980197608470917, 0.32136106491088867, -0.07395117729902267, 0.34471988677978516, -0.5875213146209717, -0.6997770071029663, 0.026059988886117935, -0.07635581493377686, -0.659947395324707, -0.35631024837493896, 0.013145583681762218, 0.2617380619049072, -0.4985641539096832, -0.33630087971687317, 0.026412557810544968, -0.1907641887664795, -0.3650869131088257, -0.37351667881011963, -0.0266221035271883, -0.2847210764884949, -0.21846213936805725, -0.03812249004840851, -0.2599572539329529, -0.17185457050800323, -0.12065287679433823, -0.31923800706863403, -0.06550808250904083, -0.13348045945167542, -0.46354612708091736, -0.11971500515937805, -0.0648094192147255, 0.3826223611831665, 0.20455725491046906, 0.08280403912067413, -0.22634877264499664, -0.5253016948699951, 0.37029004096984863, 0.16932550072669983, -0.1611005663871765, 0.011710545048117638, -0.1601387858390808, -0.07917582988739014, 0.3386424779891968, -0.2164662778377533, 0.13915684819221497, -0.4370846748352051, 0.3306909501552582, -0.3343956172466278, -0.00426627229899168, -0.03460301086306572, -0.05585053190588951, 0.08982958644628525, 0.10133233666419983, -0.15455737709999084, -0.11215449869632721, 0.2779179513454437, 0.05906011164188385, 0.19291631877422333, -0.36023250222206116, -0.22339260578155518, -0.2522718012332916, -0.1265925168991089, 0.07079053670167923, -0.21292026340961456, -0.027740297839045525, -0.10848114639520645, 0.09475347399711609, -0.15321560204029083, -0.1743687093257904, -0.03718489408493042, -0.027334045618772507, -0.2186351716518402, -0.136499285697937, 0.12168977409601212, 0.11602341383695602, 0.15155503153800964, -0.21271762251853943, -0.22803790867328644, 0.010286781936883926, 0.20299480855464935, 0.33010008931159973, -0.11032060533761978, -0.29602953791618347, -0.15997585654258728, -0.2650166451931, 0.39913409948349, 0.414296954870224, -0.2840096950531006, -0.002339443424716592, 0.14278429746627808, 0.14406660199165344, 0.02361229434609413, -0.10651707649230957, -0.26513156294822693, 0.38259270787239075, -0.2494823932647705, 0.11970154196023941, 0.09228604286909103, 0.0033381714019924402, -0.18005068600177765, 0.17283564805984497, 0.03251603618264198, -0.47786325216293335, -0.028625495731830597, -0.29917606711387634, 0.3765541613101959, -0.14424780011177063, -0.019135449081659317, -0.06270165741443634, 0.142692431807518, -0.3260049521923065, -0.12318196892738342, -0.005652349442243576, -0.2796051800251007, -0.0009307157597504556, 0.13587629795074463, 0.2371469885110855, 0.5967987179756165, 0.05758404731750488, 0.26868224143981934, -0.26025450229644775, 0.054527413100004196, -0.09562293440103531, -0.005634028930217028, -0.5761525630950928, -0.09371849149465561, 0.05378716066479683, 0.01701837219297886, 0.3560790419578552, 0.17185856401920319, -0.35300159454345703, -0.4945385158061981, 0.14281636476516724, 0.13458140194416046, -0.21665440499782562, -0.1516398936510086, 0.020760055631399155, -0.2567038834095001, 0.09791162610054016, -0.023573484271764755, 0.24177320301532745, -0.25656965374946594, 0.16465051472187042, -0.26454851031303406, -0.14848951995372772, 0.13057097792625427, 0.013894283212721348, -0.15756015479564667, -0.032799676060676575, 0.21246406435966492, 0.12449854612350464, -0.24883028864860535, -0.02406664565205574, 0.02877870760858059, 0.17567655444145203, -0.10193458199501038, 0.07196164131164551, 0.14665645360946655, -0.19788748025894165, -0.11639390885829926, 0.08867081999778748, -0.0786551982164383, -0.1027975007891655, 0.12199369817972183, 0.02407580427825451, 0.09620173275470734, 0.03882469981908798, 0.2725414037704468, 0.09104574471712112, 0.14682412147521973, -0.08593583852052689, -0.25013095140457153, 0.13336887955665588, -0.21306832134723663, 0.0658230185508728, 0.16285046935081482, 0.2672840654850006, 0.09411747753620148, -0.3066774606704712, -0.04040685296058655, 0.08614533394575119, -0.03054765611886978, -0.004756669979542494, -0.13492761552333832, -0.1883404701948166, 0.20190593600273132, -0.10133347660303116, -0.11196538060903549, 0.03275180980563164, 0.38689348101615906, 0.1255076378583908, -0.13714130222797394, -0.052667029201984406, -0.015612887218594551, -0.044748906046152115, 0.13650722801685333, 0.34211522340774536, -0.29669782519340515, -0.25026580691337585, 0.18273979425430298, 0.1935035139322281, 0.3300287425518036, -0.172955721616745, 0.14416852593421936, -0.4076592028141022, -0.24641267955303192, 0.04359184578061104, 0.2418786585330963, 0.49194657802581787, 0.14484402537345886, 0.015210513956844807, 0.013037175871431828, 0.01690993644297123, 0.06892439723014832, -0.48829951882362366, -0.19744978845119476, 0.021431639790534973, 0.10019784420728683, 0.04796121269464493, 0.22310753166675568, -0.040405452251434326, -0.06204346567392349, -0.06442755460739136, 0.11371874809265137, -0.0034803624730557203, -0.0863250195980072, -0.19990184903144836, -0.49779167771339417, -0.25876927375793457, -0.6606190204620361, 0.8176872730255127, 0.5543071031570435, -0.5322490930557251, 0.4440513551235199, 0.07102477550506592, -0.21873223781585693, 0.2386513501405716, -0.2579093277454376, -0.5588472485542297, 0.14070700109004974, 0.30347180366516113, 0.24311824142932892, -0.03714849799871445, -0.0698862075805664, 0.19400468468666077, -0.026844017207622528, 0.22888365387916565, 0.5025521516799927, -0.3226315975189209, 0.3578416407108307, 0.27028369903564453, 0.4457528591156006, -0.002704562386497855, -0.06342320889234543, -0.2050861269235611, -0.38409122824668884, 0.35170120000839233, 0.20179082453250885, 0.224030002951622, 0.30247294902801514, -0.3329620957374573, 0.5563042759895325, 0.06557852774858475, 0.1270676851272583, -0.26458415389060974, -0.090733602643013, -0.3700442314147949, 0.06865575909614563, -0.39967450499534607, 0.40750110149383545, -0.3672865927219391, -0.057613443583250046, -0.07875878363847733, 0.03860393911600113, 0.41726744174957275, 0.19216346740722656, 0.09549824893474579, 0.3031843304634094, 0.5000738501548767, -0.3744717240333557, -0.24274465441703796, -0.28434568643569946, 0.2544289827346802, 0.23049843311309814, 0.001385425217449665, -0.18587584793567657, -0.11255867779254913, 0.6285021305084229, -0.1274450123310089, 0.3900725841522217, 0.3132304251194, 0.32679930329322815, 0.37956732511520386, -0.3903209865093231, 0.2370063066482544, 0.04580601677298546, 0.3928607106208801, -0.17820951342582703, 0.10988499224185944, -0.23567186295986176, -0.25730928778648376, 0.1909618377685547, 0.10213830322027206, 0.007973756641149521, 0.2703794240951538, -0.1322750449180603, -0.06670781970024109, -0.3703935742378235, 0.05673902854323387, 0.018183939158916473, 0.15931959450244904, 0.3058312237262726, 0.4013776183128357, -0.10372382402420044, -0.08395586907863617, -0.15823115408420563, 0.21257799863815308, -0.10691341012716293, 0.14523881673812866, 0.18254825472831726, 0.002342068590223789, 0.09286175668239594, -0.09453444182872772, -0.05100802704691887, -0.07142625004053116, -0.4521099627017975, -0.04389846324920654, -0.14807558059692383, -0.2912672758102417, 0.07279739528894424, 0.0029154496733099222, 0.003244816092774272, -0.4180048704147339, 0.021359041333198547, 0.0711466372013092, -0.013841081410646439, -0.44776651263237, 0.19082053005695343, -0.18401922285556793, 0.09736701846122742, -0.31696242094039917, -0.012315607629716396, -0.0687256008386612, 0.08716360479593277, -0.3055833578109741, -0.2545885741710663, -0.21674130856990814, -0.26133018732070923, 0.5691776275634766, 0.06488373130559921, 0.1277419626712799, -0.009273465722799301, 0.15693113207817078, 0.10999958962202072, 0.2783149182796478, 0.06813511252403259, 0.06290862709283829, 0.10164814442396164, -0.11984085291624069, -0.2130025327205658, 0.26291128993034363, -0.21633876860141754, -0.051810041069984436, 0.11621586978435516, 0.03108173795044422, -0.01599971577525139, 0.2235407680273056, -0.5985330939292908, 0.22945964336395264, 0.6051803827285767, 0.019481783732771873, 0.09994785487651825, -0.05928285792469978, 0.19137798249721527, -0.363066703081131, -0.08107804507017136, 0.5135288238525391, 0.18236422538757324, 0.01887482963502407, 0.09176149219274521, 0.22577708959579468, -0.023194286972284317, 0.25071683526039124, -0.09196313470602036, -0.28283795714378357, -0.1752636432647705, 0.4160292446613312, 0.044560354202985764, -0.1491745114326477, 0.08047023415565491, -0.022988462820649147, -0.2767164707183838, 0.02717394195497036, -0.21584853529930115, -0.3343392014503479, -0.10487795621156693, 0.37938356399536133, 0.3447738587856293, -0.06770264357328415, 0.00819137692451477, 0.10380283743143082, -0.4118890166282654, -0.02551700361073017, -0.12376540154218674, -0.3618978261947632, 0.0011077328817918897, -0.10967954993247986, 0.44032883644104004, 0.29468870162963867, 0.011191867291927338, -0.324478417634964, -0.09535209834575653, 0.2969370484352112, 0.33101269602775574, 0.2588860094547272, 0.20806153118610382, -0.37946227192878723, 0.19660912454128265, 0.3529456555843353, 0.0735202208161354, -0.18957401812076569, -0.41770032048225403, 0.43253496289253235, -0.0614280179142952, -0.2795421779155731, 0.37504008412361145, 0.02442820742726326, 0.04623081907629967, 0.2298874706029892, 0.02267233468592167, 0.17509113252162933, -0.02664860524237156, -0.003343370743095875, -0.04206462576985359, 0.22882528603076935, 0.00710533419623971, -0.11436140537261963, -0.1561545580625534, 0.07243341207504272, -0.1929810345172882, 0.011603775434195995, -0.07669790834188461, -0.23145300149917603, 0.36148834228515625, 0.21247391402721405, 0.4530356228351593, -0.20702329277992249, 0.0693301111459732, 0.06497292220592499, 0.14427591860294342, -0.05599401891231537, -0.42423808574676514, 0.15188086032867432, 0.06642696261405945, -0.04721737280488014, -0.007357623428106308, -0.047482118010520935, 0.015148693695664406, 0.21664416790008545, 0.08331388980150223, -0.355185866355896, 0.2746331989765167, -0.1402541846036911, -0.21630334854125977, -0.14409057796001434, -0.09105498343706131, 0.23283463716506958, 0.3360011875629425, -0.1638655811548233, 0.24827080965042114, -0.21595394611358643, -0.01537086721509695, 0.033998120576143265, -0.11448056250810623, 0.1032109409570694, 0.11878494918346405, 0.3334924280643463, 0.07638582587242126, 0.05393935739994049, -0.2062387466430664, -0.2275320440530777, 0.06712228059768677, 0.27879852056503296, -0.023361632600426674, -0.557425856590271, -0.31135693192481995, -0.07915038615465164, -0.2833894193172455, 0.33565494418144226, -0.13034142553806305, -0.2728710174560547, -0.07803333550691605, 0.18393348157405853, 0.29701825976371765, -0.3097063899040222, 0.08665116876363754, 0.23393183946609497, -0.4688977897167206, -0.295944482088089, -0.010899929329752922, -0.04355159401893616, 0.03461598977446556, -0.07216115295886993, -0.03915538638830185, -0.04532710462808609, 0.027803633362054825, -0.7755549550056458, 0.42053478956222534, -0.054213475435972214, -0.08177872002124786, -0.18136166036128998, 0.4360983967781067, -0.7346304655075073, 0.11394310742616653, 0.2911154627799988, 0.4106890559196472, -0.2526967227458954, 0.12725062668323517, -0.2340514361858368, -0.34876078367233276, -0.14015693962574005, 0.46882402896881104, 0.3655136525630951, -0.16826745867729187, 0.4575101435184479, 0.14661584794521332, 0.45174476504325867, 0.13307668268680573, -0.04995995759963989, -0.3964161276817322, 0.23500554263591766, 0.1756799817085266, -0.20473350584506989, -0.48784658312797546, 0.3890705406665802, 0.05796096846461296, -0.03823684900999069, -0.017490243539214134, 0.056942153722047806, -0.5328723788261414, -0.4204598069190979, -0.4070715010166168, 0.7336414456367493, -0.008810404688119888, -0.03209555521607399, -0.10840306431055069, -0.18457378447055817, 0.07319726794958115, 0.03627769276499748, 0.2370060831308365, -0.712478518486023, -0.05373154580593109, 0.26806190609931946, 0.601082980632782, 0.3689163625240326, -0.16083696484565735, 0.4647459089756012, 0.3724558353424072, -0.14232490956783295, -1.2449572086334229, 0.02620576322078705, -0.06712613999843597, 0.2089955359697342, -0.14118574559688568, -0.2787019610404968, 0.5804052948951721, 0.17685377597808838, 0.2335205376148224, 0.10421326011419296, 0.1015552282333374, -0.11760888248682022, -0.12216698378324509, 0.2008797973394394, -0.07404683530330658, 0.6148346066474915, -0.3015681803226471, -0.20258735120296478, -0.42057695984840393, -0.3076819181442261, 0.22226594388484955, -0.08314160257577896, -0.17457279562950134, -0.07657159864902496, -0.1282937228679657, -0.20306213200092316, 0.18701976537704468, 0.02846428006887436, 0.04860374704003334, -0.05196727067232132, -0.05502631515264511, -0.021835286170244217, -0.06748948246240616, 0.1317766010761261, 0.3097694516181946, -0.26163363456726074, 0.1583375334739685, -0.08129239082336426, -0.12622781097888947, 0.033020541071891785, -0.07655111700296402, 0.17147186398506165, 0.125637024641037, 0.1570943146944046, -0.06788120418787003, 0.16201329231262207, 0.028660448268055916, 0.11571672558784485, -0.018230672925710678, 0.06336177885532379, 0.11561847478151321, 0.037427399307489395, 0.011163020506501198, 0.25899624824523926, 0.14782056212425232, 0.381565660238266, 0.13864679634571075, 0.10623429715633392, -0.19585652649402618, 0.3664996325969696, -0.09035606682300568, -0.04515441507101059, -0.09678199887275696, 0.1505918949842453, 0.07416588068008423, 0.16003693640232086, -0.0774376168847084, -0.46923303604125977, -0.002752221655100584, 0.1268414556980133, 0.5385761857032776, 0.01595955900847912, 0.1309261918067932, 0.15059415996074677, -0.0007008122629486024, 0.06821352988481522, -0.008717509917914867, 0.11368443816900253, 0.04346161708235741, -0.19406159222126007, 0.12014463543891907, 0.11775027215480804, 0.02104557864367962, -0.27321332693099976, -0.042876146733760834, -0.07618357241153717, -0.044156868010759354, -0.13442857563495636, -0.10562650859355927, 0.14508162438869476, 0.3876793086528778, 0.2511719763278961, 0.006387718021869659, 0.21953131258487701, 0.2897811830043793, -0.023627931252121925, -0.16270209848880768, -0.06065164506435394, 0.022741300985217094, -0.08230633288621902, -0.07997439801692963, -0.2916913330554962, -0.06794188916683197, 0.26812782883644104, -0.20889084041118622, -0.056945353746414185, -0.09318054467439651, 0.37795862555503845, 0.04046563431620598, -0.16953696310520172, -0.2558264136314392, 0.07100056111812592, 0.0062977829948067665, 0.12123428285121918, -0.14889995753765106, -0.5492703318595886, 0.2799832820892334, -0.2042098492383957, 0.10908742249011993, -0.09561452269554138, 0.06679928302764893, 0.09124017506837845, -0.027352482080459595, 0.031931072473526, -0.030683282762765884, -0.10354351252317429, -0.03405890613794327, -0.19524933397769928, 0.14607952535152435, -0.007252989802509546, 0.19464616477489471, 0.018215237185359, 0.0023951188195496798, 0.2233496904373169, -0.09968335926532745, -0.10707523673772812, -0.04577859118580818, 0.008950230665504932, 0.4080757200717926, 0.13968531787395477, -0.16865402460098267, 0.3279756009578705, 0.19533178210258484, -0.02943454496562481, 0.19928991794586182, -0.08636006712913513, -0.09615592658519745, -0.1316913366317749, 0.08794179558753967, -0.2513982057571411, 0.14701803028583527, 0.27227890491485596, 0.10883262753486633, 0.09422369301319122, -0.10496186465024948, 0.07249964773654938, 0.03770836442708969, -0.0991496816277504, -0.20592927932739258, 0.10997351258993149, 0.08842949569225311, -0.04164574667811394, -0.21062515676021576, -0.28340283036231995, 0.16852949559688568, -0.03495650738477707, 0.21460989117622375, -0.47566530108451843, -0.08319780230522156, -0.20211952924728394, -0.07667941600084305, -0.14369690418243408, -0.1329573094844818, 0.23250705003738403, -0.04608255624771118, 0.22890618443489075, 0.1685178577899933, -0.18601779639720917, -0.11695775389671326, 0.12292808294296265, 0.06489142030477524, -0.21781326830387115, 0.23204897344112396, -0.03507722169160843, -0.14141924679279327, 0.0683339461684227, -0.1809869259595871, 0.012214264832437038, 0.21478615701198578, -0.09242162108421326, 0.02091335691511631, -0.18869708478450775, -0.03917473182082176, 0.2032582014799118, 0.06520697474479675, -0.03241341561079025, -0.1279660314321518, -0.1002926304936409, 0.043296340852975845, 0.09506821632385254, 0.21306400001049042, -0.10700924694538116, 0.06520899385213852, -0.11951824277639389, 0.024988705292344093, -0.10424336791038513, 0.6587523221969604, -0.07816920429468155, -0.0031004082411527634, 0.14252154529094696, -0.10395867377519608, -0.21549811959266663, -0.41665980219841003, 0.044102758169174194, 0.2177663892507553, 0.16586610674858093, -0.08512964099645615, -0.0667949840426445, 0.02024174854159355, 0.1638706922531128, -0.581724226474762, -0.14228154718875885, -0.13458703458309174, 0.059509336948394775, 0.030348561704158783, 0.07501504570245743, 0.053360793739557266, -0.6575310230255127, -0.3159322440624237, -0.10469513386487961, 1.0747413635253906, 0.32128068804740906, 0.030223747715353966, -0.910930335521698, -0.019001996144652367, 0.024574996903538704, -0.09763527661561966, 0.19243678450584412, -0.1261347383260727, 0.38776102662086487, 0.1635694056749344, -0.2864321172237396, -0.017034118995070457, -0.06761891394853592, -0.22059203684329987, -0.03705844655632973, 0.09537975490093231, -0.35787642002105713, 0.18932004272937775, -0.009991489350795746, -0.34790730476379395, 0.31495341658592224, -0.32215964794158936, 0.32002997398376465, 0.26872918009757996, 0.4294493794441223, 0.14716945588588715, 0.06819817423820496, 0.4709022343158722, -0.2730320990085602, -0.07465949654579163, -0.1089979037642479, 0.4921843409538269, -0.22931146621704102, 0.14022476971149445, 0.20673958957195282, -0.13341908156871796, 0.041563939303159714, 0.14884082973003387, -0.352173388004303, -0.33206257224082947, -0.07141413539648056, 0.24402450025081635, 0.2219562530517578, -0.16663409769535065, 0.21883061528205872, 0.026656432077288628, -0.2217542976140976, -0.32588663697242737, 0.03075098618865013, -0.09492674469947815, -0.0038234838284552097, -0.08806644380092621, -0.02619059756398201, 0.10913783311843872, -0.016614075750112534, 0.5562353134155273, 0.15139085054397583, -0.45971083641052246, 0.2243240922689438, -0.20637910068035126, 0.22007760405540466, -0.12618385255336761, -0.01688191294670105, -0.21070516109466553, 0.43433788418769836, -0.02688881754875183, -0.19354663789272308, 0.30721986293792725, 0.3972679674625397, -0.05838463082909584, -0.13025592267513275, 0.24115365743637085, -0.08394613116979599, -0.08397666364908218, -0.2625400424003601, -0.12879763543605804, -0.04835548251867294, -0.3285272717475891, -0.22670890390872955, 0.031711068004369736, 0.24802997708320618, -0.21322527527809143, -0.016846368089318275, -0.1531296819448471, 0.37278616428375244, 0.20907647907733917, 0.026761338114738464, -0.08757797628641129, -0.1559794545173645, -0.15673421323299408, 0.08285214751958847, 0.05757792294025421, 0.4145229458808899, -0.18234354257583618, 0.2838062047958374, -0.21735307574272156, 0.19836603105068207, 0.38870665431022644, -0.37444737553596497, -0.20682574808597565, 0.03148052841424942, 0.04098327085375786, -0.268813818693161, 0.12802976369857788, -0.08898278325796127, -0.03275460749864578, -0.07748522609472275, 0.29061928391456604, 0.04653668776154518, 0.13538327813148499, -0.06483949720859528, -0.002200937131419778, 0.13714322447776794, -0.1566469371318817, 0.11280586570501328, 0.08924858272075653, -0.06661726534366608, 0.3611704111099243, -0.04877988249063492, 0.21380379796028137, -0.28398048877716064, 0.21434852480888367, 0.161277174949646, 0.006582318339496851, -0.21967411041259766, 0.21569226682186127, 0.14387522637844086, 0.19892257452011108, -0.4946267604827881, -0.0628150925040245, -0.13585808873176575, 0.1652950644493103, 0.06397242844104767, 0.022296223789453506, 0.23645371198654175, -0.048955947160720825, -0.2566044330596924, 0.20902670919895172, -0.15639227628707886, 0.4695190191268921, -0.1682024747133255, 0.23228862881660461, -0.06988871097564697, -0.12303586304187775, 0.020122600719332695, -0.201750248670578, 0.04924231395125389, 0.12658365070819855, -0.020911987870931625, 0.028952037915587425, 0.11893504858016968, 0.0816367045044899, 0.22614306211471558, -0.47899067401885986, 0.26127517223358154, 0.2053697109222412, -0.24959297478199005, 0.05086586996912956, 0.024547088891267776, -0.02062658965587616, 0.07630626112222672, -0.1839638650417328, -0.4164179563522339, -0.1255750060081482, 0.27065107226371765, 0.07896682620048523, -0.2675814628601074, 0.03638271242380142, 0.054047390818595886, -0.43527498841285706, 0.06940195709466934, 0.19984205067157745, -0.30907538533210754, -0.040385790169239044, -0.22764207422733307, -0.6925301551818848, -0.3731837272644043, 0.2988893389701843, 0.14414279162883759, 0.0027894966769963503, 0.06413649767637253, -0.013017302379012108, -0.07213622331619263, 0.06532461196184158, 0.028036868199706078, 0.08887369185686111, -0.006984483916312456, -0.07852213829755783, -0.029698530212044716, -0.21083170175552368, -0.007981935515999794, 0.2284424602985382, 0.31782975792884827, 0.009761247783899307, -0.07380989193916321, 0.5925179123878479, -0.33088380098342896, -0.23078909516334534, -0.22564320266246796, -0.15179893374443054, 0.2048029601573944, -0.03402569144964218, 0.0685022622346878, -0.029751433059573174, -0.0445505790412426, -0.03867568448185921, -0.21175535023212433, 0.20997366309165955, -0.38041582703590393, 0.10292596369981766, -0.0910973995923996, -0.016600599512457848, 0.27396160364151, 0.3924008309841156, -0.0848645493388176, -0.1527474820613861, 0.09293531626462936, 0.13247615098953247, 0.16221773624420166, 0.03827621415257454, 0.1444023698568344, 0.15660686790943146, 0.011202070862054825, -0.06077045947313309, -0.38618409633636475, -0.0414310023188591, -0.041471775621175766, 0.1852172166109085, -0.0902184247970581, -0.10880035161972046, -0.11961057782173157, -0.12800292670726776, -0.13018189370632172, 0.40699535608291626, 0.06856656819581985, 0.06597410142421722, 0.6662539839744568, -0.016590110957622528, 0.0010220380499958992, 0.5174793004989624, 0.3362794816493988, -0.1523398607969284, -0.2361680567264557, -0.09745122492313385, 0.010667757131159306, -0.29946795105934143, 0.02028394304215908, 0.0248870849609375, -0.08677437156438828, -0.010548451915383339, -0.04705995321273804, -0.2873232364654541, -0.1111842691898346, -0.10617668181657791, -0.2123359739780426, 0.022362152114510536, -0.15985673666000366, -0.4351681172847748, 0.1633700281381607, 0.0775698646903038, -0.5773924589157104, -0.18147128820419312, -0.015927372500300407, -0.6118847727775574, 0.03356350585818291, -0.5565019249916077, -0.2044041007757187, -0.18482206761837006, 0.18176674842834473, -0.22568562626838684, -0.43770748376846313, 0.12409043312072754, -0.5431613326072693, -0.27750957012176514, 0.10677094757556915, -0.11632699519395828, -0.010948934592306614, 0.35256141424179077, -0.016982274129986763, -0.055887624621391296, 0.2079741358757019, 0.048785507678985596, -0.29001566767692566, 0.1647680699825287, 0.17283974587917328, -0.11507359147071838, -0.010562191717326641, -0.11039677262306213, 0.20684681832790375, -0.059433553367853165, 0.21317994594573975, -0.37959063053131104, -0.2849063575267792, 0.15785962343215942, 0.07122108340263367, 0.3182869851589203, 0.12880463898181915, -0.1752520203590393, -0.12266270071268082, -0.06872978806495667, -0.27288854122161865, -0.10928552597761154, -0.04856347665190697, 0.1242145523428917, -0.13910189270973206, -0.0858202651143074, -0.030422339215874672, -0.025120001286268234, 0.08159969002008438, -0.3330984115600586, 0.07530640065670013, 0.14964109659194946, -0.31691062450408936, -0.05387691408395767, -0.23260313272476196, -0.14568279683589935, -0.0743858590722084, -0.1138293594121933, 0.28604066371917725, -0.02236047387123108, 0.042269837111234665, -0.21984408795833588, 0.05585984140634537, -0.0040251524187624454, 0.30322831869125366, -0.0479518286883831, -0.026924915611743927, 0.12543921172618866, -0.07759787887334824, -0.15600994229316711, -0.24862529337406158, 0.12348190695047379, 0.2805182933807373, -0.8853161334991455, -0.012986058369278908, -0.14581379294395447, -0.3190019130706787, -0.07500392943620682, -0.028457915410399437, -0.5684221386909485, 0.025452720001339912, -0.06344712525606155, -0.42072582244873047, 0.08141625672578812, 0.5255916714668274, 0.18689240515232086, 1.0498303174972534, 0.11560321599245071, -0.167344331741333, 0.08643802255392075, -0.25888562202453613, -0.31598517298698425, -0.19691044092178345, -0.0577852837741375, -0.29187044501304626, 0.039430081844329834, -0.027535298839211464, -0.2322516292333603, -0.15150010585784912, 0.7080071568489075, 0.45572730898857117, 0.2394333928823471, -0.05096735432744026, -0.021556325256824493, 0.4151167571544647, -0.16024205088615417, -0.23551200330257416, 0.4351327419281006, 0.10720041394233704, 0.1433517187833786, 0.3050912320613861, -0.2551279067993164, 0.9453133940696716, -0.18403011560440063, 0.4200986921787262, 1.3304980993270874, 1.3533084392547607, -0.10575371235609055, 0.6451873183250427, 0.12565308809280396, 0.006632829550653696, 0.2685772180557251, -0.08094587922096252, 0.402016282081604, 0.8562538623809814, -0.1507500559091568, 0.3392494320869446, 0.1912936419248581, -0.28565919399261475, 0.1942284256219864, 0.4295049011707306, -0.05624495446681976, 0.23640848696231842, -0.02393951267004013, -0.25463223457336426, 0.49381840229034424, 0.10866929590702057, -0.12332487851381302, 0.4334036111831665, -0.4521732032299042, 0.12693364918231964, 0.21743442118167877, 0.11685720831155777, -0.23240011930465698, 0.28924262523651123, 0.09732819348573685, 0.392896831035614, 0.09038225561380386, -1.0746697187423706, -0.23547708988189697, -0.24446024000644684, -0.8214612007141113, -0.9231955409049988, 0.006672148127108812, -0.3006380796432495, 0.010192916728556156, 0.4887784421443939, -0.11748138815164566, 0.08048887550830841, 0.40430814027786255, -0.5268537402153015, 0.49055278301239014, 0.01765775866806507, -0.2211684286594391, 0.1907235085964203, 0.23963506519794464, 0.05771219730377197, -0.37203964591026306, -0.17411643266677856, 0.3875773251056671, 0.3839386999607086, -0.19120988249778748, -0.5261824727058411, 0.09209219366312027, 0.29624977707862854, 0.12403738498687744, -0.06976582109928131, 0.11353209614753723, 0.2957070767879486, -0.2760959267616272, -0.3329821825027466, -0.36034780740737915, -0.08087554574012756, 0.17506617307662964, -0.006171358283609152, 0.4171980619430542, 0.1138249933719635, -0.06603104621171951, 0.10557138174772263, -0.09817850589752197, -0.11319335550069809, -0.05400916934013367, -0.277774840593338, 0.20369629561901093, 0.05815384164452553, -0.18849414587020874, 0.11380317807197571, -0.09099898487329483, -0.02807016111910343, 0.03708549588918686, 0.4557051658630371, -0.24284833669662476, 0.06831354647874832, -0.2368858903646469, 0.06317666172981262, 0.031347233802080154, 0.23281878232955933, -0.007110138423740864, -0.1035727933049202, -0.039953432977199554, 0.2864382565021515, -0.06440416723489761, -0.03665992245078087, 0.5196311473846436, -0.062091704457998276, -0.11242140829563141, 0.35668662190437317, 0.2797725796699524, 0.09476540982723236, 0.3169725835323334, 0.1212804764509201, -0.2526293396949768, 0.2712772786617279, -0.1408633440732956, -0.13825438916683197, -0.17355729639530182, 0.2163788080215454, 0.5193266272544861, 0.13461560010910034, -0.1553664654493332, -0.2209315001964569, 0.16946694254875183, -0.006230223458260298, -0.17147192358970642, -0.11094792187213898, -0.22595325112342834, -0.2432570904493332, -0.1625722050666809, 0.09739843755960464, -0.4273383617401123, -0.1260613352060318, 0.34031569957733154, -0.16548387706279755, -0.5584303736686707, 0.5456571578979492, 0.4219994843006134, -0.6394681930541992, -0.49605515599250793, 0.6136534810066223, -0.031283359974622726, -0.4899604320526123, 0.11190936714410782, 0.12854385375976562, 0.1974855363368988, -0.3449722230434418, -0.486145555973053, -0.21596799790859222, 0.030581112951040268, -0.35624414682388306, 0.5456045866012573, 0.09961702674627304, 0.0388261117041111, 0.2626410126686096, -0.0136716328561306, -0.023285359144210815, 0.25189208984375, -0.05638483911752701, 0.06116437911987305, -0.09472502022981644, 0.04276026040315628, -0.09561921656131744, 0.22469462454319, -0.04850683733820915, 0.19661152362823486, -0.20421923696994781, -0.05668622627854347, 0.34722763299942017, 0.04320213943719864, 0.20837357640266418, -0.09308746457099915, 0.0789557546377182, 0.0009488959331065416, 0.2115708291530609, -0.020627103745937347, 0.04558400809764862, -0.008696372620761395, -0.04589660465717316, 0.1915401965379715, 0.10725566744804382, 0.12756329774856567, 0.01370670460164547, -0.2777704894542694, -0.06544847041368484, 0.20557233691215515, -0.11391163617372513, -0.0012094220146536827, -0.0710274949669838, -0.18824410438537598, 0.2139282077550888, 0.017446309328079224, -0.08020302653312683, 0.22721897065639496, 0.018891360610723495, -0.16579663753509521, -0.40077313780784607, -0.3089524805545807, 0.07365602254867554, 0.06716129928827286, -0.0034606694243848324, -0.08450011163949966, 0.18814317882061005, 0.05482196807861328, 0.2837286591529846, 0.19686123728752136, 0.2543738782405853, 0.152255117893219, -0.47190821170806885, 0.3994320034980774, 0.19383102655410767, -0.42068204283714294, -0.5575743913650513, 0.1937234103679657, 0.316163033246994, -0.24239158630371094, 0.344988614320755, -0.5071747899055481, -0.5792266726493835, 0.44298821687698364, -0.5350633859634399, -0.23148444294929504, -0.0915641263127327, -0.03789667785167694, -0.22985334694385529, -0.3790540397167206, 0.2200561910867691, 0.0020729259122163057, -0.12101887166500092, 0.17484629154205322, -0.230271577835083, -0.026285948231816292, 0.24696850776672363, -0.0761917233467102, -0.37839752435684204, -0.0996139645576477, 0.3875068724155426, 0.2022664099931717, -0.13066548109054565, 0.037852510809898376, 0.024631282314658165, 0.4931250512599945, 0.14937520027160645, 0.1382817029953003, 0.027707984670996666, -0.277166485786438, -0.005021141842007637, 0.053248729556798935, 0.09815659373998642, 0.049032870680093765, 0.06613565981388092, 0.17990842461585999, 0.13065437972545624, 0.098349928855896, -0.07765248417854309, -0.0961025208234787, 0.06769546121358871, -0.1416705846786499, -0.20587576925754547, -0.2792263329029083, 0.21014904975891113, 0.3296012878417969, 0.12996429204940796, -0.08145052194595337, 0.025851311162114143, -0.2923400402069092, -0.03556521609425545, -0.07597115635871887, 0.07531122118234634, 0.04072960466146469, 0.3431340754032135, 0.19698047637939453, -0.30178460478782654, -0.19328734278678894, 0.1954195350408554, -0.14571768045425415, -0.0912908986210823, -0.010077136568725109, -0.21355469524860382, 0.002839574357494712, -0.5359755158424377, -0.4940108358860016, -0.30505281686782837, -0.17869266867637634, 0.027227960526943207, -0.18701167404651642, 0.14248332381248474, 0.0038492465391755104, 0.37077295780181885, 0.25124335289001465, 0.6382536292076111, -0.34752464294433594, -0.6467647552490234, -0.2052355408668518, -0.12426623702049255, 0.6700126528739929, -0.5677316188812256, -0.39416930079460144, 0.10751040279865265, -0.05794868990778923, 0.27764892578125, -0.3035840392112732, 0.2584095001220703, -0.09001057595014572, 0.04480619728565216, 0.09790884703397751, 0.18900039792060852, 0.011132938787341118, 0.20176668465137482, -0.19015491008758545, -0.07341795414686203, -0.10085141658782959, 0.1625073105096817, 0.08633562177419662, -0.08278895914554596, 0.09537820518016815, 0.15776927769184113, -0.17533697187900543, -0.07843407243490219, -0.09431937336921692, -0.1743253618478775, 0.3336343467235565, -0.12331906706094742, 0.08919929713010788, -0.15725970268249512, 0.20226021111011505, 0.2946304678916931, -0.3825130760669708, 0.037014804780483246, 0.14450189471244812, 0.7447609305381775, -0.05789737030863762, 0.006679442245513201, 0.07521622627973557, -0.16226239502429962, 0.0013404368655756116, 0.06573168188333511, 0.3191688656806946, 0.20663420855998993, 0.02939757890999317, 0.2976054847240448, -0.07206026464700699, -0.19951863586902618, -0.25477728247642517, -0.09355804324150085, 0.17759959399700165, 0.25724220275878906, 0.04553525522351265, -0.07580167800188065, -0.08108379691839218, 0.1307390332221985, -0.030297504737973213, -0.14302867650985718, 0.05587832257151604, 0.7197304368019104, -0.16690406203269958, 0.006965949200093746, -0.6395084261894226, -0.11668262630701065, 0.31992170214653015, 0.27600589394569397, -0.024308908730745316, -0.02916594408452511, 0.6216703653335571, 0.08568175137042999, -0.486002117395401, 0.018700353801250458, -0.9694794416427612, 0.14779947698116302, 0.7942154407501221, -0.0518992617726326, 0.25444307923316956, -0.7481096386909485, 0.37316271662712097, -0.028032919391989708, 0.835023820400238, -0.04725987836718559, 0.44635865092277527, 0.00018080133304465562, -0.18489386141300201, -0.009461728855967522, -0.01628156565129757, -0.10199113190174103, -0.03873288258910179, -0.16808709502220154, 0.2936343252658844, -0.155539408326149, 0.1732078194618225, 0.051198653876781464, 0.2502332031726837, 0.15362082421779633, -0.2978206276893616, -0.11262564361095428, -0.10698326677083969, 0.059130311012268066, -0.033663831651210785, -0.1613960713148117, 0.08131235092878342, -0.06535663455724716, 0.019212616607546806, 0.070331871509552, 0.17058177292346954, 0.27055490016937256, -0.3496922254562378, -0.08715543895959854, 0.16215340793132782, 0.3825758397579193, -0.0024602997582405806, -0.08971793204545975, 0.5128004550933838, -0.10480614006519318, 0.045498449355363846, -0.473300039768219, 0.20636601746082306, -0.105898916721344, 0.10905813425779343, -0.009334997273981571, -0.17395110428333282, -0.061120472848415375, 0.17933636903762817, -0.0935576856136322, -0.035980015993118286, 0.19593007862567902, 0.34498634934425354, -0.3773362338542938, -0.4464685320854187, -0.17814907431602478, 0.015983806923031807, 0.06562946736812592, -0.09666432440280914, 0.3895473778247833, 0.1370442509651184, -0.3203200697898865, 0.1547391414642334, -0.43636730313301086, -0.1684718281030655, 0.6497676372528076, -0.2754304111003876, -0.1451798379421234, 0.05302693322300911, -0.3066345155239105, -1.0939747095108032, -0.12974442541599274, -0.29425138235092163, -0.06427641212940216, 0.08663499355316162, 0.20611681044101715, 1.0696861743927002, 0.5209184288978577, 1.0665524005889893, -0.18138492107391357, -0.4555087983608246, -0.22167567908763885, 0.17526662349700928, -0.3012451231479645, -0.353682279586792, -0.00038778135785833, 0.04162946343421936, 0.11424294859170914, -0.1303679198026657, -0.2106025069952011, 0.15334784984588623, -0.028960691764950752, 0.09227986633777618, 0.2854861617088318, 0.2793520987033844, 0.20027466118335724, -0.4715559482574463, 0.02842056006193161, 0.047896645963191986, -0.09302126616239548, -0.21361590921878815, -0.17671892046928406, -0.18675847351551056, -0.23303012549877167, -0.10946506261825562, -0.16028816998004913, 0.5244124531745911, 0.31111547350883484, 0.1570494920015335, -0.027569008991122246, -0.05233639106154442, 0.11429867148399353, -0.09227634966373444, -0.1444636732339859, 0.08650686591863632, -0.0665367916226387, -0.016249515116214752, 0.20178431272506714, 0.1992848515510559, 0.3318367302417755, -0.33876851201057434, 0.062213122844696045, -0.06817113608121872, -0.22282491624355316, 0.18170268833637238, 0.2188052386045456, 0.12743917107582092, 0.15875929594039917, 0.3017708957195282, 0.16567713022232056, -0.4584561884403229, -0.585523247718811, 0.019631942734122276, -0.05511327087879181, -0.10543001443147659, 0.17551369965076447, 0.012637882493436337, 0.14045549929141998, 0.45064064860343933, 0.06879471242427826, -0.6625396013259888, 0.05700135603547096, -0.07734585553407669, -0.02635393850505352, 0.43916723132133484, 0.027961768209934235, 0.4921916723251343, -0.260763555765152, 0.2500351667404175, -1.3258934020996094, 0.6062349081039429, -0.9314282536506653, -0.17272348701953888, 0.7623995542526245, 0.044639427214860916, 0.6170262694358826, 0.2702171504497528, -0.11185912787914276, -0.1404849737882614, 0.21775729954242706, 0.12007158249616623, -0.14127616584300995, -0.23165901005268097, 0.083860382437706, 0.07919656485319138, -0.16270484030246735, 0.03658224269747734, 0.06562134623527527, -0.17781007289886475, 0.010062831453979015, 0.1356002241373062, 0.39956530928611755, -0.0866236537694931, -0.002151644788682461, -0.05741840600967407, 0.191198468208313, -0.05682796239852905, -0.20247876644134521, -0.05337729677557945, -0.05300671607255936, -0.13365034759044647, -0.0067412578500807285, 0.0696122944355011, 0.38335615396499634, -0.18785181641578674, -0.07541961222887039, -0.04693632200360298, 0.0022234709467738867, -0.2217976599931717, -0.21009504795074463, 0.31326600909233093, -0.1595814824104309, -0.2542370855808258, -0.704268753528595, 0.4296892285346985, 0.46222931146621704, -0.6099975109100342, 0.0065180519595742226, 0.014664944261312485, -0.28364408016204834, 0.13346445560455322, 0.23483645915985107, 0.160774827003479, 0.11566437780857086, 0.13484439253807068, 0.02132091112434864, -0.1495683491230011, -0.39648187160491943, 0.05690494552254677, -0.04042285308241844, -0.21914301812648773, -0.05813651531934738, -0.1119321957230568, 0.0253756083548069, -0.08131609112024307, -0.919728696346283, -0.41634729504585266, -0.1622987985610962, -0.17194430530071259, -0.4001837372779846, 0.14357520639896393, -0.036969829350709915, 0.100818932056427, -0.5630292892456055, -0.3791346848011017, -0.3269464373588562, -0.938069760799408, 0.28930696845054626, 0.8665735721588135, 0.3402708172798157, 0.5737735033035278, -0.18924680352210999, -0.1933503895998001, 0.1936274766921997, -0.016578199341893196, 0.2810065746307373, -0.4579384922981262, 0.0048971595242619514, -0.0313391387462616, -0.06691163033246994, -0.004936248995363712, -0.19717912375926971, 0.18407027423381805, 0.02325655333697796, -0.04745449498295784, -0.5107258558273315, -0.025787824764847755, 0.32188740372657776, -0.34976813197135925, -0.0922614261507988, -0.19214241206645966, 0.058821164071559906, -0.05703715980052948, -0.13126632571220398, 0.351719468832016, -0.0268606748431921, -0.15679360926151276, 0.07305928319692612, 0.1558375358581543, 0.4021761417388916, 0.33553367853164673, -0.04592804238200188, 0.011006856337189674, 0.2051399201154709, 0.010843333788216114, -0.15679174661636353, 0.03190675005316734, -0.03208920732140541, -0.038059331476688385, -0.0922783613204956, 0.00844009779393673, 0.17044511437416077, 0.4438604712486267, 0.0013359093572944403, 0.0216534286737442, -0.16967621445655823, 0.0036841484252363443, 0.13772591948509216, -0.47309982776641846, -0.0028252610936760902, 0.05520914867520332, 0.7439936995506287, 0.016906823962926865, -0.21117658913135529, -0.5164114236831665, -0.2052178829908371, 0.35361936688423157, -0.20301713049411774, 0.10387042909860611, 1.0708563327789307, -0.17829583585262299, 0.4084377884864807, -0.30372315645217896, -0.2895357012748718, -0.6537526249885559, -0.30560675263404846, 0.5572561621665955, 0.1719331294298172, -0.5342450141906738, 0.3059585690498352, 0.1467353105545044, 0.19844624400138855, 0.11107579618692398, -0.1740175038576126, -0.9665324091911316, 0.1581660658121109, 0.27552422881126404, 0.1635701060295105, 0.38139158487319946, -0.3046269416809082, 0.317937433719635, 0.07955547422170639, 0.15621350705623627, -0.01580129563808441, -0.02083972841501236, 0.4216843843460083, 0.0024017852265387774, -0.009821603074669838, 0.005253075622022152, 0.03640180826187134, 0.04960747808218002, -0.3473529815673828, -0.05304760858416557, -0.04156488552689552, 0.7589284777641296, 0.02118651382625103, 0.059789128601551056, -0.11972316354513168, 0.004748118110001087, 0.1116262823343277, 0.0067732068710029125, 0.043886855244636536, 0.03367258235812187, -0.49836844205856323, -0.0515507347881794, -0.10136821120977402, 0.0514586940407753, 0.005525448825210333, 0.08820020407438278, 0.37239086627960205, 0.0012162186903879046, -0.009966538287699223, 0.1802862137556076, 0.009521838277578354, -0.0003506354696583003, -0.2347099781036377, 0.009447755292057991, 0.031501997262239456, 0.6723822951316833, -0.0677352175116539, -0.08774349838495255, -0.019764579832553864, -0.05113186314702034, -0.03798159584403038, 0.10532332211732864, 0.024805888533592224, -0.03389976546168327, 0.5189040899276733, 0.04451330378651619, 0.08593063801527023, -0.15967436134815216, 0.012574558146297932, -0.22349324822425842, 0.08964729309082031, -0.18400995433330536, 0.43182310461997986, -0.1819348931312561, 0.18321000039577484, -0.92012619972229, -0.12091034650802612, -0.04836457967758179, -0.23046547174453735, 0.3559243679046631, 0.2869518995285034, -0.44128191471099854, -0.050015389919281006, 0.1681065559387207, 0.4823986291885376, -0.11955636739730835, 0.3069649934768677, -0.028011441230773926, -0.1917715072631836, 0.30598050355911255, -0.4455450773239136, 0.41890019178390503, 0.4994143843650818, -0.1365121603012085, 0.1975109577178955, 0.49860215187072754, 1.2170618772506714, 1.058280348777771, 0.9679938554763794, -0.9946718811988831, 0.212954580783844, 0.019999999552965164]}