{"version": "0.5.1", "metadata": {"date": {"year": 2023, "month": 4, "day": 28, "hour": 8, "minute": 13, "second": 9}, "loudness": -17.3088436126709, "gain": 0.21539980540362616, "name": null, "modeled_by": null, "gear_type": null, "gear_make": null, "gear_model": null, "tone_type": null}, "architecture": "WaveNet", "config": {"layers": [{"input_size": 1, "condition_size": 1, "head_size": 4, "channels": 8, "kernel_size": 3, "dilations": [1, 2, 4, 8, 16, 32, 64], "activation": "Tanh", "gated": false, "head_bias": false}, {"input_size": 8, "condition_size": 1, "head_size": 1, "channels": 4, "kernel_size": 3, "dilations": [128, 256, 512, 1, 2, 4, 8, 16, 32, 64, 128, 256, 512], "activation": "Tanh", "gated": false, "head_bias": true}], "head": null, "head_scale": 0.02}, "weights": [0.18237362802028656, 0.4924910068511963, -0.798426628112793, -0.548537015914917, -0.3287622332572937, 0.07482659071683884, -0.29935207962989807, 0.7181239128112793, 0.05542387440800667, -0.11343013495206833, 0.09361524879932404, -0.061649858951568604, -0.38128527998924255, -0.04576463997364044, -0.05626237019896507, 0.2033040076494217, -0.0023012079764157534, 0.1551489233970642, 0.0550030916929245, -0.1664615124464035, 0.08984648436307907, 0.34689652919769287, -0.13732479512691498, 0.06096110865473747, -0.24157695472240448, 0.002242214046418667, 0.1716635674238205, -0.007767809554934502, -0.2596091032028198, -0.08189938962459564, -0.27511221170425415, 0.25709009170532227, -0.12546688318252563, 0.14336331188678741, -0.22968629002571106, -0.21023185551166534, 0.03776668384671211, 0.0445680245757103, 0.1030871793627739, -0.06765558570623398, 0.136082723736763, -0.09908310323953629, -0.13229605555534363, -0.07550428807735443, -0.12639649212360382, -0.2568282186985016, 0.2606828510761261, 0.09371454268693924, 0.006954356096684933, -0.10813719779253006, 0.16012807190418243, 0.029918763786554337, 0.23455820977687836, 0.017199810594320297, 0.3028682768344879, -0.2433498054742813, 0.04715220257639885, -0.2795255184173584, 0.021127549931406975, -0.060450803488492966, 0.0551326647400856, 0.2678319811820984, -0.1607106775045395, 0.10640699416399002, -0.0708952397108078, -0.0621577687561512, 0.04923805221915245, -0.131705641746521, 0.07948792725801468, 0.22897154092788696, -0.34601980447769165, -0.15142293274402618, -0.026966454461216927, 0.21787792444229126, 0.1065361276268959, 0.21567028760910034, -0.1910373568534851, -0.13793820142745972, -0.02448992058634758, 0.05367574095726013, 0.15328793227672577, 0.2561209499835968, 0.29041653871536255, -0.04747774824500084, -0.003112215083092451, -0.03758133947849274, -0.19009307026863098, -0.04960264265537262, 0.08291076868772507, -0.27029433846473694, 0.12252368032932281, 0.11560285836458206, -0.011839521117508411, 0.11554695665836334, -0.19969193637371063, 0.037499669939279556, 0.09845442324876785, 0.04203597828745842, -0.3635201156139374, -0.1030544862151146, 0.14781665802001953, 0.28909069299697876, -0.1356375813484192, -0.05988404527306557, 0.03621936962008476, -0.3753630816936493, -0.10893341153860092, 0.013311175629496574, -0.30517059564590454, 0.13341335952281952, -0.24800103902816772, 0.4262673258781433, -0.2177211046218872, 0.025845814496278763, 0.4422730505466461, -0.2616039216518402, -0.22595135867595673, 0.29280999302864075, -0.07931816577911377, 0.14107617735862732, -0.2358400523662567, 0.008478694595396519, -0.3010398745536804, 0.3991912007331848, -0.31938713788986206, 0.03890647366642952, -0.35566624999046326, -0.007709915284067392, -0.16990447044372559, -0.28873932361602783, 0.20434683561325073, -0.07521601766347885, -0.22236326336860657, 0.22671948373317719, 0.2712220847606659, 0.07649192214012146, -0.22741208970546722, 0.10922330617904663, 0.13669826090335846, -0.09636169672012329, 0.30472153425216675, 0.21139422059059143, -0.04694240167737007, -0.21463143825531006, -0.3438892364501953, -0.021986939013004303, 0.2171483188867569, 0.0737173780798912, -0.3894616663455963, -0.2811952531337738, -0.28629887104034424, 0.06025303900241852, -0.335658460855484, 0.18986022472381592, -0.06888868659734726, -0.35538947582244873, 0.25797808170318604, -0.23189666867256165, 0.1133170947432518, -0.21903590857982635, 0.02932843193411827, 0.10712861269712448, -0.3230319619178772, -0.11662589758634567, 0.13022589683532715, -0.12039826810359955, -0.01599416509270668, -0.09635423868894577, -0.10575196146965027, -0.07926676422357559, 0.38156238198280334, -0.19939874112606049, 0.29478445649147034, -0.07699800282716751, -0.04582417756319046, 0.06482553482055664, 0.30247077345848083, -0.10492902249097824, 0.4964057505130768, -0.0580761581659317, -0.18312804400920868, 0.04687575623393059, 0.0407491996884346, 0.2679532766342163, 0.010625685565173626, -0.018385689705610275, 0.16742178797721863, -0.11031348258256912, -0.2798108458518982, 0.3078291416168213, 0.06860756129026413, 0.21491332352161407, -0.3092297613620758, -0.005670355167239904, -0.2771109938621521, 0.10527520626783371, -0.2461792677640915, 0.16938218474388123, -0.33550170063972473, 0.07858236879110336, 0.0627049133181572, 0.02831174060702324, -0.07080821692943573, -0.20841318368911743, -0.034256014972925186, 0.03753628209233284, -0.22211521863937378, 0.028337949886918068, 0.43214869499206543, 0.006739224772900343, 0.16689389944076538, -0.20839156210422516, 0.20686110854148865, -0.0019222007831558585, -0.06508278101682663, 0.20868414640426636, 0.2186627835035324, -0.1208898276090622, 0.2183586210012436, -0.3939230740070343, -0.018268516287207603, 0.45831039547920227, 0.18371005356311798, -0.013567587360739708, -0.17232419550418854, 0.12703049182891846, -0.17815738916397095, -0.2200324386358261, -0.3151209354400635, 0.06160881742835045, -0.06926827877759933, 0.21251361072063446, 0.10818129032850266, 0.32395562529563904, 0.07180722057819366, -0.31271228194236755, 0.25256383419036865, -0.20009100437164307, -0.12854014337062836, 0.22053438425064087, -0.12079054117202759, 0.24637220799922943, -0.2150115668773651, 0.09088896960020065, -0.06618993729352951, -0.43469393253326416, 0.3683601915836334, -0.4494970440864563, 0.11040335148572922, 0.022565066814422607, -0.2387354075908661, -0.03565247729420662, 0.38731640577316284, -0.15080885589122772, -0.08509606122970581, -0.06977599114179611, -0.24248875677585602, 0.021127117797732353, -0.07316321134567261, -0.021092349663376808, 0.006299398839473724, 0.19866089522838593, 0.07957543432712555, 0.41740933060646057, 0.2152004837989807, -0.20277878642082214, 0.02671872451901436, 0.06922702491283417, 0.3748774826526642, 0.23015670478343964, -0.19893556833267212, 0.019139355048537254, -0.21476565301418304, 0.03866705670952797, -0.050955552607774734, -0.21052156388759613, 0.5779857635498047, -0.16932909190654755, -0.2428843379020691, 0.22804349660873413, 0.04794438183307648, -0.13904491066932678, -0.15934136509895325, 0.21528662741184235, 0.0608365461230278, 0.1796150952577591, -0.07523000240325928, 0.07554115355014801, -0.43242672085762024, 0.10984597355127335, 0.05906020849943161, 0.254570871591568, 0.09128212183713913, -0.11727551370859146, -0.15472939610481262, -0.14019760489463806, 0.23567216098308563, -0.0898481160402298, 0.05690659210085869, -0.05374341830611229, -0.27666810154914856, -0.03714422509074211, -0.004240097943693399, -0.03129361569881439, 0.051187772303819656, -0.10423073172569275, -0.10961392521858215, 0.03009689226746559, 0.16487690806388855, 0.0980665534734726, -0.16019344329833984, -0.12932464480400085, 0.46259036660194397, -0.022268159314990044, 0.1509796679019928, 0.2794538736343384, -0.06663909554481506, 0.012250873260200024, -0.1034545749425888, -0.051655709743499756, 0.027991672977805138, -0.3098238408565521, -0.28389817476272583, 0.10810723155736923, -0.008959257043898106, 0.17231470346450806, 0.11865433305501938, 0.031922027468681335, 0.058199193328619, -0.153932124376297, -0.26898276805877686, -0.12203196436166763, 0.1728261560201645, 0.2778395116329193, -0.06688808649778366, 0.027567369863390923, 0.15844005346298218, -0.03758363053202629, -0.21825820207595825, -0.038120001554489136, -0.06866585463285446, 0.1405019313097, 0.29830870032310486, 0.05344925820827484, -0.41951221227645874, 0.22530482709407806, 0.1367654800415039, 0.16782976686954498, 0.13425928354263306, 0.1220780462026596, -0.3019150495529175, 0.27591609954833984, 0.028295155614614487, 0.05445931479334831, 0.23395521938800812, 0.10548760741949081, -0.3268378674983978, -0.06965555250644684, -0.15106147527694702, 0.28442293405532837, -0.05803539976477623, -0.18477532267570496, -0.3378581404685974, -0.04238840565085411, -0.042001787573099136, 0.18898296356201172, 0.39994892477989197, -0.04589667171239853, -0.1514364629983902, 0.10731399804353714, -0.24171623587608337, 0.08090320974588394, 0.10490559786558151, 0.10320031642913818, -0.19342610239982605, -0.17716734111309052, 0.07009835541248322, -0.008435150608420372, 0.3411259353160858, 0.3939296007156372, 0.18075522780418396, -0.3019455671310425, 0.027617987245321274, 0.20147964358329773, -0.12232839316129684, 0.2993905544281006, 0.34019652009010315, 0.3512513339519501, -0.10094460844993591, -0.12316026538610458, -0.15640097856521606, 0.05013924464583397, 0.14806248247623444, -0.22504672408103943, -0.0826784297823906, 0.25872209668159485, -0.07233019918203354, 0.04530011862516403, 0.1468106061220169, 0.14182361960411072, 0.2089163362979889, 0.16171854734420776, -0.27108442783355713, 0.21716976165771484, 0.3177458345890045, 0.12095662206411362, 0.17975589632987976, -0.027016181498765945, -0.6122279167175293, 0.1711788922548294, -0.37846577167510986, -0.01838483288884163, 0.28909942507743835, 0.030730919912457466, -0.1494804322719574, -0.2931927442550659, -0.11636146157979965, 0.18381649255752563, -0.06722787767648697, 0.3796359598636627, 0.0666177049279213, -0.3196936249732971, -0.028246909379959106, 0.040246978402137756, 0.019681291654706, -0.32805249094963074, -0.09394271671772003, -0.34923022985458374, -0.23373204469680786, -0.013387168757617474, -0.12593014538288116, -0.07167268544435501, 0.2111312299966812, -0.2968626320362091, -0.013387471437454224, -0.012146669439971447, 0.03185897320508957, -0.41358456015586853, 0.06998324394226074, -0.0172035563737154, 0.14164762198925018, -0.37463387846946716, 0.14232137799263, 0.050057366490364075, -0.31920474767684937, 0.23800130188465118, 0.2222035974264145, -0.00015143098426051438, -0.02909660153090954, -0.08269970864057541, 0.16292154788970947, 0.14841042459011078, 0.639515221118927, 0.21810577809810638, -0.22179242968559265, 0.021683823317289352, -0.01721508987247944, 0.07504746317863464, -0.03399515524506569, -0.21483422815799713, -0.3146675229072571, 0.000934873940423131, 0.21826088428497314, -0.04637075960636139, -0.046896252781152725, 0.30567267537117004, 0.18374277651309967, -0.23916739225387573, 0.03816116601228714, 0.05850556865334511, -0.014873282052576542, 0.17912939190864563, 0.11937283724546432, -0.020487595349550247, 0.1381469964981079, -0.1826491802930832, -0.31893011927604675, -0.07577606290578842, -0.20459948480129242, 0.24516698718070984, -0.18300646543502808, -0.14892461895942688, -0.044649869203567505, 0.009160985238850117, -0.030154870823025703, 0.10610437393188477, 0.06938467919826508, 0.16746453940868378, -0.03419307619333267, -0.42936891317367554, 0.0020082672126591206, 0.1397569626569748, 0.2631063163280487, -0.8433875441551208, 0.6918380856513977, 0.10467223078012466, -0.4924589991569519, -0.20930150151252747, 0.578022837638855, 0.6444649696350098, -0.36856675148010254, 0.10596713423728943, 0.14279179275035858, 0.4212764501571655, -0.03008248843252659, -0.3766481280326843, 0.4705652594566345, 0.3453206419944763, -0.28792813420295715, 0.03919122368097305, -0.14217574894428253, 0.5006924271583557, -0.08060038089752197, -0.01004448439925909, 0.05480698496103287, -0.10326717793941498, -0.12296227365732193, 0.29875218868255615, 0.26201289892196655, -0.024176767095923424, 0.36891618371009827, 0.22890104353427887, -0.24238021671772003, -0.4325273633003235, -0.1551690548658371, -0.4737798571586609, 0.9256578087806702, -0.37662768363952637, -0.20192715525627136, -0.2748120129108429, 0.7038418054580688, 0.5874063372612, -0.12831954658031464, -0.5248741507530212, -0.2850196361541748, 0.2623474597930908, -0.028708014637231827, -0.05561692640185356, -0.12930306792259216, 0.3225305676460266, -0.43626707792282104, 0.08849106729030609, -0.4041878879070282, -0.14580732583999634, 0.08361208438873291, 0.1707342267036438, -0.23546721041202545, -0.3306431472301483, -0.01986890286207199, 0.3020339012145996, -0.4126485288143158, -0.24547605216503143, 0.270766019821167, -0.2926534116268158, 0.10111235827207565, 0.2056320458650589, -0.20614710450172424, 0.09611539542675018, -0.10904382169246674, -0.030367836356163025, -0.23710915446281433, -0.1361410766839981, -0.04058976098895073, 0.06401417404413223, -0.1529206782579422, 0.22589513659477234, -0.012482398189604282, -0.0988486260175705, 0.28295499086380005, 0.1297864019870758, -0.0944758951663971, -0.24139782786369324, 0.10823363065719604, -0.11070037633180618, 0.07241927832365036, 0.08014051616191864, -0.3260904848575592, 0.0033264015801250935, 0.06996525079011917, 0.3354044258594513, 0.10871045291423798, -0.1668432205915451, -0.3958994150161743, 0.07649987190961838, 0.010856622830033302, -0.15413129329681396, 0.12664669752120972, -0.06422349065542221, 0.009357045404613018, -0.003110966645181179, 0.038135454058647156, 0.017900483682751656, -0.34658876061439514, 0.18823273479938507, 0.09060933440923691, 0.29853031039237976, -0.1758652925491333, 0.10525007545948029, 0.03988650441169739, 0.2004212737083435, -0.17958639562129974, -0.23085565865039825, -0.25714200735092163, 0.33408084511756897, -0.24994978308677673, -0.1879240721464157, 0.18488724529743195, -0.11529628932476044, -0.12046584486961365, -0.1013716384768486, -0.04409336671233177, 0.015039264224469662, 0.15167753398418427, -0.04898451641201973, 0.15191636979579926, -0.0008635023841634393, 0.29847609996795654, 0.059186358004808426, -0.020469026640057564, -0.004670442081987858, -0.011636286973953247, 0.09968690574169159, 0.19132772088050842, -0.31144773960113525, -0.1795327216386795, -0.07699242234230042, 0.031236272305250168, 0.08847629278898239, -0.0029288772493600845, 0.021388189867138863, -0.015430054627358913, 0.14642925560474396, 0.06184224784374237, 0.09136564284563065, 0.3314605951309204, -0.22088457643985748, -0.08268054574728012, -0.4489760398864746, -0.18598207831382751, 0.1525568813085556, 0.06950657814741135, 0.22861307859420776, -0.07285414636135101, 0.03225487470626831, 0.17692741751670837, 0.28674739599227905, -0.0044013867154717445, 0.12347391247749329, -0.17626230418682098, -0.19829225540161133, 0.13036228716373444, -0.021408874541521072, 0.4195968210697174, -0.11217256635427475, -0.250777930021286, -0.22184406220912933, -0.04527008533477783, 0.13355541229248047, -0.03990277275443077, 0.01856617070734501, -0.07758378237485886, -0.24988174438476562, 0.17519398033618927, -0.1718328446149826, -0.2524878680706024, 0.1756647527217865, 0.1881599873304367, 0.0804046168923378, -0.1190391331911087, 0.019304651767015457, -0.3595576286315918, 0.05654150992631912, 0.14135877788066864, 0.2668585479259491, 0.0643184706568718, 0.2674328684806824, -0.34502702951431274, -0.007899727672338486, 0.2959478497505188, -0.11251407116651535, 0.21709953248500824, -0.11701003462076187, -0.14391551911830902, 0.125248983502388, 0.1637847125530243, 0.3124774992465973, -0.10393311083316803, -0.3388146460056305, 0.28347304463386536, 0.3170630633831024, -0.027157064527273178, 0.028169216588139534, 0.49667832255363464, 0.06732385605573654, 0.2004736065864563, -0.2232174426317215, 0.1497400403022766, -0.304970383644104, -0.0498088039457798, 0.1069832369685173, 0.16047902405261993, 0.24329456686973572, -0.2177726924419403, 0.13384611904621124, -0.12190175801515579, -0.016474615782499313, 0.15653565526008606, -0.03640877828001976, -0.0628252923488617, -0.012774853967130184, 0.03689800575375557, -0.10483573377132416, -0.08855379372835159, 0.1699981540441513, 0.020883800461888313, -0.3219505548477173, 0.13568344712257385, -0.3049292266368866, 0.17836250364780426, 0.2229892462491989, 0.16001056134700775, 0.1862141638994217, -0.06515293568372726, 0.1315452605485916, 0.14119277894496918, 0.2937016189098358, 0.22390082478523254, -0.2683863937854767, 0.09713123738765717, -0.1921030879020691, -0.1619940847158432, 0.058268506079912186, 0.023573677986860275, -0.13670016825199127, -0.181830033659935, 0.10067667067050934, 0.04537644237279892, -0.4499548077583313, 0.09281124174594879, -0.19593752920627594, -0.46020230650901794, 0.004555208142846823, 0.08047860860824585, -0.05246264487504959, 0.06715723127126694, 0.17997650802135468, 0.28379449248313904, -0.07810215651988983, -0.044239528477191925, -0.29375582933425903, -0.17904837429523468, -0.16995561122894287, 0.037333060055971146, 0.07612904161214828, -0.022092973813414574, 0.2889747619628906, -0.10620111972093582, 0.21731552481651306, -0.11379875242710114, -0.06295837461948395, 0.10537537187337875, 0.1352769285440445, -0.055554475635290146, 0.14209683239459991, 0.048613183200359344, -0.07034330815076828, -0.027202460914850235, 0.05648789927363396, -0.5618050694465637, -0.4999569058418274, 0.4778333008289337, -0.8960352540016174, 0.34444960951805115, 0.591852605342865, 0.5545821785926819, -0.5838351845741272, 0.2647182047367096, -0.33666157722473145, 0.324022114276886, -0.2251594215631485, -0.4730850160121918, 0.15861070156097412, 0.183472141623497, 0.10001415014266968, -0.13415956497192383, 0.037194810807704926, -0.09834016114473343, -0.37102198600769043, 0.39984962344169617, -0.1366880089044571, 0.17827631533145905, 0.3331819176673889, 0.37264740467071533, 0.0031730891205370426, -0.18216028809547424, -0.09702051430940628, -0.465485543012619, -0.15995050966739655, -0.14912152290344238, -0.10183104872703552, 0.19933852553367615, -0.17832860350608826, 0.500071108341217, -0.12774230539798737, -0.2904622256755829, 0.49030882120132446, 0.34731730818748474, -0.32372790575027466, 0.011683689430356026, -0.08377279341220856, -0.21385452151298523, -0.13747790455818176, 0.13911224901676178, -0.5045791268348694, 0.15452948212623596, 0.36027204990386963, -0.17139612138271332, 0.6561936140060425, -0.26889508962631226, 0.2095566987991333, 0.5538523197174072, -0.10287737846374512, 0.3345390856266022, -0.15104742348194122, 0.14349672198295593, 0.041844435036182404, -0.4392641484737396, -0.29817020893096924, 0.591694176197052, -0.0020551469642668962, 0.1203053668141365, -0.25689446926116943, 0.02714538760483265, -0.16700433194637299, -0.16585813462734222, 0.08746832609176636, 0.13080738484859467, -0.12475825101137161, 0.03438318148255348, 0.07024262845516205, -0.08269691467285156, 0.18191646039485931, 0.12832801043987274, 0.16781778633594513, 0.10234328359365463, -0.13547691702842712, 0.12769338488578796, 0.2039632797241211, -0.19309674203395844, 0.1292915642261505, 0.053414419293403625, 0.29289907217025757, 0.0003040938754566014, -0.059488750994205475, -0.08948662877082825, -0.17599278688430786, -0.21218743920326233, -0.24023959040641785, -0.2306962013244629, -0.004816655535250902, -0.06423783302307129, 0.5947030782699585, -0.04970019310712814, -0.22108730673789978, 0.4209612309932709, -0.07458294183015823, -0.07380993664264679, 0.08666834235191345, -0.2988993227481842, 0.20411966741085052, -0.005736928433179855, 0.037789832800626755, -0.5102952122688293, 0.10148628801107407, 0.23706191778182983, 0.18330547213554382, 0.3837490975856781, -0.1474306434392929, -0.27173569798469543, -0.15686644613742828, 0.1997101753950119, -0.13138917088508606, -0.2522237300872803, 0.2372186928987503, -0.1488100290298462, 0.17542260885238647, 0.23652058839797974, -0.2051214724779129, 0.18376286327838898, 0.21501421928405762, -0.17089447379112244, 0.13653692603111267, 0.004553074948489666, 0.18662114441394806, -0.11028856784105301, -0.18872179090976715, -0.35796722769737244, 0.19652915000915527, 0.13133420050144196, 0.18970994651317596, 0.3328012526035309, 0.12236544489860535, 0.08678612858057022, 0.1899031102657318, 0.06156212091445923, -0.25192195177078247, -0.6444608569145203, 0.12492641806602478, -0.13759389519691467, 0.32428473234176636, 0.02750072255730629, -0.03073456697165966, 0.28979799151420593, -0.0007056070608086884, 0.4117724299430847, 0.26987290382385254, -0.3022826015949249, -0.00700415251776576, 0.03896024450659752, 0.0657053142786026, 0.11735296249389648, -0.23740583658218384, -0.3612521290779114, -0.05267374962568283, -0.12159274518489838, 0.059957705438137054, 0.24303263425827026, -0.18773238360881805, -0.1100887581706047, 0.06859949231147766, 0.6729376912117004, -0.06756269186735153, -0.0775768831372261, 0.13026830554008484, -0.1317821741104126, 0.09481170028448105, -0.04171987995505333, -0.20544743537902832, 0.16375046968460083, -0.31920936703681946, 0.2191626876592636, -0.15376336872577667, -0.10237498581409454, 0.3349302411079407, 0.2150096744298935, 0.03117886744439602, -0.2139892429113388, -0.444112628698349, 0.10472939163446426, -0.08359035849571228, 0.12107258290052414, -0.15200036764144897, 0.07774808257818222, 0.06270461529493332, 0.4431322515010834, -0.2757384479045868, 0.12022900581359863, -0.4629461467266083, 0.19398216903209686, 0.03576255217194557, -0.4159087538719177, -0.06735453754663467, 0.14637859165668488, -0.5900912284851074, 0.022164756432175636, -0.17249411344528198, 0.18409056961536407, -0.19026599824428558, 0.06631367653608322, 0.31425994634628296, -0.1234363317489624, -0.15439154207706451, -0.2578442096710205, -0.11293212324380875, 0.019054623320698738, 0.18890008330345154, 0.3200252652168274, -0.16745001077651978, -0.38724738359451294, -0.24411197006702423, 0.05202300846576691, 0.2331777811050415, 0.24685639142990112, -0.026735616847872734, 0.05731591582298279, -0.08982636779546738, 0.09345810115337372, 0.12054499983787537, 0.30672556161880493, -0.048663701862096786, -0.18447361886501312, 0.3187144696712494, 0.061808545142412186, 0.10385635495185852, 0.06404896825551987, -0.21010400354862213, -0.20342905819416046, -0.04795880243182182, 0.08797182142734528, -0.013136818073689938, -0.32025444507598877, -0.1587636023759842, -0.02021368220448494, -0.16396060585975647, 0.06618721038103104, 0.4341283142566681, -0.2253018021583557, -0.0996796265244484, -0.05454307794570923, -0.17848551273345947, 0.05337557941675186, -0.023865483701229095, -0.011443624272942543, -0.38484176993370056, -0.19084042310714722, 0.239468052983284, 0.0897018238902092, 0.1567646712064743, -0.09075365215539932, 0.160102978348732, 0.1211494728922844, -0.16867439448833466, -0.17978666722774506, 0.18103420734405518, -0.05066117271780968, -0.3613545298576355, -0.3560861349105835, 0.09404098242521286, -0.157899871468544, 0.5586678385734558, 0.18663740158081055, -0.15460282564163208, 0.12615658342838287, 0.02066928520798683, 0.00751706026494503, 0.1702306717634201, -0.10845693200826645, 0.023440072312951088, -0.2609245181083679, 0.15733741223812103, -0.16788411140441895, 0.030949534848332405, -0.10967949032783508, -0.02455516718327999, 0.07191028445959091, 0.03648744150996208, 0.0015528788790106773, 0.02327105589210987, -0.8488646149635315, 0.260881245136261, -0.1641351729631424, -0.22864650189876556, 0.5568943023681641, 0.8525277376174927, -0.7563323378562927, -0.09736137092113495, 0.4556709825992584, 0.2452288120985031, 0.37798675894737244, -0.27609047293663025, -0.40561622381210327, 0.435989648103714, 0.12405742704868317, 0.5526642203330994, -0.20544715225696564, -0.27402281761169434, -0.10342670977115631, -0.14810889959335327, 0.2977254390716553, 0.3957286775112152, 0.20198146998882294, -0.08702036738395691, 0.37014445662498474, -0.41758793592453003, 0.31452348828315735, -0.2756759524345398, -0.4782930612564087, -0.3867189288139343, 0.3620719611644745, 0.15606850385665894, 0.025530336424708366, -0.23029029369354248, 0.10356861352920532, -0.055994682013988495, 0.25909438729286194, 1.2702282667160034, 0.28638383746147156, 0.10569396615028381, -0.40044456720352173, -0.4873502254486084, -0.5269788503646851, 0.39010390639305115, 0.060137756168842316, -0.09103558957576752, -0.11052944511175156, -0.1958286017179489, -0.1993231475353241, -0.42142635583877563, -0.06432122737169266, -0.05232980102300644, 0.0928504690527916, -0.03372965753078461, 0.3536990284919739, 0.059934839606285095, -0.3635239899158478, 0.043325118720531464, -0.6003113389015198, 0.07375673204660416, 0.3687906265258789, -0.769192099571228, -0.2976970672607422, -0.7590571641921997, -0.060041651129722595, 0.23698900640010834, -0.11308158189058304, -0.4942268133163452, -0.1269952356815338, 0.16704192757606506, -0.2631398141384125, -0.08449839055538177, -0.11048480868339539, -0.25674065947532654, -0.10230468213558197, -0.08013099431991577, -0.13752451539039612, -0.031340911984443665, -0.25598904490470886, -0.2928042709827423, 0.16815724968910217, 0.020331216976046562, -0.46280592679977417, -0.08412790298461914, 0.057835161685943604, 0.3816803991794586, 0.12010423839092255, -0.06380743533372879, -0.2320745289325714, 0.06746594607830048, 0.414366215467453, -0.261534184217453, 0.20616234838962555, 0.3684535324573517, 0.011705300770699978, 0.014281384646892548, 0.25711843371391296, -0.19638608396053314, 0.04195121303200722, -0.3072510063648224, 0.4407682418823242, -0.35885563492774963, 0.030184844508767128, -0.0779162347316742, -0.07676693797111511, 0.09271559864282608, 0.11434971541166306, -0.1951649934053421, -0.19408507645130157, 0.2083129733800888, 0.13779129087924957, 0.1227116659283638, -0.3078545033931732, 0.0020321481861174107, -0.014001088216900826, -0.15171727538108826, 0.257864773273468, 0.07878997921943665, -0.23725059628486633, 0.19724726676940918, 0.08324426412582397, -0.20215515792369843, -0.22466959059238434, 0.11776208132505417, 0.026625122874975204, -0.26001274585723877, -0.13845162093639374, 0.20677366852760315, 0.16802173852920532, 0.0017606118926778436, -0.4264588952064514, -0.3033462464809418, 0.13817951083183289, 0.15705972909927368, 0.33774417638778687, -0.28765133023262024, -0.36492621898651123, -0.052832577377557755, 0.18324199318885803, 0.015182246454060078, 0.356255441904068, 0.03939143940806389, -0.05123564973473549, 0.2617271840572357, 0.2117631435394287, 0.03867676854133606, 0.0553986057639122, -0.19451923668384552, 0.5457169413566589, -0.29401299357414246, 0.1031126007437706, 0.10360828042030334, -0.08804646879434586, 0.048314087092876434, 0.5269894599914551, 0.03381429240107536, -0.2941387891769409, -0.14367257058620453, -0.34977036714553833, 0.2728815972805023, 0.026246288791298866, -0.2741764485836029, -0.49694958329200745, 0.09602683782577515, -0.12164121121168137, -0.2422613799571991, -0.35898858308792114, -0.35209694504737854, 0.04263222962617874, 0.05089469254016876, -0.05117250606417656, 0.3297252655029297, -0.2920394241809845, 0.2704389989376068, 0.0029810776468366385, 0.014401718974113464, 0.17399588227272034, 0.09640003740787506, -0.5662821531295776, 0.08121345192193985, 0.2529579699039459, -0.03227131441235542, 0.2823438346385956, 0.1176731213927269, -0.30694735050201416, -0.08133133500814438, 0.18385930359363556, -0.5088030099868774, 0.2766929864883423, 0.27906322479248047, 0.0910288542509079, -0.06626040488481522, 0.012604623101651669, 0.026856960728764534, -0.05087423324584961, -0.2585190534591675, 0.24385902285575867, -0.31330108642578125, -0.11202199012041092, 0.08800344914197922, -0.017119809985160828, -0.15243041515350342, 0.08235644549131393, 0.23892530798912048, 0.005437611602246761, -0.2361084222793579, -0.04420934617519379, 0.09567449986934662, 0.217200368642807, -0.29162493348121643, 0.05197502300143242, 0.38687387108802795, -0.19529002904891968, -0.19983899593353271, 0.4131132662296295, -0.20292989909648895, -0.005781021434813738, 0.045749731361866, 0.10011660307645798, 0.1946466714143753, -0.022293198853731155, 0.22639913856983185, -0.08281528204679489, 0.07627680152654648, 0.23050138354301453, -8.598584827268496e-05, 0.035631775856018066, -0.2235882580280304, 0.0421309769153595, -0.08010023087263107, 0.23087555170059204, 0.08168939501047134, -0.238980233669281, -0.054344139993190765, -0.04937633126974106, -0.10644173622131348, 0.2698555588722229, 0.039434876292943954, -0.18188732862472534, 0.29714229702949524, 0.20255924761295319, 0.08548791706562042, -0.06454470008611679, -0.06643836200237274, -0.01831251196563244, -0.07527989894151688, -0.21269942820072174, -0.027073638513684273, -0.2677898108959198, -0.01233780849725008, 0.7228536605834961, -0.10641743242740631, -0.23028725385665894, -0.19766418635845184, -0.16653573513031006, 0.36240360140800476, 0.4760119318962097, -0.11364998668432236, -0.2697698175907135, 0.4867156744003296, -0.6171376705169678, -0.06701644510030746, 0.20019787549972534, -0.31188321113586426, -0.1420951932668686, -0.22875647246837616, 0.26644444465637207, 0.24923177063465118, -0.46185389161109924, 0.1576540321111679, -0.03197688236832619, -0.2756689488887787, 0.026094961911439896, 0.06512188166379929, -0.02313224785029888, -0.12207183241844177, -0.05312681198120117, 0.07232192158699036, 0.13158193230628967, -0.22702652215957642, -0.11722628772258759, -0.38289374113082886, -0.07390909641981125, -0.8531635403633118, 0.8861672878265381, 0.45879897475242615, -0.23943157494068146, -0.38513118028640747, 0.3017061948776245, -0.4521854817867279, 0.221980020403862, -0.2021244466304779, -0.02234005182981491, 0.026676274836063385, -0.17852309346199036, 0.1002425029873848, -0.1695745885372162, -0.17572830617427826, 0.4005238115787506, -0.27637311816215515, 0.18426159024238586, 0.393391877412796, -0.1881151795387268, 0.3530368506908417, 0.4363630414009094, 0.47838515043258667, 0.25976547598838806, 0.06852501630783081, 0.06129031255841255, -0.3179856538772583, 0.10388577729463577, 0.07776160538196564, 0.06462498009204865, 0.3513534963130951, -0.2712942659854889, 0.14169859886169434, -0.0625712126493454, 0.03391997888684273, 0.1921212077140808, 0.03210501745343208, -0.40964195132255554, 0.3969298303127289, -0.38145893812179565, 0.2754407823085785, -0.5382450819015503, -0.10419616103172302, 0.05383973568677902, 0.1453712284564972, 0.2806336581707001, 0.22691316902637482, 0.32104361057281494, -0.0291591789573431, 0.5451010465621948, -0.2676876187324524, -0.0008540186681784689, -0.2166031450033188, 0.3763859272003174, 0.37195202708244324, -0.32328546047210693, 0.013635052368044853, -0.20031629502773285, 0.41762465238571167, 0.1343993991613388, 0.26757490634918213, 0.40235233306884766, 0.3679325580596924, 0.48827940225601196, -0.2976838946342468, 0.171202152967453, -0.14742864668369293, 0.18122220039367676, -0.13015256822109222, -0.01564142480492592, -0.3130064308643341, -0.24185147881507874, 0.06843747198581696, 0.1359173059463501, 0.056343916803598404, 0.18181093037128448, -0.07694916427135468, 0.08391033858060837, 0.10027050971984863, -0.3987478017807007, -0.04934536665678024, 0.3110537827014923, 0.2792122960090637, 0.7393403053283691, 0.24629329144954681, 0.022889170795679092, 0.11117161810398102, -0.08905734121799469, 0.031090853735804558, 0.18314656615257263, -0.08262354880571365, -0.17487157881259918, 0.251130074262619, 0.0079073840752244, -0.42098456621170044, 0.13596978783607483, 0.06851352751255035, 0.2525178790092468, -0.16236425936222076, -0.34498822689056396, -0.18028903007507324, 0.04471443593502045, -0.024632958695292473, 0.06262895464897156, 0.051778487861156464, 0.028165118768811226, -0.20194977521896362, -0.2734357416629791, 0.20495451986789703, 0.13653072714805603, -0.25635021924972534, 0.04754019156098366, -0.07801812142133713, -0.32048535346984863, 0.060335803776979446, -0.08058898150920868, -0.15220454335212708, -0.18778455257415771, 0.20740178227424622, 0.1136971116065979, 0.10443422198295593, -0.15491464734077454, -0.24298052489757538, 0.09920651465654373, -0.04651447758078575, -0.015428833663463593, 0.08219780027866364, 0.11572572588920593, 0.09577949345111847, 0.09548728913068771, 0.0028428344521671534, 0.20293934643268585, -0.21634462475776672, -0.019471900537610054, 0.09520752727985382, -0.2427971065044403, 0.07768790423870087, 0.06894050538539886, -0.3331892490386963, -0.1103120744228363, 0.06871078163385391, -0.40668627619743347, -0.09850195050239563, -0.054619740694761276, 0.08691228926181793, -0.21306928992271423, -0.02787514217197895, 0.2669643461704254, -0.1096256896853447, 0.04215984046459198, 0.09359920769929886, 0.2934182584285736, -0.0039588711224496365, 0.23749586939811707, 0.14476904273033142, -0.01935621351003647, -0.04108252003788948, 0.3046855330467224, -0.020524077117443085, 0.026927165687084198, 0.3951876759529114, -0.05843239650130272, -0.006870143115520477, 0.22456984221935272, -0.0452403798699379, -0.218214750289917, -0.3438350558280945, 0.08123116195201874, 0.1196136400103569, 0.12772142887115479, -0.028135621920228004, 0.1525612771511078, -0.5313323140144348, 0.06966743618249893, 0.03230307996273041, -0.5922251343727112, 0.13983134925365448, -0.22868850827217102, 0.20303602516651154, 0.08736240118741989, 0.1783992052078247, -0.17998884618282318, -0.09191621840000153, -0.047715384513139725, -0.05968282371759415, 0.07207544147968292, 0.04217182472348213, -0.10264839977025986, -0.08182070404291153, 0.46622633934020996, 0.10667994618415833, -0.01249655894935131, -0.288429319858551, 0.5141467452049255, 0.006942369509488344, -0.3324999511241913, 0.23021022975444794, -0.030570559203624725, -0.040652085095644, 0.2560356557369232, 0.0647590234875679, 0.16643434762954712, -0.05555859953165054, -0.17357835173606873, -0.1478169709444046, 0.1422576904296875, -0.13912267982959747, -0.07416842877864838, 0.15622815489768982, -0.09610845148563385, -0.13288484513759613, 0.18925322592258453, -0.0664062649011612, -0.15219399333000183, 0.43668437004089355, -0.09736184775829315, -0.08338268846273422, -0.3350403904914856, -0.031867701560258865, 0.07434286922216415, 0.08833516389131546, 0.03458581492304802, -0.045894332230091095, 0.21280072629451752, 0.13477949798107147, -0.05422613024711609, -0.21677997708320618, -0.232573002576828, -0.2294902503490448, 0.03439006209373474, -0.025958174839615822, -0.03904905170202255, 6.821026909165084e-05, -0.030285021290183067, -0.16726501286029816, -0.07006368041038513, -0.10464970767498016, -0.0796266496181488, 0.06106492504477501, -0.08923060446977615, -0.013054943643510342, 0.0865568071603775, 0.029269643127918243, 0.061969365924596786, -0.13751552999019623, 0.08131930977106094, -0.11871518939733505, 0.4428924024105072, 0.06441303342580795, 0.027564795687794685, -0.07488546520471573, -0.2676045000553131, -0.021718787029385567, 0.2172657549381256, -0.047787781804800034, -0.16774097084999084, 0.19170735776424408, -0.024566413834691048, -0.06521150469779968, 0.10974319279193878, -0.14639337360858917, -0.18339842557907104, 0.025531688705086708, 0.05091220885515213, 0.02343061752617359, -0.7406385540962219, 0.11492764204740524, 0.12178975343704224, -0.31005093455314636, -0.3355024456977844, 0.05740334093570709, -0.04533371329307556, -0.15631546080112457, -0.07343602925539017, -0.054788801819086075, 0.04396814480423927, 0.06563253700733185, -0.5464738607406616, 0.09945656359195709, -0.16022486984729767, 0.05969514325261116, 0.00245224148966372, 0.23854947090148926, -0.594367504119873, 0.0537753663957119, 0.4819890558719635, -0.3010232746601105, -0.3398011028766632, 0.1999039500951767, -0.028641773387789726, -0.8152933716773987, -0.33384886384010315, 0.24603725969791412, 0.2970291078090668, 0.09644071757793427, 0.4526325762271881, 0.12154663354158401, 0.2077644318342209, 0.31355220079421997, 0.027531515806913376, -0.0857599526643753, 0.293208509683609, -0.030396820977330208, -0.2270805388689041, -0.23963519930839539, 0.18561479449272156, 0.0046599749475717545, 0.13233694434165955, -0.2560076117515564, -0.046778760850429535, 0.034443050622940063, -0.04831687733530998, -0.14397111535072327, 0.35226282477378845, 0.045210931450128555, -0.2632094919681549, -0.0454244390130043, -0.12917067110538483, -0.07199784368276596, 0.11311695724725723, 0.11654011160135269, -0.34077444672584534, -0.41663435101509094, 0.07911338657140732, 0.31666675209999084, -0.15512292087078094, -0.2576582431793213, 0.32304203510284424, 0.12496808171272278, -0.046296052634716034, -0.3137083649635315, 0.04781918600201607, -0.13095667958259583, -0.2808094322681427, 0.33425769209861755, -0.2560878396034241, 0.020641962066292763, 0.043391257524490356, 0.5302984118461609, 0.07834962010383606, 0.28430089354515076, -0.3171192705631256, 0.03848828002810478, 0.08995845168828964, -0.11877285689115524, 0.31814664602279663, 0.02033361792564392, -0.14143876731395721, -0.18408067524433136, -0.3649819791316986, 0.1858203411102295, -0.03329675644636154, -0.33366715908050537, 0.025604669004678726, -0.15503926575183868, -0.2870297431945801, 0.1930169016122818, -0.1453251987695694, 0.11240179091691971, -0.051746051758527756, -0.05392981320619583, -0.0151206711307168, -0.0973304808139801, 0.04517747461795807, 0.2151106894016266, -0.125444233417511, 0.05565541237592697, -0.29655012488365173, -0.07094193994998932, 0.09924327582120895, 0.24188300967216492, -0.019266312941908836, -0.04928046092391014, -0.15780644118785858, -0.291290819644928, 0.057682741433382034, 0.3456929922103882, 0.27519524097442627, -0.026519061997532845, -0.08188926428556442, 0.18876740336418152, -0.011089873500168324, -0.03757472708821297, 0.20100122690200806, 0.15386149287223816, 0.08248228579759598, 0.14517851173877716, 0.07160627096891403, -0.20089806616306305, 0.14781685173511505, -0.2589486837387085, -0.08327463269233704, 0.12096536159515381, -0.2216419279575348, -0.1748744398355484, 0.040180500596761703, -0.33136481046676636, -0.06809070706367493, -0.06042274460196495, 0.017318349331617355, 0.15211667120456696, -0.024607660248875618, 0.20055145025253296, -0.14300353825092316, 0.13968755304813385, 0.5403751134872437, 0.2817147970199585, 0.6465169787406921, 0.18943209946155548, 0.1417478770017624, 0.5180660486221313, 0.3866508901119232, 0.20194442570209503, 0.09020175784826279, 0.42335230112075806, 0.2053632140159607, -0.13934579491615295, -0.015659593045711517, -0.11573676764965057, -0.05920092761516571, 0.6033439040184021, 0.054304491728544235, 0.07759135961532593, -0.0393361896276474, 0.04989191144704819, 0.24121543765068054, -0.3216037154197693, -0.10860121250152588, -0.4552742838859558, -0.17714381217956543, -0.05493681877851486, -0.08106538653373718, 0.005611231550574303, 0.1237054243683815, -0.2484971135854721, -0.22019043564796448, -0.006870678160339594, 0.23362968862056732, -0.18390528857707977, -0.16076228022575378, 0.11473086476325989, -0.12013377994298935, -0.0708470568060875, 0.13567613065242767, -0.16660596430301666, -0.09401887655258179, 0.48313942551612854, 0.01726309210062027, -0.03620642051100731, -0.04937748983502388, -0.0014425787376239896, -0.047167710959911346, 0.08526390045881271, 0.020993337035179138, -0.22172994911670685, -0.22981096804141998, -0.5811516642570496, -0.24692492187023163, -0.225537970662117, 0.06604932993650436, 0.08709955215454102, 0.11028257757425308, 0.33167365193367004, 0.2854107618331909, -0.3045077919960022, 0.2778468430042267, 0.0997605174779892, 0.2451321929693222, 0.5522131323814392, 0.2261292189359665, 0.25849649310112, -0.40455374121665955, -0.47260844707489014, -0.09705998003482819, 0.241487517952919, 0.11152925342321396, -0.16515691578388214, -0.1513480842113495, 0.08236661553382874, -0.34619051218032837, -0.0007019070326350629, 0.013234248384833336, 0.18481096625328064, -0.0883055031299591, 0.04559826850891113, 0.18211109936237335, -0.14223439991474152, -0.008420553989708424, -0.12573011219501495, -0.048515982925891876, -0.02645191363990307, -0.04599523916840553, -0.3213595747947693, 0.09320935606956482, 0.3845691978931427, 0.13855955004692078, 0.05502835661172867, -0.021757841110229492, 0.07348030060529709, -0.15792307257652283, -0.0003977223241236061, -0.1535138040781021, -0.03260891139507294, 0.15906909108161926, -0.009903288446366787, 0.15444429218769073, 0.14235647022724152, -0.27479156851768494, -0.03576138615608215, -0.015352017246186733, -0.16123971343040466, -0.13192950189113617, 0.21342840790748596, -0.11662600934505463, -0.17016549408435822, -0.06955313682556152, -0.30009907484054565, -0.03443319723010063, -0.04716414585709572, 0.10121786594390869, -0.11253529042005539, -0.24784031510353088, -0.058711253106594086, -0.11903632432222366, 0.18340721726417542, 0.002898070029914379, 0.023054659366607666, -0.2506965100765228, 0.262697696685791, -0.16571977734565735, 0.14009679853916168, -0.2056657373905182, 0.07595375180244446, -0.3201702833175659, -0.11331015825271606, -0.06677587330341339, 0.05916811153292656, -0.2160758078098297, -0.010153974406421185, 0.07349152863025665, -0.37943923473358154, 0.1879914551973343, -0.024051843211054802, 0.21222637593746185, -0.06883803009986877, 0.37477216124534607, -0.02334042452275753, -0.06877043098211288, 0.1431288719177246, 0.22039321064949036, -0.2794644832611084, -0.4871930778026581, -0.14058567583560944, 0.4899417459964752, -0.035240527242422104, 0.04501490667462349, -0.08933307230472565, -0.35330280661582947, -0.15453530848026276, -0.27971765398979187, 0.809476375579834, 0.34375229477882385, -0.0627022311091423, -0.6981182098388672, 0.4171464741230011, -0.12910643219947815, -0.28724366426467896, 0.36458027362823486, 0.09598853439092636, 0.314846009016037, 0.08827377110719681, -0.6358222365379333, -0.00935346819460392, -0.059306804090738297, -0.10452692210674286, -0.2705896496772766, 0.0036417199298739433, -0.14078553020954132, 0.18713128566741943, 0.19241736829280853, -0.3076639175415039, 0.0874074399471283, -0.3822009861469269, 0.47337350249290466, 0.17977409064769745, 0.19274236261844635, -0.0072823166847229, -0.010433818213641644, 0.26408129930496216, -0.12200083583593369, -0.0029643948655575514, -0.40930792689323425, 0.18825663626194, -0.08756221830844879, 0.1259903460741043, 0.09628859162330627, -0.19587472081184387, 0.09644041955471039, -0.04799148067831993, -0.2691272795200348, -0.3439672589302063, -0.10237011313438416, 0.2170732468366623, 0.008069840259850025, -0.06852889060974121, -0.2308301478624344, 0.09376832842826843, -0.09674768894910812, -0.42259183526039124, -0.017121195793151855, -0.1778683364391327, -0.035249706357717514, -0.17240187525749207, -0.22191040217876434, 0.2191086709499359, -0.19165314733982086, 0.401710569858551, 0.3908279240131378, -0.2685723304748535, 0.3036634624004364, -0.1378432959318161, 0.1923961043357849, -0.07922516018152237, 0.08206037431955338, -0.2561575472354889, 0.35445454716682434, -0.1399240791797638, -0.03258707746863365, 0.22501836717128754, 0.3931633532047272, 0.0251542329788208, -0.1948976367712021, 0.3218192756175995, -0.13696084916591644, -0.07818049937486649, -0.2193630188703537, -0.16946253180503845, -0.28955790400505066, -0.38638460636138916, 0.03496890142560005, -0.2576170265674591, 0.35231488943099976, -0.33601370453834534, -0.22633127868175507, -0.1918477863073349, 0.1547589898109436, 0.12367792427539825, 0.2943120002746582, -0.3646794557571411, -0.06391724944114685, -0.27868416905403137, -0.11450386792421341, 0.022882886230945587, 0.17512764036655426, -0.24031628668308258, 0.5502623319625854, -0.5091904997825623, 0.3114515244960785, 0.2921302020549774, -0.5880780816078186, -0.2515452802181244, 0.24183142185211182, 0.12772145867347717, -0.5311721563339233, 0.39967358112335205, -0.18267710506916046, 0.08769776672124863, 0.11053125560283661, 0.32498836517333984, -0.0049032834358513355, 0.046229615807533264, 0.1174352616071701, 0.18452709913253784, 0.04042154178023338, 0.03413728252053261, 0.009491756558418274, 0.1489180326461792, -0.1969759464263916, 0.3144111931324005, -0.18868522346019745, 0.17808125913143158, -0.24484573304653168, 0.17784099280834198, 0.15966551005840302, 0.02663445472717285, -0.14481016993522644, 0.04907720908522606, -0.1023450642824173, -0.10926229506731033, -0.19101475179195404, -0.2197439968585968, 0.09197992831468582, 0.06695722788572311, 0.14125174283981323, -0.0034329178743064404, 0.3459983170032501, -0.1645825207233429, -0.23353378474712372, 0.2716279625892639, -0.20158271491527557, 0.3936638832092285, -0.06199943274259567, -0.07595862448215485, 0.16155807673931122, 0.07819323986768723, 0.10914117097854614, -0.0837286189198494, 0.09686227142810822, 0.04615836590528488, -0.09287451952695847, -0.06153976917266846, -0.09224921464920044, 0.3047531247138977, 0.3757622241973877, 0.3073241710662842, -0.07350683957338333, -0.1102995052933693, -0.2669263482093811, 0.031318336725234985, -0.23973120748996735, -0.2507191598415375, 0.336739182472229, 0.06708444654941559, 0.1047728881239891, -0.3515468239784241, 0.11947353929281235, 0.502054750919342, -0.5235480070114136, 0.002008227165788412, -0.013346671126782894, 0.4421945810317993, -0.16025406122207642, -0.25108158588409424, 0.5384852290153503, 0.04304013401269913, -0.13502751290798187, -0.3789989948272705, -0.15816928446292877, -0.2075563669204712, 0.5465755462646484, 0.03037874400615692, 0.11740115284919739, -0.01223328709602356, 0.13502183556556702, -0.012691131792962551, -0.2615922689437866, -0.011830383911728859, -0.045397013425827026, 0.05482804775238037, -0.23638196289539337, -0.3180295526981354, -0.14044392108917236, 0.15841390192508698, -0.03014182671904564, 0.16894397139549255, -0.05791103094816208, 0.72425377368927, -0.4231530427932739, -0.2265082150697708, 0.030229194089770317, -0.1893327832221985, 0.333645761013031, -0.09613025188446045, -0.13401462137699127, -0.2158445566892624, 0.34752312302589417, 0.1583222895860672, -0.7346558570861816, 0.42877259850502014, -0.5728362798690796, 0.22526344656944275, -0.0016317989211529493, -0.15644776821136475, 0.3936310112476349, 0.45689257979393005, -0.10144523531198502, -0.18454809486865997, 0.10643474012613297, 0.24674811959266663, 0.219578355550766, 0.0465342216193676, -0.09373059123754501, -0.030835546553134918, 0.11532564461231232, 0.016065146774053574, -0.5880134105682373, -0.14092473685741425, -0.045091260224580765, 0.22383180260658264, 0.02491024322807789, 0.253961443901062, -0.06868861615657806, 0.09059473872184753, -0.14005473256111145, -0.050260454416275024, 0.27716076374053955, 0.024879304692149162, -0.08629924058914185, -0.27363020181655884, -0.23615309596061707, -0.044962991029024124, -0.2396174520254135, 0.037000492215156555, -0.4424373507499695, 0.014917354099452496, 0.0475170835852623, -0.3113066554069519, 0.09005091339349747, -0.050202082842588425, -0.10803836584091187, -0.023333650082349777, -0.04423648864030838, -0.2787805199623108, 0.13314738869667053, -0.11876384168863297, 0.10875409096479416, -0.20348164439201355, -0.2582826316356659, 0.07457070797681808, -0.07495272159576416, 0.12805457413196564, 0.3018297851085663, 0.1423998326063156, -0.09013962000608444, -0.13317181169986725, 0.1552663892507553, -0.16799508035182953, -0.18798674643039703, -0.11268594115972519, 0.23094689846038818, -0.10788214206695557, -0.061376314610242844, 0.13763438165187836, -0.23961253464221954, -0.016353586688637733, 0.0776677057147026, 0.03049202635884285, -0.19377313554286957, 0.07329830527305603, -0.19095616042613983, -0.06042269617319107, 0.4175752103328705, -0.44526055455207825, -0.039107225835323334, 0.2683112323284149, 0.2566201388835907, 0.015194907784461975, -0.1990441381931305, -0.033561285585165024, 0.18685579299926758, 0.004264054354280233, 0.19777658581733704, -0.4144567549228668, -0.09407097846269608, 0.21727924048900604, 0.07686080783605576, 0.2912653684616089, 0.15412716567516327, -0.20598748326301575, -0.17036083340644836, 0.059618301689624786, -0.18086551129817963, -0.1836153268814087, -0.2570791244506836, 0.15846037864685059, -0.07497130334377289, -0.14662638306617737, -0.10085136443376541, 0.14835211634635925, 0.22706003487110138, -0.17969517409801483, -0.10689341276884079, -0.03171473369002342, -0.23964372277259827, -0.06394098699092865, -0.18978707492351532, -0.10611233115196228, -0.0430021733045578, -0.14256294071674347, 0.1528259664773941, 0.026139654219150543, 0.2708376944065094, -0.1997576355934143, -0.08712346851825714, -0.15844452381134033, 0.21098482608795166, 0.027783622965216637, -0.13476240634918213, 0.3033943474292755, -0.028180314227938652, 0.006041946355253458, -0.24039152264595032, -0.06121928244829178, -0.08244219422340393, -0.9935544729232788, 0.011686839163303375, -0.03584006428718567, -0.26555630564689636, 0.05711999535560608, 0.09950230270624161, -0.5904370546340942, 0.12046988308429718, -0.04017423838376999, -0.24591632187366486, -0.03178754076361656, 0.4435950815677643, 0.5803526639938354, 0.9625600576400757, -0.07353367656469345, -0.015040903352200985, -0.19111743569374084, -0.14456774294376373, -0.26970088481903076, -0.5226996541023254, 0.1413639932870865, -0.37645572423934937, 0.3471851646900177, -0.28069573640823364, -0.38898295164108276, -0.019789880141615868, 0.6229950189590454, 0.3174944221973419, 0.3899195194244385, 0.07308360189199448, 0.20244605839252472, 0.3230377435684204, -0.14861197769641876, -0.18478818237781525, 0.4095229506492615, -0.024439075961709023, -0.38647401332855225, 0.11792130768299103, 0.5857638120651245, 0.33612945675849915, 0.3497712314128876, 0.11226092278957367, 0.25785669684410095, 0.4323224723339081, 0.38665691018104553, 0.45230481028556824, 0.6218852400779724, 0.10006992518901825, 0.3411542475223541, 0.04392628371715546, 0.2619403600692749, 0.49509310722351074, -0.0865897461771965, -0.025380557402968407, 0.08277422189712524, 0.09465792775154114, 0.19388411939144135, 0.36649665236473083, -0.11954881995916367, 0.18694566190242767, 0.10965532064437866, -0.24961332976818085, 0.1612979918718338, 0.20430698990821838, -0.29215216636657715, -0.015496033243834972, 0.12389063090085983, 0.2880038321018219, 0.3304835855960846, 0.49062302708625793, -0.17649786174297333, 0.15775926411151886, 0.1283036470413208, 0.49472787976264954, -0.6960284113883972, -1.0593576431274414, 0.04010039567947388, -0.3009347915649414, -0.34181123971939087, -0.9604137539863586, -0.9159774780273438, -0.7056224942207336, -0.24009908735752106, 0.25087329745292664, 0.10059121251106262, 0.06820548325777054, 0.44299259781837463, -1.098070740699768, 0.5162013173103333, 0.06487840414047241, -0.30564257502555847, 0.17580491304397583, 0.01069047674536705, 0.3280353248119354, -0.17692877352237701, -0.3606133460998535, 0.4771820902824402, 0.511894166469574, -0.1909002810716629, -0.42128974199295044, 0.35084548592567444, 0.10395630449056625, -0.0014933901838958263, -0.2101275771856308, 0.3392888009548187, 0.4261592924594879, -0.2670954167842865, -0.3541821241378784, -0.3490866422653198, 0.024935152381658554, 0.1527022123336792, -0.15638025104999542, 0.19249574840068817, -0.04942520335316658, 0.03483114391565323, 0.3074106276035309, -0.01368783600628376, -0.16464883089065552, 0.2218855619430542, -0.07676491141319275, 0.335326224565506, 0.23061232268810272, -0.1592995524406433, 0.27434617280960083, -0.253106951713562, 0.010914860293269157, 0.3432861268520355, -0.0571773387491703, -0.2649831175804138, -0.008617316372692585, -0.06583931297063828, 0.2950352728366852, 0.261302649974823, 0.05107126012444496, 0.057055823504924774, -0.027081187814474106, -0.04337780922651291, 0.38126662373542786, -0.02193238027393818, 0.05404823273420334, 0.3860498070716858, -0.42418035864830017, -0.0513206385076046, 0.06343654543161392, 0.16116978228092194, -0.06297669559717178, 0.2553795278072357, 0.07850970327854156, -0.2580565810203552, -0.1271260529756546, 0.014863165095448494, -0.1749483197927475, -0.3550698757171631, 0.20208048820495605, 0.22684073448181152, 0.020010435953736305, -0.11398853361606598, -0.48927727341651917, -0.263322651386261, -0.10183567553758621, -0.012310673482716084, 0.002899226499721408, -0.31802961230278015, -0.5073922276496887, 0.04199259728193283, -0.054529108107089996, -0.596342146396637, -0.0461849644780159, 0.8458832502365112, -0.28717562556266785, -0.19132202863693237, 0.6778228878974915, 0.5294661521911621, -0.34374499320983887, -0.1569894552230835, 0.4831800162792206, -0.31909650564193726, -0.185316801071167, 0.08301880955696106, 0.4319779872894287, 0.5175943374633789, -0.2848261892795563, -0.04480748623609543, -0.3571324944496155, 0.04604007676243782, -0.29079174995422363, 0.4956951439380646, 0.047909755259752274, -0.10102450847625732, 0.1767621636390686, -0.06921316683292389, -0.0185965858399868, 0.15230557322502136, -0.22873128950595856, 0.1236240416765213, -0.43935683369636536, 0.10895347595214844, -0.06349823623895645, 0.25532668828964233, 0.16153447329998016, -0.15814751386642456, -0.43995171785354614, 0.036923836916685104, -0.013038961216807365, -0.005852178204804659, 0.05395042523741722, 0.0851084515452385, 0.26750507950782776, 0.23080049455165863, 0.24111033976078033, 0.02917848713696003, 0.32207396626472473, -0.210773304104805, -0.0505213662981987, 0.24171917140483856, -0.01875593513250351, 0.15359723567962646, 0.06780710816383362, -0.12388521432876587, -0.04368254542350769, 0.21172447502613068, -0.17152509093284607, 0.03380225971341133, -0.08990520983934402, -0.0859629288315773, 0.11434181779623032, -0.006819402799010277, -0.28234612941741943, -0.08639276027679443, 0.3690192699432373, -0.13823279738426208, -0.15340116620063782, -0.17703205347061157, 0.09669321775436401, -0.08491048216819763, -0.3776504695415497, -0.1139831393957138, 0.13630032539367676, 0.0274595245718956, 0.3849446773529053, -0.04545251652598381, 0.1256416290998459, 0.20736688375473022, -0.3945862352848053, 0.5123275518417358, 0.4494401216506958, -0.252458781003952, -0.6524612307548523, 0.0044832187704741955, 0.22336578369140625, -0.38356995582580566, 0.24924828112125397, -0.2398804873228073, -0.4953600764274597, 0.2561475336551666, -0.5486046671867371, 0.2216903567314148, -0.05658560246229172, -0.23191185295581818, -0.3600299656391144, -0.31514298915863037, 0.17274752259254456, -0.02153925783932209, -0.10091064125299454, 0.12551307678222656, 0.18211671710014343, 0.10023770481348038, 0.12043456733226776, 0.32279688119888306, -0.2915196418762207, 0.13357309997081757, -0.09506554901599884, 0.34791913628578186, 0.04838729277253151, 0.37180307507514954, -0.06043326109647751, 0.07947909832000732, 0.1425098031759262, 0.11621757596731186, 0.03546031564474106, 0.07015205174684525, -0.6841636300086975, 0.01681932806968689, -0.1830519437789917, 0.06772938370704651, -0.12707257270812988, -0.06881266087293625, 0.06392090767621994, 0.1126878559589386, -0.1510968953371048, -0.10087615251541138, 0.23551324009895325, 0.029107147827744484, -0.20107406377792358, -0.19424594938755035, 0.0013004143256694078, 0.15872113406658173, 0.06790299713611603, -0.12054813653230667, 0.2856908440589905, -0.241374209523201, 0.20028899610042572, -0.29269665479660034, -0.016666695475578308, -0.1617707759141922, -0.055086132138967514, 0.021112345159053802, -0.14162670075893402, -0.4228292405605316, 0.007215114776045084, -0.01155892014503479, 0.04818393290042877, 0.054794151335954666, -0.23796045780181885, -0.1434638500213623, -0.9226818680763245, -0.7618789672851562, -0.18516582250595093, -0.031081443652510643, -0.16829000413417816, -0.30697181820869446, 0.03559073060750961, 0.03433734551072121, -0.26706042885780334, 0.3945354223251343, 0.3715643882751465, -0.24000653624534607, -0.11582329124212265, -0.40846505761146545, 0.010968306101858616, 0.33985480666160583, -0.49252769351005554, -0.22524906694889069, -0.003786442568525672, 0.019501475617289543, -0.16484799981117249, -0.24680308997631073, 0.30945736169815063, -0.13342975080013275, -0.009138845838606358, -0.030190832912921906, 0.08274392783641815, 0.12223326414823532, 0.04236435517668724, -0.2605968713760376, -0.29290544986724854, 0.14514046907424927, -0.020815037190914154, 0.5604398250579834, -0.07464556396007538, 0.23277223110198975, -0.14668889343738556, 0.030817421153187752, -0.030369024723768234, -0.05237598344683647, -0.2067316174507141, 0.403898686170578, -0.3889303207397461, -0.2298569530248642, 0.00577931385487318, 0.26084211468696594, 0.33875778317451477, -0.3012310564517975, -0.0036037249956279993, 0.33487066626548767, 0.06597781926393509, -0.05213099718093872, -0.07383067905902863, -0.12599508464336395, -0.10089123994112015, -0.18373125791549683, 0.3857710063457489, 0.28957152366638184, 0.325552374124527, -0.09923721849918365, 0.36551082134246826, -0.25802406668663025, -0.20108956098556519, -0.3062002658843994, -0.1270204335451126, 0.18133479356765747, 0.38373807072639465, 0.18111172318458557, -0.22391080856323242, 0.019885331392288208, 0.10058901458978653, -0.12730960547924042, -0.23546868562698364, 0.04924918711185455, -0.22097112238407135, -0.259519100189209, -0.17520880699157715, -1.2768657207489014, 0.26812130212783813, 0.5241039395332336, -0.03731652349233627, 0.26111841201782227, 1.23684561252594, -0.6819041967391968, -0.05204014852643013, -0.4433939754962921, 0.0886106938123703, -0.8488317728042603, -0.3259212076663971, 0.2632082998752594, -0.12610693275928497, 0.6200485229492188, -0.5583227872848511, 0.2575127184391022, 0.10942275822162628, 0.7670154571533203, 0.025847189128398895, 0.417045921087265, 0.11781667917966843, -0.1986927092075348, 0.2273140400648117, 0.17160087823867798, -0.06281019747257233, -0.1445624977350235, -0.07403171807527542, 0.23629502952098846, -0.05235655978322029, -0.09101647883653641, 0.2645511329174042, 0.018287457525730133, 0.3859322965145111, -0.083902508020401, 0.12077038735151291, -0.15463314950466156, 0.04068821296095848, -0.288146048784256, -0.1482277661561966, 0.19672085344791412, 0.06551006436347961, 0.0033948756754398346, -0.08496372401714325, 0.22396230697631836, 0.1923491358757019, -0.2789148986339569, 0.07345118373632431, 0.1729348748922348, -0.17179685831069946, -0.13841551542282104, 0.031381525099277496, 0.03964860364794731, -0.07359015941619873, -0.1762172430753708, -0.11454029381275177, 0.05611144006252289, -0.26851513981819153, 0.09296941757202148, -0.10009711980819702, -0.016128936782479286, 0.01115624699741602, 0.18377543985843658, -0.11848638206720352, -0.15134412050247192, -0.0434814877808094, 0.3255670368671417, -0.2487248033285141, -0.2012862265110016, -0.10278275609016418, 0.023447012528777122, 0.17769759893417358, -0.0965416356921196, 0.11243602633476257, 0.05834272876381874, -0.6417895555496216, 0.026788294315338135, 0.13321523368358612, 0.002979397075250745, 0.4336808919906616, -0.9813298583030701, 0.7123208045959473, -0.44479843974113464, 0.24660249054431915, -0.9915018677711487, 0.06183255463838577, 0.16545256972312927, 0.05624820291996002, 0.07759062200784683, 0.04123176634311676, 0.5859585404396057, 0.45008033514022827, 0.8174899816513062, -0.3909309506416321, -0.24246202409267426, -0.2812112271785736, 0.15610025823116302, -0.3550475239753723, -0.4257509112358093, -0.036699529737234116, -0.11457232385873795, -0.08407337963581085, -0.24843865633010864, -0.1416318416595459, 0.4587334990501404, -0.0021907712798565626, 0.028171902522444725, 0.13169796764850616, 0.2691388726234436, 0.26740461587905884, -0.3482697308063507, 0.00891063641756773, 0.14808742702007294, -0.23161017894744873, -0.11597501486539841, -0.004650874529033899, -0.04433896020054817, -0.08934102207422256, -0.13468106091022491, -0.31940197944641113, 0.14988361299037933, 0.006592830643057823, 0.20609501004219055, -0.019732527434825897, -0.3071753680706024, 0.014494454488158226, -0.1890387088060379, 0.01920066401362419, 0.3503088355064392, -0.09075924754142761, -0.17065779864788055, -0.03498811274766922, 0.27090373635292053, 0.2855375409126282, -0.2253132313489914, -0.0979587733745575, -0.025042010471224785, -0.5469666123390198, 0.24466989934444427, -0.03973746299743652, -0.16063089668750763, -0.04265386238694191, 0.07326820492744446, 0.5623234510421753, -0.17507275938987732, 0.0169355645775795, -0.7144938707351685, -0.09579584002494812, -0.03659411519765854, 0.04287105053663254, 0.4488558769226074, 0.12388429045677185, -0.09821515530347824, -0.49133554100990295, 0.23982474207878113, -0.007968831807374954, 0.3776088058948517, -0.1766332983970642, 0.6636679172515869, -0.33017557859420776, 0.28045883774757385, -0.41052305698394775, 0.544167697429657, -0.9687994122505188, 0.7510606646537781, -0.24363817274570465, -0.45225396752357483, 0.7062487006187439, -0.458076149225235, 0.09746452420949936, 0.6014446020126343, -0.16413019597530365, -0.1221768707036972, 0.23557361960411072, 0.1488664746284485, -0.10631336271762848, -0.22891339659690857, -0.18211501836776733, 0.03702222928404808, -0.29660704731941223, 0.4135238826274872, -0.1802608072757721, -0.2686861753463745, -0.21159355342388153, 0.23402176797389984, 0.44810330867767334, -0.04278231039643288, -0.057653699070215225, -0.1851656585931778, -0.10112400352954865, -0.05096801370382309, -0.2435828596353531, 0.31394484639167786, -0.05734867602586746, -0.1331416219472885, -0.024508068338036537, 0.11331335455179214, 0.3675261437892914, -0.25212371349334717, 0.027423357591032982, -0.39496639370918274, -0.016498206183314323, -0.25423792004585266, -0.25045904517173767, 0.4271881580352783, -0.0006269126897677779, -0.13829147815704346, -0.10012839734554291, 0.19346760213375092, 0.3470621705055237, -0.2592172622680664, 0.08288782089948654, 0.11521965265274048, 0.0580470971763134, 0.2767121195793152, 0.456297367811203, 0.18141783773899078, 0.05847226828336716, 0.004360138438642025, 0.039407454431056976, -0.19125136733055115, -0.37593531608581543, -0.006807419937103987, 0.16506579518318176, -0.21869605779647827, -0.24160228669643402, 0.032122816890478134, 0.017370255663990974, -0.35970571637153625, -0.32223841547966003, 0.6657873392105103, 0.29806289076805115, -0.21826666593551636, -0.33307287096977234, -0.1532159000635147, -0.4866144359111786, -0.11468486487865448, -0.6571167707443237, -0.28197285532951355, -0.23431621491909027, -1.015491008758545, -0.10817403346300125, 0.904011070728302, 0.4153197407722473, 0.4803136885166168, 0.03798941895365715, -0.11064808815717697, 0.28839829564094543, -0.3674640357494354, 0.3825070559978485, -0.37139010429382324, 0.07393685728311539, -0.12035492807626724, -0.05483125522732735, -0.27591970562934875, -0.5621408224105835, 0.20453913509845734, 0.047622840851545334, 0.02122482843697071, -0.2609856128692627, 0.09719344973564148, 0.386003315448761, -0.3054252862930298, -0.054750293493270874, -0.17169860005378723, 0.2623858153820038, -0.11615606397390366, -0.3755117952823639, 0.23744450509548187, -0.036337096244096756, -0.02759326808154583, 0.017434198409318924, 0.03655387461185455, 0.29580965638160706, 0.36460310220718384, 0.03396022319793701, -0.13760797679424286, 0.12611359357833862, 0.040237750858068466, -0.4211970865726471, -0.09769866615533829, 0.13176973164081573, 0.11243439465761185, -0.005368685349822044, -0.0591176301240921, 0.2405194342136383, 0.1727248579263687, 0.041640300303697586, 0.15522074699401855, 0.13215748965740204, 0.06785022467374802, 0.4911445677280426, 0.019385118037462234, 0.04191749542951584, -0.01285633910447359, 0.6302251815795898, -0.05704416334629059, -0.3227575421333313, -0.18196767568588257, -0.25575411319732666, 0.35166212916374207, -0.05323917791247368, -0.0063753086142241955, -0.08908423036336899, -0.42486584186553955, 0.6586467027664185, -0.17912916839122772, 0.19675631821155548, -0.04619104415178299, -0.27289581298828125, 0.8194969892501831, -0.0016213225899264216, -0.13364963233470917, -0.07937686890363693, 0.33675986528396606, 0.12669847905635834, -0.014203617349267006, 0.22524972259998322, -0.5588958859443665, 0.6074777245521545, 0.39464592933654785, 0.13033093512058258, 0.42434173822402954, -0.1999860405921936, 0.21759992837905884, 0.056284163147211075, 0.19311869144439697, -0.15339528024196625, -0.22500500082969666, 0.5633491277694702, 0.0672774687409401, 0.17618218064308167, 0.22909170389175415, -0.03586019203066826, -0.09146741777658463, 0.008242650888860226, -0.02678905613720417, 0.009957389906048775, 0.6264111399650574, 0.06755860149860382, -0.06082499772310257, 0.059444501996040344, 0.001120682107284665, 0.17552004754543304, -0.1927444040775299, 0.03784700110554695, -0.08432421833276749, -0.5106406807899475, -0.02339903637766838, -0.026507465168833733, -0.06052866950631142, 0.06994899362325668, -0.07505646347999573, 0.34826430678367615, 0.05087989568710327, 0.23806630074977875, 0.26228606700897217, -0.010381706990301609, -0.064642995595932, -0.10717447847127914, -0.07291696220636368, -0.0666644275188446, 0.91470867395401, 0.027755657210946083, 0.09353429824113846, -0.23419812321662903, -0.14570945501327515, -0.14663800597190857, 0.06890832632780075, 0.035900264978408813, 0.03262452408671379, 0.22420845925807953, 0.07226759940385818, 0.13225515186786652, -0.19330810010433197, 0.010059058666229248, -0.1678202748298645, 0.2793991267681122, -0.22099287807941437, 0.637021541595459, -0.3601568937301636, -0.5733827352523804, -0.30990418791770935, -0.12091034650802612, -0.04836457967758179, -0.23046547174453735, 0.3559243679046631, 0.2869518995285034, -0.44128191471099854, -0.050015389919281006, 0.1681065559387207, 0.4823986291885376, -0.11955636739730835, 0.3069649934768677, -0.028011441230773926, -0.1917715072631836, 0.30598050355911255, -0.4455450773239136, 0.41890019178390503, 0.4994143843650818, -0.1365121603012085, 0.1975109577178955, 0.49860215187072754, 0.7563628554344177, 1.053717851638794, 0.9195760488510132, -0.8081015944480896, 0.1915038377046585, 0.019999999552965164]}