{"version": "0.5.1", "metadata": {"date": {"year": 2023, "month": 4, "day": 28, "hour": 1, "minute": 0, "second": 55}, "loudness": -16.267900466918945, "gain": 0.22289286806153702, "name": "Fulltone OCD v1.2", "modeled_by": "Jesco", "gear_type": "pedal", "gear_make": "Fulltone", "gear_model": "OCD v1.2", "tone_type": "overdrive"}, "architecture": "WaveNet", "config": {"layers": [{"input_size": 1, "condition_size": 1, "head_size": 4, "channels": 8, "kernel_size": 3, "dilations": [1, 2, 4, 8, 16, 32, 64], "activation": "Tanh", "gated": false, "head_bias": false}, {"input_size": 8, "condition_size": 1, "head_size": 1, "channels": 4, "kernel_size": 3, "dilations": [128, 256, 512, 1, 2, 4, 8, 16, 32, 64, 128, 256, 512], "activation": "Tanh", "gated": false, "head_bias": true}], "head": null, "head_scale": 0.02}, "weights": [0.18190819025039673, 0.49574196338653564, -0.7989943027496338, -0.4336612820625305, -0.3406897485256195, 0.03971293196082115, -0.33846035599708557, 0.7276089787483215, 0.10844165831804276, -0.058861080557107925, 0.1034083366394043, -0.012732398696243763, -0.3568993806838989, -0.06834899634122849, -0.10790875554084778, 0.1770387887954712, 0.017938686534762383, 0.11154832690954208, 0.03440594673156738, -0.13864600658416748, 0.04296676442027092, 0.32462620735168457, -0.1129455417394638, 0.11454414576292038, -0.21378162503242493, -0.009298460558056831, 0.12694916129112244, -0.02055693045258522, -0.23232591152191162, -0.030532369390130043, -0.24807868897914886, 0.2368389368057251, -0.25400370359420776, -0.02080565132200718, -0.21468804776668549, -0.2769143283367157, -0.02652221918106079, 0.15670835971832275, 0.17234311997890472, 0.0006280808593146503, 0.026557397097349167, -0.038286808878183365, -0.07623221725225449, -0.18177543580532074, -0.061651136726140976, -0.1949067860841751, 0.15057718753814697, 0.06033601611852646, 0.011102677322924137, -0.014381993561983109, 0.21756277978420258, 0.10702772438526154, 0.11086806654930115, -0.053815413266420364, 0.23336999118328094, -0.13628587126731873, 0.009772591292858124, -0.21475954353809357, 0.04812569171190262, -0.11491506546735764, 0.07509125024080276, 0.25380730628967285, -0.1045958623290062, 0.08741319179534912, -0.055676814168691635, 0.002457206603139639, 0.040150586515665054, -0.11001376062631607, 0.13471154868602753, 0.21074391901493073, -0.33007341623306274, -0.23376186192035675, -0.06547939777374268, 0.1568395495414734, 0.17232541739940643, 0.1997072547674179, -0.17605486512184143, -0.1923789530992508, -0.003664156887680292, 0.040163930505514145, -0.05146326869726181, 0.19462837278842926, 0.3081459701061249, -0.19881746172904968, -0.0366528257727623, -0.004658281337469816, -0.03952678665518761, -0.016078105196356773, 0.04928518459200859, -0.11997038125991821, 0.1555054783821106, 0.08659470081329346, 0.13751983642578125, 0.14642979204654694, -0.23465678095817566, -0.11242195218801498, 0.08386091142892838, 0.07561575621366501, -0.21137787401676178, -0.05427567660808563, 0.11967595666646957, 0.13813120126724243, -0.1689237654209137, -0.02699652500450611, -0.07107274234294891, -0.31628352403640747, -0.06344559788703918, -0.013910537585616112, -0.26217228174209595, 0.15926489233970642, -0.2214207947254181, 0.38135093450546265, -0.2455318570137024, 0.06140134483575821, 0.40488743782043457, -0.2781561017036438, -0.1988573521375656, 0.25031593441963196, -0.10459570586681366, 0.11371053010225296, -0.22135981917381287, 0.002805645577609539, -0.24512909352779388, 0.37487366795539856, -0.32998546957969666, 0.014995978213846684, -0.30908411741256714, 0.02154782973229885, 0.04628323018550873, -0.1892918348312378, 0.20331135392189026, 0.11541453003883362, -0.18223966658115387, 0.1805066168308258, 0.0794810876250267, 0.03519579768180847, -0.18162579834461212, -0.07342184334993362, 0.10761711001396179, -0.039900150150060654, 0.118465356528759, 0.17403608560562134, 0.0007488989504054189, -0.08166124671697617, -0.37443700432777405, -0.11819758266210556, 0.03456965833902359, 0.03113461658358574, -0.3384051024913788, -0.08841285854578018, -0.24391278624534607, 0.01600584387779236, -0.26967719197273254, 0.20635774731636047, -0.02884005941450596, -0.33624446392059326, 0.26471322774887085, -0.22031950950622559, 0.09673026204109192, -0.2234923243522644, 0.020578449591994286, 0.08235607296228409, -0.33249807357788086, -0.13302557170391083, 0.11120873689651489, -0.12701177597045898, -0.027346812188625336, -0.09666646271944046, -0.12346530705690384, -0.09395891427993774, 0.3587370812892914, -0.21692025661468506, 0.27615055441856384, -0.06024182587862015, -0.04151903837919235, 0.07378889620304108, 0.10767984390258789, -0.23771312832832336, 0.311190664768219, -0.10417208820581436, -0.17508694529533386, 0.03231081739068031, 0.08539554476737976, 0.2570195198059082, 0.02337503992021084, 0.034599337726831436, 0.16240526735782623, -0.09044279903173447, -0.23106029629707336, 0.30172351002693176, 0.08541275560855865, 0.17553092539310455, -0.3128434717655182, 0.014971379190683365, -0.2149042785167694, 0.10608436912298203, -0.20762746036052704, 0.12464747577905655, -0.3244066834449768, 0.0647556409239769, 0.04242704436182976, 0.06167520210146904, -0.09232296794652939, -0.21978460252285004, -0.06900104135274887, 0.02669195458292961, -0.1394500434398651, 0.020572464913129807, 0.41381996870040894, 0.11540098488330841, 0.15293750166893005, -0.17773225903511047, 0.23713426291942596, -0.046011749655008316, -0.05719401687383652, 0.1958773136138916, -0.24151037633419037, 0.06383499503135681, 0.128082275390625, -0.3701278269290924, -0.1427210569381714, 0.17620550096035004, 0.1892935335636139, -0.09732659161090851, -0.18605177104473114, 0.24533957242965698, -0.19652067124843597, -0.10308930277824402, -0.3154228925704956, 0.12296035140752792, -0.12716259062290192, 0.3302033543586731, 0.13949087262153625, 0.3699369728565216, 0.23635321855545044, -0.2741434574127197, 0.24140317738056183, -0.15115860104560852, -0.07396790385246277, 0.2033616006374359, -0.08076860010623932, 0.22031304240226746, -0.1295539140701294, 0.022728538140654564, -0.10855121165513992, -0.37275761365890503, 0.4197040796279907, -0.39949125051498413, -0.04872980713844299, -0.06989533454179764, -0.26086366176605225, -0.054035935550928116, 0.4085160195827484, -0.1943981945514679, -0.13484375178813934, -0.1287994682788849, -0.09663084149360657, 0.05434142425656319, -0.03421955183148384, -0.035559725016355515, 0.1571337878704071, 0.27971723675727844, 0.0789223313331604, 0.4294601082801819, -0.026895202696323395, -0.1402093470096588, -0.09876736998558044, 0.13727080821990967, 0.16736306250095367, 0.12599395215511322, -0.1699148416519165, -0.11327823996543884, -0.1508176177740097, -0.010844827629625797, -0.10354321449995041, -0.2559327483177185, 0.4384940266609192, -0.23279966413974762, -0.28881752490997314, 0.11682315170764923, 0.08393076062202454, -0.14861606061458588, -0.1939234882593155, 0.2019582837820053, 0.0735592171549797, 0.1580304652452469, -0.10853834450244904, 0.0770457461476326, -0.09696725755929947, 0.11607114225625992, -0.12824954092502594, 0.2176075130701065, 0.07876357436180115, -0.16558367013931274, -0.16526274383068085, -0.1741962730884552, 0.2571635842323303, -0.1400792896747589, 0.12227068841457367, -0.07077798992395401, -0.24438364803791046, -0.05793406441807747, 0.0274848360568285, -0.013728322461247444, 0.048740219324827194, -0.020754383876919746, -0.06196586415171623, -0.0001788747904356569, 0.18314479291439056, 0.11076273769140244, -0.15393586456775665, -0.15435732901096344, 0.3612111806869507, 0.1170310378074646, 0.17045807838439941, 0.20783820748329163, -0.008877284824848175, 0.027442067861557007, -0.020630229264497757, -0.07511971890926361, 0.03365073725581169, -0.16934531927108765, -0.26268115639686584, 0.1039094626903534, 0.10001051425933838, 0.11526724696159363, 0.1316089630126953, 0.005346385296434164, 0.05493742600083351, -0.1584518998861313, -0.23870691657066345, -0.2364198863506317, 0.1675337255001068, 0.20217491686344147, -0.07384339720010757, 0.043495722115039825, 0.005011376924812794, 0.11513073742389679, 0.27351313829421997, -0.02640414796769619, -0.14466002583503723, 0.11919400095939636, 0.2594088912010193, 0.09263154864311218, -0.4109952449798584, 0.34424564242362976, 0.1303928643465042, 0.22787907719612122, 0.0739181786775589, 0.17631714046001434, -0.3041892945766449, 0.32347846031188965, 0.09826001524925232, 0.056398406624794006, 0.1578100621700287, 0.15565142035484314, -0.3125118613243103, -0.0194048210978508, -0.13165231049060822, 0.3083719313144684, -0.1957283914089203, -0.3713715672492981, -0.11665777117013931, -0.0031806936021894217, 0.030968058854341507, 0.24434122443199158, 0.4330475628376007, -0.03603845462203026, -0.2097247689962387, -0.011336937546730042, -0.10307811945676804, 0.0776250809431076, 0.03707783296704292, 0.02925638109445572, -0.2530815303325653, -0.11800547689199448, 0.05324859917163849, -0.04488193616271019, 0.3579179644584656, 0.35633134841918945, 0.12251848727464676, -0.3210560381412506, -0.066641665995121, 0.22531913220882416, 0.24469861388206482, 0.004754954949021339, 0.09667990356683731, 0.3331206142902374, -0.24758745729923248, -0.08288241922855377, -0.1097867414355278, 0.24261866509914398, 0.19445398449897766, -0.26832547783851624, -0.1779652237892151, 0.21919147670269012, 0.024501778185367584, 0.29190367460250854, 0.05796729400753975, 0.07992805540561676, 0.27996838092803955, 0.2009027749300003, -0.2193382829427719, 0.39717522263526917, 0.32129576802253723, 0.07249440252780914, 0.09241712093353271, -0.08743499964475632, -0.13204941153526306, 0.36594557762145996, -0.11820053309202194, -0.05851617082953453, 0.3311360776424408, 0.04497237130999565, -0.1557789444923401, -0.2956943213939667, -0.09941808134317398, 0.03652145341038704, -0.027342019602656364, 0.32524001598358154, 0.03589474782347679, -0.34576332569122314, 0.02787935733795166, 0.07116170972585678, 0.004734433721750975, -0.3589380383491516, -0.04337627813220024, -0.34790995717048645, -0.15169349312782288, -0.005644616205245256, -0.06013519689440727, 0.020476240664720535, 0.1473902314901352, -0.24786558747291565, -0.34334370493888855, 0.03137887641787529, 0.018137678503990173, -0.4194643199443817, 0.04016845300793648, -0.06128799915313721, 0.10014406591653824, -0.21077927947044373, 0.19780264794826508, -0.05599989369511604, -0.32002928853034973, 0.21935775876045227, 0.19678032398223877, -0.0021147560328245163, -0.03537537902593613, 0.039740074425935745, 0.06813373416662216, 0.14984893798828125, 0.4819236695766449, 0.23874379694461823, -0.24360693991184235, -0.028797686100006104, 0.015319319441914558, 0.049449071288108826, 0.04452215135097504, -0.25642305612564087, -0.2887328863143921, 0.003167202230542898, 0.2510136067867279, -0.05922602489590645, -0.06281780451536179, 0.26093220710754395, 0.21568578481674194, -0.16180051863193512, 0.02189038321375847, 0.0362311489880085, -0.021582916378974915, 0.21337345242500305, 0.08909798413515091, -0.06796804070472717, 0.1960127353668213, -0.13742946088314056, -0.33188921213150024, -0.1230878159403801, -0.2179502546787262, 0.24580974876880646, -0.15977542102336884, -0.13872583210468292, -0.02306666225194931, -0.056211408227682114, -0.08002248406410217, 0.1048421710729599, 0.1052866280078888, 0.14924494922161102, -0.08256450295448303, -0.4005762040615082, 0.05583576858043671, 0.19835638999938965, 0.2215155065059662, -0.7900453209877014, 0.6699432134628296, 0.09851621836423874, -0.446024090051651, -0.2241954654455185, 0.47028034925460815, 0.6760063171386719, -0.5256369113922119, 0.20941579341888428, 0.1278458535671234, 0.38359665870666504, 0.07655464112758636, -0.30632612109184265, 0.46191105246543884, 0.25809186697006226, 0.04205372929573059, 0.10722754895687103, -0.13048990070819855, 0.43936994671821594, 0.02190551534295082, -0.01174071989953518, -0.1602182686328888, -0.24497875571250916, -0.04489019513130188, 0.2599565088748932, 0.35260313749313354, -0.11100201308727264, 0.33129122853279114, 0.10411755740642548, -0.24066679179668427, -0.3924781084060669, -0.04049919545650482, -0.11840982735157013, 0.5318575501441956, -0.3407147526741028, -0.2165951430797577, -0.2147972732782364, 0.5966034531593323, 0.5865445137023926, 0.10441938787698746, -0.47817012667655945, -0.18824434280395508, 0.269485205411911, -0.0636378601193428, -0.06921029090881348, -0.1501021683216095, 0.3711748421192169, -0.33187130093574524, 0.11587507277727127, 0.06213989108800888, -0.07867385447025299, -0.026419134810566902, 0.27256932854652405, -0.11455914378166199, -0.1935989260673523, -0.23978662490844727, 0.4325164258480072, -0.359176903963089, -0.26114708185195923, 0.2980044186115265, -0.21197424829006195, -0.06459994614124298, -0.02678391896188259, -0.3087824583053589, 0.0431438609957695, -0.01158810779452324, -0.08016788214445114, -0.26787686347961426, -0.1277305632829666, -0.026170333847403526, -0.013422725722193718, -0.1359235644340515, 0.2389993667602539, -0.02075924165546894, -0.10818680375814438, 0.10999802500009537, 0.16948333382606506, -0.034103214740753174, -0.01521251443773508, 0.06789656728506088, 0.07031483203172684, 0.17158910632133484, -0.020868029445409775, -0.3347388803958893, -0.13480138778686523, -0.04183565080165863, 0.18206973373889923, 0.14248491823673248, -0.06217417120933533, -0.3608185648918152, 0.14351272583007812, -0.011898721568286419, -0.10900047421455383, 0.2535053491592407, -0.1510487049818039, 0.03335988149046898, -0.05507446080446243, 0.034386977553367615, -0.0033026353921741247, -0.30769479274749756, 0.39611223340034485, -0.06287593394517899, 0.10551479458808899, -0.11575233191251755, 0.18294081091880798, 0.31016799807548523, 0.2404259592294693, -0.2334250509738922, 0.03693871945142746, -0.20856866240501404, 0.18533609807491302, -0.11635474860668182, 0.12528271973133087, 0.11457722634077072, -0.1519450545310974, -0.12284008413553238, -0.09244183450937271, -0.027034049853682518, -0.13510091602802277, 0.09239459037780762, -0.09082851558923721, 0.0161900594830513, 0.2913235127925873, 0.4144892394542694, 0.1041666641831398, -0.09021564573049545, 0.04905242845416069, 0.05219940096139908, 0.17393524944782257, 0.20799267292022705, -0.35703739523887634, -0.18623097240924835, -0.35237258672714233, 0.07557280361652374, 0.10422750562429428, 0.09460169821977615, 0.04278692603111267, -0.0018171938136219978, 0.18003833293914795, 0.03581983968615532, 0.04716875031590462, 0.22147515416145325, -0.27851057052612305, -0.14968575537204742, -0.4339968264102936, -0.11934405565261841, 0.20409061014652252, -0.004605347756296396, 0.32908257842063904, -0.04954979568719864, -0.0713810920715332, 0.12460144609212875, 0.391458660364151, -0.16904018819332123, 0.0762743130326271, -0.25972703099250793, -0.33955103158950806, 0.37523218989372253, 0.25688523054122925, 0.4151858985424042, -0.15870077908039093, -0.34099477529525757, -0.2545151710510254, -0.07468899339437485, 0.0842990130186081, -0.202096089720726, 0.08429688960313797, -0.19609174132347107, -0.13802725076675415, 0.2503397762775421, -0.02168198861181736, -0.10443177819252014, 0.2603921592235565, 0.21295291185379028, 0.18994557857513428, -0.1513313353061676, 0.023594900965690613, -0.2921999990940094, 0.16780510544776917, 0.11148898303508759, 0.228657066822052, 0.1253730058670044, 0.2192806750535965, -0.29670417308807373, -0.0311591736972332, 0.2724456489086151, -0.11018728464841843, 0.19636709988117218, -0.15899744629859924, -0.1031559631228447, 0.22977866232395172, 0.1912005990743637, 0.35301682353019714, -0.11992371827363968, -0.2907460927963257, 0.26731476187705994, 0.5218819379806519, -0.07303456217050552, -0.09648602455854416, 0.5081604719161987, 0.08508051931858063, 0.17008371651172638, -0.3111928701400757, 0.22173485159873962, -0.29915085434913635, -0.0755557045340538, 0.051810409873723984, 0.13678862154483795, 0.2588357627391815, -0.1927647590637207, 0.13984914124011993, -0.13968095183372498, -0.003912517800927162, 0.08242481201887131, -0.06859998404979706, -0.07171781361103058, -0.002809347352012992, 0.023601505905389786, -0.1317688673734665, -0.08550968021154404, -0.04531075060367584, -0.1727769821882248, -0.029007378965616226, 0.002832806436344981, -0.31188932061195374, 0.07800150662660599, 0.23599795997142792, 0.4082264006137848, -0.42770540714263916, -0.10124222189188004, -0.08301163464784622, 0.14290256798267365, 0.22704684734344482, 0.27396833896636963, -0.20515437424182892, 0.11618715524673462, -0.1603386253118515, -0.007692650426179171, 0.2217622995376587, -0.023927798494696617, -0.1293341964483261, -0.21338875591754913, 0.08984097838401794, 0.11852087825536728, -0.6032490134239197, 0.1084882840514183, -0.17886117100715637, -0.34566089510917664, -0.01713711954653263, 0.0367635115981102, 0.040341105312108994, 0.03679967299103737, 0.11193636804819107, 0.24658095836639404, -0.16493180394172668, -0.06691677123308182, -0.3313792049884796, -0.18982908129692078, -0.1722734570503235, 0.045170336961746216, 0.07961440086364746, 0.02586684562265873, 0.3052770495414734, -0.12505429983139038, 0.19881504774093628, -0.11094523966312408, -0.07328221201896667, 0.1109866052865982, 0.12590360641479492, -0.08799902349710464, 0.11925703287124634, 0.022064339369535446, -0.0965585708618164, -0.02419876493513584, 0.07289381325244904, -0.5777548551559448, -0.3013235926628113, 0.5317314267158508, -0.7297530174255371, 0.4156026840209961, 0.5213618278503418, 0.45997941493988037, -0.5735875964164734, 0.37897488474845886, -0.16384899616241455, 0.34167057275772095, -0.20618219673633575, -0.6087301969528198, 0.16481201350688934, 0.12117389589548111, 0.07534002512693405, -0.1553918868303299, -0.18505144119262695, -0.23470856249332428, -0.3637641668319702, 0.48683738708496094, -0.052607212215662, 0.14716801047325134, 0.2234763503074646, 0.3054392337799072, 0.13511204719543457, -0.031615249812603, -0.0436033271253109, -0.5198785066604614, -0.006136076059192419, -0.19185537099838257, -0.2515588402748108, 0.24589402973651886, -0.0026126992888748646, 0.5014525651931763, -0.20099419355392456, -0.36171194911003113, 0.4159754514694214, 0.28633514046669006, -0.29716017842292786, 0.03298812359571457, 0.028345828875899315, -0.20696254074573517, -0.11301904171705246, 0.1446206420660019, -0.45442578196525574, 0.1299860179424286, 0.3546753525733948, -0.1298961490392685, 0.649064302444458, -0.2410135716199875, 0.1322196125984192, 0.4994839131832123, -0.18119342625141144, 0.3824009895324707, 0.022505691275000572, -0.04092445969581604, -0.42550647258758545, -0.30865678191185, -0.22338712215423584, 0.5669183731079102, -0.017215389758348465, 0.15706826746463776, -0.1417941451072693, -0.02918986789882183, 0.029076047241687775, -0.21833541989326477, 0.018464231863617897, 0.27618566155433655, -0.13572679460048676, -0.06103348731994629, 0.031810879707336426, -0.04466520622372627, 0.20106416940689087, 0.16067907214164734, 0.1564675271511078, 0.15150392055511475, -0.12144208699464798, 0.14527441561222076, 0.21088272333145142, -0.19925254583358765, -0.09316320717334747, 0.14321410655975342, 0.3165168762207031, 0.05438518896698952, -0.04070083796977997, -0.0763060599565506, -0.3051634430885315, -0.21098652482032776, -0.29888656735420227, -0.3865465819835663, -0.08720771968364716, -0.0519515722990036, 0.5617948770523071, -0.059642307460308075, -0.20820431411266327, 0.4401179850101471, -0.07792630791664124, 0.20522715151309967, 0.2304108738899231, -0.23702356219291687, 0.2180188000202179, -0.01545012928545475, 0.045172810554504395, -0.2993062138557434, -0.16327357292175293, 0.06292614340782166, 0.12522369623184204, 0.23293958604335785, -0.03126557543873787, -0.2303672432899475, -0.1903419941663742, 0.08055183291435242, -0.14795616269111633, -0.2838895916938782, 0.170534148812294, -0.12617571651935577, 0.142023503780365, 0.1979271024465561, -0.25895601511001587, 0.15700004994869232, 0.2740216553211212, -0.19785138964653015, 0.12055671960115433, 0.18710198998451233, 0.2328450232744217, -0.1534423679113388, -0.11696349084377289, -0.30947476625442505, -0.04547781124711037, 0.14232882857322693, 0.17821495234966278, 0.30901405215263367, 0.16854043304920197, 0.05897662043571472, 0.015974512323737144, 0.02799149975180626, -0.11294656246900558, -0.530974805355072, -0.05786437541246414, -0.15118637681007385, 0.20863763988018036, 0.05356327444314957, -0.04547446593642235, 0.22286102175712585, 0.001081844326108694, 0.34967878460884094, 0.2865011394023895, -0.12978889048099518, -0.03576939180493355, 0.01894834265112877, 0.08482540398836136, 0.2151569128036499, -0.22960428893566132, -0.2935541272163391, -0.009910915978252888, -0.31603407859802246, 0.14721830189228058, 0.3283395767211914, -0.02346833609044552, -0.04437457025051117, 0.11300179362297058, 0.6636859774589539, -0.011555289849638939, -0.025376494973897934, 0.12738309800624847, -0.11399663239717484, 0.14821167290210724, -0.11299531906843185, -0.20051592588424683, 0.062281303107738495, -0.4301737844944, 0.15770111978054047, -0.1737653762102127, -0.13063287734985352, 0.36712631583213806, 0.2118607461452484, 0.10748972743749619, -0.26905378699302673, -0.39233002066612244, -0.018502812832593918, -0.11074743419885635, 0.09173576533794403, 0.07267153263092041, 0.01769276335835457, -0.024526428431272507, 0.5069005489349365, -0.0369374044239521, 0.13775835931301117, -0.43629688024520874, 0.18264082074165344, 0.049815647304058075, -0.43238791823387146, 0.006634972058236599, 0.018399981781840324, -0.4818383455276489, -0.1524621546268463, -0.13389334082603455, 0.18587243556976318, -0.21559661626815796, 0.011659969575703144, 0.15737050771713257, -0.21432602405548096, -0.08629120141267776, -0.046929679811000824, -0.01314491406083107, 0.061847344040870667, 0.047256648540496826, 0.2747234106063843, -0.010131755843758583, -0.3783733546733856, -0.2657274007797241, 0.15932397544384003, 0.12845875322818756, 0.23125097155570984, -0.1054261177778244, 0.08320982754230499, -0.030118947848677635, 0.037156928330659866, 0.11359696090221405, 0.16361810266971588, 0.04497746005654335, -0.3300277888774872, 0.17437830567359924, 0.03599091246724129, 0.0503530390560627, 0.19359201192855835, -0.18418695032596588, -0.15943025052547455, -0.03179581090807915, 0.13947802782058716, -0.09742816537618637, -0.23715706169605255, -0.21712441742420197, 0.02612747624516487, -0.1712944656610489, 0.11901088804006577, 0.3809286653995514, -0.2447529137134552, -0.14758743345737457, -0.032722510397434235, -0.2300187349319458, 0.11221308261156082, 0.05739310011267662, 0.023303858935832977, -0.2744239866733551, -0.246133491396904, 0.2640328109264374, 0.09240338951349258, -0.07491470873355865, -0.07245567440986633, 0.20920611917972565, 0.14492203295230865, -0.1706666350364685, -0.19672052562236786, 0.06846249848604202, -0.031196411699056625, -0.404336154460907, -0.4408024847507477, 0.05904286727309227, -0.1596377044916153, 0.5329293608665466, 0.14706897735595703, -0.15858906507492065, 0.1715358942747116, 0.06023307517170906, 0.21552863717079163, 0.2849259078502655, -0.03491318225860596, 0.05624886602163315, -0.28484874963760376, 0.14630840718746185, -0.13984648883342743, 0.08453252911567688, -0.10035710781812668, -0.026591800153255463, 0.07143782079219818, 0.020359773188829422, -0.0836893618106842, 0.018939746543765068, -0.8028464317321777, 0.39573535323143005, -0.11368446052074432, -0.20527464151382446, 0.5284014940261841, 0.8220601677894592, -0.6824349164962769, -0.07086799293756485, 0.3939031660556793, 0.3172871768474579, 0.2927962839603424, -0.27744588255882263, -0.38388726115226746, 0.597109317779541, 0.007748348172754049, 0.5262256264686584, -0.23122599720954895, -0.25467294454574585, -0.07931555062532425, -0.23486895859241486, 0.3099328279495239, 0.18901701271533966, 0.15635858476161957, -0.15018458664417267, 0.20864298939704895, -0.3440221846103668, 0.19018004834651947, -0.3851564824581146, -0.34474074840545654, -0.29861554503440857, 0.20315048098564148, 0.024367816746234894, 0.17302320897579193, -0.3435349464416504, 0.1545264571905136, -0.047762878239154816, 0.024024026468396187, 1.1914958953857422, 0.38369831442832947, 0.12681829929351807, -0.31730514764785767, -0.42014408111572266, -0.3760074973106384, 0.3284929096698761, 0.03907147794961929, 0.05565737187862396, -0.04657971113920212, -0.18691715598106384, -0.17656610906124115, -0.3465151786804199, -0.0675460621714592, -0.052188653498888016, 0.1148911789059639, 0.11107295006513596, 0.38318532705307007, 0.14263764023780823, -0.19177910685539246, 0.0013128438731655478, -0.39587661623954773, -0.1910417079925537, 0.2957659065723419, -0.2145879715681076, -0.04153221845626831, -0.48835307359695435, -0.05546237528324127, 0.20512551069259644, -0.18396493792533875, -0.43711236119270325, 0.04032260552048683, -0.10214472562074661, -0.3441672623157501, -0.14918771386146545, -0.07429659366607666, -0.2303704172372818, -0.1279735416173935, -0.05858181416988373, -0.15579754114151, -0.04578269273042679, -0.18306292593479156, -0.2872035503387451, 0.05577515810728073, -0.06644389033317566, -0.49952542781829834, -0.03961757570505142, -0.022377457469701767, 0.3616596758365631, 0.11827632039785385, -0.017729023471474648, -0.19935736060142517, 0.0842861533164978, 0.28889593482017517, -0.3243577182292938, 0.1773216873407364, 0.2825210392475128, -0.10283512622117996, -0.02152341976761818, 0.3296178877353668, -0.21979676187038422, 0.13622260093688965, -0.2551509439945221, 0.3352784514427185, -0.35561347007751465, 0.030629804357886314, -0.08680467307567596, 0.1121191456913948, 0.12801097333431244, 0.13701698184013367, -0.09559905529022217, -0.18379174172878265, 0.204842209815979, 0.07747209072113037, 0.23513641953468323, -0.36235105991363525, -0.09672894328832626, -0.23152543604373932, 0.030253399163484573, 0.10057218372821808, 0.16823603212833405, -0.1267121434211731, -0.027621662244200706, 0.14986354112625122, -0.26356419920921326, -0.0008086087182164192, -0.005064353346824646, -0.08418294042348862, -0.17809706926345825, -0.27557313442230225, 0.0646432489156723, 0.19396141171455383, 0.11942113190889359, -0.3414961099624634, -0.14467445015907288, 0.15224337577819824, 0.19783681631088257, 0.24131406843662262, -0.3480220437049866, -0.3182889521121979, -0.08764781802892685, 0.17970173060894012, -0.05468660593032837, 0.3983455300331116, -0.08268681168556213, -0.025519028306007385, 0.15868231654167175, 0.1341720074415207, 0.040588513016700745, -0.019279666244983673, -0.25977909564971924, 0.4371616542339325, -0.19766096770763397, 0.16732044517993927, 0.12349358201026917, -0.005074881017208099, 0.07354127615690231, 0.6269029974937439, 0.06410215049982071, -0.20690152049064636, -0.20360571146011353, -0.35103639960289, 0.26580649614334106, 0.03710909187793732, -0.048269122838974, -0.42766186594963074, 0.0780358612537384, -0.13123783469200134, -0.22872024774551392, -0.2551800608634949, -0.32821622490882874, -0.0225487370043993, 0.19251973927021027, -0.14581064879894257, 0.2694615423679352, -0.24179813265800476, 0.214894637465477, -0.03168124333024025, -0.07646308839321136, 0.09751370549201965, 0.022530447691679, -0.5511743426322937, 1.384439838147955e-05, 0.23274795711040497, -0.019559867680072784, 0.2568325102329254, 0.0769219771027565, -0.32665881514549255, -0.037527989596128464, 0.07716021686792374, -0.4187469780445099, 0.2859703600406647, 0.14714376628398895, 0.05802119895815849, -0.0958595871925354, -0.029839230701327324, -0.018658772110939026, -0.0043763667345047, -0.16900047659873962, 0.1456078439950943, -0.3239471912384033, -0.06398869305849075, 0.10271874070167542, 0.059843890368938446, 0.07528483122587204, 0.005854605231434107, 0.19251079857349396, 0.09454503655433655, -0.2556784749031067, -0.015722326934337616, 0.06768299639225006, 0.3167284429073334, -0.4387553036212921, 0.07957430183887482, 0.36392632126808167, -0.352643221616745, 0.03322521224617958, 0.36049017310142517, -0.22549749910831451, 0.0005047673475928605, 0.2121448814868927, 0.04167413339018822, 0.08578158915042877, 0.0749661847949028, 0.3934694528579712, -0.0033722282387316227, 0.06807084381580353, 0.04409824684262276, -0.025104019790887833, -0.28415176272392273, -0.13401593267917633, 0.11103848367929459, -0.04346732050180435, 0.2623765766620636, 0.05029349774122238, -0.41954588890075684, -0.19013454020023346, -0.007998356595635414, -0.30597060918807983, 0.08955851197242737, 0.016554024070501328, -0.29259857535362244, 0.40797173976898193, 0.15417063236236572, 0.2887134850025177, -0.06246691197156906, -0.28131499886512756, -0.04643629491329193, -0.1729063093662262, -0.18035492300987244, 0.058797214180231094, -0.14644166827201843, -0.1582537293434143, 0.4013279378414154, -0.05267952382564545, -0.17617736756801605, -0.09791155904531479, -0.179555281996727, 0.3681158423423767, 0.3287864923477173, 0.013153590261936188, -0.1574239432811737, 0.24166840314865112, -0.3244020938873291, -0.01372902374714613, 0.38828757405281067, -0.1413496732711792, -0.14797911047935486, 0.001275340560823679, 0.1454773098230362, 0.2329264134168625, -0.4639441967010498, 0.11053964495658875, 0.005737638100981712, -0.26890307664871216, 0.028451349586248398, 0.088687963783741, 0.006153646390885115, -0.15269596874713898, -0.01654961332678795, 0.09791828691959381, 0.2145698368549347, -0.1416555643081665, -0.1362188458442688, -0.4388168752193451, -0.16438975930213928, -0.885966956615448, 0.8955833911895752, 0.41530641913414, 0.009096989408135414, -0.12246016412973404, 0.2969100773334503, -0.3312861919403076, 0.1957481950521469, -0.06967514753341675, -0.24552175402641296, 0.2740361988544464, -0.15569955110549927, 0.12332218140363693, -0.0646878331899643, -0.19929760694503784, 0.2641655206680298, -0.3219667673110962, 0.1687452644109726, 0.3842919170856476, -0.23713764548301697, 0.3561108112335205, 0.47399044036865234, 0.5575682520866394, 0.03415682911872864, 0.2175757735967636, 0.006976503413170576, -0.5563979148864746, 0.19788718223571777, 0.13740116357803345, 0.3348914682865143, 0.131870836019516, -0.4873697757720947, 0.0444365032017231, 0.25823870301246643, 0.25573498010635376, 0.07651928067207336, 0.023393377661705017, -0.5221100449562073, 0.21808288991451263, -0.356574684381485, 0.3343566060066223, -0.5089561939239502, 0.07932252436876297, -0.05758245661854744, 0.028170960023999214, 0.26309147477149963, 0.2751191258430481, 0.24634744226932526, -0.12144272029399872, 0.5566117167472839, -0.24410021305084229, -0.05362760275602341, -0.2592148184776306, 0.2867123782634735, 0.2002798318862915, -0.1815321445465088, -0.0833343043923378, -0.20231498777866364, 0.6734455823898315, -0.10310044139623642, 0.3555256724357605, 0.4766904413700104, 0.36369362473487854, 0.3991447389125824, -0.34836217761039734, 0.18308311700820923, -0.22452111542224884, 0.09372930973768234, -0.04374527931213379, 0.07397211343050003, -0.3027687966823578, -0.2521682679653168, 0.12593935430049896, 0.12515777349472046, 0.04234561696648598, 0.20602722465991974, -0.06228984519839287, -0.2060317099094391, -0.1837940812110901, -0.24621804058551788, -0.04456707462668419, 0.16319604218006134, 0.20773112773895264, 0.5232378840446472, 0.09133432060480118, -0.1080799251794815, -0.12619180977344513, -0.13954368233680725, -0.009392671287059784, 0.1915532946586609, -0.09186730533838272, -0.10943441838026047, 0.22414714097976685, -0.036757830530405045, -0.2374691516160965, -0.2288828045129776, -0.2929229736328125, -0.2043369710445404, -0.0899249017238617, -0.2155209183692932, 0.040632594376802444, 0.15344974398612976, 0.05539723485708237, -0.17874066531658173, 0.005012984853237867, 0.02769114449620247, -0.1491020768880844, -0.304535835981369, 0.2136388123035431, 0.08383261412382126, -0.2049637883901596, -0.22263093292713165, -0.1621817946434021, -0.09926135838031769, 0.08139018714427948, -0.09936091303825378, -0.08036020398139954, -0.12580403685569763, 0.03020865097641945, 0.3080463707447052, -0.07955872267484665, 0.01826564595103264, -0.1315961480140686, 0.0331435352563858, -0.07954920828342438, -0.013313189148902893, 0.0203867107629776, 0.16608206927776337, 0.1520880162715912, -0.015797892585396767, -0.05518204718828201, 0.15819218754768372, -0.2906073033809662, 0.048950765281915665, 0.06000435724854469, 0.04269617050886154, 0.04720494523644447, 0.09872417896986008, -0.2594042718410492, -0.039040256291627884, 0.11206167936325073, -0.36739233136177063, 0.21943271160125732, -0.1533035933971405, -0.2330770343542099, -0.15325288474559784, -0.048283208161592484, 0.3513316512107849, -0.030623365193605423, 0.10363685339689255, 0.04081599414348602, 0.3635939061641693, 0.039320413023233414, 0.3131115138530731, 0.12228351831436157, 0.005865482613444328, -0.08654548227787018, 0.3728545606136322, -0.027898184955120087, -0.09007643163204193, 0.3078431189060211, -0.09273811429738998, -0.19583800435066223, 0.07422792911529541, -0.013827432878315449, -0.32360413670539856, -0.16578957438468933, 0.24773022532463074, 0.19270184636116028, -0.023567207157611847, -0.039000459015369415, 0.04686697944998741, -0.4245849549770355, 0.07977451384067535, 0.03584134578704834, -0.5784392952919006, 0.12314943224191666, -0.10948023200035095, 0.24721089005470276, 0.015546075999736786, 0.09700503945350647, -0.17618253827095032, -0.06920834630727768, -0.11648288369178772, -0.013996523804962635, -0.023417534306645393, 0.03521846979856491, -0.11771116405725479, -0.07914374768733978, 0.40940120816230774, -0.0020472356118261814, -0.03714698180556297, -0.1521623283624649, 0.1763867735862732, 0.033726904541254044, -0.3048226237297058, 0.10729603469371796, -0.01530346181243658, -0.12703794240951538, 0.2491215020418167, 0.010377227328717709, 0.15161935985088348, -0.05394720286130905, -0.19834640622138977, -0.17653363943099976, 0.15791185200214386, -0.0150914890691638, -0.03812911733984947, 0.12518128752708435, -0.0796496644616127, -0.16077828407287598, 0.130778506398201, -0.06842413544654846, -0.14923690259456635, 0.4622777998447418, -0.08893977850675583, -0.1694350242614746, -0.36188507080078125, 0.02336324378848076, -0.07730981707572937, 0.11378300189971924, 0.044473160058259964, 0.014701683074235916, -0.04539141431450844, 0.10392510890960693, -0.01927967555820942, -0.19355323910713196, -0.21561262011528015, -0.20284703373908997, 0.09517268091440201, 0.04994703456759453, -0.16976046562194824, -0.0476209856569767, -0.14924535155296326, -0.17142704129219055, -0.10031451284885406, -0.1539434939622879, -0.09276718646287918, 0.25130605697631836, 0.09913139045238495, -0.14846128225326538, -0.15445919334888458, -0.06942885369062424, -0.008784334175288677, 0.005979597568511963, 0.07990172505378723, -0.19306319952011108, 0.36236634850502014, 0.09798391908407211, 0.03262399509549141, -0.05196778103709221, -0.12651406228542328, 0.023289239034056664, 0.16623610258102417, 0.026581747457385063, -0.07068691402673721, 0.15953120589256287, 0.08370998501777649, -0.07394734770059586, 0.12899558246135712, -0.0018163790227845311, -0.2057996541261673, 0.03813735768198967, -0.0942506492137909, 0.03497970476746559, -0.3543851971626282, 0.08055329322814941, 0.12459993362426758, -0.2172471284866333, -0.1670297086238861, 0.057622529566287994, -0.04312538728117943, -0.15414130687713623, -0.07114560157060623, -0.039097294211387634, 0.027163930237293243, 0.01859973929822445, -0.4031579792499542, 0.22042515873908997, -0.2894875705242157, 0.013496189378201962, -0.10812819004058838, 0.2201719880104065, -0.5327624082565308, 0.17799875140190125, 0.49198541045188904, -0.227980837225914, -0.3092058300971985, 0.22701990604400635, 0.03996824473142624, -0.7418994307518005, -0.5139548182487488, 0.09067484736442566, 0.20832613110542297, 0.07997655868530273, 0.43985846638679504, -0.0015698509523645043, 0.2823965847492218, 0.31541743874549866, 0.1493450403213501, -0.0924665629863739, 0.34225547313690186, 0.013796716928482056, -0.3759762942790985, -0.25713422894477844, 0.3785867989063263, -0.1721293032169342, 0.024234497919678688, -0.16598060727119446, 0.003506785724312067, -0.17854194343090057, -0.27007588744163513, -0.3593142032623291, 0.37551379203796387, 0.05729811266064644, -0.0468776561319828, -0.02142239362001419, -0.2452748566865921, -0.13774468004703522, 0.2928045094013214, 0.09773460775613785, -0.36888378858566284, -0.19565236568450928, 0.09306030720472336, 0.28069284558296204, 0.0460188202559948, -0.3371160626411438, 0.2150377333164215, 0.0924212783575058, -0.07570929080247879, -0.5338260531425476, 0.03498583287000656, -0.01832500658929348, -0.28827208280563354, -0.17185375094413757, 0.04688224568963051, 0.12323550879955292, 0.3378274738788605, 0.4826240539550781, 0.27870094776153564, 0.15939070284366608, -0.2690960466861725, -0.08754579722881317, 0.09809163212776184, -0.1696735918521881, 0.47331714630126953, -0.1552084982395172, -0.2594839036464691, -0.15382938086986542, -0.40760689973831177, 0.17719577252864838, -0.08697538077831268, -0.23141168057918549, 0.04400119557976723, -0.17689573764801025, -0.23992949724197388, 0.17352646589279175, -0.10350586473941803, 0.1508667916059494, 0.03170343488454819, -0.0496414378285408, 0.03133663535118103, -0.04140592738986015, 0.2029811143875122, 0.3052200675010681, -0.10159838199615479, 0.2114504873752594, -0.14769193530082703, -0.12350011616945267, 0.11660241335630417, -0.0011028797598555684, -0.012035856954753399, 0.044792965054512024, -0.056313060224056244, -0.2814690172672272, 0.02741486020386219, 0.013507887721061707, 0.1456756889820099, 0.027502866461873055, 0.06085915118455887, 0.15360873937606812, 0.034009937196969986, -0.04284345358610153, 0.2017994225025177, 0.20143581926822662, 0.19829611480236053, 0.15455639362335205, 0.06082194298505783, -0.1580544263124466, 0.26182082295417786, -0.11750730127096176, -0.020727993920445442, 0.34342557191848755, -0.09548405557870865, -0.12505094707012177, 0.11276951432228088, -0.413501501083374, -0.14054910838603973, -0.07231155037879944, 0.013829999603331089, -0.026381012052297592, 0.10082419216632843, 0.13349267840385437, -0.08454544097185135, 0.04922931268811226, 0.64897620677948, 0.5632691383361816, 0.6968364715576172, 0.21907539665699005, 0.10415804386138916, 0.45675262808799744, 0.460854172706604, 0.3912242352962494, 0.20256713032722473, 0.25244075059890747, 0.29386255145072937, -0.34868016839027405, -0.19983994960784912, -0.2413662075996399, -0.16659975051879883, 0.7189856767654419, 0.3447507917881012, 0.10375779867172241, 0.11079858988523483, -0.046165939420461655, 0.2862589955329895, -0.3114616572856903, -0.1746281534433365, -0.24528244137763977, -0.07297392189502716, -0.07879037410020828, -0.1354316920042038, 0.04187363013625145, 0.15593159198760986, -0.16070395708084106, -0.257473349571228, -0.014916544780135155, 0.09834255278110504, 0.08762718737125397, -0.2343936711549759, 0.0350363552570343, -0.011085955426096916, -0.03254155442118645, 0.0050657084211707115, -0.16813857853412628, -0.18570366501808167, 0.2230328619480133, 0.16270236670970917, 0.08038148283958435, 0.044040437787771225, -0.007074063178151846, -0.04389643296599388, 0.000393849826650694, -0.0074571408331394196, -0.18762525916099548, -0.32014214992523193, -0.4930318593978882, -0.27910342812538147, -0.12226130813360214, 0.11639560759067535, 0.05742054805159569, -0.027572359889745712, 0.30641642212867737, 0.26937445998191833, -0.0373552031815052, 0.4051714241504669, 0.1802017241716385, 0.22860318422317505, 0.6107132434844971, 0.19040659070014954, -0.024057745933532715, -0.3597579002380371, -0.21083015203475952, -0.12402583658695221, 0.25516295433044434, 0.007273240480571985, -0.13751457631587982, -0.13870956003665924, 0.04997381940484047, -0.251724511384964, 0.091548852622509, 0.10383150726556778, 0.19697387516498566, 0.06822757422924042, 0.06117383390665054, 0.19405457377433777, -0.12338923662900925, -0.00746179511770606, -0.05102330446243286, 0.015364840626716614, 0.012411841191351414, -0.12963759899139404, -0.34162622690200806, 0.031324975192546844, 0.19552646577358246, 0.005761058535426855, -0.07941658794879913, -0.2694830298423767, 0.07323489338159561, -0.1085415631532669, 0.03608665615320206, -0.1291665881872177, -0.06012700870633125, 0.03119131177663803, -0.04780277609825134, 0.14757758378982544, 0.1454833298921585, -0.20310752093791962, -0.10301927477121353, -0.0049830893985927105, -0.08550061285495758, -0.13595275580883026, 0.18545232713222504, -0.09533366560935974, -0.09099872410297394, 0.04713955149054527, -0.20126201212406158, -0.15509000420570374, 0.24055297672748566, 0.026757581159472466, -0.11116164177656174, -0.015729883685708046, 0.03137115389108658, -0.015191980637609959, 0.2070470154285431, -0.03647233173251152, -0.20414134860038757, -0.11375462263822556, 0.11868913471698761, -0.16916877031326294, -0.32177335023880005, -0.004882081411778927, -0.16599692404270172, -0.19334007799625397, 0.08575672656297684, -0.2257610410451889, 0.3395248055458069, 0.02895507775247097, -0.03168357163667679, 0.6681829690933228, -0.2195686399936676, -0.14237000048160553, -0.012173103168606758, 0.0768173485994339, -0.08606746047735214, 0.02824392355978489, 0.05518363416194916, 0.10306594520807266, -0.4647156000137329, 0.1873352825641632, -0.35821864008903503, -0.5305143594741821, -0.14646786451339722, 0.44695326685905457, -0.0529995821416378, 0.07125907391309738, 0.17881375551223755, -0.4552250802516937, -0.03776625543832779, -0.2274474948644638, 1.0551176071166992, 0.5550516247749329, 0.060982175171375275, -0.7619311213493347, -0.46734389662742615, -0.038804568350315094, -0.3493138253688812, 0.4004223644733429, 0.19108624756336212, 0.25069761276245117, 0.05548984929919243, -0.35486143827438354, -0.04224937781691551, -0.039247721433639526, -0.16793973743915558, -0.022980794310569763, -0.0003524253552313894, -0.1340891420841217, 0.21195799112319946, 0.02211657352745533, -0.16354697942733765, 0.21484653651714325, -0.3256780207157135, 0.48317819833755493, 0.38287416100502014, 0.13828137516975403, 0.11111196875572205, 0.02431478537619114, 0.2721313536167145, -0.054786134511232376, -0.029821429401636124, -0.3089192509651184, -0.03886224702000618, -0.05827385559678078, -0.014652099460363388, 0.23136597871780396, 0.0017050000606104732, 0.12272230535745621, -0.011816824786365032, -0.3231240212917328, -0.38553309440612793, -0.08481334149837494, 0.16800937056541443, 0.16607357561588287, -0.06067061796784401, 0.024494100362062454, 0.1443101167678833, -0.02648182585835457, -0.29774209856987, -0.13241878151893616, -0.04135579615831375, -0.22215110063552856, -0.030837804079055786, 0.0015279382932931185, 0.19532664120197296, 0.12294427305459976, 0.19853051006793976, 0.462012380361557, -0.30080461502075195, 0.1117144450545311, 0.13689029216766357, 0.17762218415737152, -0.10550162196159363, 0.14519339799880981, -0.16129867732524872, 0.3375990390777588, -0.09527043998241425, -0.14571602642536163, 0.3019876778125763, 0.42033129930496216, 0.028326015919446945, -0.17220956087112427, 0.33617833256721497, -0.13004590570926666, -0.10695260763168335, -0.19143536686897278, -0.16396339237689972, -0.08716585487127304, -0.5583536624908447, 0.07100233435630798, -0.339406281709671, 0.25206679105758667, -0.3048984110355377, -0.46817463636398315, -0.22074662148952484, 0.34787723422050476, -0.040818456560373306, 0.3269937336444855, -0.4412626326084137, -0.16106028854846954, -0.24685610830783844, -0.3526153862476349, -0.005997934844344854, 0.3756539523601532, -0.408619225025177, 0.5748674869537354, -0.5872435569763184, 0.20673805475234985, 0.3119789659976959, -0.8167122602462769, -0.2718530595302582, 0.05160684138536453, 0.28606078028678894, -0.5580149292945862, 0.47449639439582825, -0.08831344544887543, 0.05795174837112427, 0.33944422006607056, 0.353767454624176, 0.14371560513973236, 0.04303460940718651, 0.176762193441391, 0.08297368139028549, 0.09828576445579529, -0.14843395352363586, 0.04757658764719963, 0.17424874007701874, -0.187726691365242, 0.2929016947746277, -0.20160843431949615, 0.20348098874092102, -0.2464432418346405, 0.1518482267856598, 0.20526757836341858, 0.05762157961726189, -0.2480112463235855, 0.03155422583222389, -0.0516025647521019, -0.07653427124023438, -0.4166630506515503, 0.034003354609012604, -0.3922986090183258, 0.13911184668540955, 0.13790617883205414, 0.07351271063089371, 0.3201351463794708, -0.11154399067163467, -0.2779567241668701, 0.28435245156288147, -0.021055158227682114, 0.4265030324459076, -0.14228510856628418, -0.12515196204185486, 0.28840282559394836, 0.04868447035551071, 0.11461206525564194, -0.1801663190126419, 0.08138353377580643, 0.19750584661960602, -0.0628681629896164, -0.13204608857631683, -0.3098524212837219, 0.4086984395980835, 0.16367800533771515, -0.037066780030727386, 0.34991738200187683, 0.009703487157821655, -0.13101710379123688, 0.0447375550866127, 0.025258133187890053, -0.18071772158145905, 0.23333950340747833, -0.06483086198568344, 0.2493150383234024, 0.10571496188640594, 0.02296554297208786, 0.17606300115585327, -0.07252871245145798, 0.0020252226386219263, 0.09206122159957886, 0.08123815059661865, 0.05599305033683777, -0.04814908280968666, 0.07699485123157501, -0.058650389313697815, -0.0562606081366539, -0.37727677822113037, -0.340813547372818, -0.1430514007806778, 0.17931972444057465, 0.035339582711458206, 0.07518945634365082, 0.07506949454545975, -0.03625406324863434, 0.10848524421453476, -0.046670008450746536, -0.04521840438246727, -0.1916865110397339, -0.023113951086997986, -0.17350277304649353, -0.28709474205970764, -0.19672508537769318, 0.1384287029504776, 0.08776931464672089, 0.12346674501895905, -0.29077669978141785, 0.5952236652374268, -0.3475480079650879, -0.056889113038778305, -0.1312689185142517, -0.03583066165447235, 0.325687974691391, -0.26369765400886536, 0.04224666580557823, -0.1676599532365799, 0.32710012793540955, 0.022480841726064682, -0.45756417512893677, 0.09062586724758148, -0.6322559118270874, 0.1565631479024887, -0.020749744027853012, -0.007758953608572483, 0.4199013411998749, 0.4234444797039032, 0.017127666622400284, -0.17854054272174835, 0.17518353462219238, 0.11622370034456253, 0.13413208723068237, 0.05455153062939644, 0.011570824310183525, 0.17906542122364044, 0.01757676526904106, -0.011820517480373383, -0.23357044160366058, -0.06049381196498871, 0.033686622977256775, 0.18370474874973297, 0.022118616849184036, -0.025470394641160965, -0.0366828627884388, -0.1150638535618782, -0.1799592822790146, 0.619348406791687, 0.009488072246313095, 0.005177416373044252, 0.3431173264980316, 0.11257105320692062, 0.17753617465496063, 0.4542260766029358, -0.19493085145950317, 0.04127555340528488, -0.11457539349794388, -0.018035609275102615, 0.14472191035747528, -0.32760679721832275, 0.08412455022335052, 0.2359560877084732, -0.06717607378959656, -0.12269746512174606, -0.3882693350315094, -0.2815987765789032, 0.116142138838768, 0.26388245820999146, 0.007432005368173122, -0.09522726386785507, -0.08382747322320938, -0.15868474543094635, 0.11374958604574203, 0.1686386913061142, 0.03544684499502182, -0.021432338282465935, -0.06994394212961197, -0.3260217308998108, 0.11786005645990372, -0.3129560053348541, -0.17469215393066406, -0.03168453648686409, 0.16750642657279968, 0.04591884836554527, -0.1444474458694458, 0.04670502990484238, -0.23691365122795105, -0.05766961723566055, -0.048069700598716736, 0.03516564518213272, -0.1480727195739746, 0.25606730580329895, -0.22158007323741913, -0.12987607717514038, 0.43562033772468567, -0.11427951604127884, -0.1970457136631012, 0.1971202790737152, 0.18959853053092957, -0.1304706335067749, -0.21435827016830444, 0.048671215772628784, 0.2649049162864685, -0.025443440303206444, 0.25326433777809143, -0.4143995940685272, -0.13934653997421265, 0.157200425863266, 0.09104634076356888, 0.18079699575901031, 0.12436915934085846, -0.27807849645614624, -0.044033847749233246, 0.07876182347536087, -0.1775514781475067, -0.22073185443878174, -0.23843006789684296, 0.09753818809986115, 0.011004834435880184, -0.18286147713661194, -0.00552373006939888, 0.04375419393181801, 0.04230811074376106, -0.3608558773994446, -0.020016981288790703, 0.03925234451889992, -0.3245517909526825, -0.03009910322725773, -0.13315896689891815, -0.25758180022239685, -0.16921822726726532, -0.17755040526390076, 0.1879655122756958, -0.022304993122816086, 0.04865959286689758, -0.11721332371234894, -0.019224219024181366, 0.03919525071978569, 0.5219526290893555, 0.006908050272613764, -0.1241721510887146, 0.09158527851104736, -0.26095831394195557, -0.44707366824150085, -0.5430001616477966, -0.05885022506117821, -0.09663204848766327, -0.8802172541618347, -0.02090785838663578, -0.11767864227294922, -0.855330765247345, 0.0646071657538414, 0.2118704617023468, -0.5169230699539185, 0.09473889321088791, -0.03392402082681656, -0.30236396193504333, -0.26498347520828247, 0.2020411491394043, 0.5740020871162415, 1.080574870109558, 0.5486053228378296, 0.027993611991405487, -0.0593438558280468, -0.21991968154907227, -0.4049360454082489, -0.3505370318889618, 0.08588522672653198, -0.3422566056251526, 0.04523734375834465, -0.16080226004123688, -0.026991747319698334, 0.11644657701253891, 0.48093339800834656, 0.27067330479621887, 0.3708595633506775, -0.08359000086784363, 0.004986308049410582, 0.37636837363243103, -0.15282802283763885, -0.23863032460212708, 0.4112190306186676, -0.0147197050973773, -0.046167150139808655, 0.1412210315465927, -0.13784824311733246, 0.6870914101600647, -0.15532802045345306, 0.3076236844062805, 0.40511247515678406, 0.29206347465515137, -0.07714236527681351, 0.8564808368682861, 0.09970827400684357, 0.15970440208911896, 0.3704999089241028, 0.09937421977519989, 0.3240493834018707, 0.5924966931343079, -0.06386590003967285, 0.136847123503685, 0.09906403720378876, 0.02135038562119007, 0.08452732861042023, 0.30341219902038574, -0.15129908919334412, 0.10417995601892471, -0.036038558930158615, -0.2206944078207016, 0.4902731478214264, 0.40904000401496887, -0.3697341978549957, 0.3373107314109802, 0.3099514842033386, -0.028681663796305656, 0.4076695442199707, 0.4689521789550781, -0.3454453647136688, 0.18325001001358032, 0.21064509451389313, 0.5089657306671143, -0.6859018802642822, -0.8808256983757019, -0.13562798500061035, -0.32922443747520447, -0.24842315912246704, -0.45677903294563293, -0.8748082518577576, -0.6835022568702698, -0.3391813337802887, 0.36102598905563354, 0.12442414462566376, -0.014086003415286541, 0.4696522057056427, -0.3279322683811188, 0.5946972966194153, 0.21397146582603455, -0.10566116124391556, 0.4856061041355133, 0.0972461923956871, 0.011613156646490097, -0.2387976199388504, -0.04397407919168472, 0.5300514101982117, 0.4277437627315521, -0.157578244805336, -0.36298245191574097, 0.12957674264907837, 0.19939370453357697, 0.08937972784042358, 0.15638872981071472, 0.26322194933891296, 0.15412279963493347, -0.2950589656829834, -0.30855247378349304, -0.3302114009857178, -0.11429145932197571, 0.15623585879802704, 0.03257978707551956, 1.0414177179336548, -0.011802018620073795, -0.0313703678548336, 0.22055456042289734, -0.07725134491920471, 0.0029774378053843975, -0.09870696067810059, -0.13216455280780792, 0.3849099576473236, 0.23146933317184448, -0.31940534710884094, 0.08302820473909378, -0.040705468505620956, -0.015851568430662155, 0.003276839153841138, 0.4216212034225464, -0.15956304967403412, 0.03075956180691719, -0.15921974182128906, 0.08775558322668076, 0.07589671015739441, 0.355398952960968, -0.01781579479575157, -0.04220171272754669, 0.11094068735837936, 0.3383362889289856, -0.025980601087212563, 0.09829562902450562, 0.3020816147327423, -0.1268429458141327, -0.22380971908569336, 0.12595073878765106, 0.081487737596035, -0.005201110150665045, 0.2134844809770584, 0.1771674007177353, -0.4659758508205414, -0.02165316976606846, 0.06561337411403656, -0.11076956987380981, -0.21328671276569366, 0.15444566309452057, 0.37508752942085266, 0.3758816719055176, -0.08936529606580734, -0.4129437208175659, 0.08746007084846497, 0.2289925515651703, -0.19001947343349457, -0.058384593576192856, -0.3712504506111145, -0.12123793363571167, 0.17136423289775848, -0.24366794526576996, -0.4554941952228546, -0.1864313781261444, 0.47322651743888855, -0.23300494253635406, -0.24412596225738525, 0.5669312477111816, 0.42983299493789673, -0.4859398305416107, -0.3028547763824463, 0.41065675020217896, -0.27135545015335083, -0.27798187732696533, 0.037036627531051636, 0.11730875074863434, 0.344539076089859, -0.3890325725078583, -0.3944219648838043, -0.3589232861995697, 0.0012328795855864882, -0.379361629486084, 0.4886099398136139, -0.018236389383673668, -0.02002456970512867, 0.16917268931865692, 0.0577552430331707, 0.14687632024288177, 0.2157958596944809, -0.19265709817409515, 0.043220680207014084, -0.034389980137348175, -0.0196340624243021, -0.09787573665380478, 0.22213099896907806, -0.052109796553850174, 0.011151325888931751, -0.3118976950645447, -0.1715664267539978, 0.17726747691631317, 0.0025562134105712175, 0.2731401324272156, 0.03986034169793129, -0.177108496427536, 0.19755451381206512, 0.3118671178817749, 0.0025102978106588125, 0.10368267446756363, -0.08993116766214371, -0.16652041673660278, 0.08306479454040527, 0.05975918844342232, 0.0760895311832428, 0.3121418356895447, -0.05754148215055466, -0.08941332250833511, 0.31491854786872864, -0.02436186745762825, -0.060198087245225906, -0.019329972565174103, -0.35519516468048096, 0.05387222021818161, 0.1544751226902008, -0.23130370676517487, -0.0735536441206932, 0.020616751164197922, -0.07668527215719223, -0.20508307218551636, -0.18852165341377258, 0.02716503106057644, 0.08325913548469543, -0.22449550032615662, -0.10030850023031235, 0.07319208979606628, -0.17294955253601074, 0.2853960394859314, -0.10041069984436035, 0.0814603641629219, 0.08244257420301437, -0.45713669061660767, 0.581533670425415, 0.4345490634441376, -0.49596792459487915, -0.6061053276062012, 0.012362094596028328, 0.35073229670524597, -0.3474436402320862, 0.13766635954380035, -0.4700663387775421, -0.5392335057258606, 0.48390403389930725, -0.47228509187698364, -0.015507620759308338, -0.053071197122335434, -0.061719976365566254, -0.4341953694820404, -0.36284002661705017, 0.18910042941570282, -0.054872363805770874, -0.15350358188152313, 0.2114349752664566, -0.13907673954963684, -0.08189267665147781, 0.20195607841014862, 0.11445147544145584, -0.4731792211532593, -0.2640986442565918, 0.017438607290387154, 0.17942535877227783, -0.23784026503562927, 0.09453218430280685, 0.02836325392127037, 0.20033612847328186, 0.21422095596790314, 0.17371879518032074, -0.12579777836799622, 0.03784678131341934, -0.29325833916664124, 0.1495538204908371, -0.7126099467277527, -0.20003972947597504, -0.16015690565109253, -0.07478663325309753, 0.045371271669864655, 0.2649705111980438, -0.1398148089647293, -0.15649455785751343, 0.2017880380153656, -0.017782075330615044, 0.038713518530130386, -0.2481628656387329, 0.14183436334133148, 0.13985927402973175, -0.11921582370996475, 0.11547520011663437, 0.14954961836338043, -0.24057547748088837, 0.16520152986049652, -0.28815779089927673, 0.03248496353626251, -0.08216073364019394, 0.18558333814144135, -0.19008216261863708, 0.20616760849952698, -0.06973336637020111, 0.12001902610063553, 0.02938317507505417, -0.09016983956098557, -0.06482312828302383, -0.05464306101202965, -0.08346596360206604, -0.8166217803955078, -0.47436225414276123, -0.23600929975509644, -0.19507849216461182, 0.20850715041160583, -0.46403586864471436, 0.5046899914741516, 0.019673656672239304, 0.07812535017728806, 0.24288752675056458, 0.4265120029449463, -0.19001618027687073, -0.5126427412033081, 0.27733170986175537, -0.23959089815616608, 0.2701609134674072, -0.3771468997001648, -0.10013680160045624, -0.33314386010169983, -0.003081344300881028, -0.23090335726737976, -0.2644408643245697, 0.2641809284687042, -0.14653684198856354, -0.08754542469978333, 0.1291656345129013, 0.11664114892482758, -0.042928874492645264, 0.07449889928102493, -0.20538000762462616, -0.29752907156944275, -0.1405247002840042, -0.09426464885473251, 0.23804794251918793, -0.18045535683631897, 0.25295573472976685, -0.16150520741939545, 0.13928987085819244, -0.036121513694524765, -0.05583542212843895, -0.20422084629535675, 0.31130778789520264, -0.31792202591896057, -0.19164998829364777, -0.11895682662725449, 0.28172436356544495, 0.28575989603996277, -0.3630232512950897, 0.11757081747055054, 0.3341479003429413, 0.08906860649585724, -0.11638225615024567, -0.003244387451559305, -0.04015468806028366, -0.08248966187238693, 0.04000464826822281, 0.0157499760389328, 0.13418951630592346, 0.07320347428321838, -0.052532702684402466, 0.359035462141037, -0.15823529660701752, -0.22191034257411957, -0.24352911114692688, -0.12272760272026062, 0.1448565572500229, 0.4023835062980652, 0.1772935837507248, -0.15285106003284454, 0.05862938612699509, 0.15119872987270355, -0.11882846057415009, -0.2576195001602173, 0.09445550292730331, -0.19189013540744781, -0.1838497370481491, -0.19648019969463348, -1.1800411939620972, 0.3048238456249237, 0.3147990107536316, 0.445476770401001, -0.04755920171737671, 0.5790678858757019, -0.7821906208992004, 0.00665154866874218, -0.5955175161361694, -0.04926937445998192, -0.5844617486000061, -0.08367911726236343, 0.6272062659263611, 0.4086056053638458, -0.12657320499420166, -0.6208457350730896, 0.22051763534545898, 0.06363575905561447, 0.9183382987976074, -0.08205516636371613, 0.39347559213638306, -0.06685497611761093, -0.20941053330898285, 0.11379992216825485, 0.06003355607390404, -0.028601113706827164, -0.08909467607736588, -0.07278206944465637, 0.25205597281455994, 0.03749049827456474, 0.18573305010795593, 0.19824913144111633, 0.1008821651339531, 0.2050272673368454, -0.24043239653110504, 0.0902760848402977, -0.12150382250547409, 0.017650019377470016, -0.08478839695453644, -0.18778476119041443, 0.09822962433099747, 0.11106844246387482, -0.054270144551992416, -0.2318481057882309, 0.050043169409036636, 0.33173054456710815, -0.2062566578388214, 0.21446900069713593, 0.301494836807251, -0.09975200891494751, -0.1536189466714859, -0.04467024654150009, -0.0009294592891819775, 0.1541524976491928, 0.0134195601567626, -0.3388441801071167, 0.10174982249736786, -0.10154344886541367, 0.22477449476718903, 0.07190591841936111, 0.06190275028347969, -0.07880187779664993, 0.1309724748134613, 0.05862536281347275, -0.14622437953948975, 0.12934036552906036, 0.1411328762769699, -0.09135238081216812, -0.2769317030906677, -0.11313436180353165, 0.34974491596221924, 0.1298847794532776, -0.06172604113817215, 0.17077133059501648, 0.05162053927779198, -0.4524722695350647, 0.2263546586036682, 0.2234947681427002, 0.04610532522201538, 0.5621240735054016, -0.7719625234603882, 0.34022316336631775, 0.08352681994438171, -0.12281259149312973, -0.36903509497642517, -0.1463448405265808, 0.49430450797080994, -0.26423773169517517, 0.3022962212562561, 0.301602303981781, 0.6073287725448608, 0.4797760248184204, 0.7355483770370483, -0.17999614775180817, -0.7933964729309082, -0.417533278465271, 0.20233209431171417, -0.4354279339313507, -0.4221113324165344, 0.00797857716679573, -0.10850410908460617, -0.11530923843383789, -0.1232038214802742, -0.1781749278306961, 0.23819003999233246, 0.0680893063545227, 0.048450492322444916, 0.03923290595412254, 0.16829726099967957, 0.3595121502876282, -0.2989761233329773, -0.26068130135536194, 0.019949814304709435, -0.0514521449804306, -0.41619420051574707, -0.29915937781333923, 0.10295053571462631, 0.15709617733955383, 0.08603009581565857, -0.9545707106590271, 0.6975122690200806, 0.3641940653324127, -0.13384181261062622, 0.1019304096698761, -0.20550094544887543, -0.0080025065690279, -0.1646391898393631, -0.1318146139383316, 0.10705440491437912, 0.05863245204091072, -0.12253996729850769, 0.05720432475209236, 0.18111106753349304, 0.3685056269168854, -0.17354193329811096, 0.07961113005876541, -0.024081531912088394, -0.8168531656265259, 0.11416587978601456, 0.11145080626010895, -0.26138508319854736, 0.06071813032031059, -0.1161632165312767, -0.05233044922351837, -0.24906262755393982, -0.15898728370666504, -0.31248220801353455, -0.09884699434041977, -0.09248857945203781, 0.14699187874794006, 0.41713947057724, 0.23736190795898438, 0.15476414561271667, -0.2052285075187683, -0.3372059464454651, -0.14798757433891296, -0.29587283730506897, -0.1766260266304016, 0.5841194987297058, 0.27849236130714417, 0.05194433033466339, -0.29943960905075073, 0.8504359126091003, -0.986914336681366, 0.5738954544067383, -0.8260253667831421, -0.07660854607820511, 0.5108633637428284, 0.07594834268093109, 0.4422411322593689, 0.504150390625, -0.30899134278297424, -0.019309284165501595, 0.22789600491523743, 0.14789682626724243, -0.4739827811717987, -0.3868631422519684, -0.11262010782957077, 0.08153101801872253, -0.1584063023328781, 0.34515291452407837, -0.3827681541442871, -0.4116416275501251, -0.814871609210968, 0.2620465159416199, 0.6182503700256348, -0.07479585707187653, -0.03662402182817459, -0.2150641828775406, 0.05365883931517601, -0.02465476281940937, -0.08465951681137085, 0.09268990159034729, -0.01838420331478119, -0.28415659070014954, -0.14909769594669342, 0.09744714945554733, 0.3061477243900299, -0.1619831770658493, -0.10563154518604279, -0.1600593775510788, 0.09675275534391403, -0.01910446397960186, -0.10723895579576492, 0.22402645647525787, 0.04655411094427109, -0.07978168874979019, -0.1754344254732132, 0.049652062356472015, 0.3650587201118469, -0.15063151717185974, 0.04067220911383629, 0.2504330277442932, -0.22816461324691772, 0.10680322349071503, 0.2334565967321396, 0.27591320872306824, 0.055692702531814575, 0.11619586497545242, 0.2518312335014343, -0.16021662950515747, -0.48359009623527527, -0.0890531986951828, 0.3047623634338379, -0.24088044464588165, -0.2533198297023773, 0.18191485106945038, -0.3151830732822418, -0.28298521041870117, -0.8610082864761353, 0.5108140707015991, 0.2063753306865692, -0.31074485182762146, 0.15468689799308777, 0.046044494956731796, -0.23292005062103271, 0.09386543929576874, -0.06559834629297256, 0.10022569447755814, 0.01590598188340664, -1.0446375608444214, -0.26474735140800476, 1.0641305446624756, 0.33721932768821716, 0.5324257612228394, 0.21868601441383362, 0.1301967054605484, 0.3960183262825012, -0.23101569712162018, 0.3344171643257141, -0.381157249212265, -0.01032659225165844, -0.306645929813385, -0.24182063341140747, 0.0050063407979905605, 0.12037653475999832, 0.18739160895347595, -0.03471158817410469, -0.161699116230011, -0.5057247877120972, 0.007437387481331825, 0.0873117670416832, -0.08825493603944778, -0.12119906395673752, -0.08970458805561066, 0.07379581034183502, 0.07019397616386414, -0.0872601568698883, 0.45557400584220886, -0.05580617114901543, -0.04380597546696663, 0.08167335391044617, 0.06025612726807594, 0.18854111433029175, 0.4540944993495941, 0.041083961725234985, -0.16995936632156372, 0.17768028378486633, 0.03274374455213547, -0.17655692994594574, 0.2646758258342743, 0.09303133934736252, -0.028009891510009766, 0.13071425259113312, -0.06921865046024323, 0.3643534183502197, 0.3267161250114441, 0.11640558391809464, 0.06109511852264404, -0.07785232365131378, -0.028477441519498825, 0.07247653603553772, 0.12635736167430878, 0.008311810903251171, -0.06382692605257034, 0.7914077043533325, -0.020459719002246857, -0.09251076728105545, -0.31301432847976685, -0.30658480525016785, 0.39681684970855713, -0.1309278905391693, -0.11835037171840668, 0.5188974738121033, -0.39628365635871887, 1.2742762565612793, -0.2964168190956116, 0.01057102158665657, -0.3435746431350708, -0.611849308013916, 0.730351984500885, 0.28674396872520447, -0.1807665228843689, -0.4584886431694031, 0.001597929047420621, 0.16373242437839508, 0.059789564460515976, -0.32288846373558044, -0.9727701544761658, 0.38466474413871765, 0.19534942507743835, -0.0866505429148674, 0.16430489718914032, -0.09969779849052429, 0.16045649349689484, -0.04795355349779129, 0.24618586897850037, -0.20094895362854004, -0.12937168776988983, 0.3584972321987152, 0.06646402925252914, 0.02365574613213539, 0.1997377574443817, 0.04586460068821907, 0.05653349682688713, 0.012128009460866451, -0.08910740166902542, -0.051030438393354416, 0.44594210386276245, 0.00740859005600214, 0.09353301674127579, 0.06515020877122879, -0.061726976186037064, -0.01387447863817215, 0.03987224027514458, 0.1327138990163803, -0.07639466226100922, -0.4371921420097351, 0.05121615156531334, -0.003938070498406887, 0.25057727098464966, 0.27003148198127747, 0.1782878339290619, 0.41082021594047546, -0.09269383549690247, -0.08026418834924698, 0.26031720638275146, -0.053862158209085464, 0.045079052448272705, 0.15945738554000854, -0.018910078331828117, -0.009014632552862167, 0.5144781470298767, 0.03657614067196846, 0.08138323575258255, -0.2575525939464569, -0.148732990026474, -0.07576639950275421, 0.12100299447774887, 0.009637339040637016, -0.15725727379322052, 0.4632059931755066, 0.09635087847709656, 0.05541246756911278, -0.05094762146472931, 0.06567201018333435, -0.13821619749069214, 0.32508206367492676, -0.17703135311603546, 0.773009181022644, -0.5468335151672363, -0.38010314106941223, -0.6446426510810852, -0.12091034650802612, -0.04836457967758179, -0.23046547174453735, 0.3559243679046631, 0.2869518995285034, -0.44128191471099854, -0.050015389919281006, 0.1681065559387207, 0.4823986291885376, -0.11955636739730835, 0.3069649934768677, -0.028011441230773926, -0.1917715072631836, 0.30598050355911255, -0.4455450773239136, 0.41890019178390503, 0.4994143843650818, -0.1365121603012085, 0.1975109577178955, 0.49860215187072754, 0.7516592741012573, 0.9969203472137451, 0.7571113705635071, -0.7066124677658081, 0.1698252260684967, 0.019999999552965164]}