{"version": "0.5.1", "metadata": {"date": {"year": 2023, "month": 4, "day": 28, "hour": 5, "minute": 35, "second": 57}, "loudness": -14.40300464630127, "gain": 0.6039093543374865, "name": null, "modeled_by": null, "gear_type": null, "gear_make": null, "gear_model": null, "tone_type": null}, "architecture": "WaveNet", "config": {"layers": [{"input_size": 1, "condition_size": 1, "head_size": 4, "channels": 8, "kernel_size": 3, "dilations": [1, 2, 4, 8, 16, 32, 64], "activation": "Tanh", "gated": false, "head_bias": false}, {"input_size": 8, "condition_size": 1, "head_size": 1, "channels": 4, "kernel_size": 3, "dilations": [128, 256, 512, 1, 2, 4, 8, 16, 32, 64, 128, 256, 512], "activation": "Tanh", "gated": false, "head_bias": true}], "head": null, "head_scale": 0.02}, "weights": [0.04035729914903641, 0.604245126247406, -0.9079503417015076, -0.2500669062137604, -0.4234686493873596, 0.02538992278277874, -0.26241859793663025, 0.8665882349014282, 0.05684388801455498, 0.05223821476101875, 0.08462027460336685, -0.10756847262382507, -0.44978952407836914, -0.09499482810497284, -0.011333441361784935, 0.26998111605644226, 0.050128187984228134, 0.1816190779209137, 0.09877414256334305, -0.12096688896417618, 0.1364942044019699, 0.4180927574634552, -0.08674431592226028, 0.12865175306797028, -0.23547810316085815, 0.07556279003620148, 0.21625779569149017, 0.06395936757326126, -0.1931762993335724, -0.12399734556674957, -0.33998075127601624, 0.20830507576465607, -0.05175768584012985, 0.08398857712745667, -0.05015990883111954, -0.20939737558364868, -0.0540885254740715, 0.23171938955783844, 0.10050065815448761, 0.02231442928314209, -0.05821267142891884, -0.08974123001098633, -0.02967452071607113, -0.25209537148475647, -0.12507174909114838, -0.16507411003112793, 0.07674503326416016, 0.06267162412405014, -0.05389777943491936, 0.016660379245877266, 0.1863710731267929, 0.12703432142734528, 0.03790652006864548, 0.016403481364250183, 0.20969311892986298, -0.05397825688123703, 0.0007715444080531597, -0.2905556857585907, -0.06020251289010048, -0.11041168123483658, -0.10045233368873596, 0.18174292147159576, -0.11066993325948715, 0.2642427682876587, 0.021291837096214294, -0.022556163370609283, 0.18765638768672943, -0.03109453059732914, 0.12739619612693787, 0.3836633861064911, -0.26026374101638794, -0.04601498320698738, -0.06975107640028, 0.2772696912288666, 0.12844090163707733, 0.38569357991218567, -0.12013337016105652, -0.18800915777683258, -0.18142065405845642, -0.03749525174498558, -0.02121393382549286, 0.269631028175354, 0.30739888548851013, -0.17077314853668213, -0.03288082778453827, -0.034819912165403366, -0.062311846762895584, -0.016412263736128807, 0.08680661022663116, -0.1578451544046402, 0.13822899758815765, 0.10768905282020569, 0.1085164025425911, 0.14206992089748383, -0.2064230740070343, -0.05678822472691536, 0.06957249343395233, 0.06808909773826599, -0.2268548160791397, -0.055122580379247665, 0.17690148949623108, 0.16659770905971527, -0.16445565223693848, -0.058163125067949295, 0.025051528587937355, 0.21865642070770264, 0.04615608602762222, -0.05629623308777809, -0.23234570026397705, 0.1174999326467514, -0.18397928774356842, 0.3406183421611786, -0.21264639496803284, 0.08528324961662292, 0.31839480996131897, -0.2551223039627075, -0.15269076824188232, 0.22704002261161804, -0.05750086158514023, 0.10125429928302765, -0.1095346212387085, 0.05433493107557297, -0.19508743286132812, 0.32197117805480957, -0.2942904233932495, -0.02153499610722065, -0.2724989056587219, -0.012339037843048573, -0.06690016388893127, -0.33269011974334717, -0.0031390904914587736, 0.1587374210357666, -0.1996898055076599, 0.10906074941158295, 0.034757502377033234, 0.05472392588853836, -0.10446877777576447, -0.12133496254682541, 0.105193130671978, 0.03553526848554611, 0.07538025826215744, 0.192148357629776, 0.07190615683794022, 0.1388583481311798, -0.21420323848724365, 0.042576052248477936, -0.0883861780166626, 0.039398353546857834, -0.30676960945129395, -0.04630465433001518, -0.26442399621009827, -0.062300972640514374, -0.18008355796337128, 0.09434430301189423, 0.01598641648888588, -0.24162530899047852, 0.25724461674690247, -0.06290771812200546, -0.004168921150267124, -0.22114184498786926, -0.147222638130188, 0.002558398060500622, -0.3100535571575165, -0.27822747826576233, 0.016920024529099464, -0.12209952622652054, -0.18515139818191528, -0.008866742253303528, -0.09256577491760254, 0.05011540278792381, 0.27785342931747437, -0.2006511390209198, 0.10741700977087021, 0.03500938042998314, -0.047667041420936584, 0.23548872768878937, 0.17005911469459534, 0.03565274924039841, 0.29877397418022156, -0.25956955552101135, 0.05384603515267372, -0.17742133140563965, 0.23897913098335266, 0.02556944265961647, 0.23509849607944489, 0.17182590067386627, -0.05436715856194496, 0.10092880576848984, -0.07319654524326324, 0.08076491206884384, 0.2976799011230469, 0.07744316756725311, -0.1428544968366623, -0.11952371895313263, -0.08973908424377441, -0.15128594636917114, 0.02421535924077034, -0.02577820234000683, -0.09109580516815186, -0.14238829910755157, 0.11794489622116089, 0.06449750065803528, -0.08058946579694748, -0.22123834490776062, -0.07829250395298004, 0.04819366708397865, -0.3491653501987457, 0.09049466997385025, 0.38231322169303894, 0.2040010243654251, 0.07082702219486237, -0.21359431743621826, 0.2149776667356491, -0.13064216077327728, 0.1102033406496048, -0.01032818853855133, -0.16011884808540344, -0.0956781655550003, 0.22563770413398743, -0.29518911242485046, 0.059453293681144714, 0.2778366506099701, 0.14437885582447052, -0.011602363549172878, -0.46086961030960083, 0.19836993515491486, -0.3545970320701599, -0.17126135528087616, -0.07172485440969467, -0.07017166912555695, -0.005297553725540638, 0.2702614367008209, 0.37803855538368225, 0.16426675021648407, 0.39126086235046387, -0.0893702432513237, -0.000971675559412688, -0.02700825408101082, -0.363465815782547, 0.2804165780544281, -0.2677217125892639, 0.528590738773346, -0.3777168393135071, -0.26806360483169556, 0.6261461973190308, -0.5994431972503662, 0.5792710185050964, -0.6172749400138855, 0.11199900507926941, -0.03525217995047569, -0.10575960576534271, 0.04312076047062874, 0.3302209675312042, -0.05876889452338219, -0.20828869938850403, -0.09208349138498306, -0.10782386362552643, -0.0036763602402061224, 0.12903304398059845, 0.0804593563079834, 0.06993097811937332, 0.2333257645368576, 0.2743932008743286, 0.17381642758846283, 0.003831542329862714, -0.16705858707427979, -0.2619524300098419, 0.2109883427619934, -0.3276774287223816, 0.0679343044757843, -0.34384286403656006, 0.011379881761968136, -0.35568076372146606, 0.10909629613161087, -0.22766928374767303, -0.3729756474494934, 0.31286513805389404, -0.29042235016822815, 0.03274538740515709, -0.003343343734741211, 0.0183840524405241, -0.064324751496315, -0.19393271207809448, 0.22744908928871155, 0.020541002973914146, 0.04190533235669136, -0.07821967452764511, 0.11073929071426392, -0.0050055799074471, -0.007639448624104261, 0.11962370574474335, 0.2555676996707916, 0.26459234952926636, -0.016915488988161087, -0.19250620901584625, -0.23624549806118011, 0.1644665151834488, -0.03159632533788681, 0.13339553773403168, -0.2010492980480194, -0.17505817115306854, -0.15634600818157196, -0.1216641291975975, 0.10983654856681824, 0.057526834309101105, -0.04953126609325409, -0.16334083676338196, 0.03956166282296181, 0.13056963682174683, 0.13807569444179535, -0.08712077140808105, -0.06849642097949982, 0.19493523240089417, -0.20269396901130676, 0.1217237114906311, 0.21432863175868988, -0.11520383507013321, -0.023314256221055984, -0.11027801036834717, -0.02865900658071041, 0.05047190189361572, 0.2065858244895935, -0.07493749260902405, 0.07435610145330429, -0.040683917701244354, 0.2817273736000061, 0.1766480654478073, 0.014511139132082462, 0.08255947381258011, -0.10162295401096344, -0.38848409056663513, -0.1528901606798172, 0.18834327161312103, 0.31273746490478516, -0.15070639550685883, 0.021949918940663338, 0.23334409296512604, 0.33654433488845825, -0.02322169579565525, -0.10455015301704407, -0.19846434891223907, -0.10733544081449509, 0.2833147943019867, 0.06782340258359909, -0.2663264274597168, -0.10295732319355011, 0.026785841211676598, 0.18917368352413177, -0.03494403138756752, 0.09943979233503342, -0.04275837540626526, 0.1987658590078354, 0.06107034161686897, 0.12201956659555435, 0.35797974467277527, 0.06728440523147583, -0.13886475563049316, -0.15061691403388977, -0.13054409623146057, 0.14360010623931885, -0.02129770629107952, -0.2684669494628906, -0.2923252582550049, -0.1258828192949295, 0.06099351868033409, 0.09820621460676193, 0.48048698902130127, -0.1780802607536316, -0.1768106371164322, -0.319515585899353, -0.01549200527369976, 0.3282226622104645, -0.10362682491540909, -0.030342530459165573, -0.08100298792123795, -0.2172519713640213, 0.05855846777558327, 0.03417257219552994, 0.4497148096561432, 0.057393141090869904, 0.06432107836008072, -0.3632120192050934, 0.11225020885467529, 0.18773096799850464, 0.22026675939559937, 0.2799276113510132, 0.33844754099845886, 0.32029715180397034, 0.06656996160745621, -0.011718925088644028, -0.14608609676361084, -0.031279969960451126, 0.07422741502523422, 0.1270846575498581, -0.16984005272388458, -0.11939511448144913, 0.11506950855255127, -0.08923672139644623, -0.03637683391571045, 0.29611584544181824, 0.18861253559589386, 0.21819956600666046, -0.37998849153518677, 0.3007628619670868, 0.3529093563556671, 0.09278818219900131, 0.17934495210647583, -0.0031617258209735155, -0.0962015762925148, -0.053420498967170715, -0.1924365609884262, -0.043059080839157104, 0.041100699454545975, -0.1090913936495781, -0.22125563025474548, -0.03971179947257042, 0.09034555405378342, 0.0985933393239975, 0.11134476959705353, 0.20702670514583588, -0.012525149621069431, 0.15350772440433502, 0.27494925260543823, -0.013881383463740349, 0.020791703835129738, -0.2797948122024536, -0.14360535144805908, -0.15654359757900238, 0.0318756103515625, 0.14547614753246307, -0.16601750254631042, -0.11446282267570496, -0.06291946023702621, -0.08226384967565536, -0.24562667310237885, 0.1444399207830429, 0.22927112877368927, -0.11177810281515121, 0.08012279868125916, -0.12338946014642715, -0.15977446734905243, -0.23119546473026276, -0.1466192901134491, -0.03165169432759285, -0.19426614046096802, 0.04395116865634918, -0.19119498133659363, -0.04829412326216698, -0.1158672422170639, -0.2587139308452606, 0.19483323395252228, 0.15413852035999298, 0.2899166941642761, 0.1988193839788437, -0.11547145247459412, 0.2350941002368927, -0.09391221404075623, 0.17449955642223358, -0.3398301303386688, -0.18798542022705078, -0.2723809480667114, 0.026209836825728416, 0.27810099720954895, -0.01705360785126686, -0.020434074103832245, -0.05627858638763428, -0.05735957249999046, -0.007310914341360331, -0.046097271144390106, -0.04802151769399643, -0.03248398378491402, 0.12480169534683228, 0.08669896423816681, -0.0734434574842453, 0.32258346676826477, -0.12518006563186646, -0.27418920397758484, -0.0841410905122757, -0.16599702835083008, 0.2505365312099457, -0.19621257483959198, -0.1036970466375351, 0.019028209149837494, 0.13245278596878052, -0.006521577946841717, 0.1679297685623169, 0.027376890182495117, 0.13112807273864746, 0.023478714749217033, -0.4746108651161194, -0.08819174021482468, 0.1565692126750946, 0.3590501844882965, -1.091293215751648, 1.1366889476776123, 0.16446782648563385, -0.4127943217754364, -0.25247859954833984, 0.40923011302948, 0.49402475357055664, -0.31869664788246155, 0.10357879847288132, 0.27301791310310364, 0.2341930866241455, 0.16625621914863586, -0.3386208713054657, 0.26791518926620483, 0.43090277910232544, -0.14921237528324127, -0.09008485078811646, -0.07666048407554626, 0.3012678027153015, -0.2505452334880829, 0.004448601044714451, 0.2018904983997345, -0.19061560928821564, -0.02462868206202984, 0.1288534253835678, 0.1851736158132553, 0.11579736322164536, 0.39998796582221985, -0.060680389404296875, -0.2953571677207947, -0.4875914454460144, 0.2360360026359558, -0.39265069365501404, 0.5593650937080383, -0.2507896423339844, -0.15832017362117767, -0.43279320001602173, 0.574861466884613, 0.5650206804275513, -0.405078649520874, -0.23133011162281036, -0.12400322407484055, 0.19009433686733246, -0.24194543063640594, 0.03265592083334923, 0.23059669137001038, 0.21524719893932343, -0.3081111013889313, -0.13437122106552124, -0.1323050707578659, -0.019892388954758644, 0.029660969972610474, 0.32774654030799866, -0.23007667064666748, -0.23304420709609985, -0.2306261956691742, 0.5307661294937134, -0.5446105003356934, -0.10854063183069229, 0.46170660853385925, -0.07865709066390991, -0.12053713947534561, -0.023168733343482018, 0.11282326281070709, -0.3165428340435028, 0.2569180727005005, -0.13924436271190643, -0.30896925926208496, -0.004229457583278418, -0.11138789355754852, 0.12462668865919113, -0.1916094869375229, 0.15066571533679962, -0.05368635803461075, -0.016897503286600113, 0.2109328806400299, 0.06336843222379684, -0.12285353243350983, -0.3479178547859192, -0.03208091855049133, -0.13918064534664154, 0.15131574869155884, 0.13852469623088837, -0.2972813844680786, -0.3785002529621124, 0.01234291959553957, 0.4224444031715393, 0.03468647226691246, -0.10640079528093338, -0.3547613024711609, 0.1325577348470688, 0.10478166490793228, -0.14935211837291718, 0.24795979261398315, 0.09856586903333664, -0.020087042823433876, -0.07057203352451324, -0.1112874448299408, -0.04559791088104248, -0.046701207756996155, 0.09228029102087021, 0.014729373157024384, 0.04713645577430725, -0.2472248524427414, -0.1952391117811203, 0.31721317768096924, 0.3387238681316376, -0.10940106958150864, 0.024841463193297386, -0.3136271834373474, 0.2480074018239975, 0.08218985795974731, -0.1750493347644806, -0.0310331080108881, -0.23262974619865417, -0.26094403862953186, -0.2709541916847229, -0.15477685630321503, 0.2798292934894562, 0.25757086277008057, -0.024932939559221268, -0.10681136697530746, 0.24193687736988068, 0.3953535258769989, 0.05435798689723015, 0.03361618146300316, -0.0900391936302185, -0.016422266140580177, 0.31317031383514404, 0.32686910033226013, -0.10897714644670486, -0.26325687766075134, -0.4511193037033081, 0.04358287900686264, 0.15787605941295624, 0.0372936949133873, -0.013012432493269444, 0.12258807569742203, 0.11301428079605103, 0.0870053768157959, -0.013092118315398693, 0.28176149725914, 0.10924932360649109, -0.1397101879119873, -0.49647256731987, -0.25584110617637634, 0.31189417839050293, 0.174483522772789, 0.012111985124647617, -0.09583809226751328, 0.07216252386569977, -0.06516066938638687, 0.37493374943733215, 0.19456472992897034, 0.3633345365524292, -0.15307815372943878, -0.17058664560317993, 0.1627437025308609, 0.10666698217391968, 0.4955947995185852, -0.03390336409211159, -0.31405970454216003, -0.1562628298997879, -0.06180882081389427, 0.0599871426820755, 0.13905653357505798, 0.13248933851718903, -0.22266438603401184, -0.1918044537305832, 0.19686929881572723, 0.06322089582681656, -0.5484264492988586, 0.3478802442550659, 0.3819105625152588, -0.2717410624027252, -0.23891763389110565, 0.1695862114429474, -0.3866432309150696, 0.14216828346252441, 0.24147199094295502, 0.28085848689079285, -0.11375875771045685, -0.08503010123968124, -0.6428756713867188, -0.08261844515800476, 0.3438076376914978, -0.38480430841445923, 0.08620351552963257, -0.08639870584011078, 0.09995605796575546, 0.09308356791734695, 0.18014660477638245, 0.2957562506198883, -0.21065419912338257, -0.3283282518386841, 0.2130306512117386, 0.03637144714593887, 0.04770192503929138, 0.12198097258806229, 0.012610428035259247, 0.48892760276794434, 0.08996794372797012, -0.19600644707679749, 0.09785395860671997, -0.2158995121717453, 0.16561812162399292, 0.05015607178211212, 0.06107453629374504, 0.16653166711330414, -0.15801824629306793, 0.15388627350330353, -0.10582933574914932, 0.06381456553936005, 0.06764231622219086, 0.06029139831662178, -0.10322853177785873, 0.12549687922000885, 0.13733233511447906, -0.00771672185510397, -0.3335892856121063, -0.2794826924800873, 0.39722052216529846, -0.1419346183538437, -0.2513872981071472, -0.07147029042243958, -0.0922282263636589, 0.13104911148548126, 0.1642475575208664, 0.039466071873903275, -0.10556846112012863, -0.17909617722034454, -0.35028424859046936, -0.21089008450508118, 0.20762328803539276, -0.18949919939041138, 0.12186288833618164, -0.035514507442712784, -0.20797960460186005, 0.2713048458099365, -0.08008360862731934, 0.21815913915634155, -0.1995687484741211, 0.16545160114765167, 0.039763011038303375, -0.3407214283943176, 0.14244887232780457, 0.2069459855556488, -0.7539495229721069, -0.040087319910526276, 0.10942189395427704, -0.05849181488156319, 0.2250746190547943, 0.26779991388320923, 0.14688599109649658, -0.14007188379764557, -0.10532519966363907, -0.40033239126205444, -0.1783641129732132, -0.20138069987297058, -0.17406076192855835, 0.05352211743593216, -0.07295005023479462, 0.3747175335884094, -0.015740571543574333, 0.21643604338169098, -0.12844304740428925, -0.20560765266418457, 0.16891290247440338, 0.043274130672216415, -0.16960103809833527, 0.0884469598531723, -0.01968093030154705, -0.19117897748947144, 0.01607821136713028, -0.015519426204264164, -0.6268823742866516, -0.24523629248142242, 0.5726301074028015, -0.6504600048065186, 0.368361234664917, 0.7439107298851013, 0.799907386302948, -0.7957921028137207, 0.39369863271713257, -0.2931259870529175, 0.24911606311798096, -0.1558236926794052, -0.4009804129600525, 0.2805066406726837, -0.14338816702365875, -0.46917787194252014, -0.5184063911437988, -0.24601034820079803, -0.05348515138030052, -0.7756519317626953, 0.337044358253479, -0.07654677331447601, 0.25989991426467896, 0.5565659999847412, 0.2961861491203308, 0.07495185732841492, -0.29644230008125305, -0.22006215155124664, -0.0654897540807724, -0.44083842635154724, 0.02212846465408802, -0.03269052132964134, 0.18276847898960114, -0.08237840235233307, 0.4412399232387543, -0.1422538310289383, 0.004226095043122768, 0.5469776391983032, 0.24938157200813293, -0.16732099652290344, 0.1339510977268219, 0.10944639146327972, -0.14636528491973877, 0.025443218648433685, 0.06050215661525726, -0.21472060680389404, 0.120537169277668, 0.28153184056282043, -0.2723439633846283, 0.4244844317436218, 0.27146121859550476, -0.035448797047138214, 0.7500733137130737, -0.19350720942020416, 0.5294016599655151, -0.27620887756347656, -0.3900979459285736, -0.22469234466552734, -0.05755084753036499, -0.449834942817688, 0.4059096872806549, -0.15871977806091309, -0.023164929822087288, 0.04751863330602646, -0.2464527189731598, -0.28403857350349426, -0.24778276681900024, -0.06345892697572708, 0.12485446035861969, 0.14297273755073547, 0.11090220510959625, 0.03101847879588604, -0.045972682535648346, 0.21671687066555023, -0.04386244714260101, 0.06952235847711563, 0.1743788719177246, -0.08209288120269775, 0.09822579473257065, 0.2767014503479004, -0.10107631236314774, 0.3709813952445984, -0.0017005439149215817, 0.33623671531677246, -0.20269089937210083, -0.0032113236375153065, -0.13025778532028198, -0.15905116498470306, -0.1615130454301834, 0.040726568549871445, -0.05656592547893524, -0.09180238842964172, 0.0259149968624115, 0.4679250419139862, -0.04965308681130409, -0.26118719577789307, 0.4876377284526825, 0.2810198664665222, -0.2528064250946045, -0.16093707084655762, -0.2336152195930481, 0.17315112054347992, -0.19039691984653473, 0.03071790561079979, -0.23902179300785065, 0.059150442481040955, 0.357215940952301, 0.2764317989349365, 0.3306969702243805, 0.22719530761241913, -0.11743048578500748, -0.1393667757511139, 0.17974139750003815, -0.2403099536895752, -0.046015262603759766, -0.0011634888360276818, 0.1165941134095192, 0.002878388622775674, 0.15356501936912537, -0.1588600128889084, 0.06280121952295303, -0.07769067585468292, -0.23544193804264069, 0.053552329540252686, 0.17323686182498932, 0.25382688641548157, 0.005941028706729412, -0.04903354495763779, -0.49228981137275696, -0.16125701367855072, 0.06425055861473083, 0.44838011264801025, 0.6711741089820862, -0.03773244097828865, -0.3108314275741577, 0.22967736423015594, -0.012398055754601955, 0.13478729128837585, -0.6394433379173279, -0.09913519769906998, -0.3059631288051605, 0.5916705131530762, -0.06353911012411118, -0.24683576822280884, 1.1170504093170166, 0.1542389988899231, 0.20314012467861176, 0.3327564299106598, -0.3276039659976959, 0.09813852608203888, 0.026412367820739746, -0.10197798907756805, -0.009510105475783348, -0.10251647979021072, -0.19623270630836487, 0.24009980261325836, 0.366841197013855, -0.06060405820608139, 0.1318930834531784, -0.07947918772697449, 0.051965221762657166, 0.06373808532953262, 0.08695933222770691, -0.12643519043922424, -0.3539832532405853, 0.4469340741634369, -0.10698016732931137, -0.640026330947876, 1.269781231880188, -0.001499089994467795, 0.3182084262371063, 0.35029318928718567, -0.2717171311378479, -0.054463353008031845, -0.19495190680027008, 0.11381092667579651, 0.10290539264678955, -0.09146417677402496, -0.014230333268642426, -0.3735370934009552, 0.09938786178827286, -0.13246111571788788, 0.05654149502515793, -0.04410632699728012, -0.07539411634206772, -0.33768296241760254, 0.10773756355047226, 0.07981783151626587, 0.07939694821834564, -0.3186889588832855, 0.07999284565448761, -0.004047128837555647, -0.21947292983531952, -0.007559791672974825, 0.04122209548950195, -0.13547886908054352, -0.31366828083992004, -0.05945328250527382, 0.2503313720226288, -0.13872073590755463, 0.03803573548793793, 0.32245880365371704, -0.18474601209163666, -0.11788288503885269, 0.03669961541891098, 0.010555105283856392, 0.23245254158973694, 0.33593589067459106, 0.2567049264907837, -0.36262401938438416, -0.43580713868141174, -0.0580495223402977, 0.12075483798980713, 0.038615137338638306, -0.11918319761753082, -0.13780321180820465, 0.04969280958175659, -0.3881993293762207, 0.5034773945808411, -0.20007704198360443, 0.38911908864974976, -0.11058060079813004, -0.1697344034910202, 0.22003629803657532, 0.27335578203201294, 0.04667980596423149, -0.2875673174858093, -0.2909502387046814, -0.26929983496665955, -0.041044943034648895, 0.11276697367429733, 0.1914656162261963, -0.18667396903038025, -0.004734898451715708, -0.10373279452323914, 0.01864541880786419, 0.29048073291778564, 0.44477999210357666, -0.07329073548316956, -0.08409111201763153, -0.2586592435836792, -0.03646956756711006, -0.09400767087936401, -0.11173562705516815, -0.039261817932128906, -0.23600958287715912, 0.008131586946547031, 0.38366034626960754, 0.1003560796380043, 0.3344354033470154, -0.3478298783302307, 0.26452505588531494, 0.12311187386512756, 0.01600635051727295, -0.20758385956287384, 0.40814465284347534, 0.00595901207998395, 0.004521580412983894, -0.32719549536705017, 0.06254091113805771, -0.019205935299396515, 0.7314922213554382, 0.018073536455631256, -0.03382275998592377, 0.04720860719680786, -0.0450252965092659, 0.15034371614456177, -0.14873528480529785, 0.0986095741391182, 0.06226791441440582, -0.2607356309890747, 0.3220408856868744, -0.09536359459161758, 0.3718808889389038, -0.19034652411937714, -0.1516323685646057, 0.22344452142715454, -0.05082530528306961, 0.36804401874542236, 0.058689627796411514, -0.7090418934822083, 0.33426734805107117, -0.08001506328582764, -0.3765522539615631, 0.8398323059082031, 0.9778394103050232, -0.5192735195159912, 0.20494598150253296, 0.2957002520561218, 0.1975298821926117, 0.4033699929714203, 0.1953473687171936, -0.5447536110877991, 0.2037801444530487, -0.034441858530044556, 0.44515106081962585, -0.3640851378440857, -0.24515105783939362, 0.16942641139030457, -0.5025309324264526, -0.02938755415380001, 0.5175970196723938, 0.21549315750598907, -0.24505171179771423, 0.15383166074752808, -0.4188317656517029, 0.3990572988986969, -0.14974892139434814, -0.7153897881507874, -0.014823844656348228, 0.5519121289253235, 0.046829428523778915, 0.47338196635246277, -0.4864778518676758, 0.44116705656051636, 0.03653489425778389, 0.6887477040290833, 0.5484554171562195, 0.453451007604599, 0.21740590035915375, 0.3432420790195465, -0.2998468279838562, -0.08002921938896179, 0.12601743638515472, -0.48626989126205444, 0.04491598159074783, -0.03889064863324165, 0.409085214138031, -0.11732116341590881, -0.3745916187763214, -0.22669406235218048, -0.17629845440387726, 0.3039231598377228, 0.13839323818683624, 0.33241668343544006, 0.31973356008529663, -0.3255292475223541, 0.16788507997989655, -0.3787041902542114, 0.11625628173351288, -0.010419943369925022, -0.006566723342984915, -0.20994135737419128, -1.1685824394226074, -0.3629220426082611, 0.4267379641532898, -0.10154326260089874, -0.031033512204885483, 0.15048174560070038, -0.20623193681240082, -0.4005032479763031, -0.7399068474769592, -0.030295245349407196, -0.2226003110408783, -0.12736234068870544, -0.12057794630527496, -0.17257976531982422, -0.06670089066028595, 0.01137599628418684, -0.2639709413051605, 0.09410785138607025, -0.006110340356826782, -0.2388514131307602, 0.13900400698184967, 0.4434269070625305, 0.5848677754402161, 0.033786267042160034, 0.10580293834209442, -0.21525947749614716, -0.10702338069677353, 0.6425807476043701, -0.1447807103395462, 0.019366325810551643, 0.182109996676445, -0.2616749405860901, 0.03381697088479996, 0.43037253618240356, -0.2915094792842865, 0.06015206500887871, -0.44584688544273376, 0.2776086628437042, -0.2741300165653229, 0.08457287400960922, -0.004267869517207146, 0.1039200872182846, 0.05951909348368645, -0.18427182734012604, -0.14887076616287231, 0.07193081825971603, 0.5096145868301392, 0.18765020370483398, -0.1627570539712906, -0.09824765473604202, -0.7049232125282288, 0.17859897017478943, -0.2325747162103653, 0.1355559229850769, -0.22934786975383759, -0.34976351261138916, 0.1048799604177475, 0.20864863693714142, -0.027961021289229393, -0.1622181534767151, -0.2909426689147949, -0.13591144979000092, -0.23979583382606506, 0.037022557109594345, 0.18272383511066437, 0.33498677611351013, 0.09723465144634247, -0.19453738629817963, -0.07702892273664474, 0.6094663143157959, 0.3217947781085968, 0.4739554822444916, -0.050768014043569565, -0.3975810706615448, -0.970352828502655, 0.6306844353675842, -0.09494564682245255, 0.4641883671283722, -0.4273471236228943, -0.09343329817056656, 0.27014443278312683, 0.21194514632225037, -0.03233915567398071, -0.08710786700248718, -0.36909207701683044, 0.44183826446533203, -0.2745807468891144, 0.09758686274290085, 0.1970602422952652, 0.09503409266471863, 0.08942197263240814, -0.04189855605363846, -0.08733126521110535, -0.46114134788513184, 0.11450232565402985, -0.20958298444747925, 0.2680649161338806, -0.0075387172400951385, -0.5453352928161621, -0.8744452595710754, 0.1742819994688034, -0.08673176169395447, -0.006619528401643038, -0.31667059659957886, -0.2673146724700928, 0.07992839813232422, 0.05237578600645065, -0.09743727743625641, 0.3989660143852234, -0.017398322001099586, 0.1586744338274002, -0.14594221115112305, 0.034793395549058914, 0.017968492582440376, 0.22901637852191925, -0.6192552447319031, -0.18187113106250763, -0.23395830392837524, 0.46089044213294983, 0.3370981514453888, 0.0977478176355362, -0.46986106038093567, -0.3375401198863983, 0.2153668999671936, -0.2391059547662735, 0.2016049325466156, 0.046271149069070816, -0.1604514718055725, -0.1315331608057022, 0.16775134205818176, 0.09281792491674423, 0.18088731169700623, -0.4207611083984375, 0.2578451633453369, -0.3734323978424072, -0.17030179500579834, 0.2740667164325714, -0.11770172417163849, -0.061187680810689926, 0.6422773003578186, 0.34560680389404297, 0.44068998098373413, -0.43907976150512695, -0.23580530285835266, 0.2681970000267029, 0.5196047425270081, -0.14417223632335663, 0.1302730143070221, 0.25332531332969666, -0.5160219669342041, 0.04156365990638733, 0.43078261613845825, -0.6209120750427246, 0.018779972568154335, 0.049141306430101395, 0.026076195761561394, -0.0325775109231472, -0.13694290816783905, 0.48404407501220703, -0.06963574141263962, -0.11932426691055298, -0.06956211477518082, 0.11381025612354279, 0.19401764869689941, 0.11984749138355255, 0.5090034604072571, 0.23261457681655884, 0.20320163667201996, 0.04748097434639931, -0.3212950825691223, 0.3683300316333771, 0.3147132098674774, -0.16609708964824677, -0.1452949345111847, -0.049769558012485504, -0.006196300499141216, 0.041894614696502686, 0.04013792425394058, 0.02289471961557865, 0.032354965806007385, -0.293521910905838, -0.12274304032325745, -0.014874521642923355, -0.18384025990962982, -0.15296579897403717, 0.01802005246281624, 0.28659588098526, -0.09314434975385666, -0.05298465117812157, 0.020412007346749306, -0.05726277455687523, -0.11855363100767136, 0.40356361865997314, 0.010819573886692524, -0.44614923000335693, 0.21480005979537964, -0.0013939562486484647, -0.18725523352622986, 0.3558914065361023, 0.1767452508211136, -0.3418102562427521, 0.265342116355896, -0.16303011775016785, -0.053294289857149124, -0.4816485047340393, -0.10435416549444199, 0.2537028193473816, -0.025578118860721588, 0.17819510400295258, -0.060026779770851135, -0.11789047718048096, 0.2741986811161041, -0.01377869676798582, 0.005673625506460667, 0.21048812568187714, 0.06547899544239044, 0.02075604908168316, -0.0046274964697659016, -0.16092446446418762, -0.07332460582256317, -0.9002413749694824, 1.0447838306427002, 0.13137389719486237, -0.3312537670135498, -0.10984031856060028, 0.06696362793445587, -1.0219266414642334, 0.004836424719542265, 0.1425449550151825, -0.2911442220211029, 0.5463806390762329, -0.46310222148895264, 1.1547170877456665, 0.08648288249969482, -0.466065913438797, 0.45573684573173523, -0.10364890098571777, 0.2619997560977936, 0.38161420822143555, -0.048987023532390594, 0.10231374204158783, -0.12658123672008514, 0.2699107527732849, -0.004771928768604994, 0.3518325984477997, -0.10933689028024673, 0.019571853801608086, 0.7455760836601257, -0.048715222626924515, 0.12533971667289734, 0.3749809265136719, -0.3200245797634125, 0.2632104456424713, -0.008617439307272434, 0.12048766762018204, 1.0347903966903687, 0.16392001509666443, -0.27003875374794006, 0.5438147187232971, -0.2400379180908203, 0.26995426416397095, -0.3125045597553253, 0.05503988265991211, -0.1723182648420334, 0.40369462966918945, -0.3308846652507782, 0.051540255546569824, 0.19143423438072205, 0.5577117800712585, 0.5701563954353333, -0.26142165064811707, -0.1897602677345276, 0.29059353470802307, 0.21408365666866302, 0.32323190569877625, 0.06557267159223557, 0.374990314245224, 0.02830176241695881, 0.6584701538085938, -0.1641876995563507, 0.2532734274864197, 0.03493909165263176, -0.08862543851137161, 0.09219028800725937, 0.0827736109495163, 0.18253269791603088, 0.02302538976073265, 0.1664981096982956, 0.07523119449615479, 0.0536777637898922, -0.1586475670337677, -0.20865771174430847, -0.06973457336425781, 0.14834609627723694, -0.03139860928058624, 0.3748733103275299, 0.03311251476407051, 0.11426043510437012, 0.05223380774259567, 0.1542515605688095, -0.13827989995479584, 0.25923362374305725, -0.054789114743471146, -0.015399315394461155, 0.011706147342920303, -0.22048711776733398, -0.4154394865036011, 0.3501242399215698, -0.2173970490694046, -0.015352732501924038, 0.09566381573677063, -0.19138836860656738, 0.08828471601009369, -0.19190673530101776, 0.21716025471687317, 0.27626803517341614, 0.22216160595417023, 0.046406108886003494, -0.31107664108276367, -0.22790654003620148, 0.060526665300130844, -0.0769965872168541, -0.01888834871351719, 0.08405479788780212, -0.11433397978544235, -0.3491918742656708, -0.06317620724439621, 0.1433602273464203, 0.1463492065668106, -0.2666483521461487, 0.2032516896724701, 0.011846328154206276, -0.11907958984375, 0.28562620282173157, 0.23342816531658173, 0.07663149386644363, 0.10143354535102844, 0.1255953162908554, -0.08118069171905518, -0.009847807697951794, 0.17552736401557922, 0.3539682626724243, -0.09243768453598022, 0.20995163917541504, -0.13965296745300293, -0.15885552763938904, 0.11454065889120102, 0.10381579399108887, -0.08680489659309387, -0.18801596760749817, -0.06115691363811493, 0.5481379628181458, 0.08502135425806046, -0.2365286946296692, 0.45394811034202576, 0.04797365888953209, 0.7275968194007874, 0.21564172208309174, 0.28418463468551636, -0.1490650475025177, 0.0865081250667572, 0.019548801705241203, 0.029280615970492363, -0.18428871035575867, 0.3495510220527649, -0.05112936347723007, -0.1110582947731018, 0.2992638945579529, 0.4006475508213043, 0.1610148400068283, -0.020842749625444412, -0.18118508160114288, 0.037028968334198, 0.021214978769421577, 0.01164980884641409, -0.3369893431663513, -0.13888809084892273, 0.46362385153770447, -0.21805675327777863, 0.04671339690685272, 0.13509804010391235, 0.08164691179990768, -0.018613776192069054, -0.1567077934741974, 0.021411556750535965, -0.12208586931228638, -0.06504477560520172, 0.2576942443847656, 0.06938095390796661, -0.1450800746679306, 0.0013905601808801293, 0.04565030708909035, -0.17758645117282867, 0.06942863017320633, 0.23754921555519104, -0.6071009635925293, 0.1228736937046051, -0.14652739465236664, 0.263687402009964, 0.021506519988179207, 0.06131090223789215, -0.2468559443950653, -0.04678625985980034, 0.06061301380395889, -0.10610536485910416, 0.08999074250459671, 0.08767733722925186, -0.6273050904273987, 0.09663859754800797, 0.5254532694816589, 0.24025459587574005, -0.12282729148864746, -0.3770624101161957, 0.16140006482601166, 0.061571646481752396, -0.3681410551071167, 0.27649304270744324, 0.08031491190195084, 0.17145150899887085, 0.22910872101783752, -0.09913796931505203, 0.19487036764621735, 0.11332301795482635, -0.14433495700359344, 0.22557514905929565, -0.2616267204284668, -0.020287061110138893, 0.15230199694633484, -0.20870341360569, 0.14580830931663513, 0.06445770710706711, 0.12191709876060486, 0.15511038899421692, 0.2617923617362976, 0.0494048185646534, 0.14418242871761322, -0.005872481036931276, 0.20834273099899292, 0.08427848666906357, -0.2830081582069397, 0.1950553059577942, 0.006846411153674126, -0.1792255938053131, -0.2180473953485489, 0.4234412610530853, -0.09920323640108109, -0.319601833820343, 0.018294723704457283, -0.3952797055244446, 0.01337243802845478, 0.1778252273797989, -0.6272300481796265, -0.008327523246407509, -0.08620256930589676, -0.32228273153305054, 0.11068542301654816, -0.28067654371261597, -0.3526783287525177, -0.17721343040466309, -0.028700027614831924, -0.16457436978816986, -0.3875363767147064, 0.01808866858482361, 0.14131586253643036, -0.3716645836830139, -0.04481533169746399, -0.06899473071098328, 0.08659209311008453, -0.11085854470729828, -0.031588051468133926, -0.05992290377616882, -0.39190706610679626, -0.13373532891273499, 0.2472563087940216, -0.3078839182853699, -0.5577810406684875, 0.31202733516693115, -0.051587410271167755, -0.06816299259662628, 0.6371243596076965, -0.35227036476135254, -0.12368134409189224, -0.2920510470867157, 0.29405853152275085, -0.32891061902046204, -0.44046249985694885, 0.18475809693336487, 0.1114363893866539, -0.3216607868671417, -0.059770047664642334, 0.20375272631645203, -0.1486991047859192, 0.03139704093337059, 0.012084046378731728, -0.004278683569282293, -0.05068899318575859, -0.004949628375470638, -0.9090704917907715, 0.3012261986732483, 0.8564599752426147, 0.1506652683019638, -0.287960946559906, 0.2778283357620239, -0.7321856021881104, 0.37833377718925476, 0.1906406581401825, -0.24320469796657562, -0.18335209786891937, 0.3064337372779846, -0.046831075102090836, -0.4066914916038513, -0.20830164849758148, 0.13269014656543732, 0.2882571518421173, 0.4127800464630127, 0.3809886872768402, -0.2689044773578644, -0.08645370602607727, -0.1147875115275383, -0.04122171178460121, -0.0074171205051243305, 0.23013930022716522, 0.6725603938102722, -0.34384679794311523, -0.5717707276344299, 0.10469356179237366, 0.6927982568740845, 0.09591306746006012, 0.03419535607099533, 0.3628983199596405, 0.09474959969520569, -0.48962995409965515, -0.46247342228889465, 0.2583812177181244, 0.490863561630249, 0.10617214441299438, 0.26407545804977417, -0.18995541334152222, -0.09565702080726624, 0.34292951226234436, 0.10776196420192719, -0.5072194337844849, -0.23911148309707642, 0.1947525441646576, 0.3908129036426544, -0.32743027806282043, 0.03268510103225708, 0.5240808129310608, -0.046482909470796585, -0.008007730357348919, -0.8164417147636414, 0.419953316450119, -0.03562503308057785, -0.16294534504413605, -0.43363019824028015, -0.2060697078704834, 0.8027384877204895, 0.45648491382598877, 0.46001335978507996, 0.04488949105143547, -0.037810008972883224, -0.16947788000106812, 0.005546879954636097, 0.030152468010783195, -0.054651468992233276, 0.31224897503852844, -0.1485198587179184, -0.20381000638008118, -0.23583488166332245, -0.3277025520801544, 0.2133553922176361, -0.15323452651500702, -0.380188912153244, 0.05068376660346985, -0.14063778519630432, -0.0789431482553482, 0.17109769582748413, -0.10810699313879013, 0.06899233162403107, 0.06574638932943344, 0.08555091917514801, 0.2775862216949463, 0.26624372601509094, 0.1109248548746109, -0.0042732032015919685, 0.02116210386157036, 0.10598902404308319, 0.33669885993003845, 0.11622166633605957, 0.1161109209060669, -0.36485156416893005, -0.026098495349287987, -0.0323360413312912, -0.06870616972446442, -0.17196539044380188, -0.17707878351211548, -0.22292089462280273, -0.10175535082817078, 0.02905445359647274, 0.06987544149160385, 0.047617752104997635, -0.04139501601457596, 0.06916569173336029, 0.20126652717590332, -0.28761279582977295, -0.19749416410923004, -0.32879921793937683, -0.13889683783054352, -0.4662460386753082, 0.06744852662086487, -0.14913658797740936, -0.34167608618736267, 0.3073481023311615, 0.17902496457099915, 0.07385018467903137, 0.47673970460891724, 0.0166598092764616, 0.1936229020357132, 0.0072344522923231125, 0.02319931983947754, -0.010621454566717148, -0.2557522654533386, 0.2139226496219635, 0.1352376639842987, -0.33307817578315735, -0.0073129599913954735, -0.05376313626766205, -0.10945751518011093, 0.28293371200561523, 0.18986424803733826, 0.09739196300506592, 0.1367160826921463, 0.012822910211980343, -0.07587985694408417, 0.0627855435013771, 0.09136445820331573, 0.0707639828324318, -0.17745822668075562, -0.07778149843215942, 0.009991376660764217, -0.011053563095629215, -0.1374536156654358, -0.026028679683804512, -0.20728521049022675, -0.051946043968200684, -0.05045728012919426, -0.0717586949467659, -0.15004073083400726, -0.058622363954782486, 0.03130916506052017, -0.16154789924621582, -0.17320415377616882, -0.10555481910705566, -0.13736239075660706, -0.344656765460968, -0.2230634093284607, -0.013107536360621452, 0.19601666927337646, -0.242009699344635, -0.16504521667957306, -0.18283240497112274, 0.05734286457300186, 0.053944725543260574, -0.12871122360229492, -0.01576733961701393, 0.07240024954080582, 0.2599717676639557, -0.032540977001190186, -0.1959596872329712, -0.26908618211746216, 0.10950246453285217, -0.024880629032850266, -0.058332137763500214, 0.1848219782114029, -0.2904353439807892, 0.0008596240659244359, -0.17054565250873566, -0.14115342497825623, -0.08687051385641098, -0.4398704767227173, 0.2657445967197418, 0.2296987771987915, -0.23677663505077362, 0.42465534806251526, -0.03923341631889343, -0.002388511085882783, 0.1989549845457077, -0.07780588418245316, -0.027231749147176743, 0.2476629614830017, 0.10299927741289139, 0.34225210547447205, -0.19456976652145386, 0.0024494852405041456, 0.15433314442634583, -0.06743863224983215, 0.12252683937549591, 0.09088996797800064, -0.013442088849842548, 0.04998517781496048, 0.22904649376869202, 0.20446237921714783, 0.3066807985305786, 0.05426064506173134, -0.26249295473098755, 0.06491886079311371, 0.19441665709018707, 0.15465973317623138, 0.10557238757610321, -0.14036771655082703, 0.08192369341850281, -0.1836192011833191, -0.05806634947657585, -0.08528867363929749, 0.08576087653636932, -0.10997152328491211, 0.1441381424665451, -0.2323266714811325, 0.3025243878364563, 0.027015579864382744, -0.177901029586792, 0.03799929469823837, 0.14300008118152618, -0.0306711383163929, -0.08416339755058289, -0.02812659554183483, -0.33987313508987427, -0.34194302558898926, -0.14634209871292114, -0.0957052931189537, -0.31338194012641907, -0.44797152280807495, 0.08933135867118835, 0.119310162961483, -0.08513370156288147, 0.4219406545162201, -0.01817101053893566, 0.21232248842716217, 0.038355808705091476, 0.19587589800357819, -0.1558866798877716, -0.1492289900779724, -0.04138911888003349, 0.18801665306091309, -0.20386989414691925, 0.10248767584562302, 0.10175443440675735, -0.029599042609333992, -0.2181638777256012, -0.5941502451896667, -0.006877676583826542, -0.5423173904418945, 0.4702334403991699, -0.049289487302303314, -0.3764728605747223, -1.006388545036316, -0.08982038497924805, 0.023148180916905403, -0.06621833145618439, 0.06302043050527573, -0.008427474647760391, 0.4375240206718445, 0.09488389641046524, 0.4429958462715149, -0.056028813123703, -0.12657800316810608, -0.12310075759887695, -0.25619518756866455, 0.10160429030656815, -0.0010105099063366652, -0.1447875052690506, -0.05624482035636902, 0.0023757985327392817, 0.18308773636817932, -0.0425119511783123, 0.24734164774417877, 0.08504384011030197, -0.9596382975578308, -0.4006226062774658, -0.19473877549171448, 0.8009154200553894, 0.9915839433670044, 0.1343255490064621, -0.9370368123054504, -0.21053405106067657, 0.15829680860042572, -0.1904882788658142, 0.5289955139160156, -0.15701894462108612, 0.5223438739776611, -0.185965895652771, -0.35232654213905334, 0.05479900538921356, 0.2787652909755707, -0.3294485807418823, -0.10986209660768509, -0.156375452876091, -0.10276763141155243, 0.13204412162303925, -0.2782011330127716, -0.04498382657766342, 0.3786798119544983, -0.24211330711841583, 1.2052403688430786, -0.40442490577697754, 0.4637889266014099, 0.26404058933258057, 0.17360235750675201, 0.38512122631073, -0.539356529712677, -0.1021837592124939, -0.7063068151473999, 0.8730001449584961, -0.6185302734375, 0.26983609795570374, 0.37671348452568054, -0.20447376370429993, -0.2962317168712616, 0.37683314085006714, -0.5004075169563293, -0.14188627898693085, -0.2362125664949417, 0.2028992772102356, 0.4555928707122803, -0.27192631363868713, 0.11877952516078949, -0.2594658136367798, -0.08965528756380081, -0.30173438787460327, -0.15338343381881714, 0.009563522413372993, -0.18133583664894104, -0.031858984380960464, 0.1469985842704773, -0.08744727075099945, -0.3442869484424591, 0.47095951437950134, 0.28605419397354126, -0.05994743853807449, -0.18523232638835907, 0.4479708969593048, 0.48518791794776917, -0.19142548739910126, 0.30491727590560913, -0.5412269830703735, 0.43220990896224976, 0.047550689429044724, -0.27270808815956116, 0.655920147895813, 0.3233601748943329, -0.08139476180076599, -0.17275340855121613, 0.35590535402297974, -0.031051956117153168, -0.13039764761924744, -0.30611780285835266, -0.1633433699607849, -0.23920801281929016, -0.23462021350860596, -0.3328237235546112, 0.09790296107530594, 0.18767395615577698, -0.28954431414604187, 0.04207122325897217, -0.024353446438908577, 0.1958499401807785, 0.2914484739303589, -0.0548713244497776, -0.02469657175242901, -0.2190033495426178, -0.22985918819904327, 0.12919029593467712, 0.17561747133731842, 0.22525663673877716, -0.09504324942827225, 0.17459803819656372, -0.1461169570684433, 0.13490019738674164, 0.3201389014720917, -0.30597978830337524, -0.07715586572885513, 0.20450226962566376, -0.03583856672048569, -0.19056159257888794, 0.06783530116081238, -0.02476138435304165, 0.03352666273713112, -0.12867417931556702, 0.17389003932476044, 0.14611728489398956, 0.25688543915748596, -0.1396278440952301, -0.10460416972637177, 0.20380240678787231, -0.2416825145483017, 0.0314834862947464, 0.07559437304735184, -0.03719622641801834, 0.2619132697582245, -0.14757657051086426, 0.06055421382188797, -0.31789302825927734, 0.04323388263583183, 0.2126764953136444, 0.06489247828722, 0.219145268201828, 0.40526527166366577, 0.02579883299767971, -0.18036869168281555, -0.32023516297340393, -0.10284693539142609, 0.14765062928199768, 0.17368648946285248, 0.15744823217391968, -0.0680280551314354, 0.29516151547431946, -0.27157023549079895, -0.05143878608942032, -0.07370393723249435, -0.06832654029130936, 0.4691225588321686, -0.3988030254840851, 0.12156328558921814, -0.2855554223060608, -0.34695911407470703, 0.16344912350177765, -0.14265146851539612, 0.1532250940799713, 0.10402356088161469, -0.12974683940410614, 0.09159661084413528, 0.40846800804138184, 0.3274816870689392, 0.5689765214920044, -0.35304316878318787, -0.07156969606876373, 0.2998073697090149, -0.3139185607433319, 0.11500507593154907, 0.09349430352449417, -0.14662636816501617, -0.015513459220528603, -0.23791369795799255, -0.07169196009635925, -0.12113628536462784, 0.07009454071521759, 0.4161108434200287, -0.019275950267910957, 0.1045532375574112, 0.2522266209125519, 0.1755795031785965, -0.04560428112745285, -0.041636064648628235, 0.09103403240442276, -0.0236614178866148, -0.43868112564086914, -0.16567061841487885, -0.3867657780647278, -0.09195510298013687, 0.6724782586097717, -0.12167114019393921, -0.10038931667804718, 0.08580659329891205, -0.09872197359800339, 0.05849536135792732, -0.10860329866409302, 0.2153763771057129, -0.029408836737275124, -0.10770879685878754, 0.058873895555734634, -0.06626860797405243, -0.05471719801425934, -0.004281984642148018, 0.17457200586795807, -0.26471513509750366, 0.02032926119863987, 0.7884402275085449, -0.3230533301830292, -0.3372959494590759, -0.40631183981895447, -0.05150710418820381, 0.01177026703953743, -0.1161782294511795, -0.1917463093996048, 0.10262133926153183, -0.038755111396312714, 0.1732083410024643, -0.45049774646759033, 0.5006194710731506, -0.5520464777946472, 0.17223484814167023, -0.6961765289306641, -0.10246771574020386, 0.3707983195781708, 0.31648144125938416, -0.009686497040092945, -0.2136611044406891, 0.01492383237928152, 0.27583780884742737, -0.0174141526222229, 0.08238331973552704, 0.24173346161842346, 0.154865100979805, -0.09312806278467178, -0.2881803512573242, -0.4691295027732849, 0.040894296020269394, 0.09707410633563995, 0.44676458835601807, -0.05146158114075661, -0.07761938869953156, 0.02687992714345455, -0.05657857283949852, -0.06000865623354912, 0.44576209783554077, 0.041518643498420715, -0.006364522501826286, 0.47680410742759705, -0.020118078216910362, 0.06168127804994583, 0.35907357931137085, -0.05441002547740936, -0.006441215518862009, 0.346267968416214, -0.062163207679986954, -0.025645235553383827, -0.7061752676963806, 0.12428557872772217, 0.17790603637695312, -0.9524155259132385, -0.1221877932548523, -0.145718514919281, -0.4277774691581726, -0.06774145364761353, -0.005793417803943157, 0.03030938096344471, -0.18677379190921783, -0.1951872557401657, -0.002783641219139099, 0.2467009425163269, 0.5435773134231567, 0.14834098517894745, -0.11439984291791916, -0.32126086950302124, -0.07396519184112549, 0.06897477060556412, -0.13085298240184784, 0.08686762303113937, -0.04280795902013779, 0.28961318731307983, 0.08915035426616669, -0.2676565945148468, 0.07806751877069473, -0.3073503077030182, 0.16354846954345703, -0.22236277163028717, 0.1570519357919693, -0.21074137091636658, 0.28373071551322937, -0.22544126212596893, 0.07264771312475204, 0.4558332860469818, 0.532997190952301, -0.40916094183921814, 0.0031071146950125694, 0.36215999722480774, 0.10267525166273117, -0.2242463231086731, -0.4121618866920471, 0.2591957449913025, -0.10978718847036362, 0.22510482370853424, -0.4664216935634613, -0.1730339676141739, 0.2166891247034073, -0.1888212412595749, -0.11328282207250595, 0.1364031583070755, -0.03451026603579521, 0.1219479963183403, -0.09365080296993256, -0.27975550293922424, -0.05480494722723961, -0.10241683572530746, 0.3079130947589874, -0.10799995809793472, 0.019293267279863358, 0.1269380748271942, -0.10651765763759613, -0.013324737548828125, -0.6358141899108887, 0.16659565269947052, 0.037081100046634674, -0.3547392785549164, -0.1201673299074173, -0.05428584665060043, 0.12502911686897278, -0.007549716625362635, -4.7569803427904844e-05, 0.9779362082481384, 0.0038462637457996607, -0.0058000050485134125, -0.27600762248039246, -0.007062293589115143, 0.016425760462880135, 0.5814464688301086, 0.008973509073257446, -0.026493534445762634, 0.5479546785354614, -0.21130084991455078, -0.010928500443696976, 0.6521539688110352, -0.13217110931873322, 0.10002801567316055, -1.4197020530700684, 0.18423964083194733, -0.10226359963417053, -0.8842369914054871, -0.17008525133132935, 0.040430355817079544, -0.5921823978424072, 0.09416944533586502, 0.023553652688860893, -0.40511614084243774, -0.0664556622505188, 0.9273014068603516, 0.12497483938932419, 0.9319635629653931, 1.194841742515564, -0.12063053250312805, -0.2116939127445221, -0.6949968934059143, -0.08077671378850937, -0.2219616025686264, 0.1364292949438095, -0.578717052936554, -0.08841615915298462, 0.061118658632040024, -0.15688060224056244, -0.9593983888626099, 0.3312956988811493, 0.22092212736606598, 0.12214937061071396, -0.26896795630455017, -0.03259686380624771, 0.5237987637519836, -0.22723549604415894, -0.2368781715631485, 0.3469243049621582, 0.16734261810779572, 0.03491230309009552, 0.3789680600166321, 0.31848278641700745, 1.0256963968276978, 0.09083102643489838, 0.45728179812431335, 1.0521248579025269, 1.5636346340179443, 0.4310033321380615, 1.023261308670044, 0.566405177116394, 0.18516328930854797, 0.12169156223535538, 0.002572859637439251, 0.5836708545684814, 0.7895629405975342, -0.23947718739509583, 0.16701534390449524, 0.16070403158664703, 0.02833304926753044, 0.48929810523986816, 0.5296276211738586, 0.31176233291625977, 0.27850085496902466, -0.017936984077095985, -0.1282912790775299, 0.6275944709777832, 0.10847462713718414, -0.45045503973960876, 0.40599167346954346, -0.14684942364692688, -0.0667886808514595, 0.3357764482498169, 0.18439751863479614, -0.13168303668498993, 0.001931952778249979, 0.10873868316411972, 0.23935669660568237, -0.4754374623298645, -1.2153023481369019, -0.5874956846237183, -1.0200343132019043, -1.2419657707214355, -1.5300973653793335, -0.8294016122817993, -0.6564560532569885, -0.6572949290275574, 0.4668527841567993, 0.07439855486154556, -0.13888391852378845, 0.8626303672790527, 0.38706251978874207, 0.6409457325935364, 0.25355619192123413, 0.28057849407196045, 0.3996953070163727, 0.12658922374248505, 0.2443150281906128, -0.17062270641326904, -0.17800305783748627, 0.35521936416625977, 0.3685902953147888, -0.0916658341884613, -0.5092291831970215, -0.01218733936548233, 0.2198399007320404, 0.31225618720054626, 0.11022967100143433, 0.11521004885435104, 0.4683576226234436, -0.09468252956867218, -0.46307510137557983, -0.28894734382629395, -0.06407620757818222, 0.16201145946979523, -0.05030618980526924, 0.04732624813914299, 0.12967583537101746, 0.07193943858146667, 0.026854461058974266, 0.07231145352125168, 0.037272144109010696, 0.026745863258838654, -0.7327820062637329, 0.47201070189476013, -0.08532079309225082, -0.18858850002288818, 0.13880908489227295, -0.08215606212615967, -0.061128757894039154, 0.08545704931020737, 0.3155028820037842, -0.29952123761177063, -0.07546663284301758, -0.6724152565002441, 0.3220544457435608, 0.14144819974899292, 0.15013262629508972, -0.14845284819602966, -0.09408126771450043, 0.2501596212387085, 0.432562917470932, -0.14210344851016998, 0.22266477346420288, 0.22896543145179749, -0.05061132460832596, -0.12820608913898468, 0.36094236373901367, 0.32204484939575195, 0.07335799187421799, 0.3587745130062103, 0.18750351667404175, -0.34263885021209717, -0.033481813967227936, -0.05241718143224716, -0.21659357845783234, -0.2612888216972351, 0.22667525708675385, 0.709168016910553, -0.35442477464675903, 0.02734067663550377, -0.2792656719684601, -0.1578226536512375, 0.14828482270240784, 0.01917276903986931, 0.0952315554022789, -0.11048796772956848, -0.2487812042236328, 0.11321812868118286, -0.1462034285068512, -0.44309183955192566, -0.17834211885929108, 0.5588057637214661, -0.2108398675918579, -0.43270736932754517, 0.6704952120780945, 0.4655829071998596, -0.4072268009185791, -0.1384977400302887, 1.0137141942977905, 0.30880823731422424, 0.11977290362119675, 0.4329281151294708, 0.5545432567596436, 0.5143724679946899, -0.2675359845161438, -0.08115528523921967, -0.4253859519958496, 0.12355780601501465, -0.35488125681877136, 0.4796559810638428, 0.09343989938497543, -0.07809320092201233, 0.13491596281528473, 0.02367621473968029, 0.056818149983882904, 0.27511802315711975, -0.053638897836208344, -0.0493762344121933, -0.32011058926582336, 0.05082156881690025, -0.06700188666582108, 0.19662819802761078, -0.051319148391485214, 0.22409091889858246, -0.1786431074142456, -0.07166238874197006, 0.2644095718860626, 0.1114116832613945, 0.11248692870140076, 0.07958707213401794, -0.42973026633262634, 0.050728410482406616, 0.2307324856519699, 0.04915612190961838, 0.2008400857448578, -0.1275826245546341, -0.08364269137382507, 0.1513984501361847, -0.03139179199934006, 0.07791096717119217, 0.42171505093574524, -0.1584131270647049, 0.11929858475923538, 0.3847474753856659, -0.07520703971385956, -0.08725744485855103, -0.08130960911512375, -0.18911311030387878, 0.19870369136333466, -0.05110829323530197, -0.15045519173145294, -0.0002050309703918174, 0.02546987123787403, 0.20871910452842712, -0.40542903542518616, -0.22830858826637268, 0.00617049029096961, 0.06830862909555435, -0.21002410352230072, 0.17456647753715515, 0.08724658936262131, 0.014139281585812569, 0.790870189666748, -0.04449894279241562, 0.045304521918296814, 0.22993016242980957, -0.6304593682289124, 0.2379339337348938, 0.1738710254430771, -0.39749470353126526, -0.654105007648468, -0.06085102632641792, 0.40476474165916443, -0.3505033552646637, 0.4979562759399414, -0.3711954355239868, -0.597439169883728, 0.5841991305351257, -0.24277319014072418, -0.2208212912082672, 0.06464157998561859, -0.04320063814520836, -0.2944428026676178, -0.3023851811885834, 0.1989666223526001, 0.04713601619005203, 0.11691106110811234, 0.07044966518878937, 0.3617149591445923, 0.14317601919174194, 0.08203867077827454, -0.09442184865474701, -0.29557153582572937, -0.328065425157547, -0.5164565443992615, -0.03944290056824684, -0.16613087058067322, 0.3924267590045929, 0.11877978593111038, -0.1309770941734314, 0.21457374095916748, 0.23594209551811218, -0.19666098058223724, -0.39772242307662964, -0.19479160010814667, 0.5852137207984924, -0.06987233459949493, 0.11350151896476746, -0.23405517637729645, 0.38111695647239685, 0.005772097036242485, 0.015628481283783913, -0.3509160280227661, -0.004348007496446371, 0.2595422863960266, -0.12137112021446228, -0.10651303082704544, -0.33150357007980347, 0.2698795199394226, 0.21473369002342224, 0.2386128157377243, -0.18965770304203033, 0.025580009445548058, -0.17410653829574585, 0.09202894568443298, -0.11366488039493561, -0.05009720101952553, 0.08828938007354736, 0.4030150771141052, 0.2252841591835022, -0.3963650166988373, -0.12271628528833389, 0.057080771774053574, -0.050934650003910065, -0.13655272126197815, -0.23331120610237122, -0.18476741015911102, -0.0099802166223526, 0.26826345920562744, -0.8104956150054932, -0.39034339785575867, -0.24478588998317719, -0.23550386726856232, -0.7554603815078735, 0.1776786595582962, -0.01799076423048973, -0.08501914143562317, 1.0443109273910522, 0.5074005126953125, -0.7416905760765076, -0.2798392176628113, -0.03513717278838158, -0.0176815427839756, 0.8264830708503723, -0.3726813793182373, -0.8015019297599792, 0.19830229878425598, -0.012635567225515842, 0.0654122456908226, -0.26226291060447693, 0.28224313259124756, 0.04786626249551773, 0.20628589391708374, 0.1901801973581314, -0.015823258087038994, 0.08113136887550354, 0.16223040223121643, -0.16937296092510223, 0.10038180649280548, -0.34927845001220703, 0.056307293474674225, 0.004004138521850109, 0.03116120584309101, 0.15918277204036713, -0.001207675551995635, -0.12581656873226166, -0.1270936131477356, -0.15766586363315582, -0.033649787306785583, 0.3263756334781647, -0.02989465929567814, 0.05598221346735954, -0.09659948199987411, 0.27791592478752136, 0.27156293392181396, -0.45529603958129883, -0.06448381394147873, 0.25715214014053345, 0.06127002090215683, 0.06046302244067192, -0.056827593594789505, -0.1699559986591339, -0.364623486995697, -0.16907420754432678, 0.3179868757724762, 0.18132184445858002, 0.14806000888347626, 0.01934453845024109, 0.1961430162191391, -0.06831273436546326, -0.07724618166685104, -0.2785918414592743, -0.03359206020832062, 0.20365221798419952, 0.46372130513191223, -0.1421816647052765, 0.19999004900455475, -0.10156850516796112, 0.09331909567117691, -0.15788742899894714, -0.03982003033161163, 0.0675964206457138, -0.32216814160346985, -0.18008285760879517, 0.0742749348282814, -0.3821389973163605, 0.14823485910892487, 0.20237472653388977, -0.02949679084122181, 0.09496021270751953, 0.014193077571690083, 0.634499192237854, 0.08097679167985916, -0.38128867745399475, 0.7313623428344727, -0.633735179901123, -0.4644262492656708, 0.10211992263793945, -0.964562714099884, -0.31415608525276184, -0.3722754716873169, 0.5567613244056702, 0.4601120054721832, 0.7105812430381775, 0.1354813426733017, 0.3389572203159332, -0.04125138744711876, -0.08939233422279358, 0.005668605677783489, -0.1707686483860016, 0.4720810651779175, -0.15565937757492065, -0.08354809880256653, 0.4254603087902069, 0.049135465174913406, 0.11273155361413956, 0.31746113300323486, 0.1996261030435562, 0.25965556502342224, 0.30678534507751465, -0.016632115468382835, -0.09457504749298096, 0.00047025951789692044, -0.06103087216615677, -0.10220121592283249, 0.22101132571697235, 0.03844928741455078, 0.16162119805812836, 0.01315868180245161, 0.05304601043462753, 0.0818241536617279, -0.32169291377067566, -0.044247742742300034, 0.10054579377174377, 0.44537094235420227, -0.024600733071565628, -0.11455989629030228, 0.4352361857891083, -0.17199662327766418, -0.14258180558681488, -0.19736671447753906, 0.23524844646453857, 0.1445673108100891, 0.13197040557861328, 0.17359724640846252, 0.031126147136092186, -0.24988752603530884, 0.24617458879947662, -0.14902211725711823, 0.31452813744544983, -0.06197710707783699, 0.47570130228996277, -0.14172376692295074, -0.38945555686950684, -0.2510856091976166, -0.07872724533081055, -0.030331378802657127, 0.01531146839261055, 0.807756781578064, 0.2828865945339203, 0.4337558150291443, 0.0358399823307991, -0.3686101734638214, -0.28563836216926575, 0.3208305835723877, -0.309984415769577, -0.1424969732761383, 0.15155118703842163, -0.004729075822979212, -1.363349199295044, -0.11346360296010971, -0.36371806263923645, -0.24152882397174835, 0.22182494401931763, 0.40615689754486084, 1.0231106281280518, 0.06003589555621147, 1.2178351879119873, -0.3526228070259094, -0.5862637758255005, -0.1756170392036438, 0.13114701211452484, -0.5286429524421692, -0.3165436089038849, -0.056397944688797, -0.021507764235138893, 0.16035611927509308, -0.10611531138420105, -0.20106877386569977, 0.1957494616508484, 0.007606516592204571, 0.11900734901428223, 0.2796471118927002, 0.2628505527973175, 0.2233651727437973, -0.4429393410682678, -0.09505152702331543, 0.08218083530664444, 0.024281388148665428, -0.1343214362859726, -0.027538703754544258, -0.3186860978603363, -0.09470199048519135, -0.1385347694158554, -0.20804406702518463, 0.3688753545284271, 0.0852501392364502, 0.25873106718063354, -0.05376410856842995, 0.03520940616726875, 0.1145317405462265, -0.1419217735528946, -0.19491447508335114, 0.06931319087743759, -0.0074370806105434895, 0.04479636251926422, 0.17019206285476685, 0.2836625874042511, 0.20947957038879395, -0.25296327471733093, 0.2548964321613312, 0.2528558373451233, -0.077623151242733, -0.1578218638896942, -0.11276309937238693, 0.5317217707633972, 0.2161615639925003, 0.8933907747268677, 1.1494929790496826, -0.6262916326522827, -1.0402816534042358, 0.10889843851327896, -0.0844401866197586, -0.0977807268500328, 0.3658994138240814, 0.48303091526031494, 0.03899320587515831, -0.0010975342011079192, -0.14306220412254333, -0.3170376420021057, 0.029101664200425148, -0.20424234867095947, 0.21185694634914398, 0.6572791337966919, -0.47982487082481384, 0.6534448266029358, -0.24993115663528442, -0.20922842621803284, -1.2347513437271118, 0.32959187030792236, -0.743285596370697, -0.08825293183326721, 0.9326274394989014, 0.006606530398130417, 0.315151184797287, -0.039828479290008545, -0.0443122424185276, -0.1262217015028, 0.11718937754631042, 0.04996385797858238, -0.01190759614109993, -0.18106533586978912, -0.3110472559928894, 0.046075716614723206, -0.1385173350572586, -0.0221481341868639, 0.016166675835847855, 0.015565639361739159, 0.014035395346581936, 0.013620799407362938, 0.38026219606399536, -0.06920008361339569, -0.05900981277227402, -0.0501207672059536, 0.1763950139284134, -0.10388132184743881, -0.2503710687160492, -0.16489942371845245, -0.0598156601190567, -0.1275714784860611, -0.10965291410684586, 0.151117205619812, 0.24366401135921478, -0.2889731228351593, -0.04859955608844757, -0.011896048672497272, 0.03924975171685219, -0.12510794401168823, -0.2504745125770569, 0.10811400413513184, -0.0072875902988016605, -0.1360418051481247, -0.02012532204389572, 0.2998727858066559, 0.16717123985290527, -0.20581915974617004, 0.03351721912622452, 0.0919121652841568, -0.28032708168029785, 0.08731236308813095, 0.2788029611110687, 0.11323100328445435, 0.028085216879844666, 0.12933002412319183, 0.06789090484380722, -0.07072972506284714, -0.3625675439834595, -0.021939028054475784, -0.07466481626033783, -0.22190943360328674, -0.033946458250284195, -0.04386104643344879, -0.34452375769615173, -0.10594097524881363, -0.2892163097858429, -0.07262285053730011, 0.28756287693977356, -0.626619279384613, -0.6722007989883423, 0.17030949890613556, 0.243451789021492, -0.2804239094257355, -0.790951669216156, 0.369373083114624, -0.17130985856056213, -1.0398021936416626, 0.11836377531290054, 1.0784757137298584, 0.11118678748607635, 1.1204140186309814, -0.028691597282886505, -0.47685056924819946, 0.29814979434013367, -0.3055383265018463, 0.12255523353815079, -0.5909667015075684, -0.012484699487686157, -0.1512458324432373, -0.1474950909614563, -0.11759570986032486, -0.1507134586572647, -0.08447316288948059, -0.12830901145935059, -0.11247868835926056, -0.42981094121932983, -0.020774690434336662, 0.19833536446094513, -0.3957146406173706, -0.039735063910484314, -0.056263573467731476, 0.2620365023612976, 0.04996246472001076, -0.07926066964864731, 0.32191625237464905, 0.03370099887251854, 0.003680168418213725, 0.3059425950050354, 0.04705866426229477, 0.20431967079639435, 0.7731563448905945, -0.014943419024348259, -0.0543854720890522, 0.31719255447387695, -0.06838154792785645, -0.11344519257545471, -0.18716083467006683, -0.03094629757106304, -0.11198241263628006, -0.3720308840274811, -0.013860227540135384, 0.10648743808269501, 0.4352330267429352, -0.036661677062511444, 0.08317754417657852, -0.1162058487534523, 0.0015183950308710337, 0.059116821736097336, -0.3375835120677948, 0.013868595473468304, -0.010217685252428055, 0.7402446269989014, 0.07956603914499283, -0.20280513167381287, -0.001275593531318009, -0.3460700809955597, 0.03779983147978783, 0.10496914386749268, -0.30083930492401123, -0.225089892745018, -0.2342514842748642, 0.6572198867797852, -0.6737717390060425, -0.5629528164863586, -5.293089088809211e-06, -0.960857629776001, 0.578240692615509, 0.15938371419906616, -0.7021667957305908, 0.24816232919692993, -0.14644861221313477, 0.8750334978103638, 0.2909631133079529, 0.40756726264953613, -0.8445909023284912, 0.7016066908836365, 0.008777379058301449, 0.11076852679252625, 0.4343932867050171, -0.15885263681411743, 0.7236502170562744, 0.14010103046894073, -0.11959324777126312, -0.006964480504393578, -0.008601170964539051, 0.1574326753616333, 0.01385137066245079, -0.05688173323869705, -0.05025697126984596, 0.11188992857933044, 0.08771611750125885, -0.6383411884307861, 0.06149361655116081, -0.0018268430139869452, 0.7162999510765076, 0.038837045431137085, 0.08353728801012039, -0.27000513672828674, 0.02060428075492382, 0.07467830181121826, -0.08716216683387756, -0.047021783888339996, -0.05219297856092453, -0.28642329573631287, -0.053316857665777206, -0.06062597781419754, -0.014160984195768833, 0.006932785734534264, 0.03132836893200874, 0.27969515323638916, -0.021895356476306915, 0.01467486098408699, 0.02346426248550415, -0.10669353604316711, -0.07611207664012909, -0.31394580006599426, -0.05757424235343933, -0.054954417049884796, 0.6143335103988647, -0.04184144735336304, -0.10588465631008148, 0.16218295693397522, -0.007154790684580803, -0.06702814996242523, 0.016479503363370895, 0.09841623902320862, 0.09110140800476074, 0.322956383228302, 0.10039882361888885, 0.14249591529369354, -0.07261652499437332, -0.44686001539230347, -0.6173058152198792, 0.1754896640777588, -0.4781990945339203, 0.6850558519363403, -0.06166800856590271, 0.5599536895751953, -0.3658451735973358, -0.12091034650802612, -0.04836457967758179, -0.23046547174453735, 0.3559243679046631, 0.2869518995285034, -0.44128191471099854, -0.050015389919281006, 0.1681065559387207, 0.4823986291885376, -0.11955636739730835, 0.3069649934768677, -0.028011441230773926, -0.1917715072631836, 0.30598050355911255, -0.4455450773239136, 0.41890019178390503, 0.4994143843650818, -0.1365121603012085, 0.1975109577178955, 0.49860215187072754, 1.0437037944793701, 1.2192410230636597, 1.109715223312378, -1.1164861917495728, 0.42427971959114075, 0.019999999552965164]}