{"version": "0.5.1", "metadata": {"date": {"year": 2023, "month": 4, "day": 28, "hour": 10, "minute": 53, "second": 41}, "loudness": -18.156660079956055, "gain": 0.5398977960407686, "name": null, "modeled_by": null, "gear_type": null, "gear_make": null, "gear_model": null, "tone_type": null}, "architecture": "WaveNet", "config": {"layers": [{"input_size": 1, "condition_size": 1, "head_size": 4, "channels": 8, "kernel_size": 3, "dilations": [1, 2, 4, 8, 16, 32, 64], "activation": "Tanh", "gated": false, "head_bias": false}, {"input_size": 8, "condition_size": 1, "head_size": 1, "channels": 4, "kernel_size": 3, "dilations": [128, 256, 512, 1, 2, 4, 8, 16, 32, 64, 128, 256, 512], "activation": "Tanh", "gated": false, "head_bias": true}], "head": null, "head_scale": 0.02}, "weights": [0.12945285439491272, 0.4464358687400818, -1.021103858947754, -0.661063551902771, -0.44899359345436096, 0.21310630440711975, -0.5314844250679016, 0.835584282875061, 0.05562964826822281, -0.06180671602487564, 0.07542882114648819, -0.06948249787092209, -0.3614167273044586, -0.09354054182767868, -0.049966927617788315, 0.1861613541841507, 0.043928273022174835, 0.16026532649993896, 0.03571086749434471, -0.12079618871212006, 0.09956745058298111, 0.3326789140701294, -0.08883141726255417, 0.1186225488781929, -0.185630202293396, 0.04694051668047905, 0.18196916580200195, 0.0007434167200699449, -0.20679689943790436, -0.08686783164739609, -0.25365978479385376, 0.21244525909423828, -0.08042154461145401, 0.004606482107192278, -0.35332441329956055, -0.12713944911956787, -0.02640567161142826, 0.03062543272972107, 0.01917184516787529, -0.0033357921056449413, 0.15726912021636963, -0.17987950146198273, -0.0699767917394638, -0.0581592358648777, -0.21196220815181732, -0.19809092581272125, 0.2758898138999939, 0.21981950104236603, 0.045477911829948425, -0.07973773032426834, 0.06515829265117645, 0.09136592596769333, 0.283999502658844, 0.09609200060367584, 0.2350578010082245, -0.2640775442123413, 0.05912470072507858, -0.2020033746957779, 0.031889986246824265, -0.08776788413524628, 0.09813426434993744, 0.20919294655323029, -0.13297900557518005, 0.06547122448682785, -0.015633346512913704, -0.03236132115125656, 0.011579473502933979, -0.06665970385074615, 0.10779460519552231, 0.18832409381866455, -0.28773629665374756, -0.08030582219362259, 0.06554798781871796, 0.24034413695335388, 0.14725977182388306, 0.206364706158638, -0.15386377274990082, -0.16481243073940277, 0.01865398697555065, -0.0036061638966202736, -0.003830353729426861, 0.19206340610980988, 0.38783007860183716, -0.14873267710208893, -0.04713250324130058, 0.06898655742406845, -0.09168242663145065, -0.004124219994992018, -0.027872610837221146, -0.17241141200065613, 0.16253985464572906, 0.003137503517791629, 0.08697161823511124, 0.15871661901474, -0.310698539018631, -0.0797407254576683, 0.04076145589351654, 0.14735116064548492, -0.27709725499153137, -0.04403676837682724, 0.023228581994771957, 0.1900835633277893, -0.17809313535690308, 0.05046854913234711, -0.09438687562942505, -0.17017540335655212, -0.12549252808094025, -0.0770256295800209, -0.15457600355148315, 0.06331496685743332, -0.1614648401737213, 0.27363458275794983, -0.1510927379131317, 0.10816231369972229, 0.2856264114379883, -0.20064952969551086, -0.1358737200498581, 0.14649218320846558, -0.00927578005939722, 0.13782785832881927, -0.04745932295918465, 0.048412322998046875, -0.21417729556560516, 0.26256483793258667, -0.2385798990726471, -0.04754277318716049, -0.2020193338394165, -0.07383596152067184, -0.11432389169931412, -0.16516409814357758, 0.3488992154598236, -0.06437058746814728, -0.15259486436843872, 0.27356046438217163, 0.25986990332603455, 0.006432684138417244, -0.2849525213241577, 0.10608227550983429, 0.07487921416759491, -0.13910731673240662, 0.30036357045173645, 0.14650359749794006, -0.09663351625204086, -0.16533389687538147, -0.24947653710842133, 0.09719777852296829, 0.18102668225765228, -0.013842439278960228, -0.5150736570358276, -0.26751023530960083, -0.21339838206768036, 0.1145208328962326, -0.18570248782634735, 0.1818743795156479, 0.03538559377193451, -0.2568106949329376, 0.2359985113143921, -0.16383351385593414, 0.01571900211274624, -0.1997421532869339, -0.04011042043566704, 0.014217695221304893, -0.2969813644886017, -0.17978571355342865, 0.03255489841103554, -0.10157568007707596, -0.08347021788358688, 0.010872839018702507, -0.09802809357643127, -0.02327393926680088, 0.29209524393081665, -0.19587565958499908, 0.22795887291431427, 0.019402528181672096, -0.06857708096504211, 0.13188426196575165, -0.04986550286412239, -0.18456816673278809, 0.4168494939804077, -0.25454357266426086, -0.12695828080177307, 0.1540307104587555, 0.24153099954128265, 0.21418842673301697, -0.10031444579362869, 0.17695936560630798, 0.11693423241376877, -0.2238043248653412, -0.07859843969345093, 0.26044443249702454, -0.0381644032895565, 0.023558132350444794, -0.31609073281288147, 0.1473548859357834, -0.03749893233180046, 0.06141537055373192, -0.3400343060493469, -0.02800527773797512, -0.2795918881893158, 0.18694806098937988, 0.0828704759478569, 0.055380500853061676, -0.08455825597047806, -0.18418285250663757, -0.09817130118608475, 0.10970952361822128, -0.3210357427597046, 0.08951444923877716, 0.3857352137565613, -0.014493308030068874, 0.10691186040639877, -0.10099232196807861, 0.14333002269268036, 0.04889017716050148, 0.005227705929428339, 0.317101389169693, -0.10045592486858368, -0.03444197028875351, 0.24506665766239166, -0.36389681696891785, -0.045336537063121796, 0.3159424662590027, 0.1736074686050415, 0.16725704073905945, -0.329969197511673, 0.28760185837745667, -0.21758292615413666, -0.12522542476654053, -0.1098698154091835, -0.050164658576250076, -0.1837952435016632, 0.2904435098171234, 0.2057330459356308, 0.2791926860809326, 0.17826779186725616, -0.23126810789108276, 0.19493228197097778, -0.049338895827531815, -0.2632436454296112, 0.28830474615097046, -0.131973534822464, 0.28153160214424133, -0.1026984378695488, 0.11721434444189072, 0.20356404781341553, -0.5341793894767761, 0.31142085790634155, -0.3901790678501129, 0.14693832397460938, -0.08310620486736298, -0.16883015632629395, -0.03331276774406433, 0.27438947558403015, 0.08507688343524933, -0.20987704396247864, 0.012628157623112202, -0.09030646085739136, -0.11382627487182617, 0.20012211799621582, 0.17441830039024353, 0.18841145932674408, 0.1924373060464859, 0.256240576505661, 0.2901623249053955, 0.13554279506206512, 0.030885981395840645, -0.12170427292585373, -0.09923599660396576, 0.10629783570766449, 0.2875058948993683, -0.2661968469619751, 0.07907506823539734, -0.19395476579666138, -0.029870249330997467, 0.009047262370586395, -0.27063411474227905, 0.46867308020591736, -0.16232535243034363, -0.09872962534427643, 0.07412011921405792, 0.049743521958589554, -0.09570923447608948, -0.2400670200586319, 0.16119921207427979, 0.07669354975223541, -0.06087388098239899, -0.07206077873706818, 0.07410780340433121, -0.3318248391151428, 0.1820574551820755, -0.056077923625707626, 0.1920042783021927, 0.11722181737422943, -0.14915283024311066, -0.21675121784210205, -0.23388177156448364, 0.2779514491558075, 0.19204798340797424, 0.14031149446964264, -0.22153934836387634, -0.20421560108661652, -0.13585464656352997, -0.012578194960951805, -0.2601841688156128, -0.12482647597789764, 0.05416619032621384, -0.1303730458021164, -0.06871531903743744, 0.23252016305923462, 0.12335558980703354, -0.1779700517654419, -0.15205025672912598, 0.3199132978916168, -0.07003603130578995, 0.13261261582374573, 0.21401233971118927, -0.09164545685052872, -0.050351087003946304, -0.053639382123947144, -0.04675780609250069, 0.04207787290215492, -0.2231479287147522, -0.03994017839431763, 0.029566984623670578, 0.040622446686029434, 0.16896933317184448, 0.16448266804218292, 0.08720920979976654, 0.05714397132396698, -0.0320894680917263, -0.25593239068984985, -0.21178005635738373, 0.22671587765216827, 0.24342668056488037, -0.1251029074192047, 0.006261578761041164, 0.12142232060432434, 0.2918032109737396, 0.05282025784254074, -0.11375713348388672, -0.1806500256061554, 0.0212913379073143, 0.345566987991333, 0.11575642973184586, -0.3708309531211853, 0.2460704743862152, -0.14519289135932922, 0.26644232869148254, 0.10162188112735748, 0.11267415434122086, -0.22872582077980042, 0.20599178969860077, 0.0954609215259552, 0.07467134296894073, 0.2183266282081604, 0.16319331526756287, -0.3311392068862915, -0.20885291695594788, -0.1787993311882019, 0.1837306171655655, -0.0944095104932785, -0.22488270699977875, -0.17978885769844055, -0.024507779628038406, 0.014570756815373898, 0.26542899012565613, 0.4707055389881134, -0.029910901561379433, -0.28889966011047363, 0.23004050552845, -0.06734201312065125, 0.016522392630577087, 0.011309833265841007, -0.006065470166504383, -0.3406282365322113, -0.34392398595809937, 0.14648936688899994, 0.004024975001811981, 0.3336769938468933, 0.304023414850235, -0.007859195582568645, -0.3631691336631775, -0.00036239830660633743, 0.2833794355392456, -0.010706826113164425, 0.17190447449684143, 0.10533418506383896, 0.1969403773546219, -0.017202630639076233, -0.0488690510392189, -0.05785980820655823, -0.029855459928512573, 0.14602366089820862, -0.2780364751815796, 0.08281171321868896, 0.16747774183750153, 0.12955625355243683, -0.05653319135308266, 0.08540517836809158, 0.4293932020664215, 0.06894880533218384, 0.1245092824101448, -0.13324283063411713, 0.14187195897102356, 0.38692060112953186, 0.056933727115392685, 0.1713862270116806, -0.0037448264192789793, -0.27938008308410645, 0.24717405438423157, -0.03340919688344002, -0.025340169668197632, 0.13424023985862732, -0.11356522142887115, -0.27216535806655884, -0.1519991010427475, 0.006383138243108988, 0.10081686079502106, -0.1570732444524765, 0.3855678141117096, 0.0258400347083807, -0.11795996874570847, 0.17433561384677887, 0.16880491375923157, 0.34673869609832764, 0.02375992201268673, -0.10475996136665344, -0.183877632021904, -0.03799797594547272, 0.17106658220291138, -0.12933748960494995, -0.08129775524139404, 0.055836271494627, -0.2545396089553833, -0.3068099319934845, 0.06600041687488556, 0.13862796127796173, -0.2547460198402405, 0.08519398421049118, -0.12294194102287292, 0.06758875399827957, -0.412238746881485, 0.13901977241039276, -0.11933116614818573, -0.28243565559387207, 0.16420882940292358, 0.1016557514667511, 0.15201431512832642, -0.056249912828207016, -0.09716355055570602, 0.169535294175148, 0.10841958969831467, 0.5108407735824585, 0.20326440036296844, -0.16503530740737915, 0.05656488984823227, -0.031012002378702164, 0.14087346196174622, -0.05390390381217003, -0.23258090019226074, -0.2912036180496216, -0.07591599225997925, 0.220033660531044, -0.05854223668575287, 0.010358032770454884, 0.40928295254707336, 0.02920130081474781, -0.34967920184135437, -0.0028218638617545366, 0.03271849453449249, 0.055567316710948944, 0.11441484838724136, 0.17000237107276917, 0.024186545982956886, 0.19449461996555328, -0.11638650298118591, -0.18977081775665283, -0.05704749748110771, -0.15318816900253296, 0.2559405267238617, -0.25321561098098755, -0.1565508395433426, -0.07980107516050339, 0.09174799919128418, -0.05217263847589493, 0.15028269588947296, 0.03310874477028847, 0.13745926320552826, -0.07451720535755157, -0.4088720381259918, -0.09238578379154205, 0.27825459837913513, 0.3244333863258362, -0.955222487449646, 0.7898153066635132, 0.23108385503292084, -0.5311220288276672, -0.2228396087884903, 0.25963762402534485, 0.6292344927787781, -0.2633931040763855, 0.038003429770469666, 0.12944890558719635, 0.26052385568618774, 0.13905784487724304, -0.20351852476596832, 0.32153019309043884, 0.34521713852882385, -0.2869207561016083, 0.169119194149971, -0.4630219638347626, 0.3482072651386261, -0.10126356035470963, 0.019651705399155617, 0.1665855199098587, -0.0610380694270134, -0.21914632618427277, 0.34323012828826904, 0.14573882520198822, 0.004479447845369577, 0.43858420848846436, 0.35765549540519714, -0.18653038144111633, -0.49831658601760864, -0.14772576093673706, -0.08582683652639389, 0.34989452362060547, -0.28145721554756165, -0.3127402365207672, -0.05073820799589157, 0.5872370600700378, 0.6427716016769409, -0.25270876288414, -0.5032760500907898, -0.14082960784435272, 0.015466887503862381, -0.114774689078331, 0.2876150608062744, -0.04014011472463608, 0.17618395388126373, -0.32188332080841064, -0.16569645702838898, -0.1242801770567894, -0.4619543254375458, 0.07499699294567108, 0.28652718663215637, -0.1126556545495987, -0.007946177385747433, -0.1858222335577011, 0.35448184609413147, -0.41439002752304077, -0.2818506956100464, 0.2627312242984772, -0.3491867780685425, 0.014807713218033314, -0.10694807022809982, -0.11024723947048187, -0.09302492439746857, 0.11469120532274246, 0.08836162835359573, -0.2061232179403305, -0.04853970929980278, -0.13995195925235748, 0.07309645414352417, -0.17300403118133545, 0.07597837597131729, -0.00786827877163887, -0.052271999418735504, 0.3047906756401062, 0.31828010082244873, 0.26425352692604065, 0.2776853144168854, -0.04554664343595505, 0.15081436932086945, 0.20788520574569702, 0.01813698559999466, -0.4244067072868347, -0.22479413449764252, 0.05546114221215248, 0.07252268493175507, 0.1162690818309784, -0.17971627414226532, -0.37410953640937805, 0.17019394040107727, 0.19717338681221008, -0.11124234646558762, 0.3248012363910675, -0.04235489293932915, -0.05184274911880493, -0.07830998301506042, -0.08281578123569489, -0.00358138931915164, -0.36126768589019775, 0.3939257562160492, 0.05481566861271858, -0.2026645392179489, -0.13041818141937256, 0.12360812723636627, 0.13843883574008942, 0.24121452867984772, -0.24419492483139038, 0.16062289476394653, -0.3408288061618805, 0.26182156801223755, -0.16645506024360657, 0.0040412056259810925, 0.1049538105726242, -0.2014184147119522, -0.12375213205814362, -0.10045642405748367, -0.02389555424451828, -0.055804893374443054, 0.10689963400363922, -0.028819089755415916, -0.011040883138775826, 0.290571391582489, 0.40211358666419983, 0.3683662414550781, 0.07212083786725998, -0.3086250424385071, -0.21299278736114502, 0.3368346691131592, 0.309305340051651, -0.277608722448349, -0.3774956464767456, -0.2306244820356369, -0.10897406190633774, -0.017135359346866608, 0.25411954522132874, 0.20062550902366638, -0.01998555287718773, 0.26499417424201965, 0.22675667703151703, -0.016077332198619843, 0.3527827560901642, -0.08471083641052246, -0.3413987457752228, -0.5391185283660889, -0.22784699499607086, 0.3444836735725403, -0.01877676323056221, 0.40932729840278625, -0.0634622648358345, -0.31506457924842834, -0.23517949879169464, 0.3837926983833313, 0.05544557049870491, 0.13282330334186554, -0.3314555883407593, -0.09919637441635132, 0.012472148053348064, -0.09041596949100494, 0.45034998655319214, -0.07574156671762466, -0.38972073793411255, -0.14869798719882965, 0.05408737063407898, -0.024942370131611824, -0.0195823572576046, -0.004763652104884386, -0.22088347375392914, -0.13894616067409515, 0.17178867757320404, 0.1390063315629959, -0.08909983187913895, 0.20759375393390656, 0.3010675013065338, 0.10014383494853973, -0.031690094619989395, -0.010362911969423294, -0.3940160274505615, 0.2003367692232132, 0.10555904358625412, 0.2463902086019516, -0.05761120095849037, 0.24650046229362488, -0.4171240031719208, -0.03440166637301445, 0.2563137114048004, -0.1700008660554886, 0.04976971074938774, -0.12816913425922394, -0.2236250936985016, 0.15584252774715424, 0.08738890290260315, 0.3141615092754364, -0.12319069355726242, -0.3101797103881836, 0.05630727857351303, 0.3152274787425995, -0.15336792171001434, -0.3076252341270447, 0.2694702744483948, 0.15901708602905273, 0.11810071021318436, -0.2715296447277069, 0.27759650349617004, -0.09169669449329376, -0.09281621128320694, -0.05542180314660072, 0.018656382337212563, 0.23607616126537323, -0.16743290424346924, 0.14657871425151825, -0.042552921921014786, -0.02129743993282318, 0.09090600907802582, 0.056277479976415634, 0.06351689994335175, 0.1092357337474823, 0.06481405347585678, -0.10379552841186523, -0.2508428692817688, -0.4792636036872864, 0.3914155066013336, 0.14700715243816376, 0.02871096320450306, -0.04773339256644249, -0.16605041921138763, 0.2820359170436859, 0.172037735581398, 0.06265073269605637, 0.146235391497612, -0.042976170778274536, -0.5016703605651855, -0.2136075347661972, 0.20209011435508728, -0.3091447949409485, -0.06018105521798134, -0.16128894686698914, -0.33337774872779846, 0.32509976625442505, -0.08531927317380905, 0.22185905277729034, -0.25978171825408936, 0.07640989869832993, 0.4628053307533264, -0.3573293685913086, -0.077032171189785, -0.07191947847604752, -0.31447747349739075, 0.059576477855443954, 0.15922340750694275, -0.07004308700561523, -0.008072637021541595, -0.12810149788856506, 0.45391184091567993, -0.12187208235263824, 0.1753161996603012, -0.2565072178840637, -0.31713175773620605, -0.09220845997333527, -0.03596136346459389, 0.0406537726521492, -0.0028424642514437437, 0.07438434660434723, -0.17749357223510742, 0.08018600195646286, -0.09830434620380402, -0.045068394392728806, 0.15355178713798523, 0.05944799259305, -0.057219281792640686, 0.05121453478932381, 0.05617310479283333, -0.14105628430843353, 0.12207338958978653, 0.07433856278657913, -0.502072811126709, -0.2260422557592392, 0.7360346913337708, -0.5469871163368225, 0.3775466978549957, 0.479248970746994, 0.5744583606719971, -0.4799056351184845, 0.41054433584213257, -0.38692647218704224, 0.23805652558803558, -0.1920245885848999, -0.5866321325302124, 0.1965552419424057, 0.04126986488699913, 0.0948142483830452, -0.16653834283351898, -0.4663088321685791, 0.11138133704662323, -0.5974953770637512, 0.4586126208305359, -0.28610068559646606, -0.057056013494729996, 0.21036815643310547, 0.39070338010787964, 0.19977882504463196, -0.12940147519111633, 0.07323052734136581, -0.4780162274837494, 0.10087123513221741, -0.1991083025932312, -0.1695210188627243, -0.01488503534346819, 0.05329049751162529, 0.5334468483924866, -0.29009777307510376, -0.0905563235282898, 0.1071566566824913, 0.14691443741321564, -0.2357516884803772, 0.049589768052101135, 0.1005459800362587, -0.39134645462036133, 0.015639299526810646, 0.11726924031972885, -0.15030378103256226, 0.3670417368412018, 0.24477998912334442, -0.350151926279068, 0.1725921481847763, -0.10074076801538467, -0.004471121821552515, 0.6255212426185608, -0.06176319345831871, 0.5172960758209229, 0.1195114329457283, -0.4935295283794403, -0.0935075581073761, -0.07107366621494293, -0.6032614707946777, 0.7987332344055176, -0.15220381319522858, 0.22395281493663788, -0.11656398326158524, 0.014296295121312141, -0.0018209315603598952, -0.20823849737644196, 0.11540023982524872, 0.09201864898204803, -0.19511476159095764, -0.1281888633966446, -0.057192444801330566, -0.011616002768278122, 0.21507517993450165, 0.055803731083869934, 0.07551241666078568, 0.16411735117435455, -0.2300930768251419, 0.2556849718093872, 0.2558426856994629, -0.05314178764820099, -0.28369173407554626, -0.0031439922749996185, 0.3184729814529419, -0.01061544381082058, -0.06296847015619278, -0.012916011735796928, -0.2307436317205429, -0.18119585514068604, -0.2870512902736664, -0.5297613143920898, -0.08407577872276306, -0.009559967555105686, 0.5956558585166931, 0.001990014221519232, -0.188890740275383, 0.8968008756637573, 0.1354772448539734, -0.13387998938560486, 0.7104136943817139, -0.29867398738861084, 0.09521115571260452, -0.12108968943357468, -0.022008098661899567, -0.18414431810379028, 0.05013130605220795, 0.2567104399204254, 0.003795567899942398, 0.25751256942749023, -0.07336399704217911, -0.18990963697433472, -0.11763831228017807, 0.182743638753891, -0.19895435869693756, 0.2729829251766205, 0.2075059562921524, -0.10611147433519363, 0.013735484331846237, 0.15093524754047394, -0.19076544046401978, 0.19830042123794556, 0.12727344036102295, -0.37082380056381226, 0.03736637905240059, 0.029635703191161156, 0.12422654032707214, -0.22119520604610443, -0.219323068857193, -0.2410208135843277, -0.07353193312883377, -0.09188710153102875, 0.3099922835826874, 0.22891287505626678, 0.11529002338647842, 0.0679040253162384, 0.1378159523010254, 0.045825373381376266, -0.06166897714138031, -0.537416934967041, 0.004014361184090376, -0.029991013929247856, 0.19075536727905273, 0.002374684903770685, 0.3208027482032776, 0.3442361354827881, 0.2055339813232422, 0.4113948345184326, 0.33456408977508545, -0.20332664251327515, -0.15976592898368835, -0.08553927391767502, -0.007836828008294106, 0.40793901681900024, -0.04430821165442467, -0.27346333861351013, -0.10393446683883667, 0.07617063075304031, -0.10104161500930786, 0.25917571783065796, 0.0282791368663311, -0.1634531468153, 0.0765533596277237, 0.1556791514158249, -0.19666707515716553, -0.03992790728807449, 0.33750295639038086, 0.043698739260435104, -0.043808817863464355, -0.05259496718645096, -0.07861815392971039, -0.04349685460329056, -0.1951741725206375, -0.10241135209798813, -0.36976343393325806, -0.329145222902298, 0.1938299685716629, -0.00988696701824665, 0.22985263168811798, -0.17952045798301697, -0.32772642374038696, 0.016952726989984512, -0.14149166643619537, 0.009018024429678917, -0.007415976375341415, 0.04193781688809395, -0.16003519296646118, 0.561945915222168, -0.2044629603624344, 0.10015743970870972, -0.5101343393325806, 0.16285455226898193, 0.07599182426929474, -0.8473342657089233, 0.026878423988819122, 0.2567885220050812, -0.8468995094299316, 0.12063834816217422, 0.016659418120980263, 0.2941124141216278, -0.2029869109392166, 0.1145954579114914, 0.22678205370903015, 0.04951835051178932, -0.09233488142490387, 0.01996670663356781, -0.10922614485025406, -0.07171587646007538, -0.051516495645046234, 0.08287621289491653, -0.38248857855796814, -0.3186584413051605, 0.010028397664427757, -0.04956251382827759, -0.04867880791425705, -0.07160897552967072, -0.2310546189546585, -0.05243932455778122, -0.32907333970069885, -0.16654802858829498, -0.44669902324676514, -0.4347285032272339, -0.006232716608792543, -0.161961629986763, 0.09840398281812668, 0.24216027557849884, -0.010472564958035946, -0.061067190021276474, -0.24878288805484772, -0.1307239830493927, 0.041890937834978104, 0.15017539262771606, 0.06315445154905319, -0.31833112239837646, -0.09537497907876968, -0.13821229338645935, -0.07155164331197739, 0.08007016032934189, 0.23397549986839294, -0.2623206377029419, -0.3138013184070587, -0.31229913234710693, -0.006553879473358393, -0.10559544712305069, -0.017296932637691498, 0.09107907116413116, -0.25358453392982483, 0.005100233480334282, 0.41121983528137207, 0.148707315325737, -0.07928595691919327, -0.22880986332893372, 0.16739703714847565, 0.13621489703655243, -0.14596211910247803, -0.12137866020202637, 0.08916008472442627, -0.10149969905614853, -0.08234117180109024, -0.1297822892665863, 0.07328394800424576, -0.031344298273324966, 0.508298933506012, 0.21805407106876373, 0.158039391040802, 0.2902805209159851, 0.1232713982462883, 0.3760545551776886, 0.3366375267505646, -0.08087421208620071, -0.05680690333247185, -0.26847466826438904, 0.23410320281982422, -0.15102797746658325, 0.021332761272788048, -0.14826510846614838, -0.5773863196372986, 0.09352938085794449, -0.13615429401397705, 0.20449456572532654, 0.21064724028110504, -0.7895176410675049, 0.3090664744377136, -0.10401054471731186, -0.13002777099609375, 0.4202019274234772, 0.865053653717041, -0.5160253047943115, 0.05161326751112938, 0.49405375123023987, 0.0532197505235672, 0.3481082022190094, -0.08559658378362656, -0.3604148030281067, 0.2589719593524933, 0.18053515255451202, 0.5361355543136597, -0.11130305379629135, -0.06167583167552948, 0.16311129927635193, -0.4160028398036957, 0.009536209516227245, 0.3251824975013733, -0.02409491315484047, 0.09097196161746979, 0.07100339233875275, -0.5185273289680481, 0.39162492752075195, -0.03962751477956772, -0.3172430992126465, -0.12847158312797546, 0.5298043489456177, -0.02323003299534321, 0.42298179864883423, -0.2131691724061966, 0.46407032012939453, -0.2922424376010895, -0.22807826101779938, 0.33976081013679504, 0.09634461253881454, 0.3437374234199524, -0.17357276380062103, -0.36180779337882996, -0.22574301064014435, 0.5358971357345581, 0.18714772164821625, -0.09530733525753021, 0.17052365839481354, -0.1680174320936203, -0.33167797327041626, -0.41168469190597534, 0.1797807812690735, -0.05412402004003525, 0.3629632294178009, -0.41753095388412476, 0.29691168665885925, 0.4185906648635864, -0.1569889634847641, 0.37947267293930054, -0.17131178081035614, -0.6911345720291138, 0.013084952719509602, 0.3023977279663086, -0.7080479860305786, -0.403005450963974, -0.022355515509843826, 0.1925886571407318, -0.34637555480003357, -0.45605188608169556, -0.18199557065963745, 0.030864767730236053, -0.32517582178115845, -0.3056388199329376, -0.05738803371787071, -0.24344827234745026, -0.10074605792760849, -0.08150852471590042, -0.2004445493221283, -0.15787675976753235, -0.3177342414855957, -0.43263083696365356, 0.13068659603595734, -0.08715783059597015, -0.4274955689907074, -0.09780436009168625, -0.12651614844799042, 0.2075790911912918, 0.11266534775495529, -0.006252427119761705, -0.22632063925266266, -0.05983606353402138, 0.48523712158203125, -0.634467363357544, 0.07242145389318466, 0.12060705572366714, -0.19555284082889557, -0.09427744150161743, 0.5153098106384277, -0.5731483101844788, 0.05025452375411987, -0.3841257393360138, 0.13020022213459015, -0.33823561668395996, 0.030902521684765816, -0.049122706055641174, -0.05786275118589401, 0.05122740566730499, 0.05671064183115959, -0.2827586829662323, -0.09365224838256836, 0.2588486969470978, 0.1317545622587204, 0.08841422200202942, -0.32487356662750244, -0.08506669849157333, 0.08256479352712631, 0.015078476630151272, 0.12904496490955353, -0.08550930768251419, -0.12542754411697388, 0.015801813453435898, 0.15773707628250122, -0.04537348076701164, -0.2084103524684906, 0.1064809039235115, 0.018031176179647446, -0.32818248867988586, -0.10454249382019043, 0.1292344480752945, 0.16648875176906586, 0.1952907145023346, -0.15208344161510468, -0.43067964911460876, -0.032706744968891144, 0.1069183424115181, 0.4065530002117157, -0.16774652898311615, -0.35265398025512695, -0.2509682774543762, 0.2169046252965927, 0.37742945551872253, 0.38577646017074585, -0.1734030395746231, -0.1727917641401291, 0.07249972224235535, 0.5633246898651123, 0.3017336428165436, -0.3065999150276184, -0.47223034501075745, 0.3064922094345093, -0.31697115302085876, 0.10724224895238876, 0.16091808676719666, 0.10711976140737534, 0.31174203753471375, 0.14373277127742767, -0.2901744544506073, -0.2484351247549057, 0.1127946525812149, 0.037535179406404495, 0.2713312804698944, -0.2162192165851593, -0.04766438528895378, -0.10881926864385605, -0.17711032927036285, 0.17009559273719788, 0.030010536313056946, -0.46874383091926575, 0.05221089348196983, 0.39624500274658203, 0.012477278709411621, -0.09850092977285385, -0.03046509064733982, 0.22561965882778168, -0.05168096348643303, -0.20768292248249054, 0.2478022277355194, 0.047154054045677185, 0.005963474046438932, -0.5959129333496094, 0.014363974332809448, 0.06104506924748421, -0.05727775767445564, 0.32849809527397156, 0.14321082830429077, -0.39619892835617065, 0.11332717537879944, 0.06633962690830231, -0.7443902492523193, 0.16080395877361298, -0.005149469245225191, 0.005798196420073509, 0.007223129738122225, 0.017550280317664146, -0.3416975140571594, 0.2884112596511841, -0.32178112864494324, 0.08934123069047928, -0.30383896827697754, -0.11913137137889862, 0.15801012516021729, -0.01756371185183525, 0.06114502623677254, -0.1246173083782196, 0.2033441960811615, 0.05643099918961525, -0.24386386573314667, -0.03125989809632301, 0.13540394604206085, 0.20005196332931519, -0.16127435863018036, 0.23826530575752258, -0.026955828070640564, -0.27552276849746704, -0.056691113859415054, 0.1942881941795349, 0.03478407487273216, 0.1705370396375656, 0.11781375110149384, 0.02543584071099758, 0.11757848411798477, 0.041341837495565414, 0.2900230288505554, -0.0069366260431706905, 0.10938143730163574, -0.09568297117948532, -0.4544064700603485, 0.17849107086658478, -0.15286315977573395, 0.263717919588089, -0.051497332751750946, 0.15575502812862396, 0.09263651072978973, -0.01657419092953205, 0.2990091145038605, 0.18599620461463928, 0.010074405930936337, 0.19106413424015045, -0.08271465450525284, -0.1215718612074852, 0.06603427976369858, -0.4381731450557709, 0.13236527144908905, -0.21066686511039734, 0.5625275373458862, -0.034465447068214417, -0.1865469068288803, 0.0027082788292318583, -0.20117312669754028, -0.059404756873846054, 0.10908263176679611, 0.16428183019161224, -0.2675464451313019, -0.1632794290781021, 0.11670837551355362, 0.09122824668884277, 0.2561306953430176, -0.11388995498418808, -0.15267251431941986, -0.2107701301574707, -0.1649244725704193, -0.026229150593280792, 0.29243114590644836, 0.13418205082416534, 0.026296380907297134, 0.0011711837723851204, -0.003672572784125805, -0.1148286685347557, 0.08131787180900574, -0.47053804993629456, -0.16630882024765015, 0.06862730532884598, 0.15993361175060272, 0.13149946928024292, 0.1566983312368393, -0.07927818596363068, -0.10935450345277786, -0.04574282467365265, 0.11495524644851685, 0.05841910466551781, -0.1036171242594719, -0.17794817686080933, -0.5355445742607117, -0.0298406183719635, -0.6475860476493835, 0.8437426686286926, 0.4882328510284424, -0.6862137913703918, 0.5241705775260925, 0.08056892454624176, -0.3449525833129883, -0.44831663370132446, 0.0504029281437397, -0.33356255292892456, 0.2680825889110565, -0.5277579426765442, 0.16187718510627747, -0.01471386943012476, -0.14501212537288666, 0.47441941499710083, -0.2986226975917816, 0.1796794831752777, 0.3806447386741638, 0.01738169975578785, 0.46859100461006165, 0.2678215503692627, 0.4882696866989136, 0.03304572403430939, 0.41524943709373474, 0.04273822158575058, -0.016399478539824486, -0.062348928302526474, -0.001413926249369979, 0.493618905544281, 0.7640039324760437, -0.5732139348983765, 0.7304703593254089, 0.05369706451892853, -0.12310406565666199, -0.016191374510526657, 0.04969019070267677, -0.45934730768203735, 0.27795618772506714, -0.3557991683483124, 0.21660548448562622, -0.4243743121623993, -0.1322685033082962, -0.23926137387752533, -0.10240183025598526, 0.20630329847335815, 0.21012867987155914, -0.31062671542167664, 0.34423670172691345, 0.7130993604660034, 0.08812344074249268, -0.3278184235095978, -0.1903059035539627, 0.27609607577323914, 0.11846770346164703, -0.10582610219717026, -0.008255258202552795, -0.1959998905658722, 0.521904706954956, -0.2187095433473587, 0.3523866832256317, 0.3550541400909424, 0.1549287736415863, 0.7039421200752258, -0.344655841588974, 0.2034347504377365, 0.006922237109392881, 0.3474617302417755, -0.10861329734325409, 0.16095510125160217, -0.2251206338405609, -0.2536567747592926, 0.0423794686794281, 0.08937795460224152, -0.0035908790305256844, 0.14293980598449707, -0.09309025853872299, -0.08414318412542343, 0.009830865077674389, 0.017899062484502792, -0.11135467141866684, -0.024703029543161392, 0.28363683819770813, 0.33060145378112793, 0.051110681146383286, -0.09066721796989441, -0.11783591657876968, 0.051235996186733246, -0.07576911896467209, 0.19339516758918762, -0.10103769600391388, -0.09323326498270035, 0.04040518030524254, 0.1905742585659027, -0.0799788385629654, -0.0800454393029213, -0.040115974843502045, -0.17566601932048798, -0.16399799287319183, -0.3073735535144806, 0.020304901525378227, 0.09895877540111542, -0.12555837631225586, -0.1968987137079239, 0.010188562795519829, 0.20528867840766907, 0.09680183976888657, -0.3486313223838806, 0.42306846380233765, -0.006129163783043623, -0.32874712347984314, -0.16116878390312195, -0.10881520062685013, -0.23441030085086823, 0.05866111442446709, 0.11122194677591324, -0.27155113220214844, -0.1465701311826706, 0.0022669893223792315, 0.18251705169677734, -0.03688890486955643, 0.20479664206504822, -0.07072523236274719, 0.1636689305305481, -0.007660797331482172, -0.03492380306124687, -0.8036593198776245, 0.040036391466856, 0.28627997636795044, 0.23863480985164642, -0.14169499278068542, 0.27124086022377014, -0.22576630115509033, -0.23650304973125458, 0.287203848361969, 0.2425619214773178, -0.3974890410900116, 0.23493027687072754, -0.4143400192260742, 0.20609241724014282, 0.23742106556892395, -0.3055439591407776, -0.29288965463638306, -0.34766632318496704, -0.19648276269435883, -0.06801455467939377, 0.11792014539241791, 0.6580873131752014, 0.06743477284908295, 0.14399680495262146, 0.013875812292098999, -0.17193801701068878, -0.06701919436454773, 0.1946689933538437, 0.017187785357236862, -0.14369013905525208, -0.132191002368927, 0.2925432026386261, -0.14375436305999756, -0.0995749831199646, 0.4343319535255432, -0.1567668318748474, -0.06423237174749374, -0.07195722311735153, -0.07523902505636215, -0.16340067982673645, -0.03636284917593002, 0.2014164924621582, -0.09476233273744583, 0.18492035567760468, -0.07054132223129272, 0.055017102509737015, -0.11618594825267792, 0.07576543092727661, 0.08460908383131027, -0.3464241325855255, -0.053406015038490295, -0.40988823771476746, 0.32104727625846863, 0.23270732164382935, 0.030533501878380775, -0.30390700697898865, -0.1938573271036148, 0.03525781258940697, -0.11225565522909164, 0.20442000031471252, 0.16432081162929535, -0.3854314684867859, 0.1748545914888382, 0.4582206904888153, 0.08755123615264893, -0.40780675411224365, -0.11145942658185959, 0.14800353348255157, -0.006599503569304943, -0.35804298520088196, 0.22788135707378387, 0.0920657142996788, -0.14610525965690613, -0.014061926864087582, 0.04408789426088333, 0.2909363806247711, -0.11134780943393707, -0.09585103392601013, -0.09684654325246811, 0.1963874250650406, -0.010106353089213371, -0.043177101761102676, 0.22289669513702393, -0.13479334115982056, -0.20292942225933075, 0.13573962450027466, -0.04656752571463585, -0.3032529652118683, 0.38699421286582947, 0.22480028867721558, 0.13101258873939514, -0.441865473985672, 0.0054221730679273605, 0.10547936707735062, 0.11101821810007095, 0.0628906786441803, -0.07238991558551788, 0.6853536367416382, 0.15711912512779236, 0.2060748040676117, -0.3172372579574585, -0.2565779685974121, -0.18598084151744843, 0.1960461437702179, 0.04325574263930321, -0.18260197341442108, -0.1188608780503273, -0.14429625868797302, -0.2940031588077545, 0.37419959902763367, -0.07562710344791412, -0.2989770770072937, -0.22133341431617737, 0.15861941874027252, 0.06398215889930725, -0.18497775495052338, 0.047733746469020844, 0.11570833623409271, -0.46107497811317444, 0.007370400242507458, -0.22925832867622375, 0.20768047869205475, 0.19951385259628296, 0.2695333659648895, -0.1362130492925644, -0.32614409923553467, 0.025038376450538635, 0.26200607419013977, 0.06700728833675385, -0.3849949836730957, 0.11409018188714981, -0.12133973091840744, -0.17253728210926056, 0.5010368824005127, -0.19047975540161133, -0.5403234958648682, -0.27594077587127686, 0.23775523900985718, 0.002414571586996317, -0.2786486744880676, 0.1548364758491516, 0.27747923135757446, -0.4022171199321747, -0.142917200922966, -0.024969041347503662, 0.187435582280159, -0.01852688007056713, -0.11036010831594467, -0.04869958385825157, 0.16590428352355957, 0.041262347251176834, -0.7615479826927185, 0.481524795293808, 0.09763222187757492, 0.2878172993659973, -0.12301599234342575, 0.3058074116706848, -0.9185261130332947, 0.06918572634458542, 0.27393004298210144, -0.37026548385620117, -0.13361749053001404, 0.022401515394449234, 0.04695506766438484, -0.2889578342437744, -0.4860689640045166, 0.4090580344200134, 0.16642853617668152, -0.059380192309617996, 0.26795855164527893, 0.23687125742435455, 0.33633989095687866, 0.32694122195243835, -0.21507598459720612, -0.33774682879447937, 0.3255068063735962, 0.2848185896873474, -0.36036887764930725, -0.41710466146469116, 0.5783578753471375, 0.19720686972141266, 0.12764576077461243, -0.16822786629199982, 0.21588635444641113, 0.13979169726371765, -0.12201342731714249, -0.1914350390434265, 0.5603504776954651, -0.20297078788280487, -0.1736086755990982, -0.11035901308059692, -0.08685680478811264, -0.04109935089945793, 0.08120222389698029, 0.09754575788974762, -0.5998886823654175, -0.14279192686080933, 0.3489159047603607, 0.6271800398826599, 0.13999222218990326, -0.41218650341033936, 0.3639470040798187, 0.03741508722305298, 0.00036496645770967007, -0.815765917301178, -0.05354747921228409, -0.36051875352859497, -0.04188321903347969, -0.11834587156772614, -0.3694557249546051, 0.4815908670425415, 0.36553287506103516, 0.7856287956237793, 0.017804201692342758, 0.12863029539585114, -0.2111695408821106, -0.04046231880784035, 0.018534567207098007, -0.18532651662826538, 0.7158457636833191, -0.24647916853427887, -0.45490777492523193, -0.5134972333908081, -0.3074479401111603, 0.17482250928878784, -0.03065354749560356, -0.2936895787715912, -0.02241707593202591, -0.09640009701251984, -0.3374806344509125, 0.168819859623909, -0.2138533741235733, 0.05309581384062767, -0.004838357213884592, -0.06460070610046387, 0.08603385090827942, -0.030257055535912514, 0.17583097517490387, 0.4192690849304199, -0.14238281548023224, 0.06524059176445007, -0.14797744154930115, -0.23989705741405487, 0.1322639137506485, -0.015380383469164371, -0.019058333709836006, -0.17378699779510498, -0.08254170417785645, -0.23359368741512299, 0.24351981282234192, -0.030447587370872498, 0.19025252759456635, -0.058182038366794586, 0.10735231637954712, 0.09451643377542496, -0.05224130302667618, 0.14568398892879486, 0.2170213907957077, 0.05236861854791641, 0.05859755724668503, 0.12058936804533005, 0.015099726617336273, -0.31668511033058167, 0.262590229511261, -0.0925881490111351, -0.12702734768390656, 0.07771410048007965, 0.09076659381389618, -0.007689861115068197, 0.5096936821937561, -0.1477837711572647, -0.2519082725048065, -0.38814598321914673, -0.049040570855140686, 0.34174996614456177, 0.3268078565597534, 0.12881088256835938, 0.13024118542671204, -0.41949713230133057, 0.023874226957559586, -0.05193747952580452, 0.2095681130886078, 0.1032823920249939, 0.07333722710609436, 0.2436825931072235, 0.09503309428691864, 0.04325791820883751, -0.003103621071204543, 0.13689592480659485, 0.16217248141765594, -0.34352225065231323, -0.04522688314318657, 0.06959007680416107, 0.023953456431627274, 0.22811421751976013, 0.13519974052906036, -0.17490211129188538, -0.19988222420215607, -0.2338419407606125, -0.08978546410799026, -0.05246857926249504, -0.07188054919242859, 0.04565387964248657, 0.019338935613632202, -0.029939813539385796, -0.15899331867694855, -0.07860259711742401, 0.06090974807739258, -0.2690994143486023, -0.12360439449548721, -0.03192390874028206, 0.21382403373718262, -0.17112043499946594, -0.338106244802475, 0.08049938082695007, -0.011549445800483227, -0.15764710307121277, 0.09475249797105789, -0.031809888780117035, -0.12187128514051437, 0.29754459857940674, -0.0995645523071289, -0.10938774049282074, -0.12320105731487274, 0.12337664514780045, -0.028499532490968704, -0.1295740008354187, -0.06195303797721863, -0.21279025077819824, -0.22067542374134064, -0.21222764253616333, -0.282444030046463, -0.024907628074288368, 0.077058807015419, 0.1543271392583847, -0.01607457548379898, 0.12099828571081161, 0.3318054676055908, -0.199519544839859, 0.06804117560386658, 0.18997173011302948, -0.116485595703125, 0.10701613128185272, -0.08468735963106155, -0.20721766352653503, 0.001310280291363597, 0.11471462994813919, 0.1964811533689499, 0.004505430813878775, -0.001280735363252461, -0.07761434465646744, -0.23308223485946655, 0.010815883055329323, -0.32825857400894165, 0.14056600630283356, -0.0313117653131485, 0.0912792906165123, -0.08609500527381897, -0.05884036049246788, 0.19211547076702118, -0.11062583327293396, -0.15737870335578918, 0.05533907189965248, -0.07590854912996292, 0.011096366681158543, -0.12357069551944733, -0.18244324624538422, -0.054491426795721054, 0.07989972084760666, 0.03472188115119934, 0.256051629781723, -0.3638273775577545, -0.051578816026449203, -0.3097110092639923, -0.09941254556179047, -0.13312354683876038, 0.11986996978521347, 0.19634070992469788, -0.039727360010147095, 0.05628926679491997, 0.09335608780384064, -0.10384374856948853, -0.015789560973644257, 0.01764853298664093, -0.16914613544940948, -0.0695490837097168, 0.26335659623146057, -0.17270290851593018, -0.3171028792858124, 0.13165296614170074, -0.2335791140794754, 0.17646470665931702, -0.08226823061704636, 0.21416524052619934, 0.1515757292509079, -0.16551423072814941, -0.12592212855815887, 0.21511775255203247, -0.03709738701581955, 0.005009498447179794, 0.06734929233789444, -0.12416806071996689, 0.13030372560024261, 0.09333053231239319, 0.1557643860578537, 0.013661330565810204, 0.07899552583694458, -0.6240266561508179, -0.1593824177980423, -0.15847575664520264, 0.04606169834733009, -0.09592213481664658, 0.022609690204262733, 0.02435779571533203, -0.16155965626239777, -0.09391344338655472, -0.08190909773111343, 0.05390790477395058, 0.0514761283993721, 0.03359588608145714, -0.02764223888516426, 0.06661476194858551, -0.06156983971595764, 0.18208906054496765, -0.39079996943473816, -0.1636883020401001, -0.11024466902017593, 0.27175652980804443, 0.04490528255701065, 0.032598208636045456, 0.0028131178114563227, -0.6378218531608582, -0.45226719975471497, -0.6092778444290161, 0.9770750403404236, 0.623201310634613, 0.08513568341732025, -0.7984099984169006, -0.0546429269015789, 0.05732891336083412, -0.21389023959636688, 0.17920570075511932, -0.0018612772691994905, 0.3890432119369507, 0.2543846070766449, -0.13178882002830505, 0.22502364218235016, -0.021335044875741005, -0.19138452410697937, -0.044598471373319626, -0.0220568235963583, -0.32811057567596436, 0.17996864020824432, -0.09365534037351608, -0.31738123297691345, 0.3004944622516632, -0.23756574094295502, 0.14506211876869202, 0.29398414492607117, 0.26168450713157654, 0.23974193632602692, 0.17192082107067108, 0.6163610816001892, -0.3029024600982666, -0.02638373337686062, -0.3112954795360565, 0.40692633390426636, -0.22307467460632324, 0.13270987570285797, 0.21361859142780304, -0.06201820448040962, -0.07144130766391754, 0.011409423314034939, -0.45435911417007446, -0.27545589208602905, -0.017147477716207504, 0.3632219731807709, 0.1419915407896042, -0.02543805167078972, 0.1268669217824936, 0.13112404942512512, -0.22738857567310333, -0.3022615611553192, -0.025076111778616905, -0.06618934124708176, -0.08559011667966843, 0.03452519327402115, -0.1404462605714798, 0.12569932639598846, -0.06905227899551392, 0.3932812809944153, 0.23255197703838348, -0.31060200929641724, -0.06892044097185135, -0.06581158936023712, 0.20834046602249146, -0.10293833166360855, -0.11851631104946136, -0.23763076961040497, 0.29660850763320923, -0.01121459249407053, -0.12566789984703064, 0.36122408509254456, 0.3647286891937256, -0.07135754823684692, -0.14066419005393982, 0.2655112147331238, -0.0985586941242218, -0.07831371575593948, -0.28986531496047974, -0.18665248155593872, -0.06308801472187042, -0.3276628851890564, -0.16168399155139923, -0.16852334141731262, 0.2647808790206909, -0.29287001490592957, 0.02797289751470089, -0.20305033028125763, 0.36733049154281616, 0.1934247761964798, 0.10712769627571106, -0.26921865344047546, -0.14152856171131134, -0.2268117219209671, 0.1124132052063942, 0.011914828792214394, 0.41297945380210876, -0.1968577355146408, 0.3576159179210663, -0.4191688895225525, 0.21899667382240295, 0.3238222599029541, -0.3324630856513977, -0.26557353138923645, 0.031631506979465485, 0.06042249873280525, -0.3522201180458069, 0.310162752866745, -0.10423864424228668, 0.03544071689248085, -0.11488417536020279, 0.33653998374938965, 0.08460845798254013, 0.042970411479473114, 0.22632946074008942, 0.08684424310922623, 0.16152223944664001, -0.11781806498765945, 0.05238476023077965, 0.1576380729675293, 0.006998430006206036, 0.3323337435722351, -0.06711366027593613, 0.327293336391449, -0.30543845891952515, 0.16029244661331177, 0.21746116876602173, 0.030743030831217766, -0.11599721014499664, 0.17696665227413177, -0.10408159345388412, -0.09582506120204926, -0.16839849948883057, -0.22522667050361633, 0.016278676688671112, 0.13537240028381348, 0.1703326255083084, -0.03868080675601959, 0.357658714056015, -0.025793883949518204, -0.22873172163963318, 0.1825280636548996, -0.17886345088481903, 0.3976505696773529, -0.22312504053115845, -0.2680334746837616, 0.43257057666778564, -0.035390689969062805, 0.06317812204360962, 0.014857499860227108, 0.28745266795158386, 0.3324505686759949, -0.177421435713768, -0.04576091468334198, -0.14081865549087524, 0.25553640723228455, 0.29929453134536743, 0.4688441753387451, 0.11470521241426468, -0.09955120831727982, -0.14009074866771698, -0.08887187391519547, -0.21952852606773376, -0.3999330997467041, 0.2730775773525238, 0.09384611994028091, 0.16443057358264923, -0.13465754687786102, -0.10823917388916016, 0.12042926996946335, -0.5188360214233398, -0.02213369309902191, -0.04562470689415932, -0.042145464569330215, -0.38559961318969727, -0.26303336024284363, 0.46303030848503113, 0.2639211416244507, 0.02764814905822277, -0.2017708122730255, 0.051893506199121475, -0.15732641518115997, 0.4982437491416931, -0.04809845983982086, 0.0476498119533062, 0.19066965579986572, 0.051336295902729034, 0.17376168072223663, -0.4711921215057373, -0.04486106336116791, -0.19970093667507172, -0.01459728367626667, -0.14388293027877808, -0.2748816907405853, -0.21524889767169952, 0.2591800391674042, -0.061353158205747604, 0.036770012229681015, -0.3390559256076813, 0.4730823040008545, -0.3353900909423828, 0.14710745215415955, -0.019463734701275826, -0.24114523828029633, 0.41502681374549866, -0.23570851981639862, -0.05519123375415802, 0.10689254105091095, 0.13567961752414703, 0.10717299580574036, -0.40579479932785034, 0.5163248181343079, -0.5911062359809875, 0.2126951962709427, 0.0821327269077301, -0.08719766139984131, 0.2279382199048996, 0.3455231487751007, -0.049483634531497955, -0.1479802280664444, -0.03729807212948799, 0.06099504232406616, 0.19356465339660645, 0.013854224234819412, 0.028029879555106163, 0.10391171276569366, 0.08167775720357895, -0.19509150087833405, -0.4969377815723419, -0.15268389880657196, 0.11657597124576569, 0.2737208604812622, 0.022238995879888535, 0.09022452682256699, -0.08720430731773376, -0.17636334896087646, 0.04972951486706734, -0.06670425832271576, 0.3446202874183655, -0.025227809324860573, 0.13818098604679108, 0.016793379560112953, -0.346821665763855, -0.017236381769180298, -0.2198057621717453, -0.004152241162955761, -0.2127818763256073, 0.059918731451034546, 0.14701202511787415, -0.3746171295642853, 0.06556486338376999, -0.1675260365009308, -0.2801628112792969, -0.13275787234306335, -0.13678252696990967, -0.08144927769899368, 0.15387137234210968, 0.12211542576551437, -0.04110288619995117, -0.10953638702630997, -0.195686474442482, -0.015177200548350811, 0.17488712072372437, 0.17437463998794556, 0.1571832150220871, 0.005750568583607674, 0.08724670112133026, -0.33417239785194397, 0.046939391642808914, -0.30928531289100647, -0.12289270758628845, -0.020571062341332436, 0.17033684253692627, -0.21497219800949097, -0.3532390296459198, 0.18664433062076569, -0.44184157252311707, -0.20158617198467255, -0.11679475009441376, 0.37924617528915405, -0.07165759801864624, 0.014361943118274212, -0.21586044132709503, -0.1735287755727768, 0.5076426863670349, -0.041336629539728165, -0.2010747343301773, -0.27494579553604126, 0.22294890880584717, 0.09585532546043396, -0.12712648510932922, 0.032408978790044785, 0.24839983880519867, -0.073586605489254, 0.23051126301288605, -0.402249276638031, -0.282686710357666, 0.08328623324632645, 0.059735387563705444, 0.1461392492055893, 0.05247042700648308, 0.007228977512568235, -0.17728494107723236, 0.12245221436023712, -0.08721670508384705, -0.0833185538649559, -0.08307821303606033, 0.2454073280096054, -0.0017307318048551679, -0.276079922914505, -0.1639806032180786, 0.007573514245450497, 0.14308658242225647, -0.1938249170780182, 0.020823746919631958, 0.11336193233728409, -0.1308012306690216, -0.023015908896923065, -0.3228386640548706, -0.13152772188186646, -0.023622462525963783, -0.06554483622312546, 0.002592163160443306, 0.005030864849686623, 0.08104819804430008, -0.294419527053833, -0.0009411812643520534, -0.0007393516134470701, 0.5092355012893677, -0.011417378671467304, -0.11558767408132553, -0.057374753057956696, -0.12423611432313919, -0.2748965322971344, -0.3324092626571655, -0.005818801000714302, 0.15384836494922638, -0.822409451007843, 0.1324722170829773, -0.13969716429710388, -0.11840901523828506, -0.10189545154571533, -0.09799253195524216, -0.7216244339942932, 0.044892873615026474, -0.09322762489318848, -0.3244355618953705, 0.07465864717960358, 0.5928626656532288, 0.47828105092048645, 0.7301823496818542, -0.023215128108859062, -0.23220382630825043, 0.003957523498684168, -0.1625545471906662, -0.2326374500989914, -0.20379486680030823, -0.02452058531343937, -0.2961312532424927, 0.08729907125234604, 0.14030948281288147, -0.2159876674413681, -0.34923359751701355, 0.5518286824226379, 0.2352440506219864, 0.30654406547546387, -0.0041018021292984486, 0.13587422668933868, 0.4354868531227112, -0.18506865203380585, -0.23426485061645508, 0.4137153923511505, 0.05493563041090965, -0.14156748354434967, 0.18821536004543304, 0.24572904407978058, 0.8829827308654785, 0.10914219170808792, 0.3732176721096039, 0.7372764945030212, 0.8259905576705933, 0.18546393513679504, 0.7534958720207214, 0.28916624188423157, 0.06641798466444016, 0.2172042280435562, -0.030340800061821938, 0.5211454629898071, 0.47494417428970337, -0.3139394521713257, 0.19570794701576233, -0.2844919264316559, -0.11639400571584702, 0.37496110796928406, 0.3120906352996826, -0.13424330949783325, 0.18227852880954742, -0.10712354630231857, -0.2566794455051422, 0.18207675218582153, -0.026355555281043053, -0.6702058911323547, 0.08630699664354324, -0.028363266959786415, 0.13298185169696808, 0.3992977738380432, 0.2559395134449005, -0.4109024405479431, 0.22735458612442017, 0.19208677113056183, 0.3949345350265503, -0.4623119533061981, -1.5211756229400635, -0.49954381585121155, -0.09176658093929291, -0.052093252539634705, -0.3996535539627075, -0.5399450659751892, -0.614168107509613, -0.2215965986251831, 0.3796580731868744, -0.07901137322187424, 0.04185061901807785, 0.6096488833427429, -0.5410534143447876, 0.42039230465888977, -0.1937228888273239, 0.07975760847330093, 0.2731837034225464, 0.018292410299181938, 0.0355076938867569, -0.21769709885120392, -0.2532040774822235, 0.4239436984062195, 0.7570851445198059, 0.025784216821193695, -0.4219091832637787, -0.05450694262981415, 0.27372997999191284, 0.19839654862880707, -0.11458027362823486, 0.15615099668502808, 0.6059499382972717, -0.09877964854240417, -0.3170384466648102, -0.32657238841056824, -0.09547028690576553, 0.20103898644447327, -0.045873723924160004, 0.32515233755111694, 0.03943812847137451, -0.020849617198109627, 0.09114896506071091, -0.2646685540676117, 0.09029757231473923, -0.098072849214077, -0.6963304281234741, 0.37423884868621826, 0.1318635642528534, -0.569993793964386, 0.18421116471290588, -0.04332650452852249, 0.023683937266469002, 0.219058096408844, 0.22008833289146423, -0.2693643569946289, -0.06610453128814697, -0.2563055455684662, 0.28878071904182434, 0.1622166484594345, 0.1270870417356491, -0.09522560238838196, -0.2622393071651459, -0.009589501656591892, 0.12334772199392319, -0.18119004368782043, -0.33992841839790344, -0.2783299684524536, -0.31457874178886414, -1.105745792388916, 0.12164938449859619, 0.08735321462154388, -0.14668859541416168, -0.39358144998550415, 0.3269582688808441, -0.1938832551240921, 0.09735675156116486, 0.159718319773674, 0.01181580126285553, -0.21220192313194275, 0.6790798306465149, 0.5637940168380737, -0.12123676389455795, 0.1154550239443779, -0.21139197051525116, 0.09048745781183243, 0.08329430967569351, -0.08335985243320465, 0.04266560077667236, -0.2375105917453766, 0.17725595831871033, 0.09054213762283325, -0.13529329001903534, -0.6712429523468018, -0.21145512163639069, 0.5067201256752014, 0.2558826208114624, -0.3983210325241089, 0.7675511837005615, 0.7174779772758484, -0.03513329103589058, -0.18482384085655212, 0.400473415851593, -0.31140628457069397, -0.42215174436569214, 0.3244849741458893, 0.5249350070953369, 0.6275526285171509, -0.009375428780913353, -0.24908077716827393, -0.32914283871650696, 0.05556811764836311, -0.38719236850738525, 0.5395981073379517, -0.016626309603452682, -0.10232118517160416, 0.32085928320884705, 0.037352968007326126, -0.003761773696169257, 0.21812044084072113, -0.07456250488758087, 0.14638356864452362, -0.24854397773742676, 0.06284596771001816, -0.06491493433713913, 0.2325391173362732, 0.006734446156769991, 0.16992658376693726, -0.22948716580867767, -0.05125463381409645, 0.4523863196372986, -0.004697731696069241, 0.20368944108486176, -0.08316834270954132, 0.10124001652002335, -0.02346586436033249, 0.373270720243454, -0.1388256549835205, -0.06141089275479317, -0.10143519937992096, -0.022478926926851273, -0.02053285948932171, 0.06310127675533295, 0.1483648270368576, -0.05426354706287384, -0.41183581948280334, -0.2170587033033371, 0.29476648569107056, -0.1104566752910614, -0.04154114052653313, -0.0432736799120903, -0.07913936674594879, 0.09348680078983307, -0.14876843988895416, -0.0593753457069397, -0.041973989456892014, 0.08803952485322952, -0.13870210945606232, -0.36405664682388306, -0.4444560706615448, 0.1344139128923416, 0.009287361986935139, -0.13815690577030182, -0.03747720643877983, 0.3284306526184082, 0.07242405414581299, 0.31779152154922485, 0.022159572690725327, 0.3803004026412964, 0.0976300835609436, -0.5275301337242126, 0.28252166509628296, 0.23814038932323456, -0.175504669547081, -0.8402684926986694, 0.02612755075097084, 0.274906188249588, -0.2489078938961029, 0.4058244824409485, -0.44762080907821655, -0.5193957090377808, 0.5882753133773804, -0.7018011212348938, -0.08310268074274063, -0.009954478591680527, -0.009859886951744556, -0.29841122031211853, -0.29457059502601624, 0.21833285689353943, 0.005093116778880358, -0.5255569219589233, 0.17945246398448944, -0.2974996864795685, 0.051215268671512604, 0.21290791034698486, 0.12229478359222412, -0.2554391026496887, -0.21467970311641693, 0.35276246070861816, 0.2739536166191101, -0.05321372300386429, 0.03576410189270973, -0.015934690833091736, -0.1622578501701355, 0.3485623598098755, 0.22004340589046478, -0.11724314838647842, -0.11652371287345886, -0.6395735144615173, 0.31373322010040283, -0.1860775351524353, -0.08739083260297775, -0.04646868258714676, -0.0008725193329155445, -0.05291638895869255, 0.16874253749847412, 0.04883403703570366, 0.08234281092882156, 0.17853060364723206, 0.04319499060511589, 0.0936923399567604, -0.2716985046863556, -0.024630354717373848, 0.10981852561235428, 0.009919929318130016, -0.15788787603378296, 0.2045038789510727, -0.3417506217956543, 0.1399761140346527, -0.17014731466770172, -0.02063809335231781, 0.0008569297497160733, 0.33314645290374756, 0.1576721966266632, -0.2592129707336426, -0.12363974750041962, 0.09942013770341873, -0.010416235774755478, -0.037727974355220795, -0.17447446286678314, 0.022563166916370392, 0.18511435389518738, -0.4465717077255249, -0.14563919603824615, -0.15214857459068298, -0.3965863287448883, 0.13376742601394653, -0.5705545544624329, 0.19424138963222504, -0.07176031172275543, -0.14940819144248962, 0.47912800312042236, -0.0070314714685082436, -0.4818294942378998, -0.5959609150886536, -0.21991193294525146, -0.106106236577034, 0.41040855646133423, -0.49883460998535156, -0.19759191572666168, -0.020925091579556465, -0.18918980658054352, -0.12555944919586182, -0.1968493014574051, 0.31170910596847534, -0.10284607112407684, 0.17520073056221008, 0.11157550662755966, 0.20582228899002075, 0.008344702422618866, 0.14457255601882935, -0.1911279857158661, -0.0476803295314312, -0.10476726293563843, 0.2432652711868286, 0.4066201448440552, -0.19322112202644348, 0.16860167682170868, -0.13948935270309448, 0.0431828536093235, 0.26843851804733276, -0.0951426774263382, -0.28273946046829224, 0.3073484003543854, -0.4216480255126953, -0.11601360142230988, -0.5043001770973206, 0.17035110294818878, 0.21951259672641754, -0.38268476724624634, -0.02415752410888672, 0.39540502429008484, 0.3067973256111145, -0.08487719297409058, -0.09686491638422012, -0.13592298328876495, -0.35062411427497864, -0.17604482173919678, 0.3368988037109375, 0.02569562755525112, 0.023388219997286797, -0.024225430563092232, 0.46494829654693604, -0.20295558869838715, -0.2506004273891449, -0.201249897480011, -0.028487633913755417, 0.08498182892799377, 0.3339005708694458, 0.09020483493804932, -0.07026888430118561, -0.01155425887554884, 0.12040514498949051, -0.03931313008069992, -0.2360968440771103, 0.21805667877197266, -0.21520818769931793, -0.15693195164203644, -0.36415746808052063, -0.0016784905456006527, 0.2673722803592682, 0.4348306357860565, -0.04466523230075836, -0.07597223669290543, 0.926406979560852, 0.02197369933128357, -0.1792704463005066, -0.15971341729164124, 0.3010675013065338, -0.3845040798187256, -0.5471283197402954, 0.36601510643959045, -1.1216883659362793, 0.10222852975130081, -0.3783760964870453, -0.18270008265972137, -0.5224265456199646, 0.7697367072105408, 0.20173799991607666, 0.4928220212459564, 0.02581004612147808, -0.16611775755882263, 0.03563792258501053, 0.05457085743546486, 0.3093099296092987, -0.02558404952287674, -0.019335912540555, 0.5616147518157959, 0.05866864323616028, 0.10109683126211166, -0.008569369092583656, 0.14411920309066772, 0.22572501003742218, 0.2496555745601654, -0.03372228145599365, 0.005738642532378435, 0.22042575478553772, -0.09561965614557266, -0.10325023531913757, 0.02150210551917553, 0.017765184864401817, 0.154883474111557, -0.07000718265771866, 0.19954119622707367, 0.14857354760169983, -0.21640630066394806, 0.19724124670028687, 0.4053860306739807, 0.2753232419490814, -0.09291254729032516, 0.056763045489788055, -0.04563327506184578, -0.18327583372592926, 0.04280528798699379, -0.10666067898273468, 0.05010104924440384, -0.1999666541814804, -0.10599445551633835, 0.01244781818240881, -0.09248848259449005, 0.01748143695294857, 0.23287707567214966, -0.17726163566112518, -0.14425908029079437, 0.1376069188117981, 0.37854626774787903, -0.23387782275676727, -0.22312544286251068, 0.12847304344177246, 0.07178238779306412, 0.13062399625778198, -0.0875239223241806, 0.18341247737407684, -0.002241475973278284, -0.65569007396698, 0.0639176145195961, 0.3991832733154297, 0.300523966550827, 0.09494806826114655, -1.131225347518921, 0.07746777683496475, -0.5187729001045227, 0.008589809760451317, -1.1254831552505493, 0.30262744426727295, 0.25476178526878357, -0.11536803841590881, 1.121288776397705, 0.22843921184539795, 1.0520689487457275, 0.05189434438943863, 1.0055162906646729, -0.25370192527770996, -0.4823279082775116, -0.3502293825149536, 0.252780944108963, -0.3941732347011566, -0.3582117259502411, -0.10597678273916245, -0.09188642352819443, 0.13787975907325745, -0.12155318260192871, -0.08014536648988724, 0.3162676692008972, -0.0506582036614418, 0.10755375772714615, 0.17756494879722595, 0.26145026087760925, 0.14843955636024475, -0.4595773220062256, -0.0421220064163208, -0.0063926647417247295, -0.18863525986671448, -0.13554197549819946, 0.0331822894513607, -0.12995614111423492, -0.13968287408351898, -0.1800287663936615, -0.1586044430732727, 0.2613062858581543, 0.021608563140034676, 0.2229737788438797, -0.059605684131383896, -0.2238575965166092, 0.21969850361347198, -0.2551869750022888, 0.0756940171122551, 0.14472627639770508, -0.10950656235218048, -0.015307907946407795, 0.2009934037923813, 0.4217250347137451, 0.16783590614795685, -0.3541775941848755, 0.015970012173056602, 0.032748524099588394, -0.5050442814826965, 0.03891313821077347, -0.0181049145758152, 0.020316623151302338, 0.1275259107351303, 0.21266885101795197, 0.5356829762458801, -0.18483290076255798, -0.18044327199459076, 0.8650376200675964, -0.053631965070962906, -0.08703862130641937, 0.060083501040935516, 0.7911896705627441, 0.15860266983509064, 0.05526085942983627, -0.03820112720131874, -0.5150814652442932, -0.8241326808929443, 0.624409019947052, -0.39616939425468445, 0.5836045145988464, 0.04152796417474747, 0.36550936102867126, 0.1630648821592331, 0.3092518150806427, -0.35561779141426086, 0.5751342177391052, -0.41971293091773987, -0.6353309154510498, 1.022580862045288, -0.47784799337387085, 0.311496764421463, 0.48651471734046936, -0.18881376087665558, -0.09532556682825089, 0.17543408274650574, 0.1476212441921234, -0.19796282052993774, -0.2830510437488556, -0.1661599576473236, -0.03830970451235771, -0.11901231855154037, 0.11722570657730103, 0.007246674969792366, -0.09325184673070908, 0.006875874474644661, 0.1550668627023697, 0.32154369354248047, -0.0838090255856514, -0.059472694993019104, -0.24639885127544403, 0.08323608338832855, -0.0496598519384861, -0.1753670573234558, 0.07031267136335373, -0.04784234240651131, -0.013229346834123135, 0.08156868815422058, 0.0699966624379158, 0.3130488991737366, -0.2094440907239914, -0.0249936506152153, -0.2667400538921356, -0.1259908229112625, -0.22525544464588165, -0.1424415409564972, 0.027320152148604393, -0.004542174283415079, 0.11051079630851746, -0.006185765378177166, 0.223011314868927, 0.24199648201465607, -0.17880617082118988, -0.059318676590919495, 0.17907801270484924, -0.20722824335098267, 0.11450062692165375, 0.28217610716819763, 0.07415533065795898, 0.15789656341075897, 0.12256571650505066, -0.04058953747153282, -0.11005815118551254, -0.4114704728126526, 0.034908782690763474, 0.05542392283678055, -0.2882854640483856, -0.3016453683376312, -0.08629373461008072, 0.2023414671421051, -0.16668428480625153, 0.051511507481336594, -0.022861981764435768, 0.03974185883998871, -0.408200740814209, -0.18128140270709991, 0.5504907369613647, 0.2844652533531189, 0.06295661628246307, 0.15433718264102936, 0.36713576316833496, -0.355751633644104, -0.6135424375534058, 0.7901665568351746, 0.6613076329231262, 0.24390433728694916, 0.6634187698364258, 0.03092285245656967, -0.41903039813041687, 0.17337343096733093, 0.019303616136312485, 0.18025414645671844, -0.3733234107494354, 0.016931550577282906, -0.1825968325138092, -0.21128587424755096, -0.018423249945044518, -0.10525093972682953, 0.014852410182356834, -0.03715900704264641, 0.03591969609260559, -0.1515551060438156, -0.014785423874855042, 0.2530803978443146, -0.25436484813690186, -0.04431673139333725, -0.2729073464870453, -0.0684041827917099, -0.043417032808065414, -0.23877321183681488, 0.05244692042469978, -0.10241367667913437, -0.0947115421295166, -0.0740017220377922, 0.051766227930784225, 0.4216018617153168, -0.07640603184700012, 0.00041428866097703576, -0.24943532049655914, -0.07269621640443802, 0.07930506765842438, -0.09680423885583878, 0.05025232583284378, 0.025448191910982132, 0.10445220023393631, 0.07606706023216248, -0.09592559933662415, 0.3588559925556183, 0.2248697578907013, 0.17956019937992096, 0.20890715718269348, 0.10025718063116074, 0.15253768861293793, 0.059259455651044846, -0.022054269909858704, 0.004857654217630625, -0.08305961638689041, 0.1680610179901123, -0.2830617129802704, -0.2245347946882248, 0.03880854696035385, -0.3911125063896179, 0.5380290746688843, -0.14417815208435059, -0.20329034328460693, 0.398066908121109, -0.021272800862789154, 0.8999101519584656, 0.016131198033690453, 0.296255499124527, -0.7573354244232178, -0.32513248920440674, 0.7308852672576904, 0.2000662386417389, -0.4939778447151184, -0.05944513902068138, 0.3363339304924011, -0.07194332778453827, -1.1798157691955566, -0.6721278429031372, -0.7492057681083679, 0.5916252136230469, 0.07112175971269608, -0.23178815841674805, -0.0961759090423584, -0.31310969591140747, 0.33606967329978943, -0.24125950038433075, 0.1759265512228012, -0.007515470962971449, -0.11083324253559113, 0.3270474970340729, 0.13453228771686554, 0.07602247595787048, 0.23673221468925476, -0.06311217695474625, 0.07724190503358841, -0.029976915568113327, -0.21334116160869598, 0.014968759380280972, 0.5905333757400513, 0.0860096737742424, 0.041298121213912964, -0.1434338390827179, 0.0321015790104866, 0.07628809660673141, 0.018594466149806976, -0.017898323014378548, 0.18308526277542114, -0.05141295865178108, -0.12980034947395325, -0.08888467401266098, 0.2330085039138794, 0.03416385501623154, 0.022649331018328667, 0.23887622356414795, -0.030852140858769417, -0.024746783077716827, -0.01679695025086403, 0.047532469034194946, 0.04690885171294212, -0.06780029833316803, 0.037653498351573944, 0.07099643349647522, 0.69346022605896, 0.0025013976264744997, 0.11451619863510132, 0.17341348528862, -0.12294654548168182, -0.03330107778310776, -0.33033257722854614, 0.006426691077649593, -0.2310742437839508, 0.6493116021156311, 0.16751523315906525, -0.1579243540763855, -0.1697816699743271, 0.012916422449052334, -0.15200597047805786, 0.14337392151355743, -0.5232985019683838, 0.34164077043533325, -0.06794796139001846, -0.33185243606567383, -0.08635397255420685, -0.12091034650802612, -0.04836457967758179, -0.23046547174453735, 0.3559243679046631, 0.2869518995285034, -0.44128191471099854, -0.050015389919281006, 0.1681065559387207, 0.4823986291885376, -0.11955636739730835, 0.3069649934768677, -0.028011441230773926, -0.1917715072631836, 0.30598050355911255, -0.4455450773239136, 0.41890019178390503, 0.4994143843650818, -0.1365121603012085, 0.1975109577178955, 0.49860215187072754, 1.1053199768066406, 1.178386926651001, 1.2953693866729736, -0.9656407833099365, 0.20062746107578278, 0.019999999552965164]}