{
  "version": "0.5.2",
  "metadata": {
    "date": {
      "year": 2025,
      "month": 3,
      "day": 27,
      "hour": 8,
      "minute": 50,
      "second": 5
    },
    "loudness": -21.441194534301758,
    "gain": 0.5533093499258127,
    "name": null,
    "modeled_by": null,
    "gear_type": null,
    "gear_make": null,
    "gear_model": null,
    "tone_type": null,
    "input_level_dbu": 12.2418,
    "output_level_dbu": 12.2418
  },
  "architecture": "WaveNet",
  "config": {
    "layers": [
      {
        "input_size": 1,
        "condition_size": 1,
        "head_size": 8,
        "channels": 32,
        "kernel_size": 3,
        "dilations": [
          1,
          2,
          4,
          8,
          16,
          32,
          64,
          128,
          256,
          512,
          1,
          2,
          4,
          8,
          16,
          32,
          64,
          128,
          256,
          512
        ],
        "activation": "Tanh",
        "gated": false,
        "head_bias": false
      },
      {
        "input_size": 32,
        "condition_size": 1,
        "head_size": 1,
        "channels": 8,
        "kernel_size": 3,
        "dilations": [
          1,
          2,
          4,
          8,
          16,
          32,
          64,
          128,
          256,
          512,
          1,
          2,
          4,
          8,
          16,
          32,
          64,
          128,
          256,
          512
        ],
        "activation": "Tanh",
        "gated": false,
        "head_bias": true
      }
    ],
    "head": null,
    "head_scale": 0.02
  },
  "weights": [
    0.0012573831481859088,
    0.4814108908176422,
    -0.8333883285522461,
    -0.6590895652770996,
    -0.2513463497161865,
    -0.0007723717135377228,
    0.0006576281157322228,
    0.8086520433425903,
    -0.0004965751431882381,
    0.34315288066864014,
    -0.18240931630134583,
    -0.000613263517152518,
    -0.9418231844902039,
    -0.5845953822135925,
    -0.21776147186756134,
    0.00004879735206486657,
    0.2846461236476898,
    0.5184687376022339,
    -0.6045656204223633,
    -0.34596481919288635,
    0.28124532103538513,
    0.7777727246284485,
    -0.18117722868919373,
    0.6788437962532043,
    -0.023448726162314415,
    0.0010325658367946744,
    0.6306259632110596,
    -0.9509151577949524,
    -0.5554854869842529,
    -0.21212632954120636,
    -0.4204499423503876,
    0.8535413146018982,
    -0.03054254688322544,
    -0.047844454646110535,
    0.01751471310853958,
    -0.1032179668545723,
    -0.11132444441318512,
    0.048419039696455,
    0.05628757178783417,
    0.1045796200633049,
    0.04793746396899223,
    -0.04251649230718613,
    0.07147564738988876,
    -0.05366189777851105,
    -0.07037173956632614,
    -0.005579190794378519,
    0.09818395227193832,
    0.05060457065701485,
    -0.065497487783432,
    0.009013903327286243,
    0.10925275087356567,
    0.10156447440385818,
    0.07209818065166473,
    0.00334182009100914,
    0.013589780777692795,
    -0.10254006832838058,
    0.033094290643930435,
    -0.0334964245557785,
    -0.05606316775083542,
    -0.055772654712200165,
    -0.002520326292142272,
    0.00626332638785243,
    -0.06107966974377632,
    0.07250382006168365,
    0.08635373413562775,
    -0.062149930745363235,
    0.003686188952997327,
    -0.016929754987359047,
    0.0748208537697792,
    0.15376852452754974,
    -0.035534366965293884,
    -0.02792021445930004,
    0.09339436143636703,
    0.12596747279167175,
    0.09179539978504181,
    0.13730137050151825,
    0.053036969155073166,
    -0.04772399365901947,
    -0.02524503692984581,
    -0.05553285777568817,
    -0.09939724951982498,
    0.042083825916051865,
    0.042379893362522125,
    -0.11066603660583496,
    -0.03354289010167122,
    -0.056890275329351425,
    -0.007609919179230928,
    0.0059736017137765884,
    0.08080031722784042,
    -0.054308440536260605,
    0.08795188367366791,
    0.08863779902458191,
    0.06881570816040039,
    -0.010148447938263416,
    -0.13648074865341187,
    -0.07690806686878204,
    -0.003757192986086011,
    -0.021065320819616318,
    -0.0845663771033287,
    -0.018645402044057846,
    0.12196887284517288,
    0.058384377509355545,
    -0.09887892752885818,
    -0.06784936785697937,
    -0.11114612221717834,
    0.028371654450893402,
    -0.0657539889216423,
    -0.0709192305803299,
    -0.024211134761571884,
    0.011922360397875309,
    -0.052828628569841385,
    0.0065482016652822495,
    -0.10465719550848007,
    0.10387375950813293,
    0.12548048794269562,
    -0.04253218695521355,
    -0.016415268182754517,
    0.0579209066927433,
    0.0552334189414978,
    0.023143023252487183,
    0.0853462666273117,
    0.03490752726793289,
    -0.043809253722429276,
    0.09938572347164154,
    -0.05997200310230255,
    -0.07149767130613327,
    -0.08093399554491043,
    -0.09236805886030197,
    -0.04078840836882591,
    -0.029404984787106514,
    -0.06748301535844803,
    0.021963218227028847,
    0.03526712581515312,
    0.010324354283511639,
    0.07034605741500854,
    -0.11536707729101181,
    -0.015821564942598343,
    -0.010953246615827084,
    -0.08345681428909302,
    0.047071024775505066,
    0.10062962025403976,
    -0.031587839126586914,
    0.08633749932050705,
    -0.003835535841062665,
    -0.03216543048620224,
    -0.07792570441961288,
    0.10486404597759247,
    0.11870436370372772,
    -0.015129618346691132,
    -0.07562720775604248,
    0.009301023557782173,
    -0.06756430119276047,
    -0.02431473694741726,
    -0.024131588637828827,
    0.062511146068573,
    -0.10241352766752243,
    0.16263626515865326,
    -0.06820951402187347,
    -0.01291634514927864,
    -0.13205187022686005,
    -0.02527311071753502,
    -0.023341573774814606,
    -0.1449221670627594,
    -0.07748448103666306,
    -0.019177528098225594,
    -0.10388606041669846,
    -0.0654289573431015,
    0.037158165127038956,
    -0.19466786086559296,
    -0.024001475423574448,
    0.09483631700277328,
    -0.13655619323253632,
    0.08349987864494324,
    -0.01444206852465868,
    -0.09772007912397385,
    0.02447095885872841,
    -0.015033110976219177,
    0.05220581218600273,
    0.09317673742771149,
    -0.08213051408529282,
    0.11240606755018234,
    -0.005709783639758825,
    0.0713835284113884,
    -0.07450097799301147,
    0.03158735856413841,
    0.03754541650414467,
    -0.1244594007730484,
    -0.03487396240234375,
    -0.088313989341259,
    0.15209858119487762,
    0.09195677936077118,
    0.07234896719455719,
    0.03227928280830383,
    0.02290673740208149,
    -0.060719139873981476,
    -0.14618052542209625,
    -0.06262657046318054,
    0.03725340589880943,
    0.04331139847636223,
    0.01587674953043461,
    0.025855716317892075,
    -0.01023593358695507,
    -0.06577716767787933,
    -0.07081292569637299,
    -0.0011055613867938519,
    0.06430237740278244,
    -0.03447622060775757,
    0.18890908360481262,
    0.054597996175289154,
    0.009724547155201435,
    -0.1062236949801445,
    -0.03959101065993309,
    0.01142213400453329,
    -0.12639380991458893,
    -0.017575321719050407,
    0.019083110615611076,
    -0.1756909191608429,
    -0.060948051512241364,
    0.08430813997983932,
    -0.18341802060604095,
    -0.021312810480594635,
    0.10387912392616272,
    0.1418798714876175,
    0.021601544693112373,
    -0.02214939333498478,
    0.03761176019906998,
    0.007629852741956711,
    0.014311563223600388,
    -0.1240001991391182,
    -0.036186039447784424,
    -0.03971051052212715,
    0.17702265083789825,
    0.036925818771123886,
    0.05017321556806564,
    0.15470142662525177,
    -0.041131243109703064,
    -0.0009613861329853535,
    0.012550384737551212,
    -0.02713893912732601,
    0.04434921592473984,
    -0.03172239288687706,
    0.0945919007062912,
    -0.014019433408975601,
    -0.09011531621217728,
    0.0457707904279232,
    -0.05769618973135948,
    -0.01890389434993267,
    -0.10847782343626022,
    -0.021134190261363983,
    0.06267659366130829,
    -0.05231661722064018,
    0.06157320737838745,
    -0.0017237174324691296,
    -0.046922288835048676,
    -0.11185859888792038,
    0.04164133965969086,
    -0.08994509279727936,
    0.02395133674144745,
    -0.01032088603824377,
    -0.0977138876914978,
    -0.09903183579444885,
    0.1519463211297989,
    0.0786905288696289,
    0.03632635250687599,
    0.12806981801986694,
    -0.011398027651011944,
    -0.07600680738687515,
    0.11409866064786911,
    0.09825444966554642,
    0.09618186950683594,
    -0.031462326645851135,
    0.009625375270843506,
    -0.05017966404557228,
    -0.0640953779220581,
    -0.07436151057481766,
    -0.0482027567923069,
    -0.00014923095295671374,
    -0.08753786236047745,
    -0.05354427546262741,
    0.12020952999591827,
    0.02613992430269718,
    -0.11335893720388412,
    0.005624192301183939,
    0.10034392774105072,
    0.06379906833171844,
    -0.0005554035888053477,
    -0.05087839066982269,
    0.0709536075592041,
    -0.1156938448548317,
    -0.028421353548765182,
    -0.11659044027328491,
    0.11258773505687714,
    0.041182972490787506,
    0.038871828466653824,
    -0.11525466293096542,
    -0.08659591525793076,
    0.007353568449616432,
    -0.01135996449738741,
    0.03608384355902672,
    -0.000025185316189890727,
    -0.091538205742836,
    0.0379641018807888,
    -0.012371564283967018,
    -0.06806539744138718,
    -0.0032441550865769386,
    -0.116184763610363,
    0.11038733273744583,
    0.06840585172176361,
    -0.0016063981456682086,
    0.07829190790653229,
    -0.06133189797401428,
    -0.06511557102203369,
    0.11990870535373688,
    -0.024002771824598312,
    -0.006825712975114584,
    0.1562536507844925,
    -0.033736683428287506,
    0.04154118150472641,
    -0.050879623740911484,
    -0.0162840373814106,
    -0.01668052189052105,
    0.0307358056306839,
    -0.13314388692378998,
    -0.012321394868195057,
    0.11852386593818665,
    0.11786859482526779,
    0.0774899572134018,
    -0.03739621117711067,
    0.018450001254677773,
    -0.03130535036325455,
    -0.13477733731269836,
    -0.11597385257482529,
    0.12667740881443024,
    0.02231297455728054,
    -0.0907725840806961,
    0.025555741041898727,
    0.09567885845899582,
    0.07971460372209549,
    0.07239685207605362,
    0.12587957084178925,
    -0.014835759997367859,
    -0.053475964814424515,
    0.13477490842342377,
    0.08631957322359085,
    -0.05586139112710953,
    0.045415692031383514,
    0.03986825421452522,
    0.03078145906329155,
    -0.019207708537578583,
    0.051016535609960556,
    -0.006883362308144569,
    0.04258792847394943,
    -0.03458903729915619,
    0.09637041389942169,
    0.020143864676356316,
    0.08849039673805237,
    -0.01792900823056698,
    -0.001902885502204299,
    -0.10109469294548035,
    0.04198599234223366,
    -0.11810621619224548,
    -0.12842723727226257,
    -0.056907959282398224,
    0.03810938820242882,
    0.03587023913860321,
    0.042868319898843765,
    0.0888124480843544,
    -0.11842567473649979,
    -0.09354452788829803,
    0.027640454471111298,
    -0.044545624405145645,
    0.05133270472288132,
    -0.029008248820900917,
    -0.02353542111814022,
    -0.0796523243188858,
    -0.10682510584592819,
    0.05604681000113487,
    0.10557641088962555,
    0.026814574375748634,
    0.05516091361641884,
    0.0665285661816597,
    0.017485719174146652,
    0.06663822382688522,
    0.07332208007574081,
    0.08433804661035538,
    0.13098111748695374,
    0.08603060990571976,
    0.02809729240834713,
    -0.04792133718729019,
    0.031204238533973694,
    0.06215256080031395,
    0.004385093692690134,
    -0.01559521909803152,
    -0.08159512281417847,
    -0.07670669257640839,
    0.04340435564517975,
    0.09145639836788177,
    -0.01699310541152954,
    -0.07653018832206726,
    0.1285037100315094,
    0.09400149434804916,
    0.02459564059972763,
    -0.09977101534605026,
    0.06371340155601501,
    0.060822293162345886,
    -0.1267341673374176,
    0.07058389484882355,
    0.10532046109437943,
    -0.07887985557317734,
    0.04077324643731117,
    -0.035611994564533234,
    -0.06276392936706543,
    0.06224977225065231,
    -0.01296660490334034,
    -0.020830105990171432,
    -0.004757063463330269,
    -0.008853590115904808,
    -0.06948506087064743,
    0.046253520995378494,
    0.1294766366481781,
    -0.0627482607960701,
    -0.07816985249519348,
    -0.026961512863636017,
    0.12036360055208206,
    0.06903542578220367,
    -0.12613964080810547,
    0.05258186161518097,
    -0.05830699950456619,
    -0.08260518312454224,
    0.09982351213693619,
    -0.06269344687461853,
    0.052097711712121964,
    0.04149435833096504,
    0.035758357495069504,
    -0.03283550590276718,
    -0.09856028854846954,
    0.035005051642656326,
    -0.04536367580294609,
    -0.020497754216194153,
    -0.11093769967556,
    -0.13209927082061768,
    -0.0516192801296711,
    -0.04111336171627045,
    0.1083117127418518,
    -0.1608017385005951,
    0.0737457200884819,
    -0.08456196635961533,
    0.0876561850309372,
    0.009693254716694355,
    -0.1320064663887024,
    0.11912353336811066,
    0.016223687678575516,
    0.06985049694776535,
    0.12347012758255005,
    -0.048494961112737656,
    0.05162149667739868,
    0.07515992224216461,
    0.06528664380311966,
    -0.12162822484970093,
    0.03381626680493355,
    -0.0917104110121727,
    0.004750026855617762,
    -0.01423656102269888,
    -0.063162662088871,
    0.07082897424697876,
    -0.010049677453935146,
    0.0030975963454693556,
    -0.03388203680515289,
    -0.14740857481956482,
    -0.04686501994729042,
    0.011113599874079227,
    0.16995589435100555,
    0.07558929175138474,
    -0.04785747826099396,
    0.10263794660568237,
    -0.0869256779551506,
    -0.04816512018442154,
    -0.016315193846821785,
    -0.0686347559094429,
    0.08143093436956406,
    -0.1430501490831375,
    -0.06868185847997665,
    -0.13143646717071533,
    0.1089431643486023,
    -0.008275670930743217,
    0.11102530360221863,
    -0.007738314103335142,
    0.03860054165124893,
    -0.05270626023411751,
    0.012138746678829193,
    -0.03398839756846428,
    0.06613259017467499,
    0.035239797085523605,
    -0.03390704095363617,
    0.11785545945167542,
    -0.0816403180360794,
    -0.10314756631851196,
    -0.08696427941322327,
    0.16222305595874786,
    0.11250777542591095,
    -0.12830902636051178,
    0.14157357811927795,
    0.06743977218866348,
    0.017996208742260933,
    0.14884155988693237,
    -0.04864449054002762,
    -0.004807739984244108,
    0.1085098460316658,
    -0.016388382762670517,
    0.06604444235563278,
    -0.10110179334878922,
    0.04456710070371628,
    0.03551999852061272,
    -0.10118115693330765,
    0.08004139363765717,
    0.0788707584142685,
    -0.11463325470685959,
    0.11593539267778397,
    0.013553216122090816,
    0.051964931190013885,
    -0.0795961543917656,
    -0.06923156976699829,
    0.09867890924215317,
    -0.18307113647460938,
    -0.09772930294275284,
    0.01699751429259777,
    -0.007444082759320736,
    0.07234182953834534,
    -0.010943661443889141,
    0.03636893257498741,
    0.13912276923656464,
    0.0241846926510334,
    -0.03654634952545166,
    -0.03729170560836792,
    -0.1396857500076294,
    0.1099921390414238,
    -0.0586036741733551,
    0.01353808119893074,
    -0.0780651792883873,
    0.06085954234004021,
    -0.12111972272396088,
    0.12986837327480316,
    -0.05685598775744438,
    0.02261061780154705,
    -0.08230394870042801,
    0.054198622703552246,
    -0.08537367731332779,
    -0.024433860555291176,
    -0.08357235044240952,
    0.16180141270160675,
    -0.20781563222408295,
    -0.14168046414852142,
    0.16372960805892944,
    -0.17287075519561768,
    -0.016907183453440666,
    0.06068091094493866,
    -0.12115466594696045,
    -0.03132767602801323,
    0.08638349175453186,
    0.052233412861824036,
    -0.060367099940776825,
    -0.1281988024711609,
    0.06816945225000381,
    0.09408970177173615,
    -0.13032115995883942,
    0.203586146235466,
    -0.06660213321447372,
    0.04476645961403847,
    -0.028185714036226273,
    0.009871303103864193,
    0.15263210237026215,
    -0.04650987312197685,
    0.008212583139538765,
    -0.13539090752601624,
    0.09583046287298203,
    0.12957479059696198,
    -0.0964241698384285,
    0.01524073351174593,
    0.00897971075028181,
    0.17461058497428894,
    -0.12595273554325104,
    -0.03955099731683731,
    -0.1549946665763855,
    0.13509869575500488,
    -0.030131269246339798,
    0.03343425318598747,
    -0.0629233717918396,
    0.07710493355989456,
    0.047978103160858154,
    0.12699204683303833,
    0.0285131074488163,
    -0.15212056040763855,
    0.01544128730893135,
    0.049092553555965424,
    0.10658562928438187,
    -0.06681911647319794,
    -0.1318286806344986,
    0.1584475040435791,
    -0.011436866596341133,
    0.057697031646966934,
    -0.01176569052040577,
    -0.13724511861801147,
    -0.1127379760146141,
    0.16244323551654816,
    -0.1516825407743454,
    -0.0008876362117007375,
    -0.008510066196322441,
    0.06354258209466934,
    -0.09900355339050293,
    -0.035200685262680054,
    -0.03339485079050064,
    -0.11566071957349777,
    0.09588335454463959,
    0.039110954850912094,
    0.069551981985569,
    0.07493189722299576,
    -0.035984985530376434,
    0.04846208542585373,
    0.07359062135219574,
    -0.07282588630914688,
    -0.006684764754027128,
    0.09097997844219208,
    -0.053488876670598984,
    -0.08548998087644577,
    0.010255077853798866,
    -0.011701817624270916,
    0.05702292174100876,
    -0.000370965339243412,
    -0.05074174702167511,
    -0.04000997170805931,
    0.0777532160282135,
    0.11390311270952225,
    0.07545384764671326,
    0.015838492661714554,
    0.008942208252847195,
    -0.06576529890298843,
    -0.03386370837688446,
    -0.014852089807391167,
    -0.031474776566028595,
    0.04403597488999367,
    -0.13276422023773193,
    0.04354388639330864,
    -0.009453830309212208,
    0.008207518607378006,
    -0.033395715057849884,
    0.08323822170495987,
    -0.14713166654109955,
    0.11855664104223251,
    -0.09339563548564911,
    -0.11026525497436523,
    0.0967726856470108,
    -0.047486163675785065,
    0.009373736567795277,
    -0.10149189084768295,
    -0.0349481999874115,
    -0.04465853422880173,
    -0.023307181894779205,
    0.10106983035802841,
    0.0306259598582983,
    0.0009665294783189893,
    -0.014573831111192703,
    0.0617743581533432,
    0.10980972647666931,
    -0.09094253182411194,
    -0.07489338517189026,
    0.1336102932691574,
    -0.023407790809869766,
    -0.002635796321555972,
    -0.07163382321596146,
    0.08879987895488739,
    -0.019451411440968513,
    -0.04814709350466728,
    -0.0044014789164066315,
    0.12010380625724792,
    0.08833719044923782,
    0.07986240833997726,
    -0.08663595467805862,
    -0.0376616045832634,
    0.08325961232185364,
    0.05915454030036926,
    0.14773423969745636,
    -0.05556054040789604,
    -0.0653621181845665,
    -0.048184048384428024,
    0.04634387418627739,
    0.08656345307826996,
    -0.0495292954146862,
    -0.07144773751497269,
    0.13648346066474915,
    0.06335935741662979,
    0.02660469338297844,
    -0.15125827491283417,
    0.10076094418764114,
    0.08469504863023758,
    -0.07615871727466583,
    -0.05062113329768181,
    0.06801637262105942,
    -0.15045633912086487,
    0.061549317091703415,
    0.005438791122287512,
    -0.1308789700269699,
    0.0024134686682373285,
    -0.07719016820192337,
    0.11073316633701324,
    -0.012322989292442799,
    -0.01544272806495428,
    0.02198321372270584,
    0.1306348443031311,
    -0.10830873250961304,
    -0.052698228508234024,
    -0.05409779027104378,
    0.014475731179118156,
    0.033146172761917114,
    -0.13528591394424438,
    0.1617993861436844,
    0.09533258527517319,
    -0.04256517440080643,
    0.08188799023628235,
    0.18103840947151184,
    0.10419771075248718,
    0.04287593066692352,
    -0.1343631148338318,
    0.06142858415842056,
    -0.05631536990404129,
    -0.07247486710548401,
    0.06540774554014206,
    0.032892659306526184,
    -0.20373715460300446,
    0.006596654653549194,
    -0.03281911462545395,
    0.02703075297176838,
    0.1298457235097885,
    -0.0799437090754509,
    -0.10652999579906464,
    -0.12349124997854233,
    0.13518501818180084,
    0.09293921291828156,
    -0.13588115572929382,
    0.0009356620139442384,
    -0.13718782365322113,
    -0.12138401716947556,
    0.06970498710870743,
    0.20329992473125458,
    -0.07113151997327805,
    0.10900476574897766,
    0.20772714912891388,
    0.020314769819378853,
    0.0006044606561772525,
    0.09858178347349167,
    -0.03505149856209755,
    -0.11728169769048691,
    0.006995684001594782,
    0.12366457283496857,
    0.030032319948077202,
    -0.10399656742811203,
    0.06617417186498642,
    -0.10406945645809174,
    -0.04118082672357559,
    -0.0848563015460968,
    -0.010271943174302578,
    0.13561663031578064,
    0.01563403569161892,
    -0.034259431064128876,
    0.20782797038555145,
    0.08405447006225586,
    -0.127062126994133,
    -0.1356411725282669,
    0.12955719232559204,
    -0.14080838859081268,
    -0.1512623429298401,
    -0.021627120673656464,
    -0.04092114791274071,
    0.16204531490802765,
    0.0945291519165039,
    0.0012328012380748987,
    -0.1860044002532959,
    0.036678336560726166,
    -0.0254682507365942,
    0.18942424654960632,
    -0.03729408606886864,
    -0.08178491145372391,
    0.05957266688346863,
    0.05153579264879227,
    -0.055130232125520706,
    -0.17603106796741486,
    -0.08347861468791962,
    0.03367718681693077,
    0.023536987602710724,
    -0.03706645965576172,
    0.07924945652484894,
    0.11950225383043289,
    -0.018086742609739304,
    0.15038150548934937,
    0.13631023466587067,
    -0.08318908512592316,
    0.01701785810291767,
    0.052713390439748764,
    -0.029873838648200035,
    -0.07954072207212448,
    -0.13999196887016296,
    0.03334268182516098,
    0.020455466583371162,
    0.10826929658651352,
    -0.11221493035554886,
    0.025241443887352943,
    0.01754491962492466,
    0.14497092366218567,
    -0.0813295915722847,
    0.09556032717227936,
    0.054732028394937515,
    -0.07070191949605942,
    0.041173338890075684,
    0.06323971599340439,
    -0.10044510662555695,
    0.08524846285581589,
    -0.027786893770098686,
    -0.0376131571829319,
    0.04416573792695999,
    -0.04825163632631302,
    0.06447148323059082,
    0.059142887592315674,
    -0.07439004629850388,
    0.07792900502681732,
    -0.10640865564346313,
    0.03302738070487976,
    -0.03734647482633591,
    0.040941398590803146,
    -0.07617074251174927,
    0.05241292715072632,
    -0.06795018166303635,
    0.09664709866046906,
    -0.053724780678749084,
    0.07456042617559433,
    -0.05408966541290283,
    -0.08749079704284668,
    0.0371239110827446,
    0.057042770087718964,
    -0.06252662092447281,
    0.04321837052702904,
    0.06878150999546051,
    -0.041865892708301544,
    0.1424463987350464,
    0.040954895317554474,
    0.009247541427612305,
    0.11190938949584961,
    0.010320119559764862,
    0.021603956818580627,
    0.04819323122501373,
    -0.032280292361974716,
    0.048133011907339096,
    -0.06644698977470398,
    0.02959960512816906,
    -0.0186886265873909,
    -0.128499373793602,
    0.08621951937675476,
    -0.11256658285856247,
    0.07728184759616852,
    -0.007676788605749607,
    0.041155874729156494,
    -0.022609397768974304,
    0.02463429979979992,
    0.12897111475467682,
    -0.049812525510787964,
    -0.05002414062619209,
    0.12280317395925522,
    -0.12055978924036026,
    0.021902982145547867,
    -0.08017813414335251,
    0.04935823753476143,
    -0.020870475098490715,
    0.03616785258054733,
    -0.09599633514881134,
    -0.0826912373304367,
    -0.04022225737571716,
    0.04527827724814415,
    -0.02334047481417656,
    0.07842008024454117,
    0.05742346867918968,
    -0.10343367606401443,
    0.01587195321917534,
    -0.11691175401210785,
    -0.050008468329906464,
    -0.095905601978302,
    0.17394867539405823,
    0.10089375078678131,
    0.030721409246325493,
    0.13166680932044983,
    -0.048924561589956284,
    -0.02263117954134941,
    0.16012926399707794,
    -0.017163757234811783,
    0.06485362350940704,
    0.10074753314256668,
    0.02816837653517723,
    -0.021725712344050407,
    -0.030400637537240982,
    -0.04291953891515732,
    -0.013711687177419662,
    0.11496526002883911,
    0.0601058229804039,
    0.03781573474407196,
    0.07837716490030289,
    0.06627088040113449,
    0.11938216537237167,
    0.09693463146686554,
    -0.040538061410188675,
    -0.029092485085129738,
    -0.013720378279685974,
    -0.0449129156768322,
    -0.01247310172766447,
    0.0686059445142746,
    0.04331940785050392,
    -0.019384879618883133,
    0.04948804900050163,
    0.1671452820301056,
    0.034616757184267044,
    -0.02277795970439911,
    -0.047227028757333755,
    -0.005633483175188303,
    -0.011140910908579826,
    0.013648527674376965,
    -0.07590243965387344,
    -0.1207001730799675,
    0.09701202809810638,
    0.021324357017874718,
    -0.10965755581855774,
    0.001235257601365447,
    -0.042149338871240616,
    0.08988326787948608,
    0.014034689404070377,
    0.1523669809103012,
    -0.12765483558177948,
    -0.1240929663181305,
    0.12047343701124191,
    0.11635725200176239,
    0.034744687378406525,
    0.11694010347127914,
    -0.062060121446847916,
    0.03988782316446304,
    -0.05356968566775322,
    0.03776676580309868,
    -0.0425996333360672,
    -0.0973026379942894,
    0.026542218402028084,
    -0.0073241000063717365,
    -0.06038254499435425,
    -0.11434664577245712,
    -0.06775099039077759,
    -0.008535712026059628,
    -0.06554507464170456,
    -0.08998217433691025,
    0.008424695581197739,
    -0.05929889529943466,
    -0.11256872862577438,
    0.107331283390522,
    0.07143200188875198,
    0.0467502661049366,
    -0.09945139288902283,
    0.016265470534563065,
    0.031188376247882843,
    -0.12339773774147034,
    -0.0030690599232912064,
    0.05066518113017082,
    -0.06525912880897522,
    -0.09328753501176834,
    0.039859235286712646,
    0.026527153328061104,
    -0.08688284456729889,
    -0.028009334579110146,
    0.09679263085126877,
    0.025036990642547607,
    0.04450894519686699,
    0.06849469989538193,
    0.07933805882930756,
    -0.03130456060171127,
    -0.041185230016708374,
    0.02712838724255562,
    0.06393007189035416,
    -0.05019648000597954,
    0.08134624361991882,
    -0.05778302997350693,
    -0.05084937810897827,
    0.04564997926354408,
    -0.09337921440601349,
    0.05569952726364136,
    -0.05487662926316261,
    -0.1084163561463356,
    0.03768083080649376,
    -0.014033615589141846,
    0.08597048372030258,
    -0.042369090020656586,
    0.0543946847319603,
    0.008106152527034283,
    -0.08768456429243088,
    0.049422137439250946,
    0.024833181872963905,
    -0.028077460825443268,
    -0.09807940572500229,
    -0.015959609299898148,
    0.03097265213727951,
    0.06017083674669266,
    -0.09670121222734451,
    0.04915732517838478,
    -0.016950298100709915,
    -0.045461505651474,
    0.10128748416900635,
    -0.011424927040934563,
    -0.07660219073295593,
    -0.06721217930316925,
    -0.052048712968826294,
    0.013677014969289303,
    -0.05081719160079956,
    -0.0038005721289664507,
    -0.053717512637376785,
    -0.05755043029785156,
    -0.011556587181985378,
    0.07221319526433945,
    0.028314510360360146,
    -0.030616765841841698,
    0.052827708423137665,
    0.013838822022080421,
    -0.1257355809211731,
    -0.08740497380495071,
    0.08132696896791458,
    0.04722800850868225,
    -0.12559814751148224,
    -0.029968973249197006,
    0.028669675812125206,
    -0.05026170611381531,
    0.1216185986995697,
    0.15008090436458588,
    -0.003038631286472082,
    0.04036640375852585,
    0.03448936715722084,
    -0.02953486144542694,
    0.060264233499765396,
    -0.019749954342842102,
    0.012495909817516804,
    -0.11232113093137741,
    0.06216324120759964,
    -0.042176082730293274,
    0.04969571903347969,
    -0.08728460222482681,
    -0.03985575959086418,
    0.0015348116867244244,
    -0.050359658896923065,
    0.052724726498126984,
    0.09071917086839676,
    -0.031525421887636185,
    0.043838001787662506,
    0.026687003672122955,
    0.01819523051381111,
    0.08808764070272446,
    0.03149840980768204,
    -0.1505378782749176,
    0.007299136370420456,
    0.03378259018063545,
    -0.028832117095589638,
    0.05395219102501869,
    -0.00031595418113283813,
    -0.004542237613350153,
    0.10437079519033432,
    -0.00740045728161931,
    0.029788022860884666,
    -0.08242331445217133,
    -0.04030075669288635,
    0.026897065341472626,
    -0.08502884209156036,
    0.006202113348990679,
    0.052231963723897934,
    0.041108518838882446,
    -0.059033360332250595,
    -0.016817623749375343,
    -0.08062800765037537,
    0.1509072631597519,
    -0.03190106526017189,
    -0.11578474193811417,
    0.024567702785134315,
    0.14992138743400574,
    -0.0168301984667778,
    0.08012700080871582,
    -0.018216045573353767,
    0.016061950474977493,
    0.03481500968337059,
    0.10512582212686539,
    0.08808665722608566,
    -0.006533017847687006,
    -0.07771933078765869,
    0.0006338782259263098,
    -0.13831907510757446,
    -0.009525110013782978,
    0.06345758587121964,
    -0.16231808066368103,
    -0.013628527522087097,
    -0.03485724702477455,
    0.10092563927173615,
    0.0824623629450798,
    -0.0886690616607666,
    0.12287351489067078,
    0.06911928951740265,
    -0.010253332555294037,
    0.09567766636610031,
    0.15182264149188995,
    0.062185294926166534,
    -0.14786586165428162,
    0.02245379239320755,
    -0.053611550480127335,
    -0.15447483956813812,
    0.017134588211774826,
    -0.0038706075865775347,
    -0.17211595177650452,
    -0.1786019653081894,
    -0.031479839235544205,
    0.13286975026130676,
    -0.049208685755729675,
    -0.09785103797912598,
    -0.10636629164218903,
    -0.14674529433250427,
    -0.09542762488126755,
    0.07018405944108963,
    0.05025614798069,
    -0.06286308914422989,
    0.009107472375035286,
    0.04300945624709129,
    -0.09000276774168015,
    0.11075318604707718,
    0.014845685102045536,
    -0.06664658337831497,
    0.16248886287212372,
    0.00009894182585412636,
    -0.07877616584300995,
    0.17365850508213043,
    0.08926501125097275,
    0.08470426499843597,
    -0.0743345394730568,
    -0.07164482772350311,
    -0.009113424457609653,
    -0.11716943979263306,
    0.005039962008595467,
    -0.10517238080501556,
    -0.12869402766227722,
    -0.031949229538440704,
    -0.052308786660432816,
    0.07010940462350845,
    0.12803447246551514,
    -0.09609930962324142,
    0.14435015618801117,
    -0.004001324065029621,
    0.05175817012786865,
    -0.20416295528411865,
    -0.009807463735342026,
    -0.10204817354679108,
    -0.20978164672851562,
    -0.07842916995286942,
    0.07163451611995697,
    0.02279902994632721,
    0.018549419939517975,
    0.08434930443763733,
    -0.14093583822250366,
    -0.03747076913714409,
    -0.11470082402229309,
    0.06633704900741577,
    -0.0020633500535041094,
    0.08282939344644547,
    -0.023012451827526093,
    -0.10625525563955307,
    0.01121138222515583,
    -0.12331589311361313,
    -0.12115880846977234,
    -0.05233018100261688,
    0.0912066400051117,
    0.16151101887226105,
    -0.06895768642425537,
    0.05015435814857483,
    0.04669450223445892,
    -0.001689249649643898,
    0.1442597359418869,
    0.07157012075185776,
    -0.023546118289232254,
    0.05895442143082619,
    0.05737556144595146,
    -0.046992212533950806,
    -0.042430438101291656,
    -0.17973752319812775,
    -0.019229009747505188,
    -0.0690956711769104,
    0.04533148929476738,
    0.11991625279188156,
    0.07355903834104538,
    -0.11886908859014511,
    -0.04189000651240349,
    0.07891929894685745,
    0.07851089537143707,
    0.045312847942113876,
    0.015554258599877357,
    -0.03624030947685242,
    0.02353830449283123,
    -0.02360023744404316,
    0.0775473341345787,
    -0.020337987691164017,
    0.011575277894735336,
    0.09550449252128601,
    0.20097871124744415,
    -0.05315732583403587,
    0.020292120054364204,
    -0.004508213140070438,
    -0.08392969518899918,
    0.06448730826377869,
    -0.056786149740219116,
    -0.06892034411430359,
    -0.06990351527929306,
    -0.01106048934161663,
    0.030150581151247025,
    -0.11528059840202332,
    -0.14313621819019318,
    -0.09376940131187439,
    0.06439078599214554,
    0.027053028345108032,
    -0.013183177448809147,
    -0.007520140148699284,
    0.03864958509802818,
    0.03448166698217392,
    0.012499324046075344,
    -0.03105882927775383,
    0.006655387580394745,
    0.0834326297044754,
    -0.11355392634868622,
    0.06360643357038498,
    0.08083456009626389,
    -0.03680989518761635,
    0.029165729880332947,
    0.12066368758678436,
    0.00319783971644938,
    -0.041383277624845505,
    0.024976495653390884,
    -0.04089856147766113,
    0.02383424900472164,
    -0.00700328778475523,
    0.025656308978796005,
    -0.07129168510437012,
    -0.05258447676897049,
    0.004011190962046385,
    0.05122151970863342,
    -0.06721671670675278,
    -0.01315307803452015,
    -0.10564061254262924,
    -0.09917055815458298,
    -0.008647819980978966,
    0.06563650071620941,
    -0.05362449958920479,
    0.006223138887435198,
    0.10066545754671097,
    0.06381823867559433,
    -0.05360723286867142,
    0.03279302269220352,
    0.006102336570620537,
    0.018256450071930885,
    -0.10734520852565765,
    0.06520168483257294,
    0.11688670516014099,
    -0.11527927219867706,
    0.021983427926898003,
    0.12393607199192047,
    -0.09320114552974701,
    0.0006406098837032914,
    0.008112507872283459,
    0.046329934149980545,
    0.13586455583572388,
    0.04473874717950821,
    0.10505091398954391,
    0.018717709928750992,
    0.037445735186338425,
    -0.08565126359462738,
    -0.034599512815475464,
    -0.06423354893922806,
    -0.01599154993891716,
    0.1232338473200798,
    0.08528738468885422,
    0.04638043791055679,
    0.035822317004203796,
    -0.0751275047659874,
    0.05257296934723854,
    -0.033313751220703125,
    0.0465749129652977,
    0.17332492768764496,
    -0.021824171766638756,
    -0.05367927998304367,
    -0.03883305937051773,
    -0.04925009235739708,
    -0.09310021996498108,
    -0.05413338914513588,
    0.047860778868198395,
    -0.04773443937301636,
    -0.1356465071439743,
    -0.08916044235229492,
    -0.08482309430837631,
    0.09413260221481323,
    -0.08325448632240295,
    0.13193708658218384,
    0.054574716836214066,
    0.04261692985892296,
    0.024864988401532173,
    0.1765066385269165,
    0.10424472391605377,
    0.05029653385281563,
    -0.05134281888604164,
    -0.04599665477871895,
    -0.056817956268787384,
    0.027062082663178444,
    0.01926077902317047,
    0.08834194391965866,
    -0.1286781281232834,
    -0.013198304921388626,
    -0.09698475897312164,
    -0.04464239999651909,
    0.040513407438993454,
    -0.12413894385099411,
    -0.196602925658226,
    0.053282368928194046,
    0.0028763366863131523,
    -0.1283419132232666,
    -0.002310238080099225,
    -0.030444758012890816,
    -0.18581537902355194,
    -0.10784845799207687,
    0.03017900511622429,
    0.004621455911546946,
    -0.051730573177337646,
    -0.00966265331953764,
    0.06134895980358124,
    -0.015132864937186241,
    -0.06705530732870102,
    0.19731192290782928,
    0.06053133308887482,
    -0.07252033799886703,
    -0.15647940337657928,
    0.02532489225268364,
    -0.05647336691617966,
    -0.09240490943193436,
    0.01118470262736082,
    -0.048305582255125046,
    0.14188480377197266,
    0.020726971328258514,
    0.11177242547273636,
    0.08664170652627945,
    -0.0046329679898917675,
    0.07968214899301529,
    -0.19218716025352478,
    0.0012658247724175453,
    0.12088187783956528,
    0.07769668102264404,
    0.11937335878610611,
    0.09175553172826767,
    -0.0012989075621590018,
    -0.0017479995731264353,
    0.09146866202354431,
    0.013142192736268044,
    -0.041074592620134354,
    0.06075559929013252,
    0.14351466298103333,
    0.07758045941591263,
    0.07370331138372421,
    -0.18860691785812378,
    0.031575657427310944,
    0.0127565898001194,
    -0.06846586614847183,
    0.028375763446092606,
    -0.052055343985557556,
    -0.19616948068141937,
    0.07104486227035522,
    -0.07642440497875214,
    -0.05472630262374878,
    -0.11422595381736755,
    0.005520910490304232,
    0.1255357414484024,
    0.03961977735161781,
    0.041866518557071686,
    0.017917532473802567,
    0.032353661954402924,
    0.04980984330177307,
    0.053956229239702225,
    -0.11859123408794403,
    -0.027544507756829262,
    0.011187247931957245,
    0.1455712467432022,
    0.06457702815532684,
    0.04671945795416832,
    0.019457833841443062,
    -0.09177017956972122,
    0.11534083634614944,
    0.0398617684841156,
    0.09751126915216446,
    0.01720566116273403,
    0.08130359649658203,
    0.1384718269109726,
    -0.08645135164260864,
    0.05477779358625412,
    -0.02018982172012329,
    0.0012190560810267925,
    -0.06516911089420319,
    -0.008303864859044552,
    -0.029422352090477943,
    -0.0742809846997261,
    0.06803447008132935,
    -0.01913887821137905,
    -0.03991950303316116,
    0.03632047772407532,
    -0.005401520524173975,
    0.07868707180023193,
    -0.07202546298503876,
    0.08006282150745392,
    -0.038520701229572296,
    0.05021242797374725,
    0.13999877870082855,
    0.14518232643604279,
    -0.01867370307445526,
    0.10870859771966934,
    -0.04757565259933472,
    -0.08925288170576096,
    0.060741446912288666,
    0.04571755602955818,
    -0.03509671986103058,
    -0.0822506844997406,
    -0.01282788347452879,
    -0.0729476734995842,
    -0.03401057422161102,
    0.02146804891526699,
    0.06523733586072922,
    -0.09595770388841629,
    -0.1467517465353012,
    -0.10553299635648727,
    0.050177183002233505,
    0.12490823119878769,
    -0.06779903918504715,
    -0.010051359422504902,
    -0.004330724477767944,
    0.019814811646938324,
    -0.1399543136358261,
    -0.13820286095142365,
    0.12245674431324005,
    -0.09853217005729675,
    -0.07413636147975922,
    -0.06440886110067368,
    -0.054906535893678665,
    0.02133394591510296,
    0.053566351532936096,
    -0.09104360640048981,
    -0.05965416505932808,
    -0.04664571210741997,
    -0.07817848026752472,
    0.09800837934017181,
    0.12597574293613434,
    0.05588727071881294,
    -0.020218871533870697,
    0.07510869950056076,
    -0.1451733261346817,
    -0.08026222884654999,
    -0.04224557802081108,
    0.014619397930800915,
    0.09976858645677567,
    -0.06986457109451294,
    0.036798108369112015,
    0.02442609891295433,
    -0.12822756171226501,
    0.0243548434227705,
    -0.04334911331534386,
    0.03261642903089523,
    0.10000676661729813,
    0.14696301519870758,
    -0.01254068873822689,
    -0.04521765559911728,
    -0.03604747727513313,
    0.1011512279510498,
    0.0647941306233406,
    0.008465910330414772,
    -0.12857361137866974,
    -0.1890651136636734,
    -0.04351978749036789,
    0.12997063994407654,
    0.1341434270143509,
    0.09534268081188202,
    0.1192946508526802,
    0.1007440909743309,
    -0.06665736436843872,
    0.13570372760295868,
    0.17245380580425262,
    0.03295999392867088,
    -0.04175112023949623,
    0.0671311691403389,
    0.07921520620584488,
    -0.0034755785018205643,
    -0.0786939263343811,
    -0.005865198094397783,
    -0.13361696898937225,
    -0.15646180510520935,
    0.06436417251825333,
    0.023026032373309135,
    -0.001976179890334606,
    0.09284870326519012,
    -0.038921501487493515,
    -0.01089600007981062,
    -0.06920526176691055,
    0.06757965683937073,
    0.04757329821586609,
    -0.05812874436378479,
    -0.025497639551758766,
    -0.00004533397077466361,
    0.07518935948610306,
    0.025424214079976082,
    0.1777435690164566,
    0.020599961280822754,
    0.027176478877663612,
    0.039208438247442245,
    -0.09758662432432175,
    0.006886058021336794,
    -0.0036401194520294666,
    -0.030343072488904,
    0.05514860525727272,
    -0.004721095785498619,
    -0.049470771104097366,
    0.03287208825349808,
    -0.03552786633372307,
    -0.01583877205848694,
    -0.08227650076150894,
    -0.0326080247759819,
    0.09487029165029526,
    -0.05083760991692543,
    0.07590439170598984,
    -0.013590032234787941,
    0.0028003696352243423,
    0.18207859992980957,
    -0.022837454453110695,
    0.04888996481895447,
    -0.09198110550642014,
    -0.0012901367153972387,
    -0.10362289845943451,
    -0.13339383900165558,
    0.03618089109659195,
    0.07483326643705368,
    0.08137800544500351,
    0.07947791367769241,
    -0.11452016979455948,
    -0.06013520807027817,
    0.0952608659863472,
    -0.0009779479587450624,
    0.150692880153656,
    -0.031013688072562218,
    -0.10156966745853424,
    -0.11484640091657639,
    0.02487206645309925,
    -0.0882241502404213,
    -0.07394678890705109,
    0.10374166071414948,
    0.07929769158363342,
    0.09089379757642746,
    0.02319606952369213,
    -0.01628997176885605,
    0.01217598281800747,
    -0.08159510791301727,
    -0.050135962665081024,
    0.11206711083650589,
    0.0065848673693835735,
    -0.003867754712700844,
    -0.004195062443614006,
    0.047735705971717834,
    -0.10230519622564316,
    -0.11707865446805954,
    -0.08256885409355164,
    -0.025593401864171028,
    0.022693000733852386,
    -0.0626269057393074,
    -0.01210050005465746,
    0.03990979492664337,
    -0.10072005540132523,
    -0.08584388345479965,
    0.011037110351026058,
    0.09536666423082352,
    -0.1111629381775856,
    0.04918501898646355,
    0.09222076088190079,
    -0.057371679693460464,
    0.05012078583240509,
    -0.035330235958099365,
    0.0632878839969635,
    0.0021664490923285484,
    -0.015109292231500149,
    -0.022973638027906418,
    0.017074109986424446,
    0.08212517946958542,
    0.025657357648015022,
    0.008505819365382195,
    -0.013957550749182701,
    -0.09080453217029572,
    0.011350962333381176,
    0.09905416518449783,
    0.05136045068502426,
    -0.11387103796005249,
    -0.052392344921827316,
    -0.002944284351542592,
    -0.006217374000698328,
    -0.015308191068470478,
    0.06532204896211624,
    0.11278578639030457,
    -0.04146998003125191,
    -0.03733823448419571,
    0.0295623317360878,
    0.07595493644475937,
    -0.041012268513441086,
    -0.023779045790433884,
    0.06888774037361145,
    -0.047373369336128235,
    0.038694996386766434,
    0.001923448988236487,
    0.06031128019094467,
    -0.132005512714386,
    0.056813549250364304,
    0.10464968532323837,
    -0.04443138837814331,
    -0.12307091802358627,
    0.04450078681111336,
    -0.03701048344373703,
    -0.1369672417640686,
    -0.1168084442615509,
    0.13221508264541626,
    0.12671932578086853,
    0.008809735998511314,
    0.10567334294319153,
    0.08512885868549347,
    0.10714388638734818,
    0.034983474761247635,
    -0.06762605160474777,
    0.030335528776049614,
    0.03336328640580177,
    -0.051442231982946396,
    -0.12468273937702179,
    -0.054914530366659164,
    0.09246110171079636,
    0.12828199565410614,
    0.04017708823084831,
    -0.033953793346881866,
    0.004358708392828703,
    -0.07979647815227509,
    -0.05339323356747627,
    -0.05520426854491234,
    0.0610000342130661,
    0.008431014604866505,
    -0.004096714314073324,
    -0.004618389066308737,
    -0.08869782835245132,
    -0.1083979532122612,
    0.07956724613904953,
    0.07128933072090149,
    -0.11770418286323547,
    -0.02902377024292946,
    0.09753630310297012,
    0.024566687643527985,
    0.039405737072229385,
    -0.011689557693898678,
    0.0010333377867937088,
    0.05285680294036865,
    -0.04211780056357384,
    -0.023081127554178238,
    -0.017670223489403725,
    0.01136005949229002,
    -0.07099410146474838,
    -0.0032202729489654303,
    -0.11444640159606934,
    0.12722156941890717,
    0.08540281653404236,
    -0.07151369750499725,
    0.01913810521364212,
    0.02636668086051941,
    0.034088134765625,
    -0.028430290520191193,
    0.016876107081770897,
    0.06989986449480057,
    0.06362518668174744,
    -0.057053957134485245,
    -0.007577846292406321,
    -0.05501961708068848,
    -0.10118690133094788,
    0.036768462508916855,
    -0.009876060299575329,
    -0.06421280652284622,
    -0.04807789996266365,
    -0.04230501130223274,
    -0.04398214817047119,
    -0.04231279715895653,
    -0.13058321177959442,
    0.005558961071074009,
    0.08919442445039749,
    0.032873813062906265,
    0.06001097708940506,
    -0.14558899402618408,
    0.041157420724630356,
    0.07612413167953491,
    0.10322255641222,
    0.07369740307331085,
    -0.0556146614253521,
    -0.005301186349242926,
    -0.005048863589763641,
    -0.09702054411172867,
    0.14453530311584473,
    -0.0667327493429184,
    -0.04816491901874542,
    0.011285531334578991,
    0.007770225405693054,
    -0.0909615308046341,
    0.06129513680934906,
    0.04306601360440254,
    -0.012625428847968578,
    -0.005835107062011957,
    -0.004952707327902317,
    -0.028448838740587234,
    -0.02848297730088234,
    0.04687327891588211,
    0.09731801599264145,
    -0.052409686148166656,
    0.0539676807820797,
    -0.09417810291051865,
    0.17429156601428986,
    -0.07789342105388641,
    -0.04106588289141655,
    0.08885606378316879,
    0.013598090037703514,
    0.03595894202589989,
    0.0046212561428546906,
    -0.034635137766599655,
    0.04111736640334129,
    -0.1758214831352234,
    -0.026500588282942772,
    0.059308961033821106,
    0.14606398344039917,
    0.11417395621538162,
    0.0652107372879982,
    -0.10185730457305908,
    -0.022621579468250275,
    -0.07374591380357742,
    0.14858946204185486,
    0.06708794087171555,
    -0.08485320210456848,
    0.04493292048573494,
    0.024966144934296608,
    0.006047138012945652,
    -0.12021501362323761,
    -0.05273711681365967,
    -0.0036434074863791466,
    0.045390110462903976,
    -0.1229214072227478,
    -0.06343311071395874,
    0.07152438163757324,
    0.03878788277506828,
    0.05601296201348305,
    0.020226819440722466,
    -0.034674566239118576,
    -0.042384032160043716,
    0.03574325144290924,
    0.008006494492292404,
    -0.02660105936229229,
    -0.03733467310667038,
    0.017470069229602814,
    -0.024746306240558624,
    0.019776124507188797,
    0.016270611435174942,
    -0.028730284422636032,
    -0.07641462981700897,
    -0.0514700673520565,
    0.21000657975673676,
    0.0644611120223999,
    -0.09793558716773987,
    0.050471968948841095,
    -0.007193912751972675,
    -0.08431951701641083,
    0.14756372570991516,
    -0.00226977257989347,
    0.1266857087612152,
    -0.1192062646150589,
    0.00019476262968964875,
    0.09323471784591675,
    0.0003755785874091089,
    0.1163557767868042,
    0.0618717186152935,
    -0.10806916654109955,
    -0.0751926600933075,
    0.011488051153719425,
    0.023165613412857056,
    -0.03647822141647339,
    -0.03215523064136505,
    -0.20365986227989197,
    0.034893907606601715,
    -0.04971403256058693,
    0.17926999926567078,
    0.09723906964063644,
    0.030603790655732155,
    0.10895980894565582,
    -0.05283831059932709,
    0.00961280521005392,
    0.1621866375207901,
    0.0653611347079277,
    -0.049545541405677795,
    0.12576735019683838,
    0.028563829138875008,
    -0.12648196518421173,
    0.12715891003608704,
    -0.05604787543416023,
    0.07697970420122147,
    -0.11510255932807922,
    -0.010558799840509892,
    0.0031144139356911182,
    -0.024661488831043243,
    -0.09366827458143234,
    0.09939080476760864,
    -0.058074723929166794,
    0.045678120106458664,
    -0.021235959604382515,
    0.1656964272260666,
    0.1089017316699028,
    -0.029524140059947968,
    0.1421591341495514,
    -0.05585648864507675,
    0.02459920383989811,
    -0.0953955128788948,
    -0.00949124526232481,
    0.009325099177658558,
    -0.21315689384937286,
    -0.055807240307331085,
    -0.021717429161071777,
    0.18394257128238678,
    -0.07914736121892929,
    0.09424623847007751,
    -0.20874392986297607,
    -0.12666207551956177,
    -0.1329602301120758,
    0.07009284943342209,
    0.02626124396920204,
    -0.026626545935869217,
    0.028444766998291016,
    0.11749250441789627,
    0.051297299563884735,
    -0.02808663621544838,
    -0.07496745884418488,
    -0.08525335043668747,
    0.09990829229354858,
    0.041563987731933594,
    -0.11800325661897659,
    0.02883315272629261,
    0.06768665462732315,
    -0.026013588532805443,
    0.20308855175971985,
    -0.024913882836699486,
    -0.014293430373072624,
    0.06668498367071152,
    0.07524348795413971,
    0.03935932740569115,
    -0.03718028590083122,
    0.027128087356686592,
    0.08868645131587982,
    0.0002476791851222515,
    -0.000605546694714576,
    0.12026824057102203,
    -0.11047578603029251,
    0.052682116627693176,
    0.07035373896360397,
    0.15146785974502563,
    -0.00041741461609490216,
    -0.08437755703926086,
    0.0594133585691452,
    0.07777287811040878,
    0.014702526852488518,
    0.08683998882770538,
    0.12495099008083344,
    -0.016423990949988365,
    -0.07212254405021667,
    0.03264666721224785,
    0.04372290149331093,
    -0.12237235903739929,
    -0.020972615107893944,
    -0.04799021780490875,
    -0.0838077962398529,
    -0.08721621334552765,
    0.04845771566033363,
    -0.06922800093889236,
    -0.06674573570489883,
    -0.06373102962970734,
    -0.022125348448753357,
    -0.11922302842140198,
    -0.007952792569994926,
    -0.030920961871743202,
    -0.03237287700176239,
    -0.06334544718265533,
    0.07030829787254333,
    0.09852875769138336,
    0.06687504798173904,
    0.046853069216012955,
    -0.052162863314151764,
    -0.0646779015660286,
    0.012900182977318764,
    0.023557351902127266,
    0.0012591170379891992,
    0.09606717526912689,
    0.08165010064840317,
    0.05986492335796356,
    -0.08429726213216782,
    -0.010962257161736488,
    0.04900156706571579,
    -0.09880425781011581,
    -0.04841722920536995,
    0.018838917836546898,
    -0.14739060401916504,
    0.025043170899152756,
    -0.04108722135424614,
    -0.036550961434841156,
    0.1260640174150467,
    -0.08884245157241821,
    0.08515731245279312,
    0.14280271530151367,
    0.04108474403619766,
    -0.01693933643400669,
    0.0012892516097053885,
    0.10672516375780106,
    -0.08471804112195969,
    -0.10419149696826935,
    -0.052734922617673874,
    0.11770875006914139,
    0.03916051983833313,
    0.10061889886856079,
    -0.054059017449617386,
    -0.015229495242238045,
    -0.049484238028526306,
    0.03063744120299816,
    -0.07976178824901581,
    -0.043739646673202515,
    -0.002972422633320093,
    0.06714820116758347,
    0.09837861359119415,
    -0.04789675399661064,
    -0.002704872749745846,
    0.013860129751265049,
    -0.033575985580682755,
    -0.041685815900564194,
    -0.11016908288002014,
    0.05378865450620651,
    -0.019526725634932518,
    -0.07282000035047531,
    0.02887912094593048,
    0.07481768727302551,
    -0.01042104046791792,
    0.14426381886005402,
    0.13475936651229858,
    -0.03603166341781616,
    -0.054619017988443375,
    -0.03059796430170536,
    0.09209222346544266,
    -0.09276913851499557,
    0.014719466678798199,
    -0.0810745507478714,
    -0.02609836310148239,
    -0.03766738623380661,
    -0.018968790769577026,
    0.17366184294223785,
    0.1058863028883934,
    0.014181164093315601,
    0.03186126425862312,
    0.094196617603302,
    -0.022791216149926186,
    0.048995841294527054,
    -0.06806150823831558,
    -0.033308789134025574,
    -0.11430909484624863,
    -0.00554108340293169,
    -0.05068014934659004,
    -0.06405003368854523,
    0.09008263051509857,
    -0.09657666832208633,
    -0.10462282598018646,
    -0.049521319568157196,
    0.04370279237627983,
    0.1506652981042862,
    -0.042880862951278687,
    -0.06314057856798172,
    -0.1764698624610901,
    -0.06416121870279312,
    0.03732198104262352,
    0.11394050717353821,
    0.05470726266503334,
    0.011170288547873497,
    0.1390734165906906,
    -0.07060323655605316,
    0.0473274402320385,
    0.20418711006641388,
    -0.08850464969873428,
    -0.03510557487607002,
    0.16799481213092804,
    -0.0052339970134198666,
    -0.04287945479154587,
    0.1578971892595291,
    0.009004319086670876,
    0.011457434855401516,
    -0.08460001647472382,
    0.07296352833509445,
    0.04356670007109642,
    -0.07950172573328018,
    0.010749576613307,
    0.03568630665540695,
    -0.03792080655694008,
    -0.051042232662439346,
    0.006722213700413704,
    0.14721933007240295,
    -0.03844517096877098,
    0.11012755334377289,
    0.02976912632584572,
    0.05357620120048523,
    -0.08562061190605164,
    -0.0640915036201477,
    0.06674708425998688,
    -0.006857922300696373,
    -0.11435021460056305,
    0.053070858120918274,
    -0.06918732821941376,
    0.0202333964407444,
    -0.09164591133594513,
    -0.0817522257566452,
    -0.1012493222951889,
    -0.05786070600152016,
    0.015903683379292488,
    0.07911927998065948,
    0.06590773165225983,
    -0.020161660388112068,
    -0.061349883675575256,
    0.09527184069156647,
    -0.04496940225362778,
    -0.005344885401427746,
    -0.05230597406625748,
    0.01858706772327423,
    0.08091599494218826,
    0.06044585257768631,
    0.05688546970486641,
    0.048515405505895615,
    0.07730690389871597,
    0.0030034848023205996,
    0.07002005726099014,
    -0.002748191589489579,
    0.08528318256139755,
    0.20020973682403564,
    0.056622814387083054,
    -0.0016392816323786974,
    -0.03822000324726105,
    -0.05470940098166466,
    -0.04888226091861725,
    0.02946169301867485,
    -0.08536337316036224,
    0.016714295372366905,
    0.07122530788183212,
    -0.02067926526069641,
    0.014229304157197475,
    -0.0665578544139862,
    0.07004836946725845,
    0.11640192568302155,
    -0.1423642337322235,
    0.0210095327347517,
    0.07014305144548416,
    -0.017957061529159546,
    -0.023347074165940285,
    -0.004225728567689657,
    0.04223966971039772,
    0.050675779581069946,
    -0.16886134445667267,
    -0.03284405171871185,
    -0.13022251427173615,
    -0.07427149266004562,
    0.0844336673617363,
    0.07962657511234283,
    -0.03226900473237038,
    0.04612615332007408,
    0.12635232508182526,
    -0.08216522634029388,
    0.07562930136919022,
    -0.04199673980474472,
    0.056403279304504395,
    -0.09946438670158386,
    -0.04501473158597946,
    -0.09836471825838089,
    -0.16717275977134705,
    0.062241390347480774,
    0.010992906987667084,
    -0.06789965182542801,
    -0.0687977597117424,
    0.09690193831920624,
    -0.12130390107631683,
    -0.05728280171751976,
    -0.04844939708709717,
    -0.1421617716550827,
    0.08303327113389969,
    -0.07047668844461441,
    0.05004153400659561,
    -0.011481779627501965,
    0.0071890028193593025,
    0.08547366410493851,
    -0.06791882961988449,
    0.06540732830762863,
    -0.03978196159005165,
    0.024918686598539352,
    0.01711682230234146,
    -0.08655856549739838,
    0.05313866212964058,
    0.1148286983370781,
    -0.04665594920516014,
    -0.04817665368318558,
    0.044975146651268005,
    0.12140811234712601,
    0.02828875742852688,
    -0.05246179178357124,
    0.06852881610393524,
    0.10822722315788269,
    0.05000339448451996,
    -0.06966930627822876,
    -0.08779563754796982,
    -0.07949581742286682,
    0.1377338469028473,
    0.013346796855330467,
    0.04067191109061241,
    0.0022295096423476934,
    -0.05469188466668129,
    -0.03275579214096069,
    -0.0017539282562211156,
    0.03334330767393112,
    0.058862730860710144,
    0.12777367234230042,
    0.09293457120656967,
    -0.06703665107488632,
    -0.10126359760761261,
    -0.0061571658588945866,
    -0.06092402711510658,
    -0.035349637269973755,
    -0.08255769312381744,
    0.07746586203575134,
    0.026958482339978218,
    -0.09290001541376114,
    0.11504427343606949,
    -0.012224098667502403,
    -0.07998400181531906,
    0.07340077310800552,
    -0.023607663810253143,
    -0.051145635545253754,
    -0.01279586460441351,
    -0.0036476587411016226,
    0.0904521569609642,
    0.004397885408252478,
    -0.12432923913002014,
    -0.028388412669301033,
    0.04592265188694,
    0.1092897430062294,
    0.07103041559457779,
    -0.017496101558208466,
    0.055398792028427124,
    -0.059844113886356354,
    0.0030659269541502,
    -0.07869067788124084,
    -0.03084159456193447,
    -0.02606264315545559,
    0.04149866849184036,
    0.012810718268156052,
    -0.0005748318508267403,
    -0.005709602497518063,
    -0.045855361968278885,
    0.0047303540632128716,
    -0.0022370133083313704,
    -0.026577938348054886,
    -0.04284663870930672,
    0.07921028137207031,
    -0.1006304994225502,
    -0.012241286225616932,
    0.07528954744338989,
    0.008083988912403584,
    -0.058721259236335754,
    0.0707525759935379,
    0.06878881901502609,
    -0.029481086879968643,
    0.010589131154119968,
    -0.03138202428817749,
    0.006274274550378323,
    0.01824600249528885,
    0.0799344927072525,
    -0.11591386049985886,
    -0.020950837060809135,
    0.09639529138803482,
    -0.025576867163181305,
    0.04317215830087662,
    0.04337666928768158,
    0.018956530839204788,
    -0.0678621456027031,
    0.05183633789420128,
    0.010673698969185352,
    -0.06634007394313812,
    0.001104119815863669,
    0.05804682523012161,
    -0.03718214109539986,
    -0.08624288439750671,
    -0.04805687442421913,
    -0.028878292068839073,
    0.07262015342712402,
    -0.10351849347352982,
    0.10753152519464493,
    0.05499570444226265,
    -0.04934900254011154,
    0.05215943232178688,
    -0.11341080069541931,
    0.025584377348423004,
    -0.0941053107380867,
    -0.10756880044937134,
    -0.03677349537611008,
    -0.03428664430975914,
    0.07686158269643784,
    -0.04854154586791992,
    0.054421551525592804,
    0.04207788035273552,
    0.0338272787630558,
    -0.02549150586128235,
    -0.07371018826961517,
    -0.03916097804903984,
    0.06539545208215714,
    -0.03286927938461304,
    0.018426204100251198,
    -0.045899465680122375,
    -0.002157621318474412,
    -0.11474084109067917,
    0.11355452239513397,
    -0.05470360070466995,
    0.06737025827169418,
    -0.01089749950915575,
    -0.02772466093301773,
    -0.05659688264131546,
    0.05100392550230026,
    -0.012484858743846416,
    -0.13838472962379456,
    0.09785082191228867,
    0.11615011096000671,
    0.08273451775312424,
    0.06889975816011429,
    0.007786177098751068,
    0.03825230151414871,
    -0.09764410555362701,
    -0.07192306965589523,
    0.009760789573192596,
    -0.04587089270353317,
    0.002332084346562624,
    -0.1195278987288475,
    0.019245553761720657,
    0.05922574922442436,
    -0.1447218507528305,
    0.019713111221790314,
    0.15815457701683044,
    -0.002387842396274209,
    0.09255726635456085,
    0.0409926138818264,
    0.03859158232808113,
    0.026380689814686775,
    -0.04977572709321976,
    -0.025077583268284798,
    0.012881879694759846,
    -0.05759294331073761,
    0.008610892109572887,
    0.06283661723136902,
    -0.0436846949160099,
    -0.022931139916181564,
    -0.08403102308511734,
    0.02420945093035698,
    0.14717137813568115,
    -0.0316568948328495,
    -0.11181443929672241,
    -0.007155187427997589,
    0.05630836263298988,
    0.07471201568841934,
    -0.027726929634809494,
    0.029698066413402557,
    0.01178466621786356,
    -0.09904716908931732,
    -0.03631516918540001,
    0.10005523264408112,
    -0.05157953128218651,
    0.0599450059235096,
    0.04743924364447594,
    -0.09783291816711426,
    0.006485425401479006,
    0.07620757073163986,
    -0.02912476472556591,
    -0.11800620704889297,
    0.09253326803445816,
    0.027524424716830254,
    -0.024813877418637276,
    -0.024216482415795326,
    0.0936821699142456,
    0.04563545435667038,
    -0.0438021756708622,
    -0.05348984897136688,
    0.011828803457319736,
    0.0740044042468071,
    -0.044258978217840195,
    0.08799802511930466,
    -0.042050719261169434,
    0.04159185290336609,
    -0.10711391270160675,
    -0.09295877814292908,
    0.1396932452917099,
    -0.11938109993934631,
    -0.15162009000778198,
    -0.03283814713358879,
    -0.05248840153217316,
    0.11869440227746964,
    0.10953642427921295,
    0.0031513760332018137,
    0.021239111199975014,
    -0.19527661800384521,
    0.07181348651647568,
    0.06055312976241112,
    0.012357432395219803,
    0.03132541477680206,
    -0.005519970320165157,
    0.03650505840778351,
    -0.03255920484662056,
    -0.10704884678125381,
    0.012248375453054905,
    0.11157608777284622,
    0.05063622444868088,
    -0.16914957761764526,
    0.015344363637268543,
    0.06525639444589615,
    -0.018275002017617226,
    0.017905697226524353,
    0.0786193236708641,
    -0.055190559476614,
    -0.03906841203570366,
    -0.007273436523973942,
    -0.014103925786912441,
    -0.02428910695016384,
    -0.02909582108259201,
    -0.06775648891925812,
    0.11819089949131012,
    -0.07866906374692917,
    -0.12352365255355835,
    0.05761503055691719,
    0.028790520504117012,
    0.04025964438915253,
    0.05508134886622429,
    -0.06362538039684296,
    0.14418265223503113,
    -0.029277296736836433,
    -0.09768208861351013,
    0.13580462336540222,
    -0.09329790621995926,
    -0.047836534678936005,
    0.020615698769688606,
    0.10673800855875015,
    -0.059405986219644547,
    -0.06164693832397461,
    -0.0007816099678166211,
    0.06489813327789307,
    -0.02005096711218357,
    0.08463141322135925,
    0.1220279261469841,
    0.02457866445183754,
    -0.04191193729639053,
    0.06269299238920212,
    -0.14398767054080963,
    -0.03219813480973244,
    0.06063135340809822,
    0.024856869131326675,
    -0.023278947919607162,
    0.042938608676195145,
    0.032208338379859924,
    -0.11123606562614441,
    -0.005816825665533543,
    0.1471359133720398,
    -0.0669090524315834,
    -0.1061188131570816,
    0.10148752480745316,
    -0.028882566839456558,
    -0.1491820067167282,
    0.1465681493282318,
    0.022265838459134102,
    0.038263630121946335,
    -0.006418522447347641,
    -0.023298533633351326,
    -0.07716986536979675,
    -0.01105424016714096,
    0.016977602615952492,
    0.07282057404518127,
    -0.154890239238739,
    -0.009451507590711117,
    0.09561615437269211,
    0.0504128634929657,
    -0.09029573202133179,
    -0.1483985185623169,
    0.12360265851020813,
    -0.05958080664277077,
    -0.15503819286823273,
    0.03782917559146881,
    0.08618256449699402,
    -0.007875609211623669,
    -0.12875954806804657,
    0.14183703064918518,
    0.060899753123521805,
    0.008592134341597557,
    0.030369091778993607,
    -0.06473363190889359,
    -0.047444939613342285,
    -0.010198196396231651,
    -0.02623848430812359,
    0.008924895897507668,
    -0.03129488602280617,
    -0.10247326642274857,
    0.069442979991436,
    0.03694480285048485,
    -0.026099111884832382,
    -0.013577254489064217,
    -0.04867473989725113,
    0.00789470225572586,
    0.09205876290798187,
    -0.13098955154418945,
    -0.01075243391096592,
    0.06424767524003983,
    -0.1271895170211792,
    -0.15982352197170258,
    0.0977109745144844,
    0.013153457082808018,
    -0.06842401623725891,
    -0.031149592250585556,
    -0.09881472587585449,
    -0.04503845050930977,
    -0.05022261291742325,
    0.0701928585767746,
    0.07885966449975967,
    -0.029897630214691162,
    0.0732596218585968,
    0.058832552284002304,
    0.07781358063220978,
    0.1010780930519104,
    -0.14692500233650208,
    -0.024960104376077652,
    -0.016896873712539673,
    0.14587649703025818,
    0.05049276724457741,
    -0.015281637199223042,
    0.04885506629943848,
    -0.07435840368270874,
    0.08509793877601624,
    0.07876723259687424,
    -0.06371384859085083,
    -0.08054567873477936,
    -0.1279098242521286,
    0.03599798306822777,
    0.06832617521286011,
    -0.09469354897737503,
    -0.04716237261891365,
    0.08665499091148376,
    -0.16817505657672882,
    -0.08493933826684952,
    -0.04860568419098854,
    0.14595934748649597,
    0.018792781978845596,
    0.02607613243162632,
    -0.12297660112380981,
    0.062054455280303955,
    -0.06834731996059418,
    0.17005349695682526,
    0.006286057643592358,
    0.017568321898579597,
    0.0193987637758255,
    -0.0525088831782341,
    0.07065606117248535,
    0.1695726066827774,
    -0.07121016085147858,
    -0.10194350779056549,
    0.0875050351023674,
    0.07037225365638733,
    -0.06346482038497925,
    0.19985808432102203,
    -0.05712425336241722,
    -0.1419619917869568,
    -0.012824726291000843,
    -0.06545495241880417,
    -0.004263175185769796,
    -0.13995817303657532,
    -0.015761863440275192,
    -0.08065557479858398,
    -0.20567503571510315,
    0.05215027183294296,
    -0.018669910728931427,
    0.05212567374110222,
    0.003159772604703903,
    -0.1030052900314331,
    0.13757847249507904,
    0.04474226385354996,
    0.11091883480548859,
    -0.19125059247016907,
    -0.022144166752696037,
    0.06118421629071236,
    -0.021615030243992805,
    -0.07655899226665497,
    0.023747792467474937,
    0.1433609426021576,
    0.052013929933309555,
    -0.06437671929597855,
    -0.04205763339996338,
    -0.05852101743221283,
    -0.09383594244718552,
    0.10492505878210068,
    0.05954265594482422,
    -0.08819663524627686,
    -0.017023231834173203,
    -0.021225111559033394,
    0.038719549775123596,
    -0.03388727456331253,
    0.037988949567079544,
    -0.08980455994606018,
    0.0856308713555336,
    0.02844911254942417,
    -0.09345737099647522,
    0.1303548365831375,
    -0.055905766785144806,
    -0.03698694705963135,
    0.14056238532066345,
    -0.07636820524930954,
    -0.07508375495672226,
    0.15868626534938812,
    -0.11095022410154343,
    0.07574214041233063,
    -0.19440150260925293,
    -0.050596773624420166,
    0.033597011119127274,
    -0.010411922819912434,
    -0.08612075448036194,
    0.0707239881157875,
    0.11323527991771698,
    0.10720422863960266,
    -0.1371571272611618,
    -0.12351491302251816,
    0.05026588961482048,
    -0.0629858523607254,
    -0.14057190716266632,
    -0.05909400433301926,
    -0.1427282989025116,
    -0.13455377519130707,
    -0.03924325481057167,
    -0.018601296469569206,
    -0.06407532840967178,
    -0.0864354744553566,
    0.05426477640867233,
    -0.09379172325134277,
    -0.00970043521374464,
    0.058819226920604706,
    0.12043486535549164,
    -0.042273640632629395,
    -0.032729994505643845,
    0.07661619782447815,
    0.0449756421148777,
    -0.04815217852592468,
    0.049836691468954086,
    0.032343607395887375,
    -0.08007486164569855,
    -0.1258840411901474,
    -0.043768491595983505,
    0.014255143702030182,
    -0.022431600838899612,
    0.01232016272842884,
    -0.031038979068398476,
    -0.13595491647720337,
    0.03002253547310829,
    0.0020587437320500612,
    -0.130927175283432,
    0.05701674148440361,
    -0.05624208599328995,
    -0.0058444105088710785,
    0.04783250391483307,
    0.0983145609498024,
    0.008552921004593372,
    -0.11394908279180527,
    0.09458854049444199,
    0.12702274322509766,
    -0.058580003678798676,
    -0.04372385889291763,
    0.15232416987419128,
    -0.0027945300098508596,
    -0.037501078099012375,
    -0.10001897066831589,
    0.08940062671899796,
    0.04380074143409729,
    -0.002856319770216942,
    -0.058875422924757004,
    0.12482913583517075,
    0.11480361968278885,
    -0.009719806723296642,
    -0.02223140373826027,
    0.02866482175886631,
    -0.06522146612405777,
    0.023514270782470703,
    0.045262373983860016,
    0.03943760320544243,
    0.09232818335294724,
    0.09624219685792923,
    0.14273355901241302,
    -0.08563457429409027,
    -0.0739942193031311,
    -0.14020898938179016,
    0.0031189643777906895,
    0.002427027327939868,
    0.008632393553853035,
    -0.011445478536188602,
    0.06014116853475571,
    -0.06491722911596298,
    -0.1438179761171341,
    -0.06039382889866829,
    -0.07838203758001328,
    -0.031531598418951035,
    -0.16449713706970215,
    -0.03951989486813545,
    -0.07246337085962296,
    -0.1567283272743225,
    0.10716333240270615,
    0.02781001292169094,
    -0.12142718583345413,
    0.001989415381103754,
    0.1128646731376648,
    0.10524988919496536,
    -0.028840212151408195,
    -0.1305817812681198,
    0.1185348853468895,
    -0.11915736645460129,
    -0.08180102705955505,
    -0.02663104049861431,
    -0.0010236502857878804,
    0.02872936800122261,
    -0.05203884094953537,
    0.03730606287717819,
    0.053610678762197495,
    0.1241709291934967,
    -0.008772692643105984,
    0.13642042875289917,
    0.03220187500119209,
    -0.08298336714506149,
    -0.07311815023422241,
    -0.007259340025484562,
    -0.04367777332663536,
    -0.10293948650360107,
    -0.005943439435213804,
    0.05160113796591759,
    -0.04993719235062599,
    0.000846043520141393,
    0.10341253131628036,
    0.08664374053478241,
    0.06275185942649841,
    0.027780713513493538,
    0.035648781806230545,
    -0.12194814532995224,
    0.05524398759007454,
    0.047642286866903305,
    0.004726045299321413,
    -0.051918692886829376,
    0.10280464589595795,
    0.07811717689037323,
    -0.05004598945379257,
    0.12179930508136749,
    0.10706828534603119,
    0.048771072179079056,
    0.06523203104734421,
    0.11321623623371124,
    0.02746112272143364,
    0.03220299631357193,
    0.01876644603908062,
    0.08530296385288239,
    0.010263429023325443,
    0.026938440278172493,
    0.006285875104367733,
    -0.031688980758190155,
    -0.11143335700035095,
    -0.004821264650672674,
    -0.0007211981574073434,
    -0.021509531885385513,
    0.021579625084996223,
    0.142045259475708,
    -0.054264701902866364,
    -0.018592974171042442,
    0.015199094079434872,
    0.11890233308076859,
    -0.12425118684768677,
    -0.048577163368463516,
    -0.12747837603092194,
    -0.03572821617126465,
    -0.027568746358156204,
    -0.059816718101501465,
    0.11663149297237396,
    0.05123061314225197,
    -0.03202860802412033,
    -0.005768568255007267,
    -0.012262186035513878,
    -0.0358019694685936,
    0.09479555487632751,
    -0.024638190865516663,
    0.0488487109541893,
    0.03562408313155174,
    -0.0054526561871171,
    -0.02142726629972458,
    -0.0027979977894574404,
    -0.14461524784564972,
    -0.11559908837080002,
    0.026715343818068504,
    0.05376172065734863,
    0.11276637017726898,
    0.10502750426530838,
    0.1334858536720276,
    -0.012638087384402752,
    -0.057291679084300995,
    -0.03859808295965195,
    0.060890283435583115,
    -0.06394056230783463,
    -0.03998902067542076,
    -0.02001911960542202,
    -0.11899589002132416,
    -0.1065230667591095,
    -0.10048733651638031,
    -0.060963526368141174,
    0.12728001177310944,
    -0.07445330917835236,
    0.09575404971837997,
    0.0754653662443161,
    0.00869065709412098,
    -0.04401217773556709,
    -0.14945612847805023,
    -0.10725041478872299,
    0.05744887888431549,
    -0.10713927447795868,
    -0.1236601173877716,
    0.08683886379003525,
    -0.06625091284513474,
    -0.0849507600069046,
    -0.06305874139070511,
    -0.03640849515795708,
    -0.11206930875778198,
    0.05572463944554329,
    0.09962697327136993,
    -0.036688823252916336,
    -0.0729931965470314,
    0.049697019159793854,
    -0.07069049775600433,
    0.030128752812743187,
    -0.07931270450353622,
    -0.0058884755708277225,
    -0.024838143959641457,
    0.11762665212154388,
    0.07334278523921967,
    0.019817093387246132,
    -0.07603490352630615,
    -0.022489819675683975,
    0.00479285279288888,
    -0.13356590270996094,
    0.1117108091711998,
    -0.058828406035900116,
    -0.017705978825688362,
    -0.08304052799940109,
    -0.011927486397325993,
    -0.03972718492150307,
    -0.1174202635884285,
    0.04058048129081726,
    -0.14636358618736267,
    -0.0012353697093203664,
    -0.053909316658973694,
    0.09925380349159241,
    0.08784280717372894,
    0.030661392956972122,
    0.06685017049312592,
    -0.03269343823194504,
    0.0500296950340271,
    0.024466995149850845,
    0.06463396549224854,
    -0.05686395615339279,
    -0.005248860456049442,
    0.054430704563856125,
    0.05307494103908539,
    -0.07062142342329025,
    0.02761094458401203,
    -0.08574169874191284,
    0.15199051797389984,
    -0.008654889650642872,
    0.05117959529161453,
    0.05880722030997276,
    -0.009272241964936256,
    -0.046880412846803665,
    0.00486206216737628,
    -0.06452830880880356,
    -0.004297630395740271,
    0.12735767662525177,
    0.034907616674900055,
    -0.0751301571726799,
    -0.15071314573287964,
    -0.04484754055738449,
    0.07698379456996918,
    -0.04041774570941925,
    0.03788510337471962,
    0.08691936731338501,
    0.03317136690020561,
    -0.02052006870508194,
    -0.08806111663579941,
    -0.06113945320248604,
    -0.04033113643527031,
    -0.007596978917717934,
    -0.030493155121803284,
    0.01960824429988861,
    -0.03605470061302185,
    -0.060257576406002045,
    0.011336204595863819,
    -0.0072161047719419,
    -0.051596980541944504,
    -0.06201431527733803,
    0.09807443618774414,
    0.06632395833730698,
    0.012304840609431267,
    -0.1260354369878769,
    -0.11285599321126938,
    0.041395846754312515,
    -0.06734529882669449,
    -0.11977210640907288,
    0.0402827225625515,
    0.045486390590667725,
    0.10772106051445007,
    0.10230125486850739,
    0.006705214269459248,
    0.020589938387274742,
    -0.0051279691979289055,
    0.038268961012363434,
    0.012603288516402245,
    -0.016169406473636627,
    -0.049082882702350616,
    0.007010433357208967,
    0.11085142940282822,
    0.05207931622862816,
    -0.03074868582189083,
    -0.002543262206017971,
    -0.02824152074754238,
    -0.07572788745164871,
    -0.02948562055826187,
    0.090615414083004,
    -0.020127084106206894,
    -0.07818351686000824,
    -0.048011038452386856,
    -0.09706147015094757,
    -0.06006397306919098,
    -0.053469330072402954,
    0.125981867313385,
    -0.0003526211658027023,
    -0.07072033733129501,
    -0.025343051180243492,
    0.020976431667804718,
    -0.018818890675902367,
    0.0789327621459961,
    0.015704911202192307,
    0.08762545138597488,
    0.11030305176973343,
    -0.051809921860694885,
    0.08963336795568466,
    0.1397532969713211,
    0.014291797764599323,
    0.09738923609256744,
    -0.042501866817474365,
    0.011317721568048,
    -0.017983747646212578,
    -0.11210177838802338,
    0.05337849259376526,
    -0.1486862748861313,
    -0.10739137977361679,
    -0.07394543290138245,
    -0.00792473554611206,
    0.00757091399282217,
    -0.08159978687763214,
    0.06758999824523926,
    0.04695656895637512,
    -0.07443796843290329,
    -0.047612909227609634,
    -0.08164967596530914,
    0.03239280730485916,
    -0.13420462608337402,
    -0.09999192506074905,
    0.004904348403215408,
    0.08276081085205078,
    0.06441068649291992,
    0.028351254761219025,
    0.047916561365127563,
    -0.10645467787981033,
    0.05373060703277588,
    0.11826513707637787,
    -0.04356718808412552,
    0.014935687184333801,
    0.014188895933330059,
    -0.0692078024148941,
    0.03392266482114792,
    -0.04989006370306015,
    0.007725130300968885,
    -0.013527080416679382,
    -0.010284019634127617,
    0.14979015290737152,
    0.04731025546789169,
    0.13951373100280762,
    0.0951714739203453,
    0.06853106617927551,
    0.10668282955884933,
    0.07801514118909836,
    -0.01964946649968624,
    0.07150951772928238,
    -0.003197829006239772,
    0.015612171031534672,
    -0.08759477734565735,
    -0.06555026769638062,
    -0.09727215021848679,
    0.05842047557234764,
    -0.18175281584262848,
    0.062135256826877594,
    0.08002316206693649,
    -0.19750261306762695,
    0.06818113476037979,
    -0.08581801503896713,
    0.0871870219707489,
    0.08013731241226196,
    -0.04312935471534729,
    0.19740647077560425,
    -0.01878374069929123,
    -0.0308236051350832,
    0.03159714490175247,
    -0.028953786939382553,
    0.11199820041656494,
    0.016678089275956154,
    0.03681233897805214,
    0.08174900710582733,
    -0.12475521117448807,
    0.12948602437973022,
    -0.005180300213396549,
    -0.14964942634105682,
    -0.10842709243297577,
    0.04880763590335846,
    0.10722357034683228,
    0.03269551694393158,
    0.028014548122882843,
    -0.16938237845897675,
    0.02193065732717514,
    -0.0097406767308712,
    0.12744039297103882,
    -0.011505406349897385,
    -0.06478089839220047,
    0.1467611938714981,
    0.019318250939249992,
    -0.050698354840278625,
    0.11688993871212006,
    0.005594546440988779,
    -0.020067747682332993,
    0.16258904337882996,
    -0.055511701852083206,
    0.074649378657341,
    0.1671765297651291,
    0.017132239416241646,
    -0.029337773099541664,
    -0.050037045031785965,
    -0.08093108981847763,
    0.0826089084148407,
    -0.15421096980571747,
    -0.00019466622325126082,
    -0.08840200304985046,
    -0.05526214838027954,
    0.04474068805575371,
    0.06522178649902344,
    0.1133684366941452,
    0.08616543561220169,
    0.02040262147784233,
    0.17074255645275116,
    0.07936442643404007,
    -0.07245253771543503,
    -0.08875023573637009,
    -0.054338134825229645,
    -0.03866971656680107,
    -0.03532637655735016,
    -0.041594307869672775,
    -0.009804937988519669,
    0.15512025356292725,
    0.07906060665845871,
    0.06472162157297134,
    -0.12445223331451416,
    -0.1177079975605011,
    -0.13229283690452576,
    0.11072832345962524,
    -0.0044430638663470745,
    -0.04630798101425171,
    -0.016004759818315506,
    0.0972895622253418,
    0.06900707632303238,
    -0.12050393223762512,
    -0.012681974098086357,
    -0.07458977401256561,
    0.15590324997901917,
    -0.05105333402752876,
    0.05894998088479042,
    0.05874178186058998,
    -0.015320570208132267,
    -0.10574055463075638,
    0.07341853529214859,
    0.004860596731305122,
    -0.0619141086935997,
    0.17515327036380768,
    0.08108179271221161,
    -0.08039475977420807,
    -0.11771062761545181,
    0.006984256207942963,
    0.10478993505239487,
    -0.0540166012942791,
    0.09432511776685715,
    0.007097447756677866,
    -0.08490519970655441,
    0.03133544325828552,
    -0.10082975775003433,
    0.13442790508270264,
    0.13652147352695465,
    -0.038674596697092056,
    0.08839375525712967,
    0.13516442477703094,
    0.013808763585984707,
    0.08074963837862015,
    0.06322035193443298,
    -0.04361147806048393,
    -0.008634448051452637,
    -0.03853028267621994,
    0.11310797929763794,
    -0.07866358011960983,
    0.03596881031990051,
    -0.01952359825372696,
    0.002232715953141451,
    -0.03281012549996376,
    0.03263377025723457,
    -0.005216843448579311,
    -0.07743802666664124,
    0.05606791004538536,
    -0.09957634657621384,
    -0.11127525568008423,
    0.017838584259152412,
    -0.02583198994398117,
    -0.017465243116021156,
    -0.04435871168971062,
    0.05588734149932861,
    -0.059593990445137024,
    -0.045950748026371,
    0.02385709062218666,
    0.10665543377399445,
    0.019101928919553757,
    -0.0021294699981808662,
    -0.037747450172901154,
    -0.015497374348342419,
    0.07328818738460541,
    0.022085275501012802,
    0.09328370541334152,
    0.03843448683619499,
    0.04240443930029869,
    0.049957845360040665,
    0.017028940841555595,
    -0.061900585889816284,
    0.030096111819148064,
    0.0363943949341774,
    -0.08053863048553467,
    -0.003376846434548497,
    0.0070893061347305775,
    -0.04543953388929367,
    0.039627667516469955,
    0.12568828463554382,
    -0.02622148208320141,
    0.055144473910331726,
    -0.010146268643438816,
    0.013178091496229172,
    0.06622594594955444,
    0.046746984124183655,
    0.04321322217583656,
    -0.11468617618083954,
    -0.007063741330057383,
    0.07183382660150528,
    -0.047926295548677444,
    -0.028233151882886887,
    -0.07760423421859741,
    -0.01357496902346611,
    0.07254691421985626,
    0.0362575463950634,
    0.07191152125597,
    -0.06269645690917969,
    0.04486902058124542,
    0.0432405024766922,
    -0.08000466972589493,
    -0.10556680709123611,
    0.08393406867980957,
    0.018965603783726692,
    0.11218271404504776,
    0.05292201787233353,
    0.043127451092004776,
    -0.0517938993871212,
    -0.012027915567159653,
    -0.009925922378897667,
    0.04877999424934387,
    -0.05520753189921379,
    0.12301944941282272,
    -0.062193743884563446,
    -0.01784588396549225,
    -0.03308585286140442,
    -0.024941090494394302,
    0.08004524558782578,
    0.04316215217113495,
    -0.10362163186073303,
    0.022658972069621086,
    -0.05064356327056885,
    0.13109518587589264,
    -0.024132132530212402,
    -0.020455390214920044,
    -0.05520475655794144,
    0.006487506441771984,
    0.048415374010801315,
    -0.1287781447172165,
    0.025318676605820656,
    0.07736721634864807,
    0.06514661759138107,
    0.0024729545693844557,
    0.04572053626179695,
    -0.05756080895662308,
    -0.028072845190763474,
    0.04669742286205292,
    0.011591056361794472,
    -0.010423327796161175,
    0.03604086488485336,
    -0.03928828239440918,
    0.07927782833576202,
    -0.06152299419045448,
    -0.040509182959795,
    0.047372523695230484,
    -0.02309231273829937,
    -0.057913340628147125,
    -0.015644822269678116,
    0.028463544324040413,
    0.23978587985038757,
    0.018508456647396088,
    -0.2365887314081192,
    0.30036452412605286,
    -0.4691620171070099,
    1.0989137887954712,
    0.9570919275283813,
    0.3403501510620117,
    -0.45412343740463257,
    -0.9696921706199646,
    -0.6495600938796997,
    0.8868789672851562,
    -0.9565809965133667,
    -0.9277270436286926,
    -0.13341742753982544,
    0.3161143958568573,
    -1.0522292852401733,
    -1.0276286602020264,
    -0.029520712792873383,
    -0.3877335786819458,
    0.6792128682136536,
    0.3097767233848572,
    -0.8934507369995117,
    -0.967259407043457,
    0.7529024481773376,
    -0.29736965894699097,
    -0.359268456697464,
    0.27355262637138367,
    -0.16615071892738342,
    0.45727357268333435,
    0.22099503874778748,
    -0.47273874282836914,
    -0.2268017679452896,
    0.13137003779411316,
    -0.2307203859090805,
    0.11280309408903122,
    -0.15350665152072906,
    0.195140540599823,
    0.33963561058044434,
    -0.20558136701583862,
    -0.16130027174949646,
    -0.1624661386013031,
    -0.07498407363891602,
    -0.22859758138656616,
    -0.15863944590091705,
    0.11079218983650208,
    -0.24596254527568817,
    -0.010914460755884647,
    -0.1957680881023407,
    -0.07236947864294052,
    -0.178241565823555,
    -0.1176818460226059,
    -0.08188363909721375,
    0.08176760375499725,
    -0.1278473287820816,
    -0.3661605715751648,
    0.3178390860557556,
    -0.06688705086708069,
    0.18785957992076874,
    0.015348082408308983,
    0.050265971571207047,
    -0.005837447475641966,
    -0.10684093832969666,
    -0.2520543038845062,
    -0.15642234683036804,
    0.022975105792284012,
    -0.1225910484790802,
    -0.05438077822327614,
    -0.2146521806716919,
    0.15908761322498322,
    0.11269786208868027,
    -0.20875896513462067,
    -0.11952097713947296,
    -0.012571006081998348,
    0.04175012186169624,
    0.0744885727763176,
    -0.22250716388225555,
    0.04907996207475662,
    -0.1739058643579483,
    -0.07079029083251953,
    -0.060375362634658813,
    -0.06898701190948486,
    0.0057121687568724155,
    -0.002806680975481868,
    -0.15829569101333618,
    0.1993524730205536,
    0.009380573406815529,
    -0.10205985605716705,
    -0.06655401736497879,
    -0.22777366638183594,
    0.1344417929649353,
    -0.05118054524064064,
    0.25808021426200867,
    0.01867859438061714,
    -0.03606666997075081,
    -0.09548632055521011,
    0.18728572130203247,
    -0.11389660835266113,
    0.11632823944091797,
    -0.13347432017326355,
    0.10428968071937561,
    -0.019664216786623,
    -0.08899800479412079,
    -0.01595020666718483,
    0.10253238677978516,
    0.0038477242924273014,
    0.18010376393795013,
    0.13567405939102173,
    0.1465100646018982,
    -0.2256675660610199,
    -0.027806466445326805,
    0.12857216596603394,
    0.10457142442464828,
    0.19509002566337585,
    0.19328553974628448,
    -0.008274747058749199,
    -0.07507488131523132,
    -0.24782969057559967,
    0.1789768785238266,
    0.1844605952501297,
    -0.10510485619306564,
    -0.026429032906889915,
    -0.19649334251880646,
    0.08041991293430328,
    0.03966306149959564,
    -0.061505891382694244,
    -0.031174909323453903,
    -0.032165270298719406,
    0.16843140125274658,
    0.06074900180101395,
    -0.15011738240718842,
    -0.12260914593935013,
    -0.1029227003455162,
    -0.06693331897258759,
    -0.15567535161972046,
    -0.0015459960559383035,
    0.039897121489048004,
    -0.1026914119720459,
    -0.11945655941963196,
    -0.1666530817747116,
    -0.018670108169317245,
    0.05417032539844513,
    -0.047334861010313034,
    -0.03326156362891197,
    0.02741711027920246,
    0.18146874010562897,
    -0.056471943855285645,
    0.17199942469596863,
    -0.12724709510803223,
    -0.17481933534145355,
    0.11318410187959671,
    -0.05155457556247711,
    0.07505082339048386,
    -0.03031929023563862,
    0.11012514680624008,
    0.18992069363594055,
    0.010980418883264065,
    -0.00854881014674902,
    0.183477520942688,
    0.13314273953437805,
    -0.108098603785038,
    0.08397584408521652,
    -0.23450402915477753,
    0.1590266227722168,
    -0.13759009540081024,
    -0.4127483665943146,
    -0.17133772373199463,
    -0.2357940673828125,
    0.2926543951034546,
    0.16570141911506653,
    -0.08321892470121384,
    -0.11561667919158936,
    0.20523850619792938,
    0.1480177938938141,
    -0.06841636449098587,
    0.19459952414035797,
    0.07724639028310776,
    0.2643018960952759,
    -0.14466582238674164,
    -0.19749759137630463,
    -0.06632427871227264,
    0.07532171159982681,
    0.10492541640996933,
    -0.2054736465215683,
    0.23257902264595032,
    0.04445960000157356,
    0.11005262285470963,
    0.1981685608625412,
    0.039522185921669006,
    -0.038525525480508804,
    -0.009722915478050709,
    -0.021598203107714653,
    -0.17629092931747437,
    -0.01375980582088232,
    -0.01976092904806137,
    0.19240398705005646,
    -0.11976318061351776,
    -0.3484092950820923,
    -0.2222994714975357,
    -0.09837216138839722,
    0.1809079498052597,
    -0.1218087300658226,
    0.0282017569988966,
    -0.2515876591205597,
    0.15467102825641632,
    0.13251720368862152,
    -0.06682375073432922,
    -0.21390438079833984,
    -0.1098206490278244,
    0.09603261202573776,
    -0.12761789560317993,
    0.008545579388737679,
    -0.24164599180221558,
    0.07455679029226303,
    -0.01676635630428791,
    0.08450072258710861,
    -0.042275868356227875,
    0.12741154432296753,
    0.09761585295200348,
    0.022271808236837387,
    0.029721489176154137,
    -0.04923238977789879,
    -0.2155275046825409,
    0.0530783087015152,
    -0.07317961752414703,
    -0.17105019092559814,
    -0.15626364946365356,
    -0.10743699967861176,
    -0.11443950235843658,
    0.10358373820781708,
    0.06328058242797852,
    -0.09125391393899918,
    -0.04711621254682541,
    -0.09076404571533203,
    0.09411042928695679,
    -0.09865785390138626,
    -0.08998362720012665,
    -0.18256916105747223,
    0.0033596183639019728,
    0.09038597345352173,
    -0.07097368687391281,
    0.12337103486061096,
    -0.08787040412425995,
    -0.02223624289035797,
    0.1058967337012291,
    0.15497475862503052,
    0.09059572964906693,
    -0.06365211308002472,
    -0.007161530200392008,
    -0.003939297050237656,
    0.09975884109735489,
    -0.0014801662182435393,
    0.06913179904222488,
    0.22069646418094635,
    -0.08618712425231934,
    -0.04962709918618202,
    -0.21997933089733124,
    0.09320968389511108,
    0.04176610708236694,
    0.05414196476340294,
    -0.08294183760881424,
    0.12233281135559082,
    0.09217365086078644,
    0.09206453710794449,
    -0.07023292779922485,
    -0.27927979826927185,
    -0.217997744679451,
    -0.22618262469768524,
    -0.09789926558732986,
    0.17873075604438782,
    -0.09212835878133774,
    0.07685208320617676,
    -0.11380807310342789,
    -0.056776825338602066,
    0.0499146394431591,
    0.01422263216227293,
    -0.03890090063214302,
    0.24102891981601715,
    -0.19469624757766724,
    -0.06223880499601364,
    0.199797123670578,
    -0.21721158921718597,
    -0.10170422494411469,
    -0.0507342554628849,
    0.021152039989829063,
    -0.12884528934955597,
    -0.08247166872024536,
    -0.18955422937870026,
    0.21897493302822113,
    -0.08314673602581024,
    0.06817250698804855,
    0.01652967743575573,
    0.17680996656417847,
    -0.13227441906929016,
    -0.2106894850730896,
    0.24188892543315887,
    0.1317356675863266,
    0.2721467912197113,
    0.07903779298067093,
    0.196420818567276,
    0.2468378096818924,
    -0.21357174217700958,
    -0.037129733711481094,
    -0.06471076607704163,
    0.2178519368171692,
    0.28916114568710327,
    0.08748754113912582,
    0.04718412086367607,
    0.07284289598464966,
    0.017934512346982956,
    0.14589257538318634,
    0.13481919467449188,
    -0.24107840657234192,
    0.2890911400318146,
    -0.17098133265972137,
    -0.05117522552609444,
    -0.2015446126461029,
    0.12434228509664536,
    0.18417608737945557,
    0.1372496485710144,
    -0.26437991857528687,
    0.08854973316192627,
    -0.24134071171283722,
    0.08974595367908478,
    -0.3572077751159668,
    0.2405872941017151,
    0.1707802712917328,
    -0.2853746712207794,
    -0.30774354934692383,
    -0.30318403244018555,
    -0.24211904406547546,
    -0.23543426394462585,
    -0.2243037074804306,
    0.21255619823932648,
    -0.3231751024723053,
    -0.16665104031562805,
    -0.24342037737369537,
    -0.27572426199913025,
    -0.23201344907283783,
    -0.2416350096464157,
    -0.13059023022651672,
    0.05300098657608032,
    -0.16171053051948547,
    -0.058251041918992996,
    0.3136436641216278,
    -0.2832605242729187,
    0.21194560825824738,
    -0.3628895580768585,
    0.31568872928619385,
    -0.2886304259300232,
    -0.35532641410827637,
    -0.3289598524570465,
    -0.18174806237220764,
    0.14389899373054504,
    -0.14186304807662964,
    0.04893377795815468,
    -0.04994596168398857,
    -0.21957921981811523,
    -0.258840948343277,
    -0.04606793448328972,
    -0.01884680800139904,
    0.14513684809207916,
    -0.007956625893712044,
    -0.16711659729480743,
    0.15695010125637054,
    0.14902262389659882,
    0.0020975752267986536,
    -0.1999560445547104,
    -0.0022654705680906773,
    0.2358689159154892,
    -0.13882799446582794,
    0.10112353414297104,
    -0.10289555788040161,
    -0.00798307079821825,
    -0.06776848435401917,
    0.12930375337600708,
    -0.07288126647472382,
    0.037518154829740524,
    -0.0718655213713646,
    -0.0284401997923851,
    -0.026003576815128326,
    -0.11751001328229904,
    -0.027569415047764778,
    0.08587323874235153,
    0.05589377507567406,
    0.20602799952030182,
    -0.24518032371997833,
    0.034182462841272354,
    -0.20092886686325073,
    0.12710750102996826,
    0.1484394073486328,
    0.048540666699409485,
    -0.0878308042883873,
    -0.23059721291065216,
    -0.18017496168613434,
    -0.2343393713235855,
    -0.15449778735637665,
    0.20364052057266235,
    -0.12717393040657043,
    -0.25831514596939087,
    -0.27910396456718445,
    -0.03363719582557678,
    -0.2897307276725769,
    -0.23618485033512115,
    -0.20485901832580566,
    0.282823383808136,
    -0.17214807868003845,
    -0.20323076844215393,
    -0.00580322090536356,
    -0.020085647702217102,
    0.08673897385597229,
    -0.0937177762389183,
    0.13672427833080292,
    -0.013190816156566143,
    -0.034359194338321686,
    -0.10420987010002136,
    0.11986231058835983,
    -0.04486621171236038,
    -0.1673870086669922,
    -0.01219603419303894,
    0.10551495105028152,
    -0.1782265305519104,
    0.03587930649518967,
    -0.3411097526550293,
    0.06640483438968658,
    -0.18949179351329803,
    -0.15313689410686493,
    0.13182657957077026,
    0.05123524367809296,
    -0.00853531900793314,
    -0.01389077864587307,
    0.02897311933338642,
    -0.1942252516746521,
    -0.21974416077136993,
    -0.15398329496383667,
    0.00774491298943758,
    0.09535345435142517,
    0.1457456350326538,
    -0.17242097854614258,
    -0.2942585349082947,
    0.3230185806751251,
    -0.13260149955749512,
    0.1604350060224533,
    0.12154721468687057,
    -0.22235582768917084,
    0.21363095939159393,
    -0.014279089868068695,
    -0.07330963015556335,
    -0.11659571528434753,
    -0.09586498141288757,
    0.00907882396131754,
    -0.15239682793617249,
    -0.01868763007223606,
    -0.20880277454853058,
    0.07472363859415054,
    -0.07911424338817596,
    0.19974537193775177,
    -0.019594615325331688,
    0.03371048718690872,
    -0.10043148696422577,
    -0.12514729797840118,
    0.024163344874978065,
    -0.16201703250408173,
    -0.07628680765628815,
    -0.2172260582447052,
    -0.019610757008194923,
    -0.2115151733160019,
    0.09751284867525101,
    0.12088369578123093,
    0.08700694888830185,
    0.11212924122810364,
    0.03071451745927334,
    -0.10776540637016296,
    0.09626308083534241,
    -0.01036736462265253,
    -0.09616240113973618,
    0.04430006816983223,
    -0.02743842452764511,
    -0.15120378136634827,
    -0.019850412383675575,
    -0.09426062554121017,
    0.1453513652086258,
    0.09354256838560104,
    0.18518881499767303,
    -0.0856211930513382,
    0.13822123408317566,
    0.11850219964981079,
    -0.101896271109581,
    0.004896367900073528,
    -0.18520836532115936,
    -0.10038207471370697,
    -0.025573454797267914,
    -0.21709172427654266,
    -0.07085768133401871,
    -0.007650983985513449,
    0.03150423616170883,
    0.04624340310692787,
    -0.052202798426151276,
    -0.056025467813014984,
    -0.11429255455732346,
    -0.05299852043390274,
    0.0020092977210879326,
    -0.1708114743232727,
    -0.21554230153560638,
    0.028971374034881592,
    -0.10112910717725754,
    -0.10193485021591187,
    0.08292022347450256,
    0.1320502758026123,
    -0.04945049062371254,
    0.07571694999933243,
    -0.11635111272335052,
    0.07325887680053711,
    0.07260820269584656,
    0.11959369480609894,
    -0.269137978553772,
    0.3005596101284027,
    -0.1644923835992813,
    -0.2551177442073822,
    -0.03614528849720955,
    0.31239670515060425,
    0.1450742483139038,
    0.22225390374660492,
    0.17062415182590485,
    0.06429381668567657,
    -0.03730715066194534,
    0.006064860615879297,
    0.18152238428592682,
    0.0523667074739933,
    0.22924122214317322,
    0.15987294912338257,
    0.19881001114845276,
    -0.06493902206420898,
    -0.11608515679836273,
    0.2306871861219406,
    0.15107528865337372,
    -0.11076632142066956,
    0.27932918071746826,
    -0.2322191745042801,
    0.11023816466331482,
    -0.0263157207518816,
    0.1281004250049591,
    0.28395816683769226,
    0.08161763101816177,
    0.22126923501491547,
    -0.2916772961616516,
    0.04395340383052826,
    -0.1187116876244545,
    0.17802006006240845,
    0.471475750207901,
    0.48759710788726807,
    -0.07228883355855942,
    -0.19903084635734558,
    -0.10941508412361145,
    -0.12055768072605133,
    0.06098737567663193,
    -0.080903559923172,
    -0.5237421989440918,
    -0.18917033076286316,
    0.5542052388191223,
    -0.296736478805542,
    -0.3864254653453827,
    -0.03569408506155014,
    -0.15277889370918274,
    0.4142378866672516,
    -0.14006978273391724,
    -0.21690820157527924,
    -0.36077192425727844,
    0.3097098767757416,
    -0.3395243287086487,
    0.10030392557382584,
    0.2502222955226898,
    -0.3446367383003235,
    0.4095499515533447,
    0.22782644629478455,
    0.11056779325008392,
    0.16844363510608673,
    -0.3470125198364258,
    0.136320099234581,
    0.03564852103590965,
    0.005621366202831268,
    0.6597205400466919,
    0.23534971475601196,
    -0.08586004376411438,
    -0.12513266503810883,
    0.03880015015602112,
    -0.022564785555005074,
    0.14215058088302612,
    -0.2820112109184265,
    -0.5096870064735413,
    -0.09769120067358017,
    0.33222904801368713,
    -0.18300150334835052,
    -0.31029343605041504,
    0.2950221300125122,
    0.1444537192583084,
    0.18388070166110992,
    -0.10006751120090485,
    -0.1474383920431137,
    -0.1821938157081604,
    0.09055862575769424,
    -0.23875966668128967,
    0.14491303265094757,
    0.026555100455880165,
    -0.06051407754421234,
    0.27405261993408203,
    0.30888575315475464,
    -0.01181946974247694,
    0.0002204806951340288,
    -0.1467626988887787,
    0.06556671857833862,
    -0.1022983267903328,
    0.1360698938369751,
    -0.048483844846487045,
    0.09853138774633408,
    0.042133282870054245,
    -0.08927501738071442,
    0.10325837880373001,
    -0.018460623919963837,
    0.058939360082149506,
    0.05340103060007095,
    -0.09303352236747742,
    0.0858304500579834,
    0.013012341223657131,
    -0.024577176198363304,
    0.0472426563501358,
    0.08044296503067017,
    0.06425408273935318,
    0.19184286892414093,
    -0.13927358388900757,
    -0.0158464964479208,
    -0.012754775583744049,
    0.1646612286567688,
    -0.1531231552362442,
    -0.14164108037948608,
    0.010026795789599419,
    -0.16307413578033447,
    -0.14208291471004486,
    0.20382022857666016,
    0.04130528122186661,
    -0.11160367727279663,
    -0.02934408374130726,
    0.019932039082050323,
    -0.09570926427841187,
    -0.10844980180263519,
    -0.084535151720047,
    -0.1324320286512375,
    0.14130045473575592,
    -0.006415023468434811,
    -0.0285525843501091,
    0.032027967274188995,
    -0.12180101126432419,
    0.18740902841091156,
    0.13057231903076172,
    0.19441604614257812,
    -0.08193991333246231,
    0.19739364087581635,
    0.2061922252178192,
    -0.04873501509428024,
    0.03530912473797798,
    0.0739869475364685,
    0.08681013435125351,
    -0.10070481151342392,
    0.22589875757694244,
    -0.09204033762216568,
    0.18839812278747559,
    -0.1353556364774704,
    -0.0814182311296463,
    -0.15217424929141998,
    0.1108069121837616,
    -0.06155576556921005,
    0.14741872251033783,
    0.11417034268379211,
    0.025736678391695023,
    -0.04467254504561424,
    -0.046182241290807724,
    -0.06091673672199249,
    -0.36456581950187683,
    0.13510355353355408,
    -0.13268284499645233,
    0.07872867584228516,
    -0.10659404844045639,
    0.01454276405274868,
    -0.1891881376504898,
    0.06516863405704498,
    0.06387754529714584,
    -0.09426333010196686,
    0.15193195641040802,
    -0.05528568848967552,
    -0.0489436611533165,
    -0.17487159371376038,
    0.05643371492624283,
    -0.09610774368047714,
    0.05122377350926399,
    0.06224076822400093,
    0.06523056328296661,
    -0.08825498819351196,
