{"version":"0.5.4","metadata":{"date":{"year":2025,"month":7,"day":31,"hour":1,"minute":1,"second":47},"loudness":-20.994890213012695,"gain":0.7548953224566916,"name":"SHIVA","modeled_by":"3101gustavoagoliveira","gear_type":"amp","gear_make":"tz-make","gear_model":"tz-model","tone_type":"overdrive","input_level_dbu":null,"output_level_dbu":null,"training":{"settings":{"ignore_checks":true},"data":{"latency":{"manual":0,"calibration":{"algorithm_version":1,"delays":[1],"safety_factor":1,"recommended":0,"warnings":{"matches_lookahead":false,"disagreement_too_high":false}}},"checks":{"version":4,"passed":false}},"validation_esr":0.0016067203370310214}},"architecture":"WaveNet","config":{"layers":[{"input_size":1,"condition_size":1,"head_size":8,"channels":16,"kernel_size":3,"dilations":[1,2,4,8,16,32,64,128,256,512],"activation":"Tanh","gated":false,"head_bias":false},{"input_size":16,"condition_size":1,"head_size":1,"channels":8,"kernel_size":3,"dilations":[1,2,4,8,16,32,64,128,256,512],"activation":"Tanh","gated":false,"head_bias":true}],"head":null,"head_scale":0.02},"weights":[0.23642578721046448,0.44455486536026,-0.8261411190032959,-0.807136058807373,-0.3341373801231384,0.3491952121257782,-0.08165585249662399,0.8580441474914551,-0.19934237003326416,0.34994789958000183,-0.36032843589782715,-0.11839303374290466,-0.9648752808570862,-0.6984929442405701,-0.38904303312301636,0.010150306858122349,0.06058397889137268,0.08982755243778229,-0.12411130219697952,-0.1396181732416153,-0.016689954325556755,0.03049561381340027,0.0524783656001091,0.18217191100120544,0.07213710248470306,0.09672136604785919,0.20370784401893616,-0.039471905678510666,-0.01591767556965351,0.02995705045759678,0.03121766820549965,0.05499046668410301,-0.15548978745937347,-0.14886656403541565,-0.03233565762639046,-0.10716269910335541,-0.008412715047597885,0.04145587235689163,-0.010270150378346443,-0.025864046066999435,0.06498652696609497,-0.02370433136820793,0.09689731150865555,-0.20506775379180908,-0.16589140892028809,-0.15833733975887299,0.16286352276802063,0.14962522685527802,0.02146979793906212,0.04259023815393448,0.12880884110927582,0.20364227890968323,0.1404900699853897,0.09441102296113968,0.19314751029014587,-0.003954692743718624,0.09974312037229538,-0.017892468720674515,-0.024037538096308708,-0.006735002622008324,0.15435653924942017,-0.009599437937140465,-0.09141185134649277,0.014054433442652225,0.24698512256145477,-0.019650060683488846,-0.23948685824871063,0.2918846011161804,0.19112025201320648,0.013094605877995491,-0.3796178698539734,-0.16187331080436707,0.17671921849250793,-0.14836034178733826,0.01762028969824314,0.24924618005752563,-0.22180995345115662,-0.22025088965892792,0.13986638188362122,0.17267049849033356,-0.03198336064815521,-0.00026145463925786316,0.04102228209376335,-0.08453594148159027,0.1785164475440979,0.245061993598938,0.0852048322558403,-0.18836629390716553,-0.19145503640174866,-0.16954953968524933,0.2048923224210739,0.33172374963760376,0.20101967453956604,-0.07861847430467606,-0.4040817320346832,-0.19640092551708221,0.19962124526500702,-0.20498321950435638,-0.195079043507576,0.05409713834524155,-0.13229678571224213,-0.01160629652440548,0.05722792074084282,-0.3012421429157257,-0.2437426894903183,0.11936748027801514,-0.3696701228618622,-0.216068297624588,0.11348018050193787,0.00933896191418171,-0.07454238831996918,0.030533358454704285,-0.1079215332865715,0.2387726753950119,-0.003940683323889971,-0.0749874860048294,0.13672596216201782,-0.024863827973604202,-0.031198659911751747,-0.14281050860881805,0.08044537901878357,-0.043622784316539764,-0.24777615070343018,0.09293588250875473,-0.18030159175395966,-0.24949999153614044,-0.0015899778809398413,-0.02902332693338394,0.11560694128274918,-0.15400464832782745,-0.05271163582801819,-0.06987714767456055,-0.03518876060843468,0.04484814405441284,0.28075677156448364,-0.03931145370006561,-0.01587849296629429,-0.15927085280418396,0.08852069079875946,0.1318109929561615,0.30056923627853394,0.05466020852327347,0.09583967924118042,-0.1774778664112091,-0.0941961482167244,-0.09272857755422592,-0.046665508300065994,0.05358428508043289,-0.125167578458786,-0.28898516297340393,-0.11167453974485397,-0.1726551353931427,-0.2047806680202484,0.10517065227031708,0.03250464051961899,-0.3084407150745392,0.12123158574104309,-0.10339229553937912,-0.07308433949947357,-0.06898964941501617,0.07262050360441208,-0.10873643308877945,-0.07287359982728958,-0.05060854181647301,-0.12941214442253113,0.03616664558649063,-0.13456431031227112,0.16415846347808838,-0.1560330092906952,-0.07805833220481873,0.23784898221492767,-0.08493906259536743,0.0516173355281353,0.14888469874858856,-0.1680488884449005,0.16885022819042206,-0.11721599102020264,-0.029236605390906334,-0.004358466248959303,-0.11040033400058746,-0.07430006563663483,0.03901176527142525,-0.007046662736684084,0.0669737234711647,-0.028242141008377075,0.13252170383930206,-0.09224674850702286,0.050933364778757095,-0.21458013355731964,0.11739712953567505,0.035273049026727676,0.19895534217357635,-0.13904006779193878,-0.08386740833520889,-0.019928917288780212,-0.13490773737430573,-0.15229466557502747,0.16055536270141602,-0.11204110831022263,-0.07327427715063095,0.11481636762619019,0.06487616151571274,-0.1827263981103897,0.004867516458034515,-0.11649341136217117,0.016897233203053474,-0.08320829272270203,0.09811664372682571,0.02156926691532135,-0.041571106761693954,-0.13080942630767822,0.046019189059734344,0.07312546670436859,-0.05301347002387047,-0.07967736572027206,-0.039315082132816315,-0.0987146869301796,-0.153838649392128,0.059738676995038986,-0.10127711296081543,-0.08052366971969604,0.09323541820049286,0.07574477791786194,0.06829370558261871,-0.0816083624958992,0.04163907468318939,-0.1069713905453682,0.009602618403732777,0.05228039622306824,0.05737296864390373,0.059340596199035645,0.10424746572971344,-0.031215433031320572,0.10009000450372696,0.1308639496564865,-0.0245668888092041,0.10932395607233047,-0.12828291952610016,-0.1283719837665558,-0.005379108712077141,0.07310787588357925,0.06603448837995529,-0.06564436107873917,0.05018211901187897,-0.005877749994397163,-0.1985393911600113,0.11790499091148376,-0.19652600586414337,-0.05412612482905388,-0.007736691739410162,-0.1471179723739624,-0.031404588371515274,0.14133916795253754,-0.01287241280078888,-0.10585995018482208,-0.06267336755990982,-0.1784125417470932,0.13506115972995758,-0.1472030133008957,-0.06389815360307693,0.05620914325118065,0.07359285652637482,0.03906482830643654,-0.03157433122396469,0.05460304766893387,-0.08549653738737106,-0.18292632699012756,0.04564033821225166,0.09042227268218994,-0.09204698354005814,-0.055507369339466095,-0.04234911873936653,-0.006135162431746721,0.0163121297955513,-0.08865369856357574,-0.1978733241558075,0.17502854764461517,-0.056435476988554,0.12614059448242188,0.038654740899801254,0.0005045975558459759,-0.20755775272846222,-0.0796148031949997,0.13993656635284424,0.15209555625915527,0.10438142716884613,-0.07410180568695068,-0.08930297940969467,-0.018836544826626778,-0.013044226914644241,-0.19653621315956116,0.0855122059583664,0.0070292833261191845,-0.14690305292606354,-0.03090011514723301,-0.12517988681793213,-0.04145197197794914,-0.1032857820391655,0.02848658710718155,-0.18376243114471436,-0.05995139479637146,0.05028514936566353,-0.09591501206159592,0.05221463739871979,-0.006652538664638996,-0.050187498331069946,-0.1201150119304657,0.11130445450544357,0.20160572230815887,-0.07400836795568466,-0.1738799661397934,-0.17127352952957153,0.09842735528945923,-0.1081969141960144,-0.09436652064323425,0.1454792320728302,-0.12068260461091995,-0.13556480407714844,0.11865363270044327,0.054336197674274445,0.1484423279762268,-0.04400615766644478,-0.14969050884246826,-0.08149063587188721,0.16915084421634674,0.18566474318504333,0.23411978781223297,-0.029691927134990692,0.045470818877220154,-0.18713457882404327,-0.035811204463243484,-0.08201054483652115,0.27839547395706177,0.028799675405025482,-0.1440185010433197,-0.08217345923185349,0.16896258294582367,0.12008190155029297,0.011918514966964722,0.19308869540691376,-0.08999554067850113,-0.20100648701190948,0.1664997786283493,0.026547323912382126,-0.23454324901103973,0.18026384711265564,0.02091328054666519,-0.06279178708791733,-0.034702859818935394,0.06024591997265816,-0.08811609447002411,0.08921805024147034,-0.12860052287578583,0.45882707834243774,-0.32358285784721375,-0.006935616955161095,0.3777221441268921,-0.20480315387248993,-0.02921397238969803,-0.3931805491447449,0.18735778331756592,-0.07087306678295135,-0.543244481086731,0.39875659346580505,0.14733192324638367,-0.2840322256088257,0.38818079233169556,-0.19722236692905426,0.3300034701824188,-0.3066057562828064,-0.05874581262469292,-0.3074202835559845,0.0022820469457656145,-0.14153926074504852,0.28855040669441223,-0.3684297204017639,0.1851871758699417,-0.3173180818557739,0.39531031250953674,0.04052802175283432,0.5546976327896118,-0.32367050647735596,0.13227802515029907,-0.2992674708366394,0.33132675290107727,0.19486737251281738,-0.35723406076431274,0.3414439558982849,0.021442245692014694,-0.35671761631965637,0.30122289061546326,0.03765525296330452,-0.506199300289154,0.20252041518688202,-0.0426517054438591,-0.3266238570213318,0.3799274265766144,-0.1325431913137436,-0.1865985244512558,-0.09394726902246475,0.05681059509515762,0.041269347071647644,-0.15603384375572205,0.17095817625522614,0.16720357537269592,-0.1212633028626442,0.09569321572780609,-0.0009983335621654987,-0.04712732881307602,0.038637056946754456,-0.1928550899028778,-0.016421781852841377,0.08911661803722382,-0.09386160969734192,-0.08606419712305069,-0.017782893031835556,0.05891193822026253,-0.046503785997629166,-0.019588332623243332,0.07085281610488892,0.03697369247674942,-0.0466097854077816,0.11814390122890472,0.06331250071525574,0.06150443106889725,-0.21109528839588165,0.01327522937208414,-0.07715430110692978,0.03532280772924423,0.03343845531344414,-0.13413561880588531,-0.04708864912390709,0.13898588716983795,-0.0031323018483817577,-0.17520754039287567,-0.013034844771027565,-0.012402518652379513,-0.22238744795322418,0.0764024630188942,-0.17233410477638245,-0.24823832511901855,-0.13271479308605194,-0.06499780714511871,-0.006651025265455246,-0.12340037524700165,0.17393432557582855,-0.054893024265766144,0.050582729279994965,0.016651803627610207,-0.10184811055660248,0.3135453164577484,0.061136458069086075,0.12770892679691315,0.19783441722393036,-0.08424586057662964,0.12794946134090424,-0.12420003861188889,0.07955126464366913,-0.10743806511163712,-0.17394554615020752,-0.12527883052825928,-0.04169047251343727,-0.08831384032964706,-0.13086852431297302,0.03327929601073265,0.2028799057006836,0.10371442139148712,0.03666374087333679,-0.10019354522228241,-0.05576704069972038,0.05605199187994003,0.275283545255661,0.11662960797548294,0.012373731471598148,-0.06541027873754501,-0.16026102006435394,-0.13824880123138428,0.1924533098936081,-0.061254311352968216,0.08437108248472214,-0.22584784030914307,-0.030803438276052475,-0.07395441085100174,-0.022035129368305206,-0.004379395395517349,0.11844776570796967,-0.043843138962984085,0.09100621938705444,0.012743265368044376,-0.17594501376152039,-0.016910333186388016,0.030459361150860786,-0.05571697652339935,-0.015318956226110458,0.10836582630872726,0.05304422229528427,-0.12304266542196274,-0.06832001358270645,0.24057695269584656,0.057589780539274216,-0.20619386434555054,0.134187251329422,0.15034157037734985,0.15990333259105682,0.0942426547408104,0.0007743009482510388,0.12059138715267181,0.030797844752669334,0.026908494532108307,0.11392273008823395,-0.07877057790756226,0.023878924548625946,-0.10092546790838242,-0.01167380716651678,0.11804076284170151,0.11532434076070786,-0.09342604130506516,-0.06590818613767624,0.00871535949409008,0.01348570454865694,0.09050087630748749,0.007891000248491764,-0.009441053494811058,-0.17001847922801971,-0.1454373598098755,-0.0317043699324131,0.2004980742931366,0.025773994624614716,-0.03830024600028992,-0.02300909534096718,0.18809150159358978,0.08149262517690659,-0.02893454022705555,-0.0406462624669075,-0.13625961542129517,0.0766851156949997,0.037008631974458694,-0.12395501881837845,0.019724521785974503,0.09536649286746979,-0.11037160456180573,0.07995585352182388,0.039749160408973694,0.060249119997024536,0.06295722723007202,0.05366505682468414,0.07893510907888412,-0.04028677940368652,-0.2101256251335144,0.2134876549243927,-0.08334535360336304,0.025254756212234497,0.07979139685630798,-0.03786851838231087,0.19111867249011993,-0.0767437294125557,0.010662402957677841,0.11586198210716248,0.017050283029675484,-0.03626992926001549,-0.2944343388080597,-0.011420387774705887,-0.11776767671108246,0.04799572005867958,-0.2796669006347656,0.08302991837263107,-0.19575916230678558,0.03835627809166908,0.13228364288806915,0.2047969400882721,0.021591152995824814,0.04239959269762039,-0.19423218071460724,-0.019617930054664612,0.031330354511737823,0.27341338992118835,-0.12270968407392502,-0.10675448179244995,0.18917745351791382,0.0487736314535141,0.013606603257358074,0.044962164014577866,-0.19382822513580322,0.08793938159942627,0.15048959851264954,-0.13856171071529388,0.07724388688802719,0.21148215234279633,0.046021781861782074,0.06134113296866417,0.012304753996431828,-0.09999997168779373,-0.551622211933136,0.3428974449634552,0.027783166617155075,-0.2780100703239441,0.11075346171855927,0.11663313955068588,0.4801190495491028,-0.1116735115647316,-0.11238548159599304,0.28869929909706116,-0.34187161922454834,0.14623071253299713,0.27448758482933044,-0.29718926548957825,0.09115079790353775,-0.41412287950515747,0.16451263427734375,-0.02657718025147915,0.2097908854484558,-0.2758706212043762,0.14528611302375793,-0.40976765751838684,0.29308316111564636,0.11516528576612473,0.42605406045913696,-0.21433983743190765,0.13791042566299438,-0.33115077018737793,0.16533924639225006,0.11922964453697205,0.3817121386528015,-0.3763577938079834,-0.02707454189658165,0.22337785363197327,-0.09851033985614777,-0.003287040628492832,0.21160340309143066,-0.25077024102211,0.10151904821395874,0.3803527057170868,-0.19437561929225922,0.024894827976822853,0.3913629353046417,-0.271914005279541,-0.04463221877813339,0.03459961712360382,-0.08801393955945969,0.018088920041918755,-0.0443282313644886,0.008868366479873657,0.08108359575271606,0.018523382022976875,-0.15413905680179596,0.11921994388103485,-0.08680514246225357,0.18103669583797455,-0.0900222435593605,-0.03756926208734512,0.14116613566875458,-0.034419819712638855,0.11002490669488907,-0.04642706364393234,-0.10693992674350739,-0.051543790847063065,-0.02698937989771366,0.12058804929256439,-0.0816347524523735,0.07708857953548431,-0.039060067385435104,-0.028758343309164047,0.04365212470293045,-0.13676467537879944,-0.016110064461827278,0.16859865188598633,-0.026258256286382675,0.12517786026000977,-0.09436432272195816,0.10299742221832275,-0.15269982814788818,0.0319996252655983,-0.011256377212703228,0.011779900640249252,0.08803192526102066,0.10122517496347427,-0.023247698321938515,0.05852500721812248,0.12491726875305176,-0.04291774332523346,0.1881910115480423,-0.07283998280763626,-0.02553647942841053,0.048220016062259674,0.08145473152399063,0.1002269834280014,-0.003975951578468084,-0.13564719259738922,0.05704183131456375,0.022783247753977776,-0.11807451397180557,-0.019081097096204758,0.17188945412635803,0.0756579115986824,-0.06301859021186829,-0.2167176753282547,0.15740181505680084,-0.1816578209400177,-0.047795332968235016,0.07880254089832306,-0.13315531611442566,-0.02102871611714363,-0.06583271920681,0.09521625936031342,-0.022645045071840286,-0.08543533086776733,-0.011748600751161575,0.11753354966640472,-0.008451830595731735,0.16795888543128967,0.06346538662910461,-0.1258784979581833,-0.17117281258106232,-0.1874939650297165,0.22769437730312347,0.027144616469740868,0.07636404037475586,-0.02927304618060589,0.03425139933824539,0.05006878450512886,0.18290305137634277,-0.14504434168338776,-0.070468008518219,0.0039746081456542015,-0.15856274962425232,-0.048555806279182434,0.19133061170578003,-0.1885710209608078,0.007671457715332508,-0.016213439404964447,-0.09433038532733917,0.04018589109182358,0.030423162505030632,0.03417660668492317,-0.11124768108129501,0.07346580922603607,0.03521253913640976,-0.17325660586357117,0.15930140018463135,-0.12880653142929077,-0.26346147060394287,0.039591316133737564,0.14489009976387024,0.11172379553318024,0.04269286245107651,0.15438829362392426,0.2481863796710968,-0.10193806141614914,0.004676956217736006,0.09459683299064636,-0.15115155279636383,-0.020555105060338974,-0.03381554037332535,0.1580280065536499,0.006669908761978149,0.10199891030788422,-0.11271755397319794,0.0785495713353157,-0.2129068374633789,-0.07410368323326111,0.021522507071495056,0.20869050920009613,-0.1903182566165924,0.11251454800367355,-0.08672276139259338,-0.06214001774787903,-0.011776979081332684,0.267654150724411,-0.14778602123260498,-0.03595494478940964,0.1697821319103241,-0.1780124306678772,0.11037784069776535,0.2286534607410431,0.06449413299560547,-0.06339690834283829,0.2943834066390991,-0.11324053257703781,0.16889235377311707,0.0074022142216563225,-0.15985670685768127,0.05368286743760109,0.021235158666968346,0.06141350045800209,-0.10757126659154892,-0.16171146929264069,-0.08415404707193375,-0.005911657121032476,-0.003862072015181184,0.05680146813392639,-0.027038516476750374,-0.018936991691589355,0.09467647969722748,0.08690451085567474,-0.08474079519510269,-0.049269210547208786,0.0013779128203168511,-0.027362069115042686,0.003230458591133356,-0.02166137844324112,0.3426781892776489,-0.5430468916893005,0.7809791564941406,-0.6828122138977051,-0.0044660973362624645,0.9046158790588379,0.9539275169372559,-0.8664074540138245,0.18051265180110931,0.256971538066864,-0.4488395154476166,-0.28974106907844543,0.2627490162849426,-0.7280328869819641,0.11494226008653641,0.45078954100608826,-0.2259846180677414,0.4799346923828125,0.06402154266834259,0.04494200646877289,0.3697495758533478,0.0477038212120533,0.2646670341491699,-0.1579962819814682,0.0985206589102745,0.09684251248836517,-0.16717714071273804,-0.23198194801807404,0.09223449975252151,-0.12242982536554337,0.3315410315990448,-0.24836619198322296,-0.05608776956796646,-0.17308416962623596,-0.22111715376377106,0.024036234244704247,0.0025514375884085894,-0.049301568418741226,-0.09565485268831253,-0.17090168595314026,-0.02174757793545723,0.24449576437473297,-0.0016240384429693222,0.09274958819150925,-0.10446450859308243,-0.08483871072530746,0.0632043331861496,0.2122821807861328,0.006267434451729059,0.042076777666807175,-0.020450647920370102,0.03453502804040909,-0.11835571378469467,-0.15883177518844604,0.07334514707326889,0.17620272934436798,-0.008599137887358665,-0.10163688659667969,0.12721838057041168,-0.2469189614057541,0.376343697309494,0.23430904746055603,0.07095678895711899,-0.0598045215010643,0.168051078915596,-0.26683589816093445,-0.016847141087055206,-0.111701600253582,-0.05663738399744034,0.10302188247442245,0.0018441560678184032,0.062095820903778076,-0.18157640099525452,0.13566572964191437,-0.037253107875585556,0.0014574449742212892,0.1734708696603775,0.1690763533115387,-0.22947193682193756,0.02629116363823414,-0.13781355321407318,-0.36301276087760925,-0.1510939747095108,0.0319872610270977,0.18230180442333221,0.25102460384368896,0.18561945855617523,-0.22569777071475983,0.15740513801574707,0.3474269211292267,-0.2281857132911682,0.05875895544886589,0.03754080832004547,0.061694130301475525,-0.06561467796564102,0.029279151931405067,-0.24387232959270477,0.034539345651865005,0.16751569509506226,0.043982237577438354,0.2560305595397949,0.32238492369651794,0.3145217001438141,-0.020544491708278656,0.26374316215515137,0.03396312892436981,-0.25055205821990967,-0.1739252358675003,-0.019366752356290817,-0.21437911689281464,0.17757554352283478,0.005928343161940575,0.22191619873046875,0.025890858843922615,0.323428213596344,0.23240059614181519,-0.3500025272369385,-0.25181978940963745,0.13303907215595245,0.22969533503055573,-0.019389458000659943,-0.3786308169364929,0.002509715501219034,0.27597925066947937,0.0109044024720788,-0.043269988149404526,-0.014699596911668777,-0.043103769421577454,0.1611441671848297,0.17175883054733276,0.3773248791694641,-0.19970610737800598,-0.19264324009418488,0.2311723828315735,0.3275211453437805,-0.018190111964941025,0.21478736400604248,-0.24412141740322113,0.13335740566253662,-0.2620880603790283,0.13890457153320312,-0.20753531157970428,-0.027507171034812927,-0.0021076486445963383,-0.0005312356515787542,-0.13173137605190277,-0.3920004367828369,-0.17246021330356598,-0.06020333990454674,-0.22392521798610687,-0.3083280622959137,0.1491146832704544,-0.3399832546710968,-0.2530113756656647,0.2761246860027313,0.24776145815849304,-0.011503251269459724,-0.002027553506195545,-0.10780791938304901,0.17383472621440887,-0.2765483260154724,0.1769435554742813,0.4220972955226898,-0.27953094244003296,-0.13272981345653534,0.15068700909614563,0.36705833673477173,0.07374635338783264,0.18086348474025726,0.23079746961593628,-0.013315169140696526,-0.055509503930807114,0.48496654629707336,0.047719068825244904,-0.015370340086519718,-0.1537562757730484,0.10877455025911331,0.16828984022140503,-0.3205399215221405,0.130050390958786,-0.03571851924061775,-0.2896870970726013,-0.006563786882907152,-0.06634113937616348,-0.013931510038673878,-0.08872672915458679,-0.1652987152338028,0.012557568028569221,-0.1328601986169815,0.1925172656774521,0.05259767547249794,0.19803300499916077,0.1028544157743454,-0.19908727705478668,0.24856601655483246,-0.07182767242193222,-0.020683418959379196,-0.0215569157153368,0.06691597402095795,0.21522638201713562,-0.01278503518551588,-0.17881794273853302,0.06249695643782616,-0.1805575042963028,0.03837396949529648,0.13740025460720062,-0.21886666119098663,-0.16193945705890656,0.09161540120840073,-0.23490974307060242,0.07924070954322815,0.055459536612033844,-0.05957958474755287,-0.18177106976509094,-0.04932539910078049,-0.4704112708568573,0.10288789868354797,-0.03456224873661995,-0.008803414180874825,0.16941483318805695,0.34156978130340576,-0.0899038314819336,-0.2544862627983093,0.2598111629486084,0.10212963819503784,-0.17703793942928314,-0.03356076404452324,0.1605929732322693,-0.1611536592245102,0.22892794013023376,0.2557976245880127,0.0822589173913002,-0.057436563074588776,-0.16264769434928894,0.11047845333814621,0.08159232884645462,-0.13821539282798767,-0.01737445965409279,-0.24472934007644653,0.2667182981967926,-0.15523569285869598,0.2545638680458069,-0.10331650078296661,-0.18045812845230103,0.18747080862522125,-0.00003203309461241588,0.1512780785560608,0.05062662437558174,-0.2487708181142807,0.14560356736183167,-0.07387920469045639,-0.11644598841667175,0.040847718715667725,0.15236632525920868,-0.09848356246948242,-0.06595268845558167,0.041519392281770706,0.16850697994232178,0.1114540621638298,-0.23343300819396973,-0.08703401684761047,0.0847325325012207,0.029790308326482773,1.0447919368743896,-0.006776581052690744,-0.250326544046402,-0.08015672862529755,-0.29228535294532776,0.2491225302219391,0.16036765277385712,0.18969367444515228,-0.38968610763549805,0.10634854435920715,-0.09661217033863068,0.2128978669643402,-0.2699603736400604,-0.14312347769737244,-0.015247381292283535,0.16381652653217316,0.026800399646162987,0.003284427570179105,-0.11452745646238327,0.1317383050918579,-0.02906159870326519,-0.0016854433342814445,-0.015586020424962044,-0.0010132411262020469,0.05939531698822975,0.164511039853096,-0.16627033054828644,-0.03994422033429146,0.01716705411672592,-0.07257192581892014,0.06765659898519516,-0.1664600372314453,0.15130962431430817,0.047046028077602386,-0.23596976697444916,0.04184476658701897,-0.015901174396276474,-0.049501512199640274,-0.21577568352222443,0.07505393773317337,0.23003655672073364,-0.25221437215805054,0.053678035736083984,-0.1913137286901474,0.038434211164712906,0.14580047130584717,0.0910537838935852,-0.2668904662132263,-0.17731168866157532,-0.2061866968870163,0.2210678607225418,-0.12126918882131577,0.0531679205596447,-0.12012700736522675,-0.10526378452777863,-0.19621910154819489,0.19543388485908508,0.03376375138759613,-0.2909100353717804,-0.029850082471966743,0.014378612861037254,-0.209977388381958,0.07435902208089828,-0.03488176688551903,-0.23704029619693756,0.18632785975933075,-0.06764368712902069,-0.29302138090133667,0.21092797815799713,-0.18888679146766663,0.14852598309516907,-0.07222627103328705,-0.15596891939640045,-0.012295116670429707,-0.12174589186906815,0.24641145765781403,-0.1740889698266983,0.062225934118032455,0.01297400239855051,-0.05296581611037254,0.04128843545913696,0.01802164874970913,-0.11206258833408356,0.1182759553194046,-0.1940881758928299,0.07351788133382797,0.0439053513109684,0.02778465859591961,-0.2052132487297058,-0.2898922264575958,0.11745484918355942,0.2060190886259079,-0.05968925356864929,-0.1413576602935791,0.037473440170288086,-0.18043941259384155,0.21168920397758484,-0.10572047531604767,0.10595300793647766,-0.19848081469535828,0.04612477123737335,-0.04139396548271179,0.019902292639017105,0.10505817085504532,0.13851262629032135,-0.16468015313148499,-0.07513757795095444,0.12420773506164551,0.015281295403838158,0.05225488170981407,0.03165047615766525,-0.1930510550737381,0.1133764386177063,0.15646861493587494,-0.15341487526893616,0.00924268551170826,-0.18537916243076324,-0.28851184248924255,-0.14962704479694366,-0.023682717233896255,0.04855892062187195,-0.23288406431674957,-0.09545499086380005,0.03173099085688591,0.1883983612060547,0.038210995495319366,-0.15404212474822998,0.0698789581656456,0.13871897757053375,0.05827157944440842,0.23719801008701324,-0.028477679938077927,-0.13213953375816345,0.4147788882255554,-0.1255301982164383,-0.02720658667385578,-0.1127040758728981,0.053546007722616196,0.1737370491027832,0.18027804791927338,-0.043480634689331055,-0.11523137241601944,-0.08547335863113403,-0.09053405374288559,0.18420922756195068,0.08277670294046402,-0.06711844354867935,-0.08583752810955048,-0.1207408756017685,0.032883428037166595,-0.10560113191604614,-0.14606207609176636,-0.10568562895059586,0.022920431569218636,0.35886526107788086,0.04425927996635437,0.11233752965927124,0.27459588646888733,0.04400954023003578,-0.030761387199163437,0.12265592813491821,0.0032985606230795383,0.038210056722164154,-0.2971377968788147,0.36071428656578064,-0.012580941431224346,-0.17798709869384766,0.16118676960468292,0.1422998309135437,-0.07407327741384506,0.15502214431762695,-0.11084680259227753,0.06697677075862885,0.05860632285475731,0.30460304021835327,-0.21029506623744965,-0.5286508798599243,-0.1858038753271103,0.06263016909360886,-0.051592543721199036,0.00477579515427351,0.3567279279232025,0.3463134765625,0.2432570457458496,0.08914965391159058,0.4711357355117798,-0.11112414300441742,-0.08012112230062485,-0.038631416857242584,0.07887502759695053,0.031024154275655746,0.36022132635116577,-0.05324358493089676,-0.05348817631602287,-0.49515199661254883,0.16417701542377472,0.2953348159790039,0.11445669829845428,0.004726237151771784,-0.09542876482009888,-0.4471795856952667,0.09974072128534317,0.07043640315532684,-0.01831776089966297,0.30524513125419617,-0.022522062063217163,-0.09685792773962021,0.14851047098636627,0.027201751247048378,-0.3415564298629761,0.0006472666282206774,-0.3835885226726532,-0.059710871428251266,0.055160485208034515,-0.10753056406974792,-0.23418916761875153,-0.17250610888004303,-0.2168308049440384,0.04151192307472229,0.049831751734018326,0.1988753229379654,0.11740506440401077,-0.05501333624124527,-0.04097216576337814,-0.03961126506328583,-0.06611762195825577,-0.0677591860294342,0.027192892506718636,0.06535476446151733,-0.07627492398023605,-0.05110456794500351,-0.28886184096336365,-0.1743491291999817,0.18314294517040253,-0.015578669495880604,0.1520894169807434,-0.188103586435318,-0.0006725695566274226,-0.011426317505538464,0.24199098348617554,0.18188582360744476,0.16408047080039978,-0.0596487857401371,-0.1039726510643959,-0.17400091886520386,-0.033577434718608856,0.041068319231271744,0.17024195194244385,-0.18368291854858398,-0.031898703426122665,-0.051186662167310715,0.0024957661516964436,0.07504766434431076,-0.09651095420122147,-0.22837717831134796,0.04938526824116707,0.0919855460524559,-0.10765893012285233,-0.04352254793047905,-0.10611265152692795,-0.1534493863582611,0.03917137160897255,0.0573740191757679,0.042174577713012695,0.10910345613956451,-0.013487463817000389,-0.12732699513435364,0.011719428934156895,-0.22596628963947296,0.14769504964351654,-0.1867431253194809,-0.09994871914386749,-0.08022843301296234,0.01951620914041996,0.01758451759815216,0.14788785576820374,0.07482167333364487,0.030040975660085678,0.2817447781562805,-0.03370177745819092,0.14068357646465302,-0.12326864153146744,-0.0015610624104738235,0.06889484822750092,-0.19505618512630463,0.018072644248604774,0.13211403787136078,-0.13678595423698425,0.17191269993782043,0.08725548535585403,0.16230665147304535,-0.08217204362154007,0.200882226228714,-0.021987849846482277,0.04336022585630417,0.01976306177675724,0.04954997077584267,0.028907403349876404,0.17476828396320343,-0.04323309659957886,0.1477353274822235,0.019872447475790977,0.1450866162776947,-0.033945608884096146,-0.06587140262126923,-0.06322506070137024,0.08532651513814926,0.05624118074774742,0.023198414593935013,0.07234819233417511,0.0033346705604344606,-0.15965525805950165,0.15415799617767334,-0.1298520714044571,0.07892515510320663,0.12056892365217209,0.13309302926063538,0.20515985786914825,-0.08389592915773392,0.07694517076015472,-0.027297737076878548,0.13222675025463104,0.17126034200191498,-0.07211022078990936,-0.15838249027729034,0.18557430803775787,0.09495511651039124,-0.10428910702466965,0.01872713677585125,0.06757661700248718,0.17920386791229248,0.28058290481567383,0.0020537644159048796,0.10782982409000397,-0.14437340199947357,0.0648866668343544,0.03539783135056496,0.10993918031454086,-0.10389316827058792,-0.19137254357337952,-0.046995531767606735,0.0025932807475328445,0.029512375593185425,0.13361872732639313,-0.04802114516496658,0.031470976769924164,0.15831336379051208,0.021812302991747856,-0.17739082872867584,0.2524949908256531,0.08266489207744598,0.0727730318903923,0.09962404519319534,0.042799677699804306,-0.2862642705440521,-0.40101298689842224,-0.2745334506034851,-0.2604246735572815,-0.3995855152606964,-0.19399912655353546,-0.16714134812355042,0.113428495824337,0.09061941504478455,-0.1238257884979248,0.08426570147275925,-0.11435362696647644,0.21247705817222595,-0.23305587470531464,-0.02109210565686226,0.23928302526474,-0.26288458704948425,-0.15500985085964203,0.05705570802092552,-0.02430015616118908,-0.4602900445461273,-0.14620445668697357,0.33393219113349915,0.01862693764269352,-0.2649402320384979,-0.06735439598560333,-0.025180894881486893,0.23078568279743195,0.17970964312553406,-0.024022439494729042,-0.28279879689216614,-0.16983675956726074,-0.1762235462665558,0.3568732738494873,0.23648296296596527,0.07527466863393784,-0.26576393842697144,-0.043524935841560364,-0.1569579690694809,0.24526189267635345,-0.3438299596309662,-0.1002567708492279,0.13220565021038055,-0.19972853362560272,-0.0651293620467186,0.19735543429851532,-0.2237449735403061,-0.01873861625790596,0.08980903029441833,-0.13928727805614471,-0.05966036394238472,-0.011825847439467907,-0.09542742371559143,0.04575220122933388,-0.21560582518577576,0.10235550999641418,0.25564339756965637,-0.07858655601739883,-0.054856833070516586,-0.1816774159669876,-0.1592409759759903,0.19711090624332428,-0.04011186957359314,0.23087482154369354,0.08570291101932526,-0.0863424688577652,-0.08352886885404587,0.004116454161703587,0.10071977972984314,-0.04117251932621002,-0.16660736501216888,0.2383212447166443,-0.052522655576467514,0.09082800894975662,-0.11291957646608353,0.047458209097385406,-0.24629496037960052,0.046630553901195526,-0.011438457295298576,0.07468990236520767,-0.25166940689086914,0.19280853867530823,-0.1145501583814621,0.2389683723449707,-0.1396157294511795,0.17798307538032532,-0.22754894196987152,0.00226256949827075,0.0064430925995111465,-0.19574148952960968,0.06786072999238968,-0.04626833274960518,0.10111910104751587,0.09349362552165985,-0.043296992778778076,-0.23183025419712067,-0.19558224081993103,0.09063174575567245,-0.35213980078697205,0.17163148522377014,-0.060801077634096146,0.058175187557935715,0.09533525258302689,0.3030675947666168,0.10022373497486115,-0.06660804897546768,-0.06285730004310608,0.06041510030627251,0.20385882258415222,-0.22148284316062927,0.003655887208878994,0.05303775891661644,-0.19709043204784393,0.15089330077171326,0.030512547120451927,0.07881733775138855,-0.010338288731873035,0.18179011344909668,0.06476912647485733,-0.02826608531177044,0.03703070431947708,-0.012096667662262917,-0.03758970648050308,0.11778579652309418,-0.06841710954904556,0.009533717297017574,0.09428387135267258,-0.14473743736743927,0.12020903080701828,0.023126525804400444,-0.09741892665624619,-0.09678971022367477,0.036049459129571915,-0.12165530771017075,0.0020747247617691755,0.12437531352043152,-0.18622040748596191,-0.020870037376880646,0.09525685757398605,-0.14688189327716827,-0.015932247042655945,0.025503426790237427,-0.16462069749832153,0.08051865547895432,0.1160634383559227,0.19660602509975433,-0.14295291900634766,0.06889060884714127,-0.1682034581899643,0.06433068215847015,-0.10638882964849472,-0.2022148221731186,-0.020600181072950363,-0.027955304831266403,0.06889411807060242,0.07502352446317673,-0.32201525568962097,-0.034739717841148376,-0.023127147927880287,0.08073779940605164,0.007366100326180458,0.06148340925574303,0.03771151974797249,0.20648989081382751,0.061256855726242065,-0.4120403528213501,-0.10981064289808273,-0.036380838602781296,-0.026473797857761383,-0.06673475354909897,-0.060061994940042496,0.09243614971637726,-0.1768817901611328,0.048476289957761765,0.05681627616286278,0.052238065749406815,0.035526979714632034,0.13299894332885742,-0.13223955035209656,-0.12386906147003174,0.0026041946839541197,0.22932414710521698,-0.02519318461418152,-0.05997262895107269,0.13789859414100647,-0.055853139609098434,-0.1903790831565857,0.12517501413822174,-0.11011034995317459,-0.02336215227842331,0.13781987130641937,-0.07369370013475418,-0.03986509516835213,0.19283252954483032,-0.030498800799250603,0.10627704113721848,-0.36125481128692627,0.03796105459332466,0.3193507492542267,-0.10751223564147949,0.014047835022211075,0.025770701467990875,-0.04161863774061203,-0.12406333535909653,-0.27449363470077515,0.11613234132528305,0.15571974217891693,0.06765998154878616,0.16187827289104462,0.05684772506356239,-0.04359208792448044,-0.11512629687786102,-0.12649640440940857,-0.10873820632696152,-0.20484842360019684,0.1765567660331726,0.1575341820716858,0.15267911553382874,-0.051565710455179214,0.031876012682914734,-0.06808310002088547,0.19597066938877106,0.14777567982673645,0.3303510546684265,-0.14861474931240082,-0.2075364887714386,-0.33138972520828247,0.1418769657611847,0.051297932863235474,0.17584988474845886,-0.02576017752289772,-0.21767644584178925,0.23474904894828796,0.05304926261305809,-0.08358896523714066,0.10486236959695816,-0.03937690332531929,0.04624946787953377,0.25099822878837585,-0.05133859068155289,-0.23580296337604523,0.2834709584712982,-0.17758728563785553,-0.2490471452474594,-0.013767752796411514,0.3046649396419525,0.2770901322364807,-0.12802724540233612,0.10669907182455063,0.07233402132987976,0.12466698884963989,-0.02731907367706299,-0.137083038687706,0.2002253234386444,0.12922237813472748,-0.19310182332992554,0.02514931745827198,-0.014798655174672604,-0.20891743898391724,0.17547345161437988,0.019833777099847794,0.05162585899233818,-0.1785697638988495,-0.1604679524898529,0.26236051321029663,0.05773928016424179,-0.05948181822896004,-0.10003992915153503,-0.19696585834026337,-0.10634230077266693,0.2345566600561142,0.012133263982832432,0.08207464218139648,-0.05808462202548981,-0.10179555416107178,0.06682194769382477,0.062300898134708405,0.1747402399778366,0.14558172225952148,-0.15736304223537445,0.2062501758337021,-0.1918366551399231,-0.10623672604560852,0.18642105162143707,-0.0799722671508789,-0.1083863228559494,0.06087400019168854,-0.028240717947483063,-0.21691714227199554,0.06519877910614014,-0.007536043878644705,-0.0909406915307045,-0.05306796729564667,0.12565109133720398,-0.08947435021400452,0.038849297910928726,-0.019498247653245926,-0.0017652425449341536,0.06028025969862938,-0.056316640228033066,0.03230517357587814,-0.01023959182202816,-0.12876027822494507,0.17959752678871155,-0.03933035954833031,0.04142275080084801,0.1713973730802536,0.22978593409061432,-0.0629969984292984,0.13501621782779694,0.02055950276553631,0.05739035829901695,-0.19843435287475586,-0.12947669625282288,0.08811347186565399,0.11456964164972305,0.17893967032432556,0.04317096248269081,-0.12701530754566193,-0.11044894903898239,-0.11047792434692383,0.1727459728717804,0.2073976695537567,-0.03867005556821823,0.10522967576980591,-0.14064054191112518,-0.014691829681396484,0.01663055270910263,-0.0060570091009140015,0.04445267841219902,0.1003902405500412,-0.14655525982379913,-0.04329892247915268,0.15565930306911469,0.05321109667420387,0.07859774678945541,-0.0037938773166388273,-0.2348950356245041,0.11752193421125412,-0.01310204342007637,-0.08094511926174164,0.3022969365119934,0.18773716688156128,-0.18258115649223328,-0.2014618068933487,0.057612113654613495,-0.12000200152397156,0.30226466059684753,-0.1309898942708969,0.04376215115189552,0.12879852950572968,-0.14081640541553497,0.012146520428359509,0.05859098210930824,-0.10996218025684357,-0.5856210589408875,0.2720052897930145,0.21913498640060425,-0.022757655009627342,-0.2270480841398239,0.15022791922092438,0.227294459939003,0.18112874031066895,-0.03166509047150612,-0.1305433064699173,-0.10494587570428848,0.16051553189754486,0.1842723935842514,0.003475131466984749,-0.2967971861362457,-0.25694236159324646,-0.20794646441936493,0.3004893660545349,0.19424466788768768,0.16160263121128082,-0.1520749181509018,0.08152440935373306,0.2767530381679535,-0.08367526531219482,0.026074642315506935,0.16388405859470367,-0.19193661212921143,-0.026492677628993988,0.06407494843006134,-0.21752944588661194,0.13228408992290497,-0.20677001774311066,-0.4056321680545807,0.3107147514820099,-0.349313884973526,-0.12525460124015808,-0.09720626473426819,0.12153706699609756,0.03362681716680527,0.048126380890607834,-0.2653062343597412,-0.3359282612800598,0.085747130215168,0.28665590286254883,0.2303747832775116,0.08151280879974365,0.11795761436223984,-0.10595021396875381,0.08893807977437973,-0.2901613116264343,-0.1556219756603241,-0.1032157838344574,-0.21361419558525085,0.07932797074317932,0.03155633434653282,0.22335903346538544,-0.16735945641994476,-0.006102659273892641,-0.20602600276470184,-0.0029394682496786118,-0.07085171341896057,0.010561426170170307,-0.1040625348687172,-0.12017884850502014,0.19278520345687866,0.36731037497520447,0.02982594259083271,0.15271098911762238,-0.2564462721347809,0.037128426134586334,0.20502108335494995,0.22283941507339478,-0.05231141299009323,-0.1415216326713562,-0.10270728170871735,0.09872756153345108,0.10038324445486069,-0.2525472044944763,0.22895710170269012,0.2428058683872223,0.24051308631896973,-0.06975898146629333,0.7593304514884949,0.7642418742179871,0.20619037747383118,0.10044948756694794,-0.006874896585941315,0.009181425906717777,-0.16428521275520325,0.0976555272936821,0.18581032752990723,0.23896124958992004,-0.06348200887441635,-0.03774787858128548,-0.06028570607304573,0.017075644806027412,0.13253235816955566,-0.0024046467151492834,0.08143221586942673,-0.05379790440201759,-0.5515300631523132,0.4444974660873413,0.43305397033691406,-0.4856533110141754,0.2928048372268677,-0.9086955189704895,-0.23260818421840668,-0.6552722454071045,0.7835810780525208,-1.0071591138839722,-0.7555711269378662,-0.9466909766197205,0.3435036540031433,-1.0559018850326538,0.5093969702720642,-0.8799710273742676,-0.20819245278835297,-0.05564277246594429,0.1034323051571846,0.14288607239723206,0.32674577832221985,-0.007652978412806988,-0.20700809359550476,-0.08693420141935349,0.09518041461706161,-0.11519880592823029,-0.07808410376310349,0.06466236710548401,0.01615368016064167,-0.005938949063420296,-0.06593330204486847,-0.10758621245622635,0.08837001770734787,-0.20447011291980743,-0.07167141884565353,-0.14016884565353394,-0.08149876445531845,0.2067083865404129,0.14212271571159363,-0.1551552563905716,0.4262963831424713,-0.009826342575252056,0.12892024219036102,0.21168918907642365,-0.08944885432720184,0.14001183211803436,-0.046262577176094055,0.020680703222751617,-0.13065478205680847,-0.2633263170719147,0.04644704982638359,0.2887679636478424,0.14015206694602966,-0.02247011661529541,-0.09233223646879196,0.14454485476016998,0.046400345861911774,0.08135848492383957,-0.2731022238731384,-0.10507430881261826,-0.15899376571178436,0.014109903015196323,0.05795621871948242,-0.09093628078699112,0.031227121129631996,-0.06969006359577179,0.01897343434393406,-0.21496173739433289,0.04218010976910591,-0.0672416165471077,0.003037768881767988,-0.021172111853957176,-0.03466491773724556,-0.17489273846149445,0.13665634393692017,0.27986398339271545,0.18019244074821472,-0.15547461807727814,-0.0038173149805516005,0.05827222019433975,0.38016650080680847,-0.03732636570930481,-0.11547481268644333,-0.11695045977830887,0.07952101528644562,0.1883620172739029,-0.08699995279312134,0.4913489520549774,0.0782153531908989,0.009312551468610764,-0.13080956041812897,-0.07325003296136856,-0.10323803871870041,0.03737470135092735,0.06475935876369476,-0.2376135140657425,-0.11868397891521454,-0.00979587621986866,-0.1929672658443451,-0.13454440236091614,0.007314908783882856,-0.10928665101528168,-0.018827643245458603,-0.1644771695137024,0.155020073056221,0.16337701678276062,-0.14586307108402252,-0.10353784263134003,-0.1467418223619461,-0.026369472965598106,0.13778361678123474,-0.005164829548448324,0.09856861084699631,-0.0343361459672451,0.2919151484966278,-0.11712151020765305,-0.025397492572665215,0.1797463595867157,-0.11411736905574799,-0.46332409977912903,-0.006540522910654545,-0.06525760143995285,-0.1628752201795578,0.28925275802612305,0.1275946944952011,0.023807914927601814,0.13711555302143097,0.3973544239997864,0.11622124910354614,-0.009924938902258873,-0.3710080087184906,0.21314845979213715,-0.008104583248496056,-0.12528973817825317,-0.3521040081977844,0.18567204475402832,0.05824718996882439,0.580255389213562,-0.34695878624916077,-0.2210858315229416,-0.3257419764995575,0.37893033027648926,-0.12033019214868546,0.02331857942044735,0.0668833926320076,0.02988755702972412,-0.0396617129445076,-0.08350451290607452,-0.16970068216323853,-0.10081163793802261,0.00952551607042551,-0.05040309578180313,-0.11573435366153717,-0.01845192350447178,0.25696200132369995,-0.009544196538627148,-0.020520491525530815,0.11554029583930969,-0.056711480021476746,0.2799700200557709,-0.16423794627189636,0.03634847328066826,0.06421231478452682,0.07682937383651733,0.10977230966091156,-0.004553736187517643,0.10792411118745804,-0.09541574120521545,-0.06812255829572678,-0.12721402943134308,0.08673292398452759,0.18870648741722107,0.0991099625825882,0.009164312854409218,0.17810949683189392,-0.09697795659303665,-0.22772356867790222,-0.278912752866745,-0.07779598981142044,0.15410485863685608,0.22241929173469543,-0.19840748608112335,-0.15741094946861267,0.011376925744116306,0.3376351296901703,0.1804727464914322,-0.19636327028274536,0.07341744750738144,-0.1480676382780075,0.033505879342556,-0.031668830662965775,-0.03532974049448967,0.27590757608413696,0.21482208371162415,-0.43249714374542236,-0.19220398366451263,-0.3778288960456848,0.026326172053813934,-0.08691955357789993,0.5990282297134399,-0.15765559673309326,0.32269367575645447,0.10935774445533752,-0.12944374978542328,0.03776131570339203,0.02694963477551937,-0.0864158421754837,0.09434718638658524,0.17761145532131195,-0.0005170832737348974,-0.16458652913570404,0.1031426340341568,0.002337037120014429,0.11119920015335083,-0.2203838974237442,0.09442529827356339,-0.365374892950058,0.021793577820062637,-0.2109358310699463,-0.1248210147023201,0.149197056889534,-0.21704068779945374,0.522589385509491,-0.03919757157564163,0.265644907951355,0.09886553883552551,-0.026594432070851326,0.32703110575675964,-0.04716157913208008,0.45316600799560547,0.20536690950393677,0.20937399566173553,-0.24960081279277802,-0.009582321159541607,0.009507699869573116,-0.026209929957985878,0.18084444105625153,-0.10606708377599716,0.1407170593738556,-0.1432035267353058,0.05985221639275551,0.2658090889453888,0.13895314931869507,-0.240012988448143,-0.03705272078514099,-0.17746905982494354,0.042041365057229996,-0.03188074752688408,-0.19030418992042542,-0.143520787358284,-0.09543357044458389,0.032836154103279114,0.16497163474559784,-0.3672661781311035,0.3282470405101776,0.19408981502056122,0.07928883284330368,-0.1989816278219223,-0.3026340901851654,-0.09657992422580719,-0.10011816769838333,-0.028960848227143288,-0.2525773048400879,0.07113972306251526,0.2890031337738037,-0.05684484541416168,0.04805006459355354,0.3356323540210724,-0.23007996380329132,0.24009883403778076,-0.3472978472709656,-0.10419289022684097,-0.10662891715765,-0.02671722322702408,0.08640794456005096,-0.1986287534236908,-0.11494097858667374,0.10217441618442535,0.2716558575630188,0.27342328429222107,0.020422756671905518,0.028437325730919838,0.10161082446575165,-0.28299716114997864,0.003587175626307726,-0.39534711837768555,-0.19321665167808533,-0.0447513684630394,-0.06648138910531998,0.09035889804363251,-0.08796857297420502,0.1419997364282608,-0.19963271915912628,-0.04855387657880783,-0.07155442237854004,0.16749367117881775,-0.06386970728635788,0.06641117483377457,-0.32738831639289856,-0.26956412196159363,0.1595660299062729,0.1057363897562027,0.023089643567800522,0.0374458022415638,0.27982014417648315,0.1068900004029274,0.11080505698919296,-0.04471941292285919,0.10821308940649033,-0.08829128742218018,0.15352892875671387,-0.10641677677631378,0.05144079402089119,0.027752909809350967,0.0051767039112746716,-0.14675363898277283,0.12454495579004288,-0.09503664821386337,-0.13203147053718567,0.2551329433917999,-0.10445304214954376,0.10735055059194565,-0.1830126941204071,-0.004005198832601309,0.027835944667458534,-0.10067163407802582,-0.05646687373518944,-0.1599731743335724,-0.1952246129512787,-0.3509402871131897,0.0667172521352768,-0.09880450367927551,-0.2871866822242737,0.10416848212480545,0.07920212298631668,0.018682461231946945,-0.1238102987408638,-0.15465696156024933,0.06580697745084763,-0.1005692258477211,0.15596765279769897,-0.22615066170692444,0.2567269802093506,0.10421227663755417,0.282236248254776,-0.005100739188492298,-0.060792505741119385,-0.20507055521011353,0.15235085785388947,-0.0825204998254776,-0.03232685476541519,-0.11846981942653656,-0.0368477962911129,-0.006786435842514038,0.1504477709531784,-0.1282462179660797,0.2489931732416153,-0.11868773400783539,-0.1344742625951767,0.07958168536424637,0.10124289989471436,-0.020736264064908028,-0.18479447066783905,-0.024356216192245483,0.07437208294868469,0.05061238631606102,0.23637929558753967,-0.0736687034368515,-0.026876606047153473,0.0017408238491043448,0.014267263002693653,-0.060063302516937256,0.11620799452066422,0.10823415219783783,0.31012240052223206,-0.007019536569714546,0.10245871543884277,-0.12234079092741013,-0.10022004693746567,0.052827682346105576,0.16769756376743317,0.21946537494659424,-0.18942493200302124,0.057657379657030106,0.06852132081985474,-0.038372334092855453,-0.14871858060359955,-0.006339280400425196,0.009171399287879467,0.030931279063224792,0.14166025817394257,-0.09507517516613007,-0.1144241988658905,-0.2636924088001251,-0.008586317300796509,0.161683589220047,-0.05355733633041382,-0.12084551155567169,-0.15595032274723053,0.19601142406463623,0.14092662930488586,-0.017417116090655327,-0.014062970876693726,0.12624667584896088,0.10266295075416565,0.11261965334415436,0.13691051304340363,-0.03673507273197174,0.024122867733240128,-0.02486727014183998,0.08324069529771805,-0.012908127158880234,0.1437811702489853,-0.13275358080863953,0.013727894052863121,0.011175434105098248,-0.03975699469447136,0.13543923199176788,-0.03426247462630272,-0.018866656348109245,0.17179976403713226,0.017494233325123787,-0.09466423839330673,-0.044776998460292816,-0.14331994950771332,-0.07638587802648544,0.1675138771533966,0.017650112509727478,0.08419978618621826,0.136179119348526,0.012940083630383015,0.20848648250102997,-0.20722828805446625,-0.1408371478319168,0.17826277017593384,0.03453143313527107,-0.006066487170755863,-0.07671917974948883,-0.03342814743518829,0.27739042043685913,0.17297761142253876,0.21193550527095795,-0.03489512577652931,-0.23793929815292358,0.02654467709362507,0.09873326867818832,-0.1380900889635086,-0.1857718676328659,-0.10857855528593063,0.1938582956790924,0.2279902696609497,-0.07312541455030441,-0.162494957447052,-0.1783447116613388,0.07598529756069183,0.20006993412971497,0.15137730538845062,0.08554107695817947,0.022830432280898094,-0.22537344694137573,-0.2245466560125351,-0.15286822617053986,-0.21199405193328857,0.09155908972024918,0.05796115845441818,-0.14307735860347748,-0.012565668672323227,-0.12555141746997833,0.023910416290163994,-0.028036756440997124,-0.06079111993312836,0.08673818409442902,-0.037852514535188675,0.006330632604658604,-0.16372156143188477,-0.33332377672195435,0.037138890475034714,-0.2763579785823822,-0.041504018008708954,0.3388104736804962,0.16470903158187866,-0.10389254242181778,-0.07413238286972046,-0.14820855855941772,-0.05732909217476845,0.07360526919364929,-0.19939444959163666,0.02790423110127449,-0.1997297704219818,-0.06354061514139175,0.08238358795642853,0.03783367574214935,-0.19591562449932098,0.20040784776210785,-0.24563710391521454,0.10574318468570709,0.1191784217953682,-0.18526385724544525,-0.16916508972644806,-0.16467440128326416,0.12123212963342667,0.053113602101802826,-0.03235975652933121,-0.11664651334285736,-0.08816630393266678,-0.15349939465522766,0.197634756565094,0.21671365201473236,0.1320100873708725,0.039271190762519836,-0.3309783339500427,0.07144249230623245,-0.05815991386771202,-0.12134061008691788,0.014822368510067463,-0.03335614129900932,-0.12097353488206863,0.16870716214179993,-0.08985934406518936,-0.14441795647144318,-0.06038876250386238,0.31749704480171204,-0.0277705155313015,-0.12259604036808014,0.2569511830806732,-0.05872756615281105,-0.05771564319729805,-0.18815350532531738,0.14841516315937042,-0.12856292724609375,-0.0740513801574707,-0.029701534658670425,-0.15239232778549194,0.015949685126543045,-0.028412604704499245,-0.10513421893119812,-0.0888926312327385,-0.0654091089963913,-0.06172449514269829,0.08980429172515869,0.2002483308315277,0.17210477590560913,0.35512223839759827,-0.08939538151025772,-0.2340010553598404,0.12665094435214996,-0.22618639469146729,-0.03685462474822998,-0.07929261028766632,-0.09078522026538849,-0.12449318915605545,0.23229928314685822,-0.0003104623465333134,0.0018001953139901161,-0.161798894405365,-0.10432683676481247,-0.10885109007358551,-0.023349132388830185,0.02562246099114418,-0.17315992712974548,-0.005231865216046572,-0.03297177329659462,0.30982717871665955,0.06748111546039581,0.16785117983818054,0.046515095978975296,-0.09909707307815552,0.06567902117967606,0.4315502941608429,0.02115778997540474,0.16351433098316193,0.016986653208732605,-0.1405019760131836,0.2004483938217163,-0.00790799967944622,0.1808716207742691,-0.19022579491138458,0.0084629375487566,-0.04873702675104141,0.17468956112861633,-0.04225233197212219,-0.06896434724330902,-0.1621202677488327,0.07499514520168304,-0.15470293164253235,0.03734637796878815,0.04375505447387695,0.02920212224125862,-0.14100593328475952,-0.012188728898763657,-0.02176435850560665,-0.12813064455986023,0.2524654269218445,0.006530174519866705,0.2201882153749466,0.05324845016002655,0.007934964261949062,0.037945400923490524,0.14635056257247925,-0.1957606077194214,-0.0423537939786911,-0.09551316499710083,0.14969845116138458,-0.061342716217041016,0.2467704564332962,-0.056648802012205124,-0.3728167414665222,0.3997114598751068,-0.06830455362796783,-0.10060904920101166,-0.3355075716972351,-0.07041190564632416,-0.21897469460964203,-0.09087595343589783,-0.004609490744769573,0.024216769263148308,-0.21059150993824005,0.006471404805779457,-0.19909252226352692,-0.13512834906578064,-0.033897288143634796,-0.10380582511425018,0.060239605605602264,-0.03369584307074547,-0.18041889369487762,0.22204872965812683,0.01108698919415474,0.3326006233692169,-0.01085912249982357,-0.12288105487823486,-0.10863124579191208,0.04148370027542114,0.4097284972667694,0.04748797044157982,-0.15472766757011414,-0.22190643846988678,-0.3693735897541046,-0.17680662870407104,-0.032277513295412064,-0.1562725007534027,0.21336184442043304,0.2524262070655823,0.22122672200202942,0.05401454493403435,0.11679182201623917,-0.41043752431869507,0.10825125873088837,0.19658643007278442,0.2448560744524002,0.029858509078621864,-0.20036135613918304,-0.3225080966949463,0.10343127697706223,-0.055935412645339966,-0.06918137520551682,-0.2367524355649948,0.08825285732746124,-0.13900145888328552,-0.41580259799957275,-0.3785358667373657,-0.15967923402786255,-0.31238317489624023,0.28594207763671875,-0.26477503776550293,-0.22412621974945068,-0.1872006356716156,0.16703906655311584,-0.3551062345504761,0.04422871395945549,-0.402431845664978,-0.525999128818512,-0.05605337768793106,0.006951075978577137,-0.2773401141166687,-0.008650759235024452,-0.034987710416316986,-0.13751234114170074,-0.023648105561733246,0.12511983513832092,-0.04815450683236122,-0.10598230361938477,-0.2149878293275833,0.05008744075894356,-0.006170925684273243,0.22395329177379608,0.15245327353477478,0.04249481484293938,0.16529378294944763,-0.13798609375953674,-0.07086344063282013,0.009724670089781284,0.06530269235372543,0.04508142173290253,0.25224804878234863,-0.039427049458026886,0.046473853290081024,-0.0953386053442955,-0.04314509034156799,-0.010727220214903355,0.08881984651088715,-0.05623441934585571,0.12000099569559097,-0.06867945939302444,-0.40777477622032166,-0.2319519966840744,0.03706975653767586,0.4874536395072937,-0.026265248656272888,0.10727313160896301,0.2199251353740692,-0.058407146483659744,-0.16706380248069763,-0.10252571851015091,0.03711354732513428,-0.02070152759552002,0.08566266298294067,-0.14087995886802673,-0.04010825976729393,-0.006500467658042908,-0.11171788722276688,0.08666625618934631,-0.020201541483402252,-0.12834006547927856,-0.015807241201400757,0.13870804011821747,0.16868840157985687,0.05019177123904228,-0.13770313560962677,0.09898950159549713,-0.14218135178089142,-0.008351857773959637,-0.025958701968193054,-0.12261573225259781,0.14838196337223053,-0.20319360494613647,0.0270673930644989,0.008444158360362053,-0.21008947491645813,-0.2660450041294098,-0.012685411609709263,-0.14788055419921875,0.13777269423007965,-0.11223108321428299,-0.21286489069461823,-0.16585148870944977,-0.16744959354400635,0.17470252513885498,0.29146918654441833,-0.0346389040350914,0.010689481161534786,0.18905901908874512,-0.17971090972423553,0.12437573075294495,-0.2668236196041107,0.2553853392601013,-0.11850988864898682,-0.19027727842330933,0.13453082740306854,-0.07747624814510345,-0.16437147557735443,-0.2082764208316803,0.07375867664813995,-0.25851118564605713,0.09486798197031021,-0.11016937345266342,0.029934216290712357,-0.1725684553384781,-0.3647887110710144,-0.08061996102333069,-0.1131487712264061,0.18253137171268463,0.06761956214904785,0.1776411086320877,0.028102891519665718,0.06613526493310928,-0.04843701794743538,0.1024320125579834,0.1590786576271057,0.1956755667924881,-0.019595138728618622,0.09222884476184845,-0.15236297249794006,0.0018338443478569388,-0.035544972866773605,-0.009227601811289787,0.12403948605060577,0.14364323019981384,0.25942036509513855,-0.20328232645988464,-0.000845156260766089,0.057296037673950195,0.16306790709495544,0.056297630071640015,0.1362595111131668,-0.13602036237716675,-0.14972347021102905,-0.10283475369215012,0.14126534759998322,0.3610420525074005,-0.261629581451416,0.05360550060868263,0.1334802806377411,0.12284349650144577,-0.12135417014360428,0.13276337087154388,0.1615966409444809,-0.13139855861663818,0.09816458821296692,-0.0826827883720398,-0.1672266721725464,-0.09802647680044174,0.31021440029144287,-0.31838998198509216,0.11317092180252075,-0.251880407333374,-0.0542755164206028,0.15753647685050964,0.008909028023481369,0.0529034361243248,-0.1428554356098175,0.06536082178354263,0.17447632551193237,0.016122857108712196,-0.27028557658195496,-0.028976907953619957,-0.2700856328010559,0.023553524166345596,0.23682516813278198,0.04981255158782005,-0.02169262431561947,-0.3358096182346344,0.01988426223397255,-0.0445224903523922,-0.13545970618724823,-0.1833614706993103,0.07274015992879868,0.16934427618980408,0.24559809267520905,-0.12986795604228973,-0.3169764280319214,-0.2600971758365631,-0.00531007582321763,-0.04711156710982323,-0.014819175004959106,0.049747321754693985,-0.132749542593956,0.01452423445880413,-0.2816048860549927,0.10332959145307541,0.07165824621915817,-0.3859460949897766,0.09532750397920609,-0.0917699933052063,0.0021943615283817053,-0.11867410689592361,0.0366101935505867,-0.0010506485123187304,0.2299390584230423,-0.07456312328577042,0.028580214828252792,0.3538227081298828,0.010484312660992146,-0.44806262850761414,0.05878928676247597,-0.26399141550064087,-0.12506133317947388,0.4661707580089569,0.38956815004348755,0.12260828912258148,-0.297198086977005,-0.20049042999744415,-0.34555506706237793,0.009309764951467514,0.2650351822376251,0.1081296056509018,-0.24272896349430084,-0.2525622844696045,-0.13738103210926056,0.12942807376384735,-0.20150598883628845,-0.023846905678510666,0.27253130078315735,0.13234727084636688,0.2796187102794647,-0.2541690766811371,-0.23474626243114471,-0.16203489899635315,0.2465074360370636,0.23777228593826294,-0.09064826369285583,-0.160495787858963,-0.2468450665473938,-0.004443503450602293,0.20294491946697235,0.169470876455307,-0.18980281054973602,-0.16676639020442963,-0.047060541808605194,-0.014657480642199516,-0.36378157138824463,0.05954161658883095,-0.01388971321284771,-0.24654382467269897,0.2137964963912964,0.15282152593135834,-0.07904382050037384,0.2522942125797272,0.12004907429218292,-0.4924123287200928,-0.007986201904714108,-0.2606370449066162,-0.16815392673015594,0.14572718739509583,-0.3090178370475769,0.011846345849335194,-0.1384219080209732,-0.12650448083877563,-0.10029008239507675,0.27974653244018555,0.040420856326818466,0.00018354687199462205,-0.306640625,-0.027885910123586655,0.0612715445458889,0.1305301934480667,0.16398583352565765,0.10186223685741425,0.07903479784727097,-0.17082579433918,-0.08631955087184906,-0.12169408798217773,0.21347969770431519,-0.019164174795150757,0.21931152045726776,0.08191538602113724,-0.023960700258612633,-0.0934237390756607,0.20615649223327637,-0.004063985776156187,0.09522946923971176,-0.33415064215660095,0.07049019634723663,0.058305274695158005,-0.30312445759773254,-0.015402060002088547,-0.3509524166584015,0.5812087655067444,-0.09575696289539337,-0.1073535904288292,0.20997926592826843,0.004903337452560663,-0.14716507494449615,0.022770529612898827,-0.008632837794721127,-0.3241507112979889,0.31359604001045227,-0.08784118294715881,-0.10269985347986221,0.08765434473752975,-0.10878273844718933,-0.07266289740800858,0.26826211810112,0.023403460159897804,0.1643139272928238,-0.02169509418308735,0.002395252464339137,-0.18321990966796875,0.02904740534722805,0.014030460268259048,-0.05561280995607376,-0.20386973023414612,-0.0018168420065194368,-0.11061480641365051,-0.1269855797290802,-0.22417588531970978,0.00009957815200323239,0.07200346887111664,-0.17407000064849854,0.06354488432407379,-0.04276294261217117,-0.08078441023826599,-0.13073685765266418,0.011775331571698189,-0.03046567551791668,0.1383325308561325,-0.2110847681760788,0.08882386237382889,0.022617826238274574,0.12870743870735168,0.005890726111829281,-0.4540400505065918,0.33330029249191284,0.15172363817691803,-0.08007048815488815,-0.3461960256099701,-0.13209019601345062,-0.02313980832695961,-0.23168782889842987,-0.2658778131008148,-0.006441954057663679,-0.15970557928085327,0.12455210089683533,0.20670151710510254,-0.1955801099538803,0.01732722856104374,-0.30797049403190613,0.1554078310728073,-0.136238694190979,0.0825769379734993,0.11371662467718124,-0.1465429663658142,-0.15657031536102295,-0.05405567213892937,0.19003969430923462,-0.007109533064067364,0.09243254363536835,0.4006878733634949,-0.26991918683052063,-0.05897415801882744,0.2007356435060501,0.12900841236114502,0.12207909673452377,-0.00417529558762908,0.19805794954299927,0.032572709023952484,-0.31729865074157715,-0.02951209992170334,-0.08637154847383499,0.21017076075077057,0.1542120724916458,0.08625253289937973,-0.055233120918273926,-0.08011571317911148,-0.08965979516506195,0.22416304051876068,0.03335478901863098,0.11845346540212631,-0.2321958988904953,-0.28713735938072205,-0.27318698167800903,0.43224915862083435,-0.2806908190250397,-0.16444925963878632,0.373908132314682,-0.2501984238624573,0.10110782831907272,0.18618790805339813,-0.17994053661823273,-0.041913338005542755,0.06341905891895294,-0.09998545795679092,-0.13931842148303986,0.1756128966808319,-0.12762288749217987,-0.23487594723701477,0.3418307900428772,0.257455438375473,0.10298661887645721,0.029516443610191345,-0.002739743795245886,0.05440058559179306,-0.07636624574661255,-0.04715576022863388,0.1619177758693695,0.17543330788612366,0.0839250311255455,0.017564449459314346,-0.014966432005167007,-0.11826149374246597,0.1906624287366867,-0.018918219953775406,0.16820909082889557,0.06600571423768997,-0.6182170510292053,0.9552234411239624,0.2752763330936432,-0.5700107216835022,0.1730595827102661,-0.13869543373584747,-0.012079255655407906,0.6757290363311768,-1.038818120956421,1.1556576490402222,0.562347948551178,0.41145506501197815,-0.5075821876525879,0.2249876856803894,-1.2179538011550903,0.26436492800712585,-0.23158520460128784,0.25612109899520874,-0.4328075349330902,0.024349303916096687,0.161871075630188,0.014755054377019405,-0.14261804521083832,0.31243380904197693,0.2189757078886032,0.1416081190109253,0.3178742527961731,-0.29706814885139465,0.19194728136062622,-0.1974075585603714,-0.18106849491596222,0.24561499059200287,0.07393889874219894,0.06227269023656845,0.029919438064098358,0.11476500332355499,0.1655190885066986,-0.1589806079864502,-0.32403677701950073,0.04156946390867233,-0.060921408236026764,0.007206520531326532,0.08419165015220642,-0.17300868034362793,0.030018562451004982,0.03265757858753204,-0.1560114324092865,0.04432141035795212,-0.3496747612953186,0.3010095953941345,-0.5664945244789124,0.5841577053070068,-0.27918046712875366,0.11337896436452866,-0.07962477207183838,-0.08906574547290802,0.3770926892757416,0.003570439526811242,0.25807425379753113,0.14466018974781036,-0.19197729229927063,0.23735955357551575,0.041207022964954376,0.2513362765312195,0.07894893735647202,0.054432254284620285,-0.0018645203672349453,-0.34761273860931396,0.2681414484977722,-0.2114582508802414,0.28547993302345276,0.38653528690338135,-0.26811516284942627,0.2579733431339264,0.11210302263498306,0.08219671994447708,0.27205708622932434,0.04226899892091751,-0.2198668122291565,0.30335283279418945,-0.18101906776428223,0.2529295086860657,-0.023873865604400635,0.11401570588350296,-0.23944053053855896,0.21488763391971588,-0.1629125028848648,0.019055547192692757,-0.03269515186548233,-0.3733898103237152,0.0014741802588105202,-0.2572026252746582,-0.23762460052967072,0.28234073519706726,0.010500917211174965,-0.046436235308647156,0.008025437593460083,0.07647363841533661,-0.08265107870101929,-0.024462969973683357,-0.06348966062068939,0.18260648846626282,0.05604551360011101,-0.04014070704579353,-0.1409893035888672,-0.08457338064908981,0.05312063544988632,0.1384279578924179,-0.03996724262833595,0.14322660863399506,-0.2541956901550293,-0.01561443880200386,-0.06649266928434372,-0.08170185983181,0.08149822801351547,0.4873344302177429,-0.5247601866722107,0.3747543692588806,-0.3734258711338043,-0.37055885791778564,0.414919912815094,0.15644071996212006,-0.16842468082904816,0.06101936846971512,-0.16237996518611908,0.41534170508384705,-0.0243384912610054,0.42824727296829224,0.19543880224227905,-0.09759435802698135,0.13481177389621735,-0.2918785512447357,-0.3402397632598877,0.3896135985851288,0.2304886430501938,-0.3879507780075073,-0.20345564186573029,-0.04134385660290718,0.1790311187505722,0.20046992599964142,-0.4922945201396942,0.4364057779312134,-0.20834553241729736,-0.13790488243103027,0.20542126893997192,-0.1329515427350998,0.07412579655647278,0.10156372934579849,0.1220269724726677,-0.1909608095884323,-0.0007365806377492845,0.05815689265727997,0.24332565069198608,-0.13444483280181885,0.21700389683246613,-0.36089032888412476,0.25051769614219666,-0.07453469187021255,0.28125908970832825,0.16275909543037415,-0.08167422562837601,-0.16091302037239075,0.2608683705329895,0.07960166782140732,0.25545352697372437,-0.4311991035938263,-0.13575591146945953,0.009046437218785286,-0.01302571315318346,0.07648241519927979,-0.23915062844753265,0.06510075181722641,-0.03796732798218727,0.20287513732910156,-0.15423566102981567,0.240582674741745,-0.19631443917751312,0.01479555107653141,-0.22339077293872833,0.17700548470020294,-0.16071976721286774,0.1670144945383072,-0.27517324686050415,0.09275864064693451,0.25088629126548767,-0.277498722076416,0.020492911338806152,0.08924805372953415,-0.16289666295051575,0.0654156506061554,0.23378543555736542,0.251350075006485,-0.14351989328861237,-0.0323951318860054,0.13971354067325592,0.25104209780693054,-0.23271340131759644,0.6373396515846252,0.09948035329580307,-0.5135493278503418,-0.15483906865119934,-0.5142869353294373,0.1101321130990982,-0.5483865737915039,-0.6065722107887268,0.2838440239429474,0.5919183492660522,-0.29430392384529114,-0.4096860885620117,-0.07607057690620422,-0.10741585493087769,0.4873555302619934,0.06291870027780533,-0.2302444577217102,-0.27733057737350464,0.08532489836215973,0.08983839303255081,-0.4078681468963623,-0.0437774695456028,-0.19106851518154144,0.10121871531009674,0.40754902362823486,0.12131985276937485,0.005841460078954697,0.0571034736931324,-0.27574458718299866,0.061239805072546005,0.05058092251420021,-0.041815537959337234,0.32515642046928406,-0.09128211438655853,0.15353457629680634,-0.24255019426345825,0.2245338261127472,-0.5219327807426453,-0.06914649903774261,0.28397229313850403,0.28494933247566223,0.10935957729816437,0.10600187629461288,-0.1522379368543625,-0.016803771257400513,0.16784362494945526,0.35232213139533997,-0.23173251748085022,0.32647520303726196,-0.30429112911224365,0.06645472347736359,0.3845307528972626,-0.19551675021648407,-0.25055035948753357,-0.3749558627605438,-0.0008968290640041232,0.3227568566799164,-0.017323631793260574,-0.17653441429138184,-0.11881010979413986,0.14161400496959686,-0.4630166292190552,0.13861320912837982,0.07125493139028549,-0.27218472957611084,-0.19023796916007996,0.24435606598854065,0.62959223985672,-0.1302468329668045,0.5093255639076233,-0.26045703887939453,0.3896813690662384,-0.23131294548511505,0.3811008632183075,0.006595692131668329,0.00505611440166831,0.26387345790863037,0.022192317992448807,-0.007283538114279509,0.2951391339302063,0.3433818221092224,0.14018547534942627,-0.2974053621292114,-0.1734466403722763,0.13323304057121277,0.11988947540521622,0.26950207352638245,-0.14208509027957916,0.05656755343079567,-0.07547863572835922,-0.037061791867017746,-0.07897941023111343,0.17267116904258728,0.004086201079189777,-0.03481699153780937,0.03688425570726395,-0.07172804325819016,-0.12113695591688156,0.0696331039071083,-0.023455403745174408,-0.009154981933534145,-0.0824773907661438,-0.08144275099039078,-0.1817331314086914,-0.008136101998388767,-0.04690983518958092,-0.011334295384585857,0.18461893498897552,0.1916302740573883,-0.04967387020587921,-0.1670159548521042,-0.2338465005159378,0.04400070756673813,0.14041702449321747,0.12142400443553925,-0.16477558016777039,-0.20025289058685303,-0.08075473457574844,0.157530277967453,0.025276390835642815,-0.21239331364631653,-0.2519402801990509,0.19728849828243256,0.3120034337043762,-0.1024993360042572,0.05597253516316414,-0.28659963607788086,0.09352292865514755,-0.09119409322738647,0.07914353907108307,-0.21945390105247498,-0.329664945602417,-0.054217107594013214,0.04807259142398834,0.00561488326638937,-0.10868800431489944,-0.1742348074913025,0.13547872006893158,-0.21061758697032928,0.1254654973745346,0.1022007167339325,0.35142865777015686,-0.09712041914463043,-0.27210137248039246,-0.06625943630933762,-0.23686888813972473,0.2409837692975998,0.11597089469432831,0.0842556580901146,-0.06575538218021393,-0.14683541655540466,-0.02534865215420723,0.32757192850112915,-0.11591857671737671,-0.07661690562963486,0.2016952931880951,-0.001565055688843131,0.039943303912878036,-0.20942077040672302,-0.161304771900177,-0.059334348887205124,0.14979971945285797,0.2220817655324936,0.058808691799640656,-0.2776455879211426,-0.15441381931304932,0.2346561700105667,0.2498663067817688,-0.13028080761432648,-0.16033828258514404,0.19274790585041046,0.07728157937526703,-0.31710904836654663,0.14152394235134125,-0.10058943927288055,0.13143374025821686,-0.061925288289785385,-0.014657316729426384,-0.02529912069439888,-0.36240971088409424,-0.04187069833278656,0.12678363919258118,-0.16325007379055023,-0.20653945207595825,-0.1668103188276291,0.0006290306337177753,-0.2566768229007721,-0.10304040461778641,0.20600533485412598,0.23864348232746124,0.11544692516326904,-0.17374587059020996,-0.19740407168865204,-0.034144993871450424,0.22071418166160583,0.008898881264030933,0.06643275171518326,-0.1733129322528839,0.061797335743904114,-0.02074006199836731,0.14305859804153442,-0.2535831034183502,-0.12655822932720184,0.14223060011863708,0.2085721641778946,0.059442952275276184,-0.19296878576278687,-0.0735134482383728,-0.03758421912789345,0.1997472196817398,0.049285802990198135,0.03520987182855606,-0.07994567602872849,-0.12292865663766861,-0.06709140539169312,0.11737921088933945,-0.03234485536813736,0.07226373255252838,0.10005272924900055,0.11427729576826096,-0.03639556095004082,-0.0009145594667643309,-0.08314794301986694,0.042292822152376175,0.07583741098642349,0.012341075576841831,-0.06997458636760712,-0.17594344913959503,-0.059798289090394974,-0.1436857432126999,0.05923647806048393,-0.2585863769054413,0.011600849218666553,0.1640188843011856,0.09208182245492935,0.231796994805336,-0.02915937826037407,0.012716526165604591,0.7609397768974304,-0.11935985833406448,0.13653729856014252,0.0037240399979054928,0.014732473529875278,-0.16087141633033752,0.14988629519939423,-0.04922126606106758,0.2322046160697937,0.34612661600112915,0.04779460281133652,-0.1291457563638687,-0.27667537331581116,0.0989571362733841,-0.1380482316017151,-0.05709196999669075,0.180348202586174,-0.04985526204109192,-0.24801422655582428,0.2284097820520401,0.0854387953877449,0.04446232691407204,-0.20982876420021057,-0.1840238720178604,-0.08114539086818695,0.1445590704679489,0.17742931842803955,0.32910943031311035,0.04323191940784454,0.23662784695625305,0.4951634407043457,0.7000328898429871,0.36262640357017517,0.8011081218719482,-0.30715644359588623,0.05368473008275032,0.11056023091077805,-0.15535615384578705,-0.27481698989868164,0.8515631556510925,-0.18407605588436127,0.2257198542356491,0.5607221722602844,-0.17347311973571777,0.31051144003868103,-0.053609322756528854,-0.21525639295578003,-0.03486043959856033,0.0570889413356781,-0.3019956052303314,-0.008557884022593498,0.19876471161842346,-0.20303890109062195,-0.03626497462391853,0.09453914314508438,0.19272838532924652,0.2489815056324005,-0.04121262952685356,-0.22253422439098358,0.0362561009824276,0.015253161080181599,0.06160612776875496,-0.23941384255886078,-0.02132466807961464,0.09189708530902863,0.18910560011863708,-0.0362105593085289,-0.1056225597858429,-0.22697804868221283,0.26268622279167175,0.032108064740896225,-0.01909860037267208,-0.3172028362751007,-0.09880341589450836,0.12632021307945251,0.21993295848369598,-0.20216874778270721,0.05267040804028511,0.1437913030385971,0.17039617896080017,-0.00472546461969614,0.4613860845565796,-0.2374730110168457,-0.2198740839958191,0.037183728069067,-0.009141091257333755,0.20977942645549774,0.07973428070545197,-0.07955827564001083,0.24010975658893585,0.02566020004451275,-0.19913612306118011,0.017206035554409027,-0.0642567127943039,-0.15735314786434174,-0.1626397967338562,0.08906779438257217,0.07466154545545578,0.04862130805850029,0.21838174760341644,-0.06117765232920647,-0.0542038157582283,0.19515983760356903,0.042367953807115555,0.30052924156188965,-0.03078840672969818,-0.17012335360050201,-0.045153696089982986,-0.19159767031669617,-0.12012919038534164,-0.2201477736234665,-0.1146889179944992,0.006937630008906126,0.09817326813936234,-0.021516766399145126,-0.12203299254179001,-0.24001559615135193,0.1174372136592865,0.05571259185671806,0.03176655247807503,-0.02352862060070038,-0.0064236996695399284,-0.010086029767990112,0.13606548309326172,-0.1348332166671753,-0.19007278978824615,0.05253118649125099,0.2404041886329651,0.15306586027145386,-0.10730545222759247,-0.28933972120285034,0.08324312418699265,0.37143784761428833,0.27825209498405457,0.049209870398044586,0.13756641745567322,0.16688428819179535,0.13285687565803528,0.10015077143907547,-0.015108411200344563,0.3136025667190552,0.026798367500305176,-0.34120315313339233,-0.2244078516960144,0.011071977205574512,0.12146484106779099,0.133012056350708,0.16638332605361938,-0.24584269523620605,-0.28337928652763367,-0.016237454488873482,0.049286551773548126,0.08410311490297318,0.04581805691123009,-0.20608356595039368,0.017376769334077835,-0.18238677084445953,-0.12581107020378113,-0.2567460238933563,-0.04698984697461128,0.0848817452788353,0.2761186361312866,-0.09303971379995346,-0.23059940338134766,-0.20937304198741913,0.22374868392944336,0.19899843633174896,0.16723497211933136,-0.04212794452905655,-0.05700007826089859,0.2532586455345154,0.12159073352813721,-0.22253306210041046,0.10409098863601685,0.5969701409339905,-0.142263263463974,0.337740033864975,-0.1988641619682312,-0.08513054996728897,-0.26983433961868286,0.02293015830218792,0.04743502289056778,0.10314104706048965,0.011750292964279652,-0.0486556701362133,0.45944148302078247,0.2932504117488861,-0.4602429270744324,-0.1752917766571045,-0.13986322283744812,0.14392447471618652,0.1639440506696701,0.04987293854355812,0.11917451024055481,-0.12294616550207138,-0.048199430108070374,0.4316830635070801,-0.17943038046360016,0.20208081603050232,-0.09917410463094711,-0.17762300372123718,0.218665212392807,0.22172623872756958,-0.1402861773967743,-0.18882496654987335,0.026644742116332054,0.15034082531929016,-0.2261466383934021,-0.00268496572971344,-0.16662795841693878,-0.029771190136671066,0.05379219725728035,0.13769665360450745,0.09117093682289124,-0.11579380184412003,-0.08782315999269485,-0.18382413685321808,0.12463586777448654,-0.10552102327346802,-0.034992676228284836,0.09065916389226913,0.10216513276100159,0.15397600829601288,0.18496254086494446,0.050386540591716766,0.11308048665523529,0.12622806429862976,-0.2293798327445984,-0.16112317144870758,-0.3462969958782196,-0.13584758341312408,-0.045338962227106094,0.10434190183877945,-0.15084291994571686,0.11911436170339584,0.1271842122077942,-0.047042131423950195,0.3610093891620636,0.18007460236549377,0.19039398431777954,0.31858211755752563,0.5145928263664246,-0.05216275155544281,-0.2827413082122803,-0.1588049829006195,-0.0830456018447876,-0.2632029056549072,-0.08657167106866837,-0.18892431259155273,0.10348045825958252,0.09859040379524231,-0.14266836643218994,0.0652746930718422,-0.07927671819925308,-0.021393194794654846,-0.1769772619009018,-0.2523524761199951,0.04849408194422722,-0.009968671016395092,-0.037208568304777145,-0.03188818693161011,-0.19144588708877563,-0.1851988285779953,0.20577895641326904,0.3387678563594818,0.0723787322640419,-0.006751125678420067,-0.3201681077480316,-0.3015104830265045,0.13576793670654297,-0.009782825596630573,0.30625200271606445,-0.006157110445201397,-0.10000849515199661,-0.41162797808647156,-0.02725984901189804,-0.05956635996699333,-0.16553810238838196,-0.0684494823217392,0.4169950485229492,0.13008946180343628,-0.042341623455286026,-0.11204970628023148,-0.02079039067029953,-0.09101458638906479,0.09473232179880142,0.0372496098279953,0.26002198457717896,-0.2609771192073822,0.16483069956302643,-0.14267666637897491,-0.08324098587036133,0.038383837789297104,0.20695608854293823,-0.12154232710599899,-0.05327358469367027,0.008705261163413525,0.01875486969947815,0.14399749040603638,-0.12199465930461884,0.10201488435268402,-0.07537481933832169,-0.05924544855952263,0.025055596604943275,0.20518247783184052,-0.09621720761060715,0.09776925295591354,0.03597481921315193,0.11261158436536789,-0.1031198650598526,0.0013438849709928036,-0.17296038568019867,0.11813323199748993,-0.04436790198087692,-0.2865569591522217,-0.08334103971719742,0.006554675754159689,0.20240814983844757,-0.5415213108062744,0.03730352967977524,-0.23731179535388947,-0.11003489047288895,0.18560761213302612,-0.11797554790973663,-0.16631820797920227,-0.21332606673240662,0.153828427195549,0.1928727626800537,0.2737441062927246,0.038679637014865875,-0.3247452676296234,0.10542486608028412,-0.025299491360783577,-0.14529730379581451,0.16799384355545044,0.035202063620090485,-0.08242415636777878,-0.06849804520606995,-0.3380470275878906,-0.036015354096889496,0.3312545716762543,0.15046079456806183,0.03181413188576698,-0.20088578760623932,-0.2670183479785919,-0.10409164428710938,0.04449468478560448,0.03302394598722458,0.014606792479753494,0.09581514447927475,-0.03129080310463905,0.06392347812652588,-0.1937161535024643,-0.14635851979255676,-0.0182381272315979,0.11759348958730698,0.08119082450866699,0.08578211069107056,0.003404261777177453,-0.11807479709386826,-0.03318285569548607,-0.0072388737462460995,-0.13585777580738068,0.11565207690000534,0.058180805295705795,0.08110448718070984,-0.15741702914237976,-0.25834420323371887,-0.11649882048368454,-0.01680288091301918,0.18059754371643066,0.15494300425052643,0.04872293397784233,-0.0915893167257309,-0.029286248609423637,0.20957404375076294,0.1370311975479126,-0.11001625657081604,0.07353325188159943,0.10798581689596176,-0.21509423851966858,0.0038129871245473623,0.1065870076417923,0.17903010547161102,0.23975956439971924,-0.3803345263004303,-0.10036332905292511,-0.10666418820619583,0.15597502887248993,0.06354404985904694,-0.07475382834672928,-0.11181836575269699,-0.26696985960006714,-0.18046529591083527,0.16868500411510468,-0.1504039764404297,-0.22308045625686646,0.05459236726164818,0.11461404711008072,-0.08973229676485062,-0.3241210877895355,-0.057706382125616074,-0.09279396384954453,0.27409830689430237,0.02297169342637062,-0.0020732139237225056,-0.0951693132519722,-0.16772496700286865,0.1409052014350891,0.2058279663324356,0.018177052959799767,-0.22054366767406464,0.11252328008413315,0.06802653521299362,0.11182144284248352,0.04323265329003334,-0.016286715865135193,0.26689383387565613,-0.23131564259529114,0.20406493544578552,0.08872246742248535,0.061213213950395584,-0.18087275326251984,-0.18633756041526794,-0.32108351588249207,-0.06585350632667542,-0.0963158831000328,0.15768201649188995,-0.03285354748368263,0.04384974017739296,-0.07773258537054062,-0.1301160305738449,0.04367484897375107,0.3183264434337616,-0.017422260716557503,0.0845637321472168,-0.18184015154838562,-0.0911824032664299,-0.03565395995974541,-0.09242638945579529,-0.07992561906576157,0.1896049827337265,-0.09340111166238785,0.1315663456916809,-0.07878705859184265,-0.2449081540107727,-0.16761447489261627,0.07477845996618271,-0.05066773667931557,0.15439313650131226,0.04966946691274643,-0.06850721687078476,-0.18858636915683746,0.19928531348705292,-0.012616770341992378,0.03058859333395958,0.07029218226671219,0.001929871621541679,-0.23950815200805664,0.24215416610240936,-0.09528184682130814,-0.5223792195320129,1.086199164390564,-0.10502594709396362,-0.30899181962013245,-0.1434299349784851,0.11666321754455566,0.18831372261047363,0.015156404115259647,0.17870590090751648,-0.4970172941684723,-0.020948205143213272,0.6416985988616943,-0.5802500247955322,0.31366583704948425,0.22215910255908966,0.06815225630998611,-0.03005068190395832,0.2173384130001068,0.0598616860806942,0.15300141274929047,-0.2921181321144104,-0.04404822736978531,-0.1268267035484314,0.14311791956424713,0.161512091755867,0.14718014001846313,-0.027616646140813828,0.08686639368534088,-0.13703608512878418,0.09645280241966248,-0.06870332360267639,-0.013326761312782764,0.09100773930549622,-0.20213690400123596,0.03319691866636276,-0.048037391155958176,-0.1754874885082245,-0.07365601509809494,-0.007285879459232092,0.056134600192308426,0.07167235016822815,0.014040511101484299,-0.06253756582736969,-0.09367958456277847,0.17359116673469543,0.11758273094892502,-0.25932803750038147,0.16602778434753418,0.2732469439506531,-0.451572060585022,0.07226395606994629,-0.10353057086467743,-0.20298969745635986,-0.48892614245414734,-0.16536971926689148,-0.03664354234933853,0.01190782617777586,0.14482760429382324,0.050692878663539886,0.05282820388674736,0.08843175321817398,0.03494725376367569,0.18351086974143982,0.05734092742204666,0.009792504832148552,0.03984833136200905,-0.2776980400085449,-0.06039099022746086,-0.002554175443947315,0.053540848195552826,0.10766955465078354,-0.026541883125901222,-0.21217024326324463,-0.051647499203681946,0.18995586037635803,-0.022539004683494568,-0.059822339564561844,-0.16856195032596588,0.2482549250125885,-0.1265069842338562,-0.12588772177696228,0.12348327785730362,-0.04322327673435211,0.16142620146274567,-0.0041228998452425,0.01633550599217415,-0.0644189789891243,-0.12111558020114899,0.12798240780830383,0.22001655399799347,0.04020398110151291,0.040189001709222794,-0.013823280110955238,-0.02715100720524788,0.03318226337432861,-0.049206122756004333,-0.12991838157176971,0.393763929605484,-0.1592983901500702,-0.026866629719734192,-0.1720626801252365,-0.04359259456396103,-0.1244083121418953,0.26348602771759033,0.019593629986047745,0.02864580973982811,-0.042079854756593704,-0.2011869251728058,0.03890698775649071,0.12590238451957703,-0.012900011613965034,-0.2228061854839325,0.19735130667686462,0.32103231549263,0.1113484725356102,0.20423118770122528,-0.026530012488365173,-0.2720828056335449,-0.10043398290872574,0.05894283205270767,0.22172391414642334,0.03173275664448738,-0.021026937291026115,-0.17804044485092163,0.13132941722869873,0.20008575916290283,-0.295634001493454,-0.03217636048793793,0.23920457065105438,0.1503923088312149,-0.0181710384786129,-0.24499176442623138,-0.2732373774051666,0.08877871185541153,0.05901770293712616,0.2535846531391144,-0.08789610117673874,-0.19184021651744843,-0.2961370348930359,-0.025770366191864014,0.22341053187847137,-0.20791681110858917,0.09485447406768799,0.05367385968565941,0.3093484342098236,-0.13019753992557526,-0.3411499261856079,-0.1538001149892807,0.08685649931430817,0.16402867436408997,0.1124090924859047,0.07813271135091782,0.019679350778460503,0.03448081389069557,0.3282542824745178,0.052058443427085876,-0.0984630361199379,-0.03980498015880585,0.1595253050327301,0.02326245792210102,-0.06981699913740158,0.09267912805080414,-0.10652467608451843,0.4935232698917389,0.0601973831653595,-0.1293211281299591,-0.16216856241226196,0.007913787849247456,0.18987491726875305,0.10435264557600021,-0.2828023433685303,-0.0031182169914245605,0.05093061178922653,-0.062113381922245026,0.06909822672605515,0.7798550724983215,0.5333311557769775,0.810397207736969,-0.9768199324607849,-0.7242295742034912,-0.048634931445121765,0.07840751856565475,-0.02743525058031082,0.2583827078342438,0.3379179537296295,-0.831866979598999,0.524004340171814,-0.03308986499905586,-0.8640164136886597,-0.11489026993513107,-0.01352749578654766,-0.17384403944015503,-0.17024266719818115,0.1401335597038269,-0.17677611112594604,0.0703340545296669,0.28914937376976013,0.034060925245285034,-0.2987907826900482,-0.41183149814605713,-0.02170947752892971,-0.1560235619544983,0.019737347960472107,0.07736576348543167,-0.03671834245324135,0.2068498581647873,-0.06412827968597412,-0.24427221715450287,-0.34862127900123596,-0.3060106933116913,0.03469270467758179,0.2063860148191452,0.003181168343871832,0.484769344329834,-0.43162447214126587,-0.09725214540958405,0.037562768906354904,-0.14540894329547882,-0.17279702425003052,0.14680500328540802,0.04961138963699341,-0.04460088163614273,-0.6241520047187805,0.1855277121067047,0.2570894658565521,-0.16961772739887238,-0.18517468869686127,-0.13554833829402924,-0.3628598153591156,-0.23073890805244446,-0.488127201795578,0.41538408398628235,0.03081396594643593,-0.11443581432104111,-0.24912019073963165,0.044005781412124634,0.00096624850993976,-0.14010463654994965,0.3778574466705322,-0.18194861710071564,-0.24245907366275787,-0.04626527056097984,0.27126848697662354,0.38592904806137085,0.2791838049888611,0.26933804154396057,0.11941546201705933,-0.1789238303899765,-0.09451377391815186,0.08536845445632935,-0.3728056848049164,0.21288205683231354,0.21860572695732117,0.022560490295290947,-0.16328395903110504,0.209507018327713,0.028193915262818336,-0.22907565534114838,0.05285975709557533,-0.029543662443757057,0.0708296000957489,0.01791028305888176,-0.2571694254875183,0.015555893070995808,0.08555033802986145,-0.061586685478687286,0.1653081625699997,-0.08905119448900223,0.10286063700914383,-0.1432213932275772,-0.36896583437919617,-0.1831638664007187,0.1823141723871231,0.14887842535972595,0.25277578830718994,-0.13395147025585175,0.08032605797052383,-0.10716978460550308,-0.007002316880971193,0.0026228304486721754,0.1292153298854828,-0.18079443275928497,0.1763049066066742,0.049249663949012756,-0.07737024128437042,-0.28755223751068115,0.1557740867137909,0.14558598399162292,-0.07264181971549988,-0.33319252729415894,0.11295512318611145,-0.6411604285240173,-0.519098162651062,0.8142975568771362,0.16904233396053314,-0.26108792424201965,0.00765334302559495,-0.07596683502197266,0.017893625423312187,0.07629885524511337,-0.17576730251312256,-0.13713552057743073,-0.5345149636268616,0.1427004188299179,0.43886780738830566,0.052935078740119934,0.4072137773036957,0.10758677870035172,-0.054700955748558044,-0.0802973210811615,0.25572696328163147,-0.30807965993881226,-0.26144182682037354,-0.02311800792813301,0.4292568862438202,-0.11032077670097351,0.09830218553543091,0.12759335339069366,-0.22644077241420746,-0.07014197111129761,-0.0019396536517888308,-0.07300304621458054,-0.16487948596477509,0.23255735635757446,-0.08186420798301697,-0.20807044208049774,-0.13835307955741882,0.06077015772461891,-0.061353038996458054,-0.0991082489490509,-0.3420400023460388,0.13800287246704102,0.13388653099536896,0.1478983610868454,0.10279151052236557,0.24449744820594788,0.060359127819538116,0.5469743013381958,-0.16597437858581543,-0.04406909644603729,-0.06480447202920914,-0.20567698776721954,0.1923781931400299,-0.24989564716815948,-0.006642874795943499,0.1922275274991989,-0.2151825875043869,0.1903732270002365,-0.13300561904907227,-0.031341515481472015,0.5590001940727234,0.040537700057029724,0.22749139368534088,-0.3715529441833496,-0.07387734204530716,-0.20550945401191711,-0.03668532893061638,0.16978108882904053,-0.3571988642215729,0.44648703932762146,-0.02988479845225811,-0.42251479625701904,0.04682276397943497,-0.1165982335805893,-0.1408681720495224,-0.04937274381518364,-0.1138877123594284,0.1829039305448532,0.3634319007396698,0.20374025404453278,-0.12593042850494385,-0.24125713109970093,-0.15560440719127655,-0.46093061566352844,0.10568045824766159,-0.15361696481704712,0.07021429389715195,0.3687407374382019,0.28030794858932495,-0.0897921696305275,0.10498322546482086,-0.10822483897209167,0.2731492519378662,0.08611219376325607,0.14813463389873505,-0.2042791098356247,0.014827515929937363,-0.22791895270347595,0.37701043486595154,-0.19304630160331726,-0.27200600504875183,0.17611157894134521,0.1800825446844101,-0.35457494854927063,-0.12178074568510056,-0.20801879465579987,0.15561619400978088,-0.06135592237114906,-0.5323506593704224,0.02919352985918522,0.13495846092700958,0.02446744590997696,0.24855199456214905,0.19492872059345245,0.06395793706178665,0.042755093425512314,-0.037032533437013626,0.19585272669792175,0.35544878244400024,0.10105371475219727,-0.208915576338768,-0.36811575293540955,-0.1529090851545334,-0.18776649236679077,0.019461147487163544,0.2768993079662323,0.12716826796531677,0.18196524679660797,-0.005912513937801123,-0.3997510075569153,-0.24561196565628052,-0.0652526244521141,0.110078826546669,-0.0657743588089943,0.10822709649801254,-0.20970644056797028,0.1031433492898941,0.20313234627246857,-0.1015227884054184,-0.2271733283996582,0.14721465110778809,-0.15810106694698334,-0.05301322788000107,-0.456148624420166,-0.46971413493156433,-0.1100487932562828,-0.14924000203609467,0.23660528659820557,-0.506239116191864,-0.11044343560934067,0.10847873985767365,-0.1361285299062729,-0.24982702732086182,-0.14513689279556274,-0.08143355697393417,0.18223793804645538,0.09613576531410217,-0.19057510793209076,0.06463329493999481,0.26265397667884827,-0.10413429886102676,0.08090200275182724,0.04990047588944435,0.3758092522621155,0.14517246186733246,-0.27041688561439514,0.041417691856622696,0.10315988957881927,0.0009524741326458752,0.2030545473098755,-0.2892061769962311,-0.15788912773132324,0.013797224499285221,0.22672367095947266,-0.03393441066145897,-0.13622701168060303,0.05459517985582352,-0.14106906950473785,0.28011101484298706,0.1015680581331253,0.14915503561496735,-0.3038540482521057,-0.05652118846774101,0.014757383614778519,0.26681119203567505,0.13678745925426483,0.10096268355846405,-0.24603532254695892,0.19967755675315857,0.12618261575698853,-0.10477263480424881,0.05277860537171364,-0.1768845170736313,0.3671269416809082,0.17072632908821106,0.22124022245407104,-0.3734935224056244,-0.07185501605272293,-0.21604692935943604,0.28210917115211487,0.16120389103889465,0.24523812532424927,-0.03915167599916458,0.20842526853084564,0.10291527211666107,-0.27803298830986023,-0.1489412486553192,0.2763115167617798,-0.3638802468776703,0.0255881380289793,-0.12403703480958939,-0.06179634481668472,-0.20784077048301697,-0.3462868630886078,0.06845281273126602,0.24221298098564148,0.05877899378538132,-0.028786612674593925,0.096561960875988,-0.16153547167778015,-0.11917629092931747,-0.20330584049224854,-0.0789361447095871,0.2766337990760803,0.20800137519836426,0.4616340398788452,-0.26641297340393066,-0.13313795626163483,-0.2786044478416443,0.16313162446022034,-0.06944132596254349,0.3697355091571808,-0.2038837969303131,0.20555545389652252,-0.06000600755214691,0.13531211018562317,-0.020506085827946663,-0.09462465345859528,0.20482085645198822,-0.03097357042133808,0.4292304515838623,-0.20797981321811676,-0.0940885916352272,-0.031291358172893524,0.06337922811508179,-0.003548309439793229,0.1819147914648056,-0.13780011236667633,-0.4051632583141327,-0.6131013631820679,0.22610557079315186,0.16195298731327057,-0.15785923600196838,0.14207346737384796,0.018344691023230553,-1.3686609268188477,-0.10221230238676071,0.3039151132106781,-0.05845579504966736,0.2227114886045456,0.16917136311531067,0.49554795026779175,0.0933673158288002,0.12211144715547562,-0.22245413064956665,0.12047781050205231,0.029822731390595436,-0.22077302634716034,0.13366399705410004,-0.06176753342151642,0.017109591513872147,-0.03678255155682564,-0.1296592354774475,-0.10099197924137115,-0.0036529351491481066,-0.14137208461761475,0.0494893342256546,-0.09017382562160492,-0.1243845596909523,-0.10307683795690536,0.001754735829308629,-0.15416648983955383,-0.035034388303756714,-0.24817918241024017,-0.00203061755746603,0.10906635224819183,-0.05812077224254608,-0.12775424122810364,0.2215333729982376,-0.13786274194717407,-0.011178659275174141,0.04745277389883995,-0.17997930943965912,0.16517296433448792,-0.19186924397945404,0.10042902082204819,0.05741887167096138,-0.09425964206457138,-0.0039556678384542465,0.1602480411529541,0.37384116649627686,0.05367124453186989,-0.09616375714540482,0.3218887746334076,0.06655127555131912,-0.11313754320144653,0.08195655047893524,-0.2078147828578949,0.07784546911716461,-0.016523724421858788,0.2567612826824188,0.15192674100399017,0.30559149384498596,0.18054881691932678,0.07237111032009125,-0.06342266499996185,-0.1363483965396881,0.15127550065517426,0.06989268958568573,-0.07609058916568756,-0.0711890235543251,-0.09930363297462463,0.23332467675209045,0.17449453473091125,0.18428872525691986,-0.08935558050870895,-0.004620097111910582,-0.1575721949338913,0.28800585865974426,0.17950411140918732,0.19722582399845123,-0.07131039351224899,0.07142698764801025,0.12420111894607544,-0.18687759339809418,0.0021526976488530636,-0.16936267912387848,0.3920506536960602,0.2259513884782791,0.09507129341363907,-0.5479438900947571,-0.0571121908724308,-0.13742883503437042,0.4377637207508087,-0.0010979778598994017,0.19685551524162292,-0.08592275530099869,0.10830627381801605,0.11908794194459915,-0.06179457902908325,-0.1922246217727661,-0.26662304997444153,-0.3996422588825226,0.09551069140434265,0.029367266222834587,-0.015558779239654541,-0.36303412914276123,-0.3423600494861603,0.24778904020786285,0.1729603260755539,0.1029001921415329,0.11081851273775101,0.1716071218252182,-0.09899162501096725,0.23537595570087433,0.06495962291955948,0.18193860352039337,0.012002240866422653,-0.2842891216278076,-0.17276017367839813,0.17070810496807098,-0.025935092940926552,-0.0057594021782279015,-0.04539437219500542,-0.20290058851242065,0.11107351630926132,0.17266914248466492,-0.12295883893966675,0.035787101835012436,0.12436675280332565,0.2736280858516693,-0.06471000611782074,-0.20204560458660126,-0.301065057516098,-0.11791303753852844,0.056943316012620926,0.11069773137569427,0.04512999951839447,0.09393962472677231,0.0947149246931076,0.06141003593802452,0.2166510671377182,0.5215094089508057,0.2612353563308716,0.0905013158917427,-0.18921421468257904,0.004572479519993067,-0.19680358469486237,-0.0053046406246721745,-0.14921052753925323,0.13114388287067413,-0.01345258392393589,-0.12411025166511536,-0.3526899218559265,-0.6297009587287903,-0.0929398313164711,0.3917335867881775,0.18643860518932343,0.20269346237182617,0.04417501762509346,-0.38243526220321655,0.034755099564790726,-0.17057788372039795,-0.0836661159992218,0.005759210325777531,-0.1501675546169281,-0.11591196060180664,-0.04859219491481781,0.023102842271327972,0.27916061878204346,0.06836040318012238,-0.039130695164203644,-0.11129192262887955,-0.01459573581814766,0.01347311306744814,-0.11868048459291458,-0.1647702157497406,-0.08642546087503433,0.06476016342639923,0.019559744745492935,-0.08038070052862167,-0.08005303144454956,-0.032034020870923996,-0.3093033730983734,0.05674043670296669,0.033002227544784546,-0.08390431851148605,-0.09418218582868576,-0.24571651220321655,0.11241365969181061,-0.2305174022912979,-0.012403864413499832,0.004513132851570845,0.13321928679943085,-0.053628649562597275,-0.2332061380147934,-0.1647394597530365,-0.02174912951886654,-0.019910309463739395,0.1439049243927002,0.005046980921179056,-0.2453387975692749,-0.204537034034729,-0.003247946035116911,0.4319687485694885,-0.026241082698106766,0.19270411133766174,0.011951708234846592,0.09314347803592682,0.11424873769283295,-0.10258440673351288,-0.14101636409759521,0.07405807077884674,-0.02264796383678913,0.06817726790904999,0.1549951732158661,-0.06552217155694962,-0.28296539187431335,-0.11701251566410065,0.025675851851701736,0.0911751240491867,0.010037576779723167,-0.08996633440256119,0.10687752813100815,0.2203526496887207,-0.02024831622838974,-0.058484580367803574,0.03542150557041168,0.19995124638080597,-0.19232265651226044,0.04494577646255493,0.1530389040708542,-0.3186747133731842,-0.09439435601234436,0.10371245443820953,0.021474048495292664,0.040445175021886826,0.004869476426392794,0.37917226552963257,0.1578146368265152,-0.32812628149986267,-0.34726205468177795,0.15843796730041504,0.11898735165596008,0.4194846749305725,-0.044306255877017975,-0.2495330572128296,-0.8738867044448853,-0.08132556080818176,0.2591968774795532,0.6135406494140625,0.05570729821920395,-0.10691341012716293,-0.02568145841360092,-0.12705019116401672,-0.020875370129942894,-0.06191210448741913,0.01486142072826624,0.08169463276863098,0.46309033036231995,0.07160177081823349,-0.3481632471084595,0.32015642523765564,0.5891520977020264,0.15765394270420074,0.09997497498989105,-0.3515748679637909,-0.20795367658138275,-0.09110932797193527,0.20405149459838867,0.02300606109201908,0.3201427161693573,0.0016736288089305162,-0.06608542054891586,0.1865629404783249,-0.14148379862308502,-0.09947822242975235,-0.12053538858890533,0.42132171988487244,0.1266501247882843,0.4612782597541809,-0.11118650436401367,-0.09518376737833023,-0.2988439202308655,0.22020816802978516,0.2144155204296112,-0.7091172337532043,-1.030186653137207,-0.4568929076194763,0.31732475757598877,0.05861692503094673,-0.06836562603712082,-0.31296664476394653,-0.46108922362327576,0.46019989252090454,0.34639066457748413,0.18613459169864655,0.05208196863532066,0.06955887377262115,0.29068025946617126,0.7488794326782227,0.0723552405834198,-0.06083757430315018,0.00544831994920969,0.26819998025894165,0.045202527195215225,-0.16790811717510223,-0.13277561962604523,-0.12672585248947144,0.18286122381687164,0.21631810069084167,0.23877304792404175,-0.14117342233657837,-0.10492398589849472,-0.17476657032966614,0.09582219272851944,-0.09223484992980957,-0.05269133299589157,-0.25322425365448,0.11439668387174606,-0.149067223072052,0.2951766550540924,0.02531369775533676,-0.18597421050071716,0.2703135311603546,0.2673484683036804,0.19779029488563538,-0.24850602447986603,0.10085292160511017,-0.21985995769500732,0.11501172930002213,0.1020229384303093,0.0585673451423645,-0.10442842543125153,-0.32806792855262756,-0.3107742667198181,0.1501861810684204,-0.05311046168208122,0.023030009120702744,0.18462136387825012,-0.052298154681921005,-0.08577124774456024,-0.052858419716358185,0.1485496312379837,0.18649308383464813,0.09891922026872635,0.17205114662647247,0.05468522384762764,0.26521578431129456,-0.06277885288000107,0.10148128122091293,0.03707354888319969,-0.13088656961917877,0.18744441866874695,0.503571629524231,0.15279769897460938,0.15809880197048187,-0.21255134046077728,0.09937438368797302,-0.021799594163894653,0.02908557653427124,0.18269303441047668,0.10153853893280029,-0.12280596047639847,0.015456629917025566,-0.08962924778461456,-0.042777419090270996,0.06257931143045425,0.021927950903773308,-0.2112802118062973,0.11329442262649536,0.205832377076149,-0.20636780560016632,-0.02204376831650734,-0.0000691967798047699,0.29478001594543457,0.16536328196525574,0.1905461996793747,-0.365535706281662,-0.05877368524670601,-0.00283432356081903,0.2902565002441406,-0.05300233140587807,0.11296909302473068,-0.03770899400115013,0.1284351497888565,0.0843915045261383,-0.09755606949329376,-0.10001278668642044,-0.050515539944171906,0.1586601883172989,0.161581888794899,0.03988266736268997,0.0992419645190239,-0.17577257752418518,0.007673658896237612,-0.02738584391772747,0.004902523010969162,-0.12666766345500946,0.28688544034957886,0.061161067336797714,0.12895075976848602,-0.0564018189907074,-0.33015966415405273,0.06571610271930695,0.17239199578762054,-0.04988638311624527,0.012467979453504086,0.07601730525493622,-0.1033996045589447,0.11247368156909943,0.05237923562526703,0.1556810885667801,0.020096156746149063,-0.07031897455453873,-0.2240302711725235,0.043754156678915024,0.2167108952999115,-0.2478174865245819,0.17299656569957733,0.10783837735652924,0.12197557091712952,-0.038610853254795074,-0.48861369490623474,-0.21145527064800262,0.09974352270364761,0.09155794233083725,0.2898401618003845,-0.1400335282087326,-0.14276345074176788,-0.05919640138745308,0.05518875643610954,-0.215193971991539,-0.011590752750635147,0.06780342757701874,0.05051033943891525,0.3285805284976959,0.28672850131988525,-0.1601404994726181,-0.21662269532680511,0.03337404504418373,0.10267310589551926,0.026169536635279655,-0.2961483895778656,-0.03826481103897095,-0.032914575189352036,-0.038386281579732895,-0.15300346910953522,-0.20815159380435944,-0.042609311640262604,0.1989639550447464,0.1751059591770172,-0.12478546798229218,-0.2066379189491272,0.26279619336128235,0.19340059161186218,-0.11104859411716461,0.27043524384498596,0.19382470846176147,-0.2630983591079712,-0.22431392967700958,