{"version": "0.5.1", "metadata": {"date": {"year": 2023, "month": 4, "day": 30, "hour": 14, "minute": 29, "second": 29}, "loudness": -20.063180923461914, "gain": 0.01197653521290631, "name": null, "modeled_by": null, "gear_type": null, "gear_make": null, "gear_model": null, "tone_type": null}, "architecture": "WaveNet", "config": {"layers": [{"input_size": 1, "condition_size": 1, "head_size": 4, "channels": 8, "kernel_size": 3, "dilations": [1, 2, 4, 8, 16, 32, 64], "activation": "Tanh", "gated": false, "head_bias": false}, {"input_size": 8, "condition_size": 1, "head_size": 1, "channels": 4, "kernel_size": 3, "dilations": [128, 256, 512, 1, 2, 4, 8, 16, 32, 64, 128, 256, 512], "activation": "Tanh", "gated": false, "head_bias": true}], "head": null, "head_scale": 0.02}, "weights": [0.024591131135821342, 0.5104305148124695, -0.7925586700439453, -0.6898504495620728, -0.3953429162502289, 0.348798006772995, -0.1253259927034378, 0.8409382700920105, 0.09643159806728363, -0.017065327614545822, 0.13178114593029022, -0.1159135177731514, -0.04489775374531746, -0.2759886682033539, -0.009260367602109909, -0.14022010564804077, 0.22064076364040375, 0.19643832743167877, -0.28426414728164673, 0.051279060542583466, 0.15248359739780426, 0.03108171932399273, 0.10929235816001892, 0.07290002703666687, 0.1105479821562767, -0.13038110733032227, 0.29105138778686523, -0.2757355570793152, 0.0644867941737175, -0.12613840401172638, 0.0735553503036499, 0.039211470633745193, -0.14300794899463654, 0.030535472556948662, -0.2842087745666504, -0.25546759366989136, -0.2943805158138275, 0.24179121851921082, 0.154135599732399, 0.2716902494430542, -0.05211992561817169, -0.041900765150785446, 0.20708465576171875, -0.25388389825820923, -0.09700267016887665, 0.05491797253489494, 0.05713007599115372, 0.06362883001565933, -0.2571464478969574, 0.07463274151086807, 0.13540029525756836, 0.30009955167770386, -0.054063159972429276, -0.03579153120517731, -0.04111681878566742, -0.05985531583428383, 0.08628670126199722, -0.00963409524410963, -0.3305712342262268, -0.1915106326341629, -0.058715153485536575, 0.2516028583049774, -0.034577663987874985, 0.21490414440631866, -0.04814223200082779, 0.06000256538391113, 0.15965420007705688, -0.1146106943488121, 0.19963669776916504, 0.3411575257778168, -0.3245578706264496, -0.1523570418357849, -0.063753642141819, 0.35452404618263245, 0.2220141440629959, 0.2771959602832794, -0.17758481204509735, -0.2631113827228546, -0.1377238929271698, 0.03510506823658943, -0.29759809374809265, -0.005019090138375759, 0.30965155363082886, -0.05636555328965187, 0.23199045658111572, -0.1300308257341385, -0.18137948215007782, -0.2842283248901367, 0.17021070420742035, -0.2684900164604187, -0.11767164617776871, 0.19405558705329895, 0.006696633994579315, -0.1051308810710907, -0.10264484584331512, 0.0137909185141325, 0.29160377383232117, -0.06423503160476685, -0.28118181228637695, -0.26133957505226135, 0.3469685912132263, 0.28556564450263977, 0.1085210070014, -0.14091424643993378, -0.22570949792861938, 0.1233128234744072, -0.237666517496109, -0.15554147958755493, -0.14499405026435852, 0.08085685223340988, -0.08499575406312943, 0.2551915645599365, -0.167195662856102, 0.18267130851745605, 0.27292048931121826, -0.21703000366687775, -0.06581465154886246, 0.13330815732479095, -0.020128095522522926, 0.058825165033340454, -0.04405118152499199, 0.07964244484901428, -0.1377478837966919, 0.17048513889312744, -0.2924917936325073, -0.11811652034521103, -0.18921557068824768, -0.05655164644122124, -0.012353039346635342, -0.21119530498981476, -0.23368006944656372, -0.07692229002714157, -0.06676128506660461, 0.1732744723558426, 0.27177566289901733, -0.08442128449678421, -0.16997602581977844, 0.10543690621852875, -0.02132496051490307, -0.046917010098695755, 0.3069719076156616, 0.05961737409234047, 0.015100994147360325, -0.13045038282871246, -0.10941378027200699, 0.09923785924911499, 0.22022491693496704, -0.12025701254606247, -0.31923341751098633, -0.28135454654693604, -0.12973251938819885, 0.006528337951749563, 0.00090701540466398, -0.05398206785321236, 0.25132060050964355, -0.18221800029277802, 0.3121863007545471, -0.2798149287700653, -0.05797159671783447, -0.26811540126800537, 0.07358074188232422, -0.05339522659778595, -0.36619600653648376, -0.06148304417729378, -0.03193403035402298, -0.17222051322460175, 0.0263957642018795, 0.07988739013671875, -0.010898602195084095, -0.1551990807056427, 0.21576640009880066, -0.1957809180021286, 0.3484378457069397, 0.08661279082298279, 0.0057200659066438675, 0.015032977797091007, -0.3392580449581146, -0.022787967696785927, 0.11009784787893295, 0.21512296795845032, -0.12625648081302643, -0.01930929347872734, -0.23822420835494995, 0.2026134580373764, 0.06514136493206024, -0.3069601356983185, 0.0955076590180397, -0.07327055186033249, -0.5387857556343079, 0.2586158514022827, 0.12867619097232819, 0.5197811126708984, -0.30018118023872375, 0.020881857722997665, -0.5062649250030518, 0.06377094238996506, -0.12870530784130096, 0.45618125796318054, -0.2708887457847595, 0.02423788234591484, 0.04749995470046997, 0.09616384655237198, -0.1597953736782074, -0.14219103753566742, -0.07100166380405426, 0.3029841184616089, -0.20082826912403107, 0.0379166416823864, 0.23304437100887299, 0.17342616617679596, 0.13860878348350525, -0.275128036737442, 0.15367382764816284, -0.06380616128444672, -0.1063171848654747, 0.16916044056415558, -0.2093711495399475, 0.016049599274992943, 0.481699138879776, -0.44978755712509155, 0.21670924127101898, 0.4783743917942047, -0.043083809316158295, -0.017978835850954056, -0.007277167867869139, 0.10578089952468872, -0.3130539655685425, -0.06265655905008316, -0.19955936074256897, -0.0016322816954925656, 0.07067640125751495, 0.2687389552593231, -0.0900070071220398, 0.5660338997840881, 0.3637925684452057, -0.434259295463562, 0.3694106638431549, -0.14563210308551788, -0.35494694113731384, 0.24631018936634064, -0.19341857731342316, 0.27035844326019287, -0.17078745365142822, 0.008703887462615967, 0.15547384321689606, -0.43110954761505127, 0.2768295407295227, -0.205144003033638, -0.35297152400016785, 0.02798139862716198, -0.2091732919216156, 0.08049234002828598, 0.3989011347293854, -0.1848200112581253, -0.31588301062583923, 0.222231924533844, 0.05636228993535042, -0.034700870513916016, -0.2910192310810089, -0.06040168181061745, -0.26850083470344543, 0.052054837346076965, 0.3664013743400574, 0.3176259994506836, 0.4848877787590027, -0.20689891278743744, -0.15571610629558563, 0.00832914374768734, 0.06842327117919922, 0.14370331168174744, -0.0012437795521691442, -0.4746027886867523, -0.006179807707667351, 0.1866956204175949, 0.002113759983330965, -0.3677181303501129, 0.46391546726226807, -0.10811702162027359, -0.15544666349887848, 0.11101571470499039, 0.0248224139213562, -0.15218180418014526, -0.14421798288822174, 0.1390664428472519, 0.06448540091514587, 0.12537313997745514, -0.04288576543331146, 0.12640786170959473, -0.15078146755695343, -0.07910164445638657, -0.11129356175661087, 0.11322052776813507, 0.10802099853754044, -0.035059280693531036, -0.037383995950222015, -0.2513558268547058, 0.16413746774196625, 0.010101200081408024, 0.023445552214980125, -0.035793837159872055, -0.05865290388464928, -0.1102021113038063, -0.035866592079401016, -0.0031607672572135925, 0.013211490586400032, -0.24535204470157623, 0.05849788337945938, 0.0796501412987709, 0.10498189181089401, -0.16471797227859497, -0.13106009364128113, -0.02163943089544773, 0.029671330004930496, 0.11112154275178909, 0.08619514107704163, 0.2775212228298187, -0.22587019205093384, 0.03956374153494835, 0.023587580770254135, 0.3166351020336151, -0.009248360060155392, -0.19742879271507263, 0.02423420362174511, -0.004186720587313175, 0.040362220257520676, 0.4979841709136963, -0.05774783715605736, 0.16252213716506958, -0.04341156780719757, -0.04946456104516983, -0.4214016795158386, -0.13335086405277252, 0.08881023526191711, 0.3550111949443817, -0.11831731349229813, 0.07383035868406296, 0.32381507754325867, 0.18935728073120117, 0.06561252474784851, 0.12233904004096985, 0.0012583052739501, 0.011192532256245613, 0.21742510795593262, 0.25151804089546204, -0.1643749326467514, -0.03380647674202919, 0.10476341098546982, 0.015941742807626724, -0.1771167665719986, 0.25761678814888, -0.1742788553237915, 0.1246270164847374, 0.05431763827800751, 0.16857153177261353, 0.03965318575501442, -0.13493354618549347, -0.04371994733810425, 0.3474666476249695, -0.1424790918827057, 0.032607294619083405, -0.2728603482246399, -0.474895179271698, 0.09062200784683228, 0.21636468172073364, 0.12583701312541962, 0.1638263612985611, 0.009329089894890785, -0.3292290270328522, 0.009941875003278255, -0.14661529660224915, 0.0015918276039883494, 0.009881489910185337, -0.2977011501789093, -0.2556169033050537, -0.19728948175907135, -0.028512177988886833, 0.19502344727516174, 0.038098108023405075, -0.01086789183318615, 0.31796303391456604, 0.004708583001047373, 0.011274010874330997, -0.17841213941574097, 0.4599817395210266, -0.19164715707302094, 0.16870053112506866, 0.28958800435066223, 0.2898775041103363, -0.054688937962055206, -0.05814870819449425, -0.12391383200883865, -0.16393813490867615, 0.01716083101928234, -0.07071034610271454, -0.17243750393390656, 0.2869926393032074, 0.08141235262155533, -0.15350858867168427, 0.0004245327436365187, 0.2824057340621948, 0.06783660501241684, -0.19893930852413177, -0.18972711265087128, 0.3182018995285034, 0.2158437818288803, -0.2838899791240692, 0.2100503146648407, 0.1208462119102478, -0.04878224804997444, -0.09228292852640152, -0.16096334159374237, 0.05508333817124367, 0.06789922714233398, 0.0012653762241825461, -0.04598908871412277, -0.13529737293720245, -0.1805916726589203, -0.10448427498340607, 0.2806449234485626, 0.14714312553405762, 0.18781349062919617, -0.12304821610450745, -0.2108527272939682, 0.12296494841575623, 0.08435876667499542, -0.1240021139383316, -0.44570836424827576, 0.08518610149621964, -0.11191342771053314, 0.2965540289878845, -0.6181490421295166, 0.029454343020915985, 0.4444769024848938, -0.1027158722281456, -0.06991849094629288, -0.16240690648555756, 0.06030183658003807, -0.19847004115581512, 0.29654407501220703, -0.23117023706436157, -0.04133766517043114, -0.24509619176387787, 0.004229010082781315, 0.16942332684993744, 0.030367964878678322, 0.17231079936027527, 0.14361494779586792, -0.05177948623895645, 0.06785821169614792, -0.2326853722333908, 0.06392037123441696, 0.21157673001289368, 0.19113607704639435, 0.25914862751960754, -0.32331544160842896, 0.07477261126041412, -0.17423862218856812, 0.04415973275899887, 0.04620584845542908, 0.10002625733613968, -0.2673659026622772, -0.15237300097942352, -0.1673963963985443, -0.1187129020690918, 0.14731377363204956, -0.06380138546228409, 0.15339523553848267, -0.25338855385780334, -0.2560528814792633, 0.11795226484537125, 0.06019062176346779, 0.344064861536026, 0.05373644828796387, -0.14299537241458893, -0.02978033758699894, -0.037202365696430206, -0.1048106923699379, 0.24930961430072784, -0.28894349932670593, 0.3856942057609558, -0.25304916501045227, -0.0645608901977539, -0.22140882909297943, 0.07188055664300919, -0.02256126143038273, 0.14162304997444153, 0.11871501058340073, 0.041720472276210785, 0.1353076845407486, -0.3656488060951233, -0.29193103313446045, 0.3335414528846741, 0.46580418944358826, -0.6638084053993225, 0.6935038566589355, 0.08159253746271133, -0.38140246272087097, -0.05459092557430267, 0.3720359206199646, 0.3657389283180237, -0.46059107780456543, 0.24635611474514008, 0.26929521560668945, 0.09855028241872787, 0.40579351782798767, -0.3503817617893219, -0.0891314446926117, 0.10352624207735062, 0.048159003257751465, 0.050396956503391266, -0.12537862360477448, 0.4031926095485687, -0.0856584757566452, -0.045764412730932236, 0.04201889410614967, 0.23950017988681793, -0.15634264051914215, 0.04907999187707901, 0.13458560407161713, -0.0951606035232544, 0.228293314576149, 0.0064657703042030334, -0.0610167570412159, -0.028197484090924263, 0.19613401591777802, 0.1020587831735611, -0.1292940080165863, 0.017441393807530403, -0.20330122113227844, 0.1670132577419281, 0.5793441534042358, 0.15553827583789825, -0.3137006461620331, -0.42575082182884216, -0.3304618000984192, -0.28475698828697205, -0.17447635531425476, -0.44334152340888977, -0.019777121022343636, 0.1307472288608551, -0.30467289686203003, -0.2647845149040222, 0.31301191449165344, -0.2893384099006653, 0.19377247989177704, -0.02223861776292324, -0.5222629308700562, 0.1584128737449646, 0.08383549749851227, 0.36113810539245605, -0.4665917754173279, -0.1685228794813156, 0.2219865769147873, -0.28040215373039246, 0.10812444239854813, 0.028840631246566772, -0.2534545958042145, -0.22379978001117706, 0.2532956302165985, -0.03537685051560402, -0.2771749794483185, -0.1773105412721634, -0.01160832867026329, 0.1214367225766182, -0.21946799755096436, 0.22584626078605652, -0.028381526470184326, -0.03676847741007805, 0.21845966577529907, 0.22045758366584778, 0.023563401773571968, 0.10916666686534882, -0.24627064168453217, 0.16320911049842834, -0.04925442859530449, 0.4465399384498596, -0.22196456789970398, -0.2758580446243286, 0.37695202231407166, 0.02847971022129059, -0.06647474318742752, -0.03361017629504204, -0.3757873773574829, 0.06184476241469383, -0.27208730578422546, 0.22490714490413666, -0.00257382751442492, 0.26791131496429443, 0.07620861381292343, 0.23949381709098816, -0.2702658474445343, 0.1269730180501938, -0.2151074856519699, 0.48013365268707275, 0.04108133539557457, 0.2362367808818817, -0.2696722745895386, 0.25456640124320984, 0.14381888508796692, 0.4780642092227936, -0.17212972044944763, -0.24387899041175842, -0.06416736543178558, 0.17342421412467957, -0.13477769494056702, -0.12314015626907349, 0.05891900509595871, 0.024359462782740593, -0.4154863953590393, 0.018030371516942978, -0.07702342420816422, 0.09486156702041626, 0.18794354796409607, 0.23513798415660858, -0.02818155288696289, 0.14895223081111908, 0.09801018238067627, 0.17586037516593933, 0.19937263429164886, 0.032550908625125885, -0.3550562560558319, 0.15184201300144196, -0.07673954218626022, -0.06358166038990021, -0.061808787286281586, -0.27617862820625305, 0.26978909969329834, -0.030544158071279526, -0.3014080226421356, -0.034146230667829514, 0.02419888973236084, 0.19342240691184998, -0.1889043003320694, 0.06796842813491821, 0.013177217915654182, 0.1844428926706314, 0.0617966465651989, -0.08666829019784927, -0.45886582136154175, -0.02259434014558792, -0.07922137528657913, -0.06404069811105728, 0.1587931215763092, -0.19002026319503784, -0.06572704762220383, 0.35104668140411377, 0.11082987487316132, 0.009556569159030914, -0.07827890664339066, -0.018164530396461487, -0.184749037027359, -0.1248677521944046, 0.5233551263809204, -0.11815771460533142, -0.28864744305610657, -0.18259823322296143, 0.26020318269729614, -0.009322752244770527, -0.5564983487129211, -0.08452417701482773, 0.2154594361782074, 0.23385950922966003, 0.3577509820461273, -0.21635010838508606, 0.07558243721723557, 0.15095211565494537, 0.10870634019374847, -0.02305780164897442, 0.12329266965389252, -0.015112732537090778, -0.06059972941875458, -0.10672471672296524, 0.07865669578313828, 0.04363241791725159, 0.0804813951253891, 0.17489802837371826, 0.298684686422348, -0.15154002606868744, 0.22422899305820465, -0.12911240756511688, 0.25493547320365906, -0.41817542910575867, -0.31412097811698914, 0.0010220780968666077, 0.016819939017295837, 0.21277271211147308, 0.10069437325000763, -0.06750187277793884, 0.16775758564472198, -0.08691797405481339, 0.23883797228336334, -0.2686789035797119, 0.2647365629673004, 0.014777383767068386, 0.10532543063163757, -0.3949577510356903, 0.2686648964881897, -0.05527609586715698, -0.06792111694812775, 0.06291672587394714, -0.002200707094743848, 0.02200053259730339, -0.04749887436628342, 0.012622657231986523, 0.1568467617034912, -0.1047871857881546, 0.027652159333229065, -0.016635140404105186, -0.1190539002418518, -0.05226545035839081, 0.19261786341667175, -0.023458873853087425, -0.18704476952552795, -0.44799330830574036, 0.1814526468515396, -0.19296708703041077, 0.15059956908226013, -0.09400703758001328, 0.10347560048103333, -0.15571832656860352, 0.1957428902387619, -0.0860573947429657, -0.10583989322185516, -0.07546976953744888, -0.1159774586558342, -0.12639442086219788, 0.3080756366252899, -0.12969529628753662, 0.453808456659317, -0.19888249039649963, -0.12531830370426178, 0.0025807737838476896, -0.042436737567186356, -0.07086887210607529, -0.07326174527406693, 0.08593378961086273, -0.060307733714580536, -0.22699850797653198, 0.10201722383499146, -0.13616015017032623, 0.015163456089794636, 0.0010413271375000477, 0.2624862790107727, -0.2701510190963745, 0.11778648942708969, 0.29536694288253784, -0.05265049263834953, -0.14474093914031982, 0.07731921225786209, -0.22990842163562775, -0.15723779797554016, -0.06912371516227722, 0.5359767079353333, 0.22362856566905975, -0.11919344961643219, -0.27486976981163025, -0.24921070039272308, 0.09215325117111206, 0.2184203863143921, -0.020642632618546486, 0.052387021481990814, 0.17427639663219452, -0.1516491025686264, 0.15061041712760925, 0.06430570781230927, -0.14710968732833862, -0.05485713109374046, 0.23007431626319885, -0.5402264595031738, -0.21254464983940125, 0.1777915209531784, -0.8149253726005554, 0.6874611973762512, 0.45177149772644043, 0.48624250292778015, -0.6261667609214783, 0.6173614859580994, 0.07966634631156921, 0.48405423760414124, -0.2388571947813034, -0.507652223110199, -0.01295162457972765, -0.2704164981842041, -0.07404123991727829, -0.39171868562698364, -0.399233341217041, -0.11804655939340591, -0.47197961807250977, 0.10426715016365051, 0.18698494136333466, 0.20394012331962585, 0.2037132978439331, 0.5332455635070801, 0.28007856011390686, 0.005431142635643482, -0.06388914585113525, -0.30272719264030457, -0.35409191250801086, -0.19480787217617035, -0.19672220945358276, 0.2069876790046692, -0.2695625424385071, 0.33900564908981323, -0.365774929523468, -0.26772797107696533, 0.14615298807621002, 0.28971827030181885, -0.11972346156835556, 0.13700778782367706, 0.19767986238002777, -0.15218192338943481, -0.032678134739398956, 0.13478995859622955, -0.26374518871307373, 0.01085838582366705, 0.0614817775785923, 0.10479757934808731, 0.5779133439064026, 0.1835435926914215, 0.046649158000946045, 0.3161965012550354, -0.13332532346248627, 0.11604273319244385, -0.30414900183677673, -0.3501034080982208, -0.32637086510658264, -0.023920930922031403, -0.15171942114830017, 0.12350890040397644, 0.09503675997257233, 0.3277766704559326, 0.059063028544187546, 0.014040673151612282, -0.053621359169483185, -0.4704747796058655, 0.20835158228874207, 0.2642408311367035, 0.0901971310377121, -0.0033641131594777107, 0.07405941188335419, -0.01668521761894226, 0.25669151544570923, 0.04767375811934471, 0.11095312982797623, 0.17153137922286987, -0.12779268622398376, 0.18649066984653473, 0.2694907784461975, 0.03547154739499092, -0.08703068643808365, -0.07317322492599487, 0.2087654322385788, 0.03677809238433838, -0.18795496225357056, 0.048443205654621124, -0.30454379320144653, 0.010221744887530804, -0.015409915708005428, 0.08724555373191833, -0.3836407959461212, 0.04130454733967781, 0.10947899520397186, 0.11351974308490753, -0.11850810050964355, 0.2407940775156021, 0.13783833384513855, -0.018220974132418633, 0.06254566460847855, -0.16975770890712738, 0.1293071210384369, 0.062305521219968796, 0.11816111207008362, -0.1883457750082016, -0.10041672736406326, 0.03705735132098198, 0.09334665536880493, 0.16080912947654724, 0.044780418276786804, -0.05896063148975372, -0.05010214075446129, 0.06557358056306839, -0.07629605382680893, -0.3436249792575836, 0.3889109194278717, 0.31706300377845764, -0.019478006288409233, 0.17806269228458405, -0.2669678330421448, -0.14707906544208527, -0.02780342660844326, -0.24703942239284515, 0.40518537163734436, -0.09292034059762955, 0.21770961582660675, -0.10103198885917664, 0.07722391933202744, -0.21762484312057495, -0.0018091435777023435, 0.05252428725361824, 0.1525263637304306, 0.2706916034221649, 0.08793208003044128, 0.09905188530683517, 0.07787759602069855, 0.2250426709651947, 0.049272824078798294, -0.09735030680894852, -0.32482144236564636, -0.06784500181674957, -0.1681331992149353, 0.19147175550460815, 0.2312944531440735, 0.18651773035526276, 0.10636577010154724, 0.1077939122915268, 0.13317078351974487, -0.28021490573883057, -0.11651715636253357, 0.11841148138046265, 0.13281132280826569, 0.18481488525867462, -0.20405209064483643, -0.36125755310058594, -0.06163094565272331, 0.20686514675617218, -0.028794357553124428, 0.08774466812610626, -0.24263803660869598, 0.012506862170994282, -0.013894418254494667, 0.20614369213581085, -0.08458209782838821, -0.1648527830839157, 0.10424207150936127, 0.020198283717036247, 0.2149551510810852, 0.28319859504699707, -0.3010272681713104, 0.1494934856891632, -0.37232983112335205, 0.28839799761772156, -0.1832924783229828, 0.09415118396282196, 0.1593439131975174, -0.07553227245807648, 0.03979409858584404, -0.13909408450126648, -0.25930532813072205, 0.037986062467098236, -0.08227577805519104, -0.05784137547016144, 0.007569450885057449, -0.17064301669597626, -0.10235355794429779, 0.1563216894865036, 0.21061266958713531, 0.09592200070619583, -0.031109455972909927, 0.04903491958975792, -0.019019370898604393, -0.25127968192100525, -0.1937679797410965, 0.3515421152114868, -0.29206833243370056, -0.051655061542987823, -0.19214355945587158, 0.23552998900413513, -0.3364086449146271, -0.06104178726673126, 0.20966386795043945, 0.012112677097320557, -0.04440772160887718, 0.05920260027050972, 0.009882534854114056, -0.10183839499950409, -0.016324354335665703, 0.06816722452640533, -0.01651136577129364, -0.17485083639621735, -0.08117234706878662, 0.06428167223930359, -0.31155017018318176, -0.06573127210140228, -0.4803810715675354, -0.048635564744472504, -0.15168434381484985, -0.2203981876373291, -0.172814279794693, -0.13029351830482483, 0.18241406977176666, 0.048849113285541534, 0.2848862409591675, 0.04141881316900253, -0.10077060759067535, 0.15060439705848694, 0.023750461637973785, 0.06985391676425934, -0.22284816205501556, -0.09728596359491348, -0.22166892886161804, -0.03448793664574623, -0.12953108549118042, -0.0019157923525199294, -0.2998941242694855, -0.18262527883052826, -0.1310282200574875, -0.1988760530948639, -0.18068961799144745, 0.04030926153063774, 0.10942690819501877, 0.0037962705828249454, 0.21987435221672058, -0.02338150143623352, 0.0064150127582252026, 0.056958019733428955, 0.2964344322681427, 0.22816364467144012, -0.023099582642316818, -0.2773655354976654, -0.16656775772571564, 0.34922438859939575, -0.07171668857336044, -0.22975504398345947, -0.10389409959316254, -0.12513023614883423, -0.17953373491764069, 0.0014906178694218397, -0.1178257018327713, -0.18160460889339447, 0.07414443045854568, 0.018641116097569466, 0.01120069995522499, 0.26727476716041565, 0.10041756927967072, -0.06247416511178017, -0.04868007451295853, -0.19914023578166962, -0.14365555346012115, -0.08253949135541916, 0.369525671005249, -0.1370844841003418, 0.1840544044971466, -0.09459903091192245, -0.11833050847053528, 0.24423201382160187, 0.046861689537763596, 0.24925854802131653, 0.02499617636203766, -0.7877830862998962, 0.42674994468688965, -0.033685944974422455, -0.5069589018821716, 0.44922715425491333, 0.746956467628479, -0.6738463640213013, 0.3457033336162567, 0.17961649596691132, 0.06042368710041046, 0.11094111204147339, -0.06729699671268463, 0.03302466496825218, 0.28699609637260437, 0.0006237882771529257, 0.39006808400154114, -0.05612262710928917, -0.2770204246044159, -0.06765374541282654, -0.4086347818374634, 0.04676647484302521, 0.19104400277137756, 0.1031847670674324, -0.09165116399526596, 0.0020333926659077406, -0.1887642741203308, 0.23073048889636993, -0.19679267704486847, -0.13832882046699524, 0.018657179549336433, 0.24382176995277405, 0.22380277514457703, 0.17782266438007355, -0.02519271709024906, 0.4090625047683716, -0.08786796033382416, 0.16320879757404327, 0.32575246691703796, 0.2972835302352905, -0.043546903878450394, -0.012631009332835674, -0.060767900198698044, -0.17077979445457458, 0.26040518283843994, -0.0019491360289976, 0.2690863311290741, -0.0835207849740982, -0.025944562628865242, -0.023152140900492668, -0.2346094250679016, -0.014282175339758396, 0.04674684628844261, 0.006849479395896196, -0.050904106348752975, 0.23493216931819916, 0.17978008091449738, -0.2235708236694336, 0.030317209661006927, -0.45612362027168274, -0.43790578842163086, 0.075437031686306, -0.044375140219926834, -0.2745361328125, -0.3831503987312317, -0.25097715854644775, 0.06352978199720383, -0.5050644874572754, -0.21600842475891113, 0.09036876261234283, -0.21985238790512085, -0.28033891320228577, -0.03343764320015907, -0.019969532266259193, -0.2273467481136322, -0.14681370556354523, -0.014272712171077728, -0.30869346857070923, -0.02769656851887703, -0.20070482790470123, -0.1926996409893036, -0.058976177126169205, -0.11683294922113419, 0.1564977467060089, 0.22829872369766235, -0.05410081520676613, 0.004204246681183577, -0.12006431072950363, -0.04095463082194328, 0.1292860209941864, -0.018541764467954636, 0.179771289229393, -0.29320579767227173, -0.1313420832157135, 0.10769376158714294, -0.029401341453194618, -0.17528778314590454, 0.0027278156485408545, -0.05341867730021477, 0.03455362841486931, -0.29997047781944275, -0.11448563635349274, -0.4179275333881378, 0.0819249227643013, -0.05825233459472656, -0.21028493344783783, -0.032020390033721924, 0.44660231471061707, 0.0024189120158553123, -0.05229010060429573, 0.03625071421265602, 0.015899065881967545, 0.06636016815900803, -0.08676403015851974, 0.07348446547985077, 0.0565028078854084, 0.29051998257637024, -0.03914970904588699, -0.06057174503803253, -0.037440113723278046, 0.13557979464530945, -0.44217023253440857, -0.05834558978676796, -0.12495414912700653, -0.1691470742225647, -0.2026476263999939, -0.35129445791244507, -0.007590233348309994, -0.18742826581001282, -0.11493415385484695, -0.011290750466287136, 0.42829349637031555, -0.08635767549276352, -0.11230257898569107, -0.20545750856399536, 0.06276359409093857, -0.09479585289955139, 0.1019337996840477, -0.27481165528297424, 0.025061458349227905, 0.4857235848903656, 0.17850103974342346, -0.1075131967663765, 0.189238503575325, 0.024285387247800827, -0.0876036062836647, 0.5161774754524231, 0.008482111617922783, -0.09548632800579071, -0.32614195346832275, -0.3667401969432831, -0.35336220264434814, -0.5372265577316284, 0.11851595342159271, 0.12787717580795288, -0.22777070105075836, -0.2262721061706543, -0.09355241805315018, 0.13153384625911713, -0.09691411256790161, 0.12473491579294205, -0.2959354519844055, -0.07505125552415848, -0.125279501080513, -0.1601772904396057, 0.1388026475906372, -0.19057106971740723, -0.3150617480278015, -0.24577480554580688, 0.3261326253414154, 0.022811464965343475, -0.07515603303909302, 0.06756611913442612, 0.31999143958091736, 0.2217501401901245, -0.0940847173333168, 0.1156027689576149, 0.006242825649678707, 0.18771721422672272, -0.08451023697853088, 0.06323940306901932, 0.16697204113006592, -0.041112445294857025, 0.1788870096206665, 0.2271612584590912, -0.010769152082502842, -0.2862303853034973, -0.17456978559494019, -0.24395400285720825, 0.07923824340105057, -0.12963230907917023, 0.14964759349822998, -0.07784522324800491, -0.1092928797006607, -0.18420512974262238, 0.10400770604610443, 0.4364956021308899, 0.1464286595582962, -0.30278822779655457, -0.39505282044410706, -0.19478900730609894, 0.30570706725120544, -0.04706712067127228, -0.13783659040927887, 0.064686618745327, -0.006196164060384035, 0.0033482243306934834, 0.1970559060573578, 0.20944516360759735, -0.03288695216178894, -0.11161141097545624, 0.050932858139276505, 0.26322463154792786, -0.11837003380060196, 0.110392265021801, 0.050197698175907135, -0.15312188863754272, -0.044035691767930984, 0.034141749143600464, 0.016477791592478752, 0.32859355211257935, 0.2764156758785248, 0.2787351608276367, 0.20658782124519348, 0.038250282406806946, -0.2059227079153061, -0.17405633628368378, 0.11270327866077423, 0.07126940786838531, 0.32819047570228577, -0.03202170878648758, 0.0636572614312172, 0.06490550190210342, -0.07784824073314667, 0.0641690120100975, 0.03533318266272545, -0.1297914832830429, -0.06477896124124527, -0.14185795187950134, -0.01732301525771618, 0.09801144897937775, -0.08063173294067383, -0.037820614874362946, 0.2001766860485077, 0.16038347780704498, -0.06634045392274857, -0.24382498860359192, -0.01718093454837799, 0.06570441275835037, -0.2191227376461029, -0.15471331775188446, -0.12407953292131424, -0.20824046432971954, -0.14692988991737366, 0.24255947768688202, 0.034292303025722504, 0.2225000113248825, -0.09899096935987473, 0.026398831978440285, -0.12072402238845825, -0.07632216066122055, -0.059398043900728226, 0.06898044794797897, 0.02545871026813984, 0.1129760891199112, -0.13946926593780518, -0.14353226125240326, 0.06480898708105087, 0.273931622505188, -0.12029483914375305, 0.07821881026029587, 0.14706197381019592, -0.06670111417770386, -0.03060467354953289, -0.009980270639061928, -0.09596267342567444, -0.1382961869239807, -0.31190377473831177, 0.15071704983711243, -0.0347110889852047, -0.07709553092718124, -0.1230110228061676, -0.6229491829872131, -0.18543003499507904, -0.7889575958251953, 0.7348589301109314, 0.37205612659454346, -0.4648776650428772, -0.304387629032135, 0.07511699199676514, -0.24197643995285034, 0.03436481952667236, 0.133253812789917, -0.12883001565933228, 0.22645394504070282, -0.21562978625297546, 0.38249436020851135, -0.08804676681756973, 0.009216643869876862, 0.3910925090312958, -0.19096127152442932, -1.494850675953785e-05, 0.20095515251159668, -0.22598765790462494, 0.304582804441452, 0.2616027295589447, 0.23657046258449554, -0.1074969470500946, 0.2388962209224701, -0.09058782458305359, -0.09422718733549118, 0.06538766622543335, 0.016210924834012985, 0.4658280611038208, 0.25770723819732666, -0.4852409362792969, 0.09206081926822662, 0.009369207546114922, 0.05547504127025604, 0.14181533455848694, -0.2890268862247467, -0.3680456578731537, 0.17286266386508942, -0.19800209999084473, 0.21429726481437683, -0.3193642497062683, 0.03017624281346798, -0.1534707099199295, 0.11177480220794678, -0.09866881370544434, 0.09111005812883377, -0.019930804148316383, 0.18136191368103027, 0.37814265489578247, 0.01592457853257656, 0.011883488856256008, 0.029462620615959167, 0.24719639122486115, 0.3559392988681793, 0.15255489945411682, -0.05447949096560478, -0.1764094978570938, 0.1916579008102417, -0.018436249345541, 0.3868549168109894, 0.2001504898071289, 0.5159003734588623, 0.39019984006881714, -0.2088080644607544, 0.09636232256889343, -0.2187310755252838, 0.1085181012749672, -0.09482848644256592, 0.109868124127388, -0.18772117793560028, -0.19821691513061523, 0.11456325650215149, 0.10997280478477478, 0.14776787161827087, 0.24658779799938202, -0.16675223410129547, -0.04387881979346275, -0.0586058609187603, 0.053268156945705414, 0.0592927522957325, 0.25812190771102905, 0.05825004726648331, 0.07303977757692337, -0.03997724503278732, 0.12493693828582764, -0.1551886945962906, 0.03194458782672882, -0.019440270960330963, -0.21367247402668, -0.2983124256134033, -0.0012354992795735598, -0.032961007207632065, -0.295553594827652, 0.08166004717350006, 0.02289362996816635, -0.31517264246940613, -0.16895873844623566, -0.12190662324428558, 0.09146380424499512, -0.1760217249393463, 0.14166900515556335, -0.13054689764976501, -0.004971692338585854, -0.14353595674037933, 0.025699233636260033, -0.26767420768737793, 0.06797356903553009, 0.2271723747253418, 0.2533141076564789, -0.07849231362342834, -0.07724550366401672, 0.3990785479545593, 0.2315247505903244, 0.11508439481258392, -0.11791732907295227, 0.05927541106939316, 0.02451668679714203, -0.3287739157676697, -0.11824449151754379, 0.05934525653719902, -0.25070449709892273, 0.0642377957701683, -0.3051043450832367, 0.08599046617746353, -0.2203352153301239, 0.054697178304195404, 0.19257426261901855, 0.14346995949745178, -0.06692204624414444, -0.13435098528862, 0.029456526041030884, -0.05681590735912323, 0.181207075715065, 0.07994457334280014, 0.21164414286613464, 0.2432999312877655, -0.048537302762269974, -0.26925399899482727, 0.13515055179595947, 0.000752004561945796, -0.4429751932621002, -0.1694345921278, -0.30319586396217346, 0.12226931005716324, -0.2138167768716812, 0.16249090433120728, 0.23531262576580048, -0.19172553718090057, 0.15728488564491272, 0.19493897259235382, -0.16076353192329407, -0.10699815303087234, 0.051351241767406464, 0.33381304144859314, 0.06614329665899277, -0.028783462941646576, 0.04868070408701897, -0.15702039003372192, 0.035901475697755814, 0.1289740800857544, 0.16201117634773254, -0.0004550602752715349, -0.2592417299747467, 0.12901458144187927, -0.12537406384944916, -0.1457986682653427, 0.24088357388973236, 0.21599315106868744, 0.30036696791648865, -0.12495638430118561, 0.0684635192155838, 0.1503412276506424, 0.04975514858961105, -0.07493339478969574, -0.08907056599855423, 0.023064246401190758, -0.16813139617443085, 0.24686138331890106, 0.06323818862438202, -0.05719504877924919, -0.10431837290525436, -0.029157232493162155, -0.09506957232952118, -0.09444734454154968, -0.06465992331504822, 0.12544631958007812, -0.0013364895712584257, -0.10450936108827591, 0.06129216030240059, 0.13398103415966034, -0.050711557269096375, -0.0706615149974823, 0.18347978591918945, -0.06870906054973602, -0.2367585450410843, 0.11813191324472427, 0.09401489049196243, -0.05597260594367981, 0.0631977841258049, -0.06697177141904831, -0.04756280779838562, 0.03645368292927742, 0.022498270496726036, 0.054148297756910324, -0.16564162075519562, -0.10536857694387436, 0.06736337393522263, -0.03958740085363388, 0.27915313839912415, 0.030874310061335564, 0.059005141258239746, 0.38301166892051697, 0.15176482498645782, 0.08092480897903442, -0.05409793555736542, 0.017633609473705292, 0.15360330045223236, -0.2653768062591553, 0.06072155386209488, 0.1857377588748932, 0.30163687467575073, 0.08024069666862488, -0.0485711395740509, 0.03527027741074562, -0.12325980514287949, -0.18564774096012115, -0.16646915674209595, -0.19244039058685303, -0.05294262245297432, 0.017177848145365715, 0.04756884649395943, 0.014427630230784416, 0.21117565035820007, -0.19256854057312012, -0.1555071324110031, -0.16609042882919312, -0.162261500954628, 0.0818428173661232, -0.3709399104118347, -0.07598346471786499, 0.040613479912281036, 0.09093276411294937, -0.15734297037124634, 0.15937145054340363, 0.2430780678987503, -0.036709945648908615, -0.1829501837491989, 0.011167938821017742, -0.04191316291689873, 0.16112498939037323, -0.026062428951263428, 0.14200617372989655, -0.15065328776836395, -0.12006628513336182, -0.21899890899658203, -0.18438199162483215, 0.2759082317352295, 0.1615941971540451, -0.08796058595180511, -0.11639817804098129, -0.02778087742626667, 0.10634820908308029, 0.24902376532554626, 0.223341166973114, -0.01599011942744255, 0.02619808539748192, 0.029196079820394516, -0.07888022065162659, -0.13967269659042358, 0.11046827584505081, 0.006705202627927065, -0.03167147934436798, -0.0064805783331394196, 0.036794357001781464, 0.15861231088638306, -0.00018732831813395023, -0.6241667866706848, 0.04145168885588646, -0.014558951370418072, 0.13414502143859863, -0.3560332655906677, 0.1572384089231491, -0.6094955801963806, 0.375674307346344, 0.10879078507423401, -0.07085219025611877, -0.3210183084011078, 0.12005224078893661, 0.1449834555387497, -0.08227317035198212, -0.22126775979995728, 0.406259149312973, 0.29612216353416443, 0.281371533870697, 0.26802465319633484, -0.0008187565254047513, 0.10968979448080063, 0.08435545861721039, -0.005590545013546944, -0.08034446835517883, 0.11789097636938095, -0.0013439174508675933, -0.20505684614181519, -0.2182948887348175, 0.29209282994270325, 0.5578008890151978, 0.2072238177061081, 0.13005316257476807, 0.23710791766643524, -0.3717838227748871, -0.15640544891357422, -0.4425637125968933, 0.2767478823661804, 0.1298060566186905, -0.17006666958332062, 0.1209690272808075, -0.23853811621665955, -0.27553609013557434, 0.18242906033992767, 0.17176707088947296, -0.13076676428318024, -0.04105488583445549, 0.08347106724977493, 0.2526107132434845, -0.06322991102933884, 0.04756365343928337, 0.22148586809635162, -0.09221698343753815, -0.436497300863266, -0.1539705991744995, 0.11502587050199509, 0.17442581057548523, -0.08515436947345734, 0.1642589420080185, -0.1810034215450287, 0.2877982258796692, 0.2384839653968811, -0.10521658509969711, 0.12487046420574188, 0.055371128022670746, -0.24700959026813507, -0.0013431519037112594, 0.20853516459465027, -0.4829781949520111, 0.1031833291053772, -0.09828899800777435, -0.3746066987514496, -0.10920540988445282, -0.23437075316905975, 0.31877008080482483, -0.04947837069630623, -0.2796022891998291, -0.023825572803616524, -0.1469322293996811, -0.17799927294254303, 0.15590466558933258, -0.3855590522289276, -0.036219432950019836, 0.1432538628578186, -0.05751047283411026, 0.09769825637340546, -0.2101031243801117, -0.02512345463037491, 0.0973118245601654, 0.044159408658742905, 0.15952900052070618, -0.15262247622013092, -0.06732326000928879, -0.14341719448566437, -0.2909279763698578, 0.062133852392435074, 0.2772216796875, -0.06914590299129486, 0.024101193994283676, -0.09459756314754486, -0.06061740219593048, -0.25832700729370117, 0.10481677204370499, 0.0540662556886673, -0.09481819719076157, -0.12922684848308563, -0.055205218493938446, 0.2401490956544876, 0.01997809298336506, 0.0958002582192421, -0.04228151589632034, 0.0829329863190651, -0.033108506351709366, 0.2682616412639618, 0.06674095243215561, 0.35694488883018494, 0.07728826999664307, -0.0046318951062858105, -0.08809314668178558, 0.29942864179611206, -0.0047844648361206055, 0.05148884654045105, -0.05871995911002159, -0.07712315768003464, 0.2069590836763382, 0.031095372512936592, 0.21235930919647217, 0.0026638153940439224, -0.11977849900722504, 0.2489328384399414, -0.051579855382442474, 0.3780009150505066, 0.03224632516503334, -0.024379828944802284, 0.034388281404972076, 0.03225824981927872, -0.01041883509606123, 0.19559423625469208, -0.20382176339626312, 0.19112353026866913, 0.19892646372318268, 0.046106625348329544, 0.02377649024128914, 0.08741062134504318, 0.022554755210876465, 0.14819197356700897, -0.14869703352451324, 0.1558450311422348, -0.024229133501648903, -0.11293786019086838, -0.22822438180446625, -0.11171664297580719, -0.059331346303224564, -0.022181713953614235, 0.05143367126584053, -0.2062646746635437, -0.14824822545051575, 0.17921431362628937, 0.03972785547375679, 0.09166748076677322, 0.11683224141597748, -0.054577164351940155, -0.08825862407684326, -0.27327051758766174, -0.03935903683304787, 0.07932815700769424, 0.10244688391685486, -0.13110202550888062, 0.1102486178278923, -0.15663062036037445, -0.0778290405869484, 0.05099000409245491, 0.14690904319286346, 0.3101724684238434, -0.054352689534425735, 0.021315662190318108, 0.08866868913173676, 0.10065464675426483, -0.10324715822935104, -0.2042144238948822, -0.22431594133377075, -0.13395966589450836, 0.39070236682891846, 0.01136294100433588, 0.0919577032327652, -0.12265724688768387, -0.3161095380783081, -0.13175687193870544, -0.36161062121391296, 0.10140445083379745, 0.0824124664068222, -0.05039827898144722, -0.13183395564556122, -0.08064808696508408, -0.12748637795448303, 0.07869372516870499, 0.11645699292421341, 0.15498916804790497, -0.02176656387746334, -0.044894978404045105, 0.2995781898498535, -0.017145195975899696, 0.1651400625705719, -0.2378554493188858, 0.1330149918794632, 0.14974431693553925, 0.2383272349834442, 0.13612592220306396, 0.08614856749773026, -0.040883034467697144, -0.14965680241584778, -0.0650751143693924, -0.20751316845417023, 0.03477924317121506, -0.02037692628800869, -0.039508890360593796, -0.02065696194767952, -0.05123266950249672, 0.023991907015442848, 0.19085247814655304, 0.07290466874837875, -0.06443536281585693, -0.041753266006708145, -0.06284265965223312, -0.16667990386486053, 0.1543247252702713, -0.02450358122587204, 0.13264089822769165, -0.2179737240076065, 0.2522669732570648, 0.20308908820152283, 0.009180932305753231, 0.10405787080526352, -0.13253140449523926, -0.16680186986923218, 0.17584247887134552, 0.20667602121829987, 0.21573156118392944, -0.07503864169120789, 0.08411253243684769, -0.20157672464847565, 0.1268620789051056, 0.08083236962556839, 0.07247679680585861, -0.0032927694264799356, -0.048732295632362366, -0.017079290002584457, 0.05913742631673813, 0.045957811176776886, 0.1338382512331009, 0.04118850827217102, -0.10847626626491547, 0.1493559181690216, -0.025117961689829826, 0.4762874245643616, 0.2136174738407135, 0.07266050577163696, -0.30551791191101074, -0.401732474565506, -0.16214637458324432, -0.11724618822336197, 0.0719328299164772, 0.031801510602235794, -0.06590586155653, 0.07530801743268967, 0.1726500689983368, 0.08648531883955002, -0.06346287578344345, -0.33618876338005066, 0.24817366898059845, -0.2549789845943451, 0.027196573093533516, 0.09707866609096527, 0.24165749549865723, -0.23621255159378052, -0.2252495288848877, -0.16184990108013153, 0.0922289490699768, -0.17174266278743744, 0.017066864296793938, -0.06490744650363922, -0.33687081933021545, -0.38710659742355347, -0.12668362259864807, 0.8279210329055786, 0.9593397974967957, 0.0556897409260273, -0.9984710812568665, -0.40617308020591736, -0.2757665514945984, -0.14252084493637085, 0.1635722666978836, 0.2815796434879303, 0.24093855917453766, 0.12445056438446045, -0.15689359605312347, 0.08233707398176193, 0.02151203341782093, -0.14169102907180786, 0.016595913097262383, -0.1384570151567459, -0.4082116186618805, 0.21227413415908813, 0.019299238920211792, -0.3547442555427551, 0.22561506927013397, -0.24173420667648315, 0.09274491667747498, 0.45985352993011475, 0.08958423882722855, 0.11687270551919937, 0.11585196852684021, 0.2718488276004791, -0.13923220336437225, -0.2407919466495514, 0.05617969110608101, 0.27955198287963867, -0.07776298373937607, -0.027631498873233795, 0.1205824464559555, 0.2403583526611328, -0.019483761861920357, -0.05252240598201752, -0.33199962973594666, -0.25496599078178406, 0.04961211979389191, 0.09634032845497131, 0.22775767743587494, 0.08448462933301926, 0.16421735286712646, 0.1828901320695877, -0.3054841458797455, -0.27641573548316956, -0.2715951204299927, -0.08208354562520981, -0.20900748670101166, -0.30113908648490906, 0.08649250864982605, 0.1788419932126999, 0.07364668697118759, 0.15096333622932434, 0.1600031554698944, -0.31919968128204346, -0.04394017159938812, -0.007315086200833321, 0.20477956533432007, -0.07904473692178726, -0.020847411826252937, -0.25439539551734924, 0.23032447695732117, -0.1577642261981964, -0.061069149523973465, 0.20019948482513428, 0.3520706295967102, 0.0014495955547317863, -0.19590827822685242, 0.28475087881088257, -0.1227903664112091, -0.06435122340917587, -0.2646191418170929, -0.10956316441297531, 0.023494737222790718, 0.18713437020778656, 0.042220618575811386, -0.45817452669143677, -0.13085559010505676, -0.5421022176742554, 0.21318894624710083, -0.454527884721756, 0.46899110078811646, 0.6910125017166138, 0.310431569814682, -0.5562623143196106, -0.5367106199264526, -0.4749514162540436, 0.3124164640903473, -0.24069885909557343, 0.5023818016052246, 0.33988699316978455, 0.5460627675056458, -0.7004944086074829, -0.1787673681974411, 0.06977249681949615, -0.13527241349220276, -0.5148783922195435, -0.07707018405199051, -0.4447617828845978, -0.5500703454017639, 0.5990266799926758, 0.2945076823234558, 0.28588199615478516, -0.3195643723011017, 0.5921944379806519, 0.3096214830875397, -0.04193922504782677, 0.08660825341939926, 0.20934414863586426, 0.14151231944561005, -0.05160688981413841, -0.1014445498585701, 0.09510038048028946, -0.4119916260242462, 0.5412583351135254, -0.39436113834381104, 0.015043710358440876, -0.3123505711555481, 0.047030121088027954, 0.30356961488723755, 0.146890789270401, -0.1759265959262848, 0.45740029215812683, -0.23710384964942932, -0.2582107484340668, -0.22357675433158875, -0.2157486528158188, -0.003878834657371044, 0.04744219034910202, 0.2708248198032379, -0.06535357236862183, 0.3489833176136017, -0.13330939412117004, -0.16525180637836456, 0.44877591729164124, -0.3297257721424103, 0.24072207510471344, -0.007826657965779305, -0.07118680328130722, 0.2237078696489334, 0.06157650053501129, 0.11905941367149353, -0.47004586458206177, -0.022549310699105263, -0.02248351089656353, -0.5570205450057983, -0.03291954845190048, 0.010743215680122375, 0.5143152475357056, -0.06152358651161194, 0.12886033952236176, 0.3385305106639862, 0.21600207686424255, -0.1818697452545166, -0.19126072525978088, 0.04434574767947197, 0.054748427122831345, -0.08055617660284042, -0.02741401642560959, -0.045262411236763, 0.08955831080675125, 0.006583666428923607, 0.15926142036914825, -0.0214194618165493, 0.4226265251636505, 0.20931920409202576, -0.06028332933783531, 0.13542121648788452, 0.07492733746767044, -0.09575261175632477, 0.1146404966711998, -0.026976998895406723, -0.08498313277959824, -0.07213057577610016, 0.023514069616794586, 0.15341763198375702, 0.04542379826307297, -0.2041025012731552, 0.2795368731021881, -0.05858752876520157, -0.144156813621521, 0.060249727219343185, 0.06638820469379425, -0.023845994845032692, -0.23010927438735962, 0.015896886587142944, -0.18815922737121582, -0.15927913784980774, 0.2901189625263214, 0.010330275632441044, -0.2028898149728775, -0.6594831943511963, 0.4510129988193512, -0.21574090421199799, -0.1466098576784134, -0.6456077694892883, -0.3918174207210541, 0.4831923246383667, -0.3126840591430664, -0.12347140163183212, -0.20143921673297882, 0.3853519856929779, 0.27481135725975037, -0.3803761899471283, 0.32097646594047546, -0.3337002992630005, 0.03540630638599396, -0.03803584724664688, -0.09634637832641602, 0.33791524171829224, 0.4003911018371582, 0.040666937828063965, -0.18147410452365875, 0.1645999699831009, 0.08508311212062836, 0.1731829047203064, 0.014096408151090145, 0.2903081476688385, 0.016634127125144005, 0.05696884170174599, 0.03132423758506775, -0.5100362300872803, 0.014579341746866703, 0.062273941934108734, 0.18073725700378418, -0.12325194478034973, 0.03747498244047165, 0.10202821344137192, 0.27392029762268066, 0.0017919458914548159, -0.15809862315654755, 0.19873155653476715, 0.14034077525138855, -0.057381801307201385, -0.08012928813695908, 0.01444642711430788, 0.3142457604408264, -0.1382325440645218, 0.09332400560379028, -0.08479897677898407, 0.07706870883703232, 0.17183448374271393, -0.2462128847837448, 0.11526188999414444, -0.0409671813249588, -0.20290610194206238, 0.047828007489442825, 0.1307964026927948, 0.053015440702438354, -0.004424254409968853, 0.01948774978518486, -0.10981517285108566, -0.26596084237098694, -0.3653128743171692, 0.07684390246868134, 0.20590102672576904, 0.185913547873497, 0.20524033904075623, 0.06764703243970871, -0.09042639285326004, -0.2647377848625183, 0.08828406780958176, -0.22512191534042358, -0.2974821925163269, -0.052855100482702255, 0.6591752171516418, -0.09679722040891647, -0.2611491084098816, 0.19236502051353455, -0.5576667189598083, -0.06595373898744583, 0.0920122042298317, 0.16231893002986908, 0.04386751353740692, 0.28753185272216797, -0.4182237386703491, -0.06940566003322601, 0.5993785858154297, 0.007267569657415152, -0.004974639043211937, 0.15845900774002075, 0.2706022560596466, -0.19908781349658966, -0.19871538877487183, 0.07281181216239929, 0.1638970673084259, -0.012325266376137733, 0.28947070240974426, -0.3982385993003845, -0.28945815563201904, -0.04951334744691849, 0.10423202812671661, 0.18999283015727997, 0.10237303376197815, -0.09809783101081848, 0.03356144204735756, 0.045896369963884354, -0.16913668811321259, -0.08461793512105942, -0.07703328877687454, 0.03887072578072548, 0.18036969006061554, -0.20512180030345917, 0.02254284918308258, -0.12569376826286316, 0.10019564628601074, -0.2644445598125458, 0.2660773694515228, 0.042852774262428284, -0.3493482172489166, 0.22131019830703735, -0.06173704192042351, 0.014474866911768913, -0.08725325763225555, -0.27519556879997253, 0.2501314580440521, -0.047174982726573944, 0.28497573733329773, -0.27151960134506226, 0.30813923478126526, 0.2099902331829071, 0.14637769758701324, -0.06249440461397171, -0.08931219577789307, -0.07939586043357849, -0.402123361825943, -0.21807768940925598, -0.09897922724485397, 0.1464589387178421, 0.08461523056030273, -0.052913766354322433, 0.15533515810966492, -0.32742926478385925, 0.3349231779575348, -0.08229483664035797, 0.07632103562355042, -0.1804882287979126, 0.0707501620054245, -0.05663194879889488, -0.26127228140830994, 0.1955716907978058, 0.9452621936798096, 0.4674989581108093, 1.045154333114624, 0.2315865457057953, -0.20518727600574493, -0.3467511236667633, -0.6107679009437561, -0.30704545974731445, -0.06271761655807495, 0.0027951658703386784, -0.42328470945358276, 0.08115439862012863, 0.26178768277168274, -0.015951458364725113, -0.065298892557621, 0.23729149997234344, 0.4652189612388611, 0.23518964648246765, -0.15121866762638092, 0.031090788543224335, 0.29503121972084045, -0.10053019225597382, -0.31148314476013184, 0.42124196887016296, 0.0760306715965271, -0.32805192470550537, 0.04371889680624008, -0.010475517250597477, 0.022441260516643524, -0.27915287017822266, -0.02541673369705677, 0.002337065525352955, 0.1357620656490326, -0.42498359084129333, 0.4953326880931854, 0.2590988576412201, 0.05002297833561897, 0.17623163759708405, 0.22577159106731415, 0.03926137462258339, -0.2818548083305359, -0.21918287873268127, 0.15674614906311035, -0.19429481029510498, -0.04992805793881416, 0.2869919240474701, 0.13016054034233093, -0.2168792486190796, 0.04519738256931305, -0.08119050413370132, -0.059336043894290924, -0.06814949214458466, -0.3965793251991272, -0.14556701481342316, 0.05561235174536705, -0.2468472719192505, -0.030917732045054436, 0.3488329350948334, 0.11802063882350922, -0.1908208131790161, -0.21286708116531372, 0.14982517063617706, 0.16777248680591583, -0.09637899696826935, 0.2886945605278015, -0.39976441860198975, -0.14359509944915771, 0.3944990038871765, -0.444195955991745, -0.04934510588645935, -0.05804924666881561, -0.09634047746658325, 0.21291255950927734, 0.14251242578029633, 0.1464291661977768, 0.0006592543213628232, -0.7700268626213074, 0.5283852219581604, 0.10750085115432739, -0.6849220991134644, 0.11463969200849533, 0.006609929725527763, 0.09589100629091263, -0.17068971693515778, -0.26102954149246216, 0.5326554775238037, 0.48515501618385315, 0.018024921417236328, -0.8100482225418091, -0.2304440289735794, -0.056538548320531845, 0.48360514640808105, -0.17167891561985016, 0.3917326331138611, 0.4329555034637451, -0.08454146236181259, -0.2894051969051361, -0.38605576753616333, -0.12093295156955719, 0.13116778433322906, -0.16438597440719604, 0.13247455656528473, -0.14760686457157135, -0.2831968367099762, -0.23211170732975006, -0.18429438769817352, -0.19316592812538147, 0.31647706031799316, -0.3467433452606201, 0.3650408387184143, 0.4528607130050659, -0.08836482465267181, 0.3485850691795349, -0.012662393040955067, -0.07792306691408157, -0.02113272063434124, -0.21279893815517426, -0.3365171551704407, -0.09315613657236099, -0.24273239076137543, 0.26796314120292664, -0.1253797858953476, -0.051050394773483276, 0.024246305227279663, 0.01771392673254013, -0.030548661947250366, 0.09980729222297668, -0.3091146647930145, -0.27142512798309326, 0.05712895840406418, -0.14720259606838226, -0.16437552869319916, 0.39111387729644775, -0.3251015841960907, -0.450164794921875, 0.15515078604221344, 0.016092153266072273, -0.2131972312927246, -0.09411279857158661, 0.28041791915893555, 0.2483993023633957, -0.28583958745002747, 0.29150497913360596, 0.2537309229373932, -0.014970876276493073, 0.30326202511787415, 0.0014212261885404587, 0.0642913356423378, 0.048777468502521515, -0.058510199189186096, -0.004658604972064495, -0.31729140877723694, -0.4868623912334442, 0.43486592173576355, 0.1244971752166748, -0.37817689776420593, -0.14495792984962463, 0.41877391934394836, -0.08176888525485992, -0.4860380291938782, 0.719074010848999, 0.24104800820350647, -0.45620203018188477, -0.20271241664886475, 0.7908933758735657, 0.07006418704986572, -0.35825249552726746, 0.2950820326805115, -0.2516326308250427, -0.036555010825395584, 0.05273386836051941, -0.5476343631744385, -0.2754318118095398, 0.0006065358757041395, -0.3589688539505005, 0.4219425618648529, -0.27214404940605164, -0.11220142990350723, 0.09625421464443207, -0.4272853136062622, -0.25526899099349976, 0.09674341976642609, -0.4176640808582306, 0.006285250652581453, -0.049082327634096146, -0.22153468430042267, -0.4965915381908417, 0.019898459315299988, 0.22432449460029602, 0.14185984432697296, -0.21768152713775635, -0.34674960374832153, -0.13463269174098969, -0.1557864099740982, 0.05018897354602814, -0.11297103017568588, -0.1737242192029953, 0.047726064920425415, 0.1270689219236374, 0.26211005449295044, -0.03980221971869469, 0.057726163417100906, -0.19883005321025848, -0.08407539129257202, -0.14335598051548004, 0.171650230884552, -0.09867700934410095, -0.47623300552368164, -0.10359650105237961, -0.06828175485134125, -0.04221776872873306, -0.03757314756512642, 0.09469770640134811, -0.24279943108558655, 0.08865349739789963, 0.16486096382141113, 0.08486362546682358, -0.03756599500775337, 0.3025059103965759, 0.1158367469906807, -0.1999499499797821, 0.1575733721256256, 0.5976376533508301, -0.06354443728923798, 0.015030238777399063, -0.0032503146212548018, 0.26847225427627563, -0.2014033943414688, 0.5181967616081238, 0.070409394800663, 0.039512213319540024, 0.09571487456560135, -0.3344120383262634, 0.40243861079216003, 0.276273638010025, -0.3911871910095215, -0.8096176385879517, -0.06348875164985657, 0.17276564240455627, 0.03940487280488014, 0.33501794934272766, -0.17680761218070984, -0.579487144947052, 0.4587275981903076, 0.09729760885238647, -0.2634696066379547, 0.06526068598031998, -0.29997384548187256, -0.36551621556282043, -0.3764228820800781, 0.21889519691467285, -0.06342200934886932, -0.16314832866191864, 0.07730842381715775, -0.2382333129644394, -0.11266446858644485, 0.15706667304039001, 0.2681828439235687, -0.3525543510913849, -0.13947437703609467, 0.008742154575884342, 0.11263599246740341, -0.2243862748146057, 0.4313344359397888, -0.20945769548416138, -0.11291025578975677, -0.15041056275367737, 0.19413051009178162, -0.12163424491882324, -0.26410695910453796, 0.12963415682315826, 0.2823789417743683, -0.36422866582870483, 0.18813025951385498, -0.06890441477298737, 0.24989230930805206, -0.07528746128082275, -0.1151573583483696, -0.24356108903884888, -0.05577976256608963, 0.16566531360149384, -0.29363253712654114, 0.3224397897720337, 0.045405276119709015, -0.12954890727996826, -0.10803654044866562, -0.4891020953655243, -0.051067888736724854, 0.3497900068759918, -0.11866315454244614, 0.0077274637296795845, -0.14569713175296783, 0.11933209002017975, 0.20371772348880768, -0.008293721824884415, -0.19576089084148407, 0.14254233241081238, 0.07632014900445938, 0.28664350509643555, -0.15050263702869415, -0.12688633799552917, 0.08103591203689575, -0.18693621456623077, -0.16822680830955505, -0.8803013563156128, -0.5703584551811218, -0.7215657830238342, -0.2125406265258789, -0.32558226585388184, -0.23261712491512299, 0.0936521589756012, 0.347930908203125, -0.3249509036540985, 0.1324513852596283, 0.05505469813942909, 0.3230011463165283, -0.14264898002147675, 0.16484405100345612, 0.5221564769744873, 0.4831225872039795, -0.6579936146736145, -0.041361525654792786, 0.0914527028799057, -0.39765697717666626, -0.20916303992271423, -0.28692442178726196, 0.31435126066207886, -0.17734262347221375, 0.03937392681837082, 0.24459438025951385, -0.19895651936531067, 0.00528190890327096, 0.08894551545381546, -0.2973194122314453, 0.16151481866836548, -0.20773015916347504, -0.02687409520149231, 0.08273472636938095, 0.02270461432635784, 0.4051593840122223, -0.3115127384662628, -0.08549275249242783, 0.2535131573677063, -0.15872813761234283, -0.1796613335609436, 0.26572105288505554, 0.08062705397605896, 0.35754701495170593, -0.08550705760717392, 0.06560251861810684, 0.22876958549022675, 0.31235039234161377, -0.023973645642399788, 0.15818071365356445, 0.12061582505702972, 0.05118568241596222, -0.09464174509048462, -0.39244353771209717, -0.23431216180324554, 0.3874693214893341, 0.14480575919151306, -0.11327905207872391, 0.2015942484140396, 0.1444479078054428, 0.35701021552085876, -0.1538654863834381, 0.027759887278079987, -0.25761622190475464, -0.041196059435606, 0.21907563507556915, -0.0031958362087607384, -0.06467381864786148, 0.27262812852859497, -0.2266261875629425, 0.018409300595521927, -0.3461313545703888, -0.3109709620475769, 0.02813737839460373, -0.25132909417152405, -0.1085762083530426, -0.43414148688316345, -0.8059188723564148, 0.5391419529914856, 1.0443564653396606, 0.03880009800195694, -0.004983444698154926, 0.23452334105968475, 0.13643628358840942, 0.07733139395713806, -0.6828600764274597, 0.39909014105796814, -0.39221909642219543, 0.09297896921634674, 0.14098641276359558, -0.3724800944328308, -0.37390148639678955, -0.4687059819698334, 0.044770497828722, -0.11362508684396744, 0.32903730869293213, -0.058593425899744034, 0.4342585802078247, 0.02150869183242321, -0.21601052582263947, -0.16867464780807495, -0.11399460583925247, 0.12266247719526291, -0.04748662933707237, 0.03508349880576134, 0.16950148344039917, 0.06284062564373016, 0.10900609940290451, -0.018840566277503967, 0.07392232865095139, 0.06032053753733635, 0.34050410985946655, 0.09606180340051651, -0.345010370016098, 0.22875629365444183, -0.11836447566747665, -0.21890044212341309, -0.15750087797641754, 0.2696937322616577, 0.26770541071891785, -0.39953362941741943, 0.0727585032582283, 0.0351276621222496, -0.06080936640501022, -0.05867106467485428, -0.041570115834474564, -0.19397981464862823, -0.09283231943845749, -0.11357969790697098, -0.18234793841838837, -0.14098836481571198, -0.08938492834568024, -0.09929689019918442, -0.06344276666641235, 0.11850209534168243, 0.28622305393218994, 0.2885598838329315, 0.15601451694965363, -0.2235519289970398, 0.2749152183532715, -0.14311645925045013, 0.023184482008218765, -0.13668641448020935, 0.2340562641620636, -0.039148133248090744, 0.08621872216463089, -0.41838958859443665, -0.027787042781710625, 0.11309308558702469, -0.10074032098054886, 0.29233649373054504, -0.011787163093686104, -0.5443164110183716, 0.25159788131713867, 0.14906971156597137, 0.125873863697052, 0.3003482520580292, -0.6890373826026917, 0.18375299870967865, 0.38891464471817017, 0.22912181913852692, 0.10637454688549042, 0.14810536801815033, -0.22418026626110077, -0.43204015493392944, 0.05757546052336693, -0.08368311077356339, 0.2909124791622162, 0.3818157911300659, 0.511419951915741, -0.45594435930252075, -0.46585148572921753, -0.3778287470340729, 0.22258925437927246, -0.4161119759082794, -0.48594358563423157, -0.5721147060394287, -0.5242741703987122, -0.024538744240999222, 0.13926184177398682, 0.1380220502614975, 0.1662287712097168, -0.3396306037902832, -0.032966576516628265, -0.32624512910842896, 0.17577773332595825, -0.21191659569740295, -0.2595837414264679, -0.16191726922988892, 0.30438485741615295, -0.20504485070705414, -0.370423823595047, -0.01314760372042656, -0.2899065315723419, 0.03350341320037842, -0.015207264572381973, -0.521195113658905, -0.11637622863054276, 0.005309663247317076, 0.5473033785820007, -0.06448536366224289, -0.3359868824481964, 0.13773246109485626, -0.1042952910065651, 0.21036547422409058, -0.15245018899440765, -0.010031389072537422, -0.1465124934911728, -0.07321382313966751, 0.14986750483512878, 0.22612138092517853, 0.17318883538246155, 0.1871437430381775, 0.2285452038049698, -0.1933736801147461, 0.4169950783252716, 0.20079095661640167, 0.25560498237609863, -0.38859161734580994, -0.06600577384233475, 0.14677731692790985, -0.17982888221740723, -0.12711533904075623, -0.30878204107284546, 0.3378586173057556, -0.21258527040481567, 0.09970629215240479, 0.3321548402309418, -0.09296521544456482, -0.4829954504966736, -0.35590487718582153, 0.46752265095710754, -0.32857006788253784, 0.4105145037174225, -0.5780910849571228, 0.40093058347702026, 0.5251023769378662, 0.28299176692962646, 0.06646915525197983, 0.3999726474285126, -0.523321270942688, 0.7445787787437439, -0.032473161816596985, -0.014429856091737747, -0.012026075273752213, -0.36124882102012634, -0.05420129373669624, 0.2747088670730591, -0.02121339552104473, -0.14335161447525024, 0.22254633903503418, 0.10951193422079086, -0.2914249897003174, -0.22494810819625854, 0.2269568145275116, 0.14050792157649994, -0.19563902914524078, 0.013189389370381832, -0.1147134006023407, -0.12976643443107605, -0.4474111497402191, -0.46227818727493286, 0.0012680370127782226, 0.16599218547344208, -0.22396892309188843, -0.17528308928012848, 0.1853945404291153, -0.011522901244461536, 0.13351039588451385, -0.00023655816039536148, 0.026662377640604973, -0.01944373920559883, -0.28555500507354736, 0.12534652650356293, 0.014220409095287323, 0.06846331059932709, -0.24410080909729004, -0.27889880537986755, 0.25940653681755066, -0.1322423219680786, -0.13101428747177124, 0.1104879081249237, -0.00947717484086752, 0.08184687793254852, -0.0019411352695897222, 0.06808768957853317, 0.051678821444511414, 0.233621746301651, 0.09121610969305038, 0.039009567350149155, -0.010419120080769062, -0.2676767110824585, 0.01038764975965023, 0.33409133553504944, 0.31000369787216187, 0.02187156304717064, 0.16325746476650238, 0.0630832090973854, 0.1735161542892456, -0.3294571042060852, 0.04586196690797806, -0.2074572741985321, -0.3627059757709503, -0.059446074068546295, -0.39817899465560913, -0.20327484607696533, -0.5008123517036438, 0.5254681706428528, -0.12028627842664719, -0.7488929629325867, -0.44267261028289795, 0.049997370690107346, -0.42919084429740906, -0.07361443340778351, -0.2711091935634613, 0.2527560889720917, 0.2509525418281555, 0.22661441564559937, 0.696487307548523, 0.25799626111984253, 0.20406389236450195, 0.3755177855491638, -0.10115544497966766, 0.1092495396733284, 0.438217431306839, -0.2083357721567154, 0.23410427570343018, -0.4208114743232727, -0.26000043749809265, -0.08091727644205093, 0.08583604544401169, -0.24610567092895508, -0.2072419822216034, 0.0921366959810257, 0.10409748554229736, -0.33696869015693665, -0.29410919547080994, -0.07558590173721313, 0.10375148802995682, -0.034678421914577484, -0.21059578657150269, -0.15258567035198212, 0.08959685266017914, 0.0785805806517601, 0.15058337152004242, 0.21925115585327148, -0.03992415964603424, 0.13467176258563995, 0.059212785214185715, -0.2150009423494339, 0.0783248022198677, 0.2752096951007843, -0.10728054493665695, 0.007133578881621361, 0.02134217694401741, 0.26948681473731995, -0.0342341810464859, -0.5082495212554932, 0.15504981577396393, 0.08819349855184555, 0.10757265239953995, 0.08232828974723816, 0.1547524631023407, 0.20492711663246155, 0.22021950781345367, -0.022737661376595497, -0.02177407778799534, -0.11440958082675934, -0.1540202796459198, 0.01387140341103077, -0.23825113475322723, -0.1978997141122818, 0.34268730878829956, -0.3465416133403778, 0.07020530849695206, 0.0590430423617363, -0.3489927053451538, 0.31493985652923584, -0.22983360290527344, 0.060718927532434464, 0.24389809370040894, -0.36323198676109314, 0.7309785485267639, 0.025523461401462555, -0.26395586133003235, -0.7658487558364868, -0.5790824294090271, 0.8126236796379089, 0.057602763175964355, -0.127657949924469, 0.1043734923005104, -0.18728485703468323, 0.8004322052001953, 0.0761692225933075, -0.3123842477798462, -0.919396162033081, 0.5375486612319946, 0.2971166968345642, 0.3082679212093353, -0.20197296142578125, -0.107598215341568, 0.11590718477964401, -0.04881252348423004, 0.2563885450363159, 0.22750136256217957, -0.28602609038352966, 0.2811819612979889, 0.26784777641296387, -0.1624961644411087, -0.11135684698820114, -0.42933329939842224, 0.017588060349225998, 0.04549308121204376, -0.38331538438796997, 0.26295292377471924, 0.28936466574668884, 0.2954801619052887, -0.19482721388339996, 0.021553363651037216, -0.19662633538246155, 0.04622172191739082, -0.2996893525123596, -0.21855834126472473, -0.26649555563926697, -0.03106825053691864, -0.005305419210344553, -0.08941610902547836, 0.20605118572711945, 0.32021623849868774, -0.18812496960163116, 0.1701858937740326, 0.1865556687116623, -0.2792724668979645, -0.11569497734308243, -0.40183839201927185, 0.0839524120092392, 0.044420693069696426, -0.001068645273335278, 0.051862433552742004, 0.34441232681274414, -0.2065557837486267, 0.26438382267951965, -0.1086166650056839, -0.17152704298496246, -0.3340740501880646, 0.27873048186302185, 0.5268701314926147, 0.03188810124993324, 0.3530772030353546, 0.2476143091917038, 0.09745629131793976, -0.2874990999698639, 0.05171984061598778, -0.14395135641098022, 0.18819470703601837, -0.21566715836524963, 0.595068097114563, -0.4629141390323639, -0.58689284324646, -0.8250150680541992, -0.12091034650802612, -0.04836457967758179, -0.23046547174453735, 0.3559243679046631, 0.2869518995285034, -0.44128191471099854, -0.050015389919281006, 0.1681065559387207, 0.4823986291885376, -0.11955636739730835, 0.3069649934768677, -0.028011441230773926, -0.1917715072631836, 0.30598050355911255, -0.4455450773239136, 0.41890019178390503, 0.4994143843650818, -0.1365121603012085, 0.1975109577178955, 0.49860215187072754, 0.45959267020225525, 0.5653221011161804, 0.6462988257408142, -0.6173334717750549, 0.11160753667354584, 0.019999999552965164]}