{"version": "0.5.1", "metadata": {"date": {"year": 2023, "month": 4, "day": 30, "hour": 1, "minute": 21, "second": 14}, "loudness": -11.035195350646973, "gain": 0.18561194862168634, "name": null, "modeled_by": null, "gear_type": null, "gear_make": null, "gear_model": null, "tone_type": null}, "architecture": "WaveNet", "config": {"layers": [{"input_size": 1, "condition_size": 1, "head_size": 4, "channels": 8, "kernel_size": 3, "dilations": [1, 2, 4, 8, 16, 32, 64], "activation": "Tanh", "gated": false, "head_bias": false}, {"input_size": 8, "condition_size": 1, "head_size": 1, "channels": 4, "kernel_size": 3, "dilations": [128, 256, 512, 1, 2, 4, 8, 16, 32, 64, 128, 256, 512], "activation": "Tanh", "gated": false, "head_bias": true}], "head": null, "head_scale": 0.02}, "weights": [0.04894782230257988, 0.30219143629074097, -0.6322949528694153, -0.5533066987991333, -0.33478623628616333, 0.11484444886445999, -0.05336226895451546, 0.6304531097412109, -0.11198322474956512, 0.2506551742553711, -0.06346673518419266, -0.011012512259185314, -0.35940226912498474, -0.13018308579921722, -0.10929758101701736, 0.17457975447177887, 0.08059819787740707, 0.09571423381567001, 0.02979891188442707, -0.08936548233032227, 0.05385887250304222, 0.33241212368011475, -0.05576108768582344, 0.17974475026130676, -0.21216361224651337, 0.03118070587515831, 0.1549963802099228, -0.034453220665454865, -0.12220733612775803, -0.02767438068985939, -0.24925027787685394, 0.18185511231422424, -0.16898436844348907, -0.13491690158843994, 0.1293942630290985, 0.04277699813246727, -0.15093737840652466, 0.11723925173282623, -0.1499374359846115, 0.12693695724010468, 0.06119561567902565, -0.34380030632019043, 0.06360437721014023, -0.13758480548858643, -0.3830171525478363, -0.06838888674974442, 0.18873190879821777, 0.33574923872947693, -0.12549111247062683, -0.07700219005346298, -0.09399686008691788, 0.2453237920999527, 0.16417980194091797, 0.26581722497940063, 0.10925446450710297, -0.17512455582618713, 0.11115098744630814, -0.09028445184230804, -0.3468959927558899, -0.14057853817939758, -0.0022992000449448824, 0.20322753489017487, -0.08333071321249008, 0.16026578843593597, -0.004438592121005058, 0.01038252841681242, 0.10488852858543396, -0.07088494300842285, 0.16509100794792175, 0.2873908281326294, -0.286277711391449, -0.10251818597316742, -0.01477756816893816, 0.3028028905391693, 0.2051752805709839, 0.23197512328624725, -0.10923074930906296, -0.21345536410808563, -0.08088875561952591, -0.0056039500050246716, -0.18881787359714508, 0.13668270409107208, 0.4385131299495697, -0.06146698817610741, 0.059573911130428314, -0.02583315223455429, -0.1776438057422638, -0.11463392525911331, 0.06550566852092743, -0.26326343417167664, 0.05530150607228279, 0.09330001473426819, -0.0013203300768509507, 0.05716386064887047, -0.21092627942562103, -0.0025517940521240234, 0.12178728729486465, 0.03496887534856796, -0.2932363450527191, -0.10562627762556076, 0.2369077056646347, 0.28031235933303833, -0.06628063321113586, -0.04163366183638573, -0.13743819296360016, 0.12607112526893616, -0.290365993976593, -0.18419739603996277, -0.1190672367811203, 0.09095311164855957, -0.053827885538339615, 0.23290348052978516, -0.17816700041294098, 0.21334898471832275, 0.25169995427131653, -0.22726018726825714, -0.019278420135378838, 0.1132458820939064, -0.03936592489480972, 0.02793847769498825, -0.034268077462911606, 0.08226587623357773, -0.08320038765668869, 0.16465313732624054, -0.280874639749527, -0.15026849508285522, -0.16557224094867706, -0.04016175493597984, 0.04882225766777992, -0.15981937944889069, -0.29482635855674744, -0.1646064966917038, -0.0013119052164256573, 0.136883944272995, 0.3577820062637329, -0.15081433951854706, -0.1370946764945984, 0.19406254589557648, -0.09058687835931778, -0.016761736944317818, 0.39886802434921265, -0.010387061163783073, 0.04388894885778427, -0.20910632610321045, -0.044735558331012726, 0.05997910350561142, 0.34404256939888, -0.13640956580638885, -0.27395352721214294, -0.36537277698516846, -0.059749871492385864, -0.02472686767578125, -0.06736255437135696, -0.007240119855850935, 0.18066199123859406, -0.17653097212314606, 0.2644747197628021, -0.23489634692668915, -0.06427761167287827, -0.2227434515953064, 0.029949430376291275, -0.05960044264793396, -0.3227931559085846, -0.10691669583320618, -0.056719835847616196, -0.13066937029361725, -0.010127518326044083, 0.0903041884303093, -0.04227737709879875, -0.09552101790904999, 0.17016330361366272, -0.17208655178546906, 0.27528631687164307, 0.09528926014900208, -0.041104577481746674, 0.0558161586523056, -0.12778118252754211, -0.16392140090465546, 0.25455114245414734, -0.10520883649587631, 0.14572758972644806, -0.11932098120450974, 0.08195401728153229, -0.07172484695911407, 0.17002983391284943, 0.009545689448714256, -0.17688904702663422, 0.029480522498488426, -0.23113682866096497, -0.009575159288942814, 0.2471519410610199, 0.19377318024635315, -0.018269265070557594, -0.07342799752950668, -0.2045883685350418, -0.2073763757944107, -0.026878517121076584, 0.13251429796218872, 0.007849971763789654, -0.08098296076059341, 0.11669699847698212, 0.11881518363952637, -0.09440656751394272, -0.16712604463100433, -0.05245748907327652, 0.1319236308336258, -0.25659480690956116, 0.14124973118305206, 0.3553849458694458, 0.07759423553943634, 0.1069217324256897, -0.1830909699201584, 0.17456600069999695, -0.0804026648402214, -0.07272006571292877, 0.0587632954120636, -0.26680731773376465, -0.3261566758155823, 0.41699880361557007, -0.3827512562274933, 0.12633481621742249, 0.41571158170700073, 0.04983333498239517, -0.026202557608485222, -0.3382115662097931, 0.2055404633283615, -0.2955954074859619, -0.09621352702379227, -0.20693764090538025, -0.05683082342147827, -0.015260763466358185, 0.25929421186447144, 0.20093397796154022, 0.32704588770866394, 0.336446613073349, -0.28691601753234863, 0.3892821967601776, -0.2899077534675598, -0.17045539617538452, 0.12967930734157562, 0.16408972442150116, 0.2420208752155304, -0.035021569579839706, -0.03393467143177986, 0.33296531438827515, -0.3449247181415558, 0.24213279783725739, -0.25870490074157715, 0.00650427769869566, -0.021751414984464645, -0.10753503441810608, 0.012052586302161217, 0.43320396542549133, -0.09698739647865295, -0.27353906631469727, 0.007844917476177216, -0.4301747679710388, 0.06257441639900208, -0.22114157676696777, -0.2113913893699646, -0.33285951614379883, 0.16842420399188995, 0.3427463173866272, 0.12796418368816376, 0.09756447374820709, -0.11455702036619186, -0.1439826339483261, -0.08307681232690811, 0.2558836042881012, 0.14466562867164612, -0.14639058709144592, -0.09097364544868469, -0.39662933349609375, -0.04771655052900314, -0.2029847949743271, -0.25475120544433594, 0.20518173277378082, -0.12594589591026306, -0.07068917155265808, 0.018369417637586594, 0.04700677469372749, -0.2245546132326126, -0.18169516324996948, 0.2591339349746704, 0.12498155236244202, 0.12183971703052521, -0.015008481219410896, 0.08176017552614212, -0.0757284164428711, -0.10723977535963058, -0.03638317808508873, 0.15923361480236053, 0.15775269269943237, -0.06875914335250854, -0.06302724778652191, -0.186353862285614, 0.12383327633142471, -0.1509048193693161, 0.022990381345152855, -0.0935785174369812, -0.1533856838941574, -0.03235059976577759, -0.05500935763120651, 0.1777615249156952, 0.07232937961816788, -0.13670489192008972, -0.023170609027147293, 0.00429728114977479, 0.11395662277936935, -0.015411308966577053, -0.005847427994012833, -0.028826909139752388, 0.02764185145497322, 0.004141082987189293, -0.12686653435230255, 0.06454464793205261, -0.4010075628757477, 0.1847325712442398, 0.004660353064537048, 0.4347109794616699, -0.20373030006885529, 0.03791065514087677, 0.041710928082466125, -0.05434631556272507, 0.11959635466337204, 0.4277137517929077, -0.07169344276189804, -0.09218423068523407, -0.255072683095932, 0.11814461648464203, -0.1828169971704483, 0.0827503353357315, 0.01007300615310669, 0.3009691834449768, -0.28722232580184937, 0.2901744842529297, 0.2424561083316803, 0.24159368872642517, 0.12628395855426788, 0.08790870010852814, -0.2505643963813782, 0.03485414758324623, 0.04336963966488838, 0.46206873655319214, -0.26342514157295227, 0.028149211779236794, 0.30109742283821106, -0.055853426456451416, -0.11481188982725143, 0.26138070225715637, -0.1694866269826889, 0.13043193519115448, -0.2327418178319931, 0.22693908214569092, 0.15298816561698914, 0.24649271368980408, -0.12074535340070724, 0.1519191861152649, -0.3378376364707947, 0.1421668827533722, -0.14550982415676117, 0.0025353156961500645, 0.08863148838281631, 0.23259051144123077, 0.09232112765312195, 0.12115811556577682, 0.15213008224964142, -0.2905421853065491, -0.10753513872623444, 0.09376543760299683, -0.24040399491786957, 0.07304956018924713, -0.1843329817056656, -0.12685585021972656, -0.23028786480426788, 0.10240532457828522, 0.21901759505271912, 0.1400814652442932, -0.12663626670837402, 0.10441690683364868, 0.20695389807224274, -0.23776903748512268, 0.02260768599808216, 0.15160416066646576, -0.06437753140926361, 0.11809682846069336, 0.1033112034201622, 0.22792036831378937, 0.006903384812176228, 0.06979048997163773, 0.09255576878786087, -0.10189022123813629, -0.029823578894138336, -0.01515964325517416, -0.24570134282112122, 0.2301538586616516, 0.08011356741189957, -0.11082618683576584, -0.07172291725873947, 0.10473188012838364, 0.019116468727588654, -0.06740115582942963, -0.18401999771595, 0.13826356828212738, 0.04766535386443138, -0.15303020179271698, 0.3025769889354706, 0.057236362248659134, 0.0183123629540205, 0.33674028515815735, -0.03272712230682373, -0.07842417061328888, 0.08338510990142822, 0.009203476831316948, -0.1354014128446579, -0.08891776949167252, -0.16423797607421875, 0.1008269265294075, -0.09854880720376968, 0.029488809406757355, 0.0746946632862091, -0.06922860443592072, -0.0760902538895607, 0.2647913098335266, 0.09580518305301666, -0.15277373790740967, -0.13310834765434265, -0.09558369219303131, -0.11159469932317734, -0.13119514286518097, -0.2060205638408661, 0.22184374928474426, 0.3648683726787567, 0.10876784473657608, -0.20983774960041046, -0.22581857442855835, 0.0021202336065471172, -0.1738896369934082, 0.23949581384658813, -0.1491096317768097, -0.15262237191200256, -0.32099080085754395, -0.13634173572063446, 0.12983465194702148, 0.00434456579387188, 0.2322465479373932, 0.01852010190486908, -0.11011245101690292, -0.0016706587048247457, -0.1815490871667862, 0.3769344389438629, 0.18185769021511078, 0.20515692234039307, -0.06245270371437073, -0.15788383781909943, 0.06218290328979492, 0.5015525221824646, 0.1753312200307846, -0.10927943885326385, -0.13512517511844635, -0.0675860047340393, -0.15302200615406036, 0.03126530721783638, -0.3084810674190521, 0.14238734543323517, -0.08273421227931976, -0.08384208381175995, -0.1533176302909851, -0.04867873340845108, -0.13848112523555756, 0.1904282569885254, 0.2854979336261749, 0.29751577973365784, -0.15459123253822327, 0.24833740293979645, -0.3059711158275604, -0.02777031809091568, -0.10230371356010437, -0.07883143424987793, 0.056961409747600555, -0.1152053251862526, -0.06407085806131363, -0.11603280901908875, 0.06839916855096817, -0.14851363003253937, 0.18223755061626434, 0.08913388103246689, 0.12081750482320786, 0.045771267265081406, -0.16690079867839813, -0.15886415541172028, 0.10625512897968292, 0.43234676122665405, -0.5355636477470398, 0.7555796504020691, -0.09278359264135361, -0.3712324798107147, -0.09912285208702087, 0.46535012125968933, 0.23342691361904144, -0.24689874053001404, 0.3033243715763092, 0.24603967368602753, 0.32174161076545715, 0.33109089732170105, -0.3001165986061096, 0.01605154760181904, 0.14797177910804749, -0.26034650206565857, 0.24123390018939972, -0.03833891823887825, 0.31147003173828125, -0.2725374102592468, 0.04258764907717705, 0.1321258246898651, 0.0618969090282917, -0.19340276718139648, -0.2084578275680542, 0.31243348121643066, -0.11487671732902527, -0.039061810821294785, 0.18012933433055878, 0.058719702064991, -0.26788637042045593, -0.18924590945243835, -0.184011310338974, 0.3505031168460846, -0.39815565943717957, -0.10203198343515396, 0.01783110573887825, 0.45906850695610046, 0.25896206498146057, -0.2846713066101074, -0.05986107513308525, -0.43651118874549866, 0.025694027543067932, 0.04166075214743614, -0.5377513766288757, -0.38146424293518066, 0.26631587743759155, -0.04776500537991524, -0.020254842936992645, 0.020937010645866394, -0.14435715973377228, 0.15894897282123566, 0.15958188474178314, -0.29965612292289734, 0.1024411991238594, 0.052327919751405716, 0.41079598665237427, -0.536418616771698, -0.24511924386024475, 0.5036460161209106, -0.2382824420928955, 0.0585755817592144, -0.06547602266073227, -0.32892686128616333, -0.138397678732872, 0.1487904042005539, -0.05867205560207367, -0.2855006158351898, -0.16560062766075134, -0.08341892063617706, 0.048595115542411804, -0.1471291482448578, 0.19981683790683746, 0.005479714833199978, -0.0807267427444458, 0.2555024027824402, 0.3479354977607727, -0.09033697098493576, 0.04531525820493698, -0.23385441303253174, 0.06466291844844818, -0.12622596323490143, 0.28171369433403015, -0.3038251996040344, -0.16918182373046875, 0.20957595109939575, -0.050952792167663574, -0.034154657274484634, 0.03821519389748573, -0.40903612971305847, -0.01640944369137287, -0.17902913689613342, 0.10012590140104294, 0.14076030254364014, 0.15269078314304352, 0.17052818834781647, 0.2479361593723297, -0.1601000726222992, 0.042843762785196304, -0.3191812336444855, 0.4254588186740875, 0.00253767566755414, 0.2251330316066742, -0.3894105851650238, 0.21650215983390808, 0.04181046038866043, 0.17713411152362823, -0.21176300942897797, -0.33206063508987427, -0.08774444460868835, 0.14620301127433777, -0.23959733545780182, 0.1525622457265854, 0.1465350091457367, -0.009209886193275452, -0.2733778953552246, -0.003762492910027504, 0.1170269250869751, -0.09804429858922958, 0.3595174252986908, 0.15606269240379333, 0.009342830628156662, 0.2717127203941345, 0.2021433264017105, 0.2673080861568451, -0.061923228204250336, 0.01449945941567421, -0.285211980342865, 0.3159542679786682, -0.20657779276371002, -0.11707303673028946, -0.18372036516666412, -0.30431246757507324, 0.16471783816814423, -0.10762178152799606, -0.154282346367836, 0.15992221236228943, 0.2931889295578003, -0.06546106934547424, -0.25164568424224854, 0.11080559343099594, 0.14841365814208984, 0.044023871421813965, 0.0878443568944931, -0.17417792975902557, -0.17029337584972382, -0.032462868839502335, -0.15599414706230164, -0.183619424700737, 0.15357673168182373, 0.12606188654899597, 0.14690645039081573, 0.14048917591571808, -0.001985326409339905, -0.00869099423289299, 0.028013207018375397, 0.08617636561393738, -0.004538177978247404, 0.010388054884970188, 0.12814933061599731, -0.433182030916214, -0.2624756991863251, -0.06957819312810898, 0.32392510771751404, 0.02268850803375244, -0.16713088750839233, -0.0811576396226883, -0.05583203211426735, -0.040999189019203186, 0.19189642369747162, -0.07500020414590836, 0.015449272468686104, -0.03128931298851967, 0.12769383192062378, 0.24141424894332886, 0.1492428034543991, 0.1018947884440422, -0.14558041095733643, -0.21555128693580627, 0.06862888485193253, 0.15819232165813446, -0.032716598361730576, 0.29148682951927185, 0.03138471394777298, -0.1930447518825531, 0.2206803262233734, -0.06395424157381058, 0.3347266912460327, -0.264275461435318, -0.1809886395931244, -0.0975944772362709, 0.02433028072118759, -0.007917223498225212, 0.08258558064699173, -0.26115643978118896, 0.2597334086894989, 0.04380562901496887, -0.010036833584308624, -0.27847012877464294, 0.1028725877404213, 0.1990564465522766, 0.1821092665195465, -0.043927151709795, 0.20635023713111877, 0.011782071553170681, -0.0039871144108474255, -0.05990320071578026, 0.1346886307001114, 0.03908303752541542, -0.03554108738899231, -0.2065165638923645, -0.2678133547306061, -0.04814337566494942, 0.0034039956517517567, 0.2170630544424057, 0.018181227147579193, -0.05776424705982208, -0.08505260944366455, -0.28224125504493713, -0.19476722180843353, -0.48308464884757996, 0.21197113394737244, -0.031819071620702744, 0.1802116185426712, 0.11956622451543808, 0.08027900755405426, 0.05155068635940552, 0.1903732419013977, -0.2123279869556427, -0.07167575508356094, -0.02929745987057686, -0.026622094213962555, -0.163450688123703, 0.31776750087738037, -0.11948882043361664, 0.23801849782466888, -0.08193103224039078, -0.07226285338401794, -0.06823799759149551, -0.08987779915332794, -0.08559740334749222, 0.1923835426568985, 0.05994108319282532, -0.12207243591547012, -0.36735132336616516, 0.11827412247657776, -0.10259193927049637, 0.17822979390621185, 0.045902349054813385, 0.2900206744670868, -0.10772489756345749, 0.11489471793174744, 0.42644309997558594, -0.3236331641674042, -0.10932767391204834, 0.1408277004957199, -0.43621838092803955, -0.43852904438972473, 0.012814308516681194, 0.40748387575149536, 0.07461125403642654, 0.07060303539037704, 0.08617188781499863, -0.303128719329834, -0.10375990718603134, 0.007537840865552425, 0.029422977939248085, 0.07103382796049118, 0.1763841062784195, -0.32889029383659363, 0.14980964362621307, -0.03510735183954239, -0.18790453672409058, -0.11192278563976288, 0.14681537449359894, -0.44976183772087097, -0.04525051265954971, 0.11716248095035553, -0.7001444697380066, 0.3708866238594055, 0.3457106947898865, 0.3094056248664856, -0.4852134883403778, 0.3825942575931549, 0.0686330795288086, 0.5479214787483215, -0.3846566081047058, -0.47483256459236145, 0.19121304154396057, -0.10879240185022354, 0.09223851561546326, -0.18081025779247284, -0.11027026176452637, -0.046704985201358795, -0.4164615869522095, 0.0445927232503891, 0.03157837688922882, -0.01525034848600626, -0.11203493177890778, 0.21338023245334625, 0.2829117476940155, -0.1917673945426941, -0.037159115076065063, -0.34862470626831055, -0.18120156228542328, 0.0019508985569700599, 0.07645096629858017, 0.30540356040000916, -0.010826827958226204, 0.5160827040672302, -0.3475206792354584, -0.154783695936203, 0.44349053502082825, 0.25683751702308655, -0.3013193607330322, -0.05959367752075195, -0.3691169023513794, -0.2817286550998688, 0.07524706423282623, 0.0765923261642456, -0.21469637751579285, -0.003462073393166065, 0.3947640061378479, -0.10856915265321732, 0.2535465359687805, 0.005887873470783234, 0.07098955661058426, 0.4730241894721985, -0.04118029773235321, 0.29897254705429077, -0.266883909702301, -0.25051459670066833, -0.6075562834739685, -0.19441290199756622, -0.003490261733531952, 0.2211408019065857, 0.028934048488736153, 0.3948097825050354, -0.011817011050879955, 0.1736976057291031, 0.25766223669052124, -0.2724950611591339, 0.02381644770503044, 0.09582390636205673, -0.0563814677298069, -0.08079884946346283, -0.05642643943428993, -0.0034028664231300354, 0.32457414269447327, 0.03373248130083084, 0.043808698654174805, 0.18748246133327484, -0.11208020895719528, 0.18858440220355988, 0.18839572370052338, -0.2540346086025238, 0.3240862190723419, -0.016925590112805367, 0.20178112387657166, -0.12100374698638916, 0.058946479111909866, 0.061935003846883774, 0.047595322132110596, -0.07435355335474014, -0.09265013039112091, 0.18852421641349792, -0.2923465967178345, 0.027747204527258873, 0.11138003319501877, -0.13885658979415894, 0.19567324221134186, 0.11717171967029572, 0.06120988726615906, -0.16142159700393677, -0.0913231149315834, -0.2429066002368927, 0.20939309895038605, -0.029080217704176903, 0.10395053029060364, 0.03743446618318558, 0.0689496248960495, 0.03616071864962578, 0.016039269044995308, 0.429636687040329, 0.1335008293390274, -0.07231727987527847, -0.17533406615257263, 0.07163763791322708, -0.1328851282596588, -0.3209952116012573, 0.4446442425251007, 0.21825432777404785, -0.09165005385875702, 0.2522462010383606, -0.3198353052139282, 0.20082849264144897, 0.09878801554441452, -0.007506296969950199, 0.13389445841312408, 0.02817334048449993, -0.02221336029469967, 0.4073634743690491, -0.04637627303600311, -0.29442107677459717, 0.08407480269670486, 0.17541904747486115, -0.0017902875551953912, 0.1127791702747345, 0.1271960586309433, 0.23765279352664948, 0.3062379062175751, 0.26088523864746094, 0.05243325233459473, -0.08584758639335632, -0.0018387233139947057, 0.018379123881459236, 0.05318419262766838, -0.022469215095043182, 0.1920476108789444, -0.1654997617006302, -0.004109303466975689, 0.006283716764301062, 0.28989726305007935, -0.4360587000846863, 0.0314372219145298, -0.09853950887918472, 0.026012079790234566, 0.09752427041530609, -0.14190401136875153, -0.31097525358200073, 0.11556749790906906, -0.12808577716350555, 0.013889624737203121, 0.10920337587594986, 0.13517652451992035, 0.04144586995244026, 0.10947712510824203, 0.307768315076828, -0.36677947640419006, -0.25517538189888, 0.15058745443820953, 0.05542029067873955, 0.07908220589160919, -0.02910875342786312, -0.06926228106021881, 0.18865472078323364, -0.40382108092308044, 0.17959879338741302, -0.20427267253398895, -0.3390102684497833, 0.17887680232524872, 0.2093234360218048, -0.2527133822441101, -0.12066525220870972, -0.20854556560516357, -0.09277647733688354, -0.24243393540382385, -0.03267420828342438, -0.09756112843751907, -0.170517697930336, -0.04563059285283089, 0.194013774394989, 0.15436428785324097, 0.1601819396018982, 0.19717524945735931, 0.22476378083229065, -0.33421409130096436, -0.3238506615161896, -0.07796702533960342, 0.14820976555347443, 0.014449466951191425, -0.00847472995519638, -0.3538822829723358, 0.013399980962276459, -0.3540375828742981, -0.0044682021252810955, 0.1470441073179245, 0.017065057530999184, -0.004824499133974314, -0.13132815062999725, -0.10552266985177994, -0.17816053330898285, 0.1823209822177887, 0.07225017994642258, 0.17624841630458832, -0.05734889209270477, -0.045284613966941833, 0.05859461426734924, -0.08233639597892761, 0.26059287786483765, -0.07977691292762756, -0.16876687109470367, -0.09984827041625977, -0.16768144071102142, -0.05978913977742195, 0.4369267523288727, 0.15502996742725372, -0.27979928255081177, -0.013138798996806145, -0.1778474748134613, 0.06212779879570007, 0.18067044019699097, -0.17069153487682343, 0.19326969981193542, 0.08638860285282135, 0.01610538922250271, -0.18422335386276245, -0.04609718546271324, -0.04891487956047058, -0.04816555976867676, -0.1149611845612526, 0.005318911280483007, 0.0495578907430172, -0.4094827473163605, 0.047642335295677185, 0.08421123772859573, 0.013762242160737514, 0.1426813304424286, 0.15835565328598022, -0.21218635141849518, 0.034847062081098557, -0.019690729677677155, 0.24821092188358307, 0.03055865690112114, -0.013871388509869576, -0.10766617208719254, -0.09674164652824402, 0.08858902752399445, -0.0009911268716678023, 0.04889291897416115, 0.2547357678413391, -0.058235421776771545, -0.22607667744159698, -0.026645313948392868, -0.04500783234834671, -0.057609014213085175, 0.14686502516269684, 0.10939782112836838, 0.24466189742088318, -0.1344815045595169, -0.13537968695163727, -0.20639599859714508, -0.05677500367164612, -0.25619935989379883, 0.28488337993621826, -0.21243131160736084, 0.2611204981803894, -0.08134360611438751, 0.20844422280788422, -0.03357420861721039, -0.12917397916316986, 0.042055338621139526, 0.07259839028120041, 0.12066004425287247, 0.12057746201753616, -0.7689341306686401, 0.568524181842804, 0.052444107830524445, -0.3472452759742737, 0.45329099893569946, 0.5104038715362549, -0.44737961888313293, 0.21256324648857117, 0.2569281756877899, 0.014340442605316639, 0.3321613371372223, -0.08015363663434982, -0.0844266265630722, 0.3890054225921631, 0.030665775761008263, 0.2557279169559479, -0.2206522822380066, -0.35893893241882324, -0.4859189987182617, -0.4800998270511627, 0.13454493880271912, 0.5485028624534607, -0.060875359922647476, -0.3403688967227936, 0.08712752908468246, -0.40442705154418945, 0.23460616171360016, -0.10315053910017014, 0.01241677813231945, -0.01741900108754635, 0.05756528675556183, 0.021297404542565346, 0.03747216984629631, -0.3835332989692688, 0.17022857069969177, -0.006762181408703327, 0.14831668138504028, 0.21377906203269958, 0.0010061339708045125, -0.21004386246204376, 0.40217557549476624, -0.28568756580352783, 0.022276852279901505, 0.36160892248153687, -0.2868984043598175, -0.09201068431138992, -0.0048589762300252914, 0.19239233434200287, 0.12937018275260925, -0.3097439706325531, 0.046834927052259445, -0.12639878690242767, -0.21061433851718903, -0.2165747433900833, 0.4651556611061096, 0.3493170738220215, -0.22570349276065826, 0.12373856455087662, -0.4547610878944397, -0.25368261337280273, 0.23352670669555664, 0.06282974779605865, -0.09072534739971161, -0.430767685174942, -0.1036878302693367, 0.1482233852148056, -0.2407376617193222, -0.353805273771286, -0.05777396261692047, -0.3869175314903259, -0.1699262112379074, -0.031091341748833656, -0.007948733866214752, -0.2995535135269165, -0.15061551332473755, -0.09018764644861221, -0.27548784017562866, -0.17186784744262695, -0.22145456075668335, -0.2839277684688568, 0.19694584608078003, -0.42618483304977417, 0.022525176405906677, 0.1989220529794693, 0.09008798748254776, 0.18567600846290588, -0.10881900787353516, -0.3041859567165375, -0.038120023906230927, -0.02435186132788658, 0.09407774358987808, -0.1576402336359024, -0.04174270108342171, -0.04603352025151253, -0.2788940966129303, -0.22520792484283447, 0.30130988359451294, -0.3303079605102539, -0.09357623755931854, -0.18068775534629822, 0.031454555690288544, -0.15187911689281464, 0.6149469017982483, -0.22941049933433533, -0.17841829359531403, -0.17471013963222504, 0.3484418988227844, -0.08795401453971863, -0.062491510063409805, 0.14256501197814941, -0.09611067920923233, 0.031037136912345886, -0.05756990984082222, -0.1596602350473404, -0.1668507158756256, 0.3091011643409729, -0.07657277584075928, -0.2726576328277588, -0.26907506585121155, 0.1293632537126541, -0.03260601684451103, -0.2589024007320404, -0.09675247967243195, 0.22409047186374664, -0.29324978590011597, -0.02603711374104023, 0.09443297982215881, -0.09245859086513519, 0.1016356498003006, 0.11650442332029343, -0.15131279826164246, -0.1465189903974533, 0.0797157734632492, 0.00915076769888401, 0.20246048271656036, -0.1859477460384369, -0.3072318434715271, -0.10413546115159988, 0.012293623760342598, 0.059196535497903824, 0.010891771875321865, 0.009413555264472961, -0.009374185465276241, -0.028844192624092102, 0.027516180649399757, 0.2933879792690277, -0.0023424136452376842, -0.015426717698574066, 0.3518235683441162, -0.08142731338739395, -0.03039160743355751, -0.024713315069675446, 0.03159160539507866, 0.23373806476593018, 0.0468708835542202, -0.20279301702976227, -0.08277770131826401, -0.06945985555648804, -0.017578445374965668, 0.14539805054664612, -0.09873470664024353, -0.02414676547050476, -0.0701204463839531, -0.1528959423303604, 0.2087632268667221, -0.18472662568092346, -0.388278990983963, -0.2116713970899582, 0.1579177975654602, 0.19260035455226898, -0.02085716649889946, 0.012182733044028282, 0.061438363045454025, -0.17554613947868347, -0.1051444411277771, 0.1835731863975525, 0.02292480878531933, 0.16447743773460388, -0.39091986417770386, 0.05625033378601074, 0.2527754604816437, -0.1408824771642685, 0.21978430449962616, 0.06862015277147293, -0.24420037865638733, 0.060887012630701065, 0.08012799173593521, -0.3605763018131256, -0.11727361381053925, 0.08159133791923523, 0.4680182933807373, -0.29093098640441895, -0.09877496212720871, 0.26762497425079346, 0.08370561897754669, -0.06705604493618011, 0.19423216581344604, -0.2067108005285263, -0.14577007293701172, 0.005360709968954325, 0.13708347082138062, 0.09790226072072983, -0.022533895447850227, 0.19925017654895782, 0.1386207789182663, -0.2080005258321762, 0.1334179788827896, 0.08246031403541565, 0.1252484768629074, -0.05666205659508705, 0.19127415120601654, 0.07399582117795944, -0.1256752461194992, 0.12744726240634918, 0.4381771981716156, -0.28130435943603516, 0.06332409381866455, 0.21246828138828278, 0.1361723393201828, 0.1558913141489029, 0.24105939269065857, -0.015431181527674198, -0.1758284568786621, 0.2004505842924118, -0.19719871878623962, -0.24730803072452545, 0.11925216019153595, -0.036014534533023834, 0.18633680045604706, 0.1272861808538437, 0.07629013061523438, 0.09883115440607071, -0.034495193511247635, -0.07458731532096863, 0.016472497954964638, 0.24732370674610138, 0.13000912964344025, -0.2778288722038269, -0.31342628598213196, 0.3147112727165222, -0.029154706746339798, -0.2648027241230011, 0.022164970636367798, 0.23139283061027527, -0.23729687929153442, 0.06763413548469543, 0.006661243736743927, -0.2652394473552704, 0.04440847411751747, 0.07441753894090652, -0.06094624102115631, -0.15143245458602905, -0.008492638356983662, 0.05058904364705086, 0.12253030389547348, 0.22972433269023895, -0.007953759282827377, 0.19580501317977905, -0.04699311777949333, -0.2982041537761688, -0.22175171971321106, 0.2255527824163437, 0.15693026781082153, -0.07090173661708832, 0.005811095703393221, 0.049219828099012375, 0.12020901590585709, 0.12339194864034653, -0.06343729048967361, -0.24394065141677856, 0.07959829270839691, 0.20264658331871033, 0.008966408669948578, 0.040443576872348785, -0.03420792892575264, -0.09575410187244415, -0.09862640500068665, 0.12145541608333588, -0.014316191896796227, -0.04867726191878319, 0.13511189818382263, -0.36733055114746094, -0.3727896213531494, -0.7026286721229553, 0.3904207646846771, 0.08210040628910065, -0.29580071568489075, -0.47071611881256104, 0.18136031925678253, 0.11350180953741074, -0.14783711731433868, -0.0364098884165287, -0.46863511204719543, 0.13204459846019745, 0.1663103699684143, 0.2761884927749634, -0.11956818401813507, -0.3403366804122925, 0.37855008244514465, -0.13216733932495117, 0.27669158577919006, 0.39565250277519226, -0.24111732840538025, 0.2730628550052643, 0.389055073261261, 0.5313054323196411, -0.13697274029254913, 0.06206163018941879, -0.3605147898197174, -0.1592371016740799, 0.203749880194664, -0.03500376641750336, 0.1888788491487503, 0.46450328826904297, -0.0895964652299881, -0.02714817225933075, -0.1075759083032608, 0.3100165128707886, 0.26911988854408264, -0.11483469605445862, -0.3444533348083496, 0.4645175337791443, -0.12967534363269806, 0.13366058468818665, -0.5848677158355713, -0.22658434510231018, 0.14822037518024445, 0.027348285540938377, 0.006239855661988258, -0.024344855919480324, -0.018129859119653702, 0.2641656696796417, 0.3494538366794586, -0.4076429307460785, 0.06198638305068016, -0.16968321800231934, 0.327461302280426, 0.08275981992483139, 0.1249564066529274, -0.048997435718774796, -0.0005085412412881851, 0.2035960555076599, -0.0958738699555397, 0.2902158200740814, 0.3544008731842041, 0.43913382291793823, 0.2029968649148941, -0.3527776300907135, -0.0653948038816452, -0.3438679873943329, 0.30351555347442627, -0.172498419880867, 0.025104818865656853, -0.27605026960372925, -0.258859783411026, 0.0746241956949234, 0.07238969951868057, -0.06155530735850334, 0.24013715982437134, -0.12395663559436798, 0.2101408988237381, -0.3017546534538269, 0.015506120398640633, -0.025781964883208275, 0.20051133632659912, 0.0631699338555336, 0.01160472258925438, -0.2951837480068207, 0.07536192238330841, -0.07057859748601913, -0.3224606513977051, 0.019495300948619843, -0.1519753336906433, -0.45786625146865845, -0.13630899786949158, -0.23041735589504242, 0.19089780747890472, 0.15565146505832672, -0.0017360813217237592, 0.031845055520534515, -0.1404000222682953, -0.4684840738773346, -0.047939855605363846, 0.03942364454269409, 0.28170275688171387, -0.017460104078054428, -0.1321328580379486, 0.04342038929462433, 0.07271336019039154, -0.35249119997024536, -0.11470102518796921, 0.18034780025482178, -0.04988944157958031, -0.00612445455044508, -0.11412229388952255, -0.2998656928539276, -0.1353646218776703, 0.05478421598672867, 0.028506599366664886, -0.12455232441425323, -0.05432722344994545, -0.07366771250963211, -0.03352966904640198, -0.19535768032073975, 0.026859650388360023, -0.32122915983200073, -0.1323242485523224, -0.13026347756385803, -0.031825993210077286, -0.005023562349379063, 0.020983761176466942, 0.1506371945142746, -0.02571645751595497, 0.1152663603425026, 0.11752034723758698, -0.011333584785461426, 0.01466855127364397, -0.16619093716144562, 0.08015568554401398, 0.2364092469215393, 0.233694925904274, -0.16406428813934326, -0.09357014298439026, 0.13948513567447662, 0.37756332755088806, -0.09778231382369995, -0.08802635967731476, -0.04753629490733147, -0.11778229475021362, 0.10027866810560226, 0.43096017837524414, -0.15923815965652466, 0.14092202484607697, -0.002323833294212818, -0.18640778958797455, 0.06557857245206833, 0.2865157425403595, 0.3222869634628296, 0.05471435561776161, -0.05686686560511589, 0.16271048784255981, 0.06771954894065857, 0.2805749177932739, 0.10111800581216812, -0.07724107056856155, -0.03364209458231926, -0.040425725281238556, 0.18819089233875275, 0.07390688359737396, 0.03976860269904137, 0.07116425782442093, -0.028190599754452705, 0.3078324496746063, -0.20528601109981537, -0.03378171846270561, 0.15218797326087952, 0.04894132912158966, 0.02879014052450657, -0.2585752010345459, 0.1224617287516594, -0.08129678666591644, 0.20000985264778137, 0.15073540806770325, 0.0084613636136055, -0.3952096998691559, -0.0837065726518631, -0.04737870395183563, -0.36719897389411926, 0.016182715073227882, 0.08361608535051346, -0.07459612190723419, -0.13814282417297363, -0.07596591860055923, 0.2362329512834549, -0.06884445250034332, -0.010699242353439331, 0.36153966188430786, -0.026461724191904068, -0.41188666224479675, -0.001683302572928369, -0.046744268387556076, -0.053525831550359726, 0.11416849493980408, -0.015085416845977306, 0.09446494281291962, -0.04379641264677048, -0.020404215902090073, -0.08139372617006302, -0.007604057434946299, -0.003928315360099077, 0.18850144743919373, -0.06216379255056381, 0.11959737539291382, 0.06921159476041794, 0.24473531544208527, 0.19787126779556274, -0.30588945746421814, 0.2805790603160858, -0.019339578226208687, -0.2065647393465042, -0.08610774576663971, 0.019396934658288956, -0.4015183448791504, 0.09910406172275543, 0.33243435621261597, 0.14081446826457977, 0.039876487106084824, 0.04708778113126755, -0.4341481924057007, -0.3963872492313385, -0.23444178700447083, -0.17582570016384125, 0.06467203050851822, 0.03345964848995209, -0.36808905005455017, -0.11801397800445557, -0.16325931251049042, 0.07623136788606644, -0.006109679117798805, -0.20977064967155457, -0.04808060824871063, 0.12611998617649078, -0.15927881002426147, -0.0996953547000885, -0.20557667315006256, -0.25864535570144653, 0.028219779953360558, 0.04810137674212456, 0.06647885590791702, -0.11512105911970139, 0.16165073215961456, -0.06159694492816925, -0.015844210982322693, 0.05063985288143158, -0.15363824367523193, 0.11294228583574295, 0.09756629168987274, -0.07242283225059509, -0.17890837788581848, 0.14887908101081848, 0.20172537863254547, 0.06870939582586288, 0.03307786211371422, 0.166490837931633, -0.0070569152012467384, -0.20803335309028625, 0.05355828255414963, 0.003025585785508156, -0.24841849505901337, 0.1491876095533371, 0.17319807410240173, -0.1336008459329605, 0.024571888148784637, 0.17230428755283356, -0.14385642111301422, -0.2406764179468155, 0.037804409861564636, -0.032351069152355194, 0.28942739963531494, 0.07427042722702026, -0.2633160352706909, 0.13750648498535156, 0.05459561198949814, 0.04209298640489578, -0.49630221724510193, 0.014176500029861927, -0.41084420680999756, 0.44392335414886475, 0.1146019920706749, -0.05608194321393967, -0.18204271793365479, 0.008056976832449436, -0.2696741223335266, -0.3651605546474457, -0.18157735466957092, 0.3956151604652405, 0.2627047896385193, 0.267532080411911, 0.17129632830619812, 0.15970128774642944, 0.38064566254615784, 0.21577925980091095, -0.09662031382322311, -0.12794993817806244, 0.20953169465065002, -0.0549452044069767, -0.07250009477138519, -0.29853495955467224, -0.0050477683544158936, 0.28212490677833557, 0.3170274794101715, 0.25176501274108887, 0.1648826152086258, -0.38542303442955017, -0.15396246314048767, -0.3125471770763397, 0.08146409690380096, 0.07623346149921417, -0.1626276820898056, 0.09008811414241791, -0.2755906581878662, -0.2880626320838928, 0.22762846946716309, 0.017795730382204056, -0.5004755854606628, -0.17736363410949707, 0.16838565468788147, 0.34845250844955444, -0.012518715113401413, -0.37629902362823486, 0.21529372036457062, 0.09431245177984238, -0.19154658913612366, -0.01665888912975788, -0.0643872544169426, 0.32163625955581665, -0.24151833355426788, 0.2993369400501251, -0.3445017635822296, 0.35349240899086, 0.4354645907878876, 0.06535942852497101, 0.11982753127813339, -0.06992188096046448, 0.12212278693914413, -0.3201664686203003, 0.22983524203300476, -0.2276601493358612, 0.41049984097480774, -0.2904425859451294, -0.28856533765792847, 0.299357146024704, -0.29211416840553284, 0.28037068247795105, -0.09451375901699066, -0.20563524961471558, -0.0649326741695404, -0.270709365606308, -0.15812209248542786, 0.25906822085380554, -0.16058021783828735, 0.03151259943842888, 0.28806838393211365, 0.08091628551483154, 0.123752661049366, -0.20283889770507812, -0.030292639508843422, 0.13081541657447815, 0.2306911051273346, 0.09407311677932739, -0.20728689432144165, 0.11001308262348175, 0.16862384974956512, -0.07009096443653107, 0.007050825282931328, 0.09843992441892624, -0.0030099647119641304, -0.24079930782318115, -0.01068037748336792, -0.18106679618358612, -0.24019558727741241, 0.07383175939321518, 0.22207793593406677, 0.12080711871385574, -0.12956573069095612, -0.022277427837252617, 0.3247130215167999, -0.04455544427037239, 0.033887412399053574, -0.2255944013595581, 0.09034589678049088, -0.0834304541349411, 0.6053153276443481, -0.14744576811790466, -0.01192316971719265, 0.12534594535827637, 0.04233467951416969, 0.11588235199451447, 0.44210904836654663, -0.08952665328979492, 0.012139832600951195, -0.1908821165561676, -0.13009415566921234, 0.14661335945129395, -0.3008907735347748, 0.09854716062545776, 0.15440945327281952, -0.02688770368695259, 0.2750060558319092, 0.04477168247103691, 0.10602814704179764, 0.137168288230896, -0.14519467949867249, 0.002137897303327918, 0.10563624650239944, 0.11240164190530777, -0.0317271389067173, 0.05790971592068672, 0.08095571398735046, -0.06533422321081161, -0.26962119340896606, -0.26379963755607605, 0.05607295036315918, -0.07401058822870255, -0.03131585195660591, -0.04311160370707512, -0.006687473505735397, 0.01848873496055603, -0.06644006818532944, -0.29332679510116577, -0.4220997095108032, 0.43963444232940674, 0.023425031453371048, -0.013918432407081127, -0.49163010716438293, -0.10990729928016663, 0.040997203439474106, 0.16993556916713715, 0.03877441585063934, 0.2903708219528198, -0.37080150842666626, -0.05086008459329605, -0.21318475902080536, -0.37814801931381226, -0.1369403451681137, 0.030812138691544533, -0.44223642349243164, -0.09904927015304565, -0.13814005255699158, -0.14602206647396088, -0.048737138509750366, 0.015735123306512833, 0.6042486429214478, -0.12482047080993652, -0.07770152390003204, 0.0460890457034111, -0.07864325493574142, -0.046864479780197144, -0.12302185595035553, -0.06661509722471237, -0.24246452748775482, 0.2210497260093689, -0.16149935126304626, 0.1400156319141388, 0.2312821000814438, 0.08011095970869064, 0.1046697273850441, -0.09767822921276093, 0.060196492820978165, 0.5098146200180054, 0.1444331407546997, 0.09094496816396713, -0.03661579266190529, -0.12043987214565277, -0.06212196126580238, -0.018902171403169632, -0.10973931849002838, 0.11317086964845657, -0.12517020106315613, -0.1801428496837616, -0.22423507273197174, 0.167209655046463, -0.17390033602714539, -0.08166678249835968, 0.03522130101919174, 0.06242097541689873, 0.10684195160865784, -0.18233202397823334, 0.23244844377040863, 0.0001563880650792271, 0.05121522769331932, -0.17396071553230286, 0.14732947945594788, 0.25395432114601135, 0.10003360360860825, 0.06744768470525742, -0.11856761574745178, 0.05844859778881073, 0.04668604955077171, 0.30939793586730957, -0.1812368780374527, 0.2904960513114929, -0.3011668920516968, -0.09863446652889252, -0.0889570564031601, 0.09478342533111572, 0.23658542335033417, -0.13370901346206665, 0.22192023694515228, -0.10047652572393417, -0.04878992587327957, 0.11950640380382538, 0.2162638008594513, -0.010306433774530888, 0.07638218998908997, 0.20238947868347168, -0.04338254779577255, -0.0616963654756546, 0.3023536205291748, 0.10319772362709045, 0.15542352199554443, -0.04729235917329788, -0.013108384795486927, -0.050815992057323456, -0.19550497829914093, -0.09883041679859161, -0.006092223338782787, 0.07634595036506653, 0.14181683957576752, 0.05572317913174629, -0.3904954791069031, 0.1695748269557953, 0.05800811946392059, 0.6792113780975342, 0.07639296352863312, 0.05421457812190056, -0.6569907069206238, 0.006082628853619099, 0.08478637039661407, -0.14079028367996216, 0.01626724563539028, -0.00989311933517456, -0.4183404743671417, 0.092605359852314, 0.034130219370126724, 0.3950309753417969, 0.08946970105171204, 0.057771433144807816, 0.3999702036380768, -0.09468256682157516, -0.06406048685312271, 0.2061539888381958, 0.21234579384326935, -0.020472487434744835, -0.1199088767170906, -0.0522480346262455, -0.01605788618326187, -0.1502290666103363, 0.06352542340755463, -0.2841663062572479, -0.1397024393081665, -0.2498517632484436, 0.2895447015762329, 0.7768742442131042, 0.5002700090408325, -0.042482152581214905, -0.7095503807067871, -0.18520987033843994, -0.028940990567207336, -0.055688753724098206, 0.0027690669521689415, 0.19227837026119232, 0.11016601324081421, 0.12637528777122498, -0.21623164415359497, -0.1946854591369629, 0.04038786143064499, -0.16017600893974304, -0.09619281440973282, 0.020462732762098312, -0.33600518107414246, 0.20532988011837006, 0.02343771792948246, -0.06915567070245743, 0.4395771324634552, -0.16790522634983063, 0.050582922995090485, 0.2846032679080963, -0.10694511979818344, -0.11039652675390244, 0.1639108657836914, 0.1437971144914627, -0.2334168404340744, -0.35784220695495605, -0.011534037999808788, 0.14231255650520325, -0.05205830559134483, 0.05117286741733551, -0.03957437351346016, -0.0022097411565482616, -0.023787274956703186, -0.02372477576136589, -0.29926830530166626, -0.34448811411857605, 0.05948260799050331, 0.26271650195121765, 0.1422155797481537, -0.24745237827301025, 0.1944558322429657, 0.14409543573856354, -0.4531294107437134, -0.17960581183433533, -0.3908272981643677, -0.055168505758047104, -0.21894562244415283, -0.1560172289609909, -0.14610682427883148, 0.13904066383838654, 0.09981244057416916, 0.36036524176597595, 0.3595127463340759, -0.1912880837917328, 0.050151240080595016, 0.24367988109588623, 0.48680809140205383, 0.046905577182769775, -0.4675252139568329, -0.15218617022037506, 0.11588048189878464, -0.17670324444770813, -0.04165276885032654, 0.20695389807224274, 0.3442365229129791, -0.023003801703453064, -0.20696312189102173, 0.4073652923107147, -0.08769115060567856, -0.07886652648448944, -0.2521674633026123, -0.09740665555000305, 0.24733315408229828, 0.1886829286813736, -0.008366239257156849, -0.18997804820537567, -0.18551909923553467, -0.7355969548225403, 0.2246992439031601, -0.29318967461586, 0.6812416911125183, 0.6903494596481323, 0.26465272903442383, -0.29494208097457886, -0.5907334089279175, -0.6638223528862, 0.3199612498283386, -0.08216104656457901, 0.6949841976165771, 0.3280332684516907, 0.48981425166130066, -0.4332190155982971, -0.2213466316461563, -0.11086702346801758, -0.13262902200222015, -0.34294095635414124, -0.26906371116638184, -0.43224188685417175, -0.4955695867538452, 0.33710604906082153, 0.33679670095443726, 0.4572402834892273, -0.3241541087627411, 0.4242120385169983, 0.12142299115657806, -0.10810470581054688, -0.044939666986465454, -0.07122572511434555, 0.1680898219347, 0.16588440537452698, -0.0450756661593914, 0.26685604453086853, -0.2659940719604492, 0.4407478868961334, -0.39780473709106445, 0.09450049698352814, -0.35799524188041687, 0.04219704866409302, 0.48900195956230164, 0.11468075215816498, -0.020238881930708885, 0.21792663633823395, -0.10674158483743668, -0.290131151676178, -0.2875652313232422, -0.17610111832618713, 0.10955558717250824, -0.16395553946495056, 0.23850366473197937, 0.14343933761119843, 0.17165078222751617, -0.01780729740858078, -0.14996859431266785, 0.11008590459823608, -0.07248653471469879, 0.35331419110298157, -0.07418200373649597, -0.07459621876478195, 0.2029118835926056, -0.007861764170229435, -0.11719962954521179, -0.39355891942977905, -0.008248814381659031, 0.14972394704818726, -0.40071940422058105, 0.032416462898254395, -0.16973379254341125, 0.2162836790084839, -0.13237199187278748, -0.14269378781318665, 0.3042629063129425, -0.08174588531255722, -0.18225450813770294, -0.08627528697252274, 0.06361899524927139, 0.2225140631198883, 0.003843343583866954, -0.21397538483142853, -0.3215884268283844, 0.17926643788814545, 0.12430226057767868, 0.04803779348731041, 0.06928585469722748, -0.06935204565525055, -0.01449491549283266, -0.14239293336868286, 0.16211408376693726, 0.009131982922554016, -0.25186026096343994, -0.13996823132038116, -0.2567542791366577, -0.06343583762645721, -0.20275431871414185, -0.2722771167755127, 0.02219036966562271, -0.08691485971212387, -0.1691332310438156, 0.4533800184726715, 0.0408242791891098, 0.13309508562088013, 0.15595880150794983, -0.11591123789548874, -0.11502094566822052, -0.06760343164205551, -0.14804404973983765, -0.04592753201723099, -0.30670350790023804, 0.0019051891285926104, -0.4588645100593567, 0.31738123297691345, -0.5181952118873596, 0.594856858253479, -0.2587214708328247, -0.32570555806159973, -0.5830764770507812, -0.507053792476654, 0.46071892976760864, -0.20502576231956482, 0.043435268104076385, -0.15212172269821167, 0.26912617683410645, 0.3286643922328949, -0.044315677136182785, 0.23502804338932037, -0.37600091099739075, -0.013679618015885353, -0.0022605203557759523, 0.12067500501871109, 0.3357371389865875, 0.48694998025894165, 0.010145866312086582, -0.11923543363809586, 0.08397148549556732, 0.014291469007730484, 0.28256696462631226, 0.012742660939693451, -0.001887981896288693, 0.14913886785507202, 0.01764618791639805, -0.011449354700744152, -0.4761253893375397, 0.06670836359262466, -0.021634770557284355, 0.1539071798324585, -0.020751791074872017, -0.32243627309799194, 0.20504321157932281, -0.09899117797613144, -0.20925955474376678, -0.10021212697029114, 0.11958309262990952, 0.3072604537010193, -0.023000821471214294, 0.2396460473537445, -0.2133655995130539, 0.007380831521004438, 0.1826663464307785, 0.4012435972690582, 0.0701204314827919, 0.034074194729328156, 0.10823459178209305, -0.4388881027698517, 0.02840798906981945, -0.019505545496940613, -0.36602783203125, -0.006002739071846008, 0.11256955564022064, -0.012717409059405327, 0.05678576976060867, 0.4142318367958069, -0.18910561501979828, -0.00420299032703042, 0.07245706766843796, 0.08754462003707886, 0.004595200531184673, -0.014453621581196785, 0.16923637688159943, 0.1520555019378662, 0.25963830947875977, -0.0760030671954155, 0.11842651665210724, -0.2164708524942398, -0.11107304692268372, -0.1289118081331253, 1.0298779010772705, -0.26850953698158264, -0.4235352575778961, 0.108594611287117, -0.30263957381248474, -0.23521588742733002, 0.21041131019592285, -0.030927961692214012, -0.0861729308962822, 0.11301112174987793, -0.3553052544593811, -0.21292519569396973, 0.5934697389602661, 0.05488952621817589, 0.06877940893173218, 0.01100600603967905, -0.015364511869847775, 0.06484059989452362, -0.38226836919784546, 0.2865595817565918, 0.1857074499130249, 0.04117601737380028, 0.24510698020458221, -0.3441440165042877, -0.11068873107433319, -0.18247222900390625, -0.06898825615644455, 0.021473070606589317, -0.03182416781783104, -0.1980682760477066, -0.0894770473241806, 0.08194555342197418, -0.15800651907920837, -0.07993815094232559, -0.20228204131126404, 0.05714087188243866, 0.0227923896163702, -0.39702850580215454, 0.051536206156015396, -0.07684300094842911, -0.05016143620014191, -0.2946297228336334, 0.19390633702278137, 0.06370683014392853, -0.32439714670181274, -0.05264837294816971, -0.27441519498825073, -0.024211635813117027, -0.08105561882257462, -0.3618292808532715, 0.37522178888320923, -0.019425973296165466, -0.02028186060488224, -0.7278025150299072, 0.053136684000492096, 0.012756087817251682, 0.012405608780682087, -0.06256686896085739, -0.24350212514400482, -0.4055359959602356, 0.07565324753522873, 0.01666300743818283, -0.06000193953514099, 0.03407641872763634, 0.03705522418022156, -0.14553901553153992, -0.03465224429965019, -0.044587697833776474, 0.4104112982749939, 0.03236005827784538, -0.04369108006358147, -0.0842200443148613, 0.05100128427147865, -0.08162228763103485, -0.34279975295066833, 0.3717207908630371, 1.0800968408584595, 0.6545342206954956, 0.7556453347206116, 0.16311796009540558, -0.029955139383673668, -0.2699155807495117, -0.4868340790271759, -0.27284854650497437, -0.10159322619438171, 0.06618165969848633, -0.11070645600557327, -0.03749170899391174, 0.27690353989601135, -0.14919784665107727, 0.19726552069187164, 0.1658872663974762, 0.288044273853302, 0.3164657950401306, -0.0013454400468617678, 0.1292741894721985, 0.28893378376960754, -0.05916466936469078, -0.25142934918403625, 0.4462305009365082, 0.28440722823143005, 0.048211488872766495, 0.28458112478256226, -0.34065550565719604, -0.3989264667034149, -0.46343863010406494, -0.08822253346443176, -0.01347501389682293, -0.01826326921582222, -0.1780175119638443, 0.0301828533411026, 0.3287191390991211, 0.11958575993776321, 0.1360926479101181, 0.023101190105080605, 0.04876365140080452, -0.21956457197666168, -0.3945542275905609, -0.012706798501312733, -0.10679489374160767, -0.025649575516581535, -0.17287009954452515, -0.3145200312137604, -0.42968758940696716, 0.21299239993095398, -0.06985186785459518, -0.127290740609169, -0.0348689928650856, -0.415693998336792, -0.2728712558746338, 0.016478704288601875, -0.059490397572517395, 0.08083748072385788, 0.07984237372875214, -0.009430956095457077, -0.029195694252848625, -0.13263766467571259, -0.09248903393745422, -0.090180903673172, 0.09011410921812057, 0.4205697476863861, 0.1306510716676712, 0.04420779272913933, 0.4668864905834198, 0.06599432975053787, -0.1897779256105423, 0.37357819080352783, -0.009881499223411083, 0.36830979585647583, -0.08670718967914581, 0.07998330891132355, 0.23022451996803284, -0.6000824570655823, 0.07560601830482483, 0.2079879492521286, -0.5332797765731812, 0.30543437600135803, -0.1672057807445526, 0.25570592284202576, -0.3091581165790558, -0.23403844237327576, 0.6061612963676453, 0.16396823525428772, 0.10043920576572418, -0.32321566343307495, 0.059761010110378265, -0.2599100172519684, 0.6452035903930664, -0.200548455119133, 0.19330546259880066, 0.21350614726543427, -0.25405898690223694, -0.2883399724960327, -0.33273449540138245, -0.02142057567834854, 0.09451396763324738, -0.023865828290581703, 0.38858166337013245, -0.2644871771335602, -0.27215176820755005, 0.12868468463420868, -0.12885136902332306, -0.22342722117900848, -0.030804665759205818, -0.015007474459707737, 0.0796937644481659, 0.2843897342681885, -0.045784346759319305, 0.3433065414428711, -0.07495821267366409, -0.06024513021111488, 0.10108976811170578, 0.1979818344116211, -0.4693376123905182, -0.06793733686208725, -0.17542950809001923, -0.0510418638586998, -0.41606706380844116, -0.06274156272411346, 0.21936343610286713, -0.264889657497406, -0.0887148380279541, 0.2202545702457428, -0.009843808598816395, -0.4894157648086548, -0.07331329584121704, -0.2020730972290039, -0.19461721181869507, -0.06387000530958176, -0.13908608257770538, -0.09517228603363037, 0.5303969979286194, 0.3015705347061157, -0.022045394405722618, -0.17343157529830933, -0.014517909847199917, 0.16675002872943878, 0.053712476044893265, 0.06727524101734161, 0.1660052090883255, 0.7008722424507141, 0.1329214721918106, -0.14128176867961884, -0.21612782776355743, 0.07271905988454819, -0.05030882731080055, -0.0309361070394516, -0.11851134896278381, -0.4220569133758545, 0.366725355386734, 0.12153413146734238, -0.3765670657157898, -0.29047608375549316, 0.3107677698135376, -0.12472076714038849, -0.5770033597946167, 0.09608568251132965, 0.2348639965057373, -0.8863959312438965, -0.1429278403520584, 0.6338064670562744, 0.38890540599823, 0.010625910945236683, 0.011597740463912487, -0.6420014500617981, -0.1942610740661621, -0.4903204143047333, 0.06310287863016129, -0.2803070843219757, 0.03688231110572815, -0.3758394420146942, 0.45849862694740295, -0.0026534642092883587, 0.018067454919219017, 0.02649194933474064, -0.09718233346939087, -0.030293021351099014, 0.1539689153432846, -0.18340358138084412, -0.050362974405288696, -0.28307804465293884, -0.31292665004730225, -0.12105878442525864, 0.40456056594848633, 0.0768316462635994, -0.054387085139751434, -0.12611877918243408, -0.270662784576416, -0.01046885084360838, 0.08804995566606522, 0.037179477512836456, 0.1655830293893814, -0.29942017793655396, 0.5714519023895264, 0.29572880268096924, 0.16604720056056976, 0.03642294555902481, 0.05287696793675423, 0.16475552320480347, 0.07800975441932678, -0.04140937328338623, -0.04767690226435661, 0.3604220747947693, -0.2265714854001999, -0.48280128836631775, 0.0902416929602623, -0.3234710395336151, -0.09435056895017624, -0.05470634251832962, -0.21191218495368958, -0.3588496148586273, -0.010841594077646732, 0.09137697517871857, 0.187882199883461, 0.14157584309577942, -0.1134716048836708, 0.3495881259441376, -0.1242869570851326, 0.26248860359191895, 0.07673325389623642, -0.01528974249958992, -0.2965107560157776, 0.011586538515985012, 0.06962388008832932, 0.28325164318084717, -0.03311968594789505, 0.23905567824840546, 0.1634330153465271, -0.2213432341814041, 0.5041981935501099, 0.3874790370464325, -0.24395805597305298, -0.3478219509124756, -0.1005239486694336, 0.17210911214351654, -0.3103906512260437, 0.8985476493835449, -0.5284102559089661, -0.27395540475845337, 0.09404510259628296, -0.7371240258216858, -0.08352340757846832, -0.3291490972042084, 0.0029460296500474215, -0.31502610445022583, -0.4121657609939575, 0.20598021149635315, -0.027348805218935013, -0.17698512971401215, -0.033937711268663406, 0.03583422303199768, -0.05011122301220894, 0.03531187027692795, 0.10359781235456467, -0.4290907084941864, -0.16295242309570312, 0.08775125443935394, 0.3519841432571411, 0.07728760689496994, -0.0505438931286335, -0.027646072208881378, 0.15383955836296082, -0.06337801367044449, 0.40513715147972107, 0.0027480802964419127, -0.06551773101091385, 0.2958787679672241, 0.20414568483829498, -0.1045704185962677, 0.0854734405875206, 0.24925072491168976, 0.051722198724746704, 0.1483420431613922, 0.13573727011680603, -0.1315849870443344, 0.0100241769105196, 0.1675911247730255, -0.24747824668884277, 0.08531259745359421, 0.08438681811094284, -0.6041869521141052, 0.18798953294754028, -0.2592923045158386, 0.06283483654260635, 0.1411985605955124, -0.14904414117336273, 0.06956949830055237, -0.2984880805015564, -0.00510996300727129, 0.05789759010076523, 0.490198016166687, -0.05935065820813179, 0.13505512475967407, -0.21818219125270844, -0.13237617909908295, -0.05815768241882324, -0.03177020326256752, 0.04709261283278465, -0.031035205349326134, -0.1345241814851761, -0.7579388618469238, -0.6326170563697815, -1.334636926651001, -0.536104142665863, -0.2406209260225296, -0.40801534056663513, -0.0034298826940357685, 0.05270302668213844, 0.038688600063323975, 0.42293381690979004, -0.05386656895279884, 0.07656095921993256, -0.7332327961921692, -0.025397375226020813, 0.6000882983207703, 0.39104682207107544, -0.2324635088443756, 0.08248937875032425, -0.23113971948623657, -0.09457629919052124, -0.12241954356431961, -0.33187925815582275, 0.34555724263191223, -0.09619196504354477, -0.037595234811306, 0.0990452915430069, -0.10574609041213989, -0.0895485058426857, 0.07817332446575165, -0.18828868865966797, -0.20028242468833923, -0.33267897367477417, 0.03189155086874962, 0.253044992685318, 0.16300900280475616, 0.18114112317562103, -0.14615632593631744, 0.03098536655306816, 0.22539767622947693, -0.08598704636096954, -0.15423625707626343, 0.34679076075553894, -0.18025745451450348, 0.06714624166488647, -0.008186183869838715, 0.15544050931930542, 0.3854599595069885, 0.0230229664593935, -0.21048219501972198, -0.038321878761053085, 0.1384662538766861, -0.04112806171178818, -0.10385788232088089, -0.0836334228515625, -0.40343889594078064, -0.024842899292707443, 0.2544018626213074, 0.002884217305108905, 0.3728519380092621, -0.032858483493328094, 0.1440272480249405, -0.21807041764259338, -0.09170246124267578, -0.17958542704582214, 0.003140690503641963, -0.03650710731744766, 0.25946757197380066, 0.055100202560424805, 0.126251220703125, 0.17225868999958038, -0.5563305020332336, -0.2608923017978668, -0.2075953483581543, 0.09253987669944763, -0.2107948362827301, -0.26861682534217834, 0.1326228827238083, -1.1441524028778076, 0.5794572830200195, 0.7338233590126038, -0.04528843238949776, 0.2370588332414627, 0.07112986594438553, 0.03777199611067772, 0.08036022633314133, -0.6144890785217285, 0.0699508786201477, -0.3827604353427887, -0.1269853562116623, -0.3038393259048462, -0.5649574995040894, -0.3982725143432617, -0.19352705776691437, 0.16230089962482452, 0.21594880521297455, 0.039495572447776794, 0.005168148782104254, 0.3978443741798401, 0.03590122237801552, -0.15960554778575897, -0.08624713867902756, -0.07124176621437073, 0.07159610092639923, -0.02445380948483944, 0.2420046329498291, 0.08613056689500809, -0.07919996976852417, -0.03359443321824074, 0.09804349392652512, 0.07640623301267624, 0.20064938068389893, -0.02858629636466503, 0.049016162753105164, -0.3454616069793701, 0.29744699597358704, 0.033767711371183395, -0.09348591417074203, -0.14119237661361694, 0.02019171044230461, -0.2416437715291977, -0.2760147750377655, 0.062264177948236465, 0.38333097100257874, 0.17209666967391968, -0.06829879432916641, -0.05045817419886589, 0.11219076812267303, 0.05202110856771469, 0.10001615434885025, 0.05239923298358917, -0.06591548025608063, -0.23534108698368073, -0.040447406470775604, 0.1302730292081833, -0.10760483145713806, 0.025685494765639305, 0.12050142884254456, 0.25704053044319153, -0.22135260701179504, 0.06741330772638321, -0.03148896247148514, -0.12566010653972626, -0.0030785314738750458, 0.46247220039367676, -0.24830059707164764, 0.03451835364103317, -0.03861061856150627, 0.019504640251398087, 0.18508538603782654, 0.061006106436252594, 0.25305092334747314, -0.06565065681934357, -0.39713263511657715, 0.3880454897880554, 0.4197874069213867, 0.5648632645606995, 0.36836713552474976, -0.3665725886821747, 0.17719125747680664, 0.18952709436416626, 0.1484995037317276, -0.041901957243680954, -0.06256653368473053, -0.19106383621692657, -0.41965070366859436, 0.1291651725769043, -0.20694296061992645, 0.7080104351043701, 0.2898749113082886, 0.13476593792438507, -0.27973508834838867, -0.5313939452171326, -0.2945707142353058, 0.1651516854763031, -0.4640905559062958, -0.4384815990924835, -0.036413561552762985, -0.15631505846977234, 0.15865465998649597, -0.0047256359830498695, 0.06569977849721909, 0.3188599944114685, -0.060146354138851166, -0.26328322291374207, -0.025107398629188538, -0.005482509732246399, 0.034827448427677155, -0.2255135178565979, -0.12731942534446716, 0.15860164165496826, -0.03766930103302002, -0.01214861311018467, 0.2660924196243286, 0.010277669876813889, -0.10229567438364029, -0.24072310328483582, -0.44269293546676636, -0.10248221457004547, -0.1255270391702652, 0.04897475615143776, 0.0140050845220685, -0.10510042309761047, 0.011858302168548107, -0.21346984803676605, -0.035746343433856964, -0.06870359182357788, 0.07560158520936966, -0.27200186252593994, -0.07679910957813263, 0.22417323291301727, 0.04633001983165741, 0.13904733955860138, -0.038580793887376785, 0.05890463665127754, -0.22988344728946686, 0.13180841505527496, -0.11389463394880295, -0.04459916427731514, -0.014091861434280872, 0.3580736517906189, 0.14520205557346344, -0.2266102433204651, -0.015986811369657516, -0.17420879006385803, 0.1389814168214798, -0.20261451601982117, 0.26636478304862976, 0.3916384279727936, 0.14366218447685242, 0.050947193056344986, -0.10276145488023758, 0.3256460726261139, -0.2998351454734802, 0.28209388256073, 0.046961117535829544, 0.25830212235450745, 0.27670180797576904, 0.39337337017059326, -0.07389653474092484, 0.16235554218292236, -0.7878633737564087, 0.5015202760696411, -0.4058176279067993, 0.10566261410713196, 0.018068792298436165, -0.21632325649261475, -0.4115927219390869, 0.4439830780029297, -0.03347565233707428, -0.08388419449329376, 0.13808594644069672, 0.1100730150938034, -0.009812396951019764, -0.28062736988067627, 0.06632470339536667, 0.0914212018251419, -0.04927312955260277, 0.13429249823093414, -0.0948818102478981, -0.16549016535282135, -0.2897031903266907, -0.08648528158664703, 0.020342471078038216, -0.05872456356883049, -0.052004795521497726, -0.10320325195789337, 0.0954824835062027, -0.0065209767781198025, 0.16617298126220703, 0.1560535728931427, -0.03732820227742195, -0.21157711744308472, -0.22514799237251282, -0.016995958983898163, -0.15656425058841705, -0.06572886556386948, -0.09132105857133865, -0.33303678035736084, 0.19588249921798706, -0.08935480564832687, -0.11047117412090302, 0.16507825255393982, 0.03677576407790184, -0.12760743498802185, -0.45433488488197327, -0.03773576393723488, -0.11842525005340576, -0.11358655244112015, -0.005787665024399757, -0.09856811165809631, -0.20262394845485687, -0.027672098949551582, -0.10324893146753311, 0.5886049866676331, -0.003477019490674138, 0.023455791175365448, 0.0765330046415329, 0.031791143119335175, 0.0660565048456192, 0.2247549444437027, 0.232393279671669, -0.11162732541561127, -0.387370228767395, -0.06377604603767395, -0.1910286843776703, -0.19573751091957092, -1.0047457218170166, 0.12993013858795166, -0.14646431803703308, -0.05779838562011719, -0.384688138961792, 0.008337443694472313, -0.23319517076015472, -0.11319580674171448, -0.043093301355838776, 0.1479288637638092, 0.10252988338470459, -0.2843310534954071, 0.35281962156295776, 0.3059087097644806, 0.23311501741409302, 0.12498217821121216, -0.07804204523563385, 0.33113014698028564, 0.3165742754936218, -0.19977670907974243, 0.24364864826202393, -0.31764861941337585, -0.03527370095252991, -0.31838491559028625, 0.09361491352319717, -0.0817829817533493, -0.16793739795684814, -0.09095379710197449, 0.10808195173740387, -0.029304757714271545, -0.5864598751068115, 0.07201015204191208, 0.05885698273777962, -0.32594576478004456, -0.06826729327440262, -0.06516881287097931, 0.21921466290950775, -0.03245750069618225, -0.11380524188280106, 0.2765233516693115, -0.021451713517308235, 0.019235150888562202, -0.4193538427352905, 0.03115823119878769, 0.0579022616147995, 0.1323167085647583, 0.13122130930423737, 0.147628054022789, 0.29681965708732605, 0.06548843532800674, -0.06510920822620392, -0.5055553317070007, 0.004518778994679451, 0.051998719573020935, -0.06817051768302917, 0.003414522623643279, 0.10845947265625, -0.27145954966545105, -0.021157223731279373, 0.0658283457159996, -0.09190936386585236, 0.029190512374043465, -0.005139934830367565, -0.05054488778114319, 0.03516760841012001, -0.015029249712824821, 0.7809773087501526, -0.02223822847008705, 0.0146302105858922, 0.13894696533679962, -0.35495424270629883, 0.5115929841995239, -0.17312121391296387, -0.05114852264523506, 0.42828941345214844, -0.4769178032875061, 0.6642378568649292, -0.3914966881275177, 0.008532140403985977, -0.6595221161842346, -0.1767474263906479, 0.47203513979911804, 0.11276492476463318, 0.29325494170188904, 0.18272759020328522, -0.3341689705848694, 0.5184608101844788, 0.02889484539628029, -0.12166954576969147, -0.5622661113739014, 0.5142188668251038, 0.2746547758579254, 0.1864549070596695, -0.14675401151180267, -0.23673398792743683, 0.12290584295988083, -0.09861323237419128, 0.37598201632499695, 0.13753990828990936, -0.04686290770769119, 0.26464155316352844, 0.03738195449113846, -0.1344555914402008, 0.14430779218673706, -0.010853354819118977, 0.07618290930986404, -0.4333304464817047, 0.012862613424658775, 0.09083086252212524, 0.2752270996570587, -0.13194540143013, 0.03384049981832504, 0.3715735673904419, -0.0684543177485466, 0.041317861527204514, -0.4129534661769867, 0.06240243837237358, -0.06513067334890366, -0.3019355237483978, 0.029497375711798668, -0.011007011868059635, -0.24077853560447693, 0.04902609810233116, 0.02743355743587017, 0.5410602688789368, 0.08186127245426178, -0.053826283663511276, -0.13481999933719635, -0.08183684200048447, 0.023137303069233894, -0.3117557764053345, -0.02157493866980076, 0.13077862560749054, -0.14793720841407776, -0.05164644494652748, 0.002054884098470211, -0.05933888256549835, -0.06886722147464752, -0.13487397134304047, -0.029204392805695534, 0.04871052876114845, 0.04335363581776619, 0.5059624314308167, 0.04470790922641754, 0.17717429995536804, -0.09837139397859573, 0.10866641253232956, -0.12472399324178696, 0.19961456954479218, -0.2072255164384842, 0.6098816990852356, -0.0570075586438179, -0.21835921704769135, -0.9032769799232483, -0.12091034650802612, -0.04836457967758179, -0.23046547174453735, 0.3559243679046631, 0.2869518995285034, -0.44128191471099854, -0.050015389919281006, 0.1681065559387207, 0.4823986291885376, -0.11955636739730835, 0.3069649934768677, -0.028011441230773926, -0.1917715072631836, 0.30598050355911255, -0.4455450773239136, 0.41890019178390503, 0.4994143843650818, -0.1365121603012085, 0.1975109577178955, 0.49860215187072754, 0.6612807512283325, 0.7775076627731323, 0.6251444220542908, -0.7074359059333801, 0.11439846456050873, 0.019999999552965164]}