{"version":"0.5.4","metadata":{"date":{"year":2025,"month":8,"day":1,"hour":11,"minute":49,"second":6},"loudness":-16.00204849243164,"gain":0.3196941785139604,"name":"METEOR CLEAN","modeled_by":"carlosalvgonz","gear_type":"amp","gear_make":"tz-make","gear_model":"tz-model","tone_type":"overdrive","input_level_dbu":null,"output_level_dbu":null,"training":{"settings":{"ignore_checks":false},"data":{"latency":{"manual":null,"calibration":{"algorithm_version":1,"delays":[202],"safety_factor":1,"recommended":201,"warnings":{"matches_lookahead":false,"disagreement_too_high":false}}},"checks":{"version":3,"passed":true}},"validation_esr":0.0051938235074246355}},"architecture":"WaveNet","config":{"layers":[{"input_size":1,"condition_size":1,"head_size":8,"channels":16,"kernel_size":3,"dilations":[1,2,4,8,16,32,64,128,256,512],"activation":"Tanh","gated":false,"head_bias":false},{"input_size":16,"condition_size":1,"head_size":1,"channels":8,"kernel_size":3,"dilations":[1,2,4,8,16,32,64,128,256,512],"activation":"Tanh","gated":false,"head_bias":true}],"head":null,"head_scale":0.02},"weights":[0.039412155747413635,0.7062997817993164,-0.8358848094940186,-0.801958441734314,-0.41070669889450073,0.27350088953971863,-0.056700076907873154,0.8038793206214905,-0.12583716213703156,0.3011516034603119,-0.26529037952423096,-0.2139039784669876,-0.9792409539222717,-0.6976921558380127,-0.35052910447120667,0.05143972113728523,0.04856641963124275,0.09655539691448212,-0.31506574153900146,0.035820603370666504,0.16131696105003357,0.00881248340010643,-0.12808620929718018,0.00012904986215289682,0.0823800265789032,-0.08402847498655319,0.02170567214488983,-0.026834283024072647,-0.18177583813667297,-0.13930749893188477,0.05672202631831169,0.21224255859851837,0.002224239520728588,-0.18224430084228516,-0.14000844955444336,-0.18945708870887756,0.07329092174768448,0.22195161879062653,0.17167480289936066,-0.037601958960294724,-0.059233445674180984,-0.1519840955734253,0.16313506662845612,-0.04527847468852997,-0.0032666590996086597,-0.19131244719028473,0.0040547531098127365,-0.014013523235917091,0.048483699560165405,-0.0895623117685318,-0.007806736975908279,0.26144424080848694,-0.042338062077760696,-0.0896974503993988,0.20314548909664154,-0.18246755003929138,-0.0807211846113205,-0.004178579896688461,-0.1907968670129776,-0.17453597486019135,0.1749478280544281,0.08355360478162766,-0.05378265306353569,-0.12313839048147202,0.0760989710688591,0.04801781848073006,0.13942572474479675,-0.03369444981217384,0.10650371760129929,0.21179673075675964,-0.05009600892663002,-0.072816401720047,-0.01988673023879528,0.18239836394786835,0.10612927377223969,0.051285270601511,0.09075091034173965,-0.14284749329090118,-0.062137994915246964,-0.15346884727478027,-0.11687131971120834,0.20042376220226288,0.15973107516765594,-0.1603478342294693,-0.05394146218895912,-0.086945079267025,-0.004171974025666714,0.010076251812279224,0.1141691580414772,-0.10361697524785995,-0.025464706122875214,0.01437240932136774,0.12440204620361328,0.13323137164115906,-0.08745505660772324,-0.11337373405694962,-0.00690249539911747,0.09212569892406464,-0.1255151778459549,-0.15257197618484497,0.19838747382164001,0.0776103064417839,-0.13927079737186432,0.025174913927912712,-0.15722374618053436,-0.07958438247442245,-0.04993528127670288,-0.13132086396217346,-0.08537789434194565,-0.006852500606328249,-0.030398795381188393,0.17211438715457916,-0.11180625110864639,0.28221824765205383,-0.03759237751364708,-0.0999629870057106,0.16400577127933502,-0.08097828179597855,-0.0019485722295939922,-0.15850703418254852,0.14149293303489685,-0.013709163293242455,-0.26554301381111145,0.1545446664094925,-0.15570075809955597,-0.2742801010608673,0.05444330349564552,-0.058645639568567276,0.13143624365329742,-0.21272704005241394,-0.006409896072000265,-0.11595034599304199,0.03325978294014931,0.014871162362396717,0.2969290316104889,-0.10062865167856216,0.009545153006911278,-0.18196745216846466,0.14205454289913177,0.10532820969820023,0.3234363794326782,-0.004805886652320623,0.12265786528587341,-0.19099143147468567,-0.03702631965279579,-0.08183480054140091,-0.09122500568628311,0.09329646080732346,-0.09553735703229904,-0.30643796920776367,-0.050449516624212265,-0.14403247833251953,-0.22244413197040558,0.16529417037963867,0.05904076620936394,-0.32344549894332886,0.17705298960208893,-0.14105446636676788,0.09113847464323044,-0.19773812592029572,-0.016058875247836113,-0.12103082239627838,0.043233904987573624,-0.1961357742547989,-0.17700016498565674,0.07504524290561676,0.005745642352849245,0.2044469714164734,-0.19936244189739227,0.06137283146381378,0.2790268063545227,-0.12990324199199677,0.19510121643543243,0.19915510714054108,-0.20701710879802704,0.031227657571434975,-0.15713423490524292,0.015274250879883766,0.13470658659934998,-0.00436913687735796,-0.1085163876414299,-0.10114584863185883,-0.04754956439137459,0.11052437871694565,0.1113784909248352,0.18118317425251007,-0.1365237981081009,-0.09180150181055069,-0.2642545998096466,0.16113734245300293,0.17644324898719788,0.2402641922235489,-0.17994901537895203,0.06587638705968857,0.045389194041490555,-0.16510654985904694,-0.011675099842250347,0.20202000439167023,-0.1552320122718811,0.06742707639932632,0.1572870910167694,0.021864885464310646,-0.04345124214887619,0.044631339609622955,-0.15604019165039062,0.07880657911300659,-0.1440945714712143,0.2487928867340088,0.08266765624284744,-0.09240046888589859,-0.14778490364551544,0.08839070796966553,-0.035377759486436844,-0.08652311563491821,-0.11284027993679047,0.06419865787029266,-0.0606694258749485,-0.18899619579315186,0.16498571634292603,-0.06370512396097183,-0.12019344419240952,0.18785163760185242,0.10638261586427689,0.11043740063905716,-0.17657724022865295,0.014938774518668652,-0.18402564525604248,0.012675483711063862,0.02423408068716526,0.09151644259691238,-0.04583843797445297,0.06600143760442734,-0.08489206433296204,0.1822868436574936,0.14972957968711853,0.017899787053465843,0.0163935124874115,-0.15930373966693878,-0.16527289152145386,0.08436284959316254,0.10141488909721375,-0.00015551142860203981,0.001023154822178185,0.05238110572099686,-0.03908359631896019,-0.09177873283624649,0.1572282612323761,-0.2307933270931244,0.04875275120139122,0.029761016368865967,-0.18451590836048126,0.06013670191168785,0.17081472277641296,0.02970035932958126,-0.13858850300312042,-0.12358938902616501,-0.2292693853378296,0.1497184783220291,-0.08326888829469681,-0.14534980058670044,0.02826220542192459,0.15244309604167938,0.11964230239391327,0.002660472644492984,-0.014794924296438694,-0.0028103881049901247,-0.1497412770986557,-0.024511633440852165,0.16744041442871094,-0.06634160876274109,-0.12819960713386536,-0.12220688909292221,-0.039432041347026825,0.08587399870157242,0.0059660631231963634,-0.19940775632858276,0.12413469702005386,-0.13838577270507812,0.09176146984100342,0.10826961696147919,0.0766775980591774,-0.184893399477005,-0.15120340883731842,0.061499301344156265,0.12649349868297577,0.17399269342422485,0.0013565672561526299,-0.05703501030802727,-0.08596765249967575,0.05064970999956131,-0.19400976598262787,-0.003089867765083909,0.08935971558094025,-0.11313778907060623,-0.10079676657915115,-0.044713813811540604,-0.009112067520618439,-0.17289666831493378,0.10346321016550064,-0.1511746197938919,-0.1293698400259018,-0.05649124085903168,-0.02652132511138916,0.02632107399404049,-0.00013396379654295743,-0.04458704590797424,-0.09794962406158447,0.0076996502466499805,0.1109367236495018,-0.13960951566696167,-0.06851930171251297,-0.07674300670623779,0.16706176102161407,-0.0016299954149872065,0.0006463867030106485,0.2149159163236618,-0.022566471248865128,-0.050084784626960754,0.18209005892276764,-0.04864862561225891,0.05355452746152878,-0.11023291945457458,-0.04049485921859741,-0.009218322113156319,0.2569395899772644,0.07858988642692566,0.13803237676620483,-0.09920771420001984,0.13562026619911194,-0.10248212516307831,0.023876531049609184,-0.18031556904315948,0.19193671643733978,-0.03600890189409256,-0.0461902916431427,0.009589927271008492,0.23290100693702698,0.1983673870563507,0.07932943105697632,0.23938506841659546,0.016848193481564522,-0.10538792610168457,0.2359543889760971,0.13080638647079468,-0.14116282761096954,0.24812060594558716,0.11996719241142273,0.028844892978668213,0.027949169278144836,-0.050853077322244644,-0.05894356593489647,-0.06102040037512779,-0.009066400118172169,0.15003128349781036,-0.0011326952371746302,0.1393892616033554,0.08003253489732742,0.10182545334100723,-0.17914634943008423,-0.09547817707061768,-0.13235534727573395,-0.2209862321615219,-0.24531079828739166,0.07979466021060944,0.006209770683199167,0.010658836923539639,0.08731970191001892,-0.06298373639583588,0.016119644045829773,-0.0010203915880993009,-0.11403112858533859,0.013361454010009766,-0.09303507953882217,0.007313242647796869,-0.012117874808609486,-0.048500485718250275,0.0682775154709816,0.010774669237434864,0.09586890041828156,0.18228094279766083,0.25294047594070435,-0.011093199253082275,-0.003565326100215316,0.009540681727230549,0.023336684331297874,0.07560283690690994,-0.04878983274102211,0.06939143687486649,-0.13018715381622314,-0.06020111218094826,-0.018425917252898216,-0.11211208999156952,-0.21015208959579468,-0.11467817425727844,-0.1842668205499649,-0.025457635521888733,0.07128339260816574,-0.001197337289340794,-0.024144602939486504,0.0791734829545021,0.029651813209056854,0.09322065860033035,-0.23937544226646423,0.09466837346553802,0.17057687044143677,-0.2255604863166809,0.1730935126543045,0.002221393631771207,0.061436526477336884,0.11782722175121307,-0.19019746780395508,0.0932321697473526,0.16067007184028625,-0.09990149736404419,0.017114223912358284,-0.08956553786993027,0.061735864728689194,-0.1476241797208786,0.06681843101978302,0.043837983161211014,0.1564958095550537,-0.12466194480657578,0.11534964293241501,-0.044754985719919205,0.12771344184875488,-0.22269169986248016,0.11553763598203659,-0.15024131536483765,0.0407889187335968,-0.07380762696266174,-0.06692931056022644,-0.05016140267252922,0.24071726202964783,0.054332565516233444,-0.1990574300289154,0.07466723769903183,0.06669410318136215,-0.21884062886238098,0.1852981001138687,-0.09552016109228134,-0.24660302698612213,-0.0246238075196743,0.007469299249351025,-0.0041898381896317005,-0.020622678101062775,0.07085338234901428,0.021169856190681458,-0.09934840351343155,-0.03642531484365463,-0.06770416349172592,0.31082725524902344,-0.05564170703291893,0.13340705633163452,0.18428878486156464,0.030735285952687263,0.12822231650352478,-0.10749941319227219,0.19723041355609894,-0.10743701457977295,-0.15601401031017303,-0.018879832699894905,-0.04944588616490364,-0.08669152110815048,-0.2349744439125061,0.04284052923321724,0.1928548812866211,0.11046609282493591,-0.10631562024354935,-0.2426641434431076,-0.17191246151924133,0.055538974702358246,0.2566821575164795,0.19218997657299042,-0.02286740206182003,-0.07691524177789688,-0.26272112131118774,-0.1267469823360443,0.1879650354385376,0.036015138030052185,0.0762292891740799,-0.2175792008638382,0.05172852426767349,-0.10772931575775146,-0.03031177818775177,0.1139865517616272,0.11969786882400513,-0.02389991097152233,0.20603594183921814,0.012263947166502476,-0.16079308092594147,0.08635895699262619,0.022208217531442642,-0.04611550644040108,-0.15494489669799805,0.15878601372241974,0.13554848730564117,-0.042455434799194336,-0.026666199788451195,0.31742021441459656,0.17633526027202606,-0.10643376410007477,0.26831886172294617,0.022749384865164757,0.05054941400885582,-0.046633441001176834,-0.1270633488893509,0.011703940108418465,-0.11021588742733002,-0.089850053191185,0.015880685299634933,-0.2091722935438156,0.13643179833889008,-0.010294436477124691,0.10825393348932266,0.006137159187346697,0.04127523675560951,-0.21757115423679352,0.06063578650355339,0.11626910418272018,0.15299785137176514,-0.005543534643948078,-0.06614919006824493,-0.11821991205215454,-0.05289414897561073,-0.04871119558811188,0.09883977472782135,0.0884256586432457,-0.06885102391242981,-0.1635388284921646,-0.11419937014579773,0.11877033859491348,-0.02524993196129799,-0.15710730850696564,-0.14992786943912506,-0.2777606248855591,-0.049809738993644714,-0.070868581533432,-0.2633163630962372,-0.10156583786010742,-0.007936440408229828,-0.242242693901062,0.07022430002689362,-0.01938667893409729,0.07370046526193619,0.03500000387430191,0.09794340282678604,-0.000031242125260178,-0.06757774204015732,-0.15531505644321442,0.13074906170368195,-0.06143822893500328,-0.03515082970261574,0.1558695137500763,-0.016060102730989456,0.1308220475912094,-0.00024238783225882798,0.03865915909409523,0.06645537167787552,0.09798499941825867,-0.05622388422489166,-0.22980062663555145,-0.08474290370941162,-0.03232213854789734,0.12080146372318268,-0.14533193409442902,0.06161133944988251,-0.13440530002117157,-0.037950754165649414,0.1602325290441513,0.1479426473379135,0.10322879999876022,0.016090767458081245,-0.1405331939458847,-0.09790109097957611,0.05421118438243866,0.21320801973342896,-0.04587457701563835,-0.06591282784938812,0.15645921230316162,0.14379742741584778,0.03527837246656418,-0.01546197198331356,-0.11732062697410583,0.11055188626050949,0.09179183840751648,-0.06148312985897064,0.10029132664203644,0.15319503843784332,0.12423338741064072,0.10412061959505081,-0.04853905737400055,-0.06464561820030212,-0.11842560768127441,0.18924987316131592,0.20300523936748505,0.010824792087078094,-0.11037024110555649,0.19927343726158142,0.18034736812114716,0.10910307615995407,-0.19554853439331055,-0.008872196078300476,-0.11902058869600296,0.0643358901143074,-0.01790960691869259,-0.08402013778686523,0.0013539851643145084,-0.1144876629114151,-0.05502346530556679,0.05447695776820183,0.024424409493803978,-0.12169346213340759,0.03913607820868492,-0.11023641377687454,0.07011915743350983,0.1961081475019455,0.11148893088102341,0.0002192297688452527,0.04130251333117485,-0.02262984775006771,-0.04651668667793274,0.2135014683008194,0.07884965091943741,-0.15528815984725952,-0.11270986497402191,-0.05292455479502678,0.1166541650891304,-0.08948858082294464,-0.0852256566286087,-0.028123674914240837,0.01992524228990078,0.08166788518428802,0.025578778237104416,-0.060540348291397095,0.0935525968670845,-0.05755436420440674,-0.13299457728862762,-0.1786341369152069,-0.1089891642332077,0.12302614748477936,-0.05974259227514267,-0.10416306555271149,0.2274727076292038,-0.029429417103528976,-0.2830219566822052,0.23132716119289398,-0.04456255957484245,0.3014094829559326,-0.20631444454193115,0.00452218996360898,0.26362550258636475,-0.15150776505470276,0.1547039896249771,0.07987216860055923,-0.21959789097309113,-0.09488517791032791,-0.1501857042312622,0.2330433577299118,-0.07377130538225174,0.19644224643707275,-0.17578522861003876,-0.07082965224981308,-0.0777445062994957,-0.020331911742687225,0.02672569267451763,0.2976393401622772,-0.14129027724266052,0.08119899034500122,-0.2224712371826172,0.21966677904129028,-0.10709609091281891,0.15388934314250946,-0.12413538992404938,0.0752115473151207,0.2366945445537567,0.003985734656453133,0.019276201725006104,0.18007953464984894,0.008184898644685745,0.0000035290065625304123,0.31026607751846313,-0.18906746804714203,0.018789028748869896,0.16697368025779724,-0.030487269163131714,0.09150837361812592,-0.16086527705192566,0.012345966883003712,0.10629036277532578,0.14754973351955414,-0.12938150763511658,0.042259618639945984,0.28324130177497864,0.03477805480360985,-0.1169624850153923,-0.3196221888065338,0.2004692107439041,-0.23707374930381775,-0.15352468192577362,0.12134145200252533,-0.18933235108852386,-0.12966497242450714,-0.02366488240659237,0.1507129818201065,0.081913523375988,-0.12468080967664719,-0.053051404654979706,-0.013044016435742378,0.07362044602632523,0.22203759849071503,0.1673780083656311,-0.1684427410364151,-0.2248045802116394,-0.29165029525756836,0.26820236444473267,0.08345051854848862,0.1849161982536316,-0.07172608375549316,-0.01982920616865158,-0.05116622522473335,0.22291503846645355,-0.22006985545158386,-0.2006753832101822,0.026859493926167488,-0.21347187459468842,-0.15328407287597656,0.23447194695472717,-0.2439945936203003,-0.09751857817173004,0.025838486850261688,-0.14985601603984833,-0.061566922813653946,0.0697469562292099,0.08622951805591583,0.018941881135106087,-0.02908632718026638,-0.05957932397723198,-0.18446341156959534,0.1913217306137085,-0.245282843708992,-0.280304491519928,0.0643157884478569,0.25400617718696594,0.1200842335820198,0.012528087943792343,0.2643575072288513,0.2580179274082184,-0.1317562609910965,0.11700951308012009,0.11144904792308807,-0.17753270268440247,-0.12810200452804565,-0.0414997823536396,0.18523333966732025,0.09426293522119522,0.14708401262760162,-0.16352435946464539,-0.030773833394050598,-0.2215130627155304,-0.04451031982898712,0.13165877759456635,0.2220064252614975,-0.21271856129169464,0.0006828674231655896,-0.10182813555002213,-0.03428066521883011,0.09563582390546799,0.2754462957382202,-0.17567864060401917,0.08499743044376373,0.20306681096553802,-0.19137601554393768,0.22037693858146667,0.23817335069179535,0.034763153642416,0.04657229408621788,0.3045825660228729,-0.1424836367368698,0.2759796380996704,0.014653201214969158,-0.18788699805736542,0.015383965335786343,-0.07972544431686401,0.12210802733898163,-0.18145033717155457,-0.10343087464570999,-0.13078157603740692,-0.014613735489547253,-0.019434362649917603,-0.04436164349317551,-0.0315827839076519,-0.050101980566978455,0.07422883063554764,0.09657252579927444,-0.045847028493881226,0.0424199178814888,-0.039516717195510864,0.14768749475479126,-0.1851680725812912,0.11070990562438965,0.3445146381855011,-0.3509059250354767,0.7176072597503662,-0.6379914879798889,-0.048991609364748,0.9720706343650818,0.8816544413566589,-0.5390633940696716,0.0679209977388382,0.2303309291601181,-0.2993047833442688,-0.3641979992389679,0.34334486722946167,-0.609573245048523,0.07126814872026443,0.4828381836414337,-0.05541817471385002,0.07473108172416687,-0.0001369900710415095,0.12481989711523056,0.24696660041809082,-0.1765832006931305,0.039159711450338364,-0.1022624745965004,-0.031241614371538162,-0.09445609152317047,-0.06033119931817055,0.03590358421206474,-0.08324944972991943,0.015911461785435677,0.29419246315956116,-0.1437746286392212,-0.01841685175895691,-0.0347074419260025,-0.18295630812644958,0.09386059641838074,-0.11666212230920792,0.0886809229850769,-0.0992860496044159,-0.04295569285750389,-0.06390732526779175,0.4435623288154602,0.10464441031217575,-0.023869263008236885,0.2756783962249756,-0.05241893604397774,-0.0281300637871027,0.4329029619693756,-0.00748608261346817,0.0764910876750946,-0.06743369251489639,0.2216787189245224,-0.16880391538143158,-0.15362289547920227,0.10932762920856476,-0.15772919356822968,0.014518885873258114,-0.17805542051792145,0.19309577345848083,-0.22230248153209686,0.13367030024528503,0.3017204701900482,-0.03177458420395851,0.0755622535943985,0.1922963559627533,-0.20587089657783508,-0.0012300176313146949,-0.2042793333530426,0.047784801572561264,0.010481602512300014,0.0801086574792862,-0.006242713890969753,-0.12790797650814056,0.001270689652301371,-0.0904897078871727,0.03379199281334877,0.02786131203174591,0.19394473731517792,-0.09039802849292755,-0.0736076608300209,-0.21118536591529846,-0.0931742712855339,-0.2745358645915985,0.21635323762893677,0.0066269016824662685,0.10699477791786194,0.07193239778280258,-0.13082556426525116,0.21800266206264496,0.32897526025772095,-0.1048227921128273,0.19720545411109924,0.02280411310493946,0.19559848308563232,-0.24100780487060547,0.20396403968334198,-0.15891502797603607,-0.08641061186790466,0.17691946029663086,0.011585349217057228,0.2216208130121231,0.27017560601234436,0.2175377905368805,0.16659682989120483,0.23535014688968658,-0.02092001587152481,-0.17857979238033295,-0.12614479660987854,-0.06477294862270355,-0.21999865770339966,0.25370678305625916,-0.10238393396139145,0.03708580508828163,0.10225201398134232,0.2264460027217865,0.05347362905740738,-0.1776747703552246,-0.28677865862846375,0.17741215229034424,0.1845831423997879,0.34095197916030884,-0.4758298397064209,-0.23688656091690063,0.13012126088142395,0.03857380524277687,-0.2625001072883606,0.08573523163795471,-0.21661244332790375,0.2847396731376648,0.11692395061254501,0.3588285446166992,-0.29756617546081543,-0.1359805166721344,0.2109990268945694,0.2660345733165741,0.20218655467033386,0.15849873423576355,-0.20752032101154327,0.26124897599220276,-0.2979747951030731,0.08150304108858109,-0.24118368327617645,0.052017003297805786,-0.127207949757576,0.015403756871819496,-0.00124505499843508,-0.2888663113117218,-0.19378510117530823,0.2513772249221802,-0.025990242138504982,-0.14277099072933197,-0.03588728606700897,-0.4017809331417084,-0.24674293398857117,0.2964152991771698,0.07851987332105637,0.14918936789035797,-0.07946133613586426,0.1004103571176529,0.08860345929861069,-0.21899442374706268,0.005816155578941107,0.25395601987838745,-0.21599675714969635,-0.2545050084590912,0.06505444645881653,0.08364477008581161,-0.30408185720443726,-0.04490659385919571,0.3168313503265381,0.009805900976061821,0.08265825361013412,0.3113170564174652,0.17945322394371033,-0.18112877011299133,0.07787691056728363,0.12558721005916595,0.23052701354026794,-0.2685389816761017,0.13113108277320862,-0.10407721251249313,-0.1990731805562973,0.09408307075500488,-0.07809320837259293,0.12641368806362152,-0.08368852734565735,-0.12862791121006012,-0.07684142887592316,-0.009686880744993687,0.15943677723407745,-0.05863992124795914,0.3190700113773346,-0.04466003179550171,-0.1747962385416031,0.0689246654510498,0.07864145934581757,0.15111397206783295,-0.19219666719436646,-0.1718016266822815,-0.07428696751594543,-0.1935771405696869,-0.2377493679523468,0.011188752017915249,-0.08498436957597733,-0.1327219158411026,0.23544596135616302,-0.21693775057792664,-0.09905141592025757,-0.09076009690761566,-0.15023674070835114,-0.06350937485694885,0.08514795452356339,0.17487652599811554,-0.29586052894592285,-0.047801971435546875,0.1391402781009674,0.12768395245075226,-0.10308710485696793,-0.2253061830997467,0.1993260383605957,0.09692030400037766,-0.11359947174787521,-0.15107335150241852,0.11730622500181198,-0.0625971332192421,-0.19499123096466064,-0.22970470786094666,0.16603149473667145,-0.07430033385753632,0.1480473428964615,0.14962376654148102,0.05276224762201309,-0.19603988528251648,-0.050451572984457016,0.06909284740686417,0.06538118422031403,-0.10352067649364471,0.05042107403278351,-0.33172863721847534,0.3447376787662506,-0.09782535582780838,0.21411992609500885,-0.0577545240521431,-0.19162778556346893,0.11860544979572296,0.15167246758937836,0.20070306956768036,0.15334300696849823,-0.20159129798412323,0.0930524691939354,0.04568042233586311,-0.20704185962677002,0.17551133036613464,0.1682388186454773,-0.24774257838726044,0.04003813862800598,0.24529936909675598,0.07224100083112717,0.2487543672323227,-0.11160750687122345,-0.12028266489505768,0.2297840118408203,0.06920711696147919,0.1554497331380844,-0.15580354630947113,-0.024634094908833504,-0.03625256568193436,-0.2089265137910843,0.08445603400468826,0.12566682696342468,0.16409876942634583,-0.14397138357162476,0.13484308123588562,-0.13747961819171906,0.21460524201393127,-0.12740805745124817,-0.07244768738746643,-0.046179257333278656,0.12576724588871002,-0.05298663675785065,0.03403552994132042,-0.16769826412200928,0.0997425764799118,0.03894616290926933,0.1465248167514801,0.15841317176818848,0.021777307614684105,0.05479053407907486,0.07539777457714081,0.004540758673101664,-0.09094230085611343,0.4729589819908142,-0.3067648708820343,0.060422495007514954,-0.24777619540691376,0.07493709027767181,0.14906980097293854,-0.17977997660636902,0.10777200013399124,0.06311440467834473,-0.16570794582366943,-0.029621314257383347,0.22816473245620728,0.2673225402832031,-0.17884400486946106,-0.09946811199188232,-0.6273660063743591,0.03271924704313278,-0.08544296771287918,0.2044140249490738,-0.21676331758499146,-0.32325392961502075,-0.13745813071727753,0.2475615292787552,-0.15138305723667145,0.16766797006130219,-0.21986150741577148,-0.07153204828500748,-0.3018018901348114,0.06476983428001404,0.18495126068592072,-0.1520085334777832,0.07737943530082703,0.11113984137773514,-0.41279929876327515,0.17814865708351135,0.06399955600500107,-0.293661892414093,0.15906792879104614,0.08123660832643509,-0.18664796650409698,-0.06666085869073868,-0.004600479733198881,0.34547698497772217,-0.14209970831871033,-0.27168187499046326,0.043726544827222824,-0.008143621496856213,0.054944586008787155,-0.12441641092300415,-0.010300928726792336,0.13287271559238434,0.008830100297927856,-0.15535792708396912,0.17445728182792664,-0.0001587521837791428,0.0209210105240345,0.007583810947835445,0.1198384240269661,-0.280183881521225,0.15601889789104462,-0.245663583278656,0.01890048012137413,-0.1151336058974266,0.15615534782409668,-0.11401388049125671,-0.10407325625419617,0.03190295770764351,0.11552504450082779,-0.055314477533102036,0.0678115263581276,-0.1628304272890091,0.015815328806638718,-0.04917548596858978,0.16044767200946808,-0.15487277507781982,0.10873003304004669,-0.09944485872983932,0.05761617794632912,0.02240741439163685,-0.25607728958129883,0.09549345821142197,-0.011512712575495243,-0.18678933382034302,0.034708622843027115,0.04664929211139679,-0.07645745575428009,0.06775790452957153,0.003985164221376181,-0.10439170151948929,0.08113495260477066,-0.11850014328956604,0.27022239565849304,-0.21539413928985596,-0.24246786534786224,-0.24526546895503998,0.15951748192310333,-0.06095229461789131,0.5812767744064331,-0.5037676692008972,0.09205659478902817,0.24490419030189514,-0.09972242265939713,0.24208177626132965,0.12260185927152634,0.039384257048368454,0.2267390489578247,0.28534361720085144,-0.09759795665740967,-0.11699748784303665,-0.23081466555595398,0.3750764727592468,0.3460080325603485,-0.5900730490684509,0.07986995577812195,-0.20457006990909576,-0.3608867824077606,0.3287312090396881,-0.36188891530036926,0.06108351796865463,-0.13751766085624695,-0.06768706440925598,0.1468491405248642,-0.1864279806613922,0.03139859437942505,0.12063688039779663,-0.12189359962940216,0.10987140983343124,0.10304237902164459,0.09805295616388321,0.29950448870658875,0.17848917841911316,-0.10078438371419907,0.12232010811567307,0.18868190050125122,-0.1250842809677124,-0.07622574269771576,0.26047202944755554,-0.12993772327899933,-0.24008439481258392,-0.15305154025554657,0.39069864153862,-0.14957864582538605,-0.1356501579284668,-0.017836345359683037,-0.2825869917869568,0.08754704147577286,0.1232694461941719,0.09576330333948135,-0.21896763145923615,-0.13537360727787018,0.07844045013189316,0.0771818608045578,-0.04389708489179611,0.023692617192864418,-0.09915927052497864,-0.00183556554839015,-0.0691986232995987,0.19487051665782928,-0.03896963968873024,0.18739601969718933,-0.004875061567872763,-0.014347076416015625,-0.2007371336221695,0.11161568015813828,0.023735983297228813,-0.03157917782664299,-0.34458234906196594,0.09632381796836853,0.2584618330001831,0.08546097576618195,0.02457061968743801,0.1846122294664383,-0.17364296317100525,0.025189552456140518,0.12256834656000137,0.03975320979952812,0.2881220281124115,0.16050897538661957,0.0157580878585577,-0.042239055037498474,0.147023543715477,-0.22390776872634888,-0.0875750482082367,-0.02231517620384693,-0.005409843288362026,0.14967778325080872,-0.02870134823024273,0.14691796898841858,0.10330833494663239,-0.26131471991539,-0.02614208683371544,-0.06661063432693481,0.22312960028648376,0.15540480613708496,0.12442263960838318,-0.14404863119125366,0.03786735236644745,0.02433151938021183,-0.15039600431919098,0.12103602290153503,0.13765032589435577,-0.04031415283679962,-0.04194769635796547,-0.04578816145658493,-0.04817192256450653,0.11117298156023026,-0.14225134253501892,-0.0004482886870391667,-0.14104777574539185,-0.0018661473877727985,0.06188386306166649,0.1435353010892868,0.05620638653635979,-0.17497961223125458,0.11695072054862976,0.04635588079690933,0.12133441120386124,-0.15672950446605682,-0.01908593624830246,0.0900731161236763,-0.10862960666418076,0.03346144035458565,-0.18171089887619019,0.07382410764694214,0.16180011630058289,-0.18004243075847626,-0.13512909412384033,0.15793094038963318,-0.03585091233253479,-0.09075481444597244,0.05560808628797531,-0.029329145327210426,-0.16736546158790588,-0.007508572656661272,0.12253222614526749,0.05312739685177803,-0.12836766242980957,0.1299913078546524,-0.03360412269830704,0.025622835382819176,-0.16310663521289825,0.11908666044473648,0.0854569599032402,-0.12129633873701096,0.12055844813585281,0.00807754136621952,-0.05133160203695297,0.047905415296554565,-0.021985458210110664,-0.20480534434318542,0.091777004301548,-0.023656783625483513,0.20469322800636292,-0.18899290263652802,0.007218535989522934,0.15137149393558502,-0.00784059427678585,0.00012191239511594176,0.2359352707862854,-0.21598799526691437,0.18786504864692688,0.26133227348327637,0.28511884808540344,-0.06719526648521423,-0.0025532462168484926,-0.18381960690021515,0.04532342031598091,-0.05889733135700226,0.17072473466396332,0.06252684444189072,0.09542159736156464,-0.05798489227890968,0.00221643946133554,-0.11144297569990158,0.1647869348526001,-0.030150173231959343,-0.1712035983800888,-0.012791384942829609,0.0429060123860836,-0.1364390254020691,0.19923046231269836,-0.09979159384965897,0.15379762649536133,-0.12949717044830322,0.08733181655406952,0.11922045052051544,0.12421920150518417,0.1947784423828125,-0.0582280233502388,-0.0015019968850538135,-0.5184450745582581,0.18057845532894135,0.0030422434210777283,0.04729510843753815,0.2363518327474594,0.03858611360192299,0.010019153356552124,-0.019980045035481453,0.09267165511846542,-0.1214471235871315,-0.016235435381531715,0.08093636482954025,0.29154667258262634,-0.03136419132351875,-0.11273567378520966,0.2418450564146042,-0.19131551682949066,0.0793628841638565,0.10756839066743851,0.3440231680870056,-0.11278579384088516,-0.20183739066123962,-0.12808209657669067,0.03279847651720047,-0.08683893829584122,0.2244676947593689,-0.040049489587545395,-0.07228045165538788,0.07654702663421631,-0.024938058108091354,0.007665975019335747,0.24505682289600372,0.12431586533784866,0.12307802587747574,0.1774294674396515,0.13896913826465607,-0.1916903853416443,0.0533534437417984,0.10280956327915192,-0.1456032246351242,-0.212412029504776,-0.04947388544678688,0.12215983122587204,-0.2045925408601761,-0.08401299268007278,0.1908143311738968,0.15861627459526062,0.340397447347641,-0.4411541223526001,-0.1687006652355194,-0.21081574261188507,0.2719222903251648,-0.1088375523686409,-0.2598012387752533,0.05967765673995018,-0.012186639942228794,-0.2939794957637787,-0.10155825316905975,0.17086361348628998,0.1232253834605217,-0.16993990540504456,0.08711112290620804,-0.4810504913330078,0.46584004163742065,0.10774394124746323,0.1961548924446106,-0.17299571633338928,-0.02319939061999321,-0.2961876392364502,0.47614437341690063,0.1759098321199417,0.40631645917892456,-0.4695623219013214,0.02536037005484104,-0.35381045937538147,0.0705028548836708,-0.08202855288982391,-0.2634843587875366,0.2107289433479309,-0.15793251991271973,-0.3144531548023224,0.15733666718006134,-0.19610105454921722,-0.22897717356681824,-0.006326698698103428,0.08040115237236023,0.09853348135948181,0.04964963346719742,-0.04341506585478783,0.21084056794643402,-0.13642087578773499,0.07869116961956024,0.14850297570228577,-0.012823912315070629,-0.05821411684155464,-0.08330193161964417,-0.15348601341247559,0.125644251704216,0.11364967375993729,0.13802717626094818,0.11039870232343674,0.06309927999973297,-0.05413771793246269,0.10617086291313171,0.10103361308574677,-0.04342522844672203,-0.08910173922777176,0.01812591403722763,0.04864507541060448,0.06950156390666962,-0.008658958598971367,0.07837390154600143,-0.10322356224060059,-0.10904106497764587,0.14432349801063538,-0.10568170994520187,-0.0255353394895792,0.12736676633358002,0.03706358000636101,0.04579047113656998,-0.15011002123355865,0.01388760656118393,-0.021934673190116882,-0.11720004677772522,-0.04633995145559311,-0.0915796235203743,0.03627340495586395,-0.038600482046604156,0.10065572708845139,0.027076764032244682,-0.03546250984072685,-0.052854277193546295,-0.1450786590576172,0.02861659973859787,-0.04129600152373314,-0.003930774051696062,0.05327412486076355,-0.038847777992486954,-0.01577909290790558,0.06356702744960785,0.03875774145126343,0.04119006544351578,-0.12284418195486069,0.18481676280498505,0.10002437233924866,-0.0666433647274971,0.0631544291973114,-0.08387086540460587,-0.029282495379447937,0.10944002866744995,-0.08041470497846603,0.15666501224040985,0.08636017888784409,-0.12501968443393707,-0.14982204139232635,-0.17170752584934235,0.13944317400455475,0.09304708987474442,-0.16185802221298218,-0.08918969333171844,-0.16160230338573456,-0.04685432091355324,0.23476608097553253,-0.08393096923828125,0.17797762155532837,-0.05045473575592041,-0.09735987335443497,-0.07557151466608047,0.1073015034198761,-0.021588554605841637,0.13141003251075745,0.051421403884887695,0.0410645455121994,-0.0036497050896286964,-0.13952778279781342,-0.03413480520248413,-0.07503466308116913,-0.20509180426597595,-0.08281747996807098,0.13831765949726105,-0.04488242790102959,-0.0023932158946990967,-0.03972849249839783,0.04465683549642563,-0.09546735137701035,-0.13022054731845856,-0.00012512417742982507,-0.05407637730240822,0.08884510397911072,-0.20876862108707428,-0.12297717481851578,0.052139438688755035,0.07268038392066956,-0.11968831717967987,-0.09504927694797516,0.1116921678185463,-0.1962418258190155,-0.04661170020699501,-0.0003195320023223758,-0.06023986265063286,-0.011104351840913296,-0.06829171627759933,0.14144881069660187,0.11493278294801712,-0.08514674752950668,-0.10268551856279373,0.1448315978050232,0.13852062821388245,0.02012665942311287,0.12605158984661102,0.012473875656723976,-0.09515560418367386,0.011861352249979973,0.24728231132030487,0.008760333061218262,-0.17463068664073944,-0.00837426446378231,0.03862619400024414,-0.11026662588119507,-0.03727183863520622,0.03272583708167076,0.07794512063264847,-0.03768015652894974,0.017320584505796432,-0.0023318883031606674,0.053710099309682846,-0.014815359376370907,-0.11594165116548538,0.07523705065250397,-0.0794430673122406,-0.08419879525899887,0.04800727590918541,0.03406582400202751,-0.07911543548107147,-0.03030446171760559,0.17250265181064606,-0.05611344426870346,-0.012702872976660728,-0.16889938712120056,0.16916091740131378,-0.23514610528945923,-0.12752199172973633,0.2177572101354599,0.07532449811697006,0.059103332459926605,0.058867864310741425,0.003035485278815031,-0.012678051367402077,0.15269479155540466,-0.11760925501585007,0.05081311985850334,0.009113581851124763,0.059749990701675415,-0.08033452928066254,-0.31333455443382263,0.11694406718015671,0.15946181118488312,0.012966640293598175,0.07339290529489517,0.07954287528991699,-0.09394735842943192,-0.112813301384449,-0.2348223477602005,0.1156277135014534,-0.004138080403208733,-0.12612707912921906,0.1362626552581787,-0.09374862909317017,-0.11044321954250336,0.06750017404556274,-0.054487843066453934,-0.08999527245759964,-0.0003511661197990179,0.03440548852086067,0.05638129636645317,0.10516361892223358,-0.14952942728996277,0.08068418502807617,0.192849799990654,-0.08601509034633636,-0.02156663127243519,-0.06929624080657959,0.1362060159444809,-0.024050867184996605,0.1520305871963501,-0.07128658145666122,0.12296508997678757,-0.046644411981105804,-0.08728735893964767,0.03570776805281639,0.03536350280046463,-0.08296722173690796,-0.039146117866039276,0.03818177059292793,-0.03551894798874855,0.15313760936260223,-0.05202963575720787,-0.11653941869735718,-0.02247992716729641,-0.07840875536203384,0.16761161386966705,-0.40288323163986206,-0.19208474457263947,0.06421562284231186,-0.0857633575797081,-0.06426332145929337,0.09377223998308182,-0.15029557049274445,0.07418424636125565,0.0161190964281559,0.10750114172697067,0.07021404802799225,-0.06559806317090988,0.10208919644355774,0.11410713940858841,0.012700430117547512,0.16657786071300507,-0.04674568399786949,0.056964412331581116,0.03564535453915596,-0.09813971072435379,0.08975919336080551,-0.041044507175683975,-0.04477740451693535,-0.11594559252262115,0.010371224023401737,-0.15895415842533112,-0.04845511168241501,0.07686599344015121,0.14248459041118622,0.07641056925058365,-0.08287264406681061,-0.0170498825609684,0.1534823328256607,0.02825631946325302,0.08348958194255829,-0.01679503358900547,0.1714588701725006,0.04305479675531387,0.057301830500364304,-0.19706249237060547,-0.07791296392679214,-0.11897452920675278,-0.012414849363267422,0.11151750385761261,0.0742555633187294,-0.12194032967090607,-0.10604197531938553,-0.04622548446059227,-0.0032287025824189186,0.0013615296920761466,-0.019796235486865044,0.08957532793283463,-0.07931547611951828,0.04989137500524521,-0.11331382393836975,0.10692352801561356,0.031868718564510345,0.1613072007894516,-0.21367697417736053,0.13207489252090454,0.0545751228928566,0.14188694953918457,-0.08141811192035675,-0.10752907395362854,0.0845547616481781,-0.16803285479545593,-0.11534339934587479,0.04076481983065605,-0.09446186572313309,0.18044652044773102,0.3072625696659088,-0.1075054183602333,0.08384712785482407,0.04310884699225426,-0.15752217173576355,-0.0660071074962616,-0.22255602478981018,0.14180375635623932,-0.014438724145293236,-0.019599370658397675,-0.020933818072080612,-0.11563403904438019,0.1679043024778366,-0.0358780100941658,-0.03353800252079964,0.22924290597438812,-0.047417644411325455,0.015577616170048714,0.0013962013181298971,-0.007301808334887028,-0.06683842837810516,0.16063451766967773,-0.021452520042657852,0.12918402254581451,-0.19771121442317963,0.011254205368459225,-0.009732769802212715,-0.11587997525930405,-0.19405460357666016,0.032769106328487396,-0.12070639431476593,-0.020377272740006447,0.10307857394218445,-0.0848122388124466,-0.12320427596569061,-0.15827548503875732,-0.11052383482456207,0.18624131381511688,-0.02181909792125225,0.23668448626995087,0.0707472488284111,0.12312114983797073,0.1489274501800537,0.02327132225036621,0.02005130425095558,0.12313193827867508,-0.023581242188811302,-0.06664552539587021,0.09345244616270065,-0.07083647698163986,-0.14355719089508057,0.0874803438782692,-0.19887608289718628,0.16762129962444305,-0.18055547773838043,0.05769849568605423,0.18205757439136505,0.11374887824058533,0.03499989956617355,-0.34591928124427795,0.0317041389644146,-0.0894952043890953,-0.10317856818437576,0.3025771379470825,0.0370342954993248,0.0195417832583189,0.13704562187194824,-0.11516410112380981,-0.20990979671478271,0.17822356522083282,0.01578211970627308,0.12239181250333786,-0.34522745013237,0.039208900183439255,0.3888727128505707,0.03567395359277725,-0.20266371965408325,0.18732666969299316,-0.38681700825691223,-0.10876715183258057,-0.22856169939041138,-0.005876051727682352,-0.22223176062107086,-0.21541361510753632,0.0037825475446879864,0.21607466042041779,-0.11963626742362976,0.35794419050216675,-0.07726439833641052,-0.1289633959531784,0.160975381731987,0.05764493718743324,-0.19997259974479675,0.1090187057852745,0.05265785753726959,-0.15641233325004578,0.40424394607543945,-0.0967312827706337,-0.21999500691890717,0.03344018757343292,-0.1440473347902298,0.19586120545864105,-0.1233353540301323,0.1476019322872162,0.050885025411844254,0.03424542397260666,-0.11630897223949432,0.07365445792675018,-0.1539480835199356,0.16692890226840973,0.1852106750011444,0.12902046740055084,-0.052556999027729034,-0.026142673566937447,0.04526914283633232,0.06347667425870895,0.09084498882293701,0.18431280553340912,0.08577445149421692,-0.020773954689502716,-0.48052263259887695,0.162830650806427,0.20768867433071136,-0.5714969635009766,0.0654258280992508,-0.6944458484649658,-0.3599981963634491,-0.6527395248413086,0.8121647834777832,-0.7514846324920654,-0.5299500823020935,-0.9583253264427185,0.24867090582847595,-0.6227102875709534,0.3782327473163605,-0.6707542538642883,-0.25080475211143494,0.02457224763929844,0.034494396299123764,0.1723291128873825,0.14508293569087982,-0.10336478054523468,-0.29935020208358765,-0.14371392130851746,0.0991537943482399,-0.07998931407928467,-0.037084851413965225,-0.07464667409658432,0.13087506592273712,0.06418272107839584,-0.08307076245546341,-0.08513247966766357,0.2450319230556488,-0.26797136664390564,-0.08317448943853378,-0.13263991475105286,-0.19417569041252136,0.20243176817893982,-0.01885777711868286,-0.17571911215782166,0.16549497842788696,-0.17161892354488373,0.12652289867401123,0.2663787305355072,0.0699160248041153,0.025105614215135574,0.09698478877544403,0.22455817461013794,0.15220920741558075,-0.19073335826396942,-0.08074521273374557,0.05355214700102806,0.03957779332995415,0.11986958235502243,0.024126414209604263,0.11179909855127335,-0.09660761803388596,0.07251767814159393,-0.1734587550163269,-0.008226269856095314,-0.019998028874397278,0.15849897265434265,0.17672154307365417,0.025456052273511887,-0.04378310218453407,0.030983084812760353,-0.16399556398391724,-0.23915952444076538,-0.12641015648841858,0.10228584706783295,-0.20039711892604828,0.0256607998162508,-0.025116773322224617,-0.018515557050704956,0.09769581258296967,0.25004786252975464,0.04118268936872482,-0.2506050765514374,0.06094912439584732,-0.009752213023602962,0.2149551808834076,-0.14741267263889313,-0.27920788526535034,-0.17120005190372467,0.0030271552968770266,0.11994017660617828,0.05540914088487625,0.2716052830219269,0.21347782015800476,0.10364791750907898,-0.20290614664554596,0.27441203594207764,-0.23479771614074707,-0.007612151559442282,-0.010389234870672226,-0.09012667834758759,-0.1320536583662033,-0.23146548867225647,-0.08712433278560638,-0.35952308773994446,0.007930571213364601,0.06474870443344116,0.05808494985103607,-0.13619570434093475,0.2529046833515167,0.3418170213699341,-0.2123783528804779,-0.08355940878391266,-0.0852745771408081,0.02112128585577011,0.16622468829154968,0.04612668603658676,0.12899278104305267,-0.1981077492237091,0.15763625502586365,-0.2109219878911972,0.17165818810462952,0.23016512393951416,-0.2625635862350464,-0.13107167184352875,-0.021296747028827667,-0.13672558963298798,-0.016399547457695007,0.14518246054649353,0.05917761102318764,-0.053460799157619476,-0.11643050611019135,0.294210284948349,0.4148035943508148,-0.07831477373838425,-0.06222280114889145,0.10369696468114853,0.17963263392448425,-0.03381553664803505,-0.0759412869811058,-0.016221003606915474,-0.022369837388396263,0.23168842494487762,-0.29809924960136414,0.048364587128162384,-0.08145187050104141,0.09722521156072617,0.2510148286819458,0.3043481707572937,-0.031337834894657135,0.07069673389196396,-0.090952068567276,0.0439634770154953,-0.17538601160049438,-0.3799115717411041,0.05899021774530411,-0.07263796031475067,0.15219859778881073,0.008642856031656265,0.179814413189888,-0.2579043209552765,-0.021823527291417122,0.11131194978952408,-0.08533689379692078,0.16440482437610626,-0.2486734390258789,-0.10851100087165833,0.03977539762854576,0.0947597399353981,0.1653529405593872,-0.1127927228808403,0.0677959993481636,-0.0069023785181343555,-0.20565064251422882,-0.012066924013197422,0.1732763648033142,0.15616880357265472,0.1912294328212738,0.05263533443212509,0.04379141330718994,-0.18040412664413452,-0.06820571422576904,-0.0782160758972168,-0.06992210447788239,0.05807635560631752,-0.0644664615392685,-0.13896648585796356,0.07403270155191422,-0.04676131531596184,0.17721675336360931,0.25789332389831543,-0.2032403200864792,0.08145744353532791,0.08592801541090012,0.146091029047966,0.03102545626461506,0.08934969455003738,-0.01673005521297455,0.3709432780742645,-0.27693212032318115,-0.029688576236367226,-0.23427601158618927,-0.12222792208194733,0.10711934417486191,0.1989942491054535,-0.14910928905010223,0.20890435576438904,0.11367041617631912,-0.14745326340198517,-0.045646652579307556,-0.06106153130531311,0.0663272887468338,-0.10723842680454254,-0.30875012278556824,0.02219749242067337,-0.18991614878177643,0.13895094394683838,0.11085480451583862,-0.09974583238363266,-0.19449357688426971,0.308291494846344,-0.19570215046405792,-0.17982088029384613,-0.06378500908613205,-0.10082822293043137,0.18138916790485382,-0.1735316663980484,-0.07709036022424698,-0.07542785257101059,0.12007908523082733,0.11832146346569061,-0.2817530930042267,0.26346325874328613,-0.25812944769859314,-0.07955094426870346,-0.0022641136310994625,0.13753977417945862,-0.0012573651038110256,0.15072126686573029,0.11269016563892365,-0.13747826218605042,0.12512636184692383,0.1095949187874794,0.007679281756281853,-0.10415402799844742,0.22507938742637634,0.22854584455490112,-0.05604302138090134,0.08419357985258102,-0.11382398009300232,-0.22842144966125488,0.23908163607120514,0.052542682737112045,-0.028331920504570007,0.017854372039437294,-0.1002390906214714,-0.08853030949831009,0.005957494955509901,0.1008569747209549,0.16024747490882874,0.16900205612182617,0.16163350641727448,-0.034611064940690994,-0.16918717324733734,-0.03581997752189636,-0.06768423318862915,0.14975149929523468,-0.26757264137268066,0.180816650390625,0.16622613370418549,-0.25556817650794983,0.21017181873321533,0.10045912116765976,-0.1329963505268097,0.2284238189458847,-0.21492815017700195,-0.13866442441940308,-0.05142746493220329,-0.07392440736293793,0.02501567266881466,-0.06257576495409012,-0.13727709650993347,-0.0029673841781914234,0.08367791771888733,0.05236027017235756,0.0844951868057251,-0.022519046440720558,0.06264907866716385,-0.1414378583431244,0.1366015374660492,-0.23750938475131989,-0.1476573795080185,0.041934095323085785,0.029138045385479927,0.12118559330701828,0.020533302798867226,-0.07306410372257233,-0.14357991516590118,0.02563178725540638,0.11020263284444809,-0.09714505821466446,-0.052325859665870667,-0.1555899828672409,-0.1420654058456421,-0.07313841581344604,0.06038317456841469,-0.0621613971889019,-0.05531778559088707,0.2426411658525467,0.16622111201286316,-0.07961428910493851,-0.06407242268323898,-0.23753948509693146,0.01682395301759243,-0.055069778114557266,0.18464896082878113,-0.13299348950386047,-0.049537237733602524,0.11035728454589844,0.09283720701932907,-0.05811265856027603,0.0791604146361351,-0.10674020648002625,0.000020970182958990335,-0.06232926622033119,-0.05483730509877205,-0.0035370641853660345,0.12305165082216263,0.05870736017823219,-0.03438137471675873,-0.07947076112031937,-0.03969899192452431,-0.016537049785256386,0.010719873942434788,-0.0792597234249115,0.23594261705875397,0.05600491538643837,-0.09700866043567657,0.07430833578109741,-0.0448162816464901,0.0024235849268734455,-0.19220983982086182,-0.18228740990161896,0.14273416996002197,-0.008812874555587769,0.12930890917778015,-0.13592448830604553,0.2631063461303711,0.1587931215763092,0.13639283180236816,-0.1555418074131012,-0.11822772771120071,-0.01883801631629467,0.16232728958129883,-0.07194085419178009,0.11210905760526657,-0.13600926101207733,-0.1047450378537178,-0.18320919573307037,0.15685246884822845,-0.14268220961093903,-0.09905664622783661,-0.1650877147912979,0.018696559593081474,-0.03388878330588341,0.11421023309230804,-0.015286888927221298,-0.1260143518447876,-0.01055865827947855,0.03640424460172653,0.05485156923532486,0.2147870659828186,0.015673097223043442,-0.009048533625900745,-0.09628502279520035,-0.07779277861118317,0.12866048514842987,-0.011452585458755493,0.10990317165851593,0.14202778041362762,0.04296824708580971,0.010261700488626957,-0.05129766836762428,0.08430161327123642,0.19246484339237213,0.045086026191711426,0.12515965104103088,0.04760101065039635,0.14631174504756927,-0.035119540989398956,0.09522603452205658,-0.24232374131679535,0.04572971165180206,-0.1547762155532837,-0.02709634229540825,0.09724091738462448,-0.0459420308470726,0.14546313881874084,-0.17573612928390503,-0.07966211438179016,-0.09536360204219818,-0.02898145467042923,-0.2721152603626251,0.008398069068789482,0.1591661423444748,0.05747910961508751,0.2407304048538208,0.13493381440639496,0.006063438020646572,0.08514443784952164,0.10421264916658401,-0.1723281741142273,0.0585668720304966,0.01994079351425171,-0.026065897196531296,0.012179834768176079,-0.04408874362707138,0.11005332320928574,-0.1693020462989807,-0.22998103499412537,0.0731896385550499,0.022264543920755386,-0.06995246559381485,-0.07954372465610504,-0.12713155150413513,0.101092629134655,0.09882281720638275,-0.16656345129013062,-0.04226255416870117,-0.20715627074241638,0.022693537175655365,0.029218118637800217,-0.2507694363594055,-0.004476786125451326,0.024858225136995316,-0.1717842072248459,0.012909040786325932,0.05841172859072685,-0.26563578844070435,0.30662524700164795,-0.4360489845275879,0.1736636608839035,-0.20908990502357483,-0.03824617713689804,0.2809719443321228,-0.17831890285015106,0.18600964546203613,0.11218488216400146,0.05103340744972229,0.02445143274962902,0.06679905951023102,0.05475717410445213,-0.23610499501228333,-0.28899291157722473,-0.047903627157211304,0.11444855481386185,0.031967345625162125,-0.4513309597969055,-0.14663664996623993,-0.1251712143421173,-0.016776593402028084,-0.13745766878128052,0.19597183167934418,0.03508085012435913,-0.13863885402679443,-0.3343300223350525,-0.1451050490140915,-0.10794033110141754,0.12044449895620346,-0.01948634907603264,0.28499332070350647,0.24478501081466675,0.3586696982383728,0.3246927857398987,0.00962305162101984,0.2839391529560089,-0.0074218278750777245,0.2060905396938324,0.23385125398635864,-0.10575231164693832,0.10148974508047104,0.0403907410800457,0.026200689375400543,-0.09442976117134094,0.11755647510290146,0.12664766609668732,-0.17559419572353363,0.04700786620378494,0.011279796250164509,0.09146842360496521,0.0483204685151577,0.1404430866241455,0.20338360965251923,-0.13957999646663666,0.2100590616464615,0.2269870787858963,-0.022769253700971603,0.013894260860979557,0.3152563273906708,0.005505486391484737,-0.08191084116697311,0.03744933381676674,0.09405849128961563,0.013378598727285862,-0.04629134759306908,-0.03414235636591911,-0.26666831970214844,-0.25262749195098877,0.16890493035316467,-0.10845968872308731,-0.2580157220363617,-0.031091410666704178,0.04256074130535126,0.11438591778278351,0.2356588989496231,0.02852948009967804,0.04435372352600098,-0.03905043005943298,0.007525680586695671,0.2643384337425232,-0.05843202397227287,0.04924033209681511,0.20572340488433838,0.08699940145015717,-0.016345372423529625,-0.009745873510837555,0.08442963659763336,-0.0614682100713253,-0.1332099884748459,0.11491122841835022,-0.022659355774521828,-0.07868636399507523,0.020964890718460083,0.2883317768573761,0.1101946011185646,-0.19792872667312622,-0.012385021895170212,-0.11367830634117126,0.08748835325241089,-0.13587673008441925,-0.17367354035377502,-0.040326256304979324,-0.06666851043701172,-0.1708192527294159,0.11278398334980011,-0.07893062382936478,-0.18620219826698303,0.04383283853530884,-0.08021722733974457,0.03385285660624504,0.12469016760587692,-0.18710072338581085,-0.15157824754714966,0.32376229763031006,-0.18583951890468597,-0.07539510726928711,0.06645849347114563,0.05500546097755432,0.022893935441970825,-0.10514280945062637,0.0270043034106493,0.058850403875112534,0.0006359617691487074,0.09156583994626999,0.040327537804841995,0.07024873048067093,-0.032958291471004486,0.20673978328704834,-0.14069709181785583,0.16709236800670624,0.00212010252289474,-0.11916932463645935,-0.020257415249943733,0.14194564521312714,0.09844010323286057,-0.08111277967691422,-0.1343972235918045,-0.07539689540863037,0.10156361013650894,0.039701610803604126,-0.07580612599849701,0.057318177074193954,0.11592423915863037,0.03550701588392258,-0.0348689891397953,-0.129777193069458,-0.003243943676352501,-0.08981429785490036,-0.24977463483810425,-0.2182202935218811,0.02835875004529953,0.35884878039360046,0.28742721676826477,-0.10514815151691437,-0.01633206382393837,0.07608147710561752,0.06278771162033081,0.271302729845047,0.15904353559017181,-0.4337581694126129,-0.346621572971344,-0.3481040894985199,0.08011826872825623,0.030620815232396126,0.11034797877073288,-0.20369328558444977,-0.1613103598356247,-0.044841352850198746,0.15749222040176392,0.387876033782959,0.09526319801807404,-0.22963111102581024,-0.11747640371322632,-0.34507283568382263,-0.0933036282658577,0.05409407243132591,-0.008991301991045475,-0.14452876150608063,0.13338437676429749,0.07674145698547363,-0.27724790573120117,-0.16289541125297546,-0.180495485663414,-0.2366555631160736,-0.2550554871559143,-0.2066068947315216,0.05536634847521782,0.01646687090396881,0.17081685364246368,0.06778648495674133,0.22423431277275085,-0.2280297577381134,-0.021591439843177795,-0.12061703950166702,0.17166349291801453,-0.08530133217573166,0.07565635442733765,0.08453232049942017,-0.2245764285326004,-0.036276496946811676,0.014880458824336529,-0.29314491152763367,-0.11827503889799118,-0.18608377873897552,0.16811491549015045,0.06555158644914627,-0.03287430852651596,-0.05711754783987999,-0.050132930278778076,0.20221932232379913,-0.053048714995384216,-0.09621162712574005,-0.021125387400388718,0.07117810100317001,0.13579010963439941,0.02351541817188263,-0.08564236015081406,0.08763737231492996,-0.23851631581783295,0.13590089976787567,-0.09818846732378006,0.0817410871386528,-0.16426922380924225,-0.05297204107046127,-0.2320048213005066,0.05013968050479889,0.24056823551654816,0.1093558520078659,-0.14157132804393768,-0.12703357636928558,0.10500721633434296,-0.011401339434087276,-0.18485891819000244,-0.06492725759744644,-0.12582072615623474,-0.0641571506857872,-0.08461819589138031,-0.19453558325767517,0.18442830443382263,0.015683267265558243,0.20886282622814178,-0.37913209199905396,0.0043336814269423485,0.11552322655916214,-0.15355324745178223,-0.08202480524778366,-0.17206452786922455,0.035834573209285736,0.07691406458616257,-0.07455924898386002,-0.026966001838445663,0.04402194917201996,-0.22856946289539337,-0.08793230354785919,-0.16703490912914276,0.0786428228020668,-0.5403357148170471,-0.052084218710660934,-0.19342826306819916,-0.20336465537548065,-0.0852522999048233,0.28327804803848267,-0.21031665802001953,0.10189878940582275,-0.07769925147294998,0.44448116421699524,0.14114785194396973,0.20611456036567688,-0.07661699503660202,-0.12392646074295044,0.2420203983783722,0.3976580798625946,0.20605210959911346,-0.18358708918094635,0.4168334901332855,0.10409431904554367,0.3117382526397705,-0.10532638430595398,0.2821981906890869,0.2681466042995453,-0.10639114677906036,-0.051480431109666824,-0.07464972883462906,0.21077486872673035,0.03499193117022514,-0.12416256964206696,-0.16970789432525635,-0.018941355869174004,0.07028570026159286,0.17891086637973785,-0.004888529423624277,0.0519440732896328,0.16942265629768372,0.07563819736242294,0.046011168509721756,0.04991661384701729,-0.07505112141370773,0.05262323468923569,0.201695516705513,0.13362914323806763,-0.159861758351326,-0.2094242125749588,-0.14605624973773956,-0.06776009500026703,0.30028432607650757,-0.30797940492630005,0.10350252687931061,-0.16290219128131866,-0.1349126696586609,-0.10686811059713364,-0.114137664437294,0.10074803978204727,0.06746230274438858,-0.21166536211967468,-0.049848977476358414,0.012790440581738949,0.09108509868383408,-0.044032130390405655,-0.05598263815045357,0.273048996925354,0.1207786276936531,0.0035947291180491447,0.13505542278289795,0.05323476344347,-0.10093847662210464,0.022497015073895454,0.069944828748703,-0.04196261242032051,0.22245897352695465,-0.0649343952536583,0.18803146481513977,-0.05528208240866661,-0.012591284699738026,0.06560324877500534,-0.0019579764921218157,0.00019659273675642908,-0.2837526798248291,0.10464278608560562,0.16934236884117126,-0.003126531606540084,0.05617205798625946,0.12030597776174545,0.3977057635784149,0.004789253696799278,0.15143679082393646,0.35557955503463745,-0.18630550801753998,0.22025832533836365,-0.40043821930885315,-0.002032674616202712,-0.11903785169124603,0.09017151594161987,0.03345837816596031,-0.12014792114496231,-0.1651800125837326,-0.06114685907959938,-0.11039164662361145,-0.0751548707485199,0.09410905092954636,-0.0019205583957955241,-0.08803831785917282,0.013602311722934246,-0.0315723717212677,-0.04322518780827522,0.0744735449552536,0.15718628466129303,0.2572132349014282,-0.20198732614517212,0.06697964668273926,0.4755949378013611,-0.07275398820638657,-0.1271490752696991,0.1824844926595688,-0.16065187752246857,-0.0017275885911658406,-0.15331920981407166,0.24457037448883057,-0.08496885001659393,0.07747586816549301,-0.3786110579967499,-0.08834576606750488,0.06604152172803879,0.07028854638338089,-0.02599657140672207,-0.09784869104623795,-0.30802011489868164,0.26829931139945984,0.025043297559022903,-0.13974232971668243,0.15901319682598114,-0.028958860784769058,0.04501236975193024,0.03216273710131645,0.057220395654439926,-0.04583989828824997,0.08726133406162262,-0.19230367243289948,-0.04418721795082092,-0.03037593513727188,0.014125622808933258,-0.13425999879837036,0.3258799612522125,0.22108739614486694,-0.01594366505742073,0.006283508148044348,-0.14529533684253693,-0.010826202109456062,-0.0618613101541996,-0.12941588461399078,0.09042511135339737,-0.19347776472568512,-0.1057460755109787,-0.1459973156452179,-0.04590621963143349,0.2184915989637375,0.021915748715400696,-0.03046990931034088,0.1970023512840271,0.20648466050624847,-0.11077394336462021,0.018595270812511444,-0.15613733232021332,0.2096182256937027,-0.1274033486843109,-0.30489712953567505,0.17256572842597961,0.08988302201032639,0.016076279804110527,-0.13817526400089264,-0.2208709567785263,-0.16021983325481415,0.4340397119522095,0.24340908229351044,0.019275028258562088,-0.3158807158470154,0.05977647751569748,-0.0743979662656784,-0.11847784370183945,0.0008874395280145109,0.07124398648738861,0.0075043910183012486,0.22979186475276947,0.2634807527065277,-0.0013071555877104402,-0.05025221407413483,-0.4110178053379059,-0.016103925183415413,-0.08357222378253937,0.14666739106178284,-0.4876002073287964,-0.03763878345489502,-0.24291640520095825,-0.1491810381412506,0.11083133518695831,-0.061937808990478516,0.10264097899198532,-0.20925946533679962,-0.06797503679990768,0.07165078818798065,0.14984245598316193,0.1619897037744522,0.027671823278069496,0.05334138870239258,0.20430311560630798,0.22261105477809906,-0.11751789599657059,0.14024150371551514,0.043547458946704865,0.1304098516702652,0.3154953420162201,0.07438647747039795,0.12146220356225967,0.2102135568857193,-0.1763250231742859,0.06199110299348831,-0.1411161869764328,0.07302840054035187,-0.3978680968284607,-0.07334744185209274,0.0064191920682787895,0.2663474678993225,-0.057212989777326584,0.11793120205402374,0.26666367053985596,-0.07517366111278534,-0.16857761144638062,-0.21454200148582458,-0.019924351945519447,0.08732376247644424,0.09978722780942917,0.03694029524922371,0.19564460217952728,-0.10406474769115448,-0.03525833413004875,-0.053284794092178345,0.011013523675501347,-0.0046861604787409306,0.0480085052549839,-0.05541572347283363,0.2607356011867523,-0.03782636299729347,0.07796624302864075,-0.011131810024380684,-0.0314953438937664,-0.14265981316566467,-0.064945288002491,0.06751714646816254,0.21603959798812866,-0.07715152204036713,-0.09561382234096527,0.039945781230926514,0.10004885494709015,-0.0039891814813017845,-0.3334971070289612,-0.11325134336948395,-0.23221543431282043,0.37419188022613525,0.19143642485141754,-0.09871204197406769,0.3302507996559143,0.11882340162992477,0.05420512333512306,-0.19050949811935425,-0.04216839373111725,-0.01835102215409279,0.05405910685658455,0.07882265001535416,0.1543395072221756,-0.028583966195583344,-0.09119711816310883,-0.0741228386759758,0.02892504446208477,0.006796991918236017,0.02545187994837761,-0.09123149514198303,-0.010603222995996475,0.08612735569477081,-0.04330343380570412,0.2885221242904663,-0.05503545328974724,0.15242986381053925,-0.3170185387134552,-0.3728385269641876,0.04132798686623573,-0.17090104520320892,-0.219814270734787,-0.08115311712026596,-0.05415003374218941,0.007717470172792673,0.05654933676123619,-0.13849282264709473,0.054043661803007126,0.048178691416978836,0.0034372354857623577,0.0766272321343422,0.04334160313010216,0.03368180990219116,-0.010726282373070717,-0.015526778064668179,0.45929548144340515,0.09113174676895142,-0.10156407952308655,0.11934070289134979,0.1879284679889679,0.011687975376844406,0.1135483905673027,0.27100566029548645,-0.004719884134829044,-0.12911772727966309,0.00918564572930336,-0.11137627065181732,0.2014613002538681,-0.02906254306435585,-0.031190108507871628,0.04203050583600998,0.1015227809548378,-0.009213948622345924,0.059183232486248016,0.09721309691667557,-0.06592771410942078,0.13789688050746918,0.09435509890317917,-0.07627934217453003,0.12432931363582611,0.055413104593753815,0.007205643691122532,0.173300638794899,-0.05129349231719971,0.0315888412296772,-0.14406147599220276,-0.022529054433107376,-0.12014756351709366,0.21621613204479218,0.004717634525150061,0.11884336918592453,-0.18489547073841095,0.0601002462208271,0.027967438101768494,-0.008517292328178883,-0.07047934085130692,-0.08111396431922913,-0.01335085742175579,0.022074678912758827,-0.07560483366250992,-0.0907963290810585,-0.00037706404691562057,-0.06721377372741699,0.010161975398659706,-0.06978513300418854,0.014287007972598076,0.3409111201763153,-0.08474179357290268,-0.01877315156161785,0.08898039907217026,-0.185263991355896,0.12116649746894836,-0.06469890475273132,-0.0740087553858757,-0.04234262555837631,-0.1466648429632187,0.14850084483623505,-0.001613169675692916,0.1441042125225067,0.008165284991264343,-0.019433507695794106,0.020397478714585304,-0.0299555454403162,-0.17019841074943542,0.02723604068160057,0.009871642105281353,0.10055229067802429,0.04976882040500641,0.032037775963544846,-0.08065352588891983,0.000651791226118803,-0.07609575986862183,0.08131542056798935,-0.18042534589767456,-0.36438554525375366,0.7022806406021118,0.3591718375682831,-0.37516722083091736,0.023317037150263786,0.039374541491270065,-0.08267807215452194,0.41463059186935425,-0.7663557529449463,1.017862319946289,0.787337064743042,0.07600604742765427,-0.24766330420970917,0.1626676470041275,-0.6385155916213989,-0.10315194725990295,-0.264021098613739,0.128269225358963,-0.27219608426094055,0.15865950286388397,0.14434672892093658,0.13586828112602234,-0.016668997704982758,0.22469840943813324,0.0794217586517334,-0.10795481503009796,0.1812766045331955,-0.2192443311214447,-0.04259650781750679,0.09021124243736267,-0.12597210705280304,0.0827864333987236,-0.11145050823688507,0.08655243366956711,0.1850634515285492,0.17930865287780762,0.16130639612674713,0.009424667805433273,-0.07928874343633652,-0.2146356701850891,0.01759670302271843,0.03516358882188797,0.03166907653212547,-0.0341389998793602,0.1592034250497818,0.32536226511001587,-0.03494855388998985,-0.07877073436975479,-0.35471946001052856,-0.08822421729564667,-0.12242195755243301,0.2998605966567993,0.04494650661945343,-0.023193905130028725,-0.24631516635417938,0.015460256487131119,0.0868726372718811,-0.10267342627048492,0.14261062443256378,0.041464511305093765,-0.2766101360321045,0.07293396443128586,0.24261575937271118,0.21779610216617584,-0.05439872294664383,0.11451467871665955,-0.1305880844593048,-0.036852508783340454,0.11861741542816162,-0.30169880390167236,0.07785604149103165,0.24295753240585327,-0.1533765345811844,-0.1444045752286911,0.026058189570903778,-0.06290838122367859,0.19194427132606506,0.2797689735889435,0.013562016189098358,-0.01843070797622204,-0.011159182526171207,0.17415215075016022,-0.13477610051631927,0.13763481378555298,-0.13564687967300415,0.03855416551232338,-0.049025215208530426,0.2532891035079956,-0.07142619788646698,-0.18653883039951324,-0.03763880580663681,-0.17214812338352203,-0.25996559858322144,0.1278035044670105,-0.03514821082353592,-0.1875074803829193,-0.13257485628128052,-0.01715938001871109,0.09665525704622269,-0.05270720645785332,-0.18425551056861877,0.11457116156816483,0.18086636066436768,-0.0369858480989933,-0.1707860678434372,0.06861957907676697,0.19765803217887878,0.038100916892290115,0.19180335104465485,0.26568081974983215,0.10006660223007202,0.18272966146469116,0.18099644780158997,0.011362195014953613,0.2155051827430725,0.02546127699315548,-0.1783989667892456,0.15434736013412476,0.007065608166158199,-0.2412409484386444,0.08895324170589447,0.34455692768096924,-0.0050458526238799095,0.15481534600257874,0.13952375948429108,0.11464247852563858,0.05064363777637482,0.11607968807220459,0.11326708644628525,-0.22054308652877808,0.0783175379037857,0.12896008789539337,-0.16122598946094513,0.03257611021399498,-0.22663389146327972,-0.08530773222446442,0.15980716049671173,0.07334982603788376,0.3273107409477234,-0.10275330394506454,0.173941969871521,0.17727701365947723,-0.10131823271512985,-0.23280151188373566,0.14618943631649017,-0.1563975065946579,-0.003948242403566837,0.2963578999042511,0.057457420974969864,-0.3619491159915924,-0.1671566665172577,-0.053565699607133865,0.0956399068236351,-0.07506685703992844,0.1338733434677124,-0.30435726046562195,-0.11079267412424088,0.049542058259248734,0.11329488456249237,0.211078941822052,-0.000615543918684125,-0.06746009737253189,0.17608757317066193,-0.1624240130186081,0.0022368384525179863,-0.1481984406709671,-0.057649463415145874,-0.1504223346710205,0.006941257510334253,0.14141595363616943,-0.19309701025485992,0.09273601323366165,-0.05136994272470474,-0.15555982291698456,-0.1338808834552765,0.08831819146871567,-0.13448050618171692,-0.16266819834709167,-0.2561831772327423,0.25742602348327637,-0.0612066313624382,0.14879760146141052,-0.0781165361404419,0.31479230523109436,0.0748647078871727,-0.18710705637931824,-0.05324331670999527,-0.19813230633735657,-0.2850102186203003,0.07024167478084564,0.1113826334476471,-0.028918113559484482,0.049767881631851196,-0.10023757815361023,-0.030275607481598854,0.08348676562309265,0.2442498356103897,0.22426870465278625,0.10505098104476929,-0.02670694887638092,-0.14529283344745636,-0.134304940700531,0.12087316811084747,-0.19768951833248138,-0.33403539657592773,0.06783632934093475,0.22053338587284088,-0.003033342771232128,-0.1950499266386032,-0.05055435746908188,0.01252084132283926,0.20408512651920319,0.15295876562595367,-0.32215654850006104,-0.31140854954719543,-0.15130853652954102,-0.011840373277664185,-0.037151236087083817,0.025436829775571823,-0.13252034783363342,0.08598121255636215,0.02554403804242611,-0.268738329410553,-0.13950596749782562,0.16119815409183502,0.10323013365268707,-0.06433356553316116,-0.13245736062526703,-0.06332074850797653,0.1957208663225174,-0.09690457582473755,0.1011945903301239,-0.08626101166009903,0.06509456038475037,-0.20646601915359497,-0.11807671934366226,-0.046937495470047,-0.07615678012371063,-0.08488807827234268,0.003739067818969488,0.2695840001106262,-0.00920795276761055,0.030445050448179245,-0.03055476024746895,-0.12209030985832214,0.11661981046199799,-0.17189033329486847,0.02456558309495449,0.12749075889587402,0.15449844300746918,0.19435489177703857,-0.11591050028800964,0.13662777841091156,-0.031168509274721146,-0.15097777545452118,0.054490648210048676,-0.09961257129907608,-0.049817342311143875,-0.026729360222816467,-0.05206058546900749,-0.047886598855257034,0.05586940795183182,-0.18169859051704407,-0.03601071983575821,0.1785067468881607,0.14259769022464752,0.2619909346103668,-0.0966930240392685,-0.044845860451459885,0.07735498249530792,-0.011686889454722404,0.1509544551372528,-0.005880473647266626,0.12518537044525146,0.06368015706539154,-0.08564508706331253,0.23911850154399872,0.027957718819379807,-0.03321021795272827,-0.20834940671920776,-0.16510966420173645,0.0684405192732811,0.0945034995675087,0.22104130685329437,0.1654316782951355,0.022359156981110573,0.08895932883024216,0.19565920531749725,-0.12162599712610245,0.06856060773134232,-0.21342438459396362,0.037910930812358856,0.2455827295780182,0.050103604793548584,-0.04589970409870148,0.024846285581588745,-0.055616483092308044,0.2591075003147125,0.2700118124485016,0.04423990845680237,-0.18854521214962006,-0.09538505226373672,0.1426606923341751,-0.2535421550273895,0.21544192731380463,0.03941645845770836,0.12124589830636978,0.04292227327823639,-0.1356881856918335,-0.07408188283443451,0.21842274069786072,-0.03135517239570618,-0.14832928776741028,-0.06559610366821289,0.08729837089776993,0.09173997491598129,-0.12988486886024475,-0.03807316720485687,-0.20188064873218536,0.24316710233688354,0.0845736488699913,-0.16286805272102356,-0.13938839733600616,-0.10095943510532379,0.04476947709918022,-0.19073165953159332,-0.015231100842356682,0.1362719088792801,-0.025288818404078484,-0.16066473722457886,-0.08574096113443375,0.023652460426092148,0.09617909789085388,-0.11381787061691284,-0.024150704964995384,0.016461562365293503,0.24094010889530182,-0.044807206839323044,0.04147900268435478,-0.1094260886311531,-0.0285782553255558,-0.16100098192691803,-0.38756054639816284,-0.09451396018266678,-0.05136299505829811,0.3521868586540222,0.22615469992160797,-0.03257661312818527,-0.09491626918315887,0.1134055033326149,-0.07012069225311279,-0.14548620581626892,-0.28159186244010925,-0.16916286945343018,0.06976711004972458,0.1230120062828064,0.08636019378900528,0.032560817897319794,-0.006014443933963776,-0.035819560289382935,-0.18775838613510132,-0.19909849762916565,0.07885733246803284,0.40155184268951416,0.10692452639341354,-0.12382535636425018,-0.37338289618492126,-0.22393620014190674,0.024583900347352028,-0.08029187470674515,-0.20050249993801117,-0.13258324563503265,-0.051377713680267334,-0.17179475724697113,-0.26123350858688354,-0.15743975341320038,-0.3120955526828766,-0.022756004706025124,-0.0978626161813736,0.010231941007077694,-0.08028966188430786,0.15851208567619324,-0.1585257351398468,0.021890906617045403,-0.06775114685297012,-0.034327778965234756,0.015434743836522102,0.10359705984592438,-0.15552395582199097,-0.18299666047096252,0.025974169373512268,0.3094584047794342,-0.10813017934560776,-0.05772088095545769,-0.011822930537164211,0.09103084355592728,-0.0338868647813797,0.053393539041280746,0.1971382200717926,-0.1986190229654312,-0.12866540253162384,-0.08472487330436707,0.17488284409046173,-0.17075547575950623,0.07358366250991821,-0.19991298019886017,-0.03731628134846687,-0.15172934532165527,0.061103496700525284,0.23513391613960266,0.2533907890319824,-0.04753665253520012,-0.060268986970186234,-0.3661673069000244,0.04635224863886833,0.058231253176927567,-0.021870704367756844,-0.0994051918387413,-0.07118503004312515,-0.002608847338706255,-0.10121390223503113,-0.052366774529218674,-0.11484454572200775,-0.12694613635540009,-0.1388571709394455,0.05364218354225159,0.0009858639677986503,-0.025128409266471863,0.06684359163045883,0.03866176679730415,0.00730156572535634,0.06566645205020905,0.0693085640668869,0.04486376792192459,-0.03534520044922829,0.3093530535697937,0.10295601189136505,0.22532403469085693,0.2667202949523926,-0.06774414330720901,-0.17406970262527466,-0.020723693072795868,0.06772711873054504,0.06706587225198746,0.25603896379470825,-0.10464660078287125,-0.09402982145547867,-0.3105813264846802,0.22382564842700958,0.21853318810462952,0.08562087267637253,0.06440684199333191,-0.0515994057059288,-0.20647357404232025,0.2925674319267273,0.004359813407063484,0.06363287568092346,-0.19407540559768677,-0.06576241552829742,-0.13957837224006653,-0.056120626628398895,-0.07277622818946838,0.2753693759441376,-0.08087638020515442,0.2354123890399933,0.2529512047767639,0.1331094652414322,0.10022012144327164,0.14527031779289246,-0.05097578093409538,0.23575414717197418,0.5145122408866882,-0.25145551562309265,-0.19334553182125092,0.2683076858520508,-0.16465497016906738,-0.034422799944877625,-0.10396015644073486,-0.07618898153305054,0.01728244312107563,-0.15126685798168182,0.03723715990781784,0.09470126777887344,0.1045123040676117,-0.0603826530277729,0.07517451047897339,0.24865040183067322,-0.18135079741477966,-0.03730643168091774,-0.3087358772754669,0.34737667441368103,0.0229951161891222,-0.21974673867225647,-0.07837935537099838,-0.18880946934223175,0.06308431178331375,0.32596948742866516,-0.005145609844475985,0.15560901165008545,-0.19153274595737457,-0.05388479679822922,-0.23917819559574127,-0.030488822609186172,0.15887606143951416,0.05579804629087448,-0.1561649739742279,-0.16591008007526398,-0.09084364771842957,0.157311350107193,0.14511466026306152,0.2102467119693756,-0.16817070543766022,-0.08307091891765594,-0.20531880855560303,-0.11976500600576401,0.030532604083418846,0.04308781027793884,0.19620415568351746,-0.050856009125709534,0.14101915061473846,-0.017070582136511803,0.11178550869226456,0.08123912662267685,-0.014445184729993343,0.0807935819029808,-0.17208939790725708,0.21588264405727386,-0.06007450073957443,-0.13661758601665497,-0.07647829502820969,-0.06654953211545944,-0.10566312819719315,-0.23398436605930328,-0.03495200350880623,0.10758347809314728,-0.006160101853311062,-0.14083780348300934,-0.07027314603328705,-0.3006709814071655,0.05239100009202957,-0.24485436081886292,-0.19770461320877075,-0.0094810975715518,-0.2254004180431366,-0.15007157623767853,-0.023140955716371536,0.1480688601732254,0.021893210709095,-0.05618913099169731,-0.23525136709213257,0.14427430927753448,-0.07111417502164841,-0.02726678177714348,-0.26735547184944153,-0.14611433446407318,0.08789826184511185,0.11287043988704681,0.0042395684868097305,0.04641811549663544,-0.2882440686225891,-0.041729431599378586,-0.07614617049694061,0.11774227768182755,-0.13342167437076569,-0.005086294841021299,-0.23347461223602295,0.041637517511844635,0.10975269973278046,0.24710024893283844,0.03654664382338524,0.009167376905679703,-0.07972937077283859,-0.049421679228544235,-0.0054871090687811375,0.13920480012893677,0.11981615424156189,0.07018059492111206,-0.10099907219409943,0.12432451546192169,0.016184601932764053,-0.09399794787168503,0.1484382450580597,0.20746518671512604,-0.04588581621646881,-0.2288098782300949,-0.2830084562301636,-0.212605282664299,0.004633329808712006,0.09613689035177231,-0.004280883818864822,-0.05289965495467186,0.16489598155021667,0.0986284539103508,-0.07282143086194992,-0.10987360775470734,-0.14120148122310638,0.23126620054244995,0.14660580456256866,-0.05910520628094673,0.04732714220881462,0.2685736417770386,-0.06701833009719849,-0.0651475042104721,-0.18724200129508972,0.017456701025366783,0.27866649627685547,0.2236645519733429,-0.007526027504354715,0.04149603098630905,-0.09993212670087814,0.016315685585141182,0.05287842079997063,-0.13174162805080414,0.016116145998239517,-0.10735370218753815,-0.10680650919675827,-0.0976630449295044,-0.0555313415825367,0.18204902112483978,0.0028704137075692415,0.02162727527320385,0.0023710434325039387,-0.16927047073841095,-0.25088563561439514,-0.2043759524822235,-0.04326680302619934,0.14195196330547333,0.086702361702919,0.19053593277931213,-0.09772831201553345,-0.0009378534741699696,0.09667082130908966,0.10241828113794327,0.11921240389347076,0.1006283387541771,-0.08158537745475769,0.1751621514558792,0.008618908002972603,-0.11812230944633484,-0.14853283762931824,0.03373333066701889,0.15034033358097076,-0.11931440979242325,0.0760263130068779,-0.04589579254388809,0.14307260513305664,-0.11876089125871658,0.0010219382820650935,0.15923036634922028,0.06056695058941841,-0.08546485006809235,-0.1044769436120987,0.03571733087301254,0.10496824979782104,0.02807619795203209,-0.2859356105327606,-0.16515116393566132,-0.1354077011346817,0.1571868509054184,0.12334206700325012,0.059154827147722244,0.21521873772144318,0.18561330437660217,-0.28281185030937195,-0.17362311482429504,0.18276366591453552,-0.013744669035077095,-0.04541463032364845,-0.24969807267189026,-0.04138777405023575,0.16678357124328613,-0.07744266837835312,0.2422628253698349,0.24922490119934082,0.1085762232542038,-0.3379523456096649,-0.17906443774700165,-0.08860046416521072,-0.35324129462242126,-0.02250787429511547,0.12372534722089767,0.1246671974658966,-0.00023667752975597978,-0.08161364495754242,-0.1020893082022667,0.04635452851653099,-0.04804900288581848,0.1258695125579834,0.017144635319709778,-0.12426741421222687,-0.16882573068141937,-0.3029922842979431,0.017176153138279915,0.0006468364736065269,-0.11981778591871262,0.005348906386643648,-0.22160352766513824,-0.1008063554763794,0.10308756679296494,0.2396002560853958,-0.014110773801803589,-0.12373988330364227,-0.2979293465614319,0.047695063054561615,0.09686647355556488,0.03902623429894447,-0.005021016113460064,0.17129287123680115,0.09647513926029205,0.013482251204550266,-0.1308591365814209,0.055138278752565384,0.12599991261959076,0.03176669403910637,-0.11227813363075256,-0.12417629361152649,0.101762555539608,0.08575799316167831,0.2204253375530243,-0.1343163400888443,0.05605979263782501,-0.0010457222815603018,0.08527249842882156,-0.004238883964717388,-0.055635739117860794,0.09507981687784195,0.1539025455713272,-0.14766715466976166,0.020313521847128868,-0.07872635126113892,0.0941573828458786,0.12100092321634293,0.23198027908802032,0.0976097360253334,-0.07725705951452255,-0.15049098432064056,0.02610092982649803,-0.055558957159519196,-0.08022146672010422,0.051301319152116776,-0.12721428275108337,0.03289242088794708,0.16932031512260437,0.004250678699463606,0.17040269076824188,-0.20930442214012146,-0.10296905040740967,-0.08498281240463257,0.04363498464226723,-0.0115892319008708,0.24881553649902344,-0.19930532574653625,0.014938480220735073,-0.0312392208725214,-0.13686880469322205,-0.03120354935526848,-0.12815503776073456,-0.1107790395617485,-0.03821267560124397,0.23199138045310974,0.05476686730980873,0.1439964920282364,0.24648253619670868,-0.10719387233257294,0.07637841254472733,-0.021815044805407524,0.21029052138328552,-0.07369205355644226,-0.09164037555456161,0.0017301295883953571,0.05288352444767952,-0.09510316699743271,0.16177421808242798,-0.23845882713794708,-0.08102750033140182,0.12328014522790909,0.17812122404575348,0.18023499846458435,-0.02859179861843586,-0.2212335169315338,-0.041537076234817505,-0.020470334216952324,0.055669110268354416,-0.01432319451123476,0.15154866874217987,0.1251094788312912,0.013311798684298992,-0.18907548487186432,-0.16577452421188354,0.05911006033420563,-0.13754697144031525,0.009601546451449394,-0.03647550195455551,0.06401032209396362,0.038809891790151596,0.11809691041707993,0.10004200786352158,0.036499038338661194,0.05848773941397667,0.11164332181215286,-0.206014484167099,0.046644870191812515,-0.18204563856124878,0.005399181041866541,-0.05539514124393463,0.11493299156427383,-0.08225137740373611,-0.03246675431728363,-0.04488673061132431,0.1270914077758789,0.04820806160569191,0.06090351566672325,-0.11260373145341873,0.15948699414730072,0.05460197478532791,-0.012669379822909832,-0.0009373353095725179,-0.0500037707388401,0.03701792284846306,0.18814392387866974,0.027594678103923798,0.09796493500471115,0.12720121443271637,0.23141886293888092,-0.26217415928840637,0.0016110553406178951,0.14611056447029114,-0.048076897859573364,-0.012185261584818363,0.13283316791057587,-0.04088358208537102,-0.4397076666355133,-0.2144204080104828,-0.02125270664691925,0.0783170834183693,-0.11290843784809113,0.0676969587802887,-0.22532418370246887,0.03883351758122444,-0.016468241810798645,-0.13976389169692993,0.13724184036254883,-0.10910672694444656,0.03526429086923599,0.25256505608558655,0.26514241099357605,0.03494889661669731,0.2819434702396393,0.179523304104805,-0.07017499953508377,-0.1453152298927307,0.0463668629527092,0.022368697449564934,-0.16575032472610474,0.11043186485767365,0.2969374656677246,0.1542510688304901,-0.041593316942453384,0.029031597077846527,0.07634381949901581,0.1205599382519722,-0.15690210461616516,-0.011017238721251488,0.11841916292905807,0.1839357167482376,-0.09961274266242981,-0.0653587356209755,-0.0950075313448906,0.0008213542168959975,0.13051773607730865,0.02962072379887104,0.03596513345837593,-0.11693546921014786,0.17069551348686218,-0.26020219922065735,-0.056275833398103714,0.1297370195388794,-0.17070671916007996,0.28841257095336914,-0.0005890765460208058,0.01702972874045372,-0.15530402958393097,-0.06802140176296234,-0.041277337819337845,0.29064640402793884,0.19120393693447113,0.08302345871925354,-0.10510607063770294,0.20846305787563324,-0.02022680640220642,-0.14380478858947754,-0.05236728489398956,-0.1678973138332367,-0.1395712047815323,-0.13512694835662842,0.08515876531600952,-0.05199423059821129,0.03648880869150162,-0.007865176536142826,0.21259234845638275,0.2728062570095062,-0.008611406199634075,0.14155715703964233,-0.15886510908603668,0.0006318812374956906,-0.10599116235971451,-0.06405216455459595,0.03648732230067253,0.2794189751148224,0.23836848139762878,-0.10782657563686371,0.019148003309965134,0.03914555534720421,0.09814178198575974,0.12100663781166077,0.06677202880382538,-0.06713055074214935,-0.043288979679346085,0.026902323588728905,-0.010088019073009491,-0.08319909125566483,0.24715977907180786,-0.03864089399576187,0.09159819781780243,-0.0013531451113522053,0.05437781289219856,0.10616033524274826,0.17529113590717316,0.10918639600276947,-0.09830448776483536,0.022621240466833115,0.15845680236816406,-0.045528411865234375,0.15893901884555817,-0.1279682070016861,0.09343837201595306,0.04337409883737564,0.09735877811908722,-0.01270848885178566,-0.20617888867855072,0.16933806240558624,0.14451734721660614,0.07857296615839005,0.1548301726579666,0.10898303985595703,-0.010320940986275673,-0.0832739919424057,0.06254246085882187,0.04760657250881195,-0.01601320505142212,-0.20532648265361786,-0.19500020146369934,0.13151492178440094,-0.08365452289581299,-0.1350402683019638,0.08417754620313644,0.041013047099113464,0.14197209477424622,0.08612186461687088,-0.2237105518579483,-0.015744244679808617,0.2173430472612381,-0.001056756591424346,-0.04278896376490593,-0.11414206773042679,0.027812356129288673,0.08137113600969315,0.057314176112413406,-0.05349980294704437,0.09861468523740768,0.13298426568508148,-0.1310795694589615,-0.09701955318450928,-0.05667009949684143,0.0588105246424675,-0.043031152337789536,0.1453765481710434,0.14629623293876648,-0.12410417199134827,0.043372347950935364,-0.20226648449897766,-0.09603603929281235,0.06294354051351547,0.007307003252208233,0.04595516622066498,0.06535844504833221,-0.16957531869411469,0.050974491983652115,-0.0508556105196476,0.25222575664520264,0.032243307679891586,-0.15167540311813354,-0.11675089597702026,-0.22719211876392365,0.02315487153828144,-0.07730697840452194,0.09488064050674438,0.1669815480709076,0.2692931890487671,0.04873128607869148,-0.013388351537287235,0.16530749201774597,0.03256242349743843,-0.14358960092067719,-0.24429121613502502,0.05144049599766731,0.29188188910484314,-0.007585600018501282,0.1946420818567276,0.07326889783143997,-0.13780242204666138,0.09950049966573715,0.052897464483976364,-0.20636095106601715,-0.024912910535931587,-0.14760786294937134,0.18428882956504822,0.0307791605591774,0.10292171686887741,-0.06968497484922409,0.2801245450973511,0.13360480964183807,-0.1111520305275917,0.018832888454198837,-0.21682403981685638,0.009134192019701004,-0.1272403597831726,-0.11483614146709442,0.08273032307624817,0.11775980144739151,-0.1940826028585434,-0.07292511314153671,0.06021096929907799,0.08093927800655365,0.014141757972538471,-0.027621641755104065,0.08623610436916351,-0.35071396827697754,0.1774882972240448,-0.1664225161075592,0.11256981641054153,0.028418609872460365,-0.006209113169461489,-0.1127488911151886,-0.04828699678182602,0.15089847147464752,-0.29938918352127075,-0.052153076976537704,0.23188355565071106,-0.05643931031227112,0.0703563466668129,0.05122872442007065,0.025605885311961174,-0.0017202617600560188,0.058647189289331436,0.05689666047692299,-0.2725287675857544,0.15610769391059875,-0.05420693755149841,0.24237290024757385,-0.03602728620171547,-0.08539663255214691,-0.11627500504255295,0.14947202801704407,0.09709320962429047,-0.03727570176124573,-0.18513716757297516,0.19374121725559235,0.0894138514995575,0.08582727611064911,-0.0017285114154219627,0.5822542905807495,0.24938057363033295,0.42740240693092346,-0.9279805421829224,-0.25127357244491577,0.06599876284599304,0.11158415675163269,0.06314479559659958,0.4636802673339844,0.1070435419678688,-0.9807367920875549,0.19765327870845795,-0.08647683262825012,-0.7517616748809814,0.17133145034313202,-0.17259623110294342,-0.17081360518932343,-0.2287554293870926,0.2805527150630951,-0.2527632713317871,0.060607802122831345,0.17488960921764374,0.019125059247016907,-0.04587235301733017,-0.2982296049594879,0.10459602624177933,-0.05836472660303116,-0.006682955659925938,0.13060683012008667,-0.05268603935837746,0.22921888530254364,0.06727822870016098,-0.18060187995433807,-0.19904884696006775,0.07596303522586823,0.005531820468604565,0.03553440421819687,-0.02854897826910019,0.09575692564249039,-0.17631331086158752,-0.09559224545955658,0.13157044351100922,-0.18662993609905243,-0.007751068565994501,-0.10935381054878235,0.09333290904760361,0.08429089188575745,0.07973841577768326,-0.12713593244552612,0.09433801472187042,0.07981453090906143,-0.15992575883865356,-0.005918245296925306,-0.21894073486328125,-0.16900154948234558,0.11439582705497742,0.0541076585650444,-0.048028614372015,0.06835412979125977,-0.18268294632434845,0.059004299342632294,0.043066300451755524,0.009385458193719387,0.198959618806839,-0.3017735779285431,-0.0832362249493599,-0.1657177060842514,0.11092445254325867,0.109866663813591,0.22558410465717316,0.18264006078243256,0.018657902255654335,-0.22611720860004425,0.00710426876321435,0.0830872505903244,-0.40568405389785767,0.5478320717811584,0.1581287980079651,0.062443193048238754,-0.03683814778923988,0.03532034903764725,-0.14728088676929474,-0.18281812965869904,0.07147680968046188,-0.0016668594907969236,-0.0424182303249836,0.10001587122678757,-0.1290322244167328,0.1978771686553955,0.2085166722536087,0.2040313333272934,0.023741310462355614,-0.19785955548286438,-0.05484520643949509,-0.10621219128370285,-0.06202687323093414,-0.32956427335739136,0.25269579887390137,-0.18634848296642303,0.18705959618091583,-0.3337152600288391,0.07503492385149002,0.2047446221113205,-0.042195264250040054,0.05300658568739891,0.04424358904361725,-0.18510645627975464,0.024511972442269325,-0.10777381807565689,0.12274593114852905,-0.3654058873653412,0.11645110696554184,-0.24624228477478027,-0.18337589502334595,-0.2483224719762802,0.11382494121789932,-0.05280652642250061,-0.12183157354593277,0.18702839314937592,0.15840035676956177,-0.20728370547294617,0.11995086073875427,0.08127692341804504,-0.11815871298313141,-0.028441529721021652,0.007998688146471977,0.13822408020496368,-0.10369236767292023,-0.10941260308027267,0.13836126029491425,-0.29929590225219727,0.08764811605215073,0.4771590530872345,-0.26617130637168884,-0.14251935482025146,0.371409147977829,-0.00664770370349288,0.09460747241973877,-0.00895804725587368,-0.13482117652893066,-0.040851954370737076,0.011653021909296513,0.38875624537467957,0.09170229732990265,-0.09796708077192307,-0.10633974522352219,0.14119482040405273,0.03627554699778557,0.27233341336250305,0.078844353556633,0.09370420128107071,-0.3150693476200104,0.14018191397190094,0.05688834562897682,-0.08545465022325516,0.012703930959105492,0.18184414505958557,0.10324668139219284,0.09276200830936432,-0.01038492564111948,-0.2457476258277893,0.0981970727443695,0.30370476841926575,0.17207466065883636,-0.25574159622192383,0.0375342033803463,-0.13294708728790283,0.11269824206829071,-0.08631628006696701,0.01031306479126215,0.11501055955886841,-0.1653798371553421,0.08735853433609009,-0.16177532076835632,0.21155227720737457,0.2138550579547882,-0.09051647037267685,0.1401568353176117,-0.173149973154068,-0.14891782402992249,-0.27160122990608215,0.15088923275470734,-0.007816314697265625,-0.20628589391708374,0.1466883420944214,0.06207335367798805,-0.16054491698741913,-0.025574009865522385,-0.15348723530769348,-0.1845335066318512,0.06875700503587723,-0.08207248151302338,-0.09857300668954849,0.0739920437335968,-0.1093439906835556,-0.17408767342567444,-0.021049857139587402,-0.11993692815303802,0.03311688080430031,0.10572433471679688,-0.12651677429676056,0.10682310163974762,0.22587239742279053,0.2879343330860138,-0.17752958834171295,0.21303127706050873,-0.053079985082149506,-0.10326075553894043,0.19854412972927094,0.2316267490386963,0.3379928171634674,0.1444486826658249,-0.10427764058113098,0.1381983757019043,-0.1606854945421219,-0.03368125110864639,0.19980889558792114,0.012117237783968449,-0.2657431662082672,-0.03955679014325142,-0.18877945840358734,0.042118050158023834,-0.13410964608192444,-0.1653488725423813,-0.021406074985861778,0.06624619662761688,0.20442087948322296,0.1735462248325348,-0.11156561225652695,0.06135433167219162,-0.06252459436655045,-0.0007223337888717651,0.22642341256141663,0.1062621995806694,0.030934862792491913,0.00003385306627023965,-0.23728178441524506,-0.31911206245422363,-0.10517627745866776,-0.08374977856874466,0.06422638148069382,-0.0887320265173912,-0.046749990433454514,0.24202077090740204,-0.17928023636341095,-0.2108187973499298,0.15096740424633026,0.11218007653951645,-0.11969273537397385,0.09055668860673904,-0.2987942397594452,-0.060372307896614075,0.1846950203180313,0.02819063700735569,-0.02839319221675396,0.11558070778846741,0.030320335179567337,0.19304975867271423,-0.3201838433742523,0.05349615588784218,-0.25945234298706055,-0.20083023607730865,0.060239989310503006,0.002354073105379939,-0.31848660111427307,0.028382131829857826,-0.2103348672389984,-0.057565439492464066,0.16713657975196838,-0.09307091683149338,0.11701304465532303,0.10792538523674011,-0.19679445028305054,0.010448713786900043,0.1554974466562271,-0.09593376517295837,0.05890946835279465,0.08001166582107544,-0.03757171705365181,-0.01658323034644127,-0.2143612951040268,0.1863260716199875,0.1493433266878128,0.02821548841893673,0.06629873812198639,-0.13085755705833435,-0.05518415942788124,0.08167713135480881,0.04673919454216957,0.13288767635822296,0.10553745180368423,-0.05392996966838837,0.05504005774855614,-0.08672385662794113,-0.030140798538923264,0.08735235035419464,0.05429929494857788,0.05289502069354057,0.1091851070523262,0.06658439338207245,-0.020356034860014915,0.19769702851772308,-0.10754993557929993,-0.07482393085956573,-0.001066658878698945,-0.14791856706142426,0.11283134669065475,-0.07918750494718552,0.10286109149456024,0.1886371374130249,0.3864147663116455,0.015084617771208286,-0.014645540155470371,-0.09205202013254166,0.06788183748722076,0.0852508470416069,-0.14310279488563538,0.0415058396756649,0.03246369957923889,0.1888887733221054,0.06629008054733276,0.0698181614279747,0.1234801784157753,0.017487268894910812,0.012392406351864338,0.06689771264791489,-0.016153285279870033,-0.044489745050668716,-0.1559360921382904,0.14521129429340363,-0.024233553558588028,-0.2757791578769684,0.012085024267435074,-0.15442483127117157,0.10668356716632843,-0.09058207273483276,-0.016249867156147957,-0.02670113556087017,0.14949053525924683,0.020650163292884827,0.10003495216369629,0.031104478985071182,-0.143179789185524,-0.22009262442588806,-0.08652561157941818,-0.022260289639234543,0.2086571902036667,0.06332732737064362,0.0988941341638565,0.05649367719888687,0.10300501435995102,0.024930201470851898,-0.057840291410684586,0.04978945851325989,-0.1245441883802414,0.1871713101863861,0.022077973932027817,-0.1806516796350479,-0.14821496605873108,-0.38624653220176697,0.016445066779851913,0.09647004306316376,0.1815604269504547,-0.06594018638134003,-0.1590641438961029,-0.09510725736618042,-0.002317257458344102,-0.21398037672042847,-0.014473184943199158,-0.14798860251903534,-0.1857301890850067,-0.09786923974752426,0.04244164004921913,-0.22306180000305176,0.14248628914356232,-0.05861838534474373,-0.08712106943130493,-0.15277494490146637,0.11833252012729645,0.12683998048305511,-0.012425410561263561,-0.10842607170343399,-0.1474614292383194,0.018101666122674942,0.05255584791302681,-0.10289087146520615,0.04040312394499779,0.05904952809214592,-0.03301142901182175,-0.006274244748055935,0.016704192385077477,-0.16217653453350067,0.04117213934659958,-0.13095958530902863,-0.04244222491979599,-0.18414920568466187,-0.2553659975528717,-0.31897908449172974,-0.2195683866739273,0.18873924016952515,0.03915148228406906,-0.07847011089324951,-0.12558946013450623,-0.0195265281945467,-0.028824670240283012,0.030884668231010437,-0.04058077931404114,0.1430709958076477,0.13053515553474426,-0.16084390878677368,-0.04978305846452713,-0.04716086760163307,-0.2645467221736908,0.07868561893701553,0.34383657574653625,0.06883075833320618,0.06029361113905907,-0.01810118369758129,0.17915232479572296,0.049942582845687866,0.05308838561177254,0.11242295056581497,-0.020121077075600624,-0.09705448895692825,0.1078348159790039,0.2265729308128357,0.13904213905334473,-0.15043014287948608,0.06754515320062637,0.2899380326271057,-0.2081422209739685,-0.047519031912088394,-0.019801193848252296,-0.09250003099441528,0.06911781430244446,0.03035704605281353,0.016632579267024994,-0.2438882738351822,0.07319110631942749,-0.061903178691864014,-0.01016499474644661,0.11672555655241013,-0.11817481368780136,-0.23312093317508698,-0.017827043309807777,-0.003429736942052841,-0.029387276619672775,0.04832747206091881,-0.1231394037604332,0.06731826066970825,0.08655630052089691,-0.12668415904045105,0.11208644509315491,0.11982597410678864,-0.04518675431609154,0.06974110752344131,0.16110791265964508,-0.03728080913424492,-0.01473817229270935,-0.22721466422080994,0.019228529185056686,0.016728922724723816,0.25543853640556335,0.010642433539032936,0.06666099280118942,-0.06288937479257584,-0.0331394299864769,-0.058987345546483994,0.12917399406433105,0.14174702763557434,0.03774633631110191,-0.1853950470685959,0.1875264197587967,0.07191096991300583,0.14456064999103546,-0.14452090859413147,-0.027955761179327965,0.2595081925392151,-0.10583268105983734,-0.034952275454998016,-0.04258640483021736,0.04617995768785477,0.29366087913513184,-0.028950173407793045,0.10849392414093018,-0.17338180541992188,0.08373817801475525,0.20293289422988892,-0.1919907182455063,0.06605292111635208,-0.0038502414245158434,0.006757158320397139,0.016866300255060196,0.014668967574834824,-0.05817439779639244,-0.027750279754400253,-0.08509604632854462,-0.22325152158737183,0.11955878138542175,0.004292810335755348,-0.17720867693424225,0.13280321657657623,0.0283890962600708,0.3999287486076355,-0.1265154778957367,0.06840968132019043,-0.17632721364498138,-0.03290674462914467,-0.19513779878616333,0.3578971028327942,-0.14801156520843506,0.03611801192164421,-0.47353070974349976,0.036044083535671234,-0.1112733706831932,-0.08980603516101837,-0.21503271162509918,0.07006468623876572,0.17318536341190338,-0.07868470251560211,0.019869428128004074,0.19516488909721375,-0.002397520700469613,0.0009712715400382876,-0.028561124578118324,-0.19219903647899628,-0.003211037954315543,0.27556031942367554,-0.09766821563243866,-0.01500670239329338,-0.18449103832244873,0.02126205340027809,-0.04049547016620636,0.03928603604435921,0.12371375411748886,0.07833489775657654,0.0859045460820198,-0.008566516451537609,0.017498111352324486,-0.1407318413257599,-0.1936630755662918,-0.12052500993013382,0.019840000197291374,-0.11570746451616287,-0.04871198162436485,0.15493124723434448,0.1982574164867401,0.03370821475982666,-0.1238943561911583,0.00923952553421259,-0.01090187393128872,-0.07219422608613968,-0.05166415870189667,-0.0732642337679863,-0.002690019551664591,-0.04396887123584747,0.10242810845375061,-0.13229110836982727,-0.014850321225821972,-0.0072209276258945465,-0.0303682629019022,-0.2150554656982422,0.10560714453458786,-0.00574092660099268,-0.10894995182752609,-0.13968564569950104,-0.2487921267747879,-0.08111169934272766,-0.02449296973645687,-0.14411450922489166,0.24044843018054962,0.24289679527282715,0.10191541165113449,-0.021602937951683998,0.11142217367887497,-0.001157121267169714,-0.08202306181192398,-0.10933156311511993,-0.026270704343914986,0.0647595152258873,0.011295686475932598,-0.11425108462572098,-0.24877366423606873,-0.22805941104888916,-0.024336714297533035,0.12178865075111389,0.02549871616065502,0.06951617449522018,0.016380393877625465,0.15676730871200562,-0.06518896669149399,0.1193881407380104,0.11058036983013153,0.19273850321769714,0.12672410905361176,0.1477004885673523,-0.024074045941233635,-0.01687127724289894,-0.2655682861804962,-0.16372111439704895,-0.06365836411714554,-0.04346124827861786,0.07167372107505798,0.11554865539073944,0.15421707928180695,-0.1930421143770218,-0.11393006145954132,0.09780696779489517,0.05210442468523979,-0.0523228757083416,-0.06235216557979584,0.0022066740784794092,-0.21597681939601898,0.029899541288614273,0.16969342529773712,0.10256601125001907,0.24778862297534943,-0.15235617756843567,0.0695972740650177,0.031050506979227066,0.06546293199062347,0.03911117836833,-0.10508617013692856,-0.039959441870450974,0.12687581777572632,0.1185789480805397,0.0395830012857914,-0.0842663049697876,0.09211944043636322,0.08651500195264816,-0.2198694944381714,0.037880249321460724,-0.016477875411510468,-0.049852218478918076,-0.15382203459739685,-0.04054646193981171,-0.010530393570661545,-0.07530758529901505,0.04033390060067177,-0.05054257810115814,-0.07358571887016296,-0.19747047126293182,-0.06219704821705818,0.11603119969367981,0.05812834948301315,0.04110976681113243,0.031949736177921295,-0.13712751865386963,-0.45039886236190796,-0.16232624650001526,0.0018576661823317409,0.12168146669864655,0.1008271723985672,0.1514107882976532,-0.13152861595153809,-0.024777861312031746,-0.11428909748792648,-0.10752935707569122,0.08931230008602142,0.237052321434021,-0.028163431212306023,-0.06130364164710045,-0.08820340782403946,-0.009167738258838654,0.11699560284614563,-0.050115957856178284,-0.17306745052337646,-0.21148432791233063,-0.11426839232444763,-0.04320254921913147,0.031139487400650978,-0.018222713842988014,0.09276867657899857,0.04484497755765915,-0.06285511702299118,0.09841527789831161,-0.10618261247873306,0.01420191302895546,-0.1627054512500763,-0.04461191967129707,0.016991909593343735,-0.32147079706192017,-0.13624747097492218,-0.23456987738609314,0.2053040862083435,-0.08600571006536484,0.10463043302297592,0.14545008540153503,-0.04825178533792496,-0.1278582513332367,-0.10713034123182297,-0.22407709062099457,0.08838613331317902,0.03329136595129967,-0.2115921825170517,0.045898426324129105,-0.10861890017986298,-0.04767785966396332,-0.05639922246336937,0.18037955462932587,-0.07232936471700668,0.2952723503112793,-0.20801132917404175,0.10707065463066101,0.14395767450332642,-0.028710147365927696,0.14014114439487457,0.0338749922811985,0.044304072856903076,0.08336812257766724,-0.06991097331047058,-0.06898374855518341,-0.11469004303216934,0.3761534094810486,-0.09257564693689346,-0.1494513899087906,-0.22598983347415924,-0.07147524505853653,0.0036438251845538616,-0.006819124333560467,0.05069291219115257,0.024140315130352974,0.004532940685749054,0.01053734589368105,-0.10754058510065079,-0.04634465277194977,0.11734361946582794,0.27509361505508423,-0.5153849720954895,-0.1541845202445984,0.13043181598186493,0.0853177011013031,0.004835344851016998,0.11415882408618927,-0.12214820832014084,0.17778749763965607,0.15636496245861053,-0.017266439273953438,-0.09687681496143341,-0.0378091000020504,-0.009196302853524685,0.04257988557219505,-0.06003839522600174,0.1541561782360077,0.017931200563907623,-0.08732728660106659,0.03208963945508003,-0.07504857331514359,0.03743575140833855,-0.23601478338241577,0.05878091976046562,0.1467321813106537,-0.21194100379943848,0.015452444553375244,0.15105973184108734,-0.22875557839870453,0.16845344007015228,0.17427551746368408,-0.17116843163967133,0.0502404049038887,0.20176991820335388,0.10549160838127136,0.045419298112392426,0.06618323922157288,-0.06149222329258919,0.1348647028207779,0.20166470110416412,-0.07059076428413391,0.02423546276986599,-0.08081289380788803,-0.08740316331386566,0.034379590302705765,0.08411518484354019,0.024429887533187866,0.021252600476145744,-0.051218193024396896,0.11270081996917725,0.17220240831375122,0.06269164383411407,0.047885261476039886,-0.04252827912569046,-0.08060705661773682,0.11806931346654892,0.06291934847831726,0.17765802145004272,0.0758528932929039,-0.0862237960100174,0.07260113209486008,-0.09120946377515793,-0.15793456137180328,-0.16725336015224457,0.03111710026860237,0.1346815973520279,0.0742548257112503,0.06827596575021744,-0.09134780615568161,0.02026572823524475,0.2167673408985138,-0.15374869108200073,-0.014524170197546482,0.09939390420913696,0.12754376232624054,-0.21177831292152405,-0.11059370636940002,0.09734242409467697,-0.06350579857826233,-0.05308796837925911,-0.10067561268806458,0.0898125097155571,-0.12918499112129211,-0.017455516383051872,0.23535855114459991,-0.026582952588796616,